#mdl#2#2490
#rdr#61/19/0
1:*,
18:u:Tok-1 X=%x[ 0,0],
18:u:tok-1 X=%x[ 0,1],
18:u:tok-1LL=%X[-2,0],
18:u:tok-1 L=%X[-1,0],
18:u:tok-1 R=%X[ 1,0],
18:u:tok-1RR=%X[ 2,0],
27:u:tok-2 L=%X[-1,0]/%X[ 0,0],
27:u:tok-2 R=%X[ 0,0]/%X[ 1,0],
18:*:Fst-1 X=%x[ 0,2],
18:u:Fst-1 R=%x[ 1,2],
27:u:Fst-2 X=%x[ 0,2]/%x[ 0,4],
27:u:Fst-2 R=%x[ 1,2]/%x[ 1,4],
18:*:Lst-1 L=%x[-1,3],
18:u:Lst-1 X=%x[ 0,3],
27:u:Lst-2 L=%x[-1,3]/%x[-1,6],
27:u:Lst-2 X=%x[ 0,3]/%x[ 0,6],
18:u:Pre-1 X=%x[ 0,4],
18:u:Pre-2 X=%x[ 0,5],
18:u:Pre-2 R=%x[ 1,5],
18:u:Suf-1 X=%x[ 0,6],
18:u:Suf-2 L=%x[-1,7],
18:u:Suf-2 X=%x[ 0,7],
18:u:Cap-1 L=%x[-1,8],
18:u:Cap-1 X=%x[ 0,8],
18:u:Cap-1 R=%x[ 1,8],
27:u:Cap-2 L=%x[-1,8]/%x[ 0,8],
27:u:Cap-2 R=%x[ 0,8]/%x[ 1,8],
28:u:Cap-3 L=%x[-1,18]/%x[ 0,8],
18:*:Num-1 L=%x[-1,9],
18:*:Num-1 X=%x[ 0,9],
18:u:Num-1 R=%x[ 1,9],
28:u:Num-2 R=%x[ 0,9]/%x[ 0,17],
28:u:Num-2 R=%x[ 0,9]/%x[ 0,18],
19:u:Nme-1 X=%x[ 0,10],
19:u:Loc-1 X=%x[ 0,11],
19:u:Pub-1 X=%x[ 0,12],
19:u:Jnl-1 X=%x[ 0,13],
19:u:Key-1 L=%x[-1,14],
19:u:Key-1 X=%x[ 0,14],
19:u:Key-1 R=%x[ 1,14],
28:u:Key-2 X=%x[ 0,14]/%x[ 0,8],
29:u:Key-3 L=%x[-1,18]/%x[ 0,14],
29:u:Key-3 x=%x[ 0,14]/%x[ 0,18],
19:u:Pos-1 X=%x[ 0,15],
29:u:Pos-2 L=%x[-1,15]/%x[ 0,15],
29:u:Pos-2 R=%x[ 0,15]/%x[ 1,15],
19:u:Pct-1 L=%x[-1,16],
19:u:Pct-1 X=%x[ 0,16],
19:u:Pct-1 R=%x[ 1,16],
19:u:Brk-1 L=%x[-1,17],
19:u:Brk-1 X=%x[ 0,17],
19:u:Brk-1 R=%x[ 1,17],
19:*:Tmn-1 L=%x[-1,18],
19:u:Tmn-1 X=%x[ 0,18],
19:u:Tmn-1 R=%x[ 1,18],
29:u:Tmn-2 L=%x[-1,14]/%x[ 0,18],
29:u:Tmn-2 R=%x[ 0,18]/%x[ 1,14],
28:u:Tmn-3 X=%x[ 0,18]/%x[ 0,6],
28:u:Tmn-4 R=%x[ 0,18]/%x[ 1,8],
19:u:Id--1 X=%x[ 0,19],
#qrk#11
7:Authors,
4:Year,
5:Title,
6:Series,
4:City,
10:Pagination,
6:Volume,
5:Issue,
4:Book,
9:Publisher,
3:DOI,
#qrk#981
1:*,
14:u:tok-1LL=_x-2,
14:u:tok-1 L=_x-1,
12:u:tok-1 R=a.,
12:*:Fst-1 X=Lu,
12:u:Fst-1 R=Lu,
14:u:Fst-2 X=Lu/B,
14:u:Fst-2 R=Lu/A,
14:*:Lst-1 L=_x-1,
11:u:Lst-1 X=P,
19:u:Lst-2 L=_x-1/_x-1,
13:u:Lst-2 X=P/,,
11:u:Pre-1 X=B,
12:u:Pre-2 X=Br,
12:u:Pre-2 R=A.,
11:u:Suf-1 X=,,
14:u:Suf-2 L=_x-1,
14:u:Cap-1 L=_x-1,
17:u:Cap-1 X=initial,
16:u:Cap-1 R=single,
22:u:Cap-2 L=_x-1/initial,
24:u:Cap-2 R=initial/single,
22:u:Cap-3 L=_x-1/initial,
14:*:Num-1 L=_x-1,
14:*:Num-1 X=none,
14:u:Num-1 R=none,
19:u:Num-2 R=none/none,
19:u:Num-2 R=none/weak,
11:u:Nme-1 X=T,
11:u:Loc-1 X=F,
11:u:Pub-1 X=F,
11:u:Jnl-1 X=F,
14:u:Key-1 L=_x-1,
14:u:Key-1 X=none,
14:u:Key-1 R=none,
22:u:Key-2 X=none/initial,
19:u:Key-3 L=_x-1/none,
19:u:Key-3 x=none/weak,
15:u:Pos-1 X=first,
20:u:Pos-2 L=_x-1/first,
14:u:Pct-1 L=_x-1,
15:u:Pct-1 X=other,
16:u:Pct-1 R=period,
14:u:Brk-1 L=_x-1,
14:u:Brk-1 X=none,
14:u:Brk-1 R=none,
14:*:Tmn-1 L=_x-1,
14:u:Tmn-1 X=weak,
16:u:Tmn-1 R=strong,
19:u:Tmn-2 L=_x-1/weak,
19:u:Tmn-2 R=weak/none,
16:u:Tmn-3 X=weak/,,
21:u:Tmn-4 R=weak/single,
11:u:Id--1 X=F,
12:u:Tok-1 X=A.,
11:u:tok-1 X=a,
14:u:tok-1LL=_x-1,
11:u:Fst-1 R=N,
14:u:Fst-2 X=Lu/A,
13:u:Fst-2 R=N/1,
11:*:Lst-1 L=P,
13:u:Lst-2 L=P/,,
13:u:Lst-2 X=P/.,
11:u:Pre-1 X=A,
12:u:Pre-2 X=A.,
12:u:Pre-2 R=19,
11:u:Suf-1 X=.,
12:u:Suf-2 L=n,,
12:u:Suf-2 X=A.,
17:u:Cap-1 L=initial,
16:u:Cap-1 X=single,
15:u:Cap-1 R=other,
24:u:Cap-2 L=initial/single,
22:u:Cap-2 R=single/other,
21:u:Cap-3 L=weak/single,
14:*:Num-1 L=none,
14:u:Num-1 R=year,
21:u:Num-2 R=none/strong,
11:u:Nme-1 X=F,
14:u:Key-1 L=none,
21:u:Key-2 X=none/single,
19:u:Key-3 L=weak/none,
21:u:Key-3 x=none/strong,
11:u:Pos-1 X=0,
17:u:Pos-2 L=first/0,
13:u:Pos-2 R=0/1,
15:u:Pct-1 L=other,
16:u:Pct-1 X=period,
14:u:Pct-1 R=none,
14:u:Brk-1 L=none,
14:*:Tmn-1 L=weak,
16:u:Tmn-1 X=strong,
14:u:Tmn-1 R=none,
21:u:Tmn-2 L=none/strong,
21:u:Tmn-2 R=strong/none,
18:u:Tmn-3 X=strong/.,
22:u:Tmn-4 R=strong/other,
12:u:tok-1 L=a.,
11:*:Fst-1 X=N,
13:u:Fst-2 X=N/1,
14:u:Fst-2 R=Lu/I,
11:u:Lst-1 X=N,
13:u:Lst-2 L=P/.,
11:u:Pre-1 X=1,
12:u:Pre-2 X=19,
12:u:Suf-2 L=A.,
16:u:Cap-1 L=single,
15:u:Cap-1 X=other,
14:*:Num-1 X=year,
15:u:Num-1 R=roman,
19:u:Num-2 R=year/none,
20:u:Key-2 X=none/other,
21:u:Key-3 L=strong/none,
19:u:Key-3 x=none/none,
11:u:Pos-1 X=1,
13:u:Pos-2 L=0/1,
13:u:Pos-2 R=1/1,
16:u:Pct-1 L=period,
14:u:Pct-1 X=none,
16:*:Tmn-1 L=strong,
14:u:Tmn-1 X=none,
19:u:Tmn-2 L=none/none,
19:u:Tmn-2 R=none/none,
21:u:Tmn-4 R=none/single,
14:u:Fst-2 X=Lu/I,
14:u:Fst-2 R=Lu/C,
11:*:Lst-1 L=N,
12:u:Lst-1 X=Lu,
14:u:Lst-2 X=Lu/I,
11:u:Pre-1 X=I,
11:u:Suf-1 X=I,
15:u:Cap-1 L=other,
17:u:Cap-1 R=initial,
24:u:Cap-2 R=single/initial,
21:u:Cap-3 L=none/single,
14:*:Num-1 L=year,
15:*:Num-1 X=roman,
20:u:Num-2 R=roman/none,
19:u:Key-3 L=none/none,
13:u:Pos-2 L=1/1,
14:u:Pct-1 L=none,
14:*:Tmn-1 L=none,
16:u:Tmn-3 X=none/I,
22:u:Tmn-4 R=none/initial,
14:u:Fst-2 X=Lu/C,
14:u:Fst-2 R=Lu/H,
12:*:Lst-1 L=Lu,
12:u:Lst-1 X=Ll,
14:u:Lst-2 X=Ll/i,
11:u:Pre-1 X=C,
12:u:Pre-2 X=Co,
12:u:Pre-2 R=Ha,
11:u:Suf-1 X=i,
12:u:Suf-2 X=di,
24:u:Cap-2 L=single/initial,
25:u:Cap-2 R=initial/initial,
22:u:Cap-3 L=none/initial,
15:*:Num-1 L=roman,
13:u:Pos-2 R=1/2,
16:u:Tmn-3 X=none/i,
12:u:Fst-1 R=Ll,
14:u:Fst-2 X=Lu/H,
14:u:Fst-2 R=Ll/d,
12:*:Lst-1 L=Ll,
14:u:Lst-2 L=Ll/i,
11:u:Pre-1 X=H,
12:u:Pre-2 X=Ha,
12:u:Pre-2 R=de,
12:u:Suf-2 L=di,
15:u:Cap-1 R=lower,
25:u:Cap-2 L=initial/initial,
23:u:Cap-2 R=initial/lower,
11:u:Pos-1 X=2,
13:u:Pos-2 L=1/2,
13:u:Pos-2 R=2/2,
20:u:Tmn-4 R=none/lower,
12:*:Fst-1 X=Ll,
14:u:Fst-2 X=Ll/d,
14:u:Fst-2 R=Lu/G,
14:u:Lst-2 X=Ll/l,
11:u:Pre-1 X=d,
12:u:Pre-2 X=de,
11:u:Suf-1 X=l,
15:u:Cap-1 X=lower,
23:u:Cap-2 L=initial/lower,
23:u:Cap-2 R=lower/initial,
20:u:Cap-3 L=none/lower,
11:u:Pub-1 X=T,
11:u:Jnl-1 X=T,
20:u:Key-2 X=none/lower,
13:u:Pos-2 L=2/2,
16:u:Tmn-3 X=none/l,
14:u:Fst-2 X=Lu/G,
14:u:Lst-2 L=Ll/l,
14:u:Lst-2 X=Ll/o,
11:u:Pre-1 X=G,
11:u:Suf-1 X=o,
15:u:Cap-1 L=lower,
23:u:Cap-2 L=lower/initial,
13:u:Pos-2 R=2/3,
16:u:Tmn-3 X=none/o,
14:u:Lst-2 L=Ll/o,
11:u:Pos-1 X=3,
13:u:Pos-2 L=2/3,
13:u:Pos-2 R=3/3,
16:u:tok-1 X=genova,
14:u:Fst-2 R=Lu/S,
12:u:Pre-2 X=Ge,
11:u:Loc-1 X=T,
13:u:Pos-2 L=3/3,
24:u:Tmn-4 R=strong/initial,
14:u:Fst-2 X=Lu/S,
11:u:Pre-1 X=S,
24:u:Cap-3 L=strong/initial,
13:u:Pos-2 R=3/4,
11:u:Pos-1 X=4,
13:u:Pos-2 L=3/4,
13:u:Pos-2 R=4/4,
14:u:Fst-2 X=Lu/L,
14:u:Fst-2 R=Lu/M,
11:u:Pre-1 X=L,
12:u:Pre-2 R=Ma,
13:u:Pos-2 L=4/4,
14:u:Fst-2 X=Lu/M,
11:u:Pre-1 X=M,
13:u:Pos-2 R=4/5,
11:u:Pos-1 X=5,
13:u:Pos-2 L=4/5,
13:u:Pos-2 R=5/5,
13:u:Pos-2 L=5/5,
13:u:Pos-2 R=5/6,
12:u:Pre-2 R=Mi,
11:u:Pos-1 X=6,
13:u:Pos-2 L=5/6,
13:u:Pos-2 R=6/6,
14:u:Fst-2 R=Lu/P,
14:u:Lst-2 X=Ll/e,
12:u:Pre-2 X=Mi,
11:u:Suf-1 X=e,
12:u:Suf-2 X=le,
13:u:Pos-2 L=6/6,
16:u:Tmn-3 X=none/e,
14:u:Fst-2 X=Lu/P,
14:u:Lst-2 L=Ll/e,
11:u:Pre-1 X=P,
12:u:Pre-2 X=Pr,
12:u:Suf-2 L=le,
13:u:Pos-2 R=6/7,
16:u:Tok-1 X=Genova,
15:u:tok-1LL=mille,
16:u:tok-1 L=presso,
16:u:tok-1 R=1-112,,
15:u:tok-1RR=figs.,
23:u:tok-2 L=presso/genova,
23:u:tok-2 R=genova/1-112,,
14:u:Lst-2 X=Ll/a,
12:u:Pre-2 R=1-,
11:u:Suf-1 X=a,
12:u:Suf-2 L=so,
12:u:Suf-2 X=va,
23:u:Cap-2 R=initial/other,
17:u:Num-1 R=numeric,
11:u:Pos-1 X=7,
13:u:Pos-2 L=6/7,
13:u:Pos-2 R=7/7,
16:u:Pct-1 R=hyphen,
14:u:Tmn-1 R=weak,
16:u:Tmn-3 X=none/a,
20:u:Tmn-4 R=none/other,
14:u:Fst-2 R=Ll/f,
14:u:Lst-2 L=Ll/a,
12:u:Pre-2 R=fi,
23:u:Cap-2 L=initial/other,
21:u:Cap-2 R=other/lower,
20:u:Cap-3 L=none/other,
17:*:Num-1 X=numeric,
22:u:Num-2 R=numeric/none,
22:u:Num-2 R=numeric/weak,
13:u:Pos-2 L=7/7,
16:u:Pct-1 X=hyphen,
19:u:Tmn-2 L=none/weak,
20:u:Tmn-4 R=weak/lower,
12:u:Suf-2 X=s.,
21:u:Cap-2 L=other/lower,
21:u:Cap-2 R=lower/other,
20:u:Cap-3 L=weak/lower,
17:*:Num-1 L=numeric,
13:u:Pos-2 R=7/8,
16:u:Pct-1 L=hyphen,
14:u:Fst-2 R=Ll/p,
21:u:Cap-2 L=lower/other,
21:u:Cap-2 R=other/other,
11:u:Pos-1 X=8,
13:u:Pos-2 L=7/8,
13:u:Pos-2 R=8/8,
20:u:Tmn-4 R=weak/other,
14:u:Fst-2 X=Ll/p,
11:u:Pre-1 X=p,
14:u:Cap-1 R=caps,
21:u:Cap-2 L=other/other,
20:u:Cap-3 L=weak/other,
24:u:Num-2 R=numeric/strong,
13:u:Pos-2 L=8/8,
14:u:Cap-1 X=caps,
13:u:Pos-2 R=8/9,
14:u:Cap-1 L=caps,
11:u:Pos-1 X=9,
13:u:Pos-2 L=8/9,
13:u:Pos-2 R=9/9,
11:u:Fst-1 R=P,
12:u:Suf-2 X=44,
15:*:Num-1 X=idnum,
20:u:Num-2 R=idnum/none,
13:u:Pos-2 L=9/9,
14:u:tok-1RR=_x+1,
11:*:Fst-1 X=P,
13:u:Lst-2 L=N/4,
15:*:Num-1 L=idnum,
16:u:Pos-2 R=9/last,
14:u:tok-1 R=_x+1,
14:u:tok-1RR=_x+2,
14:u:Fst-1 R=_x+1,
19:u:Fst-2 R=_x+1/_x+1,
14:u:Pre-2 R=_x+1,
14:u:Cap-1 R=_x+1,
20:u:Cap-2 R=other/_x+1,
14:u:Num-1 R=_x+1,
14:u:Key-1 R=_x+1,
14:u:Pos-1 X=last,
16:u:Pos-2 L=9/last,
19:u:Pos-2 R=last/_x+1,
14:u:Pct-1 R=_x+1,
14:u:Brk-1 R=_x+1,
14:u:Tmn-1 R=_x+1,
19:u:Tmn-2 R=none/_x+1,
19:u:Tmn-4 R=none/_x+1,
14:u:Fst-2 R=Lu/T,
14:u:Fst-2 R=Lu/N,
23:u:Cap-2 R=other/initial,
14:u:Fst-2 X=Lu/N,
14:u:Fst-2 R=Ll/o,
14:u:Lst-2 X=Ll/s,
11:u:Pre-1 X=N,
12:u:Pre-2 X=No,
11:u:Suf-1 X=s,
12:u:Suf-2 X=es,
23:u:Cap-2 L=other/initial,
16:u:Tmn-3 X=none/s,
14:u:Fst-2 X=Ll/o,
14:u:Lst-2 L=Ll/s,
14:u:Lst-2 X=Ll/n,
11:u:Pre-1 X=o,
11:u:Suf-1 X=n,
12:u:Suf-2 L=es,
12:u:Suf-2 X=on,
15:u:Pct-1 R=other,
16:u:Tmn-3 X=none/n,
14:u:Fst-2 R=Ll/t,
14:u:Lst-2 L=Ll/n,
12:u:Suf-2 L=on,
14:u:Fst-2 X=Ll/t,
11:u:Pre-1 X=t,
21:u:Cap-2 R=lower/lower,
13:u:tok-1RR=the,
14:u:Lst-2 X=Ll/d,
11:u:Suf-1 X=d,
21:u:Cap-2 L=lower/lower,
16:u:Tmn-3 X=none/d,
13:u:tok-1 R=the,
14:u:Lst-2 L=Ll/d,
12:u:Pre-2 R=th,
13:u:Tok-1 X=the,
13:u:tok-1 X=the,
12:u:tok-1RR=of,
12:u:Pre-2 X=th,
12:u:Suf-2 X=he,
12:u:tok-1LL=in,
13:u:tok-1 L=the,
12:u:tok-1 R=of,
14:u:Fst-2 X=Ll/c,
11:u:Pre-1 X=c,
12:u:Pre-2 R=of,
12:u:Suf-2 L=he,
12:u:Tok-1 X=of,
12:u:tok-1 X=of,
13:u:tok-1LL=the,
14:u:Fst-2 R=Ll/s,
14:u:Lst-2 X=Ll/f,
12:u:Pre-2 X=of,
11:u:Suf-1 X=f,
12:u:Suf-2 X=of,
16:u:Tmn-3 X=none/f,
12:u:tok-1 L=of,
14:u:Fst-2 X=Ll/s,
14:u:Lst-2 L=Ll/f,
11:u:Pre-1 X=s,
12:u:Pre-2 X=sp,
12:u:Suf-2 L=of,
12:u:tok-1LL=of,
12:u:Pre-2 R=Mu,
17:u:Tok-1 X=Museum.,
16:u:tok-1 X=museum,
14:u:Fst-2 R=Lu/R,
12:u:Pre-2 X=Mu,
12:u:Suf-2 X=m.,
14:u:Fst-2 X=Lu/R,
11:u:Pre-1 X=R,
12:u:Pre-2 X=Re,
16:u:tok-2 R=of/the,
16:u:tok-1RR=museum,
16:u:tok-2 L=of/the,
16:u:tok-1 R=museum,
16:u:Tok-1 X=Museum,
14:u:Lst-2 X=Ll/m,
11:u:Suf-1 X=m,
12:u:Suf-2 X=um,
16:u:Tmn-3 X=none/m,
16:u:tok-1 L=museum,
14:u:Lst-2 L=Ll/m,
12:u:Suf-2 L=um,
16:*:Num-1 X=single,
21:u:Num-2 R=single/none,
13:u:Fst-2 R=N/2,
16:*:Num-1 L=single,
15:u:Num-1 R=range,
13:u:Fst-2 X=N/2,
13:u:Lst-2 X=N/8,
11:u:Pre-1 X=2,
11:u:Suf-1 X=8,
15:*:Num-1 X=range,
20:u:Num-2 R=range/none,
16:u:Tmn-3 X=none/8,
14:u:tok-1 X=sars,
12:u:Pre-2 X=Sa,
22:u:Cap-2 R=initial/caps,
22:u:Cap-2 L=initial/caps,
12:u:Suf-2 L=O.,
12:u:Pre-2 R=Tr,
12:u:Suf-2 X=ae,
15:u:Tok-1 X=Trudy,
15:u:tok-1 X=trudy,
14:u:tok-1LL=1907,
17:u:tok-1 L=mysidae,
20:u:tok-1 R=kaspiiskoi,
21:u:tok-1RR=ekspeditsii,
23:u:tok-2 L=mysidae/trudy,
26:u:tok-2 R=trudy/kaspiiskoi,
14:u:Fst-2 R=Lu/K,
14:u:Lst-2 X=Ll/y,
12:u:Pre-2 X=Tr,
12:u:Pre-2 R=Ka,
11:u:Suf-1 X=y,
12:u:Suf-2 L=ae,
12:u:Suf-2 X=dy,
16:u:Tmn-3 X=none/y,
14:u:Fst-2 R=Lu/E,
14:u:Lst-2 L=Ll/y,
21:u:Tok-1 X=Ekspeditsii,
21:u:tok-1 X=ekspeditsii,
15:u:tok-1LL=trudy,
20:u:tok-1 L=kaspiiskoi,
17:u:tok-1 R=243-313,
32:u:tok-2 L=kaspiiskoi/ekspeditsii,
29:u:tok-2 R=ekspeditsii/243-313,
14:u:Fst-2 X=Lu/E,
11:u:Pre-1 X=E,
12:u:Pre-2 X=Ek,
12:u:Suf-2 L=oi,
12:u:Suf-2 X=ii,
13:u:Pos-2 L=6/8,
16:u:Pos-2 R=8/last,
13:u:Lst-2 X=N/3,
11:u:Suf-1 X=3,
16:u:Tmn-3 X=none/3,
14:u:Lst-2 X=Ll/t,
11:u:Suf-1 X=t,
12:u:Suf-2 X=nt,
16:u:Tmn-3 X=none/t,
14:u:Lst-2 L=Ll/t,
12:u:Suf-2 L=nt,
12:u:Pre-2 X=Af,
12:u:Suf-2 L=ca,
14:u:Fst-2 R=Lu/U,
20:u:Cap-2 R=lower/caps,
19:u:Tmn-4 R=none/caps,
14:u:Fst-2 X=Lu/U,
11:u:Pre-1 X=U,
12:u:Suf-2 X=S.,
22:u:Cap-2 R=caps/initial,
19:u:Cap-3 L=none/caps,
12:u:Pre-2 X=Na,
12:u:Suf-2 X=al,
22:u:Cap-2 L=caps/initial,
12:u:Suf-2 L=al,
16:u:Num-1 R=double,
13:u:Lst-2 X=N/0,
11:u:Suf-1 X=0,
16:*:Num-1 X=double,
21:u:Num-2 R=double/none,
16:u:Tmn-3 X=none/0,
16:*:Num-1 L=double,
14:u:Fst-2 X=Lu/D,
14:u:Lst-2 X=Ll/g,
11:u:Pre-1 X=D,
11:u:Suf-1 X=g,
12:u:Suf-2 X=rg,
16:u:Tmn-3 X=none/g,
14:u:Lst-2 L=Ll/g,
13:u:Pre-2 R=Ré,
12:u:tok-1LL=p.,
12:u:tok-1RR=de,
13:u:Lst-2 L=N/8,
12:u:Suf-2 X=te,
12:u:tok-1 R=de,
12:u:Suf-2 L=te,
12:u:Tok-1 X=de,
12:u:tok-1 X=de,
12:u:Suf-2 X=de,
12:u:tok-1 L=de,
12:u:Suf-2 L=de,
22:u:Num-2 R=roman/strong,
12:u:tok-1LL=de,
12:u:tok-1LL=m.,
12:u:Suf-2 X=en,
12:u:Suf-2 L=en,
17:u:tok-1RR=journal,
14:u:Fst-2 X=Lu/O,
11:u:Pre-1 X=O,
17:u:tok-1 R=journal,
12:*:Fst-1 X=Ps,
14:u:Fst-2 X=Ps/(,
11:u:Pre-1 X=(,
12:u:Pre-2 R=Jo,
12:u:Suf-2 X=).,
21:u:Num-2 R=year/strong,
17:u:Key-1 R=journal,
16:u:Brk-1 X=parens,
24:u:Tmn-2 R=strong/journal,
17:u:Tok-1 X=Journal,
17:u:tok-1 X=journal,
14:u:Fst-2 X=Lu/J,
11:u:Pre-1 X=J,
12:u:Pre-2 X=Jo,
12:u:Suf-2 L=).,
17:u:Key-1 X=journal,
25:u:Key-2 X=journal/initial,
22:u:Key-3 x=journal/none,
16:u:Brk-1 L=parens,
17:u:tok-1 L=journal,
17:u:Key-1 L=journal,
22:u:Tmn-2 L=journal/none,
12:u:Suf-2 L=ie,
16:u:tok-1 R=plates,
13:u:Lst-2 L=N/6,
16:u:tok-1 X=plates,
16:u:tok-1 L=plates,
15:u:tok-1 X=scott,
12:u:tok-1RR=a.,
13:u:Key-1 R=and,
11:u:Tok-1 X=&,
15:u:tok-1 X=BLANK,
13:u:Fst-2 X=P/&,
13:u:Lst-2 X=P/&,
11:u:Pre-1 X=&,
11:u:Pre-2 X=&,
11:u:Suf-1 X=&,
11:u:Suf-2 X=&,
13:u:Key-1 X=and,
19:u:Key-2 X=and/other,
20:u:Key-3 L=strong/and,
18:u:Key-3 x=and/none,
13:u:Pct-1 X=amp,
16:u:Tmn-3 X=none/&,
14:u:tok-1RR=1901,
13:u:Key-1 L=and,
14:u:tok-1 R=1901,
12:u:Pre-2 R=so,
12:u:Pre-2 X=so,
12:u:Suf-2 X=me,
12:u:Suf-2 L=me,
14:u:Lst-2 L=Ll/c,
12:u:Suf-2 L=ic,
12:u:Suf-2 X=as,
14:u:Fst-2 R=Lu/B,
14:u:Fst-2 R=Lu/F,
12:u:Suf-2 X=ce,
20:u:Tok-1 X=F.R.S.G.S.,
15:u:tok-1 X=frsgs,
12:u:tok-1LL=s.,
15:u:tok-1 L=bruce,
16:u:tok-1 R=annals,
13:u:tok-1RR=and,
26:u:tok-2 L=bruce/f.r.s.g.s.,
27:u:tok-2 R=f.r.s.g.s./annals,
14:u:Fst-2 X=Lu/F,
11:u:Pre-1 X=F,
12:u:Pre-2 X=F.,
12:u:Pre-2 R=An,
12:u:Suf-2 L=ce,
14:u:Fst-2 R=Ll/a,
12:u:Pre-2 X=An,
18:u:Tmn-2 R=none/and,
14:u:Fst-2 X=Ll/a,
11:u:Pre-1 X=a,
12:u:Suf-2 X=nd,
19:u:Key-2 X=and/lower,
18:u:Key-3 L=none/and,
22:u:Tmn-2 R=none/journal,
22:u:Key-3 L=none/journal,
18:u:Tmn-2 L=and/none,
13:u:tok-1LL=and,
13:u:Fst-2 X=N/3,
11:u:Pre-1 X=3,
12:u:Lst-1 X=Pe,
14:u:Lst-2 X=Pe/),
11:u:Suf-1 X=),
12:u:Suf-2 X=1),
18:u:Tmn-3 X=strong/),
22:u:tok-1LL=dautzenberg,,
12:u:Pre-2 X=Di,
14:u:Fst-2 R=Ll/n,
12:u:Pre-2 R=no,
12:u:tok-1RR=du,
14:u:Fst-2 X=Ll/n,
11:u:Pre-1 X=n,
12:u:Pre-2 R=pr,
12:u:tok-1 R=du,
12:u:Pre-2 R=du,
12:u:Tok-1 X=du,
12:u:tok-1 X=du,
14:u:Lst-2 X=Ll/u,
12:u:Pre-2 X=du,
11:u:Suf-1 X=u,
12:u:Suf-2 X=du,
16:u:Tmn-3 X=none/u,
19:u:tok-1LL=provenant,
12:u:tok-1LL=du,
13:u:Lst-2 X=N/9,
11:u:Suf-1 X=9,
16:u:Tmn-3 X=none/9,
12:u:Pre-2 R=su,
14:u:Fst-2 R=Ll/l,
14:u:Lst-2 X=Ll/r,
12:u:Pre-2 R=le,
11:u:Suf-1 X=r,
16:u:Tmn-3 X=none/r,
14:u:Fst-2 X=Ll/l,
14:u:Lst-2 L=Ll/r,
11:u:Pre-1 X=l,
12:u:Pre-2 X=le,
12:u:tok-1RR=la,
12:u:tok-1 R=la,
15:u:tok-2 R=de/la,
12:u:Pre-2 R=la,
12:u:Tok-1 X=la,
12:u:tok-1 X=la,
15:u:tok-2 L=de/la,
12:u:Pre-2 X=la,
12:u:Pre-2 R=Me,
12:u:Suf-2 X=la,
12:u:Suf-2 X=er,
13:u:Lst-2 X=P/:,
11:u:Suf-1 X=:,
12:u:Suf-2 L=er,
23:u:Num-2 R=none/moderate,
15:u:Pct-1 X=colon,
18:u:Tmn-1 X=moderate,
23:u:Tmn-2 L=none/moderate,
23:u:Tmn-2 R=moderate/none,
20:u:Tmn-3 X=moderate/:,
11:u:Id--1 X=T,
18:*:Tmn-1 L=moderate,
22:u:Tmn-4 R=strong/lower,
12:u:Suf-2 X=is,
22:u:Cap-3 L=strong/lower,
12:u:Suf-2 L=is,
14:u:Tok-1 X=Sars,
17:u:tok-1LL=similis,
15:u:tok-1 L=g.-o.,
19:u:tok-1 R=mémoires,
20:u:tok-2 L=g.-o./sars,
24:u:tok-2 R=sars/mémoires,
13:u:Pre-2 R=Mé,
12:u:Suf-2 X=rs,
19:u:tok-1RR=société,
19:u:tok-1 R=société,
22:u:tok-2 R=la/société,
12:u:Pre-2 R=So,
17:u:tok-1 X=societe,
12:u:Pre-2 X=So,
12:u:Pre-2 R=Be,
14:u:Fst-2 R=Lu/X,
12:u:Pre-2 X=Be,
15:u:Key-1 R=roman,
14:u:Fst-2 X=Lu/X,
11:u:Pre-1 X=X,
12:u:Suf-2 X=II,
15:u:Key-1 X=roman,
20:u:Key-2 X=roman/caps,
20:u:Key-3 x=roman/none,
15:u:Key-1 L=roman,
20:u:Tmn-2 L=roman/none,
12:u:tok-1 L=l.,
12:u:Suf-2 L=L.,
13:u:Lst-2 L=N/3,
12:u:Pre-2 X=Ca,
17:u:tok-1RR=annales,
12:u:Pre-2 X=IV,
15:u:Tok-1 X=liste,
15:u:tok-1 X=liste,
19:u:tok-1LL=calvados.,
14:u:tok-1 L=ivme,
17:u:tok-1 R=annales,
20:u:tok-2 L=ivme/liste,
23:u:tok-2 R=liste/annales,
12:u:Pre-2 X=li,
12:u:tok-1 R=63,
13:u:Fst-2 R=N/6,
12:u:Pre-2 R=63,
13:u:tok-1RR=new,
13:u:tok-1 R=new,
13:u:tok-1 X=new,
14:u:Lst-2 X=Ll/w,
11:u:Suf-1 X=w,
12:u:Suf-2 X=ew,
16:u:Tmn-3 X=none/w,
13:u:tok-1 L=new,
14:u:Lst-2 L=Ll/w,
12:u:Suf-2 L=ew,
12:u:Suf-2 X=us,
23:u:tok-1 X=harpacticoida,
18:u:tok-1 L=copepoda,
12:u:Suf-2 L=da,
18:u:tok-1LL=copepoda,
22:u:Key-3 x=roman/strong,
12:u:Suf-2 L=I.,
21:u:Num-2 R=none/parens,
12:u:Tok-1 X=An,
12:u:tok-1 X=an,
17:u:tok-1 R=account,
20:u:tok-2 R=an/account,
12:u:Pre-2 R=Ac,
12:u:Suf-2 X=An,
17:u:Tok-1 X=Account,
12:u:Pre-2 X=Ac,
17:u:Tok-1 X=Norway,,
16:u:tok-1 X=norway,
19:u:tok-1LL=crustacea,
14:u:tok-1 R=with,
15:u:tok-1RR=short,
20:u:tok-2 L=of/norway,,
22:u:tok-2 R=norway,/with,
14:u:Fst-2 R=Ll/w,
12:u:Pre-2 R=wi,
12:u:Suf-2 X=y,,
14:u:Tok-1 X=with,
14:u:tok-1 X=with,
17:u:tok-1 L=norway,,
15:u:tok-1 R=short,
22:u:tok-1RR=descriptions,
22:u:tok-2 L=norway,/with,
20:u:tok-2 R=with/short,
14:u:Fst-2 X=Ll/w,
11:u:Pre-1 X=w,
12:u:Pre-2 X=wi,
12:u:Pre-2 R=sh,
12:u:Suf-2 L=y,,
12:u:Suf-2 X=th,
12:u:Suf-2 X=ns,
12:u:Suf-2 L=ns,
17:u:tok-1RR=species,
17:u:tok-1 R=species,
16:u:tok-1RR=bergen,
21:u:tok-2 R=the/species,
17:u:Tok-1 X=species,
17:u:tok-1 X=species,
13:u:tok-1LL=all,
16:u:tok-1 R=bergen,
21:u:tok-2 L=the/species,
24:u:tok-2 R=species/bergen,
16:u:Tok-1 X=Bergen,
16:u:tok-1 X=bergen,
17:u:tok-1LL=species,
16:u:tok-1 L=bergen,
11:u:tok-1RR=5,
23:u:tok-2 L=bergen/museum,
23:u:tok-2 R=museum/bergen,
16:u:tok-1LL=bergen,
11:u:tok-1 R=5,
18:u:tok-1RR=305-336,,
23:u:tok-2 L=museum/bergen,
18:u:tok-2 R=bergen/5,
11:u:Pre-2 R=5,
13:u:Lst-2 L=N/5,
12:u:Suf-2 X=ng,
12:u:Suf-2 L=ng,
31:u:Num-2 R=numeric/closing-paren,
23:u:Brk-1 X=closing-paren,
32:u:Tok-1 X=Fuyusei-Tokyakurui.(1),
28:u:tok-1 X=fuyuseitokyakurui1,
23:u:tok-1LL=free-swimming,
23:u:tok-1 L=copepoda.(1).,
18:u:tok-1 R=hokkaido,
19:u:tok-1RR=fisheries,
46:u:tok-2 L=copepoda.(1)./fuyusei-tokyakurui.(1),
41:u:tok-2 R=fuyusei-tokyakurui.(1)/hokkaido,
12:u:Pre-2 X=Fu,
12:u:Pre-2 R=Ho,
12:*:Lst-1 L=Pe,
12:u:Pre-2 R=Fi,
19:u:tok-1 X=fisheries,
12:u:Pre-2 X=In,
14:u:tok-2 L=p./&,
21:u:tok-1LL=description,
14:u:Fst-2 R=Lu/Z,
12:u:Pre-2 R=Zo,
14:u:Fst-2 X=Lu/Z,
11:u:Pre-1 X=Z,
12:u:Pre-2 X=Zo,
20:u:tok-2 R=journal/of,
12:u:Pre-2 R=Un,
12:u:Pre-2 X=Un,
12:u:Suf-2 L=n.,
12:u:Suf-2 X=ty,
12:u:Suf-2 L=ty,
16:u:tok-1 X=london,
12:u:Pre-2 X=Lo,
16:u:Tok-1 X=Second,
16:u:tok-1 X=second,
18:u:tok-1LL=atlantic,
15:u:tok-1 L=slope,
21:u:tok-1 R=supplement.,
20:u:tok-1RR=fisheries,,
22:u:tok-2 L=slope/second,
28:u:tok-2 R=second/supplement.,
12:u:Suf-2 L=pe,
16:u:Key-1 R=volume,
21:u:Tmn-2 R=none/volume,
21:u:Tok-1 X=supplement.,
20:u:tok-1 X=supplement,
15:u:tok-1LL=slope,
16:u:tok-1 L=second,
20:u:tok-1 R=fisheries,,
18:u:tok-1RR=ireland,,
28:u:tok-2 L=second/supplement.,
32:u:tok-2 R=supplement./fisheries,,
12:u:Suf-2 X=t.,
16:u:Key-1 X=volume,
22:u:Key-2 X=volume/lower,
21:u:Key-3 L=none/volume,
23:u:Key-3 x=volume/strong,
12:u:Suf-2 L=t.,
12:u:Pre-2 X=I-,
12:u:Pre-2 R=ne,
13:u:Tok-1 X=new,
12:u:Pre-2 X=ne,
20:u:tok-1RR=university,
20:u:tok-1 R=university,
20:u:Tok-1 X=University,
20:u:tok-1 X=university,
20:u:tok-1RR=california,
23:u:tok-2 R=university/of,
11:u:tok-1RR=6,
13:u:tok-1LL=der,
13:u:tok-1LL=des,
12:u:Pre-2 X=Mo,
12:u:Suf-2 X=e.,
12:u:Pre-2 X=10,
15:*:Num-1 L=range,
12:u:Suf-2 X=ar,
12:u:Suf-2 L=ar,
12:u:Pre-2 X=Bo,
12:u:Suf-2 X=V.,
26:u:Tmn-4 R=moderate/initial,
16:u:Tok-1 X=London,
17:u:tok-1 L=foreign,
12:u:tok-1 R=60,
24:u:tok-2 L=foreign/london,
19:u:tok-2 R=london/60,
12:u:Pre-2 R=60,
12:u:Suf-2 L=gn,
15:u:Tok-1 X=Bull.,
14:u:tok-1 X=bull,
23:u:tok-1LL=pholadiformis,
18:u:tok-1 R=séances,
14:u:tok-1RR=soc.,
18:u:tok-2 L=l./bull.,
24:u:tok-2 R=bull./séances,
13:u:Pre-2 R=Sé,
12:u:Suf-2 X=l.,
12:u:Suf-2 L=l.,
13:u:Tok-1 X=In:,
14:u:tok-1LL=1904,
18:u:tok-1 L=poissons,
20:u:tok-1 R=résultats,
22:u:tok-2 L=poissons/in:,
24:u:tok-2 R=in:/résultats,
12:u:Suf-2 X=n:,
20:u:Key-2 X=in/initial,
21:u:Key-3 x=in/moderate,
14:u:Fst-2 X=Lu/V,
11:u:Pre-1 X=V,
24:u:Tok-1 X=1897-1898-1899,
22:u:tok-1 X=189718981899,
17:u:tok-1LL=belgica,
14:u:tok-1 R=sous,
12:u:tok-1RR=le,
27:u:tok-2 L=en/1897-1898-1899,
29:u:tok-2 R=1897-1898-1899/sous,
12:u:Suf-2 X=99,
12:u:Tok-1 X=le,
12:u:tok-1LL=le,
16:u:Tok-1 X=Anvers,
16:u:tok-1 X=anvers,
21:u:tok-1LL=(1901-1913),
19:u:tok-1 L=buschmann,
14:u:tok-1 R=240,,
26:u:tok-2 L=buschmann/anvers,
21:u:tok-2 R=anvers/240,,
12:u:Suf-2 L=nn,
12:u:Suf-2 L=15,
12:u:Pre-2 R=Su,
12:u:Pre-2 X=Su,
18:u:Tok-1 X=Vidensk.,
17:u:tok-1 X=vidensk,
20:u:tok-1LL=freeliving,
19:u:tok-1 L=nematodes,
15:u:tok-1 R=medd.,
14:u:tok-1RR=dan.,
28:u:tok-2 L=nematodes/vidensk.,
24:u:tok-2 R=vidensk./medd.,
12:u:Pre-2 X=Vi,
12:u:Suf-2 X=k.,
15:u:Tok-1 X=Medd.,
14:u:tok-1 X=medd,
19:u:tok-1LL=nematodes,
18:u:tok-1 L=vidensk.,
14:u:tok-1 R=dan.,
20:u:tok-1RR=naturhist.,
24:u:tok-2 L=vidensk./medd.,
20:u:tok-2 R=medd./dan.,
12:u:Suf-2 L=k.,
12:u:Suf-2 X=d.,
20:u:Tok-1 X=Middelburg,
20:u:tok-1 X=middelburg,
20:u:tok-1LL=naturhist.,
16:u:tok-1 L=foren.,
18:u:tok-1RR=213-256,,
27:u:tok-2 L=foren./middelburg,
23:u:tok-2 R=middelburg/63,
17:u:Tok-1 X=Bergens,
17:u:tok-1 X=bergens,
23:u:tok-1 L=harpacticoida,
31:u:tok-2 L=harpacticoida/bergens,
24:u:tok-2 R=bergens/museum,
15:u:Tok-1 X=Canal,
15:u:tok-1 X=canal,
14:u:tok-1RR=suez,
14:u:Tok-1 X=Suez,
14:u:tok-1 X=suez,
15:u:tok-1LL=canal,
18:u:tok-1 R=bulletin,
17:u:tok-2 L=de/suez,
23:u:tok-2 R=suez/bulletin,
14:u:Lst-2 X=Ll/z,
11:u:Suf-1 X=z,
12:u:Suf-2 X=ez,
16:u:Tmn-3 X=none/z,
16:u:tok-1 R=nature,
13:u:tok-1RR=113,
20:u:tok-2 L=suez/canal,
22:u:tok-2 R=canal/nature,
19:u:Num-2 R=quad/none,
14:*:Num-1 L=quad,
26:u:Tok-1 X=10.1038/113714b0,
24:u:tok-1 X=101038113714b0,
14:u:tok-1LL=2846,
17:u:tok-1 L=714-715,
34:u:tok-2 L=714-715/10.1038/113714b0,
31:u:tok-2 R=10.1038/113714b0/_x+1,
12:u:Suf-2 X=b0,
0=9.341709e-02
2=1.011631e-01
3=3.102849e-02
4=-2.116484e-02
5=9.978743e-02
8=-2.586446e-02
9=-3.063714e-02
10=-1.945461e-02
11=3.876733e-01
12=4.776711e-01
13=-2.697739e-01
14=-2.111684e-01
16=-1.383898e-01
19=-1.552015e-02
24=2.459271e-01
25=-5.117411e-02
27=-2.067661e-02
34=-6.863316e-02
35=5.855709e-01
36=-2.413435e-02
37=-5.933500e-02
39=-6.746232e-02
40=-2.928621e-02
42=-3.221619e-03
44=-1.050039e-01
45=-5.755591e-02
46=-8.632035e-01
47=5.862224e-01
48=1.715966e-02
49=-2.515303e-01
50=6.241855e-01
52=-3.322253e-01
53=-2.583806e-03
57=-9.420242e-03
60=3.157295e-02
61=1.113837e-01
66=-6.792587e-02
68=-1.859606e-03
69=-1.354429e-01
71=7.101615e-01
72=-1.748624e-02
73=-9.208984e-03
74=-1.039944e-02
76=5.376284e-02
79=-4.867875e-02
80=-3.509788e-02
82=9.028590e-02
83=-9.612124e-02
84=4.300605e-01
93=2.155436e-01
99=-8.048473e-03
101=-1.717024e-02
107=7.101545e-01
108=1.059368e-02
112=-3.167945e-02
113=-1.018070e-01
114=1.347483e-01
115=-6.150394e-03
119=1.126476e-01
132=1.516410e-01
143=1.516410e-01
154=4.336565e-02
157=1.415120e-04
165=1.743158e-01
166=-1.406236e-01
167=1.160533e-02
168=7.294426e-02
169=8.665582e-02
170=-7.365830e-02
174=5.520920e-02
176=3.340736e-01
178=-1.068383e-01
179=-7.850664e-02
181=-1.166371e-02
189=8.416072e-01
190=-2.412389e-02
198=-1.359775e-01
200=1.342200e-01
201=7.283040e-01
202=-6.938523e-03
203=-4.580656e-02
206=3.761198e-04
207=-1.654235e-03
209=-9.671793e-02
211=-2.577473e-01
212=1.605523e-01
214=-4.451214e-02
215=4.944377e-02
217=-2.809234e-02
231=-8.126432e-03
233=-5.854991e-02
234=-5.437855e-02
236=1.063750e-01
266=-3.115954e-03
267=-5.709959e-02
272=1.823941e-01
273=2.904105e-02
277=-1.602813e-03
278=-4.432459e-02
279=2.136682e-01
284=1.490654e-01
297=7.111045e-02
299=1.594629e-01
300=4.953639e-02
301=-2.647455e-01
302=-1.415186e-01
303=-5.174420e-02
304=-1.133563e-01
305=-1.210523e-03
306=8.205022e-02
310=-2.189878e-01
311=-5.293502e-04
312=4.281691e-02
316=-5.579293e-03
317=9.400003e-01
319=3.428992e-03
321=1.232864e-02
322=-1.616492e-01
327=2.001929e-02
330=1.516410e-01
462=1.959883e-01
463=-8.976479e-02
464=5.951950e-02
465=4.235877e-02
468=-1.136076e-01
469=-5.933572e-02
470=-2.842351e-02
473=1.516410e-01
484=3.286528e-02
487=-1.512348e-02
489=1.239390e-01
490=-1.406425e-02
497=-2.189878e-01
498=-5.293502e-04
499=4.281691e-02
503=-5.579293e-03
504=9.400003e-01
508=4.513783e-03
509=-2.590194e-04
517=5.082038e-02
520=1.391451e-04
528=3.286528e-02
531=-1.512348e-02
533=1.239390e-01
534=-1.406425e-02
539=1.516410e-01
550=1.516410e-01
561=1.791676e-03
563=-2.044980e-02
564=8.381844e-02
565=7.953035e-02
566=-2.194121e-01
567=-1.289825e-01
568=-7.183978e-02
569=5.173681e-03
570=6.682869e-02
572=1.759356e-01
575=-2.365364e-03
583=1.516410e-01
594=2.211138e-01
605=1.516410e-01
616=1.516410e-01
748=1.151584e-01
749=-2.524999e-01
750=4.023211e-02
751=1.219735e-01
752=4.697754e-02
753=-3.690532e-03
755=-2.135973e-01
756=-2.137816e-02
757=5.205593e-02
758=-3.648999e-03
759=3.267030e-01
760=-1.094019e-03
761=-1.534852e-01
762=-1.411248e-01
764=-1.544879e-02
772=4.091494e-01
773=-3.659908e-02
781=-1.615981e-01
783=4.230910e-01
784=8.610569e-02
785=-1.862590e-02
790=-3.320123e-03
792=-1.198919e-01
794=-6.279772e-01
795=6.031294e-01
797=-6.838231e-02
798=-3.243975e-02
800=-2.277592e-01
801=-4.436118e-03
814=-2.618994e-02
816=-1.272172e-01
817=-9.620523e-02
819=6.617091e-01
827=-3.042696e-02
828=-4.914579e-03
849=-1.641283e-01
855=9.304277e-01
860=-1.691182e-02
861=-9.109838e-02
862=2.042863e-01
867=7.811186e-02
880=4.180936e-04
882=8.230184e-02
883=1.296845e-01
884=-4.286513e-01
885=-1.536623e-02
886=-1.207377e-01
887=-2.082654e-01
888=1.517142e-01
889=5.659661e-02
891=7.185665e-02
892=-1.210778e-01
893=6.143357e-02
894=1.371054e-01
895=8.469565e-02
896=-1.347174e-02
897=-7.945967e-01
898=-1.112925e-01
899=-5.782671e-02
900=2.465320e-02
901=-3.044644e-01
902=7.661185e-02
913=2.567611e-02
915=7.479861e-03
916=-2.202062e-02
919=-1.388297e-02
922=2.563793e-02
924=3.161122e-02
925=-5.762241e-03
926=8.814609e-02
927=1.368206e-01
928=-1.089375e+00
929=1.117476e-01
932=-2.504267e-02
933=-4.806414e-02
934=-5.081996e-03
935=9.689296e-02
936=-2.397450e-02
937=8.815226e-02
938=6.161551e-03
939=-1.044317e-02
940=1.125891e-01
943=-4.221008e-02
944=-1.038703e-01
945=-1.081178e-02
946=1.397755e-01
948=1.109269e-01
949=-1.861160e-01
950=4.049906e-03
951=1.308137e-01
954=-1.924182e-02
955=-3.397946e-02
957=1.516410e-01
968=1.362449e-03
969=-2.072691e-02
970=1.066975e-01
971=1.547255e-04
972=-8.112120e-03
974=-3.598677e-03
976=-2.374120e-02
977=-1.665550e-02
978=-1.182666e-03
979=1.036129e-01
980=-4.231612e-02
981=2.090717e-02
982=8.886325e-02
983=-2.445419e-03
984=-1.825562e-01
986=1.598374e-03
987=-4.632493e-02
988=-1.001118e-02
989=-3.104239e-02
990=3.705010e-03
992=5.272545e-02
993=3.439901e-02
994=1.000713e-01
995=-2.102157e-01
996=-1.203527e-01
997=-6.792309e-02
998=1.282076e-03
999=8.933005e-02
1001=1.516410e-01
1012=7.419667e-02
1014=-1.115344e-02
1017=1.241504e-01
1018=-1.384255e-02
1023=1.516410e-01
1034=1.516410e-01
1045=1.516410e-01
1056=3.582887e-02
1058=1.454258e-02
1059=-2.007697e-02
1067=1.023013e-01
1069=-2.369402e-03
1070=1.294038e-01
1072=8.661714e-02
1073=-3.646330e-02
1074=-3.340977e-02
1075=-7.073346e-02
1076=-6.467815e-03
1078=1.516410e-01
1089=9.957800e-02
1091=8.255253e-02
1092=5.038512e-04
1093=-1.880408e-02
1094=1.030883e-01
1097=-8.704682e-03
1098=-2.785212e-02
1099=-1.648961e-02
1100=1.123291e-01
1101=-3.001387e-02
1102=8.585229e-02
1103=7.716171e-02
1104=-9.785202e-03
1105=-4.593905e-02
1107=1.425705e-03
1108=-5.080546e-02
1109=-1.871685e-02
1110=-8.766456e-02
1111=1.516410e-01
1243=7.419667e-02
1245=-1.115344e-02
1248=1.241504e-01
1249=-1.384255e-02
1254=9.611272e-02
1256=2.172647e-02
1257=2.297908e-02
1262=-7.594018e-02
1263=-8.755211e-03
1265=2.145796e-02
1276=6.694606e-02
1278=-3.951041e-02
1281=1.276897e-01
1282=-1.182992e-02
1287=3.309170e-02
1289=-9.062561e-03
1292=1.255202e-01
1293=-1.318438e-02
1298=1.969164e-01
1309=9.547190e-02
1311=1.067706e-01
1312=7.084446e-04
1313=-2.014922e-02
1314=1.137459e-01
1317=-2.821474e-02
1318=-2.950954e-02
1319=-2.501065e-01
1320=9.558237e-03
1331=9.096203e-04
1342=2.799790e-01
1353=2.183857e-02
1355=-2.260319e-01
1356=-2.417592e-03
1357=1.676523e-01
1358=-2.527942e-02
1359=3.247518e-01
1360=1.415067e-01
1362=-3.015445e-01
1364=3.302365e-03
1366=-5.262671e-03
1367=-9.072578e-03
1372=2.928489e-01
1375=8.297552e-02
1378=-1.587969e-02
1379=3.268384e-03
1381=1.360497e-02
1383=-1.638767e-02
1386=9.788257e-02
1388=-6.742691e-02
1389=4.142641e-02
1393=-8.131860e-02
1395=-2.381995e-01
1397=3.165533e-01
1399=-1.143856e-01
1400=-8.516871e-02
1402=-6.076819e-02
1419=-7.286559e-02
1421=2.195563e-01
1422=8.751381e-02
1424=-2.375418e-02
1427=2.529030e-03
1430=-5.462921e-02
1433=1.029422e-01
1434=3.290330e-02
1435=-1.190026e-02
1452=-2.135615e-02
1454=-2.098083e-02
1455=-2.067111e-02
1457=5.010575e-01
1520=2.858130e-02
1521=-3.193664e-02
1523=1.468459e-01
1531=5.721968e-02
1532=6.034325e-03
1537=-4.171195e-02
1540=3.302365e-03
1542=-5.262671e-03
1543=-9.072578e-03
1548=2.928489e-01
1551=1.941389e-02
1562=2.742752e-01
1575=5.721968e-02
1576=6.034325e-03
1581=-4.171195e-02
1586=1.660788e-03
1595=1.959682e-02
1607=-1.282392e-01
1608=-1.139689e-01
1609=1.545841e-01
1610=7.455614e-02
1611=-1.688594e-01
1612=3.303206e-01
1613=-8.381144e-02
1614=-1.356986e-03
1615=8.946447e-05
1617=1.160631e-01
1619=1.952634e-03
1620=-1.855593e-02
1622=-1.876457e-02
1628=5.878039e-02
1630=-2.365052e-01
1631=-1.953347e-02
1632=1.070437e-01
1634=1.643221e-01
1635=1.290401e-01
1637=-3.485515e-01
1639=7.963437e-02
1650=2.310079e-01
1661=2.076203e-01
1672=4.994753e-03
1674=-7.922788e-03
1675=1.231796e-01
1676=8.658591e-02
1677=-2.855924e-02
1679=-7.560985e-01
1680=-1.799288e-02
1681=-1.479216e-02
1682=-2.762410e-02
1683=3.670132e-01
1684=1.049505e-01
1685=-1.728048e-01
1686=-1.556950e-01
1688=-7.255865e-02
1691=-6.123903e-03
1696=-2.618723e-02
1705=-1.916751e-01
1706=-3.813268e-02
1707=5.542825e-01
1708=-2.487823e-02
1709=-2.183729e-02
1711=-5.079231e-02
1712=-1.620557e-02
1716=-1.765869e-01
1717=-4.086814e-02
1718=-7.147412e-01
1719=6.372434e-01
1720=1.230219e-02
1721=-1.396638e-01
1722=3.168041e-01
1724=-2.853789e-01
1725=-1.318563e-01
1729=-8.967633e-04
1732=1.092921e-01
1733=8.427229e-02
1738=-1.717227e-02
1740=-8.418734e-02
1741=-7.008048e-02
1743=7.711881e-01
1771=-7.690786e-04
1773=-8.919130e-03
1779=9.281179e-01
1780=1.134288e-03
1784=-1.382900e-02
1785=-6.886706e-02
1786=2.062643e-01
1791=1.028680e-01
1804=1.354187e-01
1817=1.394491e-02
1818=1.247848e-01
1823=-2.792700e-02
1826=4.438005e-03
1827=-3.219188e-02
1828=8.208113e-02
1829=1.535468e-01
1830=-7.108277e-02
1831=1.133251e-01
1834=-2.222330e-02
1835=-6.621762e-02
1837=-6.354966e-02
1838=-2.031494e-02
1839=7.420494e-02
1840=9.730718e-03
1841=-4.627466e-03
1842=6.507946e-03
1845=-4.578906e-02
1846=-1.262617e-02
1848=1.132470e-01
1853=-1.723198e-02
1861=-5.891531e-03
1862=-1.268424e-02
1864=1.517782e-01
1872=5.372755e-02
1873=2.791096e-02
1876=-3.305730e-02
1878=-3.733178e-02
1879=-4.330661e-03
1881=1.398584e-01
1892=1.409538e-01
1903=1.323520e-01
1914=4.671168e-02
1916=1.746081e-01
1917=-3.249865e-02
1927=4.033878e-02
1928=4.527476e-02
1930=-4.985084e-03
1931=-3.568194e-02
1932=-2.704255e-02
1933=-4.329608e-02
1935=3.049026e-02
1938=5.783887e-02
1939=7.340389e-02
1940=-2.572163e-02
1941=-1.132823e-02
1944=1.406533e-01
1945=2.240329e-03
1947=-6.444818e-02
1948=-6.468678e-03
1949=9.525667e-02
1950=8.083479e-02
1951=-1.077015e-02
1952=1.148509e-01
1955=-3.111737e-02
1956=-5.559552e-02
1957=-4.350346e-03
1958=4.822500e-02
1961=-2.415587e-02
1963=1.475704e-01
1969=1.412331e-01
1993=8.934677e-02
2029=2.770509e-01
2065=1.811359e-02
2092=6.910896e-02
2093=3.629759e-02
2096=-4.095087e-02
2098=-4.542668e-02
2099=-7.010885e-03
2101=-7.299320e-02
2103=5.790524e-02
2104=6.538565e-02
2105=-4.163378e-02
2109=-1.520460e-02
2110=5.434182e-02
2111=-1.895835e-02
2114=5.606087e-02
2115=3.239092e-02
2118=-3.741822e-02
2120=-4.126594e-02
2121=-5.665891e-03
2125=4.130321e-02
2126=2.987027e-02
2131=-3.814539e-02
2136=5.721968e-02
2137=6.034325e-03
2142=-4.171195e-02
2145=5.560701e-02
2158=-1.169739e-04
2168=3.261730e-03
2169=-1.514930e-02
2172=6.438965e-03
2173=1.223599e-01
2174=9.306402e-02
2175=-6.622180e-02
2177=1.616492e-02
2179=1.282600e+00
2202=7.835248e-03
2205=-6.418023e-02
2212=-1.265749e-02
2216=-1.086358e-01
2217=4.191800e-01
2227=7.679774e-02
2228=1.302266e-01
2238=-3.138592e-02
2243=5.041698e-02
2249=7.609184e-02
2250=-2.450780e-02
2251=4.919791e-01
2260=2.331427e-01
2304=-1.034695e-02
2307=-1.751438e-02
2309=6.638837e-02
2313=6.384280e-02
2322=7.166464e-03
2323=-1.311205e-03
2326=3.083969e-02
2327=1.217239e-01
2329=-5.241842e-02
2331=3.428247e-02
2334=-4.228159e-02
2335=3.627023e-02
2339=-3.083971e-02
2341=-1.669716e-02
2348=-1.034695e-02
2351=-1.751438e-02
2353=6.638837e-02
2355=1.051945e-02
2367=-1.941576e-03
2376=2.692862e-02
2378=2.486515e-02
2379=-4.488331e-02
2384=-2.396433e-03
2390=-2.047794e-01
2391=-2.688030e-02
2392=1.178791e-01
2395=-7.959440e-02
2396=-3.459716e-02
2397=4.524335e-03
2401=2.996918e-02
2403=-2.057009e-01
2408=2.085533e-02
2410=1.742459e+00
2433=1.891671e-01
2445=9.830899e-02
2474=6.614628e-02
2532=3.244947e-02
2542=2.092148e-01
2543=-5.043375e-03
2544=2.492263e-02
2546=-4.842765e-01
2547=-1.996036e-01
2549=-2.662632e-02
2551=1.661313e-01
2555=-1.558815e-02
2556=-1.523487e-02
2557=1.155496e-01
2560=-7.350449e-02
2561=-1.732542e-02
2562=1.722036e-02
2563=-2.817496e-02
2564=7.411538e-03
2565=-3.962756e-02
2566=3.447377e-02
2570=-2.870568e-02
2574=-1.259341e-01
2576=-7.546199e-03
2577=-2.295527e-02
2578=4.292703e-02
2579=3.319218e-05
2582=-9.113267e-03
2583=1.356350e-02
2585=1.578399e-01
2587=-1.287865e-04
2590=-4.790704e-02
2593=-2.806823e-02
2596=5.687351e-03
2607=1.122803e-01
2620=-5.099921e-02
2621=1.101004e-01
2623=-1.908685e-02
2625=-3.402711e-02
2627=-1.726002e-02
2629=-1.316866e-01
2631=1.161236e-02
2632=7.925161e-03
2633=4.210447e-02
2635=5.569565e-02
2637=-5.470453e-03
2638=1.270293e-02
2639=-3.053559e-02
2642=-4.417984e-02
2643=3.664335e-02
2647=-3.447409e-02
2648=8.344980e-04
2651=4.593906e-02
2652=2.560756e-01
2653=-5.267767e-02
2654=-5.177900e-02
2673=-2.830355e-02
2675=5.577761e-02
2676=2.179458e-01
2681=5.278577e-02
2687=5.400432e-02
2688=3.498702e-02
2690=1.191720e-02
2693=1.055811e-02
2709=-3.166886e-03
2711=9.652762e-02
2772=-4.064017e-03
2774=-1.827101e-02
2775=-7.518566e-03
2776=3.700165e-02
2777=8.015912e-04
2778=6.170045e-02
2780=-2.062248e-02
2781=3.999059e-03
2783=-4.440989e-03
2785=-1.749549e-02
2786=1.421537e-02
2787=4.329512e-02
2788=5.108451e-06
2789=5.080230e-02
2791=-9.370435e-03
2792=1.495793e-02
2796=-5.132345e-03
2797=1.629098e-03
2798=2.506983e-02
2799=-7.060480e-02
2800=5.196590e-02
2801=1.685056e-02
2802=-8.476572e-03
2804=-1.673766e-02
2805=1.164724e-04
2816=-1.841834e-02
2829=-2.652382e-03
2840=-6.510285e-05
2843=8.300804e-05
2845=1.918089e-01
2846=-3.194387e-02
2848=8.376265e-02
2862=9.390399e-01
2873=-4.920744e-02
2909=-6.200372e-02
2914=5.701678e-02
2920=9.933256e-03
2921=-1.256816e-02
2922=3.778918e-01
2931=2.339702e-01
2973=-1.221543e-02
2975=2.910716e-02
2976=1.350966e-02
2987=1.470516e-02
2992=-1.841834e-02
3009=1.470516e-02
3016=-1.751373e-04
3017=-1.578368e-01
3019=5.550457e-02
3020=-6.789701e-02
3021=1.973835e-01
3022=-6.698567e-02
3024=3.053757e-02
3025=-2.403936e-02
3027=1.289086e-01
3028=7.250183e-03
3029=-6.468400e-02
3032=-6.198803e-02
3033=3.100454e-03
3034=8.732419e-02
3038=8.213486e-03
3049=5.994178e-03
3050=-1.444137e-04
3060=2.772898e-02
3061=-1.667765e-04
3067=2.237798e-03
3082=9.497516e-01
3093=-1.287167e-02
3094=1.400305e-01
3111=2.597449e-01
3193=-6.405958e-02
3201=2.223421e-02
3225=5.915293e-01
3240=4.803318e-01
3261=1.634392e-02
3325=-1.423244e-01
3328=4.734813e-01
3330=-4.487457e-03
3334=-1.756420e-01
3335=1.299503e-01
3336=-2.265424e-02
3339=-1.285968e-02
3341=-2.655814e-02
3344=3.602909e-02
3346=1.387050e-03
3355=-2.518984e-01
3356=-1.804742e-01
3357=6.693740e-02
3358=2.366099e-02
3360=3.804734e-02
3363=-4.068767e-02
3364=5.788693e-03
3365=-3.146216e-02
3366=-8.370233e-04
3367=-1.960053e-01
3368=7.692513e-02
3369=1.970971e-02
3371=7.990074e-03
3372=-8.113271e-03
3374=-3.175278e-02
3377=3.291658e-02
3390=4.794499e-01
3391=-2.897977e-02
3393=-1.108184e-02
3401=4.951503e-01
3402=2.913626e-02
3403=-9.997859e-03
3404=-8.284033e-02
3405=-4.513307e-02
3407=-4.969836e-01
3408=-5.390894e-04
3412=-6.056613e-01
3413=3.303697e-01
3415=-1.790621e-01
3416=1.900752e-01
3419=-9.767940e-02
3426=6.354906e-02
3427=1.244348e-01
3434=-1.075553e-01
3435=-4.511752e-02
3437=6.221039e-02
3442=5.508647e-02
3445=-2.972519e-02
3446=-1.437957e-02
3448=9.812406e-02
3449=-8.494709e-02
3450=4.384067e-01
3459=2.238119e-01
3467=-1.499693e-01
3470=-1.820050e-02
3473=6.057684e-01
3474=2.351613e-02
3478=-1.145001e-02
3479=-3.323576e-02
3480=2.027013e-01
3481=-2.587745e-03
3485=1.503287e-01
3504=1.470516e-02
3510=7.631255e-03
3511=1.693088e-02
3512=-3.677751e-02
3513=-1.431472e-02
3514=-1.177247e-01
3515=-5.246472e-02
3517=4.287104e-02
3518=1.231370e-01
3522=9.814735e-02
3523=-1.712354e-01
3533=2.683921e-01
3534=-1.412905e-02
3547=5.022684e-02
3577=7.320369e-03
3613=8.360954e-03
3624=2.194760e-01
3675=-1.271180e-01
3676=1.969222e-02
3677=1.542222e-02
3678=4.457504e-02
3680=-1.323069e-01
3681=-1.238127e-01
3682=8.763676e-02
3683=9.395511e-03
3687=2.555013e-03
3688=7.499209e-02
3698=9.814735e-02
3699=-1.712354e-01
3709=1.332341e-03
3720=1.658061e-03
3731=2.555013e-03
3732=7.499209e-02
3742=7.561132e-04
3743=-3.846242e-04
3753=4.635955e-02
3764=3.907684e-02
3765=9.432020e-04
3766=-1.329018e-03
3767=-4.511287e-02
3770=-4.802403e-04
3771=2.941404e-01
3775=2.704437e-02
3776=5.584592e-03
3777=7.055294e-02
3779=-7.031079e-02
3782=6.443364e-02
3786=1.018589e-01
3787=-1.003008e-01
3819=8.937374e-01
3820=-4.268080e-04
3866=2.158964e-01
3916=2.319878e-02
3918=-4.977307e-05
3929=2.555013e-03
3930=7.499209e-02
3939=-6.901920e-02
3940=2.628964e-02
3941=2.121092e-01
3942=-1.541262e-02
3943=1.047095e-01
3944=-6.473231e-02
3945=-5.074666e-02
3946=1.656931e-01
3947=-2.945206e-02
3951=7.379356e-03
3952=-1.807828e-03
3962=-4.170209e-02
3963=2.599897e-01
3971=-3.139143e-01
3972=-1.332798e-01
3973=5.820483e-02
3974=2.135904e-02
3979=8.925494e-02
4006=5.231764e-01
4007=-1.501245e-02
4008=-7.683990e-03
4010=-3.255670e-02
4012=-4.563121e-01
4013=-1.865605e-04
4017=-4.335098e-01
4018=3.298982e-01
4020=-9.897555e-02
4021=1.024964e-01
4024=-9.317089e-02
4031=1.158353e-01
4032=1.240072e-01
4039=-2.943319e-02
4040=-1.834158e-02
4042=1.475246e-01
4072=-1.187126e-01
4078=6.700429e-01
4079=1.303990e-02
4083=-7.858746e-03
4084=-1.967092e-02
4085=2.111036e-01
4090=1.476079e-01
4105=1.047663e-03
4106=-2.546454e-03
4116=7.379356e-03
4117=-1.807828e-03
4127=3.228074e-02
4128=-8.925038e-03
4138=-4.016742e-02
4139=9.739894e-02
4149=1.422172e-03
4150=-8.155768e-04
4159=-6.928997e-02
4160=3.203439e-02
4161=2.070167e-01
4162=-1.578652e-02
4163=6.138885e-02
4164=-6.494949e-02
4165=-5.110226e-02
4166=1.652059e-01
4167=-3.058873e-02
4171=-1.213327e-01
4172=3.030899e-01
4173=1.423812e-01
4174=-6.164464e-02
4175=-3.240459e-02
4177=-9.903019e-04
4178=3.359502e-02
4182=-2.915729e-02
4183=2.112887e-01
4188=3.133589e-02
4189=-1.659005e-03
4193=7.236239e-02
4199=-2.672327e-02
4204=2.087196e-03
4205=-9.651680e-04
4215=3.427164e-02
4216=5.441305e-03
4221=-1.667220e-03
4226=1.884923e-02
4227=2.237734e-01
4228=-1.116526e-02
4230=-4.832397e-02
4232=1.430708e-01
4233=-2.397274e-02
4237=8.119241e-02
4238=1.345860e-02
4239=-1.548680e-02
4240=1.360339e-01
4241=-5.836268e-02
4243=1.512784e-01
4244=-2.925534e-02
4270=3.412432e-01
4271=-1.438485e+00
4273=-1.033495e-02
4276=-2.245666e-03
4282=4.869699e-01
4303=-3.342647e-02
4306=3.369275e-01
4342=2.927322e-01
4369=-1.352580e-02
4370=1.040303e-01
4380=2.646724e-05
4381=-3.636790e-04
4391=-1.138910e-02
4402=-1.352580e-02
4403=1.040303e-01
4413=-2.047048e-02
4414=1.094706e-01
4424=-1.138910e-02
4435=8.572211e-02
4436=7.338275e-03
4437=-1.580576e-02
4438=8.760854e-02
4439=-5.917821e-02
4441=1.505513e-01
4442=-2.959781e-02
4446=-1.189368e-02
4447=1.917497e-01
4449=-2.073772e-02
4452=1.883675e-03
4453=-2.452886e-04
4457=9.572990e-03
4458=1.097400e-02
4463=2.104047e-02
4464=-4.954173e-03
4468=6.787788e-02
4469=4.617612e-02
4470=-9.945758e-03
4474=1.414661e-01
4475=-2.431001e-02
4479=1.730146e-02
4480=-2.412641e-03
4485=2.443571e-02
4486=1.366664e-02
4488=-9.264674e-02
4490=-2.221779e-02
4491=1.839494e-01
4492=-4.147681e-03
4496=5.388346e-02
4501=7.974761e-02
4502=5.950039e-03
4503=-1.149148e-02
4504=9.344343e-02
4507=1.385755e-01
4508=-2.710613e-02
4512=4.320310e-02
4513=5.176868e-03
4518=-2.859404e-04
4523=-1.138910e-02
4534=1.490507e-03
4535=-5.204851e-03
4545=-1.612229e-02
4546=4.443795e-02
4556=-7.672941e-03
4557=4.370461e-02
4567=1.490507e-03
4568=-5.204851e-03
4578=-7.672941e-03
4579=4.370461e-02
4587=-1.439388e-01
4588=-7.504752e-02
4589=9.741458e-02
4590=8.448235e-03
4591=-1.299052e-02
4593=-5.311999e-02
4594=-5.294314e-02
4595=1.720286e-01
4600=-1.583267e-02
4601=2.207236e-02
4606=5.333316e-02
4611=5.661525e-02
4612=-7.052956e-04
4622=-7.672941e-03
4623=4.370461e-02
4633=-1.951464e-03
4644=2.426986e-01
4645=-4.606709e-02
4650=-4.980347e-03
4655=9.536305e-02
4656=-1.594982e-03
4666=1.546170e-01
4667=-1.653627e-02
4672=-1.058529e-02
4678=-6.777123e-04
4679=2.047613e-03
4688=5.013078e-03
4689=1.044271e-02
4701=1.767315e-03
4710=1.113032e-02
4711=-3.533736e-01
4712=1.015673e+00
4716=-6.492915e-05
4721=1.405960e-01
4722=-2.227133e-02
4730=-7.594788e-02
4732=2.224743e-01
4733=2.211181e-02
4735=-3.346788e-02
4738=-5.744199e-03
4743=3.566773e-03
4744=1.964633e-02
4745=-6.864894e-04
4754=3.566773e-03
4755=1.964633e-02
4756=-6.864894e-04
4763=-4.984206e-02
4765=-8.486153e-04
4766=2.051244e-01
4767=2.503400e-03
4768=-1.195715e-02
4771=7.050893e-03
4776=8.841638e-02
4777=-1.588719e-02
4787=6.570908e-02
4788=2.219960e-02
4790=-1.463802e-02
4793=1.122243e-02
4798=2.928545e-02
4799=2.847194e-02
4809=-1.515170e-02
4810=2.197181e-02
4815=8.501232e-02
4820=-9.516052e-04
4822=3.763569e-02
4831=-7.741185e-03
4832=1.578139e-03
4838=4.591699e-01
4842=-9.516052e-04
4844=3.763569e-02
4853=-4.735565e-03
4854=4.059937e-02
4864=1.353027e-02
4865=8.021927e-03
4870=1.240419e-01
4876=-5.936103e-02
4877=6.377262e-02
4882=8.000693e-02
4887=-5.936103e-02
4888=6.377262e-02
4893=8.000693e-02
4897=3.784407e-02
4898=-3.902526e-04
4908=1.137159e-03
4909=2.049785e-02
4911=-8.204894e-03
4919=3.155880e-02
4930=3.404509e-02
4931=-1.377661e-02
4936=3.595407e-02
4941=-9.500539e-03
4942=1.348974e-02
4947=3.527759e-02
4952=-1.455678e-02
4953=6.327905e-02
4963=-3.871537e-04
4964=1.311485e-02
4972=-7.611583e-02
4974=3.209231e-02
4975=5.219390e-02
4977=-1.986642e-02
4980=3.809748e-02
4981=-5.262252e-03
4985=5.249929e-03
4986=8.864861e-03
4996=1.327213e-01
4997=-2.555825e-02
5002=3.043474e-02
5007=1.229945e-02
5008=-1.204639e-02
5018=4.615369e-02
5019=1.948983e-02
5020=-6.366214e-03
5025=-7.125631e-03
5031=6.712345e-02
5040=4.615369e-02
5041=1.948983e-02
5042=-6.366214e-03
5047=-7.125631e-03
5051=-2.842987e-05
5052=2.304412e-03
5062=2.767294e-02
5063=2.102784e-02
5068=2.196469e-02
5073=4.615369e-02
5074=1.948983e-02
5075=-6.366214e-03
5080=-7.125631e-03
5084=3.849322e-02
5085=-1.057288e-02
5095=2.547604e-02
5096=1.708315e-02
5097=-7.142731e-03
5098=-4.046558e-02
5099=1.264739e-01
5100=-3.167604e-03
5102=-1.046970e-02
5106=3.849322e-02
5107=-1.057288e-02
5117=-5.407136e-03
5118=2.039123e-02
5128=-1.118664e-06
5129=1.266773e-05
5139=5.126420e-03
5140=5.658963e-02
5152=2.458363e-03
5163=2.458363e-03
5174=2.458363e-03
5185=2.458363e-03
5196=2.458363e-03
5207=2.458363e-03
5218=2.458363e-03
5227=2.577350e-02
5228=-9.299654e-04
5239=-1.174109e-02
5249=2.577350e-02
5250=-9.299654e-04
5262=2.458363e-03
5273=2.458363e-03
5283=3.557793e-02
5284=3.218765e-01
5285=-3.030674e-03
5286=-2.860248e-03
5289=-7.148077e-03
5294=-1.075873e-01
5295=1.232361e-01
5297=2.060134e-03
5302=-3.857008e-02
5304=1.833929e-02
5306=1.179034e-01
5310=3.434337e-02
5311=2.444562e-02
5313=-1.042758e-02
5315=6.140116e-03
5316=-6.387428e-03
5317=2.356780e-01
5326=4.223414e-03
5327=-2.831882e-03
5332=2.206244e-02
5333=1.767145e-03
5337=5.813055e-03
5338=-1.577515e-01
5340=-3.702273e-01
5341=4.417174e-01
5342=2.135999e-01
5343=-1.913223e-02
5348=-2.968791e-02
5349=-4.138310e-02
5350=1.193775e-01
5352=2.559534e-02
5359=2.577350e-02
5360=-9.299654e-04
5371=-8.190668e-02
5372=1.862596e-01
5374=1.884226e-01
5375=1.479877e-01
5377=-7.891044e-02
5381=3.968240e-05
5392=1.386444e-02
5406=1.633655e-03
5414=4.781308e-02
5415=-5.376510e-02
5418=5.678216e-01
5420=-1.804455e-03
5425=4.410613e-03
5428=1.581776e-01
5436=-2.648749e-07
5437=-1.251370e-01
5439=8.755203e-02
5441=2.544072e-02
5442=-4.418857e-02
5444=3.514504e-02
5447=1.764389e-02
5448=-1.976306e-02
5450=2.878906e-01
5480=2.365755e-02
5494=-1.700483e-02
5505=1.808720e-01
5527=9.585127e-03
5582=5.633013e-01
5583=-5.395465e-04
5593=1.856077e-01
5599=-8.301551e-03
5601=-9.382928e-05
5602=2.051115e-02
5607=2.266214e-02
5608=7.488687e-02
5612=2.797628e-02
5613=-1.670906e-02
5615=1.618082e+00
5616=-3.973538e-02
5618=-1.550700e-02
5626=1.434263e-01
5635=-1.030240e-02
5645=9.870837e-04
5646=-8.295011e-04
5656=-4.488767e-03
5659=1.854712e-01
5670=1.939265e-01
5678=1.712991e-04
5679=-1.415918e-02
5690=-1.575835e-02
5692=2.679965e-01
5758=7.908330e-01
5819=-2.313361e-02
5822=-1.217738e-02
5823=3.169422e-02
5832=-2.652983e-02
5833=-7.275639e-03
5840=3.125063e-02
5846=1.287048e-01
5857=1.426769e-01
5866=-1.375862e-01
5869=1.844404e-01
5870=2.531996e-01
5874=-5.200852e-02
5875=-3.194915e-02
5876=-1.301459e+00
5877=9.856686e-02
5878=1.067920e-02
5879=1.064453e-02
5883=7.552607e-02
5887=-3.407038e-02
5888=2.072490e-01
5897=-5.965952e-03
5898=-4.649318e-02
5899=6.282183e-02
5905=4.429370e-02
5912=1.700453e-02
5921=-8.670351e-04
5932=-8.670351e-04
5941=-4.696337e-04
5942=9.472586e-03
5943=7.996685e-04
5956=5.108114e-06
5957=-4.140761e-01
5958=2.271706e-01
5961=6.685182e-02
5967=1.454717e-02
5975=9.145791e-03
5976=-1.152746e-04
5986=-1.763478e-01
5987=-4.717981e-02
5988=1.501815e-02
5989=4.800567e-02
5990=1.091518e-02
5997=1.753201e-02
5998=-1.182734e-02
6000=1.113658e-02
6001=8.503530e-03
6008=-1.584192e-01
6015=1.323960e-02
6019=2.935284e-02
6020=-1.438501e-02
6022=3.201890e-02
6030=-2.676505e-01
6031=-3.044160e-02
6033=9.356661e-02
6034=8.939551e-02
6035=9.289978e-02
6036=-3.085548e-02
6041=-9.628467e-02
6043=9.980994e-04
6044=3.707743e-03
6045=5.009279e-02
6046=7.729881e-03
6047=-1.254640e-03
6052=-1.432365e-01
6054=1.576173e-03
6055=1.556188e-01
6058=-3.212696e-03
6066=1.369082e-02
6077=4.501529e-03
6154=3.855919e-03
6220=7.423993e-02
6231=1.776061e-01
6232=1.017325e-02
6244=7.111592e-02
6248=5.301625e-03
6259=3.582352e-02
6283=1.745941e-02
6385=3.580979e-05
6462=5.661829e-03
6530=7.188483e-02
6539=1.643250e-01
6541=-5.711350e-03
6544=5.302030e-02
6550=1.643250e-01
6552=-5.711350e-03
6555=5.302030e-02
6561=1.643250e-01
6563=-5.711350e-03
6566=5.302030e-02
6572=1.643250e-01
6574=-5.711350e-03
6577=5.302030e-02
6583=1.643250e-01
6585=-5.711350e-03
6588=5.302030e-02
6594=1.643250e-01
6596=-5.711350e-03
6599=5.302030e-02
6605=9.911407e-02
6607=-4.503691e-03
6610=4.613274e-02
6616=1.643250e-01
6618=-5.711350e-03
6621=5.302030e-02
6627=1.643250e-01
6629=-5.711350e-03
6632=5.302030e-02
6638=1.643250e-01
6640=-5.711350e-03
6643=5.302030e-02
6649=1.363462e-01
6651=-5.192063e-03
6654=4.916350e-02
6660=1.643250e-01
6662=-5.711350e-03
6665=5.302030e-02
6671=1.643250e-01
6673=-5.711350e-03
6676=5.302030e-02
6682=1.643250e-01
6684=-5.711350e-03
6687=5.302030e-02
6693=1.643250e-01
6695=-5.711350e-03
6698=5.302030e-02
6704=1.013180e-01
6706=-4.418148e-03
6709=4.138839e-02
6715=1.013180e-01
6717=-4.418148e-03
6720=4.138839e-02
6723=2.988199e-01
6724=-3.563672e-02
6734=4.735274e-05
6735=-9.751887e-05
6744=1.046556e-02
6746=-1.099699e-02
6749=-6.813983e-03
6756=1.976586e-06
6757=-4.346862e-05
6767=-2.461853e-02
6768=1.252331e-02
6773=4.658845e-02
6778=2.380356e-02
6779=-1.530502e-02
6780=2.328523e-04
6784=-3.673058e-04
6789=1.976586e-06
6790=-4.346862e-05
6801=-3.641244e-03
6806=2.082084e-02
6811=2.380356e-02
6812=-1.530502e-02
6813=2.328523e-04
6817=-3.673058e-04
6822=2.173576e-03
6823=-1.145806e-03
6828=1.290180e-02
6833=3.648408e-02
6834=-4.021847e-04
6840=2.414904e-03
6844=2.380356e-02
6845=-1.530502e-02
6846=2.328523e-04
6850=-3.673058e-04
6856=5.319795e-03
6861=4.975757e-02
6866=-4.516793e-02
6867=1.542832e-01
6872=-4.738114e-02
6873=5.247639e-02
6877=-6.437595e-04
6878=-1.281282e-02
6879=1.642214e-01
6884=4.853736e-02
6889=5.319795e-03
6894=4.975757e-02
6899=-6.437595e-04
6900=-1.281282e-02
6901=1.642214e-01
6906=4.853736e-02
6910=-4.952015e-04
6911=1.296277e-02
6913=1.213071e-02
6916=-7.402372e-03
6921=8.903465e-03
6922=-4.742696e-02
6932=-7.411892e-03
6934=3.382343e-02
6943=-6.437595e-04
6944=-1.281282e-02
6945=1.642214e-01
6950=4.853736e-02
6954=6.307582e-03
6955=-2.788006e-04
6960=1.907199e-02
6965=4.264049e-03
6966=-3.225943e-02
6967=5.161152e-01
6972=1.294083e-02
6976=8.778381e-03
6977=-4.406303e-06
6987=7.794159e-03
6988=-3.500202e-03
6993=2.102185e-02
6998=7.794159e-03
6999=-3.500202e-03
7004=2.102185e-02
7009=1.323884e-01
7010=-1.742142e-02
7015=1.432628e-01
7026=2.574084e-02
7032=1.222723e-03
7043=1.222723e-03
7053=2.048425e-01
7054=-5.258064e-02
7059=1.479062e-01
7060=-3.216191e-03
7065=1.222723e-03
7075=8.001282e-05
7076=-1.062504e-04
7081=2.103535e-02
7086=3.550762e-04
7097=-4.030791e-04
7103=2.280221e-02
7108=-3.845705e-04
7109=-1.413697e-03
7114=2.600643e-02
7125=2.412038e-02
7130=2.630332e-02
7131=-9.650251e-02
7136=1.715639e-01
7141=3.420046e-03
7147=2.542709e-02
7152=-1.926463e-03
7153=3.944039e-03
7158=2.351992e-02
7163=5.325408e-03
7164=-1.765708e-04
7174=6.047485e-02
7175=-2.311155e-02
7180=3.847378e-02
7185=-2.832186e-02
7186=9.383406e-03
7191=4.766929e-02
7196=1.661154e-03
7207=1.661154e-03
7218=-2.832186e-02
7219=9.383406e-03
7224=4.766929e-02
7229=1.478429e-02
7230=-1.301646e-02
7235=3.778235e-02
7240=-1.451963e-02
7241=3.951140e-03
7246=5.115119e-02
7251=-1.451963e-02
7252=3.951140e-03
7257=5.115119e-02
7262=1.697803e-02
7263=-5.520031e-03
7268=-2.853591e-04
7273=2.283044e-03
7274=6.448936e-05
7279=1.157275e-02
7284=-1.451963e-02
7285=3.951140e-03
7290=5.115119e-02
7295=-1.451963e-02
7296=3.951140e-03
7301=5.115119e-02
7306=-1.451963e-02
7307=3.951140e-03
7312=5.115119e-02
7317=-1.451963e-02
7318=3.951140e-03
7323=5.115119e-02
7328=-1.451963e-02
7329=3.951140e-03
7334=5.115119e-02
7345=5.342604e-02
7350=1.721484e-03
7351=-4.832477e-04
7356=1.859918e-02
7367=5.342604e-02
7372=1.721484e-03
7373=-4.832477e-04
7378=1.859918e-02
7384=-1.191261e-02
7389=6.893887e-03
7400=5.342604e-02
7411=4.822127e-02
7423=5.185308e-01
7427=3.643003e-02
7428=-1.586555e-02
7439=-1.011019e-01
7445=1.321772e-01
7449=-2.368857e-03
7450=3.351546e-02
7461=-1.011019e-01
7467=1.321772e-01
7471=3.643003e-02
7472=-1.586555e-02
7482=4.147235e-04
7483=3.318707e-02
7493=4.147235e-04
7494=3.318707e-02
7505=2.162423e-03
7515=-5.558332e-02
7516=2.499525e-02
7521=5.749591e-03
7532=2.398284e-02
7537=-5.255260e-02
7538=1.616756e-02
7543=6.919886e-03
7549=-2.841359e-03
7555=8.159402e-01
7560=-2.513179e-03
7566=1.335028e-01
7571=-1.784512e-02
7577=1.297416e-01
7582=-1.784512e-02
7588=1.297416e-01
7593=-6.599362e-04
7599=1.330425e-01
7604=-1.784512e-02
7610=1.297416e-01
7615=-2.631857e-02
7625=3.420810e-03
7626=-9.697635e-02
7637=-2.895618e-02
7651=5.419149e-03
7695=1.559568e-01
7706=1.405177e-03
7727=-7.522730e-04
7729=7.717448e-01
7783=2.255425e-01
7784=8.021466e-02
7791=7.187167e-04
7793=-2.738019e-02
7794=3.064192e-02
7883=2.996810e-02
7934=4.375173e-03
7936=-3.137237e-01
7937=3.109244e-02
7938=1.214431e-01
7947=2.183971e-02
7949=2.622014e-02
7959=3.729870e-02
7969=2.183971e-02
7971=2.622014e-02
7981=3.729870e-02
7991=7.198152e-02
8035=1.435478e-02
8057=-9.746718e-03
8068=2.955811e-02
8079=9.219194e-01
8123=2.750263e-01
8124=-3.763034e-02
8135=3.729870e-02
8142=4.354672e-02
8143=-2.874115e-02
8153=7.716294e-02
8154=-2.012122e-02
8164=3.155384e-02
8165=-7.299098e-03
8175=4.122224e-02
8176=-2.098655e-01
8179=7.245227e-04
8186=1.115124e-01
8187=-2.977941e-02
8197=1.024273e-02
8198=-2.041031e-04
8208=1.268586e-01
8209=-9.029667e-03
8219=-4.332148e-03
8220=6.041998e-03
8230=-4.332148e-03
8231=6.041998e-03
8241=-1.747536e-03
8242=4.735169e-03
8252=-4.332148e-03
8253=6.041998e-03
8263=-4.332148e-03
8264=6.041998e-03
8274=-4.332148e-03
8275=6.041998e-03
8285=-4.332148e-03
8286=6.041998e-03
8296=-4.332148e-03
8297=6.041998e-03
8308=1.892700e-03
8318=-8.448117e-02
8319=4.854605e-01
8329=-1.275806e-03
8330=8.485301e-03
8340=-4.332148e-03
8341=6.041998e-03
8351=-8.448117e-02
8352=4.854605e-01
8362=-1.385861e-02
8363=2.328774e-02
8373=-4.332148e-03
8374=6.041998e-03
8384=-8.448117e-02
8385=4.854605e-01
8395=-1.545292e-02
8396=8.597190e-02
8406=-2.218301e-02
8407=4.051830e-02
8418=8.060649e-04
8429=8.060649e-04
8440=8.060649e-04
8451=8.060649e-04
8462=8.060649e-04
8473=8.060649e-04
8484=8.060649e-04
8495=1.977472e-02
8506=1.977472e-02
8517=8.060649e-04
8528=8.060649e-04
8539=8.060649e-04
8550=8.060649e-04
8561=8.060649e-04
8572=-1.330334e-02
8583=-1.330334e-02
8594=-1.330334e-02
8604=-1.655219e-02
8610=2.082880e-02
8615=-1.655219e-02
8621=2.082880e-02
8626=-4.101151e-03
8637=-1.655219e-02
8643=2.082880e-02
8648=-8.115406e-03
8649=-5.161821e-05
8654=3.063171e-02
8659=-4.126963e-04
8670=2.778975e-04
8681=-4.377508e-02
8682=1.088366e-01
8692=5.169715e-05
8703=-6.741097e-04
8704=2.920065e-03
8714=3.635061e-04
8725=-1.203077e-02
8726=2.885169e-02
8736=-1.203077e-02
8737=2.885169e-02
8747=2.782931e-03
8758=3.025401e-02
8769=1.021326e-02
8781=2.470445e-02
8791=-1.660501e-05
8792=3.004468e-02
8802=1.016462e-01
8803=-3.235334e-03
8813=-5.994817e-04
8814=3.574462e-02
8826=6.812420e-02
8838=-4.091170e-02
8843=3.865771e-02
8849=-4.091170e-02
8854=3.865771e-02
8861=2.853282e-01
8905=8.528354e-02
8916=8.013190e-02
8993=6.895574e-01
9003=-4.091170e-02
9008=3.865771e-02
9015=-1.712208e-02
9016=1.919646e-01
9093=2.099815e-01
9143=3.785529e-02
9144=-3.887064e-03
9155=-7.210617e-02
9156=5.835480e-02
9165=3.785529e-02
9166=-3.887064e-03
9177=-7.210617e-02
9178=5.835480e-02
9188=-2.865705e-02
9189=6.309964e-02
9199=-7.210617e-02
9200=5.835480e-02
9209=1.246588e-02
9210=-4.794389e-03
9220=-8.173617e-03
9221=6.390835e-03
9231=5.037457e-03
9232=-1.512452e-03
9242=2.641498e-01
9243=-1.951547e-01
9258=3.157924e-02
9264=4.647014e-02
9265=-1.767965e-02
9275=-8.739122e-02
9276=6.633251e-01
9286=1.239718e-03
9297=-1.898112e-02
9298=2.470035e-01
9308=-1.898112e-02
9309=2.470035e-01
9319=-2.350685e-02
9320=2.427579e-01
9330=-2.986963e-03
9331=1.601548e-01
9341=-5.364956e-03
9342=1.569595e-01
9352=9.387132e-02
9353=-7.514838e-03
9363=4.295679e-04
9364=-8.256356e-04
9367=1.235469e-01
9374=8.653948e-02
9386=-5.104900e-02
9387=5.643440e-02
9391=-1.044145e-04
9397=-8.726644e-03
9407=8.242066e-02
9408=-1.830052e-02
9418=1.224433e-02
9419=-3.130345e-03
9429=1.224433e-02
9430=-3.130345e-03
9440=8.386827e-02
9441=-2.975782e-02
9451=2.650823e-02
9484=4.733303e-02
9496=1.435760e-02
9583=2.650823e-02
9594=2.650823e-02
9605=8.386827e-02
9606=-2.975782e-02
9616=2.538701e-01
9617=-7.773640e-02
9627=6.152619e-03
9638=2.923129e-01
9639=-1.589477e-01
9649=2.650823e-02
9660=2.441114e-03
9671=-1.823870e-02
9682=-1.823870e-02
9693=-5.357636e-02
9694=2.503565e-01
9704=-5.357636e-02
9705=2.503565e-01
9715=-1.823870e-02
9727=-3.815144e-03
9732=1.830648e-01
9737=-1.011000e-02
9738=1.335385e-02
9748=-1.011000e-02
9749=1.335385e-02
9759=-1.011000e-02
9760=1.335385e-02
9776=1.260170e-01
9777=2.568792e-03
9781=-1.203710e-02
9792=-2.319593e-02
9803=-2.319593e-02
9818=5.585981e-02
9828=2.904191e-02
9839=4.569577e-02
9850=3.897948e-02
9861=2.970206e-02
9867=1.133633e-02
9878=1.281874e-02
9891=5.086003e-05
9900=8.174466e-03
9911=7.544019e-03
9922=8.174466e-03
9933=8.174466e-03
9944=8.174466e-03
9955=8.174466e-03
9966=8.174466e-03
9977=8.174466e-03
9988=5.333620e-03
9990=2.181785e-04
9991=-2.682183e-04
9999=8.174466e-03
10010=2.667148e-02
10021=5.333620e-03
10023=2.181785e-04
10024=-2.682183e-04
10032=8.174466e-03
10043=8.174466e-03
10054=1.158615e-03
10067=1.222280e-04
10076=1.373532e-02
10090=1.692055e-02
10100=-4.078784e-05
10111=3.158337e-03
10122=3.637795e-03
10133=1.065312e-05
10144=1.065312e-05
10155=8.197221e-03
10156=-1.859532e-03
10166=-2.946050e-04
10167=-9.864875e-03
10173=2.395111e-02
10178=1.838613e-02
10188=6.114857e-03
10199=2.094985e-03
10200=-7.634905e-04
10210=2.094985e-03
10211=-7.634905e-04
10221=8.235479e-03
10222=-1.505280e-03
10232=2.094985e-03
10233=-7.634905e-04
10243=2.094985e-03
10244=-7.634905e-04
10254=4.403415e-03
10255=-6.165809e-04
10265=2.094985e-03
10266=-7.634905e-04
10276=2.094985e-03
10277=-7.634905e-04
10287=1.447725e-02
10288=-1.951598e-04
10298=1.447725e-02
10299=-1.951598e-04
10309=2.094985e-03
10310=-7.634905e-04
10320=2.922896e-01
10321=-5.407255e-01
10327=3.181348e-03
10331=9.752032e-03
10332=-6.204717e-03
10342=5.682828e-03
10353=-1.534787e-01
10355=2.891560e-03
10359=8.717739e-02
10364=1.754578e-04
10375=8.885158e-03
10386=8.885158e-03
10398=3.101188e-03
10408=2.330531e-03
10419=9.916660e-05
10430=1.333961e-01
10431=-1.039519e-01
10441=-1.574400e-02
10452=6.749194e-05
10464=-7.191320e-02
10465=4.599322e-02
10478=9.593208e-03
10489=9.593208e-03
10497=1.574565e-02
10508=1.574565e-02
10519=1.574565e-02
10529=3.134217e-03
10541=1.574565e-02
10549=7.890273e-03
10562=3.656345e-02
10573=2.141773e-02
10584=9.940784e-04
10595=-7.490474e-02
10596=8.903423e-02
10606=2.335088e-02
10607=-3.683148e-03
10617=2.335088e-02
10618=-3.683148e-03
10628=9.124959e-04
10639=-1.738752e-02
10640=1.563862e-02
10650=-3.721238e-03
10651=1.277810e-02
10661=-1.596807e-02
10662=1.354588e-02
10672=-1.596807e-02
10673=1.354588e-02
10683=-1.910537e-03
10684=2.515204e-03
10694=-8.095798e-04
10695=4.632282e-03
10705=-1.910537e-03
10706=2.515204e-03
10716=-1.596807e-02
10717=1.354588e-02
10727=-1.910537e-03
10728=2.515204e-03
10738=2.971364e-03
10749=1.506349e-03
10761=2.036156e-02
10772=2.036156e-02
10783=2.036156e-02
10793=-5.233731e-03
10794=3.308293e-03
10804=3.453434e-04
10805=1.731323e-02
10815=1.141001e-01
10816=-2.734966e-03
10826=-9.283721e-05
10837=1.141001e-01
10838=-2.734966e-03
10848=1.141001e-01
10849=-2.734966e-03
10859=-2.114176e-05
10860=1.457024e-02
10870=1.390171e-01
10871=-1.719738e-03
10881=-2.114176e-05
10882=1.457024e-02
10892=-1.063555e-04
10903=-7.926326e-03
10904=1.092238e-01
10914=-6.157497e-03
10915=2.816170e-02
10925=-1.643826e-02
10926=3.120917e-02
10936=-6.157497e-03
10937=2.816170e-02
10947=-3.539658e-04
10948=2.459197e-02
10958=-3.539658e-04
10959=2.459197e-02
10969=-1.427032e-02
10970=2.820695e-02
10980=-3.539658e-04
10981=2.459197e-02
10991=-2.446606e-02
10992=5.198393e-02
11003=2.669575e-02
11013=1.845083e-02
11014=-4.488062e-04
11024=-2.089374e-03
11025=3.778890e-02
11035=-2.089374e-03
11036=3.778890e-02
11046=1.461388e-02
11047=-3.883437e-03
11058=1.960250e-02
11068=-2.089374e-03
11069=3.778890e-02
11079=-1.230468e-03
11080=1.338804e-02
11090=-1.230468e-03
11091=1.338804e-02
11101=-2.089374e-03
11102=3.778890e-02
11112=-2.089374e-03
11113=3.778890e-02
11123=-1.800513e-03
11124=9.349708e-03
11126=-4.032744e-02
11131=6.356094e-02
11179=1.199652e-01
11266=6.652612e-03
11277=1.679428e-02
11288=1.262229e-02
11299=1.964176e-02
11300=-2.313389e-03
11310=4.634620e-02
11311=-2.658562e-02
11321=4.634620e-02
11322=-2.658562e-02
11332=4.634620e-02
11333=-2.658562e-02
11343=4.634620e-02
11344=-2.658562e-02
11354=4.634620e-02
11355=-2.658562e-02
11365=4.634620e-02
11366=-2.658562e-02
11376=4.634620e-02
11377=-2.658562e-02
11387=5.693015e-02
11388=-2.313553e-01
11389=6.949268e-03
11399=1.486599e-03
11410=1.442492e-03
11421=1.442492e-03
11431=-1.641816e-01
11432=2.394956e-01
11443=1.019440e-02
11454=1.169492e-02
11464=-1.396120e-02
11465=-1.402237e-02
11470=1.790132e-03
11471=7.515081e-02
11475=9.768808e-04
11486=-1.889066e-01
11487=-5.494641e-04
11488=4.976414e-02
11492=-9.182357e-05
11493=3.617954e-01
11497=1.033296e-02
11512=8.049905e-03
11523=8.049905e-03
11534=1.501526e-02
11541=1.677909e-02
11542=-2.320456e-02
11545=1.132269e-02
11552=1.677909e-02
11553=-2.320456e-02
11556=1.132269e-02
11567=1.408896e-02
11574=7.790701e-02
11575=-3.963366e-02
11585=8.213200e-02
11586=-3.741432e-02
11596=-2.580866e-03
11597=3.404018e-03
11607=-3.414109e-03
11608=2.502450e-03
11623=2.560595e-02
11629=1.445035e-02
11630=-1.066075e-02
11640=6.156864e-03
11641=-1.488222e-03
11651=1.223414e-02
11662=4.098618e-06
11673=4.098618e-06
11684=4.098618e-06
11695=4.098618e-06
11706=2.267888e-02
11707=-1.667344e-02
11717=4.098618e-06
11728=4.098618e-06
11739=4.098618e-06
11751=-2.482623e-02
11752=6.872726e-02
11762=-2.338002e-01
11763=3.996161e-01
11773=-2.482623e-02
11774=6.872726e-02
11783=4.316498e-03
11784=-1.081124e-06
11795=-8.955782e-07
11805=1.245012e-03
11806=-2.309944e-06
11816=1.245012e-03
11817=-2.309944e-06
11827=1.245012e-03
11828=-2.309944e-06
11838=1.245012e-03
11839=-2.309944e-06
11849=1.245012e-03
11850=-2.309944e-06
11860=5.455668e-03
11861=-4.080669e-06
11871=5.455668e-03
11872=-4.080669e-06
11882=5.455668e-03
11883=-4.080669e-06
11894=1.343968e-02
11904=1.933962e-02
11915=1.933962e-02
11933=2.343595e-02
11944=4.902834e-02
11948=2.576675e-02
11959=1.751450e-03
11970=8.725566e-03
11987=1.412111e-01
11998=1.412111e-01
12009=1.412111e-01
12020=1.412111e-01
12031=1.944946e-01
12042=1.412111e-01
12053=2.759257e-02
12064=2.759257e-02
12075=2.291597e-02
12086=2.291597e-02
12097=2.210461e-02
12108=2.291597e-02
12119=2.291597e-02
12130=2.291597e-02
12141=2.291597e-02
12152=2.291597e-02
12163=2.291597e-02
12168=-7.045707e-04
12174=2.125709e-02
12185=4.697841e-03
12196=4.697841e-03
12207=4.697841e-03
12218=4.697841e-03
12229=4.697841e-03
12240=4.697841e-03
12251=4.697841e-03
12262=4.697841e-03
12273=4.697841e-03
12284=4.697841e-03
12295=4.697841e-03
12306=4.288087e-05
12317=4.697841e-03
12329=4.629440e-02
12333=-5.343268e-03
12350=2.230151e-03
12361=1.081051e-02
12366=-5.194643e-03
12373=8.205552e-01
12383=1.081051e-02
12394=2.690545e-02
12400=-8.839867e-03
12405=1.188696e-02
12416=1.264083e-02
12427=1.251424e-02
12428=1.336914e-01
12438=2.690545e-02
12449=2.690545e-02
12455=-4.510489e-02
12456=5.999141e-02
12466=-4.510489e-02
12467=5.999141e-02
12477=-6.084413e-03
12488=-1.862868e-02
12505=2.326562e-04
12510=-6.084413e-03
12527=1.349531e-01
12532=-1.275786e-02
12533=2.663959e-02
12544=6.692009e-04
12555=6.692009e-04
12565=-1.756612e-02
12577=6.692009e-04
12588=6.692009e-04
12600=-1.983526e-02
12605=6.407391e-02
12608=1.437017e-04
12619=2.216359e-02
12620=-3.462451e-04
12630=4.854720e-02
12641=4.854720e-02
12652=4.079567e-03
12663=4.079567e-03
12674=4.079567e-03
12685=4.079567e-03
12696=4.079567e-03
12707=4.079567e-03
12718=4.079567e-03
12729=4.079567e-03
12740=4.079567e-03
12751=7.609744e-02
12796=4.131502e-03
12807=-1.500217e-02
12813=2.805524e-01
12894=-7.030496e-02
12895=2.418715e-01
12906=6.284850e-03
12916=-1.355036e-02
12917=1.342904e-01
12925=9.161634e-03
12938=2.418203e-03
12939=-9.470102e-05
12949=9.508556e-02
12950=-5.422168e-02
12960=9.766336e-02
12961=-5.555514e-02
12971=-4.259066e-02
12972=3.057582e-01
12982=-4.259066e-02
12983=3.057582e-01
12993=-1.766869e-01
12994=3.644502e-01
13005=8.635258e-03
13015=9.956701e-05
13027=8.532172e-03
13038=-1.620925e-03
13039=6.150037e-02
13049=3.872283e-03
13060=4.604466e-03
13072=4.944377e-02
13083=4.803875e-02
13092=-6.835115e-03
13093=1.470540e-02
13103=-6.835115e-03
13104=1.470540e-02
13114=-6.835115e-03
13115=1.470540e-02
13125=-6.835115e-03
13126=1.470540e-02
13136=-6.835115e-03
13137=1.470540e-02
13147=-6.835115e-03
13148=1.470540e-02
13158=-6.835115e-03
13159=1.470540e-02
13169=-6.835115e-03
13170=1.470540e-02
13180=-6.835115e-03
13181=1.470540e-02
13191=-2.104737e-02
13192=5.779325e-03
13202=-2.104737e-02
13203=5.779325e-03
13214=9.787199e-04
13225=9.787199e-04
13236=9.787199e-04
13247=9.787199e-04
13258=9.787199e-04
13269=9.787199e-04
13280=9.787199e-04
13291=9.787199e-04
13301=-1.625944e-02
13302=1.327929e-01
13312=-2.706510e-04
13323=-2.706510e-04
13334=-2.706510e-04
13345=-2.706510e-04
13357=1.999555e-01
13370=1.593143e-03
13378=2.196513e-03
13379=-5.657564e-06
13390=-1.255104e-06
13400=4.329170e-03
13401=-6.414323e-06
13412=-2.793741e-06
13422=4.019293e-03
13423=-3.276896e-04
13434=1.043152e-03
13445=1.043152e-03
13456=1.043152e-03
13467=1.043152e-03
13478=-1.423403e-01
13479=8.490618e-01
13488=2.650814e-02
13489=-1.180426e-02
13499=6.668895e-05
13500=-5.338426e-05
13510=1.293895e-04
13521=2.939417e-01
13522=-3.178398e-02
13535=-4.428279e-02
13540=6.853450e-02
13546=-1.417138e-02
13551=6.192609e-02
13612=-2.062458e-01
13617=7.699525e-02
13634=2.486134e-02
13675=2.858652e-03
13686=2.211386e-02
13698=8.946001e-02
13708=9.055286e-03
13719=-1.856483e-02
13720=1.249405e-01
13731=-2.043750e-02
13732=5.055472e-02
13742=-2.043750e-02
13743=5.055472e-02
13753=-2.043750e-02
13754=5.055472e-02
13764=-2.043750e-02
13765=5.055472e-02
13775=-2.043750e-02
13776=5.055472e-02
13786=-2.043750e-02
13787=5.055472e-02
13797=-2.043750e-02
13798=5.055472e-02
13807=-2.255600e-04
13808=5.492587e-03
13818=-2.255600e-04
13819=5.492587e-03
13829=-2.255600e-04
13830=5.492587e-03
13840=-2.255600e-04
13841=5.492587e-03
13851=-2.255600e-04
13852=5.492587e-03
13862=-2.255600e-04
13863=5.492587e-03
13873=-2.255600e-04
13874=5.492587e-03
13884=-2.255600e-04
13885=5.492587e-03
13895=-3.256440e-01
13896=6.397662e-01
13907=1.179103e-02
13917=-5.047362e-03
13918=9.700011e-03
13928=-4.042160e-03
13929=6.095856e-03
13939=-5.047362e-03
13940=9.700011e-03
13950=-5.047362e-03
13951=9.700011e-03
13961=-5.047362e-03
13962=9.700011e-03
13972=-5.047362e-03
13973=9.700011e-03
13983=-5.047362e-03
13984=9.700011e-03
13994=-5.047362e-03
13995=9.700011e-03
14005=-5.047362e-03
14006=9.700011e-03
14016=-2.326505e-01
14017=5.068368e-01
14027=-2.326505e-01
14028=5.068368e-01
14039=2.596491e-02
14050=2.596491e-02
14061=2.596491e-02
14072=2.596491e-02
14083=1.009726e-04
14094=2.596491e-02
14105=2.596491e-02
14116=2.185244e-02
14126=-1.063744e-04
14138=7.938797e-05
14150=7.765285e-03
14161=7.765285e-03
14172=7.765285e-03
14183=7.765285e-03
14194=7.765285e-03
14205=7.765285e-03
14216=7.765285e-03
14227=7.765285e-03
14239=-2.988777e-02
14244=6.969775e-02
14247=2.301070e-02
14248=-1.237980e-02
14258=3.847733e-01
14259=-3.211880e-01
14269=-6.134988e-02
14270=1.049131e-01
14280=-6.134988e-02
14281=1.049131e-01
14291=-6.134988e-02
14292=1.049131e-01
14302=-6.134988e-02
14303=1.049131e-01
14313=-6.134988e-02
14314=1.049131e-01
14324=-6.134988e-02
14325=1.049131e-01
14335=-6.134988e-02
14336=1.049131e-01
14346=-6.134988e-02
14347=1.049131e-01
14357=-6.134988e-02
14358=1.049131e-01
14368=-6.134988e-02
14369=1.049131e-01
14380=8.953067e-04
14391=8.953067e-04
14402=8.953067e-04
14413=8.953067e-04
14424=8.953067e-04
14435=8.953067e-04
14446=8.953067e-04
14457=8.953067e-04
14468=8.953067e-04
14479=8.953067e-04
14490=-3.041618e-02
14491=7.037351e-02
14501=-3.041618e-02
14502=7.037351e-02
14512=-3.041618e-02
14513=7.037351e-02
14523=-3.041618e-02
14524=7.037351e-02
14534=-3.041618e-02
14535=7.037351e-02
14545=-3.041618e-02
14546=7.037351e-02
14556=-3.041618e-02
14557=7.037351e-02
14573=6.938257e-02
14584=6.938257e-02
14595=6.938257e-02
14606=6.938257e-02
14617=6.938257e-02
14621=1.347331e-01
14622=-7.145341e-02
14632=1.347331e-01
14633=-7.145341e-02
14643=1.553355e-03
14654=6.499594e-02
14655=-4.371292e-02
14665=6.499594e-02
14666=-4.371292e-02
14676=1.684969e-03
14677=-2.523083e-03
14687=1.306867e-03
14698=1.306867e-03
14709=1.306867e-03
14720=6.499594e-02
14721=-4.371292e-02
14731=6.499594e-02
14732=-4.371292e-02
14742=6.499594e-02
14743=-4.371292e-02
14753=6.499594e-02
14754=-4.371292e-02
14764=1.477871e-02
14775=1.477871e-02
14786=1.477871e-02
14797=1.477871e-02
14813=1.870318e-02
14910=1.634665e-03
14954=-2.931852e-02
14959=7.065309e-02
14965=-2.931852e-02
14970=7.065309e-02
14976=-2.931852e-02
14981=7.065309e-02
14987=-2.931852e-02
14992=7.065309e-02
14998=-2.931852e-02
15003=7.065309e-02
15009=-2.931852e-02
15014=7.065309e-02
15020=-2.931852e-02
15025=7.065309e-02
