#mdl#2#1585
#rdr#61/19/0
1:*,
18:u:Tok-1 X=%x[ 0,0],
18:u:tok-1 X=%x[ 0,1],
18:u:tok-1LL=%X[-2,0],
18:u:tok-1 L=%X[-1,0],
18:u:tok-1 R=%X[ 1,0],
18:u:tok-1RR=%X[ 2,0],
27:u:tok-2 L=%X[-1,0]/%X[ 0,0],
27:u:tok-2 R=%X[ 0,0]/%X[ 1,0],
18:*:Fst-1 X=%x[ 0,2],
18:u:Fst-1 R=%x[ 1,2],
27:u:Fst-2 X=%x[ 0,2]/%x[ 0,4],
27:u:Fst-2 R=%x[ 1,2]/%x[ 1,4],
18:*:Lst-1 L=%x[-1,3],
18:u:Lst-1 X=%x[ 0,3],
27:u:Lst-2 L=%x[-1,3]/%x[-1,6],
27:u:Lst-2 X=%x[ 0,3]/%x[ 0,6],
18:u:Pre-1 X=%x[ 0,4],
18:u:Pre-2 X=%x[ 0,5],
18:u:Pre-2 R=%x[ 1,5],
18:u:Suf-1 X=%x[ 0,6],
18:u:Suf-2 L=%x[-1,7],
18:u:Suf-2 X=%x[ 0,7],
18:u:Cap-1 L=%x[-1,8],
18:u:Cap-1 X=%x[ 0,8],
18:u:Cap-1 R=%x[ 1,8],
27:u:Cap-2 L=%x[-1,8]/%x[ 0,8],
27:u:Cap-2 R=%x[ 0,8]/%x[ 1,8],
28:u:Cap-3 L=%x[-1,18]/%x[ 0,8],
18:*:Num-1 L=%x[-1,9],
18:*:Num-1 X=%x[ 0,9],
18:u:Num-1 R=%x[ 1,9],
28:u:Num-2 R=%x[ 0,9]/%x[ 0,17],
28:u:Num-2 R=%x[ 0,9]/%x[ 0,18],
19:u:Nme-1 X=%x[ 0,10],
19:u:Loc-1 X=%x[ 0,11],
19:u:Pub-1 X=%x[ 0,12],
19:u:Jnl-1 X=%x[ 0,13],
19:u:Key-1 L=%x[-1,14],
19:u:Key-1 X=%x[ 0,14],
19:u:Key-1 R=%x[ 1,14],
28:u:Key-2 X=%x[ 0,14]/%x[ 0,8],
29:u:Key-3 L=%x[-1,18]/%x[ 0,14],
29:u:Key-3 x=%x[ 0,14]/%x[ 0,18],
19:u:Pos-1 X=%x[ 0,15],
29:u:Pos-2 L=%x[-1,15]/%x[ 0,15],
29:u:Pos-2 R=%x[ 0,15]/%x[ 1,15],
19:u:Pct-1 L=%x[-1,16],
19:u:Pct-1 X=%x[ 0,16],
19:u:Pct-1 R=%x[ 1,16],
19:u:Brk-1 L=%x[-1,17],
19:u:Brk-1 X=%x[ 0,17],
19:u:Brk-1 R=%x[ 1,17],
19:*:Tmn-1 L=%x[-1,18],
19:u:Tmn-1 X=%x[ 0,18],
19:u:Tmn-1 R=%x[ 1,18],
29:u:Tmn-2 L=%x[-1,14]/%x[ 0,18],
29:u:Tmn-2 R=%x[ 0,18]/%x[ 1,14],
28:u:Tmn-3 X=%x[ 0,18]/%x[ 0,6],
28:u:Tmn-4 R=%x[ 0,18]/%x[ 1,8],
19:u:Id--1 X=%x[ 0,19],
#qrk#11
7:Authors,
4:Year,
5:Title,
6:Series,
6:Volume,
5:Issue,
10:Pagination,
9:Publisher,
4:City,
3:DOI,
4:Book,
#qrk#708
1:*,
14:u:tok-1LL=_x-2,
14:u:tok-1 L=_x-1,
12:*:Fst-1 X=Lu,
12:u:Fst-1 R=Lu,
14:*:Lst-1 L=_x-1,
11:u:Lst-1 X=P,
19:u:Lst-2 L=_x-1/_x-1,
13:u:Lst-2 X=P/,,
11:u:Suf-1 X=,,
14:u:Suf-2 L=_x-1,
14:u:Cap-1 L=_x-1,
17:u:Cap-1 X=initial,
17:u:Cap-1 R=initial,
22:u:Cap-2 L=_x-1/initial,
25:u:Cap-2 R=initial/initial,
22:u:Cap-3 L=_x-1/initial,
14:*:Num-1 L=_x-1,
14:*:Num-1 X=none,
14:u:Num-1 R=none,
19:u:Num-2 R=none/none,
19:u:Num-2 R=none/weak,
11:u:Nme-1 X=F,
11:u:Loc-1 X=F,
11:u:Pub-1 X=F,
11:u:Jnl-1 X=F,
14:u:Key-1 L=_x-1,
14:u:Key-1 X=none,
14:u:Key-1 R=none,
22:u:Key-2 X=none/initial,
19:u:Key-3 L=_x-1/none,
19:u:Key-3 x=none/weak,
15:u:Pos-1 X=first,
20:u:Pos-2 L=_x-1/first,
17:u:Pos-2 R=first/0,
14:u:Pct-1 L=_x-1,
15:u:Pct-1 X=other,
14:u:Pct-1 R=none,
14:u:Brk-1 L=_x-1,
14:u:Brk-1 X=none,
14:u:Brk-1 R=none,
14:*:Tmn-1 L=_x-1,
14:u:Tmn-1 X=weak,
14:u:Tmn-1 R=none,
19:u:Tmn-2 R=weak/none,
16:u:Tmn-3 X=weak/,,
11:u:Id--1 X=F,
14:u:tok-1LL=_x-1,
11:u:Fst-1 R=N,
13:u:Fst-2 R=N/1,
11:*:Lst-1 L=P,
12:u:Lst-1 X=Ll,
13:u:Lst-2 L=P/,,
14:u:Lst-2 X=Ll/e,
12:u:Pre-2 R=19,
11:u:Suf-1 X=e,
12:u:Suf-2 X=ne,
17:u:Cap-1 L=initial,
15:u:Cap-1 R=other,
25:u:Cap-2 L=initial/initial,
23:u:Cap-2 R=initial/other,
22:u:Cap-3 L=weak/initial,
14:*:Num-1 L=none,
14:u:Num-1 R=year,
14:u:Key-1 L=none,
19:u:Key-3 L=weak/none,
19:u:Key-3 x=none/none,
11:u:Pos-1 X=0,
17:u:Pos-2 L=first/0,
15:u:Pct-1 L=other,
14:u:Pct-1 X=none,
14:u:Brk-1 L=none,
14:*:Tmn-1 L=weak,
14:u:Tmn-1 X=none,
19:u:Tmn-2 L=none/none,
19:u:Tmn-2 R=none/none,
16:u:Tmn-3 X=none/e,
20:u:Tmn-4 R=none/other,
11:*:Fst-1 X=N,
13:u:Fst-2 X=N/1,
14:u:Fst-2 R=Lu/C,
12:*:Lst-1 L=Ll,
11:u:Lst-1 X=N,
14:u:Lst-2 L=Ll/e,
11:u:Pre-1 X=1,
12:u:Pre-2 X=19,
15:u:Cap-1 X=other,
23:u:Cap-2 L=initial/other,
20:u:Cap-3 L=none/other,
14:*:Num-1 X=year,
19:u:Num-2 R=year/none,
20:u:Key-2 X=none/other,
19:u:Key-3 L=none/none,
14:u:Pct-1 L=none,
14:*:Tmn-1 L=none,
22:u:Tmn-4 R=none/initial,
12:u:Fst-1 R=Ll,
14:u:Fst-2 X=Lu/C,
11:*:Lst-1 L=N,
14:u:Lst-2 X=Ll/s,
11:u:Pre-1 X=C,
11:u:Suf-1 X=s,
15:u:Cap-1 L=other,
15:u:Cap-1 R=lower,
23:u:Cap-2 L=other/initial,
23:u:Cap-2 R=initial/lower,
22:u:Cap-3 L=none/initial,
14:*:Num-1 L=year,
11:u:Jnl-1 X=T,
16:u:Tmn-3 X=none/s,
20:u:Tmn-4 R=none/lower,
12:u:tok-1RR=de,
12:*:Fst-1 X=Ll,
14:u:Fst-2 R=Ll/l,
14:u:Lst-2 L=Ll/s,
15:u:Cap-1 X=lower,
23:u:Cap-2 L=initial/lower,
21:u:Cap-2 R=lower/lower,
20:u:Cap-3 L=none/lower,
20:u:Key-2 X=none/lower,
11:u:Pos-1 X=1,
13:u:Pos-2 R=1/1,
15:u:Pct-1 R=other,
12:u:tok-1 R=de,
12:u:tok-1RR=la,
14:u:Fst-2 X=Ll/l,
14:u:Fst-2 R=Ll/d,
11:u:Pre-1 X=l,
12:u:Pre-2 R=de,
12:u:Suf-2 X=de,
15:u:Cap-1 L=lower,
21:u:Cap-2 L=lower/lower,
12:u:Tok-1 X=de,
12:u:tok-1 X=de,
12:u:tok-1 R=la,
15:u:tok-2 R=de/la,
14:u:Fst-2 X=Ll/d,
11:u:Pre-1 X=d,
12:u:Pre-2 X=de,
12:u:Pre-2 R=la,
12:u:Suf-2 L=de,
12:u:Tok-1 X=la,
12:u:tok-1 X=la,
12:u:tok-1 L=de,
15:u:tok-2 L=de/la,
14:u:Fst-2 R=Ll/f,
14:u:Lst-2 X=Ll/a,
12:u:Pre-2 X=la,
11:u:Suf-1 X=a,
12:u:Suf-2 X=la,
16:u:Tmn-3 X=none/a,
12:u:tok-1LL=de,
14:u:Fst-2 X=Ll/f,
14:u:Lst-2 L=Ll/a,
11:u:Pre-1 X=f,
12:u:Suf-2 L=la,
16:u:Pct-1 R=period,
16:u:Tmn-1 R=strong,
14:u:Fst-2 R=Lu/V,
13:u:Lst-2 X=P/.,
12:u:Pre-2 R=VI,
11:u:Suf-1 X=.,
14:u:Cap-1 R=caps,
20:u:Cap-2 R=lower/caps,
15:u:Num-1 R=roman,
21:u:Num-2 R=none/strong,
15:u:Key-1 R=roman,
21:u:Key-3 x=none/strong,
16:u:Pct-1 X=period,
16:u:Tmn-1 X=strong,
21:u:Tmn-2 L=none/strong,
18:u:Tmn-3 X=strong/.,
14:u:Fst-2 X=Lu/V,
13:u:Lst-2 L=P/.,
11:u:Pre-1 X=V,
12:u:Suf-2 L=e.,
21:u:Cap-3 L=strong/caps,
15:*:Num-1 X=roman,
20:u:Num-2 R=roman/none,
22:u:Key-3 L=strong/roman,
16:u:Pct-1 L=period,
16:*:Tmn-1 L=strong,
21:u:Tmn-2 R=strong/none,
24:u:Tmn-4 R=strong/initial,
12:u:Suf-2 L=I.,
12:u:Suf-2 X=es,
24:u:Cap-3 L=strong/initial,
15:*:Num-1 L=roman,
11:u:Nme-1 X=T,
21:u:Key-3 L=strong/none,
20:u:Tmn-2 L=roman/none,
12:u:Suf-2 L=es,
11:u:Pos-1 X=2,
13:u:Pos-2 L=1/2,
13:u:Pos-2 R=2/2,
14:u:Fst-2 R=Ll/p,
13:u:Pos-2 L=2/2,
14:u:Lst-2 X=Ll/r,
11:u:Suf-1 X=r,
16:u:Tmn-3 X=none/r,
14:u:Fst-2 R=Ll/v,
14:u:Lst-2 L=Ll/r,
12:u:Suf-2 X=le,
14:u:Fst-2 X=Ll/v,
11:u:Pre-1 X=v,
12:u:Suf-2 L=le,
12:u:Suf-2 X=er,
12:u:Suf-2 L=er,
21:u:Cap-2 R=lower/other,
21:u:Cap-2 L=lower/other,
13:u:Pos-2 R=2/3,
23:u:Cap-2 R=lower/initial,
11:u:Pos-1 X=3,
13:u:Pos-2 L=2/3,
13:u:Pos-2 R=3/3,
12:*:Fst-1 X=Ps,
11:*:Lst-1 L=S,
23:u:Cap-2 L=lower/initial,
11:u:Loc-1 X=T,
13:u:Pos-2 L=3/3,
22:u:Tmn-4 R=strong/lower,
12:*:Lst-1 L=Pe,
22:u:Cap-3 L=strong/lower,
14:u:Fst-2 R=Ll/e,
14:u:Fst-2 X=Ll/e,
14:u:Lst-2 X=Ll/t,
11:u:Pre-1 X=e,
11:u:Suf-1 X=t,
12:u:Suf-2 X=et,
13:u:Pos-2 R=3/4,
16:u:Tmn-3 X=none/t,
14:u:Lst-2 L=Ll/t,
12:u:Suf-2 L=et,
11:u:Pos-1 X=4,
13:u:Pos-2 L=3/4,
13:u:Pos-2 R=4/4,
13:u:Pos-2 L=4/4,
12:u:tok-1RR=of,
14:u:Fst-2 R=Ll/s,
12:u:Suf-2 X=he,
11:u:Pub-1 X=T,
13:u:tok-1 L=the,
12:u:tok-1 R=of,
14:u:Fst-2 X=Ll/s,
14:u:Fst-2 R=Ll/o,
14:u:Lst-2 X=Ll/y,
11:u:Pre-1 X=s,
12:u:Pre-2 R=of,
11:u:Suf-1 X=y,
12:u:Suf-2 L=he,
16:u:Tmn-3 X=none/y,
12:u:Tok-1 X=of,
12:u:tok-1 X=of,
13:u:tok-1LL=the,
14:u:Fst-2 X=Ll/o,
14:u:Lst-2 L=Ll/y,
11:u:Pre-1 X=o,
12:u:Pre-2 X=of,
12:u:Suf-2 X=of,
14:u:Fst-2 R=Lu/B,
14:u:Lst-2 L=Ll/f,
12:u:Pre-2 R=Be,
13:u:Pos-2 R=4/5,
14:u:Fst-2 X=Lu/B,
14:u:Lst-2 X=Ll/n,
11:u:Pre-1 X=B,
11:u:Suf-1 X=n,
11:u:Pos-1 X=5,
13:u:Pos-2 L=4/5,
13:u:Pos-2 R=5/5,
16:u:Tmn-3 X=none/n,
14:u:Lst-2 L=Ll/n,
13:u:Pos-2 L=5/5,
11:u:Id--1 X=T,
14:u:Fst-2 R=Lu/T,
15:u:Pct-1 L=colon,
18:*:Tmn-1 L=moderate,
14:u:Fst-2 X=Lu/T,
11:u:Pre-1 X=T,
12:u:Suf-2 X=ge,
14:u:Lst-2 X=Ll/d,
11:u:Suf-1 X=d,
16:u:Tmn-3 X=none/d,
14:u:Lst-2 L=Ll/d,
13:u:Pos-2 R=5/6,
11:u:Pos-1 X=6,
13:u:Pos-2 L=5/6,
13:u:Pos-2 R=6/6,
14:u:Lst-2 X=Ll/m,
11:u:Suf-1 X=m,
13:u:Pos-2 L=6/6,
16:u:Tmn-3 X=none/m,
14:u:Lst-2 L=Ll/m,
14:u:Fst-2 R=Ll/i,
14:u:Fst-2 X=Ll/i,
11:u:Pre-1 X=i,
12:u:tok-1LL=in,
13:u:Pos-2 R=6/7,
11:u:Pos-1 X=7,
13:u:Pos-2 L=6/7,
13:u:Pos-2 R=7/7,
13:u:Pos-2 L=7/7,
18:u:Tmn-2 R=none/and,
18:u:Key-3 L=none/and,
12:u:Pre-2 R=Bu,
12:u:Suf-2 L=nd,
13:u:Key-1 L=and,
17:u:Key-1 R=journal,
18:u:Tok-1 X=Bulletin,
18:u:tok-1 X=bulletin,
12:u:tok-1 R=du,
12:u:Pre-2 X=Bu,
12:u:Pre-2 R=du,
17:u:Key-1 X=journal,
25:u:Key-2 X=journal/initial,
22:u:Key-3 x=journal/none,
15:u:tok-1RR=royal,
14:u:Fst-2 R=Lu/M,
14:u:Lst-2 X=Ll/u,
12:u:Pre-2 R=Mu,
11:u:Suf-1 X=u,
16:u:Tmn-3 X=none/u,
15:u:tok-1 R=royal,
14:u:Fst-2 X=Lu/M,
14:u:Fst-2 R=Lu/R,
11:u:Pre-1 X=M,
12:u:Pre-2 R=Ro,
13:u:Pos-2 R=7/8,
14:u:Fst-2 X=Lu/R,
14:u:Lst-2 X=Ll/l,
11:u:Pre-1 X=R,
11:u:Suf-1 X=l,
11:u:Pos-1 X=8,
13:u:Pos-2 R=8/8,
16:u:Tmn-3 X=none/l,
14:u:Fst-2 R=Lu/N,
12:u:Pre-2 R=Na,
12:u:Suf-2 L=al,
12:u:Suf-2 X=re,
13:u:Pos-2 L=8/8,
14:u:Fst-2 X=Lu/N,
11:u:Pre-1 X=N,
12:u:Pre-2 X=Na,
12:u:Suf-2 L=re,
13:u:tok-1RR=van,
12:u:Pre-2 R=Me,
12:u:Suf-2 L=ue,
12:u:Suf-2 X=en,
12:u:Suf-2 L=en,
13:u:Pos-2 R=8/9,
14:u:Fst-2 R=Lu/K,
12:u:Pre-2 R=Ko,
11:u:Pos-1 X=9,
13:u:Pos-2 L=8/9,
13:u:Pos-2 R=9/9,
16:u:tok-1RR=museum,
14:u:Fst-2 X=Lu/K,
11:u:Pre-1 X=K,
12:u:Pre-2 X=Ko,
13:u:Pos-2 L=9/9,
14:u:Lst-2 L=Ll/h,
21:u:Cap-2 R=other/other,
16:*:Num-1 X=double,
21:u:Num-2 R=double/none,
12:u:Pre-2 R=1-,
21:u:Cap-2 L=other/other,
16:*:Num-1 L=double,
17:u:Num-1 R=numeric,
16:u:Pct-1 R=hyphen,
14:u:Tmn-1 R=weak,
17:*:Num-1 X=numeric,
16:u:Num-1 R=single,
16:u:Pct-1 X=hyphen,
19:u:Tmn-2 L=none/weak,
14:u:tok-1RR=_x+1,
17:*:Num-1 L=numeric,
16:*:Num-1 X=single,
21:u:Num-2 R=single/none,
16:u:Pct-1 L=hyphen,
14:u:tok-1 R=_x+1,
14:u:tok-1RR=_x+2,
14:u:Fst-1 R=_x+1,
19:u:Fst-2 R=_x+1/_x+1,
14:u:Pre-2 R=_x+1,
14:u:Cap-1 R=_x+1,
14:u:Num-1 R=_x+1,
14:u:Key-1 R=_x+1,
14:u:Pos-1 X=last,
19:u:Pos-2 R=last/_x+1,
14:u:Pct-1 R=_x+1,
14:u:Brk-1 R=_x+1,
14:u:Tmn-1 R=_x+1,
16:u:Cap-1 R=single,
14:u:Fst-2 R=Lu/G,
16:u:Cap-1 X=single,
24:u:Cap-2 L=initial/single,
23:u:Cap-2 R=single/single,
21:u:Key-2 X=none/single,
23:u:Tmn-4 R=strong/single,
14:u:Fst-2 X=Lu/G,
11:u:Pre-1 X=G,
16:u:Cap-1 L=single,
14:u:Fst-2 R=Lu/S,
12:u:Pre-2 R=St,
14:u:Fst-2 X=Lu/S,
11:u:Pre-1 X=S,
14:u:Fst-2 R=Lu/I,
14:u:Fst-2 X=Lu/I,
11:u:Pre-1 X=I,
24:u:Cap-2 R=single/initial,
13:u:Tok-1 X=Die,
13:u:tok-1 X=die,
14:u:Fst-2 X=Lu/D,
14:u:Fst-2 R=Lu/F,
11:u:Pre-1 X=D,
12:u:Pre-2 X=Di,
24:u:Cap-2 L=single/initial,
14:u:Fst-2 X=Lu/F,
14:u:Fst-2 R=Lu/P,
11:u:Pre-1 X=F,
14:u:Fst-2 X=Lu/P,
11:u:Pre-1 X=P,
14:u:Fst-2 R=Lu/A,
13:u:tok-1LL=und,
14:u:Fst-2 X=Lu/A,
11:u:Pre-1 X=A,
14:u:Fst-2 X=Lu/Z,
11:u:Pre-1 X=Z,
12:u:Pre-2 X=Zo,
12:u:Pre-2 R=So,
12:u:Suf-2 L=ca,
18:u:Tok-1 X=Societas,
18:u:tok-1 X=societas,
19:u:tok-1LL=zoologica,
17:u:tok-1 L=fennica,
13:u:tok-1 R=pro,
15:u:tok-1RR=fauna,
26:u:tok-2 L=fennica/societas,
22:u:tok-2 R=societas/pro,
12:u:Pre-2 X=So,
12:u:Pre-2 R=pr,
12:u:Suf-2 X=as,
12:u:Suf-2 L=na,
13:u:Lst-2 X=N/0,
11:u:Suf-1 X=0,
15:u:Num-1 R=range,
16:u:Pos-2 R=9/last,
16:u:Tmn-3 X=none/0,
20:u:Cap-2 R=other/_x+1,
15:*:Num-1 X=range,
20:u:Num-2 R=range/none,
16:u:Pos-2 L=9/last,
14:u:Fst-2 R=Lu/U,
14:u:Fst-2 X=Ll/g,
11:u:Pre-1 X=g,
12:u:Suf-2 L=da,
11:u:tok-1 R=8,
13:u:Fst-2 R=N/8,
12:u:Pre-2 X=Ma,
11:u:Pre-2 R=8,
13:u:Fst-2 R=N/2,
13:u:Fst-2 X=N/2,
11:u:Pre-1 X=2,
15:*:Num-1 L=range,
12:u:Pre-2 R=vi,
12:u:Pre-2 X=vi,
12:u:Suf-2 L=on,
14:u:Fst-2 R=Lu/O,
12:*:Lst-1 L=Pd,
12:u:Suf-2 X=is,
12:u:Suf-2 L=is,
13:u:tok-1 L=der,
12:u:Pre-2 R=Os,
13:u:tok-1LL=der,
12:u:Pre-2 R=Sc,
14:u:Lst-2 X=Ll/g,
11:u:Suf-1 X=g,
16:u:Tmn-3 X=none/g,
14:u:Lst-2 L=Ll/g,
12:u:Suf-2 L=ng,
12:u:Pre-2 R=Bi,
12:u:Pre-2 X=Bi,
12:u:Tok-1 X=K.,
11:u:tok-1 X=k,
12:u:Pre-2 X=K.,
12:u:Suf-2 X=K.,
12:u:Pre-2 X=Is,
18:u:Tok-1 X=Istanbul,
18:u:tok-1 X=istanbul,
12:u:Suf-2 X=ul,
21:u:Cap-3 L=none/single,
14:u:tok-1LL=seri,
11:u:tok-1 L=b,
14:u:tok-1RR=1-29,
20:u:tok-2 L=b/istanbul,
20:u:tok-2 R=istanbul/8,
12:*:Lst-1 L=Lu,
14:u:Lst-2 L=Lu/B,
11:u:Suf-2 L=B,
13:u:Lst-2 X=P/;,
11:u:Suf-1 X=;,
16:u:Tmn-3 X=weak/;,
13:u:Lst-2 L=P/;,
12:u:Suf-2 L=ia,
12:u:Pre-2 R=18,
12:u:Pre-2 X=18,
15:u:tok-1 R=bull.,
15:u:Tok-1 X=Bull.,
14:u:tok-1 X=bull,
12:u:Suf-2 X=l.,
12:u:Suf-2 X=n.,
20:u:Cap-2 R=caps/other,
12:u:Pre-2 X=Re,
12:u:Pre-2 X=Pr,
20:u:Tmn-2 R=none/roman,
19:u:Tmn-4 R=none/caps,
14:u:Lst-2 X=Lu/I,
11:u:Suf-1 X=I,
20:u:Key-3 x=roman/none,
16:u:Tmn-3 X=none/I,
20:u:Cap-3 L=weak/lower,
13:u:Lst-2 L=N/2,
15:u:tok-1 L=genus,
14:u:Fst-2 R=Lu/J,
14:u:Fst-2 R=Lu/H,
14:u:Fst-2 X=Lu/H,
11:u:Pre-1 X=H,
12:u:Pre-2 R=Sy,
18:u:tok-1 R=tierwelt,
18:u:Tok-1 X=Tierwelt,
18:u:tok-1 X=tierwelt,
12:u:Pre-2 X=Ti,
12:u:Suf-2 X=lt,
18:u:tok-1 L=tierwelt,
12:u:Suf-2 L=lt,
18:u:tok-1LL=tierwelt,
12:u:tok-1 L=p.,
12:u:Suf-2 L=P.,
12:u:tok-1LL=p.,
12:u:Pre-2 X=Ba,
17:u:Tok-1 X=Travaux,
17:u:tok-1 X=travaux,
17:u:tok-1 L=roscoff,
25:u:tok-2 L=roscoff/travaux,
20:u:tok-2 R=travaux/de,
12:u:Pre-2 X=Tr,
12:u:Suf-2 L=ff,
17:u:tok-1LL=roscoff,
17:u:tok-1 L=travaux,
17:u:tok-1RR=station,
20:u:tok-2 L=travaux/de,
17:u:tok-1LL=travaux,
17:u:tok-1 R=station,
20:u:tok-1RR=biologique,
20:u:tok-2 R=la/station,
12:u:Suf-2 L=9,,
22:u:tok-2 R=die/tierwelt,
14:u:tok-1 X=nord,
18:u:Tmn-2 R=weak/and,
15:u:tok-1 L=nord-,
19:u:tok-2 L=nord-/und,
12:u:Suf-2 L=d-,
15:u:tok-1LL=nord-,
12:u:Pre-2 R=In,
12:u:Suf-2 X=e,,
12:u:Pre-2 X=Wa,
16:u:tok-1 R=kieler,
12:u:Pre-2 R=Ki,
15:u:Tok-1 X=Bucht,
15:u:tok-1 X=bucht,
22:u:tok-2 L=kieler/bucht,
12:u:Suf-2 X=ht,
12:u:Suf-2 X=a.,
18:u:Tmn-2 L=and/none,
13:u:Tok-1 X=Det,
13:u:tok-1 X=det,
22:u:tok-1LL=echinoderms.,
12:u:tok-1 L=iv,
19:u:tok-1 R=kongelige,
16:u:tok-1RR=danske,
16:u:tok-2 L=iv/det,
23:u:tok-2 R=det/kongelige,
14:u:Lst-2 L=Lu/V,
12:u:Suf-2 L=IV,
19:u:Tok-1 X=Kongelige,
19:u:tok-1 X=kongelige,
12:u:tok-1LL=iv,
13:u:tok-1 L=det,
16:u:tok-1 R=danske,
24:u:tok-1RR=videnskabernes,
23:u:tok-2 L=det/kongelige,
26:u:tok-2 R=kongelige/danske,
12:u:Pre-2 R=Da,
16:u:Tok-1 X=Danske,
16:u:tok-1 X=danske,
13:u:tok-1LL=det,
19:u:tok-1 L=kongelige,
24:u:tok-1 R=videnskabernes,
18:u:tok-1RR=selskabs,
26:u:tok-2 L=kongelige/danske,
31:u:tok-2 R=danske/videnskabernes,
12:u:Pre-2 X=Da,
12:u:Suf-2 X=ke,
24:u:Tok-1 X=videnskabernes,
24:u:tok-1 X=videnskabernes,
19:u:tok-1LL=kongelige,
16:u:tok-1 L=danske,
18:u:tok-1 R=selskabs,
19:u:tok-1RR=skrifter.,
31:u:tok-2 L=danske/videnskabernes,
33:u:tok-2 R=videnskabernes/selskabs,
12:u:Pre-2 R=se,
12:u:Suf-2 L=ke,
18:u:Tok-1 X=selskabs,
18:u:tok-1 X=selskabs,
16:u:tok-1LL=danske,
24:u:tok-1 L=videnskabernes,
19:u:tok-1 R=skrifter.,
28:u:tok-1RR=naturvidenskabelig,
33:u:tok-2 L=videnskabernes/selskabs,
28:u:tok-2 R=selskabs/skrifter.,
12:u:Pre-2 X=se,
12:u:Pre-2 R=sk,
12:u:Suf-2 X=bs,
19:u:Tok-1 X=skrifter.,
18:u:tok-1 X=skrifter,
24:u:tok-1LL=videnskabernes,
18:u:tok-1 L=selskabs,
28:u:tok-1 R=naturvidenskabelig,
12:u:tok-1RR=og,
28:u:tok-2 L=selskabs/skrifter.,
38:u:tok-2 R=skrifter./naturvidenskabelig,
12:u:Pre-2 X=sk,
12:u:Suf-2 L=bs,
12:u:Suf-2 X=r.,
16:u:Tok-1 X=series,
16:u:tok-1 X=series,
19:u:tok-1LL=afdeling.,
12:u:tok-1 L=9,,
13:u:tok-1 R=vii,
11:u:tok-1RR=3,
19:u:tok-2 L=9,/series,
20:u:tok-2 R=series/vii,
16:u:Key-1 X=series,
22:u:Key-2 X=series/lower,
21:u:Key-3 L=weak/series,
21:u:Key-3 x=series/none,
14:u:tok-1LL=bay.,
12:u:Pre-2 X=Ge,
17:u:tok-1 R=science,
17:u:tok-1RR=reports,
12:u:Suf-2 X=m.,
12:u:Pre-2 R=Ar,
14:u:Lst-2 X=Ll/v,
12:u:Pre-2 X=Ar,
11:u:Suf-1 X=v,
12:u:Suf-2 X=iv,
16:u:Tmn-3 X=none/v,
14:u:Lst-2 L=Ll/v,
12:u:Suf-2 L=iv,
12:u:Suf-2 X=p.,
12:u:Suf-2 L=p.,
24:u:Cap-3 L=moderate/lower,
19:u:tok-1 R=mémoires,
13:u:Pre-2 R=Mé,
19:u:Tok-1 X=Mémoires,
18:u:tok-1 X=memoires,
13:u:Pre-2 X=Mé,
16:u:tok-1 X=waters,
27:u:tok-1RR=meeresforschungen,
12:u:Pre-2 X=10,
14:u:tok-1RR=für,
14:u:tok-1RR=soc.,
12:u:Suf-2 X=c.,
17:u:tok-1LL=ordnung,
16:u:tok-1 L=ulvale,
18:u:tok-1 R=fysiogr.,
18:u:tok-1RR=sällsk.,
19:u:tok-2 L=ulvale/k.,
21:u:tok-2 R=k./fysiogr.,
12:u:Pre-2 R=Fy,
12:u:Suf-2 X=k.,
12:u:Suf-2 X=em,
15:u:tok-1LL=north,
16:u:Tok-1 X=Waters,
17:u:tok-1LL=british,
17:u:tok-1 L=coastal,
16:u:tok-1 R=nature,
13:u:tok-1RR=159,
24:u:tok-2 L=coastal/waters,
23:u:tok-2 R=waters/nature,
12:u:Suf-2 X=rs,
26:u:Tok-1 X=10.1038/159501a0,
24:u:tok-1 X=101038159501a0,
14:u:tok-1LL=4041,
17:u:tok-1 L=501-502,
34:u:tok-2 L=501-502/10.1038/159501a0,
31:u:tok-2 R=10.1038/159501a0/_x+1,
12:u:Suf-2 L=02,
12:u:Suf-2 X=a0,
15:u:Tok-1 X=Proc.,
14:u:tok-1 X=proc,
18:u:tok-1 L=carolina,
21:u:tok-1 R=helminthol.,
24:u:tok-2 L=carolina/proc.,
27:u:tok-2 R=proc./helminthol.,
15:u:tok-1 L=1938:,
12:u:Suf-2 L=8:,
2=5.724348e-02
3=5.557376e-03
4=6.749931e-03
7=-4.547224e-02
8=-1.094738e-01
9=-2.810948e-02
10=-3.815015e-02
11=1.435934e+00
12=1.072248e+00
13=-3.194052e-01
34=-1.163740e-01
35=6.461867e-01
36=4.437833e-03
37=-3.313908e-01
39=-2.643059e-01
40=-6.660339e-02
41=-3.263104e-01
46=-2.290197e+00
47=6.011146e-01
48=4.532091e-01
50=-3.173198e-01
51=-3.730752e-02
54=-1.401148e-01
57=-2.179352e-01
58=-2.439246e-02
59=2.231574e-02
60=7.819896e-01
61=4.837783e-02
72=1.798849e-01
79=-1.021032e-01
83=8.249776e-01
90=-2.697161e-01
91=-6.336430e-01
95=4.159006e-01
101=-2.980613e-02
102=-2.554425e-02
103=1.314996e-02
107=2.434954e-01
123=-1.355361e-01
131=1.591741e+00
132=1.784474e-01
143=1.784474e-01
154=4.530509e-03
156=7.384800e-02
157=-2.429770e-02
158=-3.256930e-02
160=-1.912964e-01
162=1.777007e-02
164=-3.808999e-02
165=1.911810e+00
178=6.945583e-01
189=1.497015e-01
190=9.534976e-01
201=3.498221e-01
213=5.600857e-02
245=-2.227187e-02
249=2.224506e-01
261=1.092419e+00
285=4.503938e-01
288=1.372599e-01
289=5.211076e-03
292=-7.413811e-02
293=-4.103099e-02
296=-1.754877e-02
297=1.784474e-01
429=1.731057e-01
431=2.676328e-02
432=1.090083e-01
440=1.784474e-01
453=-1.544438e-03
454=6.190577e-03
464=-1.544438e-03
465=6.190577e-03
473=1.784474e-01
484=1.784474e-01
497=7.428552e-02
498=6.269898e-02
499=-2.086717e-01
502=6.857229e-02
503=1.694588e-03
505=-7.406029e-03
506=-1.048844e-01
508=2.006816e-01
509=-7.148194e-03
510=-2.973004e-01
513=-8.775084e-03
517=1.888505e-01
530=1.417013e-01
531=-1.492946e-02
535=-1.074032e-01
539=1.888505e-01
550=1.784474e-01
682=4.160088e-03
684=1.559992e-01
685=5.950028e-02
686=-8.826836e-02
689=1.175670e-01
690=1.904352e-03
692=-2.763154e-02
693=8.016160e-01
717=6.258620e-01
722=-6.319195e-02
723=-1.151114e-01
725=-1.137941e+00
728=-1.698021e-01
729=7.621302e-01
730=-7.322427e-01
733=-6.019684e-03
739=-7.878895e-02
740=-2.174624e-02
741=1.426544e-01
765=2.230523e+00
772=-7.019694e-02
773=-2.210471e-01
777=4.593805e-01
789=1.084497e+00
813=1.207977e+00
814=-1.386662e-01
816=2.802095e-01
817=3.561905e-02
818=-3.867980e-01
821=1.772698e-02
822=-2.529289e-02
824=-1.162902e-02
825=-3.465493e-03
826=-4.220103e-01
827=-2.476132e-02
828=2.267050e-01
829=-2.161873e-01
830=-1.610539e-01
831=-1.356136e-01
832=1.919896e-01
833=3.460216e-02
834=-1.463987e-01
835=6.512782e-03
838=-3.572769e-03
839=4.417719e-04
849=7.833201e-04
850=4.274546e-02
851=8.135919e-03
853=2.688991e-03
854=-2.621140e-01
855=-1.366801e-01
857=4.983806e-04
858=4.728140e-06
860=-6.604771e-03
861=1.098096e-01
862=1.025852e-02
865=-3.530962e-02
866=-3.750438e-01
868=4.033270e-03
869=9.179295e-05
871=3.723328e-02
873=7.012928e-03
876=-3.697705e-02
877=-1.408275e-01
878=-1.493295e-02
879=6.714463e-02
880=1.212973e-04
882=2.253059e-01
883=-3.790779e-03
886=1.149156e-01
887=-5.050144e-02
888=-1.139395e-01
890=9.832634e-03
891=1.784474e-01
902=1.814608e-04
904=4.152883e-02
905=1.642833e-03
906=-1.930055e-02
909=-4.022072e-02
910=2.983686e-03
912=-1.867276e-02
913=1.027698e-04
915=-7.144319e-03
916=5.756276e-03
917=-4.473854e-03
918=3.179363e-04
919=-1.406172e-03
920=3.749652e-02
921=-5.353849e-02
922=-1.560144e-01
923=5.457720e-02
926=1.162139e-01
927=-4.266376e-03
928=-2.033689e-01
931=6.225169e-02
932=1.698903e-03
934=-6.027650e-03
935=1.784474e-01
948=-4.761935e-02
957=1.784474e-01
968=1.784474e-01
979=1.088232e-01
990=1.784474e-01
1003=-6.761911e-05
1004=-2.373531e-02
1014=7.101885e-02
1015=-4.364581e-02
1016=6.034752e-05
1019=6.197284e-02
1020=2.538455e-04
1022=1.529993e-03
1023=1.784474e-01
1034=5.497114e-05
1036=-4.279859e-03
1037=1.382942e-02
1038=7.654444e-03
1041=-3.770952e-02
1042=1.406424e-04
1044=-4.608615e-02
1045=9.403488e-05
1049=3.158805e-02
1050=3.412322e-04
1051=-1.769915e-01
1052=3.369539e-02
1053=-5.800305e-02
1054=-1.692740e-01
1055=5.572906e-02
1056=1.784474e-01
1190=-4.833862e-02
1191=9.095292e-08
1201=7.320499e-02
1202=-6.094580e-02
1203=9.315319e-02
1205=-2.441599e-01
1206=1.021805e-02
1207=-3.730765e-02
1209=4.195972e-03
1212=-1.150648e-04
1213=-3.132632e-03
1223=-1.589283e-03
1224=6.367512e-03
1232=1.008907e-06
1234=3.812360e-02
1235=2.172288e-03
1236=6.771544e-03
1238=6.105985e-02
1239=-4.395978e-02
1240=3.361993e-03
1241=-9.391304e-01
1242=-3.585224e-02
1243=1.294928e-01
1256=-5.129470e-05
1257=-7.652703e-03
1258=2.822902e-01
1259=9.315120e-02
1261=-1.340367e-02
1270=3.089851e-03
1278=3.574704e-02
1279=2.115824e-02
1280=4.332342e-06
1283=-2.756884e-01
1286=-2.482131e-04
1287=3.354690e-01
1288=1.440712e-02
1311=3.552182e-01
1312=-1.059935e-01
1323=2.070205e-01
1335=2.329446e-01
1359=1.511575e+00
1383=9.405690e-02
1407=7.467737e-01
1410=1.736856e-01
1411=1.975639e-01
1415=8.999463e-02
1416=1.326665e-04
1422=-4.904419e-02
1432=4.638502e-02
1433=6.447068e-02
1437=-1.078388e-02
1441=1.311916e-01
1454=4.638502e-02
1455=6.447068e-02
1459=-1.078388e-02
1465=6.466758e-02
1475=-3.203422e-01
1476=-2.255750e-03
1477=2.951983e-01
1478=1.554295e-01
1480=-1.609119e-01
1481=8.007986e-02
1482=2.350894e-05
1484=-1.206337e-02
1487=-6.906433e-02
1488=-4.633145e-04
1489=1.807376e-01
1490=8.932625e-02
1492=-2.154706e-02
1498=-1.346431e-01
1499=3.285929e-01
1503=3.947581e-02
1504=2.173110e-02
1511=-2.334514e-02
1515=3.254286e-04
1520=3.998666e-03
1521=-1.183971e-03
1529=-1.822018e-03
1530=-1.927880e-02
1531=8.484527e-02
1532=4.585898e-02
1533=5.138774e-02
1534=-1.742472e+00
1535=-1.539829e-01
1536=1.037070e-02
1537=2.338778e-02
1539=-6.417812e-02
1540=1.136102e+00
1541=2.676158e-01
1564=6.456654e-01
1566=-1.468958e-01
1569=-5.481205e-02
1570=-7.826456e-02
1575=-6.321627e-01
1576=7.063287e-01
1577=6.785490e-01
1580=-3.425718e-02
1583=-1.161917e-01
1619=-1.440492e-01
1620=-1.982418e-01
1624=4.159655e-01
1631=-1.883542e-02
1632=1.179085e-02
1636=1.083907e+00
1660=7.845177e-01
1664=-1.498252e-04
1672=-4.158383e-01
1673=-2.005143e-01
1674=4.988192e-02
1675=-1.806329e-02
1676=5.360774e-03
1677=-2.170730e-02
1679=-3.538981e-02
1680=1.518160e-04
1682=-1.340733e-02
1685=7.292270e-02
1686=-1.754152e-01
1694=-6.331844e-02
1696=-3.106415e-02
1697=-6.260525e-02
1698=-5.566862e-03
1701=2.704643e-04
1702=1.559242e-05
1704=4.417726e-03
1705=1.193467e-02
1716=1.128935e-02
1729=-4.196891e-04
1738=-4.011349e-02
1740=-3.429275e-02
1741=-3.190104e-02
1742=3.994046e-02
1744=-3.643932e-02
1745=9.129392e-02
1746=1.581525e-05
1748=-3.494759e-03
1749=-1.688159e-01
1750=-1.793922e-01
1751=3.629794e-02
1752=4.151540e-02
1753=3.780466e-03
1756=3.413601e-02
1757=1.491813e-04
1759=-3.104211e-02
1763=-3.733996e-02
1771=1.559767e-03
1795=4.221015e-02
1796=-2.725214e-01
1807=3.406041e-02
1819=4.002627e-01
1843=6.557127e-01
1867=1.640215e-01
1891=1.692880e-02
1892=-7.048345e-02
1894=-3.885835e-02
1895=6.290069e-03
1896=3.771848e-02
1899=8.338179e-02
1900=6.307534e-06
1902=4.265834e-03
1903=-6.947460e-02
1905=1.796346e-03
1906=-7.642310e-02
1907=3.838407e-02
1911=1.395052e-05
1913=4.332602e-03
1914=-3.073645e-02
1916=-8.727139e-03
1917=8.639843e-03
1918=5.514370e-03
1919=8.724122e-03
1920=-8.042468e-02
1921=1.046086e-01
1922=-6.693498e-03
1924=8.005527e-03
1927=4.638502e-02
1928=6.447068e-02
1932=-1.078388e-02
1938=-1.325883e-01
1939=-1.678383e-02
1940=4.184187e-01
1941=1.263219e-01
1942=-7.068209e-03
1944=2.100097e-04
1949=-5.426925e-03
1950=-1.168001e+00
1951=1.453110e-01
1953=6.368062e-03
1959=1.147551e+00
1982=4.193673e-01
1994=-2.061289e-01
1995=1.173513e+00
1997=-1.495535e-02
2006=-1.594085e-01
2007=7.840927e-01
2008=4.888514e-01
2019=3.895033e-01
2033=3.248524e-02
2050=4.148181e-02
2078=1.738046e-01
2081=3.236236e-05
2092=4.202764e-04
2093=-2.694015e-02
2103=1.794688e-01
2104=-1.304250e-02
2105=5.088161e-02
2106=-5.025604e-01
2107=-2.916862e-02
2108=1.497879e-01
2109=-2.543293e-03
2111=-4.703865e-02
2136=5.231721e-01
2137=-5.872982e-02
2138=-7.405179e-03
2148=5.223520e-01
2149=2.852528e-01
2153=-6.080836e-02
2191=-2.698663e-02
2192=-6.025780e-02
2196=4.513546e-01
2204=9.550863e-03
2232=6.055125e-01
2236=-4.398255e-03
2237=5.710864e-02
2246=-5.911718e-02
2247=1.121720e-01
2257=3.236236e-05
2267=8.527285e-01
2279=-7.118517e-02
2281=1.405781e-01
2290=1.809229e-01
2292=2.407456e-01
2301=-7.758355e-02
2304=9.492478e-02
2309=1.386529e-02
2312=1.685117e-04
2322=1.367739e+00
2345=4.115171e-01
2396=3.977510e-02
2443=4.623491e-01
2444=9.697735e-04
2448=-5.766823e-01
2451=1.857932e+00
2455=-7.118517e-02
2457=1.405781e-01
2464=-5.195208e-02
2465=-1.057325e-01
2466=6.489721e-02
2467=-2.447571e-02
2468=-4.849103e-03
2472=5.109110e-05
2474=2.458172e-03
2476=-6.992528e-02
2477=-3.129623e-04
2478=2.586853e-02
2480=3.532337e-04
2482=1.064608e-01
2483=9.749169e-04
2484=-7.060687e-02
2485=3.548557e-03
2486=-1.252334e-01
2487=-1.306340e-01
2488=1.454338e-01
2489=-3.875044e-03
2493=3.107671e-04
2494=4.889019e-05
2496=2.903342e-03
2521=4.534637e-01
2522=-5.014289e-03
2523=-1.702849e-02
2533=4.448980e-01
2534=2.478105e-01
2536=-1.327019e-01
2537=-4.434666e-03
2546=8.594334e-01
2547=1.278673e-01
2558=2.303009e-01
2572=3.213550e-02
2576=-8.700483e-02
2577=-9.318872e-02
2581=4.442114e-01
2589=9.873074e-03
2617=8.764961e-01
2620=7.823727e-02
2621=-1.094095e-01
2625=6.405221e-02
2631=1.139481e-01
2632=1.971860e-01
2639=3.594091e-02
2642=1.944059e-02
2655=-2.607791e-01
2656=7.850850e-02
2657=1.898544e-01
2675=2.649857e+00
2710=-6.509608e-02
2711=7.163550e-01
2712=2.179793e-02
2723=1.388795e+00
2737=3.717910e-02
2785=1.020667e-01
2786=-5.566996e-02
2796=1.944059e-02
2807=1.020667e-01
2808=-5.566996e-02
2818=-1.332208e-04
2819=-1.029701e-01
2822=4.403252e-01
2826=1.062037e-02
2829=1.933423e-01
2830=4.754063e-02
2837=3.411967e-02
2840=9.876078e-03
2851=-2.915423e-03
2852=2.654032e-01
2856=8.678919e-02
2862=1.529479e-01
2863=-3.767197e-02
2864=-8.016273e-02
2867=1.490327e-01
2868=3.187410e-02
2895=9.085326e-01
3002=1.626695e-01
3005=-1.856733e-01
3006=3.279376e-01
3007=9.350347e-02
3010=7.583362e-02
3011=6.528156e-02
3016=1.020667e-01
3017=-5.566996e-02
3027=1.247419e-01
3028=8.115407e-02
3032=1.408575e-02
3039=-1.836896e-04
3049=1.387617e-01
3050=6.579079e-03
3057=9.757249e-04
3082=4.027154e-01
3083=-1.776958e+00
3094=1.035794e+00
3106=4.553451e-01
3130=3.587002e-01
3142=7.119503e-01
3178=4.154509e-01
3181=-9.679320e-03
3182=1.418137e-02
3192=1.261235e-02
3193=-7.662741e-05
3203=1.953312e-01
3211=9.118603e-04
3214=-2.193159e-02
3215=1.246140e-01
3219=3.819675e-02
3226=3.528089e-03
3236=1.116860e-01
3237=3.932127e-02
3247=9.857767e-02
3248=2.513795e-02
3255=4.562080e-02
3259=-9.181571e-03
3267=4.437884e-03
3280=-3.181527e-02
3281=7.807126e-03
3291=-1.247768e-01
3292=7.122802e-02
3302=-4.638578e-03
3303=2.173798e-03
3313=-2.193099e-03
3314=1.085294e-02
3324=-2.049236e-01
3325=3.934330e-01
3335=-2.193099e-03
3336=1.085294e-02
3346=-1.310456e-01
3347=1.746612e-01
3357=-2.013670e-01
3358=5.851111e-02
3368=2.995040e-01
3369=-2.150076e-02
3379=1.624627e-01
3380=6.083013e-03
3390=-1.102191e-01
3391=6.100609e-02
3401=-6.292718e-02
3402=2.381260e-02
3412=-9.877886e-03
3413=2.884376e-03
3423=-3.734861e-02
3424=4.846011e-03
3434=-3.411199e-03
3435=1.683628e-01
3445=-3.411199e-03
3446=1.683628e-01
3456=-1.015196e-01
3457=6.359425e-02
3467=-4.023077e-03
3468=2.944141e-03
3478=6.840607e-04
3489=-4.766742e-03
3490=2.896220e-03
3500=-5.671820e-03
3501=2.822761e-03
3511=2.139473e-04
3512=-1.052425e-03
3522=-9.487866e-03
3523=4.725339e-03
3534=1.165982e-02
3544=5.031076e-02
3545=-6.762363e-02
3549=9.809370e-02
3555=-5.923930e-03
3556=2.931839e-03
3566=5.031076e-02
3567=-6.762363e-02
3571=9.809370e-02
3578=2.810446e-03
3588=5.031076e-02
3589=-6.762363e-02
3593=9.809370e-02
3599=-7.340587e-02
3600=3.823734e-01
3611=4.922656e-03
3621=3.286291e-02
3622=-3.182548e-02
3626=1.677656e-01
3633=4.922656e-03
3644=-1.324325e-02
3654=2.019601e-02
3655=8.556449e-02
3663=1.369089e-03
3665=8.314295e-02
3666=7.856123e-02
3676=1.093782e-03
3677=-4.662640e-02
3678=6.463547e-02
3687=5.021928e-02
3688=9.509850e-02
3700=8.554447e-02
3709=5.021928e-02
3710=9.509850e-02
3722=6.351406e-02
3733=6.980060e-02
3744=5.288945e-02
3753=2.558061e-02
3754=3.478172e-02
3766=5.485395e-02
3775=1.366230e-01
3776=7.665385e-02
3786=4.717512e-02
3787=9.671554e-02
3797=1.687087e-01
3798=2.815176e-02
3808=1.016656e-01
3809=8.250320e-02
3819=5.021928e-02
3820=9.509850e-02
3830=8.279568e-02
3831=-6.940692e-02
3841=1.020997e-02
3842=3.712591e-02
3852=8.279568e-02
3853=-6.940692e-02
3864=2.056018e-02
3874=2.805292e-01
3885=2.213592e-02
3918=3.703190e-02
3942=1.133102e-01
4017=1.773103e-02
4018=-4.038466e-02
4019=5.783245e-01
4028=2.805292e-01
4039=-3.728421e-04
4040=3.383399e-02
4050=-1.208092e-03
4051=5.738100e-02
4060=3.750638e-01
4083=1.831265e-01
4084=9.946040e-02
4095=1.556315e-01
4096=6.622028e-01
4182=1.179089e-01
4183=8.595516e-02
4193=1.611698e-01
4194=8.027156e-02
4204=6.511857e-03
4216=-8.231102e-05
4217=4.958247e-02
4226=-1.731478e-02
4227=9.337424e-01
4270=3.225838e-03
4369=3.568200e-02
4370=-7.057129e-02
4374=2.290468e-01
4377=5.459213e-04
4380=-9.237656e-03
4381=6.723886e-02
4382=9.632667e-04
4392=6.572073e-03
4402=1.273572e-02
4403=-2.344725e-04
4413=1.829351e-01
4424=4.103356e-02
4435=7.362846e-02
4447=-8.235247e-03
4451=2.910130e-02
4457=8.789482e-02
4468=3.304489e-02
4479=3.304489e-02
4490=3.304489e-02
4501=-7.627683e-02
4502=1.934189e-02
4512=2.297188e-01
4513=-8.851249e-02
4523=1.878720e-02
4534=-4.780373e-02
4535=2.269903e-02
4545=-4.780373e-02
4546=2.269903e-02
4556=-1.533196e-01
4557=2.820012e-01
4567=-2.910218e-03
4568=2.422584e-05
4578=6.925351e-01
4579=-1.201553e-01
4589=-4.016943e-02
4590=5.264735e-02
4600=-9.624773e-03
4611=3.931336e-02
4622=6.687229e-02
4623=-1.953885e-03
4627=4.517262e-02
4633=-4.792504e-03
4634=3.794107e-02
4641=1.301219e-01
4644=-1.427658e-02
4645=7.902639e-02
4655=1.176824e-02
4663=9.282694e-02
4699=5.421897e-01
4927=1.141295e-01
4930=1.276398e-01
4931=-1.009127e-02
4941=3.107958e-02
4942=-4.598540e-02
4947=2.473890e+00
4952=7.863653e-02
4960=9.118727e-02
4963=4.286469e-02
5008=1.380404e+00
5106=6.435752e-02
5107=-2.233252e-03
5117=4.362936e-02
5118=-1.911838e-01
5128=3.373623e-02
5129=-2.175443e-01
5139=-2.543798e-02
5140=2.340338e-02
5150=3.373623e-02
5151=-2.175443e-01
5161=-2.543798e-02
5162=2.340338e-02
5172=-1.803221e-02
5173=1.311641e-02
5183=-2.671158e-04
5184=1.141162e-02
5194=-2.543798e-02
5195=2.340338e-02
5205=-4.312175e-02
5206=1.072219e-01
5217=4.158295e-04
5227=9.584745e-02
5228=3.895797e-03
5235=1.462156e-03
5238=-1.691475e-03
5239=2.248050e-04
5249=-6.965714e-03
5250=4.224025e-04
5260=8.433132e-02
5261=-4.048313e-03
5271=2.137439e-02
5272=-9.656013e-03
5282=-1.042443e-02
5283=3.403896e-02
5293=2.694201e-02
5304=2.206349e-03
5305=2.605244e-03
5309=7.420395e-06
5312=-3.294260e-05
5315=4.168944e-02
5316=-1.078176e-02
5327=8.542668e-03
5337=-8.067518e-03
5338=5.783196e-04
5339=6.496201e-02
5348=-6.021787e-03
5349=1.068136e-02
5360=5.411716e-02
5370=-8.067518e-03
5371=5.783196e-04
5372=6.496201e-02
5382=8.542668e-03
5393=5.411716e-02
5403=3.391999e-02
5404=-1.447801e-03
5415=5.411716e-02
5426=5.189839e-03
5437=5.189839e-03
5447=1.142229e-01
5448=-1.282418e-02
5458=-7.338511e-03
5470=4.439898e-03
5480=-7.338511e-03
5492=5.189839e-03
5503=5.189839e-03
5513=4.140461e-01
5524=-3.171543e-04
5525=5.851510e-03
5536=1.179337e-02
5546=4.572046e-02
5557=-8.898499e-04
5558=2.088276e-01
5569=5.270543e-02
5579=-8.898499e-04
5580=2.088276e-01
5591=5.270543e-02
5601=1.856277e-01
5602=-1.273213e-02
5612=6.461802e-02
5613=-3.376433e-03
5623=7.162288e-02
5635=5.270543e-02
5645=7.362980e-02
5656=8.457861e-02
5657=-2.931577e-04
5674=3.356314e-02
5678=1.900354e-04
5689=4.427370e-02
5733=6.809004e-02
5829=1.339110e-01
5832=-1.410576e-02
5833=2.606442e-02
5843=-1.410576e-02
5844=2.606442e-02
5855=2.204053e-03
5865=3.330618e-03
5876=3.330618e-03
5887=3.330618e-03
5898=1.669734e-02
5909=9.101830e-02
5910=-1.789534e-02
5920=6.175400e-02
5921=8.822111e-02
5931=1.123096e-03
5932=1.731402e-02
5942=9.612256e-02
5953=-2.343763e-02
5954=1.694085e-01
5964=-2.343763e-02
5965=1.694085e-01
5975=1.787654e-02
5976=2.908115e-02
5986=-2.343763e-02
5987=1.694085e-01
5998=1.177511e-02
6008=1.437919e-02
6019=1.051927e-02
6020=-5.463534e-03
6030=1.051927e-02
6031=-5.463534e-03
6041=7.119574e-03
6052=-2.641456e-02
6053=1.211601e-01
6063=-7.897233e-02
6064=1.981182e-01
6065=7.243246e-02
6068=5.560299e-01
6074=-2.929753e-02
6075=4.648491e-02
6079=1.007995e+00
6085=-5.012899e-02
6086=1.429078e-01
6096=1.083088e-02
6097=1.329913e-01
6107=3.287905e-03
6118=4.112599e-03
6119=-2.123532e-03
6129=6.355502e-01
6130=-4.330832e-01
6140=7.781010e-03
6151=5.243251e-03
6162=4.374268e-02
6173=-1.461946e-03
6184=-1.461946e-03
6195=-1.322522e-03
6206=-5.750661e-02
6207=9.395734e-02
6217=-1.322522e-03
6228=-1.414062e-03
6239=-1.414062e-03
6250=-1.414062e-03
6261=-1.375558e-01
6262=2.691396e-01
6273=5.613809e-02
6284=6.611435e-03
6294=-2.773004e-01
6295=9.785882e-01
6306=6.611435e-03
6317=6.611435e-03
6327=-4.342103e-02
6328=8.772291e-02
6338=-2.178799e-02
6339=8.156016e-02
6349=-2.595242e-01
6350=8.388309e-01
6360=-2.178799e-02
6361=8.156016e-02
6371=-1.215902e-02
6372=4.497421e-02
6382=-2.119031e-02
6384=9.994838e-02
6387=2.297368e-01
6393=-3.974994e-02
6394=2.156617e-01
6405=-2.154161e-03
6410=1.011356e-01
6415=-3.974994e-02
6416=2.156617e-01
6427=-2.154161e-03
6432=1.011356e-01
6437=-2.653306e-01
6438=2.522587e-01
6445=-1.010480e-03
6448=-1.395223e-01
6449=1.717774e-01
6450=3.269975e-01
6460=-2.154161e-03
6465=1.011356e-01
6470=-7.628027e-02
6471=5.277055e-02
6481=-3.204471e-01
6482=3.995622e-02
6493=-5.745565e-05
6503=1.544433e-02
6514=-1.907796e-01
6515=1.312072e-01
6526=3.484154e-02
6537=3.484154e-02
6547=-3.874453e-01
6548=6.470254e-02
6558=-3.382930e-02
6570=8.165915e-03
6581=4.809861e-03
6592=1.344504e-01
6602=-6.309608e-06
6603=4.041931e-03
6614=6.167980e-06
6625=1.923724e-02
6635=3.315006e-02
6646=-2.071356e-01
6647=9.623762e-01
6657=-5.552073e-01
6659=3.891837e-02
6663=8.679883e-02
6674=3.078591e-01
6680=6.633849e-02
6685=6.111311e-03
6691=1.634600e-02
6701=-3.224508e-02
6702=2.043088e-01
6712=-3.224508e-02
6713=2.043088e-01
6723=-1.397780e-01
6724=3.670129e-01
6736=1.111138e-02
6745=1.253191e-01
6746=-1.161540e-02
6758=3.977071e-01
6759=2.607417e-01
6813=2.873571e-01
6825=2.814889e-01
6901=1.304525e-01
6902=9.604355e-02
6907=1.001412e-02
6913=3.631579e-01
6923=-2.540506e-01
6924=2.942854e-01
6925=1.096934e-01
6935=1.205434e-03
6936=8.676922e-02
6990=6.692147e-02
6991=1.827099e-03
7067=1.723716e-04
7075=-2.749673e-03
7077=5.037056e-02
7078=3.588739e-01
7086=-5.164499e-01
7087=5.485003e-03
7089=4.819600e-04
7156=4.590067e-03
7167=5.322108e-04
7230=-1.354684e-04
7235=8.478901e-02
7240=1.659343e-02
7241=-2.525579e-02
7244=2.215668e+00
7251=-2.200468e-02
7252=2.237855e-03
7264=3.104145e-02
7274=-1.414802e+00
7306=4.493571e-01
7330=3.860456e-01
7354=2.502998e-01
7463=2.439229e-06
7506=1.705935e-01
7540=1.054458e-01
7548=2.437676e-02
7549=-7.265307e-02
7563=2.060112e-01
7574=2.060112e-01
7585=2.060112e-01
7596=2.060112e-01
7607=2.060112e-01
7618=2.060112e-01
7629=2.060112e-01
7640=2.060112e-01
7651=2.060112e-01
7662=2.060112e-01
7673=2.060112e-01
7684=2.060112e-01
7695=2.060112e-01
7702=-1.528795e-02
7703=8.136243e-04
7713=1.018806e-01
7714=-2.273691e-02
7724=-3.537250e-02
7725=4.020919e-02
7735=-7.712772e-02
7736=7.765377e-03
7746=-8.026027e-03
7757=-2.889893e-02
7758=8.890851e-04
7768=-8.664104e-03
7779=5.636250e-02
7780=-1.836344e-01
7790=5.636250e-02
7791=-1.836344e-01
7802=-3.699429e-02
7807=1.078504e-01
7812=-4.516654e-03
7813=1.537297e-02
7823=-1.543887e-01
7835=-3.713411e-03
7839=5.950753e-03
7846=-3.713411e-03
7850=5.950753e-03
7857=2.802525e-02
7867=3.950840e-02
7868=-7.711380e-03
7873=2.659111e-02
7878=3.950840e-02
7879=-7.711380e-03
7884=2.659111e-02
7890=2.332928e-02
7900=-8.191945e-03
7901=2.464530e-02
7911=-3.656768e-03
7912=2.139748e-02
7922=-3.585561e-02
7923=2.235684e-01
7933=-5.630584e-02
7934=1.116282e-02
7938=2.494188e+00
7944=-3.585561e-02
7945=2.235684e-01
7955=-7.749694e-03
7956=3.478921e-02
7972=9.556870e-02
7977=-2.272720e-02
7978=5.377952e-03
7982=2.690232e-01
7988=1.191334e-01
7989=-2.702339e-02
7999=-2.272720e-02
8000=5.377952e-03
8004=2.690232e-01
8010=1.320729e-01
8011=-4.606584e-02
8021=1.320729e-01
8022=-4.606584e-02
8032=1.097684e-01
8033=-7.706959e-03
8044=9.685895e-04
8054=-3.210670e-02
8055=1.222256e-01
8065=-3.210670e-02
8066=1.222256e-01
8076=-3.914837e-01
8077=4.438409e-01
8087=-3.914837e-01
8088=4.438409e-01
8098=-1.571000e-01
8099=1.094045e+00
8109=-3.076999e-01
8110=1.345879e+00
8121=-1.680676e-02
8132=-7.702266e-03
8136=2.457880e-02
8143=-7.702266e-03
8147=2.457880e-02
8154=-7.702266e-03
8158=2.457880e-02
8165=-1.029880e-02
8169=3.155996e-02
8176=-7.702266e-03
8180=2.457880e-02
8191=3.230995e-02
8198=-7.702266e-03
8202=2.457880e-02
8209=-7.702266e-03
8213=2.457880e-02
8224=2.998821e-02
8235=3.099648e-02
8242=-1.122437e-02
8246=2.434607e-02
8252=-8.045272e-02
8253=4.489520e-05
8270=3.027475e-02
8281=3.027475e-02
8287=4.647356e-02
8288=1.089109e-01
8298=5.684391e-02
8314=3.027475e-02
8322=7.805135e-02
8333=1.145866e-01
8388=1.040917e-01
8399=1.776991e-01
8465=3.670267e-01
8476=1.289512e-01
8484=6.589821e-02
8494=6.324524e-03
8505=6.324524e-03
8516=5.580068e-02
8517=-2.614540e-02
8528=-2.478504e-02
8533=9.066376e-02
8539=-4.226630e-03
8544=8.846310e-02
8549=5.675277e-03
8550=-1.318608e-02
8561=-2.478504e-02
8566=9.066376e-02
8573=8.344320e-02
8582=-5.365812e-06
8590=1.594922e-01
8593=-5.365812e-06
8601=1.594922e-01
8611=2.964564e-02
8688=4.124694e-02
8736=-1.294415e-02
8737=1.120309e-02
8747=-1.384118e-02
8748=1.284384e-02
8758=6.442450e-02
8769=-4.681769e-03
8770=2.085403e-02
8825=3.012675e-02
8912=2.825702e-04
8923=3.636306e-04
8934=3.289852e-02
8945=-1.667373e-04
8946=4.883289e-03
8956=1.565114e-02
8957=-5.261916e-02
8967=9.285423e-04
8978=-2.759096e-04
8979=4.744827e-04
8989=-2.759096e-04
8990=4.744827e-04
9000=-2.759096e-04
9001=4.744827e-04
9011=-7.159266e-05
9012=2.496841e-05
9022=1.335374e-02
9023=-6.255960e-03
9034=4.047339e-03
9045=8.686680e-03
9055=-2.527110e-02
9056=4.116599e-02
9066=-2.527110e-02
9067=4.116599e-02
9077=-2.926498e-02
9078=3.836493e-02
9088=-2.527110e-02
9089=4.116599e-02
9100=-2.189113e-02
9105=9.148768e-02
9116=9.399377e-02
9127=9.399377e-02
9138=9.368291e-02
9144=9.633166e-03
9155=-7.313062e-02
9160=9.471286e-02
9166=-7.313062e-02
9171=9.471286e-02
9177=-7.313062e-02
9182=9.471286e-02
9188=-7.313062e-02
9193=9.471286e-02
9199=-7.313062e-02
9204=9.471286e-02
9210=-2.992880e-05
9215=8.067406e-02
9254=-4.755702e-02
9259=1.563353e-01
9342=-8.064499e-02
9347=9.343557e-02
9353=-7.313062e-02
9358=9.471286e-02
9369=1.719141e-02
9380=1.719141e-02
9391=1.719141e-02
9402=6.153157e-06
9407=-3.816532e-01
9408=3.772177e-01
9418=1.001429e-01
9429=1.954661e-01
9440=2.375109e-05
9451=-1.787760e-02
9452=1.362049e-01
9462=-1.787760e-02
9463=1.362049e-01
9473=-2.744160e-01
9474=7.126070e-01
9484=6.606933e-03
9497=3.572919e-04
9506=-8.794620e-02
9507=1.322897e-01
9517=-3.414208e-03
9518=6.494282e-02
9530=6.379557e-02
9541=6.345148e-02
9552=2.601789e-02
9563=2.601789e-02
9574=1.525246e-02
9585=2.601789e-02
9596=3.893512e-02
9612=3.075719e-02
9616=1.289960e-03
9627=-1.456515e-02
9638=-9.808622e-06
9649=2.189267e-02
9650=-3.654769e-02
9660=2.189267e-02
9661=-3.654769e-02
9671=3.593295e-03
9682=-2.391911e-02
9683=3.077275e-02
9693=-1.313826e-01
9694=2.387902e-01
9704=-1.313826e-01
9705=2.387902e-01
9716=2.421818e-02
9726=-1.313826e-01
9727=2.387902e-01
9737=-3.914621e-02
9738=5.784623e-02
9748=-3.914621e-02
9749=5.784623e-02
9759=-1.023531e-02
9760=4.115451e-02
9771=-2.421678e-02
9782=-2.531556e-02
9792=1.169859e-02
9793=-1.172065e-02
9803=8.725057e-03
9804=-1.972229e-03
9814=-4.285556e-03
9815=4.989051e-03
9825=-4.285556e-03
9826=4.989051e-03
9836=-6.255718e-03
9837=2.324785e-03
9847=-4.285556e-03
9848=4.989051e-03
9858=-4.285556e-03
9859=4.989051e-03
9869=-4.731473e-02
9870=5.166599e-02
9880=-6.255718e-03
9881=2.324785e-03
9891=-2.738729e-03
9892=4.281581e-04
9902=-1.357236e-03
9903=1.684129e-03
9913=-1.357236e-03
9914=1.684129e-03
9924=-1.357236e-03
9925=1.684129e-03
9935=-6.265451e-04
9936=9.959983e-04
9946=-6.265451e-04
9947=9.959983e-04
9957=-6.265451e-04
9958=9.959983e-04
9968=-6.265451e-04
9969=9.959983e-04
9981=4.795026e-02
9990=-9.143056e-02
9991=1.522412e-01
10002=1.416697e-03
10013=3.569396e-05
10024=1.168957e-03
10035=1.168957e-03
10046=1.168957e-03
10057=1.471939e-03
10068=2.250422e-03
10079=8.142348e-03
10089=2.041838e-02
10100=4.765957e-01
10101=-1.722427e-01
10111=4.765957e-01
10112=-1.722427e-01
10122=3.627722e-02
10123=-3.276948e-02
10133=3.627722e-02
10134=-3.276948e-02
10144=3.627722e-02
10145=-3.276948e-02
10155=3.627722e-02
10156=-3.276948e-02
10166=3.242373e-02
10177=6.521294e-04
10188=-2.779097e-02
10189=3.630236e-02
10199=-2.779097e-02
10200=3.630236e-02
10210=-2.779097e-02
10211=3.630236e-02
10221=-2.779097e-02
10222=3.630236e-02
10232=-2.779097e-02
10233=3.630236e-02
10243=-2.779097e-02
10244=3.630236e-02
10254=-2.779097e-02
10255=3.630236e-02
10265=-2.779097e-02
10266=3.630236e-02
10276=-2.779097e-02
10277=3.630236e-02
10287=-2.779097e-02
10288=3.630236e-02
10298=-2.574578e-02
10299=2.859539e-02
10309=-2.574578e-02
10310=2.859539e-02
10320=-2.574578e-02
10321=2.859539e-02
10331=-2.574578e-02
10332=2.859539e-02
10342=-2.574578e-02
10343=2.859539e-02
10353=-2.574578e-02
10354=2.859539e-02
10364=-2.574578e-02
10365=2.859539e-02
10375=-2.574578e-02
10376=2.859539e-02
10386=-1.860976e-02
10387=2.503763e-02
10397=-1.263794e-02
10398=1.376229e-02
10408=-1.263794e-02
10409=1.376229e-02
10419=-1.263794e-02
10420=1.376229e-02
10430=-1.263794e-02
10431=1.376229e-02
10441=-1.263794e-02
10442=1.376229e-02
10452=-1.263794e-02
10453=1.376229e-02
10463=-1.263794e-02
10464=1.376229e-02
10474=-1.263794e-02
10475=1.376229e-02
10485=-9.863574e-03
10486=1.126281e-02
10496=-1.263794e-02
10497=1.376229e-02
10507=-1.462647e-02
10508=1.551243e-02
10518=-1.462647e-02
10519=1.551243e-02
10529=-1.462647e-02
10530=1.551243e-02
10540=-1.462647e-02
10541=1.551243e-02
10551=-1.462647e-02
10552=1.551243e-02
10562=-1.462647e-02
10563=1.551243e-02
10573=-1.462647e-02
10574=1.551243e-02
10584=-1.462647e-02
10585=1.551243e-02
10595=-6.739358e-02
10606=-1.462647e-02
10607=1.551243e-02
10617=-1.507458e-02
10618=1.587945e-02
10628=-1.507458e-02
10629=1.587945e-02
10639=-1.507458e-02
10640=1.587945e-02
10650=-1.507458e-02
10651=1.587945e-02
10661=-1.507458e-02
10662=1.587945e-02
10672=-1.507458e-02
10673=1.587945e-02
10683=-1.507458e-02
10684=1.587945e-02
10694=-1.507458e-02
10695=1.587945e-02
10705=-4.969941e-02
10707=8.525816e-02
10716=-1.507458e-02
10717=1.587945e-02
10727=-1.491284e-02
10728=1.520086e-02
10738=-1.381368e-02
10739=1.493696e-02
10749=-1.381368e-02
10750=1.493696e-02
10760=-1.381368e-02
10761=1.493696e-02
10771=-1.381368e-02
10772=1.493696e-02
10782=-1.381368e-02
10783=1.493696e-02
10793=-1.381368e-02
10794=1.493696e-02
10804=-1.381368e-02
10805=1.493696e-02
10815=-1.381368e-02
10816=1.493696e-02
10826=-1.381368e-02
10827=1.493696e-02
10837=-1.231883e-02
10838=1.405679e-02
10848=-2.812393e-02
10849=2.896512e-02
10861=8.759352e-02
10872=7.446953e-02
10883=8.759352e-02
10894=8.759352e-02
10905=8.759352e-02
10916=6.468623e-02
10927=8.759352e-02
10938=8.759352e-02
10949=7.446953e-02
10960=8.652079e-02
10971=8.759352e-02
10982=8.759352e-02
10991=2.494358e-03
11002=2.578257e-03
11003=-1.192086e-02
11013=1.023065e-02
11014=-9.852035e-03
11024=1.023065e-02
11025=-9.852035e-03
11035=9.544117e-02
11036=-8.815636e-02
11046=1.363616e+00
11047=-5.322370e-01
11057=-4.682571e-01
11069=1.809355e-02
11079=-4.682571e-01
11090=-1.493733e-02
11091=6.098753e-02
11101=-4.682571e-01
11112=-4.977143e-02
11123=-8.168930e-03
11124=2.680203e-02
11134=7.302026e-01
11135=-2.468922e-01
11145=-1.077800e-03
11146=1.404010e-02
11164=5.997187e-02
11167=2.456954e-01
11168=-2.233847e-01
11178=2.539017e-01
11179=-2.255523e-01
11189=-3.039237e-03
11190=6.352377e-03
11200=-3.039237e-03
11201=6.352377e-03
11212=5.340943e-03
11222=1.072719e-01
11223=-3.911461e-02
11233=1.645774e-01
11234=-1.289982e-01
11251=2.913465e-02
11255=9.741601e-02
11256=-5.292013e-02
11266=-1.002002e-03
11267=3.277936e-03
11277=-9.439184e-02
11278=3.896590e-01
11288=-1.697068e-03
11289=3.979235e-03
11299=-1.697068e-03
11300=3.979235e-03
11310=-1.697068e-03
11311=3.979235e-03
11321=-1.697068e-03
11322=3.979235e-03
11332=-1.697068e-03
11333=3.979235e-03
11343=-1.697068e-03
11344=3.979235e-03
11354=-1.697068e-03
11355=3.979235e-03
11366=1.069762e-03
11376=-1.117252e-02
11377=1.407541e-02
11387=-2.131131e-02
11388=3.557785e-02
11398=8.233730e-02
11399=-3.362557e-02
11409=8.233730e-02
11410=-3.362557e-02
11420=8.233730e-02
11421=-3.362557e-02
11431=8.233730e-02
11432=-3.362557e-02
11442=8.233730e-02
11443=-3.362557e-02
11453=8.233730e-02
11454=-3.362557e-02
11464=8.233730e-02
11465=-3.362557e-02
11475=9.721916e-02
11476=-3.835247e-02
11493=3.218517e-02
11504=3.218517e-02
11515=3.218517e-02
11526=3.218517e-02
11537=3.218517e-02
11548=3.218517e-02
11559=3.218517e-02
11570=3.218517e-02
11574=-1.040722e-02
11575=2.183213e-02
11585=-1.040722e-02
11586=2.183213e-02
11596=-1.040722e-02
11597=2.183213e-02
11607=-1.040722e-02
11608=2.183213e-02
11618=-1.040722e-02
11619=2.183213e-02
11629=-1.040722e-02
11630=2.183213e-02
11648=6.030411e-02
11659=6.030411e-02
