#mdl#2#805
#rdr#61/19/0
1:*,
18:u:Tok-1 X=%x[ 0,0],
18:u:tok-1 X=%x[ 0,1],
18:u:tok-1LL=%X[-2,0],
18:u:tok-1 L=%X[-1,0],
18:u:tok-1 R=%X[ 1,0],
18:u:tok-1RR=%X[ 2,0],
27:u:tok-2 L=%X[-1,0]/%X[ 0,0],
27:u:tok-2 R=%X[ 0,0]/%X[ 1,0],
18:*:Fst-1 X=%x[ 0,2],
18:u:Fst-1 R=%x[ 1,2],
27:u:Fst-2 X=%x[ 0,2]/%x[ 0,4],
27:u:Fst-2 R=%x[ 1,2]/%x[ 1,4],
18:*:Lst-1 L=%x[-1,3],
18:u:Lst-1 X=%x[ 0,3],
27:u:Lst-2 L=%x[-1,3]/%x[-1,6],
27:u:Lst-2 X=%x[ 0,3]/%x[ 0,6],
18:u:Pre-1 X=%x[ 0,4],
18:u:Pre-2 X=%x[ 0,5],
18:u:Pre-2 R=%x[ 1,5],
18:u:Suf-1 X=%x[ 0,6],
18:u:Suf-2 L=%x[-1,7],
18:u:Suf-2 X=%x[ 0,7],
18:u:Cap-1 L=%x[-1,8],
18:u:Cap-1 X=%x[ 0,8],
18:u:Cap-1 R=%x[ 1,8],
27:u:Cap-2 L=%x[-1,8]/%x[ 0,8],
27:u:Cap-2 R=%x[ 0,8]/%x[ 1,8],
28:u:Cap-3 L=%x[-1,18]/%x[ 0,8],
18:*:Num-1 L=%x[-1,9],
18:*:Num-1 X=%x[ 0,9],
18:u:Num-1 R=%x[ 1,9],
28:u:Num-2 R=%x[ 0,9]/%x[ 0,17],
28:u:Num-2 R=%x[ 0,9]/%x[ 0,18],
19:u:Nme-1 X=%x[ 0,10],
19:u:Loc-1 X=%x[ 0,11],
19:u:Pub-1 X=%x[ 0,12],
19:u:Jnl-1 X=%x[ 0,13],
19:u:Key-1 L=%x[-1,14],
19:u:Key-1 X=%x[ 0,14],
19:u:Key-1 R=%x[ 1,14],
28:u:Key-2 X=%x[ 0,14]/%x[ 0,8],
29:u:Key-3 L=%x[-1,18]/%x[ 0,14],
29:u:Key-3 x=%x[ 0,14]/%x[ 0,18],
19:u:Pos-1 X=%x[ 0,15],
29:u:Pos-2 L=%x[-1,15]/%x[ 0,15],
29:u:Pos-2 R=%x[ 0,15]/%x[ 1,15],
19:u:Pct-1 L=%x[-1,16],
19:u:Pct-1 X=%x[ 0,16],
19:u:Pct-1 R=%x[ 1,16],
19:u:Brk-1 L=%x[-1,17],
19:u:Brk-1 X=%x[ 0,17],
19:u:Brk-1 R=%x[ 1,17],
19:*:Tmn-1 L=%x[-1,18],
19:u:Tmn-1 X=%x[ 0,18],
19:u:Tmn-1 R=%x[ 1,18],
29:u:Tmn-2 L=%x[-1,14]/%x[ 0,18],
29:u:Tmn-2 R=%x[ 0,18]/%x[ 1,14],
28:u:Tmn-3 X=%x[ 0,18]/%x[ 0,6],
28:u:Tmn-4 R=%x[ 0,18]/%x[ 1,8],
19:u:Id--1 X=%x[ 0,19],
#qrk#9
7:Authors,
4:Year,
5:Title,
6:Series,
6:Volume,
5:Issue,
10:Pagination,
3:DOI,
4:City,
#qrk#403
1:*,
14:u:tok-1LL=_x-2,
14:u:tok-1 L=_x-1,
12:*:Fst-1 X=Lu,
12:u:Fst-1 R=Lu,
14:u:Fst-2 X=Lu/H,
14:u:Fst-2 R=Lu/A,
14:*:Lst-1 L=_x-1,
11:u:Lst-1 X=P,
19:u:Lst-2 L=_x-1/_x-1,
13:u:Lst-2 X=P/,,
11:u:Pre-1 X=H,
11:u:Suf-1 X=,,
14:u:Suf-2 L=_x-1,
14:u:Cap-1 L=_x-1,
17:u:Cap-1 X=initial,
22:u:Cap-2 L=_x-1/initial,
22:u:Cap-3 L=_x-1/initial,
14:*:Num-1 L=_x-1,
14:*:Num-1 X=none,
14:u:Num-1 R=none,
19:u:Num-2 R=none/none,
11:u:Nme-1 X=T,
11:u:Loc-1 X=F,
11:u:Pub-1 X=F,
11:u:Jnl-1 X=F,
14:u:Key-1 L=_x-1,
14:u:Key-1 X=none,
14:u:Key-1 R=none,
22:u:Key-2 X=none/initial,
19:u:Key-3 L=_x-1/none,
15:u:Pos-1 X=first,
20:u:Pos-2 L=_x-1/first,
14:u:Pct-1 L=_x-1,
15:u:Pct-1 X=other,
16:u:Pct-1 R=period,
14:u:Brk-1 L=_x-1,
14:u:Brk-1 X=none,
14:u:Brk-1 R=none,
14:*:Tmn-1 L=_x-1,
16:u:Tmn-1 R=strong,
19:u:Tmn-2 L=_x-1/weak,
16:u:Tmn-3 X=weak/,,
11:u:Id--1 X=F,
11:u:Fst-1 R=N,
14:u:Fst-2 X=Lu/A,
13:u:Fst-2 R=N/1,
11:*:Lst-1 L=P,
13:u:Lst-2 L=P/,,
13:u:Lst-2 X=P/.,
11:u:Pre-1 X=A,
11:u:Suf-1 X=.,
17:u:Cap-1 L=initial,
15:u:Cap-1 R=other,
14:*:Num-1 L=none,
21:u:Num-2 R=none/strong,
11:u:Nme-1 X=F,
14:u:Key-1 L=none,
19:u:Key-3 L=weak/none,
21:u:Key-3 x=none/strong,
15:u:Pct-1 L=other,
16:u:Pct-1 X=period,
14:u:Pct-1 R=none,
14:u:Brk-1 L=none,
14:*:Tmn-1 L=weak,
16:u:Tmn-1 X=strong,
14:u:Tmn-1 R=none,
21:u:Tmn-2 L=none/strong,
21:u:Tmn-2 R=strong/none,
18:u:Tmn-3 X=strong/.,
11:*:Fst-1 X=N,
11:u:Lst-1 X=N,
13:u:Lst-2 L=P/.,
12:u:Pre-2 X=19,
15:u:Cap-1 X=other,
17:u:Cap-1 R=initial,
23:u:Cap-2 R=other/initial,
14:*:Num-1 X=year,
19:u:Num-2 R=year/none,
20:u:Key-2 X=none/other,
21:u:Key-3 L=strong/none,
19:u:Key-3 x=none/none,
16:u:Pct-1 L=period,
14:u:Pct-1 X=none,
16:*:Tmn-1 L=strong,
14:u:Tmn-1 X=none,
19:u:Tmn-2 L=none/none,
19:u:Tmn-2 R=none/none,
22:u:Tmn-4 R=none/initial,
14:u:Fst-2 X=Lu/D,
14:u:Fst-2 R=Lu/C,
11:*:Lst-1 L=N,
12:u:Lst-1 X=Ll,
11:u:Pre-1 X=D,
15:u:Cap-1 L=other,
25:u:Cap-2 R=initial/initial,
22:u:Cap-3 L=none/initial,
14:*:Num-1 L=year,
19:u:Key-3 L=none/none,
14:u:Pct-1 L=none,
14:*:Tmn-1 L=none,
14:u:Fst-2 X=Lu/C,
12:*:Lst-1 L=Ll,
14:u:Lst-2 X=Ll/s,
11:u:Pre-1 X=C,
11:u:Suf-1 X=s,
12:u:Suf-2 X=es,
25:u:Cap-2 L=initial/initial,
11:u:Pos-1 X=2,
16:u:Tmn-3 X=none/s,
12:u:Fst-1 R=Ll,
14:u:Lst-2 L=Ll/s,
12:u:Pre-2 X=Ha,
12:u:Suf-2 L=es,
15:u:Cap-1 R=lower,
23:u:Cap-2 R=initial/lower,
13:u:Pos-2 L=2/2,
13:u:Pos-2 R=2/3,
20:u:Tmn-4 R=none/lower,
12:*:Fst-1 X=Ll,
14:u:Fst-2 X=Ll/n,
14:u:Fst-2 R=Ll/d,
11:u:Pre-1 X=n,
15:u:Cap-1 X=lower,
23:u:Cap-2 L=initial/lower,
21:u:Cap-2 R=lower/lower,
20:u:Cap-3 L=none/lower,
20:u:Key-2 X=none/lower,
11:u:Pos-1 X=3,
13:u:Pos-2 R=3/3,
14:u:Fst-2 X=Ll/d,
11:u:Pre-1 X=d,
15:u:Cap-1 L=lower,
21:u:Cap-2 L=lower/lower,
13:u:Pos-2 L=3/3,
14:u:Fst-2 R=Lu/T,
14:u:Lst-2 X=Ll/e,
11:u:Suf-1 X=e,
23:u:Cap-2 R=lower/initial,
11:u:Jnl-1 X=T,
11:u:Pos-1 X=4,
13:u:Pos-2 L=3/4,
13:u:Pos-2 R=4/4,
15:u:Pct-1 R=other,
16:u:Tmn-3 X=none/e,
14:u:Fst-2 X=Lu/T,
14:u:Lst-2 L=Ll/e,
11:u:Pre-1 X=T,
23:u:Cap-2 L=lower/initial,
13:u:Pos-2 L=4/4,
13:u:Pos-2 R=4/5,
12:u:Pre-2 R=de,
11:u:Pos-1 X=5,
13:u:Pos-2 L=4/5,
13:u:Pos-2 R=5/5,
12:u:tok-1RR=de,
12:u:Pre-2 X=de,
13:u:Pos-2 L=5/5,
13:u:Pos-2 R=5/6,
14:u:Fst-2 R=Ll/l,
11:u:Pos-1 X=6,
13:u:Pos-2 L=5/6,
13:u:Pos-2 R=6/6,
14:u:Fst-2 X=Ll/l,
14:u:Fst-2 R=Lu/M,
14:u:Lst-2 X=Ll/a,
11:u:Pre-1 X=l,
11:u:Suf-1 X=a,
13:u:Pos-2 L=6/6,
13:u:Pos-2 R=6/7,
16:u:Tmn-3 X=none/a,
14:u:Fst-2 X=Lu/M,
11:u:Pre-1 X=M,
12:u:Suf-2 X=e.,
11:u:Pos-1 X=7,
13:u:Pos-2 L=6/7,
13:u:Pos-2 R=7/7,
24:u:Tmn-4 R=strong/initial,
24:u:Cap-3 L=strong/initial,
13:u:Pos-2 L=7/7,
13:u:Pos-2 R=7/8,
11:u:Pos-1 X=8,
13:u:Pos-2 L=7/8,
13:u:Pos-2 R=8/8,
11:u:tok-1RR=1,
13:u:Pos-2 L=8/8,
13:u:Pos-2 R=8/9,
20:u:Tmn-4 R=none/other,
23:u:Cap-2 L=initial/other,
21:u:Cap-2 R=other/other,
20:u:Cap-3 L=none/other,
16:*:Num-1 X=single,
21:u:Num-2 R=single/none,
11:u:Pos-1 X=9,
21:u:Cap-2 L=other/other,
15:u:Num-1 R=range,
16:u:Pct-1 R=hyphen,
14:u:tok-1 R=_x+1,
14:u:tok-1RR=_x+2,
14:u:Fst-1 R=_x+1,
19:u:Fst-2 R=_x+1/_x+1,
14:u:Pre-2 R=_x+1,
14:u:Cap-1 R=_x+1,
15:*:Num-1 X=range,
14:u:Num-1 R=_x+1,
20:u:Num-2 R=range/none,
14:u:Key-1 R=_x+1,
14:u:Pos-1 X=last,
16:u:Pos-2 L=9/last,
19:u:Pos-2 R=last/_x+1,
16:u:Pct-1 X=hyphen,
14:u:Pct-1 R=_x+1,
14:u:Brk-1 R=_x+1,
14:u:Tmn-1 R=_x+1,
19:u:Tmn-2 R=none/_x+1,
19:u:Tmn-4 R=none/_x+1,
16:u:Cap-1 R=single,
24:u:Cap-2 R=initial/single,
14:u:Fst-2 X=Lu/B,
11:u:Pre-1 X=B,
16:u:Cap-1 X=single,
21:u:Key-2 X=none/single,
14:u:Fst-2 X=Lu/G,
11:u:Pre-1 X=G,
16:u:Cap-1 L=single,
22:u:Cap-2 L=single/other,
14:u:Lst-2 L=Ll/h,
14:u:Lst-2 X=Ll/n,
11:u:Suf-1 X=n,
12:u:Suf-2 L=th,
12:u:Suf-2 X=an,
11:u:Pub-1 X=T,
16:u:Tmn-3 X=none/n,
14:u:Lst-2 L=Ll/n,
11:u:Loc-1 X=T,
14:u:Fst-2 R=Lu/S,
12:u:Pre-2 R=Sc,
14:u:Fst-2 X=Lu/S,
11:u:Pre-1 X=S,
12:u:Pre-2 X=Sc,
14:u:Fst-2 R=Lu/E,
22:u:Tmn-4 R=weak/initial,
14:u:Lst-2 X=Ll/r,
11:u:Suf-1 X=r,
16:u:Tmn-3 X=none/r,
14:u:tok-1RR=dans,
14:u:Lst-2 L=Ll/r,
14:u:tok-1 R=dans,
12:u:Pre-2 R=da,
12:u:Pre-2 R=le,
13:u:Tok-1 X=les,
14:u:tok-1 L=dans,
14:u:tok-1 R=eaux,
18:u:tok-2 L=dans/les,
18:u:tok-2 R=les/eaux,
12:u:Pre-2 X=le,
15:u:tok-1 R=belge,
12:u:Suf-2 X=ge,
15:u:tok-1 L=belge,
15:u:tok-1LL=belge,
12:u:Suf-2 X=us,
12:u:Suf-2 L=us,
18:u:tok-1RR=bulletin,
18:u:tok-1 R=bulletin,
12:u:Pre-2 R=Bu,
17:u:Key-1 R=journal,
18:u:tok-1 X=bulletin,
12:u:Suf-2 X=in,
17:u:Key-1 X=journal,
25:u:Key-2 X=journal/initial,
22:u:Key-3 x=journal/none,
18:u:tok-1 L=bulletin,
17:u:Key-1 L=journal,
22:u:Tmn-2 L=journal/none,
18:u:tok-1LL=bulletin,
14:u:Lst-2 X=Ll/l,
11:u:Suf-1 X=l,
16:u:Tmn-3 X=none/l,
14:u:Lst-2 L=Ll/l,
12:u:Suf-2 L=al,
12:u:Pre-2 R=Be,
13:u:Fst-2 R=N/2,
12:u:Pre-2 X=Be,
12:u:Suf-2 X=ue,
12:u:Suf-2 L=ue,
16:*:Num-1 X=double,
21:u:Num-2 R=double/none,
12:u:Pre-2 R=1-,
17:*:Num-1 X=numeric,
22:u:Num-2 R=numeric/none,
22:u:Num-2 R=numeric/weak,
17:*:Num-1 L=numeric,
16:u:Pct-1 L=hyphen,
14:u:Pos-2 R=9/10,
14:u:Fst-2 R=Lu/I,
12:u:Pos-1 X=10,
14:u:Pos-2 L=9/10,
17:u:Pos-2 R=10/last,
14:u:Fst-2 X=Lu/I,
11:u:Pre-1 X=I,
15:*:Num-1 X=roman,
20:u:Num-2 R=roman/none,
14:u:Fst-2 R=Ll/s,
14:u:Fst-2 X=Ll/s,
11:u:Pre-1 X=s,
13:u:tok-1 X=the,
22:u:tok-2 R=the/bulletin,
12:u:Suf-2 X=he,
13:u:tok-1 L=the,
12:u:tok-1 R=of,
14:u:Fst-2 R=Ll/o,
12:u:Pre-2 R=of,
12:u:Suf-2 L=he,
12:u:Tok-1 X=of,
12:u:tok-1 X=of,
13:u:tok-1LL=the,
16:u:tok-2 R=of/the,
14:u:Fst-2 X=Ll/o,
14:u:Lst-2 X=Ll/f,
11:u:Pre-1 X=o,
12:u:Pre-2 X=of,
11:u:Suf-1 X=f,
12:u:Suf-2 X=of,
16:u:Tmn-3 X=none/f,
16:u:tok-2 L=of/the,
14:u:Fst-2 X=Ll/t,
11:u:Pre-1 X=t,
16:u:tok-1 R=israel,
12:u:Pre-2 R=Is,
16:u:tok-1 L=israel,
16:u:tok-1LL=israel,
14:u:Lst-2 X=Ll/d,
11:u:Suf-1 X=d,
12:u:Suf-2 X=nd,
16:u:Tmn-3 X=none/d,
14:u:Lst-2 L=Ll/d,
12:u:Suf-2 L=nd,
12:*:Lst-1 L=Lu,
21:u:Num-2 R=triple/none,
14:u:Fst-2 R=Lu/P,
15:*:Num-1 L=roman,
15:*:Num-1 L=range,
11:u:Id--1 X=T,
18:*:Tmn-1 L=moderate,
12:u:Fst-1 R=Ps,
12:*:Fst-1 X=Ps,
12:u:Lst-1 X=Pe,
24:u:Tmn-2 R=strong/journal,
12:*:Lst-1 L=Pe,
23:u:tok-1 X=mediterranean,
14:u:Fst-2 R=Ps/(,
14:u:Fst-2 X=Ps/(,
11:u:Pre-1 X=(,
23:u:Brk-1 L=opening-paren,
15:u:tok-1RR=zool.,
14:u:Lst-2 X=Pe/),
11:u:Suf-1 X=),
23:u:Brk-1 X=closing-paren,
18:u:Tmn-3 X=strong/),
15:u:tok-1 R=zool.,
12:u:Pre-2 X=Cl,
12:u:Pre-2 R=Ar,
14:u:Fst-2 R=Lu/Z,
12:u:Pre-2 R=Zo,
12:u:Suf-2 X=ae,
12:u:tok-1 L=1.,
12:u:Suf-2 L=1.,
12:u:Pre-2 X=10,
26:u:Tok-1 X=océanographique,
25:u:tok-1 X=oceanographique,
24:u:tok-1LL=scientifiques,,
21:u:tok-1 L=expédition,
38:u:tok-2 L=expédition/océanographique,
32:u:tok-2 R=océanographique/belge,
12:u:Pre-2 X=oc,
15:u:Tok-1 X=Belge,
21:u:tok-1LL=expédition,
26:u:tok-1 L=océanographique,
32:u:tok-2 L=océanographique/belge,
20:u:tok-2 R=belge/dans,
26:u:tok-1LL=océanographique,
20:u:tok-2 L=belge/dans,
20:u:tok-1RR=côtières,
12:u:Pre-2 R=Ea,
12:u:Suf-2 X=a,,
12:u:Suf-2 L=a,,
15:u:tok-1 X=haifa,
17:u:tok-1 L=eastern,
12:u:Suf-2 L=rn,
16:u:Tok-1 X=Haifa,,
15:u:tok-1RR=1-126,
23:u:tok-2 L=israel/haifa,,
23:u:tok-2 R=haifa,/israel,
16:u:tok-1 L=haifa,,
15:u:tok-1 R=1-126,
23:u:tok-2 L=haifa,/israel,
22:u:tok-2 R=israel/1-126,
21:u:Tok-1 X=Clathriidae,
21:u:tok-1 X=clathriidae,
17:u:tok-1 R=cahiers,
25:u:tok-2 L=the/clathriidae,
29:u:tok-2 R=clathriidae/cahiers,
12:u:Pre-2 R=Ca,
1=-5.234352e-02
2=8.368493e-02
3=1.855193e-02
6=8.014128e-04
9=8.910906e-01
10=7.595325e-01
11=-3.480273e-01
27=-4.316041e-02
29=3.780942e-01
33=-4.967720e-01
38=-1.361047e+00
39=4.385488e-01
40=5.708950e-01
41=-2.246538e-01
42=-2.866997e-01
50=4.991007e-01
51=2.938402e-03
60=3.656586e-01
65=-1.944999e-01
69=4.790540e-02
70=1.018691e-01
89=1.431140e-01
90=1.173822e-01
99=1.173822e-01
108=1.688591e-01
110=3.244052e-03
111=9.385075e-02
114=-1.293021e-02
116=1.442284e-02
117=1.547274e+00
128=2.322466e-01
137=5.060532e-02
138=1.070018e+00
147=2.483511e-01
197=1.056405e-01
200=6.293819e-02
201=2.025646e-03
215=8.697960e-02
218=4.070355e-01
219=-4.447521e-01
225=1.173822e-01
315=1.812612e-01
317=3.961692e-03
318=-4.364062e-03
324=1.173822e-01
333=1.542239e-04
350=8.697960e-02
351=1.542239e-04
360=1.173822e-01
369=1.173822e-01
380=5.450265e-02
381=8.844179e-02
384=-4.486750e-02
386=6.422739e-02
387=1.173822e-01
396=1.173822e-01
405=1.173822e-01
497=1.383967e-01
498=1.515660e-01
504=7.137317e-01
515=8.277085e-02
522=-6.795345e-02
524=3.808082e-01
533=-8.009928e-01
534=4.889593e-01
564=5.017966e-01
584=1.421428e-01
587=1.878510e-01
588=6.002502e-02
589=-2.425887e-01
595=-4.311361e-01
596=2.146284e-01
597=3.739344e-01
598=-1.060713e+00
600=-3.468110e-04
602=9.988933e-03
605=7.284922e-03
606=-1.916854e-03
611=2.639145e-01
613=-2.843108e-02
614=1.416191e-02
615=7.769893e-02
618=3.610073e-02
620=-6.635469e-01
622=-3.102504e-02
623=1.875718e-03
624=1.785920e-02
627=1.404862e-02
632=2.140840e-01
633=-9.895927e-02
636=6.856616e-02
639=1.173822e-01
648=-4.051789e-04
650=7.762077e-02
651=2.734486e-02
654=1.812415e-02
659=1.963574e-03
660=9.166054e-02
664=-1.054965e-01
668=7.527455e-02
669=4.437361e-02
672=-2.323166e-02
674=3.476581e-02
675=1.173822e-01
684=1.173822e-01
693=1.173822e-01
702=1.173822e-01
713=6.651114e-02
714=-2.610975e-02
720=7.964844e-04
723=5.584777e-02
729=1.173822e-01
740=-4.285511e-03
741=2.310270e-02
744=3.039999e-02
749=1.414623e-02
750=1.944669e-02
754=-1.090334e-01
756=1.173822e-01
848=9.490937e-03
849=1.573807e-04
855=1.173822e-01
864=1.542239e-04
875=3.718081e-02
876=3.898622e-02
879=2.774690e-01
880=-8.090117e-01
885=-1.261703e-04
886=1.714419e-01
887=8.473419e-02
893=-1.028996e-02
894=9.046088e-03
903=-9.136176e-02
905=1.492541e-01
911=-2.341385e-02
912=-2.685555e-03
918=8.563664e-01
919=6.678817e-01
938=7.672855e-01
948=1.412989e+00
978=2.383887e+00
998=5.104132e-01
1002=-7.398289e-03
1010=1.991209e-02
1011=2.227250e-04
1019=-1.028996e-02
1020=9.046088e-03
1028=1.991209e-02
1029=2.227250e-04
1037=-7.126347e-02
1038=9.714067e-02
1039=1.229106e-01
1043=1.738549e-01
1046=-3.005878e-02
1047=-2.742891e-04
1048=1.179542e-01
1049=8.124126e-02
1053=-2.393857e-04
1055=1.223034e-01
1056=1.054578e-01
1057=1.923546e-04
1058=-1.934387e+00
1059=-9.116686e-02
1062=8.104649e-01
1063=3.209396e-01
1064=-3.975525e-02
1080=-4.220795e-02
1082=4.007238e-01
1083=-1.090709e-02
1091=-9.963964e-01
1092=4.713862e-01
1093=7.704647e-01
1140=2.523036e-03
1142=8.446104e-02
1146=5.291942e-03
1154=4.965101e-02
1155=2.601734e-02
1160=-4.232931e-01
1161=-4.317685e-02
1163=1.195418e-01
1164=-1.279544e-02
1167=4.704774e-02
1173=-4.226150e-03
1181=4.493228e-02
1182=-3.002480e-03
1190=4.361712e-03
1191=-2.068960e-03
1200=7.861746e-03
1208=1.051226e-01
1209=8.094737e-02
1215=-3.706052e-02
1217=6.949079e-02
1218=5.243349e-02
1221=2.936210e-02
1227=-6.138861e-03
1233=8.006159e-01
1253=2.617933e-01
1254=-2.755973e-01
1263=4.194304e-02
1293=6.275598e-01
1313=5.147758e-01
1316=5.839335e-02
1317=-6.496650e-03
1323=-1.380918e-02
1325=1.201773e-01
1326=-1.343405e-03
1327=1.108410e-02
1331=1.022222e-01
1334=5.126405e-02
1335=-4.335585e-03
1343=1.345204e-03
1344=1.664407e-01
1352=1.991209e-02
1353=2.227250e-04
1362=-1.933632e-03
1365=3.518218e-02
1369=7.300487e-01
1388=7.004751e-01
1399=1.327625e+00
1409=5.251324e-01
1410=2.319203e-02
1419=4.449639e-01
1429=3.300943e-01
1452=-2.198870e-01
1454=7.002785e-02
1455=5.864112e-02
1460=-2.351644e-02
1461=6.427637e-02
1468=1.295327e-01
1482=3.382967e-02
1487=1.193419e-01
1488=4.139156e-03
1496=2.826958e-03
1513=7.603229e-01
1532=9.570079e-02
1573=3.486182e-01
1594=6.031628e-01
1599=-5.290176e-01
1600=1.753334e+00
1608=3.449377e-02
1613=-1.261870e-02
1614=5.482639e-02
1620=-8.616615e-02
1622=6.118409e-02
1623=1.124477e-02
1631=-1.901659e-02
1632=3.261300e-02
1638=-8.477400e-02
1640=1.279055e-02
1641=1.018107e-01
1642=6.926348e-03
1649=-3.031100e-02
1650=8.020415e-02
1657=8.023588e-01
1677=3.948152e-01
1687=2.463842e-01
1737=-1.010389e-04
1739=4.393152e-02
1740=4.039517e-03
1746=-1.991459e-05
1748=6.980676e-02
1749=9.480906e-04
1750=3.997673e-02
1757=4.397421e-02
1758=1.536535e-03
1759=2.419374e-01
1760=2.221960e-02
1766=6.888283e-02
1767=-2.787491e-03
1775=1.410790e-02
1776=-1.324731e-02
1784=2.259593e-02
1785=-1.191774e-02
1795=-1.779110e-01
1796=1.094308e-01
1797=2.564656e-02
1811=2.219228e+00
1820=-3.054589e-02
1841=3.651352e-01
1842=5.858263e-02
1851=4.950427e-01
1861=2.720706e-01
1883=1.486684e-01
1884=1.415796e-01
1892=1.410790e-02
1893=-1.324731e-02
1903=-1.867888e-01
1904=1.111797e-01
1905=3.850889e-01
1910=9.389182e-02
1911=-1.636227e-02
1919=8.777107e-02
1920=3.006195e-02
1946=6.028471e-01
2016=-3.391879e-02
2018=1.529790e-01
2020=-2.930198e-03
2021=1.581391e-02
2026=-1.471656e-02
2027=1.458917e-01
2028=-1.392167e-03
2029=-1.763042e-02
2030=4.843589e-02
2031=1.492626e-01
2034=-6.294691e-02
2036=1.669802e-01
2037=2.163068e-03
2038=-3.121376e-03
2054=1.901659e-01
2063=3.241337e-01
2064=-1.514923e-01
2067=-9.823719e-02
2072=-6.545474e-02
2073=3.480064e-01
2074=1.071542e-01
2084=5.174418e-01
2085=3.759521e-03
2094=6.380208e-01
2104=2.403404e-01
2126=3.622776e-02
2127=-8.525751e-03
2135=1.532443e-01
2136=6.835405e-02
2162=3.772159e-01
2163=-2.782027e-01
2172=3.785296e-01
2173=2.795475e-01
2220=2.906560e-03
2225=-1.484355e-03
2226=3.349975e-02
2234=3.622776e-02
2235=-8.525751e-03
2243=-1.484355e-03
2244=3.349975e-02
2253=1.177465e-02
2261=-4.194088e-02
2262=1.579096e-01
2267=1.479391e+00
2270=6.357539e-01
2271=-1.499835e-01
2279=-1.484355e-03
2280=3.349975e-02
2288=1.618802e-01
2289=1.167854e-01
2297=-1.209366e-02
2298=8.125580e-02
2312=8.719544e-02
2315=-3.672470e-02
2316=3.376291e-01
2324=1.575439e-01
2325=1.232486e-01
2333=2.898372e-04
2334=5.415630e-02
2342=1.523714e-01
2343=-3.746153e-02
2351=5.047814e-02
2352=-3.430081e-02
2360=8.580135e-02
2361=1.224160e-01
2369=1.550056e-01
2370=4.452268e-02
2396=3.134994e-01
2397=-1.564058e+00
2406=5.505030e-01
2436=1.335896e-03
2459=1.257068e-02
2468=-9.886372e-05
2469=4.901410e-02
2477=1.257068e-02
2486=1.550240e-01
2487=4.418867e-02
2495=-1.690025e-03
2496=8.903426e-02
2504=1.081427e-01
2505=1.351892e-02
2513=1.420301e-01
2514=4.582124e-02
2522=1.277340e-01
2523=5.623934e-02
2532=8.584520e-03
2541=4.981358e-03
2550=5.792618e-02
2559=5.792618e-02
2567=2.591191e-01
2568=9.730732e-04
2576=1.621522e-01
2577=-5.701057e-04
2586=4.437921e-04
2594=1.154468e-02
2595=-1.940173e-01
2603=5.656308e-04
2604=2.315528e-02
2612=5.656308e-04
2613=2.315528e-02
2621=1.088096e-02
2622=2.186299e-02
2630=-5.204695e-02
2631=6.083308e-01
2639=1.596406e-01
2640=-2.362558e-02
2648=3.258226e-05
2657=8.496234e-02
2666=4.923336e-02
2667=-3.393300e-04
2675=5.656308e-04
2676=2.315528e-02
2684=-7.962072e-02
2685=4.222769e-02
2693=4.124931e-02
2694=-1.285431e-05
2702=-7.962072e-02
2703=4.222769e-02
2711=5.506785e-02
2712=1.744205e-03
2720=9.743086e-02
2729=4.338800e-02
2739=8.125898e-02
2747=2.605772e-01
2748=-3.684734e-02
2756=1.181447e+00
2757=-3.906460e-02
2765=9.474320e-02
2766=-1.385890e-02
2774=3.199641e-02
2775=-1.093354e-04
2784=7.910886e-02
2792=4.838000e-02
2801=8.977615e-02
2802=-8.755484e-03
2810=-2.418506e-03
2811=2.205799e-02
2819=-3.839680e-03
2820=1.058862e-01
2828=-2.035371e-03
2829=3.307789e-02
2837=-1.228026e-04
2838=4.862408e-02
2846=-4.488953e-03
2847=2.315879e-02
2855=-1.126826e-01
2856=5.960845e-01
2864=4.085574e-02
2873=-4.488953e-03
2874=2.315879e-02
2882=4.085574e-02
2892=4.693591e-02
2901=3.456631e-02
2909=4.085574e-02
2918=2.768792e-01
2919=-9.988512e-02
2927=2.768792e-01
2928=-9.988512e-02
2936=1.460818e-01
2937=-6.788565e-02
2945=-1.534401e-02
2946=1.754041e-01
2954=5.338496e-05
2955=-2.112769e-02
2963=-2.600786e-02
2964=8.003039e-02
2972=2.613468e-01
2973=-4.649773e-03
2981=-7.309924e-03
2982=2.376258e-01
2990=-1.544944e-02
2991=1.624616e-01
2999=7.886723e-04
3000=-7.085913e-03
3008=-2.554863e-01
3009=7.637235e-01
3017=-9.622089e-02
3018=2.899219e-01
3026=4.721872e-04
3027=1.802807e-01
3036=2.227600e-01
3045=3.507508e-02
3053=-2.872884e-01
3054=2.910048e-01
3062=-1.836860e-01
3063=-2.898060e-03
3064=1.065870e+00
3065=3.212804e-01
3072=-4.260264e-03
3073=3.409720e-01
3082=8.657472e-02
3083=1.078906e-01
3090=-1.302678e-01
3092=1.416624e-01
3136=6.694486e-01
3146=8.520444e-01
3190=8.474993e-02
3191=2.199041e-02
3197=-3.953248e-01
3200=8.049247e-02
3201=6.241888e-02
3208=-1.558610e-01
3209=2.061723e-01
3216=-1.847556e-01
3217=6.205156e-02
3218=2.607373e-01
3225=-1.121451e+00
3226=1.039405e-02
3227=3.367668e-01
3237=3.006719e-01
3246=3.006719e-01
3255=3.006719e-01
3264=3.006719e-01
3273=3.006719e-01
3282=3.006719e-01
3345=3.154738e-01
3381=3.006719e-01
3390=5.825967e-01
3399=3.006719e-01
3408=3.006719e-01
3418=6.608032e-04
3426=3.006719e-01
3432=-5.226570e-02
3435=9.183532e-01
3444=3.006719e-01
3453=3.006719e-01
3462=3.006719e-01
3471=1.710760e-01
3480=1.710760e-01
3485=-3.467052e-03
3492=1.145988e-03
3503=-6.646735e-02
3504=1.634688e-01
3512=-6.646735e-02
3513=1.634688e-01
3519=1.078477e-03
3528=8.257737e-04
3539=1.771758e-03
3540=-2.226514e-02
3548=1.771758e-03
3549=-2.226514e-02
3557=-5.159896e-02
3565=9.239255e-02
3575=4.398538e-03
3576=-9.053754e-05
3584=9.916924e-03
3585=1.951901e-04
3593=9.916924e-03
3594=1.951901e-04
3602=5.305901e-04
3611=2.024138e-02
3612=-6.028436e-03
3621=5.046977e-04
3629=9.916924e-03
3630=1.951901e-04
3638=-3.508681e-04
3639=3.782574e-03
3647=4.626699e-02
3648=-2.398750e-01
3653=2.913546e-01
3656=-6.898764e-01
3657=1.668021e+00
3665=-1.629201e-01
3666=2.152710e-01
3674=1.286950e-03
3675=-2.416670e-02
3683=1.286950e-03
3684=-2.416670e-02
3692=-1.407892e-03
3701=-9.188919e-04
3716=8.574352e-02
3719=-1.223029e-01
3720=1.913491e-02
3728=-1.223029e-01
3729=1.913491e-02
3737=-1.223029e-01
3738=1.913491e-02
3746=-5.124799e-05
3747=3.165459e-04
3755=4.984380e-03
3764=-2.170747e-04
3773=-2.170747e-04
3782=-2.011059e-04
3783=6.019134e-04
3792=9.263156e-05
3800=-4.245164e-04
3801=6.661079e-04
3809=-4.245164e-04
3810=6.661079e-04
3818=-4.245164e-04
3819=6.661079e-04
3827=-4.245164e-04
3828=6.661079e-04
3837=9.263156e-05
3845=-2.346697e-04
3846=3.054563e-04
3854=-2.208242e-04
3855=1.365069e-04
3863=-8.096455e-04
3864=5.762204e-04
3873=3.171507e-05
3881=9.078685e-04
3882=-4.419678e-04
3890=1.322834e-02
3891=-6.076770e-04
3899=2.767318e-01
3900=-4.837042e-03
3908=1.134488e-01
3909=-1.905814e-02
3917=3.288821e-01
3918=-1.717792e-01
3926=1.957534e-01
3935=-1.594774e-02
3936=1.860676e-01
3945=3.367776e-02
3953=-1.291889e-02
3954=2.360384e-02
3962=-1.291889e-02
3963=2.360384e-02
3971=-1.291889e-02
3972=2.360384e-02
3980=-7.189197e-02
3981=9.208608e-02
3989=-1.173352e-01
3990=1.449922e-01
3998=-1.173352e-01
3999=1.449922e-01
4007=-5.606909e-02
4008=7.610924e-02
4017=6.458847e-04
4026=6.458847e-04
4035=6.458847e-04
4043=-1.186437e+00
4044=4.518981e-02
4053=2.191051e-03
4061=-1.313747e-02
4062=3.037322e-02
4072=6.772374e-02
4080=1.623563e-02
4088=-1.635858e-02
4089=2.787213e-02
4098=2.472236e-03
4144=5.517175e-01
4198=3.170301e-01
4199=3.746866e-02
4211=2.827365e-02
4218=4.233333e-02
4308=4.302925e-02
4317=3.809927e-02
4322=1.052374e-01
4323=-2.571261e-01
4349=1.534590e+00
4350=-6.772423e-02
4389=9.039730e-01
4412=-2.194166e-04
4417=2.148889e-01
4427=8.062536e-02
4431=-7.893671e-01
4445=3.337039e-02
4454=3.337039e-02
4463=3.337039e-02
4467=-8.817779e-03
4476=-8.817779e-03
4485=-1.498662e-01
4575=-3.211415e-01
4583=2.644275e-01
4584=-1.440880e-01
4592=2.956161e-01
4593=-1.609155e-01
4601=2.956161e-01
4602=-1.609155e-01
4610=-2.126403e-02
4611=1.940438e-02
4620=4.546414e-02
4628=-1.454435e-02
4629=2.110872e-02
4637=3.448724e-02
4638=-9.056582e-03
4647=2.635147e-02
4655=-7.590334e-02
4656=3.714949e-01
4665=2.635147e-02
4673=5.704495e-02
4674=-1.732581e-02
4683=3.314461e-02
4692=3.314461e-02
4700=2.931005e-05
4709=-2.729723e-02
4710=6.194509e-02
4718=-1.489750e-02
4719=5.177325e-02
4727=-4.400137e-04
4728=3.891548e-02
4736=-1.489750e-02
4737=5.177325e-02
4746=3.314461e-02
4754=-4.400137e-04
4755=3.891548e-02
4764=3.314461e-02
4772=-4.400137e-04
4773=3.891548e-02
4781=-4.463652e-03
4782=2.234855e-02
4791=2.305417e-04
4800=2.305417e-04
4814=8.416556e-02
4823=8.274306e-02
4832=5.889733e-02
4841=3.076910e-02
4844=1.178726e-02
4853=1.178726e-02
4862=4.987257e-03
4871=1.178726e-02
4880=9.121928e-02
4881=-9.807914e-03
4889=4.182822e-02
4890=-3.576400e-02
4946=2.802956e-02
4992=4.102861e-02
4997=4.485470e-01
4998=-6.701251e-01
5034=9.222577e-01
5101=2.486982e-01
5163=-1.764995e-01
5164=3.541976e-01
5190=-1.024169e-05
5191=2.478511e-01
5222=7.562336e-02
5285=1.135495e-02
5294=6.429280e-02
5295=-4.367162e-04
5321=5.922277e-01
5384=2.999256e-02
5393=1.063586e+00
5394=-6.788098e-01
5430=2.533355e-01
5439=-1.232339e-03
5492=1.335815e-01
5493=-1.403162e-02
5501=6.946329e-05
5510=2.464428e-02
5519=2.464428e-02
5528=1.800516e-03
5537=2.396937e-01
5538=-1.396812e-01
5546=1.407359e-02
5555=1.407359e-02
5564=1.075921e-02
5573=1.407359e-02
5583=5.322330e-02
5591=2.235237e-02
5592=-2.496338e-02
5600=3.527708e-02
5601=-1.976674e-02
5609=-1.798382e-01
5610=4.568094e-01
5618=-1.474042e-02
5619=2.812602e-02
5627=1.901958e-01
5628=-1.193364e-01
5636=2.930950e-01
5637=-2.586972e-01
5645=2.930950e-01
5646=-2.586972e-01
5659=2.509761e-01
5663=-1.110613e-05
5672=-1.110613e-05
5681=-1.110613e-05
5690=-1.110613e-05
5699=-1.110613e-05
5708=-1.110613e-05
5717=-4.062214e-05
5718=1.660373e-04
5726=-4.823985e-05
5735=-4.823985e-05
5744=-4.823985e-05
5753=-4.823985e-05
5762=-4.823985e-05
5771=-5.342352e-05
5780=-5.342352e-05
5789=-5.231559e-04
5790=6.453262e-04
5798=-5.231559e-04
5799=6.453262e-04
5813=8.441023e-02
5822=3.395294e-02
5831=8.456753e-02
5834=9.418742e-03
5835=-6.929245e-03
5843=9.418742e-03
5844=-6.929245e-03
5858=1.006240e-01
5867=1.006240e-01
5876=1.006240e-01
5885=1.006240e-01
5894=3.710608e-02
5903=3.710608e-02
5912=3.710608e-02
5921=3.710608e-02
5924=2.519353e-02
5925=-2.277996e-02
5933=2.519353e-02
5934=-2.277996e-02
5942=1.447520e-02
5943=-1.457269e-02
5951=1.447520e-02
5952=-1.457269e-02
5960=1.447520e-02
5961=-1.457269e-02
5969=1.958147e-02
5970=-1.747673e-02
