#mdl#2#2815
#rdr#61/19/0
1:*,
18:u:Tok-1 X=%x[ 0,0],
18:u:tok-1 X=%x[ 0,1],
18:u:tok-1LL=%X[-2,0],
18:u:tok-1 L=%X[-1,0],
18:u:tok-1 R=%X[ 1,0],
18:u:tok-1RR=%X[ 2,0],
27:u:tok-2 L=%X[-1,0]/%X[ 0,0],
27:u:tok-2 R=%X[ 0,0]/%X[ 1,0],
18:*:Fst-1 X=%x[ 0,2],
18:u:Fst-1 R=%x[ 1,2],
27:u:Fst-2 X=%x[ 0,2]/%x[ 0,4],
27:u:Fst-2 R=%x[ 1,2]/%x[ 1,4],
18:*:Lst-1 L=%x[-1,3],
18:u:Lst-1 X=%x[ 0,3],
27:u:Lst-2 L=%x[-1,3]/%x[-1,6],
27:u:Lst-2 X=%x[ 0,3]/%x[ 0,6],
18:u:Pre-1 X=%x[ 0,4],
18:u:Pre-2 X=%x[ 0,5],
18:u:Pre-2 R=%x[ 1,5],
18:u:Suf-1 X=%x[ 0,6],
18:u:Suf-2 L=%x[-1,7],
18:u:Suf-2 X=%x[ 0,7],
18:u:Cap-1 L=%x[-1,8],
18:u:Cap-1 X=%x[ 0,8],
18:u:Cap-1 R=%x[ 1,8],
27:u:Cap-2 L=%x[-1,8]/%x[ 0,8],
27:u:Cap-2 R=%x[ 0,8]/%x[ 1,8],
28:u:Cap-3 L=%x[-1,18]/%x[ 0,8],
18:*:Num-1 L=%x[-1,9],
18:*:Num-1 X=%x[ 0,9],
18:u:Num-1 R=%x[ 1,9],
28:u:Num-2 R=%x[ 0,9]/%x[ 0,17],
28:u:Num-2 R=%x[ 0,9]/%x[ 0,18],
19:u:Nme-1 X=%x[ 0,10],
19:u:Loc-1 X=%x[ 0,11],
19:u:Pub-1 X=%x[ 0,12],
19:u:Jnl-1 X=%x[ 0,13],
19:u:Key-1 L=%x[-1,14],
19:u:Key-1 X=%x[ 0,14],
19:u:Key-1 R=%x[ 1,14],
28:u:Key-2 X=%x[ 0,14]/%x[ 0,8],
29:u:Key-3 L=%x[-1,18]/%x[ 0,14],
29:u:Key-3 x=%x[ 0,14]/%x[ 0,18],
19:u:Pos-1 X=%x[ 0,15],
29:u:Pos-2 L=%x[-1,15]/%x[ 0,15],
29:u:Pos-2 R=%x[ 0,15]/%x[ 1,15],
19:u:Pct-1 L=%x[-1,16],
19:u:Pct-1 X=%x[ 0,16],
19:u:Pct-1 R=%x[ 1,16],
19:u:Brk-1 L=%x[-1,17],
19:u:Brk-1 X=%x[ 0,17],
19:u:Brk-1 R=%x[ 1,17],
19:*:Tmn-1 L=%x[-1,18],
19:u:Tmn-1 X=%x[ 0,18],
19:u:Tmn-1 R=%x[ 1,18],
29:u:Tmn-2 L=%x[-1,14]/%x[ 0,18],
29:u:Tmn-2 R=%x[ 0,18]/%x[ 1,14],
28:u:Tmn-3 X=%x[ 0,18]/%x[ 0,6],
28:u:Tmn-4 R=%x[ 0,18]/%x[ 1,8],
19:u:Id--1 X=%x[ 0,19],
#qrk#11
7:Authors,
4:Year,
5:Title,
4:Book,
10:Pagination,
6:Series,
6:Volume,
5:Issue,
3:DOI,
9:Publisher,
4:City,
#qrk#1280
1:*,
14:u:tok-1LL=_x-2,
14:u:tok-1 L=_x-1,
12:*:Fst-1 X=Lu,
12:u:Fst-1 R=Lu,
14:u:Fst-2 X=Lu/P,
14:u:Fst-2 R=Lu/P,
14:*:Lst-1 L=_x-1,
11:u:Lst-1 X=P,
19:u:Lst-2 L=_x-1/_x-1,
13:u:Lst-2 X=P/,,
11:u:Pre-1 X=P,
11:u:Suf-1 X=,,
14:u:Suf-2 L=_x-1,
14:u:Cap-1 L=_x-1,
17:u:Cap-1 X=initial,
16:u:Cap-1 R=single,
22:u:Cap-2 L=_x-1/initial,
24:u:Cap-2 R=initial/single,
22:u:Cap-3 L=_x-1/initial,
14:*:Num-1 L=_x-1,
14:*:Num-1 X=none,
14:u:Num-1 R=none,
19:u:Num-2 R=none/none,
19:u:Num-2 R=none/weak,
11:u:Nme-1 X=T,
11:u:Loc-1 X=F,
11:u:Pub-1 X=F,
11:u:Jnl-1 X=F,
14:u:Key-1 L=_x-1,
14:u:Key-1 X=none,
14:u:Key-1 R=none,
22:u:Key-2 X=none/initial,
19:u:Key-3 L=_x-1/none,
19:u:Key-3 x=none/weak,
15:u:Pos-1 X=first,
20:u:Pos-2 L=_x-1/first,
17:u:Pos-2 R=first/0,
14:u:Pct-1 L=_x-1,
15:u:Pct-1 X=other,
16:u:Pct-1 R=period,
14:u:Brk-1 L=_x-1,
14:u:Brk-1 X=none,
14:u:Brk-1 R=none,
14:*:Tmn-1 L=_x-1,
14:u:Tmn-1 X=weak,
16:u:Tmn-1 R=strong,
19:u:Tmn-2 R=weak/none,
16:u:Tmn-3 X=weak/,,
11:u:Id--1 X=F,
14:u:tok-1LL=_x-1,
11:u:Fst-1 R=N,
13:u:Fst-2 R=N/1,
11:*:Lst-1 L=P,
13:u:Lst-2 L=P/,,
13:u:Lst-2 X=P/.,
12:u:Pre-2 R=19,
11:u:Suf-1 X=.,
17:u:Cap-1 L=initial,
16:u:Cap-1 X=single,
15:u:Cap-1 R=other,
24:u:Cap-2 L=initial/single,
14:*:Num-1 L=none,
14:u:Num-1 R=year,
21:u:Num-2 R=none/strong,
11:u:Nme-1 X=F,
14:u:Key-1 L=none,
21:u:Key-2 X=none/single,
19:u:Key-3 L=weak/none,
21:u:Key-3 x=none/strong,
11:u:Pos-1 X=0,
17:u:Pos-2 L=first/0,
13:u:Pos-2 R=0/1,
15:u:Pct-1 L=other,
16:u:Pct-1 X=period,
14:u:Pct-1 R=none,
14:u:Brk-1 L=none,
14:*:Tmn-1 L=weak,
16:u:Tmn-1 X=strong,
14:u:Tmn-1 R=none,
21:u:Tmn-2 L=none/strong,
21:u:Tmn-2 R=strong/none,
18:u:Tmn-3 X=strong/.,
11:*:Fst-1 X=N,
13:u:Fst-2 X=N/1,
14:u:Fst-2 R=Lu/I,
11:u:Lst-1 X=N,
13:u:Lst-2 L=P/.,
13:u:Lst-2 X=N/6,
11:u:Pre-1 X=1,
12:u:Pre-2 X=19,
12:u:Pre-2 R=In,
11:u:Suf-1 X=6,
15:u:Cap-1 X=other,
17:u:Cap-1 R=initial,
23:u:Cap-2 R=other/initial,
14:*:Num-1 X=year,
19:u:Num-2 R=year/none,
20:u:Key-2 X=none/other,
21:u:Key-3 L=strong/none,
19:u:Key-3 x=none/none,
11:u:Pos-1 X=1,
13:u:Pos-2 R=1/1,
16:u:Pct-1 L=period,
14:u:Pct-1 X=none,
16:*:Tmn-1 L=strong,
14:u:Tmn-1 X=none,
19:u:Tmn-2 L=none/none,
19:u:Tmn-2 R=none/none,
16:u:Tmn-3 X=none/6,
22:u:Tmn-4 R=none/initial,
12:u:Fst-1 R=Ll,
14:u:Fst-2 X=Lu/I,
14:u:Fst-2 R=Ll/p,
11:*:Lst-1 L=N,
12:u:Lst-1 X=Ll,
14:u:Lst-2 X=Ll/e,
11:u:Pre-1 X=I,
12:u:Pre-2 X=In,
11:u:Suf-1 X=e,
15:u:Cap-1 L=other,
15:u:Cap-1 R=lower,
23:u:Cap-2 L=other/initial,
23:u:Cap-2 R=initial/lower,
22:u:Cap-3 L=none/initial,
14:*:Num-1 L=year,
19:u:Key-3 L=none/none,
14:u:Pct-1 L=none,
14:*:Tmn-1 L=none,
18:u:Tmn-1 R=moderate,
16:u:Tmn-3 X=none/e,
20:u:Tmn-4 R=none/lower,
12:u:tok-1RR=en,
12:*:Fst-1 X=Ll,
14:u:Fst-2 X=Ll/p,
12:*:Lst-1 L=Ll,
14:u:Lst-2 L=Ll/e,
13:u:Lst-2 X=P/:,
11:u:Pre-1 X=p,
11:u:Suf-1 X=:,
12:u:Suf-2 L=ie,
15:u:Cap-1 X=lower,
23:u:Cap-2 L=initial/lower,
21:u:Cap-2 R=lower/lower,
20:u:Cap-3 L=none/lower,
23:u:Num-2 R=none/moderate,
11:u:Jnl-1 X=T,
20:u:Key-2 X=none/lower,
23:u:Key-3 x=none/moderate,
13:u:Pos-2 R=2/2,
15:u:Pct-1 X=colon,
18:u:Tmn-1 X=moderate,
23:u:Tmn-2 L=none/moderate,
23:u:Tmn-2 R=moderate/none,
20:u:Tmn-3 X=moderate/:,
11:u:Id--1 X=T,
12:u:tok-1 R=en,
14:u:Fst-2 R=Ll/e,
13:u:Lst-2 L=P/:,
14:u:Lst-2 X=Ll/a,
11:u:Suf-1 X=a,
12:u:Suf-2 X=na,
15:u:Cap-1 L=lower,
21:u:Cap-2 L=lower/lower,
23:u:Key-3 L=moderate/none,
15:u:Pct-1 L=colon,
18:*:Tmn-1 L=moderate,
16:u:Tmn-3 X=none/a,
14:u:Fst-2 X=Ll/e,
14:u:Lst-2 L=Ll/a,
14:u:Lst-2 X=Ll/n,
11:u:Pre-1 X=e,
11:u:Suf-1 X=n,
12:u:Suf-2 X=en,
16:u:Tmn-3 X=none/n,
12:u:Fst-1 R=Ps,
14:u:Lst-2 L=Ll/n,
12:u:Suf-2 L=en,
23:u:Cap-2 R=lower/initial,
11:u:Loc-1 X=T,
11:u:Pos-1 X=3,
13:u:Pos-2 R=3/3,
15:u:Pct-1 R=other,
12:*:Fst-1 X=Ps,
14:u:Fst-2 R=Ll/i,
12:u:Pre-2 R=in,
12:u:Suf-2 L=ra,
12:u:Suf-2 X=on,
23:u:Cap-2 L=lower/initial,
13:u:Pos-2 L=3/3,
13:u:Pos-2 R=3/4,
14:u:Fst-2 X=Ll/i,
14:u:Lst-2 X=Ll/y,
11:u:Pre-1 X=i,
12:u:Pre-2 X=in,
11:u:Suf-1 X=y,
12:u:Suf-2 L=on,
21:u:Cap-2 R=lower/other,
11:u:Pos-1 X=4,
13:u:Pos-2 L=3/4,
13:u:Pos-2 R=4/4,
16:u:Tmn-3 X=none/y,
20:u:Tmn-4 R=none/other,
15:u:tok-1 X=BLANK,
13:u:tok-1RR=and,
14:u:Lst-2 L=Ll/y,
21:u:Cap-2 L=lower/other,
21:u:Cap-2 R=other/lower,
20:u:Cap-3 L=none/other,
13:u:Pos-2 L=4/4,
14:u:Fst-2 R=Ll/a,
21:u:Cap-2 L=other/lower,
13:u:Key-1 R=and,
13:u:Pos-2 R=4/5,
18:u:Tmn-2 R=none/and,
14:u:Fst-2 X=Ll/a,
14:u:Lst-2 X=Ll/d,
11:u:Pre-1 X=a,
11:u:Suf-1 X=d,
12:u:Suf-2 X=nd,
11:u:Pub-1 X=T,
13:u:Key-1 X=and,
18:u:Key-3 L=none/and,
18:u:Key-3 x=and/none,
11:u:Pos-1 X=5,
13:u:Pos-2 L=4/5,
13:u:Pos-2 R=5/5,
16:u:Tmn-3 X=none/d,
13:u:tok-1 L=and,
12:u:Lst-1 X=Pe,
14:u:Lst-2 L=Ll/d,
14:u:Lst-2 X=Pe/],
11:u:Suf-1 X=],
12:u:Suf-2 L=nd,
37:u:Num-2 R=none/closing-square-bracket,
13:u:Key-1 L=and,
13:u:Pos-2 L=5/5,
13:u:Pos-2 R=5/6,
32:u:Brk-1 X=closing-square-bracket,
18:u:Tmn-3 X=strong/],
24:u:Tmn-4 R=strong/initial,
13:u:tok-1LL=and,
14:u:Fst-2 R=Lu/S,
12:*:Lst-1 L=Pe,
14:u:Lst-2 X=Ll/t,
12:u:Pre-2 X=Pr,
12:u:Pre-2 R=Se,
11:u:Suf-1 X=t,
25:u:Cap-2 R=initial/initial,
24:u:Cap-3 L=strong/initial,
11:u:Pos-1 X=6,
13:u:Pos-2 L=5/6,
13:u:Pos-2 R=6/6,
16:u:Tmn-3 X=none/t,
13:u:Tok-1 X=Sea,
13:u:tok-1 X=sea,
14:u:Fst-2 X=Lu/S,
14:u:Lst-2 L=Ll/t,
11:u:Pre-1 X=S,
12:u:Pre-2 X=Se,
12:u:Suf-2 X=ea,
25:u:Cap-2 L=initial/initial,
13:u:Pos-2 L=6/6,
14:u:Lst-2 X=Ll/l,
11:u:Suf-1 X=l,
12:u:Suf-2 X=al,
13:u:Pos-2 R=6/7,
16:u:Tmn-3 X=none/l,
14:u:Lst-2 L=Ll/l,
12:u:Suf-2 L=al,
17:u:Num-1 R=numeric,
11:u:Pos-1 X=7,
13:u:Pos-2 L=6/7,
13:u:Pos-2 R=7/7,
12:u:tok-1RR=of,
17:*:Num-1 X=numeric,
22:u:Num-2 R=numeric/none,
13:u:Pos-2 L=7/7,
13:u:Pos-2 R=7/8,
12:u:tok-1 R=of,
14:u:Fst-2 R=Ll/o,
12:u:Pre-2 R=of,
12:u:Suf-2 L=7.,
17:*:Num-1 L=numeric,
11:u:Pos-1 X=8,
13:u:Pos-2 L=7/8,
13:u:Pos-2 R=8/8,
12:u:Tok-1 X=of,
12:u:tok-1 X=of,
14:u:Fst-2 X=Ll/o,
14:u:Lst-2 X=Ll/f,
11:u:Pre-1 X=o,
12:u:Pre-2 X=of,
11:u:Suf-1 X=f,
12:u:Suf-2 X=of,
13:u:Pos-2 L=8/8,
16:u:Tmn-3 X=none/f,
12:u:tok-1 L=of,
14:u:Lst-2 L=Ll/f,
12:u:Suf-2 L=of,
13:u:Pos-2 R=8/9,
12:u:tok-1LL=of,
11:u:Pos-1 X=9,
13:u:Pos-2 L=8/9,
13:u:Pos-2 R=9/9,
14:u:tok-1RR=_x+1,
15:u:Num-1 R=range,
13:u:Pos-2 L=9/9,
16:u:Pos-2 R=9/last,
16:u:Pct-1 R=hyphen,
14:u:tok-1 R=_x+1,
14:u:tok-1RR=_x+2,
14:u:Fst-1 R=_x+1,
19:u:Fst-2 R=_x+1/_x+1,
14:u:Pre-2 R=_x+1,
14:u:Cap-1 R=_x+1,
20:u:Cap-2 R=other/_x+1,
15:*:Num-1 X=range,
14:u:Num-1 R=_x+1,
20:u:Num-2 R=range/none,
14:u:Key-1 R=_x+1,
14:u:Pos-1 X=last,
16:u:Pos-2 L=9/last,
19:u:Pos-2 R=last/_x+1,
16:u:Pct-1 X=hyphen,
14:u:Pct-1 R=_x+1,
14:u:Brk-1 R=_x+1,
14:u:Tmn-1 R=_x+1,
19:u:Tmn-2 R=none/_x+1,
19:u:Tmn-4 R=none/_x+1,
14:u:Fst-2 X=Lu/D,
14:u:Fst-2 R=Lu/W,
11:u:Pre-1 X=D,
12:u:Pre-2 X=De,
14:u:Tmn-1 R=weak,
14:u:Fst-2 X=Lu/W,
14:u:Fst-2 R=Lu/C,
11:u:Pre-1 X=W,
12:u:Pre-2 R=Co,
19:u:Tmn-2 L=none/weak,
22:u:Tmn-4 R=weak/initial,
14:u:Fst-2 X=Lu/C,
14:u:Fst-2 R=Lu/A,
11:u:Pre-1 X=C,
22:u:Cap-3 L=weak/initial,
11:u:tok-1 X=a,
14:u:Fst-2 X=Lu/A,
11:u:Pre-1 X=A,
14:u:Fst-2 R=Lu/R,
14:u:Lst-2 X=Ll/c,
11:u:Suf-1 X=c,
12:u:Suf-2 X=ic,
16:u:Tmn-3 X=none/c,
13:u:tok-1RR=the,
14:u:Fst-2 X=Lu/R,
14:u:Lst-2 L=Ll/c,
11:u:Pre-1 X=R,
12:u:Suf-2 L=ic,
12:u:Suf-2 X=rt,
13:u:tok-1 R=the,
14:u:Fst-2 R=Ll/t,
12:u:Pre-2 R=th,
12:u:Suf-2 L=rt,
13:u:Tok-1 X=the,
13:u:tok-1 X=the,
14:u:Fst-2 X=Ll/t,
14:u:Fst-2 R=Lu/B,
11:u:Pre-1 X=t,
12:u:Pre-2 X=th,
12:u:Pre-2 R=Be,
12:u:Suf-2 X=he,
12:u:tok-1LL=on,
13:u:tok-1 L=the,
14:u:Fst-2 X=Lu/B,
11:u:Pre-1 X=B,
12:u:Pre-2 X=Be,
12:u:Suf-2 L=he,
12:u:Suf-2 X=an,
13:u:tok-1LL=the,
14:u:Fst-2 X=Lu/E,
11:u:Pre-1 X=E,
12:u:Suf-2 L=an,
14:u:Lst-2 X=Ll/o,
11:u:Suf-1 X=o,
16:u:Tmn-3 X=none/o,
14:u:Fst-2 R=Lu/G,
14:u:Lst-2 L=Ll/o,
14:u:Fst-2 X=Lu/G,
11:u:Pre-1 X=G,
12:u:tok-1RR=in,
14:u:Lst-2 X=Ll/r,
11:u:Suf-1 X=r,
12:u:Suf-2 X=er,
16:u:Tmn-3 X=none/r,
12:u:tok-1 R=in,
14:u:Lst-2 L=Ll/r,
12:u:Suf-2 L=er,
12:u:Key-1 R=in,
17:u:Tmn-2 R=none/in,
12:u:Tok-1 X=in,
12:u:tok-1 X=in,
12:u:Suf-2 X=in,
12:u:Key-1 X=in,
18:u:Key-2 X=in/lower,
17:u:Key-3 L=none/in,
17:u:Key-3 x=in/none,
12:u:tok-1 L=in,
12:u:Suf-2 L=in,
12:u:Key-1 L=in,
19:u:Tok-1 X=Nematodes,
19:u:tok-1 X=nematodes,
12:u:tok-1LL=in,
15:u:tok-1 L=1967.,
25:u:tok-2 L=1967./nematodes,
14:u:Lst-2 X=Ll/s,
12:u:Pre-2 X=Ne,
11:u:Suf-1 X=s,
12:u:Suf-2 X=es,
14:u:Cap-1 R=caps,
22:u:Cap-2 R=initial/caps,
15:u:Num-1 R=roman,
15:u:Key-1 R=roman,
20:u:Tmn-2 R=none/roman,
16:u:Tmn-3 X=none/s,
15:u:tok-1LL=1967.,
19:u:tok-1 L=nematodes,
14:u:Lst-2 L=Ll/s,
12:u:Suf-2 L=es,
14:u:Cap-1 X=caps,
22:u:Cap-2 L=initial/caps,
19:u:Cap-3 L=none/caps,
15:*:Num-1 X=roman,
20:u:Num-2 R=roman/none,
15:u:Key-1 X=roman,
20:u:Key-2 X=roman/caps,
20:u:Key-3 L=none/roman,
19:u:tok-1LL=nematodes,
14:u:Fst-2 R=Lu/D,
12:u:Pre-2 R=De,
14:u:Cap-1 L=caps,
15:*:Num-1 L=roman,
12:*:Lst-1 L=Lu,
12:u:Suf-2 X=ur,
13:u:Tok-1 X=New,
13:u:tok-1 X=new,
14:u:Lst-2 X=Ll/w,
11:u:Suf-1 X=w,
12:u:Suf-2 L=ur,
12:u:Suf-2 X=ew,
16:u:Tmn-3 X=none/w,
18:u:Tmn-2 L=and/none,
14:u:Fst-2 R=Lu/K,
14:u:Fst-2 X=Lu/K,
11:u:Pre-1 X=K,
14:u:Lst-2 X=Ll/m,
11:u:Suf-1 X=m,
16:u:Tmn-3 X=none/m,
14:u:tok-1 L=from,
14:u:Lst-2 L=Ll/m,
12:u:Suf-2 L=om,
14:u:tok-1LL=from,
17:u:Tmn-2 L=in/none,
14:u:Fst-2 R=Lu/M,
12:u:Pre-2 R=Ma,
14:u:Fst-2 X=Lu/M,
11:u:Pre-1 X=M,
12:u:Pre-2 X=Ma,
14:u:Fst-2 R=Lu/L,
16:u:tok-1RR=marine,
14:u:Fst-2 X=Lu/L,
11:u:Pre-1 X=L,
12:u:Pre-2 R=Is,
16:u:Tok-1 X=Island,
16:u:tok-1 X=island,
12:u:Pre-2 X=Is,
12:u:Suf-2 L=rd,
16:u:Tok-1 X=Marine,
16:u:tok-1 X=marine,
16:u:tok-1LL=lizard,
16:u:tok-1 L=island,
12:u:Suf-2 X=ne,
12:u:Pre-2 R=Fr,
16:u:tok-1LL=marine,
18:u:tok-1 R=research,
12:u:Suf-2 X=ch,
23:u:Cap-2 R=initial/other,
16:u:Num-1 R=double,
13:u:Fst-2 R=N/4,
14:u:Lst-2 L=Ll/h,
23:u:Cap-2 L=initial/other,
21:u:Cap-2 R=other/other,
16:*:Num-1 X=double,
16:u:Num-1 R=single,
21:u:Num-2 R=double/none,
21:u:Cap-2 L=other/other,
16:*:Num-1 L=double,
16:*:Num-1 X=single,
21:u:Num-2 R=single/none,
12:u:Pre-2 R=10,
16:*:Num-1 L=single,
12:u:Pre-2 X=10,
15:*:Num-1 L=range,
16:u:Pct-1 L=hyphen,
14:u:Fst-2 R=Lu/T,
12:u:Pre-2 X=Bo,
12:u:Suf-2 X=n,,
14:u:Fst-2 X=Lu/T,
11:u:Pre-1 X=T,
12:u:Suf-2 L=n,,
17:u:Key-1 R=journal,
22:u:Tmn-2 R=none/journal,
17:u:Key-1 X=journal,
25:u:Key-2 X=journal/initial,
22:u:Key-3 x=journal/none,
16:u:tok-2 R=of/the,
17:u:Key-1 L=journal,
22:u:Tmn-2 L=journal/none,
16:u:tok-2 L=of/the,
14:u:Fst-2 R=Ll/g,
14:u:Fst-2 R=Ps/(,
14:u:Fst-2 X=Ps/(,
11:u:Pre-1 X=(,
12:u:Suf-2 L=no,
23:u:Brk-1 R=closing-paren,
14:u:Lst-2 X=Pe/),
11:u:Suf-1 X=),
26:u:Cap-3 L=moderate/initial,
28:u:Num-2 R=none/closing-paren,
23:u:Brk-1 L=opening-paren,
23:u:Brk-1 X=closing-paren,
18:u:Tmn-3 X=strong/),
14:u:Lst-2 L=Pe/),
12:u:Suf-2 L=e),
23:u:Brk-1 L=closing-paren,
14:u:Fst-2 R=Lu/Z,
12:u:Pre-2 R=Zo,
12:u:Suf-2 L=ns,
14:u:Fst-2 X=Lu/Z,
11:u:Pre-1 X=Z,
12:u:Pre-2 X=Zo,
16:u:Num-1 R=triple,
16:*:Num-1 X=triple,
21:u:Num-2 R=triple/none,
13:u:Lst-2 X=N/3,
11:u:Suf-1 X=3,
16:*:Num-1 L=triple,
16:u:Tmn-3 X=none/3,
19:u:Tmn-4 R=weak/caps,
19:u:Cap-3 L=weak/caps,
19:u:Key-2 X=none/caps,
14:u:Fst-2 R=Ll/n,
14:u:Fst-2 X=Ll/n,
14:u:Fst-2 R=Ll/s,
11:u:Pre-1 X=n,
14:u:Fst-2 X=Ll/s,
11:u:Pre-1 X=s,
14:u:Fst-2 R=Ll/d,
12:u:Pre-2 R=de,
14:u:Fst-2 X=Ll/d,
11:u:Pre-1 X=d,
12:u:Pre-2 X=de,
12:u:Pre-2 R=Ca,
21:u:Tok-1 X=Proceedings,
21:u:tok-1 X=proceedings,
12:u:Pre-2 R=Bi,
12:u:Suf-2 X=gs,
21:u:Key-1 X=proceedings,
29:u:Key-2 X=proceedings/initial,
26:u:Key-3 L=none/proceedings,
26:u:Key-3 x=proceedings/none,
21:u:tok-1 L=proceedings,
12:u:Pre-2 X=Bi,
12:u:Pre-2 R=So,
12:u:Suf-2 L=gs,
21:u:Key-1 L=proceedings,
26:u:Tmn-2 L=proceedings/none,
21:u:tok-1LL=proceedings,
12:u:Pre-2 X=So,
11:u:tok-1 R=3,
11:u:Pre-2 R=3,
14:u:Fst-2 X=Lu/H,
11:u:Pre-1 X=H,
14:u:Fst-2 X=Ll/c,
11:u:Pre-1 X=c,
12:u:Suf-2 X=ts,
12:u:Suf-2 L=ts,
14:u:Fst-2 R=Lu/J,
12:u:Suf-2 L=rn,
24:u:tok-2 R=proceedings/of,
24:u:tok-2 L=proceedings/of,
12:u:tok-1RR=13,
12:u:Pre-2 R=Th,
12:u:Suf-2 X=et,
12:u:Suf-2 L=et,
12:u:Pre-2 R=po,
12:u:Pre-2 X=po,
14:u:Lst-2 X=Ll/g,
11:u:Suf-1 X=g,
12:u:Suf-2 X=ng,
16:u:Tmn-3 X=none/g,
14:u:Fst-2 R=Lu/O,
14:u:Lst-2 L=Ll/g,
12:u:Suf-2 L=ng,
22:u:Tok-1 X=Oceanography,
22:u:tok-1 X=oceanography,
17:u:tok-1LL=feeding,
16:u:tok-1 L=guilds,
29:u:tok-2 L=guilds/oceanography,
26:u:tok-2 R=oceanography/and,
14:u:Fst-2 X=Lu/O,
11:u:Pre-1 X=O,
12:u:Suf-2 L=ds,
12:u:Suf-2 X=hy,
16:u:tok-1LL=guilds,
22:u:tok-1 L=oceanography,
18:u:tok-1RR=biology,,
26:u:tok-2 L=oceanography/and,
20:u:tok-2 R=and/marine,
12:u:Suf-2 L=hy,
12:u:Pre-2 R=An,
12:u:Pre-2 X=An,
12:u:Pre-2 R=Le,
12:u:Pre-2 X=Le,
17:u:tok-1 R=journal,
12:u:Pre-2 R=Jo,
12:u:Pre-2 X=d',
20:u:Cap-2 L=_x-1/other,
20:u:Cap-3 L=_x-1/other,
18:u:tok-1 R=bulletin,
12:u:tok-1RR=de,
12:u:Pre-2 X=Ch,
12:u:Pre-2 R=Bu,
24:u:Tmn-2 R=strong/journal,
18:u:Tok-1 X=Bulletin,
18:u:tok-1 X=bulletin,
12:u:tok-1 R=de,
12:u:tok-1RR=la,
12:u:Pre-2 X=Bu,
12:u:Suf-2 L=e.,
12:u:Tok-1 X=de,
12:u:tok-1 X=de,
18:u:tok-1 L=bulletin,
12:u:tok-1 R=la,
15:u:tok-2 R=de/la,
12:u:Suf-2 X=de,
12:u:tok-1 X=la,
18:u:tok-1LL=bulletin,
12:u:tok-1 L=de,
19:u:tok-1 R=société,
15:u:tok-2 L=de/la,
22:u:tok-2 R=la/société,
12:u:Suf-2 L=de,
12:u:tok-1LL=de,
12:u:tok-1 L=la,
14:u:Fst-2 R=Ll/z,
12:u:Pre-2 R=zo,
12:u:tok-1LL=la,
14:u:Fst-2 X=Ll/z,
11:u:Pre-1 X=z,
12:u:Pre-2 X=zo,
12:u:Suf-2 X=ue,
12:u:Suf-2 L=ue,
12:u:Suf-2 L=ce,
11:u:Tok-1 X=2,
11:u:tok-1 X=2,
13:u:Lst-2 X=N/2,
11:u:Pre-2 X=2,
11:u:Suf-1 X=2,
11:u:Suf-2 X=2,
16:u:Tmn-3 X=none/2,
14:u:Lst-2 X=Ll/u,
11:u:Suf-1 X=u,
16:u:Tmn-3 X=none/u,
14:u:Fst-2 R=Ll/l,
12:u:Pre-2 R=la,
12:u:Tok-1 X=la,
14:u:Fst-2 X=Ll/l,
11:u:Pre-1 X=l,
12:u:Pre-2 X=la,
12:u:Suf-2 X=la,
12:u:Suf-2 L=la,
12:u:Suf-2 X=me,
12:u:Pre-2 R=C.,
12:u:Pre-2 R=Am,
16:u:tok-1 X=africa,
12:u:Pre-2 X=Af,
12:u:Suf-2 X=st,
12:u:Suf-2 L=st,
16:u:tok-1 R=annals,
12:u:Suf-2 X=as,
16:u:Tok-1 X=Annals,
16:u:tok-1 X=annals,
19:u:tok-2 R=annals/of,
12:u:Suf-2 L=as,
12:u:Suf-2 X=ls,
16:u:tok-1 L=annals,
19:u:tok-2 L=annals/of,
12:u:Suf-2 L=ls,
16:u:tok-1LL=annals,
17:u:tok-1RR=african,
19:u:tok-2 R=the/south,
16:u:tok-1RR=museum,
15:u:tok-1 L=south,
16:u:tok-1 R=museum,
12:u:Pre-2 R=Mu,
12:u:Suf-2 L=th,
11:u:tok-1RR=5,
12:u:Suf-2 L=um,
16:u:Brk-1 L=parens,
11:*:Fst-1 X=S,
13:u:Fst-2 X=S/<,
11:u:Pre-1 X=<,
12:u:Pre-2 X=<i,
15:u:Brk-1 L=angle,
12:u:Pre-2 R=Au,
12:u:Suf-2 X=n.,
16:u:Key-1 X=volume,
21:u:Key-3 L=none/volume,
23:u:Key-3 x=volume/strong,
13:u:tok-1LL=red,
12:u:Pre-2 R=Pa,
12:u:Pre-2 X=Pa,
12:u:Suf-2 X=g.,
14:u:tok-1 X=biol,
12:u:Suf-2 X=l.,
12:u:Pre-2 X=He,
12:u:tok-1RR=j.,
15:u:tok-1 L=north,
15:u:tok-1LL=north,
14:u:Fst-2 R=Lu/U,
14:u:Fst-2 X=Lu/U,
11:u:Pre-1 X=U,
12:u:Suf-2 L=s.,
12:u:Pre-2 X=Na,
17:u:tok-1RR=british,
12:u:Pre-2 R=Br,
17:u:Tok-1 X=British,
17:u:tok-1 X=british,
12:u:Pre-2 X=Br,
12:u:Suf-2 X=sh,
17:u:tok-1LL=british,
13:u:tok-1 L=for,
13:u:tok-1LL=for,
17:u:Num-1 R=ordinal,
17:*:Num-1 X=ordinal,
22:u:Num-2 R=ordinal/none,
12:u:Pre-2 R=se,
16:u:Key-1 R=series,
21:u:Tmn-2 R=none/series,
16:u:tok-1 X=series,
12:u:Pre-2 X=se,
16:u:Key-1 X=series,
22:u:Key-2 X=series/lower,
21:u:Key-3 L=none/series,
16:u:Key-1 L=series,
21:u:Tmn-2 L=series/none,
12:u:Tok-1 X=UK,
12:u:tok-1 X=uk,
15:u:tok-1LL=press,
17:u:tok-1 L=london,,
12:u:tok-1RR=89,
20:u:tok-2 L=london,/uk,
14:u:tok-2 R=uk/3,
14:u:Lst-2 X=Lu/K,
12:u:Pre-2 X=UK,
11:u:Suf-1 X=K,
12:u:Suf-2 X=UK,
16:u:Tmn-3 X=none/K,
14:u:Fst-2 R=Lu/Y,
12:u:Pre-2 X=Su,
12:u:Pre-2 R=mi,
14:u:tok-1LL=suez,
15:u:tok-1 L=canal,
24:u:tok-2 R=israel/journal,
13:u:Lst-2 X=S/>,
11:u:Suf-1 X=>,
12:u:Suf-2 X=i>,
20:u:Cap-2 R=lower/caps,
16:u:Tmn-3 X=none/>,
11:*:Lst-1 L=S,
13:u:Lst-2 L=S/>,
12:u:Suf-2 L=i>,
12:u:Suf-2 X=nt,
16:u:Tok-1 X=Africa,
12:u:Suf-2 X=ca,
12:u:Suf-2 L=ca,
22:u:Cap-2 R=caps/initial,
12:u:Pre-2 X=Ec,
22:u:Cap-2 L=caps/initial,
15:u:tok-1 R=aust.,
12:u:Suf-2 X=t.,
12:u:Suf-2 X=ae,
12:u:Suf-2 L=ae,
14:u:Fst-2 X=Lu/V,
11:u:Pre-1 X=V,
13:u:tok-1RR=van,
13:u:tok-1 R=van,
14:u:Fst-2 R=Ll/v,
12:u:Pre-2 X=St,
12:u:Pre-2 R=va,
13:u:Tok-1 X=van,
13:u:tok-1 X=van,
14:u:Fst-2 X=Ll/v,
11:u:Pre-1 X=v,
12:u:Pre-2 X=va,
13:u:tok-1 X=het,
13:u:tok-1LL=van,
12:u:Pre-2 X=We,
19:u:tok-1 R=belgische,
19:u:Tok-1 X=Belgische,
19:u:tok-1 X=belgische,
19:u:tok-1 L=belgische,
13:u:Tok-1 X=MSc,
13:u:tok-1 X=msc,
19:u:tok-1LL=belgische,
14:u:tok-1 L=kust,
17:u:tok-1 R=thesis.,
27:u:tok-1RR=rijksuniversiteit,
18:u:tok-2 L=kust/msc,
21:u:tok-2 R=msc/thesis.,
12:u:Pre-2 X=MS,
12:u:Suf-2 X=Sc,
16:u:Key-1 R=thesis,
21:u:Tmn-2 R=none/thesis,
12:u:Pre-2 R=Ge,
12:u:Suf-2 X=it,
14:u:tok-1 X=gent,
12:u:Pre-2 X=Ge,
12:u:Suf-2 L=it,
13:u:tok-1 L=der,
12:u:Pre-2 R=Ti,
12:u:Pre-2 R=l',
12:u:Pre-2 X=l',
12:u:Suf-2 X=re,
15:u:tok-1 X=plate,
12:u:Suf-2 L=re,
15:u:tok-1RR=inst.,
15:u:tok-1 R=inst.,
12:u:Pre-2 R=(C,
16:u:tok-1 L=genera,
12:u:Pre-2 X=(C,
12:u:Suf-2 L=a,,
19:u:Tmn-2 L=_x-1/none,
12:u:Suf-2 L=ta,
20:u:Tmn-4 R=weak/other,
20:u:Cap-3 L=weak/other,
12:u:Suf-2 L=le,
12:u:Pre-2 R=vo,
12:u:Pre-2 X=vo,
12:u:Pre-2 R=At,
12:u:Pre-2 X=At,
12:u:Pre-2 R=Ka,
12:u:Pre-2 X=Ka,
20:u:tok-1 R=mikrofauna,
13:u:tok-1RR=des,
12:u:Pre-2 R=Mi,
13:u:tok-1 R=des,
12:u:Pre-2 X=Mi,
13:u:Tok-1 X=des,
13:u:tok-1 X=des,
13:u:tok-1 L=des,
12:u:Pre-2 X=Me,
13:u:tok-1LL=des,
18:u:Tok-1 X=Ecologie,
18:u:tok-1 X=ecologie,
25:u:tok-1 L=méditerranée.,
12:u:tok-1 R=et,
23:u:tok-1RR=systématique,
34:u:tok-2 L=méditerranée./ecologie,
21:u:tok-2 R=ecologie/et,
12:u:Pre-2 R=et,
12:u:Tok-1 X=et,
12:u:tok-1 X=et,
25:u:tok-1LL=méditerranée.,
18:u:tok-1 L=ecologie,
23:u:tok-1 R=systématique,
21:u:tok-2 L=ecologie/et,
26:u:tok-2 R=et/systématique,
12:u:Pre-2 X=et,
12:u:Pre-2 R=sy,
23:u:Tok-1 X=systématique,
22:u:tok-1 X=systematique,
18:u:tok-1LL=ecologie,
12:u:tok-1 L=et,
26:u:tok-2 L=et/systématique,
33:u:tok-2 R=systématique/mémoires,
12:u:Pre-2 X=sy,
19:u:Tok-1 X=Mémoires,
18:u:tok-1 X=memoires,
12:u:tok-1LL=et,
19:u:tok-1 L=mémoires,
19:u:tok-1LL=mémoires,
17:u:tok-1RR=station,
21:u:Tok-1 X=Informatore,
21:u:tok-1 X=informatore,
23:u:tok-1LL=phaeophyceae,,
23:u:tok-1 L=chlorophyceae,
18:u:tok-1 R=botanico,
18:u:tok-1RR=italiano,
35:u:tok-2 L=chlorophyceae/informatore,
30:u:tok-2 R=informatore/botanico,
18:u:tok-1 L=italiano,
12:u:Pre-2 R=22,
24:u:tok-1 X=desmoscolecida,
12:u:Pre-2 R=Ar,
23:u:Tok-1 X=Mediterranean,
23:u:tok-1 X=mediterranean,
27:u:tok-2 L=the/mediterranean,
16:u:tok-1 X=belgie,
12:u:Suf-2 X=ir,
12:u:Suf-2 L=ir,
14:u:Fst-2 R=Lu/V,
18:u:tok-1LL=atlantic,
12:u:Pre-2 X=Un,
14:u:tok-1RR=pour,
14:u:tok-1 R=pour,
14:u:Tok-1 X=pour,
14:u:tok-1 X=pour,
14:u:tok-1 L=pour,
14:u:tok-1LL=pour,
16:u:Pos-2 R=8/last,
16:u:tok-1 X=fishes,
12:u:Pre-2 R=Fi,
12:u:tok-1RR=du,
12:u:tok-1 R=du,
12:u:Pre-2 R=du,
12:u:Tok-1 X=du,
12:u:tok-1 X=du,
12:u:Pre-2 X=du,
12:u:Suf-2 X=du,
12:u:tok-1 L=du,
12:u:Pre-2 R=d',
12:u:Suf-2 L=du,
12:u:tok-1RR=22,
12:u:tok-1 R=22,
20:u:tok-1 R=conchiglie,
34:u:tok-2 R=mediterranean/conchiglie,
12:u:Pre-2 R=(Z,
12:u:Pre-2 X=(Z,
19:u:tok-1 L=immigrant,
12:u:Pre-2 R=28,
12:u:Pre-2 R=Yo,
14:u:tok-1 R=für,
13:u:Pre-2 R=fü,
14:u:Tok-1 X=für,
13:u:tok-1 X=fur,
13:u:Pre-2 X=fü,
13:u:Suf-2 X=ür,
18:u:tok-1RR=belgique,
21:u:tok-2 R=de/belgique,
18:u:Tok-1 X=Belgique,
18:u:tok-1 X=belgique,
21:u:tok-2 L=de/belgique,
18:u:tok-1 L=belgique,
24:u:Tok-1 X=Desmoscolecida,
31:u:tok-2 L=marine/desmoscolecida,
30:u:tok-2 R=desmoscolecida/aust.,
12:u:Pre-2 X=Hy,
12:u:tok-1RR=42,
12:u:Pre-2 R=Oo,
12:u:Pre-2 X=Oo,
12:u:Pre-2 X=Ve,
16:u:Tok-1 X=Suppl.,
15:u:tok-1 X=suppl,
19:u:tok-1LL=zoologico,
25:u:tok-2 L=italiano/suppl.,
18:u:tok-2 R=suppl./4,
24:u:Key-2 X=volume/initial,
12:u:Suf-2 L=S.,
17:u:tok-1 L=pacific,
12:u:Suf-2 X=f.,
12:u:Suf-2 L=ee,
23:u:Tok-1 X=Poljoprivreda,
23:u:tok-1 X=poljoprivreda,
20:u:tok-1RR=sumarstvo,,
30:u:tok-2 L=genera/poljoprivreda,
25:u:tok-2 R=poljoprivreda/i,
12:u:Pre-2 R=Vi,
12:u:Pre-2 R=Pl,
12:u:Pre-2 X=Pl,
16:u:tok-1 X=veroff,
23:u:tok-1RR=meeresforsch.,
14:u:Lst-2 X=Ll/k,
11:u:Suf-1 X=k,
16:u:Tmn-3 X=none/k,
19:u:tok-1RR=zoologica,
15:u:tok-1 X=areas,
19:u:tok-1 R=zoologica,
17:u:tok-1RR=scripta,
16:u:Tok-1 X=Fishes,
26:u:tok-2 L=immigrant/fishes,
26:u:tok-2 R=fishes/zoologica,
12:u:Tok-1 X=De,
12:u:Suf-2 X=De,
12:u:Suf-2 L=De,
15:u:Lst-2 X=Ll/ë,
12:u:Suf-1 X=ë,
13:u:Suf-2 X=ië,
17:u:Tmn-3 X=none/ë,
15:u:Lst-2 L=Ll/ë,
13:u:Suf-2 L=ië,
12:u:Pre-2 X=Te,
19:u:Tok-1 X=Technical,
19:u:tok-1 X=technical,
25:u:tok-1 L=<i>mechelen</i>,
17:u:tok-1 R=reports,
18:u:tok-1RR=i.c.w.b.,
35:u:tok-2 L=<i>mechelen</i>/technical,
27:u:tok-2 R=technical/reports,
18:u:tok-1RR=c.i.p.s.,
18:u:tok-1 R=c.i.p.s.,
18:u:tok-1 L=c.i.p.s.,
19:u:Cap-2 L=caps/caps,
18:u:tok-1LL=c.i.p.s.,
19:u:tok-1RR=bruxelles,
19:u:tok-1 R=bruxelles,
19:u:Tok-1 X=Bruxelles,
19:u:tok-1 X=bruxelles,
19:u:tok-1 L=bruxelles,
12:u:Pre-2 X=To,
13:u:Tok-1 X=Het,
22:u:tok-1 R=visserijblad,
26:u:tok-2 R=het/visserijblad,
12:u:tok-1RR=à,
12:u:tok-1 R=à,
15:u:Fst-2 R=Ll/à,
12:u:Pre-2 R=à,
12:u:Tok-1 X=à,
15:u:Fst-2 X=Ll/à,
15:u:Lst-2 X=Ll/à,
12:u:Pre-1 X=à,
12:u:Pre-2 X=à,
12:u:Suf-1 X=à,
12:u:Suf-2 X=à,
17:u:Tmn-3 X=none/à,
12:u:tok-1 L=à,
15:u:Lst-2 L=Ll/à,
12:u:Suf-2 L=à,
12:u:tok-1LL=à,
13:u:Pre-2 R=gé,
20:u:tok-1 X=geologique,
24:u:tok-2 R=géologique/de,
13:u:Pre-2 X=gé,
21:u:tok-1 L=géologique,
24:u:tok-2 L=géologique/de,
21:u:tok-1LL=géologique,
18:u:tok-1 R=neptunus,
18:u:Tok-1 X=Neptunus,
18:u:tok-1 X=neptunus,
18:u:tok-1RR=neptunus,
18:u:tok-1 L=neptunus,
18:u:tok-1LL=neptunus,
17:u:tok-1 L=22(153),
21:u:tok-1 R=(zeebrugge),
26:u:tok-2 L=22(153)/neptunus,
30:u:tok-2 R=neptunus/(zeebrugge),
12:u:Suf-2 L=3),
16:*:Num-1 L=volume,
21:u:Tok-1 X=(Zeebrugge),
19:u:tok-1 X=zeebrugge,
17:u:tok-1LL=22(153),
15:u:tok-1RR=(vzw),
30:u:tok-2 L=neptunus/(zeebrugge),
30:u:tok-2 R=(zeebrugge)/neptunus,
21:u:tok-1 L=(zeebrugge),
15:u:tok-1 R=(vzw),
18:u:tok-1RR=oostende,
30:u:tok-2 L=(zeebrugge)/neptunus,
24:u:tok-2 R=neptunus/(vzw),
12:u:Pre-2 R=(v,
15:u:Tok-1 X=(vzw),
13:u:tok-1 X=vzw,
21:u:tok-1LL=(zeebrugge),
18:u:tok-1 R=oostende,
24:u:tok-2 L=neptunus/(vzw),
24:u:tok-2 R=(vzw)/oostende,
12:u:Pre-2 X=(v,
12:u:Suf-2 X=w),
18:u:Tok-1 X=Oostende,
18:u:tok-1 X=oostende,
15:u:tok-1 L=(vzw),
13:u:tok-1RR=153,
24:u:tok-2 L=(vzw)/oostende,
21:u:tok-2 R=oostende/22,
12:u:Suf-2 L=w),
14:u:tok-1RR=voor,
14:u:tok-1 R=voor,
14:u:Tok-1 X=voor,
14:u:tok-1 X=voor,
14:u:tok-1 L=voor,
14:u:tok-1LL=voor,
16:u:tok-1 R=plate:,
21:u:tok-1RR=tijdschrift,
19:u:tok-2 R=de/plate:,
16:u:Tok-1 X=Fiches,
16:u:tok-1 X=fiches,
26:u:tok-1 R=d'identification,
25:u:tok-2 L=atlantic/fiches,
33:u:tok-2 R=fiches/d'identification,
26:u:Tok-1 X=d'identification,
25:u:tok-1 X=didentification,
16:u:tok-1 L=fiches,
21:u:tok-1RR=zooplancton,
33:u:tok-2 L=fiches/d'identification,
29:u:tok-2 R=d'identification/du,
16:u:tok-1LL=fiches,
26:u:tok-1 L=d'identification,
21:u:tok-1 R=zooplancton,
14:u:tok-1RR=ices,
29:u:tok-2 L=d'identification/du,
24:u:tok-2 R=du/zooplancton,
21:u:Tok-1 X=zooplancton,
21:u:tok-1 X=zooplancton,
26:u:tok-1LL=d'identification,
14:u:tok-1 R=ices,
20:u:tok-1RR=copenhagen,
24:u:tok-2 L=du/zooplancton,
26:u:tok-2 R=zooplancton/ices,
12:u:Pre-2 R=IC,
13:u:tok-1LL=men,
16:u:tok-1 L=plenum,
14:u:tok-1 R=york,
13:u:tok-1RR=411,
20:u:tok-2 L=plenum/new,
18:u:tok-2 R=new/york,
22:u:Tok-1 X=Toelichtende,
22:u:tok-1 X=toelichtende,
16:u:tok-1 L=dinant,
24:u:tok-1 R=verhandelingen,
29:u:tok-2 L=dinant/toelichtende,
37:u:tok-2 R=toelichtende/verhandelingen,
24:u:Tok-1 X=Verhandelingen,
24:u:tok-1 X=verhandelingen,
16:u:tok-1LL=dinant,
22:u:tok-1 L=toelichtende,
37:u:tok-2 L=toelichtende/verhandelingen,
29:u:tok-2 R=verhandelingen/voor,
22:u:tok-1LL=toelichtende,
24:u:tok-1 L=verhandelingen,
21:u:tok-1RR=geologische,
29:u:tok-2 L=verhandelingen/voor,
17:u:tok-2 R=voor/de,
24:u:tok-1LL=verhandelingen,
21:u:tok-1 R=geologische,
15:u:tok-1RR=kaart,
17:u:tok-2 L=voor/de,
24:u:tok-2 R=de/geologische,
21:u:Tok-1 X=Geologische,
21:u:tok-1 X=geologische,
15:u:tok-1 R=kaart,
24:u:tok-2 L=de/geologische,
27:u:tok-2 R=geologische/kaart,
15:u:Tok-1 X=Kaart,
15:u:tok-1 X=kaart,
21:u:tok-1 L=geologische,
19:u:tok-1RR=mijnkaart,
27:u:tok-2 L=geologische/kaart,
18:u:tok-2 R=kaart/en,
21:u:tok-1LL=geologische,
15:u:tok-1 L=kaart,
19:u:tok-1 R=mijnkaart,
18:u:tok-2 L=kaart/en,
22:u:tok-2 R=en/mijnkaart,
19:u:Tok-1 X=Mijnkaart,
19:u:tok-1 X=mijnkaart,
15:u:tok-1LL=kaart,
17:u:tok-1RR=belgië,
22:u:tok-2 L=en/mijnkaart,
23:u:tok-2 R=mijnkaart/van,
19:u:tok-1 L=mijnkaart,
17:u:tok-1 R=belgië,
11:u:tok-1RR==,
23:u:tok-2 L=mijnkaart/van,
21:u:tok-2 R=van/belgië,
17:u:Tok-1 X=België,
19:u:tok-1LL=mijnkaart,
11:u:tok-1 R==,
21:u:tok-2 L=van/belgië,
19:u:tok-2 R=belgië/=,
13:u:Fst-2 R=S/=,
11:u:Pre-2 R==,
11:u:Tok-1 X==,
17:u:tok-1 L=belgië,
19:u:tok-2 L=belgië/=,
21:u:tok-2 R==/mémoires,
13:u:Fst-2 X=S/=,
13:u:Lst-2 X=S/=,
11:u:Pre-1 X==,
11:u:Pre-2 X==,
11:u:Suf-1 X==,
11:u:Suf-2 X==,
16:u:Tmn-3 X=none/=,
17:u:tok-1LL=belgië,
16:u:tok-1RR=servir,
21:u:tok-2 L==/mémoires,
24:u:tok-2 R=mémoires/pour,
11:u:tok-1LL==,
16:u:tok-1 R=servir,
24:u:tok-2 L=mémoires/pour,
21:u:tok-2 R=pour/servir,
16:u:Tok-1 X=servir,
16:u:tok-1 X=servir,
23:u:tok-1RR=l'explication,
21:u:tok-2 L=pour/servir,
19:u:tok-2 R=servir/à,
16:u:tok-1 L=servir,
23:u:tok-1 R=l'explication,
19:u:tok-2 L=servir/à,
26:u:tok-2 R=à/l'explication,
23:u:Tok-1 X=l'explication,
22:u:tok-1 X=lexplication,
16:u:tok-1LL=servir,
16:u:tok-1RR=cartes,
26:u:tok-2 L=à/l'explication,
27:u:tok-2 R=l'explication/des,
23:u:tok-1 L=l'explication,
16:u:tok-1 R=cartes,
22:u:tok-1RR=géologiques,
27:u:tok-2 L=l'explication/des,
20:u:tok-2 R=des/cartes,
12:u:Pre-2 R=ca,
16:u:Tok-1 X=cartes,
16:u:tok-1 X=cartes,
23:u:tok-1LL=l'explication,
22:u:tok-1 R=géologiques,
20:u:tok-2 L=des/cartes,
29:u:tok-2 R=cartes/géologiques,
12:u:Pre-2 X=ca,
22:u:Tok-1 X=géologiques,
21:u:tok-1 X=geologiques,
16:u:tok-1 L=cartes,
19:u:tok-1RR=minières,
29:u:tok-2 L=cartes/géologiques,
25:u:tok-2 R=géologiques/et,
16:u:tok-1LL=cartes,
22:u:tok-1 L=géologiques,
19:u:tok-1 R=minières,
25:u:tok-2 L=géologiques/et,
22:u:tok-2 R=et/minières,
19:u:Tok-1 X=minières,
18:u:tok-1 X=minieres,
22:u:tok-1LL=géologiques,
22:u:tok-2 L=et/minières,
22:u:tok-2 R=minières/de,
19:u:tok-1LL=minières,
21:u:tok-2 R=la/belgique,
21:u:tok-2 L=la/belgique,
28:u:tok-2 R=belgique/belgische,
21:u:Tok-1 X=Géologique,
17:u:tok-1 L=service,
29:u:tok-2 L=service/géologique,
13:u:Pre-2 X=Gé,
17:u:tok-1LL=service,
28:u:tok-2 R=belgique/bruxelles,
28:u:tok-2 L=belgique/bruxelles,
22:u:tok-2 R=bruxelles/19,
21:u:tok-1 L=mariculture,
33:u:tok-2 L=mariculture/proceedings,
21:u:tok-1LL=mariculture,
15:u:Tok-1 X=Areas,
18:u:tok-1 L=offshore,
22:u:tok-1 R=(ccop/sopac),
16:u:tok-1RR=sopac,,
24:u:tok-2 L=offshore/areas,
28:u:tok-2 R=areas/(ccop/sopac),
22:u:Tok-1 X=(CCOP/SOPAC),
19:u:tok-1 X=ccopsopac,
18:u:tok-1LL=offshore,
15:u:tok-1 L=areas,
16:u:tok-1 R=sopac,,
14:u:tok-1RR=ccop,
28:u:tok-2 L=areas/(ccop/sopac),
29:u:tok-2 R=(ccop/sopac)/sopac,,
12:u:Pre-2 R=SO,
12:u:Suf-2 X=C),
18:u:tok-1LL=xiiième,
17:u:tok-1 L=siècle,
14:u:tok-1 R=amis,
21:u:tok-2 L=siècle/les,
18:u:tok-2 R=les/amis,
0=-7.217221e-05
1=-8.158644e-02
2=6.575604e-02
3=-1.107023e-02
4=4.912874e-02
5=4.633616e-03
7=-1.079549e-01
9=1.620847e-02
10=1.656992e-04
11=3.717452e-01
12=8.929330e-01
13=-8.356952e-01
24=3.163063e-01
33=-3.659494e-01
34=-1.879171e-01
35=4.493468e-01
36=-2.011138e-01
37=-7.560332e-01
38=-5.285795e-02
39=-5.249156e-01
42=-2.543901e-02
43=-4.005264e-01
46=-7.648883e-01
47=1.297895e+00
49=-1.377419e-02
57=-3.941750e-01
59=3.801777e-01
63=3.992526e-01
66=-2.400064e-01
68=-1.550354e+00
69=-5.366215e-01
70=-5.315829e-02
71=5.217207e-01
72=3.889461e-01
73=-2.900957e-02
76=-3.809100e-01
79=-2.074905e-01
81=5.597808e-02
84=7.403579e-01
92=2.086075e-01
112=-6.535639e-01
115=-4.604050e-01
119=7.917909e-01
120=6.472729e-01
123=-3.760654e-01
125=3.454981e-02
126=-2.110155e-01
127=1.283560e-01
131=3.941919e-01
132=2.052439e-01
133=5.316262e-03
143=2.052439e-01
144=5.316262e-03
156=-1.309791e-02
157=-1.364279e-02
158=-6.194653e-01
159=9.669628e-02
160=-9.789004e-02
163=5.325956e-02
164=1.852268e-01
165=2.077814e+00
178=7.428028e-01
189=3.521817e-02
192=1.240613e+00
196=1.568133e-02
197=-6.998256e-02
201=3.400681e-01
225=1.155064e-01
226=-1.223439e-02
229=5.542534e-02
230=-2.890674e-02
237=3.605621e-01
269=-1.524881e-01
273=4.514241e-01
274=1.067742e+00
285=5.680687e-01
287=9.929049e-05
288=5.943043e-02
289=-1.933118e-02
290=-5.911117e-01
291=-1.132057e-02
295=6.715989e-02
296=-4.959245e-03
299=-2.770918e-02
300=4.093563e-02
302=1.790299e-02
310=4.638724e-04
311=-1.005524e-03
313=4.947524e-03
319=2.052439e-01
320=5.316262e-03
453=2.954304e-02
454=3.050893e-02
456=8.065594e-02
460=-3.535354e-02
462=2.052439e-01
463=5.316262e-03
475=5.694086e-03
476=1.065694e-03
477=3.747458e-04
478=-2.488869e-02
486=-2.770918e-02
487=4.093563e-02
489=1.790299e-02
497=5.694086e-03
498=1.065694e-03
499=3.747458e-04
500=-2.488869e-02
506=2.052439e-01
507=5.316262e-03
517=2.052439e-01
518=5.316262e-03
530=-1.262476e-02
531=-3.592964e-04
532=-3.451922e-02
533=9.605060e-02
537=6.090286e-02
538=1.420945e-01
541=-2.572018e-02
550=3.452715e-01
563=-3.981045e-02
566=3.543474e-02
572=3.452715e-01
583=2.052439e-01
584=5.316262e-03
715=-1.289046e-03
716=-2.037464e-03
717=2.250661e-01
718=-1.720532e-02
719=-9.750537e-04
720=1.137703e-01
721=-1.324808e-01
724=1.853494e-02
725=4.270005e-02
726=1.065210e+00
739=4.177375e-01
748=-1.534220e-01
750=3.753324e-01
751=-1.712134e-03
753=2.473042e-02
757=-6.521268e-03
758=-1.551855e-01
761=-2.449482e-01
762=1.084551e+00
764=-7.153019e-03
772=-1.125087e-01
774=2.784019e+00
781=-1.620803e-02
783=-1.128760e+00
784=-2.203585e-01
785=-1.425158e-01
786=4.894507e-01
787=-1.106243e-02
790=-1.853298e-02
791=-1.598545e-01
798=4.293141e-01
827=-5.954082e-01
830=-3.717697e-01
834=8.071858e-01
835=9.287445e-01
838=-8.532632e-02
841=-1.083338e-02
846=5.578122e-01
847=-1.386229e-04
849=2.542364e-01
850=-1.949159e-02
852=5.322940e-02
853=-3.157820e-01
856=9.627498e-02
857=-9.634877e-02
858=3.344402e-02
859=-5.239411e-01
860=3.275478e-01
861=-2.507824e-02
862=-7.657973e-02
863=2.826220e-01
864=-3.776722e-01
865=-5.641153e-01
866=-6.560518e-02
867=1.329518e-01
868=9.005031e-02
871=1.028401e-02
872=5.087967e-04
874=-2.716803e-02
882=1.046211e-01
885=-7.819775e-03
886=-2.954949e-02
889=-1.135466e-01
890=6.754189e-04
891=-3.041325e-04
892=-5.191146e-02
893=-2.261445e-02
894=-1.405469e-02
895=6.074263e-02
896=2.528431e-01
898=-5.951075e-04
900=1.596579e-02
901=-3.522597e-01
902=-2.722442e-04
903=-7.422318e-02
904=5.262379e-02
905=-2.821590e-02
906=5.764207e-02
907=2.526349e-04
909=-6.931488e-02
911=8.228768e-03
912=-2.491242e-03
915=9.735701e-02
916=-7.932656e-02
917=5.861511e-02
918=-1.344327e-01
919=1.526971e-02
920=-2.833321e-02
922=4.052147e-02
924=2.052439e-01
925=5.316262e-03
935=-1.325542e-05
936=-3.689592e-02
937=7.477025e-02
938=-4.685392e-02
939=5.141239e-02
940=-3.116237e-02
941=-1.049633e-01
942=-2.316770e-02
944=1.949637e-02
945=-1.808218e-03
946=-4.857302e-04
947=-3.037422e-02
948=8.568086e-02
949=-8.491768e-03
950=-8.355328e-02
951=2.935622e-02
954=-4.546639e-02
955=2.392835e-02
959=1.580369e-02
960=-1.550604e-02
961=-3.316322e-02
962=5.838691e-02
963=-3.742145e-01
966=5.732351e-02
967=1.603224e-01
968=2.052439e-01
969=5.316262e-03
981=9.795394e-03
982=4.477057e-02
984=-2.800277e-02
990=2.052439e-01
991=5.316262e-03
1001=2.052439e-01
1002=5.316262e-03
1012=3.960211e-02
1023=2.052439e-01
1024=5.316262e-03
1036=6.883295e-02
1037=-4.212724e-03
1039=4.620684e-02
1043=-6.163792e-02
1047=1.084783e-02
1056=2.052439e-01
1057=5.316262e-03
1067=-1.844516e-03
1068=-3.735711e-02
1069=-1.284570e-02
1070=1.972971e-01
1071=3.585565e-02
1072=1.389900e-01
1074=-2.738305e-02
1076=1.546761e-02
1077=-2.675253e-03
1080=5.481540e-02
1081=1.874876e-01
1082=-3.534905e-01
1083=8.304553e-02
1084=2.811789e-03
1086=-4.592638e-02
1087=1.622108e-02
1089=2.052439e-01
1090=5.316262e-03
1223=8.856780e-03
1224=4.543033e-02
1226=-2.794899e-02
1234=5.813186e-02
1237=8.863429e-03
1245=1.531901e-03
1256=6.433866e-03
1257=1.201480e-03
1258=1.924179e-04
1259=-9.215691e-03
1266=-2.903078e-02
1267=6.522363e-02
1268=-1.089618e-02
1269=6.136610e-01
1270=1.508200e-02
1271=-7.512872e-03
1272=-7.796450e-03
1273=-1.070109e+00
1274=1.639270e-02
1275=1.043129e-04
1276=1.180615e-01
1289=-2.972335e-01
1290=1.591371e-02
1291=-7.303432e-02
1292=-1.842372e-03
1293=1.575543e+00
1294=1.218268e-01
1296=-8.864959e-01
1297=4.680121e-02
1300=-3.609684e-02
1301=1.340995e-02
1303=-1.725920e-01
1308=9.331547e-02
1311=4.056727e-02
1312=3.193315e-02
1314=-4.532328e-03
1315=-1.001407e-02
1320=2.109671e-01
1344=7.588864e-01
1347=-3.554786e-02
1351=-1.257016e-01
1356=8.209058e-01
1368=3.890298e-01
1380=1.093405e+00
1428=2.807059e-01
1429=-1.573319e-03
1440=1.025897e-01
1443=1.465737e-01
1444=1.519569e-02
1445=1.900688e-03
1446=-3.299037e-01
1447=-5.832264e-02
1454=1.772872e-04
1457=2.404603e-02
1462=-5.674244e-03
1468=-2.258236e-01
1473=3.413526e-02
1476=1.772872e-04
1479=2.404603e-02
1484=-5.674244e-03
1486=-2.370243e-01
1487=-1.163578e-02
1488=-5.422300e-03
1490=2.637080e-01
1491=1.970976e-01
1494=1.337842e-02
1495=1.348586e-01
1502=-1.279226e-02
1509=-7.713784e-02
1510=3.406099e-02
1512=2.006907e-04
1513=1.421272e-01
1514=1.011544e-01
1516=-3.600120e-01
1517=5.808861e-02
1520=-6.470448e-03
1523=3.593592e-01
1529=-2.003202e-03
1530=-1.005359e-01
1531=1.455508e-01
1532=-1.947587e-02
1534=1.822016e-01
1535=7.150454e-02
1536=-5.275373e-01
1538=2.027735e-02
1539=1.825692e-04
1540=1.878226e+00
1541=2.004998e-01
1562=-1.693164e-01
1563=-1.530602e-01
1564=3.867175e-01
1566=-3.743947e-01
1567=-1.877350e-02
1568=-4.081492e-01
1571=-6.036238e-02
1572=-1.593186e-01
1575=-2.167044e-01
1576=1.080621e+00
1588=1.032264e+00
1595=-1.674843e-01
1597=-1.064670e+00
1598=-4.621764e-01
1600=5.259372e-01
1601=3.594207e-01
1602=-3.048008e-02
1604=-1.941868e-02
1605=-3.132994e-01
1641=-3.461547e-01
1644=-3.240925e-01
1648=7.745933e-01
1649=9.335248e-01
1652=-2.560990e-01
1654=1.671958e-01
1655=-1.658918e-01
1656=1.183487e-01
1660=2.717938e-01
1663=3.270487e-02
1666=-1.439060e-01
1674=3.670567e-02
1677=2.159500e-02
1682=-3.717925e-02
1683=-4.138032e-04
1684=-6.463433e-02
1685=-6.242327e-02
1686=-1.359196e-02
1687=4.873851e-02
1688=5.788197e-02
1690=-4.160858e-02
1692=4.431420e-02
1693=-1.729089e-02
1694=-4.373041e-02
1695=-2.140951e-01
1696=1.269093e-01
1697=-4.884604e-02
1698=1.898782e-01
1699=8.633260e-02
1700=-3.344276e-02
1701=-7.610414e-02
1703=1.659514e-02
1705=2.023398e-04
1711=-1.043506e-02
1718=4.909378e-02
1721=-1.745663e-01
1722=-6.590812e-02
1725=-5.073661e-03
1729=6.866640e-02
1732=-2.826682e-03
1733=-8.593627e-02
1736=1.271078e-03
1737=-4.035670e-02
1738=7.064542e-03
1749=6.514303e-03
1760=6.745065e-03
1773=2.583114e-02
1776=8.814450e-04
1781=2.749502e-03
1784=2.016651e-04
1786=-9.573883e-02
1787=2.138075e-02
1792=-4.388783e-02
1795=1.494625e-01
1796=-2.972592e-04
1797=-6.080089e-02
1798=5.686302e-02
1799=-4.182040e-03
1802=8.766531e-02
1803=1.373804e-02
1804=-2.234214e-04
1805=-1.252796e-01
1806=7.510747e-02
1807=-2.851646e-03
1808=5.654184e-02
1809=1.003646e-01
1811=-9.034844e-02
1813=3.377277e-03
1814=-2.773706e-02
1817=4.406496e-02
1818=4.127998e-02
1820=-9.912507e-02
1821=-6.895613e-02
1824=-4.824293e-03
1826=2.610500e-01
1850=1.073376e+00
1862=1.502301e-01
1874=3.891171e-01
1886=1.494987e-02
1946=1.398342e-01
1949=5.870837e-02
1952=5.011575e-03
1957=-4.427434e-02
1960=1.093168e-01
1961=-4.514497e-02
1962=-1.194445e-01
1963=5.517830e-02
1964=5.529199e-02
1967=4.891282e-02
1971=4.976859e-02
1972=-1.674811e-02
1974=1.176964e-02
1979=-4.107267e-02
1982=1.858618e-02
1985=5.198184e-02
1990=-4.020587e-02
1993=1.772872e-04
1996=2.404603e-02
2001=-5.674244e-03
2004=-1.109999e-03
2005=5.395787e-02
2006=1.320474e-01
2007=-1.197523e+00
2008=8.018456e-02
2014=9.926765e-01
2037=3.708415e-01
2039=-1.956354e-02
2041=-1.118758e-01
2049=7.347466e-01
2061=-2.422918e-01
2065=2.698048e-01
2073=-1.121487e-01
2074=6.594693e-01
2083=8.860751e-02
2086=9.052163e-01
2094=9.536562e-01
2127=7.752263e-02
2129=1.855637e-01
2135=1.854898e-03
2136=-4.021977e-04
2137=2.301156e-02
2147=-4.653481e-03
2150=7.043950e-03
2157=1.015296e-01
2159=-1.546055e-01
2160=1.186775e-01
2161=-2.317368e-01
2162=1.347403e-01
2164=1.712062e-03
2169=-1.896092e-02
2172=1.126315e-01
2184=2.132845e-02
2190=1.854898e-03
2191=-4.021977e-04
2192=2.301156e-02
2201=2.836862e-01
2213=-1.635666e-02
2216=3.924899e-03
2228=2.132845e-02
2233=-8.034248e-02
2236=6.879262e-04
2237=1.264990e-01
2238=-7.638546e-02
2239=2.338784e-02
2241=1.953022e-03
2242=-1.674724e-01
2243=-1.182041e-02
2244=-5.724382e-02
2245=3.096893e-05
2246=8.815137e-02
2247=-5.287592e-03
2249=1.878995e-02
2253=1.036304e-01
2254=-1.369463e-01
2256=1.331052e-01
2257=-7.597570e-04
2258=3.061898e-02
2260=1.934707e-04
2267=1.890000e-01
2278=1.769120e+00
2301=4.172733e-01
2393=2.608738e-01
2398=-2.754054e-02
2399=6.784682e-01
2402=-7.395880e-01
2406=5.622746e-05
2409=-8.268150e-02
2411=3.921283e-02
2412=2.191077e-03
2413=1.267843e-01
2414=-9.052317e-02
2415=2.393163e-02
2417=1.946277e-03
2418=-1.652618e-01
2420=-2.505369e-03
2422=-1.910231e-02
2425=-8.844094e-02
2429=7.337045e-02
2433=5.252479e-02
2434=-3.993682e-02
2436=1.393806e-02
2440=4.748055e-02
2441=3.246173e-02
2442=3.980178e-01
2453=2.728954e-01
2466=-1.994745e-02
2469=1.764882e-02
2475=-8.576123e-02
2477=6.064553e-02
2478=-1.644689e-02
2479=1.746932e-02
2480=5.415246e-02
2482=-4.676619e-04
2484=3.893481e-02
2485=4.418549e-02
2486=-3.303268e-03
2488=-2.252523e-02
2491=9.744552e-02
2495=3.476937e-02
2498=4.031400e-01
2521=9.622457e-03
2524=5.705989e-01
2557=-6.241294e-02
2561=6.018538e-01
2606=3.956917e-02
2620=5.669747e-02
2621=-4.489201e-02
2623=3.207769e-02
2625=-8.098306e-03
2627=3.015434e-02
2628=4.833693e-02
2630=-3.088139e-02
2631=7.259891e-02
2632=-3.431349e-02
2633=2.687892e-02
2634=2.562655e-02
2638=4.817903e-02
2639=3.073180e-02
2642=9.621436e-02
2643=-3.340716e-02
2644=-9.895689e-02
2645=4.253912e-02
2646=4.418537e-02
2649=8.691814e-02
2650=4.005044e-02
2657=2.132845e-02
2663=1.004755e-01
2664=9.919441e-03
2665=-1.481904e-02
2671=1.105243e-01
2672=-1.395662e-03
2675=3.300458e-02
2676=8.581611e-02
2678=1.177402e-02
2686=8.740207e-03
2689=-4.520972e-03
2693=9.017629e-03
2697=-3.334621e-03
2700=4.584580e-03
2710=1.246905e-01
2712=-1.055223e-01
2713=2.657408e-01
2714=4.501961e-02
2730=8.379864e-01
2769=1.437418e+00
2787=9.027302e-02
2790=8.084146e-01
2798=9.237602e-01
2840=1.857334e-01
2841=9.544424e-02
2842=-1.642692e-01
2843=1.282004e-01
2844=-3.305495e-01
2847=4.201120e-02
2848=1.710688e-02
2849=1.504144e-02
2851=2.289655e-03
2854=1.448962e-02
2858=2.848404e-02
2862=8.740207e-03
2865=-4.520972e-03
2869=9.017629e-03
2880=4.491916e-02
2882=1.504144e-02
2884=2.289655e-03
2887=1.448962e-02
2891=2.848404e-02
2895=-3.370267e-03
2897=2.978971e-01
2898=3.998071e-03
2899=-1.661385e-01
2900=1.185632e-01
2906=-1.486326e-02
2907=8.474033e-02
2909=5.370047e-03
2913=1.868016e-02
2918=4.954341e-03
2920=2.420800e-02
2928=-1.342436e-01
2929=4.899427e-02
2931=4.609844e-02
2935=2.705324e-02
2939=4.984602e-03
2940=-1.936144e-02
2942=6.328760e-02
2946=6.379639e-02
2947=1.655455e-01
2950=2.501194e-01
2953=-2.509286e-02
2972=8.594234e-01
2983=2.556377e-02
3031=3.262225e-01
3080=-7.644166e-07
3081=-5.528888e-02
3082=1.927409e-01
3083=-4.035752e-02
3084=1.547376e-02
3085=-3.390488e-03
3089=2.347919e-02
3091=-3.560392e-02
3092=-5.643326e-02
3093=1.969911e-01
3094=-1.659288e-02
3095=3.933015e-01
3096=1.402182e-02
3100=6.643970e-03
3101=3.676855e-02
3102=-1.969873e-02
3103=-1.391930e-01
3104=2.037656e-01
3105=-3.624085e-04
3106=2.929717e-02
3107=1.040117e-01
3108=3.199233e-04
3111=3.671868e-03
3113=1.936313e-02
3126=6.980216e-01
3137=3.379753e-01
3138=-2.097912e-01
3139=-2.951102e-01
3140=-4.778134e-02
3141=-2.404740e-01
3145=-1.196266e-01
3149=8.648242e-01
3165=8.200032e-01
3170=-7.727481e-01
3171=-1.286218e-01
3172=-9.994172e-02
3173=3.970375e-01
3174=3.021709e-01
3177=-1.507771e-01
3183=7.657054e-02
3186=7.679754e-01
3194=2.165479e-01
3214=-2.261232e-01
3221=6.982270e-01
3222=5.790357e-01
3225=-2.019435e-01
3227=7.610646e-02
3229=1.742429e-01
3239=1.929210e-01
3245=1.504144e-02
3247=2.289655e-03
3250=1.448962e-02
3254=2.848404e-02
3258=5.034503e-02
3259=7.213280e-02
3261=1.907045e-02
3265=9.919200e-03
3269=-1.665448e-02
3280=1.524964e-01
3281=4.391693e-02
3283=1.963483e-02
3287=-4.905227e-02
3313=4.617575e-01
3314=-1.495671e-01
3316=-2.229453e+00
3320=-8.803050e-01
3325=4.447115e-01
3337=4.881913e-01
3349=1.281975e+00
3353=-3.981828e-01
3397=2.075291e-01
3412=-5.586991e-03
3422=-4.540864e-02
3423=1.876583e-01
3424=1.080575e-01
3426=1.516395e-01
3427=9.146670e-02
3428=-5.509264e-03
3430=1.719708e-02
3432=5.852875e-02
3456=3.244540e-01
3457=-1.522003e-01
3459=-9.527257e-02
3460=-1.471575e-01
3463=-3.150610e-03
3468=8.778462e-01
3489=-4.661352e-01
3490=-1.058869e-02
3492=3.905787e-01
3493=3.195678e-01
3496=-1.182285e-01
3533=-1.809746e-02
3536=-9.828245e-03
3540=6.786297e-01
3541=4.147044e-01
3544=-4.219370e-02
3546=5.484741e-01
3548=7.301356e-02
3555=2.035370e-02
3558=8.541768e-04
3562=4.058381e-02
3563=-5.708372e-03
3566=7.835066e-03
3569=7.707210e-03
3577=-5.586991e-03
3588=7.835066e-03
3591=7.707210e-03
3599=1.893770e-03
3610=1.507944e-01
3611=4.269322e-02
3613=1.143959e-02
3617=-1.861071e-02
3621=2.059804e-02
3622=5.727472e-02
3624=3.088692e-02
3628=2.083172e-02
3632=6.463916e-02
3633=6.102106e-02
3635=9.656801e-03
3643=1.360106e-01
3644=6.436742e-02
3646=2.510833e-02
3650=-1.163389e-02
3657=3.356689e-03
3665=-1.955506e-02
3666=2.467531e-01
3668=1.567290e-01
3669=-1.207857e-01
3672=-4.621607e-04
3673=-2.453981e-05
3676=1.357293e-01
3677=-3.684544e-03
3679=-6.105663e-03
3683=2.130683e-03
3690=4.750428e-02
3698=1.381910e-01
3709=1.679363e-02
3712=2.234614e-03
3723=4.473521e-03
3734=3.952230e-03
3745=5.173390e-03
3753=7.835066e-03
3756=7.707210e-03
3766=-1.304555e-01
3767=2.525598e-03
3770=1.248573e+00
3775=-5.609401e-04
3786=2.201615e-03
3789=-1.122186e-03
3797=3.212872e-02
3808=2.589316e-02
3811=-8.083892e-03
3819=2.589316e-02
3822=-8.083892e-03
3830=-2.028431e-02
3833=1.920093e-02
3841=1.705561e-01
3842=7.944420e-02
3844=8.156814e-04
3848=-1.260515e-04
3849=-1.398880e-02
3852=1.240721e-01
3853=5.962480e-02
3855=-8.442764e-03
3859=-3.304284e-01
3863=2.753554e-02
3874=2.974751e-02
3885=2.836485e-02
3918=1.385862e-01
3930=1.524452e-02
3954=4.951091e-02
4017=2.589316e-02
4020=-8.083892e-03
4028=3.986287e-03
4031=-1.062414e-03
4039=-1.124275e-03
4042=2.850152e-02
4050=2.694322e-02
4053=3.226408e-03
4061=3.986287e-03
4064=-1.062414e-03
4072=2.694322e-02
4075=3.226408e-03
4086=-3.387545e-04
4094=2.694322e-02
4097=3.226408e-03
4105=3.090436e-02
4116=2.917248e-02
4119=1.815023e-03
4127=-9.247075e-03
4130=3.829385e-03
4134=4.301570e-02
4138=4.968258e-02
4139=-1.102377e-01
4141=1.499636e-02
4149=1.007950e-01
4150=-8.293899e-04
4152=-7.377905e-01
4156=-8.438542e-03
4157=5.470155e-01
4160=3.489737e-01
4161=8.730047e-02
4163=-1.101973e-03
4171=9.061754e-02
4172=1.515876e-02
4182=-7.722994e-03
4185=2.404891e-01
4189=-2.558120e-04
4193=6.179663e-02
4226=1.694525e-01
4262=4.464524e-02
4325=2.503468e-02
4328=-1.853483e-03
4336=9.878513e-03
4339=-1.545832e-03
4347=-3.916296e-03
4350=1.683054e-01
4358=-7.428141e-04
4369=3.249749e-02
4370=-8.654686e-03
4372=2.098833e-02
4376=3.313652e-02
4380=2.395705e-01
4381=2.029119e-02
4383=-5.484908e-02
4391=5.111576e-02
4402=2.635854e-02
4405=-8.538114e-03
4413=-6.079760e-03
4416=2.171601e-02
4424=2.635854e-02
4427=-8.538114e-03
4435=2.322026e-02
4438=-6.860183e-03
4446=-6.079760e-03
4449=2.171601e-02
4457=-9.380820e-04
4460=-4.229112e-03
4464=1.810064e-03
4468=1.716015e-03
4469=1.130513e-01
4471=-2.043576e-02
4479=1.263651e-01
4480=6.467340e-04
4482=7.455744e-02
4486=-8.073962e-02
4490=-3.605027e-03
4493=1.871603e-01
4501=1.195657e-01
4504=1.945021e-01
4512=-6.079760e-03
4515=2.171601e-02
4523=-1.005059e-01
4524=-1.228858e-02
4525=-4.896764e-02
4526=-7.181603e-05
4527=1.551656e-01
4528=1.403503e-01
4530=-3.502389e-02
4531=2.092077e-01
4537=2.242671e-02
4545=3.014213e-02
4548=-8.385399e-03
4556=-1.580601e-03
4559=5.259682e-03
4567=3.088644e-02
4578=2.435622e-02
4580=6.511423e-02
4589=2.029930e-03
4590=-8.620197e-02
4591=9.703672e-02
4592=6.241031e-03
4593=1.653786e-02
4600=1.369311e-01
4603=3.858699e-02
4611=4.351939e-02
4614=-2.112330e-03
4622=8.125543e-03
4624=1.906271e-02
4633=-8.260915e-06
4636=2.570177e-02
4644=1.079982e-02
4647=5.297917e-02
4655=-5.498948e-03
4658=3.481853e-02
4666=4.035924e-02
4677=7.208857e-02
4680=-2.955794e-02
4688=4.035924e-02
4699=7.208857e-02
4702=-2.955794e-02
4710=3.251309e-02
4713=-3.405490e-03
4721=-2.921632e-03
4722=5.351300e-02
4724=8.946579e-03
4729=1.349444e-03
4735=4.144681e-03
4746=1.675454e-02
4757=4.144681e-03
4765=1.138802e-01
4766=-9.739101e-05
4768=6.358422e-02
4772=7.115607e-05
4776=4.144002e-02
4779=1.230549e-02
4787=4.224828e-02
4790=1.071039e-01
4798=7.208857e-02
4801=-2.955794e-02
4809=1.399658e-02
4820=2.331614e-01
4831=8.164460e-01
4834=-2.129992e-01
4842=1.456326e-03
4853=1.456326e-03
4864=1.284810e-02
4875=1.456326e-03
4886=2.605753e-02
4889=-1.245793e-03
4897=6.904939e-02
4900=3.386991e-02
4908=4.753440e-02
4911=-4.574941e-03
4919=1.456326e-03
4930=1.456326e-03
4941=9.452258e-02
4944=-1.584049e-02
4948=2.146133e-02
4953=4.574711e-02
4955=-4.768777e-04
4963=-1.414987e-03
4964=6.781815e-02
4966=9.749143e-03
4974=-2.262859e-01
4981=2.672531e-01
4982=2.684025e-02
5007=-5.368068e-02
5010=1.913778e-01
5043=-1.270197e+00
5047=8.848681e-01
5092=5.523810e-02
5106=6.942970e-03
5107=2.136792e-04
5109=2.070692e-04
5113=2.670378e-02
5117=-6.464668e-02
5118=1.332817e-01
5129=6.675369e-02
5139=6.942970e-03
5140=2.136792e-04
5142=2.070692e-04
5146=2.670378e-02
5148=-4.416120e-04
5150=6.268207e-02
5151=5.065858e-04
5153=3.607882e-03
5157=8.088043e-02
5158=-2.478767e-03
5161=-1.349656e-01
5162=5.128557e-03
5164=3.401918e-01
5168=2.300442e-02
5170=-2.218340e-05
5172=7.748885e-02
5173=5.226292e-02
5175=-3.008722e-02
5183=3.107327e-02
5186=-2.766961e-02
5191=1.395693e-03
5194=3.549012e-02
5195=4.152620e-02
5197=5.364816e-03
5205=6.942970e-03
5206=2.136792e-04
5208=2.070692e-04
5212=2.670378e-02
5219=-8.155040e-02
5230=-9.479686e-02
5238=3.513128e-03
5239=3.112888e-02
5241=-2.074606e-02
5245=3.564126e-03
5249=-8.342788e-02
5252=4.341331e-02
5260=3.513128e-03
5261=3.112888e-02
5263=-2.074606e-02
5267=3.564126e-03
5274=-6.179368e-01
5285=-1.342477e-02
5291=-7.761260e-03
5293=-2.652642e-02
5294=-9.431157e-04
5296=8.737359e-02
5300=6.755833e-03
5301=1.776996e-01
5304=4.250628e-02
5305=2.579566e-02
5307=-1.852613e-03
5315=7.673555e-04
5326=7.673555e-04
5337=3.854659e-06
5340=-3.509907e-03
5348=6.446790e-02
5351=-4.034464e-02
5356=1.366728e-03
5359=7.673555e-04
5370=-2.733129e-02
5373=3.710675e-02
5381=3.986037e-05
5384=-1.497828e-03
5393=6.594220e-02
5403=-1.331106e-02
5404=-2.419719e-04
5406=4.371452e-02
5410=6.121795e-02
5414=1.194801e-02
5425=8.338562e-03
5426=-3.684307e-04
5428=-1.776343e-03
5432=2.619375e-01
5436=3.520005e-02
5439=-6.175527e-03
5447=7.192658e-03
5448=5.828992e-02
5480=6.817351e-02
5492=1.608080e-01
5579=4.308434e-02
5580=5.547834e-02
5585=1.753755e-01
5586=-6.991004e-04
5590=-3.820739e-02
5591=-3.089500e-04
5593=3.627333e-02
5597=1.005333e-01
5601=-2.035451e-02
5604=1.829316e-01
5612=-5.361112e-02
5613=1.269168e-02
5615=6.519746e-02
5623=3.997982e-03
5624=3.296543e-02
5626=3.058713e-03
5634=-2.867549e-03
5635=1.329486e-02
5637=6.416919e-02
5645=1.492288e-02
5648=-2.156239e-02
5657=6.323862e-02
5659=-9.231176e-02
5696=6.476541e-01
5701=9.467897e-02
5786=-4.844033e-03
5788=-1.861993e-01
5789=-3.105949e-02
5791=8.475196e-02
5795=6.091245e-02
5799=-9.006533e-02
5802=3.397340e-02
5806=3.033385e-02
5810=-7.810336e-02
5811=-2.146944e-04
5813=4.831791e-02
5817=2.018234e-01
5818=-1.766413e-01
5821=-1.325381e-03
5822=2.043644e-02
5824=7.324234e-02
5832=-1.325381e-03
5833=2.043644e-02
5835=7.324234e-02
5843=-7.943911e-04
5844=4.906372e-02
5846=1.311159e-02
5854=-3.807739e-04
5855=1.676883e-02
5857=2.329553e-02
5865=-7.943911e-04
5866=4.906372e-02
5868=1.311159e-02
5876=-1.371324e-03
5877=2.102164e-02
5879=2.454721e-02
5887=-3.807739e-04
5888=1.676883e-02
5890=2.329553e-02
5898=-1.325381e-03
5899=2.043644e-02
5901=7.324234e-02
5909=-6.343171e-02
5910=-2.731473e-04
5912=3.106746e-02
5916=2.728732e-02
5917=5.673230e-02
5920=-3.807739e-04
5921=1.676883e-02
5923=2.329553e-02
5931=1.261704e-02
5932=1.114405e-03
5934=-2.213968e-03
5942=1.777560e-02
5945=-2.342207e-03
5953=1.261704e-02
5954=1.114405e-03
5956=-2.213968e-03
5964=-2.720818e-02
5967=3.659185e-02
5971=-6.416418e-03
5972=4.940811e-02
5975=1.230376e-02
5978=-1.622446e-04
5982=-5.547075e-03
5986=-5.718580e-01
5989=3.619814e-02
5990=9.495024e-02
5993=-2.676339e-03
5994=4.919546e-04
5997=-1.874995e-01
6000=3.040058e-02
6002=1.240166e-02
6004=-1.262135e-01
6005=1.574163e-01
6008=-2.688406e-01
6010=3.141882e-02
6011=4.148713e-02
6015=-8.000481e-03
6016=1.385983e-01
6019=-8.607171e-02
6023=1.133973e-01
6027=2.485931e-03
6032=-5.497419e-01
6034=1.945664e-01
6035=7.166308e-02
6041=-3.232746e-01
6045=2.147406e-01
6048=2.296307e-03
6056=1.001776e-01
6063=-3.253334e-02
6064=3.083838e-03
6065=-3.172398e-01
6068=1.301552e-01
6076=2.210305e-01
6080=3.642697e-02
6087=2.210305e-01
6091=3.642697e-02
6098=2.210305e-01
6102=3.642697e-02
6109=2.210305e-01
6113=3.642697e-02
6120=2.210305e-01
6124=3.642697e-02
6131=2.210305e-01
6135=3.642697e-02
6142=1.794740e-01
6146=7.013694e-02
6208=-9.831703e-02
6230=5.596229e-01
6241=9.409225e-02
6285=2.210305e-01
6289=3.642697e-02
6296=9.798069e-01
6299=1.171479e-02
6307=2.210305e-01
6311=3.642697e-02
6318=2.210305e-01
6322=3.642697e-02
6329=1.618940e-01
6340=2.210305e-01
6344=3.642697e-02
6349=3.392703e-03
6351=1.674717e-01
6352=-5.331228e-02
6362=2.210305e-01
6366=3.642697e-02
6373=2.210305e-01
6377=3.642697e-02
6384=2.210305e-01
6388=3.642697e-02
6395=9.118230e-02
6399=7.043302e-02
6406=9.118230e-02
6410=7.043302e-02
6415=1.486585e-02
6429=-3.331899e-02
6433=2.808894e-02
6437=1.486585e-02
6448=4.336818e-02
6459=-2.758511e-03
6460=6.536345e-02
6470=2.742885e-04
6473=-5.291832e-02
6481=6.667498e-02
6484=-4.301413e-02
6492=2.742885e-04
6495=-5.291832e-02
6503=2.149304e-03
6506=-1.835708e-02
6514=2.864281e-02
6515=5.208086e-02
6517=-3.204385e-03
6525=2.065708e-02
6526=9.776542e-03
6536=4.178802e-03
6539=-4.168408e-03
6547=4.330693e-02
6550=-2.737415e-02
6558=4.178802e-03
6561=-4.168408e-03
6569=9.892502e-02
6570=1.315143e-02
6583=2.568971e-04
6591=4.541403e-03
6602=4.541403e-03
6613=-8.275772e-03
6616=7.980814e-03
6624=2.552395e-04
6635=2.552395e-04
6646=3.830484e-02
6649=-3.817242e-01
6657=2.552395e-04
6668=-1.285447e-03
6671=4.507213e-02
6679=-4.144237e-02
6682=6.025361e-02
6693=-2.936454e-04
6701=-4.144237e-02
6704=6.025361e-02
6712=8.707793e-03
6723=-4.690019e-03
6726=5.813956e-02
6734=-4.449619e-03
6737=3.943509e-02
6745=-3.578618e-03
6748=9.868709e-03
6756=-1.655284e-03
6759=4.993726e-02
6767=-1.448122e-02
6770=4.956172e-02
6778=-5.622297e-03
6781=7.482598e-03
6789=-8.836703e-03
6792=7.441367e-03
6800=-1.910725e-03
6803=3.735286e-03
6811=-3.877009e-02
6814=1.596825e-02
6818=6.941014e-02
6822=-1.910725e-03
6825=3.735286e-03
6833=-7.289062e-03
6836=7.179518e-03
6844=-5.299845e-02
6847=4.725596e-02
6851=-1.548010e-03
6855=-8.758871e-03
6858=8.427014e-03
6862=1.401076e-04
6866=5.741329e-01
6869=-6.607625e-01
6877=3.764218e-02
6880=-7.246240e-03
6888=-8.533617e-02
6891=5.211788e-02
6895=-1.300774e-02
6896=2.044728e-01
6899=-8.533617e-02
6902=5.211788e-02
6906=-1.300774e-02
6907=2.044728e-01
6913=3.428369e-04
6921=3.023658e-02
6924=-1.284111e-02
6932=4.766247e-03
6935=-3.090086e-04
6943=1.548605e+00
6946=-3.774353e-02
6954=4.530550e-02
6957=-1.138653e-01
6965=4.530550e-02
6968=-1.138653e-01
6976=-2.741511e-04
6979=5.576384e-03
6990=2.641105e-01
7001=2.641105e-01
7012=2.641105e-01
7023=9.275652e-04
7027=5.068676e-02
7034=-5.018971e-01
7045=-1.694916e-02
7049=4.925764e-02
7056=-1.694916e-02
7060=4.925764e-02
7064=6.963895e-03
7075=-1.621421e-03
7078=2.900915e-02
7086=-1.621421e-03
7089=2.900915e-02
7104=2.091595e-02
7108=-1.621421e-03
7111=2.900915e-02
7119=7.398301e-03
7122=-1.296979e-03
7130=1.225319e-02
7133=-1.884162e-03
7141=6.414535e-01
7144=-9.158765e-03
7152=7.398301e-03
7155=-1.296979e-03
7163=4.395992e-03
7166=-1.047298e-03
7174=8.410951e-03
7177=-5.026746e-03
7185=8.410951e-03
7188=-5.026746e-03
7196=3.817374e-04
7207=8.410951e-03
7210=-5.026746e-03
7218=8.410951e-03
7221=-5.026746e-03
7229=5.988050e-03
7232=-2.223776e-03
7240=8.410951e-03
7243=-5.026746e-03
7251=4.924043e-01
7254=-2.661875e-04
7262=1.909357e-02
7273=4.924043e-01
7276=-2.661875e-04
7284=4.593969e-02
7287=-1.571284e-03
7295=4.400544e-01
7298=-1.300155e-02
7306=9.151545e-03
7307=3.829799e-02
7309=-7.054154e-03
7317=3.124965e-02
7328=3.124965e-02
7339=-6.277666e-03
7342=3.709843e-02
7347=1.577112e-02
7358=1.303287e-01
7361=-6.277666e-03
7364=3.709843e-02
7369=1.577112e-02
7372=3.028314e-03
7375=4.118524e-02
7380=3.942092e-02
7383=2.096644e-03
7390=-6.512660e-01
7394=3.550921e-02
7397=-1.362321e-02
7405=-1.183874e-03
7408=8.348054e-02
7416=2.664657e-02
7419=-5.749497e-03
7427=2.774064e-02
7430=-5.154740e-03
7438=-6.277666e-03
7441=3.709843e-02
7446=1.577112e-02
7449=5.731535e-02
7460=7.784243e-02
7471=-2.875340e-02
7474=3.811470e-01
7475=8.906915e-03
7482=1.382120e-03
7485=1.764919e-01
7486=4.215237e-03
7493=1.641200e-04
7496=-3.473011e-02
7500=7.374039e-02
7504=1.193485e+00
7507=-1.077806e-02
7512=1.228453e-02
7515=4.301887e-02
7518=-7.873066e-03
7529=4.486802e-04
7535=5.120177e-02
7559=2.568134e-02
7562=-1.349425e-01
7595=5.281439e-01
7658=1.301626e-02
7661=1.412496e-02
7662=-1.694078e-01
7669=5.557894e-02
7680=5.557894e-02
7691=5.772601e-02
7702=2.839591e-02
7713=5.368795e-02
7716=-1.794443e-02
7724=7.633062e-01
7727=-5.773709e-02
7738=-2.164842e-01
7742=1.506986e-02
7779=2.998752e-02
7886=4.382200e-02
7911=3.993134e-02
7996=2.042316e-01
8003=8.890610e-02
8013=1.954156e-03
8028=-1.017456e-05
8029=1.850108e-01
8032=-3.581325e-02
8035=1.731253e-02
8039=-7.676884e-04
8040=1.692244e-01
8043=-6.208396e-02
8046=1.806497e-02
8050=-8.012038e-04
8051=1.749735e-01
8054=-6.208396e-02
8057=1.806497e-02
8061=-8.012038e-04
8062=1.749735e-01
8068=6.178278e-03
8076=-4.775956e-02
8079=1.859068e-02
8083=-7.972340e-04
8084=1.724515e-01
8087=-6.208396e-02
8090=1.806497e-02
8094=-8.012038e-04
8095=1.749735e-01
8098=1.047810e-02
8112=6.270378e-02
8120=-4.107603e-02
8123=1.866438e-02
8131=-4.107603e-02
8134=1.866438e-02
8145=-7.146501e-03
8156=-7.146501e-03
8167=-7.146501e-03
8175=4.663298e-02
8186=2.039407e-04
8189=-5.859577e-02
8194=1.571347e-01
8197=4.663298e-02
8208=5.235515e-01
8211=-5.857212e-03
8219=1.536420e-01
8230=-1.045507e-03
8233=1.434128e-02
8241=-2.482913e-01
8244=1.878173e-02
8252=-4.551293e-02
8255=1.096921e-01
8260=-2.475256e-02
8263=-4.551293e-02
8266=1.096921e-01
8271=-2.475256e-02
8274=-5.212327e-02
8277=2.066475e-02
8288=-1.868153e-02
8296=-3.679199e-02
8307=-1.148523e-03
8318=-1.148523e-03
8329=5.515142e-01
8332=-2.717998e-01
8340=5.074165e-02
8351=5.074165e-02
8362=1.233127e-01
8365=-3.666443e-02
8376=-1.089987e-03
8384=-5.774104e-01
8387=2.996971e-01
8395=-1.978480e-01
8398=1.026914e-01
8409=7.771659e-03
8420=7.381643e-03
8431=1.346588e-02
8442=9.766614e-03
8450=-1.363196e-02
8453=6.369153e-02
8461=-1.442414e-02
8468=2.204157e-03
8479=4.877409e-02
8483=-1.413230e-02
8486=1.225831e-01
8491=3.406179e-02
8497=1.596324e-01
8510=1.908477e-01
8516=2.070031e-02
8519=-8.679101e-02
8526=-7.467554e-02
8527=2.571438e-02
8529=1.387496e-04
8530=-1.480895e-02
8531=1.063591e+00
8542=2.341918e-01
8543=1.482299e-01
8551=1.865589e-02
8619=6.899684e-01
8628=1.220650e-02
8685=4.249384e-01
8694=3.075586e-01
8707=-6.870230e-01
8708=2.768906e-01
8709=6.129615e-02
8716=1.141382e-01
8718=-6.623125e-02
8719=2.029798e-01
8771=1.866860e-02
8793=3.975447e-02
8795=-2.415787e-02
8796=2.040762e-01
8903=1.246506e-03
8916=2.626532e-04
8928=6.174822e-01
8980=2.736032e-03
8982=4.615881e-02
8983=1.811552e-01
8990=3.114845e-04
9002=1.446411e-01
9090=2.525699e-01
9134=-1.670228e-02
9138=6.085987e-02
9145=-1.318139e-02
9149=1.883609e-01
9200=-8.978465e-01
9204=2.215188e+00
9275=-1.809300e-01
9278=1.130607e-01
9281=7.486524e-02
9286=-2.413788e-02
9289=4.699486e-01
9297=-3.407615e-03
9300=1.140509e-01
9316=2.957462e-03
9319=-3.114520e-03
9322=1.894946e-01
9330=-3.114520e-03
9333=1.894946e-01
9349=3.697388e-02
9352=1.298936e-03
9355=-4.934860e-03
9363=-2.648631e-01
9366=6.093259e-01
9374=-2.023861e-01
9377=5.758098e-01
9385=-2.023861e-01
9388=5.758098e-01
9396=-2.069327e-02
9399=1.170432e-01
9407=-7.359201e-01
9410=3.729151e-01
9418=-7.587673e-03
9421=9.279843e-02
9429=-6.763621e-03
9432=2.786407e-02
9440=-3.936728e-01
9443=3.130630e-01
9454=1.272708e-04
9462=2.707608e-02
9473=5.943609e-02
9484=5.943609e-02
9498=-3.276596e-02
9499=1.534596e-01
9506=8.288241e-02
9517=1.032319e-01
9528=1.032319e-01
9539=9.635392e-03
9542=8.182182e-04
9550=1.341980e-01
9561=1.552620e-01
9572=2.025468e-01
9583=1.032319e-01
9594=-5.562739e-02
9601=2.995451e-01
9602=2.778419e-02
9612=1.723575e-02
9616=-1.818586e-01
9619=6.269150e-01
9627=8.916003e-03
9638=3.188494e-01
9641=-1.612149e-02
9652=2.500558e-03
9663=4.401904e-01
9674=4.401904e-01
9685=4.524504e-01
9701=2.089725e-01
9774=2.568973e-02
9827=1.644339e-01
9838=1.563895e-01
9840=1.007990e-01
9841=-1.670826e-06
9852=-1.212181e-02
9863=-1.212181e-02
9948=9.715004e-02
10006=-1.212181e-02
10020=2.306170e-03
10031=1.643347e-02
10037=-1.186733e-02
10041=8.988140e-02
10045=9.015207e-02
10056=1.205581e-01
10067=2.452423e-02
10070=-6.301718e-03
10078=1.205581e-01
10089=3.771853e-02
10092=-7.015788e-03
10100=3.771853e-02
10103=-7.015788e-03
10111=-1.833385e-01
10114=2.542269e-01
10118=1.632533e-01
10122=-1.928179e-01
10125=1.320975e-01
10129=1.030601e-01
10133=-2.822172e-02
10134=-3.422635e-03
10136=6.379559e-02
10140=1.113312e-02
10144=-2.822172e-02
10145=-3.422635e-03
10147=6.379559e-02
10151=1.113312e-02
10155=-3.877567e-02
10158=4.379056e-02
10162=5.644663e-03
10166=2.682040e-01
10169=-1.582106e-01
10177=-3.180499e-02
10178=2.816005e-03
10188=-1.948115e-01
10199=-1.424814e-01
10202=8.561578e-01
10210=-1.948115e-01
10221=-2.576948e-01
10222=6.650078e-02
10232=-1.705603e-01
10233=8.463716e-02
10243=-2.576948e-01
10244=6.650078e-02
10254=-2.576948e-01
10255=6.650078e-02
10265=-4.062847e-02
10276=-1.720284e-01
10279=4.104692e-01
10287=-2.074721e-02
10290=8.886336e-02
10298=-4.062847e-02
10309=-5.314363e-02
10310=4.296629e-02
10320=-5.314363e-02
10321=4.296629e-02
10331=-2.853772e-02
10338=7.540564e-03
10345=1.380631e-02
10361=1.317263e-02
10372=1.317263e-02
10375=-4.778111e-01
10378=9.256968e-02
10386=-4.778111e-01
10389=9.256968e-02
10397=1.979523e-02
10408=1.979523e-02
10419=-6.037612e-05
10422=1.005790e-02
10430=-2.089655e-02
10433=3.606540e-01
10441=-1.387506e-01
10444=1.042781e+00
10452=1.443957e-03
10463=-7.606179e-03
10464=3.019098e-03
10474=-1.461793e-03
10488=-4.339288e-02
10493=1.192524e-02
10499=1.838319e-02
10507=-9.283441e-03
10510=3.513903e-02
10518=1.907189e-03
10529=-3.366313e-04
10532=4.729850e-03
10540=-3.735249e-04
10551=1.261495e-04
10562=1.261495e-04
10573=2.878948e-05
10584=1.261495e-04
10598=-1.307658e-03
10609=2.609380e-02
10620=2.622767e-02
10628=-1.077544e-02
10631=1.647849e-02
10639=-1.077544e-02
10642=1.647849e-02
10650=-1.077544e-02
10653=1.647849e-02
10661=-1.077544e-02
10664=1.647849e-02
10672=-1.077544e-02
10675=1.647849e-02
10683=-1.077544e-02
10686=1.647849e-02
10694=5.387833e-03
10697=-3.985053e-01
10702=3.101541e-02
10705=5.387833e-03
10708=-3.985053e-01
10713=3.101541e-02
10716=-2.600877e-02
10719=7.116273e-02
10727=-1.077544e-02
10730=1.647849e-02
10738=-6.843325e-03
10741=1.391234e-02
10749=-6.843325e-03
10752=1.391234e-02
10760=-1.281530e-01
10771=-6.843325e-03
10774=1.391234e-02
10782=-6.843325e-03
10785=1.391234e-02
10793=-6.843325e-03
10796=1.391234e-02
10804=6.314294e-01
10807=-2.645420e-02
10815=-2.956098e-02
10818=3.299018e-01
10829=-1.014453e-03
10837=-6.478417e-04
10848=-2.138810e-04
10851=1.153792e-01
10862=8.437257e-02
10870=-4.852914e-03
10873=1.810156e-02
10880=2.712741e-02
10891=2.712741e-02
10903=1.548303e-03
10906=-3.012406e-04
10914=2.019000e-01
10917=-6.877027e-01
10928=-8.730733e-02
10939=-4.876760e-03
10947=1.329349e+00
10950=-4.711932e-01
10961=6.943557e-04
10972=6.471485e-04
10980=-1.312541e-01
10983=9.525190e-02
10991=-4.698135e-02
10994=6.070854e-03
11002=-7.668578e-04
11013=1.638327e-03
11024=-2.725618e-02
11027=3.377425e-02
11035=-3.179467e-01
11038=3.514066e-01
11049=7.789825e-04
11057=-5.305345e-02
11060=4.510567e-04
11068=-5.305345e-02
11071=4.510567e-04
11079=-1.476093e-01
11082=3.334442e-02
11087=5.153247e-02
11090=-3.268625e-02
11093=2.847481e-02
11104=2.435240e-04
11112=-6.118179e-02
11115=5.094721e-02
11126=1.743821e-03
11134=-3.268625e-02
11137=2.847481e-02
11148=1.743821e-03
11156=-1.025595e-03
11159=2.671137e-02
11167=-1.087796e-01
11170=6.355023e-02
11181=2.818401e-02
11189=-1.229071e-02
11192=7.486622e-02
11200=-1.070275e-02
11203=4.360638e-02
11214=-1.133594e-02
11218=6.708005e-02
11225=6.562122e-02
11236=6.562122e-02
11244=-2.335064e-03
11247=4.621228e-02
11255=1.610945e-02
11258=-1.331898e-01
11262=2.068869e-02
11269=-1.893318e-01
11273=2.973867e-01
11274=9.259698e-03
11277=-3.635836e-02
11293=9.073859e-02
11304=8.752146e-02
11315=1.030171e-01
11326=9.073859e-02
11337=1.030171e-01
11348=9.073859e-02
11359=1.030171e-01
11365=-6.610467e-03
11368=6.878860e-03
11376=-6.610467e-03
11379=6.878860e-03
11387=-6.610467e-03
11390=6.878860e-03
11398=-2.155754e-03
11401=8.991290e-04
11409=-4.318478e-02
11412=3.235132e-07
11420=-2.925060e-02
11423=4.725830e-03
11431=-1.802739e-03
11434=2.846918e-03
11442=-1.802739e-03
11445=2.846918e-03
11453=-2.581880e-02
11456=5.934461e-03
11467=2.325069e-06
11478=3.214964e-04
11482=-8.714093e-05
11486=2.300597e-03
11500=2.585380e-01
11508=-1.410364e-02
11511=8.142622e-02
11519=5.126526e-01
11522=-6.143909e-02
11530=3.625040e-03
11541=1.359366e-01
11544=-7.090873e-01
11552=-2.871689e-01
11555=1.812156e-02
11563=7.477215e-02
11566=-1.660551e-02
11574=3.531407e-01
11585=-2.361843e-02
11588=5.151569e-02
11596=-2.361843e-02
11599=5.151569e-02
11607=-2.361843e-02
11610=5.151569e-02
11618=2.246544e-04
11629=-3.066112e-02
11632=3.324438e-02
11640=-2.483022e-02
11643=2.979622e-02
11651=-2.483022e-02
11654=2.979622e-02
11662=-2.956835e-02
11665=2.236568e-02
11673=-2.035874e-02
11676=3.997655e-02
11684=-8.735530e-03
11687=3.282435e-02
11695=-8.176884e-03
11698=3.376418e-02
11706=-3.430785e-02
11709=1.650635e-01
11717=9.912205e-03
11731=1.243638e-02
11742=1.395842e-02
11750=2.690421e-01
11753=-2.835959e-02
11764=-1.077563e+00
11765=4.658158e-02
11772=-6.945059e-03
11780=1.515133e-01
11786=-2.874138e-01
11790=2.012715e-01
11791=3.474297e-02
11827=1.755556e-02
11851=6.833448e-02
11926=3.102747e-03
11937=3.102747e-03
11948=3.102747e-03
11959=-4.443348e-04
11962=3.728838e-02
11970=3.680565e-03
11973=-6.208441e-04
11984=-5.464614e-01
11988=8.314829e-02
11995=-2.047928e-01
11996=7.332201e-02
12006=-9.066813e-02
12007=8.921573e-02
12017=-1.272458e-01
12018=7.639652e-02
12025=3.271347e-03
12036=3.417497e-05
12047=5.197855e-03
12058=1.204083e-02
12072=3.418792e-02
12084=6.439056e-02
12091=-2.894173e-02
12094=2.429864e-01
12102=2.436928e-03
12105=-2.401449e-03
12113=2.778344e-01
12116=-1.826966e-02
12127=4.133338e-03
12143=2.937230e-03
12154=1.667033e-02
12165=1.667033e-02
12171=1.472339e+00
12179=-1.843730e-02
12193=3.713513e-03
12204=-6.237680e-04
12208=1.635969e-01
12212=-3.133780e-03
12215=1.175930e-02
12223=-3.133780e-03
12226=1.175930e-02
12237=-6.252710e-03
12242=1.162522e-01
12245=-4.658079e-02
12248=1.528542e-01
12256=-1.914443e-02
12259=2.066948e-01
12267=2.914443e-04
12278=2.388701e-04
12290=4.175903e-03
12345=4.911404e-03
12433=6.301637e-02
12443=-3.796098e-02
12446=8.617336e-02
12457=1.311237e-01
12468=1.311237e-01
12479=1.585480e-01
12487=-2.174503e-02
12490=9.367942e-02
12501=1.585480e-01
12512=8.924101e-02
12523=1.585480e-01
12534=-5.967792e-02
12538=4.120652e-01
12545=-5.967792e-02
12549=4.120652e-01
12561=6.734908e-02
12572=6.734908e-02
12583=6.734908e-02
12594=6.734908e-02
12605=6.734908e-02
12616=6.734908e-02
12627=6.734908e-02
12638=6.734908e-02
12649=6.734908e-02
12660=6.734908e-02
12671=6.734908e-02
12682=6.734908e-02
12692=-6.534148e-06
12693=1.767307e-01
12699=-1.611736e-02
12700=8.387425e-02
12710=1.692083e-04
12721=4.165679e-03
12732=4.165679e-03
12740=-9.386712e-03
12743=5.419477e-02
12751=8.392446e-04
12762=8.392446e-04
12773=8.392446e-04
12787=6.018312e-05
12795=8.392446e-04
12806=-4.200097e-03
12809=4.511762e-03
12842=7.988487e-02
12941=6.311259e-04
12952=6.311259e-04
12960=4.873986e-03
12971=2.632973e-01
12974=-4.467310e-02
12982=4.767736e-04
12996=3.176886e-01
13007=-8.282993e-02
13011=1.674138e+00
13015=4.061931e-03
13034=8.967549e-02
13037=2.224232e-02
13040=-5.028352e-03
13048=-1.205119e-01
13051=4.539765e-01
13059=3.199399e-01
13062=-1.379381e-01
13070=-1.666855e-03
13073=1.269303e-03
13081=-3.442923e-03
13084=2.786703e-02
13092=-3.442923e-03
13095=2.786703e-02
13103=-5.826261e-03
13106=6.657490e-03
13114=-8.135466e-03
13117=4.593090e-03
13125=-1.412524e-02
13128=5.253135e-02
13143=4.697787e-01
13147=-8.135466e-03
13150=4.593090e-03
13161=5.708614e-03
13172=5.708614e-03
13180=-1.183575e-02
13183=2.285751e-02
13191=-1.183575e-02
13194=2.285751e-02
13205=5.708614e-03
13216=3.541755e-03
13224=-3.662952e-03
13227=1.298962e-02
13235=2.997283e-04
13238=-1.352978e-03
13249=1.318069e-04
13253=-1.175362e-03
13260=-2.294155e-03
13271=-2.294155e-03
13282=-8.675776e-03
13290=-2.866669e-03
13293=4.419078e-02
13301=-2.866669e-03
13304=4.419078e-02
13312=-8.419552e-03
13323=-2.866669e-03
13326=4.419078e-02
13334=-2.866669e-03
13337=4.419078e-02
13345=-2.866669e-03
13348=4.419078e-02
13356=-2.866669e-03
13359=4.419078e-02
13367=-2.866669e-03
13370=4.419078e-02
13378=-2.866669e-03
13381=4.419078e-02
13389=-2.866669e-03
13392=4.419078e-02
13400=-2.866669e-03
13403=4.419078e-02
13411=-2.866669e-03
13414=4.419078e-02
13422=-2.841347e-02
13425=2.600553e-04
13429=1.073454e-02
13440=6.344632e-02
13447=1.508889e-02
13458=1.029892e-03
13462=5.009239e-03
13473=3.617888e-02
13477=1.311115e-03
13491=8.430613e-02
13499=-5.291015e-03
13502=2.717333e-02
13510=-5.421815e-03
13513=5.898440e-02
13524=7.674532e-04
13535=8.325596e-03
13544=5.980414e-02
13554=2.076775e-03
13557=-1.323530e-04
13568=2.460375e-02
13576=2.618428e-01
13590=1.725745e-02
13598=3.328018e-01
13612=-8.725264e-03
13619=2.618484e-02
13638=1.691730e-02
13644=1.281090e-02
13653=4.204332e-02
13664=-5.065440e-04
13675=-5.867178e-03
13678=4.050378e-03
13686=-1.540575e-05
13689=2.615792e-03
13704=4.653243e-03
13711=-6.421131e-02
13722=4.187172e-03
13730=-1.072987e-02
13741=5.152083e-01
13744=-7.416084e-02
13752=-9.908341e-03
13755=2.684343e-02
13763=2.820814e-01
13766=-2.084313e-02
13774=-5.553669e-02
13777=1.620906e-01
13785=-3.023132e-03
13788=9.917679e-02
13796=-5.265072e-02
13799=9.639226e-02
13807=-5.265072e-02
13810=9.639226e-02
13818=-2.537645e-02
13821=8.589660e-02
13829=6.782977e-02
13832=-3.231492e-03
13840=-1.350201e-02
13843=4.429737e-02
13851=3.702545e-03
13854=-1.827622e-03
13862=3.702545e-03
13865=-1.827622e-03
13873=3.702545e-03
13876=-1.827622e-03
13884=-4.082783e-04
13887=6.709309e-04
13895=3.702545e-03
13898=-1.827622e-03
13906=3.702545e-03
13909=-1.827622e-03
13917=3.702545e-03
13920=-1.827622e-03
13928=-4.082783e-04
13931=6.709309e-04
13939=-1.010504e-05
13942=5.430801e-04
13950=-1.010504e-05
13953=5.430801e-04
13961=2.617789e-03
13964=-1.715152e-03
13972=2.617789e-03
13975=-1.715152e-03
13983=2.617789e-03
13986=-1.715152e-03
13994=2.617789e-03
13997=-1.715152e-03
14005=2.617789e-03
14008=-1.715152e-03
14016=-1.010504e-05
14019=5.430801e-04
14027=6.935578e-03
14030=-1.737413e-03
14038=2.954160e-03
14041=-1.666190e-03
14049=2.954160e-03
14052=-1.666190e-03
14060=2.954160e-03
14063=-1.666190e-03
14074=-2.699976e-04
14082=2.954160e-03
14085=-1.666190e-03
14093=2.954160e-03
14096=-1.666190e-03
14104=6.884926e-03
14107=-1.841095e-03
14115=-3.015207e-03
14118=2.365599e-02
14126=-3.015207e-03
14129=2.365599e-02
14137=-4.385911e-04
14140=1.810846e-02
14148=-3.784817e-03
14151=1.675948e-02
14159=-3.988615e-03
14162=3.772212e-02
14177=1.213025e-02
14184=3.575109e-04
14195=3.575109e-04
14206=3.575109e-04
14217=3.575109e-04
14228=3.575109e-04
14236=-1.504607e-03
14239=2.405295e-01
14250=3.575109e-04
14261=3.575109e-04
14273=4.502829e-01
14283=-3.176719e-02
14288=5.450790e-02
14291=9.959078e-03
14294=-1.216510e-03
14302=9.617874e-01
14313=1.390895e-01
14316=-4.427377e-02
14324=1.876655e-01
14327=-1.231720e-01
14335=1.565434e-02
14338=-1.451891e-03
14346=-2.332892e-02
14349=3.335539e-02
14357=-6.522147e-04
14360=6.523457e-04
14368=-3.404126e-04
14371=5.807090e-04
14379=-4.861661e-05
14390=-1.430492e-03
14393=6.542681e-03
14408=1.426317e-01
14412=-2.944613e-02
14415=4.680806e-02
14423=-1.257612e-04
14426=7.772724e-03
14434=-7.625907e-04
14437=8.388089e-03
14445=-7.625907e-04
14448=8.388089e-03
14459=2.877057e-03
14470=9.727346e-04
14486=5.325415e-02
14489=4.350217e-02
14492=-1.275975e-02
14500=6.313721e-02
14503=-1.923693e-03
14511=-6.073732e-01
14514=1.281231e-01
14522=-9.531318e-02
14525=3.829113e-02
14533=-9.531318e-02
14536=3.829113e-02
14544=-8.183617e-02
14547=6.288519e-03
14555=-8.183617e-02
14558=6.288519e-03
14566=-8.183617e-02
14569=6.288519e-03
14577=-1.070608e-01
14580=4.626345e-02
14591=1.803175e-03
14599=-3.957343e-03
14602=1.728037e-02
14613=3.797084e-03
14628=4.350971e-02
14635=-2.331201e-02
14640=6.395586e-02
14643=6.618746e-02
14646=-3.045404e-02
14654=7.590944e-03
14657=-6.321097e-04
14668=2.665186e-02
14679=1.000943e-01
14687=1.235616e-02
14690=-1.022788e-02
14701=1.820755e-02
14716=-6.899593e-06
14717=1.892952e-01
14720=-3.779932e-03
14723=1.478169e-02
14731=-3.779932e-03
14734=1.478169e-02
14742=-3.850084e-03
14745=1.539126e-02
14753=-3.850084e-03
14756=1.539126e-02
14764=-3.850084e-03
14767=1.539126e-02
14775=-3.850084e-03
14778=1.539126e-02
14786=-1.354462e-06
14804=6.396502e-03
14811=1.593120e-04
14822=1.593120e-04
14837=7.276964e-03
14844=-8.680969e-02
14849=1.165530e-02
14852=1.980961e-06
14863=1.980961e-06
14874=1.980961e-06
14892=1.275797e-02
14896=-7.720333e-03
14899=1.582203e-02
14914=4.338285e-02
14921=-4.366057e-02
14926=6.366471e-02
14929=-1.980539e-01
14932=3.227189e-01
14944=9.651877e-02
14955=9.651877e-02
14966=9.651877e-02
14977=9.651877e-02
14988=9.651877e-02
14998=-6.328361e-02
14999=9.330177e-02
15013=5.841623e-03
15017=2.415370e-03
15028=-1.515262e-02
15031=7.478526e-02
15039=-7.867031e-02
15053=2.225937e-02
15064=2.225937e-02
15075=2.225937e-02
15086=2.225937e-02
15097=2.225937e-02
15105=-4.833357e-02
15108=3.579835e-03
15116=-1.116372e-01
15119=2.645844e-01
15127=-1.399207e-01
15130=4.072696e-03
15134=3.986380e-05
15141=3.458850e-03
15152=3.458850e-03
15168=5.036947e-02
15179=5.036947e-02
15190=5.036947e-02
15193=1.278402e-03
15196=-1.300659e-03
15204=8.628186e-02
15215=3.931003e-01
15218=-3.443520e-01
15226=3.931003e-01
15229=-3.443520e-01
15237=4.019239e-02
15240=-1.212171e-02
15248=1.125267e-02
15251=-9.836900e-03
15259=1.125267e-02
15262=-9.836900e-03
15270=-6.906903e-02
15273=9.170666e-02
15281=-1.479283e-01
15284=1.733071e-01
15295=4.817103e-03
15303=-1.599924e-03
15306=1.426111e-02
15314=-1.599924e-03
15317=1.426111e-02
15325=-1.599924e-03
15328=1.426111e-02
15336=-1.599924e-03
15339=1.426111e-02
15347=-2.108498e-03
15350=7.661955e-03
15358=-2.108498e-03
15361=7.661955e-03
15372=1.275225e-02
15383=8.826353e-03
15394=8.826353e-03
15405=9.803170e-03
15416=9.803170e-03
15427=9.803170e-03
15438=9.803170e-03
15449=9.803170e-03
15460=1.813449e-01
15471=4.827990e-01
15486=6.622537e-03
15497=2.850636e-01
15508=5.995206e-02
15515=-2.225417e-02
15519=5.242502e-02
15526=-3.031259e-02
15530=6.928755e-02
15537=-3.416678e-02
15542=8.498875e-02
15548=-3.416678e-02
15553=8.498875e-02
15560=4.657555e-02
15567=-1.697767e-02
15570=2.395541e-02
15578=-4.275579e-03
15581=6.469718e-03
15589=-4.275579e-03
15592=6.469718e-03
15600=-4.275579e-03
15603=6.469718e-03
15614=4.392061e-04
15622=-4.365479e-04
15625=4.102842e-04
15633=-4.365479e-04
15636=4.102842e-04
15644=-4.365479e-04
15647=4.102842e-04
15655=-4.025452e-04
15658=1.618226e-04
15666=-4.025452e-04
15669=1.618226e-04
15677=-4.025452e-04
15680=1.618226e-04
15688=-4.025452e-04
15691=1.618226e-04
15699=-4.025452e-04
15702=1.618226e-04
15710=-4.025452e-04
15713=1.618226e-04
15721=-4.025452e-04
15724=1.618226e-04
15732=-4.025452e-04
15735=1.618226e-04
15743=-3.806400e-04
15746=1.385924e-04
15754=-3.806400e-04
15757=1.385924e-04
15765=-3.806400e-04
15768=1.385924e-04
15776=-9.159471e-05
15779=1.735120e-04
15787=-7.463018e-04
15790=3.209145e-03
15805=7.568042e-03
15816=7.568042e-03
15820=-6.436886e-04
15823=3.016740e-03
15834=-2.129273e-03
15838=7.452578e-03
15845=-2.129273e-03
15849=7.452578e-03
15856=-3.869542e-03
15860=8.005950e-03
15867=8.072394e-03
15875=-3.519448e-02
15886=-3.519448e-02
15900=3.050927e-03
15908=-8.466156e-02
15915=3.067992e-03
15919=-1.038913e-01
15927=5.455578e-02
15933=5.909358e-03
15944=5.909358e-03
15955=5.909358e-03
15966=5.909358e-03
15977=5.909358e-03
15988=5.909358e-03
16021=7.694782e-03
16120=1.064734e-02
16131=1.064734e-02
16142=1.064734e-02
16153=1.064734e-02
16164=1.064734e-02
16175=1.064734e-02
16190=2.593905e-02
16201=2.593905e-02
16212=2.593905e-02
16223=2.593905e-02
16234=2.593905e-02
16245=2.593905e-02
16256=4.455123e-02
16267=4.455123e-02
16278=4.455123e-02
16289=4.455123e-02
16300=4.455123e-02
16311=4.455123e-02
16322=4.455123e-02
16333=4.455123e-02
16340=-2.288487e-02
16345=6.486006e-02
16351=-2.288487e-02
16356=6.486006e-02
16362=-2.288487e-02
16367=6.486006e-02
16373=-2.288487e-02
16378=6.486006e-02
16384=-2.288487e-02
16389=6.486006e-02
16395=-2.288487e-02
16400=6.486006e-02
16406=-2.288487e-02
16411=6.486006e-02
16414=-2.313347e-02
16417=2.787909e-02
16425=-1.918914e-02
16428=2.005971e-02
16436=-1.999745e-02
16439=2.246700e-02
16447=-1.999745e-02
16450=2.246700e-02
16458=-1.834061e-02
16461=2.081617e-02
16469=-1.577245e-02
16472=2.002716e-02
16480=-1.202682e-01
16483=1.336558e-01
16491=-1.202682e-01
16494=1.336558e-01
16502=-1.202682e-01
16505=1.336558e-01
16513=-4.020104e-03
16516=7.958774e-03
16524=-4.020104e-03
16527=7.958774e-03
16535=-4.020104e-03
16538=7.958774e-03
16546=-4.020104e-03
16549=7.958774e-03
16557=-4.020104e-03
16560=7.958774e-03
16568=-5.206476e-03
16571=8.421398e-03
16579=-5.206476e-03
16582=8.421398e-03
16590=-5.206476e-03
16593=8.421398e-03
16601=-5.206476e-03
16604=8.421398e-03
16612=-5.206476e-03
16615=8.421398e-03
16623=-5.206476e-03
16626=8.421398e-03
16634=-7.549322e-04
16637=1.851790e-02
16645=-7.549322e-04
16648=1.851790e-02
16656=-7.549322e-04
16659=1.851790e-02
16667=-7.549322e-04
16670=1.851790e-02
16678=-7.549322e-04
16681=1.851790e-02
16689=-7.549322e-04
16692=1.851790e-02
16703=1.522487e-02
16714=1.522487e-02
16725=1.522487e-02
16736=1.522487e-02
16747=1.522487e-02
16758=1.522487e-02
16769=1.522487e-02
16780=1.522487e-02
16796=1.942410e-01
16807=1.942410e-01
16818=1.942410e-01
16829=1.942410e-01
16840=1.942410e-01
16851=1.942410e-01
16854=-2.663369e-02
16857=2.829792e-02
16865=-2.663369e-02
16868=2.829792e-02
16876=-2.663369e-02
16879=2.829792e-02
16887=-2.663369e-02
16890=2.829792e-02
16898=-2.663369e-02
16901=2.829792e-02
16909=-2.663369e-02
16912=2.829792e-02
16920=-1.897197e-02
16923=2.239763e-02
16931=-1.897197e-02
16934=2.239763e-02
16942=-1.897197e-02
16945=2.239763e-02
16953=-1.897197e-02
16956=2.239763e-02
16964=-1.897197e-02
16967=2.239763e-02
16975=-1.897197e-02
16978=2.239763e-02
16986=-2.144938e-02
16989=2.355203e-02
16997=-2.144938e-02
17000=2.355203e-02
17008=-3.960364e-02
17011=3.919331e-01
17015=-1.207671e-03
17019=-2.144938e-02
17022=2.355203e-02
17030=-2.144938e-02
17033=2.355203e-02
17041=-2.116956e-02
17044=2.343305e-02
17052=-3.462321e-02
17063=-2.116956e-02
17066=2.343305e-02
17074=-2.116956e-02
17077=2.343305e-02
17085=-2.116956e-02
17088=2.343305e-02
17096=-2.859956e-02
17107=-2.859956e-02
17118=-1.707553e-02
17121=2.213060e-02
17129=-1.707553e-02
17132=2.213060e-02
17140=-1.707553e-02
17143=2.213060e-02
17151=-1.718446e-02
17154=2.239609e-02
17162=-1.718446e-02
17165=2.239609e-02
17173=-2.837287e-02
17184=-1.718446e-02
17187=2.239609e-02
17195=-1.718446e-02
17198=2.239609e-02
17206=-1.718446e-02
17209=2.239609e-02
17217=-3.004556e-02
17228=-1.885161e-02
17231=2.313941e-02
17239=-1.885161e-02
17242=2.313941e-02
17250=-1.885161e-02
17253=2.313941e-02
17261=-1.885161e-02
17264=2.313941e-02
17272=-1.839764e-02
17275=2.265449e-02
17283=-1.839764e-02
17286=2.265449e-02
17294=-1.839764e-02
17297=2.265449e-02
17305=-1.839764e-02
17308=2.265449e-02
17316=-1.839764e-02
17319=2.265449e-02
17327=-1.839764e-02
17330=2.265449e-02
17338=-1.826225e-02
17341=2.263735e-02
17349=-1.826225e-02
17352=2.263735e-02
17360=-2.899877e-02
17371=-1.826225e-02
17374=2.263735e-02
17382=-1.826225e-02
17385=2.263735e-02
17393=-1.535761e-02
17396=2.101916e-02
17404=-1.535761e-02
17407=2.101916e-02
17415=-2.626956e-02
17426=-1.535761e-02
17429=2.101916e-02
17437=-1.535761e-02
17440=2.101916e-02
17448=-2.626956e-02
17459=-2.626956e-02
17470=-2.698080e-02
17481=-5.722328e-03
17484=2.225305e-02
17492=-5.722328e-03
17495=2.225305e-02
17503=-5.722328e-03
17506=2.225305e-02
17514=-2.698080e-02
17525=-2.698080e-02
17536=-2.698080e-02
17547=-2.698080e-02
17558=-2.698080e-02
17569=-2.698080e-02
17580=-2.698080e-02
17591=-4.704910e-04
17594=1.963715e-04
17602=-4.704910e-04
17605=1.963715e-04
17613=-4.704910e-04
17616=1.963715e-04
17624=-4.704910e-04
17627=1.963715e-04
17635=-4.228528e-04
17642=7.703596e-03
17646=-2.770843e-04
17649=8.412939e-05
17657=-2.770843e-04
17660=8.412939e-05
17668=-2.770843e-04
17671=8.412939e-05
17679=-1.324853e-04
17690=-1.324853e-04
17701=-1.324853e-04
17712=-1.324853e-04
17723=-1.324853e-04
17734=-1.126689e-04
17745=-1.126689e-04
17756=-1.126689e-04
17767=-1.126689e-04
17778=-1.100276e-04
17789=-1.100276e-04
17800=-1.100276e-04
17811=-1.100276e-04
17822=-1.100276e-04
17833=-1.100276e-04
17844=-1.430687e-04
17855=-1.430687e-04
17866=-1.430687e-04
17877=-1.430687e-04
17888=-1.430687e-04
17899=-1.430687e-04
17910=-2.699998e-04
17921=-2.699998e-04
17932=-2.699998e-04
17943=-2.699998e-04
17954=-2.699998e-04
17965=-2.699998e-04
17976=-2.699998e-04
17987=-2.327605e-04
17990=3.930263e-04
17998=-2.327605e-04
18001=3.930263e-04
18009=-2.327605e-04
18012=3.930263e-04
18020=-2.327605e-04
18023=3.930263e-04
18031=-2.327605e-04
18034=3.930263e-04
18042=-2.327605e-04
18045=3.930263e-04
18053=-1.604122e-04
18056=3.315826e-04
18064=-1.604122e-04
18067=3.315826e-04
18075=-1.604122e-04
18078=3.315826e-04
18086=-1.604122e-04
18089=3.315826e-04
18097=-1.604122e-04
18100=3.315826e-04
18111=9.346435e-04
18122=9.346435e-04
18133=9.346435e-04
18144=9.346435e-04
18155=9.346435e-04
18166=1.826227e-04
18177=1.826227e-04
18188=5.793327e-03
18192=-1.213380e-03
18199=5.793327e-03
18203=-1.213380e-03
18210=-1.836248e-03
18214=7.907747e-03
18221=-1.836248e-03
18225=7.907747e-03
18232=-1.836248e-03
18236=7.907747e-03
18243=-1.836248e-03
18247=7.907747e-03
18254=-2.734601e-03
18258=7.858976e-03
18265=-3.171950e-03
18269=8.321731e-03
18276=-4.045247e-03
18281=1.357382e-02
18287=-4.045247e-03
18292=1.357382e-02
18296=8.399330e-02
18307=3.451945e-03
18318=7.177710e-02
18328=1.904038e-03
18339=1.904038e-03
18350=1.904038e-03
18361=1.904038e-03
18372=1.904038e-03
18383=1.904038e-03
18394=2.743618e-02
18405=2.743618e-02
18416=2.743618e-02
18427=2.743618e-02
18438=2.743618e-02
18449=2.743618e-02
18460=2.743618e-02
18471=2.743618e-02
18482=2.743618e-02
18493=2.743618e-02
18507=3.943667e-03
18518=3.943667e-03
18529=3.943667e-03
18540=3.943667e-03
18551=3.943667e-03
