#mdl#2#2990
#rdr#61/19/0
1:*,
18:u:Tok-1 X=%x[ 0,0],
18:u:tok-1 X=%x[ 0,1],
18:u:tok-1LL=%X[-2,0],
18:u:tok-1 L=%X[-1,0],
18:u:tok-1 R=%X[ 1,0],
18:u:tok-1RR=%X[ 2,0],
27:u:tok-2 L=%X[-1,0]/%X[ 0,0],
27:u:tok-2 R=%X[ 0,0]/%X[ 1,0],
18:*:Fst-1 X=%x[ 0,2],
18:u:Fst-1 R=%x[ 1,2],
27:u:Fst-2 X=%x[ 0,2]/%x[ 0,4],
27:u:Fst-2 R=%x[ 1,2]/%x[ 1,4],
18:*:Lst-1 L=%x[-1,3],
18:u:Lst-1 X=%x[ 0,3],
27:u:Lst-2 L=%x[-1,3]/%x[-1,6],
27:u:Lst-2 X=%x[ 0,3]/%x[ 0,6],
18:u:Pre-1 X=%x[ 0,4],
18:u:Pre-2 X=%x[ 0,5],
18:u:Pre-2 R=%x[ 1,5],
18:u:Suf-1 X=%x[ 0,6],
18:u:Suf-2 L=%x[-1,7],
18:u:Suf-2 X=%x[ 0,7],
18:u:Cap-1 L=%x[-1,8],
18:u:Cap-1 X=%x[ 0,8],
18:u:Cap-1 R=%x[ 1,8],
27:u:Cap-2 L=%x[-1,8]/%x[ 0,8],
27:u:Cap-2 R=%x[ 0,8]/%x[ 1,8],
28:u:Cap-3 L=%x[-1,18]/%x[ 0,8],
18:*:Num-1 L=%x[-1,9],
18:*:Num-1 X=%x[ 0,9],
18:u:Num-1 R=%x[ 1,9],
28:u:Num-2 R=%x[ 0,9]/%x[ 0,17],
28:u:Num-2 R=%x[ 0,9]/%x[ 0,18],
19:u:Nme-1 X=%x[ 0,10],
19:u:Loc-1 X=%x[ 0,11],
19:u:Pub-1 X=%x[ 0,12],
19:u:Jnl-1 X=%x[ 0,13],
19:u:Key-1 L=%x[-1,14],
19:u:Key-1 X=%x[ 0,14],
19:u:Key-1 R=%x[ 1,14],
28:u:Key-2 X=%x[ 0,14]/%x[ 0,8],
29:u:Key-3 L=%x[-1,18]/%x[ 0,14],
29:u:Key-3 x=%x[ 0,14]/%x[ 0,18],
19:u:Pos-1 X=%x[ 0,15],
29:u:Pos-2 L=%x[-1,15]/%x[ 0,15],
29:u:Pos-2 R=%x[ 0,15]/%x[ 1,15],
19:u:Pct-1 L=%x[-1,16],
19:u:Pct-1 X=%x[ 0,16],
19:u:Pct-1 R=%x[ 1,16],
19:u:Brk-1 L=%x[-1,17],
19:u:Brk-1 X=%x[ 0,17],
19:u:Brk-1 R=%x[ 1,17],
19:*:Tmn-1 L=%x[-1,18],
19:u:Tmn-1 X=%x[ 0,18],
19:u:Tmn-1 R=%x[ 1,18],
29:u:Tmn-2 L=%x[-1,14]/%x[ 0,18],
29:u:Tmn-2 R=%x[ 0,18]/%x[ 1,14],
28:u:Tmn-3 X=%x[ 0,18]/%x[ 0,6],
28:u:Tmn-4 R=%x[ 0,18]/%x[ 1,8],
19:u:Id--1 X=%x[ 0,19],
#qrk#11
7:Authors,
4:Year,
5:Title,
6:Series,
6:Volume,
5:Issue,
10:Pagination,
3:DOI,
4:Book,
9:Publisher,
4:City,
#qrk#1270
1:*,
14:u:tok-1LL=_x-2,
14:u:tok-1 L=_x-1,
12:*:Fst-1 X=Lu,
12:u:Fst-1 R=Lu,
14:u:Fst-2 X=Lu/J,
14:u:Fst-2 R=Lu/D,
14:*:Lst-1 L=_x-1,
11:u:Lst-1 X=P,
19:u:Lst-2 L=_x-1/_x-1,
13:u:Lst-2 X=P/,,
11:u:Pre-1 X=J,
11:u:Suf-1 X=,,
14:u:Suf-2 L=_x-1,
14:u:Cap-1 L=_x-1,
17:u:Cap-1 X=initial,
16:u:Cap-1 R=single,
22:u:Cap-2 L=_x-1/initial,
22:u:Cap-3 L=_x-1/initial,
14:*:Num-1 L=_x-1,
14:*:Num-1 X=none,
19:u:Num-2 R=none/none,
19:u:Num-2 R=none/weak,
11:u:Nme-1 X=F,
11:u:Loc-1 X=F,
11:u:Pub-1 X=F,
11:u:Jnl-1 X=F,
14:u:Key-1 L=_x-1,
14:u:Key-1 X=none,
14:u:Key-1 R=none,
22:u:Key-2 X=none/initial,
19:u:Key-3 L=_x-1/none,
19:u:Key-3 x=none/weak,
15:u:Pos-1 X=first,
20:u:Pos-2 L=_x-1/first,
17:u:Pos-2 R=first/0,
14:u:Pct-1 L=_x-1,
15:u:Pct-1 X=other,
16:u:Pct-1 R=period,
14:u:Brk-1 L=_x-1,
14:u:Brk-1 X=none,
14:u:Brk-1 R=none,
14:*:Tmn-1 L=_x-1,
14:u:Tmn-1 X=weak,
16:u:Tmn-1 R=strong,
19:u:Tmn-2 R=weak/none,
16:u:Tmn-3 X=weak/,,
11:u:Id--1 X=F,
11:u:Fst-1 R=N,
14:u:Fst-2 X=Lu/D,
13:u:Fst-2 R=N/1,
11:*:Lst-1 L=P,
13:u:Lst-2 L=P/,,
13:u:Lst-2 X=P/.,
11:u:Pre-1 X=D,
12:u:Pre-2 R=19,
11:u:Suf-1 X=.,
17:u:Cap-1 L=initial,
16:u:Cap-1 X=single,
15:u:Cap-1 R=other,
14:*:Num-1 L=none,
15:*:Num-1 X=roman,
14:u:Num-1 R=year,
20:u:Num-2 R=roman/none,
14:u:Key-1 L=none,
21:u:Key-2 X=none/single,
19:u:Key-3 L=weak/none,
21:u:Key-3 x=none/strong,
11:u:Pos-1 X=0,
15:u:Pct-1 L=other,
16:u:Pct-1 X=period,
14:u:Pct-1 R=none,
14:u:Brk-1 L=none,
14:*:Tmn-1 L=weak,
16:u:Tmn-1 X=strong,
14:u:Tmn-1 R=none,
21:u:Tmn-2 L=none/strong,
21:u:Tmn-2 R=strong/none,
18:u:Tmn-3 X=strong/.,
22:u:Tmn-4 R=strong/other,
12:u:tok-1RR=of,
11:*:Fst-1 X=N,
13:u:Fst-2 X=N/1,
14:u:Fst-2 R=Lu/P,
11:u:Lst-1 X=N,
13:u:Lst-2 L=P/.,
11:u:Pre-1 X=1,
12:u:Pre-2 X=19,
12:u:Pre-2 R=Pr,
16:u:Cap-1 L=single,
15:u:Cap-1 X=other,
17:u:Cap-1 R=initial,
23:u:Cap-2 R=other/initial,
22:u:Cap-3 L=strong/other,
14:*:Num-1 X=year,
14:u:Num-1 R=none,
19:u:Num-2 R=year/none,
20:u:Key-2 X=none/other,
21:u:Key-3 L=strong/none,
19:u:Key-3 x=none/none,
11:u:Pos-1 X=1,
16:u:Pct-1 L=period,
14:u:Pct-1 X=none,
16:*:Tmn-1 L=strong,
14:u:Tmn-1 X=none,
19:u:Tmn-2 L=none/none,
19:u:Tmn-2 R=none/none,
22:u:Tmn-4 R=none/initial,
12:u:tok-1 R=of,
12:u:Fst-1 R=Ll,
14:u:Fst-2 X=Lu/P,
14:u:Fst-2 R=Ll/o,
11:*:Lst-1 L=N,
12:u:Lst-1 X=Ll,
14:u:Lst-2 X=Ll/e,
11:u:Pre-1 X=P,
12:u:Pre-2 X=Pr,
12:u:Pre-2 R=of,
11:u:Suf-1 X=e,
12:u:Suf-2 X=ce,
15:u:Cap-1 L=other,
15:u:Cap-1 R=lower,
23:u:Cap-2 L=other/initial,
23:u:Cap-2 R=initial/lower,
22:u:Cap-3 L=none/initial,
14:*:Num-1 L=year,
11:u:Jnl-1 X=T,
19:u:Key-3 L=none/none,
14:u:Pct-1 L=none,
14:*:Tmn-1 L=none,
16:u:Tmn-3 X=none/e,
20:u:Tmn-4 R=none/lower,
12:u:Tok-1 X=of,
12:u:tok-1 X=of,
12:*:Fst-1 X=Ll,
14:u:Fst-2 X=Ll/o,
14:u:Fst-2 R=Ll/t,
12:*:Lst-1 L=Ll,
14:u:Lst-2 L=Ll/e,
14:u:Lst-2 X=Ll/f,
11:u:Pre-1 X=o,
12:u:Pre-2 X=of,
11:u:Suf-1 X=f,
12:u:Suf-2 L=ce,
12:u:Suf-2 X=of,
15:u:Cap-1 X=lower,
23:u:Cap-2 L=initial/lower,
21:u:Cap-2 R=lower/lower,
20:u:Cap-3 L=none/lower,
20:u:Key-2 X=none/lower,
16:u:Tmn-3 X=none/f,
12:u:tok-1 L=of,
14:u:Fst-2 X=Ll/t,
14:u:Fst-2 R=Lu/J,
14:u:Lst-2 L=Ll/f,
14:u:Lst-2 X=Ll/d,
11:u:Pre-1 X=t,
12:u:Pre-2 R=Ja,
11:u:Suf-1 X=d,
12:u:Suf-2 L=of,
12:u:Suf-2 X=ed,
15:u:Cap-1 L=lower,
21:u:Cap-2 L=lower/lower,
23:u:Cap-2 R=lower/initial,
11:u:Pos-1 X=2,
13:u:Pos-2 R=2/2,
16:u:Tmn-3 X=none/d,
12:u:tok-1LL=of,
12:u:Fst-1 R=Ps,
14:u:Fst-2 R=Ps/(,
14:u:Lst-2 L=Ll/d,
12:u:Suf-2 L=ed,
23:u:Cap-2 L=lower/initial,
25:u:Cap-2 R=initial/initial,
13:u:Pos-2 L=2/2,
15:u:Pct-1 R=other,
23:u:Brk-1 R=opening-paren,
14:u:Tmn-1 R=weak,
12:*:Fst-1 X=Ps,
14:u:Fst-2 X=Ps/(,
14:u:Fst-2 R=Lu/A,
11:u:Pre-1 X=(,
25:u:Cap-2 L=initial/initial,
28:u:Num-2 R=none/opening-paren,
23:u:Brk-1 X=opening-paren,
19:u:Tmn-2 L=none/weak,
22:u:Tmn-4 R=weak/initial,
12:u:tok-1RR=in,
14:u:Fst-2 X=Lu/A,
11:u:Pre-1 X=A,
22:u:Cap-3 L=weak/initial,
11:u:Pos-1 X=3,
13:u:Pos-2 R=3/3,
23:u:Brk-1 L=opening-paren,
23:u:Brk-1 R=closing-paren,
12:u:tok-1 R=in,
14:u:Fst-2 R=Ll/i,
12:u:Lst-1 X=Pe,
14:u:Lst-2 X=Pe/),
12:u:Pre-2 R=in,
11:u:Suf-1 X=),
12:u:Suf-2 X=a),
28:u:Num-2 R=none/closing-paren,
21:u:Num-2 R=none/strong,
12:u:Key-1 R=in,
13:u:Pos-2 L=3/3,
23:u:Brk-1 X=closing-paren,
18:u:Tmn-3 X=strong/),
12:u:Tok-1 X=in,
12:u:tok-1 X=in,
14:u:Fst-2 X=Ll/i,
14:u:Fst-2 R=Ll/a,
12:*:Lst-1 L=Pe,
14:u:Lst-2 L=Pe/),
14:u:Lst-2 X=Ll/n,
11:u:Pre-1 X=i,
12:u:Pre-2 X=in,
12:u:Pre-2 R=an,
11:u:Suf-1 X=n,
12:u:Suf-2 X=in,
22:u:Cap-3 L=strong/lower,
12:u:Key-1 X=in,
18:u:Key-2 X=in/lower,
17:u:Key-3 x=in/none,
23:u:Brk-1 L=closing-paren,
16:u:Tmn-3 X=none/n,
12:u:tok-1 L=in,
14:u:Fst-2 X=Ll/a,
14:u:Lst-2 L=Ll/n,
11:u:Pre-1 X=a,
12:u:Pre-2 X=an,
12:u:Suf-2 L=in,
12:u:Suf-2 X=ne,
12:u:Key-1 L=in,
13:u:Pos-2 R=3/4,
17:u:Tmn-2 L=in/none,
12:u:tok-1LL=in,
13:u:tok-1RR=the,
14:u:Fst-2 X=Ll/c,
14:u:Lst-2 X=Ll/s,
11:u:Pre-1 X=c,
11:u:Suf-1 X=s,
12:u:Suf-2 L=ne,
12:u:Suf-2 X=es,
11:u:Nme-1 X=T,
11:u:Pos-1 X=4,
13:u:Pos-2 L=3/4,
13:u:Pos-2 R=4/4,
16:u:Tmn-3 X=none/s,
13:u:tok-1 R=the,
16:u:tok-2 R=of/the,
14:u:Lst-2 L=Ll/s,
12:u:Pre-2 R=th,
12:u:Suf-2 L=es,
13:u:Pos-2 L=4/4,
13:u:Tok-1 X=the,
13:u:tok-1 X=the,
16:u:tok-2 L=of/the,
14:u:Fst-2 R=Lu/B,
12:u:Pre-2 X=th,
12:u:Suf-2 X=he,
11:u:Pub-1 X=T,
13:u:Pos-2 R=4/5,
13:u:tok-1 L=the,
14:u:Fst-2 X=Lu/B,
14:u:Fst-2 R=Lu/I,
14:u:Lst-2 X=Ll/c,
11:u:Pre-1 X=B,
12:u:Pre-2 X=Ba,
11:u:Suf-1 X=c,
12:u:Suf-2 L=he,
12:u:Suf-2 X=ic,
11:u:Pos-1 X=5,
13:u:Pos-2 L=4/5,
13:u:Pos-2 R=5/5,
16:u:Tmn-3 X=none/c,
13:u:tok-1LL=the,
14:u:Fst-2 X=Lu/I,
14:u:Lst-2 L=Ll/c,
11:u:Pre-1 X=I,
12:u:Pre-2 X=Is,
12:u:Suf-2 X=ds,
13:u:Pos-2 L=5/5,
23:u:tok-1 X=mediterranean,
14:u:Fst-2 R=Ll/d,
12:u:Pre-2 R=de,
13:u:Pos-2 R=5/6,
20:u:Tmn-4 R=weak/lower,
14:u:Fst-2 X=Ll/d,
11:u:Pre-1 X=d,
12:u:Pre-2 X=de,
12:u:Suf-2 X=on,
11:u:Pos-1 X=6,
13:u:Pos-2 L=5/6,
13:u:Pos-2 R=6/6,
16:u:Brk-1 L=parens,
14:u:Fst-2 R=Lu/T,
12:u:Suf-2 L=on,
13:u:Pos-2 L=6/6,
14:u:Fst-2 X=Lu/T,
11:u:Pre-1 X=T,
12:u:Suf-2 X=is,
13:u:Pos-2 R=6/7,
14:u:Fst-2 R=Ll/n,
14:u:Lst-2 X=Ll/i,
11:u:Suf-1 X=i,
11:u:Pos-1 X=7,
13:u:Pos-2 L=6/7,
13:u:Pos-2 R=7/7,
16:u:Tmn-3 X=none/i,
14:u:Fst-2 X=Ll/n,
14:u:Fst-2 R=Ll/g,
11:u:Pre-1 X=n,
12:u:Suf-2 X=n.,
16:u:Key-1 X=volume,
22:u:Key-2 X=volume/lower,
13:u:Pos-2 L=7/7,
14:u:Fst-2 X=Ll/g,
11:u:Pre-1 X=g,
13:u:Pos-2 R=7/8,
14:u:Fst-2 R=Ll/s,
11:u:Pos-1 X=8,
13:u:Pos-2 L=7/8,
13:u:Pos-2 R=8/8,
14:u:Fst-2 X=Ll/s,
14:u:Fst-2 R=Lu/C,
11:u:Pre-1 X=s,
12:u:Pre-2 R=Co,
13:u:Pos-2 L=8/8,
24:u:Tmn-4 R=strong/initial,
14:u:Fst-2 X=Lu/C,
11:u:Pre-1 X=C,
12:u:Pre-2 X=Co,
12:u:Suf-2 X=ns,
24:u:Cap-3 L=strong/initial,
14:u:Fst-2 R=Lu/Z,
14:u:Lst-2 X=Ll/o,
12:u:Pre-2 R=Zo,
11:u:Suf-1 X=o,
12:u:Suf-2 L=ns,
13:u:Pos-2 R=8/9,
16:u:Tmn-3 X=none/o,
12:u:tok-1 L=to,
11:u:tok-1RR=3,
14:u:Fst-2 X=Lu/Z,
13:u:Fst-2 R=N/6,
14:u:Lst-2 X=Ll/y,
11:u:Pre-1 X=Z,
12:u:Pre-2 X=Zo,
11:u:Suf-1 X=y,
12:u:Suf-2 L=to,
12:u:Suf-2 X=gy,
23:u:Cap-2 R=initial/other,
16:u:Num-1 R=double,
11:u:Pos-1 X=9,
13:u:Pos-2 L=8/9,
13:u:Pos-2 R=9/9,
16:u:Tmn-3 X=none/y,
20:u:Tmn-4 R=none/other,
12:u:tok-1LL=to,
13:u:Fst-2 R=N/3,
14:u:Lst-2 L=Ll/y,
12:u:Suf-2 L=gy,
23:u:Cap-2 L=initial/other,
21:u:Cap-2 R=other/other,
20:u:Cap-3 L=none/other,
16:*:Num-1 X=double,
21:u:Num-2 R=double/none,
13:u:Pos-2 L=9/9,
14:u:tok-1RR=_x+1,
21:u:Cap-2 L=other/other,
16:*:Num-1 L=double,
16:*:Num-1 X=single,
15:u:Num-1 R=range,
21:u:Num-2 R=single/none,
16:u:Pos-2 R=9/last,
16:u:Pct-1 R=hyphen,
14:u:tok-1 R=_x+1,
14:u:tok-1RR=_x+2,
14:u:Fst-1 R=_x+1,
19:u:Fst-2 R=_x+1/_x+1,
14:u:Pre-2 R=_x+1,
14:u:Cap-1 R=_x+1,
20:u:Cap-2 R=other/_x+1,
16:*:Num-1 L=single,
15:*:Num-1 X=range,
14:u:Num-1 R=_x+1,
20:u:Num-2 R=range/none,
14:u:Key-1 R=_x+1,
14:u:Pos-1 X=last,
16:u:Pos-2 L=9/last,
19:u:Pos-2 R=last/_x+1,
16:u:Pct-1 X=hyphen,
14:u:Pct-1 R=_x+1,
14:u:Brk-1 R=_x+1,
14:u:Tmn-1 R=_x+1,
19:u:Tmn-2 R=none/_x+1,
19:u:Tmn-4 R=none/_x+1,
12:u:Tok-1 X=De,
12:u:tok-1 X=de,
12:u:Pre-2 X=De,
12:u:Suf-2 X=De,
12:u:Pre-2 X=Br,
14:u:Fst-2 R=Lu/R,
24:u:Cap-2 R=single/initial,
14:u:Fst-2 X=Lu/R,
14:u:Fst-2 R=Lu/M,
11:u:Pre-1 X=R,
24:u:Cap-2 L=single/initial,
14:u:Fst-2 X=Lu/M,
11:u:Pre-1 X=M,
14:u:Fst-2 R=Lu/F,
14:u:Fst-2 X=Lu/F,
13:u:Lst-2 L=N/9,
14:u:Lst-2 X=Ll/l,
11:u:Pre-1 X=F,
11:u:Suf-1 X=l,
12:u:Suf-2 L=99,
12:u:Suf-2 X=al,
16:u:Tmn-3 X=none/l,
14:u:Lst-2 L=Ll/l,
12:u:Suf-2 L=al,
14:u:Fst-2 R=Ll/b,
14:u:Fst-2 X=Ll/b,
11:u:Pre-1 X=b,
12:u:Pre-2 X=(C,
12:u:Pre-2 R=Ma,
12:u:Pre-2 X=Ma,
12:u:Pre-2 R=re,
12:u:Suf-2 X=an,
14:u:Fst-2 X=Ll/r,
11:u:Pre-1 X=r,
12:u:Suf-2 L=an,
12:u:Pre-2 R=An,
19:u:Tok-1 X=Antarctic,
19:u:tok-1 X=antarctic,
12:u:Suf-2 X=ry,
16:u:tok-1RR=marina,
14:u:Fst-2 R=Lu/S,
12:u:Pre-2 R=Sc,
12:u:Suf-2 L=ry,
16:u:tok-1 R=marina,
14:u:Fst-2 X=Lu/S,
14:u:Lst-2 X=Ll/a,
11:u:Pre-1 X=S,
12:u:Pre-2 X=Sc,
11:u:Suf-1 X=a,
12:u:Suf-2 X=ia,
16:u:Tmn-3 X=none/a,
11:u:tok-1RR=1,
14:u:Lst-2 L=Ll/a,
12:u:Suf-2 L=ia,
12:u:Suf-2 X=na,
11:u:Loc-1 X=T,
12:u:Suf-2 L=na,
13:u:Fst-2 R=N/2,
13:u:Lst-2 X=N/1,
11:u:Suf-1 X=1,
16:u:Tmn-3 X=none/1,
13:u:Lst-2 L=N/1,
11:u:tok-1 X=j,
12:u:Pre-2 X=J.,
14:u:Fst-2 R=Lu/E,
14:u:Fst-2 X=Lu/E,
11:u:Pre-1 X=E,
15:u:tok-1RR=fauna,
12:u:Pre-2 R=In,
14:u:Fst-2 R=Ll/f,
12:u:Pre-2 X=In,
15:u:tok-1 X=fauna,
14:u:Fst-2 X=Ll/f,
11:u:Pre-1 X=f,
15:u:tok-1 L=fauna,
15:u:tok-1LL=fauna,
15:u:Pct-1 R=colon,
18:u:Tmn-1 R=moderate,
13:u:Lst-2 X=P/:,
11:u:Suf-1 X=:,
23:u:Num-2 R=none/moderate,
23:u:Key-3 x=none/moderate,
15:u:Pct-1 X=colon,
18:u:Tmn-1 X=moderate,
23:u:Tmn-2 L=none/moderate,
23:u:Tmn-2 R=moderate/none,
20:u:Tmn-3 X=moderate/:,
26:u:Tmn-4 R=moderate/initial,
11:u:Id--1 X=T,
13:u:Lst-2 L=P/:,
26:u:Cap-3 L=moderate/initial,
23:u:Key-3 L=moderate/none,
15:u:Pct-1 L=colon,
18:*:Tmn-1 L=moderate,
12:u:Suf-2 L=e),
12:u:Pre-2 X=10,
15:*:Num-1 L=range,
16:u:Pct-1 L=hyphen,
12:u:tok-1 R=de,
14:u:Lst-2 X=Ll/r,
12:u:Pre-2 X=Ri,
11:u:Suf-1 X=r,
16:u:Tmn-3 X=none/r,
12:u:Tok-1 X=de,
14:u:Lst-2 L=Ll/r,
12:u:Pre-2 R=Fo,
12:u:Suf-2 X=de,
12:u:Pre-2 X=Fo,
12:u:Suf-2 L=de,
19:u:tok-1RR=campagnes,
19:u:tok-1 R=campagnes,
12:u:Pre-2 R=Ca,
19:u:Tok-1 X=Campagnes,
19:u:tok-1 X=campagnes,
12:u:tok-1RR=de,
12:u:Pre-2 X=Ca,
19:u:tok-1 L=campagnes,
19:u:tok-1LL=campagnes,
12:u:tok-1 R=la,
12:u:tok-1 X=la,
12:u:Suf-2 L=le,
14:u:Key-1 R=date,
12:u:Pre-2 X=ma,
21:u:Cap-2 R=lower/other,
14:u:Key-1 X=date,
19:u:Key-3 x=date/none,
21:u:Cap-2 L=lower/other,
21:u:Cap-2 R=other/lower,
14:u:Key-1 L=date,
12:u:Suf-2 X=ue,
14:u:Fst-2 R=Lu/N,
13:u:tok-1RR=des,
14:u:Fst-2 X=Lu/N,
11:u:Pre-1 X=N,
13:u:tok-1 R=des,
14:u:Fst-2 X=Lu/L,
11:u:Pre-1 X=L,
13:u:Tok-1 X=des,
13:u:tok-1 X=des,
20:u:tok-1RR=résultats,
20:u:tok-1 R=résultats,
13:u:Pre-2 R=Ré,
20:u:Tok-1 X=Résultats,
19:u:tok-1 X=resultats,
24:u:tok-2 R=résultats/des,
13:u:Pre-2 X=Ré,
12:u:Suf-2 X=ts,
20:u:tok-1 L=résultats,
19:u:tok-1RR=musorstom,
24:u:tok-2 L=résultats/des,
23:u:tok-2 R=des/campagnes,
12:u:Suf-2 L=ts,
23:u:tok-2 L=des/campagnes,
14:u:Cap-1 R=caps,
22:u:Cap-2 R=initial/caps,
19:u:Tmn-4 R=none/caps,
19:u:tok-1 X=musorstom,
19:u:tok-1RR=mémoires,
12:u:Lst-1 X=Lu,
14:u:Cap-1 X=caps,
22:u:Cap-2 L=initial/caps,
20:u:Cap-2 R=caps/other,
19:u:Cap-3 L=none/caps,
19:u:Key-2 X=none/caps,
19:u:tok-1 L=musorstom,
19:u:tok-1 R=mémoires,
12:u:tok-1RR=du,
12:*:Lst-1 L=Lu,
14:u:Lst-2 L=Lu/M,
13:u:Pre-2 R=Mé,
12:u:Suf-2 L=OM,
14:u:Cap-1 L=caps,
19:u:Tok-1 X=Mémoires,
18:u:tok-1 X=memoires,
19:u:tok-1LL=musorstom,
12:u:tok-1 R=du,
17:u:tok-1RR=muséum,
22:u:tok-2 R=mémoires/du,
13:u:Pre-2 X=Mé,
12:u:Pre-2 R=du,
19:u:tok-1 L=mémoires,
17:u:tok-1 R=muséum,
18:u:tok-1RR=national,
12:u:Pre-2 R=Mu,
14:u:Lst-2 X=Ll/m,
11:u:Suf-1 X=m,
16:u:Tmn-3 X=none/m,
14:u:Lst-2 L=Ll/m,
12:u:Suf-2 X=re,
12:u:Suf-2 L=re,
20:u:tok-1LL=d'histoire,
12:u:Suf-2 X=ie,
12:u:Suf-2 L=ie,
16:u:Num-1 R=triple,
12:u:Pre-2 R=27,
16:*:Num-1 X=triple,
21:u:Num-2 R=triple/none,
12:u:Pos-1 X=10,
14:u:Pos-2 L=9/10,
16:*:Num-1 L=triple,
17:u:Pos-2 L=10/last,
14:u:Fst-2 X=Lu/V,
11:u:Pre-1 X=V,
12:u:Pre-2 R=Me,
12:u:Pre-2 X=Me,
12:u:Pre-2 R=Ag,
12:u:Pre-2 X=Ag,
17:u:Tmn-2 R=none/in,
12:u:Pre-2 R=se,
12:u:Pre-2 X=se,
16:u:tok-1RR=marine,
12:u:Pre-2 R=Se,
13:u:Tok-1 X=Sea,
13:u:tok-1 X=sea,
12:u:Pre-2 X=Se,
12:u:Suf-2 X=ea,
16:u:tok-1 X=marine,
13:u:tok-1 L=sea,
12:u:Suf-2 L=ea,
12:u:Pre-2 R=Bu,
17:u:Key-1 R=journal,
22:u:Tmn-2 R=none/journal,
18:u:Tok-1 X=Bulletin,
18:u:tok-1 X=bulletin,
12:u:Pre-2 X=Bu,
17:u:Key-1 X=journal,
25:u:Key-2 X=journal/initial,
22:u:Key-3 L=none/journal,
22:u:Key-3 x=journal/none,
18:u:tok-1 L=bulletin,
17:u:Key-1 L=journal,
22:u:Tmn-2 L=journal/none,
18:u:tok-1LL=bulletin,
12:u:tok-1LL=30,
14:u:Fst-2 R=Lu/W,
14:u:Fst-2 X=Lu/W,
11:u:Pre-1 X=W,
11:u:Fst-1 R=S,
11:*:Fst-1 X=S,
13:u:tok-1 X=new,
13:u:tok-1RR=and,
14:u:Lst-2 X=Ll/w,
11:u:Suf-1 X=w,
12:u:Suf-2 X=ew,
16:u:Tmn-3 X=none/w,
13:u:tok-1 L=new,
13:u:tok-1 R=and,
14:u:Lst-2 L=Ll/w,
12:u:Suf-2 L=ew,
12:u:Suf-2 X=us,
13:u:Key-1 R=and,
18:u:Tmn-2 R=none/and,
13:u:Tok-1 X=and,
13:u:tok-1 X=and,
13:u:tok-1LL=new,
12:u:Suf-2 L=us,
12:u:Suf-2 X=nd,
13:u:Key-1 X=and,
19:u:Key-2 X=and/lower,
18:u:Key-3 L=none/and,
18:u:Key-3 x=and/none,
13:u:tok-1 L=and,
11:u:tok-1RR=a,
12:u:Suf-2 L=nd,
13:u:Key-1 L=and,
13:u:tok-1LL=and,
11:u:tok-1 R=a,
11:u:Pre-2 R=a,
11:u:Tok-1 X=a,
11:u:Pre-2 X=a,
11:u:Suf-2 X=a,
18:u:Tmn-2 L=and/none,
11:u:tok-1 L=a,
11:u:Suf-2 L=a,
11:u:tok-1LL=a,
14:u:Fst-2 R=Ll/p,
14:u:Lst-2 X=Ll/h,
11:u:Suf-1 X=h,
12:u:Suf-2 X=th,
16:u:Tmn-3 X=none/h,
14:u:Fst-2 X=Ll/p,
14:u:Lst-2 L=Ll/h,
11:u:Pre-1 X=p,
12:u:Suf-2 L=th,
15:u:tok-1RR=biol.,
15:u:Tok-1 X=Proc.,
14:u:tok-1 X=proc,
12:u:Pre-2 R=Bi,
12:u:Suf-2 X=c.,
12:u:Pre-2 X=Bi,
12:u:Pre-2 R=So,
12:u:Suf-2 X=l.,
12:u:Suf-2 L=l.,
12:u:Pre-2 X=Wa,
12:u:Suf-2 X=h.,
14:u:Tok-1 X=1998,
14:u:tok-1 X=1998,
14:u:Fst-2 R=Lu/O,
12:u:Suf-2 X=98,
14:u:tok-1 L=1998,
14:u:Fst-2 X=Lu/O,
13:u:Lst-2 L=N/8,
11:u:Pre-1 X=O,
12:u:Suf-2 L=98,
14:u:tok-1LL=1998,
12:u:Suf-2 X=om,
14:u:tok-1 L=from,
14:u:tok-1LL=from,
12:u:Pre-2 R=St,
12:u:tok-1 R=40,
13:u:Fst-2 R=N/4,
12:u:Pre-2 R=40,
13:u:Fst-2 X=N/4,
11:u:Pre-1 X=4,
12:u:Pre-2 X=Mi,
12:u:Pre-2 X=Pa,
12:u:Suf-2 L=a,,
12:u:Pre-2 R=Bo,
20:u:Tok-1 X=Bollettino,
20:u:tok-1 X=bollettino,
22:u:tok-1 R=malacologico,
33:u:tok-2 R=bollettino/malacologico,
12:u:Pre-2 X=Bo,
12:u:Suf-2 X=no,
14:u:Fst-2 X=Lu/H,
11:u:Pre-1 X=H,
22:u:Cap-2 R=caps/initial,
20:u:Tmn-2 L=and/strong,
22:u:Cap-2 L=caps/initial,
12:u:Pre-2 R=Be,
12:u:Pre-2 X=Be,
12:u:tok-1RR=27,
13:u:Lst-2 L=N/7,
14:u:Lst-2 X=Ll/t,
12:u:Pre-2 X=Sa,
12:u:Pre-2 R=La,
11:u:Suf-1 X=t,
12:u:Suf-2 X=nt,
16:u:Tmn-3 X=none/t,
14:u:Lst-2 L=Ll/t,
12:u:Pre-2 X=La,
12:u:Suf-2 L=nt,
12:u:Tok-1 X=J.,
12:u:Suf-2 X=J.,
12:u:Suf-2 X=a:,
12:u:Suf-2 L=a:,
12:u:Suf-2 X=st,
12:u:Suf-2 L=st,
12:u:Suf-2 X=da,
12:u:Suf-2 L=da,
20:u:Tmn-4 R=weak/other,
20:u:Cap-3 L=weak/other,
12:u:Pre-2 R=De,
12:u:Suf-2 X=).,
12:u:Suf-2 L=).,
12:u:Pre-2 R=Ce,
11:*:Lst-1 L=S,
17:u:tok-1 X=pacific,
17:u:tok-1RR=journal,
17:u:tok-1 R=journal,
12:u:Pre-2 R=Jo,
24:u:Tmn-2 R=strong/journal,
16:u:tok-1RR=united,
16:u:tok-1 R=united,
20:u:tok-2 R=the/united,
14:u:Fst-2 R=Lu/U,
12:u:Pre-2 R=Un,
16:u:Tok-1 X=United,
16:u:tok-1 X=united,
20:u:tok-2 L=the/united,
14:u:Fst-2 X=Lu/U,
14:u:Fst-2 R=Lu/K,
11:u:Pre-1 X=U,
12:u:Pre-2 X=Un,
16:u:tok-1 L=united,
12:u:Pre-2 R=Ka,
12:u:Pre-2 X=Ka,
12:u:Pre-2 R=Th,
13:u:Tok-1 X=The,
12:u:Pre-2 X=Th,
17:u:Num-1 R=numeric,
14:u:tok-1 L=part,
17:*:Num-1 X=numeric,
22:u:Num-2 R=numeric/none,
14:u:tok-1LL=part,
17:*:Num-1 L=numeric,
12:u:Suf-2 X=),,
18:u:Tmn-3 X=strong/,,
19:u:tok-1 X=linstitut,
12:u:Pre-2 R=Oc,
12:u:Pre-2 X=Oc,
12:u:Suf-2 L=ut,
19:u:Cap-3 L=weak/caps,
12:u:Pre-2 X=Ke,
12:u:Suf-2 L=y,,
12:u:Pre-2 R=is,
12:u:Pre-2 X=is,
23:u:Key-3 L=strong/volume,
24:u:Num-2 R=numeric/strong,
12:u:Suf-2 X=et,
12:u:Suf-2 X=rs,
12:u:Suf-2 L=rs,
12:u:Pre-2 R=Fr,
12:u:Suf-2 X=ch,
15:u:tok-1 L=north,
12:u:Pre-2 R=Mi,
14:u:tok-1RR=cah.,
32:u:Brk-1 R=closing-square-bracket,
14:u:tok-1 R=cah.,
14:u:Lst-2 X=Pe/],
11:u:Suf-1 X=],
37:u:Num-2 R=none/closing-square-bracket,
32:u:Brk-1 X=closing-square-bracket,
18:u:Tmn-3 X=strong/],
14:u:Tok-1 X=Cah.,
13:u:tok-1 X=cah,
20:u:tok-2 R=cah./biol.,
12:u:Pre-2 R=H.,
12:u:Pre-2 X=H.,
23:u:Tok-1 X=Mediterranean,
13:u:Fst-2 R=N/9,
12:u:Suf-2 L=en,
12:u:Pre-2 R=Hy,
14:u:Lst-2 X=Ll/g,
11:u:Suf-1 X=g,
16:u:Tmn-3 X=none/g,
14:u:Lst-2 L=Ll/g,
19:u:tok-1LL=estuarine,
21:u:tok-1RR=netherlands,
21:u:tok-1 R=netherlands,
12:u:Pre-2 R=Ne,
21:u:Tok-1 X=Netherlands,
21:u:tok-1 X=netherlands,
29:u:tok-2 R=netherlands/journal,
12:u:Pre-2 X=Ne,
17:u:tok-1RR=ecology,
12:u:Pre-2 X=Ec,
17:u:tok-1LL=aquatic,
17:u:tok-1 L=ecology,
17:u:tok-1LL=ecology,
15:u:tok-1 L=coast,
16:u:Key-1 R=series,
21:u:Tmn-2 R=none/series,
16:u:Key-1 X=series,
21:u:Key-3 L=none/series,
12:u:Pre-2 R=Na,
16:u:Key-1 L=series,
12:u:Pre-2 X=Na,
13:u:tok-1 X=van,
13:u:tok-1 L=van,
12:u:Pre-2 R=Re,
12:u:Suf-2 X=a.,
16:u:Key-1 L=editor,
21:u:Tmn-2 L=editor/none,
12:u:Suf-2 L=ck,
17:u:tok-1RR=british,
17:u:tok-1 R=british,
16:u:tok-1RR=museum,
12:u:Suf-2 X=sh,
17:u:tok-1 L=british,
12:u:Suf-2 L=sh,
17:u:tok-1LL=british,
16:u:tok-1LL=museum,
13:u:tok-1RR=for,
13:u:tok-1 R=for,
12:u:Pre-2 R=fo,
13:u:Tok-1 X=for,
13:u:tok-1 X=for,
12:u:Pre-2 X=fo,
12:u:Suf-2 X=or,
13:u:tok-1 L=for,
12:u:Suf-2 L=or,
13:u:tok-1LL=for,
12:u:Pre-2 R=Sy,
26:u:tok-2 L=species/synopses,
12:u:Pre-2 X=Sy,
14:u:tok-1RR=(new,
23:u:tok-2 R=british/fauna,
14:u:tok-1 R=(new,
18:u:tok-1RR=series),,
23:u:tok-2 L=british/fauna,
20:u:tok-2 R=fauna/(new,
12:u:Pre-2 R=(n,
14:u:Tok-1 X=(new,
18:u:tok-1 R=series),,
13:u:tok-1RR=48.,
20:u:tok-2 L=fauna/(new,
23:u:tok-2 R=(new/series),,
12:u:Pre-2 X=(n,
18:u:Tok-1 X=series),,
14:u:tok-1 L=(new,
13:u:tok-1 R=48.,
15:u:tok-1RR=field,
23:u:tok-2 L=(new/series),,
22:u:tok-2 R=series),/48.,
12:u:Pre-2 R=48,
22:u:Key-2 X=series/lower,
13:u:Tok-1 X=48.,
12:u:tok-1 X=48,
14:u:tok-1LL=(new,
18:u:tok-1 L=series),,
15:u:tok-1 R=field,
22:u:tok-2 L=series),/48.,
19:u:tok-2 R=48./field,
12:u:Pre-2 X=48,
12:u:Suf-2 X=8.,
23:u:Tmn-2 L=series/strong,
12:u:Suf-2 X=ld,
12:u:tok-1 X=uk,
12:u:Pre-2 X=UK,
21:u:Cap-3 L=strong/caps,
14:u:Lst-2 L=Lu/N,
19:u:Num-2 R=isbn/none,
14:*:Num-1 L=isbn,
12:u:Suf-2 X=n:,
12:u:Suf-2 L=n:,
12:u:Pre-2 R=Ac,
14:u:Lst-2 L=Lu/A,
12:u:tok-1RR=an,
13:u:Tok-1 X=In:,
20:u:Key-2 X=in/initial,
21:u:Key-3 x=in/moderate,
13:u:tok-1 L=in:,
17:u:Tmn-2 L=in/weak,
13:u:tok-1LL=in:,
16:u:tok-1LL=origin,
21:u:tok-1RR=proceedings,
21:u:tok-1 R=proceedings,
21:u:Key-1 R=proceedings,
26:u:Tmn-2 R=none/proceedings,
21:u:Tok-1 X=Proceedings,
21:u:tok-1 X=proceedings,
24:u:tok-2 R=proceedings/of,
12:u:Suf-2 X=gs,
21:u:Key-1 X=proceedings,
29:u:Key-2 X=proceedings/initial,
26:u:Key-3 L=none/proceedings,
26:u:Key-3 x=proceedings/none,
21:u:tok-1 L=proceedings,
24:u:tok-2 L=proceedings/of,
12:u:Suf-2 L=gs,
21:u:Key-1 L=proceedings,
26:u:Tmn-2 L=proceedings/none,
21:u:tok-1LL=proceedings,
14:u:Fst-2 R=Ll/v,
14:u:Fst-2 X=Ll/v,
11:u:Pre-1 X=v,
14:u:tok-1RR=life,
12:u:Suf-2 X=s.,
12:u:Suf-2 L=s.,
17:u:Num-1 R=ordinal,
17:*:Num-1 X=ordinal,
17:*:Num-1 L=ordinal,
17:u:tok-2 R=and/the,
17:u:tok-2 L=and/the,
13:u:tok-1 R=het,
13:u:tok-1 X=het,
13:u:tok-1RR=van,
13:u:tok-1 R=van,
12:u:Pre-2 R=va,
13:u:Tok-1 X=van,
12:u:Pre-2 X=va,
12:u:Pre-2 R=he,
13:u:Tok-1 X=het,
12:u:Pre-2 X=he,
19:u:tok-1 R=strandvlo,
22:u:tok-2 R=de/strandvlo,
23:u:tok-1 R=hydrobiologia,
22:u:Tok-1 X=Mediterraneo,
22:u:tok-1 X=mediterraneo,
12:u:Suf-2 X=eo,
12:u:Pre-2 R=fi,
12:u:Pre-2 X=fi,
20:u:tok-1RR=conchiglia,
12:u:Tok-1 X=La,
20:u:tok-1 R=conchiglia,
23:u:tok-2 R=la/conchiglia,
12:u:Suf-2 X=La,
30:u:Tmn-2 R=moderate/proceedings,
30:u:Key-3 L=moderate/proceedings,
22:u:Num-2 R=ordinal/none,
16:u:tok-1LL=aquat.,
15:u:tok-1 L=ecol.,
17:u:tok-1 R=society,
27:u:tok-2 L=ecol./netherlands,
29:u:tok-2 R=netherlands/society,
15:u:tok-1LL=ecol.,
29:u:tok-2 L=netherlands/society,
20:u:Tok-1 X=Bilthoven,,
19:u:tok-1 X=bilthoven,
28:u:tok-2 L=ecology/bilthoven,,
24:u:tok-2 R=bilthoven,/the,
20:u:tok-1 L=bilthoven,,
24:u:tok-2 L=bilthoven,/the,
25:u:tok-2 R=the/netherlands,
15:u:Tok-1 X=Paris,
15:u:tok-1 X=paris,
13:u:Lst-2 L=P/?,
18:u:tok-1RR=research,
18:u:tok-1 R=research,
22:u:Key-2 X=date/initial,
12:u:Pre-2 X=Ou,
16:u:tok-1 R=fishes,
19:u:tok-1 L=naturelle,
12:u:Pre-2 R=Pu,
12:u:Pre-2 X=Pu,
22:u:tok-1 L=publications,
22:u:tok-1LL=publications,
16:u:tok-1 L=levant,
11:u:tok-1LL=-,
12:u:Suf-2 L=ss,
12:u:Pre-2 R=Or,
12:u:Pre-2 X=Or,
18:u:Tok-1 X=Outlook.,
17:u:tok-1 X=outlook,
17:u:tok-1 R=memoirs,
22:u:tok-2 L=and/outlook.,
26:u:tok-2 R=outlook./memoirs,
12:u:Suf-2 X=k.,
14:u:Fst-2 X=Lu/Q,
11:u:Pre-1 X=Q,
12:u:Pre-2 X=Qu,
15:u:tok-1 X=cdrom,
15:u:tok-1LL=world,
16:u:tok-1 R=cd-rom,
16:u:tok-1RR=center,
12:u:Pre-2 R=Ex,
16:u:tok-1 R=center,
12:u:Pre-2 X=Ex,
16:u:Tok-1 X=Center,
16:u:tok-1 X=center,
20:u:tok-2 R=center/for,
16:u:tok-1 L=center,
20:u:tok-2 L=center/for,
16:u:Tok-1 X=cd-rom,
24:u:tok-1LL=3-540-14706-3.,
18:u:tok-2 L=1/cd-rom,
21:u:tok-2 R=cd-rom/_x+1,
12:u:Pre-2 X=cd,
20:u:Cap-2 R=lower/_x+1,
12:u:Suf-2 X=hy,
12:u:Suf-2 L=hy,
12:u:Suf-2 X=ay,
18:u:tok-1 X=atlantic,
15:u:tok-1RR=inst.,
14:u:Tok-1 X=Mem.,
13:u:tok-1 X=mem,
18:u:tok-1LL=electron,
20:u:tok-1 L=microscopy,
15:u:tok-1 R=inst.,
17:u:tok-1RR=oswaldo,
25:u:tok-2 L=microscopy/mem.,
20:u:tok-2 R=mem./inst.,
12:u:Suf-2 L=py,
14:u:tok-1RR=food,
14:u:tok-1 R=food,
14:u:tok-1LL=food,
16:u:Tok-1 X=Berlin,
16:u:tok-1 X=berlin,
21:u:tok-1LL=temperature,
19:u:tok-1 L=oecologia,
26:u:tok-2 L=oecologia/berlin,
19:u:tok-2 R=berlin/94,
15:u:tok-1RR=morya,
12:u:Pre-2 R=Ek,
12:u:Suf-2 L=ya,
23:u:tok-1 R=international,
23:u:tok-1 X=international,
22:u:tok-1RR=parasitology,
12:u:tok-1RR=x,,
25:u:tok-2 L=naturelle/paris,
18:u:tok-2 R=paris/40,
19:u:tok-1 R=fisheries,
19:u:Tok-1 X=fisheries,
19:u:tok-1 X=fisheries,
19:u:tok-1 L=fisheries,
19:u:tok-1LL=fisheries,
17:u:tok-2 R=van/het,
17:u:tok-2 L=van/het,
22:u:tok-1 L=hyperbenthos,
22:u:tok-1LL=hyperbenthos,
13:u:Tok-1 X=BSc,
13:u:tok-1 X=bsc,
19:u:tok-1LL=belgische,
18:u:tok-1 L=oostkust,
17:u:tok-1 R=thesis.,
22:u:tok-1RR=universiteit,
22:u:tok-2 L=oostkust/bsc,
21:u:tok-2 R=bsc/thesis.,
12:u:Pre-2 X=BS,
12:u:Suf-2 X=Sc,
16:u:Key-1 R=thesis,
21:u:Tmn-2 R=none/thesis,
19:u:tok-1RR=instituut,
17:u:tok-1RR=council,
17:u:tok-1 R=council,
21:u:tok-1 L=exploration,
14:u:tok-1RR=sea),
24:u:tok-2 L=exploration/of,
21:u:tok-1LL=exploration,
14:u:tok-1 R=sea),
18:u:tok-2 R=the/sea),
14:u:Tok-1 X=Sea),
18:u:tok-2 L=the/sea),
13:u:tok-1LL=bay,
14:u:Tok-1 X=Sea.,
22:u:Tok-1 X=Oceanography,
22:u:tok-1 X=oceanography,
22:u:tok-1 L=oceanography,
22:u:tok-1LL=oceanography,
20:u:tok-1 X=conference,
20:u:tok-1 R=systematic,
16:u:tok-1 R=sarsia,
15:u:tok-1 L=kenya,
15:u:tok-1LL=kenya,
17:u:tok-1LL=copepod,
16:u:Tok-1 X=marine,
16:u:tok-1 R=ulster,
12:u:Pre-2 R=Ul,
21:u:tok-1RR=publication,
21:u:Tok-1 X=Publication,
21:u:tok-1 X=publication,
21:u:tok-1 L=publication,
25:u:tok-2 L=publication/the,
20:u:tok-2 R=the/ulster,
21:u:tok-1LL=publication,
18:u:tok-1RR=belfast,,
20:u:tok-2 L=the/ulster,
18:u:tok-1 R=belfast,,
12:u:tok-1RR=uk,
25:u:tok-2 R=museum/belfast,,
12:u:Tok-1 X=UK,
18:u:tok-1 L=belfast,,
13:u:tok-1 R=276,
13:u:tok-1RR=vi,,
21:u:tok-2 L=belfast,/uk,
16:u:tok-2 R=uk/276,
14:u:Lst-2 X=Lu/K,
11:u:Suf-1 X=K,
12:u:Suf-2 X=UK,
16:u:Tmn-3 X=none/K,
12:u:Suf-2 L='s,
18:u:tok-1 L=bahamas.,
27:u:tok-2 L=bahamas./bulletin,
18:u:tok-1LL=bahamas.,
15:u:tok-1LL=gazi,,
24:u:tok-2 L=kenya/bulletin,
22:u:tok-2 R=bulletin/van,
20:u:tok-1RR=koninklijk,
22:u:tok-2 L=bulletin/van,
20:u:tok-1 R=koninklijk,
18:u:tok-1RR=belgisch,
24:u:tok-2 R=het/koninklijk,
12:u:Pre-2 R=ko,
20:u:Tok-1 X=koninklijk,
20:u:tok-1 X=koninklijk,
18:u:tok-1 R=belgisch,
24:u:tok-2 L=het/koninklijk,
29:u:tok-2 R=koninklijk/belgisch,
12:u:Pre-2 X=ko,
12:u:Suf-2 X=jk,
17:u:tok-1 X=ophelia,
12:u:Pre-2 X=Op,
35:u:tok-2 L=hyperbenthos/oceanography,
26:u:tok-2 R=oceanography/and,
18:u:tok-1RR=biology:,
26:u:tok-2 L=oceanography/and,
20:u:tok-2 R=and/marine,
18:u:tok-1 R=biology:,
20:u:tok-2 L=and/marine,
25:u:tok-2 R=marine/biology:,
12:u:Pre-2 X=Cu,
12:u:Suf-2 X=ig,
12:u:Suf-2 L=ig,
25:u:Tok-1 X=Waterbouwkundig,
25:u:tok-1 X=waterbouwkundig,
19:u:tok-1LL=delft-fls,
16:u:tok-1 L=manual,
23:u:tok-1 R=laboratorium,,
15:u:tok-1RR=delft,
32:u:tok-2 L=manual/waterbouwkundig,
39:u:tok-2 R=waterbouwkundig/laboratorium,,
13:u:Pos-2 R=4/6,
23:u:Tok-1 X=Laboratorium,,
22:u:tok-1 X=laboratorium,
16:u:tok-1LL=manual,
25:u:tok-1 L=waterbouwkundig,
15:u:tok-1 R=delft,
20:u:tok-1RR=hydraulics,
39:u:tok-2 L=waterbouwkundig/laboratorium,,
29:u:tok-2 R=laboratorium,/delft,
13:u:Pos-2 L=4/6,
23:u:tok-1LL=laboratorium,,
25:u:tok-2 R=hydraulics/_x+1,
16:u:Pos-2 L=7/last,
15:u:tok-1 R=kaart,
15:u:tok-1 X=kaart,
29:u:Tok-1 X=Quartairgeologische,
29:u:tok-1 X=quartairgeologische,
24:u:tok-1 L=geraardsbergen,
20:u:tok-1RR=ministerie,
44:u:tok-2 L=geraardsbergen/quartairgeologische,
35:u:tok-2 R=quartairgeologische/kaart,
15:u:Tok-1 X=Kaart,
24:u:tok-1LL=geraardsbergen,
29:u:tok-1 L=quartairgeologische,
20:u:tok-1 R=ministerie,
35:u:tok-2 L=quartairgeologische/kaart,
26:u:tok-2 R=kaart/ministerie,
12:u:tok-1 R=wl,
11:u:tok-1RR=|,
23:u:tok-2 R=hydraulics/wl,
12:u:Pre-2 R=WL,
12:u:Tok-1 X=WL,
12:u:tok-1 X=wl,
15:u:tok-1LL=delft,
20:u:tok-1 L=hydraulics,
11:u:tok-1 R=|,
23:u:tok-2 L=hydraulics/wl,
14:u:tok-2 R=wl/|,
13:u:Fst-2 R=S/|,
14:u:Lst-2 X=Lu/L,
12:u:Pre-2 X=WL,
11:u:Pre-2 R=|,
11:u:Suf-1 X=L,
12:u:Suf-2 X=WL,
16:u:Tmn-3 X=none/L,
17:u:Tok-1 X=Current,
17:u:tok-1 X=current,
17:u:tok-1LL=keynote,
17:u:tok-1 L=address,
16:u:tok-1RR=issues,
25:u:tok-2 L=address/current,
27:u:tok-2 R=current/fisheries,
17:u:tok-1LL=address,
17:u:tok-1 L=current,
16:u:tok-1 R=issues,
27:u:tok-2 L=current/fisheries,
26:u:tok-2 R=fisheries/issues,
16:u:Tok-1 X=issues,
16:u:tok-1 X=issues,
17:u:tok-1LL=current,
26:u:tok-2 L=fisheries/issues,
20:u:tok-2 R=issues/and,
16:u:tok-1 L=issues,
20:u:tok-2 L=issues/and,
16:u:tok-1LL=issues,
18:u:tok-2 R=the/food,
21:u:tok-1 R=agriculture,
22:u:tok-1RR=organization,
25:u:tok-2 R=and/agriculture,
21:u:Tok-1 X=Agriculture,
21:u:tok-1 X=agriculture,
22:u:tok-1 R=organization,
25:u:tok-2 L=and/agriculture,
34:u:tok-2 R=agriculture/organization,
22:u:Tok-1 X=Organization,
22:u:tok-1 X=organization,
21:u:tok-1 L=agriculture,
34:u:tok-2 L=agriculture/organization,
25:u:tok-2 R=organization/of,
21:u:tok-1LL=agriculture,
22:u:tok-1 L=organization,
25:u:tok-2 L=organization/of,
22:u:tok-1LL=organization,
17:u:tok-1RR=nations,
17:u:tok-1 R=nations,
24:u:tok-2 R=united/nations,
17:u:Tok-1 X=Nations,
17:u:tok-1 X=nations,
24:u:tok-2 L=united/nations,
24:u:tok-2 R=nations/center,
0=-3.304660e-02
1=-9.279201e-02
2=1.213416e-01
3=4.119090e-02
5=-6.550265e-02
6=3.115991e-02
8=-4.322062e-03
9=-2.077429e-03
10=-1.823853e-03
11=1.473018e+00
12=1.064979e+00
13=-1.941473e+00
14=-3.399619e-01
24=1.364537e-01
33=-6.257631e-01
34=-5.322493e-01
35=5.211041e-01
36=-3.448529e-02
37=-5.782761e-01
39=-7.295421e-01
41=2.332672e-03
42=-6.038736e-01
43=-6.767392e-01
44=-5.887574e-01
45=-6.524110e-02
46=-3.411351e+00
47=6.085101e-01
48=4.005467e-01
49=-1.900782e-01
50=-1.332420e-01
52=-1.254643e+00
54=-6.868779e-02
57=-2.141476e-01
58=-7.246447e-01
59=8.896686e-02
60=7.020407e-01
61=1.125214e-01
72=4.849531e-01
79=-3.881971e-01
83=1.078906e-01
84=9.977316e-01
101=-2.009341e+00
102=-1.039472e-01
103=-2.974630e-02
105=1.325201e-02
107=1.441659e+00
112=-5.788788e-01
113=-3.892996e-01
119=6.810129e-01
120=2.521856e-01
123=-4.584515e-01
124=-3.474245e-01
125=2.070441e-01
131=5.116659e-01
132=2.340288e-01
143=2.340288e-01
154=9.531438e-02
156=-9.033449e-02
157=1.939957e-01
158=-9.080003e-01
162=1.441677e-02
163=5.005937e-02
164=7.903230e-03
165=9.778924e-01
178=1.114935e+00
187=-5.985111e-02
190=1.177687e+00
195=1.295276e-01
196=-2.496437e-03
197=-8.544459e-02
201=3.364514e-01
207=7.202266e-02
256=2.557720e-03
261=3.572225e-01
266=-7.066384e-02
267=-2.039583e-01
273=5.413421e-01
274=2.807525e-01
285=1.727931e+00
287=5.219124e-03
288=1.183597e-01
289=1.237260e-02
290=-3.329489e-01
292=-9.000525e-01
294=-2.914000e-03
295=4.148651e-02
296=-3.554499e-03
299=-1.839876e-01
300=2.390556e-01
311=-2.311599e-02
317=9.491152e-02
319=2.340288e-01
451=3.842579e-02
453=3.500603e-02
454=5.082556e-02
459=1.809107e-03
460=-1.177275e-01
461=-6.991550e-04
462=2.340288e-01
475=6.790385e-03
479=7.459328e-02
481=3.504887e-03
482=-1.053519e-02
483=-8.095580e-04
486=-1.839876e-01
487=2.390556e-01
497=6.790385e-03
501=7.459328e-02
503=3.504887e-03
504=-1.053519e-02
505=-8.095580e-04
506=2.340288e-01
517=2.340288e-01
530=3.457060e-02
531=1.164909e-01
534=-1.881626e-01
536=1.614204e-02
537=9.632628e-02
539=1.292574e-01
550=2.213554e-01
561=2.213554e-01
572=2.340288e-01
705=-1.733147e-01
706=1.201061e-01
707=1.642347e-01
710=-8.195223e-03
711=-1.784923e-01
712=-6.059226e-03
713=2.051095e-02
714=-3.323966e-02
715=1.273500e+00
718=-7.366776e-02
728=1.454165e-01
737=-1.065828e-01
739=4.358808e-01
745=5.841112e-03
746=-4.044804e-01
747=-4.578664e-01
750=-4.516843e-01
751=5.906888e-01
752=-1.106385e+00
756=-4.406260e-01
761=-1.968465e-02
762=-2.154730e-02
763=1.398170e+00
783=-4.777212e-02
787=1.494182e+00
805=-5.193871e-01
806=3.994642e-03
811=6.905020e-01
816=-4.722942e-01
817=-3.226975e-01
823=7.703532e-01
824=2.154049e-01
827=-2.421371e-01
828=-2.205810e-01
835=4.746475e-01
836=2.209129e-01
837=-6.287297e-01
838=2.442140e-01
839=3.169289e-01
840=-2.379867e-01
842=-2.780286e-01
843=-1.326574e-04
844=5.301703e-02
845=1.788349e-01
846=2.300215e-02
847=-2.809196e-03
849=3.573432e-02
850=-1.392414e-04
855=8.864468e-03
856=-7.752926e-03
857=-2.059593e-03
858=-2.320261e-02
859=-5.788703e-02
860=9.256587e-05
861=7.826278e-02
862=-1.146122e-03
863=-4.039332e-02
864=2.465182e-02
866=1.339781e-03
867=5.104960e-02
868=-3.080557e-02
869=-1.595358e-02
870=-9.949319e-02
871=6.451802e-02
872=1.500884e-01
874=-2.565648e-02
875=2.838755e-02
877=2.417437e-03
878=-2.534267e-02
879=-8.539942e-01
880=-3.270550e-02
881=-7.894074e-02
882=1.110510e-01
883=4.823136e-03
885=-1.777749e-02
886=2.746284e-02
888=1.462157e-02
889=3.156623e-03
890=-3.428239e-02
891=-5.117684e-03
892=-2.268691e-02
893=1.503295e-01
894=-2.470431e-01
895=-1.588453e-05
896=-4.014324e-02
897=6.362659e-02
899=-1.885106e-02
900=-1.264261e-02
902=2.340288e-01
913=-1.695595e-02
914=-3.840991e-02
915=1.531409e-01
916=8.876372e-03
917=-6.299299e-03
918=-2.150510e-01
919=2.779346e-02
921=2.079682e-02
922=6.082688e-02
923=-9.727075e-04
924=-1.560271e-02
926=1.494388e-01
927=2.329623e-02
931=-5.135659e-01
932=3.543794e-03
933=5.317773e-02
934=-6.278139e-02
937=4.418946e-03
938=3.728582e-02
943=-6.114114e-03
944=8.834484e-02
945=1.857420e-02
946=2.340288e-01
957=-2.892246e-03
959=4.369871e-02
960=7.266829e-04
965=-2.397976e-03
966=-1.421613e-02
967=-3.116451e-03
968=2.340288e-01
979=2.340288e-01
990=1.931990e-01
1001=2.340288e-01
1014=1.804191e-01
1015=-8.638391e-03
1017=-4.329166e-01
1020=-2.975698e-02
1021=-3.219861e-02
1022=-3.170553e-03
1023=4.433402e-02
1025=-2.068225e-02
1026=1.035966e-01
1034=2.340288e-01
1045=-2.388572e-02
1046=-2.009490e-02
1047=3.743822e-02
1048=8.154288e-02
1049=-2.830309e-02
1051=2.713719e-02
1053=5.411367e-03
1054=5.610705e-02
1055=-1.187032e-03
1056=-2.055195e-02
1058=8.617278e-02
1059=5.608760e-02
1062=-6.596781e-01
1064=4.419580e-03
1065=5.021320e-02
1066=-6.205608e-02
1067=2.340288e-01
1199=-3.616984e-03
1201=2.434037e-02
1205=1.342082e-03
1207=5.015773e-03
1208=-1.548864e-02
1209=-8.766996e-04
1212=6.368786e-02
1213=4.327044e-02
1218=-2.199926e-02
1223=4.362847e-02
1224=-2.285573e-03
1227=5.877639e-04
1229=6.801977e-05
1230=-1.398139e-02
1234=2.985458e-03
1238=7.282251e-02
1240=3.491632e-03
1241=-9.976042e-03
1242=-3.773351e-04
1243=-3.089654e-02
1244=-5.837690e-02
1245=1.344638e-01
1246=2.075946e-02
1248=-3.011978e-02
1249=5.352090e-01
1250=-1.156590e+00
1251=-2.047123e-02
1252=6.822073e-02
1253=-1.175838e-03
1256=-1.263065e-01
1258=1.773339e-01
1259=9.444867e-02
1262=1.403544e-02
1263=-9.914012e-01
1264=1.308882e-03
1267=-5.511553e-02
1268=1.137007e-02
1284=7.611964e-04
1286=-2.692091e-01
1289=9.225239e-03
1290=8.554528e-02
1295=-1.379078e-02
1296=-3.033224e-02
1297=-3.494935e-02
1298=3.913694e-01
1322=5.137388e-01
1323=-4.510148e-02
1328=-1.093128e-01
1334=4.460558e-01
1341=-1.678451e-01
1346=1.564263e-01
1370=2.010674e+00
1394=3.593401e-01
1406=2.969572e-02
1418=2.956018e-01
1420=-1.732321e-01
1421=9.023003e-02
1422=-1.470692e-01
1427=5.959021e-03
1428=-1.697959e-02
1432=-3.062078e-04
1433=4.433267e-02
1443=-5.511553e-02
1444=1.137007e-02
1452=1.327451e-01
1455=-2.530539e-01
1460=3.931799e-04
1465=-3.062078e-04
1466=4.433267e-02
1474=-1.125959e-02
1475=-7.429042e-02
1476=1.212062e-02
1477=2.771924e-02
1478=2.855897e-01
1479=-6.802438e-02
1482=1.916574e-02
1483=6.390413e-02
1484=1.303476e-01
1485=1.006436e-01
1487=-2.418742e-02
1488=4.537399e-02
1498=-5.521136e-02
1499=-1.100052e-02
1500=3.922018e-02
1501=5.000697e-02
1504=1.283997e-02
1505=-6.617567e-01
1506=2.501632e-03
1507=-2.187045e-02
1508=-5.051038e-02
1509=1.633561e-01
1510=1.315589e-01
1511=3.235671e-02
1512=-1.967724e+00
1513=-1.957198e-01
1514=-1.633295e-01
1515=4.876772e-03
1516=2.484565e-02
1517=-5.409131e-02
1518=1.375187e+00
1519=5.023317e-01
1540=-1.142693e-01
1541=-1.280757e-01
1542=4.478439e-01
1543=-1.575644e-03
1544=-4.786822e-01
1546=-8.391739e-02
1548=1.293976e-04
1549=-2.794823e-01
1550=-5.015157e-01
1551=-1.708351e-01
1553=-1.127911e+00
1554=6.061996e-01
1555=4.447681e-01
1559=-6.974693e-01
1561=-4.638945e-02
1566=9.105550e-01
1608=-5.542984e-01
1609=-3.414489e-01
1612=3.184449e-02
1614=1.378575e+00
1619=-3.580038e-01
1620=-2.688597e-01
1626=7.960279e-01
1627=2.225477e-01
1630=-2.851623e-01
1631=-2.201266e-01
1632=2.460644e-01
1638=3.880259e-01
1641=1.245147e-02
1642=-7.510796e-03
1650=3.169034e-01
1674=2.098833e-02
1675=-6.128692e-01
1700=1.237298e-02
1771=1.433870e-01
1774=-8.677135e-02
1784=2.712645e-02
1785=-1.037627e-02
1793=-2.091581e-02
1794=-8.822381e-02
1795=9.418265e-02
1796=7.260665e-02
1798=-8.423033e-02
1799=2.560171e-02
1801=5.118691e-03
1802=5.251639e-02
1803=-7.562966e-04
1804=9.827478e-02
1807=2.988036e-02
1816=-1.897875e-01
1817=9.314618e-02
1818=-7.049461e-02
1823=1.169823e-03
1824=-6.015988e-02
1828=1.019648e-01
1829=-1.373806e-02
1830=4.811729e-02
1831=-3.400189e-01
1834=2.336805e-03
1837=1.940977e-01
1849=-7.929690e-02
1850=1.380262e-01
1851=4.029562e-03
1856=1.448039e-03
1857=-4.050063e-02
1859=7.978293e-03
1861=-8.211702e-04
1862=4.168504e-02
1867=1.525666e-03
1872=1.880052e-01
1873=4.459583e-02
1874=-2.092447e-01
1876=-1.664430e-02
1878=2.222121e-02
1879=4.683724e-02
1880=1.809694e-01
1881=-2.700630e-02
1882=-7.701711e-02
1883=8.247976e-02
1884=4.611595e-02
1885=-1.680173e-02
1886=-5.949130e-02
1887=2.086796e-02
1889=2.441776e-02
1890=4.898478e-02
1891=-1.052078e-03
1893=-2.008601e-01
1894=8.622041e-02
1895=-3.929029e-02
1900=2.171832e-02
1901=-8.738161e-02
1903=2.637718e-01
1927=2.282163e-01
1928=-8.228976e-01
1939=5.190367e-01
1946=-1.023286e-03
1975=1.899061e+00
1999=2.140043e-01
2023=4.967869e-01
2026=9.059554e-02
2027=2.067243e-02
2032=-1.341946e-02
2035=-4.101272e-02
2037=1.488391e-01
2038=9.703209e-03
2041=-1.099551e-01
2043=1.300418e-02
2044=3.829213e-03
2045=8.746162e-04
2048=8.336112e-02
2049=2.183293e-02
2054=3.208168e-03
2059=5.176231e-02
2060=4.282488e-02
2065=1.686339e-03
2070=-3.062078e-04
2071=4.433267e-02
2081=-6.632292e-01
2082=5.300035e-01
2092=1.247111e-02
2093=-6.907883e-03
2098=8.742759e-03
2101=-3.484683e-03
2103=-1.828626e-02
2104=-4.898108e-02
2107=8.878695e-02
2109=4.346278e-03
2110=-1.458143e-02
2113=1.373259e+00
2136=1.255504e+00
2138=-2.179384e-01
2148=9.234981e-02
2149=4.757410e-01
2161=7.660167e-01
2162=7.355695e-02
2173=6.125897e-01
2184=-7.868094e-02
2185=5.515106e-01
2206=3.437720e-02
2208=4.768790e-01
2226=3.037330e-01
2241=1.013901e-02
2246=-5.496701e-02
2247=7.431681e-01
2256=3.405420e-02
2257=-1.607603e-03
2258=-5.458532e-02
2261=8.675274e-02
2263=7.067628e-04
2264=-1.697922e-03
2268=-4.256880e-02
2269=1.625830e-01
2274=-6.896718e-02
2285=1.013901e-02
2289=2.491570e-01
2296=4.638008e-02
2301=-1.095082e-02
2307=4.283287e-02
2310=1.220479e-02
2312=-8.914223e-03
2313=3.158138e-02
2318=-3.324352e-02
2323=-7.113557e-03
2324=3.424586e-02
2325=1.840296e-02
2326=-1.742245e-02
2327=1.181714e-01
2329=5.856047e-03
2330=-8.775490e-02
2332=-4.174267e-05
2334=1.587963e-01
2335=8.348445e-03
2340=-1.817514e-03
2341=1.175402e-01
2342=-2.218528e-03
2344=7.546422e-02
2345=-3.315108e-03
2346=-2.262431e-03
2351=8.319275e-02
2356=-3.159968e-01
2357=1.134982e-01
2366=1.249019e-01
2370=-3.394521e-01
2373=1.364814e-01
2377=1.404661e+00
2400=5.040644e-01
2425=-2.519785e-02
2449=2.250023e-01
2472=8.795839e-01
2497=-1.318186e-02
2499=2.354380e-01
2500=8.514592e-02
2501=-1.096030e-01
2502=-7.246428e-02
2503=-3.539329e-02
2504=-3.811027e-05
2505=-1.173807e-02
2506=2.483585e-02
2507=-1.536210e-02
2509=2.975760e-01
2511=-3.593959e-01
2512=-6.418018e-01
2513=-2.392981e-02
2515=5.020355e-01
2516=3.254538e-01
2519=-3.624894e-08
2521=-4.555342e-03
2522=3.494324e-03
2523=1.989182e-02
2524=-1.764561e-02
2525=1.193983e-01
2527=2.298413e-02
2528=-8.465372e-02
2532=-4.690689e-02
2533=1.282949e-01
2538=-4.630306e-02
2541=-2.453470e-05
2543=5.023511e-02
2544=3.134857e-02
2545=-7.661282e-02
2547=9.731495e-04
2549=-2.806685e-03
2550=6.792927e-02
2551=2.890328e-03
2552=3.229083e-01
2554=6.286370e-02
2555=-8.347675e-02
2560=-1.872729e-02
2565=-3.183806e-02
2566=1.303855e-01
2571=-8.517213e-02
2574=-3.505928e-05
2575=1.404164e-02
2576=7.299121e-02
2577=1.628876e-02
2578=7.781935e-04
2580=7.782314e-05
2582=-3.115543e-03
2583=6.568682e-02
2584=2.444273e-03
2587=-5.723587e-02
2588=1.561857e-01
2593=-6.411852e-02
2597=5.070586e-01
2620=4.602201e-02
2621=4.990582e-01
2626=-3.439303e-02
2632=6.782716e-02
2644=1.928454e-02
2646=2.816716e-02
2692=2.747760e-02
2717=-1.085599e-04
2719=1.014620e-01
2720=3.078982e-02
2721=-3.022836e-04
2725=9.865179e-04
2726=6.396042e-02
2727=-3.627256e-03
2728=-2.326613e-05
2730=4.430892e-02
2731=3.969327e-02
2736=3.019894e-03
2737=6.725488e-02
2738=2.788218e-03
2739=-2.335646e-05
2740=1.369718e-02
2741=1.082326e-01
2742=7.649691e-03
2743=1.365028e-03
2745=-1.338542e-01
2747=6.990379e-03
2748=8.647257e-02
2749=2.486624e-03
2751=6.032623e-02
2752=6.266784e-02
2753=-3.132138e-02
2758=-4.422193e-03
2759=1.207762e-01
2763=-5.658116e-02
2764=3.848264e-02
2769=4.253220e-02
2770=1.187304e-03
2774=2.868957e-02
2775=1.208741e-01
2780=9.887399e-02
2785=1.982138e-03
2786=5.071068e-02
2796=-8.352800e-02
2797=2.789181e-02
2802=1.069118e-01
2803=2.506587e-04
2807=-8.278395e-04
2808=5.522362e-01
2810=2.493427e-01
2811=1.272137e-01
2812=6.377204e-02
2813=-1.712895e-01
2829=1.383975e+00
2840=-8.866590e-04
2841=2.026041e-01
2865=7.730321e-01
2866=7.653917e-02
2877=1.019861e+00
2888=-9.306843e-02
2889=1.047018e+00
2907=7.849828e-01
2939=1.608409e-01
2940=1.534266e-01
2943=-3.898933e-01
2945=2.670218e-02
2946=7.194324e-02
2947=-1.069617e-03
2950=-2.658458e-02
2951=2.531980e-02
2956=1.934164e-02
2957=3.760005e-02
2961=1.982138e-03
2962=5.071068e-02
2972=-2.058968e-03
2973=2.363457e-02
2983=-5.877477e-02
2984=3.835671e-02
2989=4.275084e-02
2990=1.262645e-03
2994=-2.658458e-02
2995=2.531980e-02
3000=1.934164e-02
3001=3.760005e-02
3011=3.439391e-02
3016=2.125225e-02
3017=9.020434e-03
3018=-4.503360e-02
3020=6.556620e-01
3022=-9.939415e-02
3023=-8.038744e-01
3027=2.446170e-02
3028=1.002262e-01
3033=9.703309e-02
3038=8.165287e-02
3039=7.031837e-03
3044=-9.087062e-03
3045=-8.218439e-03
3049=-2.774219e-02
3050=8.672838e-02
3055=2.506336e-02
3056=6.849844e-03
3058=-1.025152e-05
3060=-8.286771e-02
3061=9.802802e-02
3066=1.840435e-02
3067=8.244509e-02
3068=8.268355e-01
3071=1.631175e-01
3072=1.707905e-01
3093=1.488280e+00
3104=-1.611494e-03
3105=4.401530e-01
3141=-2.308953e-02
3201=-5.435956e-02
3203=-6.151587e-02
3204=2.324781e-01
3207=-2.436751e-03
3209=1.021859e-01
3210=3.047058e-02
3211=-6.105809e-03
3212=-5.200509e-03
3213=-1.041239e-01
3214=1.954047e-01
3217=-1.396186e-02
3218=2.180733e-02
3220=8.649219e-03
3221=5.196726e-02
3222=6.612726e-02
3223=-9.565558e-02
3224=-1.005327e-01
3225=1.167753e-01
3226=2.193737e-02
3229=3.709068e-01
3231=6.139919e-03
3232=7.036836e-02
3233=6.523336e-02
3234=-1.678273e-01
3235=-1.128573e-01
3236=1.589371e-01
3237=2.425950e-02
3238=-2.003039e-05
3240=2.982147e-02
3242=3.815992e-03
3243=6.099803e-02
3244=6.701036e-02
3245=2.159970e-01
3258=3.052200e-01
3269=3.642855e-01
3270=-2.277659e-04
3271=-2.878374e-01
3273=-1.606423e-01
3275=1.324705e-03
3276=-7.040791e-02
3277=-2.397996e-02
3280=-2.728292e-01
3281=4.546901e-01
3282=3.333200e-01
3294=7.535848e-01
3295=3.810984e-02
3306=6.128182e-01
3318=1.003285e+00
3335=-3.092677e-01
3339=7.378280e-02
3341=7.102055e-01
3346=-2.309309e-01
3347=-1.159412e-01
3353=6.412176e-01
3354=4.561284e-01
3359=2.407914e-01
3368=-2.658458e-02
3369=2.531980e-02
3374=1.934164e-02
3375=3.760005e-02
3379=4.391903e-04
3380=1.266182e-01
3385=1.481114e-01
3390=-2.812858e-02
3391=4.898980e-02
3396=3.841323e-02
3401=-2.812858e-02
3402=4.898980e-02
3407=3.841323e-02
3412=1.841841e-01
3413=8.999519e-03
3418=-2.970198e-02
3419=-3.603934e-02
3445=4.090988e-01
3446=-2.722704e+00
3451=-1.935190e+00
3457=4.290784e-01
3463=-5.404070e-01
3493=4.411727e-01
3512=-1.512812e-01
3517=6.093006e-01
3529=7.140182e-01
3544=-5.718435e-02
3545=1.854308e-02
3550=8.358871e-02
3555=-3.378839e-02
3556=1.665238e-01
3561=1.287716e-02
3564=-3.074135e-06
3566=1.319551e-01
3567=2.095470e-02
3568=6.401502e-02
3569=-7.820583e-02
3572=2.674434e-02
3573=7.324274e-02
3574=1.518294e-01
3575=1.324810e-01
3599=3.612057e-01
3600=-1.480463e-01
3601=-2.151466e-01
3605=2.684539e-02
3606=-3.022038e-03
3607=-1.685212e-02
3611=4.496978e-01
3612=4.118968e-01
3666=-1.674086e-01
3669=1.679009e-01
3671=6.414343e-01
3676=-9.606538e-02
3683=6.361248e-01
3684=5.396090e-01
3689=1.971792e-03
3698=6.514871e-02
3699=-3.110905e-02
3704=4.631553e-03
3709=-1.233735e-02
3710=4.627021e-02
3715=3.822836e-02
3720=-5.718435e-02
3721=1.854308e-02
3726=8.358871e-02
3731=-3.237186e-02
3732=4.890376e-02
3737=3.858443e-02
3742=-1.233735e-02
3743=4.627021e-02
3748=3.822836e-02
3759=3.191887e-02
3764=-2.812858e-02
3765=4.898980e-02
3770=3.841323e-02
3775=1.738172e-01
3776=-8.525224e-03
3781=-2.905092e-02
3782=-3.728361e-02
3786=3.013078e-02
3787=2.112971e-02
3792=-1.482644e-04
3797=4.764075e-02
3798=3.115129e-02
3803=1.374787e-01
3808=1.250673e-01
3809=2.358165e-02
3814=3.020652e-02
3815=-1.290908e-02
3819=1.273167e-01
3820=3.196061e-03
3825=-2.357376e-03
3830=-1.233735e-02
3831=4.627021e-02
3836=3.822836e-02
3841=1.217275e-02
3842=-8.824341e-03
3847=2.935291e-02
3852=-2.131717e-03
3853=1.797823e-02
3858=7.510010e-04
3863=-2.723503e-02
3864=4.080263e-01
3874=2.257388e-02
3875=-1.679581e-03
3880=2.847155e-02
3885=-7.389532e-04
3886=1.959764e-03
3891=6.609615e-02
3896=-2.131717e-03
3897=1.797823e-02
3902=7.510010e-04
3907=-1.067525e-02
3908=6.841303e-03
3918=-7.389532e-04
3919=1.959764e-03
3924=6.609615e-02
3929=1.217275e-02
3930=-8.824341e-03
3935=2.935291e-02
3940=-2.236154e-03
3946=1.756201e-02
3951=1.383668e-01
3952=8.870152e-04
3957=1.156807e-02
3958=-3.550392e-03
3962=1.664674e-01
3963=1.541001e-02
3968=6.117354e-02
3973=1.242959e-01
3974=3.217408e-03
3979=-2.008997e-02
3982=1.845340e-01
3984=1.993412e-02
3985=-1.316993e-01
3990=5.598079e-06
3995=8.811167e-03
3996=-1.024873e-01
4006=-7.389532e-04
4007=1.959764e-03
4012=6.609615e-02
4017=3.124270e-02
4018=-6.880423e-03
4023=1.470436e-03
4028=5.775312e-02
4029=2.161867e-01
4039=9.849478e-03
4040=2.029095e-01
4050=3.257858e-02
4051=-6.966853e-02
4056=4.677561e-02
4067=1.367071e-02
4072=-5.955062e-03
4073=7.835893e-02
4078=1.601279e-01
4083=1.948002e-01
4084=-2.556882e-02
4089=7.418766e-03
4090=9.709280e-02
4091=-3.508892e-03
4094=-3.446812e-03
4105=8.880305e-02
4106=3.108066e-02
4107=1.156876e-02
4111=-5.520688e-03
4112=9.845445e-03
4113=-1.528027e-03
4117=6.431383e-02
4127=-6.097035e-02
4128=8.171005e-02
4133=2.947264e-02
4134=1.286629e-02
4135=-2.015462e-03
4138=6.146645e-02
4139=1.783171e-03
4140=1.364971e-01
4141=-2.849149e-02
4171=2.405871e-01
4183=6.403994e-01
4195=1.850481e+00
4219=1.121044e+00
4270=1.659469e-03
4271=1.516469e-02
4272=1.292410e-01
4273=-2.798479e-02
4281=3.832654e-02
4282=-1.046957e-01
4287=9.185013e-05
4288=3.068302e-03
4292=1.659469e-03
4293=1.516469e-02
4294=1.292410e-01
4295=-2.798479e-02
4301=-1.313605e-01
4303=-1.863112e-02
4304=1.166420e-01
4309=1.770949e-02
4310=8.764113e-02
4311=6.517878e-02
4314=9.537015e-02
4325=9.666611e-02
4336=2.750780e-02
4337=-2.373091e-04
4340=1.024158e-01
4342=7.179287e-04
4343=-6.133329e-03
4344=-5.237799e-03
4353=2.248165e-03
4355=-2.737465e-04
4358=1.613858e-01
4369=1.037137e-01
4370=-2.146439e-01
4380=1.037137e-01
4381=-2.146439e-01
4391=3.473937e-02
4397=2.659657e-02
4398=-2.967499e-03
4399=-9.171455e-03
4402=1.736010e-01
4408=1.662203e-03
4413=1.236251e-02
4424=2.034317e-01
4425=-4.702971e-02
4435=1.164509e-01
4446=5.103238e-02
4457=4.860831e-02
4468=2.760323e-01
4469=-1.311090e-05
4470=2.978750e-02
4481=3.505003e-02
4490=4.791472e-02
4503=3.505003e-02
4513=4.453466e-03
4523=1.941797e-01
4534=7.630270e-02
4535=2.444763e-02
4540=-4.680280e-02
4545=1.808642e-01
4556=2.025652e-02
4562=-1.013864e-03
4567=5.795535e-01
4568=-4.029801e-02
4580=3.505003e-02
4589=5.795669e-02
4601=9.178633e-02
4611=4.179511e-02
4612=-3.680983e-02
4622=1.469115e-02
4623=2.875923e-03
4628=3.104850e-02
4633=2.478043e-03
4666=6.745648e-02
4667=8.132197e-01
4678=-1.788529e-02
4692=3.574798e-01
4765=7.569836e-03
4776=2.545141e-02
4777=-3.749630e-02
4782=3.630044e-03
4787=4.179511e-02
4788=-3.680983e-02
4798=4.532557e-02
4809=4.104465e-04
4810=3.831357e-03
4815=2.128511e-02
4820=2.545141e-02
4821=-3.749630e-02
4826=3.630044e-03
4831=1.791676e-02
4832=-4.528402e-02
4839=2.649580e-02
4842=2.043407e-02
4843=-1.814374e-01
4854=9.178633e-02
4864=2.605134e-03
4875=5.795669e-02
4886=-4.319199e-02
4887=3.163403e-01
4897=2.545141e-02
4898=-3.749630e-02
4903=3.630044e-03
4908=1.075946e+00
4919=2.628780e-02
4920=1.477166e-03
4925=4.327187e-02
4930=5.913034e-02
4931=-8.966837e-02
4936=1.757800e-03
4937=4.871451e-02
4941=2.628780e-02
4942=1.477166e-03
4947=4.327187e-02
4952=2.369243e-03
4953=1.310948e-02
4958=1.937569e-02
4963=2.886743e-01
4964=-2.444010e-02
4969=-1.172859e-02
4974=-4.996237e-02
4975=4.725916e-02
4980=4.927495e-03
4985=5.497031e-02
4996=3.482728e-02
5007=1.024807e-01
5018=2.170074e-01
5019=-1.088308e-01
5029=-1.151158e-01
5030=1.613079e-01
5035=3.465605e-02
5040=3.835186e-02
5051=-3.196530e-04
5052=-1.440409e-02
5057=1.086496e-01
5058=9.132295e-04
5059=5.922229e-02
5062=3.835186e-02
5073=-3.196530e-04
5074=-1.440409e-02
5079=1.086496e-01
5080=9.132295e-04
5081=5.922229e-02
5090=2.256633e-03
5095=-5.638384e-03
5096=3.446915e-02
5101=4.977401e-02
5106=5.217478e-02
5107=-5.181534e-02
5112=5.370889e-03
5113=-1.225974e-01
5115=-6.006592e-02
5117=1.031885e-01
5118=-1.502082e-02
5123=1.031911e-01
5128=2.350334e-03
5137=-2.744861e-02
5139=6.196005e-02
5140=1.567753e-02
5145=6.428750e-02
5150=-3.196530e-04
5151=-1.440409e-02
5156=1.086496e-01
5157=9.132295e-04
5158=5.922229e-02
5161=-7.424253e-02
5162=1.618342e-01
5167=3.413254e-02
5168=-4.558712e-02
5172=-1.133800e-01
5173=2.287001e-01
5178=1.906717e-02
5183=-7.884226e-01
5184=2.686400e-01
5189=3.001653e-01
5194=-1.182454e-01
5195=1.916407e-01
5200=3.577078e-02
5205=-2.608583e-01
5206=7.026340e-01
5211=1.116007e-01
5214=-3.509022e-02
5216=5.721393e-02
5222=2.071600e-01
5227=-2.364391e-02
5228=4.685177e-02
5233=3.275057e-02
5238=-3.442555e-02
5239=1.913001e-03
5244=4.165865e-02
5249=-4.632361e-02
5250=1.584543e-01
5255=1.959195e-02
5260=5.698817e-02
5261=-3.277901e-02
5266=-6.402384e-03
5267=1.669393e-02
5268=-9.777811e-05
5271=-2.622355e-02
5272=4.652120e-02
5277=3.338055e-02
5282=-2.650086e-02
5283=1.326098e-02
5288=4.149018e-02
5293=-1.333590e-02
5294=5.473494e-02
5299=9.712190e-02
5301=3.117679e-01
5304=6.897774e-02
5310=4.765239e-02
5315=6.750745e-02
5316=-6.096193e-01
5321=6.402891e-03
5326=-2.788536e-01
5327=1.544177e-01
5334=8.775395e-01
5337=-8.094558e-04
5338=1.826214e-03
5348=6.567086e-03
5349=-9.580467e-03
5354=-4.505692e-05
5359=-2.788536e-01
5360=1.544177e-01
5367=8.775395e-01
5370=6.755246e-02
5381=6.567086e-03
5382=-9.580467e-03
5387=-4.505692e-05
5392=4.772133e-02
5393=-5.610311e-02
5398=5.013812e-03
5399=-3.451650e-03
5403=4.127286e-02
5404=-7.310423e-02
5409=-4.062254e-05
5414=1.433495e-01
5415=1.329803e-02
5420=7.041394e-02
5425=6.427558e-02
5426=2.059823e-02
5431=2.623314e-02
5436=-4.062304e-03
5437=1.174982e-02
5442=6.104890e-02
5447=6.567086e-03
5448=-9.580467e-03
5453=-4.505692e-05
5458=5.391884e-02
5459=-6.152554e-02
5464=4.203283e-03
5470=2.901660e-03
5480=-2.294167e-03
5492=2.901660e-03
5502=7.585738e-01
5503=-1.579248e-01
5514=-3.543063e-02
5520=3.342629e-02
5524=9.711589e-02
5525=-1.287597e-03
5530=3.756251e-02
5535=3.456361e-01
5536=-2.150023e-01
5546=-1.217107e-01
5547=1.936662e-01
5552=-6.359212e-03
5557=-7.477867e-02
5558=4.480134e-03
5563=1.031965e-02
5568=5.011889e-02
5569=-8.988249e-03
5574=1.029335e-02
5579=2.830477e-02
5590=-9.983417e-02
5591=8.345848e-02
5596=-2.759235e-03
5601=-9.983417e-02
5602=8.345848e-02
5607=-2.759235e-03
5612=-6.805039e-02
5613=1.306047e-02
5623=-5.648716e-04
5624=3.396775e-02
5634=7.322279e-02
5635=1.702676e-02
5640=8.184993e-02
5645=-5.537243e-03
5646=6.035003e-02
5651=8.476609e-03
5656=4.852694e-02
5657=1.755988e-02
5662=4.214278e-02
5667=1.408174e-02
5679=2.930241e-02
5685=-7.090101e-03
5689=-3.120047e-02
5695=1.158292e-02
5696=5.518216e-03
5700=5.761255e-02
5701=1.549656e-02
5706=7.955845e-02
5707=-1.545206e-01
5711=-3.512253e-01
5712=-4.790257e-03
5717=8.068543e-02
5722=-3.512253e-01
5723=-4.790257e-03
5728=8.068543e-02
5734=-7.042502e-02
5741=4.319702e-02
5744=8.737679e-03
5745=4.562094e-03
5750=1.048211e-02
5755=8.680089e-04
5766=-1.592158e-02
5777=-1.592158e-02
5788=2.067484e-02
5789=5.173181e-02
5794=1.391857e-01
5799=2.207781e-02
5800=-7.781893e-03
5805=4.450869e-02
5810=5.129464e-02
5811=-1.039202e-02
5816=1.599673e-01
5817=-1.390910e-01
5821=-1.592158e-02
5832=2.670052e-02
5843=1.799982e-01
5844=-1.625823e-02
5854=2.670052e-02
5865=4.700519e-02
5866=-1.846816e-03
5877=-3.980744e-01
5888=-2.271178e-02
5898=1.230680e-02
5899=6.781155e-02
5904=9.045739e-02
5909=2.051869e-01
5910=-2.055233e-02
5920=2.051869e-01
5921=-2.055233e-02
5931=-7.693557e-03
5932=6.381048e-02
5937=-5.664785e-04
5942=9.965558e-02
5951=-1.374817e-02
5953=-1.002438e-01
5954=1.942827e-01
5959=2.772224e-03
5960=5.523534e-02
5961=9.618490e-03
5964=-1.483692e-02
5965=1.015000e-01
5975=-5.450926e-02
5976=1.355673e-01
5981=-3.936572e-03
5982=4.305740e-02
5983=-1.500987e-04
5986=1.784512e-01
5992=-2.987977e-03
5997=4.409928e-03
5998=-5.541117e-02
6003=8.747852e-02
6004=-2.811914e-03
6008=1.784512e-01
6014=-2.987977e-03
6019=-1.112030e-02
6020=7.858135e-02
6030=-6.418652e-02
6031=1.177095e-01
6036=2.553458e-04
6037=5.462410e-02
6038=1.282986e-01
6041=9.148792e-02
6042=-4.935952e-03
6047=1.057149e-03
6052=3.654779e-04
6053=1.695604e-04
6058=7.349967e-02
6059=-3.732411e-03
6063=3.654779e-04
6064=1.695604e-04
6069=7.349967e-02
6070=-3.732411e-03
6074=1.708625e-03
6091=2.542741e-05
6096=-2.655728e-02
6097=3.534353e-01
6102=-8.889733e-03
6103=3.725699e-03
6107=2.246981e-01
6108=-2.117972e-03
6118=4.584319e-03
6129=2.034346e-01
6140=4.584319e-03
6151=-3.283682e-01
6152=1.246033e+00
6162=-5.154744e-02
6163=5.855609e-02
6169=1.198977e-02
6173=4.584319e-03
6184=9.715720e-03
6196=2.557962e-02
6207=1.051065e-01
6218=1.683830e-02
6228=1.038719e-02
6229=-6.354948e-03
6235=7.206636e-03
6240=1.051065e-01
6250=-9.854252e-02
6251=6.704678e-01
6261=1.038719e-02
6262=-6.354948e-03
6268=7.206636e-03
6272=1.663420e-03
6283=-1.205038e-01
6294=-1.033110e-02
6295=1.036678e-01
6300=4.536237e-03
6301=-1.206023e-01
6305=-2.516453e-01
6306=1.256336e-01
6313=4.115055e-02
6314=-2.393171e-01
6316=-6.495262e-01
6317=9.371621e-03
6318=6.081641e-01
6320=1.321922e-01
6322=2.341427e-03
6323=1.406059e-02
6324=4.236835e-02
6327=-2.075356e-01
6328=5.629806e-02
6334=3.494874e-03
6335=-1.892415e-02
6336=-1.091117e-06
6338=-3.328218e-01
6339=1.374148e-02
6340=3.318369e-01
6344=1.076693e-03
6345=5.044002e-02
6346=1.275483e-01
6349=1.038719e-02
6350=-6.354948e-03
6356=7.206636e-03
6360=-1.458248e-01
6361=-3.182123e-02
6362=7.945906e-02
6363=1.379741e-01
6366=7.410244e-03
6367=-9.072747e-02
6368=6.750298e-03
6371=1.378852e-01
6372=-3.462874e-02
6384=1.180897e-01
6393=-3.505437e-03
6394=5.420741e-03
6404=-1.226488e+00
6412=8.647660e-03
6415=6.987002e-03
6416=-1.474612e-01
6417=7.611512e-01
6418=-5.600419e-02
6421=1.977192e-03
6426=-2.594200e-01
6428=1.903573e-01
6432=4.944243e-05
6437=-3.680509e-02
6438=3.594569e-03
6439=4.435893e-02
6441=7.453730e-02
6442=5.268811e-02
6443=3.266916e-03
6450=2.258567e-01
6494=3.793539e-01
6553=3.010823e-03
6571=4.853253e-02
6580=-5.470953e-02
6581=-8.844507e-01
6582=5.419943e-01
6584=2.866876e-01
6586=4.206554e-02
6591=-3.132541e-01
6592=-1.799973e-01
6593=1.502239e-01
6595=1.187970e-01
6597=1.248936e-03
6598=1.003918e-04
6599=5.534503e-01
6602=-6.530175e-01
6604=1.333294e-01
6608=3.254012e-02
6615=-1.358431e-01
6617=1.262756e-01
6618=7.779310e-02
6627=3.198663e-01
6630=-1.399902e-02
6682=6.711137e-01
6683=2.146660e-02
6724=4.177566e-01
6729=-7.183076e-03
6759=1.300451e-01
6802=1.313189e-01
6814=5.795392e-01
6889=-1.233349e-01
6890=4.932626e-01
6891=4.538274e-01
6892=-7.745742e-01
6894=6.990178e-04
6900=8.478641e-02
6902=2.057485e-01
6903=-7.416094e-03
6912=5.967720e-02
6914=8.027525e-02
6921=-1.279400e-01
6923=4.273017e-05
6924=6.684105e-01
6925=-1.328405e-01
6927=5.704314e-04
6932=-8.113349e-03
6936=1.457522e-01
6937=8.800714e-02
6943=-8.113349e-03
6947=1.457522e-01
6948=8.800714e-02
6954=-8.113349e-03
6958=1.457522e-01
6959=8.800714e-02
6965=-8.113349e-03
6969=1.457522e-01
6970=8.800714e-02
6976=-8.113349e-03
6980=1.457522e-01
6981=8.800714e-02
6987=-8.113349e-03
6991=1.457522e-01
6992=8.800714e-02
7002=1.533371e+00
7003=9.285152e-02
7054=3.997641e-02
7145=2.544894e-01
7189=-9.755409e-04
7200=9.242222e-01
7211=5.358800e-01
7222=-1.862111e-01
7244=2.602849e-03
7273=-8.113349e-03
7277=1.457522e-01
7278=8.800714e-02
7285=-1.531404e-01
7288=6.829010e-01
7295=-8.113349e-03
7299=1.457522e-01
7300=8.800714e-02
7306=-8.113349e-03
7310=1.457522e-01
7311=8.800714e-02
7321=1.072463e+00
7328=-8.113349e-03
7332=1.457522e-01
7333=8.800714e-02
7339=2.180476e-03
7340=4.116439e-02
7341=-6.069788e-01
7345=4.001921e-06
7350=-8.113349e-03
7354=1.457522e-01
7355=8.800714e-02
7361=-8.113349e-03
7365=1.457522e-01
7366=8.800714e-02
7372=-8.113349e-03
7376=1.457522e-01
7377=8.800714e-02
7387=6.228256e-02
7388=9.182829e-02
7398=6.228256e-02
7399=9.182829e-02
7405=-2.675262e-03
7406=1.683857e-02
7416=-2.606016e-01
7417=2.046086e-01
7427=-2.402330e-01
7428=9.673325e-03
7438=-2.675262e-03
7439=1.683857e-02
7450=6.035387e-04
7460=2.489725e-01
7461=2.585721e-04
7466=-1.233079e+00
7472=3.687683e-02
7482=-3.118266e-02
7483=-9.849294e-04
7488=5.753861e-02
7493=-5.012498e-02
7494=4.461827e-02
7499=1.354791e-01
7504=-3.118266e-02
7505=-9.849294e-04
7510=5.753861e-02
7516=1.153640e-02
7526=7.229760e-03
7527=1.499292e-02
7532=-5.764175e-03
7533=5.776257e-03
7537=7.229760e-03
7538=1.499292e-02
7543=-5.764175e-03
7544=5.776257e-03
7548=-1.758398e-02
7554=2.950347e-02
7560=-3.640700e-01
7565=1.059609e-01
7570=-2.023944e-03
7581=-4.758674e-02
7582=6.004279e-02
7588=-4.771602e-02
7593=-3.640700e-01
7598=1.059609e-01
7603=-4.758674e-02
7604=6.004279e-02
7610=-4.771602e-02
7614=-1.593182e-02
7615=2.148131e-02
7625=-7.956024e-02
7626=1.142860e+00
7632=-6.523519e-03
7636=-4.758674e-02
7637=6.004279e-02
7643=-4.771602e-02
7647=-9.494669e-03
7648=4.243881e-02
7658=-5.535384e-02
7659=4.493471e-02
7670=-7.471500e-02
7675=3.501417e-01
7681=-7.164178e-02
7686=3.277645e-01
7692=-7.164178e-02
7697=3.277645e-01
7702=2.076114e-02
7713=-3.609359e-02
7714=8.637406e-02
7724=-5.063361e-02
7725=5.440904e-01
7735=4.083879e-03
7746=-1.148542e-04
7752=8.814005e-02
7757=1.173374e-03
7768=1.173374e-03
7779=2.327399e-02
7780=-1.233927e-01
7785=4.137654e-03
7790=3.252020e-03
7791=-5.310229e-02
7801=1.548518e-05
7812=1.548518e-05
7823=1.000336e-02
7834=2.718931e-01
7835=-1.973497e-01
7845=-7.433079e-02
7846=2.196158e-01
7851=2.574302e-04
7856=-4.020623e-03
7857=1.274594e-01
7867=9.480073e-03
7878=-1.796173e-02
7879=5.785428e-02
7889=1.169719e-03
7890=6.775837e-02
7900=2.879328e-02
7901=7.108861e-02
7906=-1.858816e-02
7911=1.169719e-03
7912=6.775837e-02
7923=8.761739e-04
7933=2.879328e-02
7934=7.108861e-02
7939=-1.858816e-02
7945=3.236615e-01
7955=2.879328e-02
7956=7.108861e-02
7961=-1.858816e-02
7966=2.904999e-02
7967=-3.973666e-03
7977=-2.077043e-01
7978=5.145601e-01
7985=1.972678e-01
7988=-5.050646e-02
7989=-8.458163e-04
7996=1.107982e+00
8000=3.164184e-02
8010=2.154915e-01
8011=-8.956070e-01
8016=-3.755870e-03
8017=1.003540e-02
8018=1.017741e+00
8022=1.790607e-03
8033=-6.015729e-02
8034=5.022843e-06
8040=8.909375e-03
8049=5.156242e-06
8060=5.156242e-06
8071=5.156242e-06
8077=1.352815e-01
8087=-1.342649e-01
8088=7.211029e-02
8098=-6.190004e-01
8099=5.071474e-01
8109=-4.107461e-02
8110=4.229045e-04
8115=2.841102e-02
8120=-3.342884e-03
8126=2.248894e-02
8131=-3.342884e-03
8137=2.248894e-02
8143=1.023270e-03
8153=-3.866861e-04
8154=2.316119e-02
8164=-3.815646e-02
8165=1.555690e-01
8175=-4.069640e-04
8176=3.213349e-02
8186=-5.943381e-04
8187=4.484645e-03
8197=-1.606967e-03
8198=1.957266e-02
8208=-1.606967e-03
8209=1.957266e-02
8219=-5.373202e-04
8220=8.178102e-03
8231=6.810964e-04
8241=7.399520e-02
8247=8.024704e-03
8252=7.621729e-02
8258=7.095372e-03
8263=2.067275e-04
8264=2.290001e-02
8269=2.677498e-02
8274=2.067275e-04
8275=2.290001e-02
8280=2.677498e-02
8285=-8.193692e-03
8286=2.225678e-02
8291=2.559946e-02
8296=6.660184e-04
8302=2.300971e-02
8307=2.108331e-04
8308=2.353468e-02
8313=2.734973e-02
8318=4.257876e-04
8319=2.332796e-02
8324=2.247327e-02
8329=3.086829e-04
8330=2.416736e-02
8335=2.126268e-02
8340=7.121486e-03
8341=2.340470e-02
8351=2.067275e-04
8352=2.290001e-02
8357=2.677498e-02
8363=3.974310e-02
8368=1.847582e-02
8373=-6.106199e-02
8374=4.422396e-02
8377=-1.581150e+00
8378=8.798551e-01
8379=1.284852e-02
8384=1.002910e-01
8390=1.425226e-02
8395=2.945360e-03
8401=2.352362e-02
8406=1.349780e-01
8407=1.885885e-03
8417=1.007998e-01
8423=1.448040e-02
8428=9.601932e-02
8434=2.304256e-02
8461=2.074020e-01
8462=-1.140885e+00
8473=1.241071e-01
8533=8.529318e-02
8560=-3.629370e-02
8561=1.174126e-01
8575=-2.814448e-01
8576=7.128593e-01
8586=-7.992632e-02
8587=3.183774e-01
8663=-5.930629e-01
8664=7.423324e-01
8719=3.473232e-01
8720=1.225337e-03
8721=-5.255737e-01
8726=1.863721e-03
8736=-3.730091e-03
8737=7.982629e-02
8742=-3.002856e-03
8748=-3.250788e-02
8758=-3.730091e-03
8759=7.982629e-02
8764=-3.002856e-03
8769=-3.730091e-03
8770=7.982629e-02
8775=-3.002856e-03
8780=-1.632644e-02
8781=1.439465e-03
8791=4.259064e-03
8792=4.051129e-03
8797=-1.480484e-03
8802=-4.791152e-03
8808=5.864641e-04
8814=8.031207e-04
8830=4.689809e-04
8836=7.438555e-04
8846=-6.340914e-02
8852=5.705847e-01
8857=-1.911024e-02
8863=4.095169e-02
8868=3.273042e-03
8869=-5.000972e-01
8874=7.077018e-02
8885=2.094731e-02
8896=2.246955e-02
8901=5.251279e-01
8902=-1.727090e+00
8912=-1.629271e-02
8913=1.195915e-03
8918=6.300790e-02
8929=4.869205e-03
8940=2.586898e-01
8945=5.090904e-02
8946=-2.360001e-02
8957=5.958030e-02
8968=-9.325958e-03
8975=1.330433e-01
8984=9.841105e-03
8990=1.308003e-02
9000=-1.293302e-03
9001=-2.183034e-03
9004=8.583964e-04
9006=1.957029e-06
9017=1.023941e-02
9028=2.031004e-03
9033=-5.382293e-03
9034=3.523638e-02
9039=-9.167746e-03
9045=2.896158e-03
9050=-6.792622e-03
9061=4.103171e-02
9066=-4.719049e-03
9072=8.686478e-02
9077=4.395094e-03
9078=-1.395344e-02
9088=8.316762e-01
9094=-8.645605e-01
9099=-4.375588e-02
9100=-6.576558e-04
9106=1.269741e-02
9110=-4.375588e-02
9111=-6.576558e-04
9117=1.269741e-02
9121=-1.026879e-02
9127=7.417842e-02
9133=1.817177e-02
9144=1.817177e-02
9154=-5.743649e-05
9160=2.405018e-03
9165=-5.743649e-05
9171=2.405018e-03
9176=4.343952e-03
9182=-4.242603e-03
9187=2.212520e-01
9193=-1.262191e-01
9198=2.212520e-01
9204=-1.262191e-01
9209=-5.349128e-02
9215=1.810552e-01
9220=-6.213519e-02
9226=5.716583e-01
9231=-5.349128e-02
9237=1.810552e-01
9242=-5.349128e-02
9248=1.810552e-01
9253=-3.638397e-02
9259=3.597011e-01
9270=3.477201e-02
9281=6.425656e-02
9292=3.477201e-02
9297=-2.108740e-02
9303=7.347896e-02
9308=-3.524297e-02
9314=8.993330e-02
9325=2.252154e-02
9330=-2.648141e-02
9331=1.848797e-02
9336=6.223857e-02
9337=-5.525268e-01
9341=-1.358518e-01
9342=6.723213e-03
9347=2.541564e-02
9348=-5.960164e-02
9353=1.481092e-03
9358=8.242768e-02
9359=-2.937774e-03
9369=3.403525e-03
9380=1.609341e-01
9385=2.750847e-02
9386=-1.814236e-01
9396=-2.699653e-02
9397=6.211971e-03
9404=5.882746e-03
9408=-1.557981e-03
9413=2.392767e-02
9419=-7.674431e-02
9430=-1.230888e-02
9440=-2.514889e-02
9441=9.178739e-03
9457=1.153643e-01
9463=-2.033406e-01
9468=5.553874e-01
9479=7.807907e-01
9485=3.261641e-02
9517=3.395542e-02
9529=1.127909e-03
9530=-6.065875e-02
9589=9.488949e-03
9607=4.743257e-02
9622=1.123140e-01
9628=-2.100668e-01
9633=5.539254e-01
9644=1.125728e-01
9649=-1.393517e-02
9650=3.698798e-01
9661=2.080008e-01
9666=-1.233928e-02
9672=3.204341e-01
9677=-1.540130e-02
9683=4.696027e-02
9694=9.349280e-02
9699=-6.963718e-03
9705=2.304934e-01
9710=-6.877847e-03
9716=9.074096e-02
9721=-6.604049e-03
9732=-1.258070e-02
9738=9.333321e-02
9743=-6.984279e-03
9749=4.654270e-02
9760=4.127495e-02
9771=4.286018e-02
9781=-5.031990e-01
9782=2.106099e-01
9793=9.233754e-04
9796=-2.884403e-03
9804=9.233754e-04
9807=-2.884403e-03
9815=9.233754e-04
9818=-2.884403e-03
9825=9.631114e-03
9842=4.742140e-04
9847=-7.615131e-01
9848=9.728808e-01
9853=1.106572e-05
9859=-1.805784e-02
9866=1.238796e-01
9869=-1.572750e+00
9870=4.522866e-02
9880=-1.919739e-01
9899=9.409827e-03
9903=-3.606766e-02
9910=1.916754e-01
9959=2.991265e-01
10016=1.027430e-01
10036=8.894726e-02
10046=-1.245668e-01
10047=9.355403e-01
10049=8.158050e-02
10051=-5.145185e-05
10057=3.469398e-03
10068=2.000319e-03
10137=2.419552e-01
10211=2.741290e-02
10221=-1.120117e-04
10232=-1.120117e-04
10243=6.342848e-01
10244=-1.199604e-01
10254=5.724621e-01
10255=-1.730755e-01
10265=-3.504898e-04
10276=-8.179029e-04
10282=6.455026e-03
10287=1.387042e-01
10298=-2.697023e-03
10299=7.584786e-05
10309=-2.354938e-04
10320=-7.530389e-03
10321=1.569555e-02
10331=-5.667431e-05
10332=7.692418e-04
10342=3.479671e-01
10343=-2.276556e-01
10353=3.359829e-01
10354=-2.304349e-01
10364=2.491006e-01
10365=-6.448507e-02
10375=8.462222e-01
10376=-4.834101e-01
10386=-8.510149e-01
10387=5.908369e-01
10397=-1.041869e-01
10398=2.377831e-01
10408=-2.330612e-01
10409=3.531372e-01
10419=4.233837e-01
10420=-2.170884e-01
10431=3.773440e-03
10441=-1.036548e-01
10442=4.357892e-02
10452=-9.752234e-03
10453=5.986230e-02
10463=-1.110544e-02
10464=2.452107e-02
10474=-1.315563e-01
10475=1.846155e-01
10485=-1.506077e-01
10486=3.954558e-01
10496=-1.506077e-01
10497=3.954558e-01
10507=-1.323699e+00
10508=1.899174e+00
10518=-3.285223e-02
10519=1.968363e-01
10529=-1.084075e-02
10530=4.928073e-02
10540=-1.858245e-02
10541=7.636076e-02
10551=-1.858245e-02
10552=7.636076e-02
10562=-1.003155e-02
10563=4.615573e-02
10573=-1.301653e-02
10574=1.294485e-01
10584=5.507445e-02
10591=-9.415895e-02
10602=4.071876e-01
10613=4.071876e-01
10624=6.159189e-04
10745=1.585617e-03
10761=2.439358e-03
10766=-1.370214e-04
10771=1.202297e-02
10777=6.687026e-02
10783=2.563256e-02
10794=2.563256e-02
10805=8.566680e-04
10816=2.563256e-02
10826=4.425010e-02
10832=-4.191179e-04
10837=6.909991e-03
10843=1.734417e-02
10849=3.883140e-02
10854=-1.186343e-01
10865=-4.152837e-04
10870=2.428159e-01
10881=1.215083e-03
10887=8.659718e-03
10898=1.671540e-02
10903=1.760730e-02
10909=6.928297e-03
10914=1.760730e-02
10920=6.928297e-03
10925=-1.695000e-03
10926=9.674812e-03
10936=1.616178e-01
10947=1.739426e-02
10953=8.177261e-03
10958=1.002030e-02
10959=2.948330e-04
10964=-2.003717e-03
10969=1.782814e-02
10975=7.274531e-03
10980=8.535823e-03
10981=2.882895e-05
10986=6.708526e-03
10991=1.002030e-02
10992=2.948330e-04
10997=-2.003717e-03
11002=7.455998e-02
11003=-2.559372e-01
11008=6.107714e-03
11019=1.618070e-02
11024=5.420706e-02
11025=-7.047707e-02
11030=7.332021e-03
11035=5.078664e-02
11036=-2.138553e-01
11046=1.027253e-02
11047=2.808434e-03
11052=1.916395e-02
11063=1.498183e-02
11074=2.825424e-02
11085=2.885967e-02
11096=2.885967e-02
11107=2.885967e-02
11112=2.123719e-02
11113=-6.423779e-02
11118=6.725900e-03
11129=1.546139e-02
11140=2.556613e-02
11151=2.636096e-03
11156=2.548228e-02
11157=-3.806766e-01
11167=-3.646524e-03
11168=5.416043e-02
11173=2.275070e-03
11178=-3.646524e-03
11179=5.416043e-02
11184=2.275070e-03
11189=2.665556e-02
11200=-3.646524e-03
11201=5.416043e-02
11206=2.275070e-03
11211=4.616840e-02
11212=-5.431377e-01
11222=6.555081e-03
11228=2.002977e-03
11233=4.616840e-02
11234=-5.431377e-01
11244=4.594699e-01
11245=-5.517310e-01
11255=1.165268e-01
11256=-5.141192e-02
11266=-6.899924e-05
11267=1.319972e-03
11277=-6.899924e-05
11278=1.319972e-03
11288=-2.211046e-02
11289=8.543871e-01
11299=-4.422322e-02
11300=8.298148e-03
11311=7.538421e-02
11321=-5.768089e-01
11328=3.361581e-02
11332=-3.910488e-01
11333=7.019948e-01
11344=-3.381405e-03
11350=8.293834e-02
11354=-5.057922e-02
11361=1.842192e-02
11365=-1.489307e-01
11366=3.764858e-01
11375=8.315023e-02
11386=6.603942e-02
11404=2.700562e-02
11408=8.315023e-02
11420=1.612659e-02
11437=1.585619e-02
11442=1.963901e-03
11459=1.585619e-02
11464=1.612659e-02
11475=1.674908e-02
11487=5.972151e-02
11490=-1.204003e-03
11497=8.232528e-01
11498=-4.468664e-01
11508=2.891120e-01
11520=6.121169e-02
11531=-1.423678e-01
11538=1.418017e-01
11541=-1.113588e-02
11549=3.702950e-01
11560=1.160087e-01
11563=-5.414904e-04
11564=3.982090e-03
11574=-5.414904e-04
11575=3.982090e-03
11586=-7.412958e-05
11596=4.692596e-02
11597=-3.459100e-01
11607=1.480994e-01
11618=4.683503e-01
11619=-4.887519e-01
11629=-9.174110e-02
11630=1.234744e-01
11640=-9.174110e-02
11641=1.234744e-01
11651=-6.484052e-03
11652=1.102127e-02
11662=-2.726052e-03
11663=9.148816e-03
11673=-2.233987e-01
11674=2.967933e-01
11684=-1.022705e-01
11685=1.404704e-01
11695=-7.507081e-03
11696=2.650730e-01
11706=-7.507081e-03
11707=2.650730e-01
11717=-1.432350e-02
11718=6.566698e-02
11728=3.226827e-02
11729=-2.705554e-02
11740=4.516005e-02
11750=-2.048387e-04
11762=-3.304358e-01
11769=4.200225e-01
11780=9.485101e-03
11783=-2.874455e-03
11794=-3.233987e-04
11795=5.840028e-04
11800=1.811283e-04
11801=-4.472157e-03
11805=-3.535668e-02
11823=1.300540e-02
11827=-3.233987e-04
11828=5.840028e-04
11833=1.811283e-04
11834=-4.472157e-03
11844=5.153657e-04
11849=-3.233987e-04
11850=5.840028e-04
11855=1.811283e-04
11856=-4.472157e-03
11860=-4.261776e-02
11861=5.005274e-02
11866=1.078308e-05
11867=4.610327e-02
11871=-1.795287e+00
11888=3.135451e-04
11893=-1.026458e-01
11894=8.634317e-02
11904=-2.224460e-01
11905=4.811701e-01
11921=5.166667e-02
11926=6.845830e-02
11927=-2.487334e-01
11932=3.353126e-02
11937=2.286268e-01
11938=-8.920732e-02
11948=-1.274717e-01
11949=1.900346e-01
11959=6.771870e-03
11970=-8.235961e-03
11971=5.957993e-02
11981=5.422688e-02
11987=2.991646e-03
11991=-4.948749e-03
11992=1.336701e-01
11998=1.317448e-02
12004=-2.236593e-01
12010=1.102758e-01
12014=1.221862e+00
12025=-1.247517e-02
12026=3.159817e-01
12042=6.126047e-04
12048=-7.046773e-02
12179=2.168118e-02
12190=1.057906e-01
12202=4.043276e-02
12213=4.032097e-02
12223=1.213321e-01
12224=-6.046038e-02
12240=7.684297e-03
12251=1.226596e-02
12262=1.226596e-02
12267=-4.566401e-02
12268=-7.368117e-03
12273=9.229770e-03
12274=1.332968e-02
12278=-1.062360e-01
12284=1.056361e-02
12295=1.213459e-02
12306=1.213459e-02
12317=1.213459e-02
12322=-5.552357e-02
12328=7.522565e-03
12333=-9.151091e-04
12334=2.292603e-02
12344=-5.552357e-02
12350=7.522565e-03
12355=-1.884513e-02
12361=1.037240e-02
12372=1.241236e-02
12377=-1.305076e-02
12378=1.225227e-01
12389=1.671666e-01
12400=9.553143e-07
12406=-2.696619e-03
12411=-2.742449e-01
12421=-2.710625e-01
12422=-2.208991e-02
12427=1.199941e-01
12432=-8.898338e-05
12433=-9.752881e-02
12438=1.171225e-04
12443=2.086149e-02
12454=-1.516154e-04
12460=1.095346e-03
12499=1.393154e-02
12500=-5.639786e-02
12511=4.113834e-02
12535=1.042881e-01
12559=7.411316e-02
12586=-6.999914e-05
12592=1.237774e-03
12597=4.361854e-01
12598=-6.262629e-02
12608=8.371113e-03
12641=2.911387e-01
12642=-3.368014e-01
12653=8.106538e-03
12689=2.434563e-01
12713=4.259593e-02
12741=4.129003e-04
12752=4.129003e-04
12763=1.918504e-03
12773=-3.632345e-04
12774=1.330364e-01
12784=-2.893514e-03
12785=9.555706e-02
12796=4.544160e-02
12814=1.005389e-02
12817=3.739616e-02
12828=7.604434e-01
12839=-1.700923e-02
12850=-1.033817e-02
12862=-3.170187e-02
12872=-4.575897e-03
12873=3.601811e-04
12878=3.354496e-02
12883=-4.166340e-03
12884=7.055863e-02
12894=-1.903498e-02
12905=-1.773996e-01
12906=3.948753e-01
12922=6.414611e-02
12927=-1.624706e-02
12928=1.455927e-01
12938=7.129225e-02
12950=1.194078e-01
12960=1.192770e-02
12961=-7.324508e-03
12971=2.227405e-02
12972=-7.073271e-03
12982=1.106819e-01
12983=-7.906321e-02
12993=7.794002e-02
12994=-1.393003e-02
13004=7.794002e-02
13005=-1.393003e-02
13015=6.245712e-02
13016=-1.220278e-02
13026=7.794002e-02
13027=-1.393003e-02
13037=7.794002e-02
13038=-1.393003e-02
13048=-4.655818e-02
13049=1.132321e-01
13059=-4.655818e-02
13060=1.132321e-01
13070=-4.655818e-02
13071=1.132321e-01
13082=4.250515e-03
13093=3.867569e-03
13103=2.273345e-01
13104=-1.244970e-01
13115=-4.682388e-03
13120=1.809028e-02
13125=-4.284814e-04
13137=-4.299075e-02
13154=7.574850e-02
13165=7.574850e-02
13176=7.574850e-02
13180=-1.362097e-02
13187=4.404408e-02
13192=9.016804e-01
13210=9.191180e-03
13221=9.428565e-03
13224=5.641738e-03
13235=-6.140988e-02
13242=3.742959e-02
13246=-5.263788e-02
13253=1.752867e-02
13257=-2.615393e-01
13258=6.978062e-01
13268=-1.178357e-01
13275=4.083331e-03
13280=-9.296307e-03
13290=-5.821837e-02
13296=5.560981e-02
13309=9.005040e-03
13320=7.900731e-03
13331=7.775729e-03
13334=-3.618253e-01
13335=8.623704e-01
13345=-1.195594e-01
13346=1.894176e-01
13356=-1.195594e-01
13357=1.894176e-01
13367=-1.531404e-01
13368=2.149127e-01
13378=-1.531404e-01
13379=2.149127e-01
13389=-1.678423e-01
13395=1.233405e-04
13400=-2.858810e-03
13401=9.537424e-02
13417=7.950138e-04
13422=-1.520582e-01
13433=-5.196666e-02
13445=8.349923e-01
13455=3.821347e-01
13456=-1.899575e-01
13466=1.541810e-02
13477=2.030080e-02
13478=-9.209461e-05
13489=-9.803949e-04
13499=-8.568818e-03
13500=1.038808e-02
13510=-3.744058e-03
13511=7.200742e-03
13522=-7.273528e-01
13528=3.130053e-02
13532=-8.345560e-02
13533=1.151669e-01
13543=-5.048447e-03
13554=-1.123094e-03
13565=-4.735364e-03
13577=-4.260752e-02
13583=4.048720e-03
13584=1.434076e-02
13587=-4.939665e-02
13593=1.827111e-04
13599=2.439965e-01
13610=1.773604e-01
13621=2.191319e-01
13632=2.191319e-01
13643=1.378073e-01
13654=2.728604e-01
13665=1.340946e-01
13676=1.356325e-01
13687=2.843484e-03
13697=2.964195e-02
13698=-5.115722e-01
13709=1.254651e-04
13719=-8.020667e-02
13720=2.147276e+00
13731=3.822101e-04
13742=3.822101e-04
13753=2.982065e-04
13764=2.982065e-04
13775=2.982065e-04
13786=2.982065e-04
13797=2.982065e-04
13808=1.241819e-04
13819=1.241819e-04
13830=1.241819e-04
13841=1.241819e-04
13852=1.241819e-04
13863=1.241819e-04
13874=3.242325e-04
13885=3.242325e-04
13896=3.242325e-04
13907=3.242325e-04
13918=3.242325e-04
13929=3.242325e-04
13940=3.242325e-04
13951=3.242325e-04
13962=4.634607e-04
13973=4.634607e-04
13984=4.634607e-04
13995=4.634607e-04
14006=4.634607e-04
14017=4.634607e-04
14028=4.634607e-04
14039=4.634607e-04
14050=4.634607e-04
14061=4.634607e-04
14071=-1.011585e-03
14072=1.886803e-04
14090=1.482196e-02
14101=1.547862e-02
14104=-2.910649e-02
14105=2.254632e-01
14116=1.879978e+00
14127=1.810416e-01
14185=5.890419e-01
14270=1.033246e-01
14281=5.323796e-02
14292=3.469968e-04
14302=2.052701e-01
14313=-5.573943e-03
14314=1.880034e-02
14325=1.357507e-01
14336=1.357507e-01
14347=1.329096e-01
14358=6.141940e-02
14369=5.652535e-02
14380=5.807548e-02
14390=5.094444e-02
14391=-1.785979e-02
14401=-4.463248e-02
14407=6.274256e-02
14412=-2.019803e-02
14418=4.778524e-02
14423=-6.102511e-02
14429=1.615914e-01
14434=-1.098859e-02
14440=6.014564e-02
14445=-5.838282e-04
14456=-5.838282e-04
14467=-5.182280e-04
14478=-6.450340e-03
14489=-8.823936e-02
14495=9.458307e-02
14500=-2.160110e-03
14506=8.419666e-02
14511=-2.024329e-02
14517=5.073258e-02
14528=6.430478e-02
14533=-5.117554e-03
14544=-1.162417e-03
14555=-7.877545e-03
14566=-9.014544e-02
14572=8.339137e-02
14577=-2.018760e-03
14583=7.283082e-02
14588=-4.871826e-04
14599=-1.203922e-01
14610=-1.284252e-01
14621=-1.284252e-01
14632=7.979967e-03
14633=-3.862321e-03
14643=6.588221e-05
14654=-1.165890e-01
14655=2.422165e-01
14665=-2.839509e-03
14671=3.397846e-03
14781=2.443706e-03
14841=7.918100e-03
14913=2.000740e-03
14940=-1.115022e-04
14951=-2.114346e-04
14962=-3.146135e-03
14963=1.216762e-03
14973=-1.533954e-03
14985=2.102551e-01
14995=-6.707684e-02
15006=-2.284716e-02
15017=-5.724974e-02
15028=-2.444378e-02
15039=-2.872541e-03
15050=-9.554577e-04
15051=4.167597e-04
15061=-4.408412e-03
15072=-2.251477e-03
15073=3.525286e-02
15083=-2.251477e-03
15084=3.525286e-02
15094=1.173172e+00
15095=-3.927899e-01
15105=3.922026e-03
15106=-3.096920e-03
15116=5.218415e-03
15117=-3.623717e-03
15127=3.922026e-03
15128=-3.096920e-03
15138=-1.455857e-02
15144=2.316076e-04
15149=-2.459084e-02
15160=5.040613e-02
15161=-1.651981e-02
15172=6.512241e-02
15183=9.000615e-02
15194=9.000615e-02
15205=6.512241e-02
15215=-2.111411e-02
15221=5.633871e-02
15232=1.028855e-03
15237=-6.909776e-03
15243=2.401243e-03
15249=-9.077686e-02
15255=1.220909e-01
15260=-1.010647e-01
15266=1.195674e-01
15271=-8.651277e-03
15277=3.748778e-02
15282=-9.077686e-02
15288=1.220909e-01
15293=-9.077686e-02
15299=1.220909e-01
15310=2.592717e-02
15321=2.650510e-02
15333=9.746339e-03
15344=9.746339e-03
15355=9.746339e-03
15366=9.746339e-03
15377=1.000685e-02
15388=1.000685e-02
15399=1.000685e-02
15403=-2.405641e-02
15410=8.162302e-02
15421=4.539340e-02
15424=-1.670628e-01
15435=-5.001310e-01
15436=9.152058e-01
15446=-9.924948e-02
15463=1.713630e-02
15468=5.267043e-02
15469=-2.204334e-02
15479=1.375367e-04
15485=-1.273886e-04
15491=-1.619005e-01
15498=1.429546e-01
15502=3.412190e-02
15513=1.104767e+00
15524=3.900813e-02
15535=3.222088e-01
15545=5.325871e-02
15546=-3.989964e-02
15557=9.204346e-04
15563=-2.280830e-04
15567=-6.319983e-04
15573=9.206166e-03
15578=-3.112943e-05
15590=-1.184538e-03
15595=6.375807e-03
15600=4.235613e-02
15601=-1.813450e-02
15611=4.235613e-02
15612=-1.813450e-02
15622=4.235613e-02
15623=-1.813450e-02
15633=4.235613e-02
15634=-1.813450e-02
15644=4.235613e-02
15645=-1.813450e-02
15655=4.235613e-02
15656=-1.813450e-02
15666=-1.695611e-02
15667=3.252699e-01
15677=-1.695611e-02
15678=3.252699e-01
15688=-1.695611e-02
15689=3.252699e-01
15700=3.335245e-02
15710=-6.868601e-03
15711=3.012061e-02
15722=4.973850e-02
15738=1.160552e-02
15743=-3.331815e-02
15744=4.371723e-02
15760=1.250651e-02
15766=2.736262e-02
15777=2.362874e-03
15788=2.362874e-03
15799=2.362874e-03
15810=1.640652e-03
15821=1.640652e-03
15832=1.799952e-02
15835=-1.491037e-03
15843=1.799952e-02
15846=-1.491037e-03
15854=1.799952e-02
15857=-1.491037e-03
15865=1.799952e-02
15868=-1.491037e-03
15876=1.183772e-02
15887=3.156412e-03
15897=-1.297842e-02
15898=4.240125e-02
15908=-1.108517e-02
15909=2.251607e-02
15919=1.052293e-03
15920=-2.141944e-02
15930=2.672582e-01
15931=-1.091055e-01
15941=4.510750e-03
15942=-2.815911e-03
15952=-1.041421e-03
15953=1.158849e-03
15963=-1.041421e-03
15964=1.158849e-03
15974=-1.039223e-03
15975=1.129501e-03
15985=-1.039223e-03
15986=1.129501e-03
15996=-3.612209e-01
15997=1.147681e+00
16007=-1.039223e-03
16008=1.129501e-03
16018=-1.039223e-03
16019=1.129501e-03
16029=-1.039223e-03
16030=1.129501e-03
16040=-1.039223e-03
16041=1.129501e-03
16057=9.049218e-03
16062=-7.454716e-03
16068=9.071501e-03
16073=-1.969421e-04
16079=8.316879e-03
16085=-3.732180e-02
16092=5.404051e-02
16096=-3.732180e-02
16103=5.404051e-02
16107=-3.755749e-02
16114=5.371291e-02
16118=-4.192548e-02
16125=5.331213e-02
16129=-3.732180e-02
16136=5.404051e-02
16140=-3.732180e-02
16147=5.404051e-02
16150=1.572307e-03
16151=-1.647228e-04
16161=1.572307e-03
16162=-1.647228e-04
16172=-5.485205e-03
16183=-8.078429e-02
16184=8.455471e-03
16194=-6.809811e-02
16195=3.205636e-02
16205=3.649907e-02
16217=-9.665731e-02
16224=1.519224e-01
16228=-9.665731e-02
16235=1.519224e-01
16239=-9.665731e-02
16246=1.519224e-01
16249=-9.156988e-03
16255=1.227085e-02
16260=-9.613558e-03
16266=1.230787e-02
16271=-9.613558e-03
16277=1.230787e-02
16282=-8.231791e-03
16288=9.414823e-03
16299=9.484589e-03
16305=1.160756e-03
16316=5.180015e-04
16326=-6.380515e-03
16327=1.809205e-02
16337=-2.847034e-03
16338=1.806119e-02
16348=-1.265709e-02
16349=2.590485e-02
16359=-1.265709e-02
16360=2.590485e-02
16370=-1.046331e-01
16371=1.286171e-01
16381=-1.265709e-02
16382=2.590485e-02
16392=-1.265709e-02
16393=2.590485e-02
16403=-1.265709e-02
16404=2.590485e-02
16414=-1.265709e-02
16415=2.590485e-02
16425=-1.265709e-02
16426=2.590485e-02
16436=-1.265709e-02
16437=2.590485e-02
16447=-1.265709e-02
16448=2.590485e-02
16458=-1.265709e-02
16459=2.590485e-02
16469=-1.265709e-02
16470=2.590485e-02
16480=-8.027004e-03
16481=1.346030e-02
16491=-3.289492e-03
16492=1.757009e-02
16502=-9.413227e-03
16503=1.611194e-02
16514=6.358346e-03
16525=5.314570e-03
16536=6.358346e-03
16547=9.279566e-03
16558=3.266947e-03
16569=9.279566e-03
16579=-6.105839e-05
16580=1.779479e-03
16590=-2.099158e-03
16591=7.505934e-03
16601=6.224857e-02
16602=-3.463876e-02
16612=1.233795e-02
16613=-9.842835e-02
16623=-1.492021e-02
16624=4.345363e-02
16634=-1.492021e-02
16635=4.345363e-02
16645=-1.283359e-02
16646=2.249497e-02
16656=-1.159451e-02
16657=2.229421e-02
16673=2.662467e-02
16678=4.831037e-02
16689=3.849832e-01
16690=-7.440958e-02
16700=-4.121562e-03
16711=-1.571416e-03
16712=1.012765e-03
16722=-9.474271e-02
16723=2.798190e-01
16733=-8.678553e-03
16734=3.264059e-02
16745=-4.707200e-03
16751=3.952738e-02
16756=-4.707200e-03
16762=3.952738e-02
16767=4.417882e-02
16778=1.230590e-03
16789=1.230590e-03
16800=-4.541912e-03
16806=3.874480e-02
16811=-3.933283e-03
16817=3.988038e-02
16822=-3.933283e-03
16828=3.988038e-02
16833=-2.450120e-03
16839=2.932154e-02
16844=-2.450120e-03
16850=2.932154e-02
16855=-2.450120e-03
16861=2.932154e-02
16872=2.929853e-02
16883=2.900412e-02
16894=2.929853e-02
16906=1.578263e-02
16917=1.613445e-02
16928=1.613445e-02
16939=1.613445e-02
16950=1.613445e-02
16961=1.613445e-02
16972=1.578263e-02
16983=1.578263e-02
16994=1.578263e-02
17005=1.578263e-02
17008=1.796378e-02
17019=4.524191e-01
17020=-4.174420e-01
17030=4.524191e-01
17031=-4.174420e-01
17041=4.757626e-01
17042=-4.135618e-01
17053=1.793152e-03
17064=1.793152e-03
17075=1.793152e-03
17085=-6.038354e-03
17086=1.023523e-02
17096=-1.150985e-03
17097=3.277682e-03
17107=-4.333279e-03
17108=8.444852e-03
17118=-4.333279e-03
17119=8.444852e-03
17129=-1.403457e-03
17130=2.955274e-03
17140=-1.403457e-03
17141=2.955274e-03
17152=1.070966e-03
17162=-2.394532e-03
17163=6.282301e-03
17173=-2.394532e-03
17174=6.282301e-03
17185=1.070966e-03
17195=-2.394532e-03
17196=6.282301e-03
17207=1.070966e-03
17217=-2.394532e-03
17218=6.282301e-03
17229=1.317143e-02
17240=1.317143e-02
17250=-1.004589e-02
17251=2.800350e-02
17261=-1.004589e-02
17262=2.800350e-02
17272=-1.023362e-02
17273=2.823069e-02
17283=-1.023362e-02
17284=2.823069e-02
17294=-1.023362e-02
17295=2.823069e-02
17305=-9.624613e-03
17306=2.469792e-02
17316=-9.624613e-03
17317=2.469792e-02
17327=-9.624613e-03
17328=2.469792e-02
17338=-7.837073e-03
17344=1.156366e-02
17356=3.515629e-02
17367=1.688206e-02
17378=3.541310e-02
17389=3.541310e-02
17400=3.541310e-02
17411=3.541310e-02
17422=3.541310e-02
17433=1.952524e+00
17444=3.541310e-02
17455=3.541310e-02
17466=3.541310e-02
17477=1.701324e-02
17488=1.701324e-02
17499=1.701324e-02
17510=1.701324e-02
17515=-5.754462e-04
17521=1.505613e-01
17532=7.848529e-02
17543=1.701324e-02
17554=1.701324e-02
17565=1.701324e-02
17576=1.412309e-02
17587=1.412309e-02
17598=1.412309e-02
17602=-1.235664e-02
17603=1.243486e-01
17614=1.671935e-01
17624=-1.220310e-02
17625=1.259797e-01
17635=-1.220310e-02
17636=1.259797e-01
17646=-1.220310e-02
17647=1.259797e-01
17657=-1.220310e-02
17658=1.259797e-01
17668=-1.220310e-02
17669=1.259797e-01
17679=-1.220310e-02
17680=1.259797e-01
17691=1.695415e-01
17702=1.695415e-01
17713=1.695415e-01
17724=1.695415e-01
17735=1.695415e-01
17746=1.695415e-01
17757=1.419036e-03
17763=-2.317138e-04
17768=1.419036e-03
17774=-2.317138e-04
17779=1.419036e-03
17785=-2.317138e-04
17790=1.419036e-03
17796=-2.317138e-04
17807=1.747478e-03
17818=1.747478e-03
17823=-3.522686e-02
17834=-2.936590e-02
17851=1.747478e-03
17862=1.747478e-03
17873=1.747478e-03
17884=1.747478e-03
17895=1.747478e-03
17906=1.747478e-03
17917=1.747478e-03
17928=1.747478e-03
17939=1.747478e-03
17950=1.747478e-03
17954=-1.030132e-02
17960=1.248952e-02
17965=-1.030132e-02
17971=1.248952e-02
17976=-1.030132e-02
17982=1.248952e-02
17987=-1.030132e-02
17993=1.248952e-02
17998=-1.030132e-02
18004=1.248952e-02
18009=-1.030132e-02
18015=1.248952e-02
18020=-1.030132e-02
18026=1.248952e-02
18031=-1.085903e-02
18037=1.253335e-02
18042=-1.085903e-02
18048=1.253335e-02
18053=-1.085903e-02
18059=1.253335e-02
18064=-1.085903e-02
18070=1.253335e-02
18075=-1.085903e-02
18081=1.253335e-02
18086=-8.390901e-03
18092=9.580540e-03
18097=-8.390901e-03
18103=9.580540e-03
18108=-8.390901e-03
18114=9.580540e-03
18119=-8.390901e-03
18125=9.580540e-03
18130=-8.390901e-03
18136=9.580540e-03
18147=9.619427e-03
18158=9.619427e-03
18163=-8.195638e-03
18169=9.627830e-03
18174=-8.195638e-03
18180=9.627830e-03
18191=9.490776e-03
18202=9.490776e-03
18213=9.490776e-03
18224=9.381439e-03
18235=9.381439e-03
18246=9.381439e-03
18257=9.381439e-03
18268=9.381439e-03
18279=9.344649e-03
18290=9.344649e-03
18301=9.344649e-03
18312=9.344649e-03
18323=9.344649e-03
18334=1.454450e-02
18345=1.454450e-02
18356=1.454450e-02
18361=-3.448600e-04
18367=1.430779e-02
18372=-3.448600e-04
18378=1.430779e-02
18389=1.411018e-02
18400=1.411018e-02
18411=1.543265e-02
18422=1.543265e-02
18433=1.543265e-02
18444=1.543265e-02
