#mdl#2#3031
#rdr#61/19/0
1:*,
18:u:Tok-1 X=%x[ 0,0],
18:u:tok-1 X=%x[ 0,1],
18:u:tok-1LL=%X[-2,0],
18:u:tok-1 L=%X[-1,0],
18:u:tok-1 R=%X[ 1,0],
18:u:tok-1RR=%X[ 2,0],
27:u:tok-2 L=%X[-1,0]/%X[ 0,0],
27:u:tok-2 R=%X[ 0,0]/%X[ 1,0],
18:*:Fst-1 X=%x[ 0,2],
18:u:Fst-1 R=%x[ 1,2],
27:u:Fst-2 X=%x[ 0,2]/%x[ 0,4],
27:u:Fst-2 R=%x[ 1,2]/%x[ 1,4],
18:*:Lst-1 L=%x[-1,3],
18:u:Lst-1 X=%x[ 0,3],
27:u:Lst-2 L=%x[-1,3]/%x[-1,6],
27:u:Lst-2 X=%x[ 0,3]/%x[ 0,6],
18:u:Pre-1 X=%x[ 0,4],
18:u:Pre-2 X=%x[ 0,5],
18:u:Pre-2 R=%x[ 1,5],
18:u:Suf-1 X=%x[ 0,6],
18:u:Suf-2 L=%x[-1,7],
18:u:Suf-2 X=%x[ 0,7],
18:u:Cap-1 L=%x[-1,8],
18:u:Cap-1 X=%x[ 0,8],
18:u:Cap-1 R=%x[ 1,8],
27:u:Cap-2 L=%x[-1,8]/%x[ 0,8],
27:u:Cap-2 R=%x[ 0,8]/%x[ 1,8],
28:u:Cap-3 L=%x[-1,18]/%x[ 0,8],
18:*:Num-1 L=%x[-1,9],
18:*:Num-1 X=%x[ 0,9],
18:u:Num-1 R=%x[ 1,9],
28:u:Num-2 R=%x[ 0,9]/%x[ 0,17],
28:u:Num-2 R=%x[ 0,9]/%x[ 0,18],
19:u:Nme-1 X=%x[ 0,10],
19:u:Loc-1 X=%x[ 0,11],
19:u:Pub-1 X=%x[ 0,12],
19:u:Jnl-1 X=%x[ 0,13],
19:u:Key-1 L=%x[-1,14],
19:u:Key-1 X=%x[ 0,14],
19:u:Key-1 R=%x[ 1,14],
28:u:Key-2 X=%x[ 0,14]/%x[ 0,8],
29:u:Key-3 L=%x[-1,18]/%x[ 0,14],
29:u:Key-3 x=%x[ 0,14]/%x[ 0,18],
19:u:Pos-1 X=%x[ 0,15],
29:u:Pos-2 L=%x[-1,15]/%x[ 0,15],
29:u:Pos-2 R=%x[ 0,15]/%x[ 1,15],
19:u:Pct-1 L=%x[-1,16],
19:u:Pct-1 X=%x[ 0,16],
19:u:Pct-1 R=%x[ 1,16],
19:u:Brk-1 L=%x[-1,17],
19:u:Brk-1 X=%x[ 0,17],
19:u:Brk-1 R=%x[ 1,17],
19:*:Tmn-1 L=%x[-1,18],
19:u:Tmn-1 X=%x[ 0,18],
19:u:Tmn-1 R=%x[ 1,18],
29:u:Tmn-2 L=%x[-1,14]/%x[ 0,18],
29:u:Tmn-2 R=%x[ 0,18]/%x[ 1,14],
28:u:Tmn-3 X=%x[ 0,18]/%x[ 0,6],
28:u:Tmn-4 R=%x[ 0,18]/%x[ 1,8],
19:u:Id--1 X=%x[ 0,19],
#qrk#11
7:Authors,
4:Year,
5:Title,
9:Publisher,
4:City,
10:Pagination,
6:Series,
6:Volume,
5:Issue,
3:DOI,
4:Book,
#qrk#1276
1:*,
14:u:tok-1LL=_x-2,
14:u:tok-1 L=_x-1,
12:*:Fst-1 X=Lu,
12:u:Fst-1 R=Lu,
14:u:Fst-2 X=Lu/G,
14:u:Fst-2 R=Lu/S,
14:*:Lst-1 L=_x-1,
11:u:Lst-1 X=P,
19:u:Lst-2 L=_x-1/_x-1,
13:u:Lst-2 X=P/,,
11:u:Pre-1 X=G,
11:u:Suf-1 X=,,
14:u:Suf-2 L=_x-1,
14:u:Cap-1 L=_x-1,
17:u:Cap-1 X=initial,
16:u:Cap-1 R=single,
22:u:Cap-2 L=_x-1/initial,
24:u:Cap-2 R=initial/single,
22:u:Cap-3 L=_x-1/initial,
14:*:Num-1 L=_x-1,
14:*:Num-1 X=none,
14:u:Num-1 R=none,
19:u:Num-2 R=none/none,
19:u:Num-2 R=none/weak,
11:u:Nme-1 X=F,
11:u:Loc-1 X=F,
11:u:Pub-1 X=F,
11:u:Jnl-1 X=F,
14:u:Key-1 L=_x-1,
14:u:Key-1 X=none,
22:u:Key-2 X=none/initial,
19:u:Key-3 L=_x-1/none,
19:u:Key-3 x=none/weak,
15:u:Pos-1 X=first,
20:u:Pos-2 L=_x-1/first,
14:u:Pct-1 L=_x-1,
15:u:Pct-1 X=other,
16:u:Pct-1 R=period,
14:u:Brk-1 L=_x-1,
14:u:Brk-1 X=none,
14:u:Brk-1 R=none,
14:*:Tmn-1 L=_x-1,
14:u:Tmn-1 X=weak,
16:u:Tmn-1 R=strong,
16:u:Tmn-3 X=weak/,,
11:u:Id--1 X=F,
14:u:Fst-2 X=Lu/S,
11:*:Lst-1 L=P,
13:u:Lst-2 L=P/,,
13:u:Lst-2 X=P/.,
11:u:Pre-1 X=S,
11:u:Suf-1 X=.,
17:u:Cap-1 L=initial,
16:u:Cap-1 X=single,
15:u:Cap-1 R=other,
14:*:Num-1 L=none,
21:u:Num-2 R=none/strong,
14:u:Key-1 L=none,
13:u:Key-1 R=and,
11:u:Pos-1 X=1,
13:u:Pos-2 R=1/1,
15:u:Pct-1 L=other,
16:u:Pct-1 X=period,
14:u:Brk-1 L=none,
14:*:Tmn-1 L=weak,
16:u:Tmn-1 X=strong,
14:u:Tmn-1 R=none,
21:u:Tmn-2 L=none/strong,
18:u:Tmn-3 X=strong/.,
13:u:Lst-2 L=P/.,
15:u:Cap-1 X=other,
17:u:Cap-1 R=initial,
23:u:Cap-2 R=other/initial,
14:u:Key-1 R=none,
13:u:Pos-2 L=1/1,
16:u:Pct-1 L=period,
15:u:Pct-1 R=other,
16:*:Tmn-1 L=strong,
14:u:Tmn-1 X=none,
14:u:Tmn-1 R=weak,
19:u:Tmn-2 R=none/none,
22:u:Tmn-4 R=none/initial,
14:u:Fst-2 R=Lu/C,
15:u:Cap-1 L=other,
23:u:Cap-2 L=other/initial,
22:u:Cap-3 L=none/initial,
15:u:Num-1 R=roman,
11:u:Nme-1 X=T,
11:u:Loc-1 X=T,
11:u:Jnl-1 X=T,
13:u:Key-1 L=and,
19:u:Key-3 L=none/none,
11:u:Pos-1 X=2,
13:u:Pos-2 L=1/2,
13:u:Pos-2 R=2/3,
14:u:Pct-1 R=none,
14:*:Tmn-1 L=none,
19:u:Tmn-2 R=weak/none,
11:u:Fst-1 R=N,
14:u:Fst-2 X=Lu/C,
13:u:Fst-2 R=N/2,
12:u:Lst-1 X=Lu,
11:u:Pre-1 X=C,
12:u:Pre-2 R=20,
15:*:Num-1 X=roman,
14:u:Num-1 R=year,
20:u:Num-2 R=roman/none,
21:u:Key-2 X=none/single,
19:u:Key-3 L=weak/none,
19:u:Key-3 x=none/none,
11:u:Pos-1 X=3,
13:u:Pos-2 L=2/3,
13:u:Pos-2 R=3/3,
14:u:Pct-1 X=none,
19:u:Tmn-2 L=none/none,
20:u:Tmn-4 R=none/other,
11:*:Fst-1 X=N,
13:u:Fst-2 X=N/2,
14:u:Fst-2 R=Lu/M,
12:*:Lst-1 L=Lu,
11:u:Lst-1 X=N,
13:u:Lst-2 X=N/1,
11:u:Pre-1 X=2,
12:u:Pre-2 X=20,
12:u:Pre-2 R=Mo,
11:u:Suf-1 X=1,
20:u:Cap-3 L=none/other,
15:*:Num-1 L=roman,
14:*:Num-1 X=year,
19:u:Num-2 R=year/none,
20:u:Key-2 X=none/other,
13:u:Pos-2 L=3/3,
13:u:Pos-2 R=3/4,
14:u:Pct-1 L=none,
16:u:Tmn-3 X=none/1,
12:u:tok-1RR=de,
12:u:Fst-1 R=Ll,
14:u:Fst-2 X=Lu/M,
14:u:Fst-2 R=Ll/m,
11:*:Lst-1 L=N,
12:u:Lst-1 X=Ll,
14:u:Lst-2 X=Ll/s,
11:u:Pre-1 X=M,
12:u:Pre-2 R=ma,
11:u:Suf-1 X=s,
15:u:Cap-1 R=lower,
23:u:Cap-2 R=initial/lower,
14:*:Num-1 L=year,
11:u:Pos-1 X=4,
13:u:Pos-2 L=3/4,
13:u:Pos-2 R=4/4,
16:u:Tmn-3 X=none/s,
20:u:Tmn-4 R=none/lower,
12:u:tok-1 R=de,
12:*:Fst-1 X=Ll,
14:u:Fst-2 X=Ll/m,
14:u:Fst-2 R=Ll/d,
12:*:Lst-1 L=Ll,
14:u:Lst-2 L=Ll/s,
11:u:Pre-1 X=m,
12:u:Pre-2 X=ma,
12:u:Pre-2 R=de,
15:u:Cap-1 X=lower,
23:u:Cap-2 L=initial/lower,
21:u:Cap-2 R=lower/lower,
20:u:Cap-3 L=none/lower,
20:u:Key-2 X=none/lower,
13:u:Pos-2 L=4/4,
13:u:Pos-2 R=4/5,
12:u:Tok-1 X=de,
12:u:tok-1 X=de,
14:u:Fst-2 X=Ll/d,
14:u:Fst-2 R=Lu/A,
14:u:Lst-2 X=Ll/e,
11:u:Pre-1 X=d,
12:u:Pre-2 X=de,
11:u:Suf-1 X=e,
12:u:Suf-2 X=de,
15:u:Cap-1 L=lower,
21:u:Cap-2 L=lower/lower,
23:u:Cap-2 R=lower/initial,
11:u:Pos-1 X=5,
13:u:Pos-2 L=4/5,
13:u:Pos-2 R=5/6,
16:u:Tmn-3 X=none/e,
12:u:tok-1 L=de,
14:u:Fst-2 X=Lu/A,
14:u:Fst-2 R=Lu/U,
14:u:Lst-2 L=Ll/e,
14:u:Lst-2 X=Ll/a,
11:u:Pre-1 X=A,
12:u:Pre-2 X=An,
11:u:Suf-1 X=a,
12:u:Suf-2 L=de,
23:u:Cap-2 L=lower/initial,
25:u:Cap-2 R=initial/initial,
11:u:Pos-1 X=6,
13:u:Pos-2 L=5/6,
13:u:Pos-2 R=6/6,
16:u:Tmn-3 X=none/a,
12:u:tok-1LL=de,
17:u:tok-1RR=málaga,
14:u:Fst-2 X=Lu/U,
14:u:Lst-2 L=Ll/a,
14:u:Lst-2 X=Ll/d,
11:u:Pre-1 X=U,
12:u:Pre-2 X=Un,
11:u:Suf-1 X=d,
25:u:Cap-2 L=initial/initial,
13:u:Pos-2 L=6/6,
13:u:Pos-2 R=6/7,
16:u:Tmn-3 X=none/d,
17:u:tok-1 R=málaga,
14:u:Lst-2 L=Ll/d,
13:u:Pre-2 R=Má,
11:u:Pos-1 X=7,
13:u:Pos-2 L=6/7,
13:u:Pos-2 R=7/8,
11:u:Pos-1 X=8,
13:u:Pos-2 L=7/8,
13:u:Pos-2 R=8/8,
14:u:Fst-2 R=Lu/X,
14:u:Cap-1 R=caps,
22:u:Cap-2 R=initial/caps,
13:u:Pos-2 L=8/8,
13:u:Pos-2 R=8/9,
20:u:Tmn-2 R=none/roman,
19:u:Tmn-4 R=none/caps,
14:u:tok-1RR=_x+1,
13:u:Fst-2 R=N/1,
12:u:Suf-2 X=I,,
14:u:Cap-1 X=caps,
22:u:Cap-2 L=initial/caps,
20:u:Cap-2 R=caps/other,
19:u:Cap-3 L=none/caps,
15:u:Num-1 R=range,
20:u:Num-2 R=roman/weak,
15:u:Key-1 X=roman,
20:u:Key-2 X=roman/caps,
20:u:Key-3 L=none/roman,
20:u:Key-3 x=roman/weak,
11:u:Pos-1 X=9,
13:u:Pos-2 L=8/9,
16:u:Pos-2 R=9/last,
16:u:Pct-1 R=hyphen,
19:u:Tmn-2 L=none/weak,
20:u:Tmn-4 R=weak/other,
14:u:tok-1 R=_x+1,
14:u:tok-1RR=_x+2,
14:u:Fst-1 R=_x+1,
13:u:Fst-2 X=N/1,
19:u:Fst-2 R=_x+1/_x+1,
11:u:Pre-1 X=1,
14:u:Pre-2 R=_x+1,
14:u:Cap-1 L=caps,
14:u:Cap-1 R=_x+1,
20:u:Cap-2 L=caps/other,
20:u:Cap-2 R=other/_x+1,
20:u:Cap-3 L=weak/other,
15:*:Num-1 X=range,
14:u:Num-1 R=_x+1,
20:u:Num-2 R=range/none,
14:u:Key-1 R=_x+1,
14:u:Pos-1 X=last,
16:u:Pos-2 L=9/last,
19:u:Pos-2 R=last/_x+1,
16:u:Pct-1 X=hyphen,
14:u:Pct-1 R=_x+1,
14:u:Brk-1 R=_x+1,
14:u:Tmn-1 R=_x+1,
19:u:Tmn-2 R=none/_x+1,
19:u:Tmn-4 R=none/_x+1,
17:u:Pos-2 R=first/0,
14:u:Fst-2 R=Lu/H,
22:u:Tmn-4 R=weak/initial,
14:u:Fst-2 X=Lu/H,
14:u:Fst-2 R=Lu/K,
11:u:Pre-1 X=H,
22:u:Cap-3 L=weak/initial,
14:u:Fst-2 X=Lu/K,
11:u:Pre-1 X=K,
21:u:Key-3 x=none/strong,
21:u:Tmn-2 R=strong/none,
14:u:Fst-2 R=Lu/D,
12:u:Pre-2 R=De,
21:u:Key-3 L=strong/none,
12:u:Tok-1 X=De,
14:u:Fst-2 X=Lu/D,
11:u:Pre-1 X=D,
12:u:Pre-2 X=De,
12:u:Suf-2 X=De,
13:u:Pos-2 R=2/2,
13:u:Pos-2 L=2/2,
14:u:tok-1 R=2017,
14:u:Tok-1 X=2017,
14:u:tok-1 X=2017,
13:u:Lst-2 X=N/7,
11:u:Suf-1 X=7,
12:u:Suf-2 X=17,
16:u:Tmn-3 X=none/7,
14:u:Fst-2 R=Ll/s,
14:u:Lst-2 X=Ll/i,
11:u:Suf-1 X=i,
16:u:Tmn-3 X=none/i,
14:u:Fst-2 X=Ll/s,
14:u:Lst-2 L=Ll/i,
11:u:Pre-1 X=s,
22:u:Tmn-4 R=strong/lower,
14:u:Fst-2 R=Ll/a,
14:u:Key-1 X=date,
20:u:Tmn-4 R=weak/lower,
14:u:Fst-2 X=Ll/a,
11:u:Pre-1 X=a,
20:u:Cap-3 L=weak/lower,
14:u:Key-1 L=date,
13:u:tok-1 X=new,
14:u:Lst-2 X=Ll/w,
11:u:Suf-1 X=w,
12:u:Suf-2 X=ew,
11:u:Pub-1 X=T,
13:u:Pos-2 R=5/5,
16:u:Tmn-3 X=none/w,
11:u:tok-1LL=a,
13:u:tok-1 L=new,
14:u:Lst-2 L=Ll/w,
14:u:Lst-2 X=Ll/l,
11:u:Suf-1 X=l,
12:u:Suf-2 L=ew,
13:u:Pos-2 L=5/5,
16:u:Tmn-3 X=none/l,
13:u:tok-1RR=the,
14:u:Fst-2 R=Ll/f,
14:u:Lst-2 L=Ll/l,
14:u:Lst-2 X=Ll/p,
11:u:Suf-1 X=p,
16:u:Tmn-3 X=none/p,
13:u:tok-1 R=the,
14:u:Fst-2 X=Ll/f,
14:u:Fst-2 R=Ll/t,
14:u:Lst-2 L=Ll/p,
14:u:Lst-2 X=Ll/m,
11:u:Pre-1 X=f,
12:u:Pre-2 R=th,
11:u:Suf-1 X=m,
16:u:Tmn-3 X=none/m,
13:u:Tok-1 X=the,
13:u:tok-1 X=the,
14:u:tok-1 L=from,
14:u:Lst-2 L=Ll/m,
12:u:Pre-2 X=th,
12:u:Suf-2 L=om,
12:u:Suf-2 X=he,
14:u:tok-1LL=from,
13:u:tok-1 L=the,
14:u:Fst-2 R=Ll/e,
12:u:Suf-2 L=he,
12:u:Suf-2 X=al,
13:u:Pos-2 R=7/7,
13:u:tok-1LL=the,
14:u:Fst-2 X=Ll/e,
14:u:Fst-2 R=Lu/P,
14:u:Lst-2 X=Ll/n,
11:u:Pre-1 X=e,
11:u:Suf-1 X=n,
12:u:Suf-2 L=al,
13:u:Pos-2 L=7/7,
16:u:Tmn-3 X=none/n,
17:u:tok-1 X=pacific,
12:u:Fst-1 R=Ps,
14:u:Fst-2 X=Lu/P,
14:u:Fst-2 R=Ps/(,
14:u:Lst-2 L=Ll/n,
14:u:Lst-2 X=Ll/c,
11:u:Pre-1 X=P,
12:u:Pre-2 X=Pa,
11:u:Suf-1 X=c,
12:u:Suf-2 L=rn,
12:u:Suf-2 X=ic,
15:u:Pct-1 R=colon,
18:u:Tmn-1 R=moderate,
16:u:Tmn-3 X=none/c,
12:*:Fst-1 X=Ps,
14:u:Fst-2 X=Ps/(,
14:u:Lst-2 L=Ll/c,
13:u:Lst-2 X=P/:,
11:u:Pre-1 X=(,
11:u:Suf-1 X=:,
12:u:Suf-2 L=ic,
28:u:Num-2 R=none/opening-paren,
23:u:Num-2 R=none/moderate,
23:u:Key-3 x=none/moderate,
15:u:Pct-1 X=colon,
23:u:Brk-1 X=opening-paren,
23:u:Brk-1 R=closing-paren,
18:u:Tmn-1 X=moderate,
23:u:Tmn-2 L=none/moderate,
23:u:Tmn-2 R=moderate/none,
20:u:Tmn-3 X=moderate/:,
26:u:Tmn-4 R=moderate/initial,
11:u:Id--1 X=T,
17:u:tok-1 R=zootaxa,
14:u:Fst-2 R=Lu/Z,
12:u:Lst-1 X=Pe,
13:u:Lst-2 L=P/:,
14:u:Lst-2 X=Pe/),
12:u:Pre-2 R=Zo,
11:u:Suf-1 X=),
12:u:Suf-2 X=e),
26:u:Cap-3 L=moderate/initial,
28:u:Num-2 R=none/closing-paren,
23:u:Key-3 L=moderate/none,
15:u:Pct-1 L=colon,
23:u:Brk-1 L=opening-paren,
23:u:Brk-1 X=closing-paren,
18:*:Tmn-1 L=moderate,
18:u:Tmn-3 X=strong/),
24:u:Tmn-4 R=strong/initial,
11:u:tok-1RR=1,
14:u:Fst-2 X=Lu/Z,
12:*:Lst-1 L=Pe,
14:u:Lst-2 L=Pe/),
11:u:Pre-1 X=Z,
12:u:Pre-2 X=Zo,
12:u:Suf-2 L=e),
23:u:Cap-2 R=initial/other,
24:u:Cap-3 L=strong/initial,
23:u:Brk-1 L=closing-paren,
23:u:Cap-2 L=initial/other,
21:u:Cap-2 R=other/other,
14:*:Num-1 X=quad,
16:u:Num-1 R=single,
19:u:Num-2 R=quad/none,
13:u:Pos-2 R=9/9,
11:u:Tok-1 X=1,
11:u:tok-1 X=1,
13:u:Lst-2 L=N/4,
11:u:Pre-2 X=1,
11:u:Suf-2 X=1,
21:u:Cap-2 L=other/other,
14:*:Num-1 L=quad,
16:*:Num-1 X=single,
21:u:Num-2 R=single/none,
13:u:Pos-2 L=9/9,
12:u:Pre-2 R=10,
16:*:Num-1 L=single,
12:u:Pre-2 X=10,
15:*:Num-1 L=range,
17:*:Num-1 X=numeric,
22:u:Num-2 R=numeric/none,
16:u:Pct-1 L=hyphen,
14:u:Fst-2 X=Lu/E,
11:u:Pre-1 X=E,
12:u:Suf-2 X=y,,
14:u:Fst-2 R=Lu/B,
14:u:Fst-2 X=Lu/B,
11:u:Pre-1 X=B,
12:u:Pre-2 X=Bo,
21:u:Cap-3 L=none/single,
14:u:Fst-2 R=Ll/c,
14:u:Fst-2 X=Ll/c,
11:u:Pre-1 X=c,
14:u:Fst-2 R=Lu/L,
12:u:tok-1RR=on,
14:u:Fst-2 X=Lu/L,
11:u:Pre-1 X=L,
12:u:tok-1 R=on,
14:u:Fst-2 R=Ll/o,
12:u:Pre-2 R=on,
12:u:Tok-1 X=on,
12:u:tok-1 X=on,
14:u:Fst-2 X=Ll/o,
11:u:Pre-1 X=o,
12:u:Pre-2 X=on,
12:u:Suf-2 X=on,
12:u:tok-1 L=on,
14:u:Fst-2 R=Lu/R,
12:u:Pre-2 R=Re,
12:u:Suf-2 L=on,
13:u:tok-1 R=sea,
14:u:Fst-2 X=Lu/R,
11:u:Pre-1 X=R,
12:u:Pre-2 R=Se,
12:u:Suf-2 X=ed,
13:u:Tok-1 X=Sea,
13:u:tok-1 X=sea,
14:u:Fst-2 R=Ll/i,
12:u:Pre-2 X=Se,
12:u:Suf-2 X=ea,
13:u:tok-1 L=sea,
14:u:Fst-2 X=Ll/i,
14:u:Lst-2 X=Ll/t,
11:u:Pre-1 X=i,
11:u:Suf-1 X=t,
12:u:Suf-2 L=ea,
16:u:Tmn-3 X=none/t,
14:u:Lst-2 L=Ll/t,
12:u:Suf-2 L=nt,
12:u:Suf-2 L=et,
12:u:Pre-2 X=Ca,
14:u:Lst-2 X=Ll/h,
11:u:Suf-1 X=h,
12:u:Suf-2 X=th,
16:u:Tmn-3 X=none/h,
12:u:tok-1RR=of,
12:u:Suf-2 L=th,
12:u:tok-1 R=of,
12:u:Pre-2 R=of,
12:u:Tok-1 X=of,
12:u:tok-1 X=of,
14:u:Lst-2 X=Ll/f,
12:u:Pre-2 X=of,
11:u:Suf-1 X=f,
12:u:Suf-2 X=of,
16:u:Tmn-3 X=none/f,
12:u:tok-1 L=of,
14:u:Lst-2 L=Ll/f,
12:u:Suf-2 L=of,
12:u:tok-1LL=of,
12:u:Suf-2 L=ts,
14:u:Lst-2 X=Ll/y,
11:u:Suf-1 X=y,
12:u:Suf-2 X=gy,
16:u:Num-1 R=double,
16:u:Tmn-3 X=none/y,
13:u:Fst-2 X=N/8,
14:u:Lst-2 L=Ll/y,
11:u:Pre-1 X=8,
16:*:Num-1 X=double,
21:u:Num-2 R=double/none,
16:*:Num-1 L=double,
13:u:Lst-2 L=N/6,
12:u:Pre-2 R=As,
12:u:Pre-2 X=As,
12:u:Suf-2 X=ng,
14:u:Lst-2 L=Ll/g,
12:u:Suf-2 X=ce,
12:u:Suf-2 L=ce,
12:u:Suf-2 X=en,
21:u:Cap-2 R=lower/other,
12:u:Suf-2 L=en,
21:u:Cap-2 L=lower/other,
16:u:Brk-1 R=parens,
12:u:Suf-2 L=a),
12:u:Suf-2 X=in,
16:u:Brk-1 L=parens,
12:u:tok-1RR=in,
12:u:Suf-2 L=in,
12:u:Suf-2 X=te,
12:u:Pre-2 R=in,
12:u:Suf-2 L=te,
12:u:Suf-2 X=es,
17:u:Tmn-2 R=none/in,
12:u:Pre-2 X=in,
12:u:Pre-2 R=Be,
12:u:Suf-2 L=es,
12:u:tok-1 L=in,
12:u:Pre-2 X=Be,
12:u:Suf-2 X=an,
12:u:Key-1 L=in,
17:u:Tmn-2 L=in/none,
12:u:tok-1LL=in,
14:u:Fst-2 R=Ll/h,
12:u:Suf-2 L=an,
14:u:Fst-2 X=Ll/h,
11:u:Pre-1 X=h,
16:u:tok-1 R=marine,
12:u:Pre-2 R=Ma,
12:u:Suf-2 L=rs,
16:u:Tok-1 X=Marine,
16:u:tok-1 X=marine,
12:u:Pre-2 X=Ma,
12:u:Suf-2 L=nd,
12:u:Suf-2 X=ne,
16:u:tok-1 L=marine,
13:u:Fst-2 R=N/6,
12:u:Suf-2 L=ne,
12:u:Suf-2 X=ch,
14:u:Fst-2 R=Lu/T,
14:u:Fst-2 X=Lu/T,
11:u:Pre-1 X=T,
14:u:Fst-2 R=Lu/I,
14:u:Fst-2 X=Lu/I,
14:u:Fst-2 R=Lu/V,
11:u:Pre-1 X=I,
14:u:Fst-2 X=Lu/V,
11:u:Pre-1 X=V,
14:u:Fst-2 R=Lu/W,
14:u:Fst-2 X=Lu/W,
11:u:Pre-1 X=W,
18:u:Tmn-2 R=none/and,
14:u:Lst-2 X=Ll/x,
11:u:Suf-1 X=x,
16:u:Tmn-3 X=none/x,
14:u:Lst-2 L=Ll/x,
13:u:Tok-1 X=The,
12:u:Pre-2 X=Th,
12:u:Suf-2 X=s:,
12:u:Suf-2 L=s:,
12:u:Suf-2 L=le,
13:u:tok-1 R=and,
12:u:Pre-2 R=an,
12:u:Suf-2 L=se,
12:u:Suf-2 X=cs,
12:u:Pre-2 X=an,
13:u:tok-1 L=and,
14:u:Fst-2 R=Ll/b,
18:u:Tmn-2 L=and/none,
13:u:tok-1LL=and,
14:u:Fst-2 X=Ll/b,
11:u:Pre-1 X=b,
14:u:Lst-2 X=Ll/r,
11:u:Suf-1 X=r,
12:u:Suf-2 L=ia,
12:u:Suf-2 X=or,
16:u:Tmn-3 X=none/r,
14:u:Lst-2 L=Ll/r,
12:u:Suf-2 L=or,
12:u:Pre-2 X=Aq,
12:u:Pre-2 R=Mi,
14:u:Fst-2 R=Lu/E,
12:u:Pos-1 X=10,
17:u:Pos-2 L=10/last,
14:u:Fst-2 R=Lu/O,
14:u:Fst-2 X=Lu/O,
11:u:Pre-1 X=O,
12:u:Pre-2 X=Oo,
12:u:Pre-2 R=Me,
14:u:Lst-2 X=Ll/k,
11:u:Suf-1 X=k,
16:u:Tmn-3 X=none/k,
14:u:Lst-2 L=Ll/k,
12:u:Suf-2 L=ek,
13:u:tok-1RR=van,
13:u:tok-1 R=van,
13:u:tok-1RR=het,
14:u:Fst-2 R=Ll/v,
12:u:Pre-2 R=va,
13:u:Tok-1 X=van,
13:u:tok-1 X=van,
13:u:tok-1 R=het,
17:u:tok-2 R=van/het,
14:u:Fst-2 X=Ll/v,
11:u:Pre-1 X=v,
12:u:Pre-2 X=va,
12:u:Pre-2 R=he,
13:u:Tok-1 X=het,
13:u:tok-1 X=het,
13:u:tok-1 L=van,
17:u:tok-2 L=van/het,
12:u:Pre-2 X=he,
13:u:tok-1LL=van,
13:u:tok-1 L=het,
12:u:tok-1RR=en,
13:u:tok-1LL=het,
12:u:Pre-2 R=en,
12:u:Tok-1 X=en,
12:u:tok-1 X=en,
12:u:tok-1LL=en,
12:u:Pre-2 R=Ze,
12:u:Suf-2 L=u.,
20:u:Cap-2 L=other/caps,
19:u:Key-2 X=none/caps,
14:u:tok-1LL=2013,
22:u:tok-1 R=universiteit,
14:u:Lst-2 L=Lu/E,
19:u:tok-1RR=antwerpen,
12:u:Suf-2 L=3.,
17:*:Num-1 L=numeric,
19:u:tok-1 X=antwerpen,
12:u:Suf-2 L=it,
20:u:tok-1 L=antwerpen:,
16:u:tok-1 R=[diff.,
30:u:tok-2 L=antwerpen:/antwerpen,
26:u:tok-2 R=antwerpen/[diff.,
12:u:Pre-2 R=[d,
12:u:Suf-2 L=n:,
12:u:Pre-2 X=Wo,
12:u:Pre-2 R=Sc,
12:u:Pre-2 X=Sc,
22:u:tok-1RR=biodiversity,
12:u:Pre-2 R=Bi,
12:u:Suf-2 L=a,,
22:u:Tok-1 X=Biodiversity,
22:u:tok-1 X=biodiversity,
12:u:Suf-2 X=ty,
12:u:Suf-2 L=ty,
15:u:tok-1 R=north,
14:u:Fst-2 R=Lu/N,
12:u:Pre-2 R=No,
14:u:Fst-2 X=Lu/N,
11:u:Pre-1 X=N,
12:u:Pre-2 X=No,
15:u:tok-1LL=north,
12:u:Pre-2 R=Cr,
17:u:Tok-1 X=Species,
17:u:tok-1 X=species,
17:u:tok-1 L=species,
13:u:Tok-1 X=New,
17:u:tok-1RR=journal,
12:u:Pre-2 X=Ne,
12:u:Pre-2 R=In,
12:u:Pre-2 X=In,
12:u:Pre-2 R=Jo,
17:u:Key-1 R=journal,
22:u:Tmn-2 R=none/journal,
17:u:tok-1 X=journal,
20:u:tok-2 R=journal/of,
14:u:Fst-2 X=Lu/J,
11:u:Pre-1 X=J,
12:u:Suf-2 L=ns,
17:u:Key-1 X=journal,
25:u:Key-2 X=journal/initial,
22:u:Key-3 L=none/journal,
22:u:Key-3 x=journal/none,
17:u:tok-1 L=journal,
20:u:tok-2 L=journal/of,
17:u:Key-1 L=journal,
22:u:Tmn-2 L=journal/none,
17:u:tok-1LL=journal,
12:u:Suf-2 X=21,
12:u:Pre-2 R=Di,
12:u:Pre-2 X=Di,
14:u:Fst-2 R=Lu/F,
13:u:Lst-2 X=N/0,
11:u:Suf-1 X=0,
16:u:Tmn-3 X=none/0,
16:u:tok-2 R=of/the,
16:u:tok-2 L=of/the,
12:u:Suf-2 L=um,
16:u:Key-1 X=volume,
22:u:Key-2 X=volume/lower,
21:u:Key-3 L=none/volume,
23:u:Key-3 x=volume/strong,
16:u:Key-1 L=volume,
19:u:tok-1 R=molecular,
24:u:tok-1LL=classification,
12:u:Pre-2 R=Na,
12:u:Pre-2 X=Na,
12:u:Pre-2 R=Bu,
12:u:Suf-2 X=ae,
18:u:Tok-1 X=Bulletin,
18:u:tok-1 X=bulletin,
21:u:tok-2 R=bulletin/of,
12:u:Pre-2 X=Bu,
18:u:tok-1 L=bulletin,
21:u:tok-2 L=bulletin/of,
12:u:Pre-2 R=Ni,
12:u:Pre-2 X=Ni,
12:u:Suf-2 X=ya,
11:u:tok-1RR=7,
12:u:Suf-2 L=ya,
11:u:tok-1 R=7,
13:u:Fst-2 R=N/7,
11:u:Pre-2 R=7,
12:u:Pre-2 R=13,
16:u:Num-1 R=triple,
16:*:Num-1 X=triple,
21:u:Num-2 R=triple/none,
11:*:Fst-1 X=S,
11:*:Lst-1 L=S,
21:u:Cap-2 R=other/lower,
21:u:Cap-2 L=other/lower,
12:u:Pre-2 R=Co,
12:u:Pre-2 X=Co,
14:u:Lst-2 X=Ll/o,
11:u:Suf-1 X=o,
12:u:Suf-2 L=ls,
16:u:Tmn-3 X=none/o,
12:u:Pre-2 R=So,
12:u:Pre-2 X=So,
12:u:Pre-2 X=Is,
20:u:tok-1 X=antarctica,
17:u:tok-1RR=biology,
17:u:tok-1 R=biology,
13:u:Fst-2 R=N/3,
12:u:Pre-2 X=Tu,
12:u:Suf-2 X=ly,
12:u:Suf-2 L=ly,
12:u:Pre-2 X=Pr,
12:u:Pre-2 X=Ce,
11:u:tok-1RR=3,
12:u:Suf-2 L=st,
22:u:Cap-2 R=caps/initial,
22:u:Cap-2 L=caps/initial,
12:u:Suf-2 L=ra,
12:u:Suf-2 L=14,
12:u:Suf-2 X=er,
13:u:Lst-2 X=P/?,
11:u:Suf-1 X=?,
16:u:Tmn-3 X=weak/?,
13:u:Lst-2 L=P/?,
12:u:Pre-2 R=En,
12:u:Pre-2 X=En,
20:u:tok-1 X=radiolaria,
12:u:Pre-2 X=Ra,
17:u:Tmn-2 L=in/weak,
12:u:Suf-2 X=l.,
19:u:tok-1RR=diversity,
19:u:tok-1 R=diversity,
19:u:Tok-1 X=Diversity,
19:u:tok-1 X=diversity,
19:u:tok-1 L=diversity,
12:u:Suf-2 X=ct,
12:u:Pre-2 X=su,
17:u:tok-1 X=belgium,
16:u:Tok-1 X=suppl.,
15:u:tok-1 X=suppl,
12:u:Pre-2 R=Ba,
12:u:Pre-2 X=Ba,
12:u:Pre-2 X=Br,
12:u:Pre-2 R=Ki,
12:u:Suf-2 X=el,
12:u:Suf-2 L=el,
14:u:tok-1RR=plos,
14:u:tok-1 R=plos,
13:u:tok-1RR=one,
12:u:Pre-2 R=PL,
12:u:Suf-2 X=ms,
14:u:tok-1 X=plos,
13:u:tok-1 R=one,
12:u:tok-1RR=10,
18:u:tok-2 R=plos/one,
14:u:Lst-2 X=Lu/S,
12:u:Pre-2 X=PL,
12:u:Pre-2 R=ON,
11:u:Suf-1 X=S,
16:u:Tmn-3 X=none/S,
14:u:Tok-1 X=VLIZ,
14:u:tok-1 X=vliz,
12:u:Pre-2 X=VL,
12:u:Suf-2 X=IZ,
12:u:Suf-2 X=ke,
14:u:tok-1RR=voor,
14:u:tok-1 R=voor,
12:u:Pre-2 R=vo,
14:u:Tok-1 X=voor,
14:u:tok-1 X=voor,
12:u:Pre-2 X=vo,
14:u:tok-1 L=voor,
12:u:Lst-1 X=Pd,
14:u:Lst-2 X=Pd/-,
11:u:Suf-1 X=-,
16:u:Tmn-3 X=weak/-,
14:u:tok-1LL=voor,
12:*:Lst-1 L=Pd,
14:u:tok-1RR=vliz,
19:u:tok-1LL=belgische,
20:u:Cap-2 L=lower/caps,
19:u:tok-1RR=instituut,
16:u:Tok-1 X=Vlaams,
16:u:tok-1 X=vlaams,
19:u:tok-1 R=instituut,
26:u:tok-2 R=vlaams/instituut,
12:u:Pre-2 X=Vl,
19:u:Tok-1 X=Instituut,
19:u:tok-1 X=instituut,
24:u:tok-2 R=instituut/voor,
12:u:Suf-2 X=ut,
19:u:tok-1 L=instituut,
24:u:tok-2 L=instituut/voor,
12:u:Suf-2 L=ut,
19:u:tok-1LL=instituut,
18:u:Tok-1 X=Oostende,
18:u:tok-1 X=oostende,
13:u:tok-1 L=zee,
12:u:Suf-2 L=ee,
21:u:tok-1 L=diversiteit,
21:u:tok-1LL=diversiteit,
19:u:tok-1 R=rapporten,
19:u:Tok-1 X=Rapporten,
19:u:tok-1 X=rapporten,
17:u:tok-1 L=soorten,
17:u:tok-1LL=soorten,
19:u:tok-1 L=rapporten,
19:u:tok-1LL=rapporten,
23:u:tok-2 R=het/instituut,
23:u:tok-2 L=het/instituut,
15:u:Pos-2 R=10/10,
15:u:Pos-2 L=10/10,
12:u:Pre-2 R=St,
12:u:Pre-2 X=St,
12:u:Pre-2 R=Wa,
12:u:Pre-2 X=Wa,
12:u:Pre-2 X=Da,
12:u:Suf-2 X=ex,
12:u:Suf-2 L=ex,
21:u:tok-1RR=publication,
21:u:tok-1 R=publication,
16:u:tok-1RR=series,
12:u:Pre-2 R=Pu,
21:u:Tok-1 X=Publication,
21:u:tok-1 X=publication,
16:u:tok-1 R=series,
12:u:Pre-2 X=Pu,
16:u:Key-1 R=series,
16:u:Tok-1 X=Series,
16:u:tok-1 X=series,
16:u:Key-1 X=series,
24:u:Key-2 X=series/initial,
21:u:Key-3 L=none/series,
21:u:Key-3 x=series/none,
16:u:tok-1 L=series,
16:u:Key-1 L=series,
21:u:Tmn-2 L=series/none,
16:u:tok-1LL=series,
12:u:Suf-2 L=sh,
17:u:tok-1RR=science,
17:u:tok-1 R=science,
12:u:Pre-2 X=80,
12:u:Suf-2 X=09,
12:u:Suf-2 X=ep,
12:u:Suf-2 L=ep,
20:u:Tok-1 X=Radiolaria,
12:u:tok-1LL=to,
19:u:tok-1 L=haeckel's,
23:u:tok-1RR=phylogenetics,
30:u:tok-2 L=haeckel's/radiolaria,
30:u:tok-2 R=radiolaria/molecular,
12:u:Suf-2 L='s,
17:u:tok-1 L=western,
13:u:tok-1RR=100,
13:u:tok-1 R=100,
15:u:tok-1 R=ocean,
15:u:Tok-1 X=Ocean,
15:u:tok-1 X=ocean,
12:u:Pre-2 X=Oc,
15:u:tok-1 L=ocean,
12:u:Suf-2 L=i>,
23:u:Brk-1 L=closing-angle,
15:u:tok-1LL=coast,
12:u:Pre-2 R=Ke,
12:u:Pre-2 X=Ke,
23:u:tok-1RR=international,
23:u:tok-1 R=international,
23:u:Tok-1 X=International,
23:u:tok-1 X=international,
12:u:tok-1RR=17,
17:u:Tok-1 X=Society,
17:u:tok-1 X=society,
11:u:tok-1RR=-,
12:u:Pre-2 R=me,
12:u:Pre-2 X=me,
12:u:Suf-2 X=lf,
15:u:tok-1 L=shelf,
12:u:Suf-2 L=lf,
15:u:tok-1LL=shelf,
16:u:Tok-1 X=United,
16:u:tok-1 X=united,
17:u:tok-1 R=kingdom,
24:u:tok-2 R=united/kingdom,
12:u:Pre-2 R=Op,
12:u:Suf-2 L=pe,
12:u:Suf-2 X=a.,
12:u:Suf-2 X=ey,
12:u:Suf-2 L=ey,
12:u:Pre-2 R=Gl,
12:u:Pre-2 X=Gl,
16:u:tok-1 R=gloria,
15:u:tok-1RR=maris,
16:u:Tok-1 X=Gloria,
16:u:tok-1 X=gloria,
15:u:tok-1 R=maris,
22:u:tok-2 R=gloria/maris,
17:u:tok-1RR=special,
17:u:tok-1LL=special,
28:u:tok-2 L=publication/vlaams,
11:u:tok-1LL=/,
12:u:Pre-2 R=La,
12:u:Pre-2 X=La,
24:u:tok-1LL=invertebrates.,
32:u:tok-1 L=latein-deutsch-english,
18:u:tok-1 R=springer,
18:u:tok-1RR=spektrum,
37:u:tok-2 L=latein-deutsch-english/2017,
23:u:tok-2 R=2017/springer,
22:u:Key-2 X=date/initial,
18:u:tok-1LL=pacific.,
16:u:tok-1 L=visaya,
15:u:tok-1RR=1-175,
23:u:tok-2 L=visaya/suppl.,
18:u:tok-2 R=suppl./7,
14:u:Lst-2 X=Lu/L,
11:u:Suf-1 X=L,
16:u:Tmn-3 X=none/L,
14:u:Lst-2 L=Lu/L,
13:u:tok-1LL=een,
14:u:Lst-2 X=Ll/u,
11:u:Suf-1 X=u,
16:u:Tmn-3 X=none/u,
12:u:Suf-2 X=ok,
12:u:Suf-2 L=ok,
12:u:Pre-2 X=Ab,
21:u:Key-1 R=proceedings,
21:u:Key-1 X=proceedings,
29:u:Key-2 X=proceedings/initial,
26:u:Key-3 x=proceedings/none,
21:u:Key-1 L=proceedings,
26:u:Tmn-2 L=proceedings/none,
13:u:tok-1LL=del,
26:u:Tmn-2 R=none/proceedings,
26:u:Key-3 L=none/proceedings,
12:u:Pre-2 X=Eu,
12:u:Pre-2 X=Ka,
12:u:Pre-2 X=Du,
12:u:tok-1RR=73,
12:u:tok-1RR=55,
15:u:Lst-2 X=Ll/é,
12:u:Suf-1 X=é,
17:u:Tmn-3 X=none/é,
12:u:Suf-2 X=ig,
25:u:tok-2 L=of/biodiversity,
12:u:tok-1 R=23,
12:u:Pre-2 R=23,
12:u:Suf-2 X=ld,
12:u:tok-1RR=13,
12:u:tok-1 R=13,
15:u:tok-1LL=field,
21:u:tok-1 R=informatics,
34:u:tok-2 R=biodiversity/informatics,
21:u:Tok-1 X=Informatics,
21:u:tok-1 X=informatics,
34:u:tok-2 L=biodiversity/informatics,
29:u:tok-2 R=informatics/journal,
21:u:tok-1RR=engineering,
21:u:tok-1 R=engineering,
21:u:Tok-1 X=Engineering,
21:u:tok-1 X=engineering,
21:u:tok-1 L=engineering,
12:u:Suf-2 L=2.,
23:u:Tok-1 X=Universitatea,
23:u:tok-1 X=universitatea,
19:u:tok-1LL=cercetari,
21:u:tok-1 L=stiintifice,
15:u:tok-1 R=bacau,
15:u:tok-1RR=seria,
35:u:tok-2 L=stiintifice/universitatea,
29:u:tok-2 R=universitatea/bacau,
15:u:Tok-1 X=Bacau,
15:u:tok-1 X=bacau,
21:u:tok-1LL=stiintifice,
23:u:tok-1 L=universitatea,
15:u:tok-1 R=seria,
19:u:tok-1RR=biologie,,
29:u:tok-2 L=universitatea/bacau,
21:u:tok-2 R=bacau/seria,
12:u:Suf-2 X=au,
13:u:Tok-1 X=809,
13:u:tok-1 X=809,
16:u:tok-1LL=bacau:,
16:u:tok-1 L=bacau.,
20:u:tok-2 L=bacau./809,
18:u:tok-2 R=809/_x+1,
12:u:Pre-2 R=ht,
12:u:Pre-2 X=ht,
16:u:tok-1 X=nature,
13:u:Suf-2 X=té,
16:u:tok-1 X=damage,
16:u:tok-1 L=damage,
16:u:tok-1LL=damage,
16:u:tok-1 R=nature,
16:u:Tok-1 X=Nature,
12:u:Pre-2 X=Ju,
21:u:tok-1 L=continental,
27:u:tok-2 L=continental/shelf,
21:u:tok-2 R=shelf/north,
21:u:tok-1LL=continental,
14:u:tok-1RR=open,
21:u:tok-2 L=shelf/north,
14:u:tok-1 R=open,
18:u:tok-2 R=sea/open,
20:u:tok-1RR=conference,
20:u:tok-1 R=conference,
20:u:Tok-1 X=Conference,
20:u:tok-1 X=conference,
20:u:tok-1 L=conference,
18:u:Tok-1 X=Abstract,
18:u:tok-1 X=abstract,
20:u:tok-1LL=conference,
23:u:tok-1 L=7-10/11/2016.,
17:u:tok-1 R=booklet,
32:u:tok-2 L=7-10/11/2016./abstract,
26:u:tok-2 R=abstract/booklet,
12:u:Suf-2 L=6.,
17:u:Tok-1 X=Booklet,
17:u:tok-1 X=booklet,
23:u:tok-1LL=7-10/11/2016.,
18:u:tok-1 L=abstract,
26:u:tok-2 L=abstract/booklet,
21:u:tok-2 R=booklet/100,
17:u:tok-2 R=the/sea,
12:u:Suf-2 X=y.,
12:u:Pre-2 R=65,
17:u:tok-1 L=section,
26:u:tok-1 R=palaeogeography,,
28:u:tok-1RR=palaeoclimatology,,
26:u:Tok-1 X=Palaeogeography,,
25:u:tok-1 X=palaeogeography,
28:u:tok-1 R=palaeoclimatology,,
23:u:tok-1RR=palaeoecology,
45:u:tok-2 R=palaeogeography,/palaeoclimatology,,
18:u:tok-1 L=european,
20:u:tok-1 X=university,
19:u:tok-1LL=pollution,
14:u:tok-1RR=2021,
14:u:tok-1 R=2021,
14:u:Tok-1 X=2021,
14:u:tok-1 X=2021,
13:u:Tok-1 X=EEZ,
13:u:tok-1 X=eez,
17:u:tok-1 L=madeira,
21:u:tok-2 L=madeira/eez,
21:u:tok-2 R=eez/journal,
12:u:Pre-2 X=EE,
12:u:Suf-2 X=EZ,
17:u:Tok-1 X=Novapex,
17:u:tok-1 X=novapex,
24:u:tok-1LL=l’atlantique,
18:u:tok-1 L=nord-est,
20:u:tok-1 R=(jodoigne),
19:u:tok-1RR=société,
26:u:tok-2 L=nord-est/novapex,
28:u:tok-2 R=novapex/(jodoigne),
12:u:Pre-2 R=(J,
20:u:Tok-1 X=(Jodoigne),
18:u:tok-1 X=jodoigne,
18:u:tok-1LL=nord-est,
17:u:tok-1 L=novapex,
19:u:tok-1 R=société,
28:u:tok-2 L=novapex/(jodoigne),
30:u:tok-2 R=(jodoigne)/société,
12:u:Pre-2 X=(J,
19:u:Tok-1 X=Société,
17:u:tok-1 X=societe,
17:u:tok-1LL=novapex,
20:u:tok-1 L=(jodoigne),
30:u:tok-2 L=(jodoigne)/société,
22:u:tok-2 R=société/13,
12:u:Tok-1 X=WL,
12:u:tok-1 X=wl,
25:u:tok-1RR=waterbouwkundig,
22:u:tok-2 R=wl/rapporten,
12:u:Pre-2 X=WL,
12:u:Suf-2 X=WL,
12:u:tok-1 L=wl,
25:u:tok-1 R=waterbouwkundig,
22:u:tok-1RR=laboratorium,
22:u:tok-2 L=wl/rapporten,
35:u:tok-2 R=rapporten/waterbouwkundig,
12:u:Suf-2 L=WL,
25:u:Tok-1 X=Waterbouwkundig,
25:u:tok-1 X=waterbouwkundig,
12:u:tok-1LL=wl,
22:u:tok-1 R=laboratorium,
35:u:tok-2 L=rapporten/waterbouwkundig,
38:u:tok-2 R=waterbouwkundig/laboratorium,
14:u:tok-1 R=book,
14:u:Tok-1 X=Book,
14:u:tok-1 X=book,
17:u:tok-2 R=book/of,
14:u:tok-1 L=book,
17:u:tok-2 L=book/of,
19:u:tok-1 X=abstracts,
14:u:tok-1LL=book,
14:u:Tok-1 X=July,
14:u:tok-1 X=july,
18:u:tok-1LL=belgium,,
19:u:Key-3 x=date/none,
15:u:tok-1LL=10-14,
14:u:tok-1 L=july,
13:u:tok-1 R=262,
19:u:tok-2 L=july/2017,
18:u:tok-2 R=2017/262,
12:u:Pre-2 R=26,
16:u:Tok-1 X=Damage,
15:u:tok-1LL=modal,
18:u:tok-1 L=analysis,
20:u:tok-1 R=assessment,
25:u:tok-2 L=analysis/damage,
27:u:tok-2 R=damage/assessment,
20:u:Tok-1 X=Assessment,
20:u:tok-1 X=assessment,
20:u:tok-1RR=structures,
27:u:tok-2 L=damage/assessment,
23:u:tok-2 R=assessment/of,
20:u:tok-1 L=assessment,
20:u:tok-1 R=structures,
23:u:tok-2 L=assessment/of,
23:u:tok-2 R=of/structures,
20:u:tok-1LL=assessment,
16:u:Tok-1 X=Dublin,
16:u:tok-1 X=dublin,
16:u:tok-1LL=08-10,,
15:u:tok-1 L=2013,,
13:u:tok-1 R=key,
22:u:tok-2 L=2013,/dublin,
20:u:tok-2 R=dublin/key,
12:u:Suf-2 L=3,,
13:u:Tok-1 X=Key,
13:u:tok-1 X=key,
15:u:tok-1LL=2013,,
16:u:tok-1 L=dublin,
19:u:tok-1RR=materials,
20:u:tok-2 L=dublin/key,
25:u:tok-2 R=key/engineering,
16:u:tok-1LL=dublin,
13:u:tok-1 L=key,
19:u:tok-1 R=materials,
17:u:tok-1RR=652-659,
25:u:tok-2 L=key/engineering,
31:u:tok-2 R=engineering/materials,
19:u:Tok-1 X=Materials,
19:u:tok-1 X=materials,
13:u:tok-1LL=key,
17:u:tok-1 R=652-659,
75:u:tok-1RR=https://hdl.handle.net/10.4028/www.scientific.net/kem.569-570.652,
31:u:tok-2 L=engineering/materials,
27:u:tok-2 R=materials/652-659,
17:u:tok-1 R=zealand,
13:u:tok-1RR=law,
21:u:tok-2 R=new/zealand,
13:u:tok-1LL=law,
12:u:tok-1RR=64,
21:u:tok-2 L=section/new,
20:u:Tok-1 X=Katholieke,
20:u:tok-1 X=katholieke,
21:u:tok-1LL=toekomstige,
28:u:tok-1 L=klimaatverandering,
17:u:tok-1RR=leuven.,
39:u:tok-2 L=klimaatverandering/katholieke,
33:u:tok-2 R=katholieke/universiteit,
18:u:tok-1 L=branding,
14:u:tok-1RR=rede,
21:u:tok-2 L=branding/de,
16:u:Tok-1 X=Dienst,
16:u:tok-1 X=dienst,
24:u:tok-1 L=systeemanalyse,
28:u:tok-1 R=milieurapportering,
17:u:tok-1RR=(mira),,
31:u:tok-2 L=systeemanalyse/dienst,
35:u:tok-2 R=dienst/milieurapportering,
17:u:Tok-1 X=project,
17:u:tok-1 X=project,
14:u:tok-1LL=d3.3,
18:u:tok-1 L=aqua-lit,
19:u:tok-1 R=instituto,
18:u:tok-1RR=español,
26:u:tok-2 L=aqua-lit/project,
27:u:tok-2 R=project/instituto,
14:u:tok-1 L=late,
16:u:tok-1LL=solent,
16:u:tok-1 L=cemare,
23:u:tok-2 L=cemare/united,
12:u:Suf-2 L=RE,
20:u:Tok-1 X=Commission,
20:u:tok-1 X=commission,
29:u:tok-2 L=european/commission,
17:u:tok-1LL=economy,
23:u:tok-2 R=commission/23,
18:u:Tok-1 X=Testerep,
18:u:tok-1 X=testerep,
13:u:tok-1 R=mei,
22:u:tok-2 L=zee/testerep,
22:u:tok-2 R=testerep/mei,
13:u:Tok-1 X=mei,
13:u:tok-1 X=mei,
18:u:tok-1 L=testerep,
22:u:tok-2 L=testerep/mei,
18:u:tok-2 R=mei/2021,
12:u:Suf-2 X=ei,
16:u:Tok-1 X=Status,
20:u:tok-1LL=<i>homarus,
22:u:tok-1 L=gammarus</i>,
19:u:tok-1 R=bestanden,
29:u:tok-2 L=gammarus</i>/status,
26:u:tok-2 R=status/bestanden,
0=7.526576e-02
2=5.444487e-02
3=-1.429685e-02
5=5.928968e-02
6=1.536654e-02
7=-3.070194e-02
8=-4.647616e-02
10=7.659277e-03
11=4.594437e-01
12=8.185261e-01
13=-1.043425e+00
16=-2.287558e-02
17=-7.763526e-02
21=-1.053854e-01
24=3.999514e-01
32=-2.287195e-02
33=-4.940569e-01
34=-4.539430e-01
35=6.361129e-01
36=-3.541286e-02
37=-4.468126e-01
38=-1.433456e+00
39=-8.970759e-04
40=-7.339139e-01
43=-9.569763e-02
46=-6.027364e-01
47=5.958188e-01
48=5.668232e-01
49=-1.543571e-01
50=-8.920900e-01
51=-4.824197e-02
54=-3.011354e-01
57=-1.679439e-01
58=-5.869300e-02
59=2.081406e-02
60=1.556054e-01
61=-3.257707e-01
62=2.256436e-01
65=-5.173830e-02
71=3.156911e-03
75=9.620046e-01
77=-4.029760e-01
79=-1.383422e+00
81=-8.367991e-01
82=-1.071454e-01
83=5.287906e-01
84=5.299429e-01
87=-1.309882e+00
93=2.671009e-02
95=4.530550e-03
96=3.963542e-01
104=3.217573e-01
123=-1.064244e+00
124=-3.623435e-01
125=-5.035979e-02
126=2.085324e-03
127=-4.513550e-02
128=-1.149376e-01
131=1.127056e+00
132=1.467527e-01
143=1.467527e-01
154=1.351673e-01
156=-1.440710e-01
157=9.363104e-02
158=7.669487e-02
159=-7.042372e-02
160=1.385392e-01
161=-1.114678e-01
164=3.753067e-02
165=1.477123e+00
178=1.115665e+00
186=-3.915407e-03
189=9.131771e-02
190=5.413458e-02
191=-4.723024e-02
193=1.019400e+00
197=1.218123e+00
201=3.525596e-01
202=7.950388e-01
212=-1.308463e-03
213=3.382212e-01
214=3.575265e-02
231=-7.262126e-02
234=3.863000e-02
235=-2.662736e-03
237=2.454254e-01
238=-3.334091e-02
247=1.873621e-01
278=-1.104726e-01
285=1.879314e-01
288=2.082368e-02
289=1.276382e-01
290=1.633631e-04
291=-1.097920e+00
292=1.037622e-02
296=3.474547e-02
299=-4.782597e-02
303=8.931110e-02
310=-3.355863e-02
311=-4.814527e-01
314=1.014780e-01
318=4.113709e-02
319=1.467527e-01
451=1.318476e-03
453=7.551801e-02
454=-8.453681e-03
455=-4.551697e-01
456=4.226582e-03
457=2.681307e-02
461=6.087552e-02
462=1.467527e-01
475=8.120383e-04
483=5.501743e-02
486=-4.782597e-02
490=8.931110e-02
497=8.120383e-04
505=5.501743e-02
506=1.467527e-01
517=1.467527e-01
528=-1.636307e-04
531=6.507863e-02
532=8.890352e-02
533=-5.115520e-01
534=1.163351e-01
535=-7.126872e-02
538=-9.276345e-03
539=9.531403e-03
541=-4.153731e-02
550=1.799710e-01
563=-3.853466e-02
572=1.799710e-01
583=1.467527e-01
715=9.086271e-02
717=1.592758e-01
718=8.524871e-02
719=1.115067e-02
721=1.085842e-01
722=-1.431573e-01
725=-6.892868e-03
726=1.224029e+00
739=3.600221e-01
747=-1.269833e-02
748=-4.452125e-01
750=6.102916e-01
751=-2.064703e-02
752=-3.213423e-01
754=1.682267e-03
758=-2.430482e-02
761=-3.540571e-01
762=5.924635e-01
763=5.636217e-01
765=-6.140689e-01
769=-2.688681e-02
773=-1.125300e-02
774=4.094903e-01
786=4.113853e+00
792=-1.864638e-01
794=-8.489153e-01
796=-2.614114e-01
798=5.121956e-01
802=-4.630420e-01
838=-3.396222e-01
839=-2.513183e-01
842=-2.582898e-02
846=1.027657e+00
847=5.670481e-02
849=2.663815e-01
850=2.420067e-01
851=-5.585194e-01
853=7.419646e-02
854=-1.557622e+00
855=-5.533023e-01
858=1.256184e-01
859=-5.020012e-01
860=4.741242e-02
861=2.223777e-01
862=1.018241e-01
863=-3.858461e-01
864=4.094008e-01
865=-4.523675e-01
866=-5.977058e-01
868=2.497351e-02
871=4.895673e-04
872=1.982410e-03
875=3.864211e-03
880=-1.493288e-03
882=-6.547829e-03
883=1.983198e-03
884=-1.116575e-01
885=7.450742e-02
886=2.038247e-01
888=-2.314796e-02
890=-9.002622e-03
891=4.219127e-02
893=-5.578118e-03
894=-1.352258e-02
895=-3.523561e-01
896=5.506929e-02
897=1.896602e-01
899=-3.910866e-02
901=2.031662e-03
902=4.984471e-02
904=7.154932e-02
905=-7.756906e-02
906=-1.584474e-02
907=2.665341e-02
908=3.802374e-02
909=-2.099845e-05
910=-3.684604e-02
912=-2.232987e-02
913=8.573903e-02
915=2.666472e-01
916=5.115266e-04
917=5.809174e-02
918=1.554830e-01
919=-1.689615e-01
920=1.719745e-02
921=-3.257282e-04
923=-1.196506e-01
924=1.467527e-01
935=4.532368e-02
937=6.417521e-02
938=2.600570e-02
939=9.687916e-03
940=-1.196036e-02
941=1.791188e-03
942=-3.168798e-02
943=-1.023739e-02
945=-1.760970e-03
946=-1.358782e-04
948=1.795870e-01
949=7.569544e-02
950=8.667406e-02
951=-4.805099e-01
952=8.139696e-02
953=-6.866883e-02
956=-1.504694e-02
957=1.467527e-01
970=2.273826e-03
971=4.939878e-03
978=3.410353e-02
979=1.467527e-01
990=1.467527e-01
1001=1.467527e-01
1014=1.510444e-01
1016=-3.683888e-02
1017=5.284721e-03
1018=-6.897532e-03
1022=-3.145840e-03
1025=-5.374204e-02
1028=8.418364e-02
1029=6.387838e-02
1031=-6.014128e-02
1033=-8.474171e-05
1034=1.467527e-01
1045=1.017367e-01
1047=5.429200e-02
1048=1.805265e-03
1049=9.767295e-03
1050=1.335021e-02
1051=4.139296e-02
1052=-9.007773e-03
1053=-3.874641e-02
1055=-1.844549e-03
1056=1.110561e-01
1058=4.577841e-02
1059=-6.627641e-03
1060=2.109244e-03
1061=-5.400196e-03
1062=1.546535e-02
1063=6.337481e-04
1066=1.008275e-02
1067=1.467527e-01
1201=1.247292e-03
1202=4.595701e-05
1205=-3.951639e-03
1209=-4.343300e-03
1212=-6.145133e-02
1216=7.779178e-02
1220=-1.969433e-04
1223=1.152991e-03
1231=5.282101e-02
1232=9.685632e-02
1234=5.844873e-02
1235=9.708372e-04
1237=4.487665e-01
1238=8.372967e-03
1239=-2.271625e-02
1240=-3.582740e-02
1241=-2.262122e+00
1242=-4.767140e-03
1245=5.528417e-03
1246=-4.553122e-02
1249=-5.856779e-04
1250=4.840322e-02
1253=1.206291e-02
1256=9.762050e-02
1257=-1.908429e-01
1258=-3.854585e-01
1259=-4.231744e-01
1260=7.327093e-02
1264=3.043588e-02
1265=4.377043e-01
1289=7.337634e-01
1290=-4.301045e-01
1297=-1.356759e+00
1301=9.662233e-01
1325=2.202931e+00
1334=-1.660674e-01
1336=-1.898870e-01
1337=6.502818e-01
1338=-4.634964e-02
1349=3.852734e-01
1381=-1.327795e-01
1385=5.768106e-01
1388=3.193844e-01
1392=-2.907843e-01
1396=1.403154e-01
1399=1.043451e-03
1403=4.046083e-03
1410=5.528417e-03
1411=-4.553122e-02
1414=-5.856779e-04
1415=4.840322e-02
1418=1.206291e-02
1421=1.043451e-03
1425=4.046083e-03
1430=-2.453927e-04
1431=-4.478649e-01
1432=-5.923816e-02
1433=9.378057e-02
1434=7.250546e-03
1435=-2.793386e-02
1436=5.872729e-02
1437=8.454035e-02
1440=-1.957840e-02
1441=7.149293e-02
1443=-2.670178e-02
1454=3.821523e-03
1455=-9.294048e-01
1456=4.444870e-02
1457=6.120762e-02
1458=-5.238911e-03
1459=1.715448e-01
1460=1.772676e-01
1462=6.660209e-03
1463=-1.390576e-03
1464=-2.900691e-01
1465=5.213618e-02
1466=5.453806e-02
1467=9.146997e-03
1469=8.872389e-02
1470=6.128139e-02
1471=-1.558830e+00
1472=-8.228090e-02
1473=-2.480854e-03
1474=1.396152e+00
1475=3.121715e-01
1484=-1.873689e-02
1496=-4.767832e-01
1498=6.341928e-01
1499=-7.772644e-03
1500=-2.223402e-01
1501=-4.419363e-01
1502=-7.296037e-03
1503=-6.112099e-01
1506=-9.391345e-02
1509=-4.873463e-01
1510=6.127339e-01
1511=5.173117e-01
1512=-2.456660e-04
1513=-5.518338e-01
1514=-2.894507e-02
1517=-3.481506e-02
1520=-1.208027e-01
1521=-4.741708e-02
1522=2.615320e-02
1523=2.199472e-01
1524=-1.365290e-01
1525=2.440831e-01
1534=2.506021e-03
1540=-2.421393e-01
1542=-1.366221e+00
1543=-8.774985e-01
1544=-3.548882e-01
1545=-5.685779e-02
1546=5.812272e-01
1547=5.518001e-01
1550=-8.331577e-01
1556=-1.227024e-01
1558=1.575253e+00
1586=-3.156646e-01
1589=1.971793e-02
1590=-1.192656e-02
1591=-9.328943e-02
1594=1.070065e+00
1597=5.698312e-04
1601=-2.497810e-04
1605=-1.117188e-03
1606=-3.911835e-02
1607=-3.373619e-01
1608=3.701321e-02
1609=9.498165e-04
1610=3.592644e-03
1611=4.642111e-03
1612=5.386339e-02
1613=1.549961e-04
1614=-9.276457e-04
1616=-4.915583e-03
1623=7.819485e-04
1628=4.210560e-01
1638=-4.509123e-02
1639=2.298839e-01
1649=-1.323400e-02
1652=1.048247e-01
1656=-1.185702e-01
1660=1.413874e-02
1661=5.462390e-03
1663=2.938879e-03
1667=-2.381504e-04
1671=-5.646414e-04
1672=1.794532e-03
1673=-1.403823e-01
1674=5.279533e-02
1675=3.228098e-03
1677=5.263801e-02
1678=2.575192e-02
1679=-3.730108e-02
1680=-3.299263e-02
1682=-3.097722e-03
1685=3.516796e-02
1686=7.462526e-05
1689=-1.360869e-02
1693=3.555922e-02
1694=7.096951e-01
1718=1.871355e-01
1722=-1.858019e-01
1730=1.675773e-01
1754=2.385612e-01
1766=2.929414e-01
1814=4.006375e-01
1817=3.003582e-02
1821=1.687701e-03
1825=-4.924057e-04
1826=-1.319343e-01
1828=7.899507e-02
1829=5.372572e-02
1830=1.063396e-03
1832=2.642697e-02
1836=6.688982e-03
1839=5.908671e-02
1843=2.849689e-02
1847=-5.538240e-03
1850=1.043451e-03
1854=4.046083e-03
1861=-3.578627e-02
1862=-1.486042e-01
1864=-1.014039e-02
1865=1.755526e-01
1870=-1.558203e-01
1872=3.478622e-05
1873=-3.847705e-01
1875=1.391509e-01
1876=3.097523e-02
1879=4.161971e-02
1881=-5.084924e-02
1883=2.237155e-01
1884=1.010467e-01
1885=-4.889773e-02
1886=-9.645574e-02
1887=8.062692e-02
1891=-1.952297e-02
1892=-2.378527e-02
1894=-1.271721e-04
1898=2.882645e-02
1902=9.149126e-02
1903=8.850626e-02
1905=5.115989e-02
1906=1.103928e-03
1907=-1.862637e-02
1908=-8.604037e-03
1909=3.318069e-02
1910=-1.262955e-03
1913=-2.229303e-03
1914=2.545173e-01
1924=-1.881466e-02
1927=-3.498413e-02
1928=-5.509456e-01
1931=5.454673e-02
1938=7.329310e-03
1939=1.310016e-04
1940=4.208664e-01
1942=6.097018e-03
1946=-7.069733e-04
1947=-1.211456e-02
1949=-5.442816e-02
1950=-3.169194e-02
1952=-1.920537e-02
1953=9.143154e-02
1957=1.452584e-02
1959=5.005125e-01
1982=1.574711e-03
1986=3.140253e-01
2030=5.454340e-02
2042=1.709268e-01
2074=-1.249923e-03
2078=1.840454e-01
2081=3.399137e-02
2082=2.609882e-02
2083=6.084059e-02
2085=1.634466e-02
2089=6.287020e-03
2092=-3.909684e-02
2093=1.471886e-02
2096=-9.496799e-04
2101=2.269268e-03
2103=1.559729e-02
2104=5.621572e-02
2105=-1.216476e-04
2106=-6.222149e-02
2109=2.746833e-02
2111=5.071413e-03
2112=-1.387649e-02
2113=1.927226e-02
2114=1.943679e-01
2115=2.589438e-01
2118=5.641909e-02
2122=-3.038474e-02
2125=2.040493e-01
2126=-4.330793e-03
2129=-1.333473e-01
2136=1.189782e-01
2137=-1.955127e-01
2139=3.889745e-01
2140=-4.459721e-02
2141=-5.542987e-01
2142=2.716315e-01
2143=1.105927e-01
2147=1.248402e-01
2148=-1.124648e-02
2151=-4.044249e-02
2155=2.933583e-02
2156=-5.057358e-02
2158=3.911874e-02
2159=1.498191e-01
2160=1.174537e-01
2162=9.609035e-02
2163=-6.563596e-01
2166=8.465851e-03
2169=-2.248215e-02
2180=1.287144e-01
2181=-1.937320e-01
2182=1.744737e-01
2184=-7.850058e-02
2188=1.184942e-02
2191=7.673196e-02
2193=1.526604e+00
2195=-2.787097e-01
2199=1.374179e-02
2202=-9.352553e-03
2203=-3.008330e-03
2204=-6.410966e-03
2206=4.367787e-01
2207=-1.008792e+00
2210=6.472760e-02
2213=4.002075e-02
2217=-1.109802e-02
2222=-1.514796e-01
2223=-5.210179e-02
2224=1.342937e-01
2225=6.855042e-02
2226=2.124632e-02
2227=2.921347e-02
2228=-3.240566e-02
2229=-1.577050e-02
2232=-5.263141e-03
2235=7.036104e-02
2243=-3.861215e-02
2246=7.789284e-03
2254=-1.567554e-03
2257=1.666423e-03
2266=-9.817159e-02
2268=1.034859e-01
2269=1.111909e-01
2270=-1.155755e-02
2271=-1.845710e-01
2272=1.109174e-01
2276=7.600080e-03
2277=-1.606985e-01
2278=-5.724786e-02
2279=9.170197e-02
2280=5.918785e-02
2281=1.386791e-02
2282=1.193671e-01
2283=4.562491e-03
2284=-8.993015e-03
2287=-2.356843e-03
2288=1.943489e-01
2301=6.606306e-01
2309=-1.353087e-02
2312=4.779141e-01
2313=-1.166791e-02
2314=-2.180261e-01
2315=-3.376326e-01
2316=-6.219473e-02
2317=-9.059723e-02
2320=-3.161042e-02
2323=-1.168560e-01
2324=5.309162e-01
2325=4.696230e-01
2326=-2.122542e-02
2327=-1.983236e-03
2331=-2.756004e-02
2334=-9.849604e-02
2335=-1.092485e-02
2336=3.373045e-02
2337=3.450567e-01
2338=-3.181265e-03
2339=2.326820e-01
2342=-3.823556e-03
2348=-8.076802e-03
2352=6.932658e-01
2356=-1.976014e-01
2360=2.908678e-01
2361=3.157366e-01
2370=6.423192e-02
2373=6.847589e-01
2381=3.123944e-01
2400=-7.738611e-03
2401=-1.233794e-01
2403=1.797965e-02
2404=9.413768e-04
2408=8.547256e-01
2411=2.873378e-05
2412=2.229395e-04
2415=-3.824215e-03
2419=1.570155e-02
2422=-5.288602e-02
2423=-3.222297e-01
2424=9.797872e-03
2425=-9.121829e-02
2426=-2.605886e-04
2427=9.502394e-01
2430=8.017522e-03
2433=2.628430e-01
2434=4.698406e-03
2435=-2.873048e-02
2437=-1.035206e-01
2444=2.977414e-02
2448=-5.772852e-01
2449=-1.762591e-02
2452=6.715007e-02
2455=-1.384822e-01
2456=9.474811e-03
2459=2.632206e-01
2463=3.766590e-04
2466=2.628430e-01
2467=4.698406e-03
2468=-2.873048e-02
2470=-1.035206e-01
2477=1.496882e-03
2481=-6.472237e-01
2485=2.595874e-02
2491=4.293321e-02
2497=5.115525e-01
2546=1.232683e-01
2579=2.425157e-01
2620=1.626432e-01
2624=-4.297065e-01
2625=-2.568450e-01
2628=3.357917e-03
2634=4.312600e-02
2640=4.998289e-02
2642=-2.816347e-02
2650=5.245700e-05
2653=3.250899e-02
2654=7.706193e-05
2657=-1.249866e-02
2661=3.054443e-02
2662=3.264692e-02
2664=5.038680e-02
2665=3.100361e-02
2666=5.733480e-02
2667=-5.909106e-03
2668=-3.497431e-02
2670=-1.406352e-04
2672=3.652254e-03
2675=1.011742e-01
2679=-1.720696e-01
2683=-4.399535e-03
2686=2.329935e-02
2690=-3.019698e-04
2697=8.933137e-02
2701=-1.955407e-02
2705=-1.264142e-02
2706=3.922104e-03
2708=1.075425e-03
2709=9.326541e-02
2710=4.869340e-02
2711=-1.424846e-02
2712=4.228155e-02
2713=-1.445944e-02
2715=-5.545763e-01
2716=2.210060e-02
2717=-2.321068e-02
2719=5.110936e-03
2720=1.798546e-02
2721=5.519594e-02
2722=-5.005914e-03
2723=3.739361e-03
2724=2.452385e-02
2725=-1.588979e-04
2727=7.834644e-03
2730=-2.858993e-02
2731=-2.202344e-01
2732=7.976480e-02
2733=-3.046220e-05
2734=-1.841400e-04
2735=6.604682e-01
2736=2.098419e-01
2738=1.529957e-02
2739=-1.442756e-01
2744=2.010849e-01
2747=6.726607e-02
2749=1.308319e-01
2751=1.114039e+00
2774=3.239028e-01
2778=5.975645e-02
2801=7.253536e-02
2810=-4.570717e-03
2814=1.754821e-01
2823=7.491406e-01
2832=-8.354755e-03
2834=1.614883e-03
2835=9.569372e-01
2843=5.007807e-01
2865=3.810080e-02
2870=6.058027e-01
2872=1.288547e-01
2878=-6.177059e-02
2881=3.861801e-02
2884=-1.008331e-01
2885=4.693883e-03
2888=3.423867e-02
2895=-4.229187e-04
2896=-9.418676e-02
2897=1.707430e-01
2899=4.565029e-02
2932=-3.393568e-01
2941=4.695031e-01
2976=3.530653e-01
2977=2.946120e-02
3024=8.383012e-02
3025=-1.495376e-01
3030=8.905358e-02
3032=1.564134e-01
3033=1.273916e-01
3034=6.301631e-02
3035=-2.057633e-04
3038=-4.543920e-02
3048=1.288547e-01
3054=-6.177059e-02
3057=3.861801e-02
3059=2.230597e-01
3068=3.111954e-02
3071=2.837030e-05
3075=-5.344507e-01
3082=-4.543920e-02
3092=-6.976585e-02
3096=1.700254e-01
3097=-1.058063e-01
3098=5.403833e-02
3099=1.650022e-01
3100=5.262780e-02
3101=-2.865787e-02
3173=2.135727e-01
3235=6.754987e-02
3239=-2.832567e-01
3241=-1.329784e-03
3243=5.870030e-02
3244=2.328661e-02
3246=1.233996e+00
3269=3.085689e-01
3273=8.652480e-02
3296=1.107982e-01
3309=4.053996e-01
3318=-1.096904e-01
3365=7.958092e-01
3366=-2.356139e-01
3367=2.742520e-01
3368=3.651034e-03
3371=-7.985320e-01
3372=-4.914615e-02
3373=-6.273266e-01
3374=-6.307814e-02
3375=5.709436e-01
3376=8.851935e-02
3377=-2.855135e-01
3379=3.500946e-05
3380=-3.784773e-01
3382=1.368779e-01
3383=3.069120e-02
3386=4.199823e-02
3390=6.488208e-02
3394=-7.169219e-03
3401=3.195833e-02
3405=-1.035327e-02
3410=-1.441106e-01
3411=-1.914383e-01
3412=3.834089e-03
3413=1.005073e-01
3414=1.973444e-02
3415=1.284332e-01
3416=2.038761e-02
3419=-6.108956e-02
3420=-1.230446e-02
3423=-4.543920e-02
3434=3.664093e-01
3435=-2.367144e-03
3438=-3.912071e-01
3445=1.015555e-01
3446=3.158661e-03
3448=1.865465e-01
3449=-7.938579e-04
3453=3.390646e-02
3456=-2.615210e-04
3457=-4.172729e-01
3460=8.745049e-03
3464=3.425694e-02
3475=6.078612e-02
3478=1.900504e-02
3481=2.204661e-01
3482=2.831995e-01
3483=-8.885120e-02
3484=3.697469e-01
3485=1.584107e-01
3486=-8.086155e-02
3500=1.348338e+00
3515=5.243755e-02
3547=-1.103175e-01
3551=9.018208e-01
3556=1.444549e+00
3558=-7.040752e-05
3559=-8.570488e-01
3569=1.480266e+00
3572=1.551235e+00
3580=6.375941e-01
3603=2.235536e+00
3608=-3.505954e-03
3610=1.027074e-01
3611=7.915974e-02
3612=8.254467e-02
3613=-3.719478e-02
3614=6.169483e-02
3615=-8.887645e-02
3618=3.427875e-02
3621=3.288140e-02
3625=-2.436943e-02
3629=6.796272e-04
3632=-2.615210e-04
3633=-4.172729e-01
3636=8.745049e-03
3640=3.425694e-02
3651=4.209023e-02
3654=3.288140e-02
3658=-2.436943e-02
3662=6.796272e-04
3665=1.047214e-01
3666=7.917555e-03
3667=-1.447287e-02
3669=1.466647e-02
3673=3.450408e-02
3676=-7.117442e-02
3677=1.431488e-01
3680=6.671045e-02
3684=-1.211803e-04
3687=5.316123e-02
3691=3.527508e-01
3695=3.172448e-03
3709=1.387891e+00
3720=-3.632596e-02
3724=9.015290e-02
3765=1.814672e-02
3819=9.302348e-02
3823=-1.208400e-02
3827=4.313498e-02
3830=-1.658074e-02
3838=5.490854e-03
3841=6.909961e-02
3845=-1.341596e-01
3849=1.353321e-02
3852=3.288140e-02
3856=-2.436943e-02
3860=6.796272e-04
3861=2.562588e-02
3863=7.698921e-02
3867=1.509235e-02
3871=2.957978e-02
3875=9.931309e-02
3878=-4.021635e-03
3885=1.842160e-01
3886=8.169677e-04
3889=-6.101846e-02
3893=1.240255e-02
3894=1.942912e-01
3918=4.014880e-01
3919=-1.814848e+00
3922=-2.963339e+00
3926=-2.613041e+00
3930=2.274228e-01
3958=3.519145e-01
3963=-1.000633e+00
3966=2.810228e-01
4010=-7.705075e-03
4014=4.599478e-01
4025=4.390426e-02
4029=5.829939e-02
4032=-7.511446e-03
4037=-6.588924e-05
4038=-1.324249e-01
4039=9.175006e-02
4040=1.206383e-01
4042=3.723917e-03
4043=5.013177e-02
4044=8.100330e-03
4047=2.055778e-02
4048=1.739079e-01
4072=4.710152e-01
4076=-2.754530e-02
4080=-3.472254e-02
4083=-9.880298e-07
4084=5.322886e-01
4085=2.657133e-01
4086=-4.470919e-04
4094=-2.064684e-02
4095=-8.687989e-03
4096=3.794797e-01
4097=4.841494e-01
4099=2.242014e-01
4114=-4.723920e-02
4119=3.164759e-02
4120=2.684105e-01
4121=2.162932e-01
4163=4.125326e-02
4168=7.921053e-01
4171=-7.971895e-01
4175=4.047049e-01
4179=2.729885e-02
4190=4.390426e-02
4201=3.374341e-02
4205=1.591617e-01
4212=-5.165656e-03
4215=1.790137e-01
4216=8.339853e-04
4219=-5.879055e-02
4223=9.872294e-03
4226=-3.114143e-02
4227=9.186357e-02
4230=5.117935e-02
4231=8.934714e-04
4234=-8.635417e-05
4237=4.332855e-02
4241=-5.317809e-04
4245=1.454461e-01
4246=1.573998e-02
4248=1.516539e-01
4249=-1.379190e-05
4256=8.104823e-03
4259=1.609782e-01
4260=9.113407e-04
4263=-5.473526e-02
4267=1.395220e-02
4270=7.431005e-02
4274=-2.000841e-02
4278=9.808121e-03
4281=1.037588e-03
4289=6.292382e-03
4293=6.446733e-02
4303=-3.255636e-01
4304=1.132837e-01
4315=1.007307e-02
4318=-3.618450e-02
4325=1.272957e-04
4329=-3.814638e-01
4336=-5.311208e-02
4338=1.737182e-01
4340=3.562657e-02
4344=4.645369e-02
4348=1.007307e-02
4351=-3.618450e-02
4359=4.979720e-02
4366=-1.089468e-02
4369=-5.311208e-02
4371=1.737182e-01
4373=3.562657e-02
4377=4.645369e-02
4384=-4.064433e-02
4391=1.565755e-01
4392=2.338283e-02
4393=-8.290854e-01
4395=5.727135e-02
4399=1.780103e-02
4402=1.999882e-01
4403=-3.247572e-01
4406=-7.477435e-02
4410=1.177380e-01
4413=1.192049e-01
4414=3.012326e-02
4417=-3.392016e-04
4421=-6.902672e-02
4424=8.973182e-02
4425=4.198611e-02
4428=6.067491e-02
4432=9.587274e-03
4435=-1.960789e-02
4439=7.616153e-03
4443=4.153158e-03
4446=7.241503e-03
4450=7.393756e-01
4454=-2.301357e-04
4457=-5.311208e-02
4459=1.737182e-01
4461=3.562657e-02
4465=4.645369e-02
4468=5.971974e-03
4480=-1.086378e-01
4483=4.205049e-04
4487=1.895951e-03
4491=5.895817e-02
4501=2.998817e-02
4502=-4.728133e-03
4503=-3.920972e-01
4505=-4.990701e-02
4509=3.272393e-02
4512=1.053793e-01
4513=-1.946470e-01
4516=-8.538823e-03
4524=-1.086378e-01
4527=4.205049e-04
4531=1.895951e-03
4534=6.539995e-03
4545=1.053793e-01
4546=-1.946470e-01
4549=-8.538823e-03
4556=2.924680e-01
4567=-9.342452e-02
4568=2.202850e-01
4569=-1.134676e-03
4571=1.268228e-01
4575=8.946807e-03
4576=-1.551428e-01
4578=1.348388e-01
4579=7.555776e-02
4582=4.731705e-02
4586=6.152499e-02
4587=-9.344112e-02
4589=6.236674e-02
4590=-2.083553e-02
4593=6.335478e-02
4597=5.110478e-02
4600=-1.459043e-03
4604=7.377958e-03
4608=1.935362e-02
4611=5.003937e-02
4612=-1.483404e-01
4615=1.776345e-03
4619=1.834696e-02
4622=1.053793e-01
4623=-1.946470e-01
4626=-8.538823e-03
4633=-4.198076e-01
4634=1.867659e-01
4635=7.893180e-02
4637=-6.591407e-02
4641=3.232973e-02
4644=-2.108900e-02
4645=5.721573e-01
4655=-1.057068e-01
4656=2.002803e-01
4657=8.646396e-02
4666=-5.222680e-03
4667=-1.525672e-01
4670=2.777859e-01
4671=1.663349e-02
4674=-3.184966e-04
4677=3.424977e-02
4678=-5.179356e-03
4679=2.269271e-01
4685=-4.079944e-05
4688=-1.057068e-01
4689=2.002803e-01
4690=8.646396e-02
4699=-1.135171e-01
4700=1.698954e-01
4701=8.034666e-02
4710=3.424977e-02
4711=-5.179356e-03
4712=2.269271e-01
4718=-4.079944e-05
4719=-2.666029e-01
4721=1.141190e-02
4722=3.993073e-02
4723=7.938951e-02
4725=1.965084e-02
4729=1.458150e-02
4730=-3.975758e-02
4732=5.511725e-02
4733=-1.350309e-04
4736=2.414114e-03
4740=6.844236e-03
4743=6.135268e-03
4747=7.520303e-02
4751=2.831681e-04
4754=3.424977e-02
4755=-5.179356e-03
4756=2.269271e-01
4762=-4.079944e-05
4765=-1.985291e-03
4766=7.027482e-02
4776=3.433072e-02
4777=4.399774e-02
4780=-6.621717e-02
4784=-1.167429e-03
4787=-1.985291e-03
4788=7.027482e-02
4796=-1.149189e-01
4798=5.110920e-02
4799=1.965702e-02
4802=-2.775866e-03
4806=7.114717e-02
4809=-4.759847e-02
4810=6.143117e-04
4813=1.157977e-02
4817=2.423096e-02
4820=6.025623e-05
4821=9.519511e-02
4824=-4.911675e-02
4828=6.021580e-04
4829=-1.308904e-01
4831=-1.451823e-01
4832=1.941534e-01
4835=1.420697e-01
4836=3.821929e-02
4839=2.465636e-02
4842=-1.842022e-02
4843=2.151861e-01
4846=1.973660e-02
4851=-3.528806e-02
4853=-2.116527e-02
4854=8.184046e-02
4855=-1.391215e-01
4857=9.240507e-02
4861=1.664243e-02
4866=1.293227e-01
4868=-3.115355e-02
4875=6.386531e-02
4879=-1.829640e-01
4886=2.879578e-01
4890=-5.583915e-02
4895=-4.031287e-02
4897=-8.321984e-02
4898=-5.093884e-04
4901=1.027331e-01
4905=1.929393e-02
4908=-3.683415e-02
4909=8.178794e-02
4910=4.168320e-01
4912=2.388584e-02
4916=4.429660e-04
4921=1.129063e-01
4930=1.038399e+00
4934=-7.931483e-02
4941=-2.471873e-01
4944=3.419680e-01
4945=-2.781078e-02
4955=3.067644e-02
4956=-8.159594e-03
4957=4.091328e-01
4966=1.344026e-01
4974=-1.213330e-01
4975=7.713756e-02
4977=3.867865e-02
4978=5.047572e-02
4985=-1.797008e-02
4986=6.102992e-01
4989=-8.882521e-02
4999=9.722865e-02
5000=1.145137e-02
5007=-1.351298e-02
5008=8.251916e-02
5010=7.682301e-02
5011=4.578269e-02
5018=-8.645380e-02
5020=-6.535990e-02
5021=-2.050811e-01
5026=5.407424e-02
5032=1.140655e-01
5043=1.289817e-01
5054=1.289817e-01
5065=1.335069e-01
5076=1.326936e-01
5082=-4.089580e-01
5084=-7.501850e-01
5085=1.636717e-02
5086=7.232343e-02
5088=3.152820e-02
5089=6.802618e-02
5090=1.758630e-01
5092=1.010014e-03
5095=-1.341375e-01
5098=7.298625e-02
5099=-1.833142e-04
5103=1.017146e-03
5109=8.168840e-02
5110=-5.752203e-02
5111=-1.105178e-03
5117=4.696598e-05
5119=-6.403924e-03
5120=-1.611882e-01
5123=3.700405e-01
5125=6.662228e-03
5128=-1.259882e-02
5129=1.304077e-02
5132=2.936582e-03
5139=3.897808e-02
5142=1.257497e-01
5153=2.069226e-01
5154=1.113860e-02
5155=-7.549647e-02
5156=-7.520869e-03
5157=1.705864e-01
5158=-7.525792e-02
5164=2.069226e-01
5165=1.113860e-02
5166=-7.549647e-02
5167=-7.520869e-03
5168=1.705864e-01
5169=-7.525792e-02
5175=2.069226e-01
5176=1.113860e-02
5177=-7.549647e-02
5178=-7.520869e-03
5179=1.705864e-01
5180=-7.525792e-02
5183=1.380998e-01
5186=3.806882e-02
5187=-6.428379e-03
5190=5.599147e-02
5191=-1.016913e-02
5197=2.069226e-01
5198=1.113860e-02
5199=-7.549647e-02
5200=-7.520869e-03
5201=1.705864e-01
5202=-7.525792e-02
5205=1.380998e-01
5208=3.806882e-02
5209=-6.428379e-03
5212=5.599147e-02
5213=-1.016913e-02
5219=2.069226e-01
5220=1.113860e-02
5221=-7.549647e-02
5222=-7.520869e-03
5223=1.705864e-01
5224=-7.525792e-02
5228=-1.009559e-01
5229=3.562290e-01
5231=1.046996e-02
5241=2.069226e-01
5242=1.113860e-02
5243=-7.549647e-02
5244=-7.520869e-03
5245=1.705864e-01
5246=-7.525792e-02
5253=4.787925e-03
5263=1.826758e-01
5265=-7.295457e-02
5266=-7.089526e-03
5267=1.690975e-01
5268=-1.020403e-02
5270=-2.558009e-02
5271=6.280655e-02
5275=3.944465e-03
5285=2.736196e-01
5340=-4.870116e-02
5351=-9.125685e-02
5362=1.910043e-02
5373=1.708197e-01
5384=2.669079e-01
5406=1.965586e-01
5417=2.069226e-01
5418=1.113860e-02
5419=-7.549647e-02
5420=-7.520869e-03
5421=1.705864e-01
5422=-7.525792e-02
5425=2.974035e-03
5428=6.717599e-01
5433=-2.333802e-03
5439=2.069226e-01
5440=1.113860e-02
5441=-7.549647e-02
5442=-7.520869e-03
5443=1.705864e-01
5444=-7.525792e-02
5450=2.069226e-01
5451=1.113860e-02
5452=-7.549647e-02
5453=-7.520869e-03
5454=1.705864e-01
5455=-7.525792e-02
5461=1.386503e-01
5463=-1.984955e-02
5465=1.055313e-01
5466=-1.635942e-02
5472=2.069226e-01
5473=1.113860e-02
5474=-7.549647e-02
5475=-7.520869e-03
5476=1.705864e-01
5477=-7.525792e-02
5480=1.459199e-01
5483=3.109596e-01
5484=-1.385240e-04
5488=-1.089786e-02
5494=2.069226e-01
5495=1.113860e-02
5496=-7.549647e-02
5497=-7.520869e-03
5498=1.705864e-01
5499=-7.525792e-02
5505=2.069226e-01
5506=1.113860e-02
5507=-7.549647e-02
5508=-7.520869e-03
5509=1.705864e-01
5510=-7.525792e-02
5516=2.069226e-01
5517=1.113860e-02
5518=-7.549647e-02
5519=-7.520869e-03
5520=1.705864e-01
5521=-7.525792e-02
5527=1.062678e-01
5528=1.066701e-03
5529=-7.325628e-02
5530=-7.240298e-03
5531=1.676950e-01
5532=-4.678089e-02
5538=1.062678e-01
5539=1.066701e-03
5540=-7.325628e-02
5541=-7.240298e-03
5542=1.676950e-01
5543=-4.678089e-02
5544=1.028204e-01
5557=1.558704e-06
5561=-3.683443e-04
5568=8.220491e-04
5569=3.125683e-03
5579=-1.932675e-03
5580=6.202971e-03
5591=-2.678191e-01
5592=1.017696e-01
5601=-1.932675e-03
5602=6.202971e-03
5612=3.044691e-02
5616=-1.214648e-01
5627=2.975015e-01
5631=-2.073744e-01
5638=2.975015e-01
5642=-2.073744e-01
5645=2.974822e-02
5649=3.825460e-02
5656=9.565149e-03
5660=4.914765e-02
5664=-4.312047e-05
5667=1.289933e-02
5671=-5.920098e-01
5675=7.512050e-02
5678=4.401402e-03
5682=-1.205795e-02
5689=-5.948740e-02
5690=-5.761847e-02
5692=-1.674320e-02
5693=9.494218e-02
5697=7.919456e-03
5700=-5.463022e-01
5711=-1.735865e-02
5715=-6.787413e-03
5719=1.105831e-01
5722=-1.735865e-02
5726=-6.787413e-03
5730=1.105831e-01
5733=-1.233701e+00
5737=2.050342e-01
5744=-6.396589e-01
5748=1.277410e-01
5755=3.381083e-02
5763=-7.143776e-02
5766=2.043887e-02
5770=-4.099227e-04
5774=-1.178863e-02
5781=-3.690707e-02
5792=1.585839e-01
5803=1.585839e-01
5810=-1.533683e-04
5814=1.152336e-01
5818=3.783836e-03
5821=-1.533683e-04
5825=1.152336e-01
5829=3.783836e-03
5832=-8.315902e-04
5836=1.233233e-01
5843=-1.533683e-04
5847=1.152336e-01
5851=3.783836e-03
5854=3.035602e-05
5869=-1.689131e-04
5880=-1.689131e-04
5891=-1.689131e-04
5898=6.636362e-03
5902=-3.438675e-03
5903=3.331743e-04
5909=5.006102e-03
5913=-4.723061e-03
5920=6.636362e-03
5924=-3.438675e-03
5925=3.331743e-04
5931=1.406353e-02
5942=2.311192e-03
5950=2.442474e-02
5961=1.759860e-02
5965=3.562691e-03
5975=8.304995e-03
5983=2.669655e-02
5986=8.304995e-03
5994=2.669655e-02
5998=1.638002e-04
6013=-8.589297e-03
6016=2.630195e-02
6021=2.133144e-01
6032=1.523068e-01
6043=1.523068e-01
6054=1.433267e-01
6063=-1.152885e-01
6064=1.105655e-01
6067=3.904591e-02
6071=4.404850e-02
6074=4.710041e-02
6078=-3.751716e-05
6082=3.431854e-04
6087=1.523068e-01
6096=5.107085e-02
6111=-3.884335e-02
6122=-2.440703e-01
6129=-3.029873e-03
6131=6.432973e-02
6133=8.828267e-02
6137=-8.880493e-03
6140=-3.029873e-03
6142=6.432973e-02
6144=8.828267e-02
6148=-8.880493e-03
6155=-1.428463e-01
6162=8.649423e-02
6166=1.031348e-02
6170=-1.632124e-04
6173=-3.029873e-03
6175=6.432973e-02
6177=8.828267e-02
6181=-8.880493e-03
6184=-1.157598e-04
6195=2.218693e-03
6206=1.472177e-02
6210=6.632184e-02
6214=-6.849543e-03
6217=-1.156722e-05
6228=-1.156722e-05
6239=-1.156722e-05
6254=1.767537e-03
6261=5.018856e-04
6276=3.030571e-03
6283=-9.678502e-06
6294=1.964374e-02
6298=-1.936858e-01
6305=5.018856e-04
6316=-7.764435e-05
6320=2.124384e-02
6327=1.964374e-02
6331=-1.936858e-01
6338=1.964374e-02
6342=-1.936858e-01
6349=-2.681684e-04
6353=1.927688e-03
6360=-2.391086e-02
6368=1.980847e-02
6371=2.168382e-01
6382=2.411788e-02
6384=6.341671e-02
6386=-1.680626e-01
6397=7.342684e-03
6404=2.183613e-01
6415=-2.983527e-02
6419=7.899757e-03
6423=2.173121e-02
6426=1.375400e-01
6437=8.373927e-02
6441=-2.921331e-01
6448=3.068151e-03
6459=9.017713e-02
6460=-1.204571e-01
6463=-2.978171e-01
6470=-2.279071e-01
6474=5.628678e-01
6478=-2.091986e-03
6479=-6.909688e-02
6481=3.376980e-02
6482=-8.993707e-05
6485=-1.245961e-03
6489=3.919136e-02
6492=1.553700e-01
6493=-9.205837e-04
6496=-2.194134e-01
6503=7.329973e-03
6514=1.309129e-01
6515=-1.018584e-03
6518=2.934165e-05
6522=-2.186241e-02
6523=2.036132e-03
6525=1.408906e-02
6527=-5.974226e-03
6529=5.302045e-03
6536=7.329973e-03
6545=2.036132e-03
6547=1.408906e-02
6549=-5.974226e-03
6551=5.302045e-03
6558=8.122849e-04
6562=1.146038e-01
6566=-5.103231e-03
6567=-6.342352e-02
6569=9.309484e-02
6570=5.475247e-04
6573=-4.323152e-02
6577=1.201980e-02
6578=2.036132e-03
6580=1.408906e-02
6582=-5.974226e-03
6584=5.302045e-03
6591=2.296956e-01
6595=-1.174693e-01
6606=4.920614e-02
6613=9.331922e-05
6617=1.002599e-01
6621=7.344080e-04
6625=8.719089e-03
6628=2.520717e-02
6633=3.211798e-03
6635=3.311516e-02
6638=6.600835e-02
6639=-9.084609e-03
6643=-1.922207e-02
6646=6.029264e-05
6657=9.331922e-05
6661=1.002599e-01
6665=7.344080e-04
6668=1.198909e-02
6676=-6.390867e-03
6679=6.029264e-05
6690=1.036461e+00
6694=-8.773321e-01
6701=6.029264e-05
6712=-1.699808e-03
6713=-9.750784e-02
6715=1.849181e-01
6716=3.614782e-01
6720=7.454165e-04
6723=1.876124e-05
6724=-6.536894e-02
6727=4.452893e-02
6731=7.725253e-02
6734=6.029264e-05
6745=9.570202e-03
6778=1.965758e-01
6790=8.868752e-02
6826=1.381297e-01
6877=1.317937e-02
6888=6.727994e-02
6896=-5.799286e-03
6899=2.351170e-05
6900=-5.607811e-02
6903=5.851097e-02
6907=8.986670e-04
6910=1.317937e-02
6921=2.351170e-05
6922=-5.607811e-02
6925=5.851097e-02
6929=8.986670e-04
6932=6.727994e-02
6940=-5.799286e-03
6943=7.900670e-02
6955=-6.632780e-02
6958=3.688701e-02
6962=4.718739e-02
6965=1.670959e-05
6966=-6.607127e-02
6969=3.589014e-02
6973=6.999611e-02
6976=2.114656e-05
6977=-1.043523e-01
6980=5.548455e-02
6987=7.900670e-02
6998=1.517315e-04
7010=-7.040882e-02
7013=3.349572e-02
7017=4.283545e-02
7021=-6.729123e-02
7024=2.898583e-02
7028=4.581114e-02
7032=-6.935341e-02
7035=3.964155e-02
7039=5.436846e-02
7042=2.351170e-05
7043=-5.607811e-02
7046=5.851097e-02
7050=8.986670e-04
7054=-4.764049e-02
7057=5.521289e-02
7061=7.671651e-03
7067=-1.021372e+00
7068=3.486330e-02
7071=1.663927e+00
7072=1.189410e-03
7075=3.568204e-01
7079=-2.018760e-01
7088=1.400969e-01
7097=7.490397e-02
7108=3.625499e-02
7109=-1.050399e-02
7112=2.418560e-02
7119=1.321087e-01
7130=5.234025e-01
7141=1.321087e-01
7156=7.248650e-03
7163=1.161808e-02
7164=-4.983428e-04
7167=3.882799e-02
7174=3.758640e-01
7183=-1.662425e-02
7185=1.877343e-02
7186=-2.906705e-02
7189=2.603950e-02
7196=3.653880e-02
7197=-1.055639e-02
7200=2.393872e-02
7207=4.392981e-01
7218=4.612300e-01
7227=-1.690470e-02
7229=2.592761e-02
7230=-2.937599e-02
7233=2.375460e-02
7262=8.089816e-02
7270=-1.382762e-01
7310=8.815971e-02
7358=1.146936e-01
7361=1.321087e-01
7372=4.123473e-02
7387=4.413718e-01
7395=9.294002e-02
7398=3.005367e-04
7402=-3.262985e-03
7405=-1.337170e-01
7409=-1.953423e-04
7410=7.483614e-02
7438=-3.422746e-02
7442=2.529973e-01
7486=-1.626241e+00
7487=1.103599e+00
7537=-1.560290e-01
7541=-2.451133e-04
7542=7.554869e-02
7549=9.294002e-02
7552=3.005367e-04
7556=-3.262985e-03
7559=-2.458233e-01
7575=6.187906e-02
7581=6.608365e-02
7582=-1.052709e-01
7583=1.812505e-01
7585=3.129453e-02
7586=-1.805681e-04
7589=-8.810677e-05
7592=-6.933020e-02
7596=1.367106e-01
7600=8.325986e-02
7603=-2.785377e-03
7607=1.604818e-01
7613=-4.241845e-02
7614=2.731819e-03
7618=3.832350e-02
7619=5.266085e-01
7622=8.147253e-02
7628=1.061010e-02
7629=-2.227114e-01
7630=6.218882e-01
7631=2.223133e-01
7730=4.018862e-02
7773=2.669813e-01
7782=-5.784114e-01
7785=1.161711e+00
7788=-9.337830e-02
7790=-6.043348e-01
7791=3.994183e-02
7792=1.524727e-02
7794=3.890784e-02
7795=1.064694e-01
7796=1.209108e-01
7798=4.322498e-04
7807=7.841492e-04
7818=7.841492e-04
7831=2.338414e-02
7840=7.841492e-04
7851=7.841492e-04
7859=2.041329e-01
7861=-1.461927e-01
7862=4.662883e-01
7863=1.691803e-01
7973=1.347275e-04
8005=1.738210e-01
8090=-7.001536e-01
8092=6.119337e-02
8093=8.134600e-01
8134=-5.251048e-02
8135=-4.946220e-03
8136=3.065076e-02
8137=4.168946e-01
8140=-3.847724e-02
8142=-1.589634e-01
8143=8.519695e-04
8144=6.995773e-02
8145=-1.207843e-01
8146=1.377425e-02
8148=1.877332e-01
8150=-5.529529e-04
8156=6.681907e-02
8161=1.520830e-01
8167=6.654171e-02
8237=-2.185799e-04
8270=1.667910e-03
8303=2.057319e-01
8376=-8.015022e-02
8380=7.721992e-01
8472=1.987150e-02
8499=6.230634e-01
8512=4.645750e-01
8520=9.051699e-02
8574=-4.305328e-02
8575=6.033297e-02
8576=1.086253e-02
8578=2.365030e-01
8579=-4.088088e-03
8582=-4.182507e-03
8586=3.858237e-01
8590=2.191919e-02
8593=1.596303e-02
8601=-2.216896e-02
8604=1.596303e-02
8612=-2.216896e-02
8615=-7.458370e-02
8619=6.505318e-02
8626=-1.935115e-02
8627=2.762459e-05
8630=1.522516e-01
8637=-1.951640e-02
8638=-1.686092e-01
8641=4.180163e-02
8645=8.196363e-02
8648=-1.951640e-02
8649=-1.686092e-01
8652=4.180163e-02
8656=8.196363e-02
8659=-3.265035e-02
8667=1.023271e-01
8678=2.600413e-03
8681=1.287930e-02
8692=4.585288e-02
8703=4.585288e-02
8715=4.235481e-01
8718=-3.094179e-01
8733=7.980673e-04
8737=9.477490e-02
8740=-2.842058e-01
8748=9.477490e-02
8751=-2.842058e-01
8766=1.155041e-02
8769=-1.123780e-01
8770=2.642503e-02
8773=6.046253e-02
8777=1.839199e-02
8788=9.921582e-04
8799=4.986433e-03
8810=4.986433e-03
8813=-8.198511e-02
8814=1.364858e-02
8817=7.118680e-02
8821=6.326283e-03
8824=-8.198511e-02
8825=1.364858e-02
8828=7.118680e-02
8832=6.326283e-03
8843=1.018150e-03
8844=5.764460e-03
8847=1.288464e-02
8865=1.040018e-03
8872=3.863852e-02
8879=-9.818505e-02
8883=5.450210e-01
8891=-1.732413e-03
8892=6.557331e-01
8893=8.820296e-03
8894=-1.607524e-02
8898=3.331590e-05
8901=-6.015201e-04
8909=1.244091e-01
8913=-1.415967e-01
8916=3.592525e-01
8924=-1.415967e-01
8927=3.592525e-01
8935=-2.810105e-02
8942=1.788131e-02
8946=-2.625344e-02
8947=1.091166e-01
8956=2.679546e-05
8960=-2.476527e-01
8964=7.128662e-02
8967=6.059456e-02
8971=-2.053605e+00
8975=1.441094e-02
8986=-1.426913e-05
8989=2.589615e-05
8990=-4.219748e-05
9000=1.152311e-01
9004=-9.841883e-02
9008=6.934041e-04
9011=-1.106868e-01
9012=-4.242784e-02
9015=2.831806e-01
9019=1.211231e-02
9022=4.628268e-03
9033=5.152330e-02
9034=2.548385e-02
9037=-2.750175e-03
9044=4.628268e-03
9055=5.152330e-02
9056=2.548385e-02
9059=-2.750175e-03
9066=1.719125e-03
9067=-1.265211e-01
9070=1.200025e-01
9077=5.152330e-02
9078=2.548385e-02
9081=-2.750175e-03
9088=-1.045828e-03
9089=7.697850e-02
9092=4.179884e-02
9096=-7.412766e-02
9100=6.246831e-01
9103=-7.289073e-02
9114=8.334364e-02
9118=-2.547123e-03
9121=2.948250e-02
9136=-9.289001e-03
9140=1.102668e-02
9147=-9.289001e-03
9151=1.102668e-02
9162=1.230795e-03
9169=-9.289001e-03
9173=1.102668e-02
9176=1.330793e-01
9177=-2.775736e-04
9180=-6.227344e-03
9184=-7.554567e-05
9187=1.971530e-01
9191=-3.692005e-01
9198=-1.832212e-01
9199=3.114970e-02
9202=6.899580e-02
9206=4.124927e-03
9209=-1.653555e-01
9210=3.164289e-02
9213=6.449089e-02
9217=6.739084e-03
9220=-1.329189e-01
9221=1.290864e-02
9224=7.100170e-02
9228=2.255053e-03
9231=-1.414918e-01
9232=1.263190e-02
9235=7.415329e-02
9239=9.233055e-03
9242=-4.238392e-02
9246=6.620366e-02
9253=-1.407765e-01
9254=1.296528e-02
9257=7.033745e-02
9261=9.252124e-03
9264=-4.238392e-02
9268=6.620366e-02
9275=-1.329189e-01
9276=1.290864e-02
9279=7.100170e-02
9283=2.255053e-03
9286=-4.238392e-02
9290=6.620366e-02
9297=4.296030e-02
9301=-6.921042e-02
9308=9.481753e-03
9312=-8.603526e-01
9316=1.632336e-02
9319=3.956482e-02
9323=-3.545509e-02
9330=1.009530e-01
9334=-1.659088e-02
9338=-8.468183e-04
9341=-7.550198e-02
9349=1.872583e-02
9352=3.079179e-02
9353=3.616531e-02
9356=-3.058136e-02
9360=1.864977e-03
9363=3.079179e-02
9364=3.616531e-02
9367=-3.058136e-02
9371=1.864977e-03
9378=3.734421e-02
9387=3.067980e-02
9396=3.079179e-02
9397=3.616531e-02
9400=-3.058136e-02
9404=1.864977e-03
9410=-1.773202e-02
9411=2.056642e-02
9418=-1.805320e-01
9419=3.600964e-02
9422=1.809463e-01
9423=-2.175041e-04
9432=-1.773202e-02
9433=2.056642e-02
9443=4.330263e-03
9498=8.600390e-02
9509=6.688942e-05
9520=-3.427228e-04
9522=4.577070e-01
9572=-7.773160e-02
9575=3.469039e-01
9576=-1.088624e-01
9580=1.279825e-01
9589=2.360919e-01
9677=5.061703e-01
9708=1.902269e-02
9721=8.129065e-02
9734=7.076314e-02
9745=4.592926e-03
9752=3.211094e-02
9760=2.981800e-02
9774=-1.313077e-04
9778=2.456962e-02
9781=4.011220e-03
9785=-5.047259e-03
9789=2.423247e-02
9792=-9.750173e-03
9796=1.607771e-02
9807=-6.145755e-01
9811=9.309175e-01
9814=-8.353011e-01
9818=1.287901e-01
9825=9.234374e-02
9836=-3.929018e-02
9837=3.409871e-02
9840=2.547378e-03
9851=8.191199e-03
9858=-1.759537e-03
9866=8.453299e-03
9873=-2.128973e-01
9874=2.964124e-02
9888=2.227173e-03
9891=1.291830e-02
9895=9.666747e-04
9899=-1.425426e-03
9906=2.392376e-02
9913=4.041675e-05
9924=6.451631e-05
9935=2.673126e-02
9936=-8.855259e-01
9939=7.121141e-05
9946=-1.756049e-03
9957=3.944436e-04
9968=-1.383363e-01
9976=1.147155e-01
9980=2.254130e-02
9990=6.120988e-02
9994=-3.829126e-01
10005=1.854597e-01
10009=9.016270e-02
10012=2.082125e-02
10016=-2.557431e-03
10020=-3.653892e-02
10023=1.130144e-01
10027=-3.872445e-01
10034=1.978771e-01
10045=1.047119e-01
10049=-8.253846e-05
10056=-4.716487e-02
10059=1.921993e-01
10067=4.844111e-01
10068=6.421293e-03
10069=-2.695839e-02
10075=-3.347976e-01
10078=-9.305389e-03
10082=7.045262e-04
10085=1.168082e-01
10089=-9.305389e-03
10093=7.045262e-04
10096=1.168082e-01
10100=4.312617e-02
10104=-6.064382e-03
10111=2.611112e-05
10115=4.188344e-02
10122=-1.388551e-01
10126=5.156287e-01
10133=-2.416372e-01
10141=3.795261e-02
10144=-7.825321e-02
10152=3.255429e-02
10159=1.877976e-01
10166=9.304958e-02
10170=-3.066319e-02
10177=-7.341627e-02
10181=2.765216e-01
10185=4.185126e-02
10188=8.526080e-06
10192=-7.631125e-03
10196=2.775312e-02
10203=1.388220e-04
10210=6.257448e-04
10214=-1.261981e-02
10229=3.917218e-02
10236=2.016184e-01
10243=-9.965511e-02
10247=7.913935e-03
10251=1.659806e-01
10254=-9.965511e-02
10258=7.913935e-03
10262=1.659806e-01
10265=2.436039e-02
10266=-2.425420e-01
10269=5.147544e-02
10276=2.416603e-02
10277=5.400808e-01
10280=-1.109423e-01
10295=5.995185e-02
10298=2.416603e-02
10299=5.400808e-01
10302=-1.109423e-01
10309=-2.568531e-02
10310=3.320021e-02
10320=-2.568531e-02
10321=3.320021e-02
10335=4.183257e-01
10339=-7.354170e-03
10342=1.852860e-05
10346=5.997869e-04
10350=-2.780154e-04
10353=1.852860e-05
10357=5.997869e-04
10361=-2.780154e-04
10368=1.652623e-03
10375=-2.368822e-02
10379=2.368506e-02
10386=-2.368822e-02
10390=2.368506e-02
10397=-2.368822e-02
10401=2.368506e-02
10408=-1.276318e-02
10412=3.880603e-02
10419=-1.302849e-01
10427=7.960947e-01
10430=-1.529812e-01
10438=7.578142e-01
10441=-3.250349e-02
10449=5.801152e-01
10460=6.926067e-02
10463=-6.574887e-02
10467=3.872980e-01
10478=2.401029e-03
10489=1.432873e-03
10496=-4.070193e-01
10507=2.664051e-03
10511=-1.960175e-02
10518=8.510745e-06
10529=4.804728e-02
10548=9.338864e-03
10551=4.563159e-02
10562=1.053987e-01
10570=-7.459105e-04
10581=1.577956e-02
10592=1.577956e-02
10596=2.093918e-02
10599=4.006448e-02
10603=-2.274885e-01
10607=2.093918e-02
10610=4.006448e-02
10614=-2.274885e-01
10617=-1.789150e-02
10621=1.601517e-01
10628=-4.693687e-05
10629=4.079044e-02
10640=2.093918e-02
10643=4.006448e-02
10647=-2.274885e-01
10650=4.925092e-04
10662=1.712997e-02
10676=1.691735e-02
10683=-3.036274e-01
10698=2.856821e-02
10702=-1.254174e-04
10705=1.842198e-01
10709=-1.459677e-01
10719=5.019323e-03
10731=-1.996349e-02
10738=1.739273e-01
10742=-1.189389e-01
10749=1.739273e-01
10753=-1.189389e-01
10762=5.831263e-02
10771=-5.728315e-03
10775=8.939813e-02
10782=-5.738277e-02
10783=3.973631e-03
10790=5.043008e-02
10793=-5.738277e-02
10794=3.973631e-03
10801=5.043008e-02
10804=-5.738277e-02
10805=3.973631e-03
10812=5.043008e-02
10815=-2.432105e-01
10817=2.235018e-02
10819=-1.254715e-02
10823=6.841525e-02
10828=2.694960e-02
10830=-6.193740e-03
10837=9.180769e-03
10852=2.521854e-03
10859=-8.446583e-06
10863=2.320424e-03
10870=-1.679191e-02
10871=5.464229e-02
10874=1.601653e-03
10885=2.408215e-03
10892=-5.083051e-04
10896=2.485689e-03
10903=-2.330348e-03
10907=2.819134e-03
10918=2.417061e-03
10925=-1.291466e-04
10929=2.038486e-03
10936=-1.282028e-02
10937=3.829965e-02
10947=-1.282028e-02
10948=3.829965e-02
10958=-1.825091e-04
10962=2.498630e-03
10973=2.541282e-03
10980=-1.962537e-04
10984=8.446382e-03
10991=-4.892211e-02
10995=1.934962e-01
11002=-2.039764e-03
11006=2.280624e-03
11013=-8.838376e-05
11017=9.176495e-03
11024=-7.974800e-05
11028=6.145579e-03
11039=4.452330e-03
11050=1.251221e-02
11058=8.343981e-03
11072=6.753144e-03
11080=9.308645e-05
11094=1.666887e-02
11105=1.666887e-02
11112=6.668377e-03
11113=3.517516e-04
11114=2.423277e-02
11116=-2.182561e-01
11123=-4.331430e-01
11125=1.529532e-01
11138=8.565605e-02
11145=-5.954752e-04
11149=9.711613e-02
11156=-9.867485e-02
11157=7.161824e-02
11160=1.784819e-01
11171=6.173756e-03
11178=-1.092101e-02
11191=9.110723e-02
11201=1.680244e-01
11215=2.232463e-02
11222=3.429918e-03
11223=-7.341825e-04
11255=1.120591e+00
11300=5.516773e-02
11313=4.325241e-01
11358=1.856754e-03
11365=4.480634e-01
11366=-3.972733e-03
11380=3.645841e-03
11391=3.645841e-03
11402=3.645841e-03
11413=3.645841e-03
11424=3.645841e-03
11435=9.745886e-03
11442=6.810791e-06
11453=-4.789738e-03
11457=6.265741e-03
11461=2.931856e-02
11464=-5.122751e-01
11468=7.326096e-01
11472=2.138025e-02
11475=3.977604e-01
11479=-1.522241e-01
11486=-8.807575e-01
11490=8.935672e-01
11497=2.524189e-01
11508=1.513719e-02
11519=4.538480e-02
11530=3.333623e-04
11531=6.716824e-02
11534=-2.594869e-02
11541=-5.357014e-02
11552=3.041164e-02
11563=3.267520e-01
11567=1.684206e-02
11571=-7.551289e-02
11574=2.963764e-01
11585=-5.962533e-02
11587=1.029455e-01
11589=2.186987e-01
11596=-5.962533e-02
11598=1.029455e-01
11600=2.186987e-01
11607=-5.506672e-03
11611=1.507205e-02
11618=-2.770694e-01
11626=4.466802e-01
11629=3.858630e-02
11640=5.430749e-02
11651=1.218189e-01
11655=-1.673893e-03
11662=7.886961e-03
11675=1.623644e-01
11684=3.655880e-01
11688=-1.920955e-02
11696=-1.614956e-04
11697=1.606278e-01
11699=-7.298213e-01
11706=-1.990951e-03
11707=-3.546395e-02
11710=2.908049e-01
11717=1.630181e-02
11718=7.245703e-02
11721=-3.353235e-01
11728=3.240487e-02
11739=3.978166e-01
11743=-6.895132e-02
11750=3.077083e-01
11754=-5.689571e-02
11765=8.852462e-02
11776=8.852462e-02
11787=7.944292e-03
11798=7.944292e-03
11805=-8.806472e-02
11816=-7.392021e-02
11820=2.981240e-01
11827=-7.392021e-02
11831=2.981240e-01
11838=-6.573451e-02
11842=2.637231e-01
11849=-1.568070e-01
11853=8.247634e-01
11864=1.695146e-01
11875=1.695146e-01
11882=-6.478253e-02
11886=2.622599e-01
11893=-6.478253e-02
11897=2.622599e-01
11908=5.385078e-01
11915=-2.861935e-04
11930=-6.705764e-02
11938=8.013795e-02
11941=-2.193105e-01
11948=1.064258e-04
11952=-1.230247e-01
11959=2.035494e-02
11965=6.764461e-02
11970=2.035494e-02
11976=6.764461e-02
11981=2.035494e-02
11987=6.764461e-02
11992=-2.464548e-02
11996=4.021685e-02
12003=-5.959546e-02
12007=3.792361e-02
12016=7.599120e-02
12029=-1.389078e-03
12030=1.125790e-02
12040=-6.534583e-04
12041=1.262279e-02
12052=2.433145e-02
12063=2.330210e-02
12073=-1.197933e-04
12080=9.421481e-02
12084=-2.196101e-02
12091=1.546429e-01
12106=-8.154985e-05
12113=-1.534201e-05
12117=1.589367e-02
12124=1.592715e-01
12139=-4.025137e-02
12150=2.247454e-04
12161=2.247454e-04
12172=2.247454e-04
12183=2.742972e-01
12194=1.823942e-03
12205=1.823942e-03
12216=1.642818e-01
12227=3.586886e-02
12238=5.708095e-03
12249=3.879509e-02
12261=3.094995e-02
12272=8.022750e-02
12283=5.920784e-02
12294=8.022750e-02
12304=-3.220256e-02
12305=1.524650e-01
12313=1.953613e-02
12315=3.811127e-02
12325=2.840000e-02
12380=4.173968e-02
12402=-6.494234e-01
12404=3.200856e-01
12446=2.835511e-02
12457=1.868056e-01
12458=1.042083e-01
12460=-2.775884e-01
12534=1.367498e-01
12597=-7.158287e-02
12666=3.334555e-02
12729=1.341819e+00
12740=5.367048e-01
12751=-4.630915e-01
12752=6.157552e-04
12766=-7.483157e-03
12774=3.983362e-02
12785=3.983362e-02
12799=-8.823919e-05
12803=5.006327e-02
12807=3.983362e-02
12817=-1.350237e-03
12821=6.605179e-01
12828=6.325710e-01
12832=-2.258848e-01
12833=6.928565e-02
12839=4.629136e-02
12850=3.875211e-01
12854=-1.175301e-01
12861=8.960951e-02
12865=-1.060126e+00
12872=-9.070328e-02
12891=1.868569e-02
12894=3.686375e-02
12909=-5.066310e-04
12913=3.314752e-02
12921=-8.169368e-03
12924=4.923868e-02
12935=9.984965e-02
12938=1.131794e-06
12954=5.147346e-02
12960=-3.374981e-03
12964=2.812064e-01
12971=-6.225086e-02
12972=1.066923e-01
12975=9.349686e-03
12979=2.833829e-04
12982=-3.604747e-02
12983=-4.925212e-02
12984=8.006427e-01
12993=8.415624e-01
13012=9.159443e-03
13019=4.810387e-02
13023=-7.600127e-02
13026=6.685861e-03
13030=-9.782413e-07
13037=6.685861e-03
13041=-9.782413e-07
13048=6.685861e-03
13052=-9.782413e-07
13059=-4.522072e-01
13063=6.716283e-01
13074=6.675770e-03
13078=-4.108251e-03
13089=-9.240587e-03
13092=2.309205e-01
13096=-6.402250e-02
13107=3.337796e-03
13114=1.057682e-03
13130=2.720660e-03
13140=-1.971114e-01
13151=-9.141677e-04
13162=-1.746142e-01
13173=-1.751036e-01
13180=-9.021936e-03
13191=8.978210e-03
13207=8.583901e-03
13213=2.536183e-04
13217=-1.184409e-01
13229=2.987739e-02
13240=2.987739e-02
13246=7.616421e-04
13257=4.669453e-01
13272=-6.791627e-03
13281=1.164109e-01
13290=3.465840e-01
13301=4.003737e-03
13305=-1.040387e-02
13312=2.397136e-01
13323=7.077583e-01
13327=-9.726433e-02
13334=7.077583e-01
13338=-9.726433e-02
13345=7.077583e-01
13349=-9.726433e-02
13357=2.550903e-02
13360=-3.220907e-01
13371=3.542682e-02
13382=3.542682e-02
13393=5.134358e-02
13404=3.542682e-02
13411=-2.937193e-02
13415=6.303369e-02
13426=3.542682e-02
13437=2.294986e-03
13444=-2.937193e-02
13448=6.303369e-02
13455=-2.937193e-02
13459=6.303369e-02
13466=-1.504320e-01
13477=-1.581614e-01
13488=-1.504320e-01
13499=-1.504320e-01
13511=9.927621e-06
13521=-5.101291e-02
13525=5.080454e-01
13533=7.800686e-02
13544=7.712159e-02
13555=5.798722e-02
13566=5.798722e-02
13577=5.705410e-02
13588=4.451870e-02
13599=8.050253e-03
13610=9.516304e-03
13621=9.516304e-03
13632=9.516304e-03
13643=2.858579e-02
13698=2.498196e-02
13734=3.606337e-02
13793=8.095650e-03
13796=-1.921828e-02
13811=1.527840e+00
13818=-9.793739e-02
13822=2.998114e+00
13830=3.093317e-01
13833=-2.278240e-02
13841=3.093317e-01
13844=-2.278240e-02
13851=-2.307946e-02
13855=6.374456e-01
13863=3.093317e-01
13866=-2.278240e-02
13874=2.758196e-01
13877=-2.388378e-02
13885=7.880150e-02
13896=7.880150e-02
13907=7.880150e-02
13918=7.851529e-02
13929=5.845280e-02
13940=5.845280e-02
13951=5.825999e-02
13962=4.490549e-02
13974=5.895323e-02
13985=5.874860e-02
13994=-9.792364e-03
14002=2.083245e-04
14013=1.137632e-04
14016=1.315304e-02
14020=-6.237617e-03
14031=2.326848e-03
14042=1.076110e-05
14049=-4.023529e-04
14053=1.079735e-01
14060=-4.023529e-04
14064=1.079735e-01
14071=-3.238439e-05
14075=1.974641e-03
14082=-2.211484e-05
14086=2.028756e-03
14093=-3.096860e-04
14094=4.628751e-03
14104=-2.974662e-04
14115=-1.967992e-04
14119=9.615754e-03
14130=9.994747e-03
14137=2.027771e-01
14141=-1.369735e-01
14148=1.331611e-01
14159=9.133665e-05
14163=-9.816006e-03
14167=3.050899e-02
14178=2.939446e-02
14185=9.321612e-01
14193=8.960075e-02
14211=7.665875e-02
14214=-1.760716e-02
14218=3.224193e-02
14225=-5.548791e-03
14229=2.011032e-02
14240=2.697218e-01
14251=2.365058e-05
14262=1.866006e-01
14273=6.641654e-02
14284=1.396635e-01
14295=1.389945e-01
14306=2.681202e-02
14317=3.186482e-05
14328=2.681202e-02
14336=-1.207547e-05
14339=2.301045e-01
14347=-1.207547e-05
14350=2.301045e-01
14358=-1.207547e-05
14361=2.301045e-01
14369=-1.207547e-05
14372=2.301045e-01
14380=-1.170155e-05
14383=1.436755e-01
14391=-1.207547e-05
14394=2.301045e-01
14402=7.793627e-01
14405=-7.919692e-02
14413=7.793627e-01
14416=-7.919692e-02
14424=8.002713e-01
14427=-2.549031e-01
14435=1.176852e-01
14449=3.584594e-01
14456=-1.892682e-01
14464=1.230696e-02
14467=-2.656393e-01
14471=6.024518e-02
14475=3.046514e-04
14482=8.985393e-02
14493=7.353501e-02
14500=-2.696730e-02
14511=-5.320868e-03
14522=3.688097e-02
14526=-1.685035e-03
14533=1.223685e-01
14537=-1.142613e-01
14544=3.688097e-02
14548=-1.685035e-03
14555=3.688097e-02
14559=-1.685035e-03
14566=3.688097e-02
14570=-1.685035e-03
14577=3.688097e-02
14581=-1.685035e-03
14588=3.688097e-02
14592=-1.685035e-03
14599=4.055792e-02
14618=5.098658e-03
14629=1.195642e-02
14632=1.472265e+00
14636=-8.972592e-03
14643=6.890197e-03
14654=9.649039e-03
14665=7.682105e-03
14680=4.154199e-02
14687=-1.890895e-02
14698=-7.824733e-02
14709=6.894433e-02
14728=8.197950e-03
14735=2.818111e-03
14750=1.637824e-03
14753=-7.658535e-02
14757=5.325042e-02
14764=-1.203749e-02
14775=-1.203749e-02
14788=1.291828e-01
14801=1.137241e-01
14812=8.194086e-02
14819=-6.573325e-02
14823=2.681342e-01
14830=-1.496246e-02
14838=2.693730e-02
14841=-1.418927e-02
14849=2.300883e-02
14852=8.698766e-03
14871=1.414938e-02
14882=2.977387e-03
14893=1.162170e-04
14898=1.233376e-01
14909=1.233376e-01
14920=1.233376e-01
14931=1.233376e-01
14948=8.564184e-04
14951=-9.465676e-01
14962=1.443246e-01
14966=-2.568218e-03
14981=-1.027977e-06
14988=2.374058e-01
14995=1.187135e-01
14999=-7.513012e-02
15006=-1.636937e-02
15010=4.847525e-02
15017=9.160202e-02
15021=-5.897956e-02
15028=9.160202e-02
15032=-5.897956e-02
15039=-5.293582e-02
15043=4.168720e-01
15050=-5.293582e-02
15054=4.168720e-01
15061=-5.293582e-02
15065=4.168720e-01
15072=-5.293582e-02
15076=4.168720e-01
15091=2.005617e-02
15095=1.071364e-03
15098=-9.480472e-04
15106=4.652847e-03
15109=-5.210362e-04
15116=7.367433e-02
15128=2.137670e-01
15131=-2.525107e-01
15139=5.184068e-01
15142=-2.327819e-01
15153=1.429725e-01
15164=1.429725e-01
15171=-1.006966e-05
15186=1.429725e-01
15197=1.429725e-01
15208=1.429725e-01
15223=5.958645e-02
15231=3.154290e-02
15242=3.154290e-02
15253=3.154290e-02
15264=3.154290e-02
15275=3.154290e-02
15285=1.184126e-02
15296=1.184126e-02
15307=1.184126e-02
15318=2.418811e-02
15326=6.640428e-02
15336=3.769920e-02
15347=3.769920e-02
15358=3.769920e-02
15369=-1.113860e-01
15377=1.521489e-01
15380=-8.627507e-03
15388=1.442603e-01
15399=6.162547e-02
15406=-1.352462e-04
15410=5.902734e-02
15413=-8.802974e-02
15421=1.116803e-01
15424=-1.313547e-01
15432=1.127032e-01
15435=-8.549892e-02
15443=2.792272e-02
15446=-9.384821e-02
15454=1.104737e-01
15457=-8.929649e-02
15461=5.033010e-03
15465=2.711279e-04
15468=7.438396e-03
15479=-5.575576e-03
15487=8.872570e-02
15490=-4.700848e-02
15498=1.846942e-01
15505=-2.105281e-01
15513=1.094095e-03
15531=8.154179e-03
15538=1.036579e-01
15545=-7.765846e-02
15549=1.480993e-01
15560=-7.065732e-02
15561=8.478013e-02
15571=-7.065732e-02
15572=8.478013e-02
15582=-7.065732e-02
15583=8.478013e-02
15590=4.608874e-03
15600=1.914687e-03
15612=3.085674e-01
15623=2.279256e-01
15633=8.927712e-06
15644=-3.468920e-02
15648=7.170652e-01
15659=-6.174614e-02
15660=1.504256e-01
15666=1.817123e-02
15677=1.817123e-02
15688=1.817123e-02
15699=1.544560e-01
15703=-3.653432e-02
15710=1.544560e-01
15714=-3.653432e-02
15721=1.544560e-01
15725=-3.653432e-02
15732=1.544560e-01
15736=-3.653432e-02
15751=4.412778e-03
15758=3.618472e-03
15769=3.770595e-03
15780=3.770595e-03
15791=3.366761e-03
15798=5.199603e-04
15809=3.832530e-04
15820=3.832530e-04
15831=3.832530e-04
15842=3.832530e-04
15853=3.832530e-04
15864=3.832530e-04
15875=3.832530e-04
15886=3.832530e-04
15897=2.715145e-02
15908=1.688695e-02
15919=2.715145e-02
15930=2.715145e-02
15941=2.715145e-02
15952=2.715145e-02
15963=2.715145e-02
15974=2.715145e-02
15985=3.315526e-02
16000=1.038981e-01
16011=1.038981e-01
16022=1.038981e-01
16033=1.038981e-01
16044=1.038981e-01
16055=1.038981e-01
16065=1.947006e-01
16080=1.179954e-01
16084=-3.058317e-02
16088=1.695585e+00
16099=-6.342977e-02
16100=8.587407e-02
16114=1.199731e-01
16125=7.565975e-03
16136=7.390049e-03
16139=1.028405e-01
16143=-3.995937e-02
16154=1.878395e-01
16169=1.983068e-02
16172=4.571732e-03
16183=4.165481e-03
16194=3.265489e-03
16213=8.856300e-03
16224=3.443819e-02
16235=3.443819e-02
16246=1.020414e-03
16257=1.020414e-03
16268=1.159429e-01
16279=1.081052e-01
16290=2.642846e-03
16301=2.642846e-03
16312=1.752027e-02
16323=6.453580e-03
16334=6.453580e-03
16341=-3.001184e-04
16345=1.097998e-01
16356=6.453580e-03
16367=6.453580e-03
16378=6.453580e-03
16389=6.453580e-03
16400=6.453580e-03
16411=1.493558e-02
16422=1.493558e-02
16433=1.493558e-02
16444=1.493558e-02
16455=1.493558e-02
16466=1.493558e-02
16469=-6.370287e-02
16477=1.025664e-01
16488=9.772781e-02
16495=2.203351e-03
16503=-1.521512e-02
16504=1.722970e-01
16513=7.118378e-02
16517=-1.830605e-05
16524=7.118378e-02
16528=-1.830605e-05
16535=-3.331900e-02
16539=1.216966e-01
16546=-3.331900e-02
16550=1.216966e-01
16557=-3.331900e-02
16561=1.216966e-01
16568=-3.331900e-02
16572=1.216966e-01
16579=-3.331900e-02
16583=1.216966e-01
16591=8.844016e-01
16602=1.025462e-01
16612=-2.054239e-02
16623=-2.789131e-03
16631=5.708966e-03
16642=4.104853e-03
16645=-3.101984e-04
16656=-3.101984e-04
16667=8.319360e-03
16678=8.319360e-03
16689=8.319360e-03
16700=8.319360e-03
16711=8.319360e-03
16722=8.319360e-03
16733=8.319360e-03
16744=-2.577177e-02
16748=3.374865e-02
16755=-2.577177e-02
16759=3.374865e-02
16766=-2.577177e-02
16770=3.374865e-02
16777=-2.577177e-02
16781=3.374865e-02
16788=-2.577177e-02
16792=3.374865e-02
16799=-2.577177e-02
16803=3.374865e-02
16810=-2.577177e-02
16814=3.374865e-02
16821=-2.577177e-02
16825=3.374865e-02
16832=-2.577177e-02
16836=3.374865e-02
16843=-1.079755e-02
16847=2.222723e-02
16854=-1.079755e-02
16858=2.222723e-02
16865=-1.079755e-02
16869=2.222723e-02
16876=-1.079755e-02
16880=2.222723e-02
16887=-1.079755e-02
16891=2.222723e-02
16898=-1.079755e-02
16902=2.222723e-02
16909=-1.079755e-02
16913=2.222723e-02
16920=-1.079755e-02
16924=2.222723e-02
16935=-3.048355e-02
16936=8.704543e-02
16946=-3.048355e-02
16947=8.704543e-02
16957=-3.048355e-02
16958=8.704543e-02
16968=-3.048355e-02
16969=8.704543e-02
16979=-3.048355e-02
16980=8.704543e-02
16990=-3.048355e-02
16991=8.704543e-02
17001=1.221988e-02
17012=1.221988e-02
17023=1.221988e-02
17034=1.221988e-02
17045=1.221988e-02
17056=1.221988e-02
17067=2.755660e-02
17078=2.755660e-02
17089=2.755660e-02
17100=2.755660e-02
17111=2.755660e-02
17122=2.755660e-02
17130=4.688150e-03
17141=4.688150e-03
17152=4.688150e-03
17163=4.688150e-03
17174=4.688150e-03
17185=4.688150e-03
17195=3.418044e-01
17203=-5.743720e-02
17214=3.114577e-02
17225=6.932785e-02
17236=6.932785e-02
17239=-3.292145e-03
17250=-3.292145e-03
17269=2.405813e-02
17280=2.405813e-02
17291=2.079782e-02
17302=2.079782e-02
17313=1.254798e-01
17324=1.782655e-02
17335=6.592579e-03
17343=-8.061612e-03
17346=5.827261e-02
17357=6.129254e-03
17368=6.592579e-03
17379=6.592579e-03
17390=6.129254e-03
17401=1.211617e-01
17412=3.068116e-02
17423=2.928902e-02
17434=8.318282e-02
17445=3.068116e-02
17456=1.211617e-01
17467=7.648939e-03
17478=6.022672e-03
17489=7.648939e-03
17500=7.648939e-03
17511=6.426070e-03
17522=9.104404e-03
17533=7.479128e-03
17544=9.428147e-03
17555=7.479128e-03
17566=9.310533e-04
17577=8.447218e-03
17588=8.447218e-03
17599=8.447218e-03
17610=8.447218e-03
17621=8.447218e-03
17632=8.447218e-03
17643=8.447218e-03
17654=8.147356e-03
17661=2.820685e-03
17672=2.820685e-03
17683=2.820685e-03
17694=2.820685e-03
17705=2.820685e-03
17716=2.820685e-03
17727=2.820685e-03
17738=2.636516e-03
17749=2.636516e-03
17760=2.636516e-03
17771=2.636516e-03
17782=2.636516e-03
17793=2.636516e-03
17804=3.376797e-03
17815=3.376797e-03
17826=3.376797e-03
17837=3.376797e-03
17848=3.376797e-03
17859=3.376797e-03
17870=3.376797e-03
17879=2.217627e-01
17889=1.955337e-01
17901=2.217627e-01
17911=-1.252252e-02
17912=1.748136e-01
17922=-2.081421e-02
17923=2.243726e-01
17933=-2.081421e-02
17934=2.243726e-01
17944=1.024993e-03
17955=1.024993e-03
17966=1.024993e-03
17977=1.024993e-03
17988=1.024993e-03
17999=1.024993e-03
18010=1.024993e-03
18028=4.252661e-02
18039=4.252661e-02
18050=4.252661e-02
18054=6.968028e-02
18065=6.968028e-02
18076=6.968028e-02
18087=6.968028e-02
18098=6.968028e-02
18109=6.968028e-02
18120=6.968028e-02
18130=1.048472e-02
18141=1.048472e-02
18152=1.048472e-02
18163=1.048472e-02
18174=1.048472e-02
18185=1.048472e-02
18196=1.048472e-02
18207=1.048472e-02
18218=3.128623e-04
18231=1.307386e-01
18242=1.307386e-01
18253=1.307386e-01
18264=1.307386e-01
18274=2.294116e-01
18285=2.294116e-01
18296=2.294116e-01
18307=3.221872e-01
18318=3.221872e-01
18328=-7.604857e-02
18339=-7.604857e-02
18350=-1.735319e-03
18358=6.308386e-03
18361=-1.735319e-03
18369=6.308386e-03
18372=-1.735319e-03
18380=6.308386e-03
18391=5.109652e-03
18402=5.109652e-03
18405=-4.669527e-02
18424=5.109652e-03
18435=5.109652e-03
18438=-1.039261e-04
18446=4.480664e-03
18449=-2.346727e-02
18468=4.247331e-02
18479=4.247331e-02
18482=-2.346727e-02
18501=4.247331e-02
18504=-2.346727e-02
