#mdl#2#6792
#rdr#61/19/0
1:*,
18:u:Tok-1 X=%x[ 0,0],
18:u:tok-1 X=%x[ 0,1],
18:u:tok-1LL=%X[-2,0],
18:u:tok-1 L=%X[-1,0],
18:u:tok-1 R=%X[ 1,0],
18:u:tok-1RR=%X[ 2,0],
27:u:tok-2 L=%X[-1,0]/%X[ 0,0],
27:u:tok-2 R=%X[ 0,0]/%X[ 1,0],
18:*:Fst-1 X=%x[ 0,2],
18:u:Fst-1 R=%x[ 1,2],
27:u:Fst-2 X=%x[ 0,2]/%x[ 0,4],
27:u:Fst-2 R=%x[ 1,2]/%x[ 1,4],
18:*:Lst-1 L=%x[-1,3],
18:u:Lst-1 X=%x[ 0,3],
27:u:Lst-2 L=%x[-1,3]/%x[-1,6],
27:u:Lst-2 X=%x[ 0,3]/%x[ 0,6],
18:u:Pre-1 X=%x[ 0,4],
18:u:Pre-2 X=%x[ 0,5],
18:u:Pre-2 R=%x[ 1,5],
18:u:Suf-1 X=%x[ 0,6],
18:u:Suf-2 L=%x[-1,7],
18:u:Suf-2 X=%x[ 0,7],
18:u:Cap-1 L=%x[-1,8],
18:u:Cap-1 X=%x[ 0,8],
18:u:Cap-1 R=%x[ 1,8],
27:u:Cap-2 L=%x[-1,8]/%x[ 0,8],
27:u:Cap-2 R=%x[ 0,8]/%x[ 1,8],
28:u:Cap-3 L=%x[-1,18]/%x[ 0,8],
18:*:Num-1 L=%x[-1,9],
18:*:Num-1 X=%x[ 0,9],
18:u:Num-1 R=%x[ 1,9],
28:u:Num-2 R=%x[ 0,9]/%x[ 0,17],
28:u:Num-2 R=%x[ 0,9]/%x[ 0,18],
19:u:Nme-1 X=%x[ 0,10],
19:u:Loc-1 X=%x[ 0,11],
19:u:Pub-1 X=%x[ 0,12],
19:u:Jnl-1 X=%x[ 0,13],
19:u:Key-1 L=%x[-1,14],
19:u:Key-1 X=%x[ 0,14],
19:u:Key-1 R=%x[ 1,14],
28:u:Key-2 X=%x[ 0,14]/%x[ 0,8],
29:u:Key-3 L=%x[-1,18]/%x[ 0,14],
29:u:Key-3 x=%x[ 0,14]/%x[ 0,18],
19:u:Pos-1 X=%x[ 0,15],
29:u:Pos-2 L=%x[-1,15]/%x[ 0,15],
29:u:Pos-2 R=%x[ 0,15]/%x[ 1,15],
19:u:Pct-1 L=%x[-1,16],
19:u:Pct-1 X=%x[ 0,16],
19:u:Pct-1 R=%x[ 1,16],
19:u:Brk-1 L=%x[-1,17],
19:u:Brk-1 X=%x[ 0,17],
19:u:Brk-1 R=%x[ 1,17],
19:*:Tmn-1 L=%x[-1,18],
19:u:Tmn-1 X=%x[ 0,18],
19:u:Tmn-1 R=%x[ 1,18],
29:u:Tmn-2 L=%x[-1,14]/%x[ 0,18],
29:u:Tmn-2 R=%x[ 0,18]/%x[ 1,14],
28:u:Tmn-3 X=%x[ 0,18]/%x[ 0,6],
28:u:Tmn-4 R=%x[ 0,18]/%x[ 1,8],
19:u:Id--1 X=%x[ 0,19],
#qrk#8
6:Author,
4:Year,
5:Title,
7:Journal,
6:Volume,
5:Issue,
10:Pagination,
4:Book,
#qrk#3142
1:*,
14:u:tok-1LL=_x-2,
14:u:tok-1 L=_x-1,
12:*:Fst-1 X=Lu,
12:u:Fst-1 R=Lu,
14:u:Fst-2 X=Lu/V,
14:u:Fst-2 R=Lu/D,
14:*:Lst-1 L=_x-1,
11:u:Lst-1 X=P,
19:u:Lst-2 L=_x-1/_x-1,
13:u:Lst-2 X=P/,,
11:u:Pre-1 X=V,
12:u:Pre-2 X=Ve,
11:u:Suf-1 X=,,
14:u:Suf-2 L=_x-1,
12:u:Suf-2 X=e,,
14:u:Cap-1 L=_x-1,
17:u:Cap-1 X=initial,
16:u:Cap-1 R=single,
24:u:Cap-2 R=initial/single,
14:*:Num-1 L=_x-1,
14:*:Num-1 X=none,
15:u:Num-1 R=roman,
19:u:Num-2 R=none/none,
19:u:Num-2 R=none/weak,
11:u:Nme-1 X=F,
11:u:Loc-1 X=F,
11:u:Pub-1 X=F,
11:u:Jnl-1 X=F,
14:u:Key-1 L=_x-1,
14:u:Key-1 X=none,
14:u:Key-1 R=none,
22:u:Key-2 X=none/initial,
19:u:Key-3 L=_x-1/none,
19:u:Key-3 x=none/weak,
15:u:Pos-1 X=first,
20:u:Pos-2 L=_x-1/first,
17:u:Pos-2 R=first/0,
14:u:Pct-1 L=_x-1,
15:u:Pct-1 X=other,
16:u:Pct-1 R=period,
14:u:Brk-1 L=_x-1,
14:u:Brk-1 X=none,
14:u:Brk-1 R=none,
14:*:Tmn-1 L=_x-1,
14:u:Tmn-1 X=weak,
14:u:Tmn-1 R=weak,
19:u:Tmn-2 R=weak/none,
16:u:Tmn-3 X=weak/,,
11:u:Id--1 X=F,
14:u:tok-1LL=_x-1,
14:u:Fst-2 X=Lu/D,
14:u:Fst-2 R=Lu/V,
11:*:Lst-1 L=P,
13:u:Lst-2 L=P/,,
13:u:Lst-2 X=P/;,
11:u:Pre-1 X=D,
12:u:Pre-2 R=Vi,
11:u:Suf-1 X=;,
12:u:Suf-2 L=e,,
17:u:Cap-1 L=initial,
16:u:Cap-1 X=single,
17:u:Cap-1 R=initial,
24:u:Cap-2 L=initial/single,
24:u:Cap-2 R=single/initial,
21:u:Cap-3 L=weak/single,
14:*:Num-1 L=none,
15:*:Num-1 X=roman,
14:u:Num-1 R=none,
20:u:Num-2 R=roman/none,
14:u:Key-1 L=none,
21:u:Key-2 X=none/single,
19:u:Key-3 L=weak/none,
11:u:Pos-1 X=0,
17:u:Pos-2 L=first/0,
15:u:Pct-1 L=other,
16:u:Pct-1 X=period,
15:u:Pct-1 R=other,
14:u:Brk-1 L=none,
14:*:Tmn-1 L=weak,
19:u:Tmn-2 L=none/weak,
22:u:Tmn-4 R=weak/initial,
14:u:Fst-2 R=Lu/M,
12:u:Pre-2 X=Vi,
16:u:Cap-1 L=single,
24:u:Cap-2 L=single/initial,
22:u:Cap-3 L=weak/initial,
15:*:Num-1 L=roman,
11:u:Pos-1 X=1,
13:u:Pos-2 R=1/1,
16:u:Pct-1 L=period,
16:u:Tmn-1 R=strong,
11:u:Fst-1 R=N,
14:u:Fst-2 X=Lu/M,
13:u:Fst-2 R=N/1,
13:u:Lst-2 X=P/.,
11:u:Pre-1 X=M,
12:u:Pre-2 R=19,
11:u:Suf-1 X=.,
15:u:Cap-1 R=other,
22:u:Cap-2 R=single/other,
14:u:Num-1 R=year,
22:u:Num-2 R=roman/strong,
21:u:Key-3 x=none/strong,
13:u:Pos-2 L=1/1,
14:u:Pct-1 R=none,
16:u:Tmn-1 X=strong,
14:u:Tmn-1 R=none,
21:u:Tmn-2 L=none/strong,
21:u:Tmn-2 R=strong/none,
18:u:Tmn-3 X=strong/.,
22:u:Tmn-4 R=strong/other,
11:*:Fst-1 X=N,
13:u:Fst-2 X=N/1,
14:u:Fst-2 R=Lu/E,
11:u:Lst-1 X=N,
13:u:Lst-2 L=P/.,
13:u:Lst-2 X=N/4,
11:u:Pre-1 X=1,
12:u:Pre-2 X=19,
11:u:Suf-1 X=4,
15:u:Cap-1 X=other,
22:u:Cap-2 L=single/other,
23:u:Cap-2 R=other/initial,
22:u:Cap-3 L=strong/other,
14:*:Num-1 X=year,
19:u:Num-2 R=year/none,
20:u:Key-2 X=none/other,
21:u:Key-3 L=strong/none,
19:u:Key-3 x=none/none,
13:u:Pos-2 R=1/2,
14:u:Pct-1 X=none,
16:*:Tmn-1 L=strong,
14:u:Tmn-1 X=none,
19:u:Tmn-2 L=none/none,
19:u:Tmn-2 R=none/none,
16:u:Tmn-3 X=none/4,
22:u:Tmn-4 R=none/initial,
12:u:Fst-1 R=Ps,
14:u:Fst-2 X=Lu/E,
14:u:Fst-2 R=Ps/(,
11:*:Lst-1 L=N,
12:u:Lst-1 X=Ll,
13:u:Lst-2 L=N/4,
14:u:Lst-2 X=Ll/e,
11:u:Pre-1 X=E,
11:u:Suf-1 X=e,
12:u:Suf-2 X=ae,
15:u:Cap-1 L=other,
23:u:Cap-2 L=other/initial,
25:u:Cap-2 R=initial/initial,
22:u:Cap-3 L=none/initial,
14:*:Num-1 L=year,
19:u:Key-3 L=none/none,
11:u:Pos-1 X=2,
13:u:Pos-2 L=1/2,
13:u:Pos-2 R=2/2,
14:u:Pct-1 L=none,
15:u:Pct-1 R=colon,
23:u:Brk-1 R=opening-paren,
14:*:Tmn-1 L=none,
18:u:Tmn-1 R=moderate,
16:u:Tmn-3 X=none/e,
14:u:tok-1RR=from,
12:*:Fst-1 X=Ps,
14:u:Fst-2 X=Ps/(,
12:*:Lst-1 L=Ll,
14:u:Lst-2 L=Ll/e,
13:u:Lst-2 X=P/:,
11:u:Pre-1 X=(,
12:u:Pre-2 R=De,
11:u:Suf-1 X=:,
12:u:Suf-2 L=ae,
25:u:Cap-2 L=initial/initial,
28:u:Num-2 R=none/opening-paren,
23:u:Num-2 R=none/moderate,
23:u:Key-3 x=none/moderate,
13:u:Pos-2 L=2/2,
13:u:Pos-2 R=2/3,
15:u:Pct-1 X=colon,
23:u:Brk-1 X=opening-paren,
23:u:Brk-1 R=closing-paren,
18:u:Tmn-1 X=moderate,
23:u:Tmn-2 L=none/moderate,
23:u:Tmn-2 R=moderate/none,
20:u:Tmn-3 X=moderate/:,
26:u:Tmn-4 R=moderate/initial,
11:u:Id--1 X=T,
14:u:tok-1 R=from,
13:u:tok-1RR=the,
12:u:Fst-1 R=Ll,
14:u:Fst-2 R=Ll/f,
12:u:Lst-1 X=Pe,
13:u:Lst-2 L=P/:,
14:u:Lst-2 X=Pe/),
12:u:Pre-2 X=De,
11:u:Suf-1 X=),
12:u:Suf-2 L=a:,
12:u:Suf-2 X=a),
15:u:Cap-1 R=lower,
23:u:Cap-2 R=initial/lower,
26:u:Cap-3 L=moderate/initial,
28:u:Num-2 R=none/closing-paren,
21:u:Num-2 R=none/strong,
23:u:Key-3 L=moderate/none,
11:u:Pos-1 X=3,
13:u:Pos-2 L=2/3,
13:u:Pos-2 R=3/3,
15:u:Pct-1 L=colon,
23:u:Brk-1 L=opening-paren,
23:u:Brk-1 X=closing-paren,
18:*:Tmn-1 L=moderate,
18:u:Tmn-3 X=strong/),
22:u:Tmn-4 R=strong/lower,
14:u:Tok-1 X=from,
14:u:tok-1 X=from,
13:u:tok-1 R=the,
18:u:tok-2 R=from/the,
12:*:Fst-1 X=Ll,
14:u:Fst-2 X=Ll/f,
14:u:Fst-2 R=Ll/t,
12:*:Lst-1 L=Pe,
14:u:Lst-2 L=Pe/),
14:u:Lst-2 X=Ll/m,
11:u:Pre-1 X=f,
12:u:Pre-2 R=th,
11:u:Suf-1 X=m,
12:u:Suf-2 L=a),
12:u:Suf-2 X=om,
15:u:Cap-1 X=lower,
23:u:Cap-2 L=initial/lower,
21:u:Cap-2 R=lower/lower,
22:u:Cap-3 L=strong/lower,
11:u:Nme-1 X=T,
11:u:Jnl-1 X=T,
20:u:Key-2 X=none/lower,
13:u:Pos-2 L=3/3,
23:u:Brk-1 L=closing-paren,
16:u:Tmn-3 X=none/m,
20:u:Tmn-4 R=none/lower,
13:u:Tok-1 X=the,
13:u:tok-1 X=the,
14:u:tok-1 L=from,
18:u:tok-2 L=from/the,
14:u:Fst-2 X=Ll/t,
14:u:Lst-2 L=Ll/m,
11:u:Pre-1 X=t,
12:u:Pre-2 X=th,
12:u:Pre-2 R=Ea,
12:u:Suf-2 L=om,
12:u:Suf-2 X=he,
15:u:Cap-1 L=lower,
21:u:Cap-2 L=lower/lower,
23:u:Cap-2 R=lower/initial,
20:u:Cap-3 L=none/lower,
11:u:Pub-1 X=T,
13:u:Pos-2 R=3/4,
14:u:tok-1LL=from,
13:u:tok-1 L=the,
14:u:Fst-2 R=Lu/A,
14:u:Lst-2 X=Ll/t,
12:u:Pre-2 R=Af,
11:u:Suf-1 X=t,
12:u:Suf-2 L=he,
12:u:Suf-2 X=st,
23:u:Cap-2 L=lower/initial,
11:u:Pos-1 X=4,
13:u:Pos-2 L=3/4,
13:u:Pos-2 R=4/4,
16:u:Tmn-3 X=none/t,
13:u:tok-1LL=the,
14:u:tok-1 L=east,
14:u:Fst-2 X=Lu/A,
14:u:Fst-2 R=Ll/c,
14:u:Lst-2 L=Ll/t,
14:u:Lst-2 X=Ll/n,
11:u:Pre-1 X=A,
12:u:Pre-2 X=Af,
12:u:Pre-2 R=co,
11:u:Suf-1 X=n,
12:u:Suf-2 L=st,
12:u:Suf-2 X=an,
13:u:Pos-2 L=4/4,
16:u:Tmn-3 X=none/n,
15:u:tok-1 X=coast,
11:u:tok-1RR=a,
14:u:Fst-2 X=Ll/c,
14:u:Fst-2 R=Ll/w,
14:u:Lst-2 L=Ll/n,
11:u:Pre-1 X=c,
12:u:Pre-2 X=co,
12:u:Pre-2 R=wi,
12:u:Suf-2 L=an,
11:u:Loc-1 X=T,
13:u:Pos-2 R=4/5,
20:u:Tmn-4 R=weak/lower,
11:u:tok-1 R=a,
14:u:Fst-2 X=Ll/w,
14:u:Fst-2 R=Ll/a,
14:u:Lst-2 X=Ll/h,
11:u:Pre-1 X=w,
12:u:Pre-2 X=wi,
11:u:Pre-2 R=a,
11:u:Suf-1 X=h,
12:u:Suf-2 L=t,,
12:u:Suf-2 X=th,
20:u:Cap-3 L=weak/lower,
11:u:Pos-1 X=5,
13:u:Pos-2 L=4/5,
13:u:Pos-2 R=5/5,
16:u:Tmn-3 X=none/h,
11:u:Tok-1 X=a,
11:u:tok-1 X=a,
12:u:tok-1RR=on,
14:u:Fst-2 X=Ll/a,
14:u:Fst-2 R=Ll/d,
14:u:Lst-2 L=Ll/h,
14:u:Lst-2 X=Ll/a,
11:u:Pre-1 X=a,
11:u:Pre-2 X=a,
11:u:Suf-1 X=a,
12:u:Suf-2 L=th,
11:u:Suf-2 X=a,
13:u:Pos-2 L=5/5,
13:u:Pos-2 R=5/6,
16:u:Tmn-3 X=none/a,
11:u:tok-1 L=a,
12:u:tok-1 R=on,
14:u:Fst-2 X=Ll/d,
14:u:Fst-2 R=Ll/o,
14:u:Lst-2 L=Ll/a,
11:u:Pre-1 X=d,
12:u:Pre-2 R=on,
11:u:Suf-2 L=a,
12:u:Suf-2 X=on,
11:u:Pos-1 X=6,
13:u:Pos-2 L=5/6,
13:u:Pos-2 R=6/6,
12:u:Tok-1 X=on,
11:u:tok-1LL=a,
16:u:tok-2 R=on/the,
14:u:Fst-2 X=Ll/o,
11:u:Pre-1 X=o,
12:u:Pre-2 X=on,
12:u:Suf-2 L=on,
13:u:Pos-2 L=6/6,
12:u:tok-1 L=on,
16:u:tok-2 L=on/the,
14:u:Fst-2 R=Ll/e,
13:u:Pos-2 R=6/7,
12:u:tok-1LL=on,
12:u:tok-1RR=of,
14:u:Fst-2 X=Ll/e,
14:u:Fst-2 R=Ll/m,
14:u:Lst-2 X=Ll/l,
11:u:Pre-1 X=e,
12:u:Pre-2 R=mo,
11:u:Suf-1 X=l,
12:u:Suf-2 X=al,
11:u:Pos-1 X=7,
13:u:Pos-2 L=6/7,
13:u:Pos-2 R=7/7,
16:u:Tmn-3 X=none/l,
12:u:tok-1 R=of,
14:u:Fst-2 X=Ll/m,
14:u:Lst-2 L=Ll/l,
14:u:Lst-2 X=Ll/y,
11:u:Pre-1 X=m,
12:u:Pre-2 X=mo,
12:u:Pre-2 R=of,
11:u:Suf-1 X=y,
12:u:Suf-2 L=al,
13:u:Pos-2 L=7/7,
16:u:Tmn-3 X=none/y,
12:u:Tok-1 X=of,
12:u:tok-1 X=of,
14:u:Lst-2 L=Ll/y,
14:u:Lst-2 X=Ll/f,
12:u:Pre-2 X=of,
11:u:Suf-1 X=f,
12:u:Suf-2 L=gy,
12:u:Suf-2 X=of,
13:u:Pos-2 R=7/8,
16:u:Tmn-3 X=none/f,
12:u:tok-1 L=of,
14:u:Lst-2 L=Ll/f,
14:u:Lst-2 X=Ll/r,
11:u:Suf-1 X=r,
12:u:Suf-2 L=of,
12:u:Suf-2 X=ar,
11:u:Pos-1 X=8,
13:u:Pos-2 L=7/8,
13:u:Pos-2 R=8/8,
16:u:Tmn-3 X=none/r,
12:u:tok-1LL=of,
14:u:Fst-2 R=Lu/N,
14:u:Lst-2 L=Ll/r,
14:u:Lst-2 X=Ll/s,
12:u:Pre-2 R=Ne,
11:u:Suf-1 X=s,
12:u:Suf-2 L=ar,
12:u:Suf-2 X=es,
13:u:Pos-2 L=8/8,
13:u:Pos-2 R=8/9,
16:u:Tmn-3 X=none/s,
11:u:tok-1RR=1,
14:u:Fst-2 X=Lu/N,
13:u:Fst-2 R=N/4,
14:u:Lst-2 L=Ll/s,
11:u:Pre-1 X=N,
12:u:Pre-2 X=Ne,
12:u:Suf-2 L=es,
12:u:Suf-2 X=ca,
23:u:Cap-2 R=initial/other,
16:u:Num-1 R=double,
11:u:Pos-1 X=9,
13:u:Pos-2 L=8/9,
13:u:Pos-2 R=9/9,
20:u:Tmn-4 R=none/other,
11:u:tok-1 R=1,
13:u:Fst-2 X=N/4,
11:u:Pre-1 X=4,
11:u:Pre-2 R=1,
23:u:Cap-2 L=initial/other,
21:u:Cap-2 R=other/other,
20:u:Cap-3 L=none/other,
16:*:Num-1 X=double,
16:u:Num-1 R=single,
21:u:Num-2 R=double/none,
13:u:Pos-2 L=9/9,
11:u:Tok-1 X=1,
11:u:tok-1 X=1,
14:u:tok-1RR=_x+1,
13:u:Fst-2 R=N/7,
13:u:Lst-2 X=N/1,
11:u:Pre-2 X=1,
11:u:Suf-1 X=1,
11:u:Suf-2 X=1,
21:u:Cap-2 L=other/other,
16:*:Num-1 L=double,
16:*:Num-1 X=single,
15:u:Num-1 R=range,
21:u:Num-2 R=single/none,
16:u:Pos-2 R=9/last,
16:u:Pct-1 R=hyphen,
16:u:Tmn-3 X=none/1,
14:u:tok-1 R=_x+1,
14:u:tok-1RR=_x+2,
14:u:Fst-1 R=_x+1,
13:u:Fst-2 X=N/7,
19:u:Fst-2 R=_x+1/_x+1,
13:u:Lst-2 L=N/1,
13:u:Lst-2 X=N/5,
11:u:Pre-1 X=7,
14:u:Pre-2 R=_x+1,
11:u:Suf-1 X=5,
14:u:Cap-1 R=_x+1,
20:u:Cap-2 R=other/_x+1,
16:*:Num-1 L=single,
15:*:Num-1 X=range,
14:u:Num-1 R=_x+1,
20:u:Num-2 R=range/none,
14:u:Key-1 R=_x+1,
14:u:Pos-1 X=last,
16:u:Pos-2 L=9/last,
19:u:Pos-2 R=last/_x+1,
16:u:Pct-1 X=hyphen,
14:u:Pct-1 R=_x+1,
14:u:Brk-1 R=_x+1,
14:u:Tmn-1 R=_x+1,
19:u:Tmn-2 R=none/_x+1,
16:u:Tmn-3 X=none/5,
19:u:Tmn-4 R=none/_x+1,
14:u:Fst-2 X=Lu/S,
11:u:Pre-1 X=S,
12:u:Pre-2 X=Sc,
12:u:Suf-2 X=E.,
13:u:tok-1RR=zur,
14:u:Fst-2 R=Lu/B,
13:u:Lst-2 X=N/8,
12:u:Pre-2 R=Be,
11:u:Suf-1 X=8,
12:u:Suf-2 L=E.,
16:u:Tmn-3 X=none/8,
14:u:Fst-2 X=Lu/B,
11:u:Pre-1 X=B,
12:u:Pre-2 X=Be,
12:u:Suf-2 X=ge,
13:u:tok-1RR=und,
12:u:Pre-2 R=Mo,
12:u:Suf-2 X=ur,
13:u:tok-1 R=und,
14:u:Fst-2 R=Ll/u,
12:u:Pre-2 X=Mo,
12:u:Pre-2 R=un,
12:u:Suf-2 L=ur,
12:u:Suf-2 X=ie,
13:u:Key-1 R=and,
18:u:Tmn-2 R=none/and,
21:u:tok-1 L=morphologie,
14:u:Fst-2 X=Ll/u,
14:u:Fst-2 R=Lu/S,
14:u:Lst-2 X=Ll/d,
11:u:Pre-1 X=u,
12:u:Pre-2 X=un,
12:u:Pre-2 R=Sy,
11:u:Suf-1 X=d,
12:u:Suf-2 L=ie,
12:u:Suf-2 X=nd,
13:u:Key-1 X=and,
19:u:Key-2 X=and/lower,
18:u:Key-3 L=none/and,
18:u:Key-3 x=and/none,
16:u:Tmn-3 X=none/d,
21:u:tok-1LL=morphologie,
13:u:tok-1 L=und,
14:u:Lst-2 L=Ll/d,
14:u:Lst-2 X=Ll/k,
12:u:Pre-2 X=Sy,
11:u:Suf-1 X=k,
12:u:Suf-2 L=nd,
13:u:Key-1 L=and,
18:u:Tmn-2 L=and/none,
16:u:Tmn-3 X=none/k,
12:u:Pre-2 R=ma,
12:u:Suf-2 X=er,
12:u:Pre-2 X=ma,
12:u:Suf-2 L=er,
12:u:tok-1 R=i.,
14:u:Fst-2 R=Lu/I,
12:u:Pre-2 R=I.,
12:u:Suf-2 X=en,
21:u:Tmn-4 R=none/single,
12:u:Tok-1 X=I.,
11:u:tok-1 X=i,
16:u:tok-1 R=kieler,
27:u:tok-1RR=meeresforschungen,
14:u:Fst-2 X=Lu/I,
14:u:Fst-2 R=Lu/K,
11:u:Pre-1 X=I,
12:u:Pre-2 R=Ki,
12:u:Suf-2 L=en,
12:u:Suf-2 X=I.,
21:u:Cap-3 L=none/single,
24:u:Tmn-4 R=strong/initial,
16:u:Tok-1 X=Kieler,
16:u:tok-1 X=kieler,
27:u:tok-1 R=meeresforschungen,
11:u:tok-1RR=3,
34:u:tok-2 R=kieler/meeresforschungen,
14:u:Fst-2 X=Lu/K,
11:u:Pre-1 X=K,
12:u:Pre-2 X=Ki,
12:u:Pre-2 R=Me,
12:u:Suf-2 L=I.,
24:u:Cap-3 L=strong/initial,
12:u:tok-1LL=i.,
16:u:tok-1 L=kieler,
13:u:Fst-2 R=N/3,
12:u:Pre-2 X=Me,
11:u:tok-1 L=3,
13:u:Lst-2 L=N/3,
11:u:Suf-2 L=3,
14:u:Fst-2 X=Lu/H,
14:u:Fst-2 R=Lu/H,
11:u:Pre-1 X=H,
12:u:Pre-2 X=Ha,
12:u:Pre-2 R=H.,
12:u:Suf-2 X=n,,
14:u:Fst-2 R=Lu/Z,
12:u:Pre-2 X=H.,
12:u:Pre-2 R=Ze,
12:u:Suf-2 L=n,,
14:u:Fst-2 X=Lu/Z,
11:u:Pre-1 X=Z,
12:u:Pre-2 X=Ze,
12:u:Pre-2 R=No,
14:u:Fst-2 R=Lu/P,
12:u:Pre-2 X=No,
14:u:Cap-1 R=caps,
22:u:Cap-2 R=initial/caps,
19:u:Tmn-4 R=weak/caps,
14:u:Fst-2 X=Lu/P,
13:u:Fst-2 R=N/2,
11:u:Pre-1 X=P,
12:u:Pre-2 R=20,
14:u:Cap-1 X=caps,
22:u:Cap-2 L=initial/caps,
20:u:Cap-2 R=caps/other,
19:u:Cap-3 L=weak/caps,
19:u:Key-2 X=none/caps,
16:u:tok-1RR=marine,
13:u:Fst-2 X=N/2,
14:u:Fst-2 R=Lu/T,
11:u:Pre-1 X=2,
12:u:Pre-2 R=Th,
14:u:Cap-1 L=caps,
20:u:Cap-2 L=caps/other,
13:u:Tok-1 X=The,
16:u:tok-1 R=marine,
20:u:tok-2 R=the/marine,
14:u:Fst-2 X=Lu/T,
11:u:Pre-1 X=T,
12:u:Pre-2 X=Th,
16:u:Tok-1 X=marine,
16:u:tok-1 X=marine,
20:u:tok-2 L=the/marine,
12:u:Pre-2 R=de,
12:u:Suf-2 X=ne,
16:u:tok-1 L=marine,
19:u:tok-1 R=crustacea,
14:u:Fst-2 R=Lu/C,
12:u:Pre-2 X=de,
12:u:Pre-2 R=Cr,
12:u:Suf-2 L=ne,
19:u:Tok-1 X=Crustacea,
19:u:tok-1 X=crustacea,
16:u:tok-1LL=marine,
14:u:Fst-2 X=Lu/C,
11:u:Pre-1 X=C,
12:u:Pre-2 X=Cr,
12:u:Suf-2 X=ea,
16:u:tok-2 R=of/the,
12:u:Suf-2 L=ea,
16:u:tok-2 L=of/the,
12:u:Pre-2 R=ar,
12:u:Pre-2 X=ar,
14:u:tok-1 L=area,
14:u:Fst-2 R=Lu/L,
12:u:Pre-2 R=La,
14:u:Fst-2 X=Lu/L,
11:u:Pre-1 X=L,
12:u:Pre-2 X=La,
12:u:Suf-2 X=a,,
12:u:Suf-2 L=a,,
12:u:Suf-2 X=ia,
13:u:Fst-2 R=N/8,
12:u:Suf-2 L=ia,
12:u:Suf-2 X=na,
13:u:Fst-2 R=N/5,
12:u:Suf-2 L=na,
13:u:Fst-2 X=N/5,
11:u:Pre-1 X=5,
13:u:Lst-2 L=N/5,
11:u:tok-1 X=p,
13:u:Lst-2 X=N/2,
11:u:Suf-1 X=2,
16:u:Tmn-3 X=none/2,
12:u:tok-1LL=p.,
14:u:Fst-2 R=Ll/p,
13:u:Lst-2 L=N/2,
12:u:Suf-2 X=ue,
14:u:Fst-2 X=Ll/p,
11:u:Pre-1 X=p,
12:u:Suf-2 L=ue,
12:u:Suf-2 X=te,
12:u:Pre-2 X=Tu,
12:u:Pre-2 R=Ma,
12:u:Suf-2 L=te,
13:u:tok-1RR=der,
12:u:Pre-2 X=Ma,
12:u:Suf-2 X=da,
21:u:tok-1LL=turbellaria,
13:u:tok-1 R=der,
12:u:Suf-2 X=us,
13:u:Tok-1 X=der,
13:u:tok-1 X=der,
12:u:Pre-2 R=Ve,
12:u:Suf-2 L=us,
13:u:tok-1LL=aus,
13:u:tok-1 L=der,
13:u:tok-1 R=von,
14:u:Fst-2 R=Ll/v,
12:u:Pre-2 R=vo,
13:u:tok-1LL=der,
14:u:Fst-2 X=Ll/v,
11:u:Pre-1 X=v,
12:u:Pre-2 X=vo,
12:u:Pre-2 R=Pa,
13:u:tok-1 L=von,
22:u:tok-1 R=zoologischer,
18:u:tok-1RR=anzeiger,
12:u:Pre-2 X=Pa,
12:u:Pre-2 R=Zo,
12:u:Suf-2 X=um,
13:u:tok-1LL=von,
12:u:Pre-2 X=Zo,
12:u:Pre-2 R=An,
12:u:Suf-2 L=um,
12:u:Pre-2 X=An,
16:u:Num-1 R=triple,
13:u:Fst-2 R=N/9,
13:u:Lst-2 X=N/9,
11:u:Suf-1 X=9,
16:*:Num-1 X=triple,
21:u:Num-2 R=triple/none,
16:u:Tmn-3 X=none/9,
13:u:Fst-2 X=N/9,
13:u:Lst-2 L=N/9,
13:u:Lst-2 X=N/7,
11:u:Pre-1 X=9,
11:u:Suf-1 X=7,
12:u:Suf-2 L=49,
16:*:Num-1 L=triple,
16:u:Tmn-3 X=none/7,
12:u:tok-1 R=s.,
12:u:Pre-2 R=S.,
12:u:Suf-2 X=s,,
14:u:Key-1 R=page,
12:u:Tok-1 X=S.,
11:u:tok-1 X=s,
12:u:Pre-2 X=S.,
12:u:Suf-2 L=s,,
12:u:Suf-2 X=S.,
14:u:Key-1 X=page,
21:u:Key-2 X=page/single,
21:u:Key-3 x=page/strong,
14:u:tok-1 X=1976,
12:u:tok-1 L=s.,
12:u:Pre-2 R=Co,
12:u:Suf-2 L=S.,
14:u:Key-1 L=page,
12:u:tok-1LL=s.,
13:u:Lst-2 L=N/6,
12:u:Pre-2 X=Co,
12:u:Suf-2 X=ns,
22:u:tok-1RR=distribution,
12:u:Suf-2 L=ns,
22:u:tok-1 R=distribution,
22:u:tok-1 X=distribution,
12:u:tok-1RR=in,
14:u:Lst-2 X=Ll/c,
12:u:Pre-2 X=pe,
11:u:Suf-1 X=c,
12:u:Suf-2 X=ic,
16:u:Tmn-3 X=none/c,
12:u:tok-1 R=in,
14:u:Fst-2 R=Ll/i,
14:u:Lst-2 L=Ll/c,
12:u:Pre-2 R=in,
12:u:Suf-2 L=ic,
12:u:Suf-2 X=ds,
12:u:Key-1 R=in,
17:u:Tmn-2 R=none/in,
12:u:Tok-1 X=in,
12:u:tok-1 X=in,
16:u:tok-2 R=in/the,
14:u:Fst-2 X=Ll/i,
11:u:Pre-1 X=i,
12:u:Pre-2 X=in,
12:u:Suf-2 L=ds,
12:u:Suf-2 X=in,
12:u:Key-1 X=in,
18:u:Key-2 X=in/lower,
17:u:Key-3 L=none/in,
17:u:Key-3 x=in/none,
12:u:tok-1 L=in,
23:u:tok-1RR=mediterranean,
16:u:tok-2 L=in/the,
12:u:Suf-2 L=in,
12:u:Key-1 L=in,
17:u:Tmn-2 L=in/none,
12:u:tok-1LL=in,
12:u:Suf-2 X=rn,
23:u:Tok-1 X=Mediterranean,
23:u:tok-1 X=mediterranean,
12:u:Suf-2 L=rn,
23:u:tok-1 L=mediterranean,
23:u:tok-1LL=mediterranean,
13:u:tok-1 L=off,
12:u:Suf-2 L=ff,
15:u:Tok-1 X=coast,
15:u:tok-1 L=coast,
15:u:tok-1LL=coast,
12:u:Pre-2 X=Le,
12:u:Pre-2 R=Ac,
12:u:Suf-2 X=n.,
14:u:Tok-1 X=Acta,
14:u:tok-1 X=acta,
12:u:Pre-2 X=Ac,
12:u:Suf-2 L=n.,
12:u:Suf-2 X=ta,
12:u:Suf-2 L=ta,
12:u:Pre-2 X=18,
14:u:Fst-2 R=Lu/G,
14:u:Fst-2 X=Lu/G,
11:u:Pre-1 X=G,
12:u:Pre-2 X=Ho,
12:u:Pre-2 X=Gr,
12:u:tok-1RR=j.,
12:u:Pre-2 R=Pe,
12:u:tok-1 R=j.,
14:u:Fst-2 R=Lu/J,
12:u:Pre-2 X=Pe,
12:u:Pre-2 R=J.,
12:u:Tok-1 X=J.,
11:u:tok-1 X=j,
14:u:Fst-2 X=Lu/J,
11:u:Pre-1 X=J,
12:u:Pre-2 X=J.,
12:u:Suf-2 X=J.,
12:u:Pre-2 R=Pr,
12:u:Suf-2 X=01,
12:u:tok-1LL=j.,
14:u:Fst-2 R=Ll/s,
12:u:Pre-2 X=Pr,
12:u:Pre-2 R=se,
14:u:Fst-2 X=Ll/s,
11:u:Pre-1 X=s,
12:u:Pre-2 X=se,
11:u:Fst-1 R=S,
13:u:Fst-2 R=S/<,
14:u:Lst-2 X=Ll/i,
12:u:Pre-2 R=<i,
11:u:Suf-1 X=i,
21:u:Cap-2 R=lower/other,
23:u:Brk-1 R=opening-angle,
16:u:Tmn-3 X=none/i,
11:*:Fst-1 X=S,
13:u:Fst-2 X=S/<,
14:u:Lst-2 L=Ll/i,
11:u:Pre-1 X=<,
12:u:Pre-2 X=<i,
12:u:Suf-2 X=oa,
21:u:Cap-2 L=lower/other,
21:u:Cap-2 R=other/lower,
28:u:Num-2 R=none/opening-angle,
23:u:Brk-1 X=opening-angle,
23:u:Brk-1 R=closing-angle,
11:u:Lst-1 X=S,
13:u:Lst-2 X=S/>,
11:u:Suf-1 X=>,
12:u:Suf-2 X=i>,
21:u:Cap-2 L=other/lower,
28:u:Num-2 R=none/closing-angle,
23:u:Brk-1 L=opening-angle,
23:u:Brk-1 X=closing-angle,
16:u:Tmn-3 X=none/>,
12:u:tok-1 X=de,
14:u:Fst-2 R=Lu/F,
11:*:Lst-1 L=S,
13:u:Lst-2 L=S/>,
12:u:Pre-2 R=Fo,
12:u:Suf-2 L=i>,
12:u:Suf-2 X=de,
23:u:Brk-1 L=closing-angle,
14:u:Fst-2 X=Lu/F,
11:u:Pre-1 X=F,
12:u:Pre-2 X=Fo,
12:u:Suf-2 L=de,
20:u:Tmn-4 R=weak/other,
20:u:Cap-3 L=weak/other,
28:u:Num-2 R=year/closing-paren,
21:u:Num-2 R=year/strong,
22:u:Tok-1 X=Mediterraneo,
22:u:tok-1 X=mediterraneo,
13:u:tok-1LL=per,
12:u:tok-1 L=il,
20:u:tok-1 R=bollettino,
22:u:tok-1RR=malacologico,
25:u:tok-2 L=il/mediterraneo,
14:u:Lst-2 X=Ll/o,
12:u:Pre-2 R=Bo,
11:u:Suf-1 X=o,
12:u:Suf-2 X=eo,
16:u:Tmn-3 X=none/o,
20:u:Tok-1 X=Bollettino,
20:u:tok-1 X=bollettino,
22:u:tok-1 R=malacologico,
33:u:tok-2 R=bollettino/malacologico,
14:u:Lst-2 L=Ll/o,
12:u:Pre-2 X=Bo,
12:u:Suf-2 X=no,
12:u:Pre-2 R=1-,
12:u:Suf-2 L=co,
13:u:Lst-2 L=N/7,
12:u:Pre-2 R=23,
12:u:Suf-2 X=-4,
15:*:Num-1 L=range,
16:u:Pct-1 L=hyphen,
23:u:Cap-2 R=single/single,
23:u:Tmn-4 R=strong/single,
23:u:Cap-3 L=strong/single,
12:u:Pre-2 R=Sc,
12:u:tok-1 R=r.,
14:u:Fst-2 R=Lu/R,
12:u:Pre-2 R=R.,
14:u:Fst-2 X=Lu/R,
11:u:Pre-1 X=R,
14:u:Fst-2 R=Ll/l,
12:u:Suf-2 X=is,
14:u:Fst-2 X=Ll/l,
11:u:Pre-1 X=l,
12:u:Pre-2 R=sp,
12:u:Suf-2 L=is,
12:u:tok-1RR=an,
14:u:Fst-2 R=Ll/n,
12:u:Pre-2 X=sp,
12:u:Pre-2 R=no,
14:u:Key-1 R=date,
13:u:tok-1 X=nov,
14:u:Fst-2 X=Ll/n,
11:u:Pre-1 X=n,
12:u:Pre-2 X=no,
12:u:Pre-2 R=an,
12:u:Suf-2 L=p.,
12:u:Suf-2 X=.,,
14:u:Key-1 X=date,
20:u:Key-2 X=date/lower,
12:u:Pre-2 X=an,
12:u:Suf-2 L=.,,
14:u:Key-1 L=date,
19:u:Tmn-2 L=date/none,
16:u:Brk-1 R=parens,
21:u:Num-2 R=none/parens,
16:u:Brk-1 X=parens,
12:u:Pre-2 R=ec,
16:u:Brk-1 L=parens,
12:u:Pre-2 X=ec,
12:u:Pre-2 R=Ke,
17:u:tok-1RR=belgian,
12:u:Pre-2 X=Ke,
17:u:tok-1 R=belgian,
17:u:tok-1RR=journal,
12:u:Suf-2 X=t.,
16:u:tok-1 L=coast.,
17:u:tok-1 R=journal,
12:u:Pre-2 R=Jo,
12:u:Suf-2 L=t.,
17:u:Key-1 R=journal,
22:u:Tmn-2 R=none/journal,
17:u:Tok-1 X=Journal,
17:u:tok-1 X=journal,
16:u:tok-1LL=coast.,
17:u:tok-1 L=belgian,
20:u:tok-2 R=journal/of,
12:u:Pre-2 X=Jo,
17:u:Key-1 X=journal,
25:u:Key-2 X=journal/initial,
22:u:Key-3 L=none/journal,
22:u:Key-3 x=journal/none,
17:u:tok-1LL=belgian,
17:u:tok-1 L=journal,
17:u:tok-1 R=zoology,
20:u:tok-2 L=journal/of,
17:u:Key-1 L=journal,
22:u:Tmn-2 L=journal/none,
11:u:tok-1RR=2,
11:u:tok-1 R=2,
11:u:Pre-2 R=2,
11:u:Tok-1 X=2,
11:u:tok-1 X=2,
11:u:Pre-2 X=2,
12:u:Pre-2 R=10,
11:u:Suf-2 X=2,
12:u:Suf-2 X=14,
12:u:Pre-2 X=Al,
12:u:Lst-1 X=Lu,
12:*:Lst-1 L=Lu,
12:u:Pre-2 R=Fa,
12:u:Pre-2 X=Fa,
12:u:Suf-2 X=ch,
12:u:Pre-2 R=St,
12:u:Suf-2 L=ch,
12:u:Pre-2 R=sa,
12:u:Pre-2 X=sa,
12:u:Pre-2 X=Ge,
12:u:Pre-2 R=Mi,
21:u:tok-1RR=zeitschrift,
14:u:Fst-2 R=Lu/W,
12:u:Suf-2 X=s.,
21:u:tok-1 R=zeitschrift,
14:u:Fst-2 X=Lu/W,
11:u:Pre-1 X=W,
12:u:Pre-2 X=Wi,
12:u:Suf-2 L=s.,
11:u:tok-1RR=6,
12:u:Pre-2 R=Ha,
14:u:Lst-2 X=Ll/g,
11:u:Suf-1 X=g,
16:u:Tmn-3 X=none/g,
14:u:Lst-2 L=Ll/g,
13:u:tok-1RR=van,
12:u:Pre-2 R=wa,
13:u:tok-1 R=van,
12:u:tok-1RR=de,
12:u:Pre-2 X=wa,
12:u:Pre-2 R=va,
13:u:Tok-1 X=van,
13:u:tok-1 X=van,
12:u:tok-1 R=de,
12:u:Pre-2 X=va,
12:u:Tok-1 X=de,
13:u:tok-1 L=van,
16:u:tok-2 L=van/de,
13:u:tok-1LL=van,
12:u:tok-1 L=de,
12:u:tok-1LL=de,
12:u:Suf-2 X=la,
12:u:Pre-2 R=He,
12:u:Suf-2 L=la,
12:u:Suf-2 X=va,
12:u:Pre-2 X=He,
12:u:Pre-2 R=la,
12:u:Pre-2 X=la,
12:u:Suf-2 X=gs,
12:u:Suf-2 L=gs,
14:u:Fst-2 R=Lu/O,
19:u:tok-1RR=strandvlo,
14:u:Fst-2 X=Lu/O,
11:u:Pre-1 X=O,
12:u:Tok-1 X=De,
19:u:tok-1 R=strandvlo,
22:u:tok-2 R=de/strandvlo,
12:u:Suf-2 X=De,
11:u:tok-1 R=7,
11:u:Pre-2 R=7,
11:u:Tok-1 X=7,
11:u:tok-1 X=7,
11:u:Pre-2 X=7,
11:u:Suf-2 X=7,
11:u:tok-1RR=&,
11:u:Fst-1 R=P,
12:u:Pre-2 X=K.,
12:u:Suf-2 X=A.,
11:u:Tok-1 X=&,
15:u:tok-1 X=BLANK,
11:*:Fst-1 X=P,
13:u:Fst-2 X=P/&,
13:u:Lst-2 X=P/&,
11:u:Pre-1 X=&,
11:u:Pre-2 X=&,
11:u:Suf-1 X=&,
11:u:Suf-2 X=&,
19:u:Key-2 X=and/other,
13:u:Pct-1 X=amp,
16:u:Tmn-3 X=none/&,
11:u:tok-1 L=&,
13:u:Lst-2 L=P/&,
11:u:Suf-2 L=&,
13:u:Pct-1 L=amp,
11:u:tok-1LL=&,
12:u:Pre-2 X=Cl,
16:u:Key-1 R=volume,
21:u:Tmn-2 R=none/volume,
14:u:Fst-2 R=Ll/g,
16:u:Key-1 X=volume,
22:u:Key-2 X=volume/lower,
21:u:Key-3 L=none/volume,
23:u:Key-3 x=volume/strong,
14:u:Fst-2 X=Ll/g,
11:u:Pre-1 X=g,
16:u:Key-1 L=volume,
14:u:Fst-2 R=Ll/h,
14:u:Fst-2 X=Ll/h,
11:u:Pre-1 X=h,
12:u:Pre-2 R=So,
12:u:Pre-2 X=So,
12:u:Pre-2 R=Bi,
12:u:Pre-2 X=Bi,
13:u:tok-1RR=sea,
13:u:tok-1 R=sea,
12:u:Pre-2 R=Se,
13:u:Tok-1 X=Sea,
13:u:tok-1 X=sea,
15:u:tok-1 L=north,
12:u:Pre-2 X=Se,
15:u:tok-1LL=north,
13:u:tok-1 L=sea,
12:u:tok-1RR=43,
13:u:tok-1LL=sea,
17:u:Num-1 R=numeric,
12:u:Pre-2 R=fi,
17:*:Num-1 X=numeric,
22:u:Num-2 R=numeric/none,
22:u:Num-2 R=numeric/weak,
12:u:Pre-2 X=fi,
17:*:Num-1 L=numeric,
24:u:Num-2 R=numeric/strong,
12:u:Pre-2 X=Fr,
12:u:Pre-2 R=su,
12:u:Pre-2 X=su,
12:u:Pre-2 R=Re,
12:u:Pre-2 X=Re,
12:u:Pre-2 R=Ba,
12:u:Pre-2 X=Ba,
12:u:tok-1 L=t.,
12:u:Pre-2 R=Ph,
12:u:Suf-2 L=T.,
12:u:Pre-2 X=Ph,
12:u:Suf-2 X=hy,
12:u:Suf-2 L=hy,
16:u:tok-1RR=marina,
16:u:tok-1 R=marina,
17:u:tok-1RR=species,
17:u:tok-1 R=species,
17:u:Tok-1 X=species,
17:u:tok-1 X=species,
17:u:tok-1 L=species,
13:u:tok-1RR=for,
24:u:Tmn-4 R=moderate/lower,
17:u:tok-1LL=species,
13:u:tok-1 R=for,
12:u:Pre-2 R=fo,
12:u:Suf-2 X=ce,
24:u:Cap-3 L=moderate/lower,
13:u:Tok-1 X=for,
13:u:tok-1 X=for,
12:u:Pre-2 X=fo,
12:u:Suf-2 X=or,
13:u:tok-1 L=for,
13:u:tok-1RR=and,
12:u:Suf-2 L=or,
13:u:tok-1LL=for,
13:u:tok-1 R=and,
13:u:Tok-1 X=and,
13:u:tok-1 X=and,
13:u:tok-1 L=and,
14:u:Fst-2 R=Ll/r,
13:u:tok-1LL=and,
14:u:Fst-2 X=Ll/r,
11:u:Pre-1 X=r,
12:u:Pre-2 R=re,
12:u:Pre-2 X=re,
12:u:Pre-2 R=ge,
12:u:Suf-2 X=ed,
12:u:Pre-2 X=ge,
12:u:Suf-2 L=ed,
14:u:Lst-2 X=Ll/w,
11:u:Suf-1 X=w,
16:u:Tmn-3 X=none/w,
14:u:Lst-2 L=Ll/w,
12:u:Suf-2 L=ow,
18:u:tok-1RR=atlantic,
18:u:tok-1 R=atlantic,
12:u:Pre-2 R=At,
18:u:Tok-1 X=Atlantic,
18:u:tok-1 X=atlantic,
19:u:tok-1 R=molecular,
17:u:tok-1RR=ecology,
12:u:Pre-2 X=At,
19:u:Tok-1 X=Molecular,
19:u:tok-1 X=molecular,
18:u:tok-1 L=atlantic,
17:u:tok-1 R=ecology,
12:u:tok-1RR=17,
12:u:Pre-2 R=Ec,
17:u:tok-1 X=ecology,
18:u:tok-1LL=atlantic,
12:u:tok-1RR=14,
12:u:Pre-2 X=Ec,
14:u:Pos-2 R=9/10,
12:u:Pos-1 X=10,
17:u:Pos-2 R=10/last,
12:u:Suf-2 L=14,
12:u:Pre-2 R=Oc,
12:u:tok-1LL=g.,
12:u:Pre-2 X=Oc,
18:u:tok-1 X=mollusca,
12:u:Pre-2 R=Ta,
12:u:Pre-2 X=Ta,
12:u:Suf-2 X=to,
12:u:Pre-2 R=(e,
12:u:Suf-2 L=to,
12:u:Suf-2 X=as,
14:u:tok-1 L=seas,
12:u:Pre-2 X=(e,
12:u:Suf-2 L=as,
24:u:Tmn-2 R=strong/journal,
24:u:Key-3 L=strong/journal,
20:u:tok-1RR=biological,
16:u:Tok-1 X=Marine,
20:u:tok-1 R=biological,
21:u:tok-1RR=association,
21:u:tok-1 R=association,
12:u:Pre-2 R=As,
21:u:Tok-1 X=Association,
21:u:tok-1 X=association,
12:u:Pre-2 X=As,
21:u:tok-1 L=association,
21:u:tok-1LL=association,
20:u:Cap-2 R=lower/caps,
19:u:Tmn-4 R=none/caps,
14:u:Fst-2 X=Lu/U,
11:u:Pre-1 X=U,
20:u:Cap-2 L=lower/caps,
19:u:Cap-3 L=none/caps,
22:u:Cap-2 R=caps/initial,
12:u:Pre-2 R=L.,
12:u:Suf-2 X=m,,
22:u:Cap-2 L=caps/initial,
11:u:tok-1 X=l,
12:u:Pre-2 X=L.,
12:u:Suf-2 L=m,,
12:u:tok-1RR=l.,
12:u:tok-1 R=l.,
12:u:Pre-2 X=Lo,
12:u:Tok-1 X=L.,
12:u:Suf-2 X=L.,
12:u:tok-1 L=l.,
12:u:Pre-2 R=21,
12:u:Pre-2 X=21,
12:u:Suf-2 X=h,,
12:u:Pre-2 R=Da,
12:u:Suf-2 L=h,,
18:u:tok-1RR=mollusca,
18:u:tok-1 R=mollusca,
16:u:tok-1RR=israel,
16:u:tok-1 R=israel,
12:u:Pre-2 R=Is,
16:u:Tok-1 X=Israel,
16:u:tok-1 X=israel,
18:u:tok-1LL=mollusca,
19:u:tok-2 L=of/israel,
12:u:Pre-2 X=Is,
12:u:Suf-2 X=el,
16:u:tok-1 L=israel,
12:u:Suf-2 L=el,
12:u:Suf-2 L=i.,
24:u:tok-2 R=israel/journal,
11:u:tok-1 X=k,
12:u:Tok-1 X=K.,
12:u:Suf-2 X=K.,
12:u:Pre-2 R=Fi,
12:u:Pre-2 X=Fi,
12:u:Suf-2 X=sh,
14:u:Fst-2 R=Ll/b,
14:u:Fst-2 X=Ll/b,
11:u:Pre-1 X=b,
12:u:Suf-2 X=ng,
12:u:Suf-2 L=ng,
14:u:Lst-2 X=Ll/u,
11:u:Suf-1 X=u,
16:u:Tmn-3 X=none/u,
21:u:tok-2 L=the/belgian,
12:u:Suf-2 X=rt,
14:u:tok-1 L=part,
12:u:Suf-2 L=rt,
15:u:Tok-1 X=Belg.,
14:u:tok-1 X=belg,
15:u:tok-1RR=zool.,
18:u:tok-2 R=belg./j.,
12:u:Suf-2 X=l.,
12:u:Suf-2 L=l.,
12:u:Suf-2 L=42,
13:u:tok-1RR=sur,
12:u:tok-1RR=la,
12:u:Tok-1 X=la,
12:u:tok-1 X=la,
13:u:tok-1RR=des,
12:u:Pre-2 R=fa,
12:u:tok-1 L=la,
13:u:tok-1 R=des,
12:u:Pre-2 X=fa,
13:u:Tok-1 X=des,
13:u:tok-1 X=des,
12:u:tok-1LL=la,
13:u:tok-1 L=des,
13:u:tok-1LL=des,
12:u:Pre-2 R=Tr,
14:u:Lst-2 X=Ll/x,
12:u:Pre-2 X=Tr,
11:u:Suf-1 X=x,
12:u:Suf-2 X=ux,
16:u:Tmn-3 X=none/x,
15:u:tok-2 R=de/la,
14:u:Lst-2 L=Ll/x,
12:u:Suf-2 L=ux,
15:u:tok-2 L=de/la,
12:u:tok-1RR=13,
12:u:Suf-2 X=ry,
12:u:Suf-2 L=ry,
12:u:Pre-2 X=We,
12:u:Suf-2 X=ls,
12:u:Pre-2 R=(C,
12:u:Suf-2 L=ls,
12:u:Suf-2 L=):,
12:u:Pre-2 R=be,
12:u:Pre-2 X=be,
12:u:Suf-2 X=ra,
16:u:tok-1 L=genera,
12:u:Suf-2 L=ra,
16:u:tok-1LL=genera,
12:u:Suf-2 X=).,
12:u:Suf-2 L=).,
12:u:Pre-2 R=Na,
12:u:tok-1RR=24,
12:u:Pre-2 X=Na,
12:u:Pre-2 X=Hi,
12:u:tok-1 X=24,
12:u:Pre-2 R=15,
11:u:tok-1 X=c,
12:u:Pre-2 X=C.,
22:u:Cap-2 R=single/lower,
22:u:Cap-2 L=single/lower,
14:u:Lst-2 X=Lu/A,
12:u:Pre-2 R=ne,
11:u:Suf-1 X=A,
16:u:Tmn-3 X=none/A,
13:u:tok-1 X=new,
14:u:Lst-2 L=Lu/A,
12:u:Pre-2 X=ne,
11:u:Suf-2 L=A,
12:u:Suf-2 X=ew,
13:u:tok-1 L=new,
12:u:Suf-2 L=ew,
13:u:tok-1LL=new,
15:u:tok-1 L=genus,
15:u:tok-1LL=genus,
20:u:Tok-1 X=Iheringia.,
19:u:tok-1 X=iheringia,
16:u:tok-1 R=série,
18:u:tok-1RR=zoologia,
27:u:tok-2 R=iheringia./série,
12:u:Pre-2 X=Ih,
13:u:Pre-2 R=Sé,
12:u:Suf-2 X=a.,
12:u:tok-1RR=52,
12:u:Suf-2 L=a.,
12:u:Pre-2 R=he,
13:u:tok-1 X=het,
12:u:Pre-2 X=he,
12:u:Suf-2 X=et,
12:u:Suf-2 L=et,
12:u:Suf-2 X=se,
12:u:Suf-2 L=se,
12:u:Suf-2 X=e.,
12:u:Suf-2 L=e.,
18:u:tok-1 R=spirula-,
29:u:tok-1RR=correspondentieblad,
12:u:Pre-2 R=SP,
21:u:Tmn-4 R=strong/caps,
12:u:Lst-1 X=Pd,
14:u:Lst-2 X=Pd/-,
11:u:Suf-1 X=-,
12:u:Suf-2 L=>.,
21:u:Cap-3 L=strong/caps,
16:u:Tmn-3 X=weak/-,
12:*:Lst-1 L=Pd,
14:u:Lst-2 L=Pd/-,
12:u:Pre-2 R=Ar,
12:u:Pre-2 X=Ar,
12:u:Pre-2 R=N.,
12:u:Pre-2 X=N.,
12:u:Suf-2 X=r,,
12:u:Suf-2 L=r,,
12:u:Pre-2 X=Gl,
14:u:Lst-2 X=Lu/E,
11:u:Suf-1 X=E,
16:u:Tmn-3 X=none/E,
17:u:Tok-1 X=Pacific,
17:u:tok-1 X=pacific,
14:u:Lst-2 L=Lu/E,
15:u:Tok-1 X=Ocean,
15:u:tok-1 X=ocean,
17:u:tok-1 L=pacific,
17:u:tok-1LL=pacific,
12:u:Pre-2 R=to,
12:u:Pre-2 X=to,
12:u:tok-1 L=to,
12:u:tok-1LL=to,
12:u:Pre-2 X=Ku,
13:u:tok-1 X=den,
13:u:tok-1 L=den,
12:u:Tok-1 X=C.,
13:u:tok-1LL=den,
21:u:tok-1LL=preliminary,
18:u:tok-1 L=revision,
15:u:tok-1RR=group,
12:u:Pre-2 R=gr,
15:u:tok-1 X=group,
14:u:Lst-2 X=Ll/p,
12:u:Pre-2 X=gr,
12:u:Pre-2 R=(T,
11:u:Suf-1 X=p,
16:u:Tmn-3 X=none/p,
21:u:tok-1RR=proceedings,
14:u:Lst-2 L=Ll/p,
12:u:Pre-2 X=(T,
21:u:tok-1 R=proceedings,
21:u:Key-1 R=proceedings,
21:u:Tok-1 X=Proceedings,
21:u:tok-1 X=proceedings,
24:u:tok-2 R=proceedings/of,
21:u:Key-1 X=proceedings,
29:u:Key-2 X=proceedings/initial,
28:u:Key-3 L=strong/proceedings,
26:u:Key-3 x=proceedings/none,
21:u:tok-1 L=proceedings,
24:u:tok-2 L=proceedings/of,
21:u:Key-1 L=proceedings,
26:u:Tmn-2 L=proceedings/none,
21:u:tok-1LL=proceedings,
12:u:Pre-2 R=Ko,
18:u:tok-1RR=akademie,
12:u:Pre-2 X=Ko,
12:u:Suf-2 X=ke,
16:u:tok-1RR=series,
16:u:Key-1 R=series,
16:u:Key-1 X=series,
24:u:Key-2 X=series/initial,
21:u:Key-3 x=series/none,
16:u:tok-1 L=series,
16:u:Key-1 L=series,
16:u:tok-1LL=series,
18:u:tok-1RR=sciences,
18:u:tok-1 R=sciences,
18:u:Tok-1 X=Sciences,
18:u:tok-1 X=sciences,
18:u:tok-1 L=sciences,
18:u:tok-1LL=sciences,
12:u:Pre-2 R=Br,
12:u:Pre-2 X=Br,
20:u:Cap-2 R=caps/lower,
20:u:Cap-2 L=caps/lower,
12:u:Pre-2 X=Sp,
14:u:tok-1LL=2007,
12:u:Suf-2 X=rs,
12:u:Suf-2 L=rs,
17:u:tok-1 R=coastal,
16:u:tok-1 R=waters,
16:u:tok-1 X=waters,
17:u:tok-1LL=coastal,
12:u:Pre-2 X=Un,
12:u:Pre-2 R=Al,
15:u:tok-1LL=alien,
12:u:Suf-2 X=ms,
12:u:Suf-2 L=ms,
12:u:Pre-2 R=Fl,
17:u:tok-1 X=belgium,
12:u:Pre-2 X=(B,
12:u:tok-1RR=s.,
12:u:Suf-2 L=re,
12:u:tok-1LL=by,
12:u:Suf-2 X=ly,
12:u:Suf-2 L=ly,
13:u:Lst-2 X=P/?,
12:u:Pre-2 R=Ex,
11:u:Suf-1 X=?,
16:u:Tmn-3 X=weak/?,
22:u:Tok-1 X=Experimental,
22:u:tok-1 X=experimental,
15:u:tok-1LL=beach,
19:u:tok-1 L=cleaning?,
18:u:tok-1 R=findings,
32:u:tok-2 L=cleaning?/experimental,
31:u:tok-2 R=experimental/findings,
13:u:Lst-2 L=P/?,
12:u:Pre-2 X=Ex,
12:u:Suf-2 L=g?,
18:u:Tok-1 X=findings,
18:u:tok-1 X=findings,
19:u:tok-1LL=cleaning?,
22:u:tok-1 L=experimental,
23:u:tok-1RR=environmental,
31:u:tok-2 L=experimental/findings,
25:u:tok-2 R=findings/marine,
18:u:tok-1RR=research,
12:u:Pre-2 R=En,
18:u:tok-1 R=research,
18:u:Tok-1 X=Research,
18:u:tok-1 L=research,
12:u:Pre-2 R=Ka,
12:u:Pre-2 X=Ka,
12:u:Suf-2 X=my,
12:u:Suf-2 L=my,
18:u:tok-1 X=taxonomy,
21:u:tok-2 R=taxonomy/of,
18:u:tok-1 L=taxonomy,
21:u:tok-2 L=taxonomy/of,
18:u:tok-1LL=taxonomy,
12:u:Suf-2 X=me,
12:u:Suf-2 L=me,
12:u:Pre-2 R=Po,
12:u:Pre-2 X=Po,
22:u:Cap-2 R=lower/single,
22:u:Cap-2 L=lower/single,
22:u:tok-2 R=atlantic/and,
21:u:Tmn-2 L=volume/none,
22:u:tok-2 L=atlantic/and,
19:u:tok-1RR=zoologica,
19:u:tok-1 R=zoologica,
17:u:tok-1RR=scripta,
11:u:Tok-1 X=4,
11:u:tok-1 X=4,
11:u:Pre-2 X=4,
11:u:Suf-2 X=4,
11:u:tok-1 L=4,
11:u:Suf-2 L=4,
12:u:Suf-2 X=y,,
12:u:Suf-2 L=y,,
12:u:Pre-2 R=Cy,
14:u:tok-1 L=west,
12:u:Pre-2 X=Te,
14:u:tok-1RR=1991,
14:u:tok-1 R=1991,
14:u:tok-1 X=1991,
12:u:Suf-2 X=91,
15:u:tok-1 X=scott,
18:u:tok-1RR=bulletin,
12:u:Pre-2 R=Bu,
18:u:Tok-1 X=Bulletin,
18:u:tok-1 X=bulletin,
20:u:tok-1RR=l'institut,
21:u:tok-2 R=bulletin/de,
18:u:tok-1 L=bulletin,
20:u:tok-1 R=l'institut,
15:u:tok-1RR=royal,
21:u:tok-2 L=bulletin/de,
23:u:tok-2 R=de/l'institut,
20:u:Tok-1 X=l'Institut,
19:u:tok-1 X=linstitut,
18:u:tok-1LL=bulletin,
15:u:tok-1 R=royal,
23:u:tok-2 L=de/l'institut,
26:u:tok-2 R=l'institut/royal,
15:u:tok-1 X=royal,
22:u:tok-2 R=des/sciences,
12:u:Suf-2 X=6,,
12:u:Suf-2 L=6,,
12:u:Pre-2 R=Dr,
12:u:Suf-2 X=f.,
12:u:Suf-2 X=r.,
12:u:Suf-2 L=r.,
13:u:tok-1LL=dr.,
20:u:tok-1 X=expedition,
12:u:Suf-2 L='s,
12:u:Pre-2 R=Ja,
12:u:Pre-2 X=Ja,
15:u:tok-1 L=japan,
17:u:tok-2 R=and/the,
17:u:tok-2 L=and/the,
17:u:tok-1 X=islands,
17:u:tok-1LL=islands,
14:u:tok-1 L=1914,
14:u:Lst-2 X=Ll/v,
11:u:Suf-1 X=v,
12:u:Suf-2 X=iv,
16:u:Tmn-3 X=none/v,
14:u:Lst-2 L=Ll/v,
12:u:Suf-2 L=iv,
17:u:Num-1 R=ordinal,
22:u:Num-2 R=ordinal/none,
17:*:Num-1 L=ordinal,
14:u:Fst-2 R=Ll/k,
14:u:Fst-2 X=Ll/k,
11:u:Pre-1 X=k,
16:u:tok-1RR=museum,
16:u:tok-1 R=museum,
12:u:Pre-2 R=Mu,
16:u:tok-1 X=museum,
12:u:Pre-2 X=Mu,
12:u:Suf-2 X=os,
12:u:Suf-2 L=os,
17:u:tok-1RR=science,
17:u:tok-1 R=science,
12:u:Suf-2 L=),,
21:u:Tmn-2 R=none/series,
21:u:Key-3 L=none/series,
21:u:Tmn-2 L=series/none,
22:u:tok-1 R=indo-pacific,
12:u:Pre-2 R=In,
22:u:Tok-1 X=Indo-Pacific,
21:u:tok-1 X=indopacific,
12:u:Pre-2 X=In,
22:u:tok-1 L=indo-pacific,
27:u:tok-2 R=the/mediterranean,
27:u:tok-2 L=the/mediterranean,
12:u:Tok-1 X=La,
20:u:tok-1 R=conchiglia,
23:u:tok-2 R=la/conchiglia,
12:u:Suf-2 X=La,
12:u:Suf-2 X=cs,
12:u:Suf-2 L=cs,
12:u:Suf-2 X=1),
12:u:Suf-2 X=ee,
12:u:Suf-2 L=ee,
13:u:Tok-1 X=New,
17:u:Tok-1 X=Species,
12:u:Suf-2 X=e),
12:u:Pre-2 R=Hy,
12:u:Suf-2 L=e),
12:u:Suf-2 X=ts,
12:u:Suf-2 L=ts,
20:u:tok-1 R=zoological,
12:u:Suf-2 X=gh,
11:u:tok-1RR=8,
12:u:tok-1 L=27,
12:u:Suf-2 L=27,
12:u:Pre-2 R=al,
12:u:Pre-2 X=al,
14:u:Fst-2 X=Ps/[,
11:u:Pre-1 X=[,
12:u:tok-1 L=as,
32:u:Brk-1 R=closing-square-bracket,
37:u:Num-2 R=none/closing-square-bracket,
32:u:Brk-1 X=closing-square-bracket,
12:u:tok-1RR=23,
12:u:Suf-2 X=02,
12:u:Pre-2 X=On,
17:u:tok-1RR=biology,
17:u:tok-1 R=biology,
12:u:tok-1RR=60,
12:u:Suf-2 X=89,
12:u:Pre-2 R=bi,
12:u:Pre-2 X=bi,
12:u:Pre-2 R=Ch,
12:u:Pre-2 X=Ch,
12:u:Suf-2 X=ty,
12:u:Suf-2 L=ty,
12:u:Suf-2 X=s:,
12:u:Suf-2 L=s:,
15:u:Key-1 X=roman,
20:u:Key-2 X=roman/caps,
22:u:Key-3 x=roman/strong,
15:u:Key-1 L=roman,
20:u:Tmn-2 L=roman/none,
14:u:tok-1LL=iii.,
14:u:tok-1 R=cah.,
12:u:Pre-2 R=Ca,
14:u:Tok-1 X=Cah.,
13:u:tok-1 X=cah,
14:u:tok-1RR=mar.,
20:u:tok-2 R=cah./biol.,
12:u:Pre-2 X=Ca,
12:u:Suf-2 X=h.,
15:u:Tok-1 X=Biol.,
14:u:tok-1 X=biol,
14:u:tok-1 R=mar.,
12:u:Suf-2 L=h.,
13:u:tok-1RR=les,
13:u:tok-1 L=les,
12:u:Pre-2 X=Su,
15:u:Lst-2 X=Ll/é,
12:u:Suf-1 X=é,
13:u:Suf-2 X=té,
17:u:Tmn-3 X=none/é,
15:u:tok-1 R=bull.,
15:u:Tok-1 X=Bull.,
14:u:tok-1 X=bull,
12:u:Pre-2 X=sc,
19:u:tok-1RR=estuarine,
12:u:Pre-2 R=Li,
19:u:tok-1 R=estuarine,
12:u:Pre-2 R=es,
19:u:tok-1 X=estuarine,
12:u:Pre-2 X=es,
19:u:tok-1 L=estuarine,
19:u:tok-1LL=estuarine,
18:u:tok-2 R=to/their,
15:u:tok-1 X=their,
18:u:tok-2 L=to/their,
12:u:Suf-2 X=ir,
15:u:tok-1 L=their,
12:u:Suf-2 L=ir,
15:u:tok-1LL=their,
12:u:Pre-2 R=ca,
12:u:Pre-2 X=ca,
12:u:Suf-2 X=dy,
12:u:Suf-2 L=dy,
17:u:tok-1 X=estuary,
12:u:Pre-2 X=Es,
12:u:Pre-2 R=Sa,
12:u:Suf-2 X=em,
12:u:Pre-2 X=Sa,
12:u:Suf-2 L=em,
12:u:Pre-2 R=ov,
12:u:Pre-2 X=ov,
16:u:tok-1RR=report,
16:u:tok-1 R=report,
16:u:Key-1 R=report,
21:u:Tmn-2 R=none/report,
16:u:Tok-1 X=Report,
16:u:tok-1 X=report,
16:u:Key-1 X=report,
24:u:Key-2 X=report/initial,
21:u:Key-3 L=none/report,
21:u:Key-3 x=report/none,
16:u:tok-1 L=report,
16:u:Key-1 L=report,
21:u:Tmn-2 L=report/none,
12:u:Suf-2 X=ve,
12:u:Suf-2 L=ve,
14:u:Lst-2 X=Pe/],
11:u:Suf-1 X=],
18:u:Tmn-3 X=strong/],
14:u:Lst-2 L=Pe/],
12:u:Pre-2 X=Ti,
19:u:tok-1RR=diversity,
19:u:tok-1 R=diversity,
19:u:Tok-1 X=Diversity,
19:u:tok-1 X=diversity,
12:u:Pre-2 X=Di,
12:u:Suf-2 X=ay,
12:u:Suf-2 L=ay,
12:u:tok-1RR=42,
12:u:tok-1 L=42,
12:u:Pre-2 R=Ri,
13:u:tok-1RR=tot,
12:u:Suf-2 X=ot,
12:u:Suf-2 L=ot,
12:u:Pre-2 R=Ti,
12:u:Pre-2 R=si,
12:u:Pre-2 X=si,
12:u:tok-1RR=et,
12:u:tok-1 L=et,
12:u:tok-1LL=et,
17:u:tok-1 L=beaches,
16:u:tok-1 X=africa,
18:u:tok-1RR=european,
18:u:tok-1 R=european,
12:u:Suf-2 L=ey,
18:u:Tok-1 X=European,
18:u:tok-1 X=european,
12:u:Pre-2 X=Eu,
18:u:tok-1 L=european,
18:u:tok-1LL=european,
14:u:tok-1 R=mus.,
12:u:Suf-2 X=v.,
12:u:Suf-2 L=v.,
14:u:tok-1RR=bot.,
14:u:tok-1LL=nat.,
21:u:Num-2 R=year/parens,
17:u:tok-1 R=records,
19:u:tok-2 R=of/marine,
19:u:tok-2 L=of/marine,
12:u:Suf-2 L=ya,
22:u:tok-1RR=publications,
13:u:tok-1RR=jb.,
13:u:tok-1 R=jb.,
18:u:tok-1RR=dodonaea,
12:u:Pre-2 R=Jb,
12:u:Pre-2 R=Do,
12:u:Suf-2 X=m.,
12:u:Pre-2 X=Im,
16:u:tok-1 R=fishes,
15:u:tok-1 X=canal,
14:u:tok-1 L=suez,
14:u:Lst-2 L=Ll/z,
12:u:Suf-2 L=ez,
17:u:Tok-1 X=Fishery,
17:u:tok-1 X=fishery,
14:u:tok-1LL=suez,
15:u:tok-1 L=canal,
23:u:tok-2 L=canal/fishery,
26:u:tok-2 R=fishery/bulletin,
12:u:Pre-2 X=Pl,
17:u:tok-1 R=aquatic,
12:u:Pre-2 R=Aq,
17:u:Tok-1 X=Aquatic,
17:u:tok-1 X=aquatic,
12:u:Pre-2 X=Aq,
12:u:Pre-2 R=To,
17:u:tok-1 L=aquatic,
17:u:tok-1LL=aquatic,
12:u:Suf-2 X=le,
12:u:Suf-2 L=le,
19:u:tok-1RR=société,
19:u:tok-1 R=société,
22:u:tok-2 R=la/société,
17:u:tok-1 X=societe,
12:u:Pre-2 R=na,
12:u:Pre-2 X=na,
12:u:tok-1RR=21,
15:u:tok-1 X=plate,
15:u:tok-1 L=plate,
12:u:Suf-2 X=04,
14:u:tok-1LL=2004,
17:u:tok-1 L=related,
12:u:Suf-2 X=nt,
12:u:Suf-2 L=nt,
24:u:Tmn-4 R=moderate/other,
24:u:Cap-3 L=moderate/other,
12:u:Suf-2 X=95,
15:u:Brk-1 R=angle,
20:u:Num-2 R=none/angle,
15:u:Brk-1 X=angle,
15:u:Brk-1 L=angle,
17:u:tok-1 R=cahiers,
12:u:Pre-2 R=9-,
12:u:Pre-2 X=9-,
22:u:tok-1RR=biodiversity,
22:u:Tok-1 X=Biodiversity,
22:u:tok-1 X=biodiversity,
22:u:tok-1 L=biodiversity,
26:u:tok-2 L=the/indo-pacific,
12:u:Pre-2 X=da,
12:u:Pre-2 R=Gu,
14:u:Tok-1 X=Gulf,
14:u:tok-1 L=gulf,
17:u:tok-2 L=gulf/of,
23:u:Tmn-2 L=volume/strong,
12:u:Suf-2 X=1.,
17:u:tok-1 L=western,
17:u:tok-1LL=western,
12:u:Suf-2 X=r?,
12:u:Suf-2 L=r?,
17:u:tok-1RR=society,
18:u:tok-1RR=deep-sea,
18:u:tok-1 R=deep-sea,
17:u:tok-1 X=deepsea,
24:u:tok-2 R=marine/ecology,
16:u:tok-1 L=indian,
16:u:tok-1LL=indian,
20:u:Tok-1 X=Expedition,
19:u:tok-1RR=bijdragen,
19:u:tok-1 R=bijdragen,
12:u:Pre-2 R=91,
12:u:Pre-2 R=Ce,
12:u:Pre-2 X=Ce,
12:u:Pre-2 R=im,
12:u:Pre-2 X=im,
15:u:tok-1LL=ecol.,
17:u:tok-1RR=magazin,
14:u:tok-1RR=für,
12:u:tok-1 L=le,
12:u:tok-1LL=le,
18:u:tok-1 X=zoologie,
18:u:tok-1 L=zoologie,
16:u:tok-1 X=review,
20:u:Tok-1 X=Systematic,
20:u:tok-1 X=systematic,
22:u:tok-1 R=parasitology,
33:u:tok-2 R=systematic/parasitology,
18:u:tok-1 X=porifera,
17:u:tok-1 R=zootaxa,
12:u:Suf-2 X=SA,
15:u:tok-1LL=sandy,
22:u:tok-2 R=sea/research,
20:u:Cap-2 R=other/caps,
20:u:Cap-2 L=other/caps,
15:u:tok-1RR=shelf,
15:u:tok-1 R=shelf,
15:u:tok-1 X=shelf,
23:u:tok-1RR=hydrobiologia,
23:u:tok-1 R=hydrobiologia,
15:u:Lst-2 X=Ll/à,
12:u:Suf-1 X=à,
17:u:Tmn-3 X=none/à,
14:u:Tok-1 X=Ann.,
13:u:tok-1 X=ann,
14:u:tok-1 R=soc.,
12:u:Suf-2 X=c.,
20:u:Tmn-2 R=none/roman,
14:u:Fst-2 X=Lu/X,
11:u:Pre-1 X=X,
20:u:Key-3 L=none/roman,
20:u:Key-3 x=roman/none,
29:u:tok-2 R=marine/biodiversity,
16:u:Tok-1 X=family,
22:u:tok-1RR=abhandlungen,
22:u:tok-1 R=abhandlungen,
12:u:Pre-2 R=Ab,
22:u:Tok-1 X=Abhandlungen,
22:u:tok-1 X=abhandlungen,
12:u:Pre-2 X=Ab,
23:u:tok-1LL=(turbellaria),
20:u:tok-1 R=mikrofauna,
20:u:Tok-1 X=Mikrofauna,
20:u:tok-1 X=mikrofauna,
22:u:tok-1 R=meeresbodens,
16:u:tok-2 R=4/_x+1,
12:u:Pre-2 X=en,
12:u:Pre-2 R=25,
12:u:Pre-2 R=ch,
12:u:Pre-2 X=ch,
14:u:Fst-2 R=Lu/Y,
14:u:Fst-2 X=Lu/Y,
11:u:Pre-1 X=Y,
12:u:tok-1RR=63,
12:u:tok-1 L=en,
11:u:tok-1 R=i,
11:u:Tok-1 X=I,
16:u:tok-1 R=annals,
14:u:Lst-2 X=Lu/I,
11:u:Pre-2 X=I,
11:u:Suf-1 X=I,
11:u:Suf-2 X=I,
16:u:Tmn-3 X=none/I,
16:u:Tok-1 X=Annals,
16:u:tok-1 X=annals,
11:u:tok-1 L=i,
14:u:Lst-2 L=Lu/I,
11:u:Suf-2 L=I,
11:u:tok-1LL=i,
16:u:tok-1 L=annals,
17:u:tok-1RR=academy,
12:u:Pre-2 R=Yo,
17:u:tok-1 R=academy,
12:u:Pre-2 X=Yo,
12:u:Suf-2 X=rk,
15:u:tok-1 L=caves,
15:u:tok-1RR=fauna,
15:u:tok-1 L=black,
15:u:tok-1 R=fauna,
19:u:tok-1RR=ekologiya,
19:u:tok-2 L=black/sea,
12:u:Suf-2 L=ck,
15:u:Tok-1 X=fauna,
15:u:tok-1 X=fauna,
15:u:tok-1LL=black,
19:u:tok-1 R=ekologiya,
15:u:tok-1RR=moria,
12:u:Pre-2 R=Ek,
15:u:tok-1 L=fauna,
12:u:Pre-2 X=Ek,
15:u:tok-1LL=fauna,
18:u:tok-1RR=tropical,
18:u:tok-1 R=tropical,
18:u:tok-1 X=tropical,
14:u:tok-1 X=1988,
12:u:Pre-2 R=38,
12:u:Pre-2 R=Wa,
12:u:Pre-2 X=Wa,
19:u:tok-1 R=algologie,
12:u:tok-1 L=10,
12:u:Pre-2 R=(E,
21:u:tok-1RR=conchyliol.,
13:u:tok-1RR=den,
13:u:tok-1 R=den,
13:u:Tok-1 X=den,
12:u:Pre-2 R=Ra,
19:u:tok-1 X=meiofauna,
20:u:Tok-1 X=Estuarine,,
28:u:tok-2 R=estuarine,/coastal,
17:u:Tok-1 X=Coastal,
20:u:tok-1 L=estuarine,,
28:u:tok-2 L=estuarine,/coastal,
21:u:tok-2 R=coastal/and,
20:u:tok-1LL=estuarine,,
21:u:tok-2 L=coastal/and,
19:u:tok-2 R=and/shelf,
15:u:Tok-1 X=Shelf,
12:u:Pre-2 R=Au,
19:u:tok-1 X=australia,
17:u:tok-1 R=zealand,
21:u:tok-2 R=new/zealand,
17:u:Tok-1 X=Zealand,
17:u:tok-1 X=zealand,
21:u:tok-2 L=new/zealand,
17:u:tok-1 L=zealand,
18:u:Tok-1 X=Taxonomy,
19:u:tok-1LL=enigmatic,
12:u:Suf-2 L=26,
13:u:tok-1 X=die,
12:u:Pre-2 R=Lu,
14:u:tok-1 X=lund,
12:u:Pre-2 X=Lu,
12:u:Pre-2 R=VI,
12:u:Pre-2 X=VI,
12:u:tok-1RR=du,
13:u:Suf-2 X=és,
12:u:tok-1 R=du,
12:u:Pre-2 R=du,
12:u:Tok-1 X=du,
12:u:tok-1 X=du,
12:u:Pre-2 X=du,
12:u:Suf-2 X=du,
12:u:tok-1 L=du,
12:u:Suf-2 L=du,
12:u:tok-1LL=du,
19:u:tok-1RR=mémoires,
19:u:tok-1 R=mémoires,
13:u:Pre-2 R=Mé,
19:u:Tok-1 X=Mémoires,
18:u:tok-1 X=memoires,
13:u:Pre-2 X=Mé,
19:u:tok-1 L=mémoires,
19:u:tok-1LL=mémoires,
11:u:tok-1 R=+,
13:u:Fst-2 R=S/+,
11:u:Pre-2 R=+,
11:u:Tok-1 X=+,
13:u:Fst-2 X=S/+,
13:u:Lst-2 X=S/+,
11:u:Pre-1 X=+,
11:u:Pre-2 X=+,
11:u:Suf-1 X=+,
11:u:Suf-2 X=+,
16:u:Tmn-3 X=none/+,
12:u:Pre-2 R=Sk,
12:u:tok-1 R=af,
12:u:Pre-2 X=Sk,
12:u:Tok-1 X=af,
12:u:tok-1 X=af,
12:u:Suf-2 X=af,
19:u:tok-1 R=fisheries,
12:u:Suf-2 L=1.,
12:*:Fst-1 X=Pd,
12:u:Pre-2 X=Sm,
20:u:tok-1RR=zoologique,
12:u:Pre-2 R=Pu,
12:u:Pre-2 X=Pu,
20:u:Tok-1 X=University,
20:u:tok-1 X=university,
20:u:tok-1RR=washington,
23:u:tok-2 R=university/of,
20:u:tok-1 L=university,
20:u:tok-1 R=washington,
23:u:tok-2 L=university/of,
23:u:tok-2 R=of/washington,
20:u:Tok-1 X=Washington,
20:u:tok-1 X=washington,
20:u:tok-1LL=university,
23:u:tok-2 L=of/washington,
19:u:tok-1 R=sequences,
19:u:tok-1 X=sequences,
15:u:tok-1RR=revue,
13:u:Tok-1 X=Die,
12:u:Suf-2 X=ld,
12:u:Suf-2 L=ld,
12:u:Suf-2 L=ov,
16:u:tok-1 L=taiwan,
18:u:tok-1RR=national,
18:u:tok-1 R=national,
17:u:tok-1 R=special,
21:u:tok-1RR=publication,
11:u:tok-1RR==,
11:u:tok-1 R==,
13:u:Fst-2 R=S/=,
11:u:Pre-2 R==,
21:u:tok-2 R=sea/journal,
12:u:tok-1RR=26,
12:u:Pre-2 R=sy,
12:u:Pre-2 X=sy,
14:u:tok-1RR=res.,
14:u:Tok-1 X=ICES,
14:u:tok-1 X=ices,
14:u:Lst-2 X=Lu/S,
12:u:Pre-2 X=IC,
11:u:Suf-1 X=S,
12:u:Suf-2 X=ES,
16:u:Tmn-3 X=none/S,
12:u:Suf-2 L=ha,
16:u:Tok-1 X=Suppl.,
15:u:tok-1 X=suppl,
24:u:Key-2 X=volume/initial,
15:u:tok-1RR=inst.,
15:u:tok-1 R=inst.,
12:u:Suf-2 X=y.,
14:u:tok-1RR=ser.,
12:u:Suf-2 X=sk,
12:u:Suf-2 L=sk,
12:u:Pre-2 X=Ev,
12:u:tok-1RR=47,
19:u:Key-3 L=none/page,
18:u:tok-1 X=invasive,
18:u:tok-1 L=invasive,
18:u:tok-1LL=invasive,
25:u:tok-2 R=zealand/journal,
21:u:Cap-2 R=caps/single,
21:u:Cap-2 L=caps/single,
12:u:Pre-2 R=Zw,
12:u:Pre-2 X=Zw,
19:u:tok-2 R=der/nord-,
19:u:tok-2 L=der/nord-,
12:u:Pre-2 X=Os,
17:u:tok-1 L=mysidae,
17:u:tok-1LL=mysidae,
19:u:tok-1 L=ribosomal,
23:u:tok-1 R=phylogenetics,
33:u:tok-2 R=molecular/phylogenetics,
14:u:Tok-1 X=Deep,
14:u:tok-1 X=deep,
18:u:tok-2 R=deep/sea,
12:u:Suf-2 X=ep,
14:u:tok-1 L=deep,
18:u:tok-2 L=deep/sea,
12:u:Suf-2 L=ep,
23:u:tok-1RR=oceanographic,
23:u:tok-1 R=oceanographic,
23:u:Tok-1 X=Oceanographic,
23:u:tok-1 X=oceanographic,
32:u:tok-2 R=oceanographic/research,
23:u:tok-1 L=oceanographic,
32:u:tok-2 L=oceanographic/research,
15:u:Pos-2 R=10/10,
15:u:Pos-2 L=10/10,
12:u:Suf-2 X=gt,
12:u:Suf-2 L=gt,
16:u:tok-1 X=island,
12:u:Suf-2 L=lt,
16:u:tok-1 X=mexico,
23:u:tok-2 R=the/estuarine,
23:u:tok-2 L=the/estuarine,
22:u:tok-1RR=oceanography,
22:u:Tok-1 X=Oceanography,
22:u:tok-1 X=oceanography,
22:u:tok-1 L=oceanography,
22:u:tok-1LL=oceanography,
19:u:Tok-1 X=Thalassia,
19:u:tok-1 X=thalassia,
16:u:Key-1 R=editor,
16:u:Key-1 X=editor,
24:u:Key-2 X=editor/initial,
23:u:Key-3 x=editor/strong,
16:u:Key-1 L=editor,
21:u:Tmn-2 L=editor/none,
16:u:tok-1 L=recent,
23:u:tok-1 X=documentation,
19:u:tok-1LL=inventory,
17:u:tok-1 R=novapex,
14:u:Tok-1 X=Int.,
13:u:tok-1 X=int,
19:u:tok-1 L=malediven,
14:u:tok-1RR=ges.,
24:u:tok-2 L=malediven/int.,
20:u:tok-2 R=int./revue,
26:u:Tmn-2 R=none/proceedings,
26:u:Key-3 L=none/proceedings,
14:u:tok-1 R=mem.,
13:u:tok-1 X=mem,
19:u:Tmn-2 R=none/date,
19:u:Key-3 L=none/date,
15:u:tok-1RR=flora,
15:u:tok-1 R=flora,
15:u:tok-1LL=flora,
17:u:tok-1 R=svenska,
28:u:tok-1RR=vetensk-akademiens,
25:u:tok-2 L=coast./kungliga,
26:u:tok-2 R=kungliga/svenska,
12:u:Pre-2 R=Sv,
17:u:Tok-1 X=Svenska,
17:u:tok-1 X=svenska,
28:u:tok-1 R=vetensk-akademiens,
21:u:tok-1RR=handlingar,,
26:u:tok-2 L=kungliga/svenska,
36:u:tok-2 R=svenska/vetensk-akademiens,
12:u:Suf-2 X=ka,
28:u:Tok-1 X=Vetensk-Akademiens,
27:u:tok-1 X=vetenskakademiens,
17:u:tok-1 L=svenska,
21:u:tok-1 R=handlingar,,
16:u:tok-1RR=fjarde,
36:u:tok-2 L=svenska/vetensk-akademiens,
40:u:tok-2 R=vetensk-akademiens/handlingar,,
12:u:Suf-2 L=ka,
21:u:Tok-1 X=Handlingar,,
17:u:tok-1LL=svenska,
28:u:tok-1 L=vetensk-akademiens,
16:u:tok-1 R=fjarde,
17:u:tok-1RR=serien.,
40:u:tok-2 L=vetensk-akademiens/handlingar,,
28:u:tok-2 R=handlingar,/fjarde,
16:u:Tok-1 X=Fjarde,
16:u:tok-1 X=fjarde,
28:u:tok-1LL=vetensk-akademiens,
21:u:tok-1 L=handlingar,,
17:u:tok-1 R=serien.,
18:u:tok-1RR=almquist,
28:u:tok-2 L=handlingar,/fjarde,
24:u:tok-2 R=fjarde/serien.,
12:u:Pre-2 X=Fj,
17:u:Tok-1 X=Serien.,
16:u:tok-1 X=serien,
21:u:tok-1LL=handlingar,,
16:u:tok-1 L=fjarde,
18:u:tok-1 R=almquist,
24:u:tok-2 L=fjarde/serien.,
26:u:tok-2 R=serien./almquist,
12:u:Pre-2 X=(1,
19:u:tok-1RR=barcelona,
14:u:tok-1RR=sea:,
14:u:tok-1 R=sea:,
12:u:Suf-2 L=go,
17:u:tok-1RR=seaweed,
17:u:tok-1 R=seaweed,
17:u:tok-1 X=seaweed,
17:u:tok-1 L=seaweed,
12:u:Suf-2 X=n:,
12:u:Suf-2 L=n:,
17:u:tok-1RR=benthos,
17:u:tok-1 R=benthos,
17:u:tok-1 L=benthos,
21:u:tok-1 X=continental,
21:u:tok-1 L=continental,
17:u:Tok-1 X=399-489,
16:u:tok-1 X=399489,
14:u:tok-1LL=rev.,
13:u:tok-1 L=23:,
13:u:tok-1 R=in:,
21:u:tok-2 L=23:/399-489,
21:u:tok-2 R=399-489/in:,
13:u:Tok-1 X=In:,
20:u:Key-2 X=in/initial,
21:u:Key-3 x=in/moderate,
13:u:tok-1 L=in:,
26:u:tok-2 R=oceanography/and,
13:u:tok-1LL=in:,
18:u:tok-1RR=biology:,
26:u:tok-2 L=oceanography/and,
20:u:tok-2 R=and/marine,
18:u:tok-1 R=biology:,
20:u:tok-2 L=and/marine,
25:u:tok-2 R=marine/biology:,
16:u:tok-1RR=europe,
16:u:tok-1 R=europe,
19:u:tok-2 R=in/europe,
16:u:tok-1 X=europe,
16:u:tok-1 L=europe,
17:u:tok-1RR=british,
17:u:Tok-1 X=British,
17:u:tok-1 X=british,
20:u:tok-1RR=résultats,
20:u:tok-1 R=résultats,
13:u:Pre-2 R=Ré,
20:u:Tok-1 X=Résultats,
19:u:tok-1 X=resultats,
19:u:tok-1RR=campagnes,
24:u:tok-2 R=résultats/des,
13:u:Pre-2 X=Ré,
20:u:tok-1 L=résultats,
19:u:tok-1 R=campagnes,
20:u:tok-1RR=musorstom:,
24:u:tok-2 L=résultats/des,
23:u:tok-2 R=des/campagnes,
19:u:Tok-1 X=Campagnes,
19:u:tok-1 X=campagnes,
20:u:tok-1LL=résultats,
20:u:tok-1 R=musorstom:,
23:u:tok-2 L=des/campagnes,
30:u:tok-2 R=campagnes/musorstom:,
19:u:tok-1 X=musorstom,
19:u:tok-1 L=campagnes,
19:u:tok-1LL=campagnes,
17:u:tok-1RR=muséum,
22:u:tok-2 R=mémoires/du,
17:u:tok-1 R=muséum,
20:u:tok-2 R=du/muséum,
19:u:tok-1RR=naturelle,
19:u:tok-1 R=naturelle,
19:u:Tok-1 X=Naturelle,
19:u:tok-1 X=naturelle,
20:u:tok-1LL=d'histoire,
13:u:tok-1RR=del,
13:u:tok-1 R=del,
13:u:tok-1 X=del,
13:u:tok-1 L=del,
13:u:tok-1LL=del,
17:u:tok-1LL=venezia,
17:u:tok-1 R=annales,
17:u:Tmn-2 L=in/weak,
22:u:Key-2 X=editor/lower,
23:u:tok-1RR=international,
23:u:tok-1 R=international,
23:u:Tok-1 X=International,
23:u:tok-1 X=international,
23:u:tok-1 L=international,
23:u:tok-1LL=international,
22:u:Tmn-2 R=weak/journal,
14:u:tok-1 R=vol.,
14:u:tok-1 L=vol.,
16:u:Tok-1 X=Scott.,
23:u:tok-1LL=laophontoidea,
19:u:tok-2 L=t./scott.,
26:u:tok-2 R=scott./bijdragen,
31:u:tok-2 R=indo-pacific/mollusca,
16:u:tok-1 R=sarsia,
15:u:Tok-1 X=Proc.,
14:u:tok-1 X=proc,
16:u:tok-1 L=diatom,
12:u:Pre-2 R=Cu,
12:u:Suf-2 X=oi,
12:u:Suf-2 L=oi,
12:u:Suf-2 X=ii,
18:u:tok-1RR=zeepaard,
12:u:Pre-2 X=Nu,
18:u:tok-1RR=animalia,
18:u:tok-1 R=animalia,
12:u:Suf-2 X=2.,
12:u:Suf-2 L=2.,
18:u:tok-1 L=bahamas.,
27:u:tok-2 L=bahamas./bulletin,
18:u:tok-1LL=bahamas.,
25:u:tok-2 L=the/netherlands,
20:u:tok-1RR=collection,
15:u:Tok-1 X=Publ.,
14:u:tok-1 X=publ,
14:u:tok-1 R=seto,
21:u:tok-2 L=japan/publ.,
20:u:tok-2 R=publ./seto,
12:u:Pre-2 X=2-,
17:u:tok-1RR=results,
17:u:tok-1 R=results,
17:u:tok-1 L=results,
17:u:tok-1LL=results,
14:u:tok-1RR=sci.,
22:u:tok-1 X=mediterranee,
25:u:tok-1 X=oceanographique,
15:u:Tok-1 X=Fauna,
15:u:tok-1LL=plate,
17:u:Tok-1 X=Israel.,
27:u:tok-2 L=continental/shelf,
21:u:Key-3 x=volume/none,
20:u:tok-1 R=scientific,
20:u:Tok-1 X=Scientific,
20:u:tok-1 X=scientific,
20:u:tok-1 L=scientific,
20:u:tok-1LL=scientific,
11:u:tok-1RR=-,
14:u:Fst-2 X=Pd/-,
11:u:Pre-1 X=-,
11:u:tok-1 L=-,
11:u:Suf-2 L=-,
16:u:Tok-1 X=(1991),
15:u:tok-1 R=31-43,
19:u:tok-2 L=42/(1991),
22:u:tok-2 R=(1991)/31-43,
22:u:Tok-1 X=Mitteilungen,
22:u:tok-1 X=mitteilungen,
22:u:tok-1 L=mitteilungen,
22:u:tok-1LL=mitteilungen,
19:u:Key-3 x=date/none,
16:u:tok-1 X=belgie,
15:u:Tok-1 X=Irish,
15:u:tok-1 X=irish,
14:u:Lst-2 X=Lu/O,
11:u:Suf-1 X=O,
16:u:Tmn-3 X=none/O,
11:u:Pre-2 R=i,
11:u:Tok-1 X=i,
11:u:Pre-2 X=i,
11:u:Suf-2 X=i,
19:u:tok-1 X=zoologisk,
19:u:tok-1 L=foretagen,
15:u:tok-1 R=reise,
29:u:tok-2 L=foretagen/zoologisk,
25:u:tok-2 R=zoologisk/reise,
15:u:Tok-1 X=Reise,
15:u:tok-1 X=reise,
19:u:tok-1LL=foretagen,
19:u:tok-1 L=zoologisk,
25:u:tok-2 L=zoologisk/reise,
13:u:tok-1RR=nyt,
13:u:tok-1 R=nyt,
12:u:Pre-2 R=Ny,
12:u:Pre-2 X=Ny,
19:u:tok-1 R=institute,
19:u:Tok-1 X=Institute,
19:u:tok-1 X=institute,
19:u:tok-1 L=institute,
14:u:tok-1LL=1907,
15:u:Tok-1 X=Trudy,
15:u:tok-1 X=trudy,
15:u:tok-1 L=trudy,
15:u:tok-1LL=trudy,
19:u:tok-1 L=marseille,
14:u:tok-1RR=som.,
22:u:tok-2 L=marseille/c.,
15:u:tok-2 R=c./r.,
17:u:tok-1RR=belgium,
17:u:tok-1 R=belgium,
18:u:Tok-1 X=Institut,
18:u:tok-1 X=institut,
17:u:tok-1 L=belgium,
24:u:tok-2 R=institut/royal,
17:u:tok-1LL=belgium,
12:u:tok-1RR=50,
18:u:Tok-1 X=Nouveaux,
19:u:tok-1 L=d'ostende,
28:u:tok-2 L=d'ostende/nouveaux,
28:u:tok-2 R=nouveaux/mémoires,
19:u:tok-1 X=lacademie,
23:u:Tok-1 X=Forhandlinger,
23:u:tok-1 X=forhandlinger,
16:u:tok-1 L=forth.,
13:u:tok-1 R=vi.,
21:u:tok-2 L=forth./part,
18:u:tok-2 R=part/vi.,
13:u:Tok-1 X=VI.,
12:u:tok-1 X=vi,
16:u:tok-1LL=forth.,
18:u:tok-2 L=part/vi.,
20:u:tok-2 R=vi./report,
23:u:Tmn-2 R=strong/report,
23:u:Key-3 L=strong/report,
13:u:Pre-2 X=Fö,
15:u:tok-1RR=porto,
15:u:tok-1 R=porto,
14:u:tok-1RR=rico,
18:u:tok-2 R=of/porto,
15:u:Tok-1 X=Porto,
15:u:tok-1 X=porto,
14:u:tok-1 R=rico,
18:u:tok-2 L=of/porto,
20:u:tok-2 R=porto/rico,
18:u:tok-1LL=bryozoan,
16:u:tok-1 R=survey,
26:u:tok-2 L=fauna/scientific,
27:u:tok-2 R=scientific/survey,
16:u:Tok-1 X=Survey,
16:u:tok-1 X=survey,
27:u:tok-2 L=scientific/survey,
19:u:tok-2 R=survey/of,
16:u:tok-1 L=survey,
19:u:tok-2 L=survey/of,
16:u:tok-1LL=survey,
24:u:Tok-1 X=Förhandlingar,
23:u:tok-1 X=forhandlingar,
17:u:tok-1RR=reports,
15:u:tok-1 L=belge,
15:u:tok-1 L=congo,
21:u:tok-1RR=obshchestva,
14:u:Lst-2 X=Lu/M,
11:u:Suf-1 X=M,
16:u:Tmn-3 X=none/M,
14:u:Lst-2 L=Lu/M,
20:u:tok-1LL=ecological,
21:u:tok-2 L=congo/belge,
21:u:tok-2 R=belge/revue,
21:u:tok-1RR=zoologische,
21:u:tok-1 R=zoologische,
21:u:Tok-1 X=Zoologische,
21:u:tok-1 X=zoologische,
20:u:tok-1 X=jahrbucher,
21:u:tok-1 L=zoologische,
18:u:Tok-1 X=Tropical,
18:u:tok-1 L=subgenus,
24:u:Tok-1 X=Internationale,
24:u:tok-1 X=internationale,
24:u:tok-1 R=identification,
24:u:tok-1 X=identification,
24:u:tok-1 L=identification,
20:u:tok-2 R=species/in,
20:u:tok-2 L=species/in,
23:u:tok-1RR=distribution,,
23:u:tok-1 R=distribution,,
23:u:Tok-1 X=Distribution,,
23:u:tok-1 L=distribution,,
23:u:tok-1LL=distribution,,
16:u:tok-1LL=plants,
16:u:Tok-1 X=Naples,
16:u:tok-1 X=naples,
14:u:tok-1LL=golf,
19:u:tok-2 L=de/naples,
28:u:tok-2 R=naples/tijdschrift,
25:u:Tok-1 X=Ostracodologist,
25:u:tok-1 X=ostracodologist,
12:u:tok-1 R=no,
34:u:tok-2 L=revision/ostracodologist,
28:u:tok-2 R=ostracodologist/no,
19:u:tok-1RR=musorstom,
29:u:tok-2 R=campagnes/musorstom,
29:u:tok-2 L=campagnes/musorstom,
19:u:tok-1 L=musorstom,
12:u:Suf-2 L=OM,
13:u:Lst-2 X=P/",
11:u:Suf-1 X=",
20:u:Tmn-3 X=moderate/",
13:u:Lst-2 L=P/",
13:u:tok-1LL=28s,
21:u:tok-1RR=philippines,
21:u:tok-1 R=philippines,
21:u:Tok-1 X=Philippines,
21:u:tok-1 X=philippines,
21:u:tok-1 L=philippines,
21:u:tok-1LL=philippines,
16:u:tok-1 L=visaya,
12:u:tok-1RR=91,
12:u:tok-1 R=91,
14:u:tok-1 X=wiss,
13:u:tok-1 X=can,
35:u:tok-2 R=indo-pacific/indo-pacific,
35:u:tok-2 L=indo-pacific/indo-pacific,
12:u:tok-1 L=49,
13:u:tok-1RR=one,
13:u:tok-1 X=ark,
14:u:tok-1LL=ecsa,
13:u:tok-1 L=21:,
25:u:tok-2 L=21:/proceedings,
30:u:Key-3 L=moderate/proceedings,
13:u:tok-1LL=21:,
14:u:tok-1RR=21th,
14:u:tok-1 R=21th,
19:u:tok-1RR=symposium,
18:u:tok-2 R=the/21th,
14:u:Tok-1 X=21th,
14:u:tok-1 X=21th,
19:u:tok-1 R=symposium,
18:u:tok-2 L=the/21th,
24:u:tok-2 R=21th/symposium,
19:u:Tok-1 X=Symposium,
19:u:tok-1 X=symposium,
14:u:tok-1 L=21th,
24:u:tok-2 L=21th/symposium,
22:u:tok-2 R=symposium/of,
14:u:tok-1LL=21th,
22:u:tok-2 L=symposium/of,
19:u:Tok-1 X=Estuarine,
23:u:tok-2 R=estuarine/and,
23:u:tok-2 L=estuarine/and,
21:u:tok-2 R=and/coastal,
21:u:tok-2 L=and/coastal,
26:u:tok-2 R=coastal/sciences,
26:u:tok-2 L=coastal/sciences,
30:u:tok-2 R=sciences/association,
14:u:tok-1 R=held,
30:u:tok-2 L=sciences/association,
26:u:tok-2 R=association/held,
14:u:Tok-1 X=held,
14:u:tok-1 X=held,
15:u:tok-1RR=gent,,
26:u:tok-2 L=association/held,
17:u:tok-2 R=held/in,
14:u:tok-1 L=held,
15:u:tok-1 R=gent,,
14:u:tok-1RR=9-14,
17:u:tok-2 L=held/in,
18:u:tok-2 R=in/gent,,
15:u:Tok-1 X=Gent,,
14:u:tok-1 X=gent,
14:u:tok-1LL=held,
14:u:tok-1 R=9-14,
18:u:tok-2 L=in/gent,,
20:u:tok-2 R=gent,/9-14,
14:u:Tok-1 X=9-14,
13:u:tok-1 X=914,
15:u:tok-1 L=gent,,
19:u:tok-1 R=september,
20:u:tok-2 L=gent,/9-14,
24:u:tok-2 R=9-14/september,
19:u:Tok-1 X=september,
19:u:tok-1 X=september,
15:u:tok-1LL=gent,,
14:u:tok-1 L=9-14,
15:u:tok-1RR=neth.,
24:u:tok-2 L=9-14/september,
24:u:tok-2 R=september/1991,
14:u:tok-1LL=9-14,
19:u:tok-1 L=september,
15:u:tok-1 R=neth.,
24:u:tok-2 L=september/1991,
20:u:tok-2 R=1991/neth.,
13:u:Tok-1 X=2-4,
16:u:tok-2 L=27/2-4,
18:u:tok-2 R=2-4/_x+1,
21:u:tok-1LL=university,,
30:u:tok-2 R=internationale/revue,
22:u:Key-2 X=date/initial,
20:u:tok-2 R=results/of,
20:u:tok-2 L=results/of,
12:u:Suf-2 X=s],
12:u:Suf-2 L=s],
13:u:Pos-2 R=4/6,
13:u:Pos-2 L=4/6,
19:u:tok-1RR=documents,
19:u:tok-1 R=documents,
19:u:Tok-1 X=Documents,
19:u:tok-1 X=documents,
16:u:tok-1RR=nature,
28:u:tok-1LL=méditerranéennes,
19:u:tok-1 L=d'israël,
13:u:Suf-2 L=ël,
12:u:Suf-2 X=pt,
12:u:Suf-2 L=pt,
22:u:tok-2 R=the/bulletin,
22:u:Tok-1 X=(1892-1893).,
18:u:tok-1 X=18921893,
22:u:tok-1 L=métazoaires,
35:u:tok-2 L=métazoaires/(1892-1893).,
30:u:tok-2 R=(1892-1893)./congres,
17:u:tok-1 R=abyssal,
17:u:tok-1 X=abyssal,
17:u:tok-1 L=abyssal,
29:u:tok-2 R=netherlands/journal,
16:u:tok-1 R=gloria,
15:u:tok-1RR=maris,
16:u:Tok-1 X=Gloria,
16:u:tok-1 X=gloria,
15:u:tok-1 R=maris,
22:u:tok-2 R=gloria/maris,
20:u:Tok-1 X=Microscopy,
20:u:tok-1 X=microscopy,
18:u:tok-1LL=scanning,
18:u:tok-1 L=electron,
29:u:tok-2 L=electron/microscopy,
25:u:tok-2 R=microscopy/mem.,
12:u:Suf-2 X=py,
14:u:tok-1RR=1895,
16:u:Tok-1 X=Island,
16:u:tok-1 L=norway,
15:u:Tok-1 X=Egypt,
12:u:Pre-2 X=Eg,
14:u:tok-1 R=plos,
12:u:Pre-2 R=PL,
12:u:Suf-2 X=NE,
12:u:Suf-2 L=NE,
14:u:tok-1RR=vema,
14:u:tok-1 R=vema,
14:u:tok-1 X=vema,
18:u:tok-1 X=protists,
12:u:Tok-1 X=NE,
12:u:tok-1 X=ne,
12:u:Pre-2 X=NE,
12:u:tok-1 L=ne,
21:u:Tok-1 X=Informatics,
21:u:tok-1 X=informatics,
34:u:tok-2 L=biodiversity/informatics,
29:u:tok-2 R=informatics/journal,
15:u:Tok-1 X=Kungl,
15:u:tok-1 X=kungl,
22:u:tok-1LL=schwedischen,
21:u:tok-1 L=westküste.,
23:u:tok-1 R=fysiografiska,
22:u:tok-1RR=sällskapets,
27:u:tok-2 L=westküste./kungl,
29:u:tok-2 R=kungl/fysiografiska,
12:u:Suf-2 X=gl,
23:u:tok-1 R=meeresunters.,
18:u:tok-1RR=dynamics,
18:u:tok-1 R=dynamics,
12:u:Pre-2 R=dy,
18:u:Tok-1 X=dynamics,
18:u:tok-1 X=dynamics,
12:u:Pre-2 X=dy,
27:u:tok-2 R=the/international,
27:u:tok-2 L=the/international,
23:u:tok-1 R=coleopterists,
27:u:tok-2 R=the/coleopterists,
12:u:Suf-2 X=m:,
12:u:Suf-2 L=m:,
19:u:tok-1 L=received.,
19:u:tok-1 R=botanical,
26:u:tok-2 L=received./report,
26:u:tok-2 R=report/botanical,
20:u:tok-2 R=in/belgian,
20:u:tok-2 L=in/belgian,
15:u:Tok-1 X=Wiss.,
19:u:tok-1 L=noordsee.,
26:u:tok-1 R=meeresuntersuch.,
15:u:tok-1RR=abth.,
25:u:tok-2 L=noordsee./wiss.,
32:u:tok-2 R=wiss./meeresuntersuch.,
18:u:tok-1 R=tierwelt,
22:u:tok-2 R=die/tierwelt,
18:u:Tok-1 X=Tierwelt,
18:u:tok-1 X=tierwelt,
22:u:tok-2 L=die/tierwelt,
22:u:tok-2 R=tierwelt/der,
18:u:tok-1 L=tierwelt,
22:u:tok-2 L=tierwelt/der,
18:u:tok-1LL=tierwelt,
21:u:tok-1 L=occidentale,
15:u:Tok-1 X=Ever?,
14:u:tok-1 X=ever,
18:u:tok-2 L=as/ever?,
23:u:tok-2 R=ever?/journal,
21:u:tok-1LL=specialised,
20:u:tok-1 L=maxilliped,
30:u:tok-2 L=maxilliped/organisms,
29:u:tok-2 R=organisms/diversity,
15:u:Tok-1 X=e1201,
15:u:tok-1 X=e1201,
15:u:tok-1LL=peerj,
17:u:tok-2 L=3/e1201,
20:u:tok-2 R=e1201/_x+1,
12:u:Pre-2 X=e1,
17:u:tok-1RR=ostsee.,
17:u:tok-1 R=ostsee.,
17:u:Tok-1 X=Ostsee.,
12:u:Suf-2 L=XI,
12:u:tok-1 X=cm,
21:u:tok-2 L=zealand/new,
19:u:Tok-1 X=Zoologisk,
14:u:tok-1LL=1868,
19:u:tok-2 R=reise/nyt,
23:u:tok-1LL=skandinaviens,
13:u:tok-1 R=vid,
30:u:tok-2 L=fauna/förhandlingar,
28:u:tok-2 R=förhandlingar/vid,
13:u:Tok-1 X=Del,
20:u:Tok-1 X=scientific,
18:u:tok-1LL=sammlung,
17:u:Tok-1 X=Museum.,
18:u:tok-1RR=register,
18:u:tok-1 R=register,
18:u:tok-1 X=register,
21:u:tok-2 R=register/of,
18:u:tok-1 L=register,
21:u:tok-2 L=register/of,
18:u:tok-1LL=register,
20:u:tok-1RR=management,
20:u:tok-1 X=management,
18:u:tok-1RR=porifera,
18:u:tok-1 R=porifera,
21:u:tok-2 R=of/porifera,
18:u:Tok-1 X=Porifera,
21:u:tok-2 L=of/porifera,
18:u:tok-1 L=porifera,
18:u:tok-1LL=porifera,
19:u:Tok-1 X=Sequences,
29:u:tok-2 L=ribosomal/sequences,
30:u:tok-2 R=sequences/biological,
13:u:tok-2 R=4/2,
13:u:tok-2 L=4/2,
22:u:tok-1LL=benachbarten,
24:u:tok-1 L=meeresgebieten,
37:u:tok-2 L=meeresgebieten/mitteilungen,
26:u:tok-2 R=mitteilungen/aus,
24:u:tok-1LL=meeresgebieten,
23:u:tok-1RR=hamburgischen,
26:u:tok-2 L=mitteilungen/aus,
23:u:tok-1 R=hamburgischen,
23:u:tok-1RR=zoologi-schen,
27:u:tok-2 R=dem/hamburgischen,
23:u:Tok-1 X=Hamburgischen,
23:u:tok-1 X=hamburgischen,
23:u:tok-1 R=zoologi-schen,
27:u:tok-2 L=dem/hamburgischen,
37:u:tok-2 R=hamburgischen/zoologi-schen,
17:u:tok-1 L=ulvales,
22:u:tok-1RR=capsosiphon,,
22:u:tok-2 L=ulvales/part,
17:u:tok-2 R=part/i.,
17:u:tok-1LL=ulvales,
22:u:tok-1 R=capsosiphon,,
22:u:tok-1RR=percursaria,,
17:u:tok-2 L=part/i.,
25:u:tok-2 R=i./capsosiphon,,
22:u:Tok-1 X=Capsosiphon,,
21:u:tok-1 X=capsosiphon,
22:u:tok-1 R=percursaria,,
20:u:tok-1RR=blidingia,,
25:u:tok-2 L=i./capsosiphon,,
35:u:tok-2 R=capsosiphon,/percursaria,,
22:u:Tok-1 X=Percursaria,,
21:u:tok-1 X=percursaria,
22:u:tok-1 L=capsosiphon,,
20:u:tok-1 R=blidingia,,
23:u:tok-1RR=enteromorpha.,
35:u:tok-2 L=capsosiphon,/percursaria,,
33:u:tok-2 R=percursaria,/blidingia,,
20:u:Tok-1 X=Blidingia,,
19:u:tok-1 X=blidingia,
22:u:tok-1LL=capsosiphon,,
22:u:tok-1 L=percursaria,,
23:u:tok-1 R=enteromorpha.,
15:u:tok-1RR=opera,
33:u:tok-2 L=percursaria,/blidingia,,
34:u:tok-2 R=blidingia,/enteromorpha.,
23:u:Tok-1 X=Enteromorpha.,
22:u:tok-1LL=percursaria,,
20:u:tok-1 L=blidingia,,
15:u:tok-1 R=opera,
34:u:tok-2 L=blidingia,/enteromorpha.,
29:u:tok-2 R=enteromorpha./opera,
18:u:tok-1LL=pacific.,
15:u:tok-1RR=1-175,
23:u:tok-2 L=visaya/suppl.,
18:u:tok-2 R=suppl./7,
14:u:Lst-2 X=Lu/Z,
11:u:Suf-1 X=Z,
12:u:Suf-2 X=IZ,
16:u:Tmn-3 X=none/Z,
15:u:tok-1 L=level,
15:u:tok-1LL=level,
24:u:Tok-1 X=Videnskabelige,
24:u:tok-1 X=videnskabelige,
14:u:tok-1 L=oman,
21:u:tok-1 R=meddelelser,
15:u:tok-1RR=dansk,
29:u:tok-2 L=oman/videnskabelige,
36:u:tok-2 R=videnskabelige/meddelelser,
14:u:tok-1RR=anz.,
14:u:Tok-1 X=Lav.,
13:u:tok-1 X=lav,
15:u:tok-1LL=delle,
17:u:tok-1 L=femmine,
14:u:tok-1 R=ist.,
22:u:tok-2 L=femmine/lav.,
19:u:tok-2 R=lav./ist.,
12:u:tok-1RR=1:,
12:u:tok-1 R=1:,
12:u:Pre-2 R=1:,
12:u:Tok-1 X=1:,
12:u:Pre-2 X=1:,
12:u:tok-1 L=1:,
12:u:tok-1LL=1:,
21:u:tok-1 L=environment,
21:u:tok-1LL=environment,
17:u:Tok-1 X=Abyssal,
26:u:Tok-1 X=Dreifuiushchaiae,
26:u:tok-1 X=dreifuiushchaiae,
17:u:tok-1LL=polaire,
22:u:tok-1 R=ekspeditsiia,
24:u:tok-1RR=glavsevmorputi,
32:u:tok-2 L=trudy/dreifuiushchaiae,
39:u:tok-2 R=dreifuiushchaiae/ekspeditsiia,
19:u:Tok-1 X=1937-1940,
18:u:tok-1 X=19371940,
15:u:tok-1 L=sedov,
17:u:tok-1RR=158-184,
25:u:tok-2 L=sedov/1937-1940,
23:u:tok-2 R=1937-1940/iii,
17:u:tok-1LL=ocean),,
30:u:tok-2 R=zealand/abhandlungen,
17:u:tok-1RR=383-438,
18:u:tok-2 L=series/4,
17:u:tok-1 R=383-438,
19:u:tok-2 R=2/383-438,
21:u:Tok-1 X=Vetenskaps-,
20:u:tok-1 X=vetenskaps,
20:u:tok-1LL=göteborgs,
13:u:tok-1 R=och,
31:u:tok-1RR=vitterhets-samhälles,
30:u:tok-2 L=kungliga/vetenskaps-,
25:u:tok-2 R=vetenskaps-/och,
12:u:Suf-2 X=s-,
13:u:Tok-1 X=och,
13:u:tok-1 X=och,
21:u:tok-1 L=vetenskaps-,
31:u:tok-1 R=vitterhets-samhälles,
20:u:tok-1RR=handlingar,
25:u:tok-2 L=vetenskaps-/och,
35:u:tok-2 R=och/vitterhets-samhälles,
12:u:Suf-2 L=s-,
31:u:Tok-1 X=Vitterhets-Samhälles,
29:u:tok-1 X=vitterhetssamhalles,
21:u:tok-1LL=vetenskaps-,
13:u:tok-1 L=och,
20:u:tok-1 R=handlingar,
17:u:tok-1RR=fjärde,
35:u:tok-2 L=och/vitterhets-samhälles,
42:u:tok-2 R=vitterhets-samhälles/handlingar,
20:u:Tok-1 X=Handlingar,
13:u:tok-1LL=och,
31:u:tok-1 L=vitterhets-samhälles,
17:u:tok-1 R=fjärde,
18:u:tok-1RR=följden,
42:u:tok-2 L=vitterhets-samhälles/handlingar,
28:u:tok-2 R=handlingar/fjärde,
27:u:tok-1 L=(strudelwürmer).,
31:u:tok-2 L=(strudelwürmer)./die,
27:u:tok-1LL=(strudelwürmer).,
21:u:tok-1RR=allgemeiner,
21:u:tok-2 R=und/ostsee.,
21:u:tok-1 R=allgemeiner,
21:u:tok-2 L=und/ostsee.,
29:u:tok-2 R=ostsee./allgemeiner,
27:u:tok-2 R=tropical/deep-sea,
27:u:tok-2 L=tropical/deep-sea,
26:u:tok-2 R=deep-sea/benthos,
26:u:tok-2 L=deep-sea/benthos,
14:u:Tok-1 X=VLIZ,
14:u:tok-1 X=vliz,
15:u:tok-1 R=young,
18:u:tok-2 L=sea/vliz,
20:u:tok-2 R=vliz/young,
12:u:Pre-2 X=VL,
15:u:Tok-1 X=Young,
15:u:tok-1 X=young,
21:u:tok-1RR=scientists',
20:u:tok-2 L=vliz/young,
21:u:tok-1 R=scientists',
14:u:tok-1RR=day,,
20:u:tok-1 X=scientists,
19:u:tok-1 L=abstracts,
15:u:tok-1RR=1976),
26:u:tok-2 R=invasive/species,
26:u:tok-2 L=invasive/species,
17:u:tok-1RR=impacts,
17:u:tok-1 R=impacts,
17:u:tok-1 X=impacts,
23:u:tok-2 R=porifera/from,
14:u:tok-1RR=n.e.,
23:u:tok-2 L=porifera/from,
14:u:tok-1 R=n.e.,
18:u:tok-2 R=the/n.e.,
14:u:Tok-1 X=N.E.,
18:u:tok-2 L=the/n.e.,
23:u:tok-2 R=n.e./atlantic,
14:u:tok-1 L=n.e.,
23:u:tok-2 L=n.e./atlantic,
14:u:tok-1LL=n.e.,
14:u:tok-1RR=nato,
14:u:tok-1 R=nato,
18:u:tok-1RR=advanced,
18:u:tok-2 R=sea/nato,
12:u:Pre-2 R=NA,
14:u:Tok-1 X=NATO,
14:u:tok-1 X=nato,
18:u:tok-1 R=advanced,
23:u:tok-2 R=nato/advanced,
12:u:Pre-2 X=NA,
12:u:Suf-2 X=TO,
26:u:tok-2 L=(ed.)/résultats,
19:u:Tok-1 X=Resultats,
23:u:tok-2 R=resultats/des,
19:u:tok-1 L=resultats,
20:u:tok-1RR=musorstom,,
23:u:tok-2 L=resultats/des,
19:u:tok-1LL=resultats,
20:u:tok-1 R=musorstom,,
30:u:tok-2 R=campagnes/musorstom,,
20:u:Tok-1 X=Musorstom,,
30:u:tok-2 L=campagnes/musorstom,,
20:u:tok-1 L=musorstom,,
20:u:tok-1LL=musorstom,,
27:u:tok-2 R=european/register,
27:u:tok-2 L=european/register,
16:u:tok-1 L=guides,
19:u:tok-2 L=guides/to,
16:u:tok-1LL=guides,
21:u:tok-1RR=patrimoines,
21:u:Tok-1 X=Patrimoines,
21:u:tok-1 X=patrimoines,
18:u:tok-1 R=naturels,
30:u:tok-2 R=patrimoines/naturels,
24:u:tok-2 L=abstracts/vliz,
22:u:tok-2 R=vliz/special,
27:u:tok-2 L=coast/proceedings,
31:u:tok-2 R=international/seaweed,
17:u:Tok-1 X=Seaweed,
31:u:tok-2 L=international/seaweed,
27:u:tok-2 R=seaweed/symposium,
17:u:tok-1RR=259-264,
27:u:tok-2 L=seaweed/symposium,
22:u:tok-2 R=symposium/10,
23:u:Tok-1 X=Invertebraten,
23:u:tok-1 X=invertebraten,
27:u:tok-2 R=invertebraten/van,
23:u:tok-1 L=invertebraten,
27:u:tok-2 L=invertebraten/van,
23:u:tok-1LL=invertebraten,
15:u:tok-1 L=25-26,
15:u:tok-1LL=25-26,
30:u:tok-2 L=their/identification,
18:u:Tok-1 X=Invasive,
26:u:tok-2 R=invasive/aquatic,
26:u:tok-2 L=invasive/aquatic,
25:u:tok-2 R=aquatic/species,
25:u:tok-2 L=aquatic/species,
31:u:tok-2 R=distribution,/impacts,
31:u:tok-2 L=distribution,/impacts,
21:u:tok-2 R=impacts/and,
21:u:tok-2 L=impacts/and,
24:u:tok-2 R=and/management,
20:u:Tok-1 X=management,
24:u:tok-2 L=and/management,
13:u:Tok-1 X=1st,
13:u:tok-1 X=1st,
12:u:Pre-2 X=1s,
18:u:tok-1LL=Éponges,
19:u:tok-1 L=[sponges],
30:u:tok-2 L=[sponges]/scientific,
28:u:tok-2 R=scientific/results,
25:u:Brk-1 L=square-brackets,
19:u:tok-1LL=[sponges],
28:u:tok-2 L=scientific/results,
23:u:tok-1RR=<i>caudan</i>,
23:u:tok-1 R=<i>caudan</i>,
18:u:tok-1RR=campaign,
27:u:tok-2 R=the/<i>caudan</i>,
23:u:Tok-1 X=<i>Caudan</i>,
18:u:tok-1 X=icaudani,
18:u:tok-1 R=campaign,
27:u:tok-2 L=the/<i>caudan</i>,
32:u:tok-2 R=<i>caudan</i>/campaign,
18:u:Tok-1 X=campaign,
18:u:tok-1 X=campaign,
23:u:tok-1 L=<i>caudan</i>,
32:u:tok-2 L=<i>caudan</i>/campaign,
21:u:tok-2 R=campaign/in,
12:u:Suf-2 X=gn,
23:u:tok-1LL=<i>caudan</i>,
18:u:tok-1 L=campaign,
21:u:tok-2 L=campaign/in,
12:u:Suf-2 L=gn,
18:u:tok-1LL=campaign,
17:u:tok-1RR=biscay,,
17:u:tok-1 R=biscay,,
20:u:tok-2 R=of/biscay,,
17:u:Tok-1 X=Biscay,,
20:u:tok-2 L=of/biscay,,
34:u:tok-2 R=biscay,/august-september,
20:u:tok-1 R=kaspiiskoi,
21:u:tok-1RR=ekspeditsii,
23:u:tok-2 L=mysidae/trudy,
26:u:tok-2 R=trudy/kaspiiskoi,
20:u:Tok-1 X=Kaspiiskoi,
20:u:tok-1 X=kaspiiskoi,
21:u:tok-1 R=ekspeditsii,
26:u:tok-2 L=trudy/kaspiiskoi,
32:u:tok-2 R=kaspiiskoi/ekspeditsii,
21:u:Tok-1 X=Ekspeditsii,
21:u:tok-1 X=ekspeditsii,
20:u:tok-1 L=kaspiiskoi,
17:u:tok-1RR=243-313,
32:u:tok-2 L=kaspiiskoi/ekspeditsii,
23:u:tok-2 R=ekspeditsii/1,
19:u:tok-1RR=protists:,
19:u:tok-1 R=protists:,
26:u:tok-2 R=marine/protists:,
19:u:Tok-1 X=Protists:,
26:u:tok-2 L=marine/protists:,
29:u:tok-2 R=protists:/diversity,
19:u:tok-1 L=protists:,
29:u:tok-2 L=protists:/diversity,
21:u:tok-1 R=coordinated,
18:u:tok-2 L=report/1,
23:u:tok-2 R=1/coordinated,
14:u:tok-1LL=5-10,
13:u:tok-1 L=may,
15:u:tok-1 R=31-33,
18:u:tok-2 L=may/2001,
20:u:tok-2 R=2001/31-33,
21:u:tok-1 R=d´histoire,
30:u:tok-2 R=national/d´histoire,
13:u:Pre-2 R=d´,
21:u:Tok-1 X=d´Histoire,
30:u:tok-2 L=national/d´histoire,
13:u:Pre-2 X=d´,
21:u:tok-1 L=d´histoire,
31:u:tok-2 R=belgian/oceanographic,
31:u:tok-2 L=belgian/oceanographic,
19:u:Tok-1 X=Réunion,
17:u:tok-1 X=reunion,
23:u:tok-1 L=bibliographie,
24:u:tok-1RR=spécialistes,
33:u:tok-2 L=bibliographie/réunion,
22:u:tok-2 R=réunion/de,
23:u:tok-1LL=bibliographie,
19:u:tok-1 L=réunion,
24:u:tok-1 R=spécialistes,
15:u:tok-1RR=c.s.a,
22:u:tok-2 L=réunion/de,
27:u:tok-2 R=de/spécialistes,
17:u:tok-1 R=247-260,
16:u:tok-2 L=vol./4,
19:u:tok-2 R=4/247-260,
12:u:tok-1RR=cm,
12:u:tok-1 R=cm,
12:u:Pre-2 R=CM,
12:u:Tok-1 X=CM,
22:u:tok-2 R=cm/documents,
12:u:Pre-2 X=CM,
12:u:Suf-2 X=CM,
28:u:tok-2 R=shelf/biodiversity,
15:u:tok-1LL=r.v.",
15:u:tok-1 L=vema",
23:u:tok-2 L=vema"/abyssal,
27:u:tok-2 R=abyssal/crustacea,
12:u:Suf-2 L=a",
15:u:tok-1LL=vema",
27:u:tok-2 L=abyssal/crustacea,
24:u:tok-2 R=crustacea/vema,
22:u:tok-2 L=sea/invasive,
17:u:tok-1RR=europe.,
17:u:tok-1 R=europe.,
20:u:tok-2 R=of/europe.,
17:u:Tok-1 X=Europe.,
20:u:tok-2 L=of/europe.,
31:u:tok-2 R=europe./distribution,,
17:u:tok-1 L=europe.,
31:u:tok-2 L=europe./distribution,,
20:u:tok-1 R=chilensis.,
21:u:tok-2 L=plate/fauna,
26:u:tok-2 R=fauna/chilensis.,
20:u:Tok-1 X=chilensis.,
19:u:tok-1 X=chilensis,
26:u:tok-2 L=fauna/chilensis.,
33:u:tok-2 R=chilensis./abhandlungen,
16:u:tok-1 R=plate.,
17:u:tok-1RR=zweiter,
16:u:tok-2 L=dr./l.,
19:u:tok-2 R=l./plate.,
16:u:Tok-1 X=Plate.,
17:u:tok-1 R=zweiter,
14:u:tok-1RR=band,
19:u:tok-2 L=l./plate.,
24:u:tok-2 R=plate./zweiter,
17:u:Tok-1 X=Zweiter,
17:u:tok-1 X=zweiter,
16:u:tok-1 L=plate.,
14:u:tok-1 R=band,
24:u:tok-2 L=plate./zweiter,
22:u:tok-2 R=zweiter/band,
14:u:Tok-1 X=Band,
14:u:tok-1 X=band,
16:u:tok-1LL=plate.,
17:u:tok-1 L=zweiter,
21:u:tok-1RR=jahrbücher,
22:u:tok-2 L=zweiter/band,
26:u:tok-2 R=band/zoologische,
21:u:Tok-1 X=Jahrbücher,
14:u:tok-1LL=band,
17:u:tok-1 R=251-272,
33:u:tok-2 L=zoologische/jahrbücher,
29:u:tok-2 R=jahrbücher/251-272,
31:u:tok-2 R=d´histoire/naturelle,
17:u:tok-1RR=261-276,
31:u:tok-2 L=d´histoire/naturelle,
22:u:tok-2 R=naturelle/91,
22:u:Tok-1 X=Skandinavisk,
22:u:tok-1 X=skandinavisk,
21:u:tok-1LL=cystophora,,
16:u:tok-1 L=nilss.,
29:u:tok-2 L=nilss./skandinavisk,
28:u:tok-2 R=skandinavisk/fauna,
16:u:tok-1LL=nilss.,
22:u:tok-1 L=skandinavisk,
28:u:tok-2 L=skandinavisk/fauna,
19:u:tok-2 R=fauna/del,
22:u:tok-1LL=skandinavisk,
19:u:tok-1RR=däggande,
19:u:tok-2 L=fauna/del,
16:u:tok-2 R=del/1:,
19:u:tok-1 R=däggande,
17:u:tok-1RR=djuren.,
16:u:tok-2 L=del/1:,
22:u:tok-2 R=1:/däggande,
13:u:Pre-2 R=Dä,
19:u:Tok-1 X=Däggande,
18:u:tok-1 X=daggande,
17:u:tok-1 R=djuren.,
15:u:tok-1RR=lund.,
22:u:tok-2 L=1:/däggande,
27:u:tok-2 R=däggande/djuren.,
13:u:Pre-2 X=Dä,
12:u:Pre-2 R=Dj,
17:u:Tok-1 X=Djuren.,
16:u:tok-1 X=djuren,
19:u:tok-1 L=däggande,
15:u:tok-1 R=lund.,
20:u:tok-1RR=berlingska,
27:u:tok-2 L=däggande/djuren.,
23:u:tok-2 R=djuren./lund.,
12:u:Pre-2 X=Dj,
15:u:Tok-1 X=Lund.,
19:u:tok-1LL=däggande,
17:u:tok-1 L=djuren.,
20:u:tok-1 R=berlingska,
24:u:tok-1RR=boktryckeriet.,
23:u:tok-2 L=djuren./lund.,
26:u:tok-2 R=lund./berlingska,
24:u:Tok-1 X=boktryckeriet.,
23:u:tok-1 X=boktryckeriet,
15:u:tok-1LL=lund.,
20:u:tok-1 L=berlingska,
17:u:tok-1 R=382-387,
35:u:tok-2 L=berlingska/boktryckeriet.,
32:u:tok-2 R=boktryckeriet./382-387,
0=-9.585524e-02
1=-3.713099e-01
2=9.779425e-03
3=2.133128e-02
4=-5.694819e-02
5=-2.400993e-02
6=3.008844e-02
7=-1.641459e-02
8=1.483792e+00
9=1.170543e+00
10=-1.329509e+00
11=-4.566459e-01
15=-3.758970e-01
18=1.571015e-01
23=-1.740558e-01
24=-1.158004e+00
25=-1.068285e+00
26=4.197508e-01
27=-2.322547e-02
28=-1.659778e+00
29=-2.049534e+00
30=-1.158106e+00
31=-1.568225e-01
32=-1.424230e+00
33=-5.080403e-01
34=-2.530460e+00
35=6.183850e-01
36=7.138363e-01
37=-2.203901e+00
38=-7.431797e-01
39=-2.302108e+00
42=-2.140383e+00
43=-1.763599e+00
44=-5.998620e-02
45=4.875947e-01
46=5.729554e-02
47=-8.755155e-01
48=-5.044134e-02
50=-1.616493e+00
51=-3.233937e-01
52=-2.528088e-01
53=2.426708e-01
54=1.567123e-01
55=-4.998621e-01
58=-8.778436e-01
59=-6.312788e-01
61=-7.387448e-01
62=7.906036e-01
63=-1.046644e-01
64=-5.375106e-01
66=-2.737375e+00
67=-5.892689e-02
68=-3.936044e-02
69=-2.110986e+00
70=-5.684064e-02
71=9.936209e-01
72=3.285660e-01
80=3.285660e-01
88=1.228785e-01
90=-1.738381e-02
91=9.427777e-02
92=-4.419905e-02
94=-6.292314e-01
95=9.225024e-03
96=8.521156e-01
103=-8.284145e-02
106=1.582961e+00
111=-8.883218e-02
112=-2.884164e-01
114=5.484605e-02
115=6.738247e-01
119=2.366526e-01
120=-2.030239e-01
122=-7.292687e-02
123=2.235247e-01
124=5.429192e-04
133=3.081707e-02
141=1.969498e-01
152=-9.484845e-02
155=-3.521708e-05
157=-2.173186e-03
159=2.692961e-01
160=-1.134801e-01
161=6.355377e-02
162=9.995711e-02
163=-5.271303e-02
164=-2.852861e-04
165=-2.968130e-05
166=-1.245052e+00
167=3.780833e-04
170=-8.493123e-02
171=1.554013e-01
172=3.184506e-02
175=-1.989310e-01
178=-3.457431e-02
179=-4.654517e-02
183=9.534041e-02
184=3.285660e-01
256=9.390535e-02
257=-8.374538e-01
258=1.256571e-02
259=-4.011394e-04
260=-4.413875e-01
261=-1.242441e-01
262=5.267500e-03
263=-1.173168e-02
264=3.285660e-01
274=-6.105323e-03
275=2.575928e-02
279=1.287196e-02
282=-8.493123e-02
283=1.554013e-01
284=3.184506e-02
287=-1.989310e-01
291=3.061766e-02
295=-3.905743e-04
298=-6.105323e-03
299=2.575928e-02
303=1.287196e-02
304=3.285660e-01
314=-2.196285e-02
315=1.493717e-02
319=1.425241e-04
320=3.285660e-01
328=-3.080986e-02
330=4.640337e-02
331=8.630087e-02
332=-1.196447e-01
333=-1.052152e-02
334=-1.437971e-01
335=8.506308e-03
336=1.778975e-01
338=-1.418287e-02
339=-3.481284e-02
343=-5.339768e-02
346=3.171597e-02
347=-1.317314e-02
351=-5.931720e-02
352=3.285660e-01
424=-7.070429e-02
425=-2.132836e-01
426=1.410895e-01
427=1.361356e-01
428=-2.971822e-01
429=-2.629162e-02
430=-2.502916e-02
431=-3.165498e-02
432=1.319833e+00
434=-2.619413e-01
435=-1.196568e-01
439=-1.250020e-01
442=1.726082e-01
447=-1.355513e-01
448=-5.842707e-01
450=3.994184e-01
451=7.023560e-03
453=-1.498438e-01
455=-1.020099e-01
456=-3.649168e-01
458=-2.572692e+00
459=6.390118e-01
460=-1.208858e+00
461=-3.647424e-03
463=-9.363017e-01
466=-2.789666e-01
468=1.597641e+00
471=-2.026761e-01
477=8.887746e-01
482=-2.372739e-01
485=-1.343557e-02
486=2.768611e+00
488=-2.889163e-02
490=-1.146530e+00
491=-2.710997e-02
493=-6.881947e-02
495=8.136401e-01
498=-1.354423e-02
499=-1.498652e-04
503=1.174221e-02
504=1.733885e-02
505=-1.183013e+00
506=3.007264e-01
507=2.628678e-01
508=-6.728006e-01
509=-1.059749e-02
510=-1.517256e-02
511=9.126076e-04
514=4.616697e-03
515=3.513706e-02
519=-9.896471e-03
520=-5.727484e-02
521=-3.617038e-01
522=-9.761280e-02
523=6.700087e-02
524=-5.048010e-02
525=-3.799928e-02
526=1.543062e-02
527=4.383700e-02
528=-7.159226e-02
529=-3.684842e-01
530=-1.080702e-01
531=5.095179e-02
532=-5.573129e-02
533=-2.048747e-02
534=2.403017e-02
535=4.241760e-03
536=-9.510942e-02
537=-3.627439e-01
538=-2.130402e-02
539=-1.477703e-03
540=-5.161664e-02
541=-2.084250e-02
542=-1.299773e-03
543=-6.645517e-04
544=-1.197922e-01
545=-2.033792e-01
546=1.371679e-01
547=-9.312736e-01
549=-2.245628e-02
550=2.945934e-02
551=-5.607017e-02
552=3.285660e-01
560=-6.901953e-02
561=-1.569450e-01
562=6.364962e-02
563=3.460988e-03
564=-1.042664e-01
565=-5.209487e-02
566=8.473398e-02
567=1.990563e-03
568=-7.442334e-02
569=-9.086032e-02
570=1.041932e-02
571=6.392906e-02
572=-6.296506e-02
573=3.889407e-03
574=-7.424256e-02
575=-7.966479e-03
576=-2.157052e-02
578=6.433961e-02
579=5.910475e-02
580=-1.627116e-01
581=-6.697986e-06
583=2.278983e-02
584=3.283608e-01
592=3.231449e-02
594=3.806334e-03
595=2.256807e-02
597=-5.274894e-04
599=-4.052269e-02
600=3.285660e-01
608=3.285660e-01
616=1.986199e-01
624=3.285660e-01
632=-2.981331e-02
634=1.548318e-01
635=-7.906552e-04
637=-6.004573e-06
638=-9.324666e-01
639=-1.870685e-02
641=-5.315172e-02
642=-1.463936e-02
643=3.356223e-02
647=-2.330440e-02
648=3.285660e-01
656=-9.912388e-02
657=-1.149606e-01
658=2.428087e-02
659=6.357673e-02
660=-9.473505e-03
661=-2.175796e-04
662=6.713053e-02
663=-1.833309e-02
664=-9.445128e-02
665=-8.380780e-02
666=-1.032664e-01
667=9.419784e-02
668=-7.391738e-03
669=1.099057e-02
670=-3.574933e-01
671=-1.702041e-02
672=3.285660e-01
746=3.532673e-03
747=2.671562e-02
749=-5.482566e-04
750=2.903116e-02
751=-2.345884e-02
752=9.590640e-02
754=-5.582338e-02
755=3.874235e-01
757=1.143071e-01
758=-6.337316e-03
759=-3.854632e-02
760=4.018143e-02
763=3.624437e-02
765=-1.075261e-03
766=5.712468e-02
767=-3.670857e-02
770=-5.824933e-02
771=2.362751e-02
775=1.488296e-02
776=-8.783773e-02
777=-3.695613e-01
778=4.595617e-02
779=2.471450e-02
780=-5.621095e-02
781=-2.504736e-02
783=1.474580e-03
784=1.238726e-01
794=-3.116870e-04
795=-5.659217e-03
799=3.275951e-02
802=1.146966e-01
803=-5.855557e-02
808=8.440182e-02
809=-9.975836e-02
810=1.793094e-02
811=-5.866339e-02
812=-9.947720e-02
813=-2.213824e-01
814=-7.208968e-02
815=-9.153041e-02
816=2.668756e-01
818=-5.153117e-01
823=-1.089374e-01
826=-2.474050e-04
834=2.456552e-01
835=-9.859084e-02
839=-3.382424e-01
843=2.847698e-01
844=-1.054760e-01
852=5.991122e-01
853=-2.094415e-02
861=2.783720e-01
862=-3.501895e-01
870=8.154680e-01
875=-6.716984e-01
878=-2.486890e-01
879=4.482398e-01
881=-3.224586e-01
882=1.219621e-01
883=-4.791418e-01
887=-2.494718e-02
895=-2.971377e-03
898=-3.116870e-04
899=-5.659217e-03
903=3.275951e-02
906=4.781817e-03
911=-3.348524e-03
919=-2.971377e-03
922=-1.236582e-03
927=2.169281e-03
928=-4.284466e-02
929=-4.735179e-01
930=-1.129256e-01
931=1.105942e-01
932=2.363033e-01
933=-5.034831e-02
934=-1.513783e-01
935=4.927142e-02
936=6.946914e-03
938=-5.311624e-02
939=2.089774e-02
943=-5.245754e-02
944=-1.039922e-01
946=1.230589e-01
947=-3.257408e-02
948=-9.786921e-02
949=1.157137e-01
950=-7.644937e-01
951=-7.527257e-03
954=-4.377512e-02
955=2.512656e-02
959=-5.971403e-02
963=2.568726e-02
967=-3.064871e-03
975=-6.888100e-03
976=-7.450100e-02
977=-2.330271e-01
978=1.691524e-01
979=1.047297e-01
980=2.665888e-04
981=-1.174007e-01
982=-4.229293e-01
983=5.680279e-03
984=1.178585e+00
985=7.213235e-01
986=-1.026038e+00
990=-7.979240e-02
991=-1.895592e-01
1000=-4.508025e-01
1001=-1.869034e-01
1002=4.068809e-01
1003=-2.343109e-02
1004=-9.981233e-01
1005=-5.610979e-01
1006=-6.337436e-01
1007=-1.443416e-01
1008=-6.279315e-01
1009=-1.308628e-01
1010=-1.621871e+00
1011=6.414407e-01
1012=3.025830e-01
1013=-1.010730e+00
1015=-1.910314e+00
1020=2.101342e+00
1021=-1.770132e+00
1022=-3.750052e-01
1029=1.340684e+00
1030=-7.935933e-03
1034=-3.995309e-01
1038=1.066494e+00
1040=-1.547598e-02
1042=-1.521096e+00
1043=-2.757466e-01
1044=-2.957211e-02
1045=-5.839322e-01
1046=7.634355e-03
1047=9.365363e-01
1050=1.314471e-02
1051=-5.320211e-01
1055=-7.980589e-03
1056=9.131834e-01
1074=1.303275e-01
1075=-1.356846e+00
1079=-3.146356e-01
1083=-2.056612e-02
1084=2.879299e-02
1094=1.977254e-01
1115=1.185771e-01
1119=2.802457e-03
1120=-3.237547e-02
1121=-1.118663e-01
1122=2.456682e-01
1123=5.658442e-02
1124=-1.925758e-01
1125=-2.310668e-02
1126=-3.930974e-02
1127=-1.882466e-02
1130=6.769213e-03
1131=-8.652892e-02
1132=5.573165e-02
1133=-7.841395e-02
1134=3.432458e-01
1135=-6.115520e-02
1136=-5.353696e-02
1137=-8.981303e-02
1138=1.043427e-01
1139=2.729909e-02
1140=6.957692e-02
1141=-3.617909e-02
1142=6.146553e-02
1143=2.099541e-03
1146=-4.375436e-02
1147=1.207921e-03
1151=-4.155137e-02
1152=6.342160e-02
1153=-3.147640e-01
1154=1.127797e-01
1155=-2.921344e-01
1156=-4.171927e-01
1159=-6.049247e-02
1160=7.115549e-02
1168=6.214692e-02
1177=-3.108994e-01
1178=1.198087e-01
1179=-1.586820e-02
1181=-3.823310e-02
1182=-7.064332e-01
1183=1.344262e-03
1186=-3.862060e-03
1187=4.370999e-02
1188=2.023223e-01
1190=-3.889226e-01
1191=-2.335340e-02
1192=-8.515954e-03
1194=8.787746e-02
1195=2.299279e-01
1199=1.643751e-03
1200=-5.837165e-02
1201=-2.210171e-01
1202=-6.290276e-02
1203=5.157453e-02
1204=-8.114990e-02
1205=-1.393544e-02
1206=5.705956e-02
1207=-1.691257e-02
1208=5.683095e-02
1209=-3.280091e-01
1210=1.169265e-01
1211=-2.418302e-01
1212=-4.138044e-01
1213=9.984602e-04
1215=-6.433065e-02
1216=2.540840e-01
1234=2.022515e-01
1235=-1.649995e+00
1239=-8.768647e-01
1243=3.426742e-01
1261=1.530622e-01
1262=-6.056595e-01
1270=1.805475e+00
1275=-1.174906e-01
1278=-2.105157e-02
1279=2.191354e-01
1282=2.940578e-03
1283=1.288390e-02
1285=-7.939747e-04
1286=2.243469e-02
1287=-4.005172e-03
1290=-9.416466e-02
1291=1.501550e-01
1295=2.002627e-01
1298=-4.627869e-02
1299=2.744395e-01
1303=1.661108e-01
1306=-1.413306e-01
1307=6.281053e-01
1311=-6.131491e-03
1312=5.808789e-02
1314=3.355848e-02
1315=-3.299995e-02
1319=-6.110792e-02
1320=2.121661e-02
1322=5.605296e-02
1323=-5.707289e-03
1327=-2.502934e-02
1330=3.688674e-02
1331=-1.074223e-01
1333=1.303813e-02
1335=1.952536e-01
1338=-2.432718e-04
1339=-5.265210e-01
1344=3.131925e-01
1362=2.542701e-01
1363=2.397460e-04
1367=-1.895660e-01
1371=-1.499339e-03
1407=5.661736e-03
1408=2.060212e-01
1410=1.460525e-02
1415=-1.662806e-01
1416=8.644933e-02
1424=-5.195618e-02
1426=-2.538650e-01
1427=8.802890e-03
1428=3.572539e-04
1429=-5.088275e-03
1430=-1.060667e-02
1431=-6.620450e-02
1432=-2.789671e-02
1434=6.941721e-02
1435=3.471724e-02
1437=-1.285373e+00
1439=-2.186909e-02
1442=-2.183529e-01
1443=3.272733e-05
1444=1.483735e-01
1445=7.527519e-02
1446=-1.030434e+00
1447=-1.856936e-02
1450=5.220271e-02
1451=-2.349406e-03
1455=-1.688839e-02
1458=-1.966117e-02
1459=-2.751292e-01
1461=2.768285e-01
1463=-1.269710e-03
1466=-2.477105e-03
1467=3.676135e-02
1471=-1.532985e-02
1474=5.220271e-02
1475=-2.349406e-03
1479=-1.688839e-02
1482=4.432074e-03
1487=-8.713946e-05
1490=-2.477105e-03
1491=3.676135e-02
1495=-1.532985e-02
1498=-1.709986e-01
1499=1.108838e-02
1500=1.355142e-01
1501=9.404116e-02
1502=-2.439355e-02
1503=-2.667715e-02
1508=-4.889986e-02
1512=3.219439e-02
1514=1.302094e-02
1515=-4.988154e-01
1522=1.232881e-01
1523=-1.536028e-01
1528=-4.532336e-02
1530=8.041398e-02
1531=3.215770e-02
1533=-1.680968e+00
1535=-4.711581e-02
1536=1.632935e-03
1538=5.527715e-02
1543=-1.104247e-01
1546=1.726019e-01
1547=5.285933e-02
1548=-2.748640e-02
1549=-6.177862e-02
1550=-1.334281e-01
1551=-1.202490e-02
1552=-9.444735e-04
1554=9.574244e-02
1555=2.521887e-02
1557=-1.631093e-02
1558=-9.692302e-02
1559=-5.632533e-02
1560=-6.413423e-02
1562=8.476199e-02
1563=3.317148e-02
1565=-5.074754e-03
1566=-3.548079e-01
1567=-9.732342e-03
1568=-3.124368e-02
1570=8.970098e-02
1571=3.273126e-02
1572=6.830297e-02
1573=-1.532530e-02
1575=-2.514797e-02
1576=-1.605214e-02
1578=4.939331e-02
1579=5.467354e-02
1580=2.382725e-02
1581=-5.960411e-04
1582=-4.720330e-02
1583=-1.421906e-02
1586=-2.477105e-03
1587=3.676135e-02
1591=-1.532985e-02
1594=-1.375398e-01
1595=5.766080e-03
1596=8.926185e-03
1600=-2.264883e-01
1602=2.188965e-03
1603=-3.550925e-03
1605=-2.099193e-02
1606=1.743421e-01
1607=-2.733248e-02
1609=1.588306e+00
1626=1.170481e+00
1628=-3.955645e-01
1630=-4.321398e-02
1635=1.381029e-02
1636=7.567641e-01
1638=-1.157329e-01
1644=-1.992826e+00
1645=2.889217e-01
1646=1.233242e-01
1652=-1.363673e-01
1653=3.901469e-03
1654=3.135948e-01
1668=-5.926409e-03
1670=-5.849698e-04
1671=2.495686e-01
1674=-3.807945e-03
1675=-3.630467e-01
1676=-3.863154e-02
1678=9.397066e-02
1679=8.929543e-05
1682=-7.154009e-03
1683=3.093144e-01
1687=-1.773622e-06
1690=1.909994e-01
1691=-3.211267e-01
1692=1.358053e-01
1693=1.165776e-01
1694=-5.853705e-02
1695=-3.374791e-02
1696=-1.184830e-02
1698=-1.009858e-01
1699=4.714714e-03
1700=1.128068e-02
1701=-2.809896e-02
1703=-4.563417e-02
1706=9.250646e-04
1710=-1.553766e-02
1714=-3.807945e-03
1715=-3.630467e-01
1716=-3.863154e-02
1718=9.397066e-02
1719=8.929543e-05
1722=3.172449e-03
1727=-1.090593e-05
1730=9.250646e-04
1734=-1.553766e-02
1736=-1.724169e-01
1737=-1.482896e-07
1738=-2.280259e-02
1739=1.148450e-03
1740=3.944315e-02
1741=-7.787347e-03
1742=1.331255e-01
1743=-6.501702e-02
1745=1.596907e-01
1754=6.191004e-03
1755=-1.784080e-01
1756=-2.907275e-01
1759=1.489944e-01
1763=-4.666865e-02
1765=-9.590847e-02
1767=3.833210e-03
1770=-8.997682e-05
1773=-8.943093e-01
1774=-1.446999e-01
1775=8.724327e-02
1777=1.675452e+00
1794=1.047077e-01
1803=5.493524e-02
1804=-6.815529e-02
1812=4.260203e-02
1839=5.883202e-01
1840=-6.631112e-02
1841=4.140048e-01
1842=5.368809e-02
1843=-6.170833e-02
1844=-8.309214e-01
1845=-2.126910e-01
1847=-6.363586e-02
1848=-2.323777e-01
1850=-2.197867e-02
1851=1.087720e-03
1852=4.322028e-02
1853=-7.381214e-03
1854=1.340882e-01
1855=-4.321111e-02
1856=-3.968616e-02
1858=-8.382272e-02
1859=5.304988e-02
1861=-8.912150e-02
1862=-4.650755e-03
1863=-1.171884e-04
1866=-1.798283e-02
1867=-2.599220e-03
1868=1.540696e-02
1869=1.545342e-02
1871=-6.506892e-03
1874=7.149998e-03
1879=-3.182132e-02
1882=7.438039e-04
1883=3.350253e-02
1884=2.752529e-02
1885=7.926572e-04
1886=-1.717564e-01
1887=-2.418746e-02
1888=-4.335476e-02
1890=-8.398073e-02
1891=1.385167e-02
1892=8.449584e-02
1893=-9.772322e-02
1894=-8.547170e-03
1895=-4.122537e-02
1896=2.732411e-02
1897=7.314494e-01
1903=-4.204217e-02
1914=7.923854e-03
1915=2.526724e-01
1919=4.588177e-03
1923=9.344603e-02
1924=4.090931e-06
1932=5.429320e-02
1933=-2.616660e-03
1955=5.563828e-03
1958=-1.739970e-03
1959=1.003258e-01
1962=-9.853435e-02
1963=2.534798e-02
1964=1.166366e-02
1965=2.029394e-03
1967=-5.697788e-03
1968=-2.252718e-05
1970=4.922008e-02
1971=8.868755e-04
1972=7.793731e-01
1973=9.265257e-03
1975=-5.574608e-03
1978=3.027918e-02
1979=2.796893e-02
1980=1.382267e-02
1981=-1.745907e-05
1982=-6.796489e-01
1983=-4.026655e-04
1986=9.250646e-04
1990=-1.553766e-02
1994=1.082257e-01
1995=-3.807174e-02
1996=-5.855234e-01
1999=-1.008639e-02
2002=1.176653e-01
2003=6.611306e-03
2005=-7.663779e-02
2006=3.681236e-02
2007=1.506409e-04
2010=6.635410e-03
2011=-4.035472e-03
2015=1.560758e-02
2018=1.118105e-01
2019=5.146673e-03
2021=-7.453273e-02
2022=3.001664e-02
2023=1.002994e-04
2026=9.190168e-03
2027=2.998066e-01
2028=-7.012570e-02
2029=3.448103e-01
2030=1.579540e-01
2031=4.264962e-03
2042=1.431100e+00
2047=-5.038490e-02
2050=-4.482554e-02
2051=1.547663e-01
2055=7.349690e-01
2062=-4.840348e-01
2068=-3.407372e-01
2069=7.768953e-01
2070=6.658294e-02
2078=4.954644e-01
2086=-1.896904e-02
2091=1.564339e-01
2094=-9.427642e-04
2095=2.588968e-05
2096=2.827763e-04
2098=1.711102e-01
2099=1.071852e-01
2100=-2.629269e-01
2101=-3.018355e-02
2102=-2.356366e-02
2103=-2.174493e-02
2106=-9.423299e-02
2107=5.697809e-02
2109=-1.252990e-01
2114=1.412251e-03
2115=9.950357e-02
2119=-6.739098e-03
2122=6.635410e-03
2123=-4.035472e-03
2127=1.560758e-02
2130=1.412251e-03
2131=9.950357e-02
2135=-6.739098e-03
2138=2.130760e-01
2139=-2.151122e-01
2144=-1.785626e-01
2146=2.990072e-03
2147=-5.673121e-02
2148=-1.981634e-03
2149=3.582252e-01
2150=9.642436e-01
2151=-1.232134e-01
2152=-6.174507e-02
2154=1.129138e-01
2155=-4.507319e-03
2159=3.061157e-04
2162=2.844798e-01
2163=-2.483246e-04
2165=8.355746e-02
2167=-5.319176e-04
2170=8.289082e-02
2171=4.400791e-02
2172=-9.978126e-02
2175=1.801335e-03
2178=4.237712e-03
2179=-5.591888e-02
2180=5.152872e-03
2183=8.426305e-03
2194=1.615051e+00
2199=-3.584607e-02
2202=-2.735713e-01
2203=1.220903e-02
2207=1.456193e-01
2211=-5.068779e-03
2212=1.822334e-02
2230=-2.307181e-02
2243=-7.390281e-07
2246=2.805616e-01
2247=1.661239e-01
2248=-3.660559e-04
2250=1.978435e-01
2251=4.555815e-03
2252=-8.663995e-02
2253=4.241291e-03
2254=4.061413e-02
2255=-9.281171e-03
2256=9.855496e-03
2258=6.639230e-02
2259=-1.807318e-02
2263=-4.261521e-03
2266=4.001577e-02
2271=-3.258542e-03
2274=1.723836e-02
2279=-4.229199e-03
2280=-3.167165e-04
2281=-1.638815e-01
2282=1.924343e-01
2283=2.210157e-02
2284=-7.989845e-02
2285=2.904256e-02
2286=7.247103e-03
2287=-1.270814e-02
2290=2.733210e-02
2291=-4.435376e-05
2295=2.719736e-02
2298=7.492148e-03
2299=1.371889e-04
2303=1.938880e-05
2304=-9.189731e-03
2305=-1.747010e-01
2306=2.040748e-01
2307=1.779220e-02
2308=-4.708449e-02
2309=1.886584e-03
2310=1.721929e-02
2311=-1.717012e-02
2312=2.170444e-01
2313=1.843115e-01
2314=-2.749373e-01
2322=4.259065e-01
2327=-1.189298e-01
2330=2.909833e-01
2331=-7.019500e-02
2334=-6.288149e-01
2335=-1.236741e-01
2337=-1.766415e-02
2338=-6.245989e-01
2339=3.089638e-01
2340=3.811939e-01
2341=-2.449189e-02
2342=-4.218939e-01
2349=6.893411e-01
2350=8.861991e-02
2351=-9.494635e-02
2357=4.228534e-03
2358=2.208293e-01
2366=1.433687e-02
2370=-6.796305e-01
2371=-3.485713e-02
2374=-1.816928e-02
2375=8.812360e-01
2378=2.309927e-02
2379=-3.876013e-04
2383=4.506072e-02
2386=1.412251e-03
2387=9.950357e-02
2391=-6.739098e-03
2394=-5.398761e-02
2399=4.555941e-04
2402=1.490735e-01
2403=8.619645e-02
2405=-1.180570e-01
2407=4.734924e-05
2426=2.823887e-01
2427=-1.594641e+00
2431=-4.216832e-06
2435=2.851442e-01
2444=1.887900e-01
2445=-6.105187e-04
2462=6.317929e-01
2471=3.220060e-02
2474=1.390260e-01
2475=7.451510e-02
2477=-1.157491e-01
2479=5.357158e-04
2482=1.891537e-01
2483=3.965428e-02
2484=3.973480e-02
2485=-5.969139e-02
2487=6.979015e-03
2488=1.661554e-01
2489=1.437962e-01
2506=3.399130e-01
2507=-1.461251e-01
2510=-8.793997e-03
2511=-9.548205e-02
2513=-7.451541e-03
2514=-1.689495e-01
2515=3.965203e-01
2516=3.796020e-01
2518=-2.561067e-01
2524=8.433831e-02
2526=-1.248986e-03
2533=6.112932e-01
2547=-1.992111e-01
2548=7.188321e-05
2549=-8.246352e-02
2550=6.655349e-02
2551=7.831887e-01
2554=4.042216e-02
2555=2.923460e-03
2556=1.511080e-01
2559=3.529959e-04
2562=-2.484421e-04
2563=7.360350e-02
2567=2.334516e-02
2570=1.390260e-01
2571=7.451510e-02
2573=-1.157491e-01
2575=5.357158e-04
2579=-5.353828e-01
2583=9.422376e-02
2586=-2.484421e-04
2587=7.360350e-02
2591=2.334516e-02
2594=-9.254911e-02
2595=1.697635e-03
2599=4.232573e-02
2600=-1.960621e-01
2602=-8.999088e-02
2603=1.437045e-01
2604=-3.379744e-02
2607=6.731596e-02
2610=4.077791e-07
2618=1.218376e-04
2619=-4.793929e-03
2623=2.140701e-02
2626=5.682673e-03
2627=-1.302773e-01
2631=3.927236e-02
2634=1.693057e-02
2635=9.120330e-04
2639=2.950724e-04
2642=1.205708e-03
2647=3.035204e-04
2651=7.498783e-02
2655=2.341871e-02
2658=1.002126e-01
2666=1.122872e-01
2667=-2.352282e-02
2674=1.876203e-04
2675=-4.117695e-02
2679=2.568184e-02
2682=2.509141e-04
2683=-2.314454e-02
2687=2.481153e-02
2690=1.653647e-04
2691=-4.134749e-02
2695=1.972665e-02
2698=-2.484421e-04
2699=7.360350e-02
2703=2.334516e-02
2706=2.992437e-02
2707=7.530729e-02
2714=-3.936024e-02
2715=5.390808e-02
2719=2.285781e-02
2722=-5.342452e-02
2727=3.348709e-04
2730=-2.569768e-02
2731=3.767426e-01
2735=7.179139e-03
2738=2.285358e-02
2739=1.524494e-01
2742=-8.893316e-02
2743=7.669113e-02
2746=3.517419e-02
2747=-1.040097e-02
2751=-9.197830e-03
2754=1.812251e-01
2755=-8.382373e-03
2757=-9.940645e-02
2759=-7.151212e-03
2760=-3.870947e-02
2762=1.262059e-01
2763=-1.135588e-01
2767=-3.281223e-04
2770=1.065868e-02
2773=-9.670580e-02
2778=-5.114028e-02
2779=2.587304e-03
2783=3.421799e-02
2786=1.065868e-02
2789=-9.670580e-02
2794=3.731522e-01
2795=-2.457073e-02
2799=-6.411833e-08
2803=-4.055006e-03
2810=2.383529e-02
2811=9.260716e-02
2813=-8.644719e-07
2814=-8.560983e-02
2815=9.749107e-02
2818=-1.790624e-02
2819=2.689778e-01
2820=5.373559e-01
2823=-2.317206e-03
2824=-2.615762e-02
2826=9.521391e-02
2827=-9.261381e-02
2831=8.613944e-06
2834=7.437189e-01
2835=-6.244256e-01
2840=-4.861470e-02
2842=7.188930e-02
2843=3.534546e-02
2844=1.437201e-01
2846=-1.291967e-04
2847=-7.603934e-02
2848=-4.044170e-02
2850=8.898868e-02
2851=-1.094302e-01
2855=3.320439e-02
2858=1.737241e-01
2859=1.627255e-03
2863=4.653250e-02
2866=3.887725e-03
2871=3.715896e-03
2874=-9.236371e-02
2875=1.549848e-02
2879=4.968249e-02
2880=-3.877805e-02
2882=1.262088e-01
2883=-1.129293e-01
2887=-3.008793e-04
2890=1.775214e-01
2891=-1.309665e-01
2895=1.850381e-04
2898=6.301601e-01
2899=-2.852789e-01
2904=-4.122554e-02
2906=9.177578e-02
2907=-1.268374e-01
2911=3.326828e-02
2930=1.823692e-01
2931=-5.351120e-01
2939=3.851774e-02
2975=1.252187e-01
2978=1.065868e-02
2981=-9.670580e-02
2986=6.557970e-02
2991=-1.483297e-02
2999=6.712620e-05
3007=9.643451e-05
3010=-1.000719e-02
3011=9.230938e-02
3015=7.421049e-03
3018=5.926932e-03
3026=1.402433e-01
3027=3.484725e-03
3029=5.867275e-03
3030=-1.698340e-02
3031=6.461022e-02
3050=2.951950e-01
3051=-4.369450e+00
3055=-3.058850e+00
3058=-1.248166e-01
3059=3.953371e-01
3060=-8.870632e-01
3068=8.584316e-01
3069=5.226536e-02
3070=-4.021772e-01
3086=3.419842e-01
3091=-2.619455e+00
3095=4.376109e-01
3098=3.362339e-02
3099=-9.989559e-02
3103=-9.415730e-03
3106=-1.146142e-02
3107=8.062856e-02
3111=1.901636e-02
3114=-4.571811e-04
3115=1.084321e-02
3119=1.540966e-03
3138=-7.059632e-03
3139=8.652557e-01
3143=6.810955e-02
3147=-1.074179e-01
3148=1.058666e+00
3158=1.519293e-02
3166=-4.564360e-04
3179=1.063595e-02
3183=-9.188168e-04
3186=6.630138e-03
3187=3.846663e-03
3191=1.586126e-05
3194=5.513721e-03
3195=-1.609681e-03
3199=5.906588e-04
3202=3.362339e-02
3203=-9.989559e-02
3207=-9.415730e-03
3210=-8.635480e-03
3211=1.002088e-01
3215=2.135216e-02
3218=5.513721e-03
3219=-1.609681e-03
3223=5.906588e-04
3226=3.724604e-03
3227=-9.581202e-04
3239=9.330467e-07
3240=-2.643740e-02
3242=1.378063e-01
3243=-4.885977e-02
3246=-8.213944e-03
3247=6.363842e-02
3250=-9.705192e-03
3251=8.713072e-02
3252=2.028143e-02
3258=7.982171e-02
3259=-2.755849e-02
3263=1.304614e-01
3266=1.173257e-05
3271=3.921584e-04
3274=6.007637e-02
3275=-8.285346e-02
3277=1.840049e-02
3279=-1.653263e-03
3280=-1.514901e-01
3282=-7.213191e-02
3283=2.080565e-01
3284=-1.271841e+00
3285=5.308089e-02
3287=9.485424e-02
3290=1.214877e-01
3291=-4.530794e-02
3293=-1.248143e-06
3294=1.127155e-01
3295=5.703047e-02
3298=1.457060e-01
3299=-2.883245e-03
3303=3.005779e-02
3306=-3.480761e-03
3307=2.624343e-02
3314=5.513721e-03
3315=-1.609681e-03
3319=5.906588e-04
3322=1.590724e-02
3323=1.250538e-01
3325=-3.737303e-04
3327=6.622262e-02
3330=-4.480906e-03
3331=5.206654e-03
3335=7.606696e-03
3338=-7.294208e-03
3339=1.845446e-01
3343=5.922687e-03
3346=2.731248e-01
3347=-2.826659e+00
3354=1.488078e-02
3362=1.636261e-04
3363=5.080688e-03
3367=1.785788e-02
3370=9.127751e-03
3371=5.930607e-04
3375=-3.875097e-03
3378=1.636261e-04
3379=5.080688e-03
3383=1.785788e-02
3386=-1.560684e-03
3387=6.605194e-03
3391=1.820180e-02
3395=5.276891e-04
3402=1.407880e-01
3407=1.048321e-03
3410=-3.412632e-03
3411=1.524780e-01
3415=1.657829e-03
3416=-1.073819e-01
3418=1.833577e-01
3419=-1.186272e-02
3420=-1.677347e-04
3421=-4.343616e-02
3423=-2.081083e-02
3426=1.573671e-01
3427=-1.917356e-01
3431=8.772495e-02
3434=6.260973e-02
3435=-2.008159e-02
3436=6.003685e-02
3439=-9.716015e-03
3442=1.268868e-01
3443=1.303536e-02
3445=-9.325836e-02
3446=-2.657950e-03
3447=5.724821e-02
3450=8.774142e-03
3451=2.714846e-02
3455=1.238414e-02
3458=1.135004e-01
3459=-4.152282e-03
3463=-3.519305e-04
3466=1.872899e-01
3467=-2.222895e-03
3471=-1.257289e-03
3474=6.875986e-02
3475=-2.647619e-01
3479=-7.304956e-04
3482=5.571514e-02
3483=-4.093378e-01
3490=1.252488e-02
3491=-1.133951e-03
3495=-1.477371e-03
3499=9.283374e-07
3506=1.252488e-02
3507=-1.133951e-03
3511=-1.477371e-03
3514=6.728842e-02
3515=-7.378342e-01
3519=-3.666597e-03
3522=-3.533104e-03
3527=1.596353e-02
3528=-4.127490e-02
3530=5.565834e-02
3531=1.296950e-02
3535=-7.992491e-03
3538=2.424836e-01
3539=8.908047e-02
3543=4.109614e-02
3546=8.662880e-02
3547=-1.284367e-01
3551=2.810484e-02
3554=1.554213e-01
3555=1.266056e-03
3559=2.390877e-02
3562=1.252488e-02
3563=-1.133951e-03
3567=-1.477371e-03
3570=2.160415e-01
3571=-7.235965e-01
3575=-3.665329e-03
3578=1.394617e-03
3586=-2.416990e-03
3587=3.675733e-02
3591=1.409932e-03
3594=1.336738e-02
3595=-4.151282e-01
3599=4.483406e-03
3602=1.399303e-03
3603=5.618986e-01
3605=1.295743e-01
3607=-2.738258e-03
3610=3.021085e-02
3611=-1.108268e-02
3615=6.814659e-04
3618=-2.416990e-03
3619=3.675733e-02
3623=1.409932e-03
3626=6.255445e-01
3627=-3.364542e-02
3634=3.215364e-01
3639=-5.842159e-03
3642=3.021085e-02
3643=-1.108268e-02
3647=6.814659e-04
3650=5.452058e-07
3651=-1.367208e-04
3655=1.149683e-02
3658=1.134298e-02
3659=-2.203958e-04
3663=-7.737923e-04
3666=1.535093e-01
3667=5.851171e-02
3671=2.458644e-02
3674=3.021085e-02
3675=-1.108268e-02
3679=6.814659e-04
3682=1.154325e+00
3683=-1.844504e-01
3690=-5.119802e-03
3695=1.940693e-02
3698=3.214210e-02
3699=-1.892558e-01
3703=2.793603e-04
3706=2.946935e-01
3714=3.688113e-02
3715=-5.836950e-02
3716=7.528750e-02
3719=2.532022e-03
3722=3.214210e-02
3723=-1.892558e-01
3727=2.793603e-04
3730=3.510101e-01
3735=-7.282677e-02
3738=-1.915250e-02
3746=2.063228e-02
3747=-7.673042e-02
3751=-2.614871e-03
3754=1.985538e-01
3755=-5.349116e-01
3759=4.675478e-03
3762=3.169508e-02
3763=-1.089171e-02
3767=8.240349e-03
3770=1.575041e-02
3771=-3.070299e-02
3775=-6.023387e-03
3778=-4.025748e-03
3783=1.791623e-02
3786=2.637331e-01
3794=2.069842e-02
3795=-1.426372e-02
3799=2.432064e-02
3802=1.067241e-02
3803=-1.607769e-03
3807=-6.988941e-04
3810=2.637331e-01
3818=-1.266881e-02
3826=-3.465430e-04
3831=2.588633e-02
3834=1.067241e-02
3835=-1.607769e-03
3839=-6.988941e-04
3842=1.802122e+00
3850=1.575696e-01
3858=3.105542e-03
3859=-2.812608e-01
3863=-9.178042e-03
3864=-1.011205e-01
3866=7.522441e-02
3867=2.245026e-02
3870=-1.018204e-03
3871=6.025652e-02
3872=-2.261714e-02
3874=3.656602e-02
3875=-1.006375e-03
3879=1.304142e-02
3880=-5.200294e-02
3882=6.749855e-02
3883=7.227720e-02
3887=1.371364e-02
3890=1.067241e-02
3891=-1.607769e-03
3895=-6.988941e-04
3898=-2.243445e-03
3903=2.035742e-02
3906=-1.029380e-02
3907=1.848770e-02
3911=1.668353e-03
3914=-9.917556e-03
3919=7.640619e-03
3922=2.124490e-02
3923=-8.289387e-02
3927=1.305797e-02
3930=-1.353723e-01
3931=1.802820e-01
3935=1.118725e-05
3938=1.947100e-01
3939=-1.799729e-01
3943=-2.201028e-02
3946=3.180642e-02
3947=-3.735656e-04
3951=-4.305159e-02
3954=2.124490e-02
3955=-8.289387e-02
3959=1.305797e-02
3962=-2.243445e-03
3967=2.035742e-02
3970=3.180642e-02
3971=-3.735656e-04
3975=-4.305159e-02
3978=1.331623e+00
3979=-1.140239e-02
3983=-4.650067e-02
3986=-2.243445e-03
3991=2.035742e-02
3992=-5.386244e-02
3994=3.901010e-02
3995=2.465760e-02
3999=2.963071e-02
4002=1.511332e-02
4003=1.132613e-02
4007=2.525311e-02
4010=3.180642e-02
4011=-3.735656e-04
4015=-4.305159e-02
4018=3.356370e-03
4019=-9.275194e-02
4023=7.383821e-03
4026=-3.833506e-05
4034=-5.560052e-02
4035=8.322301e-02
4039=3.839363e-03
4042=-2.622893e-02
4043=1.594772e-01
4047=3.031551e-02
4050=-3.582713e-01
4051=2.368826e-01
4052=1.262461e+00
4055=1.486176e-02
4058=-5.560052e-02
4059=8.322301e-02
4063=3.839363e-03
4066=-7.114305e-05
4071=2.751990e-04
4074=-6.033390e-04
4079=8.642822e-03
4082=1.415190e-02
4083=-7.416750e-02
4087=-6.822488e-03
4090=4.832238e-02
4091=3.105165e-02
4095=1.505374e-01
4098=1.012900e-02
4099=1.656924e-02
4103=2.301866e-02
4106=3.042932e-02
4107=4.288372e-03
4111=1.091210e-01
4119=4.102399e-04
4122=-5.202421e-04
4123=-4.328832e-02
4127=2.568635e-02
4130=3.971456e-03
4138=-1.441998e-02
4139=6.257541e-02
4143=2.333880e-02
4146=-1.441998e-02
4147=6.257541e-02
4151=2.333880e-02
4154=-2.862751e-05
4159=1.739017e-04
4162=1.367323e-03
4163=8.711679e-04
4167=-1.497981e-02
4170=3.158763e-02
4171=2.403685e-02
4175=1.087880e-01
4178=4.229064e-03
4186=1.957718e-03
4194=1.691050e-02
4199=-4.315316e-02
4202=4.838327e-03
4203=5.111277e-02
4207=-8.877253e-04
4210=2.178170e-02
4211=-1.067491e+00
4215=1.297743e-05
4218=1.878154e-02
4219=2.219609e-02
4223=-1.132461e-02
4226=1.155318e-01
4229=6.658350e-02
4230=-5.436039e-02
4231=-3.969250e-02
4234=4.314916e-02
4235=-1.152672e-01
4239=3.197370e-03
4242=-2.486878e-02
4243=7.483379e-02
4247=9.880073e-03
4250=1.155318e-01
4253=6.658350e-02
4254=-5.436039e-02
4255=-3.969250e-02
4258=3.529969e-02
4263=-2.821777e-03
4266=-2.486878e-02
4267=7.483379e-02
4271=9.880073e-03
4274=-1.180397e-01
4275=9.092890e-02
4279=1.160288e-02
4280=-8.497305e-02
4282=4.723089e-02
4283=6.837020e-02
4287=-1.531432e-03
4290=-2.158243e-03
4291=5.033812e-02
4295=4.405653e-05
4298=1.202978e-01
4299=-1.103159e-03
4303=5.922762e-02
4306=-2.486878e-02
4307=7.483379e-02
4311=9.880073e-03
4314=-3.728126e-02
4315=1.586380e-01
4319=2.574652e-02
4322=7.279955e-02
4323=-3.718074e-01
4327=1.211422e-03
4330=-5.368684e-03
4331=-5.308238e-02
4335=7.104410e-03
4338=-4.563445e-03
4339=6.877040e-04
4343=2.195374e-02
4346=7.279955e-02
4347=-3.718074e-01
4351=1.211422e-03
4354=3.710181e-02
4359=-6.673413e-03
4362=-3.819711e-02
4363=1.570099e-01
4367=2.595873e-02
4370=-4.563445e-03
4371=6.877040e-04
4375=2.195374e-02
4378=-3.071188e-02
4379=-7.548001e-01
4383=9.008406e-03
4386=-2.823713e-04
4387=3.932341e-02
4388=-7.925805e-02
4391=-5.850651e-04
4394=-4.563445e-03
4395=6.877040e-04
4399=2.195374e-02
4402=-2.231036e-02
4403=6.625289e-02
4407=2.338538e-02
4410=-2.326384e-02
4411=6.620526e-02
4415=2.031339e-02
4418=-2.109612e-02
4419=1.358405e-02
4423=1.590992e-02
4426=-1.120796e-02
4427=6.612506e-02
4431=1.918922e-02
4434=-2.774146e-02
4435=6.500936e-02
4439=2.040642e-02
4442=-1.120796e-02
4443=6.612506e-02
4447=1.918922e-02
4450=-2.280731e-01
4451=7.594155e-04
4458=-2.231036e-02
4459=6.625289e-02
4463=2.338538e-02
4466=-1.446650e-02
4467=6.609522e-02
4471=9.396442e-04
4474=-1.120796e-02
4475=6.612506e-02
4479=1.918922e-02
4482=1.029912e-01
4483=-2.434255e-01
4487=1.673107e-02
4490=3.143498e-02
4491=-1.450658e-01
4495=1.749149e-02
4498=-2.136768e-03
4499=1.455873e-02
4506=-2.136768e-03
4507=1.455873e-02
4514=1.029401e-01
4515=-2.453594e-01
4519=1.672884e-02
4523=1.893771e-03
4530=-6.679464e-02
4531=1.669677e-01
4535=1.424278e-02
4538=-2.375637e-02
4539=7.042739e-02
4543=-4.742094e-04
4546=-2.875144e-02
4547=6.647245e-02
4551=9.616348e-03
4554=-2.136768e-03
4555=1.455873e-02
4562=9.243335e-03
4563=1.577069e-03
4567=-6.640906e-03
4570=1.947226e-02
4571=-4.607228e-03
4575=-6.704200e-03
4578=2.319703e-03
4579=-1.083618e-02
4583=1.097002e-02
4586=6.740563e-02
4587=-2.137491e-02
4591=1.461124e-01
4594=4.850662e-02
4595=-3.956198e-02
4599=-6.102914e-03
4602=6.740563e-02
4603=-2.137491e-02
4607=1.461124e-01
4610=-1.605728e-05
4611=2.840892e-02
4618=3.351470e-01
4619=-1.873622e-03
4623=1.285333e-03
4626=-4.106423e-02
4627=1.049647e-01
4631=1.143337e-02
4634=-1.551940e-01
4635=9.962928e-02
4637=2.412300e-04
4639=1.469845e-03
4642=6.740563e-02
4643=-2.137491e-02
4647=1.461124e-01
4650=-1.032670e-01
4651=2.453091e-01
4658=-7.516082e-02
4659=1.782202e-01
4663=-4.664998e-02
4666=-4.517065e-03
4674=-5.540560e-02
