#mdl#2#5581
#rdr#61/19/0
1:*,
18:u:Tok-1 X=%x[ 0,0],
18:u:tok-1 X=%x[ 0,1],
18:u:tok-1LL=%X[-2,0],
18:u:tok-1 L=%X[-1,0],
18:u:tok-1 R=%X[ 1,0],
18:u:tok-1RR=%X[ 2,0],
27:u:tok-2 L=%X[-1,0]/%X[ 0,0],
27:u:tok-2 R=%X[ 0,0]/%X[ 1,0],
18:*:Fst-1 X=%x[ 0,2],
18:u:Fst-1 R=%x[ 1,2],
27:u:Fst-2 X=%x[ 0,2]/%x[ 0,4],
27:u:Fst-2 R=%x[ 1,2]/%x[ 1,4],
18:*:Lst-1 L=%x[-1,3],
18:u:Lst-1 X=%x[ 0,3],
27:u:Lst-2 L=%x[-1,3]/%x[-1,6],
27:u:Lst-2 X=%x[ 0,3]/%x[ 0,6],
18:u:Pre-1 X=%x[ 0,4],
18:u:Pre-2 X=%x[ 0,5],
18:u:Pre-2 R=%x[ 1,5],
18:u:Suf-1 X=%x[ 0,6],
18:u:Suf-2 L=%x[-1,7],
18:u:Suf-2 X=%x[ 0,7],
18:u:Cap-1 L=%x[-1,8],
18:u:Cap-1 X=%x[ 0,8],
18:u:Cap-1 R=%x[ 1,8],
27:u:Cap-2 L=%x[-1,8]/%x[ 0,8],
27:u:Cap-2 R=%x[ 0,8]/%x[ 1,8],
28:u:Cap-3 L=%x[-1,18]/%x[ 0,8],
18:*:Num-1 L=%x[-1,9],
18:*:Num-1 X=%x[ 0,9],
18:u:Num-1 R=%x[ 1,9],
28:u:Num-2 R=%x[ 0,9]/%x[ 0,17],
28:u:Num-2 R=%x[ 0,9]/%x[ 0,18],
19:u:Nme-1 X=%x[ 0,10],
19:u:Loc-1 X=%x[ 0,11],
19:u:Pub-1 X=%x[ 0,12],
19:u:Jnl-1 X=%x[ 0,13],
19:u:Key-1 L=%x[-1,14],
19:u:Key-1 X=%x[ 0,14],
19:u:Key-1 R=%x[ 1,14],
28:u:Key-2 X=%x[ 0,14]/%x[ 0,8],
29:u:Key-3 L=%x[-1,18]/%x[ 0,14],
29:u:Key-3 x=%x[ 0,14]/%x[ 0,18],
19:u:Pos-1 X=%x[ 0,15],
29:u:Pos-2 L=%x[-1,15]/%x[ 0,15],
29:u:Pos-2 R=%x[ 0,15]/%x[ 1,15],
19:u:Pct-1 L=%x[-1,16],
19:u:Pct-1 X=%x[ 0,16],
19:u:Pct-1 R=%x[ 1,16],
19:u:Brk-1 L=%x[-1,17],
19:u:Brk-1 X=%x[ 0,17],
19:u:Brk-1 R=%x[ 1,17],
19:*:Tmn-1 L=%x[-1,18],
19:u:Tmn-1 X=%x[ 0,18],
19:u:Tmn-1 R=%x[ 1,18],
29:u:Tmn-2 L=%x[-1,14]/%x[ 0,18],
29:u:Tmn-2 R=%x[ 0,18]/%x[ 1,14],
28:u:Tmn-3 X=%x[ 0,18]/%x[ 0,6],
28:u:Tmn-4 R=%x[ 0,18]/%x[ 1,8],
19:u:Id--1 X=%x[ 0,19],
#qrk#8
6:Author,
4:Year,
5:Title,
7:Journal,
6:Volume,
5:Issue,
10:Pagination,
4:Book,
#qrk#2547
1:*,
14:u:tok-1LL=_x-2,
14:u:tok-1 L=_x-1,
12:*:Fst-1 X=Lu,
12:u:Fst-1 R=Lu,
14:u:Fst-2 X=Lu/A,
14:u:Fst-2 R=Lu/R,
14:*:Lst-1 L=_x-1,
11:u:Lst-1 X=P,
19:u:Lst-2 L=_x-1/_x-1,
13:u:Lst-2 X=P/,,
11:u:Pre-1 X=A,
12:u:Pre-2 X=Ab,
11:u:Suf-1 X=,,
14:u:Suf-2 L=_x-1,
14:u:Cap-1 L=_x-1,
17:u:Cap-1 X=initial,
16:u:Cap-1 R=single,
22:u:Cap-2 L=_x-1/initial,
24:u:Cap-2 R=initial/single,
22:u:Cap-3 L=_x-1/initial,
14:*:Num-1 L=_x-1,
14:*:Num-1 X=none,
14:u:Num-1 R=none,
19:u:Num-2 R=none/none,
19:u:Num-2 R=none/weak,
11:u:Nme-1 X=T,
11:u:Loc-1 X=F,
11:u:Pub-1 X=F,
11:u:Jnl-1 X=F,
14:u:Key-1 L=_x-1,
14:u:Key-1 X=none,
14:u:Key-1 R=none,
22:u:Key-2 X=none/initial,
19:u:Key-3 L=_x-1/none,
19:u:Key-3 x=none/weak,
15:u:Pos-1 X=first,
20:u:Pos-2 L=_x-1/first,
14:u:Pct-1 L=_x-1,
15:u:Pct-1 X=other,
16:u:Pct-1 R=period,
14:u:Brk-1 L=_x-1,
14:u:Brk-1 X=none,
14:u:Brk-1 R=none,
14:*:Tmn-1 L=_x-1,
14:u:Tmn-1 X=weak,
16:u:Tmn-1 R=strong,
19:u:Tmn-2 L=_x-1/weak,
19:u:Tmn-2 R=weak/none,
16:u:Tmn-3 X=weak/,,
21:u:Tmn-4 R=weak/single,
11:u:Id--1 X=F,
14:u:tok-1LL=_x-1,
14:u:Fst-2 X=Lu/R,
14:u:Fst-2 R=Lu/T,
11:*:Lst-1 L=P,
13:u:Lst-2 L=P/,,
13:u:Lst-2 X=P/.,
11:u:Pre-1 X=R,
11:u:Suf-1 X=.,
12:u:Suf-2 L=t,,
17:u:Cap-1 L=initial,
16:u:Cap-1 X=single,
24:u:Cap-2 L=initial/single,
21:u:Cap-3 L=weak/single,
14:*:Num-1 L=none,
21:u:Num-2 R=none/strong,
11:u:Nme-1 X=F,
14:u:Key-1 L=none,
21:u:Key-2 X=none/single,
19:u:Key-3 L=weak/none,
21:u:Key-3 x=none/strong,
11:u:Pos-1 X=1,
13:u:Pos-2 R=1/1,
15:u:Pct-1 L=other,
16:u:Pct-1 X=period,
14:u:Brk-1 L=none,
14:*:Tmn-1 L=weak,
16:u:Tmn-1 X=strong,
21:u:Tmn-2 L=none/strong,
21:u:Tmn-2 R=strong/none,
18:u:Tmn-3 X=strong/.,
23:u:Tmn-4 R=strong/single,
13:u:tok-1RR=the,
11:u:Fst-1 R=N,
14:u:Fst-2 X=Lu/T,
13:u:Fst-2 R=N/1,
13:u:Lst-2 L=P/.,
11:u:Pre-1 X=T,
12:u:Pre-2 R=19,
16:u:Cap-1 L=single,
15:u:Cap-1 R=other,
14:u:Num-1 R=year,
21:u:Key-3 L=strong/none,
13:u:Pos-2 L=1/1,
13:u:Pos-2 R=1/2,
16:u:Pct-1 L=period,
14:u:Pct-1 R=none,
16:*:Tmn-1 L=strong,
14:u:Tmn-1 R=none,
22:u:Tmn-4 R=strong/other,
13:u:tok-1 R=the,
11:*:Fst-1 X=N,
13:u:Fst-2 X=N/1,
11:u:Lst-1 X=N,
11:u:Pre-1 X=1,
12:u:Pre-2 X=19,
12:u:Pre-2 R=Th,
15:u:Cap-1 X=other,
17:u:Cap-1 R=initial,
23:u:Cap-2 R=other/initial,
22:u:Cap-3 L=strong/other,
14:*:Num-1 X=year,
19:u:Num-2 R=year/none,
20:u:Key-2 X=none/other,
19:u:Key-3 x=none/none,
11:u:Pos-1 X=2,
13:u:Pos-2 L=1/2,
13:u:Pos-2 R=2/3,
14:u:Pct-1 X=none,
14:u:Tmn-1 X=none,
19:u:Tmn-2 L=none/none,
19:u:Tmn-2 R=none/none,
22:u:Tmn-4 R=none/initial,
13:u:Tok-1 X=The,
13:u:tok-1 X=the,
12:u:Fst-1 R=Ll,
14:u:Fst-2 R=Ll/f,
11:*:Lst-1 L=N,
12:u:Lst-1 X=Ll,
14:u:Lst-2 X=Ll/e,
12:u:Pre-2 X=Th,
12:u:Pre-2 R=fa,
11:u:Suf-1 X=e,
12:u:Suf-2 X=he,
15:u:Cap-1 L=other,
15:u:Cap-1 R=lower,
23:u:Cap-2 L=other/initial,
23:u:Cap-2 R=initial/lower,
22:u:Cap-3 L=none/initial,
14:*:Num-1 L=year,
11:u:Pub-1 X=T,
11:u:Jnl-1 X=T,
19:u:Key-3 L=none/none,
11:u:Pos-1 X=3,
13:u:Pos-2 L=2/3,
13:u:Pos-2 R=3/3,
14:u:Pct-1 L=none,
14:*:Tmn-1 L=none,
16:u:Tmn-3 X=none/e,
20:u:Tmn-4 R=none/lower,
13:u:tok-1 L=the,
12:u:tok-1RR=in,
12:*:Fst-1 X=Ll,
14:u:Fst-2 X=Ll/f,
14:u:Fst-2 R=Lu/V,
12:*:Lst-1 L=Ll,
14:u:Lst-2 L=Ll/e,
14:u:Lst-2 X=Ll/y,
11:u:Pre-1 X=f,
12:u:Pre-2 X=fa,
11:u:Suf-1 X=y,
12:u:Suf-2 L=he,
12:u:Suf-2 X=ly,
15:u:Cap-1 X=lower,
23:u:Cap-2 L=initial/lower,
23:u:Cap-2 R=lower/initial,
20:u:Cap-3 L=none/lower,
20:u:Key-2 X=none/lower,
13:u:Pos-2 L=3/3,
13:u:Pos-2 R=3/4,
16:u:Tmn-3 X=none/y,
13:u:tok-1LL=the,
16:u:tok-1 L=family,
12:u:tok-1 R=in,
14:u:Fst-2 X=Lu/V,
14:u:Fst-2 R=Ll/i,
14:u:Lst-2 L=Ll/y,
11:u:Pre-1 X=V,
12:u:Pre-2 R=in,
12:u:Suf-2 X=ae,
15:u:Cap-1 L=lower,
23:u:Cap-2 L=lower/initial,
12:u:Key-1 R=in,
11:u:Pos-1 X=4,
13:u:Pos-2 L=3/4,
13:u:Pos-2 R=4/5,
17:u:Tmn-2 R=none/in,
12:u:Tok-1 X=in,
12:u:tok-1 X=in,
14:u:Fst-2 X=Ll/i,
14:u:Fst-2 R=Ll/t,
14:u:Lst-2 X=Ll/n,
11:u:Pre-1 X=i,
12:u:Pre-2 X=in,
12:u:Pre-2 R=th,
11:u:Suf-1 X=n,
12:u:Suf-2 L=ae,
12:u:Suf-2 X=in,
21:u:Cap-2 R=lower/lower,
12:u:Key-1 X=in,
18:u:Key-2 X=in/lower,
17:u:Key-3 L=none/in,
17:u:Key-3 x=in/none,
11:u:Pos-1 X=5,
13:u:Pos-2 L=4/5,
13:u:Pos-2 R=5/5,
16:u:Tmn-3 X=none/n,
13:u:Tok-1 X=the,
12:u:tok-1 L=in,
22:u:tok-1 R=indo-pacific,
16:u:tok-2 L=in/the,
14:u:Fst-2 X=Ll/t,
14:u:Fst-2 R=Lu/I,
14:u:Lst-2 L=Ll/n,
11:u:Pre-1 X=t,
12:u:Pre-2 X=th,
12:u:Pre-2 R=In,
12:u:Suf-2 L=in,
21:u:Cap-2 L=lower/lower,
12:u:Key-1 L=in,
13:u:Pos-2 L=5/5,
13:u:Pos-2 R=5/6,
16:u:Pct-1 R=hyphen,
17:u:Tmn-2 L=in/none,
22:u:Tok-1 X=Indo-Pacific,
21:u:tok-1 X=indopacific,
12:u:tok-1LL=in,
18:u:tok-1RR=mollusca,
26:u:tok-2 L=the/indo-pacific,
35:u:tok-2 R=indo-pacific/indo-pacific,
14:u:Fst-2 X=Lu/I,
14:u:Lst-2 X=Ll/c,
11:u:Pre-1 X=I,
12:u:Pre-2 X=In,
11:u:Suf-1 X=c,
12:u:Suf-2 X=ic,
25:u:Cap-2 R=initial/initial,
11:u:Pos-1 X=6,
13:u:Pos-2 L=5/6,
13:u:Pos-2 R=6/7,
16:u:Pct-1 X=hyphen,
16:u:Tmn-3 X=none/c,
22:u:tok-1 L=indo-pacific,
18:u:tok-1 R=mollusca,
11:u:tok-1RR=1,
35:u:tok-2 L=indo-pacific/indo-pacific,
31:u:tok-2 R=indo-pacific/mollusca,
14:u:Fst-2 R=Lu/M,
14:u:Lst-2 L=Ll/c,
12:u:Pre-2 R=Mo,
12:u:Suf-2 L=ic,
25:u:Cap-2 L=initial/initial,
11:u:Pos-1 X=7,
13:u:Pos-2 L=6/7,
13:u:Pos-2 R=7/7,
16:u:Pct-1 L=hyphen,
18:u:tok-1 X=mollusca,
14:u:Fst-2 X=Lu/M,
14:u:Lst-2 X=Ll/a,
11:u:Pre-1 X=M,
12:u:Pre-2 X=Mo,
11:u:Suf-1 X=a,
12:u:Suf-2 X=ca,
23:u:Cap-2 R=initial/other,
16:u:Num-1 R=single,
13:u:Pos-2 L=7/7,
13:u:Pos-2 R=7/8,
16:u:Tmn-3 X=none/a,
20:u:Tmn-4 R=none/other,
11:u:Tok-1 X=1,
11:u:tok-1 X=1,
18:u:tok-1 L=mollusca,
14:u:Lst-2 L=Ll/a,
13:u:Lst-2 X=N/1,
11:u:Pre-2 X=1,
11:u:Suf-1 X=1,
12:u:Suf-2 L=ca,
11:u:Suf-2 X=1,
23:u:Cap-2 L=initial/other,
21:u:Cap-2 R=other/other,
20:u:Cap-3 L=none/other,
16:*:Num-1 X=single,
21:u:Num-2 R=single/none,
11:u:Pos-1 X=8,
13:u:Pos-2 L=7/8,
13:u:Pos-2 R=8/9,
16:u:Tmn-3 X=none/1,
18:u:tok-1LL=mollusca,
11:u:tok-1 L=1,
14:u:tok-1RR=_x+1,
13:u:Lst-2 L=N/1,
11:u:Suf-2 L=1,
21:u:Cap-2 L=other/other,
16:*:Num-1 L=single,
15:u:Num-1 R=range,
11:u:Pos-1 X=9,
13:u:Pos-2 L=8/9,
16:u:Pos-2 R=9/last,
14:u:tok-1 R=_x+1,
14:u:tok-1RR=_x+2,
14:u:Fst-1 R=_x+1,
19:u:Fst-2 R=_x+1/_x+1,
13:u:Lst-2 X=N/2,
14:u:Pre-2 R=_x+1,
11:u:Suf-1 X=2,
14:u:Cap-1 R=_x+1,
20:u:Cap-2 R=other/_x+1,
15:*:Num-1 X=range,
14:u:Num-1 R=_x+1,
20:u:Num-2 R=range/none,
14:u:Key-1 R=_x+1,
14:u:Pos-1 X=last,
16:u:Pos-2 L=9/last,
19:u:Pos-2 R=last/_x+1,
14:u:Pct-1 R=_x+1,
14:u:Brk-1 R=_x+1,
14:u:Tmn-1 R=_x+1,
19:u:Tmn-2 R=none/_x+1,
16:u:Tmn-3 X=none/2,
19:u:Tmn-4 R=none/_x+1,
14:u:Fst-2 R=Ll/g,
12:u:Pre-2 R=ge,
11:u:Fst-1 R=S,
14:u:Fst-2 X=Ll/g,
14:u:Lst-2 X=Ll/s,
11:u:Pre-1 X=g,
12:u:Pre-2 X=ge,
11:u:Suf-1 X=s,
12:u:Suf-2 X=us,
21:u:Cap-2 R=lower/other,
15:u:Pct-1 R=other,
16:u:Tmn-3 X=none/s,
15:u:tok-1 L=genus,
11:*:Fst-1 X=S,
13:u:Fst-2 X=S/<,
11:u:Lst-1 X=S,
14:u:Lst-2 L=Ll/s,
11:u:Pre-1 X=<,
12:u:Pre-2 X=<i,
12:u:Suf-2 L=us,
21:u:Cap-2 L=lower/other,
21:u:Cap-2 R=other/lower,
15:u:tok-1LL=genus,
11:*:Lst-1 L=S,
21:u:Cap-2 L=other/lower,
15:u:Brk-1 L=angle,
11:u:tok-1RR=2,
11:u:tok-1 R=2,
13:u:Fst-2 R=N/2,
11:u:Pre-2 R=2,
11:u:Tok-1 X=2,
13:u:Fst-2 X=N/2,
13:u:Fst-2 R=N/3,
11:u:Pre-1 X=2,
11:u:Pre-2 X=2,
11:u:Suf-2 X=2,
13:u:Fst-2 X=N/3,
11:u:Pre-1 X=3,
11:u:tok-1RR=3,
11:u:tok-1 L=3,
13:u:Lst-2 L=N/3,
13:u:Lst-2 X=N/4,
11:u:Suf-1 X=4,
11:u:Suf-2 L=3,
16:u:Tmn-3 X=none/4,
13:u:Lst-2 X=N/8,
11:u:Suf-1 X=8,
13:u:Pos-2 R=2/2,
16:u:Tmn-3 X=none/8,
14:u:Fst-2 R=Lu/H,
12:u:Pre-2 R=He,
13:u:Pos-2 L=2/2,
12:u:tok-1RR=of,
14:u:Fst-2 X=Lu/H,
14:u:Fst-2 R=Ll/s,
14:u:Lst-2 X=Ll/t,
11:u:Pre-1 X=H,
12:u:Pre-2 X=He,
11:u:Suf-1 X=t,
12:u:Suf-2 X=et,
16:u:Tmn-3 X=none/t,
12:u:tok-1 R=of,
14:u:Fst-2 X=Ll/s,
14:u:Fst-2 R=Ll/o,
14:u:Lst-2 L=Ll/t,
11:u:Pre-1 X=s,
12:u:Pre-2 R=of,
12:u:Suf-2 X=ls,
12:u:Tok-1 X=of,
12:u:tok-1 X=of,
16:u:tok-2 R=of/the,
14:u:Fst-2 X=Ll/o,
14:u:Lst-2 X=Ll/f,
11:u:Pre-1 X=o,
12:u:Pre-2 X=of,
11:u:Suf-1 X=f,
12:u:Suf-2 L=ls,
12:u:Suf-2 X=of,
13:u:Pos-2 R=4/4,
16:u:Tmn-3 X=none/f,
12:u:tok-1 L=of,
16:u:tok-2 L=of/the,
14:u:Fst-2 R=Ll/w,
14:u:Lst-2 L=Ll/f,
12:u:Suf-2 L=of,
13:u:Pos-2 L=4/4,
12:u:tok-1LL=of,
12:u:Fst-1 R=Ps,
14:u:Fst-2 X=Ll/w,
14:u:Fst-2 R=Ps/(,
14:u:Lst-2 X=Ll/d,
11:u:Pre-1 X=w,
12:u:Pre-2 R=(C,
11:u:Suf-1 X=d,
12:u:Suf-2 X=ld,
16:u:Brk-1 R=parens,
16:u:Tmn-3 X=none/d,
12:*:Fst-1 X=Ps,
14:u:Fst-2 X=Ps/(,
14:u:Fst-2 R=Lu/P,
14:u:Lst-2 L=Ll/d,
11:u:Pre-1 X=(,
12:u:Pre-2 R=Pa,
12:u:Suf-2 L=ld,
21:u:Num-2 R=none/parens,
13:u:Pos-2 R=6/6,
16:u:Brk-1 X=parens,
24:u:Tmn-4 R=strong/initial,
14:u:Fst-2 X=Lu/P,
11:u:Pre-1 X=P,
12:u:Pre-2 X=Pa,
12:u:Suf-2 L=),,
12:u:Suf-2 X=rt,
24:u:Cap-3 L=strong/initial,
13:u:Pos-2 L=6/6,
16:u:Brk-1 L=parens,
13:u:Pos-2 R=8/8,
13:u:Fst-2 R=N/9,
13:u:Pos-2 L=8/8,
13:u:Fst-2 R=N/7,
13:u:Fst-2 X=N/7,
11:u:Pre-1 X=7,
12:u:Suf-2 X=01,
14:u:Fst-2 R=Lu/F,
12:u:Suf-2 X=y,,
17:u:Pos-2 R=first/0,
14:u:Fst-2 X=Lu/F,
14:u:Fst-2 R=Lu/A,
11:u:Pre-1 X=F,
12:u:Suf-2 L=y,,
11:u:tok-1 X=a,
12:u:Pre-2 R=20,
13:u:tok-1 R=new,
14:u:Fst-2 R=Lu/N,
12:u:Pre-2 X=20,
12:u:Pre-2 R=Ne,
13:u:Tok-1 X=New,
13:u:tok-1 X=new,
17:u:tok-1RR=species,
14:u:Fst-2 X=Lu/N,
14:u:Fst-2 R=Ll/r,
11:u:Pre-1 X=N,
12:u:Pre-2 X=Ne,
12:u:Pre-2 R=re,
12:u:Suf-2 X=ew,
13:u:tok-1 L=new,
17:u:tok-1 R=species,
14:u:Fst-2 X=Ll/r,
14:u:Lst-2 L=Ll/w,
11:u:Pre-1 X=r,
12:u:Pre-2 X=re,
12:u:Pre-2 R=sp,
12:u:Suf-2 L=ew,
12:u:Suf-2 X=ed,
17:u:Tok-1 X=species,
17:u:tok-1 X=species,
13:u:tok-1LL=new,
12:u:Pre-2 X=sp,
12:u:Suf-2 L=ed,
12:u:Suf-2 X=es,
17:u:tok-1 L=species,
13:u:tok-1RR=and,
12:u:Pre-2 R=Ma,
12:u:Suf-2 L=es,
17:u:tok-1LL=species,
13:u:tok-1 R=and,
14:u:Fst-2 R=Ll/a,
12:u:Pre-2 X=Ma,
12:u:Pre-2 R=an,
13:u:Key-1 R=and,
18:u:Tmn-2 R=none/and,
13:u:Tok-1 X=and,
13:u:tok-1 X=and,
14:u:Fst-2 X=Ll/a,
11:u:Pre-1 X=a,
12:u:Pre-2 X=an,
12:u:Suf-2 X=nd,
13:u:Key-1 X=and,
19:u:Key-2 X=and/lower,
18:u:Key-3 L=none/and,
18:u:Key-3 x=and/none,
13:u:tok-1 L=and,
12:u:Suf-2 L=nd,
13:u:Key-1 L=and,
15:u:Pct-1 R=colon,
23:u:Brk-1 R=opening-paren,
18:u:Tmn-1 R=moderate,
18:u:Tmn-2 L=and/none,
13:u:tok-1LL=and,
14:u:tok-1RR=from,
13:u:Lst-2 X=P/:,
12:u:Pre-2 R=Po,
11:u:Suf-1 X=:,
28:u:Num-2 R=none/opening-paren,
23:u:Num-2 R=none/moderate,
23:u:Key-3 x=none/moderate,
15:u:Pct-1 X=colon,
23:u:Brk-1 X=opening-paren,
23:u:Brk-1 R=closing-paren,
18:u:Tmn-1 X=moderate,
23:u:Tmn-2 L=none/moderate,
23:u:Tmn-2 R=moderate/none,
20:u:Tmn-3 X=moderate/:,
26:u:Tmn-4 R=moderate/initial,
11:u:Id--1 X=T,
14:u:tok-1 R=from,
12:u:Lst-1 X=Pe,
13:u:Lst-2 L=P/:,
14:u:Lst-2 X=Pe/),
12:u:Pre-2 X=Po,
12:u:Pre-2 R=fr,
11:u:Suf-1 X=),
12:u:Suf-2 L=a:,
26:u:Cap-3 L=moderate/initial,
28:u:Num-2 R=none/closing-paren,
23:u:Key-3 L=moderate/none,
15:u:Pct-1 L=colon,
23:u:Brk-1 L=opening-paren,
23:u:Brk-1 X=closing-paren,
18:*:Tmn-1 L=moderate,
18:u:Tmn-3 X=strong/),
22:u:Tmn-4 R=strong/lower,
14:u:Tok-1 X=from,
14:u:tok-1 X=from,
14:u:Fst-2 R=Lu/E,
12:*:Lst-1 L=Pe,
14:u:Lst-2 L=Pe/),
14:u:Lst-2 X=Ll/m,
12:u:Pre-2 X=fr,
11:u:Suf-1 X=m,
12:u:Suf-2 L=a),
12:u:Suf-2 X=om,
22:u:Cap-3 L=strong/lower,
23:u:Brk-1 L=closing-paren,
16:u:Tmn-3 X=none/m,
14:u:tok-1 L=from,
14:u:Fst-2 X=Lu/E,
14:u:Fst-2 R=Lu/B,
14:u:Lst-2 L=Ll/m,
11:u:Pre-1 X=E,
12:u:Pre-2 R=Ba,
12:u:Suf-2 L=om,
12:u:Suf-2 X=na,
14:u:Tmn-1 R=weak,
14:u:tok-1LL=from,
14:u:Fst-2 X=Lu/B,
11:u:Pre-1 X=B,
12:u:Pre-2 X=Ba,
12:u:Pre-2 R=Me,
12:u:Suf-2 L=na,
11:u:Loc-1 X=T,
19:u:Tmn-2 L=none/weak,
22:u:Tmn-4 R=weak/initial,
23:u:Tok-1 X=Mediterranean,
23:u:tok-1 X=mediterranean,
14:u:Fst-2 R=Ll/c,
12:u:Pre-2 X=Me,
12:u:Pre-2 R=co,
12:u:Suf-2 X=an,
22:u:Cap-3 L=weak/initial,
15:u:tok-1 X=coast,
23:u:tok-1 L=mediterranean,
14:u:Fst-2 X=Ll/c,
11:u:Pre-1 X=c,
12:u:Pre-2 X=co,
12:u:Suf-2 L=an,
12:u:Suf-2 X=st,
23:u:tok-1LL=mediterranean,
15:u:tok-1 L=coast,
12:u:Suf-2 L=st,
15:u:Tok-1 X=Egypt,
15:u:tok-1LL=coast,
12:u:tok-1RR=j.,
12:u:Suf-2 X=pt,
12:u:tok-1 R=j.,
14:u:Fst-2 R=Lu/J,
12:u:Pre-2 R=J.,
12:u:Suf-2 X=t.,
12:u:Tok-1 X=J.,
11:u:tok-1 X=j,
14:u:Fst-2 X=Lu/J,
11:u:Pre-1 X=J,
12:u:Pre-2 X=J.,
12:u:Suf-2 L=t.,
12:u:Suf-2 X=J.,
24:u:Cap-2 R=single/initial,
12:u:Pre-2 X=Aq,
12:u:Pre-2 R=Bi,
24:u:Cap-2 L=single/initial,
14:u:tok-1 X=biol,
12:u:tok-1LL=j.,
12:u:Pre-2 X=Bi,
12:u:Pre-2 R=Fi,
12:u:Suf-2 X=l.,
12:u:Suf-2 L=l.,
12:u:Suf-2 X=h.,
16:u:Num-1 R=double,
13:u:Pos-2 R=9/9,
12:u:Suf-2 L=h.,
16:*:Num-1 X=double,
21:u:Num-2 R=double/none,
13:u:Pos-2 L=9/9,
11:u:Tok-1 X=4,
11:u:tok-1 X=4,
13:u:Fst-2 X=N/4,
11:u:Pre-1 X=4,
11:u:Pre-2 X=4,
11:u:Suf-2 X=4,
16:*:Num-1 L=double,
11:u:tok-1 L=4,
13:u:Lst-2 L=N/4,
11:u:Suf-2 L=4,
17:u:tok-1 R=records,
12:u:Suf-2 X=ds,
12:u:Suf-2 L=ds,
14:u:Fst-2 R=Ll/p,
14:u:Lst-2 X=Ll/h,
12:u:Pre-2 R=pa,
11:u:Suf-1 X=h,
12:u:Suf-2 X=th,
16:u:Tmn-3 X=none/h,
14:u:Fst-2 X=Ll/p,
14:u:Lst-2 L=Ll/h,
11:u:Pre-1 X=p,
12:u:Pre-2 X=pa,
12:u:Suf-2 L=th,
14:u:Fst-2 R=Lu/S,
14:u:Fst-2 X=Lu/S,
14:u:Fst-2 R=Lu/C,
11:u:Pre-1 X=S,
12:u:Pre-2 X=Su,
12:u:Pre-2 R=Ca,
15:u:tok-1 X=canal,
14:u:tok-1 L=suez,
14:u:Fst-2 X=Lu/C,
14:u:Lst-2 L=Ll/z,
11:u:Pre-1 X=C,
12:u:Pre-2 X=Ca,
12:u:Suf-2 L=ez,
14:u:tok-1LL=suez,
14:u:Fst-2 R=Lu/W,
14:u:Fst-2 X=Lu/W,
11:u:Pre-1 X=W,
21:u:Tmn-4 R=none/single,
14:u:tok-1RR=mar.,
21:u:Cap-3 L=none/single,
14:u:tok-1 R=mar.,
14:u:tok-1RR=sci.,
12:u:Suf-2 X=sh,
12:u:Pre-2 R=Sc,
12:u:Suf-2 X=r.,
12:u:Pre-2 X=Sc,
17:u:Num-1 R=numeric,
22:u:Cap-2 R=initial/_x+1,
17:*:Num-1 X=numeric,
22:u:Num-2 R=numeric/none,
14:u:Fst-2 R=Lu/G,
14:u:Fst-2 X=Lu/G,
11:u:Pre-1 X=G,
12:u:Suf-2 X=a,,
12:u:Suf-2 L=a,,
14:u:Cap-1 R=caps,
21:u:Tmn-4 R=strong/caps,
12:u:tok-1 X=af,
14:u:Cap-1 X=caps,
21:u:Cap-3 L=strong/caps,
19:u:Key-2 X=none/caps,
14:u:Cap-1 L=caps,
21:u:Cap-2 L=caps/single,
13:u:Lst-2 X=N/7,
11:u:Suf-1 X=7,
16:u:Tmn-3 X=none/7,
14:u:tok-1LL=2007,
12:u:Pre-2 R=Pe,
12:u:Pre-2 X=Pe,
12:u:Suf-2 X=ia,
12:u:Pre-2 R=Pr,
12:u:Suf-2 L=ia,
12:u:Pre-2 X=Pr,
12:u:Suf-2 X=ea,
14:u:Fst-2 R=Lu/D,
12:u:Pre-2 R=Do,
12:u:Suf-2 L=ea,
14:u:Fst-2 X=Lu/D,
11:u:Pre-1 X=D,
12:u:Suf-2 X=e),
12:u:Suf-2 L=e),
14:u:Fst-2 R=Ll/e,
14:u:Fst-2 X=Ll/e,
14:u:Fst-2 R=Ll/h,
11:u:Pre-1 X=e,
12:u:Suf-2 X=rn,
14:u:Fst-2 X=Ll/h,
14:u:Lst-2 X=Ll/r,
11:u:Pre-1 X=h,
11:u:Suf-1 X=r,
12:u:Suf-2 L=rn,
16:u:Tmn-3 X=none/r,
17:u:tok-1LL=eastern,
14:u:Lst-2 L=Ll/r,
12:u:Pre-2 R=Al,
12:u:Pre-2 X=Al,
14:u:tok-1 R=soc.,
12:u:Pre-2 X=Ge,
12:u:Pre-2 R=So,
14:u:Fst-2 R=Lu/Z,
12:u:Pre-2 X=So,
12:u:Pre-2 R=Zo,
14:u:Fst-2 X=Lu/Z,
11:u:Pre-1 X=Z,
12:u:Pre-2 X=Zo,
12:u:Suf-2 X=.,,
15:u:Num-1 R=roman,
15:u:tok-1RR=zool.,
12:u:Lst-1 X=Lu,
12:u:Suf-2 L=.,,
15:*:Num-1 X=roman,
20:u:Num-2 R=roman/none,
12:*:Lst-1 L=Lu,
15:*:Num-1 L=roman,
13:u:Fst-2 R=N/5,
22:u:Num-2 R=ordinal/none,
17:*:Num-1 L=ordinal,
22:u:Cap-2 R=initial/caps,
19:u:Tmn-4 R=weak/caps,
22:u:Cap-2 L=initial/caps,
22:u:Cap-2 R=caps/initial,
19:u:Cap-3 L=weak/caps,
12:u:Pre-2 X=Sa,
12:u:Suf-2 X=n,,
22:u:Cap-2 L=caps/initial,
12:u:Suf-2 L=n,,
12:u:tok-1LL=g.,
12:u:Pre-2 X=Eu,
12:u:Pre-2 R=An,
12:u:Suf-2 X=e,,
12:u:Pre-2 X=An,
12:u:Suf-2 L=e,,
20:u:Tmn-4 R=weak/lower,
12:u:Pre-2 R=Ex,
20:u:Cap-3 L=weak/lower,
12:u:Pre-2 X=Ex,
13:u:tok-1RR=for,
12:u:Pre-2 R=Sy,
12:u:Pre-2 X=fo,
12:u:Suf-2 X=or,
13:u:tok-1 L=for,
13:u:tok-1LL=for,
27:u:tok-2 L=the/mediterranean,
12:u:Pre-2 R=Co,
12:u:Pre-2 X=Co,
12:u:Suf-2 X=ts,
12:u:Suf-2 L=ts,
12:u:Pre-2 R=To,
12:u:Suf-2 X=er,
12:u:Pre-2 R=De,
12:u:Suf-2 L=er,
13:u:tok-1RR=one,
12:u:Pre-2 X=De,
12:u:Suf-2 X=on,
14:u:Fst-2 R=Lu/O,
12:u:Suf-2 L=on,
14:u:Fst-2 X=Lu/O,
11:u:Pre-1 X=O,
12:u:Suf-2 X=ne,
12:u:Pre-2 R=Sp,
12:u:Suf-2 L=ne,
17:u:tok-1RR=science,
14:u:Fst-2 R=Lu/L,
12:u:Pre-2 X=Sp,
12:u:Pre-2 R=Li,
17:u:tok-1 R=science,
17:u:tok-1RR=journal,
14:u:Fst-2 X=Lu/L,
11:u:Pre-1 X=L,
17:u:tok-1 R=journal,
12:u:Pre-2 R=Jo,
12:u:Suf-2 X=ce,
17:u:Key-1 R=journal,
22:u:Tmn-2 R=none/journal,
17:u:Tok-1 X=Journal,
17:u:tok-1 X=journal,
11:u:tok-1 R=7,
14:u:Lst-2 X=Ll/l,
11:u:Pre-2 R=7,
11:u:Suf-1 X=l,
12:u:Suf-2 L=ce,
12:u:Suf-2 X=al,
17:u:Key-1 X=journal,
25:u:Key-2 X=journal/initial,
22:u:Key-3 L=none/journal,
22:u:Key-3 x=journal/none,
16:u:Tmn-3 X=none/l,
11:u:Tok-1 X=7,
11:u:tok-1 X=7,
17:u:tok-1 L=journal,
14:u:Lst-2 L=Ll/l,
11:u:Pre-2 X=7,
12:u:Suf-2 L=al,
11:u:Suf-2 X=7,
17:u:Key-1 L=journal,
22:u:Tmn-2 L=journal/none,
12:u:Pre-2 R=wi,
12:u:Pre-2 X=wi,
14:u:Fst-2 R=Ll/d,
12:u:Pre-2 R=de,
14:u:Fst-2 X=Ll/d,
11:u:Pre-1 X=d,
12:u:Pre-2 X=de,
14:u:Fst-2 R=Ll/n,
14:u:Lst-2 X=Ll/o,
12:u:Pre-2 R=ne,
11:u:Suf-1 X=o,
16:u:Tmn-3 X=none/o,
14:u:Fst-2 X=Ll/n,
14:u:Lst-2 L=Ll/o,
11:u:Pre-1 X=n,
12:u:Pre-2 X=ne,
16:u:tok-1RR=marine,
16:u:tok-1 R=marine,
16:u:Tok-1 X=Marine,
16:u:tok-1 X=marine,
16:u:tok-1 L=marine,
16:u:tok-1LL=marine,
16:u:tok-1RR=report,
20:u:Cap-2 R=caps/other,
16:u:tok-1 R=report,
12:u:Pre-2 R=Re,
20:u:Cap-2 L=caps/other,
16:u:Key-1 R=report,
21:u:Tmn-2 R=none/report,
16:u:Tok-1 X=Report,
16:u:tok-1 X=report,
12:u:Pre-2 X=Re,
12:u:Suf-2 L=27,
16:u:Key-1 X=report,
24:u:Key-2 X=report/initial,
21:u:Key-3 x=report/none,
16:u:tok-1LL=report,
14:u:Fst-2 R=Ll/b,
12:u:Pre-2 R=bi,
16:u:tok-1 R=survey,
14:u:Fst-2 X=Ll/b,
11:u:Pre-1 X=b,
12:u:Pre-2 X=bi,
12:u:Pre-2 R=su,
19:u:tok-2 R=survey/of,
12:u:Pre-2 X=su,
16:u:tok-1 L=survey,
19:u:tok-2 L=survey/of,
12:u:Pre-2 R=Mu,
12:u:Suf-2 L=ey,
16:u:tok-1LL=survey,
14:u:Lst-2 X=Ll/u,
12:u:Pre-2 X=Mu,
11:u:Suf-1 X=u,
16:u:Tmn-3 X=none/u,
12:u:tok-1RR=on,
12:u:Pre-2 R=No,
24:u:Num-2 R=numeric/strong,
12:u:Pre-2 X=No,
17:*:Num-1 L=numeric,
12:u:tok-1 X=on,
16:u:tok-2 R=on/the,
12:u:tok-1 L=on,
15:u:tok-1RR=fauna,
16:u:tok-2 L=on/the,
12:u:tok-1LL=on,
15:u:tok-1 R=fauna,
12:u:Pre-2 X=pr,
15:u:Tok-1 X=fauna,
15:u:tok-1 X=fauna,
15:u:tok-1 L=fauna,
15:u:tok-1LL=fauna,
12:u:tok-1 R=i.,
12:u:Pre-2 R=I.,
12:u:Suf-2 X=I.,
22:u:Num-2 R=roman/strong,
17:u:tok-1RR=reports,
12:u:Suf-2 L=I.,
12:u:Suf-2 X=s.,
12:u:tok-1LL=i.,
12:u:Suf-2 L=s.,
12:u:Pre-2 X=Im,
20:u:tok-1 X=university,
14:u:Fst-2 X=Lu/U,
11:u:Pre-1 X=U,
12:u:Pre-2 X=Un,
12:u:Pre-2 R=Se,
16:u:Key-1 R=series,
12:u:Pre-2 X=Se,
16:u:Key-1 X=series,
24:u:Key-2 X=series/initial,
21:u:Key-3 x=series/none,
21:u:tok-1LL=university,,
16:u:tok-1 L=series,
17:u:tok-1RR=383-438,
18:u:tok-2 L=series/4,
13:u:tok-2 R=4/2,
16:u:Key-1 L=series,
21:u:Tmn-2 L=series/none,
16:u:tok-1LL=series,
17:u:tok-1 R=383-438,
13:u:tok-2 L=4/2,
19:u:tok-2 R=2/383-438,
12:u:Pre-2 R=38,
13:u:Lst-2 L=N/6,
15:u:Key-1 X=roman,
20:u:Key-2 X=roman/caps,
22:u:Key-3 x=roman/strong,
15:u:Key-1 L=roman,
12:u:Pre-2 R=Ar,
12:u:Suf-2 L=m:,
18:u:tok-1 L=subgenus,
12:u:Pre-2 X=Ar,
12:u:Suf-2 X=m.,
17:u:tok-1RR=biology,
12:u:Pre-2 X=Fo,
17:u:tok-1 R=biology,
12:u:Pre-2 R=10,
12:u:Suf-2 L=s,,
12:u:Suf-2 L=gy,
13:u:Fst-2 R=N/6,
12:u:Suf-2 X=da,
12:u:tok-1 L=1.,
12:u:Suf-2 L=1.,
12:u:tok-1LL=1.,
12:u:Pre-2 X=Di,
12:u:Pre-2 R=gr,
12:u:Suf-2 X=is,
12:u:Pre-2 X=gr,
12:u:Suf-2 L=is,
23:u:tok-1RR=oceanographic,
23:u:tok-1 R=oceanographic,
23:u:Tok-1 X=Oceanographic,
23:u:tok-1 X=oceanographic,
23:u:tok-1 L=oceanographic,
12:u:Pre-2 R=Ja,
12:u:Pre-2 X=Ja,
15:u:tok-1 L=japan,
12:u:Pre-2 R=Ra,
12:u:Tok-1 X=S.,
11:u:tok-1 X=s,
12:u:Pre-2 X=S.,
12:u:Suf-2 X=S.,
14:u:Key-1 X=page,
21:u:Key-2 X=page/single,
21:u:Key-3 x=page/strong,
12:u:Pre-2 R=Vi,
12:u:Pre-2 X=Vi,
12:u:Suf-2 X=te,
23:u:Brk-1 R=opening-angle,
12:u:Suf-2 L=te,
28:u:Num-2 R=none/opening-angle,
23:u:Brk-1 X=opening-angle,
23:u:Brk-1 R=closing-angle,
28:u:Num-2 R=none/closing-angle,
23:u:Brk-1 L=opening-angle,
23:u:Brk-1 X=closing-angle,
23:u:Brk-1 L=closing-angle,
14:u:Lst-2 X=Ll/g,
11:u:Suf-1 X=g,
12:u:Suf-2 X=ng,
16:u:Tmn-3 X=none/g,
14:u:Lst-2 L=Ll/g,
12:u:Suf-2 L=ng,
18:u:tok-1 R=european,
18:u:Tok-1 X=European,
18:u:tok-1 X=european,
12:u:Pre-2 R=wa,
16:u:tok-1 X=waters,
12:u:Pre-2 X=wa,
12:u:Suf-2 X=rs,
18:u:tok-1LL=european,
12:u:Suf-2 L=rs,
16:u:Num-1 R=triple,
12:u:Suf-2 L=re,
16:*:Num-1 X=triple,
21:u:Num-2 R=triple/none,
16:*:Num-1 L=triple,
12:u:Pre-2 R=18,
12:u:Pre-2 X=18,
12:u:Suf-2 X=ns,
12:u:Pre-2 R=no,
12:u:Suf-2 L=ns,
12:u:Pre-2 X=no,
12:u:Suf-2 X=to,
21:u:tok-1RR=proceedings,
12:u:Suf-2 L=to,
21:u:tok-1 R=proceedings,
21:u:Key-1 R=proceedings,
26:u:Tmn-2 R=none/proceedings,
21:u:Tok-1 X=Proceedings,
21:u:tok-1 X=proceedings,
12:u:Suf-2 X=gs,
21:u:Key-1 X=proceedings,
29:u:Key-2 X=proceedings/initial,
26:u:Key-3 L=none/proceedings,
26:u:Key-3 x=proceedings/none,
20:u:tok-1 R=zoological,
20:u:Tok-1 X=Zoological,
20:u:tok-1 X=zoological,
20:u:tok-1 L=zoological,
12:u:Suf-2 X=ty,
20:u:tok-1LL=zoological,
12:u:Suf-2 L=ty,
12:u:Pre-2 X=Lo,
22:u:Num-2 R=numeric/weak,
14:u:Fst-2 R=Lu/Y,
12:u:Pre-2 X=Ac,
14:u:Fst-2 X=Lu/Y,
11:u:Pre-1 X=Y,
22:u:tok-1 R=distribution,
22:u:tok-1 X=distribution,
12:u:Pre-2 X=Gr,
12:u:Suf-2 L=>.,
12:u:Suf-2 X=ay,
12:u:Suf-2 L=ay,
13:u:tok-1RR=sea,
13:u:tok-1 R=sea,
13:u:Tok-1 X=Sea,
13:u:tok-1 X=sea,
13:u:tok-1 L=sea,
17:u:tok-2 R=and/the,
13:u:tok-1LL=sea,
17:u:tok-2 L=and/the,
16:u:tok-1 R=israel,
12:u:Pre-2 R=Is,
16:u:Tok-1 X=Israel,
16:u:tok-1 X=israel,
30:u:tok-2 L=mediterranean/israel,
24:u:tok-2 R=israel/journal,
12:u:Pre-2 X=Is,
16:u:tok-1 L=israel,
20:u:tok-2 R=journal/of,
12:u:Suf-2 L=el,
17:u:tok-1 R=zoology,
20:u:tok-2 L=journal/of,
12:u:Suf-2 X=la,
12:u:Suf-2 L=la,
12:u:Pre-2 X=Tu,
12:u:Pre-2 R=(e,
11:u:tok-1RR=a,
11:u:tok-1 R=a,
11:u:Pre-2 R=a,
11:u:Tok-1 X=a,
11:u:Pre-2 X=a,
11:u:Suf-2 X=a,
11:u:tok-1 L=a,
11:u:Suf-2 L=a,
11:u:tok-1LL=a,
17:u:tok-1 R=cahiers,
12:u:tok-1RR=de,
12:u:tok-1 R=de,
12:u:Tok-1 X=de,
12:u:tok-1 X=de,
12:u:Suf-2 X=de,
12:u:tok-1 L=de,
12:u:tok-1RR=52,
12:u:Suf-2 L=de,
12:u:Suf-2 X=ie,
12:u:tok-1LL=de,
12:u:Suf-2 L=ie,
13:u:tok-1RR=sur,
13:u:tok-1RR=les,
14:u:Fst-2 R=Ll/l,
14:u:Fst-2 X=Ll/l,
11:u:Pre-1 X=l,
13:u:tok-1 L=les,
12:u:Suf-2 X=s:,
24:u:Tmn-4 R=moderate/other,
12:u:Suf-2 L=s:,
24:u:Cap-3 L=moderate/other,
20:u:Tmn-4 R=weak/other,
12:u:tok-1RR=la,
20:u:Cap-3 L=weak/other,
28:u:Num-2 R=year/closing-paren,
21:u:Num-2 R=year/strong,
12:u:Pre-2 R=la,
12:u:Tok-1 X=la,
12:u:tok-1 X=la,
12:u:Pre-2 X=la,
12:u:tok-1 L=la,
12:u:Pre-2 R=be,
12:u:Pre-2 X=be,
12:u:Suf-2 X=ge,
14:u:Fst-2 X=Ps/[,
11:u:Pre-1 X=[,
12:u:Suf-2 L=ge,
12:u:Pre-2 R=Be,
18:u:tok-1RR=bulletin,
21:u:tok-2 L=the/belgian,
12:u:Pre-2 X=Be,
32:u:Brk-1 R=closing-square-bracket,
17:u:tok-1 L=belgian,
12:u:tok-1RR=du,
14:u:Lst-2 X=Pe/],
12:u:Pre-2 R=Bu,
11:u:Suf-1 X=],
37:u:Num-2 R=none/closing-square-bracket,
32:u:Brk-1 X=closing-square-bracket,
24:u:Tmn-2 R=strong/journal,
18:u:Tmn-3 X=strong/],
17:u:tok-1LL=belgian,
12:u:tok-1 R=du,
14:u:Lst-2 L=Pe/],
12:u:Pre-2 X=Bu,
12:u:Pre-2 R=du,
24:u:Key-3 L=strong/journal,
12:u:Tok-1 X=du,
12:u:tok-1 X=du,
15:u:tok-1RR=royal,
12:u:Pre-2 X=du,
12:u:Suf-2 X=du,
12:u:tok-1 L=du,
15:u:tok-1 R=royal,
12:u:Suf-2 L=du,
12:u:tok-1LL=du,
19:u:tok-1RR=naturelle,
19:u:tok-1 R=naturelle,
12:u:Pre-2 R=Na,
19:u:Tok-1 X=Naturelle,
19:u:tok-1 X=naturelle,
12:u:Pre-2 X=Na,
12:u:Suf-2 X=le,
11:u:tok-1RR=-,
12:u:Suf-2 L=le,
12:u:Suf-2 X=ue,
15:u:tok-1 X=BLANK,
12:*:Fst-1 X=Pd,
14:u:Fst-2 X=Pd/-,
12:u:Lst-1 X=Pd,
14:u:Lst-2 X=Pd/-,
11:u:Pre-1 X=-,
11:u:Suf-1 X=-,
12:u:Suf-2 L=ue,
16:u:Tmn-3 X=weak/-,
11:u:tok-1 L=-,
13:u:tok-1 R=van,
14:u:Fst-2 R=Ll/v,
12:*:Lst-1 L=Pd,
14:u:Lst-2 L=Pd/-,
12:u:Pre-2 R=va,
11:u:Suf-2 L=-,
12:u:Suf-2 X=en,
13:u:Tok-1 X=van,
13:u:tok-1 X=van,
14:u:Fst-2 X=Ll/v,
11:u:Pre-1 X=v,
12:u:Pre-2 X=va,
12:u:Suf-2 L=en,
13:u:tok-1 X=het,
13:u:tok-1 L=van,
14:u:Fst-2 R=Lu/K,
12:u:Pre-2 R=Ko,
16:u:tok-1RR=museum,
14:u:Fst-2 X=Lu/K,
14:u:Lst-2 X=Ll/k,
11:u:Pre-1 X=K,
12:u:Pre-2 X=Ko,
11:u:Suf-1 X=k,
16:u:Tmn-3 X=none/k,
14:u:Lst-2 L=Ll/k,
12:u:Suf-2 X=ch,
16:u:tok-1 X=museum,
12:u:Suf-2 L=ch,
12:u:Suf-2 X=um,
12:u:Suf-2 L=um,
16:u:tok-1 X=belgie,
12:u:tok-1RR=43,
14:u:Pos-2 R=9/10,
12:u:Pos-1 X=10,
17:u:Pos-2 R=10/last,
13:u:Fst-2 X=N/0,
11:u:Pre-1 X=0,
12:u:Suf-2 X=ar,
12:u:Pre-2 X=Le,
12:u:Suf-2 X=E.,
12:u:Suf-2 L=E.,
12:u:Pre-2 R=Cr,
12:u:Pre-2 X=Cr,
12:u:Suf-2 X=ta,
12:u:Suf-2 L=ta,
15:u:tok-1 R=bull.,
15:u:Tok-1 X=Bull.,
14:u:tok-1 X=bull,
14:u:tok-1 R=mus.,
12:u:Suf-2 X=n.,
12:u:Suf-2 L=n.,
15:u:Tok-1 X=Belg.,
14:u:tok-1 X=belg,
13:u:Lst-2 X=N/5,
11:u:Suf-1 X=5,
16:u:Tmn-3 X=none/5,
12:u:Pre-2 X=K.,
12:u:Suf-2 X=r,,
12:u:Pre-2 R=Gu,
12:u:Suf-2 L=r,,
12:u:Pre-2 X=Wi,
12:u:Pre-2 R=N.,
16:u:Key-1 R=volume,
12:u:Pre-2 X=N.,
16:u:Key-1 X=volume,
16:u:Key-1 L=volume,
12:u:tok-1RR=an,
12:u:Pre-2 R=Ec,
12:u:Pre-2 X=Ec,
12:u:Suf-2 X=dy,
12:u:Suf-2 L=dy,
15:u:tok-1LL=sandy,
15:u:tok-1LL=beach,
12:u:Suf-2 X=K.,
12:u:Pre-2 X=Ze,
17:u:tok-1 L=zealand,
25:u:tok-2 R=zealand/journal,
12:u:Pre-2 R=25,
12:u:Suf-2 X=nt,
12:u:Suf-2 L=nt,
12:u:Suf-2 X=me,
12:u:Suf-2 L=me,
12:u:Pre-2 R=As,
12:u:Pre-2 X=As,
12:u:Pre-2 R=Ph,
12:u:Pre-2 X=Ph,
14:u:Lst-2 X=Ll/i,
11:u:Suf-1 X=i,
16:u:Tmn-3 X=none/i,
14:u:Lst-2 L=Ll/i,
12:u:Suf-2 X=xa,
12:u:Pre-2 X=Cl,
12:u:Suf-2 X=cs,
12:u:Suf-2 L=cs,
12:u:Suf-2 X=oa,
11:*:Fst-1 X=P,
12:u:Pre-2 X=Ku,
17:u:tok-1 X=islands,
12:u:tok-1LL=by,
19:u:Tmn-4 R=none/caps,
14:u:Lst-2 X=Lu/A,
11:u:Suf-1 X=A,
20:u:Cap-2 R=caps/lower,
19:u:Cap-3 L=none/caps,
16:u:Tmn-3 X=none/A,
14:u:Lst-2 L=Lu/A,
20:u:Cap-2 L=caps/lower,
19:u:tok-1 X=crustacea,
18:u:tok-1RR=tropical,
18:u:tok-1 R=tropical,
18:u:tok-1RR=deep-sea,
12:u:Pre-2 R=Tr,
18:u:Tok-1 X=Tropical,
18:u:tok-1 X=tropical,
18:u:tok-1 R=deep-sea,
17:u:tok-1RR=benthos,
27:u:tok-2 R=tropical/deep-sea,
12:u:Pre-2 X=Tr,
17:u:tok-1 X=deepsea,
17:u:tok-1 R=benthos,
26:u:tok-2 R=deep-sea/benthos,
19:u:tok-1RR=m„©moires,
26:u:tok-2 L=deep-sea/benthos,
12:u:Suf-2 X=os,
19:u:tok-1 R=m„©moires,
13:u:Pre-2 R=M√©,
12:u:Suf-2 L=os,
19:u:Tok-1 X=M√©moires,
18:u:tok-1 X=memoires,
12:u:tok-1 L=27,
17:u:tok-1RR=mus„©um,
13:u:Pre-2 X=M√©,
19:u:tok-1 L=m„©moires,
18:u:tok-1RR=national,
19:u:tok-1LL=m„©moires,
12:u:Pre-2 R=na,
12:u:Pre-2 X=(1,
13:u:Fst-2 R=N/8,
11:u:tok-1RR=&,
11:u:Tok-1 X=&,
13:u:Fst-2 X=P/&,
13:u:Lst-2 X=P/&,
11:u:Pre-1 X=&,
11:u:Pre-2 X=&,
12:u:Pre-2 R=H.,
11:u:Suf-1 X=&,
11:u:Suf-2 X=&,
20:u:Cap-2 R=other/caps,
19:u:Key-2 X=and/other,
13:u:Pct-1 X=amp,
16:u:Tmn-3 X=none/&,
11:u:tok-1 L=&,
13:u:Lst-2 L=P/&,
12:u:Pre-2 X=H.,
11:u:Suf-2 L=&,
13:u:Pct-1 L=amp,
11:u:tok-1LL=&,
12:u:Pre-2 R=ch,
12:u:Pre-2 X=ch,
12:u:Suf-2 X=ry,
12:u:Suf-2 L=ry,
12:u:Pre-2 R=vo,
12:u:Pre-2 R=Da,
18:u:tok-1RR=dodonaea,
12:u:tok-1RR=63,
14:u:Tok-1 X=2001,
14:u:tok-1LL=2001,
24:u:Tmn-4 R=moderate/lower,
24:u:Cap-3 L=moderate/lower,
14:u:Fst-2 R=Ll/m,
12:u:Pre-2 R=mo,
14:u:Fst-2 X=Ll/m,
11:u:Pre-1 X=m,
12:u:Pre-2 X=mo,
12:u:Pre-2 X=Ha,
12:u:tok-1RR=47,
22:u:Cap-2 R=single/lower,
22:u:Cap-2 L=single/lower,
12:u:Suf-2 X=va,
12:u:Suf-2 X=hy,
12:u:Suf-2 L=hy,
17:u:tok-1 X=belgium,
12:u:Pre-2 R=to,
12:u:tok-1 L=to,
12:u:tok-1LL=to,
12:u:Suf-2 X=as,
12:u:Suf-2 L=as,
12:u:tok-1RR=26,
12:u:Pre-2 R=Ta,
12:u:Pre-2 X=Ta,
12:u:Suf-2 X=28,
12:u:Suf-2 L=28,
12:u:Pre-2 X=We,
23:u:tok-1 X=investigacion,
17:u:tok-1LL=western,
12:u:Suf-2 X=ra,
12:u:Suf-2 L=ra,
13:u:Suf-2 X=√≥n,
12:u:Suf-2 X=6),
12:u:Pre-2 R=Fl,
16:u:tok-1 R=gloria,
15:u:tok-1RR=maris,
16:u:Tok-1 X=Gloria,
16:u:tok-1 X=gloria,
15:u:tok-1 R=maris,
22:u:tok-2 R=gloria/maris,
12:u:Pre-2 X=Gl,
12:u:Pre-2 R=Fa,
12:u:Pre-2 X=Fa,
12:u:Pre-2 R=Mi,
21:u:tok-1 R=zeitschrift,
13:u:tok-1RR=der,
13:u:tok-1 L=der,
11:u:tok-1RR=6,
13:u:tok-1LL=der,
12:u:Pre-2 X=C.,
18:u:tok-1 X=invasive,
12:u:Pre-2 R=as,
12:u:Suf-2 X=ve,
18:u:tok-1 L=invasive,
12:u:Pre-2 X=as,
12:u:Suf-2 L=ve,
18:u:tok-1LL=invasive,
14:u:Lst-2 X=Ll/p,
11:u:Suf-1 X=p,
16:u:Tmn-3 X=none/p,
14:u:Lst-2 L=Ll/p,
12:u:Suf-2 L=ar,
12:u:Pre-2 X=Bo,
18:u:tok-1 X=porifera,
12:u:Pre-2 R=La,
12:u:Pre-2 X=La,
19:u:tok-2 R=of/marine,
19:u:tok-2 L=of/marine,
18:u:tok-1RR=research,
18:u:tok-1 R=research,
18:u:tok-1 L=research,
12:u:Pre-2 X=Pl,
19:u:tok-1 X=caledonia,
20:u:tok-1RR=r„©sultats,
20:u:tok-1 R=r„©sultats,
13:u:tok-1RR=des,
13:u:Pre-2 R=R√©,
20:u:Tok-1 X=R√©sultats,
19:u:tok-1 X=resultats,
13:u:tok-1 R=des,
19:u:tok-1RR=campagnes,
24:u:tok-2 R=r„©sultats/des,
13:u:Pre-2 X=R√©,
13:u:Tok-1 X=des,
13:u:tok-1 X=des,
20:u:tok-1 L=r„©sultats,
19:u:tok-1 R=campagnes,
19:u:tok-1RR=musorstom,
24:u:tok-2 L=r„©sultats/des,
23:u:tok-2 R=des/campagnes,
19:u:Tok-1 X=Campagnes,
19:u:tok-1 X=campagnes,
20:u:tok-1LL=r„©sultats,
13:u:tok-1 L=des,
12:u:tok-1RR=21,
23:u:tok-2 L=des/campagnes,
29:u:tok-2 R=campagnes/musorstom,
19:u:tok-1 X=musorstom,
13:u:tok-1LL=des,
19:u:tok-1 L=campagnes,
29:u:tok-2 L=campagnes/musorstom,
14:u:Lst-2 X=Lu/M,
12:u:Pre-2 R=21,
11:u:Suf-1 X=M,
16:u:Tmn-3 X=none/M,
19:u:tok-1LL=campagnes,
19:u:tok-1 L=musorstom,
14:u:Lst-2 L=Lu/M,
12:u:Pre-2 X=21,
12:u:Suf-2 L=OM,
16:u:tok-1 R=s„©rie,
13:u:Pre-2 R=S√©,
12:u:Suf-2 X=e.,
12:u:Pre-2 R=Ri,
12:u:Pre-2 R=ar,
12:u:Pre-2 X=ar,
12:u:Suf-2 X=a.,
12:u:Suf-2 L=a.,
12:u:Pre-2 R=En,
14:u:Lst-2 X=Ll/x,
11:u:Suf-1 X=x,
16:u:Tmn-3 X=none/x,
14:u:Lst-2 L=Ll/x,
16:u:tok-1 L=genera,
16:u:tok-1LL=genera,
14:u:tok-1 X=1991,
12:u:Suf-2 L=ya,
12:u:Suf-2 X=ha,
15:u:tok-1 X=ocean,
12:u:Pre-2 R=Ch,
12:u:Pre-2 X=Ch,
12:u:Suf-2 X=).,
12:u:Suf-2 L=).,
11:u:tok-1RR=8,
12:u:Pre-2 X=02,
23:u:Key-3 x=volume/strong,
21:u:Tmn-2 L=volume/none,
15:u:tok-2 R=de/la,
15:u:tok-2 L=de/la,
20:u:Cap-2 R=lower/caps,
20:u:Cap-2 L=lower/caps,
12:u:tok-1 L=en,
20:u:tok-2 R=the/marine,
12:u:Pre-2 R=ma,
16:u:Tok-1 X=marine,
20:u:tok-2 L=the/marine,
12:u:Pre-2 X=ma,
12:u:Suf-2 L=):,
14:u:Tok-1 X=Ann.,
13:u:tok-1 X=ann,
12:u:tok-1RR=42,
12:u:Suf-2 X=v.,
12:u:Suf-2 L=v.,
14:u:tok-1LL=rev.,
12:u:tok-1 L=42,
12:u:Suf-2 L=42,
14:u:Key-1 R=date,
13:u:tok-1 X=nov,
14:u:Key-1 X=date,
20:u:Key-2 X=date/lower,
14:u:Key-1 L=date,
12:u:Suf-2 L=ck,
12:u:Suf-2 X=em,
12:u:Suf-2 L=em,
13:u:tok-1LL=dem,
11:u:tok-1RR=i,
11:u:tok-1 R=i,
11:u:Tok-1 X=I,
14:u:tok-1 R=mem.,
14:u:Lst-2 X=Lu/I,
11:u:Pre-2 X=I,
11:u:Suf-1 X=I,
11:u:Suf-2 X=I,
16:u:Tmn-3 X=none/I,
13:u:tok-1 X=mem,
11:u:tok-1 L=i,
14:u:Lst-2 L=Lu/I,
11:u:Suf-2 L=I,
11:u:tok-1LL=i,
12:u:Pre-2 R=Ve,
12:u:Pre-2 X=Ve,
12:u:Tok-1 X=De,
12:u:Suf-2 X=De,
17:u:Tok-1 X=Pacific,
17:u:tok-1 X=pacific,
17:u:tok-1LL=pacific,
17:u:tok-1 R=zootaxa,
16:u:tok-1 L=visaya,
12:u:Suf-2 X=h,,
12:u:Suf-2 L=h,,
12:u:Pre-2 R=Br,
12:u:Pre-2 X=Br,
12:u:Pre-2 R=Cu,
11:u:Key-1 L=F,
21:u:Tmn-2 R=none/volume,
21:u:Key-3 L=none/volume,
12:u:Pre-2 X=Es,
12:u:Pre-2 X=Ho,
12:u:Pre-2 R=Ki,
12:u:Pre-2 X=Ki,
12:u:Pre-2 X=Os,
12:u:Pre-2 R=Pu,
12:u:Pre-2 X=Pu,
12:u:Pre-2 R=Ti,
12:u:Pre-2 X=Ti,
14:u:Fst-2 R=Lu/X,
12:u:Pre-2 R=Wa,
12:u:Pre-2 X=Wa,
15:u:Pos-2 R=10/10,
15:u:Pos-2 L=10/10,
19:u:tok-1RR=diversity,
19:u:Tok-1 X=Diversity,
19:u:tok-1 X=diversity,
12:u:tok-1RR=23,
12:u:Pre-2 R=23,
12:u:Pre-2 R=Ac,
14:u:Tok-1 X=Acta,
14:u:tok-1 X=acta,
12:u:Pre-2 X=sc,
12:u:Pre-2 X=VI,
12:u:Suf-2 X=14,
18:u:Tok-1 X=Taxonomy,
18:u:tok-1 X=taxonomy,
12:u:Suf-2 X=my,
18:u:tok-1 L=taxonomy,
12:u:Suf-2 L=my,
18:u:tok-1LL=taxonomy,
12:u:Pre-2 X=Te,
21:u:tok-1RR=association,
21:u:tok-1 R=association,
21:u:Tok-1 X=Association,
21:u:tok-1 X=association,
21:u:tok-1 L=association,
21:u:tok-1LL=association,
12:u:Suf-2 X=89,
12:u:Pre-2 X=Hi,
15:*:Num-1 L=range,
23:u:Tmn-2 L=volume/strong,
12:u:tok-1RR=13,
14:u:tok-1 L=west,
23:u:tok-1 R=hydrobiologia,
12:u:Pre-2 R=Hy,
12:u:Pre-2 X=At,
12:u:Pre-2 X=Ce,
13:u:tok-1 L=von,
22:u:tok-1 R=zoologischer,
18:u:tok-1RR=anzeiger,
13:u:tok-1LL=von,
13:u:tok-1LL=den,
16:u:tok-1 R=kieler,
27:u:tok-1RR=meeresforschungen,
16:u:Tok-1 X=Kieler,
16:u:tok-1 X=kieler,
16:u:tok-1 L=kieler,
13:u:tok-1RR=und,
19:u:tok-2 R=der/nord-,
13:u:tok-1 L=und,
12:u:Suf-2 X=ee,
12:u:Suf-2 L=ee,
22:u:tok-1RR=abhandlungen,
22:u:tok-1 R=abhandlungen,
12:u:Pre-2 R=Ab,
14:u:tok-1RR=f„ºr,
13:u:tok-1 X=fur,
20:u:tok-1 R=mikrofauna,
20:u:Tok-1 X=Mikrofauna,
20:u:tok-1 X=mikrofauna,
22:u:tok-1 R=meeresbodens,
12:u:Pre-2 R=fi,
12:u:Pre-2 X=fi,
12:u:Pre-2 R=af,
12:u:Pre-2 X=af,
22:u:Cap-2 L=lower/single,
12:u:Suf-2 X=95,
15:u:tok-1LL=alien,
19:u:tok-1 R=crustacea,
19:u:Tok-1 X=Crustacea,
19:u:Num-2 R=year/weak,
13:u:Suf-2 X=√©s,
12:u:Suf-2 X=ux,
12:u:Suf-2 L=ux,
28:u:tok-1LL=m„©diterran„©ennes,
12:u:tok-1RR=et,
12:u:tok-1 L=et,
12:u:tok-1LL=et,
15:u:tok-1RR=inst.,
15:u:tok-1 R=inst.,
12:u:Suf-2 X=f.,
12:u:Suf-2 X=oi,
12:u:Suf-2 L=oi,
12:u:Suf-2 X=ii,
21:u:tok-1 X=philippines,
14:u:tok-1 R=mars,
14:u:tok-1 X=mars,
14:u:tok-1 X=1976,
14:u:tok-1 L=mars,
12:u:tok-1LL=le,
21:u:tok-1 R=d‚¥histoire,
30:u:tok-2 R=national/d‚¥histoire,
13:u:Pre-2 R=d¬¥,
21:u:Tok-1 X=d¬¥Histoire,
12:u:tok-1RR=91,
30:u:tok-2 L=national/d‚¥histoire,
31:u:tok-2 R=d‚¥histoire/naturelle,
13:u:Pre-2 X=d¬¥,
21:u:tok-1 L=d‚¥histoire,
12:u:tok-1 R=91,
17:u:tok-1RR=261-276,
31:u:tok-2 L=d‚¥histoire/naturelle,
22:u:tok-2 R=naturelle/91,
12:u:Pre-2 R=91,
20:u:Key-3 L=none/roman,
14:u:tok-1RR=tome,
20:u:Key-3 x=roman/none,
21:u:tok-1RR=philippines,
21:u:tok-1 R=philippines,
21:u:Tok-1 X=Philippines,
21:u:tok-1 L=philippines,
21:u:tok-1LL=philippines,
24:u:Key-2 X=volume/initial,
21:u:Key-3 x=volume/none,
12:u:Tok-1 X=NE,
12:u:tok-1 X=ne,
14:u:Lst-2 X=Lu/E,
12:u:Pre-2 X=NE,
11:u:Suf-1 X=E,
12:u:Suf-2 X=NE,
16:u:Tmn-3 X=none/E,
12:u:tok-1 L=ne,
14:u:Lst-2 L=Lu/E,
12:u:Suf-2 L=NE,
15:u:tok-1RR=revue,
12:u:tok-1RR=30,
12:u:Pre-2 R=At,
18:u:tok-1 X=atlantic,
14:u:tok-1 R=cah.,
14:u:Tok-1 X=Cah.,
13:u:tok-1 X=cah,
20:u:tok-2 R=cah./biol.,
12:u:Suf-2 X=gh,
19:u:tok-1 X=australia,
12:u:Pre-2 X=Au,
15:u:Tok-1 X=Ocean,
17:u:Tok-1 X=British,
17:u:tok-1 X=british,
14:u:Lst-2 X=Ll/√,
12:u:Pre-2 R=l',
11:u:Suf-1 X=√,
16:u:Tmn-3 X=none/√,
12:u:Pre-2 X=l',
20:u:tok-1LL=musorstom,,
14:u:tok-1 L=vol.,
14:u:tok-1LL=vol.,
21:u:Num-2 R=year/parens,
16:u:tok-1 X=island,
28:u:Key-3 L=strong/proceedings,
20:u:tok-1RR=washington,
20:u:tok-1 R=washington,
23:u:tok-2 R=of/washington,
20:u:Tok-1 X=Washington,
20:u:tok-1 X=washington,
23:u:tok-2 L=of/washington,
15:u:tok-1RR=1976),
15:u:tok-1 R=1976),
20:u:tok-2 R=mars/1976),
15:u:Tok-1 X=1976),
20:u:tok-2 L=mars/1976),
12:u:Pre-2 R=Ea,
15:u:tok-1 L=canal,
12:u:Suf-2 X=pr,
19:u:tok-2 L=of/israel,
12:u:Suf-2 X=se,
12:u:Pre-2 R=Cy,
23:u:tok-1RR=international,
23:u:tok-1 R=international,
23:u:Tok-1 X=International,
23:u:tok-1 X=international,
23:u:tok-1 L=international,
23:u:tok-1LL=international,
20:u:Tok-1 X=Systematic,
20:u:tok-1 X=systematic,
22:u:tok-1 R=parasitology,
33:u:tok-2 R=systematic/parasitology,
18:u:tok-1RR=atlantic,
18:u:tok-1 R=atlantic,
18:u:Tok-1 X=Atlantic,
17:u:tok-1 X=abyssal,
18:u:tok-1 L=atlantic,
18:u:tok-1LL=atlantic,
17:u:tok-1 L=abyssal,
13:u:Lst-2 X=P/",
11:u:Suf-1 X=",
13:u:Lst-2 L=P/",
20:u:Tmn-3 X=moderate/",
17:u:Tok-1 X=Abyssal,
15:u:tok-1LL=r.v.",
15:u:tok-1 L=vema",
14:u:tok-1RR=vema,
23:u:tok-2 L=vema"/abyssal,
27:u:tok-2 R=abyssal/crustacea,
12:u:Suf-2 L=a",
15:u:tok-1LL=vema",
14:u:tok-1 R=vema,
27:u:tok-2 L=abyssal/crustacea,
24:u:tok-2 R=crustacea/vema,
15:u:Tok-1 X=Fauna,
12:u:Pre-2 R=1-,
12:u:Pre-2 X=1-,
12:u:Pre-2 X=Sk,
14:u:tok-1 L=area,
18:u:tok-1RR=sciences,
18:u:tok-1 R=sciences,
22:u:tok-2 R=des/sciences,
18:u:Tok-1 X=Sciences,
18:u:tok-1 X=sciences,
18:u:tok-1 L=sciences,
18:u:tok-1LL=sciences,
15:u:Tok-1 X=Proc.,
14:u:tok-1 X=proc,
21:u:tok-2 R=bulletin/de,
21:u:tok-2 L=bulletin/de,
20:u:tok-1RR=zoologique,
17:u:tok-1 X=societe,
15:u:Lst-2 X=Ll/√©,
12:u:Suf-1 X=√©,
13:u:Suf-2 X=t√©,
17:u:Tmn-3 X=none/√©,
15:u:tok-1 L=north,
15:u:tok-1LL=north,
18:u:tok-1RR=register,
18:u:tok-1 R=register,
27:u:tok-2 R=european/register,
18:u:tok-1 X=register,
27:u:tok-2 L=european/register,
21:u:tok-2 R=register/of,
18:u:tok-1 L=register,
18:u:tok-1RR=species:,
21:u:tok-2 L=register/of,
18:u:tok-1LL=register,
20:u:tok-2 R=species/in,
20:u:tok-2 L=species/in,
16:u:tok-1 X=europe,
16:u:tok-1 L=europe,
15:u:tok-1 X=their,
16:u:tok-1LL=guides,
18:u:tok-2 L=to/their,
12:u:Suf-2 X=ir,
24:u:tok-1 X=identification,
15:u:tok-1 L=their,
21:u:tok-1RR=patrimoines,
12:u:Pre-2 X=id,
12:u:Suf-2 L=ir,
15:u:tok-1LL=their,
12:u:tok-1RR=50,
12:u:Pre-2 R=Ka,
12:u:Pre-2 X=Ka,
26:u:Num-2 R=numeric/moderate,
12:u:tok-1LL=1:,
20:u:tok-1RR=l'institut,
20:u:tok-1 R=l'institut,
23:u:tok-2 R=de/l'institut,
20:u:Tok-1 X=l'Institut,
19:u:tok-1 X=linstitut,
23:u:tok-2 L=de/l'institut,
25:u:tok-1 X=oceanographique,
12:u:Suf-2 L=co,
30:u:tok-2 L=their/identification,
24:u:tok-1 L=identification,
12:u:Tok-1 X=La,
12:u:Suf-2 X=La,
16:u:tok-1RR=nature,
16:u:tok-1 R=nature,
17:u:tok-1RR=belgium,
17:u:tok-1 R=belgium,
17:u:Tmn-2 L=in/weak,
17:u:Tok-1 X=Belgium,
17:u:tok-1 L=belgium,
17:u:tok-1LL=belgium,
16:u:tok-1 R=fishes,
12:u:Suf-2 L=ms,
18:u:tok-2 R=the/gulf,
14:u:Tok-1 X=Gulf,
14:u:tok-1LL=gulf,
19:u:tok-1 R=fisheries,
19:u:tok-1 X=lacademie,
12:u:Pre-2 R=9-,
12:u:Suf-2 X=1),
16:u:tok-1 L=norway,
14:u:tok-1RR=res.,
12:u:Pre-2 R=Dr,
12:u:Pre-2 X=Dr,
26:u:tok-2 R=l'institut/royal,
12:u:Pre-2 R=se,
12:u:Pre-2 X=se,
12:u:Suf-2 X=.),
12:u:Suf-2 L=.),
12:u:Suf-2 X=no,
14:u:tok-1RR=ges.,
12:u:Pre-2 R=Af,
16:u:tok-1 X=africa,
12:u:Pre-2 X=Af,
16:u:Tok-1 X=Annals,
16:u:tok-1 X=annals,
16:u:tok-1 L=annals,
12:u:Suf-2 X=ep,
12:u:Suf-2 L=ep,
12:u:Pre-2 X=Sm,
22:u:tok-1RR=biodiversity,
22:u:Tok-1 X=Biodiversity,
22:u:tok-1 X=biodiversity,
22:u:tok-1 L=biodiversity,
12:u:tok-1RR=14,
19:u:tok-1 R=algologie,
12:u:Suf-2 X='s,
12:u:Suf-2 L='s,
12:u:Suf-2 L=ow,
17:u:tok-1 R=coastal,
17:u:Tok-1 X=Coastal,
17:u:tok-1LL=coastal,
19:u:Tok-1 X=Thalassia,
19:u:tok-1 X=thalassia,
12:u:Suf-2 X=rk,
16:u:tok-1RR=marina,
16:u:tok-1 R=marina,
15:u:Tok-1 X=Kungl,
15:u:tok-1 X=kungl,
22:u:tok-1LL=schwedischen,
21:u:tok-1 L=westk„ºste.,
23:u:tok-1 R=fysiografiska,
22:u:tok-1RR=s„§llskapets,
27:u:tok-2 L=westk„ºste./kungl,
29:u:tok-2 R=kungl/fysiografiska,
12:u:Suf-2 X=gl,
12:u:Suf-2 X=ka,
11:u:Pre-2 R=i,
12:u:Suf-2 L=ka,
11:u:Tok-1 X=i,
11:u:Pre-2 X=i,
12:u:Pre-2 R=Lu,
11:u:Suf-2 X=i,
12:u:Pre-2 X=Lu,
17:u:tok-1 L=ulvales,
22:u:tok-1RR=capsosiphon,,
22:u:tok-2 L=ulvales/part,
17:u:tok-2 R=part/i.,
17:u:tok-1LL=ulvales,
22:u:tok-1 R=capsosiphon,,
22:u:tok-1RR=percursaria,,
17:u:tok-2 L=part/i.,
25:u:tok-2 R=i./capsosiphon,,
22:u:Tok-1 X=Capsosiphon,,
21:u:tok-1 X=capsosiphon,
22:u:tok-1 R=percursaria,,
20:u:tok-1RR=blidingia,,
25:u:tok-2 L=i./capsosiphon,,
35:u:tok-2 R=capsosiphon,/percursaria,,
22:u:Tok-1 X=Percursaria,,
21:u:tok-1 X=percursaria,
22:u:tok-1 L=capsosiphon,,
20:u:tok-1 R=blidingia,,
23:u:tok-1RR=enteromorpha.,
35:u:tok-2 L=capsosiphon,/percursaria,,
33:u:tok-2 R=percursaria,/blidingia,,
20:u:Tok-1 X=Blidingia,,
19:u:tok-1 X=blidingia,
22:u:tok-1LL=capsosiphon,,
22:u:tok-1 L=percursaria,,
23:u:tok-1 R=enteromorpha.,
15:u:tok-1RR=opera,
33:u:tok-2 L=percursaria,/blidingia,,
34:u:tok-2 R=blidingia,/enteromorpha.,
23:u:Tok-1 X=Enteromorpha.,
22:u:tok-1LL=percursaria,,
20:u:tok-1 L=blidingia,,
15:u:tok-1 R=opera,
34:u:tok-2 L=blidingia,/enteromorpha.,
29:u:tok-2 R=enteromorpha./opera,
12:u:Suf-2 L=lt,
19:u:tok-1RR=catalogue,
11:u:tok-1RR==,
11:u:tok-1 R==,
13:u:Fst-2 R=S/=,
11:u:Pre-2 R==,
19:u:tok-1 R=documents,
19:u:Tok-1 X=Documents,
19:u:tok-1 X=documents,
12:u:Suf-2 X=n:,
12:u:Suf-2 L=n:,
12:u:Pre-2 R=im,
12:u:Pre-2 X=im,
20:u:tok-2 R=in/belgian,
20:u:tok-2 L=in/belgian,
22:u:Tok-1 X=Mediterraneo,
22:u:tok-1 X=mediterraneo,
12:u:Suf-2 X=eo,
20:u:tok-1 R=bollettino,
22:u:tok-1RR=malacologico,
20:u:Tok-1 X=Bollettino,
20:u:tok-1 X=bollettino,
22:u:tok-1 R=malacologico,
33:u:tok-2 R=bollettino/malacologico,
20:u:tok-1 R=conchiglia,
23:u:tok-2 R=la/conchiglia,
12:u:Pre-2 R=dy,
12:u:Pre-2 X=dy,
21:u:tok-1 L=environment,
12:u:Pre-2 R=ec,
12:u:Pre-2 X=ec,
14:u:tok-1LL=5-10,
13:u:tok-1 L=may,
15:u:tok-1 R=31-33,
18:u:tok-2 L=may/2001,
20:u:tok-2 R=2001/31-33,
14:u:Tok-1 X=VLIZ,
14:u:tok-1 X=vliz,
15:u:tok-1 R=young,
21:u:tok-1RR=scientists',
20:u:tok-2 R=vliz/young,
14:u:Lst-2 X=Lu/Z,
12:u:Pre-2 X=VL,
12:u:Pre-2 R=Yo,
11:u:Suf-1 X=Z,
12:u:Suf-2 X=IZ,
16:u:Tmn-3 X=none/Z,
21:u:tok-1 R=scientists',
14:u:tok-1RR=day,,
12:u:Pre-2 X=Yo,
20:u:tok-1 X=scientists,
19:u:tok-1 L=abstracts,
17:u:tok-1 R=special,
21:u:tok-1RR=publication,
24:u:tok-2 L=abstracts/vliz,
22:u:tok-2 R=vliz/special,
18:u:tok-1 L=bahamas.,
27:u:tok-2 L=bahamas./bulletin,
18:u:tok-1LL=bahamas.,
13:u:tok-1 R=in:,
13:u:Tok-1 X=In:,
20:u:Key-2 X=in/initial,
21:u:Key-3 x=in/moderate,
13:u:tok-1 L=in:,
13:u:tok-1LL=in:,
16:u:Key-1 R=editor,
16:u:Key-1 X=editor,
23:u:Key-3 x=editor/strong,
16:u:Key-1 L=editor,
21:u:Tmn-2 L=editor/none,
12:u:Suf-2 L=O.,
13:u:Lst-2 X=P/?,
11:u:Suf-1 X=?,
16:u:Tmn-3 X=weak/?,
13:u:Lst-2 L=P/?,
12:u:Suf-2 X=6,,
12:u:Suf-2 L=6,,
18:u:tok-1RR=porifera,
21:u:tok-2 R=taxonomy/of,
18:u:tok-1 R=porifera,
21:u:tok-2 L=taxonomy/of,
21:u:tok-2 R=of/porifera,
18:u:Tok-1 X=Porifera,
21:u:tok-2 L=of/porifera,
23:u:tok-2 R=porifera/from,
18:u:tok-1 L=porifera,
14:u:tok-1RR=n.e.,
23:u:tok-2 L=porifera/from,
18:u:tok-1LL=porifera,
14:u:tok-1 R=n.e.,
18:u:tok-2 R=the/n.e.,
14:u:Tok-1 X=N.E.,
18:u:tok-2 L=the/n.e.,
23:u:tok-2 R=n.e./atlantic,
14:u:tok-1 L=n.e.,
23:u:tok-2 L=n.e./atlantic,
22:u:tok-2 R=atlantic/and,
14:u:tok-1LL=n.e.,
22:u:tok-2 L=atlantic/and,
14:u:tok-1RR=nato,
14:u:tok-1 R=nato,
18:u:tok-1RR=advanced,
12:u:Pre-2 R=NA,
14:u:Tok-1 X=NATO,
14:u:tok-1 X=nato,
18:u:tok-1 R=advanced,
23:u:tok-2 R=nato/advanced,
14:u:Lst-2 X=Lu/O,
12:u:Pre-2 X=NA,
11:u:Suf-1 X=O,
12:u:Suf-2 X=TO,
16:u:Tmn-3 X=none/O,
20:u:tok-1LL=ecological,
17:u:tok-1 X=ecology,
13:u:tok-1RR=jb.,
13:u:tok-1 R=jb.,
12:u:Pre-2 R=Jb,
22:u:tok-1RR=oceanography,
22:u:Tok-1 X=Oceanography,
22:u:tok-1 X=oceanography,
19:u:Tmn-2 R=none/date,
12:u:Pre-2 R=Ny,
19:u:Key-3 L=none/date,
12:u:Pre-2 X=Ny,
19:u:tok-1 X=meiofauna,
14:u:tok-1RR=plos,
14:u:tok-1 R=plos,
12:u:Pre-2 R=PL,
14:u:Lst-2 X=Lu/S,
11:u:Suf-1 X=S,
16:u:Tmn-3 X=none/S,
12:u:tok-1 L=as,
16:u:tok-1 L=indian,
16:u:tok-1LL=indian,
15:u:tok-1 L=caves,
17:u:tok-1RR=ecology,
17:u:tok-1 R=ecology,
12:u:Suf-2 X=r?,
20:u:Tok-1 X=Estuarine,,
19:u:tok-1 X=estuarine,
28:u:tok-2 R=estuarine,/coastal,
12:u:Suf-2 L=r?,
15:u:tok-1 X=shelf,
15:u:tok-1LL=ecol.,
17:u:tok-1 L=beaches,
16:u:Tok-1 X=Suppl.,
15:u:tok-1 X=suppl,
18:u:tok-1RR=animalia,
18:u:tok-1 R=animalia,
19:u:tok-1RR=institute,
17:u:tok-1RR=academy,
17:u:tok-1 R=academy,
18:u:tok-1LL=pacific.,
15:u:tok-1RR=1-175,
23:u:tok-2 L=visaya/suppl.,
18:u:tok-2 R=suppl./7,
14:u:Fst-2 X=Lu/Q,
11:u:Pre-1 X=Q,
12:u:Pre-2 X=Qu,
17:u:tok-1LL=venezia,
12:*:Fst-1 X=Pi,
19:u:tok-1 R=sequences,
19:u:tok-1 X=sequences,
19:u:tok-1 L=ribosomal,
14:u:tok-1LL=1907,
26:u:tok-2 R=oceanography/and,
18:u:tok-1RR=biology:,
20:u:tok-2 R=and/marine,
18:u:tok-1 R=biology:,
20:u:tok-2 L=and/marine,
25:u:tok-2 R=marine/biology:,
24:u:Key-2 X=editor/initial,
12:u:Suf-2 X=2.,
12:u:Suf-2 L=2.,
19:u:tok-1RR=zoologica,
19:u:tok-1 R=zoologica,
17:u:tok-1RR=scripta,
16:u:tok-2 R=van/de,
16:u:tok-2 L=van/de,
23:u:Tok-1 X=Invertebraten,
23:u:tok-1 X=invertebraten,
27:u:tok-2 R=invertebraten/van,
19:u:Tok-1 X=Symposium,
19:u:tok-1 X=symposium,
22:u:tok-1RR=publications,
22:u:tok-1 R=publications,
14:u:tok-1 X=deep,
14:u:tok-1 L=deep,
15:u:Tok-1 X=e1201,
15:u:tok-1 X=e1201,
15:u:tok-1LL=peerj,
17:u:tok-2 L=3/e1201,
20:u:tok-2 R=e1201/_x+1,
12:u:Pre-2 X=e1,
18:u:tok-1LL=entomol.,
21:u:tok-1 X=continental,
21:u:tok-1 L=continental,
16:u:tok-1LL=bassin,
21:u:tok-1 X=netherlands,
21:u:tok-1 R=zoologische,
21:u:tok-1 L=zoologische,
19:u:tok-1RR=strandvlo,
19:u:tok-1 R=strandvlo,
22:u:tok-2 R=de/strandvlo,
14:u:tok-1RR=bot.,
11:u:tok-1 R=+,
13:u:Fst-2 R=S/+,
11:u:Pre-2 R=+,
11:u:Tok-1 X=+,
13:u:Fst-2 X=S/+,
13:u:Lst-2 X=S/+,
11:u:Pre-1 X=+,
11:u:Pre-2 X=+,
11:u:Suf-1 X=+,
11:u:Suf-2 X=+,
16:u:Tmn-3 X=none/+,
14:u:tok-1RR=1895,
21:u:tok-1RR=conchyliol.,
15:u:tok-1 L=congo,
21:u:tok-2 L=congo/belge,
21:u:tok-2 R=belge/revue,
13:u:tok-1 L=fr.,
19:u:tok-1 X=presentes,
14:u:Tok-1 X=Deep,
14:u:tok-1RR=sea:,
14:u:tok-1 R=sea:,
12:u:Suf-2 X=s],
12:u:Suf-2 L=s],
18:u:tok-1LL=bryozoan,
12:u:Suf-2 X=ot,
12:u:Suf-2 L=ot,
25:u:tok-2 L=the/netherlands,
21:u:tok-1 L=netherlands,
17:u:tok-1 X=results,
19:u:tok-1RR=barcelona,
16:u:Tok-1 X=Naples,
16:u:tok-1 X=naples,
22:u:tok-1 X=mediterranee,
13:u:tok-1RR=tot,
12:u:Suf-2 X=ke,
16:u:tok-1 L=diatom,
17:u:Tok-1 X=Aquatic,
17:u:tok-1 X=aquatic,
23:u:tok-1RR=environmental,
12:u:Suf-2 X=af,
14:u:Lst-2 X=Ll/v,
11:u:Suf-1 X=v,
16:u:Tmn-3 X=none/v,
14:u:Lst-2 L=Ll/v,
20:u:tok-1 R=beaufortia,
20:u:tok-1 R=scientific,
20:u:Tok-1 X=Scientific,
20:u:tok-1 X=scientific,
20:u:tok-1 L=scientific,
20:u:tok-1LL=scientific,
16:u:Tok-1 X=Island,
17:u:tok-1 R=annales,
18:u:tok-1RR=akademie,
12:u:Pre-2 R=Ak,
18:u:tok-1RR=dynamics,
18:u:tok-1 R=dynamics,
18:u:Tok-1 X=dynamics,
18:u:tok-1 X=dynamics,
19:u:tok-1 R=molecular,
19:u:tok-1 X=molecular,
19:u:Tok-1 X=Molecular,
19:u:tok-1RR=estuarine,
19:u:tok-1 R=estuarine,
23:u:tok-2 R=the/estuarine,
23:u:tok-2 L=the/estuarine,
19:u:tok-1 L=estuarine,
19:u:tok-1LL=estuarine,
12:u:Pre-2 X=Ev,
12:u:Pre-2 R=ov,
12:u:Pre-2 X=ov,
13:u:Tok-1 X=Die,
13:u:tok-1 X=die,
21:u:Tok-1 X=Jahrb√ºcher,
20:u:tok-1 X=jahrbucher,
14:u:tok-1LL=band,
17:u:tok-1 R=251-272,
33:u:tok-2 L=zoologische/jahrb„ºcher,
29:u:tok-2 R=jahrb„ºcher/251-272,
17:u:tok-1RR=magazin,
20:u:Tok-1 X=Quatri√®me,
19:u:tok-1 X=quatrieme,
17:u:tok-1 R=s„©rie.,
24:u:tok-2 L=fr./quatri„®me,
28:u:tok-2 R=quatri„®me/s„©rie.,
13:u:Pre-2 R=s√©,
17:u:Tok-1 X=premier,
17:u:tok-1 X=premier,
17:u:tok-1LL=s„©rie.,
20:u:tok-1 R=xxxiv-xxxv,
22:u:tok-2 L=tome/premier,
28:u:tok-2 R=premier/xxxiv-xxxv,
19:u:tok-1 R=bijdragen,
15:u:Tok-1 X=Trudy,
15:u:tok-1 X=trudy,
17:u:tok-1 L=polaire,
26:u:tok-1 R=dreifuiushchaiae,
22:u:tok-1RR=ekspeditsiia,
23:u:tok-2 L=polaire/trudy,
32:u:tok-2 R=trudy/dreifuiushchaiae,
26:u:Tok-1 X=Dreifuiushchaiae,
26:u:tok-1 X=dreifuiushchaiae,
17:u:tok-1LL=polaire,
15:u:tok-1 L=trudy,
22:u:tok-1 R=ekspeditsiia,
24:u:tok-1RR=glavsevmorputi,
32:u:tok-2 L=trudy/dreifuiushchaiae,
39:u:tok-2 R=dreifuiushchaiae/ekspeditsiia,
12:u:Pre-2 R=Ek,
15:u:tok-1LL=trudy,
12:u:Pre-2 X=Ek,
20:u:tok-1RR=california,
20:u:tok-1 R=california,
23:u:Key-3 L=strong/report,
17:u:tok-1 R=novapex,
17:u:tok-1RR=results,
20:u:tok-2 R=results/of,
17:u:tok-1 L=results,
20:u:tok-2 L=results/of,
17:u:tok-1LL=results,
21:u:tok-1 L=occidentale,
15:u:tok-1 L=black,
19:u:tok-1RR=ekologiya,
19:u:tok-1 R=ekologiya,
15:u:tok-1RR=moria,
19:u:tok-1 L=malediven,
14:u:Tok-1 X=Lav.,
13:u:tok-1 X=lav,
15:u:tok-1LL=delle,
17:u:tok-1 L=femmine,
14:u:tok-1 R=ist.,
22:u:tok-2 L=femmine/lav.,
19:u:tok-2 R=lav./ist.,
14:u:tok-1 X=sars,
21:u:tok-1 R=pr„©sent„©s,
31:u:tok-2 R=m„©moires/pr„©sent„©s,
21:u:Tok-1 X=pr√©sent√©s,
31:u:tok-2 L=m„©moires/pr„©sent„©s,
23:u:tok-2 R=pr„©sent„©s/„,
20:u:Tok-1 X=Handlingar,
13:u:tok-1LL=och,
31:u:tok-1 L=vitterhets-samh„§lles,
17:u:tok-1 R=fj„§rde,
18:u:tok-1RR=f„∂ljden,
42:u:tok-2 L=vitterhets-samh„§lles/handlingar,
28:u:tok-2 R=handlingar/fj„§rde,
16:u:tok-1 X=fjarde,
12:u:Pre-2 X=Fj,
12:u:tok-1 R=af,
12:u:Suf-2 X=gt,
12:u:Tok-1 X=af,
12:u:Suf-2 L=gt,
17:u:tok-1RR=impacts,
17:u:tok-1 R=impacts,
17:u:tok-1 X=impacts,
20:u:tok-1 X=management,
16:u:tok-1LL=plants,
19:u:tok-1 L=received.,
19:u:tok-1 R=botanical,
26:u:tok-2 L=received./report,
26:u:tok-2 R=report/botanical,
19:u:Tok-1 X=ReÃÅunion,
17:u:tok-1 X=reunion,
23:u:tok-1 L=bibliographie,
24:u:tok-1RR=speÏÅcialistes,
33:u:tok-2 L=bibliographie/reÏÅunion,
22:u:tok-2 R=reÏÅunion/de,
23:u:tok-1LL=bibliographie,
19:u:tok-1 L=reÏÅunion,
24:u:tok-1 R=speÏÅcialistes,
15:u:tok-1RR=c.s.a,
22:u:tok-2 L=reÏÅunion/de,
27:u:tok-2 R=de/speÏÅcialistes,
12:u:Suf-2 X=sk,
19:u:tok-1LL=inventory,
12:u:Suf-2 X=SA,
14:u:tok-1LL=ecsa,
13:u:tok-1 L=21:,
25:u:tok-2 L=21:/proceedings,
30:u:Key-3 L=moderate/proceedings,
13:u:tok-1LL=21:,
14:u:tok-1RR=21th,
14:u:tok-1 R=21th,
18:u:tok-2 R=the/21th,
14:u:Tok-1 X=21th,
14:u:tok-1 X=21th,
18:u:tok-2 L=the/21th,
24:u:tok-2 R=21th/symposium,
14:u:tok-1 L=21th,
24:u:tok-2 L=21th/symposium,
22:u:tok-2 R=symposium/of,
14:u:tok-1LL=21th,
22:u:tok-2 L=symposium/of,
19:u:Tok-1 X=Estuarine,
23:u:tok-2 R=estuarine/and,
23:u:tok-2 L=estuarine/and,
21:u:tok-2 R=and/coastal,
21:u:tok-2 L=and/coastal,
26:u:tok-2 R=coastal/sciences,
14:u:tok-1RR=held,
26:u:tok-2 L=coastal/sciences,
30:u:tok-2 R=sciences/association,
14:u:tok-1 R=held,
30:u:tok-2 L=sciences/association,
26:u:tok-2 R=association/held,
14:u:Tok-1 X=held,
14:u:tok-1 X=held,
15:u:tok-1RR=gent,,
26:u:tok-2 L=association/held,
17:u:tok-2 R=held/in,
14:u:tok-1 L=held,
15:u:tok-1 R=gent,,
14:u:tok-1RR=9-14,
17:u:tok-2 L=held/in,
18:u:tok-2 R=in/gent,,
15:u:Tok-1 X=Gent,,
14:u:tok-1 X=gent,
14:u:tok-1LL=held,
14:u:tok-1 R=9-14,
18:u:tok-2 L=in/gent,,
20:u:tok-2 R=gent,/9-14,
16:u:Tok-1 X=02-Apr,
15:u:tok-1 X=02apr,
19:u:tok-2 L=27/02-apr,
21:u:tok-2 R=02-apr/_x+1,
14:u:Tok-1 X=ICES,
14:u:tok-1 X=ices,
12:u:Pre-2 X=IC,
12:u:Suf-2 X=ES,
17:u:Tok-1 X=results,
31:u:tok-2 R=belgian/oceanographic,
31:u:tok-2 L=belgian/oceanographic,
32:u:tok-2 R=oceanographic/research,
32:u:tok-2 L=oceanographic/research,
29:u:tok-2 R=netherlands/journal,
24:u:Tok-1 X=Internationale,
24:u:tok-1 X=internationale,
13:u:tok-1 L=23:,
21:u:tok-2 L=23:/399-489,
21:u:tok-2 R=399-489/in:,
20:u:Tok-1 X=University,
20:u:tok-1 L=university,
20:u:tok-1LL=university,
21:u:tok-1LL=d„©capodes,,
18:u:tok-1 L=macrures,
24:u:tok-1 R=scientifiques,,
21:u:tok-1RR=exp„©dition,
29:u:tok-2 L=macrures/r„©sultats,
35:u:tok-2 R=r„©sultats/scientifiques,,
12:u:Suf-2 X=RO,
23:u:tok-1 R=phylogenetics,
33:u:tok-2 R=molecular/phylogenetics,
18:u:tok-2 R=deep/sea,
18:u:tok-2 L=deep/sea,
13:u:Tok-1 X=1st,
13:u:tok-1 X=1st,
12:u:Pre-2 X=1s,
22:u:Tok-1 X=Mitteilungen,
22:u:tok-1 X=mitteilungen,
22:u:tok-1 L=mitteilungen,
22:u:tok-1LL=mitteilungen,
13:u:tok-1 X=ark,
14:u:tok-1 X=wiss,
12:u:tok-1 R=cm,
12:u:Pre-2 R=CM,
12:u:Tok-1 X=CM,
12:u:tok-1 X=cm,
22:u:tok-2 R=cm/documents,
12:u:Pre-2 X=CM,
12:u:Suf-2 X=CM,
23:u:tok-2 R=university/of,
23:u:tok-2 L=university/of,
20:u:tok-1RR=management,
20:u:tok-1 R=management,
20:u:Tok-1 X=management,
17:u:Tok-1 X=Svenska,
17:u:tok-1 X=svenska,
28:u:tok-1 R=vetensk-akademiens,
21:u:tok-1RR=handlingar,,
26:u:tok-2 L=kungliga/svenska,
36:u:tok-2 R=svenska/vetensk-akademiens,
28:u:Tok-1 X=Vetensk-Akademiens,
27:u:tok-1 X=vetenskakademiens,
17:u:tok-1 L=svenska,
21:u:tok-1 R=handlingar,,
16:u:tok-1RR=fjarde,
36:u:tok-2 L=svenska/vetensk-akademiens,
40:u:tok-2 R=vetensk-akademiens/handlingar,,
21:u:Tok-1 X=Handlingar,,
17:u:tok-1LL=svenska,
28:u:tok-1 L=vetensk-akademiens,
16:u:tok-1 R=fjarde,
17:u:tok-1RR=serien.,
40:u:tok-2 L=vetensk-akademiens/handlingar,,
28:u:tok-2 R=handlingar,/fjarde,
16:u:Tok-1 X=Fjarde,
28:u:tok-1LL=vetensk-akademiens,
21:u:tok-1 L=handlingar,,
17:u:tok-1 R=serien.,
18:u:tok-1RR=almquist,
28:u:tok-2 L=handlingar,/fjarde,
24:u:tok-2 R=fjarde/serien.,
19:u:tok-1 L=d'ostende,
16:u:tok-1 X=veroff,
20:u:Tok-1 X=scientific,
18:u:tok-1 R=tierwelt,
22:u:tok-2 R=die/tierwelt,
18:u:Tok-1 X=Tierwelt,
18:u:tok-1 X=tierwelt,
22:u:tok-2 L=die/tierwelt,
22:u:tok-2 R=tierwelt/der,
18:u:tok-1 L=tierwelt,
22:u:tok-2 L=tierwelt/der,
18:u:tok-1LL=tierwelt,
22:u:tok-1LL=benachbarten,
24:u:tok-1 L=meeresgebieten,
37:u:tok-2 L=meeresgebieten/mitteilungen,
26:u:tok-2 R=mitteilungen/aus,
24:u:tok-1LL=meeresgebieten,
23:u:tok-1RR=hamburgischen,
26:u:tok-2 L=mitteilungen/aus,
23:u:tok-1 R=hamburgischen,
23:u:tok-1RR=zoologi-schen,
27:u:tok-2 R=dem/hamburgischen,
17:u:Tok-1 X=Israel.,
17:u:tok-1 R=spirula,
16:u:Tok-1 X=(1991),
15:u:tok-1 R=31-43,
19:u:tok-2 L=42/(1991),
22:u:tok-2 R=(1991)/31-43,
19:u:tok-1RR=protists:,
19:u:tok-1 R=protists:,
26:u:tok-2 R=marine/protists:,
17:u:Tok-1 X=Djuren.,
16:u:tok-1 X=djuren,
19:u:tok-1 L=d„§ggande,
15:u:tok-1 R=lund.,
20:u:tok-1RR=berlingska,
27:u:tok-2 L=d„§ggande/djuren.,
23:u:tok-2 R=djuren./lund.,
12:u:Pre-2 X=Dj,
13:u:Suf-2 L=√´l,
15:u:tok-1RR=porto,
15:u:tok-1 R=porto,
14:u:tok-1RR=rico,
18:u:tok-2 R=of/porto,
15:u:Tok-1 X=Porto,
15:u:tok-1 X=porto,
14:u:tok-1 R=rico,
18:u:tok-2 L=of/porto,
20:u:tok-2 R=porto/rico,
26:u:tok-2 L=fauna/scientific,
27:u:tok-2 R=scientific/survey,
16:u:Tok-1 X=Survey,
27:u:tok-2 L=scientific/survey,
19:u:tok-1 L=d'isra„´l,
18:u:Tok-1 X=research,
30:u:tok-2 R=internationale/revue,
17:u:tok-1 L=mysidae,
17:u:tok-1LL=mysidae,
13:u:Pos-2 R=4/6,
13:u:Pos-2 L=4/6,
13:u:tok-1 R=nyt,
23:u:Tok-1 X=Forhandlinger,
23:u:tok-1 X=forhandlinger,
20:u:tok-1 R=kaspiiskoi,
21:u:tok-1RR=ekspeditsii,
23:u:tok-2 L=mysidae/trudy,
26:u:tok-2 R=trudy/kaspiiskoi,
20:u:Tok-1 X=Kaspiiskoi,
20:u:tok-1 X=kaspiiskoi,
21:u:tok-1 R=ekspeditsii,
26:u:tok-2 L=trudy/kaspiiskoi,
32:u:tok-2 R=kaspiiskoi/ekspeditsii,
21:u:Tok-1 X=Ekspeditsii,
21:u:tok-1 X=ekspeditsii,
20:u:tok-1 L=kaspiiskoi,
17:u:tok-1RR=243-313,
32:u:tok-2 L=kaspiiskoi/ekspeditsii,
23:u:tok-2 R=ekspeditsii/1,
22:u:tok-1 L=m„©tazoaires,
16:u:Tmn-2 L=F/none,
24:u:Tok-1 X=Investigaci√≥n,
17:u:Tok-1 X=Museum.,
18:u:tok-1LL=„âponges,
19:u:tok-1 L=[sponges],
30:u:tok-2 L=[sponges]/scientific,
28:u:tok-2 R=scientific/results,
25:u:Brk-1 L=square-brackets,
19:u:tok-1LL=[sponges],
28:u:tok-2 L=scientific/results,
23:u:tok-1RR=<i>caudan</i>,
23:u:tok-1 R=<i>caudan</i>,
18:u:tok-1RR=campaign,
27:u:tok-2 R=the/<i>caudan</i>,
23:u:Tok-1 X=<i>Caudan</i>,
18:u:tok-1 X=icaudani,
18:u:tok-1 R=campaign,
27:u:tok-2 L=the/<i>caudan</i>,
32:u:tok-2 R=<i>caudan</i>/campaign,
18:u:Tok-1 X=campaign,
18:u:tok-1 X=campaign,
23:u:tok-1 L=<i>caudan</i>,
32:u:tok-2 L=<i>caudan</i>/campaign,
21:u:tok-2 R=campaign/in,
12:u:Suf-2 X=gn,
23:u:tok-1LL=<i>caudan</i>,
18:u:tok-1 L=campaign,
21:u:tok-2 L=campaign/in,
12:u:Suf-2 L=gn,
18:u:tok-1LL=campaign,
17:u:tok-1RR=biscay,,
17:u:tok-1 R=biscay,,
20:u:tok-2 R=of/biscay,,
17:u:Tok-1 X=Biscay,,
20:u:tok-2 L=of/biscay,,
34:u:tok-2 R=biscay,/august-september,
17:u:tok-1 L=biscay,,
34:u:tok-2 L=biscay,/august-september,
31:u:tok-2 R=august-september/1895,
17:u:tok-1LL=biscay,,
31:u:tok-2 L=august-september/1895,
22:u:tok-2 R=1895/annales,
20:u:Tok-1 X=Microscopy,
20:u:tok-1 X=microscopy,
18:u:tok-1LL=scanning,
18:u:tok-1 L=electron,
29:u:tok-2 L=electron/microscopy,
25:u:tok-2 R=microscopy/mem.,
12:u:Suf-2 X=py,
18:u:Tok-1 X=Nouveaux,
28:u:tok-2 L=d'ostende/nouveaux,
28:u:tok-2 R=nouveaux/m„©moires,
21:u:Tok-1 X=Informatics,
21:u:tok-1 X=informatics,
34:u:tok-2 L=biodiversity/informatics,
29:u:tok-2 R=informatics/journal,
15:u:Tok-1 X=Publ.,
14:u:tok-1 X=publ,
21:u:tok-2 L=japan/publ.,
20:u:tok-2 R=publ./seto,
0=-9.514055e-02
1=-3.894035e-01
2=-2.249917e-02
3=1.844018e-02
4=-4.803870e-02
5=-4.550928e-02
6=5.436270e-02
7=4.894939e-03
8=1.780510e+00
9=1.177433e+00
10=-1.843368e+00
11=-3.076303e-01
15=-2.684469e-01
18=1.587252e-01
23=-2.398148e-01
24=-2.389582e+00
25=-7.960609e-01
26=4.366401e-01
27=-2.574612e-02
28=-2.332138e+00
29=-2.043058e+00
30=-2.222229e+00
31=-1.528073e-01
32=-1.239845e+00
34=-2.901450e+00
35=6.309789e-01
36=8.012479e-01
37=-1.727215e+00
38=-5.985375e-01
39=-2.848773e+00
42=-2.064056e+00
43=-1.285443e+00
44=9.392717e-02
45=4.947083e-01
46=8.299982e-02
47=-7.485757e-01
50=-9.138359e-01
51=-2.122026e-01
53=2.022604e-01
54=1.538437e-01
58=-1.090554e+00
59=-8.252979e-01
60=-4.120041e-01
62=1.120382e+00
63=-3.823338e-01
64=-6.166008e-01
66=-2.788876e+00
67=-5.910440e-02
69=-1.638355e+00
70=-5.989578e-02
71=1.020758e+00
72=3.538701e-01
80=3.538701e-01
88=9.985294e-02
90=2.642232e-03
91=9.323539e-02
93=3.069835e-02
94=-1.002099e-01
95=5.204222e-03
96=1.052104e+00
106=2.161807e+00
111=-1.303527e-01
114=4.554176e-02
115=6.526384e-01
119=2.474783e-01
123=2.239708e-01
124=8.300490e-02
132=-1.058823e-05
134=2.890770e-01
141=2.215086e-01
155=-1.386684e-04
158=-3.272981e-01
159=2.641649e-01
160=-1.210939e-01
162=8.773676e-02
163=-4.015805e-02
164=-1.340177e-01
166=-1.300388e+00
167=-3.770628e-03
170=-1.949715e-03
171=3.211590e-02
175=-6.316997e-04
178=1.377369e-01
179=9.695022e-02
183=-1.068454e+00
184=3.538701e-01
256=-1.800586e-04
257=-1.092017e+00
258=1.269166e-02
259=-1.204567e-02
260=-5.714359e-01
261=-1.028620e-01
262=-8.983103e-06
263=-1.096979e-02
264=3.538701e-01
274=-1.610071e-02
275=1.069921e-02
277=-6.749869e-08
279=2.414770e-02
282=-1.949715e-03
283=3.211590e-02
287=-6.316997e-04
290=-8.006755e-01
295=2.243643e-01
298=-1.610071e-02
299=1.069921e-02
301=-6.749869e-08
303=2.414770e-02
304=3.538701e-01
312=3.538701e-01
320=-3.166780e-02
322=4.233130e-02
323=8.314352e-02
324=-1.174971e-01
327=7.166072e-03
328=5.915134e-02
330=9.248068e-03
331=-8.008093e-04
335=-5.351311e-02
336=3.077255e-03
346=7.792134e-02
347=-1.876140e-02
351=-5.695025e-02
352=3.077255e-03
360=3.538701e-01
432=-7.704730e-02
434=2.064072e-01
435=1.360901e-01
436=-3.583042e-01
438=-7.408675e-03
439=-1.177333e-02
440=1.302662e+00
443=-1.297320e-01
450=1.738264e-01
455=-1.908654e-01
456=-3.007512e-01
458=4.141046e-01
459=6.158214e-03
463=-9.676035e-02
464=-1.630577e-01
466=-2.176141e+00
467=6.573145e-01
468=-1.889407e+00
471=-8.661142e-01
475=-2.183352e-01
476=8.997163e-01
485=7.041957e-01
490=-8.161684e-02
491=-3.027335e-01
494=2.838135e+00
496=-6.764661e-02
498=-1.207581e+00
499=-2.787388e-02
503=8.413012e-01
504=-3.117984e-02
505=-1.286990e-01
506=2.572766e-01
507=5.874520e-02
508=-1.078356e+00
509=-1.342192e-01
510=-2.467759e-01
511=-1.185369e-03
512=5.509724e-03
513=-1.145804e+00
514=2.796331e-01
515=2.571218e-01
516=-5.713213e-01
517=-1.105762e-01
518=-3.308339e-04
519=2.927621e-02
522=1.586667e-02
523=5.186945e-02
526=-4.927296e-05
527=-1.217862e-02
528=-2.411996e-03
530=6.135968e-02
531=-7.517839e-02
535=1.331449e-03
536=-1.138403e-01
537=-3.789123e-01
538=-1.125884e-01
539=5.792768e-02
540=-4.820443e-02
541=-3.042591e-02
542=4.367650e-02
543=-1.362349e-03
544=-1.049775e-01
545=-3.751709e-01
546=-7.689110e-03
547=-3.913470e-03
548=-3.430715e-02
549=-3.113675e-02
550=5.576364e-02
551=1.308308e-02
552=-1.479489e-01
553=-2.244031e-01
554=1.614763e-01
555=-8.926483e-01
556=-1.433116e-03
557=-2.588921e-02
558=4.153113e-02
559=-6.398324e-02
560=3.538701e-01
568=-8.020810e-02
569=-1.977524e-01
570=5.388103e-02
571=4.992986e-03
572=-1.412929e-01
573=-6.274306e-02
574=1.141252e-01
575=6.637526e-03
576=-8.710137e-02
577=-3.082216e-01
578=2.633390e-02
579=6.626686e-02
580=-1.627160e-02
581=-1.917127e-02
582=-7.180513e-02
583=1.162092e-03
584=-3.136521e-02
586=5.778299e-02
587=5.688366e-02
588=-1.439357e-01
589=-2.916258e-02
591=3.427571e-02
592=3.429519e-01
600=3.986510e-03
602=9.259402e-03
603=2.822574e-02
605=-9.740184e-04
607=-4.650509e-02
608=3.431663e-01
616=3.431663e-01
624=3.538701e-01
634=1.554330e-01
635=-1.730973e-03
637=-1.793471e-05
638=-1.257660e-01
639=-1.600581e-02
641=-5.033737e-03
642=-1.542500e-02
643=3.115294e-02
647=-2.373023e-02
648=3.538701e-01
656=-9.617979e-02
657=-1.614032e-01
658=4.850589e-02
659=6.190247e-02
660=-4.237406e-03
661=-1.308646e-03
662=9.200895e-02
663=3.076108e-03
664=-9.991683e-02
665=-1.247168e-01
666=-1.152978e-01
667=9.084231e-02
668=-3.739739e-02
669=-5.267225e-03
670=-2.227603e-01
671=2.443463e-03
672=3.538701e-01
744=4.891695e-03
746=9.352001e-03
747=3.654544e-02
749=-1.845832e-03
751=-2.264162e-02
752=-6.950682e-03
754=6.941878e-02
755=3.427997e-02
757=-1.000394e+00
759=-2.234769e-02
760=2.005211e-03
770=5.302062e-03
771=4.048085e-02
773=-1.189315e-02
775=-3.700401e-02
778=-1.074115e-02
779=9.988609e-03
781=-6.207263e-08
783=2.594977e-02
791=-6.137014e-02
792=-9.749263e-02
793=-2.236682e-01
794=5.675426e-02
795=2.407527e-02
796=-4.718470e-02
797=-3.498885e-02
798=4.682313e-02
799=-5.613411e-03
800=9.301957e-02
810=-6.651541e-02
811=6.425543e-03
815=9.528302e-02
819=6.205790e-03
823=-7.401349e-01
824=7.618896e-02
825=-1.055644e-01
826=-3.435500e-03
827=-6.897766e-02
828=-9.861220e-02
829=-1.665459e-01
830=-2.181867e-02
831=-5.729527e-02
832=2.694811e-01
834=-3.173287e-01
839=-1.347819e-02
850=2.546354e-01
851=-1.374473e-01
855=-4.210039e-01
858=-1.995589e-01
859=2.717193e-01
862=-1.630811e-05
868=7.289689e-01
870=-3.518161e-06
877=3.400286e-01
878=-1.365105e-01
886=6.533491e-01
891=-8.549179e-01
894=-1.855588e-01
895=4.869537e-01
897=-2.430535e-01
898=1.245392e-01
899=-3.862557e-01
900=-1.174389e-02
903=-2.492359e-02
906=-8.411388e-04
907=3.715131e-02
911=-1.714307e-02
914=-6.651541e-02
915=6.425543e-03
919=9.528302e-02
922=-8.411388e-04
923=3.715131e-02
927=-1.714307e-02
930=1.528243e+00
936=-4.754548e-02
937=-6.597485e-01
938=-1.214666e-01
939=1.199129e-01
940=3.527314e-01
941=-5.019771e-01
943=4.814501e-02
944=7.382874e-03
946=-5.677652e-02
947=1.994130e-02
948=-1.489491e-01
951=-4.805922e-02
954=-4.638864e-02
955=2.984885e-02
959=-5.901874e-02
967=-5.337503e-02
968=-6.824364e-02
969=-3.536305e-01
970=1.870510e-01
971=1.075204e-01
972=9.609303e-03
973=-9.188545e-01
974=-7.755497e-01
975=3.176227e-03
976=1.157286e+00
977=7.091811e-01
978=-9.554714e-01
982=-2.114794e-03
983=-4.476626e-02
994=4.210755e-01
995=-2.072991e-02
996=-7.572318e-01
998=-3.803288e-03
999=-1.404114e-01
1000=-7.742995e-01
1001=-1.160962e-01
1002=-2.657848e+00
1003=6.599160e-01
1004=3.286290e-01
1005=-2.552094e-01
1006=-2.484554e-02
1007=-1.810892e+00
1012=2.891523e+00
1014=-9.343687e-02
1021=4.110752e+00
1022=-2.954314e-03
1026=-2.610447e-01
1030=3.725899e-01
1032=-9.151436e-02
1034=-1.857307e+00
1035=-2.747917e-01
1038=9.223109e-03
1039=9.685697e-01
1040=-3.541767e-02
1042=7.251557e-02
1043=3.071433e-02
1047=-6.458885e-02
1048=-8.801971e-02
1049=-3.643657e-01
1050=-1.088836e-01
1051=6.429159e-02
1052=-4.089658e-02
1053=-4.581918e-02
1054=6.876849e-02
1055=3.323414e-02
1056=-4.799447e-02
1057=-3.059897e-01
1058=8.940924e-02
1059=2.930454e-02
1060=7.256101e-02
1061=-2.145453e-02
1062=6.109440e-02
1063=3.860617e-03
1066=-3.256714e-02
1067=-1.516468e-05
1068=-1.449561e-01
1071=-4.237627e-02
1072=3.937144e-02
1073=-4.399482e-03
1074=1.121817e-01
1075=-1.456911e-01
1076=-6.668589e-02
1079=-5.111062e-02
1082=8.082305e-02
1083=2.693325e-02
1085=-1.752160e+00
1087=-5.096447e-02
1088=1.263988e-01
1089=3.339686e-03
1090=1.636072e-02
1095=-1.659350e-01
1103=-1.838963e-05
1105=-9.498488e-02
1106=1.209756e-01
1107=-1.238086e-02
1110=-4.091115e-01
1111=2.241862e-03
1114=-4.897623e-03
1115=3.912346e-02
1116=1.340051e-01
1118=-4.316574e-01
1119=-2.473232e-02
1120=-6.786604e-02
1121=-1.647373e-01
1122=-7.193262e-02
1123=3.839021e-02
1124=-8.662742e-02
1125=-2.695945e-03
1126=7.010542e-02
1127=3.529445e-03
1128=3.915721e-02
1129=-3.465131e-01
1130=1.189015e-01
1131=-1.378428e-01
1132=-4.331995e-01
1134=-3.468625e-03
1135=-7.054444e-02
1136=2.796106e-01
1154=2.054719e-01
1155=-1.658169e+00
1159=-6.630335e-01
1163=3.365289e-01
1181=3.561588e-02
1182=-1.470405e-01
1190=1.822180e+00
1198=-2.479220e-02
1199=3.647035e-01
1200=-3.836696e-02
1202=9.602566e-02
1203=2.057210e-02
1205=-1.468690e-02
1207=-5.599275e-02
1208=-5.069603e-02
1210=8.916724e-02
1211=2.825966e-02
1212=6.759210e-02
1215=-3.031348e-02
1218=5.392378e-02
1219=4.566884e-02
1223=-1.399509e-02
1226=-8.411388e-04
1227=3.715131e-02
1231=-1.714307e-02
1234=-1.030307e+00
1235=6.387923e-01
1242=-3.002344e-02
1243=3.779792e-01
1247=1.023636e-02
1250=-2.161848e-01
1251=-1.471706e-03
1252=1.704528e-01
1253=1.237250e-01
1254=-1.448320e+00
1255=-1.353974e-02
1258=-1.319717e-01
1259=-1.356400e-03
1263=4.282509e-01
1266=2.816166e-03
1267=-2.716872e-01
1269=6.189325e-02
1271=-5.673518e-04
1272=-1.630971e-02
1274=-1.031731e-01
1275=3.238590e-02
1277=-3.785895e-03
1279=-4.818818e-02
1282=-1.319717e-01
1283=-1.356400e-03
1287=4.282509e-01
1290=3.523091e-03
1295=-2.225005e-05
1298=2.969012e-02
1299=-5.091504e-02
1303=-6.105666e-02
1306=-1.705050e-01
1307=1.687658e-02
1308=7.877431e-02
1309=6.931803e-02
1310=-7.197978e-04
1311=-2.209526e-02
1312=4.208876e-01
1314=7.321383e-03
1315=-1.504108e-01
1319=7.513267e-04
1320=-5.265528e-02
1322=-9.048832e-02
1323=7.594616e-02
1324=2.733996e-02
1325=-7.057437e-02
1327=-1.596576e-02
1330=5.602889e-02
1335=-1.102872e-01
1338=7.508434e-03
1343=-3.427791e-02
1344=-4.437877e-02
1346=-2.095260e-01
1347=2.444707e-02
1349=-5.073883e-06
1350=-7.079199e-05
1351=-6.884231e-02
1352=-7.844999e-05
1354=1.985491e-01
1355=4.724990e-02
1356=-9.889259e-02
1357=-7.398540e-01
1358=-1.319527e-01
1359=4.072339e-03
1360=-5.144240e-02
1362=-8.485893e-02
1363=8.820498e-03
1364=8.120085e-02
1365=-7.724837e-02
1367=-4.349260e-02
1368=1.773627e-02
1369=4.632867e-01
1386=9.498019e-03
1387=2.816191e-01
1391=3.294489e-03
1395=8.719381e-02
1396=8.462510e-05
1404=1.513053e-01
1422=4.355546e-02
1427=5.602289e-02
1431=7.900633e-02
1432=-4.477495e-02
1433=-1.198801e-02
1434=1.034339e-01
1435=2.498724e-02
1436=-1.498232e-02
1437=-1.216635e-02
1438=-2.997488e-01
1439=-4.786544e-03
1442=-1.468863e-01
1443=1.380292e-02
1444=1.429436e-03
1445=-1.784903e-02
1450=-9.467281e-03
1451=9.115942e-02
1455=8.140515e-03
1456=-4.626652e-01
1458=-6.546335e-03
1459=-1.988205e-01
1460=-1.155885e-01
1461=-1.928885e-04
1462=9.059875e-02
1463=-2.527869e-02
1465=1.797962e+00
1482=1.511728e+00
1491=2.089608e-02
1492=9.467231e-01
1494=-1.249339e-01
1500=-2.551050e+00
1501=5.965205e-01
1502=1.016606e-01
1509=2.433171e-03
1510=3.198748e-01
1526=7.714648e-03
1527=2.496734e-01
1530=8.107606e-04
1531=-2.471543e-01
1534=9.972428e-02
1535=2.418467e-03
1538=2.151277e-01
1539=-2.699077e-01
1540=1.922893e-01
1543=-3.084460e-02
1546=8.107606e-04
1547=-2.471543e-01
1550=9.972428e-02
1551=2.418467e-03
1554=4.012022e-03
1555=5.771087e-03
1559=-3.143741e-05
1562=1.637326e-01
1563=-9.173270e-01
1568=-5.844246e-02
1569=-3.760824e-02
1570=-3.336239e-02
1571=1.814884e-02
1572=-6.628465e-02
1574=2.579597e-02
1575=-6.142220e-02
1576=-1.173396e-01
1578=1.181799e-01
1579=-2.729034e-02
1580=-1.962350e-01
1582=-9.238369e-01
1583=-1.096529e-02
1586=3.079456e-03
1587=-2.798611e-01
1588=-5.038435e-02
1590=-2.029179e-05
1591=1.436597e-01
1595=6.088497e-02
1597=-7.468354e-02
1602=-6.143475e-04
1605=-1.021204e+00
1607=1.804175e-02
1609=2.614414e+00
1626=9.686415e-02
1635=1.778321e-02
1636=-5.230302e-02
1644=5.210617e-02
1671=3.986862e-01
1672=-6.820802e-02
1673=3.452406e-01
1674=1.170672e-01
1675=-5.396764e-02
1676=-8.234993e-01
1679=-6.580480e-02
1680=-1.809549e-01
1681=-3.831205e-02
1682=-3.201801e-02
1683=1.743277e-02
1684=-6.413001e-02
1687=-5.518180e-02
1688=-5.926299e-05
1690=2.447439e-02
1691=-8.503270e-03
1692=-8.283492e-03
1693=-4.929717e-04
1694=1.362741e-04
1695=5.617592e-03
1698=6.604140e-02
1703=-1.326176e-02
1706=3.774916e-02
1711=-9.658223e-03
1714=1.474880e-06
1719=3.230389e-04
1720=-8.929612e-05
1722=2.443450e-03
1723=3.186036e-02
1724=2.553256e-02
1725=1.602631e-05
1726=-1.325412e-01
1727=-3.311728e-03
1728=-9.891820e-05
1729=-4.815396e-02
1730=-1.027337e-01
1731=2.084804e-02
1732=-1.214405e-03
1733=2.718183e-03
1734=3.462784e-03
1735=-4.867362e-03
1736=-7.596024e-04
1738=5.525719e-02
1739=4.615902e-04
1740=1.145315e+00
1741=2.527431e-05
1742=3.186251e-04
1743=3.239383e-03
1744=-6.689130e-05
1746=5.742249e-02
1747=2.593966e-02
1749=9.447278e-06
1750=-4.701294e-01
1751=1.127089e-02
1754=1.081108e-01
1755=-3.328877e-02
1756=-1.497004e-01
1759=-1.262467e-02
1762=-3.352779e-02
1763=1.467053e-02
1770=-2.257978e-02
1771=9.521772e-02
1775=6.815602e-03
1778=3.352414e-02
1779=1.585816e-01
1780=4.249663e-03
1783=6.647901e-02
1786=3.496481e-02
1787=-1.212662e-02
1791=-9.499139e-03
1795=5.269541e-02
1796=-8.247305e-02
1797=3.692922e-01
1798=1.660266e-01
1799=5.570346e-03
1810=1.165871e+00
1815=-7.370968e-02
1818=-1.185578e-02
1819=2.166064e-01
1823=4.886066e-01
1837=1.084673e+00
1838=9.653149e-02
1846=2.733284e-01
1859=2.272735e-01
1862=-1.918913e-02
1863=2.724364e-03
1866=1.583597e-01
1867=1.029611e-01
1868=-2.181716e-01
1869=4.935255e-02
1870=-7.739918e-02
1871=9.365257e-03
1874=-1.083023e-03
1875=1.047135e-01
1876=5.783157e-02
1879=-4.172193e-03
1882=-3.349888e-01
1883=6.682827e-01
1890=4.343276e-02
1891=-1.459791e-01
1895=-2.329467e-06
1898=-1.083023e-03
1899=1.047135e-01
1900=5.783157e-02
1903=-4.172193e-03
1906=-1.657444e-02
1907=2.112544e-01
1911=4.695129e-03
1912=-4.870098e-02
1914=2.104505e-03
1915=-5.599579e-02
1916=-2.618587e-03
1917=3.726367e-01
1918=8.412337e-01
1919=-1.227848e-01
1922=2.679122e-02
1923=9.339917e-02
1924=4.178383e-03
1927=8.881423e-02
1930=5.836327e-02
1931=-3.299295e-03
1935=-9.425626e-03
1938=-1.551980e-02
1939=2.692890e-01
1940=5.542463e-01
1943=-5.109771e-03
1944=-2.273328e-06
1946=8.640179e-02
1947=3.974906e-02
1948=-1.405232e-01
1949=-1.418317e-02
1951=-2.974842e-03
1954=1.014281e-04
1955=-6.343520e-02
1956=1.936355e-01
1959=1.196865e-02
1970=1.843340e+00
1975=-5.344259e-02
1978=-5.624444e-01
1979=4.400681e-03
2006=-2.405097e-02
2022=1.177366e+00
2023=1.511186e-01
2026=4.721898e-03
2027=2.960134e-02
2031=1.748501e-02
2032=-2.259025e-01
2034=-7.683755e-02
2035=1.923852e-01
2036=-8.595456e-01
2039=9.158855e-02
2040=-2.572677e-03
2042=2.098341e-01
2043=5.404684e-03
2044=-6.244828e-02
2045=-3.845421e-03
2046=2.494104e-02
2047=2.531596e-03
2050=1.794668e-01
2051=2.225069e-02
2055=5.087122e-02
2058=-4.190397e-04
2063=1.656605e-02
2066=3.462168e-02
2067=3.800973e-02
2071=3.841069e-02
2072=-7.066090e-03
2073=-1.778023e-01
2074=2.022307e-01
2075=2.245899e-02
2076=-5.504418e-02
2077=1.975962e-02
2078=2.585111e-03
2079=2.232469e-03
2080=-2.731951e-02
2081=-1.892667e-01
2082=2.150193e-01
2083=1.573923e-02
2084=-4.479634e-02
2085=-4.953356e-03
2086=1.038628e-02
2088=2.332075e-01
2089=1.028346e-01
2098=4.490050e-01
2103=-1.725076e-01
2106=3.031080e-01
2107=3.900355e-02
2108=-7.080792e-04
2110=-3.086050e-01
2111=-1.161392e-01
2113=-6.577442e-03
2114=-3.202009e-01
2115=3.129169e-01
2116=3.695611e-01
2118=-8.721800e-01
2123=-7.530998e-03
2124=-1.084235e-02
2125=5.368061e-01
2126=2.127723e-01
2127=-4.595273e-03
2134=2.356460e-01
2142=3.111555e-02
2146=-9.037245e-02
2147=-3.578670e-02
2150=-1.161926e-03
2151=9.049265e-01
2154=-1.083023e-03
2155=1.047135e-01
2156=5.783157e-02
2159=-4.172193e-03
2162=1.695419e-02
2163=1.295253e-01
2164=4.443165e-03
2165=-2.242704e-04
2167=7.633971e-02
2170=7.576397e-02
2171=-3.911704e-01
2175=-1.814311e-03
2178=2.411246e-02
2179=1.198212e-02
2183=-1.419842e-03
2186=1.457413e-01
2187=-3.265059e-03
2190=-4.187980e-02
2191=5.438829e-02
2210=3.064299e-01
2211=-4.370424e+00
2215=-2.973458e+00
2219=4.029594e-01
2220=-1.276762e+00
2228=4.389019e-01
2229=2.476797e-02
2230=-2.482015e-01
2246=5.497888e-01
2251=-1.871525e+00
2255=4.239251e-01
2258=3.359851e-02
2259=-1.393058e-01
2263=-9.394258e-03
2266=1.358383e-01
2267=-5.064441e-02
2274=1.974308e-01
2275=3.883570e-02
2276=1.158759e-01
2277=-1.990792e-01
2278=3.382881e-04
2279=-2.091691e-02
2280=1.954622e-01
2281=7.983150e-02
2298=3.510005e-01
2299=-1.233415e-01
2303=-9.987023e-02
2307=3.965253e-01
2308=3.386487e-01
2310=-1.275356e-01
2316=6.784134e-03
2325=3.848347e-01
2326=3.194455e-03
2334=4.177618e-03
2339=-2.027913e-01
2340=3.354511e-02
2342=5.709796e-02
2343=8.102114e-01
2346=4.503293e-02
2347=-9.231011e-04
2348=6.841286e-02
2351=-6.523247e-03
2354=-4.265946e-03
2355=-2.673896e-03
2359=1.616704e-02
2362=3.359851e-02
2363=-1.393058e-01
2367=-9.394258e-03
2370=4.902605e-02
2371=-1.815384e-01
2378=-4.265946e-03
2379=-2.673896e-03
2383=1.616704e-02
2386=7.676382e-02
2387=-3.569525e-01
2391=-3.644478e-03
2394=3.472096e-02
2400=-2.113176e-02
2402=1.393271e-01
2403=-4.602672e-02
2405=-8.574449e-02
2407=5.343013e-02
2410=-6.432448e-03
2411=8.676904e-02
2412=5.323119e-03
2415=-7.340069e-03
2418=6.202074e-02
2419=-5.880242e-03
2423=-5.939934e-03
2426=1.274629e-01
2427=1.551462e-02
2429=-1.386716e-01
2431=4.515483e-02
2434=1.207104e-01
2435=-4.563314e-02
2438=1.210205e-01
2439=4.051334e-02
2442=1.479940e-01
2443=-9.112271e-03
2447=2.192001e-02
2450=1.142327e-01
2451=-4.675940e-03
2455=1.029031e-03
2458=-4.265946e-03
2459=-2.673896e-03
2463=1.616704e-02
2466=1.859384e-01
2467=-1.014890e+00
2471=-3.288998e-03
2474=-9.437464e-03
2482=9.051307e-03
2483=-7.202099e-03
2490=-8.744632e-02
2491=1.044303e-01
2492=3.397987e-02
2495=-2.144576e-01
2498=1.265498e-02
2499=3.756348e-03
2503=3.552170e-03
2506=-2.914361e-02
2507=1.593867e-02
2511=1.128653e-02
2514=-8.744632e-02
2515=1.044303e-01
2516=3.397987e-02
2519=-2.144576e-01
2522=4.204035e-02
2523=-6.771696e-02
2527=-1.942130e-03
2530=1.688193e-01
2531=-2.436569e-01
2535=-7.870108e-04
2537=-1.058622e-01
2538=1.888025e-01
2539=-4.778586e-03
2541=-1.676016e-01
2543=-3.103196e-02
2546=5.752487e-02
2547=1.643545e-02
2551=-8.099566e-03
2554=1.498758e-02
2555=1.736451e-05
2559=-1.494381e-03
2562=2.478403e-01
2563=6.646249e-02
2567=4.269788e-02
2570=8.805663e-02
2571=-4.611544e-02
2575=2.323353e-02
2578=3.262586e-02
2579=-6.562944e-02
2583=6.662175e-03
2586=4.228615e-03
2587=2.924007e-04
2591=2.739803e-03
2594=9.189877e-03
2599=-8.360396e-04
2602=1.488065e-02
2603=7.139305e-02
2607=-2.736892e-03
2610=1.315585e-02
2611=1.011221e-02
2615=3.655616e-04
2618=-1.205412e-02
2619=8.074394e-02
2623=1.970333e-02
2626=3.244813e-02
2627=-6.994034e-03
2631=2.066620e-03
2634=1.315585e-02
2635=1.011221e-02
2639=3.655616e-04
2642=2.214542e-02
2643=-1.239723e-01
2647=-2.521067e-03
2650=-1.591373e-02
2651=1.001123e-01
2655=1.916796e-02
2658=3.244813e-02
2659=-6.994034e-03
2663=2.066620e-03
2666=-3.407141e-01
2667=2.539943e-01
2668=1.386485e-02
2671=3.165373e-02
2674=1.858297e-03
2675=3.127916e-03
2679=-8.100729e-04
2682=7.983543e-02
2683=8.214653e-03
2687=9.618292e-02
2690=1.488065e-02
2691=7.139305e-02
2695=-2.736892e-03
2698=1.496475e-02
2699=-9.576850e-02
2703=-1.077346e-03
2706=3.306474e-04
2707=9.204888e-03
2711=4.123930e-04
2714=1.471049e-02
2715=-3.432187e-02
2719=-8.485652e-04
2720=-1.567067e-01
2722=7.880126e-02
2723=3.130665e-02
2724=-1.206401e-05
2726=-1.337604e-05
2727=6.283643e-02
2730=3.722273e-02
2731=3.783345e-04
2735=1.258952e-02
2736=-9.056668e-02
2738=7.103726e-02
2739=6.752016e-02
2740=-2.735974e-06
2743=1.124828e-02
2746=3.244813e-02
2747=-6.994034e-03
2751=2.066620e-03
2754=-1.574794e-02
2755=1.127092e-02
2759=8.023905e-03
2762=1.919851e-01
2763=-1.289119e+00
2767=-3.265297e-03
2770=5.202958e-01
2771=-1.781537e-01
2783=6.703666e-05
2786=-5.032804e-03
2787=9.755651e-03
2791=1.891568e-02
2794=1.407195e-02
2795=-1.135660e-03
2799=-6.693975e-04
2802=3.809371e-02
2803=-5.636818e-02
2807=-2.811322e-03
2810=-5.032804e-03
2811=9.755651e-03
2815=1.891568e-02
2818=-1.161499e-02
2819=9.130028e-03
2823=1.804868e-02
2826=3.086306e-03
2827=-3.269019e-03
2831=2.464398e-03
2834=1.443183e-02
2835=-3.656141e-03
2839=-3.072169e-03
2842=1.573683e-01
2843=-1.848097e-01
2847=8.061658e-02
2850=5.803621e-02
2851=-2.233757e-01
2855=-1.731064e-03
2856=-5.323881e-02
2858=4.016982e-02
2859=5.135149e-02
2862=-1.589812e-06
2863=3.399891e-02
2866=1.732717e-02
2867=1.097514e-02
2871=2.361795e-02
2874=-1.569123e-01
2875=-6.608076e-02
2876=1.911880e-01
2877=4.564420e-01
2878=-1.060414e-01
2879=1.188234e-02
2882=3.918785e-02
2883=-2.066176e-01
2887=-1.129040e-03
2890=1.676167e-02
2891=-4.078368e-03
2898=1.206823e-01
2899=-1.403993e-02
2906=6.178196e-02
2907=-2.834761e-01
2911=-1.125654e-03
2914=1.352067e-01
2915=-1.536151e-02
2922=2.194496e-01
2923=-1.435083e-02
2930=3.047002e-02
2931=-1.433656e-02
2938=6.858956e-04
2939=6.388658e-03
2943=6.993141e-03
2946=-9.084542e-03
2947=4.271684e-02
2951=4.005887e-03
2954=6.858956e-04
2955=6.388658e-03
2959=6.993141e-03
2962=-7.703625e-01
2963=2.790056e-01
2967=1.584986e-02
2970=-9.084542e-03
2971=4.271684e-02
2975=4.005887e-03
2978=-2.031169e-02
2979=2.586946e-06
2983=2.895498e-03
2984=-8.980126e-02
2986=2.837097e-01
2987=2.686116e-03
2991=-4.127095e-03
2992=-1.495987e-05
2994=4.865346e-02
2995=3.127755e-02
2999=1.482686e-01
3002=1.084437e-02
3003=1.674730e-02
3007=1.811166e-02
3010=7.564615e-03
3011=5.287124e-02
3015=-5.199546e-03
3018=1.064271e-02
3019=-2.319415e-01
3020=-8.990473e-01
3021=-6.276634e-01
3022=2.104198e+00
3023=1.788452e-02
3026=-9.084542e-03
3027=4.271684e-02
3031=4.005887e-03
3035=7.869352e-01
3043=1.160473e-01
3050=-5.086744e-02
3051=2.476909e-01
3059=1.174512e-01
3067=1.712329e-01
3074=-5.134188e-02
3075=4.709298e-01
3079=1.702851e-01
3082=-1.956989e-02
3083=-7.695655e-02
3087=2.298175e-01
3091=2.039720e-03
3098=-1.130374e-02
3099=-2.776569e-02
3103=2.123031e-01
3104=-2.955293e-02
3106=-8.732316e-02
3107=1.572804e-01
3109=3.875234e-03
3111=7.120122e-02
3112=-1.020248e-01
3114=5.455967e-02
3115=7.237348e-02
3116=-5.678825e-02
3119=-1.717565e-04
3122=1.750064e-04
3123=5.395855e-02
3127=2.375996e-05
3130=4.987109e-02
3131=-2.399226e-03
3135=6.653380e-02
3138=9.274547e-04
3139=-1.742800e-01
3141=-8.342205e-01
3142=2.977323e-07
3143=4.770149e-02
3146=4.008372e-04
3151=-2.651844e-04
3154=4.716812e-02
3155=8.476169e-03
3159=-1.507889e-02
3162=3.565168e-02
3163=-9.385581e-03
3167=-6.379630e-03
3170=4.716812e-02
3171=8.476169e-03
3175=-1.507889e-02
3178=2.847509e-01
3179=-2.959410e-03
3183=-2.181905e-03
3186=3.565168e-02
3187=-9.385581e-03
3191=-6.379630e-03
3194=2.520665e-01
3199=-4.788454e-02
3200=-7.412184e-06
3202=-2.537422e-02
3203=-6.971493e-03
3204=-4.206944e-02
3205=4.337014e-03
3207=3.125449e-02
3211=-1.094998e-05
3218=-3.714967e-03
3219=4.596343e-02
3223=-1.441487e-03
3226=-1.532960e-02
3227=6.665236e-02
3231=6.890705e-04
3234=3.565168e-02
3235=-9.385581e-03
3239=-6.379630e-03
3242=-3.436119e-01
3243=1.153376e-02
3244=2.306110e-01
3245=2.500685e-01
3246=-5.297206e-01
3247=-5.247405e-03
3255=-4.358618e-02
3263=-4.179504e-03
3266=-9.204192e-02
3271=5.594289e-02
3274=-4.545941e-01
3275=1.697812e-01
3276=1.216460e+00
3279=1.942177e-02
3282=2.401065e-01
3285=3.068734e-01
3287=-2.269763e-01
3295=-4.358618e-02
3298=2.401065e-01
3301=3.068734e-01
3303=-2.269763e-01
3306=-5.797581e-03
3319=-4.358618e-02
3321=-2.957435e-02
3322=1.047829e-02
3323=-2.214025e-01
3324=3.658812e-01
3327=6.668938e-03
3332=2.591443e-01
3333=-7.721510e-06
3334=2.163237e-05
3335=-6.647550e-02
3338=-1.441607e-01
3339=-6.097609e-02
3340=2.397191e-06
3341=1.166191e-01
3342=7.488509e-05
3343=-2.531169e-02
3348=2.223287e-02
3349=7.745241e-02
3350=-2.433732e-01
3351=-7.795355e-03
3389=1.023113e+00
3390=-2.287344e-01
3406=1.171291e+00
3412=1.372389e-01
3419=-6.114810e-02
3420=1.108498e-01
3421=3.142215e-01
3422=-1.054629e+00
3423=-2.119141e-02
3426=-6.857126e-02
3427=1.733805e-01
3431=1.402494e-02
3434=-2.628046e-02
3435=1.236915e-01
3439=-2.287373e-03
3442=-2.312476e-01
3443=1.290891e-01
3444=3.623773e-02
3447=-2.854806e-03
3450=2.401065e-01
3453=3.068734e-01
3455=-2.269763e-01
3458=-4.189488e-02
3463=1.259458e-01
3466=-2.983900e-03
3474=-6.691648e-01
3476=1.996053e-01
3477=9.297959e-02
3479=-2.959544e-03
3483=3.035950e-01
3490=-2.983900e-03
3498=-1.359476e-01
3499=3.977229e-01
3501=1.149980e-01
3507=4.802340e-02
3535=1.140557e-01
3571=1.681773e-01
3575=-5.037937e-02
3578=-7.044713e-03
3579=1.300999e-01
3580=8.620283e-02
3581=1.122223e-01
3582=-2.914145e-01
3583=-8.731008e-04
3584=-3.696065e-01
3586=-4.674876e-01
3587=4.482143e-03
3588=3.023785e-01
3589=7.068888e-02
3590=1.155424e-01
3591=-4.000172e-02
3594=-2.212380e-01
3595=-2.362338e-03
3596=2.715441e-01
3598=5.080617e-02
3599=1.074441e-02
3603=-2.396470e-01
3605=7.993516e-02
3611=-8.213708e-03
3614=3.711074e-01
3619=-8.213708e-03
3622=3.711074e-01
3627=-8.213708e-03
3630=3.711074e-01
3635=-8.213708e-03
3638=3.711074e-01
3644=1.519956e-01
3651=-8.213708e-03
3654=3.711074e-01
3660=1.519956e-01
3667=-8.213708e-03
3670=3.711074e-01
3677=2.830452e-05
3678=5.060199e-02
3685=-4.481501e-03
3715=3.300484e-02
3726=4.138274e-01
3734=9.854983e-02
3750=-2.229514e-04
3755=-8.213708e-03
3758=3.711074e-01
3762=-6.867206e-02
3763=4.805457e-01
3764=-1.949648e-01
3765=-1.216921e-01
3766=3.140062e-01
3767=9.632167e-04
3771=-8.213708e-03
3774=3.711074e-01
3779=-8.213708e-03
3782=3.711074e-01
3790=3.463333e-01
3795=-8.213708e-03
3798=3.711074e-01
3803=-8.213708e-03
3806=3.711074e-01
3811=-8.213708e-03
3814=3.711074e-01
3819=-8.213708e-03
3822=3.711074e-01
3827=-5.861862e-06
3830=2.988346e-01
3831=-5.885429e-02
3836=1.519956e-01
3843=-5.861862e-06
3846=2.988346e-01
3847=-5.885429e-02
3850=3.270909e-02
3851=-8.879449e-02
3855=-4.561986e-03
3858=9.363204e-02
3866=-1.870160e-07
3869=-6.584828e-02
3870=1.351573e-02
3871=1.799271e-04
3874=9.427660e-02
3875=-5.030761e-03
3879=-3.668507e-03
3882=7.118231e-02
3883=-4.794086e-02
3887=1.471200e-01
3890=9.427660e-02
3891=-5.030761e-03
3895=-3.668507e-03
3898=1.090116e-01
3906=7.118231e-02
3907=-4.794086e-02
3911=1.471200e-01
3914=9.342433e-02
3922=3.467385e-03
3923=4.963302e-02
3927=-1.120624e-02
3930=7.303505e-02
3931=1.349563e-01
3935=-8.449791e-03
3938=7.118231e-02
3939=-4.794086e-02
3943=1.471200e-01
3946=3.861745e-02
3947=-1.120409e-02
3954=2.987990e-02
3957=-6.298554e-02
3958=1.776389e-02
3978=3.843494e-02
4014=4.900032e-02
4026=1.638396e-01
4037=-5.087022e-02
4038=5.533401e-02
4039=3.466491e-06
4042=-5.774104e-02
4043=6.665321e-01
4046=3.754411e-07
4047=1.813714e-01
4050=1.638396e-01
4058=1.584550e-01
4066=1.844837e-01
4067=-1.124647e-01
4074=1.247343e-02
4075=6.714086e-02
4079=-1.773897e-02
4082=2.532590e-02
4083=1.159601e-02
4087=-3.423008e-02
4090=2.274384e-02
4098=3.935148e-02
4099=-2.933993e-07
4122=6.974162e-02
4158=1.815234e-01
4167=5.384805e-04
4170=6.834355e-04
4171=4.281739e-02
4175=-6.437641e-02
4178=-1.201731e-05
4186=-3.038194e-02
4187=6.218851e-01
4195=5.641407e-02
4196=-6.210300e-02
4202=9.988708e-02
4203=1.548323e-02
4204=-2.831072e-01
4211=5.641407e-02
4212=-6.210300e-02
4220=1.552241e-04
4226=2.665172e-02
4231=2.672991e-04
4235=3.467334e-01
4236=9.137787e-02
4237=-4.287111e-03
4239=-6.964565e-02
4242=2.665172e-02
4247=2.672991e-04
4252=1.552241e-04
4260=1.552241e-04
4269=1.825415e-04
4277=1.825415e-04
4283=1.824044e-01
4287=-2.411372e-02
4293=3.945940e-02
4301=5.788149e-02
4306=1.165319e-03
4308=-1.024829e-03
4314=1.165319e-03
4316=-1.024829e-03
4325=3.945940e-02
4330=1.165319e-03
4332=-1.024829e-03
4343=2.910667e-02
4351=2.910667e-02
4354=3.428629e-02
4359=-1.126377e-02
4367=2.910667e-02
4370=2.193807e-01
4371=-2.489168e-02
4375=-2.613236e-02
4379=-9.404498e-03
4386=-1.994580e-04
4387=6.981996e-02
4391=1.538535e-03
4394=2.330978e-02
4395=3.276703e-02
4399=-1.249687e-02
4402=1.293381e-02
4403=-4.310906e-04
4407=-7.859205e-02
4410=2.190758e-02
4411=-8.817458e-01
4412=1.962765e-03
4415=6.717698e-03
4418=1.210092e-02
4419=3.347047e-04
4421=3.340441e-03
4423=-3.742387e-03
4426=1.293381e-02
4427=-4.310906e-04
4431=-7.859205e-02
4434=-9.455828e-02
4435=7.452435e-02
4442=1.210092e-02
4443=3.347047e-04
4445=3.340441e-03
4447=-3.742387e-03
4450=-5.849854e-03
4451=5.405573e-01
4458=1.210092e-02
4459=3.347047e-04
4461=3.340441e-03
4463=-3.742387e-03
4466=-4.690499e-02
4467=3.502537e-01
4471=2.568390e-02
4474=2.285617e-02
4475=-7.368060e-01
4479=4.702154e-03
4482=-3.199392e-02
4483=2.596905e-01
4487=3.046446e-02
4490=-3.519518e-04
4491=8.192405e-01
4493=5.024104e-02
4495=-2.465784e-03
4498=2.285617e-02
4499=-7.368060e-01
4503=4.702154e-03
4506=-4.878197e-02
4507=3.467064e-01
4511=2.588643e-02
4515=3.754816e-01
4522=-2.721500e-02
4523=1.286199e-01
4527=2.055625e-02
4530=-2.812597e-02
4531=1.285194e-01
4535=2.056179e-02
4538=-1.219182e-01
4539=6.870046e-01
4543=1.422791e-02
4546=-1.972121e-02
4547=1.178952e-01
4551=2.402410e-02
4554=-1.498967e-02
4555=1.772881e-01
4559=2.022692e-02
4562=-1.972121e-02
4563=1.178952e-01
4567=2.402410e-02
4570=-3.168758e-02
4571=1.262212e-01
4575=2.064849e-02
4578=-1.498967e-02
4579=1.772881e-01
4583=2.022692e-02
4586=-2.502927e-01
4587=1.543424e-01
4594=-2.828761e-02
4595=1.285688e-01
4599=2.055272e-02
4602=1.488616e-01
4603=1.003287e-03
4607=2.552853e-02
4610=-1.498967e-02
4611=1.772881e-01
4615=2.022692e-02
4618=4.384113e-02
4619=-3.159058e-01
4623=1.700309e-02
4626=-6.280563e-02
4627=3.944520e-01
4631=1.109606e-02
4634=6.497537e-02
4639=-1.145547e-03
4642=4.828095e-02
4643=-2.152676e-01
4647=1.722657e-02
4650=4.376870e-02
4651=-3.149110e-01
4655=1.700640e-02
4658=1.482095e-01
4659=6.583816e-02
4663=2.799807e-02
4666=1.740976e-02
4667=-8.893035e-05
4671=-7.167269e-03
4674=1.110265e-01
4675=1.719164e-02
4679=1.008589e-03
4682=5.313902e-02
4687=-1.298403e-03
4690=1.079012e-01
4691=1.324038e-02
4695=1.421824e-04
4698=4.053819e-02
4699=-5.175010e-02
4703=-6.168380e-03
4706=5.313902e-02
4711=-1.298403e-03
4714=-6.509869e-05
4722=4.053819e-02
4723=-5.175010e-02
4727=-6.168380e-03
4730=7.781582e-03
4735=-4.289741e-03
4739=3.418343e-04
4746=4.053819e-02
4747=-5.175010e-02
4751=-6.168380e-03
4754=1.486949e-01
4755=9.053108e-02
4757=-2.811865e-02
4759=7.995606e-05
4778=2.797137e-01
4779=-1.485933e+00
4787=4.777442e-01
4796=2.035352e-01
4823=3.237910e-02
4826=1.242431e-01
4827=7.896826e-02
4829=-2.032160e-02
4831=2.151196e-03
4834=2.600539e-02
4835=3.343327e-03
4839=1.141557e-03
4842=7.178534e-02
4843=-3.602501e-02
4847=-2.021319e-02
4850=1.242431e-01
4851=7.896826e-02
4853=-2.032160e-02
4855=2.151196e-03
4858=-4.314124e-01
4859=1.389906e-01
4863=2.262827e-04
4866=1.040629e-02
4871=-5.732835e-03
4874=1.126310e-02
4882=3.154517e-02
4883=3.641420e-03
4887=1.077261e-01
4895=3.339080e-03
4896=-5.381958e-02
4898=9.260350e-02
4899=1.260082e-03
4903=2.322268e-03
4906=3.405212e-02
4907=-2.580676e-03
4911=3.251809e-03
4914=3.478085e-02
4915=-2.545376e-03
4919=3.234575e-03
4922=8.997050e-02
4923=-9.934030e-04
4930=5.574989e-01
4938=1.192575e-01
4939=-3.798782e-03
4943=-3.030307e-02
4944=-6.960337e-05
4946=-1.204975e-01
4947=3.465503e-01
4948=1.445804e-02
4951=2.435910e-02
4954=3.413854e-02
4955=2.439995e-02
4959=1.074202e-01
4962=2.018310e-02
4967=-5.468268e-03
4970=-2.567315e-02
4971=6.851160e-02
4975=8.363396e-03
4979=-1.833367e-03
4986=-4.285931e-02
4987=1.009292e-01
4991=8.837481e-03
4995=-9.266606e-02
4996=7.948611e-02
5006=4.203024e-01
5014=4.203024e-01
5021=9.186057e-02
5022=-8.495414e-02
5026=2.579568e-03
5027=-4.191427e-03
5031=-3.956487e-03
5034=-1.379106e-02
5040=1.988190e-01
5050=-9.066790e-02
5051=5.041135e-02
5055=8.197354e-03
5058=8.241544e-02
5059=-4.768750e-01
5063=-5.352803e-03
5066=-9.066790e-02
5067=5.041135e-02
5071=8.197354e-03
5074=-1.252261e-07
5082=-6.658046e-03
5083=1.455668e-03
5087=4.617832e-04
5091=-1.544447e-02
5095=1.805514e-03
5098=2.799246e-04
5106=2.113781e-02
5107=-2.850045e-02
5111=-1.056254e-02
5119=2.729190e-05
5122=4.938032e-02
5123=-6.054291e-03
5127=-5.555726e-03
5130=-5.954263e-03
5131=2.992516e-02
5139=4.566698e-02
5143=-6.018051e-02
5151=8.222945e-03
5154=-1.005786e-01
5155=2.704553e-01
5159=-4.027456e-02
5162=1.146679e-02
5167=-6.702661e-03
5170=-1.005786e-01
5171=2.704553e-01
5175=-4.027456e-02
5178=2.343689e-04
5179=1.221357e-02
5183=-7.035193e-05
5186=8.087251e-03
5191=-1.778832e-02
5194=-4.305091e-03
5195=1.698606e-01
5202=1.401607e+00
5203=-4.762681e-02
5207=-3.158054e-01
5210=4.674400e-03
5211=-9.517281e-01
5215=5.715838e-03
5218=1.402160e-02
5223=-5.632183e-03
5226=5.277125e-01
5227=-5.079767e-01
5231=-1.313718e-01
5234=1.402160e-02
5239=-5.632183e-03
5242=9.900282e-03
5247=-1.639352e-03
5250=3.707454e-03
5255=9.225451e-03
5258=3.783950e-01
5259=-5.073705e-02
5266=2.422560e-02
5271=-1.411295e-03
5274=5.549649e-03
5282=4.539110e-03
5283=-1.746914e+00
5287=1.127751e-02
5290=-4.326899e-02
5291=1.060943e+00
5298=1.128002e-02
5303=3.945470e-03
5306=1.331185e-02
5311=-2.931900e-03
5314=3.563351e-01
5315=-1.998934e-03
5319=-8.135660e-04
5322=-6.908342e-03
5327=2.096301e-02
5330=8.373065e-03
5331=1.181594e-03
5335=8.945393e-03
5338=-3.261709e-02
5339=8.298704e-01
5343=-3.344710e-03
5346=-8.622409e-02
5347=3.429041e-01
5351=1.037324e-01
5355=-4.329395e-02
5359=2.142688e-02
5362=8.931604e-03
5363=1.117416e-03
5367=8.123632e-03
5370=2.013445e-02
5371=1.116407e-02
5375=1.074880e-02
5378=-1.224082e-01
5379=-4.644646e-03
5383=4.878628e-03
5386=1.047523e-02
5387=6.018107e-04
5391=8.205600e-03
5394=5.139361e-03
5395=3.179722e-03
5399=-2.814882e-04
5402=3.954844e-03
5403=1.692871e-03
5407=-3.648540e-04
5410=7.015696e-03
5411=1.601585e-04
5415=4.231497e-03
5418=7.344613e-03
5419=5.253786e-03
5423=4.212232e-03
5426=2.160150e-02
5427=-6.429964e-02
5431=8.416019e-03
5434=2.160150e-02
5435=-6.429964e-02
5439=8.416019e-03
5442=8.210797e-03
5443=2.838016e-04
5447=4.441384e-03
5450=1.981186e-02
5451=-4.527868e-02
5455=5.605344e-03
5458=6.568318e-03
5459=5.332383e-03
5463=-2.352301e-03
5466=8.569703e-03
5467=2.376700e-03
5471=2.340945e-03
5474=6.084131e-03
5475=1.247732e-06
5479=-2.206287e-03
5482=6.568318e-03
5483=5.332383e-03
5487=-2.352301e-03
5490=4.086585e-02
5491=-3.832791e-01
5495=4.728105e-03
5498=3.446257e-02
5499=-4.419208e-02
5503=-1.686398e-03
5506=3.217050e-02
5507=-4.638914e-01
5511=-1.863531e-03
5514=3.068401e-02
5515=1.510802e-04
5519=1.602151e-02
5522=-1.379364e-04
5523=2.073845e-05
5527=2.296342e-04
5530=3.477822e-02
5535=3.619638e-02
5538=3.325289e-02
5539=-3.605078e-01
5543=-7.114083e-04
5546=9.586510e-03
5547=4.199183e-03
5551=-1.594824e-03
5554=-3.690889e-02
5559=7.206223e-04
5562=3.450618e-03
5563=7.555242e-02
5564=-1.493612e-02
5567=2.323156e-02
5570=-9.551254e-04
5578=3.450618e-03
5579=7.555242e-02
5580=-1.493612e-02
5583=2.323156e-02
5586=1.007934e-01
5594=3.689715e-03
5595=-3.829077e-03
5599=1.649251e-02
5602=4.231905e-03
5603=-1.669658e-01
5604=-1.513244e-02
5607=3.888270e-02
5610=3.509144e-03
5611=7.703699e-02
5612=-1.500126e-02
5615=2.330444e-02
5618=7.885652e-02
5623=1.247891e-04
5626=9.318935e-02
5631=1.924633e-04
5634=4.327440e-02
5635=-5.881103e-03
5636=-1.564222e-02
5639=2.623747e-02
5642=4.259433e-02
5643=-1.914785e-02
5647=2.538165e-02
5650=4.693503e-03
5651=-5.855758e-03
5652=-1.529198e-02
5655=1.876891e-02
5658=3.450618e-03
5659=7.555242e-02
5660=-1.493612e-02
5663=2.323156e-02
5666=5.256292e-02
5667=8.663570e-02
5671=2.885015e-05
5674=-3.471537e-02
5679=2.233236e-02
5682=-8.700035e-02
5687=4.347847e-04
5690=1.770314e-01
5691=-4.822771e-03
5695=-2.043377e-03
5698=1.464583e-01
5699=-1.083097e-01
5703=-4.317573e-03
5706=5.751137e-02
5711=7.923672e-04
5714=-5.769210e-03
5722=-1.005272e-04
5727=6.071455e-06
5730=5.751137e-02
5735=7.923672e-04
5738=3.297844e-01
5746=9.584421e-02
5747=-1.034618e-01
5751=1.928841e-04
5754=8.940614e-01
5755=-5.203495e-01
5762=9.380605e-02
5763=-1.195027e-01
5767=3.722094e-02
5770=1.464584e-01
5771=-1.076864e-01
5775=-4.593160e-03
5778=1.748564e-01
5779=-3.065812e-02
5783=4.908730e-04
5786=6.310727e-01
5787=-4.698578e-01
5791=1.014659e-04
5794=9.759247e-02
5795=-1.206351e-01
5799=2.975131e-02
5818=1.504991e-01
5819=-6.424774e-01
5823=-4.111413e-03
5827=3.642411e-02
5863=1.239383e-01
5866=5.751137e-02
5871=7.923672e-04
5874=7.144479e-02
5879=-1.612098e-02
5882=-1.420379e-01
5887=2.509047e-04
5895=2.835251e-04
5898=-1.795221e-02
5899=4.776029e-01
5903=-3.145830e-03
5906=-7.582569e-03
5907=9.824614e-03
5911=1.414153e-03
5930=-2.650389e-02
5931=7.852010e-01
5935=6.843036e-02
5939=-1.252559e-01
5940=8.320350e-01
5950=3.065965e-02
5971=1.480678e-02
5975=-1.243471e-03
5978=5.235550e-03
5979=5.669122e-03
5986=7.345647e-03
5987=-7.446626e-03
5991=3.745954e-04
5999=9.983626e-05
6002=7.345647e-03
6003=-7.446626e-03
6007=3.745954e-04
6010=2.808504e-03
6011=-8.059546e-05
6018=-8.980536e-03
6026=2.927030e-05
6034=-2.603999e-03
6035=2.460155e-02
6042=7.345647e-03
6043=-7.446626e-03
6047=3.745954e-04
6050=2.444573e-01
6051=-2.785685e+00
6058=2.134250e-02
6059=-7.342336e-03
6063=1.602003e-02
6066=-4.355517e-04
6067=-3.036348e-01
6071=3.336744e-02
6074=1.256089e-02
6075=2.301730e-04
6079=-3.900275e-03
6082=2.134250e-02
6083=-7.342336e-03
6087=1.602003e-02
6095=2.334156e-03
6098=1.358256e-01
6106=-1.698477e-04
6107=8.987005e-03
6112=9.366527e-02
6114=-7.804730e-02
6115=2.336673e-01
6118=-1.392523e-03
6119=-3.903751e-02
6122=1.938522e-01
6123=-3.482197e-03
6130=-5.755311e-02
6131=5.680670e-03
6135=2.901527e-02
6138=-5.755311e-02
6139=5.680670e-03
6143=2.901527e-02
6146=3.911385e-01
6147=-1.228318e+00
6151=1.539168e-03
6154=-6.170781e-02
6155=4.436550e-04
6162=-1.731367e-02
6163=1.144642e+00
6167=2.055933e-04
6170=2.141848e-01
6171=-7.085282e-01
6175=5.795793e-04
6178=8.063571e-03
6179=1.827165e-02
6181=-1.723109e-02
6183=5.431536e-04
6186=-1.464955e-01
6187=9.301194e-02
6189=3.455584e-03
6191=4.996254e-02
6194=2.750616e-02
6195=-1.491358e-01
6202=5.180001e-02
6203=-1.022207e+00
6210=1.452998e-02
6211=-1.426270e-01
6215=2.052408e-03
6218=9.587520e-02
6219=-6.808323e-02
6223=-2.055916e-03
6226=2.363016e-01
6227=-4.360943e-04
6231=-5.802554e-03
6234=1.013874e-02
6235=8.055831e-03
6239=-3.840168e-04
6242=3.726337e-02
6243=-1.221547e-01
6247=4.414086e-02
6250=1.232436e+00
6258=-7.271785e-02
6259=1.674081e-02
6266=3.276550e-02
6267=-1.461915e-01
6271=1.767237e-03
6274=3.276550e-02
6275=-1.461915e-01
6279=1.767237e-03
6282=3.758700e-01
6283=-4.066762e-05
6287=-1.964089e-02
6290=1.854969e-02
6291=-5.920953e-02
6295=-2.487360e-03
6298=-4.346048e-03
6303=1.608354e-02
6307=5.049494e-01
6311=-6.183223e-03
6314=-2.758496e-01
6322=1.785374e-04
6323=-2.074925e-03
6327=1.205881e-02
6330=6.307939e-02
6338=3.545278e-01
6339=-7.325125e-01
6346=5.755558e-01
6351=-9.733614e-02
6354=7.024356e-02
6362=1.389822e-02
6363=-6.897295e-03
6370=-7.662670e-02
6371=3.779401e-01
6375=-1.893500e+00
6378=2.633839e-02
6379=-4.909693e-02
6386=-2.393598e-02
6387=1.677792e-01
6394=-1.420727e-01
6395=8.660185e-02
6402=-1.887034e-01
6403=7.484605e-02
6410=-1.001016e-01
6411=3.030497e-01
6415=-1.927214e-03
6418=-1.001016e-01
6419=3.030497e-01
6423=-1.927214e-03
6426=-2.377017e-01
6427=7.304241e-02
6434=-6.444665e-02
6435=6.813204e-02
6442=-2.517311e-01
6443=3.908086e-01
6450=3.820560e-03
6451=1.763169e-02
6458=-9.506178e-01
6459=8.364827e-03
6466=-6.506731e-03
6467=3.925971e-01
6471=-8.874364e-03
6474=8.614359e-02
6475=-1.244721e-02
6479=-1.991997e-02
6482=-6.160906e-03
6483=1.697278e-02
6490=6.554323e-02
6498=-3.591857e-01
6499=7.553576e-01
6503=1.551758e-03
6506=2.307229e-02
6511=-1.002818e+00
6514=-4.231457e-01
6515=5.773316e-01
6516=2.575898e-04
6523=1.019220e-01
6524=-1.072848e-02
6530=-6.752991e-01
6531=1.797520e+00
6538=-4.613593e-01
6539=7.400954e-02
6546=-2.342953e-01
6547=3.558702e-02
6548=2.275308e-02
6549=-8.362099e-03
6551=-5.864277e-03
6554=2.398512e-03
6555=-3.592225e-03
6564=8.139792e-02
6566=1.155280e-02
6596=7.144513e-01
6604=-1.597113e-01
6628=-8.359593e-03
6634=-2.459336e-01
6635=-7.040968e-01
6636=3.440521e-01
6637=9.660261e-05
6638=1.276569e-01
6639=1.685311e-02
6640=-1.080126e-01
6642=-2.707591e-01
6643=4.548880e-03
6644=1.090332e-01
6645=2.488505e-03
6646=-2.738231e-05
6647=-8.023042e-03
6652=-4.165272e-02
6660=-7.615870e-02
6668=-5.870075e-02
6676=-5.870075e-02
6684=-4.165272e-02
6692=-4.165272e-02
6698=-9.819274e-02
6701=5.465373e-01
6702=-2.269330e-06
6741=6.745204e-01
6750=2.078188e-01
6766=-6.530530e-01
6773=-5.057873e-02
6778=-6.095431e-02
6781=-8.789765e-03
6789=-5.057873e-02
6794=8.261654e-02
6795=-8.644234e-03
6802=1.870895e-03
6807=-1.182012e-02
6810=-1.625791e-03
6811=6.168872e-01
6818=7.159122e-03
6819=-1.875236e-01
6823=-1.734488e-02
6826=1.311171e-02
6831=-1.487482e-03
6834=-1.199206e-03
6842=1.311171e-02
6847=-1.487482e-03
6850=1.156122e-01
6855=-6.875925e-04
6858=1.311171e-02
6863=-1.487482e-03
6866=1.890408e-02
6867=-4.223196e-01
6871=-4.539947e-02
6874=1.742807e-01
6875=-2.004807e-01
6879=-2.878534e-02
6882=1.890408e-02
6883=-4.223196e-01
6887=-4.539947e-02
6890=-7.986033e-04
6898=1.647427e+00
6903=-5.329923e-02
6906=-2.535192e-03
6907=9.429873e-02
6911=-2.318197e-02
6914=2.391186e-02
6915=-9.921047e-03
6917=3.837864e-02
6919=-1.372284e-02
6922=1.229263e-02
6923=-2.609588e-01
6927=8.144737e-02
6930=2.391186e-02
6931=-9.921047e-03
6933=3.837864e-02
6935=-1.372284e-02
6938=4.942676e-01
6939=-6.086609e-01
6940=1.875230e-02
6943=-6.809753e-03
6946=9.604590e-05
6947=-5.487256e-01
6951=9.785116e-02
6954=8.582093e-02
6962=4.642835e-03
6970=1.125966e-02
6971=1.138050e-03
6975=1.335266e-03
6978=1.285946e-01
6979=-1.414059e-01
6986=1.125966e-02
6987=1.138050e-03
6991=1.335266e-03
6994=-8.775497e-02
6995=1.566190e-01
6999=2.749301e-02
7002=4.301557e-03
7010=-1.466151e-01
7011=2.488340e-01
7019=2.110694e-07
7026=-4.415439e-04
7027=4.328557e-04
7031=-4.510908e-03
7034=-4.415439e-04
7035=4.328557e-04
7039=-4.510908e-03
7042=1.555024e-01
7043=-2.248311e-01
7047=-9.482343e-03
7050=-8.296820e-03
7051=1.154663e-01
7058=-9.748201e-02
7059=2.090493e+00
7063=-3.931090e-03
7067=2.106346e-01
7074=-6.067058e-01
7075=1.087701e+00
7082=-4.973506e-01
7083=1.325860e+00
7090=4.192802e-03
7091=6.017744e-02
7095=-6.102597e-03
7098=-8.684236e-01
7099=1.109815e+00
7106=9.549028e-03
7107=1.653697e-01
7111=-5.199142e-03
7114=1.063090e-02
7117=3.140734e-01
7119=-3.462717e-03
7126=9.246064e-02
7130=2.958668e-02
7133=4.211654e-02
7134=-1.434080e-01
7135=-1.895740e-03
7154=3.635178e-01
7166=-2.217851e-02
7182=2.075193e-01
7199=3.978316e-04
7202=5.429638e-03
7205=6.140029e-01
7206=-2.425044e-01
7207=-5.299645e-03
7210=1.140162e-02
7211=-2.608349e-02
7218=1.694420e-02
7219=-6.473754e-02
7223=-3.020396e-03
7226=1.694420e-02
7227=-6.473754e-02
7231=-3.020396e-03
7235=1.387889e-01
7239=-5.887092e-05
7242=2.930495e-01
7247=-6.316446e-03
7250=-6.895057e-03
7251=-3.560174e-02
7255=9.083821e-02
7258=7.026756e-03
7266=-7.712097e-02
7267=1.139400e-01
7274=-3.215054e-03
7275=4.424967e-01
7276=1.929514e-02
7279=-1.510852e-02
7282=-3.348364e-03
7283=3.703423e-02
7290=-3.000718e-02
7291=9.323984e-01
7295=6.450652e-02
7298=1.325493e-03
7299=-6.205102e-02
7300=-6.627374e-01
7303=6.755961e-02
7311=3.543515e-03
7316=3.393245e-02
7324=3.393245e-02
7332=3.393245e-02
7338=2.160780e-03
7346=-9.662825e-03
7347=2.801620e-03
7354=5.549458e-01
7355=-1.424393e-01
7362=3.833273e-03
7363=3.581903e-02
7367=-4.142193e-01
7370=8.012310e-02
7371=-1.389526e-03
7375=-2.341194e-03
7378=-9.761099e-02
7379=4.997882e-02
7386=-8.749765e-01
7387=4.183559e-02
7391=3.228946e-01
7394=1.460747e+00
7395=-8.258471e-01
7399=4.578660e-02
7402=-3.846989e-02
7403=1.869834e-03
7407=7.894023e-02
7410=7.816468e-03
7415=-3.592266e-01
7418=-6.333988e-01
7419=2.045835e-01
7423=1.271981e-01
7426=-1.997325e-04
7427=-8.960830e-04
7431=3.783093e-02
7434=-1.997325e-04
7435=-8.960830e-04
7439=3.783093e-02
7442=4.459886e-03
7450=-9.081437e-02
7451=1.763895e-02
7458=1.689182e-02
7463=-6.665589e-03
7466=3.655169e-02
7470=-5.447438e-02
7471=-4.853753e-02
7479=-5.149171e-03
7482=3.655169e-02
7486=-5.447438e-02
7487=-4.853753e-02
7490=-2.198962e-02
7495=2.175740e-03
7503=-4.514117e-03
7506=-2.552782e-03
7507=2.073852e-02
7509=1.549429e-01
7510=-1.220490e-01
7511=-1.026098e-03
7519=-4.514117e-03
7522=-2.552782e-03
7523=2.073852e-02
7525=1.549429e-01
7526=-1.220490e-01
7527=-1.026098e-03
7530=4.564951e-01
7531=-1.233286e+00
7538=-2.552782e-03
7539=2.073852e-02
7541=1.549429e-01
7542=-1.220490e-01
7543=-1.026098e-03
7546=-1.530255e-03
7547=1.030371e-03
7554=1.578214e-03
7555=-8.630504e-03
7559=7.958707e-03
7562=-7.330169e-03
7563=1.658452e-02
7570=2.717697e-01
7571=-1.801171e-01
7578=-1.281765e-01
7579=2.169990e-01
7586=1.037854e-02
7587=-9.432935e-03
7594=-3.465894e-01
7595=1.520861e+00
7599=-1.044108e-01
7602=7.189461e-02
7603=-1.013969e-01
7607=8.772612e-03
7610=5.447152e-03
7615=-3.101072e-01
7618=3.429518e-01
7619=-7.891400e-03
7623=9.802856e-04
7626=-3.150827e-01
7627=2.568199e-01
7634=-3.150827e-01
7635=2.568199e-01
7642=-1.220149e+00
7643=1.477702e+00
7651=2.476738e-02
7658=-1.794954e-02
7659=-2.540848e-03
7663=1.639128e-03
7666=-1.700483e-02
7667=5.593312e-01
7674=1.286761e-02
7675=-6.879026e-02
7676=1.903361e-02
7679=-4.961587e-02
7683=2.205032e-02
7687=-2.402115e-04
