#mdl#2#7406
#rdr#61/19/0
1:*,
18:u:Tok-1 X=%x[ 0,0],
18:u:tok-1 X=%x[ 0,1],
18:u:tok-1LL=%X[-2,0],
18:u:tok-1 L=%X[-1,0],
18:u:tok-1 R=%X[ 1,0],
18:u:tok-1RR=%X[ 2,0],
27:u:tok-2 L=%X[-1,0]/%X[ 0,0],
27:u:tok-2 R=%X[ 0,0]/%X[ 1,0],
18:*:Fst-1 X=%x[ 0,2],
18:u:Fst-1 R=%x[ 1,2],
27:u:Fst-2 X=%x[ 0,2]/%x[ 0,4],
27:u:Fst-2 R=%x[ 1,2]/%x[ 1,4],
18:*:Lst-1 L=%x[-1,3],
18:u:Lst-1 X=%x[ 0,3],
27:u:Lst-2 L=%x[-1,3]/%x[-1,6],
27:u:Lst-2 X=%x[ 0,3]/%x[ 0,6],
18:u:Pre-1 X=%x[ 0,4],
18:u:Pre-2 X=%x[ 0,5],
18:u:Pre-2 R=%x[ 1,5],
18:u:Suf-1 X=%x[ 0,6],
18:u:Suf-2 L=%x[-1,7],
18:u:Suf-2 X=%x[ 0,7],
18:u:Cap-1 L=%x[-1,8],
18:u:Cap-1 X=%x[ 0,8],
18:u:Cap-1 R=%x[ 1,8],
27:u:Cap-2 L=%x[-1,8]/%x[ 0,8],
27:u:Cap-2 R=%x[ 0,8]/%x[ 1,8],
28:u:Cap-3 L=%x[-1,18]/%x[ 0,8],
18:*:Num-1 L=%x[-1,9],
18:*:Num-1 X=%x[ 0,9],
18:u:Num-1 R=%x[ 1,9],
28:u:Num-2 R=%x[ 0,9]/%x[ 0,17],
28:u:Num-2 R=%x[ 0,9]/%x[ 0,18],
19:u:Nme-1 X=%x[ 0,10],
19:u:Loc-1 X=%x[ 0,11],
19:u:Pub-1 X=%x[ 0,12],
19:u:Jnl-1 X=%x[ 0,13],
19:u:Key-1 L=%x[-1,14],
19:u:Key-1 X=%x[ 0,14],
19:u:Key-1 R=%x[ 1,14],
28:u:Key-2 X=%x[ 0,14]/%x[ 0,8],
29:u:Key-3 L=%x[-1,18]/%x[ 0,14],
29:u:Key-3 x=%x[ 0,14]/%x[ 0,18],
19:u:Pos-1 X=%x[ 0,15],
29:u:Pos-2 L=%x[-1,15]/%x[ 0,15],
29:u:Pos-2 R=%x[ 0,15]/%x[ 1,15],
19:u:Pct-1 L=%x[-1,16],
19:u:Pct-1 X=%x[ 0,16],
19:u:Pct-1 R=%x[ 1,16],
19:u:Brk-1 L=%x[-1,17],
19:u:Brk-1 X=%x[ 0,17],
19:u:Brk-1 R=%x[ 1,17],
19:*:Tmn-1 L=%x[-1,18],
19:u:Tmn-1 X=%x[ 0,18],
19:u:Tmn-1 R=%x[ 1,18],
29:u:Tmn-2 L=%x[-1,14]/%x[ 0,18],
29:u:Tmn-2 R=%x[ 0,18]/%x[ 1,14],
28:u:Tmn-3 X=%x[ 0,18]/%x[ 0,6],
28:u:Tmn-4 R=%x[ 0,18]/%x[ 1,8],
19:u:Id--1 X=%x[ 0,19],
#qrk#5
7:Authors,
4:Year,
5:Title,
4:Book,
6:Suffix,
#qrk#3561
1:*,
14:u:tok-1LL=_x-2,
14:u:tok-1 L=_x-1,
12:*:Fst-1 X=Lu,
12:u:Fst-1 R=Lu,
14:u:Fst-2 X=Lu/G,
14:u:Fst-2 R=Lu/J,
14:*:Lst-1 L=_x-1,
11:u:Lst-1 X=P,
19:u:Lst-2 L=_x-1/_x-1,
13:u:Lst-2 X=P/,,
11:u:Pre-1 X=G,
12:u:Pre-2 R=J.,
11:u:Suf-1 X=,,
14:u:Suf-2 L=_x-1,
12:u:Suf-2 X=r,,
14:u:Cap-1 L=_x-1,
17:u:Cap-1 X=initial,
16:u:Cap-1 R=single,
22:u:Cap-2 L=_x-1/initial,
24:u:Cap-2 R=initial/single,
22:u:Cap-3 L=_x-1/initial,
14:*:Num-1 L=_x-1,
14:*:Num-1 X=none,
14:u:Num-1 R=none,
19:u:Num-2 R=none/none,
19:u:Num-2 R=none/weak,
11:u:Nme-1 X=F,
11:u:Loc-1 X=F,
11:u:Pub-1 X=F,
11:u:Jnl-1 X=F,
14:u:Key-1 L=_x-1,
14:u:Key-1 X=none,
14:u:Key-1 R=none,
22:u:Key-2 X=none/initial,
19:u:Key-3 L=_x-1/none,
19:u:Key-3 x=none/weak,
15:u:Pos-1 X=first,
20:u:Pos-2 L=_x-1/first,
17:u:Pos-2 R=first/0,
14:u:Pct-1 L=_x-1,
15:u:Pct-1 X=other,
16:u:Pct-1 R=period,
14:u:Brk-1 L=_x-1,
14:u:Brk-1 X=none,
14:u:Brk-1 R=none,
14:*:Tmn-1 L=_x-1,
14:u:Tmn-1 X=weak,
14:u:Tmn-1 R=weak,
19:u:Tmn-2 L=_x-1/weak,
19:u:Tmn-2 R=weak/none,
16:u:Tmn-3 X=weak/,,
21:u:Tmn-4 R=weak/single,
11:u:Id--1 X=F,
11:u:tok-1 X=j,
14:u:tok-1LL=_x-1,
14:u:Fst-2 X=Lu/J,
14:u:Fst-2 R=Lu/F,
11:*:Lst-1 L=P,
13:u:Lst-2 L=P/,,
13:u:Lst-2 X=P/;,
11:u:Pre-1 X=J,
12:u:Pre-2 X=J.,
11:u:Suf-1 X=;,
12:u:Suf-2 L=r,,
17:u:Cap-1 L=initial,
16:u:Cap-1 X=single,
17:u:Cap-1 R=initial,
24:u:Cap-2 L=initial/single,
24:u:Cap-2 R=single/initial,
21:u:Cap-3 L=weak/single,
14:*:Num-1 L=none,
14:u:Key-1 L=none,
21:u:Key-2 X=none/single,
19:u:Key-3 L=weak/none,
11:u:Pos-1 X=0,
15:u:Pct-1 L=other,
16:u:Pct-1 X=period,
15:u:Pct-1 R=other,
14:u:Brk-1 L=none,
14:*:Tmn-1 L=weak,
19:u:Tmn-2 L=none/weak,
16:u:Tmn-3 X=weak/;,
22:u:Tmn-4 R=weak/initial,
14:u:Fst-2 X=Lu/F,
14:u:Fst-2 R=Lu/H,
11:u:Pre-1 X=F,
12:u:Pre-2 X=Fe,
16:u:Cap-1 L=single,
24:u:Cap-2 L=single/initial,
22:u:Cap-3 L=weak/initial,
11:u:Nme-1 X=T,
11:u:Pos-1 X=1,
13:u:Pos-2 R=1/1,
16:u:Pct-1 L=period,
11:u:tok-1 X=h,
14:u:Fst-2 X=Lu/H,
14:u:Fst-2 R=Lu/M,
11:u:Pre-1 X=H,
12:u:Pre-2 X=H.,
13:u:Pos-2 L=1/1,
14:u:Fst-2 X=Lu/M,
14:u:Fst-2 R=Lu/C,
11:u:Pre-1 X=M,
12:u:Suf-2 X=y,,
15:u:Num-1 R=roman,
13:u:Pos-2 R=1/2,
16:u:Tmn-1 R=strong,
11:u:Fst-1 R=N,
14:u:Fst-2 X=Lu/C,
13:u:Fst-2 R=N/1,
13:u:Lst-2 X=P/.,
11:u:Pre-1 X=C,
12:u:Pre-2 R=19,
11:u:Suf-1 X=.,
12:u:Suf-2 L=y,,
15:u:Cap-1 R=other,
22:u:Cap-2 R=single/other,
15:*:Num-1 X=roman,
14:u:Num-1 R=year,
20:u:Num-2 R=roman/none,
22:u:Num-2 R=roman/strong,
21:u:Key-3 x=none/strong,
11:u:Pos-1 X=2,
13:u:Pos-2 L=1/2,
13:u:Pos-2 R=2/2,
14:u:Pct-1 R=none,
16:u:Tmn-1 X=strong,
14:u:Tmn-1 R=none,
21:u:Tmn-2 L=none/strong,
21:u:Tmn-2 R=strong/none,
18:u:Tmn-3 X=strong/.,
22:u:Tmn-4 R=strong/other,
11:*:Fst-1 X=N,
13:u:Fst-2 X=N/1,
14:u:Fst-2 R=Lu/P,
11:u:Lst-1 X=N,
13:u:Lst-2 L=P/.,
13:u:Lst-2 X=N/9,
11:u:Pre-1 X=1,
12:u:Pre-2 X=19,
11:u:Suf-1 X=9,
15:u:Cap-1 X=other,
22:u:Cap-2 L=single/other,
23:u:Cap-2 R=other/initial,
22:u:Cap-3 L=strong/other,
15:*:Num-1 L=roman,
14:*:Num-1 X=year,
19:u:Num-2 R=year/none,
20:u:Key-2 X=none/other,
21:u:Key-3 L=strong/none,
19:u:Key-3 x=none/none,
13:u:Pos-2 L=2/2,
14:u:Pct-1 X=none,
16:u:Pct-1 R=hyphen,
16:*:Tmn-1 L=strong,
14:u:Tmn-1 X=none,
19:u:Tmn-2 L=none/none,
19:u:Tmn-2 R=none/none,
16:u:Tmn-3 X=none/9,
22:u:Tmn-4 R=none/initial,
12:u:tok-1RR=on,
12:u:Fst-1 R=Ll,
14:u:Fst-2 X=Lu/P,
14:u:Fst-2 R=Ll/c,
11:*:Lst-1 L=N,
12:u:Lst-1 X=Ll,
14:u:Lst-2 X=Ll/c,
11:u:Pre-1 X=P,
12:u:Pre-2 X=Pe,
12:u:Pre-2 R=co,
11:u:Suf-1 X=c,
12:u:Suf-2 X=ic,
15:u:Cap-1 L=other,
15:u:Cap-1 R=lower,
23:u:Cap-2 L=other/initial,
23:u:Cap-2 R=initial/lower,
22:u:Cap-3 L=none/initial,
14:*:Num-1 L=year,
19:u:Key-3 L=none/none,
13:u:Pos-2 R=2/3,
14:u:Pct-1 L=none,
16:u:Pct-1 X=hyphen,
14:*:Tmn-1 L=none,
16:u:Tmn-3 X=none/c,
20:u:Tmn-4 R=none/lower,
13:u:tok-1RR=the,
12:*:Fst-1 X=Ll,
14:u:Fst-2 X=Ll/c,
14:u:Fst-2 R=Ll/o,
12:*:Lst-1 L=Ll,
14:u:Lst-2 L=Ll/c,
14:u:Lst-2 X=Ll/g,
11:u:Pre-1 X=c,
12:u:Pre-2 X=co,
11:u:Suf-1 X=g,
12:u:Suf-2 L=ic,
12:u:Suf-2 X=ng,
15:u:Cap-1 X=lower,
23:u:Cap-2 L=initial/lower,
21:u:Cap-2 R=lower/lower,
20:u:Cap-3 L=none/lower,
11:u:Jnl-1 X=T,
20:u:Key-2 X=none/lower,
11:u:Pos-1 X=3,
13:u:Pos-2 L=2/3,
13:u:Pos-2 R=3/3,
16:u:Pct-1 L=hyphen,
16:u:Tmn-3 X=none/g,
13:u:tok-1 R=the,
14:u:Fst-2 X=Ll/o,
14:u:Fst-2 R=Ll/t,
14:u:Lst-2 L=Ll/g,
14:u:Lst-2 X=Ll/n,
11:u:Pre-1 X=o,
12:u:Pre-2 R=th,
11:u:Suf-1 X=n,
12:u:Suf-2 L=ng,
12:u:Suf-2 X=on,
15:u:Cap-1 L=lower,
21:u:Cap-2 L=lower/lower,
13:u:Pos-2 L=3/3,
16:u:Tmn-3 X=none/n,
13:u:Tok-1 X=the,
13:u:tok-1 X=the,
12:u:tok-1 L=on,
12:u:tok-1RR=of,
14:u:Fst-2 X=Ll/t,
14:u:Fst-2 R=Ll/s,
14:u:Lst-2 L=Ll/n,
14:u:Lst-2 X=Ll/e,
11:u:Pre-1 X=t,
12:u:Pre-2 X=th,
11:u:Suf-1 X=e,
12:u:Suf-2 L=on,
12:u:Suf-2 X=he,
11:u:Pub-1 X=T,
13:u:Pos-2 R=3/4,
16:u:Tmn-3 X=none/e,
12:u:tok-1LL=on,
13:u:tok-1 L=the,
12:u:tok-1 R=of,
14:u:Fst-2 X=Ll/s,
14:u:Lst-2 L=Ll/e,
14:u:Lst-2 X=Ll/f,
11:u:Pre-1 X=s,
12:u:Pre-2 R=of,
11:u:Suf-1 X=f,
12:u:Suf-2 L=he,
11:u:Loc-1 X=T,
11:u:Pos-1 X=4,
13:u:Pos-2 L=3/4,
13:u:Pos-2 R=4/4,
16:u:Tmn-3 X=none/f,
12:u:Tok-1 X=of,
12:u:tok-1 X=of,
13:u:tok-1LL=the,
16:u:tok-2 R=of/the,
14:u:Lst-2 L=Ll/f,
12:u:Pre-2 X=of,
12:u:Suf-2 L=lf,
12:u:Suf-2 X=of,
13:u:Pos-2 L=4/4,
12:u:tok-1 L=of,
16:u:tok-2 L=of/the,
14:u:Fst-2 R=Ll/n,
12:u:Pre-2 R=no,
12:u:Suf-2 L=of,
13:u:Pos-2 R=4/5,
12:u:tok-1LL=of,
13:u:tok-1RR=and,
14:u:Fst-2 X=Ll/n,
14:u:Fst-2 R=Lu/B,
11:u:Pre-1 X=n,
12:u:Pre-2 X=no,
12:u:Pre-2 R=Be,
23:u:Cap-2 R=lower/initial,
11:u:Pos-1 X=5,
13:u:Pos-2 L=4/5,
13:u:Pos-2 R=5/5,
13:u:tok-1 R=and,
14:u:Fst-2 X=Lu/B,
14:u:Fst-2 R=Ll/a,
11:u:Pre-1 X=B,
12:u:Pre-2 X=Be,
12:u:Pre-2 R=an,
12:u:Suf-2 L=rn,
23:u:Cap-2 L=lower/initial,
13:u:Key-1 R=and,
13:u:Pos-2 L=5/5,
13:u:Pos-2 R=5/6,
18:u:Tmn-2 R=none/and,
13:u:Tok-1 X=and,
13:u:tok-1 X=and,
14:u:Fst-2 X=Ll/a,
14:u:Lst-2 X=Ll/d,
11:u:Pre-1 X=a,
12:u:Pre-2 X=an,
12:u:Pre-2 R=Ch,
11:u:Suf-1 X=d,
12:u:Suf-2 X=nd,
13:u:Key-1 X=and,
19:u:Key-2 X=and/lower,
18:u:Key-3 L=none/and,
18:u:Key-3 x=and/none,
11:u:Pos-1 X=6,
13:u:Pos-2 L=5/6,
13:u:Pos-2 R=6/6,
16:u:Tmn-3 X=none/d,
13:u:tok-1 L=and,
14:u:Fst-2 R=Lu/S,
14:u:Lst-2 L=Ll/d,
14:u:Lst-2 X=Ll/i,
12:u:Pre-2 X=Ch,
12:u:Pre-2 R=Se,
11:u:Suf-1 X=i,
12:u:Suf-2 L=nd,
12:u:Suf-2 X=hi,
25:u:Cap-2 R=initial/initial,
13:u:Key-1 L=and,
13:u:Pos-2 L=6/6,
18:u:Tmn-2 L=and/none,
16:u:Tmn-3 X=none/i,
13:u:tok-1LL=and,
14:u:Fst-2 X=Lu/S,
14:u:Fst-2 R=Lu/I,
14:u:Lst-2 L=Ll/i,
11:u:Pre-1 X=S,
12:u:Pre-2 X=Se,
12:u:Suf-2 L=hi,
12:u:Suf-2 X=s.,
14:u:Cap-1 R=caps,
25:u:Cap-2 L=initial/initial,
22:u:Cap-2 R=initial/caps,
21:u:Num-2 R=none/strong,
15:u:Key-1 R=roman,
13:u:Pos-2 R=6/7,
22:u:Tmn-2 R=strong/roman,
21:u:Tmn-4 R=strong/caps,
13:u:Tok-1 X=II.,
12:u:tok-1 X=ii,
14:u:Fst-2 X=Lu/I,
11:u:Pre-1 X=I,
12:u:Pre-2 X=II,
12:u:Suf-2 L=s.,
12:u:Suf-2 X=I.,
14:u:Cap-1 X=caps,
22:u:Cap-2 L=initial/caps,
22:u:Cap-2 R=caps/initial,
21:u:Cap-3 L=strong/caps,
15:u:Key-1 X=roman,
20:u:Key-2 X=roman/caps,
22:u:Key-3 L=strong/roman,
22:u:Key-3 x=roman/strong,
11:u:Pos-1 X=7,
13:u:Pos-2 L=6/7,
13:u:Pos-2 R=7/7,
24:u:Tmn-4 R=strong/initial,
19:u:tok-1 R=community,
12:u:Suf-2 L=I.,
14:u:Cap-1 L=caps,
22:u:Cap-2 L=caps/initial,
24:u:Cap-3 L=strong/initial,
15:u:Key-1 L=roman,
13:u:Pos-2 L=7/7,
20:u:Tmn-2 L=roman/none,
19:u:tok-1 X=community,
16:u:tok-1RR=marine,
14:u:Lst-2 X=Ll/y,
12:u:Pre-2 R=st,
11:u:Suf-1 X=y,
12:u:Suf-2 X=ty,
13:u:Pos-2 R=7/8,
16:u:Tmn-3 X=none/y,
19:u:tok-1 L=community,
16:u:tok-1 R=marine,
17:u:tok-1RR=ecology,
14:u:Lst-2 L=Ll/y,
12:u:Pre-2 X=st,
12:u:Pre-2 R=Ma,
12:u:Suf-2 L=ty,
12:u:Suf-2 X=re,
11:u:Pos-1 X=8,
13:u:Pos-2 L=7/8,
13:u:Pos-2 R=8/8,
16:u:Tok-1 X=Marine,
16:u:tok-1 X=marine,
19:u:tok-1 L=structure,
17:u:tok-1 R=ecology,
24:u:tok-2 R=marine/ecology,
14:u:Fst-2 R=Lu/E,
12:u:Pre-2 X=Ma,
12:u:Pre-2 R=Ec,
12:u:Suf-2 L=re,
12:u:Suf-2 X=ne,
13:u:Pos-2 L=8/8,
17:u:tok-1 X=ecology,
16:u:tok-1 L=marine,
14:u:Fst-2 X=Lu/E,
11:u:Pre-1 X=E,
12:u:Pre-2 R=Pr,
12:u:Suf-2 L=ne,
12:u:Suf-2 X=gy,
13:u:Pos-2 R=8/9,
16:u:tok-1LL=marine,
16:u:tok-1 R=series,
14:u:Lst-2 X=Ll/s,
12:u:Pre-2 X=Pr,
11:u:Suf-1 X=s,
16:u:Key-1 R=series,
11:u:Pos-1 X=9,
13:u:Pos-2 L=8/9,
13:u:Pos-2 R=9/9,
16:u:Tmn-3 X=none/s,
16:u:Tok-1 X=Series,
16:u:tok-1 X=series,
14:u:Lst-2 L=Ll/s,
12:u:Suf-2 X=es,
23:u:Cap-2 R=initial/other,
17:u:Num-1 R=numeric,
16:u:Key-1 X=series,
24:u:Key-2 X=series/initial,
21:u:Key-3 L=none/series,
21:u:Key-3 x=series/none,
13:u:Pos-2 L=9/9,
15:u:Pct-1 R=colon,
18:u:Tmn-1 R=moderate,
20:u:Tmn-4 R=none/other,
16:u:tok-1 L=series,
14:u:tok-1RR=_x+1,
13:u:Fst-2 X=N/5,
13:u:Fst-2 R=N/2,
13:u:Lst-2 X=P/:,
11:u:Pre-1 X=5,
12:u:Pre-2 R=25,
11:u:Suf-1 X=:,
12:u:Suf-2 L=es,
23:u:Cap-2 L=initial/other,
21:u:Cap-2 R=other/other,
20:u:Cap-3 L=none/other,
17:*:Num-1 X=numeric,
15:u:Num-1 R=range,
22:u:Num-2 R=numeric/none,
26:u:Num-2 R=numeric/moderate,
16:u:Key-1 L=series,
23:u:Key-3 x=none/moderate,
16:u:Pos-2 R=9/last,
15:u:Pct-1 X=colon,
18:u:Tmn-1 X=moderate,
23:u:Tmn-2 R=moderate/none,
20:u:Tmn-3 X=moderate/:,
24:u:Tmn-4 R=moderate/other,
14:u:tok-1 R=_x+1,
14:u:tok-1RR=_x+2,
14:u:Fst-1 R=_x+1,
13:u:Fst-2 X=N/2,
19:u:Fst-2 R=_x+1/_x+1,
13:u:Lst-2 L=P/:,
13:u:Lst-2 X=N/8,
11:u:Pre-1 X=2,
14:u:Pre-2 R=_x+1,
11:u:Suf-1 X=8,
14:u:Cap-1 R=_x+1,
21:u:Cap-2 L=other/other,
20:u:Cap-2 R=other/_x+1,
24:u:Cap-3 L=moderate/other,
17:*:Num-1 L=numeric,
15:*:Num-1 X=range,
14:u:Num-1 R=_x+1,
20:u:Num-2 R=range/none,
14:u:Key-1 R=_x+1,
23:u:Key-3 L=moderate/none,
14:u:Pos-1 X=last,
16:u:Pos-2 L=9/last,
19:u:Pos-2 R=last/_x+1,
15:u:Pct-1 L=colon,
14:u:Pct-1 R=_x+1,
14:u:Brk-1 R=_x+1,
18:*:Tmn-1 L=moderate,
14:u:Tmn-1 R=_x+1,
19:u:Tmn-2 R=none/_x+1,
16:u:Tmn-3 X=none/8,
19:u:Tmn-4 R=none/_x+1,
14:u:Fst-2 X=Lu/K,
11:u:Pre-1 X=K,
12:u:Suf-2 X=n,,
14:u:Fst-2 R=Lu/K,
12:u:Pre-2 R=M.,
12:u:Suf-2 X=a,,
11:u:tok-1 X=m,
12:u:Pre-2 X=M.,
12:u:Suf-2 L=a,,
20:u:Num-2 R=roman/weak,
12:u:Suf-2 X=g,,
12:u:Suf-2 L=g,,
12:u:tok-1RR=to,
13:u:Lst-2 X=N/2,
12:u:Pre-2 R=Co,
11:u:Suf-1 X=2,
16:u:Tmn-3 X=none/2,
12:u:tok-1 R=to,
13:u:Lst-2 L=N/2,
12:u:Pre-2 X=Co,
12:u:Pre-2 R=to,
12:u:Tok-1 X=to,
12:u:tok-1 X=to,
14:u:Lst-2 X=Ll/o,
12:u:Pre-2 X=to,
11:u:Suf-1 X=o,
12:u:Suf-2 X=to,
16:u:Tmn-3 X=none/o,
12:u:tok-1 L=to,
14:u:Lst-2 L=Ll/o,
12:u:Suf-2 L=to,
12:u:tok-1LL=to,
15:u:tok-1 R=flora,
14:u:Fst-2 R=Ll/f,
12:u:Pre-2 X=se,
12:u:Suf-2 X=ed,
14:u:Fst-2 X=Ll/f,
14:u:Lst-2 X=Ll/a,
11:u:Pre-1 X=f,
11:u:Suf-1 X=a,
12:u:Suf-2 L=ed,
12:u:Suf-2 X=ra,
16:u:Tmn-3 X=none/a,
14:u:Lst-2 L=Ll/a,
12:u:Pre-2 R=Sw,
12:u:Suf-2 L=ra,
16:u:tok-1 X=sweden,
13:u:tok-1 R=new,
14:u:Fst-2 R=Lu/N,
12:u:Pre-2 X=Sw,
12:u:Pre-2 R=Ne,
12:u:Suf-2 X=n:,
23:u:Num-2 R=none/moderate,
23:u:Tmn-2 L=none/moderate,
26:u:Tmn-4 R=moderate/initial,
11:u:Id--1 X=T,
13:u:Tok-1 X=New,
13:u:tok-1 X=new,
14:u:Fst-2 X=Lu/N,
14:u:Lst-2 X=Ll/w,
11:u:Pre-1 X=N,
12:u:Pre-2 X=Ne,
11:u:Suf-1 X=w,
12:u:Suf-2 L=n:,
12:u:Suf-2 X=ew,
26:u:Cap-3 L=moderate/initial,
16:u:Tmn-3 X=none/w,
13:u:tok-1 L=new,
14:u:Lst-2 L=Ll/w,
14:u:Lst-2 X=Ll/r,
11:u:Suf-1 X=r,
12:u:Suf-2 L=ew,
12:u:Suf-2 X=or,
16:u:Tmn-3 X=none/r,
13:u:tok-1LL=new,
14:u:Fst-2 R=Ll/i,
14:u:Lst-2 L=Ll/r,
12:u:Pre-2 R=in,
12:u:Suf-2 L=or,
12:u:Suf-2 X=se,
17:u:tok-1 R=records,
14:u:tok-1RR=from,
14:u:Fst-2 X=Ll/i,
14:u:Fst-2 R=Ll/r,
11:u:Pre-1 X=i,
12:u:Pre-2 X=in,
12:u:Pre-2 R=re,
14:u:tok-1 R=from,
14:u:Fst-2 X=Ll/r,
11:u:Pre-1 X=r,
12:u:Pre-2 X=re,
12:u:Suf-2 X=ds,
14:u:Tok-1 X=from,
14:u:tok-1 X=from,
14:u:Lst-2 X=Ll/m,
12:u:Pre-2 X=fr,
11:u:Suf-1 X=m,
12:u:Suf-2 L=ds,
12:u:Suf-2 X=om,
16:u:Tmn-3 X=none/m,
14:u:tok-1 L=from,
14:u:Fst-2 R=Ll/w,
14:u:Lst-2 L=Ll/m,
12:u:Suf-2 L=om,
14:u:tok-1LL=from,
14:u:Fst-2 X=Ll/w,
14:u:Lst-2 X=Ll/t,
11:u:Pre-1 X=w,
11:u:Suf-1 X=t,
12:u:Suf-2 X=st,
16:u:Tmn-3 X=none/t,
15:u:tok-1 X=coast,
14:u:tok-1 R=acta,
14:u:Fst-2 R=Lu/A,
14:u:Lst-2 L=Ll/t,
12:u:Pre-2 R=Ac,
12:u:Suf-2 L=st,
14:u:Tok-1 X=Acta,
14:u:tok-1 X=acta,
15:u:tok-1 L=coast,
14:u:Fst-2 X=Lu/A,
11:u:Pre-1 X=A,
12:u:Pre-2 X=Ac,
12:u:Pre-2 R=Ph,
12:u:Suf-2 X=ta,
15:u:tok-1LL=coast,
12:u:Pre-2 X=Ph,
12:u:Suf-2 L=ta,
12:u:Suf-2 X=ca,
13:u:Fst-2 R=N/7,
12:u:Pre-2 X=Su,
12:u:Suf-2 L=ca,
13:u:Fst-2 X=N/7,
11:u:Pre-1 X=7,
13:u:Fst-2 X=N/4,
13:u:Lst-2 X=N/3,
11:u:Pre-1 X=4,
11:u:Suf-1 X=3,
12:u:Suf-2 L=8:,
16:u:Tmn-3 X=none/3,
12:u:tok-1 R=k.,
14:u:Fst-2 X=Lu/W,
11:u:Pre-1 X=W,
12:u:Pre-2 X=Wo,
12:u:Suf-2 X=s,,
12:u:Pre-2 X=K.,
12:u:Suf-2 L=s,,
12:u:Suf-2 X=K.,
12:u:tok-1 L=k.,
14:u:Fst-2 R=Lu/T,
12:u:Suf-2 L=K.,
14:u:Fst-2 X=Lu/T,
13:u:Lst-2 L=N/8,
11:u:Pre-1 X=T,
13:u:tok-1 L=two,
12:u:Pre-2 R=ne,
12:u:Suf-2 L=wo,
13:u:tok-1LL=two,
14:u:Fst-2 R=Ll/m,
12:u:Pre-2 X=ne,
12:u:Pre-2 R=ma,
16:u:Tok-1 X=marine,
14:u:Fst-2 X=Ll/m,
11:u:Pre-1 X=m,
12:u:Pre-2 X=ma,
14:u:Fst-2 R=Lu/O,
14:u:Lst-2 X=Ll/l,
11:u:Suf-1 X=l,
12:u:Suf-2 X=al,
16:u:Tmn-3 X=none/l,
12:u:Fst-1 R=Ps,
14:u:Fst-2 X=Lu/O,
14:u:Fst-2 R=Ps/(,
14:u:Lst-2 L=Ll/l,
11:u:Pre-1 X=O,
12:u:Pre-2 X=Os,
12:u:Pre-2 R=(C,
12:u:Suf-2 L=al,
12:u:Suf-2 X=da,
16:u:Brk-1 R=parens,
19:u:tok-1 X=crustacea,
12:*:Fst-1 X=Ps,
14:u:Fst-2 X=Ps/(,
12:u:Lst-1 X=Pe,
14:u:Lst-2 X=Pe/),
11:u:Pre-1 X=(,
11:u:Suf-1 X=),
12:u:Suf-2 L=da,
12:u:Suf-2 X=a),
21:u:Num-2 R=none/parens,
16:u:Brk-1 X=parens,
18:u:Tmn-3 X=strong/),
22:u:Tmn-4 R=strong/lower,
12:*:Lst-1 L=Pe,
14:u:Lst-2 L=Pe/),
22:u:Cap-3 L=strong/lower,
16:u:Brk-1 L=parens,
20:u:Tmn-4 R=weak/lower,
14:u:Lst-2 X=Ll/h,
11:u:Suf-1 X=h,
12:u:Suf-2 X=th,
20:u:Cap-3 L=weak/lower,
16:u:Tmn-3 X=none/h,
14:u:tok-1 L=with,
14:u:Fst-2 R=Ll/d,
14:u:Lst-2 L=Ll/h,
12:u:Pre-2 R=de,
12:u:Suf-2 L=th,
14:u:tok-1LL=with,
14:u:Fst-2 X=Ll/d,
11:u:Pre-1 X=d,
12:u:Pre-2 X=de,
14:u:Fst-2 R=Lu/D,
12:u:Pre-2 R=Da,
14:u:Fst-2 X=Lu/D,
14:u:Fst-2 R=Ll/g,
11:u:Pre-1 X=D,
12:u:Pre-2 X=Da,
12:u:Suf-2 X=la,
14:u:Fst-2 X=Ll/g,
11:u:Pre-1 X=g,
12:u:Suf-2 L=la,
12:u:Suf-2 X=n.,
12:u:tok-1RR=de,
12:u:Pre-2 R=Bu,
12:u:Suf-2 L=n.,
12:u:Suf-2 X=v.,
14:u:Key-1 X=date,
17:u:Key-1 R=journal,
24:u:Tmn-2 R=strong/journal,
18:u:Tok-1 X=Bulletin,
18:u:tok-1 X=bulletin,
12:u:tok-1 R=de,
12:u:Pre-2 X=Bu,
12:u:Suf-2 L=v.,
12:u:Suf-2 X=in,
17:u:Key-1 X=journal,
25:u:Key-2 X=journal/initial,
24:u:Key-3 L=strong/journal,
22:u:Key-3 x=journal/none,
19:u:Tmn-2 L=date/none,
12:u:Tok-1 X=de,
12:u:tok-1 X=de,
18:u:tok-1 L=bulletin,
14:u:Fst-2 R=Lu/L,
12:u:Suf-2 L=in,
12:u:Suf-2 X=de,
21:u:Cap-2 R=lower/other,
17:u:Key-1 L=journal,
22:u:Tmn-2 L=journal/none,
18:u:tok-1LL=bulletin,
12:u:tok-1 L=de,
13:u:tok-1RR=des,
14:u:Fst-2 X=Lu/L,
14:u:Fst-2 R=Lu/R,
11:u:Pre-1 X=L,
12:u:Suf-2 L=de,
21:u:Cap-2 L=lower/other,
12:u:tok-1LL=de,
13:u:tok-1 R=des,
14:u:Fst-2 X=Lu/R,
11:u:Pre-1 X=R,
13:u:Tok-1 X=des,
13:u:tok-1 X=des,
12:u:Pre-2 R=Sc,
13:u:tok-1 L=des,
12:u:Pre-2 X=Sc,
12:u:Pre-2 R=Na,
13:u:tok-1LL=des,
12:u:Pre-2 X=Na,
18:u:tok-1LL=sciences,
12:u:Suf-2 X=ue,
13:u:Fst-2 R=N/8,
12:u:Suf-2 L=ue,
13:u:Fst-2 X=N/8,
11:u:Pre-1 X=8,
12:u:Pre-2 R=Re,
12:u:Pre-2 X=Re,
12:u:Pre-2 R=A.,
12:u:Suf-2 X=o,,
11:u:tok-1 X=a,
12:u:Pre-2 X=A.,
12:u:Pre-2 R=Ar,
12:u:Suf-2 L=o,,
14:u:Fst-2 R=Lu/G,
12:u:Pre-2 X=Ar,
12:u:Pre-2 R=G.,
12:u:Suf-2 X=e,,
19:u:Tmn-4 R=weak/caps,
12:u:Pre-2 X=G.,
12:u:Pre-2 R=20,
12:u:Suf-2 L=e,,
20:u:Cap-2 R=caps/other,
19:u:Cap-3 L=weak/caps,
19:u:Key-2 X=none/caps,
13:u:Lst-2 X=N/4,
12:u:Pre-2 X=20,
12:u:Pre-2 R=Tr,
11:u:Suf-1 X=4,
20:u:Cap-2 L=caps/other,
16:u:Tmn-3 X=none/4,
13:u:Lst-2 L=N/4,
12:u:Pre-2 X=Tr,
14:u:Fst-2 R=Ll/p,
14:u:Fst-2 X=Ll/p,
11:u:Pre-1 X=p,
11:u:Fst-1 R=S,
13:u:Fst-2 R=S/<,
12:u:Pre-2 X=Oc,
12:u:Suf-2 X=os,
12:u:tok-1RR=in,
11:*:Fst-1 X=S,
13:u:Fst-2 X=S/<,
11:u:Pre-1 X=<,
12:u:Pre-2 X=<i,
12:u:Pre-2 R=gr,
12:u:Suf-2 L=os,
12:u:Suf-2 X=us,
21:u:Cap-2 R=other/lower,
28:u:Num-2 R=none/opening-angle,
23:u:Brk-1 X=opening-angle,
23:u:Brk-1 R=closing-angle,
12:u:tok-1 R=in,
11:u:Lst-1 X=S,
13:u:Lst-2 X=S/>,
12:u:Pre-2 X=gr,
11:u:Suf-1 X=>,
12:u:Suf-2 L=us,
21:u:Cap-2 L=other/lower,
12:u:Key-1 R=in,
23:u:Brk-1 L=opening-angle,
23:u:Brk-1 X=closing-angle,
17:u:Tmn-2 R=none/in,
16:u:Tmn-3 X=none/>,
12:u:Tok-1 X=in,
12:u:tok-1 X=in,
16:u:tok-2 R=in/the,
11:*:Lst-1 L=S,
12:u:Key-1 X=in,
18:u:Key-2 X=in/lower,
17:u:Key-3 L=none/in,
17:u:Key-3 x=in/none,
23:u:Brk-1 L=closing-angle,
12:u:tok-1 L=in,
16:u:tok-2 L=in/the,
12:u:Pre-2 R=Me,
12:u:Key-1 L=in,
17:u:Tmn-2 L=in/none,
23:u:Tok-1 X=Mediterranean,
23:u:tok-1 X=mediterranean,
12:u:tok-1LL=in,
27:u:tok-2 L=the/mediterranean,
12:u:Pre-2 X=Me,
12:u:Pre-2 R=La,
12:u:Suf-2 X=an,
16:u:Tok-1 X=Lavoro,
16:u:tok-1 X=lavoro,
23:u:tok-1 L=mediterranean,
20:u:tok-1 R=presentato,
12:u:tok-1RR=al,
30:u:tok-2 L=mediterranean/lavoro,
27:u:tok-2 R=lavoro/presentato,
12:u:Pre-2 X=La,
12:u:Pre-2 R=pr,
12:u:Suf-2 L=an,
20:u:Tok-1 X=presentato,
20:u:tok-1 X=presentato,
23:u:tok-1LL=mediterranean,
16:u:tok-1 L=lavoro,
12:u:tok-1 R=al,
12:u:tok-1RR=37,
27:u:tok-2 L=lavoro/presentato,
23:u:tok-2 R=presentato/al,
12:u:Pre-2 X=pr,
12:u:Pre-2 R=al,
12:u:Suf-2 L=ro,
12:u:Tok-1 X=al,
12:u:tok-1 X=al,
16:u:tok-1LL=lavoro,
20:u:tok-1 L=presentato,
12:u:tok-1 R=37,
19:u:tok-1RR=congresso,
23:u:tok-2 L=presentato/al,
15:u:tok-2 R=al/37,
13:u:Fst-2 R=N/3,
12:u:Pre-2 X=al,
12:u:Pre-2 R=37,
16:u:Num-1 R=double,
13:u:Fst-2 X=N/3,
13:u:Lst-2 X=N/7,
11:u:Pre-1 X=3,
11:u:Suf-1 X=7,
16:*:Num-1 X=double,
21:u:Num-2 R=double/none,
16:u:Tmn-3 X=none/7,
13:u:Lst-2 L=N/7,
16:*:Num-1 L=double,
19:u:Tmn-4 R=none/caps,
12:u:Suf-2 L=so,
19:u:Cap-3 L=none/caps,
12:u:Pre-2 X=Ba,
12:u:Suf-2 X=na,
13:u:Lst-2 X=N/1,
12:u:Pre-2 R=Gi,
11:u:Suf-1 X=1,
12:u:Suf-2 L=na,
16:u:Tmn-3 X=none/1,
12:u:Suf-2 X=no,
15:*:Num-1 L=range,
12:u:Suf-2 X=4.,
21:u:Num-2 R=year/strong,
21:u:Tmn-2 R=strong/_x+1,
21:u:Tmn-4 R=strong/_x+1,
12:u:Suf-2 X=A.,
13:u:Lst-2 X=N/5,
11:u:Suf-1 X=5,
12:u:Suf-2 L=A.,
16:u:Tmn-3 X=none/5,
12:u:Suf-2 X=um,
12:u:Suf-2 L=um,
12:u:Pre-2 X=Sa,
12:u:Pre-2 R=18,
20:u:Tmn-4 R=weak/other,
12:u:Pre-2 X=18,
20:u:Cap-3 L=weak/other,
12:u:Suf-2 X=er,
12:u:Suf-2 L=er,
17:u:tok-1 X=belgium,
12:u:Pre-2 R=Cr,
12:u:Suf-2 X=m.,
12:u:Pre-2 X=Cr,
12:u:Suf-2 L=m.,
16:u:Num-1 R=volume,
23:u:Brk-1 R=closing-paren,
12:u:Pre-2 R=21,
16:*:Num-1 X=volume,
23:u:Brk-1 X=closing-paren,
13:u:Lst-2 X=N/0,
12:u:Pre-2 X=21,
11:u:Suf-1 X=0,
16:*:Num-1 L=volume,
23:u:Brk-1 L=closing-paren,
16:u:Tmn-3 X=none/0,
11:u:tok-1RR=&,
12:u:Pre-2 R=R.,
12:u:Tok-1 X=R.,
11:u:tok-1 X=r,
11:u:tok-1 R=&,
11:u:Fst-1 R=P,
13:u:Fst-2 R=P/&,
12:u:Pre-2 X=R.,
11:u:Pre-2 R=&,
12:u:Suf-2 X=R.,
13:u:Pct-1 R=amp,
11:u:Tok-1 X=&,
15:u:tok-1 X=BLANK,
12:u:tok-1 L=r.,
11:*:Fst-1 X=P,
13:u:Fst-2 X=P/&,
13:u:Lst-2 X=P/&,
11:u:Pre-1 X=&,
11:u:Pre-2 X=&,
11:u:Suf-1 X=&,
12:u:Suf-2 L=R.,
11:u:Suf-2 X=&,
20:u:Cap-2 R=other/caps,
19:u:Key-2 X=and/other,
13:u:Pct-1 X=amp,
16:u:Tmn-3 X=none/&,
12:u:tok-1LL=r.,
11:u:tok-1 L=&,
13:u:Lst-2 L=P/&,
12:u:Pre-2 R=To,
11:u:Suf-2 L=&,
13:u:Pct-1 L=amp,
20:u:Tmn-2 L=and/strong,
11:u:tok-1LL=&,
12:u:tok-1RR=et,
12:u:Suf-2 X=is,
12:u:tok-1 R=et,
14:u:Fst-2 R=Ll/e,
12:u:Pre-2 R=et,
12:u:Suf-2 L=is,
12:u:Tok-1 X=et,
12:u:tok-1 X=et,
14:u:Fst-2 X=Ll/e,
11:u:Pre-1 X=e,
12:u:Pre-2 X=et,
12:u:Pre-2 R=sp,
12:u:Suf-2 X=et,
12:u:tok-1 L=et,
11:u:tok-1RR=a,
12:u:Pre-2 X=sp,
12:u:Suf-2 L=et,
12:u:Suf-2 X=p.,
12:u:tok-1LL=et,
11:u:tok-1 R=a,
11:u:Pre-2 R=a,
12:u:Suf-2 L=p.,
24:u:Tmn-4 R=moderate/lower,
11:u:Tok-1 X=a,
11:u:Pre-2 X=a,
11:u:Suf-2 X=a,
24:u:Cap-3 L=moderate/lower,
11:u:tok-1 L=a,
11:u:Suf-2 L=a,
11:u:tok-1LL=a,
12:u:Suf-2 L=ve,
23:u:Brk-1 R=opening-paren,
12:u:Pre-2 R=Le,
28:u:Num-2 R=none/opening-paren,
23:u:Brk-1 X=opening-paren,
17:u:tok-1LL=copepod,
28:u:Num-2 R=none/closing-paren,
23:u:Brk-1 L=opening-paren,
12:u:Pre-2 R=Tu,
12:u:Suf-2 L=e),
17:u:tok-1RR=journal,
12:u:Pre-2 X=Tu,
12:u:Suf-2 X=y.,
17:u:tok-1 R=journal,
12:u:Pre-2 R=Jo,
12:u:Suf-2 L=y.,
22:u:Tmn-2 R=none/journal,
12:u:Pre-2 X=Jo,
22:u:Key-3 L=none/journal,
14:u:Fst-2 R=Lu/Z,
12:u:Pre-2 R=Zo,
17:u:tok-1LL=journal,
14:u:Fst-2 X=Lu/Z,
11:u:Pre-1 X=Z,
12:u:Pre-2 X=Zo,
12:u:Pre-2 R=Mo,
13:u:Fst-2 R=N/6,
12:u:Pre-2 X=Mo,
18:u:tok-1LL=zoology,,
13:u:Fst-2 X=N/6,
11:u:Pre-1 X=6,
12:u:Suf-2 X=6.,
21:u:Tmn-4 R=none/single,
12:u:Suf-2 X=F.,
21:u:Cap-3 L=none/single,
12:u:Pre-2 R=Th,
13:u:Tok-1 X=The,
16:u:tok-1 R=family,
20:u:tok-2 R=the/family,
12:u:Pre-2 X=Th,
16:u:Tok-1 X=family,
16:u:tok-1 X=family,
20:u:tok-2 L=the/family,
16:u:tok-1 L=family,
12:u:Suf-2 X=ae,
16:u:tok-1LL=family,
12:u:Suf-2 L=ae,
18:u:tok-1 X=tropical,
12:u:Pre-2 X=tr,
12:u:Pre-2 R=So,
18:u:tok-1 L=tropical,
12:u:Pre-2 R=Pa,
17:u:tok-1 X=pacific,
18:u:tok-1LL=tropical,
12:u:Pre-2 X=Pa,
15:u:tok-1 L=genus,
15:u:tok-1LL=genus,
18:u:Tmn-2 L=and/weak,
13:u:Lst-2 X=N/6,
11:u:Suf-1 X=6,
16:u:Tmn-3 X=none/6,
17:u:tok-1 X=species,
18:u:tok-1 L=species.,
16:u:Key-1 R=volume,
21:u:Tmn-2 R=none/volume,
20:u:Tok-1 X=supplement,
20:u:tok-1 X=supplement,
18:u:tok-1LL=species.,
12:u:Pre-2 X=su,
12:u:Suf-2 X=nt,
16:u:Key-1 X=volume,
21:u:Key-3 L=none/volume,
21:u:Key-3 x=volume/none,
11:u:tok-1 X=6,
12:u:Pre-2 R=1-,
12:u:Suf-2 L=nt,
16:u:Key-1 L=volume,
12:u:Tok-1 X=H.,
13:u:tok-1 R=sea,
12:u:Suf-2 L=H.,
13:u:Tok-1 X=Sea,
13:u:tok-1 X=sea,
14:u:Fst-2 R=Lu/U,
12:u:Suf-2 X=ea,
13:u:tok-1 L=sea,
14:u:Fst-2 X=Lu/U,
11:u:Pre-1 X=U,
12:u:Suf-2 L=ea,
12:u:Suf-2 X=ns,
20:u:Tmn-2 R=none/roman,
13:u:tok-1LL=sea,
12:u:Suf-2 L=ns,
20:u:Cap-2 R=caps/lower,
24:u:Num-2 R=roman/moderate,
20:u:Key-3 L=none/roman,
20:u:Cap-2 L=caps/lower,
12:u:Suf-2 X=ar,
17:u:tok-1RR=species,
14:u:Lst-2 X=Ll/p,
11:u:Suf-1 X=p,
12:u:Suf-2 X=ep,
16:u:Tmn-3 X=none/p,
17:u:tok-1 R=species,
14:u:Lst-2 L=Ll/p,
12:u:Suf-2 L=ep,
17:u:Tok-1 X=species,
12:u:Pre-2 R=He,
17:u:tok-1 L=species,
12:u:Pre-2 X=He,
12:u:Suf-2 X=ke,
17:u:tok-1LL=species,
14:u:Lst-2 X=Ll/z,
11:u:Suf-1 X=z,
16:u:Tmn-3 X=none/z,
14:u:Lst-2 L=Ll/z,
13:u:tok-1RR=pp.,
12:u:Suf-2 X=en,
13:u:tok-1 R=pp.,
14:u:Fst-2 X=Ll/x,
11:u:Pre-1 X=x,
12:u:Pre-2 R=pp,
12:u:Suf-2 L=en,
14:u:Key-1 R=page,
19:u:Tmn-2 R=none/page,
13:u:Tok-1 X=pp.,
12:u:tok-1 X=pp,
12:u:Pre-2 X=pp,
20:u:Key-2 X=page/lower,
21:u:Key-3 x=page/strong,
12:u:tok-1 R=j.,
14:u:Fst-2 X=Lu/V,
11:u:Pre-1 X=V,
12:u:Pre-2 X=Ve,
12:u:Suf-2 X=t,,
12:u:Tok-1 X=J.,
12:u:Suf-2 L=t,,
12:u:Suf-2 X=J.,
12:u:tok-1 L=j.,
11:u:Pre-2 R=A,
12:u:Suf-2 L=J.,
22:u:Cap-2 R=other/single,
11:u:Tok-1 X=A,
12:u:tok-1LL=j.,
12:u:Lst-1 X=Lu,
14:u:Lst-2 X=Lu/A,
11:u:Pre-2 X=A,
11:u:Suf-1 X=A,
11:u:Suf-2 X=A,
22:u:Cap-2 L=other/single,
22:u:Cap-2 R=single/lower,
16:u:Tmn-3 X=none/A,
12:*:Lst-1 L=Lu,
14:u:Lst-2 L=Lu/A,
11:u:Suf-2 L=A,
22:u:Cap-2 L=single/lower,
12:u:Suf-2 X=ia,
12:u:Suf-2 L=ia,
12:u:Suf-2 X=a:,
12:u:Pre-2 X=Al,
12:u:Suf-2 L=a:,
12:u:Pre-2 R=Is,
16:u:Tok-1 X=Israel,
24:u:tok-2 R=israel/journal,
12:u:Pre-2 X=Is,
12:u:Suf-2 X=el,
16:u:tok-1 L=israel,
17:u:tok-1RR=zoology,
12:u:Suf-2 L=el,
16:u:tok-1LL=israel,
17:u:tok-1 R=zoology,
12:u:Suf-2 X=h,,
12:u:Suf-2 L=h,,
18:u:tok-1RR=mollusca,
12:u:Pre-2 R=In,
12:u:Suf-2 L=ge,
12:u:Pre-2 X=In,
18:u:tok-1 X=mollusca,
20:u:tok-1 R=conchiglie,
12:u:Suf-2 X=ie,
12:u:Suf-2 L=ie,
14:u:Fst-2 R=Lu/V,
12:u:Pre-2 R=Vi,
12:u:Pre-2 X=Vi,
12:u:Tok-1 X=M.,
12:u:Suf-2 L=M.,
13:u:Lst-2 L=N/3,
12:u:Pre-2 R=No,
12:u:Pre-2 X=No,
15:u:tok-1 L=north,
15:u:tok-1LL=north,
13:u:tok-1RR=jb.,
12:u:Pre-2 R=Bi,
15:u:Tok-1 X=Biol.,
14:u:tok-1 X=biol,
13:u:tok-1 R=jb.,
18:u:tok-1RR=dodonaea,
12:u:Pre-2 X=Bi,
12:u:Pre-2 R=Jb,
12:u:Suf-2 X=l.,
12:u:Suf-2 L=l.,
23:u:Tmn-4 R=strong/single,
23:u:Cap-3 L=strong/single,
14:u:Fst-2 R=Ll/h,
14:u:Fst-2 X=Ll/h,
11:u:Pre-1 X=h,
22:u:Tok-1 X=Oceanography,
22:u:tok-1 X=oceanography,
26:u:tok-2 R=oceanography/and,
12:u:Suf-2 X=hy,
22:u:tok-1 L=oceanography,
26:u:tok-2 L=oceanography/and,
20:u:tok-2 R=and/marine,
12:u:Suf-2 L=hy,
22:u:tok-1LL=oceanography,
20:u:tok-2 L=and/marine,
12:u:tok-1 X=an,
12:u:Pre-2 R=35,
12:u:Pre-2 X=35,
13:u:tok-1RR=van,
13:u:tok-1 R=van,
14:u:Fst-2 R=Ll/v,
12:u:Pre-2 R=va,
13:u:Tok-1 X=van,
13:u:tok-1 X=van,
14:u:Fst-2 X=Ll/v,
11:u:Pre-1 X=v,
12:u:Pre-2 X=va,
13:u:tok-1 L=van,
13:u:tok-1LL=van,
14:u:Fst-2 R=Ll/l,
12:u:Pre-2 R=la,
14:u:Fst-2 X=Ll/l,
11:u:Pre-1 X=l,
12:u:Pre-2 X=la,
12:u:Pre-2 R=mo,
12:u:Pre-2 X=mo,
14:u:Fst-2 R=Ll/b,
12:u:Pre-2 R=be,
14:u:Fst-2 X=Ll/b,
11:u:Pre-1 X=b,
12:u:Pre-2 X=be,
12:u:Pre-2 R=so,
12:u:Pre-2 X=so,
21:u:tok-1 X=netherlands,
12:u:Pre-2 R=Bo,
12:u:Suf-2 X=.,,
15:u:tok-1RR=(eds),
12:u:Pre-2 X=Bo,
12:u:Pre-2 R=N.,
12:u:Suf-2 L=.,,
11:u:tok-1 X=n,
15:u:tok-1 R=(eds),
12:u:Pre-2 X=N.,
12:u:Pre-2 R=(e,
12:u:Suf-2 X=N.,
16:u:Key-1 R=editor,
23:u:Key-3 x=volume/strong,
23:u:Tmn-2 R=strong/editor,
15:u:Tok-1 X=(eds),
13:u:tok-1 X=eds,
12:u:Pre-2 X=(e,
12:u:Pre-2 R=Ta,
12:u:Suf-2 X=s),
16:u:Key-1 X=editor,
22:u:Key-2 X=editor/lower,
23:u:Key-3 L=strong/editor,
23:u:Key-3 x=editor/strong,
23:u:Tmn-2 L=volume/strong,
15:u:tok-1 L=(eds),
12:u:Pre-2 X=Ta,
12:u:Suf-2 L=s),
16:u:Key-1 L=editor,
21:u:Tmn-2 L=editor/none,
15:u:tok-1LL=(eds),
18:u:tok-1 X=porifera,
18:u:tok-1RR=atlantic,
20:u:Cap-2 R=lower/caps,
12:u:tok-1 X=ne,
18:u:tok-1 R=atlantic,
12:u:Pre-2 R=At,
20:u:Cap-2 L=lower/caps,
18:u:Tok-1 X=Atlantic,
18:u:tok-1 X=atlantic,
12:u:Pre-2 X=At,
18:u:tok-1 L=atlantic,
17:u:tok-2 R=and/the,
18:u:tok-1LL=atlantic,
14:u:Tok-1 X=Sea.,
12:u:Suf-2 X=a.,
14:u:Lst-2 X=Lu/O,
11:u:Suf-1 X=O,
12:u:Suf-2 L=a.,
16:u:Tmn-3 X=none/O,
14:u:Lst-2 L=Lu/O,
17:u:Tok-1 X=Science,
17:u:tok-1 X=science,
12:u:Suf-2 X=ce,
12:u:Suf-2 L=ce,
19:u:tok-1 R=springer,,
12:u:Pre-2 R=Sp,
19:u:Tok-1 X=Springer,,
20:u:tok-1LL=ecological,
13:u:tok-1RR=13:,
12:u:Pre-2 X=Sp,
20:u:tok-1 X=heidelberg,
19:u:tok-1 L=springer,,
14:u:Pos-2 R=9/10,
12:u:Pos-1 X=10,
14:u:Pos-2 L=9/10,
17:u:Pos-2 R=10/last,
12:u:Pre-2 X=28,
12:u:Pre-2 R=S.,
12:u:Pre-2 X=S.,
12:u:Suf-2 X=S.,
19:u:Key-3 L=weak/page,
12:u:tok-1 L=s.,
12:u:Suf-2 L=S.,
14:u:Key-1 L=page,
19:u:Tmn-2 L=page/none,
12:u:tok-1LL=s.,
12:u:Suf-2 X=e.,
12:u:Pre-2 R=vo,
12:u:Suf-2 L=e.,
12:u:Pre-2 X=vo,
13:u:tok-1 L=von,
11:u:tok-1 X=3,
12:u:Suf-2 L=d,,
13:u:tok-1RR=sur,
20:u:tok-1RR=collection,
12:u:Pre-2 R=un,
20:u:tok-1 R=collection,
12:u:Pre-2 X=un,
20:u:tok-1 X=collection,
20:u:tok-1 L=collection,
21:u:Tmn-2 L=series/none,
20:u:tok-1LL=collection,
19:u:tok-1LL=provenant,
28:u:tok-1LL=méditerranéennes,
19:u:tok-1 L=d'israël,
13:u:Suf-2 L=ël,
18:u:tok-1RR=research,
18:u:tok-1 R=research,
12:u:Pre-2 X=Fi,
12:u:Pre-2 R=St,
12:u:Pre-2 X=St,
12:u:Suf-2 L=ch,
12:u:Pre-2 R=15,
12:u:Pre-2 X=15,
12:u:tok-1RR=j.,
12:u:Pre-2 X=Fu,
12:u:Pre-2 R=pa,
12:u:Pre-2 X=pa,
12:u:Pre-2 R=(N,
12:u:Pre-2 X=(N,
12:u:Pre-2 R=es,
19:u:tok-1 X=estuarine,
12:u:Pre-2 X=es,
19:u:tok-1LL=estuarine,
12:u:Pre-2 R=Af,
19:u:tok-1 R=zoologica,
17:u:tok-1RR=scripta,
12:u:Pre-2 X=Ho,
12:u:Pre-2 R=De,
12:u:Pre-2 X=De,
19:u:tok-1RR=collected,
19:u:tok-1 R=collected,
19:u:Tok-1 X=collected,
19:u:tok-1 X=collected,
12:u:Pre-2 R=du,
19:u:tok-1 L=collected,
12:u:Pre-2 X=du,
19:u:tok-1LL=collected,
12:u:Suf-2 X=ey,
12:u:Suf-2 X=at,
12:u:Pre-2 R=Ca,
12:u:Suf-2 X=ez,
15:u:tok-1 X=canal,
12:u:Pre-2 X=Ca,
12:u:Suf-2 L=ez,
12:u:Suf-2 X=le,
12:u:Suf-2 L=le,
15:u:Tok-1 X=Egypt,
16:u:tok-1 R=gloria,
15:u:tok-1RR=maris,
12:u:Suf-2 X=pt,
16:u:Tok-1 X=Gloria,
16:u:tok-1 X=gloria,
15:u:tok-1 R=maris,
22:u:tok-2 R=gloria/maris,
12:u:Pre-2 X=Gl,
12:u:Suf-2 L=pt,
12:u:Suf-2 X=te,
12:u:tok-1RR=la,
19:u:tok-1RR=société,
15:u:tok-2 R=de/la,
12:u:Tok-1 X=La,
12:u:tok-1 X=la,
19:u:tok-1 R=société,
15:u:tok-2 L=de/la,
22:u:tok-2 R=la/société,
12:u:Suf-2 X=La,
17:u:tok-1 X=societe,
12:u:tok-1 L=la,
14:u:Fst-2 R=Ll/z,
15:u:Lst-2 X=Ll/é,
12:u:Suf-1 X=é,
13:u:Suf-2 X=té,
17:u:Tmn-3 X=none/é,
12:u:tok-1LL=la,
14:u:Fst-2 X=Ll/z,
11:u:Pre-1 X=z,
12:u:Pre-2 R=Fr,
13:u:Fst-2 R=N/9,
12:u:Pre-2 X=Fr,
16:u:tok-1 L=france,
13:u:Fst-2 X=N/9,
11:u:Pre-1 X=9,
12:u:Pre-2 R=Gu,
14:u:tok-1LL=gulf,
17:u:tok-1 R=zootaxa,
12:u:tok-1 R=a.,
12:u:Tok-1 X=A.,
12:u:tok-1 L=a.,
12:u:tok-1LL=a.,
16:u:tok-1 L=london,
12:u:Pre-2 X=17,
12:u:Tok-1 X=T.,
11:u:tok-1 X=t,
12:u:Pre-2 X=T.,
12:u:Suf-2 X=T.,
12:u:tok-1 L=t.,
12:u:Suf-2 L=T.,
14:u:tok-1 R=2017,
14:u:Tok-1 X=2017,
14:u:tok-1 X=2017,
13:u:tok-1RR=der,
14:u:Fst-2 R=Lu/W,
12:u:Suf-2 X=17,
14:u:tok-1 L=2017,
13:u:tok-1 R=der,
12:u:Suf-2 L=17,
13:u:Tok-1 X=der,
13:u:tok-1 X=der,
14:u:tok-1LL=2017,
13:u:tok-1 L=der,
13:u:tok-1LL=der,
12:u:Pre-2 R=Di,
12:u:Pre-2 X=Di,
32:u:Tok-1 X=Latein-Deutsch-English,
30:u:tok-1 X=lateindeutschenglish,
24:u:tok-1 L=invertebrates.,
18:u:tok-1RR=springer,
47:u:tok-2 L=invertebrates./latein-deutsch-english,
37:u:tok-2 R=latein-deutsch-english/2017,
12:u:Suf-2 X=sh,
24:u:tok-1LL=invertebrates.,
32:u:tok-1 L=latein-deutsch-english,
18:u:tok-1 R=springer,
19:u:tok-1RR=spektrum:,
37:u:tok-2 L=latein-deutsch-english/2017,
23:u:tok-2 R=2017/springer,
12:u:Suf-2 L=sh,
18:u:Tok-1 X=Springer,
32:u:tok-1LL=latein-deutsch-english,
19:u:tok-1 R=spektrum:,
17:u:tok-1RR=berlin.,
23:u:tok-2 L=2017/springer,
28:u:tok-2 R=springer/spektrum:,
19:u:Tok-1 X=Spektrum:,
18:u:tok-1 X=spektrum,
18:u:tok-1 L=springer,
17:u:tok-1 R=berlin.,
14:u:tok-1RR=isbn,
28:u:tok-2 L=springer/spektrum:,
27:u:tok-2 R=spektrum:/berlin.,
12:u:Suf-2 X=m:,
17:u:Tok-1 X=Berlin.,
16:u:tok-1 X=berlin,
14:u:tok-1 R=isbn,
12:u:Pre-2 R=IS,
12:u:Suf-2 L=m:,
14:u:Tok-1 X=ISBN,
14:u:tok-1 X=isbn,
14:u:Lst-2 X=Lu/N,
12:u:Pre-2 X=IS,
11:u:Suf-1 X=N,
12:u:Suf-2 X=BN,
16:u:Tmn-3 X=none/N,
14:u:tok-1 L=isbn,
14:u:Fst-2 R=Lu/X,
14:u:Lst-2 L=Lu/N,
12:u:Pre-2 R=XI,
12:u:Suf-2 L=BN,
12:u:Suf-2 X=3.,
24:u:Num-2 R=numeric/strong,
14:u:tok-1LL=isbn,
12:u:tok-1RR=pp,
14:u:Fst-2 X=Lu/X,
11:u:Pre-1 X=X,
12:u:Suf-2 L=3.,
16:u:Num-1 R=triple,
16:*:Num-1 X=triple,
21:u:Num-2 R=triple/none,
12:u:Suf-2 X=pp,
16:*:Num-1 L=triple,
12:u:Pre-2 X=As,
12:u:Pre-2 R=(E,
12:u:Pre-2 X=(E,
13:u:tok-1RR=one,
13:u:tok-1 R=one,
16:u:tok-1RR=museum,
12:u:Pre-2 R=Au,
16:u:tok-1 R=museum,
12:u:Pre-2 X=Au,
12:u:Pre-2 R=Mu,
16:u:tok-1 X=museum,
15:u:tok-1 X=scott,
15:u:tok-1RR=fauna,
15:u:tok-1 X=fauna,
15:u:tok-1 L=fauna,
15:u:tok-1LL=fauna,
12:u:Pre-2 R=Fo,
14:u:tok-1 R=part,
12:u:Pre-2 X=Fo,
12:u:Suf-2 X=h.,
14:u:Tok-1 X=Part,
14:u:tok-1 X=part,
16:u:tok-1RR=report,
12:u:Pre-2 R=VI,
12:u:Suf-2 X=rt,
12:u:tok-1 X=vi,
14:u:tok-1 L=part,
16:u:tok-1 R=report,
12:u:Pre-2 X=VI,
12:u:Suf-2 L=rt,
16:u:Key-1 R=report,
16:u:Tok-1 X=Report,
16:u:tok-1 X=report,
14:u:tok-1LL=part,
16:u:Key-1 X=report,
24:u:Key-2 X=report/initial,
23:u:Key-3 L=strong/report,
21:u:Key-3 x=report/none,
16:u:tok-1 L=report,
16:u:Key-1 L=report,
21:u:Tmn-2 L=report/none,
16:u:tok-1LL=report,
13:u:tok-1RR=for,
13:u:tok-1 R=for,
12:u:Pre-2 R=fo,
13:u:Tok-1 X=for,
13:u:tok-1 X=for,
12:u:Pre-2 X=fo,
12:u:Pre-2 X=pl,
14:u:tok-1 L=iii.,
19:u:tok-1RR=crustacea,
19:u:tok-1 R=crustacea,
12:u:Suf-2 X=99,
12:u:Suf-2 L=99,
18:u:tok-1 X=decapoda,
19:u:tok-1 L=crustacea,
19:u:tok-1LL=crustacea,
16:u:tok-1RR=smith,,
16:u:tok-1 R=smith,,
12:u:Pre-2 R=Sm,
16:u:Tok-1 X=Smith,,
15:u:tok-1 X=smith,
12:u:Pre-2 X=Sm,
16:u:tok-1 L=smith,,
16:u:tok-1LL=smith,,
17:u:Tok-1 X=Pacific,
17:u:tok-1LL=pacific,
13:u:tok-1RR=in:,
16:u:tok-1 L=indian,
13:u:tok-1 R=in:,
19:u:tok-1RR=crosnier,,
13:u:Tok-1 X=in:,
19:u:tok-1 R=crosnier,,
12:u:tok-1RR=a.,
23:u:tok-2 R=in:/crosnier,,
21:u:Key-3 x=in/moderate,
19:u:Tok-1 X=Crosnier,,
18:u:tok-1 X=crosnier,
13:u:tok-1 L=in:,
15:u:tok-1RR=(ed.),
23:u:tok-2 L=in:/crosnier,,
22:u:tok-2 R=crosnier,/a.,
17:u:Tmn-2 L=in/weak,
13:u:tok-1LL=in:,
19:u:tok-1 L=crosnier,,
15:u:tok-1 R=(ed.),
20:u:tok-1RR=résultats,
22:u:tok-2 L=crosnier,/a.,
15:u:Tok-1 X=(Ed.),
12:u:tok-1 X=ed,
19:u:tok-1LL=crosnier,,
20:u:tok-1 R=résultats,
26:u:tok-2 R=(ed.)/résultats,
13:u:Pre-2 R=Ré,
12:u:Suf-2 X=.),
24:u:Key-2 X=editor/initial,
20:u:Tok-1 X=Résultats,
19:u:tok-1 X=resultats,
15:u:tok-1 L=(ed.),
19:u:tok-1RR=campagnes,
26:u:tok-2 L=(ed.)/résultats,
24:u:tok-2 R=résultats/des,
13:u:Pre-2 X=Ré,
12:u:Suf-2 L=.),
12:u:Suf-2 X=ts,
15:u:tok-1LL=(ed.),
20:u:tok-1 L=résultats,
19:u:tok-1 R=campagnes,
19:u:tok-1RR=musorstom,
24:u:tok-2 L=résultats/des,
23:u:tok-2 R=des/campagnes,
12:u:Suf-2 L=ts,
19:u:Tok-1 X=Campagnes,
19:u:tok-1 X=campagnes,
20:u:tok-1LL=résultats,
19:u:tok-1 R=musorstom,
23:u:tok-2 L=des/campagnes,
29:u:tok-2 R=campagnes/musorstom,
12:u:Pre-2 R=MU,
19:u:Tok-1 X=MUSORSTOM,
19:u:tok-1 X=musorstom,
19:u:tok-1 L=campagnes,
19:u:tok-1RR=mémoires,
29:u:tok-2 L=campagnes/musorstom,
14:u:Lst-2 X=Lu/M,
12:u:Pre-2 X=MU,
11:u:Suf-1 X=M,
12:u:Suf-2 X=OM,
16:u:Tmn-3 X=none/M,
19:u:tok-1LL=campagnes,
19:u:tok-1 L=musorstom,
19:u:tok-1 R=mémoires,
12:u:tok-1RR=du,
14:u:Lst-2 L=Lu/M,
13:u:Pre-2 R=Mé,
12:u:Suf-2 L=OM,
19:u:Tok-1 X=Mémoires,
18:u:tok-1 X=memoires,
12:u:tok-1 R=du,
13:u:Pre-2 X=Mé,
12:u:Tok-1 X=du,
12:u:tok-1 X=du,
19:u:tok-1 L=mémoires,
17:u:tok-1 R=muséum,
14:u:Lst-2 X=Ll/u,
11:u:Suf-1 X=u,
12:u:Suf-2 X=du,
16:u:Tmn-3 X=none/u,
19:u:tok-1LL=mémoires,
12:u:tok-1 L=du,
20:u:tok-1RR=d'histoire,
14:u:Lst-2 L=Ll/u,
12:u:Pre-2 R=na,
12:u:Suf-2 L=du,
12:u:tok-1LL=du,
12:u:Pre-2 X=na,
19:u:tok-1 X=naturelle,
18:u:tok-1LL=national,
20:u:tok-1 L=d'histoire,
13:u:Pre-2 R=Sé,
20:u:tok-1LL=d'histoire,
18:u:tok-1RR=zoologie,
18:u:tok-1 R=zoologie,
14:u:tok-1 R=180:,
18:u:tok-1 L=zoologie,
18:u:tok-1LL=zoologie,
12:u:Pre-2 R=Sy,
12:u:Pre-2 X=Sy,
12:u:Suf-2 X=t.,
17:u:Tok-1 X=Belgian,
17:u:tok-1 X=belgian,
12:u:Suf-2 L=t.,
12:u:Suf-2 X=me,
12:u:Suf-2 L=me,
12:u:Pre-2 R=Ha,
12:u:Pre-2 X=Ha,
12:u:Pre-2 R=An,
12:u:Pre-2 X=An,
28:u:Num-2 R=year/closing-paren,
12:u:Pre-2 R=l',
12:u:Pre-2 X=l',
18:u:tok-1RR=biologie,
18:u:tok-1 R=biologie,
12:u:tok-1RR=1.,
12:u:tok-1 R=1.,
12:u:Pre-2 R=1.,
12:u:Tok-1 X=1.,
11:u:tok-1 X=1,
12:u:Pre-2 X=1.,
12:u:Suf-2 X=1.,
12:u:tok-1 L=1.,
12:u:Suf-2 L=1.,
12:u:tok-1LL=1.,
12:u:Pre-2 R=ca,
12:u:Pre-2 X=ca,
16:u:tok-1 X=waters,
12:u:Suf-2 L=ow,
12:u:Suf-2 X=s:,
17:u:tok-1LL=shallow,
12:u:Suf-2 L=s:,
17:u:tok-1LL=history,
12:u:Tok-1 X=An,
12:u:Suf-2 X=An,
12:u:Suf-2 L=An,
12:u:Suf-2 X=by,
13:u:Tok-1 X=In:,
12:u:Pre-2 R=Ho,
20:u:Key-2 X=in/initial,
12:u:Pre-2 X=(2,
12:u:Suf-2 X=).,
21:u:Num-2 R=year/parens,
12:u:Suf-2 L=).,
12:u:Pre-2 R=gu,
15:u:tok-1 X=guide,
12:u:Pre-2 X=gu,
24:u:tok-1 L=classification,
16:u:tok-1RR=kluwer,
17:u:tok-1 X=sponges,
24:u:tok-1LL=classification,
16:u:tok-1 R=kluwer,
26:u:tok-1RR=academic/plenum,,
12:u:Pre-2 R=Kl,
16:u:Tok-1 X=Kluwer,
16:u:tok-1 X=kluwer,
12:u:Pre-2 X=Kl,
16:u:tok-1 L=kluwer,
12:u:Suf-2 L=m,,
11:u:tok-1 R=+,
13:u:Fst-2 R=S/+,
11:u:Pre-2 R=+,
11:u:Tok-1 X=+,
13:u:Fst-2 X=S/+,
13:u:Lst-2 X=S/+,
11:u:Pre-1 X=+,
11:u:Pre-2 X=+,
11:u:Suf-1 X=+,
11:u:Suf-2 X=+,
16:u:Tmn-3 X=none/+,
12:u:Suf-2 L=i.,
19:u:Num-2 R=isbn/none,
14:*:Num-1 L=isbn,
12:u:Pre-2 R=le,
12:u:Pre-2 X=le,
13:u:tok-1 L=les,
23:u:tok-2 L=d'israël/the,
22:u:tok-2 R=the/bulletin,
17:u:Tok-1 X=Council,
17:u:tok-1 X=council,
17:u:tok-1 L=council,
12:u:Suf-2 L=il,
17:u:tok-1LL=council,
12:u:Pre-2 R=14,
17:u:Tok-1 X=Forest,,
16:u:tok-1 X=forest,
20:u:tok-2 R=forest,/j.,
17:u:tok-1 L=forest,,
20:u:tok-2 L=forest,/j.,
17:u:tok-1LL=forest,,
12:u:Tok-1 X=la,
16:u:Num-1 R=single,
21:u:tok-1RR=philippines,
16:*:Num-1 X=single,
21:u:Num-2 R=single/none,
21:u:tok-1 R=philippines,
14:u:Lst-2 X=Ll/x,
11:u:Suf-1 X=x,
12:u:Suf-2 X=ux,
16:*:Num-1 L=single,
16:u:Tmn-3 X=none/x,
21:u:Tok-1 X=Philippines,
21:u:tok-1 X=philippines,
14:u:Lst-2 L=Ll/x,
21:u:tok-1 L=philippines,
12:u:Pre-2 X=(3,
31:u:Num-2 R=numeric/opening-paren,
21:u:tok-1LL=philippines,
11:u:tok-1RR==,
11:u:tok-1 R==,
13:u:Fst-2 R=S/=,
11:u:Pre-2 R==,
11:u:Tok-1 X==,
13:u:Fst-2 X=S/=,
13:u:Lst-2 X=S/=,
11:u:Pre-1 X==,
11:u:Pre-2 X==,
11:u:Suf-1 X==,
11:u:Suf-2 X==,
21:u:Tmn-2 R=none/report,
16:u:Tmn-3 X=none/=,
19:u:tok-2 R=report/on,
19:u:tok-2 L=report/on,
12:u:Pre-2 R=Ex,
20:u:Tok-1 X=Expedition,
20:u:tok-1 X=expedition,
25:u:tok-2 R=the/philippines,
12:u:Pre-2 R=(M,
12:u:Pre-2 X=(M,
12:u:Suf-2 L=ay,
17:*:Num-1 X=ordinal,
22:u:Num-2 R=ordinal/none,
17:*:Num-1 L=ordinal,
17:u:tok-1 R=forest,,
21:u:tok-2 R=in:/forest,,
19:u:Key-3 L=strong/in,
21:u:tok-2 L=in:/forest,,
18:u:tok-2 R=j./(ed.),
18:u:tok-2 L=j./(ed.),
11:u:tok-1 X=4,
12:u:tok-1 L=4.,
12:u:Suf-2 L=4.,
12:u:tok-1LL=4.,
12:u:Pre-2 R=Op,
12:u:Pre-2 X=Op,
20:u:tok-1RR=musorstom:,
19:u:Tok-1 X=campagnes,
20:u:tok-1 R=musorstom:,
30:u:tok-2 R=campagnes/musorstom:,
20:u:Tok-1 X=MUSORSTOM:,
30:u:tok-2 L=campagnes/musorstom:,
23:u:tok-2 R=musorstom:/1.,
12:u:Suf-2 X=M:,
20:u:tok-1 L=musorstom:,
16:u:tok-1RR=(18-28,
23:u:tok-2 L=musorstom:/1.,
24:u:tok-2 R=1./philippines,
12:u:Suf-2 L=M:,
20:u:tok-1LL=musorstom:,
16:u:tok-1 R=(18-28,
14:u:tok-1RR=mars,
24:u:tok-2 L=1./philippines,
28:u:tok-2 R=philippines/(18-28,
12:u:Pre-2 R=(1,
16:u:Tok-1 X=(18-28,
14:u:tok-1 X=1828,
14:u:tok-1 R=mars,
16:u:tok-1RR=1976).,
28:u:tok-2 L=philippines/(18-28,
21:u:tok-2 R=(18-28/mars,
12:u:Pre-2 X=(1,
12:u:Suf-2 X=28,
14:u:Tok-1 X=Mars,
16:u:tok-1 L=(18-28,
16:u:tok-1 R=1976).,
21:u:tok-2 L=(18-28/mars,
21:u:tok-2 R=mars/1976).,
12:u:Suf-2 L=28,
12:u:Suf-2 X=rs,
16:u:Tok-1 X=1976).,
14:u:tok-1 X=1976,
16:u:tok-1LL=(18-28,
21:u:tok-2 L=mars/1976).,
26:u:tok-2 R=1976)./mémoires,
12:u:Suf-2 L=rs,
12:u:Pre-2 X=Br,
17:u:tok-1 X=shrimps,
12:u:Suf-2 X=ps,
17:u:tok-1 L=shrimps,
12:u:Suf-2 L=ps,
17:u:tok-1LL=shrimps,
16:u:tok-1 X=region,
14:u:tok-2 R=&/r.,
14:u:tok-2 L=&/r.,
15:u:tok-1LL=delle,
12:u:Pre-2 R=Sh,
12:u:Pre-2 X=Sh,
16:u:tok-1RR=marina,
16:u:tok-1 R=marina,
16:u:tok-1 X=marina,
12:u:Suf-2 X=va,
12:u:Suf-2 L=3),
12:u:Suf-2 X=go,
12:u:Suf-2 L=go,
12:u:Suf-2 X=d.,
16:u:tok-1LL=plants,
19:u:tok-1 L=received.,
19:u:tok-1 R=botanical,
17:u:tok-1RR=society,
26:u:tok-2 L=received./report,
26:u:tok-2 R=report/botanical,
12:u:Suf-2 L=d.,
12:u:Pre-2 R=Cl,
17:u:tok-1 R=british,
21:u:tok-2 R=the/british,
12:u:Pre-2 R=Br,
17:u:Tok-1 X=British,
17:u:tok-1 X=british,
21:u:tok-2 L=the/british,
17:u:tok-1LL=british,
12:u:Suf-2 L=ba,
11:u:tok-1 X=8,
12:u:Pre-2 R=cr,
12:u:Pre-2 X=cr,
21:u:Key-3 L=strong/page,
23:u:Key-3 L=strong/volume,
12:u:Pre-2 R=Ge,
21:u:Tmn-2 L=volume/none,
17:u:tok-1 R=cahiers,
12:u:Tok-1 X=De,
12:u:Suf-2 X=De,
12:u:Suf-2 L=De,
12:u:Pre-2 R=Ja,
12:u:Pre-2 X=Ja,
19:u:tok-1RR=strandvlo,
12:u:Pre-2 X=Ze,
19:u:tok-1 R=strandvlo,
22:u:tok-2 R=de/strandvlo,
12:u:Suf-2 X=35,
12:u:Pre-2 X=En,
12:u:Pre-2 R=W.,
12:u:Pre-2 X=29,
12:u:Pre-2 R=En,
23:u:Tok-1 X=Encyclopédie,
22:u:tok-1 X=encyclopedie,
18:u:tok-1LL=anatomie,
20:u:tok-1 L=comparée.,
20:u:tok-1 R=populaire.,
20:u:tok-1RR=bruxelles.,
34:u:tok-2 L=comparée./encyclopédie,
34:u:tok-2 R=encyclopédie/populaire.,
20:u:Tok-1 X=populaire.,
19:u:tok-1 X=populaire,
20:u:tok-1LL=comparée.,
23:u:tok-1 L=encyclopédie,
20:u:tok-1 R=bruxelles.,
17:u:tok-1RR=societe,
34:u:tok-2 L=encyclopédie/populaire.,
31:u:tok-2 R=populaire./bruxelles.,
12:u:Suf-2 X=ee,
12:u:Suf-2 L=ee,
20:u:tok-1LL=caledonian,
16:u:tok-1 L=waters,
12:u:tok-1RR=6.,
12:u:tok-1 R=6.,
22:u:tok-2 R=musorstom/6.,
12:u:Pre-2 R=6.,
12:u:Tok-1 X=6.,
22:u:tok-2 L=musorstom/6.,
22:u:tok-2 R=6./mémoires,
12:u:Pre-2 X=6.,
12:u:Pre-2 X=Am,
15:u:tok-1 R=bull.,
15:u:Tok-1 X=Bull.,
14:u:tok-1 X=bull,
14:u:tok-1RR=mus.,
12:u:Suf-2 X=r.,
14:u:tok-1 X=zool,
12:u:Pre-2 R=Mi,
12:u:tok-1 R=en,
12:u:Pre-2 R=en,
12:u:Tok-1 X=en,
12:u:tok-1 X=en,
12:u:Pre-2 X=en,
12:u:tok-1 L=en,
12:u:tok-1LL=en,
14:u:Fst-2 X=Lu/Q,
11:u:Pre-1 X=Q,
12:u:Pre-2 X=Qu,
20:u:tok-1RR=check-list,
20:u:tok-1 R=check-list,
19:u:tok-1 X=checklist,
23:u:tok-2 R=check-list/of,
20:u:tok-1 L=check-list,
23:u:tok-2 L=check-list/of,
20:u:tok-1LL=check-list,
18:u:Tok-1 X=Tropical,
14:u:Fst-2 X=Ps/[,
11:u:Pre-1 X=[,
32:u:Brk-1 R=closing-square-bracket,
14:u:Lst-2 X=Pe/],
11:u:Suf-1 X=],
19:u:Cap-2 R=caps/caps,
37:u:Num-2 R=none/closing-square-bracket,
32:u:Brk-1 X=closing-square-bracket,
18:u:Tmn-3 X=strong/],
16:u:tok-1RR=paris,,
12:u:Pre-2 R=Pu,
19:u:Cap-2 L=caps/caps,
32:u:Brk-1 L=closing-square-bracket,
12:u:Pre-2 X=Pu,
13:u:tok-1 X=vol,
12:u:Pre-2 X=Pl,
27:u:tok-2 L=mediterranean/sea,
12:u:Pre-2 R=si,
12:u:Pre-2 X=si,
11:u:tok-1RR=i,
11:u:Pre-2 R=i,
11:u:Tok-1 X=i,
11:u:tok-1 X=i,
11:u:Pre-2 X=i,
11:u:Suf-2 X=i,
11:u:tok-1 L=i,
24:u:tok-1 R=zoologicheskii,
17:u:tok-1RR=zhurnal,
12:u:Pre-2 X=We,
17:u:tok-1LL=western,
17:u:tok-1 R=coastal,
17:u:tok-1LL=coastal,
21:u:tok-1RR=proceedings,
21:u:tok-1 R=proceedings,
12:u:Suf-2 X=9.,
21:u:Key-1 R=proceedings,
21:u:Key-1 X=proceedings,
29:u:Key-2 X=proceedings/initial,
26:u:Key-3 x=proceedings/none,
21:u:Key-1 L=proceedings,
26:u:Tmn-2 L=proceedings/none,
26:u:Tmn-2 R=none/proceedings,
26:u:Key-3 L=none/proceedings,
12:u:Pre-2 R=Ga,
12:u:Pre-2 X=Ga,
12:u:Pre-2 R=Ty,
15:u:tok-1RR=zool.,
15:u:tok-1LL=zool.,
12:u:Pre-2 R=Pl,
12:u:Suf-2 X=ka,
12:u:Suf-2 L=ka,
15:u:tok-1 X=group,
22:u:tok-1RR=descriptions,
22:u:tok-1 R=descriptions,
22:u:Tok-1 X=descriptions,
22:u:tok-1 X=descriptions,
22:u:tok-1 L=descriptions,
22:u:tok-1LL=descriptions,
12:u:Suf-2 X=61,
21:u:Cap-2 R=caps/single,
14:u:tok-1RR=2005,
12:u:Pre-2 R=Cy,
12:u:Suf-2 X=),,
18:u:Tmn-3 X=strong/,,
12:u:Suf-2 L=),,
12:u:tok-1 L=at,
12:u:Pre-2 R=Ra,
17:u:tok-1RR=biology,
12:u:Pre-2 X=Ra,
17:u:tok-1 R=biology,
12:u:Pre-2 X=Go,
12:u:Pre-2 X=(I,
12:u:Pre-2 X=Ci,
12:u:Suf-2 X=au,
22:u:Cap-2 R=lower/single,
22:u:Cap-2 L=lower/single,
13:u:Tok-1 X=13.,
13:u:tok-1 L=13.,
13:u:tok-1LL=13.,
13:u:Pre-2 R=sé,
12:u:Pre-2 R=ba,
12:u:Pre-2 X=ba,
14:u:Lst-2 X=Ll/v,
11:u:Suf-1 X=v,
12:u:Suf-2 X=iv,
16:u:Tmn-3 X=none/v,
14:u:Lst-2 L=Ll/v,
12:u:Suf-2 L=iv,
12:u:Pre-2 R=ha,
12:u:Pre-2 X=ha,
23:u:Num-2 R=year/moderate,
17:u:tok-1 R=novapex,
11:u:tok-1 R=9,
11:u:Pre-2 R=9,
12:u:Pre-2 X=Ce,
22:u:tok-1 X=mediterranee,
12:u:Pre-2 R=(4,
14:u:Lst-2 X=Ll/k,
11:u:Suf-1 X=k,
16:u:Tmn-3 X=none/k,
14:u:tok-1 X=sylt,
20:u:tok-1 R=mikrofauna,
20:u:Tok-1 X=Mikrofauna,
20:u:tok-1 X=mikrofauna,
22:u:tok-1LL=nordseeinsel,
22:u:tok-1 R=meeresbodens,
12:u:Suf-2 X=ms,
12:u:Lst-1 X=Pd,
14:u:Lst-2 X=Pd/-,
11:u:Suf-1 X=-,
18:u:Tmn-2 R=weak/and,
16:u:Tmn-3 X=weak/-,
13:u:tok-1LL=aus,
12:*:Lst-1 L=Pd,
14:u:Lst-2 L=Pd/-,
18:u:Key-3 L=weak/and,
13:u:tok-1 L=und,
12:u:Pre-2 R=Ve,
16:u:tok-1 L=ostsee,
12:u:Suf-2 X=f.,
12:u:Pre-2 R=Ko,
12:u:Pre-2 X=Ko,
12:u:Suf-2 X=ft,
12:u:Suf-2 L=ft,
13:u:tok-1LL=bay,
23:u:tok-1RR=hydrobiologia,
23:u:tok-1 R=hydrobiologia,
12:u:Pre-2 R=Hy,
14:u:tok-1 X=uber,
12:u:Suf-2 X=ga,
12:u:Pre-2 X=Fy,
24:u:tok-1RR=förhandlingar,
12:u:Pre-2 R=Lu,
12:u:Pre-2 X=Lu,
13:u:tok-1RR=die,
13:u:tok-1 R=die,
14:u:tok-1LL=1929,
13:u:tok-1 L=die,
16:u:tok-1RR=kieler,
16:u:tok-1 R=kieler,
12:u:Pre-2 R=Ki,
12:u:Pre-2 X=Ki,
21:u:tok-1 R=zoologische,
12:u:Pre-2 R=Ab,
13:u:tok-1 X=fur,
12:u:Suf-2 X=6,,
12:u:Suf-2 L=6,,
12:u:Suf-2 X=2.,
12:u:Suf-2 L=2.,
12:u:tok-1RR=by,
12:u:Suf-2 X=ls,
12:u:tok-1 R=by,
22:u:tok-2 R=collected/by,
12:u:Pre-2 R=by,
12:u:Suf-2 L=ls,
12:u:Tok-1 X=by,
12:u:tok-1 X=by,
22:u:tok-2 L=collected/by,
12:u:Pre-2 X=by,
12:u:tok-1 L=by,
12:u:tok-1LL=by,
12:u:Pre-2 R=Es,
12:u:Pre-2 X=Es,
12:u:tok-1 L=3.,
12:u:tok-1LL=3.,
30:u:tok-2 L=d'histoire/naturelle,
19:u:tok-1 L=naturelle,
11:u:tok-1RR=-,
11:u:Tok-1 X=-,
12:*:Fst-1 X=Pd,
14:u:Fst-2 X=Pd/-,
11:u:Pre-1 X=-,
11:u:Pre-2 X=-,
11:u:Suf-2 X=-,
11:u:tok-1 L=-,
11:u:Suf-2 L=-,
17:u:tok-2 R=van/het,
12:u:Pre-2 R=he,
13:u:tok-1 X=het,
17:u:tok-2 L=van/het,
12:u:Pre-2 X=he,
13:u:tok-1LL=het,
14:u:tok-1 R=neue,
12:u:Suf-2 X=03,
12:u:Pre-2 X=Ei,
14:u:tok-1 R=für,
13:u:Pre-2 R=fü,
14:u:Tok-1 X=für,
13:u:Pre-2 X=fü,
13:u:Suf-2 X=ür,
11:u:tok-1 R=1,
11:u:Pre-2 R=1,
11:u:Tok-1 X=1,
11:u:Pre-2 X=1,
11:u:Suf-2 X=1,
11:u:tok-1 L=1,
11:u:Suf-2 L=1,
11:u:tok-1LL=1,
12:u:Pre-2 X=Ap,
21:u:Tok-1 X=Netherlands,
29:u:tok-2 R=netherlands/journal,
19:u:tok-1 L=northeast,
28:u:tok-2 L=northeast/atlantic,
12:u:Suf-2 X=pe,
12:u:Suf-2 L=pe,
14:u:tok-1RR=sci.,
14:u:Tok-1 X=Sci.,
13:u:tok-1 X=sci,
14:u:tok-1 L=sci.,
14:u:Lst-2 X=Lu/I,
11:u:Suf-1 X=I,
12:u:Suf-2 X=II,
16:u:Tmn-3 X=none/I,
13:u:tok-1RR=zur,
13:u:tok-1 L=zur,
13:u:tok-1LL=zur,
12:u:Tok-1 X=I.,
23:u:tok-1RR=denkschriften,
12:u:Pre-2 X=I.,
12:u:tok-1 L=i.,
12:u:Pre-2 X=Kr,
12:u:tok-1LL=i.,
22:u:tok-1RR=kaiserlichen,
22:u:tok-1 R=kaiserlichen,
18:u:tok-1RR=akademie,
26:u:tok-2 R=der/kaiserlichen,
18:u:tok-1 R=akademie,
12:u:Pre-2 R=Ak,
18:u:tok-1 X=nouveaux,
12:u:Suf-2 L=ny,
11:u:tok-1 R=:,
11:u:Pre-2 R=:,
14:u:Tok-1 X=vol.,
14:u:tok-1 L=vol.,
12:u:Pre-2 X=Te,
12:u:Pre-2 R=ex,
12:u:Pre-2 X=ex,
12:u:Suf-2 L=O.,
24:u:tok-1 L=harpacticoida.,
24:u:tok-1LL=harpacticoida.,
17:u:tok-1RR=account,
17:u:tok-1 R=account,
20:u:tok-2 R=an/account,
17:u:Tok-1 X=Account,
17:u:tok-1 X=account,
20:u:tok-2 L=an/account,
20:u:tok-2 R=account/of,
17:u:tok-1 L=account,
20:u:tok-2 L=account/of,
17:u:tok-1LL=account,
23:u:tok-2 R=the/crustacea,
17:u:Tok-1 X=Norway,,
15:u:tok-1RR=short,
20:u:tok-2 L=of/norway,,
22:u:tok-2 R=norway,/with,
17:u:tok-1 L=norway,,
15:u:tok-1 R=short,
22:u:tok-2 L=norway,/with,
20:u:tok-2 R=with/short,
15:u:Tok-1 X=short,
15:u:tok-1 X=short,
17:u:tok-1LL=norway,,
20:u:tok-2 L=with/short,
28:u:tok-2 R=short/descriptions,
15:u:tok-1 L=short,
17:u:tok-1RR=figures,
28:u:tok-2 L=short/descriptions,
26:u:tok-2 R=descriptions/and,
15:u:tok-1LL=short,
17:u:tok-1 R=figures,
26:u:tok-2 L=descriptions/and,
21:u:tok-2 R=and/figures,
17:u:Tok-1 X=figures,
17:u:tok-1 X=figures,
13:u:tok-1RR=all,
21:u:tok-2 L=and/figures,
20:u:tok-2 R=figures/of,
17:u:tok-1 L=figures,
13:u:tok-1 R=all,
20:u:tok-2 L=figures/of,
16:u:tok-2 R=of/all,
13:u:Tok-1 X=all,
13:u:tok-1 X=all,
17:u:tok-1LL=figures,
16:u:tok-2 L=of/all,
17:u:tok-2 R=all/the,
12:u:Suf-2 X=ll,
22:u:tok-2 R=the/species.,
12:u:Suf-2 L=ll,
13:u:tok-1LL=all,
16:u:tok-1 R=bergen,
25:u:tok-2 R=species./bergen,
12:u:Pre-2 X=Ev,
12:u:Pre-2 R=as,
12:u:Pre-2 X=as,
12:u:Suf-2 X=as,
12:u:tok-1 L=as,
12:u:Suf-2 L=as,
17:u:tok-2 R=for/the,
17:u:tok-2 L=for/the,
12:u:Pre-2 R=sy,
12:u:Pre-2 X=sy,
21:u:tok-1RR=(crustacea,,
21:u:tok-1 R=(crustacea,,
21:u:Tok-1 X=(Crustacea,,
21:u:tok-1 L=(crustacea,,
21:u:tok-1LL=(crustacea,,
12:u:Pre-2 R=ov,
12:u:Pre-2 X=ov,
31:u:Num-2 R=numeric/closing-paren,
15:u:Tok-1 X=Ocean,
15:u:tok-1 X=ocean,
15:u:tok-1 L=ocean,
15:u:tok-1LL=ocean,
12:u:Suf-2 X=8.,
12:u:Suf-2 L=8.,
12:u:Pre-2 X=8:,
14:u:tok-1LL=cote,
23:u:Tmn-2 R=strong/series,
23:u:Key-3 L=strong/series,
12:u:Suf-2 X=ht,
14:u:tok-1RR=voor,
14:u:tok-1 R=voor,
12:u:Suf-2 L=e:,
14:u:Tok-1 X=voor,
14:u:tok-1 X=voor,
14:u:tok-1 L=voor,
14:u:tok-1LL=voor,
19:u:Tok-1 X=Nederland,
19:u:tok-1 X=nederland,
16:u:Tok-1 X=Vlaams,
16:u:tok-1 X=vlaams,
19:u:tok-1 R=instituut,
12:u:Pre-2 X=Vl,
22:u:tok-1LL=mediterranee,
20:u:tok-1 R=bollettino,
22:u:tok-1RR=malacologico,
20:u:Tok-1 X=Bollettino,
20:u:tok-1 X=bollettino,
12:u:Pre-2 R=Un,
12:u:Pre-2 X=Un,
17:u:tok-1 X=nouveau,
12:u:Pre-2 X=Fa,
14:u:tok-1RR=mar.,
14:u:tok-1 R=mar.,
12:u:Pre-2 R=bi,
12:u:Pre-2 X=bi,
27:u:tok-1RR=schelde-estuarium,
27:u:tok-1 R=schelde-estuarium,
27:u:Tok-1 X=Schelde-estuarium,
26:u:tok-1 X=scheldeestuarium,
19:u:tok-1 R=opgemaakt,
31:u:tok-2 L=het/schelde-estuarium,
37:u:tok-2 R=schelde-estuarium/opgemaakt,
19:u:Tok-1 X=Opgemaakt,
19:u:tok-1 X=opgemaakt,
27:u:tok-1 L=schelde-estuarium,
18:u:tok-1RR=opdracht,
37:u:tok-2 L=schelde-estuarium/opgemaakt,
22:u:tok-2 R=opgemaakt/in,
12:u:Suf-2 X=kt,
27:u:tok-1LL=schelde-estuarium,
19:u:tok-1 L=opgemaakt,
18:u:tok-1 R=opdracht,
22:u:tok-2 L=opgemaakt/in,
21:u:tok-2 R=in/opdracht,
12:u:Pre-2 R=op,
12:u:Suf-2 L=kt,
18:u:Tok-1 X=opdracht,
18:u:tok-1 X=opdracht,
19:u:tok-1LL=opgemaakt,
18:u:tok-1RR=afdeling,
21:u:tok-2 L=in/opdracht,
22:u:tok-2 R=opdracht/van,
12:u:Pre-2 X=op,
18:u:tok-1 L=opdracht,
18:u:tok-1 R=afdeling,
19:u:tok-1RR=maritieme,
22:u:tok-2 L=opdracht/van,
22:u:tok-2 R=van/afdeling,
18:u:Tok-1 X=Afdeling,
18:u:tok-1 X=afdeling,
18:u:tok-1LL=opdracht,
19:u:tok-1 R=maritieme,
18:u:tok-1RR=toegang,,
22:u:tok-2 L=van/afdeling,
28:u:tok-2 R=afdeling/maritieme,
19:u:Tok-1 X=Maritieme,
19:u:tok-1 X=maritieme,
18:u:tok-1 L=afdeling,
18:u:tok-1 R=toegang,,
22:u:tok-1RR=projectgroep,
28:u:tok-2 L=afdeling/maritieme,
28:u:tok-2 R=maritieme/toegang,,
21:u:tok-1 R=nederlandse,
12:u:Pre-2 R=(V,
12:u:Pre-2 X=(V,
19:u:tok-1RR=molecular,
19:u:tok-1 R=molecular,
19:u:tok-1 X=molecular,
12:u:Pre-2 R=da,
12:u:Pre-2 X=da,
23:u:tok-1RR=phylogenetics,
19:u:Tok-1 X=Molecular,
23:u:tok-1 R=phylogenetics,
33:u:tok-2 R=molecular/phylogenetics,
12:u:Suf-2 X=cs,
12:u:Suf-2 L=cs,
14:u:Tok-1 X=(2):,
11:u:tok-1 X=2,
14:u:tok-1 L=(2):,
12:u:Pre-2 R=Zw,
12:u:Pre-2 R=Eu,
12:u:Pre-2 X=Eu,
27:u:tok-1RR=meeresforschungen,
27:u:tok-1 R=meeresforschungen,
34:u:tok-2 R=kieler/meeresforschungen,
11:u:Pre-2 R=I,
11:u:Tok-1 X=I,
11:u:Pre-2 X=I,
11:u:Suf-2 X=I,
14:u:Lst-2 L=Lu/I,
11:u:Suf-2 L=I,
12:u:Tok-1 X=II,
16:u:tok-1RR=1980).,
16:u:tok-1 R=1980).,
23:u:tok-2 R=(1976,/1980).,
16:u:Tok-1 X=1980).,
14:u:tok-1 X=1980,
23:u:tok-2 L=(1976,/1980).,
21:u:tok-2 R=1980)./tome,
14:u:Tok-1 X=Tome,
14:u:tok-1 X=tome,
12:u:Tok-1 X=2.,
12:u:Pre-2 X=2.,
12:u:tok-1 L=2.,
12:u:tok-1LL=2.,
20:u:tok-2 R=the/marine,
20:u:tok-2 L=the/marine,
12:u:tok-1 X=uk,
12:u:Suf-2 X=gh,
12:u:Pre-2 R=24,
19:u:tok-2 R=of/marine,
19:u:tok-2 L=of/marine,
19:u:tok-1 X=diversity,
15:u:tok-1 R=trudy,
12:u:Pre-2 X=Em,
15:u:Tok-1 X=Trudy,
15:u:tok-1 X=trudy,
15:u:tok-1 L=trudy,
12:u:Suf-2 L=dy,
12:u:Suf-2 L=c.,
23:u:tok-1RR=scientifiques,
23:u:tok-1 R=scientifiques,
23:u:tok-1 X=scientifiques,
23:u:tok-1 L=scientifiques,
15:u:tok-1RR=belge,
15:u:tok-1 R=belge,
15:u:Tok-1 X=Belge,
15:u:tok-1 X=belge,
13:u:Fst-2 R=P/",
13:u:Fst-2 X=P/",
11:u:Pre-1 X=",
16:u:Tok-1 X=marina,
16:u:tok-1RR=nature,
15:u:tok-1LL=black,
17:u:tok-1 X=islands,
17:u:Tok-1 X=Islands,
17:u:tok-1LL=islands,
13:u:Tok-1 X=Het,
14:u:tok-1LL=2001,
19:u:Tok-1 X=Belgische,
19:u:tok-1 X=belgische,
22:u:tok-2 L=de/belgische,
19:u:tok-1 L=belgische,
19:u:tok-1LL=belgische,
12:u:Pre-2 R=ch,
12:u:Pre-2 X=ch,
23:u:tok-1RR=environmental,
21:u:Tok-1 X=Smithsonian,
21:u:tok-1 X=smithsonian,
11:u:Tok-1 X=2,
11:u:Pre-2 X=2,
11:u:Suf-2 X=2,
11:u:tok-1 L=2,
11:u:Suf-2 L=2,
11:u:tok-1LL=2,
13:u:tok-1 L=off,
12:u:Suf-2 L=ff,
12:u:Pre-2 X=Li,
12:u:Suf-2 L=Y.,
19:u:Tok-1 X=Australia,
19:u:tok-1 X=australia,
15:u:tok-1 R=issue,
12:u:tok-1 X=mj,
18:u:Tok-1 X=Scientia,
18:u:tok-1 X=scientia,
15:u:tok-1 L=caves,
25:u:tok-2 R=scientia/marina,
21:u:Tmn-2 R=none/editor,
21:u:Key-3 L=none/editor,
23:u:Cap-3 L=moderate/caps,
17:u:Tok-1 X=Special,
17:u:tok-1 X=special,
17:u:tok-1 X=caridea,
22:u:tok-1 X=biodiversity,
16:u:Key-1 R=thesis,
16:u:Key-1 X=thesis,
24:u:Key-2 X=thesis/initial,
19:u:tok-1 R=algologie,
23:u:Tok-1 X=Westerschelde,
23:u:tok-1 X=westerschelde,
23:u:tok-1 L=westerschelde,
14:u:tok-1 R=dans,
14:u:Tok-1 X=dans,
14:u:tok-1 X=dans,
14:u:tok-1 L=dans,
14:u:tok-1LL=dans,
13:u:tok-1RR=21.,
13:u:tok-1 R=21.,
23:u:tok-2 R=musorstom/21.,
13:u:Tok-1 X=21.,
12:u:tok-1 X=21,
23:u:tok-2 L=musorstom/21.,
23:u:tok-2 R=21./mémoires,
15:u:Tok-1 X=Belg.,
14:u:tok-1 X=belg,
15:u:tok-1 L=belg.,
12:u:Suf-2 L=g.,
12:u:Suf-2 X=84,
12:u:Suf-2 L=84,
17:u:tok-1RR=(eds.).,
17:u:tok-1 R=(eds.).,
17:u:Tok-1 X=(eds.).,
17:u:tok-1 L=(eds.).,
17:u:tok-1LL=(eds.).,
23:u:tok-1 X=international,
12:u:Suf-2 X=ld,
12:u:Suf-2 L=ld,
19:u:Tmn-2 R=none/date,
22:u:Key-2 X=date/initial,
19:u:Key-3 L=none/date,
16:u:tok-1 L=recent,
20:u:Tok-1 X=Collection,
12:u:Pre-2 R=Vo,
24:u:Key-2 X=volume/initial,
19:u:tok-1RR=ekologiya,
19:u:tok-1 R=ekologiya,
13:u:Lst-2 X=P/?,
12:u:Pre-2 R=Ek,
11:u:Suf-1 X=?,
16:u:Tmn-3 X=weak/?,
13:u:Lst-2 L=P/?,
12:u:Pre-2 X=Ek,
22:u:Cap-2 R=initial/_x+1,
14:u:tok-1 R=ann.,
14:u:Tok-1 X=Ann.,
13:u:tok-1 X=ann,
15:u:tok-1 R=proc.,
15:u:Tok-1 X=Proc.,
14:u:tok-1 X=proc,
12:u:Pre-2 R=90,
21:u:tok-1RR=publication,
12:u:Suf-2 L='s,
14:u:Lst-2 X=Lu/V,
11:u:Suf-1 X=V,
16:u:Tmn-3 X=none/V,
19:u:Tok-1 X=Thalassia,
19:u:tok-1 X=thalassia,
11:u:tok-1LL=e,
21:u:tok-1 L=descrizione,
16:u:tok-1 R=salent,
13:u:tok-1RR=23:,
31:u:tok-2 L=descrizione/thalassia,
26:u:tok-2 R=thalassia/salent,
13:u:tok-1RR=al.,
13:u:tok-1 R=al.,
16:u:tok-2 R=et/al.,
13:u:Tok-1 X=al.,
16:u:tok-2 L=et/al.,
19:u:tok-2 R=al./(ed.),
13:u:tok-1 L=al.,
19:u:tok-2 L=al./(ed.),
24:u:tok-2 R=(ed.)/tropical,
13:u:tok-1LL=al.,
18:u:tok-1 R=deep-sea,
17:u:tok-1RR=benthos,
27:u:tok-2 R=tropical/deep-sea,
17:u:Tok-1 X=Benthos,
17:u:tok-1 X=benthos,
18:u:tok-1 L=deep-sea,
26:u:tok-2 L=deep-sea/benthos,
18:u:tok-1LL=deep-sea,
17:u:tok-1 L=benthos,
20:u:tok-1RR=scientific,
20:u:tok-1 R=scientific,
22:u:Key-2 X=report/lower,
15:u:Tok-1 X=Aust.,
14:u:tok-1 X=aust,
18:u:tok-2 R=aust./j.,
14:u:tok-1RR=res.,
20:u:tok-1LL=freshwater,
20:u:Tok-1 X=Estuarine,,
28:u:tok-2 R=estuarine,/coastal,
12:u:Suf-2 L=ek,
12:u:Suf-2 X=r?,
12:u:Pre-2 R=Ny,
12:u:Pre-2 X=Ny,
11:u:tok-1 X=5,
12:u:Pre-2 R=Fl,
12:u:Pre-2 R=Dr,
19:u:Tok-1 X=Costello,,
18:u:tok-1 X=costello,
19:u:tok-1 L=costello,,
19:u:tok-1LL=costello,,
24:u:tok-2 R=marine/species,
24:u:tok-2 L=marine/species,
14:u:Tok-1 X=1893,
14:u:tok-1 X=1893,
15:u:tok-1 L=congo,
21:u:tok-1RR=conchyliol.,
17:u:Tok-1 X=Aquatic,
17:u:tok-1 X=aquatic,
12:u:Pre-2 X=Aq,
12:u:Suf-2 X=V.,
14:u:Lst-2 X=Lu/E,
11:u:Suf-1 X=E,
16:u:Tmn-3 X=none/E,
14:u:Lst-2 L=Lu/E,
12:u:Tok-1 X=8:,
17:u:tok-1LL=kerala,,
21:u:tok-1 L=trivandrum,,
15:u:tok-1 R=15-35,
24:u:tok-2 L=trivandrum,/8:,
18:u:tok-2 R=8:/15-35,
15:u:Tok-1 X=15-35,
14:u:tok-1 X=1535,
21:u:tok-1LL=trivandrum,,
12:u:tok-1 L=8:,
18:u:tok-2 L=8:/15-35,
20:u:tok-2 R=15-35/_x+1,
20:u:tok-1 X=ostafrikas,
12:u:tok-1RR=k.,
17:u:Tok-1 X=Mobius,,
16:u:tok-1 X=mobius,
22:u:tok-1LL=ost-afrikas.,
21:u:tok-2 L=in:/mobius,,
20:u:tok-2 R=mobius,/k.,
17:u:tok-1 L=mobius,,
19:u:tok-1RR=thierwelt,
20:u:tok-2 L=mobius,/k.,
16:u:tok-2 R=k./die,
17:u:tok-1LL=mobius,,
19:u:tok-1 R=thierwelt,
21:u:tok-1RR=ost-afrikas,
16:u:tok-2 L=k./die,
23:u:tok-2 R=die/thierwelt,
19:u:Tok-1 X=Thierwelt,
19:u:tok-1 X=thierwelt,
21:u:tok-1 R=ost-afrikas,
17:u:tok-1RR=deutsch,
23:u:tok-2 L=die/thierwelt,
31:u:tok-2 R=thierwelt/ost-afrikas,
21:u:Tok-1 X=Ost-Afrikas,
19:u:tok-1 L=thierwelt,
17:u:tok-1 R=deutsch,
13:u:tok-1RR=ost,
31:u:tok-2 L=thierwelt/ost-afrikas,
29:u:tok-2 R=ost-afrikas/deutsch,
14:u:tok-1RR=ges.,
13:u:tok-1RR=50:,
13:u:tok-1 R=50:,
12:u:Pre-2 R=Ed,
20:u:Tok-1 X=Systematic,
20:u:tok-1 X=systematic,
22:u:tok-1 R=parasitology,
33:u:tok-2 R=systematic/parasitology,
22:u:Tmn-2 L=roman/strong,
12:u:Pre-2 X=Gy,
22:u:tok-2 R=mémoires/de,
22:u:tok-2 L=mémoires/de,
14:u:tok-1LL=sea,,
16:u:tok-2 R=by/the,
16:u:tok-2 L=by/the,
20:u:tok-1RR=musorstom.,
20:u:tok-1 R=musorstom.,
30:u:tok-2 R=campagnes/musorstom.,
20:u:Tok-1 X=MUSORSTOM.,
30:u:tok-2 L=campagnes/musorstom.,
20:u:tok-1 L=musorstom.,
20:u:tok-1LL=musorstom.,
15:u:tok-1RR=1976),
15:u:tok-1 R=1976),
20:u:tok-2 R=mars/1976),
15:u:Tok-1 X=1976),
20:u:tok-2 L=mars/1976),
12:u:Suf-2 X=6),
22:u:tok-1 L=turbellarien,
21:u:tok-1 R=zeitschrift,
14:u:Tok-1 X=Int.,
13:u:tok-1 X=int,
12:u:Pre-2 X=Wh,
15:u:tok-1LL=whal.,
16:u:tok-1 L=commn.,
24:u:tok-2 L=commn./special,
23:u:tok-2 R=special/issue,
15:u:tok-1RR=their,
15:u:tok-1 R=their,
18:u:tok-2 R=to/their,
15:u:Tok-1 X=their,
15:u:tok-1 X=their,
18:u:tok-2 L=to/their,
12:u:Suf-2 X=ir,
15:u:tok-1 L=their,
12:u:Suf-2 L=ir,
15:u:tok-1LL=their,
12:u:Pre-2 X=Rh,
18:u:tok-1 R=skrifter,
12:u:Pre-2 R=Sk,
12:u:Suf-2 X=ig,
12:u:Suf-2 L=ig,
12:u:tok-1LL=og,
12:u:Suf-2 L=3,,
15:u:Tok-1 X=Final,
15:u:tok-1 X=final,
17:u:tok-1 R=report.,
15:u:tok-1RR=delta,
20:u:tok-2 L=sea./final,
23:u:tok-2 R=final/report.,
17:u:Tok-1 X=report.,
15:u:tok-1 L=final,
15:u:tok-1 R=delta,
23:u:tok-2 L=final/report.,
23:u:tok-2 R=report./delta,
23:u:Key-3 x=report/strong,
15:u:Tok-1 X=World,
15:u:tok-1 X=world,
18:u:tok-1 R=heritage,
24:u:tok-2 R=world/heritage,
15:u:tok-1 L=world,
17:u:tok-1RR=centre,,
21:u:tok-2 L=ocean/world,
12:u:Pre-2 X=(A,
19:u:tok-1 X=discovery,
16:u:tok-1 X=formes,
16:u:tok-1 L=formes,
16:u:tok-1LL=formes,
22:u:tok-1LL=paedomorphes,
13:u:tok-1 X=mem,
19:u:Tok-1 X=Documents,
19:u:tok-1 X=documents,
17:u:tok-1 X=estuary,
23:u:tok-1 L=palestinienne,
33:u:tok-2 L=palestinienne/palestine,
17:u:tok-1 X=belgica,
18:u:tok-1 X=ecologie,
19:u:Tok-1 X=Discovery,
20:u:tok-1RR=university,
20:u:tok-1 R=university,
16:u:tok-1RR=press:,
20:u:Tok-1 X=University,
20:u:tok-1 L=university,
16:u:tok-1LL=press:,
13:u:tok-1RR=tot,
19:u:Tok-1 X=Bijdragen,
19:u:tok-1 X=bijdragen,
13:u:tok-1 R=tot,
23:u:tok-2 R=bijdragen/tot,
13:u:Tok-1 X=tot,
13:u:tok-1 X=tot,
19:u:tok-1 L=bijdragen,
19:u:tok-1RR=dierkunde,
23:u:tok-2 L=bijdragen/tot,
16:u:tok-2 R=tot/de,
19:u:tok-1LL=bijdragen,
13:u:tok-1 L=tot,
19:u:tok-1 R=dierkunde,
16:u:tok-2 L=tot/de,
22:u:tok-2 R=de/dierkunde,
15:u:tok-2 R=and/a,
15:u:tok-2 L=and/a,
17:u:Key-1 X=edition,
23:u:Key-2 X=edition/lower,
22:u:Key-3 L=none/edition,
17:u:Key-1 L=edition,
15:u:Tok-1 X=Canal,
14:u:tok-1 L=suez,
20:u:tok-2 L=suez/canal,
14:u:Lst-2 X=Lu/S,
11:u:Suf-1 X=S,
16:u:Tmn-3 X=none/S,
20:u:tok-1 L=crustacea.,
13:u:Tok-1 X=Den,
16:u:tok-1 R=norske,
30:u:tok-1RR=nordhavs-expedition,,
16:u:tok-2 L=i./den,
20:u:tok-2 R=den/norske,
13:u:tok-1LL=den,
18:u:tok-1 X=18761878,
19:u:tok-1 X=norwegian,
17:u:tok-1LL=abyssal,
18:u:tok-1 L=gascogne,
18:u:tok-1LL=gascogne,
16:u:tok-1RR=voyage,
16:u:tok-1 R=voyage,
16:u:Tok-1 X=Voyage,
16:u:tok-1 X=voyage,
16:u:tok-1 L=voyage,
16:u:tok-1LL=voyage,
14:u:tok-1 L=s.y.,
24:u:tok-1RR=1897-1898-1899,
22:u:tok-2 L=s.y./belgica,
20:u:tok-2 R=belgica/en,
14:u:tok-1LL=s.y.,
24:u:tok-1 R=1897-1898-1899,
14:u:tok-1RR=sous,
20:u:tok-2 L=belgica/en,
27:u:tok-2 R=en/1897-1898-1899,
24:u:Tok-1 X=1897-1898-1899,
22:u:tok-1 X=189718981899,
14:u:tok-1 R=sous,
27:u:tok-2 L=en/1897-1898-1899,
29:u:tok-2 R=1897-1898-1899/sous,
14:u:Tok-1 X=sous,
14:u:tok-1 X=sous,
24:u:tok-1 L=1897-1898-1899,
22:u:tok-1RR=commandement,
29:u:tok-2 L=1897-1898-1899/sous,
17:u:tok-2 R=sous/le,
24:u:tok-1LL=1897-1898-1899,
14:u:tok-1 L=sous,
22:u:tok-1 R=commandement,
17:u:tok-2 L=sous/le,
25:u:tok-2 R=le/commandement,
22:u:Tok-1 X=commandement,
22:u:tok-1 X=commandement,
14:u:tok-1LL=sous,
25:u:tok-2 L=le/commandement,
25:u:tok-2 R=commandement/de,
22:u:tok-1 L=commandement,
25:u:tok-2 L=commandement/de,
15:u:tok-2 R=de/a.,
18:u:Tok-1 X=Rapports,
18:u:tok-1 X=rapports,
23:u:Tok-1 X=Scientifiques,
18:u:tok-1LL=rapports,
20:u:Tok-1 X=Buschmann:,
19:u:tok-1 X=buschmann,
17:u:tok-1 R=anvers.,
12:u:tok-1RR=7,,
28:u:tok-2 R=buschmann:/anvers.,
17:u:Tok-1 X=Anvers.,
16:u:tok-1 X=anvers,
20:u:tok-1 L=buschmann:,
28:u:tok-2 L=buschmann:/anvers.,
12:u:Pre-2 X=Az,
22:u:tok-1 R=zoologischer,
18:u:tok-1RR=anzeiger,
22:u:Tok-1 X=Zoologischer,
22:u:tok-1 X=zoologischer,
18:u:tok-1 R=anzeiger,
31:u:tok-2 R=zoologischer/anzeiger,
12:u:tok-1RR=af,
20:u:Tok-1 X=Öfversigt,
19:u:tok-1 X=ofversigt,
12:u:tok-1 R=af,
23:u:tok-2 R=Öfversigt/af,
13:u:Pre-2 X=Öf,
12:u:Suf-2 X=gt,
12:u:Tok-1 X=af,
12:u:tok-1 X=af,
12:u:Suf-2 X=af,
15:u:tok-1 X=kungl,
12:u:Pre-2 X=do,
12:u:Suf-2 X=ES,
14:u:tok-1 L=ices,
12:u:Suf-2 L=ES,
17:u:Tok-1 X=Further,
17:u:tok-1 X=further,
16:u:tok-1 R=cybium,
18:u:tok-1RR=register,
18:u:tok-1 R=register,
18:u:Tok-1 X=Register,
18:u:tok-1 X=register,
21:u:tok-2 R=register/of,
18:u:tok-1 L=register,
21:u:tok-2 L=register/of,
18:u:tok-1LL=register,
14:u:tok-1RR=plos,
14:u:tok-1 R=plos,
12:u:Pre-2 R=PL,
14:u:tok-1 X=plos,
18:u:tok-2 R=plos/one,
12:u:Pre-2 X=PL,
12:u:Pre-2 R=ON,
12:u:Suf-2 X=NE,
12:u:Suf-2 L=NE,
14:u:tok-1 L=seas,
16:u:tok-1 R=annals,
24:u:tok-1RR=identification,
24:u:tok-1 R=identification,
12:u:Pre-2 R=id,
24:u:tok-1 X=identification,
12:u:Pre-2 X=id,
24:u:tok-1LL=identification,
20:u:tok-1 R=phycologia,
13:u:tok-1 R=107,
15:u:tok-1RR=fasc.,
18:u:tok-2 L=belg./t.,
16:u:tok-2 R=t./107,
14:u:tok-1RR=cah.,
14:u:tok-1 R=cah.,
17:u:tok-1RR=results,
24:u:tok-2 R=the/scientific,
17:u:tok-1 R=results,
17:u:Tok-1 X=Results,
17:u:tok-1 X=results,
20:u:tok-2 R=results/of,
17:u:tok-1 L=results,
20:u:tok-2 L=results/of,
17:u:tok-1LL=results,
16:u:tok-1RR=classe,
16:u:tok-1 R=classe,
23:u:Tmn-2 L=series/strong,
17:u:tok-1 L=region.,
17:u:tok-1LL=region.,
13:u:tok-1 L=iv.,
17:u:tok-1 L=polypes,
15:u:tok-1 R=hayz,,
19:u:tok-1RR=bruxelles,
20:u:tok-2 L=polypes/m.,
18:u:tok-2 R=m./hayz,,
18:u:tok-1RR=european,
18:u:tok-1 R=european,
18:u:Tok-1 X=European,
18:u:tok-1 X=european,
18:u:tok-1 L=european,
18:u:tok-1LL=european,
18:u:tok-1 R=synopses,
18:u:Tok-1 X=Synopses,
18:u:tok-1 X=synopses,
21:u:tok-2 R=synopses/of,
18:u:tok-1 L=synopses,
21:u:tok-2 L=synopses/of,
18:u:tok-1LL=synopses,
14:u:tok-1RR=(new,
23:u:tok-2 R=british/fauna,
14:u:tok-1 R=(new,
23:u:tok-2 L=british/fauna,
20:u:tok-2 R=fauna/(new,
20:u:tok-2 L=fauna/(new,
14:u:tok-1 L=(new,
23:u:Key-3 x=series/strong,
18:u:tok-1 R=canadian,
18:u:Tok-1 X=Canadian,
18:u:tok-1 X=canadian,
12:u:Pre-2 X=Ul,
17:u:tok-1 L=ulvales,
22:u:tok-1RR=capsosiphon,,
22:u:tok-2 L=ulvales/part,
17:u:tok-1LL=ulvales,
22:u:tok-1 R=capsosiphon,,
22:u:tok-1RR=percursaria,,
25:u:tok-2 R=i./capsosiphon,,
19:u:tok-1 R=helgoland,
19:u:tok-1RR=decapoda,,
19:u:tok-1 R=decapoda,,
31:u:tok-2 R=(crustacea,/decapoda,,
19:u:Tok-1 X=Decapoda,,
31:u:tok-2 L=(crustacea,/decapoda,,
19:u:tok-1 L=decapoda,,
19:u:tok-1LL=decapoda,,
17:u:tok-1RR=panglao,
17:u:tok-1 R=panglao,
12:u:Pre-2 R=PA,
12:u:Suf-2 X=AO,
12:u:Suf-2 L=AO,
16:u:tok-1RR=taiwan,
16:u:tok-1 R=taiwan,
21:u:tok-2 R=from/taiwan,
16:u:Tok-1 X=Taiwan,
16:u:tok-1 X=taiwan,
21:u:tok-2 L=from/taiwan,
16:u:tok-1 L=taiwan,
16:u:tok-1LL=taiwan,
18:u:tok-1 L=sponges.,
18:u:tok-1LL=sponges.,
24:u:Key-3 x=edition/strong,
18:u:tok-1 L=subgenus,
21:u:Tok-1 X=Peridinium.,
20:u:tok-1 X=peridinium,
26:u:tok-1LL=protoperidinium:,
17:u:tok-1RR=reports,
27:u:tok-2 L=genus/peridinium.,
29:u:tok-2 R=peridinium./science,
15:u:tok-1RR=white,
15:u:tok-1 R=white,
15:u:tok-1 X=white,
15:u:tok-1 L=white,
15:u:tok-1LL=white,
15:u:tok-1RR=revue,
15:u:tok-1 R=revue,
17:u:tok-1RR=thesis.,
17:u:tok-1 R=thesis.,
12:u:Suf-2 X=Sc,
21:u:Tmn-2 R=none/thesis,
12:u:tok-1 X=sm,
16:u:tok-1 R=sarsia,
17:u:tok-1 L=waters.,
16:u:Tok-1 X=Theil.,
15:u:tok-1 X=theil,
35:u:tok-1 L=descriptiv-systematischer,
19:u:tok-1 R=tijdschr.,
14:u:tok-1RR=ned.,
42:u:tok-2 L=descriptiv-systematischer/theil.,
26:u:tok-2 R=theil./tijdschr.,
15:u:tok-1 X=china,
21:u:tok-2 R=sea/journal,
13:u:tok-1LL=non,
18:u:tok-1 L=insectes,
19:u:tok-1 R=lamertin,,
21:u:tok-2 L=insectes/h.,
22:u:tok-2 R=h./lamertin,,
17:u:Key-3 L=weak/in,
12:u:tok-1LL=1:,
16:u:tok-1RR=europe,
16:u:tok-1 R=europe,
19:u:tok-2 R=in/europe,
16:u:Tok-1 X=Europe,
16:u:tok-1 X=europe,
19:u:tok-2 L=in/europe,
16:u:tok-1 L=europe,
16:u:tok-1LL=europe,
20:u:tok-1RR=california,
20:u:tok-1 R=california,
16:u:tok-1 X=naples,
17:u:Tok-1 X=Nouveau,
20:u:tok-1 L=générale,
18:u:tok-1RR=caridea),
18:u:tok-1 R=caridea),
28:u:tok-2 R=decapoda,/caridea),
18:u:Tok-1 X=Caridea),
28:u:tok-2 L=decapoda,/caridea),
18:u:tok-1 L=caridea),
18:u:tok-1LL=caridea),
26:u:Tok-1 X=Sitzungsberichte,
26:u:tok-1 X=sitzungsberichte,
45:u:tok-1RR=mathematisch-naturwissenschaftliche,
39:u:tok-2 L=turbellarien/sitzungsberichte,
30:u:tok-2 R=sitzungsberichte/der,
26:u:tok-1 L=sitzungsberichte,
45:u:tok-1 R=mathematisch-naturwissenschaftliche,
30:u:tok-2 L=sitzungsberichte/der,
49:u:tok-2 R=der/mathematisch-naturwissenschaftliche,
45:u:Tok-1 X=mathematisch-naturwissenschaftliche,
44:u:tok-1 X=mathematischnaturwissenschaftliche,
26:u:tok-1LL=sitzungsberichte,
49:u:tok-2 L=der/mathematisch-naturwissenschaftliche,
52:u:tok-2 R=mathematisch-naturwissenschaftliche/classe,
12:u:Suf-2 X=w,,
12:u:Suf-2 L=w,,
22:u:tok-1RR=biodiversity,
22:u:tok-1RR=abhandlungen,
22:u:tok-1 R=abhandlungen,
22:u:Tok-1 X=Abhandlungen,
22:u:tok-1 X=abhandlungen,
18:u:tok-1 L=gradient,
15:u:tok-1 X=museo,
12:u:Suf-2 X=eo,
12:u:Suf-2 L=eo,
17:u:tok-1RR=meeting,
21:u:tok-1 L=tanaidacea.,
19:u:tok-1 R=costello,,
15:u:tok-1RR=m.j.,,
25:u:tok-2 L=tanaidacea./in:,
23:u:tok-2 R=in:/costello,,
21:u:tok-1LL=tanaidacea.,
15:u:tok-1 R=m.j.,,
14:u:tok-1RR=c.s.,
23:u:tok-2 L=in:/costello,,
25:u:tok-2 R=costello,/m.j.,,
15:u:Tok-1 X=M.J.,,
14:u:tok-1 R=c.s.,
17:u:tok-1RR=emblow,,
25:u:tok-2 L=costello,/m.j.,,
20:u:tok-2 R=m.j.,/c.s.,
14:u:Tok-1 X=C.S.,
12:u:tok-1 X=cs,
15:u:tok-1 L=m.j.,,
17:u:tok-1 R=emblow,,
20:u:tok-2 L=m.j.,/c.s.,
22:u:tok-2 R=c.s./emblow,,
17:u:Tok-1 X=Emblow,,
16:u:tok-1 X=emblow,
15:u:tok-1LL=m.j.,,
14:u:tok-1 L=c.s.,
22:u:tok-2 L=c.s./emblow,,
19:u:tok-2 R=emblow,/&,
14:u:tok-1LL=c.s.,
17:u:tok-1 L=emblow,,
19:u:tok-2 L=emblow,/&,
17:u:tok-1LL=emblow,,
17:u:tok-1RR=(eds.),,
18:u:tok-2 R=r./white,
15:u:Tok-1 X=White,
17:u:tok-1 R=(eds.),,
18:u:tok-2 L=r./white,
23:u:tok-2 R=white/(eds.),,
17:u:Tok-1 X=(eds.),,
23:u:tok-2 L=white/(eds.),,
26:u:tok-2 R=(eds.),/european,
17:u:tok-1 L=(eds.),,
26:u:tok-2 L=(eds.),/european,
27:u:tok-2 R=european/register,
17:u:tok-1LL=(eds.),,
27:u:tok-2 L=european/register,
22:u:tok-2 R=a/check-list,
22:u:tok-2 L=a/check-list,
20:u:tok-2 R=species/in,
20:u:tok-2 L=species/in,
20:u:tok-2 R=europe/and,
22:u:tok-1RR=bibliography,
20:u:tok-2 L=europe/and,
22:u:tok-1 R=bibliography,
24:u:tok-2 R=a/bibliography,
22:u:Tok-1 X=Bibliography,
22:u:tok-1 X=bibliography,
16:u:tok-1RR=guides,
24:u:tok-2 L=a/bibliography,
25:u:tok-2 R=bibliography/of,
22:u:tok-1 L=bibliography,
16:u:tok-1 R=guides,
25:u:tok-2 L=bibliography/of,
19:u:tok-2 R=of/guides,
16:u:Tok-1 X=Guides,
16:u:tok-1 X=guides,
22:u:tok-1LL=bibliography,
19:u:tok-2 L=of/guides,
19:u:tok-2 R=guides/to,
16:u:tok-1 L=guides,
19:u:tok-2 L=guides/to,
15:u:Tok-1 X=Their,
16:u:tok-1LL=guides,
21:u:tok-1RR=patrimoines,
30:u:tok-2 R=their/identification,
12:u:Pre-2 R=Id,
24:u:Tok-1 X=Identification,
21:u:tok-1 R=patrimoines,
18:u:tok-1RR=naturels,
30:u:tok-2 L=their/identification,
36:u:tok-2 R=identification/patrimoines,
12:u:Pre-2 X=Id,
21:u:Tok-1 X=Patrimoines,
21:u:tok-1 X=patrimoines,
18:u:tok-1 R=naturels,
30:u:tok-2 R=patrimoines/naturels,
22:u:tok-2 R=naturels/50:,
18:u:tok-1RR=belgica,,
17:u:Tok-1 X=volumes,
17:u:tok-1 X=volumes,
21:u:tok-1LL=mollusques:,
18:u:Tok-1 X=American,
18:u:tok-1 X=american,
23:u:tok-1LL="schizopoda".,
20:u:tok-2 L=-/american,
26:u:tok-2 R=american/journal,
15:u:Tok-1 X=Japan,
15:u:tok-1 X=japan,
13:u:tok-1 L=dr.,
13:u:tok-1LL=dr.,
12:u:Tok-1 X=NE,
12:u:Pre-2 X=NE,
12:u:tok-1 L=ne,
17:u:Tok-1 X=Somalie,
17:u:tok-1 X=somalie,
18:u:tok-1RR=roumaine,
20:u:tok-2 L=la/somalie,
23:u:tok-2 R=somalie/revue,
14:u:tok-1 X=eine,
14:u:tok-1 L=eine,
14:u:tok-1LL=eine,
16:u:Tok-1 X=Haifa,,
17:u:tok-1 R=israel.,
18:u:tok-1RR=1-126pp.,
23:u:tok-2 L=israel/haifa,,
24:u:tok-2 R=haifa,/israel.,
17:u:Tok-1 X=Israel.,
16:u:tok-1 L=haifa,,
18:u:tok-1 R=1-126pp.,
24:u:tok-2 L=haifa,/israel.,
26:u:tok-2 R=israel./1-126pp.,
13:u:Lst-2 X=P/",
11:u:Suf-1 X=",
20:u:Tmn-3 X=moderate/",
17:u:tok-1 L=harvard,
17:u:tok-1 R=memoire,
28:u:tok-2 L=harvard/university,
28:u:tok-2 R=university/memoire,
15:u:tok-1 X=italy,
16:u:tok-1 L=diatom,
15:u:tok-1RR=moria,
19:u:tok-2 L=2/volumes,
24:u:tok-2 R=volumes/kluwer,
16:u:tok-1 X=island,
13:u:Tok-1 X=1st,
13:u:tok-1 X=1st,
21:u:tok-1 R=panhellenic,
22:u:tok-2 L=mollusca/1st,
25:u:tok-2 R=1st/panhellenic,
12:u:Pre-2 X=1s,
13:u:tok-1 X=ved,
15:u:Tok-1 X=Irish,
15:u:tok-1 X=irish,
22:u:Tok-1 X=bibliography,
14:u:Tok-1 X=Eine,
18:u:tok-2 R=deep/sea,
19:u:tok-1 L=rotatoria,
32:u:tok-2 R=collection/patrimoines,
32:u:tok-2 L=collection/patrimoines,
24:u:tok-2 L=(eds)/tropical,
20:u:tok-1RR=accomplies,
33:u:tok-2 R=campagnes/scientifiques,
20:u:tok-1 R=accomplies,
33:u:tok-2 L=campagnes/scientifiques,
34:u:tok-2 R=scientifiques/accomplies,
18:u:tok-1 L=pacific.,
22:u:tok-2 L=pacific./in:,
18:u:tok-1LL=pacific.,
21:u:tok-1 X=christiania,
14:u:tok-1 L=golf,
16:u:tok-1 R=naples,
21:u:tok-1RR=tijdschrift,
17:u:tok-2 L=golf/de,
19:u:tok-2 R=de/naples,
16:u:Tok-1 X=Naples,
14:u:tok-1LL=golf,
19:u:tok-2 L=de/naples,
28:u:tok-2 R=naples/tijdschrift,
21:u:Tok-1 X=Meddelelser,
21:u:tok-1 X=meddelelser,
21:u:tok-1 X=pellioditis,
14:u:tok-1 R=m.j.,
14:u:Tok-1 X=M.J.,
14:u:tok-1 L=m.j.,
14:u:tok-1LL=m.j.,
14:u:tok-1RR=m.j.,
24:u:tok-2 R=costello,/m.j.,
24:u:tok-2 L=costello,/m.j.,
17:u:tok-2 R=m.j./et,
16:u:tok-1RR=(eds),,
17:u:tok-2 L=m.j./et,
16:u:tok-1 R=(eds),,
20:u:tok-2 R=al./(eds),,
16:u:Tok-1 X=(eds),,
20:u:tok-2 L=al./(eds),,
16:u:tok-1 L=(eds),,
25:u:tok-2 L=(eds),/european,
16:u:tok-1LL=(eds),,
18:u:tok-1RR=species:,
18:u:tok-1 R=species:,
25:u:tok-2 R=marine/species:,
18:u:Tok-1 X=Species:,
25:u:tok-2 L=marine/species:,
20:u:tok-2 R=species:/a,
18:u:tok-1 L=species:,
20:u:tok-2 L=species:/a,
20:u:Tok-1 X=check-list,
18:u:tok-1LL=species:,
16:u:Tok-1 X=guides,
25:u:tok-1RR=identification.,
25:u:tok-1 R=identification.,
31:u:tok-2 R=their/identification.,
25:u:Tok-1 X=identification.,
31:u:tok-2 L=their/identification.,
37:u:tok-2 R=identification./patrimoines,
17:u:tok-1RR=253-265,
23:u:tok-2 L=naturelle/(a),
18:u:tok-2 R=(a)/180:,
21:u:tok-1 X=scandinavia,
21:u:tok-1 L=pycnogonida,
14:u:tok-1RR=1-98,
16:u:tok-1 L=island,
14:u:tok-1 X=nova,
14:u:Tok-1 X=N.F.,
12:u:tok-1 X=nf,
22:u:tok-1LL=universitets,
20:u:tok-1 L=Årsskrift,
15:u:tok-1 R=avd.2,
16:u:tok-1RR=58(9):,
25:u:tok-2 L=Årsskrift/n.f.,
20:u:tok-2 R=n.f./avd.2,
12:u:Pre-2 R=Av,
15:u:Tok-1 X=Avd.2,
14:u:tok-1 X=avd2,
20:u:tok-1LL=Årsskrift,
14:u:tok-1 L=n.f.,
16:u:tok-1 R=58(9):,
20:u:tok-2 L=n.f./avd.2,
22:u:tok-2 R=avd.2/58(9):,
12:u:Pre-2 X=Av,
12:u:Suf-2 X=.2,
16:u:tok-1 L=norway,
19:u:tok-1LL=remarques,
18:u:tok-1 L=ireland.,
24:u:tok-2 L=ireland./irish,
18:u:Tok-1 X=Tierwelt,
18:u:tok-1 X=tierwelt,
14:u:Tok-1 X=chez,
14:u:tok-1 X=chez,
15:u:Tok-1 X=China,
15:u:tok-1LL=china,
29:u:tok-2 L=gascogne/résultats,
14:u:tok-1RR=1884,
14:u:tok-1 R=1884,
14:u:Tok-1 X=1884,
14:u:tok-1 X=1884,
14:u:tok-1 L=1884,
14:u:tok-1LL=1884,
17:u:tok-1 R=zealand,
21:u:tok-2 R=new/zealand,
17:u:tok-1 L=zealand,
17:u:tok-1LL=zealand,
26:u:tok-2 L=species/synopses,
18:u:tok-1RR=series),,
18:u:tok-1 R=series),,
13:u:tok-1RR=28.,
23:u:tok-2 R=(new/series),,
23:u:tok-2 L=(new/series),,
18:u:tok-1 L=series),,
18:u:Tok-1 X=species:,
18:u:tok-1 R=columbia,
18:u:tok-1 R=zeepaard,
22:u:tok-2 R=het/zeepaard,
21:u:tok-2 R=al./(eds.).,
18:u:Tok-1 X=register,
36:u:tok-2 R=identification./collection,
26:u:tok-2 L=region./tropical,
14:u:tok-1 X=vema,
16:u:tok-1RR=press,,
18:u:Tok-1 X=Nouveaux,
19:u:tok-1 L=d'ostende,
28:u:tok-2 L=d'ostende/nouveaux,
28:u:tok-2 R=nouveaux/mémoires,
12:u:Tok-1 X=Sm,
20:u:tok-1LL=sonneratia,
14:u:tok-1 L=alba,
17:u:tok-2 L=alba/sm,
18:u:tok-2 R=sm/flora,
12:u:Suf-2 X=Sm,
18:u:tok-1LL=vicinis,,
18:u:tok-1 L=enumerat,
18:u:tok-1RR=kongliga,
29:u:tok-2 L=enumerat/Öfversigt,
21:u:Tok-1 X=Informatics,
21:u:tok-1 X=informatics,
34:u:tok-2 L=biodiversity/informatics,
29:u:tok-2 R=informatics/journal,
23:u:tok-2 L=rotatoria/die,
22:u:tok-2 R=die/tierwelt,
22:u:Tok-1 X=Jagttagelser,
22:u:tok-1 X=jagttagelser,
14:u:tok-1LL=1799,
23:u:tok-1 L=entomologiske,
36:u:tok-2 L=entomologiske/jagttagelser,
31:u:tok-2 R=jagttagelser/skrifter,
17:u:tok-1 X=crangon,
20:u:Tok-1 X=Monographi,
20:u:tok-1 X=monographi,
16:u:tok-1LL=fauna.,
23:u:tok-2 L=i./monographi,
25:u:tok-2 R=monographi/over,
20:u:tok-1 L=monographi,
13:u:tok-1RR=ved,
25:u:tok-2 L=monographi/over,
20:u:tok-1LL=monographi,
13:u:tok-1 R=ved,
16:u:tok-2 R=de/ved,
16:u:tok-1RR=kyster,
16:u:tok-2 L=de/ved,
20:u:tok-2 R=ved/norges,
18:u:tok-1LL=mysider.,
22:u:tok-1 R=christiania,,
21:u:tok-2 L=zealand/new,
26:u:tok-2 L=ocean/expedition,
23:u:tok-2 R=expedition/j.,
21:u:Tok-1 X=Informatore,
21:u:tok-1 X=informatore,
23:u:tok-1LL=phaeophyceae,,
23:u:tok-1 L=chlorophyceae,
18:u:tok-1 R=botanico,
18:u:tok-1RR=italiano,
35:u:tok-2 L=chlorophyceae/informatore,
30:u:tok-2 R=informatore/botanico,
16:u:Tok-1 X=Island,
21:u:Tok-1 X=Pellioditis,
21:u:tok-1 L=pellioditis,
16:u:tok-2 R=1/(2):,
16:u:tok-2 L=1/(2):,
17:u:Tok-1 X=Stifter,
17:u:tok-1 X=stifter,
13:u:tok-1 R=nyt,
17:u:tok-1RR=magazin,
21:u:tok-2 R=stifter/nyt,
20:u:tok-1 L=trondhjems,
28:u:tok-2 L=trondhjems/stifter,
16:u:tok-1RR=39(4):,
19:u:tok-2 L=sci./ser.,
16:u:tok-2 R=ser./a,
16:u:tok-1 R=39(4):,
17:u:tok-1RR=203-209,
16:u:tok-2 L=ser./a,
18:u:tok-2 R=a/39(4):,
16:u:tok-1 X=azores,
23:u:tok-1 L=taxonomiques.,
27:u:tok-2 L=taxonomiques./in:,
23:u:tok-1LL=taxonomiques.,
17:u:Tok-1 X=Shrimps,
20:u:tok-2 R=shrimps/of,
20:u:tok-2 L=shrimps/of,
26:u:tok-1RR=nematocarcinidae,
26:u:tok-1 R=nematocarcinidae,
33:u:tok-2 R=family/nematocarcinidae,
26:u:Tok-1 X=Nematocarcinidae,
26:u:tok-1 X=nematocarcinidae,
33:u:tok-2 L=family/nematocarcinidae,
33:u:tok-2 R=nematocarcinidae/smith,,
26:u:tok-1 L=nematocarcinidae,
33:u:tok-2 L=nematocarcinidae/smith,,
21:u:tok-2 R=smith,/1884,
26:u:tok-1LL=nematocarcinidae,
21:u:tok-2 L=smith,/1884,
26:u:tok-2 R=1884/(crustacea,,
26:u:tok-2 L=1884/(crustacea,,
23:u:tok-2 R=caridea)/from,
23:u:tok-2 L=caridea)/from,
20:u:tok-2 R=taiwan/and,
20:u:tok-2 L=taiwan/and,
31:u:tok-2 R=philippines/collected,
31:u:tok-2 L=philippines/collected,
17:u:tok-1RR=taiwan,,
17:u:tok-1 R=taiwan,,
21:u:tok-2 R=the/taiwan,,
12:u:Pre-2 R=TA,
17:u:Tok-1 X=TAIWAN,,
21:u:tok-2 L=the/taiwan,,
25:u:tok-2 R=taiwan,/panglao,
12:u:Pre-2 X=TA,
17:u:tok-1 L=taiwan,,
25:u:tok-2 L=taiwan,/panglao,
25:u:tok-2 L=pacific/shrimps,
17:u:tok-1RR=zweiter,
17:u:tok-1 R=zweiter,
24:u:Tok-1 X=Supplementband,
24:u:tok-1 X=supplementband,
21:u:tok-1 L=jahrbücher,
12:u:tok-1 R=v:,
17:u:tok-1RR=251-272,
36:u:tok-2 L=jahrbücher/supplementband,
27:u:tok-2 R=supplementband/v:,
12:u:Pre-2 R=V:,
16:u:tok-1LL=trans.,
12:u:tok-1 R=m:,
15:u:tok-1RR=l-iv,,
26:u:tok-2 L=christiania/vol.,
17:u:tok-2 R=vol./m:,
12:u:Pre-2 R=M:,
15:u:Tok-1 X=Kungl,
22:u:tok-1LL=schwedischen,
21:u:tok-1 L=westküste.,
27:u:tok-2 L=westküste./kungl,
29:u:tok-2 R=kungl/fysiografiska,
12:u:Suf-2 X=gl,
21:u:tok-1LL=freilebende,
26:u:tok-1 L=polyplacophores.,
30:u:tok-2 L=polyplacophores./in:,
26:u:tok-1LL=polyplacophores.,
16:u:tok-1RR=orstom,
28:u:tok-2 R=pellioditis/marina,
28:u:tok-2 L=pellioditis/marina,
21:u:tok-2 L=congo/belge,
21:u:tok-2 R=belge/revue,
15:u:tok-1RR=press,
20:u:tok-2 L=seas/china,
23:u:tok-2 R=china/science,
21:u:tok-1RR=heidelberg,,
23:u:tok-2 R=13./springer,,
21:u:tok-1 R=heidelberg,,
31:u:tok-2 R=springer,/heidelberg,,
21:u:Tok-1 X=Heidelberg,,
31:u:tok-2 L=springer,/heidelberg,,
24:u:tok-2 R=heidelberg,/pp,
17:u:tok-1 R=259-274,
20:u:tok-2 R=pp/259-274,
18:u:tok-1 X=stanford,
14:u:Tok-1 X=Lav.,
13:u:tok-1 X=lav,
17:u:tok-1 L=femmine,
14:u:tok-1 R=ist.,
14:u:tok-1RR=bot.,
22:u:tok-2 L=femmine/lav.,
19:u:tok-2 R=lav./ist.,
15:u:tok-1LL=(dar.,
17:u:tok-1 L=univ.),,
15:u:tok-1RR=39-61,
19:u:tok-2 L=univ.),/1,
17:u:tok-1LL=univ.),,
15:u:tok-1 R=39-61,
20:u:tok-2 R=(2):/39-61,
15:u:Tok-1 X=39-61,
14:u:tok-1 X=3961,
20:u:tok-2 L=(2):/39-61,
20:u:tok-2 R=39-61/_x+1,
16:u:tok-1RR=(eds.),
16:u:tok-1 R=(eds.),
20:u:tok-2 R=al./(eds.),
16:u:Tok-1 X=(eds.),
20:u:tok-2 L=al./(eds.),
16:u:tok-1 L=(eds.),
16:u:tok-1LL=(eds.),
13:u:tok-1 L=fr.,
17:u:Tok-1 X=187-203,
16:u:tok-1 X=187203,
20:u:tok-2 L=pp/187-203,
22:u:tok-2 R=187-203/_x+1,
17:u:Tok-1 X=Leipzig,
17:u:tok-1 X=leipzig,
27:u:tok-1 L=nordsee-nematoden,
17:u:tok-1 R=(verlag,
35:u:tok-2 L=nordsee-nematoden/leipzig,
25:u:tok-2 R=leipzig/(verlag,
17:u:Tok-1 X=(Verlag,
16:u:tok-1 X=verlag,
27:u:tok-1LL=nordsee-nematoden,
17:u:tok-1 L=leipzig,
14:u:tok-1RR=paul,
25:u:tok-2 L=leipzig/(verlag,
21:u:tok-2 R=(verlag/von,
17:u:tok-1LL=leipzig,
17:u:tok-1 L=(verlag,
14:u:tok-1 R=paul,
19:u:tok-1RR=frohberg),
21:u:tok-2 L=(verlag/von,
18:u:tok-2 R=von/paul,
29:u:tok-2 L=pycnogonida/further,
28:u:tok-2 R=further/zoological,
13:u:Tok-1 X=(3),
18:u:Tok-1 X=Salvius:,
17:u:tok-1 X=salvius,
20:u:tok-1 L=laurentius,
18:u:tok-1 R=holmiae.,
29:u:tok-2 L=laurentius/salvius:,
27:u:tok-2 R=salvius:/holmiae.,
18:u:Tok-1 X=Holmiae.,
17:u:tok-1 X=holmiae,
20:u:tok-1LL=laurentius,
18:u:tok-1 L=salvius:,
27:u:tok-2 L=salvius:/holmiae.,
23:u:tok-2 R=holmiae./_x+1,
20:u:Tok-1 X=Helgoland.,
27:u:tok-1LL=klein-polychaeten,
24:u:tok-2 L=von/helgoland.,
27:u:tok-2 R=helgoland./kieler,
16:u:tok-1RR=(notes,
24:u:tok-2 L=générale/(3),
15:u:tok-2 R=(3)/9,
20:u:Tok-1 X=Quatrième,
19:u:tok-1 X=quatrieme,
18:u:tok-1LL=entomol.,
17:u:tok-1 R=série.,
24:u:tok-2 L=fr./quatrième,
28:u:tok-2 R=quatrième/série.,
23:u:Tok-1 X=Untersuchung.,
22:u:tok-1 X=untersuchung,
28:u:tok-1 L=thiergeographische,
42:u:tok-2 L=thiergeographische/untersuchung.,
28:u:tok-2 R=untersuchung./neue,
18:u:tok-1RR=sociedad,
18:u:Tok-1 X=Boletín,
17:u:tok-1 X=boletin,
15:u:tok-1LL=sobre,
18:u:tok-1 L=briozoos,
27:u:tok-2 L=briozoos/boletín,
21:u:tok-2 R=boletín/de,
13:u:Suf-2 X=ín,
18:u:tok-1LL=briozoos,
18:u:tok-1 L=boletín,
14:u:tok-1RR=real,
21:u:tok-2 L=boletín/de,
13:u:Suf-2 L=ín,
18:u:tok-1LL=boletín,
14:u:tok-1 R=real,
17:u:tok-2 R=la/real,
19:u:tok-1 L=malediven,
24:u:tok-2 L=malediven/int.,
20:u:tok-2 R=int./revue,
19:u:tok-1LL=poissons:,
18:u:tok-1 R=plassan:,
18:u:tok-2 L=iv./chez,
23:u:tok-2 R=chez/plassan:,
25:u:tok-2 R=(eds.)/european,
25:u:tok-2 L=(eds.)/european,
0=-5.764739e-02
1=-5.004499e-01
2=-1.905799e-02
3=6.971702e-02
4=3.206389e-02
5=2.358454e-01
6=6.979043e-01
7=-4.972545e+00
8=-1.671267e+00
9=-6.095766e-01
12=2.157670e-02
13=-3.332465e-01
15=-1.686289e+00
16=-4.546413e-01
17=4.459077e-01
18=-1.339424e-01
19=-2.570404e+00
20=-2.447300e+00
21=-1.801290e+00
22=-6.764544e+00
23=3.747193e-01
24=-6.330123e-03
25=-2.899486e+00
26=-1.598804e-01
27=-5.230960e+00
28=-4.019891e+00
29=1.292003e+00
30=2.255925e-01
32=-1.249368e-01
35=2.255925e-01
37=-1.249368e-01
40=1.287263e-01
42=-7.637058e-02
43=9.391365e-02
44=-1.929632e-01
45=8.541777e-01
52=1.066597e+00
53=-1.691604e-01
57=9.564289e-02
58=1.085157e+00
59=-2.941884e-01
60=-5.107878e-01
63=1.449141e-01
64=-5.069868e-03
65=-2.106034e-01
69=2.301744e-01
70=6.297606e-02
71=2.283758e-02
72=-5.096038e-02
73=-1.069367e-02
74=-1.366365e-02
77=3.018390e-03
78=-2.625757e-02
82=-1.942143e-02
83=3.438654e-02
85=2.255925e-01
87=-1.249368e-01
115=1.660996e-02
116=-6.456419e-01
117=1.833951e-02
118=-2.383349e-02
119=2.609982e-02
120=2.255925e-01
122=-1.249368e-01
125=-9.389802e-04
127=4.394807e-03
128=-2.886441e-03
129=3.531805e-03
132=3.018390e-03
133=-2.625757e-02
137=1.427034e-04
138=2.896036e-03
140=-9.389802e-04
142=4.394807e-03
143=-2.886441e-03
144=3.531805e-03
145=2.255925e-01
147=-1.249368e-01
152=-2.068485e-02
153=3.921619e-02
155=2.255925e-01
157=-1.249368e-01
160=1.349753e-02
162=2.281452e-02
163=1.134215e-01
164=-1.583806e-01
165=1.081141e-01
167=-7.956389e-02
168=-2.315023e-02
170=1.993535e-01
175=8.487890e-03
177=-9.508187e-02
178=1.202032e-02
180=1.993535e-01
185=2.255925e-01
187=-1.249368e-01
215=6.085182e-02
216=-9.491241e-01
217=8.103894e-02
218=6.488827e-02
219=-5.596043e-02
220=1.131987e+00
223=-6.776079e-01
227=1.250424e-01
228=-2.571400e-01
230=-6.168559e-01
232=2.165064e-01
233=-7.029560e-03
234=-4.796435e-01
235=-6.975549e-01
237=-1.362782e+00
238=1.897256e-01
239=-1.433749e+00
240=-2.728004e-01
242=-1.143275e+00
243=-1.232493e+00
244=8.544143e-01
245=-1.280871e-01
246=-1.858703e-01
247=2.022570e-01
248=1.011137e-01
249=-6.902087e-02
250=1.834827e-02
251=-9.627749e-01
252=1.047278e-01
253=1.773165e-01
254=-4.457922e-02
255=-4.001987e-05
257=6.002055e-03
258=2.379673e-02
259=-1.435224e-01
260=-1.760709e-01
261=-2.288303e-01
262=5.174277e-02
263=5.771284e-02
264=2.718955e-02
265=-5.307019e-02
266=-4.926368e-01
267=1.650174e-03
268=6.667553e-02
269=5.478178e-02
270=-1.142282e-02
271=-4.941205e-01
272=6.471719e-02
273=5.615445e-02
274=3.079995e-02
275=8.886830e-02
276=-2.228113e-01
277=6.698947e-02
278=-1.045347e-01
279=4.837687e-02
280=2.255925e-01
282=-1.249368e-01
285=-9.350330e-02
286=-2.061931e-01
287=-2.555821e-02
288=-6.092728e-02
289=4.424185e-03
290=5.531593e-02
291=-7.259922e-02
292=5.546665e-02
293=4.709311e-02
294=-4.080580e-02
295=1.608589e-02
297=6.777969e-02
298=7.167118e-02
299=-1.973750e-01
300=2.254168e-01
302=-1.248534e-01
305=-3.987502e-04
307=-1.995339e-02
308=-5.596839e-03
309=-8.349204e-03
310=2.255925e-01
312=-1.249368e-01
315=2.255925e-01
317=-1.249368e-01
320=8.402001e-02
325=2.255925e-01
327=-1.249368e-01
332=6.426463e-02
333=-2.160073e-02
334=-9.307809e-03
335=2.878045e-03
337=-4.461832e-03
338=2.040093e-02
339=-6.728542e-02
340=2.255925e-01
342=-1.249368e-01
345=5.834820e-02
346=-1.068561e-01
347=4.389682e-02
348=1.132214e-01
349=-1.999542e-03
350=5.903197e-02
351=-6.251908e-02
352=6.083517e-02
353=7.403500e-02
354=-4.846738e-02
355=2.255925e-01
357=-1.249368e-01
385=-4.289710e-04
387=-2.068893e-02
388=-7.363144e-03
389=7.669055e-05
390=-3.572432e-04
392=-8.138470e-02
393=1.416034e-01
394=-3.393698e-02
395=1.081707e-01
400=-6.507089e-04
402=-2.620605e-02
403=-9.603417e-03
404=1.404757e-03
405=-8.560023e-04
407=2.514841e-03
408=-3.404418e-03
409=6.419467e-03
410=2.580542e-04
412=6.967193e-03
413=-1.811092e-03
414=-8.402133e-02
415=5.772940e-02
416=-4.954105e-01
417=6.817819e-02
418=5.399335e-02
419=2.010543e-02
422=-1.880899e-01
423=7.785741e-02
425=3.389444e-01
432=-3.267975e-01
433=3.572001e-01
434=-4.656547e-02
437=-2.459178e-02
438=1.045334e-02
439=-2.929826e-03
440=4.247535e-02
441=-3.312919e-01
442=-8.454452e-02
443=-2.485645e-02
444=1.171799e-02
445=1.834329e-01
448=-4.687061e-01
452=-5.927217e-05
457=2.370866e-01
458=-7.045689e-01
459=-4.058364e-01
460=-8.463124e-02
462=-5.671548e-01
463=3.119098e-01
464=-1.225538e+00
465=-3.052152e-01
467=-1.105583e-07
468=-1.758304e-01
469=8.205076e-01
470=-9.050256e-04
471=-1.324810e-01
472=7.260873e-02
473=-2.491730e-02
474=-1.493445e-01
475=4.506537e-02
482=-3.267975e-01
483=3.572001e-01
484=-4.656547e-02
487=-1.090335e-01
488=5.040384e-02
490=4.506537e-02
497=-5.499752e-03
498=1.917724e-02
499=-4.345826e-03
500=-1.577747e-03
501=-5.707217e-01
502=1.085148e-02
503=1.088541e-01
504=1.699251e-02
505=1.086719e-01
507=-4.959441e-02
508=-9.293991e-03
509=-4.503996e-05
510=-8.262849e-02
512=7.717625e-02
513=5.265016e-02
514=-5.946928e-02
515=1.109878e-02
517=-4.534402e-02
518=9.997877e-04
519=-9.124594e-02
520=1.707602e-06
522=-2.403449e-02
523=1.947143e-02
524=-1.046653e-01
525=4.666403e-06
527=8.901145e-03
528=-1.194610e-02
529=-7.992411e-02
530=-1.145363e-01
531=-8.200601e-01
532=3.116653e-02
533=6.898199e-02
534=-5.192406e-02
535=2.175324e-01
536=3.194027e-01
537=-1.290602e+00
538=-3.548826e-01
542=-1.119097e-01
545=-6.699395e-01
547=2.892591e-01
548=-4.124857e-01
549=-9.108271e-01
550=-1.026461e+00
551=-4.961713e-01
552=-2.641273e+00
553=1.878760e-01
554=-2.569851e-05
557=-1.313292e+00
558=-7.356131e-01
559=3.713457e-01
560=-1.790859e-01
561=-3.181889e-01
562=9.278344e-03
563=5.321553e-02
564=5.810932e-02
565=9.972858e-02
567=-4.404066e-02
568=-7.308809e-03
570=-1.851068e-04
571=-2.727200e-01
572=6.214716e-04
573=-2.446841e-02
574=-1.127479e-01
575=1.744843e-01
580=3.006357e-05
581=-2.879016e-01
582=2.911493e-02
583=-3.329359e-03
584=-3.621476e-01
585=7.571653e-03
586=-1.620956e-01
587=-2.274756e-02
588=1.321758e-02
589=-1.001145e-01
591=-1.906128e-01
592=-1.760180e-03
593=1.515136e-02
594=-1.928291e-03
595=-4.258402e-02
596=-2.090845e-01
597=5.856246e-02
598=1.129846e-01
599=4.059602e-03
600=-1.927002e-04
601=-3.209453e-01
602=5.731131e-03
603=-3.202919e-02
604=-8.388654e-02
605=1.622839e-01
617=1.299948e-01
618=-1.926453e+00
623=1.324858e-01
624=-1.650225e+00
629=3.358592e-01
630=-8.583863e-04
632=2.204816e-02
633=-3.134069e-02
635=4.516188e-02
640=-2.091366e-03
642=2.314382e-02
643=-4.493771e-03
644=2.129408e-03
647=1.225976e-03
648=-1.261817e-03
652=1.286099e-02
653=9.608511e-04
654=-3.495546e-01
657=1.225976e-03
658=-1.261817e-03
662=-1.024540e-03
663=7.010245e-03
665=5.161046e-02
667=1.106580e-02
668=-6.587589e-02
669=-2.830447e-01
670=1.951126e-06
672=-1.540588e-02
673=-3.822841e-03
674=-1.038190e-01
675=-1.237380e-04
677=3.399284e-02
678=-9.325790e-03
679=-4.152878e-02
680=2.423948e-02
682=3.883519e-02
683=-1.504353e-02
684=-9.168626e-03
685=3.392869e-01
688=-4.147083e-01
693=-7.994006e-03
695=3.129852e-02
697=-1.536383e-01
698=2.056574e-02
699=-7.259743e-03
703=5.090938e-06
707=1.149233e-03
708=-7.758106e-03
709=-3.339528e-01
712=-4.995921e-03
713=1.369498e-02
714=1.723216e-02
717=1.149233e-03
718=-7.758106e-03
719=-3.339528e-01
722=-1.154901e-02
723=3.994687e-03
725=9.261282e-02
727=2.732524e-03
728=-2.249451e-01
732=-3.189525e-03
733=1.913354e-02
734=-3.886669e-01
737=5.914207e-03
738=-2.917622e-04
742=-3.189525e-03
743=1.913354e-02
744=-3.886669e-01
747=1.022309e-01
748=-9.976994e-02
750=2.690685e-02
752=-5.687154e-03
753=-2.657830e-02
757=1.702482e-03
758=-1.235835e-01
760=1.855810e-02
762=7.742368e-05
763=4.361008e-03
764=2.503322e-03
767=-6.797059e-02
768=2.246707e-02
769=-2.044215e-01
772=1.878851e-02
773=6.940609e-04
774=-4.542437e-02
777=-1.939498e-02
778=-2.837699e-03
779=-1.736375e-01
780=2.975787e-02
782=1.270398e-02
783=-1.294592e-03
784=-4.162722e-02
787=1.878851e-02
788=6.940609e-04
789=-4.542437e-02
792=5.830296e-04
793=-6.994335e-02
795=2.975787e-02
797=1.270398e-02
798=-1.294592e-03
799=-4.162722e-02
802=3.879723e-01
803=-2.060382e-01
805=1.840241e-02
807=-7.067784e-02
808=1.297786e-02
809=1.098344e-01
813=-1.151143e-01
817=2.081259e-02
818=-3.848944e-02
820=1.165956e-01
832=2.574189e-01
833=-1.202991e+00
838=3.985808e-04
839=-2.300374e-03
844=5.314681e-02
847=-8.804693e-03
848=-1.127775e-01
849=-7.886812e-03
852=-2.003579e-03
853=-3.091560e-02
854=-1.110614e-03
857=4.857208e-02
858=-5.489075e-02
860=2.670335e-02
862=4.598910e-02
863=-9.407681e-03
864=-1.158687e-01
865=1.698921e-02
867=-4.600599e-03
868=-4.002958e-02
869=-1.847355e-01
872=5.990582e-03
873=-7.532429e-02
877=-1.141767e-03
878=-2.651351e-02
879=-3.839235e-04
880=7.257540e-02
882=1.698729e-01
883=1.648553e-02
884=-4.621324e-02
885=2.336098e-02
886=-2.666854e-01
887=4.257866e-02
888=-2.331146e-03
889=-1.068915e-01
890=8.870721e-02
892=1.507080e-01
893=3.240212e-03
894=-2.193023e-02
895=1.567163e-05
897=4.043208e-02
898=-5.492977e-03
899=-6.250188e-02
900=3.156955e-02
901=-1.185369e-01
902=4.642912e-02
903=-5.112472e-03
904=-2.138614e-04
905=2.975787e-02
907=1.270398e-02
908=-1.294592e-03
909=-4.162722e-02
912=-1.357942e-01
913=-6.389521e-04
914=4.700101e-03
915=-4.730708e-01
917=3.569923e-05
918=-1.190463e-01
919=-2.215963e-01
921=2.140783e+00
932=1.707315e-01
938=5.974459e-03
939=1.079317e+00
944=1.422661e-01
947=2.038320e-02
948=-5.721414e-03
949=-6.796100e-02
952=1.446706e-02
953=-1.197087e-02
954=1.021512e-02
957=-3.036504e-02
958=-2.062511e-01
959=7.525231e-02
960=5.143144e-06
962=-8.509296e-02
963=1.490934e-02
964=5.557404e-03
967=-2.676385e-02
972=2.038320e-02
973=-5.721414e-03
974=-6.796100e-02
977=1.117364e-02
979=-3.708118e-01
982=-2.676385e-02
985=-1.973072e-02
987=-4.331008e-02
988=-1.063673e-01
989=-5.253466e-01
993=-3.308145e-01
996=1.034027e-01
997=-1.254578e-03
999=-1.297418e-01
1002=-2.137024e-02
1003=2.356202e-02
1007=2.564398e-04
1008=-6.895375e-02
1022=2.459320e-01
1023=7.550203e-03
1028=-1.058890e-03
1029=5.763232e-03
1036=1.353311e-01
1037=-1.562403e-03
1038=2.713852e-01
1039=-3.809933e-04
1041=1.479491e+00
1052=4.552837e-02
1053=1.721986e-05
1058=1.320641e-01
1059=-1.085124e-01
1064=9.949877e-03
1066=3.986141e-01
1067=-1.735316e-02
1068=-2.073961e-01
1069=-6.825006e-01
1070=-3.978184e-01
1072=-4.196829e-02
1073=5.442270e-03
1074=-5.236052e-01
1075=4.744441e-06
1077=-5.535348e-02
1078=1.656790e-02
1079=-2.662016e-04
1082=7.721259e-02
1083=7.700009e-02
1084=1.103391e-02
1087=1.826437e-03
1088=4.329304e-02
1091=6.430505e-03
1092=8.884824e-02
1093=1.019028e-01
1094=-1.578253e-02
1097=-2.442022e-02
1098=-1.065537e-01
1099=2.663744e-01
1100=4.766557e-06
1102=-1.292526e-02
1103=2.152447e-02
1104=6.646779e-04
1105=6.183442e-02
1106=4.699202e-01
1117=3.241976e-02
1118=8.876241e-01
1123=7.107328e-02
1124=1.082569e+00
1129=4.267732e-02
1130=1.662475e-02
1131=-4.340652e-03
1132=3.365876e-02
1133=9.413894e-02
1134=1.866312e-02
1136=-1.206259e-02
1137=9.149596e-02
1138=8.785824e-02
1139=1.117538e-02
1140=2.626380e-02
1142=8.278404e-02
1143=6.974075e-02
1144=-2.839205e-02
1147=-2.676385e-02
1151=6.567980e-02
1152=2.655638e-02
1153=1.031777e-03
1154=5.637455e-02
1157=5.868866e-03
1158=-1.823381e-02
1161=-1.674412e-02
1162=3.125886e-02
1163=1.265014e-01
1164=6.391179e-03
1167=6.634177e-03
1168=-4.027914e-03
1169=1.806320e-02
1172=3.076562e-02
1173=-1.992845e-02
1177=-3.549997e-02
1178=1.274757e-02
1179=3.414894e-03
1187=1.237491e+00
1188=-4.842089e-02
1192=-1.201177e-01
1193=6.074948e-01
1198=-1.418136e-02
1204=7.785548e-02
1205=4.522834e-02
1207=9.885424e-02
1208=8.753870e-02
1209=-2.620289e-02
1212=-3.070260e-02
1213=3.947198e-03
1214=2.791547e-03
1217=6.634177e-03
1218=-4.027914e-03
1219=1.806320e-02
1222=3.902277e-02
1223=-1.827594e-02
1227=2.280397e-01
1228=-2.497465e-02
1232=-3.070260e-02
1233=3.947198e-03
1234=2.791547e-03
1237=1.918631e-02
1238=-1.500612e-02
1239=6.119383e-03
1242=9.067510e-03
1243=-5.256762e-02
1244=-5.452781e-03
1246=-1.629714e-01
1247=3.513257e-02
1248=9.385297e-02
1249=1.108500e-02
1252=5.460099e-02
1253=-7.024156e-03
1254=4.588981e-03
1257=9.117263e-03
1258=6.111836e-02
1259=3.120666e-02
1262=7.954439e-02
1263=7.888797e-02
1264=-5.656866e-02
1267=3.060662e-02
1268=3.311308e-02
1269=9.476864e-03
1277=9.135951e-01
1278=-4.971235e-02
1282=-3.442573e-02
1283=8.738849e-01
1288=1.224813e-02
1289=1.729618e+00
1294=-3.406030e-02
1296=-5.568654e-03
1297=1.985710e-01
1298=3.466963e-02
1299=-3.249747e-03
1302=-1.053208e-02
1303=-1.168681e-02
1306=-2.521089e-02
1307=1.135706e-01
1308=9.541278e-02
1309=4.473637e-02
1311=-1.595170e-01
1312=8.804894e-03
1313=-3.640477e-02
1314=-5.830060e-02
1316=-3.964036e-02
1317=1.196443e-01
1318=9.626383e-02
1319=5.199784e-02
1320=2.467802e-01
1327=2.494139e-01
1328=-1.787663e-01
1332=1.854850e-01
1333=-1.851951e-01
1334=-3.992107e-01
1337=-3.208900e-01
1338=1.745796e-01
1342=-1.018784e-01
1343=-8.720774e-02
1344=3.777561e-01
1347=-3.070260e-02
1348=3.947198e-03
1349=2.791547e-03
1352=2.330207e-02
1353=8.631720e-02
1354=2.211474e-04
1357=-3.049684e-02
1358=3.188637e-02
1362=5.298905e-02
1363=1.126127e-01
1364=-7.886080e-02
1377=1.097112e-01
1378=-3.143425e+00
1383=3.122071e-01
1384=-3.986184e-01
1389=1.091434e-01
1392=6.481260e-02
1393=-3.668153e-02
1397=-8.454503e-03
1398=4.728707e-02
1399=1.600975e-01
1402=1.119501e-01
1403=6.905952e-02
1404=-2.039646e-05
1405=3.885316e-01
1417=1.764623e-01
1418=-2.436913e-01
1423=1.375835e-01
1424=7.937809e-01
1429=1.598056e-01
1432=6.354038e-05
1433=-2.464939e-05
1437=2.149848e-03
1438=-1.159152e-03
1442=6.481260e-02
1443=-3.668153e-02
1447=3.344366e-01
1448=-1.008289e-01
1452=2.149848e-03
1453=-1.159152e-03
1457=3.192414e-03
1458=-1.255931e-03
1462=8.867624e-02
1463=-1.299721e-02
1467=5.365829e-02
1468=5.873973e-02
1469=-7.894848e-02
1472=-3.367042e-03
1473=5.933640e-02
1474=1.100786e+00
1477=9.271095e-02
1478=3.439534e-03
1482=4.305050e-02
1483=1.081683e-01
1484=-6.010997e-02
1487=-2.694452e-02
1488=1.254405e-01
1489=-3.138007e-02
1492=6.242038e-02
1493=5.567684e-03
1494=-6.841507e-02
1497=2.059861e-01
1498=-3.036331e-02
1502=6.614069e-02
1503=-4.981976e-02
1507=8.204842e-02
1508=2.429374e-03
1512=3.376534e-04
1513=-3.733340e-03
1517=2.149848e-03
1518=-1.159152e-03
1522=-6.104230e-03
1523=2.135844e-02
1528=3.996212e-02
1529=1.274950e-03
1532=-9.234056e-03
1533=2.561461e-02
1537=2.262208e-03
1538=-1.809380e-03
1542=2.123010e-02
1543=-5.606019e-03
1548=3.996212e-02
1549=1.274950e-03
1552=-4.817944e-03
1553=3.018969e-02
1557=2.123010e-02
1558=-5.606019e-03
1562=5.461330e-03
1563=-1.487022e-03
1567=1.148343e-02
1568=-1.813142e-02
1571=-1.127330e-01
1572=1.314880e-01
1573=1.753991e-02
1574=-1.929953e-01
1577=1.606935e-01
1578=-1.025355e-01
1579=-1.009839e+00
1582=7.545838e-02
1583=-1.445293e-02
1587=2.123010e-02
1588=-5.606019e-03
1592=-7.021619e-03
1593=2.085133e-02
1597=-6.162606e-03
1598=1.803039e-02
1602=9.011135e-03
1603=-1.598880e-02
1607=3.038188e-03
1608=1.956007e-03
1609=1.693375e-02
1612=5.758175e-03
1613=3.587663e-03
1617=7.734881e-03
1618=-4.607392e-03
1619=2.723887e-03
1622=4.566192e-02
1623=-5.204273e-02
1624=1.561461e-01
1627=1.872515e-03
1628=2.833702e-02
1629=-1.937504e-02
1632=5.758175e-03
1633=3.587663e-03
1637=-1.473388e-03
1638=1.680441e-02
1642=1.872515e-03
1643=2.833702e-02
1644=-1.937504e-02
1647=5.619192e-03
1648=-2.443116e-02
1649=1.337659e+00
1652=-5.970736e-03
1653=1.277101e-02
1657=-1.782320e-03
1658=5.001401e-02
1662=4.877591e-02
1663=-1.386593e-02
1667=1.872515e-03
1668=2.833702e-02
1669=-1.937504e-02
1672=7.160806e-01
1673=-1.042495e+00
1677=9.311088e-02
1678=-7.808551e-02
1682=-5.113397e-03
1683=6.251758e-02
1684=9.296883e-03
1687=2.287008e-02
1688=-3.029851e-02
1689=3.883068e-01
1692=5.044024e-02
1693=4.269233e-03
1694=-2.074619e-02
1697=-3.602285e-03
1698=3.796308e-02
1702=2.287008e-02
1703=-3.029851e-02
1704=3.883068e-01
1707=-7.233114e-03
1708=6.196520e-02
1709=9.395457e-03
1712=-3.602285e-03
1713=3.796308e-02
1717=1.191533e-01
1718=-1.323444e-01
1722=3.774236e-01
1723=-1.575482e-01
1724=-1.541183e-02
1727=7.815290e-02
1728=-6.579231e-03
1732=5.223952e-02
1733=-1.385713e-02
1737=5.176191e-02
1738=9.758684e-04
1742=-3.602285e-03
1743=3.796308e-02
1747=-8.775830e-03
1748=3.910041e-02
1752=-8.988956e-03
1753=3.897445e-02
1757=1.583439e-01
1758=-1.330454e-01
1762=-7.949291e-02
1763=1.110570e-01
1767=1.191890e-01
1768=-1.876860e-02
1769=-1.736799e-01
1772=-1.085554e-02
1773=3.852834e-02
1777=1.384949e-01
1778=-8.371948e-02
1782=-8.775830e-03
1783=3.910041e-02
1787=4.632094e-02
1788=8.828699e-03
1792=8.764144e-02
1793=-2.034042e-02
1794=-2.390728e-01
1797=-3.702939e-02
1798=5.801575e-02
1802=3.429149e-01
1803=-7.064761e-02
1807=7.365423e-03
1808=-3.467719e-03
1812=8.728015e-02
1813=-2.133387e-02
1814=-2.380757e-01
1817=3.142830e-02
1818=6.253132e-04
1822=1.840967e-02
1823=-6.099162e-03
1824=2.194915e-03
1827=1.103441e-02
1828=-4.740447e-05
1832=4.629127e-01
1833=-1.055806e-01
1834=-5.066732e-02
1837=1.468462e-02
1838=2.999072e-03
1839=-1.110099e-02
1842=4.629127e-01
1843=-1.055806e-01
1844=-5.066732e-02
1847=3.515242e-02
1848=-1.216174e-02
1852=5.901537e-02
1853=-6.586316e-02
1857=4.705024e-02
1858=1.705643e-02
1859=-1.879501e-02
1862=3.832698e-02
1863=2.888411e-02
1867=3.396466e-02
1868=-2.753843e-03
1872=1.047798e-02
1873=2.856682e-02
1877=3.408125e-03
1878=9.475151e-04
1882=-6.014155e-04
1883=2.306332e-02
1884=-2.078878e-01
1887=2.548926e-03
1888=1.288157e-02
1892=-6.014155e-04
1893=2.306332e-02
1894=-2.078878e-01
1897=2.527335e-01
1898=-8.671878e-03
1899=-9.895853e-01
1902=5.920819e-03
1903=1.369736e-03
1907=2.395162e+00
1912=4.499126e-02
1913=1.120557e-02
1914=-2.577122e-02
1917=3.149485e-03
1918=-6.776895e-03
1922=1.364037e-02
1923=3.155677e-02
1927=2.451494e-02
1928=-1.946745e-03
1932=-1.529264e-03
1933=7.502179e-04
1937=4.705805e-03
1938=-1.267615e-04
1942=4.763034e-03
1943=-1.716378e-04
1947=4.711219e-03
1948=8.748315e-03
1952=1.231813e-02
1953=-2.054709e-03
1957=4.711219e-03
1958=8.748315e-03
1962=6.015838e-03
1963=-4.619740e-04
1967=2.328026e-02
1968=-8.982940e-03
1972=1.231813e-02
1973=-2.054709e-03
1977=8.556667e-03
1978=-1.777829e-03
1982=4.421499e-03
1983=-9.071226e-03
1987=6.269457e-03
1988=-5.256461e-05
1992=2.154885e-03
1997=4.421499e-03
1998=-9.071226e-03
2002=4.344580e-02
2003=5.459588e-02
2004=-2.838202e-03
2007=1.882293e-02
2008=-1.451964e-03
2012=1.212137e-02
2013=5.003965e-02
2017=1.231813e-02
2018=-2.054709e-03
2022=1.744366e-01
2023=-1.036439e-01
2027=-5.792556e-02
2028=9.023798e-02
2029=-9.332128e-01
2032=1.764530e-02
2033=-5.788574e-03
2037=-1.052753e-01
2038=7.657326e-02
2042=9.396737e-01
2043=-2.117441e-01
2047=-2.017730e-03
2048=1.162880e-02
2052=-1.052753e-01
2053=7.657326e-02
2057=1.089785e-01
2058=-1.401331e-02
2062=-3.677038e-03
2063=2.389528e-03
2067=1.580973e-01
2068=2.939191e-03
2069=6.054181e-02
2072=1.737138e-01
2073=-2.888702e-01
2074=-7.042151e-01
2077=1.513081e-02
2078=4.612479e-02
2082=8.123899e-02
2083=-7.740967e-02
2087=-1.052753e-01
2088=7.657326e-02
2092=9.843919e-03
2093=-3.176629e-03
2097=9.907063e-03
2098=6.750710e-03
2099=-1.369865e-02
2102=3.264846e-02
2103=-2.050596e-02
2104=6.176294e-02
2107=5.761334e-03
2108=-5.336056e-03
2112=9.907063e-03
2113=6.750710e-03
2114=-1.369865e-02
2117=5.915827e-02
2118=-2.787234e-02
2122=-2.324027e-03
2123=2.158119e-03
2127=2.296140e-01
2128=-1.629257e-01
2132=-6.802405e-03
2133=2.566047e-02
2134=-9.681076e-03
2137=-1.696527e-02
2138=1.481263e-01
2139=-6.283842e-02
2142=-6.843107e-03
2143=4.568151e-03
2144=-6.690259e-04
2145=1.482713e-02
2147=8.891175e-03
2148=-7.263418e-04
2149=-5.672817e-03
2152=5.050813e-03
2153=1.170103e-02
2154=-2.431666e-01
2157=9.638931e-02
2158=-6.605531e-02
2163=9.374589e-01
2164=-3.427053e-01
2167=-7.871248e-03
2168=1.002357e-02
2169=1.410137e-02
2172=4.647593e-02
2173=-2.483347e-02
2177=6.921275e-02
2182=8.457713e-03
2183=-3.633283e-04
2184=8.241178e-02
2187=8.457713e-03
2188=-3.633283e-04
2189=8.241178e-02
2192=2.691374e-02
2197=-7.453740e-02
2198=1.258588e-01
2199=2.578239e-03
2202=1.880351e-01
2203=-9.645964e-02
2207=-1.375252e-03
2208=2.027540e-03
2209=1.461103e-03
2212=-1.430516e-03
2213=2.839382e-03
2217=-2.117890e-03
2218=8.158541e-03
2219=1.240812e-06
2222=-3.667869e-02
2223=2.255042e-03
2224=2.422637e-02
2227=1.252471e-01
2228=-1.410923e-01
2232=1.252471e-01
2233=-1.410923e-01
2238=-4.514357e-01
2242=2.349405e-01
2243=-1.282595e-01
2247=1.563063e-02
2248=4.199124e-02
2249=5.317798e-03
2252=5.683016e-03
2253=7.294263e-03
2254=1.214566e-03
2257=1.281220e-02
2258=1.784389e-02
2259=4.323622e-02
2260=2.546501e-06
2262=7.985027e-02
2263=2.536723e-03
2264=-2.739472e-01
2267=2.037950e-03
2268=-7.939901e-03
2272=1.813178e-01
2273=-1.213261e-01
2277=-4.678843e-03
2278=4.860118e-03
2282=8.244911e-02
2283=-1.175489e-02
2284=1.288161e-05
2285=4.934807e-06
2287=-5.957069e-02
2288=3.119359e-01
2289=1.950686e-01
2292=1.885123e-01
2293=-1.155342e-01
2297=1.673194e-03
2298=4.233872e-02
2299=1.914661e-03
2302=-3.272436e-03
2303=-5.589168e-02
2307=2.137230e-02
2308=-1.522983e-02
2312=7.431152e-03
2313=-4.458714e-03
2317=7.530989e-05
2318=6.969657e-03
2319=-1.859921e-02
2322=3.681195e-01
2323=-2.378169e-01
2327=7.530989e-05
2328=6.969657e-03
2329=-1.859921e-02
2332=1.672409e-03
2333=-2.268849e-03
2337=5.173767e-03
2338=1.763360e-02
2342=7.530989e-05
2343=6.969657e-03
2344=-1.859921e-02
2347=5.839084e-02
2348=-4.343331e-02
2352=1.465064e-03
2353=-7.742206e-04
2357=6.439021e-01
2358=-3.849028e-01
2362=-8.897468e-02
2363=6.705682e-02
2364=-9.418291e-03
2367=4.574756e-01
2368=-3.107685e-01
2372=-1.585486e-01
2373=1.570422e-01
2377=-1.322116e-03
2378=5.548798e-03
2382=3.496362e-01
2383=-5.520715e-04
2387=-2.761141e-02
2388=1.416980e-01
2389=1.003521e-01
2392=-9.607647e-03
2393=3.172522e-02
2394=1.284660e-02
2397=-1.416493e-02
2398=5.290990e-02
2399=5.897283e-02
2402=-1.095359e-01
2403=1.205539e-01
2407=-9.318613e-02
2408=3.898467e-01
2412=-6.865039e-03
2413=6.451843e-03
2417=-4.294301e-01
2418=5.345866e-01
2422=-8.246642e-02
2423=1.042979e-01
2427=-1.472610e-02
2428=2.075038e-02
2432=-9.338824e-02
2433=1.093542e-01
2437=-2.261141e-02
2438=2.237228e-02
2442=-7.559044e-02
2443=3.846798e-01
2444=-6.046910e-01
2447=-7.825990e-03
2448=1.269583e-02
2452=-1.456082e-02
2453=9.271218e-02
