#mdl#2#8536
#rdr#61/19/0
1:*,
18:u:Tok-1 X=%x[ 0,0],
18:u:tok-1 X=%x[ 0,1],
18:u:tok-1LL=%X[-2,0],
18:u:tok-1 L=%X[-1,0],
18:u:tok-1 R=%X[ 1,0],
18:u:tok-1RR=%X[ 2,0],
27:u:tok-2 L=%X[-1,0]/%X[ 0,0],
27:u:tok-2 R=%X[ 0,0]/%X[ 1,0],
18:*:Fst-1 X=%x[ 0,2],
18:u:Fst-1 R=%x[ 1,2],
27:u:Fst-2 X=%x[ 0,2]/%x[ 0,4],
27:u:Fst-2 R=%x[ 1,2]/%x[ 1,4],
18:*:Lst-1 L=%x[-1,3],
18:u:Lst-1 X=%x[ 0,3],
27:u:Lst-2 L=%x[-1,3]/%x[-1,6],
27:u:Lst-2 X=%x[ 0,3]/%x[ 0,6],
18:u:Pre-1 X=%x[ 0,4],
18:u:Pre-2 X=%x[ 0,5],
18:u:Pre-2 R=%x[ 1,5],
18:u:Suf-1 X=%x[ 0,6],
18:u:Suf-2 L=%x[-1,7],
18:u:Suf-2 X=%x[ 0,7],
18:u:Cap-1 L=%x[-1,8],
18:u:Cap-1 X=%x[ 0,8],
18:u:Cap-1 R=%x[ 1,8],
27:u:Cap-2 L=%x[-1,8]/%x[ 0,8],
27:u:Cap-2 R=%x[ 0,8]/%x[ 1,8],
28:u:Cap-3 L=%x[-1,18]/%x[ 0,8],
18:*:Num-1 L=%x[-1,9],
18:*:Num-1 X=%x[ 0,9],
18:u:Num-1 R=%x[ 1,9],
28:u:Num-2 R=%x[ 0,9]/%x[ 0,17],
28:u:Num-2 R=%x[ 0,9]/%x[ 0,18],
19:u:Nme-1 X=%x[ 0,10],
19:u:Loc-1 X=%x[ 0,11],
19:u:Pub-1 X=%x[ 0,12],
19:u:Jnl-1 X=%x[ 0,13],
19:u:Key-1 L=%x[-1,14],
19:u:Key-1 X=%x[ 0,14],
19:u:Key-1 R=%x[ 1,14],
28:u:Key-2 X=%x[ 0,14]/%x[ 0,8],
29:u:Key-3 L=%x[-1,18]/%x[ 0,14],
29:u:Key-3 x=%x[ 0,14]/%x[ 0,18],
19:u:Pos-1 X=%x[ 0,15],
29:u:Pos-2 L=%x[-1,15]/%x[ 0,15],
29:u:Pos-2 R=%x[ 0,15]/%x[ 1,15],
19:u:Pct-1 L=%x[-1,16],
19:u:Pct-1 X=%x[ 0,16],
19:u:Pct-1 R=%x[ 1,16],
19:u:Brk-1 L=%x[-1,17],
19:u:Brk-1 X=%x[ 0,17],
19:u:Brk-1 R=%x[ 1,17],
19:*:Tmn-1 L=%x[-1,18],
19:u:Tmn-1 X=%x[ 0,18],
19:u:Tmn-1 R=%x[ 1,18],
29:u:Tmn-2 L=%x[-1,14]/%x[ 0,18],
29:u:Tmn-2 R=%x[ 0,18]/%x[ 1,14],
28:u:Tmn-3 X=%x[ 0,18]/%x[ 0,6],
28:u:Tmn-4 R=%x[ 0,18]/%x[ 1,8],
19:u:Id--1 X=%x[ 0,19],
#qrk#10
7:Authors,
4:Year,
5:Title,
6:Series,
10:Pagination,
6:Volume,
5:Issue,
9:Publisher,
4:City,
4:Book,
#qrk#3799
1:*,
14:u:tok-1LL=_x-2,
14:u:tok-1 L=_x-1,
12:*:Fst-1 X=Lu,
12:u:Fst-1 R=Lu,
14:u:Fst-2 X=Lu/S,
14:u:Fst-2 R=Lu/M,
14:*:Lst-1 L=_x-1,
11:u:Lst-1 X=P,
19:u:Lst-2 L=_x-1/_x-1,
13:u:Lst-2 X=P/,,
11:u:Pre-1 X=S,
11:u:Suf-1 X=,,
14:u:Suf-2 L=_x-1,
14:u:Cap-1 L=_x-1,
17:u:Cap-1 X=initial,
16:u:Cap-1 R=single,
22:u:Cap-2 L=_x-1/initial,
24:u:Cap-2 R=initial/single,
22:u:Cap-3 L=_x-1/initial,
14:*:Num-1 L=_x-1,
14:*:Num-1 X=none,
15:u:Num-1 R=roman,
19:u:Num-2 R=none/none,
19:u:Num-2 R=none/weak,
11:u:Nme-1 X=F,
11:u:Loc-1 X=F,
11:u:Pub-1 X=F,
11:u:Jnl-1 X=F,
14:u:Key-1 L=_x-1,
14:u:Key-1 X=none,
14:u:Key-1 R=none,
22:u:Key-2 X=none/initial,
19:u:Key-3 L=_x-1/none,
19:u:Key-3 x=none/weak,
15:u:Pos-1 X=first,
20:u:Pos-2 L=_x-1/first,
14:u:Pct-1 L=_x-1,
15:u:Pct-1 X=other,
16:u:Pct-1 R=period,
14:u:Brk-1 L=_x-1,
14:u:Brk-1 X=none,
14:u:Brk-1 R=none,
14:*:Tmn-1 L=_x-1,
14:u:Tmn-1 X=weak,
16:u:Tmn-1 R=strong,
19:u:Tmn-2 R=weak/none,
16:u:Tmn-3 X=weak/,,
11:u:Id--1 X=F,
14:u:tok-1LL=_x-1,
11:u:Fst-1 R=N,
14:u:Fst-2 X=Lu/M,
13:u:Fst-2 R=N/1,
11:*:Lst-1 L=P,
13:u:Lst-2 L=P/,,
13:u:Lst-2 X=P/.,
11:u:Pre-1 X=M,
11:u:Suf-1 X=.,
12:u:Suf-2 X=M.,
17:u:Cap-1 L=initial,
16:u:Cap-1 X=single,
15:u:Cap-1 R=other,
24:u:Cap-2 L=initial/single,
14:*:Num-1 L=none,
15:*:Num-1 X=roman,
14:u:Num-1 R=year,
20:u:Num-2 R=roman/none,
22:u:Num-2 R=roman/strong,
14:u:Key-1 L=none,
21:u:Key-2 X=none/single,
19:u:Key-3 L=weak/none,
21:u:Key-3 x=none/strong,
15:u:Pct-1 L=other,
16:u:Pct-1 X=period,
14:u:Pct-1 R=none,
14:u:Brk-1 L=none,
14:*:Tmn-1 L=weak,
16:u:Tmn-1 X=strong,
14:u:Tmn-1 R=none,
21:u:Tmn-2 L=none/strong,
21:u:Tmn-2 R=strong/none,
18:u:Tmn-3 X=strong/.,
22:u:Tmn-4 R=strong/other,
11:*:Fst-1 X=N,
13:u:Fst-2 X=N/1,
14:u:Fst-2 R=Lu/N,
11:u:Lst-1 X=N,
13:u:Lst-2 L=P/.,
11:u:Pre-1 X=1,
12:u:Pre-2 X=17,
12:u:Pre-2 R=Na,
12:u:Suf-2 L=M.,
16:u:Cap-1 L=single,
15:u:Cap-1 X=other,
17:u:Cap-1 R=initial,
23:u:Cap-2 R=other/initial,
22:u:Cap-3 L=strong/other,
15:*:Num-1 L=roman,
14:*:Num-1 X=year,
14:u:Num-1 R=none,
19:u:Num-2 R=year/none,
20:u:Key-2 X=none/other,
21:u:Key-3 L=strong/none,
19:u:Key-3 x=none/none,
11:u:Pos-1 X=1,
13:u:Pos-2 R=1/1,
16:u:Pct-1 L=period,
14:u:Pct-1 X=none,
16:*:Tmn-1 L=strong,
14:u:Tmn-1 X=none,
19:u:Tmn-2 L=none/none,
19:u:Tmn-2 R=none/none,
22:u:Tmn-4 R=none/initial,
14:u:Fst-2 X=Lu/N,
14:u:Fst-2 R=Lu/V,
11:*:Lst-1 L=N,
12:u:Lst-1 X=Ll,
13:u:Lst-2 L=N/8,
14:u:Lst-2 X=Ll/e,
11:u:Pre-1 X=N,
12:u:Pre-2 X=Na,
12:u:Pre-2 R=Ve,
11:u:Suf-1 X=e,
12:u:Suf-2 X=ge,
15:u:Cap-1 L=other,
23:u:Cap-2 L=other/initial,
25:u:Cap-2 R=initial/initial,
22:u:Cap-3 L=none/initial,
14:*:Num-1 L=year,
19:u:Key-3 L=none/none,
13:u:Pos-2 L=1/1,
13:u:Pos-2 R=1/2,
14:u:Pct-1 L=none,
15:u:Pct-1 R=other,
14:*:Tmn-1 L=none,
14:u:Tmn-1 R=weak,
16:u:Tmn-3 X=none/e,
12:u:Fst-1 R=Ll,
14:u:Fst-2 X=Lu/V,
14:u:Fst-2 R=Ll/b,
12:*:Lst-1 L=Ll,
14:u:Lst-2 L=Ll/e,
11:u:Pre-1 X=V,
12:u:Pre-2 X=Ve,
12:u:Pre-2 R=be,
12:u:Suf-2 L=ge,
12:u:Suf-2 X=n,,
15:u:Cap-1 R=lower,
25:u:Cap-2 L=initial/initial,
23:u:Cap-2 R=initial/lower,
11:u:Pos-1 X=2,
13:u:Pos-2 L=1/2,
13:u:Pos-2 R=2/2,
19:u:Tmn-2 L=none/weak,
20:u:Tmn-4 R=weak/lower,
12:*:Fst-1 X=Ll,
14:u:Fst-2 X=Ll/b,
14:u:Fst-2 R=Ll/m,
11:u:Pre-1 X=b,
12:u:Pre-2 X=be,
12:u:Suf-2 L=n,,
12:u:Suf-2 X=de,
15:u:Cap-1 X=lower,
23:u:Cap-2 L=initial/lower,
21:u:Cap-2 R=lower/lower,
20:u:Cap-3 L=weak/lower,
20:u:Key-2 X=none/lower,
13:u:Pos-2 L=2/2,
13:u:Pos-2 R=2/3,
20:u:Tmn-4 R=none/lower,
13:u:tok-1RR=van,
14:u:Fst-2 X=Ll/m,
14:u:Fst-2 R=Lu/W,
11:u:Pre-1 X=m,
12:u:Pre-2 R=Wa,
12:u:Suf-2 L=de,
12:u:Suf-2 X=se,
15:u:Cap-1 L=lower,
21:u:Cap-2 L=lower/lower,
23:u:Cap-2 R=lower/initial,
20:u:Cap-3 L=none/lower,
11:u:Pos-1 X=3,
13:u:Pos-2 L=2/3,
13:u:Pos-2 R=3/3,
13:u:tok-1 R=van,
12:u:tok-1RR=in,
14:u:Fst-2 X=Lu/W,
14:u:Fst-2 R=Ll/v,
14:u:Lst-2 X=Ll/n,
11:u:Pre-1 X=W,
12:u:Pre-2 X=Wa,
12:u:Pre-2 R=va,
11:u:Suf-1 X=n,
12:u:Suf-2 L=se,
12:u:Suf-2 X=en,
23:u:Cap-2 L=lower/initial,
13:u:Pos-2 L=3/3,
16:u:Tmn-3 X=none/n,
13:u:Tok-1 X=van,
13:u:tok-1 X=van,
12:u:tok-1 R=in,
11:u:tok-1RR=-,
14:u:Fst-2 X=Ll/v,
14:u:Fst-2 R=Ll/i,
14:u:Lst-2 L=Ll/n,
11:u:Pre-1 X=v,
12:u:Pre-2 X=va,
12:u:Pre-2 R=in,
12:u:Suf-2 L=en,
12:u:Suf-2 X=an,
11:u:Nme-1 X=T,
11:u:Loc-1 X=T,
11:u:Jnl-1 X=T,
12:u:Key-1 R=in,
13:u:Pos-2 R=3/4,
17:u:Tmn-2 R=none/in,
12:u:Tok-1 X=in,
12:u:tok-1 X=in,
13:u:tok-1 L=van,
11:u:tok-1 R=-,
12:u:tok-1RR=en,
12:u:Fst-1 R=Pd,
14:u:Fst-2 X=Ll/i,
14:u:Fst-2 R=Pd/-,
11:u:Pre-1 X=i,
12:u:Pre-2 X=in,
11:u:Pre-2 R=-,
12:u:Suf-2 L=an,
12:u:Suf-2 X=in,
21:u:Cap-2 R=lower/other,
12:u:Key-1 X=in,
18:u:Key-2 X=in/lower,
17:u:Key-3 L=none/in,
17:u:Key-3 x=in/none,
11:u:Pos-1 X=4,
13:u:Pos-2 L=3/4,
13:u:Pos-2 R=4/4,
16:u:Pct-1 R=hyphen,
20:u:Tmn-4 R=none/other,
11:u:Tok-1 X=-,
15:u:tok-1 X=BLANK,
13:u:tok-1LL=van,
12:u:tok-1 L=in,
12:u:tok-1 R=en,
12:*:Fst-1 X=Pd,
14:u:Fst-2 X=Pd/-,
14:u:Fst-2 R=Ll/e,
12:u:Lst-1 X=Pd,
14:u:Lst-2 X=Pd/-,
11:u:Pre-1 X=-,
11:u:Pre-2 X=-,
12:u:Pre-2 R=en,
11:u:Suf-1 X=-,
12:u:Suf-2 L=in,
11:u:Suf-2 X=-,
21:u:Cap-2 L=lower/other,
21:u:Cap-2 R=other/lower,
20:u:Cap-3 L=none/other,
12:u:Key-1 L=in,
13:u:Pos-2 L=4/4,
13:u:Pos-2 R=4/5,
16:u:Pct-1 X=hyphen,
17:u:Tmn-2 L=in/weak,
16:u:Tmn-3 X=weak/-,
12:u:Tok-1 X=en,
12:u:tok-1 X=en,
12:u:tok-1LL=in,
11:u:tok-1 L=-,
14:u:Fst-2 X=Ll/e,
14:u:Fst-2 R=Ll/u,
12:*:Lst-1 L=Pd,
14:u:Lst-2 L=Pd/-,
11:u:Pre-1 X=e,
12:u:Pre-2 X=en,
11:u:Suf-2 L=-,
21:u:Cap-2 L=other/lower,
11:u:Pos-1 X=5,
13:u:Pos-2 L=4/5,
13:u:Pos-2 R=5/5,
16:u:Pct-1 L=hyphen,
11:u:tok-1LL=-,
12:u:tok-1 L=en,
15:u:tok-1 R=water,
14:u:Fst-2 X=Ll/u,
11:u:Pre-1 X=u,
13:u:Pos-2 L=5/5,
12:u:tok-1LL=en,
14:u:Lst-2 X=Ll/r,
11:u:Suf-1 X=r,
12:u:Suf-2 X=er,
23:u:Cap-2 R=initial/other,
13:u:Pos-2 R=5/6,
16:u:Tmn-3 X=none/r,
14:u:Lst-2 L=Ll/r,
12:u:Suf-2 L=er,
23:u:Cap-2 L=initial/other,
11:u:Pos-1 X=6,
13:u:Pos-2 L=5/6,
13:u:Pos-2 R=6/6,
12:u:tok-1RR=j.,
14:u:Fst-2 R=Lu/L,
12:u:Pre-2 R=La,
13:u:Pos-2 L=6/6,
13:u:Pos-2 R=6/7,
12:u:tok-1 R=j.,
14:u:Fst-2 X=Lu/L,
14:u:Fst-2 R=Lu/J,
11:u:Pre-1 X=L,
12:u:Pre-2 X=La,
12:u:Pre-2 R=J.,
11:u:Pos-1 X=7,
13:u:Pos-2 L=6/7,
13:u:Pos-2 R=7/7,
21:u:Tmn-4 R=none/single,
12:u:Tok-1 X=J.,
11:u:tok-1 X=j,
14:u:Fst-2 X=Lu/J,
14:u:Fst-2 R=Lu/B,
11:u:Pre-1 X=J,
12:u:Pre-2 X=J.,
12:u:Pre-2 R=Bo,
24:u:Cap-2 R=single/initial,
21:u:Cap-3 L=none/single,
21:u:Num-2 R=none/strong,
13:u:Pos-2 L=7/7,
13:u:Pos-2 R=7/8,
24:u:Tmn-4 R=strong/initial,
12:u:tok-1 L=j.,
14:u:Fst-2 X=Lu/B,
14:u:Fst-2 R=Lu/H,
11:u:Pre-1 X=B,
12:u:Pre-2 X=Bo,
12:u:Pre-2 R=Ha,
24:u:Cap-2 L=single/initial,
24:u:Cap-3 L=strong/initial,
11:u:Pos-1 X=8,
13:u:Pos-2 L=7/8,
13:u:Pos-2 R=8/8,
22:u:Tmn-4 R=weak/initial,
14:u:Fst-2 X=Lu/H,
14:u:Lst-2 X=Ll/m,
11:u:Pre-1 X=H,
12:u:Pre-2 X=Ha,
11:u:Suf-1 X=m,
22:u:Cap-3 L=weak/initial,
16:u:Num-1 R=triple,
13:u:Pos-2 L=8/8,
16:u:Tmn-3 X=none/m,
14:u:Fst-2 R=Ll/p,
14:u:Lst-2 L=Ll/m,
12:u:Pre-2 R=pp,
16:*:Num-1 X=triple,
21:u:Num-2 R=triple/none,
14:u:Key-1 R=page,
13:u:Pos-2 R=8/9,
19:u:Tmn-2 R=none/page,
14:u:Fst-2 X=Ll/p,
13:u:Lst-2 L=N/6,
11:u:Pre-1 X=p,
12:u:Pre-2 R=18,
16:*:Num-1 L=triple,
16:u:Num-1 R=double,
14:u:Key-1 X=page,
11:u:Pos-1 X=9,
13:u:Pos-2 L=8/9,
13:u:Pos-2 R=9/9,
20:u:Tmn-4 R=weak/other,
14:u:tok-1RR=_x+1,
12:u:Pre-2 X=18,
20:u:Cap-3 L=weak/other,
16:*:Num-1 X=double,
21:u:Num-2 R=double/none,
13:u:Pos-2 L=9/9,
16:u:Pos-2 R=9/last,
14:u:tok-1 R=_x+1,
14:u:tok-1RR=_x+2,
14:u:Fst-1 R=_x+1,
19:u:Fst-2 R=_x+1/_x+1,
14:u:Lst-2 X=Ll/s,
12:u:Pre-2 X=pl,
14:u:Pre-2 R=_x+1,
11:u:Suf-1 X=s,
12:u:Suf-2 X=ls,
14:u:Cap-1 R=_x+1,
16:*:Num-1 L=double,
14:u:Num-1 R=_x+1,
14:u:Key-1 R=_x+1,
14:u:Pos-1 X=last,
16:u:Pos-2 L=9/last,
19:u:Pos-2 R=last/_x+1,
14:u:Pct-1 R=_x+1,
14:u:Brk-1 R=_x+1,
14:u:Tmn-1 R=_x+1,
19:u:Tmn-2 R=none/_x+1,
16:u:Tmn-3 X=none/s,
19:u:Tmn-4 R=none/_x+1,
14:u:Fst-2 R=Lu/S,
12:u:Tok-1 X=S.,
11:u:tok-1 X=s,
12:u:Pre-2 X=S.,
12:u:Suf-2 X=S.,
23:u:Cap-2 R=single/single,
21:u:Key-2 X=page/single,
21:u:Key-3 x=page/strong,
23:u:Tmn-4 R=strong/single,
11:u:tok-1 X=v,
12:u:Suf-2 L=S.,
12:u:Suf-2 X=V.,
23:u:Cap-3 L=strong/single,
14:u:Fst-2 R=Lu/I,
13:u:Lst-2 X=N/4,
12:u:Pre-2 R=II,
11:u:Suf-1 X=4,
12:u:Suf-2 L=V.,
21:u:Cap-2 R=other/other,
16:u:Tmn-3 X=none/4,
12:u:tok-1LL=v.,
12:u:tok-1RR=of,
14:u:Fst-2 X=Lu/I,
14:u:Fst-2 R=Lu/C,
13:u:Lst-2 L=N/4,
11:u:Pre-1 X=I,
12:u:Pre-2 X=II,
12:u:Pre-2 R=Ca,
12:u:Suf-2 X=ve,
21:u:Cap-2 L=other/other,
12:u:tok-1 R=of,
13:u:tok-1RR=the,
14:u:Fst-2 X=Lu/C,
14:u:Fst-2 R=Ll/o,
11:u:Pre-1 X=C,
12:u:Pre-2 X=Ca,
12:u:Pre-2 R=of,
12:u:Suf-2 L=ve,
12:u:Suf-2 X=ue,
12:u:Tok-1 X=of,
12:u:tok-1 X=of,
13:u:tok-1 R=the,
16:u:tok-2 R=of/the,
14:u:Fst-2 X=Ll/o,
14:u:Fst-2 R=Ll/t,
14:u:Lst-2 X=Ll/f,
11:u:Pre-1 X=o,
12:u:Pre-2 X=of,
12:u:Pre-2 R=th,
11:u:Suf-1 X=f,
12:u:Suf-2 L=ue,
12:u:Suf-2 X=of,
16:u:Tmn-3 X=none/f,
13:u:Tok-1 X=the,
13:u:tok-1 X=the,
12:u:tok-1 L=of,
16:u:tok-2 L=of/the,
14:u:Fst-2 X=Ll/t,
14:u:Fst-2 R=Lu/Z,
14:u:Lst-2 L=Ll/f,
11:u:Pre-1 X=t,
12:u:Pre-2 X=th,
12:u:Pre-2 R=Zo,
12:u:Suf-2 L=of,
12:u:Suf-2 X=he,
11:u:Pub-1 X=T,
12:u:tok-1LL=of,
13:u:tok-1 L=the,
14:u:Fst-2 X=Lu/Z,
14:u:Fst-2 R=Ll/f,
11:u:Pre-1 X=Z,
12:u:Pre-2 X=Zo,
12:u:Suf-2 L=he,
12:u:Suf-2 X=es,
14:u:tok-1 X=from,
13:u:tok-1LL=the,
14:u:Fst-2 X=Ll/f,
14:u:Lst-2 L=Ll/s,
11:u:Pre-1 X=f,
12:u:Suf-2 L=es,
12:u:Suf-2 X=om,
14:u:tok-1 L=from,
16:u:tok-1RR=annals,
12:u:Pre-2 R=Cr,
14:u:tok-1LL=from,
16:u:tok-1 R=annals,
13:u:tok-1RR=and,
14:u:Fst-2 R=Lu/A,
14:u:Lst-2 X=Ll/g,
12:u:Pre-2 R=An,
11:u:Suf-1 X=g,
16:u:Tmn-3 X=none/g,
16:u:Tok-1 X=Annals,
16:u:tok-1 X=annals,
13:u:tok-1 R=and,
14:u:Fst-2 X=Lu/A,
14:u:Fst-2 R=Ll/a,
14:u:Lst-2 L=Ll/g,
11:u:Pre-1 X=A,
12:u:Pre-2 X=An,
12:u:Pre-2 R=an,
13:u:Key-1 R=and,
18:u:Tmn-2 R=none/and,
13:u:Tok-1 X=and,
13:u:tok-1 X=and,
16:u:tok-1 L=annals,
14:u:Fst-2 X=Ll/a,
14:u:Lst-2 X=Ll/d,
11:u:Pre-1 X=a,
12:u:Pre-2 X=an,
12:u:Pre-2 R=Ma,
11:u:Suf-1 X=d,
12:u:Suf-2 L=ls,
12:u:Suf-2 X=nd,
13:u:Key-1 X=and,
17:u:Key-1 R=journal,
19:u:Key-2 X=and/lower,
18:u:Key-3 L=none/and,
18:u:Key-3 x=and/none,
22:u:Tmn-2 R=none/journal,
16:u:Tmn-3 X=none/d,
13:u:tok-1 L=and,
14:u:Lst-2 L=Ll/d,
12:u:Pre-2 X=Ma,
12:u:Suf-2 L=nd,
12:u:Suf-2 X=ne,
13:u:Key-1 L=and,
17:u:Key-1 X=journal,
25:u:Key-2 X=journal/initial,
22:u:Key-3 L=none/journal,
22:u:Key-3 x=journal/none,
18:u:Tmn-2 L=and/none,
13:u:tok-1LL=and,
12:u:Suf-2 L=ne,
17:u:Key-1 L=journal,
22:u:Tmn-2 L=journal/none,
14:u:Lst-2 X=Ll/l,
11:u:Suf-1 X=l,
12:u:Suf-2 X=al,
16:u:Tmn-3 X=none/l,
14:u:Lst-2 L=Ll/l,
14:u:Lst-2 X=Ll/y,
12:u:Pre-2 X=Hi,
11:u:Suf-1 X=y,
12:u:Suf-2 L=al,
12:u:Suf-2 X=ry,
16:u:Tmn-3 X=none/y,
17:u:tok-1LL=natural,
17:u:tok-1 L=history,
13:u:Fst-2 R=N/8,
14:u:Lst-2 L=Ll/y,
13:u:Lst-2 X=N/3,
12:u:Pre-2 X=13,
11:u:Suf-1 X=3,
12:u:Suf-2 L=ry,
16:u:Tmn-3 X=none/3,
13:u:Fst-2 X=N/8,
13:u:Lst-2 L=N/3,
13:u:Lst-2 X=N/1,
11:u:Pre-1 X=8,
12:u:Pre-2 R=10,
11:u:Suf-1 X=1,
15:u:Num-1 R=range,
16:u:Tmn-3 X=none/1,
13:u:Lst-2 L=N/1,
12:u:Suf-2 X=21,
20:u:Cap-2 R=other/_x+1,
15:*:Num-1 X=range,
20:u:Num-2 R=range/none,
14:u:Fst-2 X=Lu/K,
14:u:Fst-2 R=Lu/F,
11:u:Pre-1 X=K,
14:u:Cap-1 R=caps,
22:u:Cap-2 R=initial/caps,
19:u:Tmn-4 R=weak/caps,
14:u:Fst-2 X=Lu/F,
11:u:Pre-1 X=F,
12:u:Pre-2 X=F.,
14:u:Cap-1 X=caps,
22:u:Cap-2 L=initial/caps,
20:u:Cap-2 R=caps/other,
19:u:Cap-3 L=weak/caps,
19:u:Key-2 X=none/caps,
17:u:tok-1 R=species,
13:u:Lst-2 X=N/9,
12:u:Pre-2 R=Sp,
11:u:Suf-1 X=9,
14:u:Cap-1 L=caps,
20:u:Cap-2 L=caps/other,
16:u:Tmn-3 X=none/9,
17:u:tok-1 X=species,
13:u:Lst-2 L=N/9,
12:u:Pre-2 X=Sp,
12:u:Pre-2 R=Al,
17:u:tok-1 L=species,
12:u:Pre-2 X=Al,
12:u:Suf-2 X=m.,
12:u:Tok-1 X=F.,
11:u:tok-1 X=f,
17:u:tok-1LL=species,
18:u:tok-1 L=algarum.,
12:u:tok-1 R=a.,
19:u:tok-1RR=brockhaus,
21:u:tok-2 L=algarum./f.,
15:u:tok-2 R=f./a.,
12:u:Pre-2 R=A.,
12:u:Suf-2 X=F.,
12:u:Tok-1 X=A.,
11:u:tok-1 X=a,
12:u:Pre-2 X=A.,
12:u:Pre-2 R=Br,
12:u:Suf-2 X=A.,
12:u:Pre-2 X=Br,
12:u:Pre-2 R=Li,
12:u:Suf-2 L=A.,
12:u:Suf-2 X=us,
17:u:Tok-1 X=Lipsiae,
17:u:tok-1 X=lipsiae,
12:u:tok-1LL=a.,
19:u:tok-1 L=brockhaus,
19:u:tok-1 R=(leipzig),
16:u:tok-1RR=vi-922,
27:u:tok-2 L=brockhaus/lipsiae,
27:u:tok-2 R=lipsiae/(leipzig),
12:u:Fst-1 R=Ps,
14:u:Fst-2 R=Ps/(,
12:u:Pre-2 X=Li,
12:u:Pre-2 R=(L,
12:u:Suf-2 L=us,
12:u:Suf-2 X=ae,
16:u:Brk-1 R=parens,
12:*:Fst-1 X=Ps,
14:u:Fst-2 X=Ps/(,
12:u:Lst-1 X=Pe,
14:u:Lst-2 X=Pe/),
11:u:Pre-1 X=(,
12:u:Pre-2 R=VI,
11:u:Suf-1 X=),
12:u:Suf-2 L=ae,
21:u:Num-2 R=none/parens,
16:u:Brk-1 X=parens,
18:u:Tmn-3 X=strong/),
12:*:Lst-1 L=Pe,
14:u:Lst-2 L=Pe/),
13:u:Lst-2 X=N/2,
11:u:Suf-1 X=2,
15:*:Num-1 X=idnum,
20:u:Num-2 R=idnum/none,
16:u:Pos-2 L=8/last,
16:u:Brk-1 L=parens,
16:u:Tmn-3 X=none/2,
14:u:Fst-2 R=Lu/T,
12:u:Suf-2 X=s,,
14:u:Fst-2 X=Lu/T,
11:u:Pre-1 X=T,
12:u:Suf-2 L=s,,
14:u:Fst-2 R=Lu/X,
12:u:Pre-2 R=XX,
20:u:Cap-2 R=other/caps,
15:u:Key-1 R=roman,
20:u:Tmn-2 R=none/roman,
19:u:Tmn-4 R=none/caps,
14:u:Fst-2 X=Lu/X,
11:u:Pre-1 X=X,
12:u:Pre-2 X=XX,
12:u:Pre-2 R=Th,
20:u:Cap-2 L=other/caps,
22:u:Cap-2 R=caps/initial,
19:u:Cap-3 L=none/caps,
20:u:Num-2 R=roman/weak,
15:u:Key-1 X=roman,
20:u:Key-2 X=roman/caps,
20:u:Key-3 L=none/roman,
13:u:Tok-1 X=The,
14:u:Fst-2 R=Lu/P,
12:u:Pre-2 X=Th,
12:u:Pre-2 R=Po,
22:u:Cap-2 L=caps/initial,
15:u:Key-1 L=roman,
20:u:Tmn-2 L=roman/none,
14:u:Fst-2 X=Lu/P,
14:u:Lst-2 X=Ll/a,
11:u:Pre-1 X=P,
12:u:Pre-2 X=Po,
11:u:Suf-1 X=a,
16:u:Tmn-3 X=none/a,
14:u:Lst-2 L=Ll/a,
11:u:tok-1RR=a,
12:u:Pre-2 R=Ad,
15:u:Pct-1 R=colon,
18:u:Tmn-1 R=moderate,
13:u:Lst-2 X=P/:,
12:u:Pre-2 X=Ad,
11:u:Suf-1 X=:,
23:u:Num-2 R=none/moderate,
23:u:Key-3 x=none/moderate,
15:u:Pct-1 X=colon,
18:u:Tmn-1 X=moderate,
23:u:Tmn-2 L=none/moderate,
23:u:Tmn-2 R=moderate/none,
20:u:Tmn-3 X=moderate/:,
24:u:Tmn-4 R=moderate/lower,
11:u:Id--1 X=T,
11:u:Tok-1 X=a,
13:u:Lst-2 L=P/:,
11:u:Pre-2 X=a,
12:u:Pre-2 R=Su,
11:u:Suf-2 X=a,
24:u:Cap-3 L=moderate/lower,
16:u:Key-1 R=volume,
23:u:Key-3 L=moderate/none,
15:u:Pct-1 L=colon,
18:*:Tmn-1 L=moderate,
21:u:Tmn-2 R=none/volume,
11:u:tok-1 L=a,
14:u:Lst-2 X=Ll/t,
12:u:Pre-2 X=Su,
11:u:Suf-1 X=t,
11:u:Suf-2 L=a,
12:u:Suf-2 X=nt,
16:u:Key-1 X=volume,
24:u:Key-2 X=volume/initial,
21:u:Key-3 x=volume/none,
16:u:Tmn-3 X=none/t,
11:u:tok-1LL=a,
14:u:Lst-2 L=Ll/t,
14:u:Lst-2 X=Ll/o,
12:u:Pre-2 R=Pr,
11:u:Suf-1 X=o,
12:u:Suf-2 L=nt,
12:u:Suf-2 X=to,
16:u:Key-1 L=volume,
21:u:Tmn-2 L=volume/none,
16:u:Tmn-3 X=none/o,
12:u:tok-1 L=to,
14:u:Lst-2 L=Ll/o,
12:u:Pre-2 X=Pr,
12:u:Pre-2 R=He,
12:u:Suf-2 L=to,
12:u:Suf-2 X=f.,
12:u:tok-1LL=to,
12:u:Pre-2 X=He,
13:u:tok-1 X=die,
13:u:tok-1RR=des,
12:u:Suf-2 X=ie,
13:u:tok-1 R=des,
14:u:Fst-2 R=Ll/d,
12:u:Pre-2 R=de,
12:u:Suf-2 L=ie,
13:u:Tok-1 X=des,
13:u:tok-1 X=des,
14:u:Fst-2 X=Ll/d,
11:u:Pre-1 X=d,
12:u:Pre-2 X=de,
13:u:tok-1 L=des,
12:u:Pre-2 R=Me,
13:u:tok-1LL=des,
17:u:tok-1RR=journal,
12:u:Pre-2 X=Me,
17:u:tok-1 R=journal,
13:u:Lst-2 X=N/7,
12:u:Pre-2 R=Jo,
11:u:Suf-1 X=7,
16:u:Tmn-3 X=none/7,
13:u:Lst-2 L=N/7,
17:u:tok-1 L=journal,
20:u:tok-2 L=journal/of,
17:u:tok-1LL=journal,
16:u:tok-1RR=series,
11:u:tok-1RR=5,
12:u:Pre-2 R=Se,
16:u:Key-1 R=series,
21:u:Tmn-2 R=none/series,
16:u:tok-1 X=series,
11:u:tok-1 R=5,
12:u:tok-1RR=17,
24:u:tok-2 L=history/series,
13:u:Fst-2 R=N/5,
12:u:Pre-2 X=Se,
11:u:Pre-2 R=5,
16:u:Num-1 R=single,
16:u:Key-1 X=series,
24:u:Key-2 X=series/initial,
21:u:Key-3 L=none/series,
21:u:Key-3 x=series/none,
16:u:tok-1 L=series,
13:u:Lst-2 X=N/5,
11:u:Suf-1 X=5,
16:*:Num-1 X=single,
21:u:Num-2 R=single/none,
16:u:Key-1 L=series,
21:u:Tmn-2 L=series/none,
16:u:Tmn-3 X=none/5,
16:u:tok-1LL=series,
12:u:Suf-2 X=17,
16:*:Num-1 L=single,
13:u:Fst-2 R=N/2,
12:u:Pre-2 R=25,
12:u:Suf-2 X=99,
13:u:Fst-2 X=N/2,
11:u:Pre-1 X=2,
12:u:Suf-2 L=99,
12:u:Suf-2 X=y,,
12:u:Suf-2 L=y,,
13:u:Lst-2 X=N/0,
11:u:Suf-1 X=0,
16:u:Tmn-3 X=none/0,
13:u:Lst-2 L=N/0,
12:u:Pre-2 R=No,
11:u:tok-1 R=i,
12:u:Pre-2 X=No,
12:u:Suf-2 X=s.,
11:u:Tok-1 X=I,
11:u:tok-1 X=i,
12:u:Lst-1 X=Lu,
14:u:Lst-2 X=Lu/I,
11:u:Pre-2 X=I,
11:u:Suf-1 X=I,
12:u:Suf-2 L=s.,
11:u:Suf-2 X=I,
16:u:Tmn-3 X=none/I,
12:*:Lst-1 L=Lu,
14:u:Lst-2 L=Lu/I,
11:u:Suf-2 L=I,
11:u:tok-1LL=i,
13:u:tok-1 R=new,
14:u:tok-1RR=york,
12:u:Pre-2 R=Ne,
13:u:Tok-1 X=New,
13:u:tok-1 X=new,
14:u:tok-1 R=york,
18:u:tok-2 R=new/york,
14:u:Fst-2 R=Lu/Y,
14:u:Lst-2 X=Ll/w,
12:u:Pre-2 X=Ne,
12:u:Pre-2 R=Yo,
11:u:Suf-1 X=w,
12:u:Suf-2 X=ew,
16:u:Tmn-3 X=none/w,
13:u:tok-1 L=new,
14:u:Fst-2 X=Lu/Y,
14:u:Lst-2 L=Ll/w,
14:u:Lst-2 X=Ll/k,
11:u:Pre-1 X=Y,
12:u:Pre-2 R=Ac,
11:u:Suf-1 X=k,
12:u:Suf-2 L=ew,
16:u:Tmn-3 X=none/k,
13:u:tok-1LL=new,
14:u:Lst-2 L=Ll/k,
12:u:Pre-2 X=Ac,
12:u:Pre-2 R=Sc,
18:u:Tok-1 X=Sciences,
18:u:tok-1 X=sciences,
11:u:tok-1RR=1,
12:u:Pre-2 X=Sc,
18:u:tok-1 L=sciences,
11:u:tok-1 R=1,
11:u:Pre-2 R=1,
11:u:Tok-1 X=1,
11:u:tok-1 X=1,
18:u:tok-1LL=sciences,
13:u:Fst-2 R=N/3,
11:u:Pre-2 X=1,
11:u:Suf-2 X=1,
13:u:Fst-2 X=N/3,
11:u:Pre-1 X=3,
12:u:Pre-2 X=Fo,
12:u:Pre-2 R=H.,
12:u:Pre-2 X=H.,
12:u:Pre-2 R=19,
12:u:Pre-2 X=19,
12:u:Pre-2 R=Mi,
12:u:Pre-2 X=Mi,
12:u:Suf-2 X=on,
12:u:Suf-2 L=on,
13:u:tok-1RR=sea,
14:u:Fst-2 R=Lu/R,
12:u:Pre-2 R=Re,
13:u:tok-1 R=sea,
14:u:Fst-2 X=Lu/R,
11:u:Pre-1 X=R,
12:u:Pre-2 X=Re,
12:u:Suf-2 X=ed,
13:u:Tok-1 X=Sea,
13:u:tok-1 X=sea,
12:u:Suf-2 L=ed,
12:u:Suf-2 X=ea,
13:u:tok-1LL=red,
13:u:tok-1 L=sea,
12:u:Suf-2 L=ea,
14:u:Lst-2 X=Ll/h,
11:u:Suf-1 X=h,
12:u:Suf-2 X=gh,
16:u:Tmn-3 X=none/h,
14:u:Lst-2 L=Ll/h,
16:u:tok-1RR=nature,
15:u:Tok-1 X=Canal,
15:u:tok-1 X=canal,
14:u:tok-1 L=suez,
20:u:tok-2 L=suez/canal,
14:u:Lst-2 L=Ll/z,
12:u:Suf-2 L=ez,
14:u:tok-1LL=suez,
15:u:tok-1 L=canal,
12:u:Pre-2 R=11,
12:u:Suf-2 X=re,
12:u:Pre-2 R=28,
12:u:Suf-2 L=re,
13:u:Fst-2 R=N/7,
19:u:Num-2 R=quad/none,
12:u:tok-1RR=w.,
12:u:Pre-2 X=Bi,
12:u:tok-1 R=w.,
12:u:Pre-2 R=W.,
12:u:Tok-1 X=W.,
11:u:tok-1 X=w,
12:u:Pre-2 X=W.,
12:u:Suf-2 X=W.,
12:u:tok-1 L=w.,
12:u:Suf-2 L=W.,
14:u:Fst-2 R=Lu/E,
14:u:Fst-2 X=Lu/E,
11:u:Pre-1 X=E,
12:u:Pre-2 X=Es,
12:u:tok-1 X=an,
12:u:Pre-2 R=Im,
12:u:Pre-2 R=Ba,
12:u:tok-1LL=an,
12:u:Pre-2 X=Ba,
12:u:Suf-2 X=le,
12:u:Suf-2 L=le,
17:u:Tok-1 X=British,
17:u:tok-1 X=british,
12:u:Pre-2 R=Co,
12:u:Suf-2 X=sh,
17:u:Tmn-2 L=in/none,
17:u:tok-1 X=coastal,
16:u:tok-1 R=waters,
12:u:Pre-2 X=Co,
12:u:Suf-2 L=sh,
16:u:tok-1 X=waters,
17:u:tok-1LL=british,
17:u:tok-1 L=coastal,
12:u:Suf-2 X=rs,
17:u:tok-1LL=coastal,
12:u:Pre-2 R=15,
12:u:Suf-2 L=rs,
13:u:Fst-2 R=N/4,
12:u:Pre-2 X=15,
12:u:Pre-2 R=40,
13:u:Fst-2 X=N/4,
11:u:Pre-1 X=4,
12:u:Pre-2 X=40,
12:u:Pre-2 R=50,
12:u:Pre-2 X=Ko,
12:u:Pre-2 R=C.,
12:u:Pre-2 X=C.,
12:u:Suf-2 X=C.,
12:u:Suf-2 X=ns,
12:u:Suf-2 L=ns,
14:u:Fst-2 R=Ll/k,
14:u:Fst-2 X=Ll/k,
11:u:Pre-1 X=k,
14:u:Fst-2 R=Ll/z,
12:u:Pre-2 R=zo,
14:u:Fst-2 X=Ll/z,
14:u:Fst-2 R=Ll/s,
11:u:Pre-1 X=z,
12:u:Pre-2 X=zo,
12:u:Pre-2 R=si,
14:u:Fst-2 X=Ll/s,
11:u:Pre-1 X=s,
12:u:Pre-2 X=si,
14:u:Fst-2 R=Ll/n,
12:u:Pre-2 R=ne,
14:u:Fst-2 X=Ll/n,
11:u:Pre-1 X=n,
12:u:Pre-2 X=ne,
12:u:Suf-2 X=ar,
12:u:Suf-2 L=ar,
11:u:tok-1RR=7,
12:u:Pre-2 R=Ex,
12:u:Suf-2 X=st,
12:u:Pre-2 X=Ex,
12:u:Suf-2 L=st,
12:u:Suf-2 X=ia,
12:u:tok-1 R=11,
12:u:Suf-2 L=ia,
12:u:Pre-2 X=To,
12:u:Suf-2 X=m,,
12:u:Suf-2 L=m,,
11:u:tok-1 X=e,
12:u:Pre-2 R=St,
12:u:Suf-2 X=55,
17:u:Tok-1 X=Studies,
12:u:Pre-2 X=St,
14:u:Fst-2 R=Ll/g,
14:u:Fst-2 X=Ll/g,
11:u:Pre-1 X=g,
12:u:Pre-2 R=Ph,
15:u:tok-1 L=genus,
15:u:tok-1LL=genus,
23:u:Brk-1 R=opening-paren,
12:u:Suf-2 X=a:,
28:u:Num-2 R=none/opening-paren,
23:u:Brk-1 X=opening-paren,
23:u:Brk-1 R=closing-paren,
26:u:Tmn-4 R=moderate/initial,
12:u:Pre-2 R=Tr,
12:u:Suf-2 L=a:,
26:u:Cap-3 L=moderate/initial,
28:u:Num-2 R=none/closing-paren,
21:u:Key-1 R=proceedings,
23:u:Brk-1 L=opening-paren,
23:u:Brk-1 X=closing-paren,
28:u:Tmn-2 R=strong/proceedings,
12:u:Pre-2 X=Tr,
12:u:Suf-2 L=e),
21:u:Key-1 X=proceedings,
29:u:Key-2 X=proceedings/initial,
26:u:Key-3 x=proceedings/none,
23:u:Brk-1 L=closing-paren,
21:u:Key-1 L=proceedings,
26:u:Tmn-2 L=proceedings/none,
15:u:tok-1 R=royal,
17:u:tok-1RR=society,
12:u:Pre-2 X=Ro,
12:u:Pre-2 R=En,
12:u:Pre-2 X=En,
12:u:Pre-2 R=So,
17:u:Tok-1 X=Society,
17:u:tok-1 X=society,
16:u:tok-1RR=london,
12:u:Pre-2 X=So,
12:u:Suf-2 X=ty,
16:u:tok-1 R=london,
12:u:Pre-2 R=Lo,
12:u:Suf-2 L=ty,
16:u:Tok-1 X=London,
16:u:tok-1 X=london,
17:u:tok-1LL=society,
11:u:tok-1RR=3,
19:u:tok-2 L=of/london,
12:u:Pre-2 X=Lo,
11:u:tok-1 R=3,
11:u:Pre-2 R=3,
11:u:Tok-1 X=3,
11:u:tok-1 X=3,
11:u:Pre-2 X=3,
11:u:Suf-2 X=3,
14:u:Fst-2 R=Lu/D,
12:u:Pre-2 R=Do,
14:u:Fst-2 X=Lu/D,
11:u:Pre-1 X=D,
12:u:Pre-2 X=Do,
12:u:Suf-2 X=as,
12:u:Suf-2 L=as,
11:u:Fst-1 R=S,
12:u:Suf-2 X=te,
23:u:Brk-1 R=opening-angle,
11:*:Fst-1 X=S,
13:u:Fst-2 X=S/<,
11:u:Pre-1 X=<,
12:u:Pre-2 X=<i,
12:u:Pre-2 R=al,
12:u:Suf-2 L=te,
12:u:Suf-2 X=na,
11:u:Lst-1 X=S,
12:u:Pre-2 X=al,
12:u:Suf-2 L=na,
12:u:Suf-2 X=i>,
28:u:Num-2 R=none/closing-angle,
23:u:Brk-1 X=closing-angle,
11:*:Lst-1 L=S,
12:u:Suf-2 L=i>,
12:u:Suf-2 X=p.,
23:u:Brk-1 L=closing-angle,
22:u:Tmn-4 R=strong/lower,
12:u:Suf-2 L=p.,
22:u:Cap-3 L=strong/lower,
14:u:Fst-2 R=Ll/r,
12:u:Pre-2 R=re,
14:u:Fst-2 X=Ll/r,
11:u:Pre-1 X=r,
12:u:Pre-2 X=re,
14:u:Fst-2 R=Ll/c,
14:u:Fst-2 X=Ll/c,
11:u:Pre-1 X=c,
24:u:Tmn-2 R=strong/journal,
16:u:tok-1RR=marine,
16:u:tok-1 R=marine,
20:u:tok-2 R=the/marine,
16:u:Tok-1 X=Marine,
16:u:tok-1 X=marine,
21:u:tok-1RR=association,
20:u:tok-2 L=the/marine,
12:u:Pre-2 R=Bi,
20:u:Tok-1 X=Biological,
20:u:tok-1 X=biological,
16:u:tok-1 L=marine,
21:u:tok-1 R=association,
12:u:Pre-2 R=As,
21:u:Tok-1 X=Association,
21:u:tok-1 X=association,
16:u:tok-1LL=marine,
12:u:Pre-2 X=As,
14:u:Fst-2 R=Lu/U,
12:u:Pre-2 R=Un,
16:u:Tok-1 X=United,
16:u:tok-1 X=united,
14:u:Fst-2 X=Lu/U,
14:u:Fst-2 R=Lu/K,
11:u:Pre-1 X=U,
12:u:Pre-2 X=Un,
12:u:Pre-2 R=Ki,
12:u:Pre-2 X=Ki,
16:u:tok-1LL=united,
13:u:Fst-2 R=N/6,
13:u:Fst-2 X=N/6,
11:u:Pre-1 X=6,
13:u:Lst-2 L=N/2,
12:u:Pre-2 X=Cl,
12:u:Suf-2 X=la,
12:u:Pre-2 R=no,
12:u:Suf-2 L=la,
14:u:Key-1 R=date,
19:u:Tmn-2 R=none/date,
12:u:Pre-2 X=no,
12:u:Pre-2 R=sp,
14:u:Key-1 X=date,
20:u:Key-2 X=date/lower,
19:u:Key-3 L=none/date,
12:u:Pre-2 X=sp,
14:u:Key-1 L=date,
12:u:Pre-2 R=fa,
12:u:Pre-2 X=fa,
12:u:Suf-2 X=),,
18:u:Tmn-3 X=strong/,,
13:u:tok-1RR=der,
14:u:Lst-2 X=Ll/p,
12:u:Pre-2 X=Hy,
11:u:Suf-1 X=p,
16:u:Tmn-3 X=none/p,
13:u:tok-1 R=der,
14:u:Lst-2 L=Ll/p,
13:u:Tok-1 X=der,
13:u:tok-1 X=der,
14:u:Fst-2 R=Lu/O,
12:u:Pre-2 R=Os,
13:u:tok-1 L=der,
13:u:tok-1 R=und,
14:u:Fst-2 X=Lu/O,
11:u:Pre-1 X=O,
12:u:Pre-2 R=un,
12:u:Suf-2 X=ee,
13:u:Tok-1 X=und,
13:u:tok-1 X=und,
13:u:tok-1LL=der,
16:u:tok-1 L=ostsee,
12:u:Pre-2 X=un,
12:u:Pre-2 R=se,
12:u:Suf-2 L=ee,
13:u:tok-1 L=und,
12:u:Pre-2 X=se,
12:u:Pre-2 R=Be,
14:u:tok-1RR=für,
12:u:Pre-2 X=Be,
12:u:Pre-2 R=Ze,
12:u:Suf-2 X=ng,
12:u:Suf-2 L=ng,
13:u:tok-1 X=fur,
12:u:Pre-2 R=Mo,
12:u:Pre-2 X=Mo,
15:u:Fst-2 R=Lu/Ö,
12:u:Pre-2 R=Ti,
11:u:tok-1RR=2,
12:u:Pre-2 X=Ti,
11:u:Tok-1 X=2,
11:u:tok-1 X=2,
11:u:Pre-2 X=2,
12:u:Pre-2 R=22,
11:u:Suf-2 X=2,
14:u:Fst-2 R=Ll/l,
12:u:Pre-2 R=li,
14:u:Fst-2 X=Ll/l,
11:u:Pre-1 X=l,
12:u:Pre-2 X=li,
12:u:Pre-2 R=te,
12:u:Pre-2 X=te,
12:u:Pre-2 X=Kr,
12:u:Suf-2 L=mp,
12:u:Suf-2 X=e,,
14:u:Fst-2 R=Ll/w,
12:u:Suf-2 L=e,,
14:u:Fst-2 X=Ll/w,
11:u:Pre-1 X=w,
12:u:Suf-2 X=th,
14:u:Fst-2 R=Ll/h,
12:u:Suf-2 L=th,
14:u:Fst-2 X=Ll/h,
11:u:Pre-1 X=h,
12:u:Suf-2 X=ks,
26:u:tok-2 R=canadian/journal,
17:u:tok-1RR=zoology,
17:u:tok-1 R=zoology,
12:u:Suf-2 X=gy,
12:u:Suf-2 L=gy,
17:u:tok-1LL=zoology,
13:u:Lst-2 L=P/;,
12:u:Pre-2 X=Ho,
12:u:Pre-2 R=su,
12:u:Pre-2 X=su,
12:u:Suf-2 X=ly,
12:u:Suf-2 L=ly,
12:u:Suf-2 X=e:,
12:u:Suf-2 L=e:,
12:u:Suf-2 X=is,
12:u:Suf-2 L=is,
12:u:Suf-2 X=ts,
12:u:Suf-2 L=ts,
12:u:Suf-2 X=a,,
12:u:Suf-2 L=a,,
14:u:Fst-2 R=Lu/G,
14:u:Fst-2 X=Lu/G,
11:u:Pre-1 X=G,
12:u:Suf-2 X=ma,
12:u:Suf-2 L=ma,
11:u:tok-1RR=4,
11:u:tok-1 X=4,
12:u:Pre-2 X=Sa,
12:u:Pre-2 R=U.,
12:u:Pre-2 R=In,
12:u:tok-1RR=on,
12:u:Pre-2 X=In,
12:u:tok-1 R=on,
12:u:Pre-2 R=on,
12:u:Tok-1 X=on,
12:u:tok-1 X=on,
12:u:Pre-2 X=on,
12:u:tok-1 L=on,
12:u:Pre-2 R=Sh,
12:u:tok-1LL=on,
12:u:Suf-2 L=at,
12:u:Suf-2 X=et,
23:u:tok-1 X=mediterranean,
12:u:Pre-2 R=Is,
12:u:Suf-2 L=et,
16:u:tok-1 X=israel,
12:u:Pre-2 X=Is,
17:u:tok-1RR=ecology,
17:u:tok-1 R=ecology,
12:u:Pre-2 R=Ec,
17:u:Tok-1 X=Ecology,
17:u:tok-1 X=ecology,
12:u:Pre-2 X=Ec,
17:u:tok-1 L=ecology,
12:u:Suf-2 X=30,
12:u:Pre-2 X=Ei,
14:u:tok-1 L=1972,
12:u:Suf-2 L=72,
12:u:Pre-2 R=as,
12:u:Pre-2 X=as,
12:u:Pre-2 X=(B,
12:u:Suf-2 X=a),
12:u:Suf-2 L=a),
17:u:tok-1RR=biology,
17:u:tok-1 R=biology,
17:u:Tok-1 X=Biology,
17:u:tok-1 X=biology,
17:u:tok-1 L=biology,
11:u:tok-1RR=8,
11:u:tok-1 R=8,
11:u:Pre-2 R=8,
12:u:Pre-2 R=27,
11:u:tok-1LL=8,
12:u:Suf-2 X=n.,
12:u:Suf-2 L=n.,
12:u:Suf-2 X=ta,
12:u:Suf-2 L=ta,
16:u:Tok-1 X=Israel,
24:u:tok-2 R=israel/journal,
12:u:Suf-2 X=el,
16:u:tok-1 L=israel,
12:u:Suf-2 L=el,
12:u:Pre-2 R=21,
12:u:Tok-1 X=21,
12:u:tok-1 X=21,
12:u:Pre-2 X=21,
15:*:Num-1 L=range,
12:u:Pre-2 R=Sy,
12:u:Pre-2 X=Sy,
20:u:Tmn-2 L=and/strong,
12:u:Pre-2 R=ri,
12:u:Pre-2 X=ri,
12:u:Suf-2 X=ms,
12:u:Pre-2 R=ve,
12:u:Pre-2 X=ve,
23:u:Tok-1 X=Mediterranean,
12:u:Pre-2 R=co,
15:u:tok-1 X=coast,
23:u:tok-1 L=mediterranean,
12:u:Pre-2 X=co,
15:u:tok-1 L=coast,
15:u:tok-1LL=coast,
19:u:tok-2 L=of/israel,
12:u:Pre-2 X=Gu,
12:u:Suf-2 X=lf,
12:u:Pre-2 R=El,
12:u:Suf-2 L=lf,
12:u:Pre-2 X=El,
12:u:Suf-2 X=77,
12:u:Pre-2 X=De,
20:u:tok-1RR=scientific,
20:u:tok-1 R=scientific,
20:u:Tok-1 X=Scientific,
20:u:tok-1 X=scientific,
16:u:tok-1 R=report,
14:u:Lst-2 X=Ll/c,
11:u:Suf-1 X=c,
12:u:Suf-2 X=ic,
16:u:Key-1 R=report,
16:u:Tmn-3 X=none/c,
20:u:tok-1 L=scientific,
19:u:tok-2 R=report/on,
14:u:Lst-2 L=Ll/c,
12:u:Suf-2 L=ic,
12:u:Suf-2 X=rt,
21:u:Key-3 L=none/report,
20:u:tok-1LL=scientific,
16:u:tok-1 L=report,
19:u:tok-2 L=report/on,
12:u:Suf-2 L=rt,
16:u:Key-1 L=report,
21:u:Tmn-2 L=report/none,
16:u:tok-1LL=report,
20:u:Tok-1 X=Expedition,
20:u:tok-1 X=expedition,
20:u:tok-1 L=expedition,
21:u:Num-2 R=year/strong,
19:u:tok-1 X=nematodes,
19:u:tok-1 L=nematodes,
12:u:Suf-2 X=I.,
22:u:Key-3 x=roman/strong,
12:u:Pre-2 R=De,
12:u:Suf-2 L=I.,
14:u:Lst-2 L=Lu/A,
12:u:Pre-2 R=Fo,
21:u:tok-1LL=description,
12:u:Suf-2 X=ur,
12:u:Suf-2 L=ur,
12:u:Pre-2 R=ar,
12:u:Pre-2 X=ar,
12:u:Suf-2 X=rd,
16:u:Tok-1 X=Island,
16:u:tok-1 X=island,
12:u:Suf-2 L=rd,
18:u:tok-1RR=research,
12:u:Pre-2 R=Fr,
18:u:tok-1 R=research,
12:u:tok-1 R=29,
12:u:Suf-2 X=ch,
12:u:Suf-2 L=ch,
14:u:Pos-2 R=9/10,
12:u:Pos-1 X=10,
17:u:Pos-2 R=10/last,
17:u:Pos-2 L=10/last,
12:u:Pre-2 R=pe,
12:u:Pre-2 X=pe,
12:u:Suf-2 X=no,
15:u:tok-1RR=fauna,
15:u:tok-1 R=fauna,
12:u:Pre-2 R=Fa,
15:u:tok-1 X=fauna,
15:u:tok-1 L=fauna,
15:u:tok-1LL=fauna,
12:u:Pre-2 R=Au,
15:u:Tok-1 X=Aust.,
14:u:tok-1 X=aust,
14:u:tok-1RR=mar.,
18:u:tok-2 R=aust./j.,
12:u:Pre-2 X=Au,
12:u:Suf-2 X=t.,
14:u:tok-1 R=mar.,
12:u:Suf-2 L=t.,
12:u:Suf-2 X=r.,
12:u:Suf-2 L=r.,
12:u:Pre-2 X=Fi,
12:u:Pre-2 R=Di,
12:u:Suf-2 X=me,
12:u:Pre-2 X=Di,
12:u:Suf-2 L=me,
16:u:tok-1 R=fishes,
12:u:Pre-2 R=Fi,
19:u:tok-1 R=zoologica,
17:u:tok-1RR=scripta,
12:u:Suf-2 L=ca,
11:u:tok-1 X=9,
19:u:tok-1LL=zoologica,
12:u:Pre-2 R=ma,
16:u:Tok-1 X=marine,
12:u:Pre-2 X=ma,
12:u:Pre-2 R=14,
12:u:Pre-2 R=R.,
13:u:tok-1LL=den,
12:u:Pre-2 R=Ul,
12:u:Pre-2 X=Ul,
21:u:tok-1RR=netherlands,
19:u:Key-3 L=strong/in,
21:u:tok-1 R=netherlands,
25:u:tok-2 R=the/netherlands,
21:u:Tok-1 X=Netherlands,
21:u:tok-1 X=netherlands,
25:u:tok-2 L=the/netherlands,
12:u:Suf-2 X=ds,
21:u:tok-1 L=netherlands,
12:u:Suf-2 L=ds,
21:u:tok-1LL=netherlands,
12:u:Pre-2 X=Da,
18:u:tok-1RR=mollusca,
18:u:tok-1 R=mollusca,
12:u:Pre-2 R=di,
22:u:tok-1 X=distribution,
12:u:Pre-2 X=di,
12:u:Pre-2 R=31,
12:u:Pre-2 X=Vi,
12:u:tok-1RR=n.,
12:u:Pre-2 R=On,
12:u:Pre-2 R=Pa,
12:u:Pre-2 X=Pa,
12:u:Pre-2 R=Ge,
12:u:Pre-2 X=Ge,
12:u:Pre-2 R=Cy,
12:u:Pre-2 X=24,
12:u:Suf-2 X=63,
14:u:Lst-2 X=Ll/i,
11:u:Suf-1 X=i,
16:u:Tmn-3 X=none/i,
14:u:Lst-2 L=Ll/i,
17:u:tok-1 X=islands,
12:u:tok-1 R=12,
12:u:Pre-2 R=12,
12:u:tok-1 L=12,
12:u:Pre-2 R=23,
12:u:Suf-2 L=12,
15:u:Tok-1 X=fauna,
12:u:Pre-2 R=so,
12:u:Pre-2 X=so,
12:u:Suf-2 X=os,
12:u:Suf-2 L=os,
12:u:Suf-2 X=).,
12:u:Suf-2 L=).,
12:u:Suf-2 L=rn,
12:u:Suf-2 X=ht,
15:u:tok-1RR=north,
15:u:tok-1 R=north,
19:u:tok-2 R=the/north,
15:u:tok-1 X=north,
19:u:tok-2 L=the/north,
15:u:tok-1 L=north,
12:u:Pre-2 R=I.,
12:u:Suf-2 X=a.,
12:u:Tok-1 X=I.,
15:u:tok-1LL=north,
12:u:Suf-2 L=a.,
12:u:tok-1LL=i.,
12:u:Suf-2 L=ra,
23:u:tok-1RR=hydrobiologia,
23:u:tok-1 R=hydrobiologia,
12:u:Pre-2 R=Pe,
12:u:Pre-2 X=Pe,
13:u:tok-1 L=bay,
12:u:Suf-2 L=ay,
12:u:Suf-2 X=vi,
12:u:Suf-2 X=n),
17:u:Num-1 R=numeric,
17:*:Num-1 X=numeric,
22:u:Num-2 R=numeric/none,
24:u:Num-2 R=numeric/strong,
12:u:tok-1 L=1.,
12:u:Pre-2 R=st,
12:u:Suf-2 L=1.,
17:*:Num-1 L=numeric,
12:u:Pre-2 X=st,
12:u:Pre-2 R=Le,
12:u:Pre-2 X=Le,
12:u:Pre-2 R=la,
12:u:Pre-2 X=la,
12:u:Pre-2 R=Ni,
12:u:Pre-2 X=Ni,
12:u:Suf-2 X=t,,
11:u:tok-1 X=k,
12:u:Pre-2 X=K.,
12:u:Suf-2 L=t,,
14:u:Lst-2 X=Ll/x,
11:u:Suf-1 X=x,
16:u:Tmn-3 X=none/x,
14:u:Lst-2 L=Ll/x,
12:u:Pre-2 R=Ri,
12:u:Pre-2 X=Ri,
12:u:Tok-1 X=An,
22:u:tok-1 R=indo-pacific,
12:u:Suf-2 X=An,
22:u:tok-1 L=indo-pacific,
12:u:Pre-2 R=fi,
12:u:Pre-2 X=fi,
14:u:tok-1RR=fish,
14:u:Tok-1 X=Fish,
14:u:tok-1 X=fish,
14:u:tok-1 L=fish,
12:u:Pre-2 R=32,
14:u:tok-1LL=fish,
22:u:Cap-2 R=other/single,
22:u:Cap-2 L=other/single,
12:u:Pre-2 R=pr,
12:u:Pre-2 X=pr,
12:u:Pre-2 R=Ku,
11:u:tok-1RR=&,
11:u:tok-1 R=&,
13:u:Fst-2 R=P/&,
11:u:Pre-2 R=&,
13:u:Pct-1 R=amp,
11:*:Fst-1 X=P,
11:u:tok-1RR=6,
11:u:Tok-1 X=6,
11:u:tok-1 X=6,
11:u:Pre-2 X=6,
12:u:Suf-2 L=22,
11:u:Suf-2 X=6,
11:u:tok-1 L=6,
11:u:Suf-2 L=6,
12:u:Suf-2 X=dy,
14:u:tok-1 L=1989,
12:u:Suf-2 L=89,
19:u:tok-2 L=north/sea,
12:u:Pre-2 R=pa,
12:u:tok-1RR=et,
12:u:Pre-2 X=pa,
12:u:tok-1 R=et,
12:u:Pre-2 R=et,
12:u:Tok-1 X=et,
12:u:tok-1 X=et,
12:u:Pre-2 X=et,
12:u:tok-1 L=et,
12:u:tok-1LL=et,
19:u:tok-1RR=estuarine,
19:u:tok-1 R=estuarine,
12:u:Pre-2 R=es,
19:u:tok-1 X=estuarine,
12:u:Pre-2 X=es,
19:u:tok-1LL=estuarine,
12:u:Pre-2 R=Af,
12:u:Pre-2 X=Af,
12:u:Suf-2 X=ys,
12:u:Suf-2 L=ys,
22:u:Tok-1 X=Oceanography,
12:u:Pre-2 X=Oc,
12:u:Suf-2 X=hy,
22:u:tok-1 L=oceanography,
12:u:Suf-2 L=hy,
22:u:tok-1LL=oceanography,
22:u:Num-2 R=numeric/weak,
21:u:Tmn-2 R=strong/_x+1,
21:u:Tmn-4 R=strong/_x+1,
12:u:Pre-2 X=D.,
12:u:Pre-2 R=ec,
12:u:Pre-2 X=ec,
12:u:tok-1 X=ii,
12:u:Pre-2 R=Ch,
12:u:Pre-2 X=Ch,
12:u:Suf-2 X=da,
12:u:Suf-2 L=da,
12:u:Suf-2 X=pe,
12:u:Suf-2 X=ce,
12:u:Suf-2 L=ce,
20:u:tok-1 L=australian,
20:u:tok-1LL=australian,
17:u:tok-2 R=and/the,
17:u:tok-2 L=and/the,
12:u:Pre-2 R=wa,
12:u:Suf-2 X=ep,
12:u:Pre-2 X=wa,
12:u:Suf-2 L=ep,
12:u:Pre-2 R=At,
18:u:tok-1 X=atlantic,
12:u:Pre-2 X=At,
16:u:tok-1 R=sarsia,
12:u:Suf-2 X=e.,
12:u:Suf-2 L=e.,
12:u:Pre-2 R=We,
12:u:Pre-2 X=We,
12:u:Suf-2 X=nk,
13:u:Fst-2 R=P/',
12:u:Pre-2 R=(P,
12:u:Pre-2 R=bi,
12:u:Pre-2 X=bi,
12:u:Suf-2 X=ss,
12:u:Suf-2 L=ss,
29:u:tok-2 R=netherlands/journal,
14:u:tok-1 X=1991,
12:u:Suf-2 X=rm,
12:u:Suf-2 L=rm,
12:u:Suf-2 X=cs,
12:u:Suf-2 L=cs,
22:u:Cap-2 R=lower/single,
12:u:tok-1 R=60,
12:u:Pre-2 R=60,
24:u:tok-2 R=marine/ecology,
14:u:tok-1 R=sea),
14:u:Tok-1 X=Sea),
16:u:tok-1RR=marina,
16:u:tok-1 R=marina,
16:u:Tok-1 X=Marina,
16:u:tok-1 X=marina,
14:u:tok-1LL=1992,
12:u:Pre-2 R=Fl,
12:u:Pre-2 X=Fl,
12:u:Pre-2 R=fu,
12:u:Pre-2 X=fu,
17:u:tok-1RR=aquatic,
17:u:tok-1 R=aquatic,
12:u:Pre-2 R=Aq,
17:u:Tok-1 X=Aquatic,
17:u:tok-1 X=aquatic,
12:u:Pre-2 X=Aq,
17:u:tok-1LL=aquatic,
12:u:Pre-2 R=Ra,
12:u:Pre-2 X=Ra,
14:u:tok-1 L=1993,
17:u:tok-1LL=eastern,
12:u:Pre-2 R=gr,
12:u:Suf-2 X=um,
12:u:Pre-2 X=gr,
12:u:Suf-2 L=um,
13:u:tok-1RR=for,
12:u:Pre-2 R=fo,
13:u:tok-1 X=for,
12:u:Pre-2 X=fo,
12:u:Suf-2 X=or,
12:u:Suf-2 L=or,
15:u:tok-1 R=flora,
15:u:tok-1 L=flora,
12:u:Suf-2 X=va,
12:u:Pre-2 X=Cu,
12:u:Pre-2 R=Ta,
12:u:Pre-2 X=Ta,
20:u:Tok-1 X=Systematic,
20:u:tok-1 X=systematic,
22:u:tok-1 R=parasitology,
33:u:tok-2 R=systematic/parasitology,
12:u:Suf-2 X=1),
12:u:Pre-2 R=Eu,
12:u:Pre-2 X=Eu,
12:u:Pre-2 R=45,
12:u:Pre-2 R=Ce,
12:u:Pre-2 X=Ce,
12:u:tok-1RR=27,
25:u:tok-1LL=amphioxus-sand,,
15:u:tok-1 L=elat,,
22:u:tok-2 L=elat,/israel,
12:u:Suf-2 X=s:,
12:u:Suf-2 L=s:,
12:u:Pre-2 R=30,
18:u:tok-1RR=atlantic,
20:u:Cap-2 R=lower/caps,
12:u:tok-1 X=ne,
18:u:tok-1 R=atlantic,
14:u:Lst-2 X=Lu/E,
11:u:Suf-1 X=E,
20:u:Cap-2 L=lower/caps,
16:u:Tmn-3 X=none/E,
18:u:Tok-1 X=Atlantic,
12:u:tok-1 L=ne,
15:u:tok-1RR=revue,
14:u:Lst-2 L=Lu/E,
12:u:Suf-2 L=NE,
24:u:tok-1 X=internationale,
18:u:tok-1 L=atlantic,
18:u:tok-1LL=atlantic,
12:u:Pre-2 R=ra,
12:u:Pre-2 X=ra,
12:u:Pre-2 X=Ke,
12:u:Pre-2 R=le,
12:u:Pre-2 X=le,
12:u:Pre-2 R=Am,
12:u:Pre-2 X=Am,
13:u:tok-1RR=in:,
13:u:tok-1 R=in:,
13:u:Tok-1 X=In:,
12:u:Suf-2 X=n:,
20:u:Key-2 X=in/initial,
21:u:Key-3 x=in/moderate,
13:u:tok-1 L=in:,
12:u:Suf-2 L=n:,
13:u:tok-1LL=in:,
12:u:Suf-2 X=K.,
21:u:tok-1RR=proceedings,
21:u:tok-1 R=proceedings,
16:u:Key-1 X=editor,
21:u:Tok-1 X=Proceedings,
21:u:tok-1 X=proceedings,
24:u:tok-2 R=proceedings/of,
12:u:Suf-2 X=gs,
16:u:Key-1 L=editor,
21:u:Tmn-2 L=editor/none,
21:u:tok-1 L=proceedings,
24:u:tok-2 L=proceedings/of,
12:u:Suf-2 L=gs,
21:u:tok-1LL=proceedings,
23:u:tok-1RR=international,
17:u:Num-1 R=ordinal,
23:u:tok-1 R=international,
17:*:Num-1 X=ordinal,
22:u:Num-2 R=ordinal/none,
23:u:Tok-1 X=International,
23:u:tok-1 X=international,
17:*:Num-1 L=ordinal,
26:u:Tmn-2 R=none/proceedings,
20:u:tok-1 X=conference,
23:u:tok-1 L=international,
26:u:Key-3 L=none/proceedings,
23:u:tok-1LL=international,
12:u:Pre-2 R=Vo,
12:u:Pre-2 X=Vo,
12:u:Suf-2 X=l.,
12:u:Suf-2 L=l.,
12:u:Pre-2 X=Ar,
15:u:Lst-2 X=Ll/é,
12:u:Suf-1 X=é,
17:u:Tmn-3 X=none/é,
15:u:Lst-2 L=Ll/é,
14:u:Lst-2 X=Lu/W,
11:u:Suf-1 X=W,
16:u:Tmn-3 X=none/W,
17:u:tok-1 R=cahiers,
12:u:tok-1RR=de,
17:u:Tok-1 X=Cahiers,
17:u:tok-1 X=cahiers,
12:u:tok-1 R=de,
18:u:tok-1RR=biologie,
20:u:tok-2 R=cahiers/de,
12:u:Tok-1 X=de,
12:u:tok-1 X=de,
18:u:tok-1 R=biologie,
21:u:tok-2 R=de/biologie,
12:u:tok-1 L=de,
12:u:tok-1RR=40,
12:u:tok-1LL=de,
12:u:Tok-1 X=40,
12:u:tok-1 X=40,
12:u:Pre-2 R=Ko,
19:u:tok-1 R=pollution,
23:u:tok-1RR=environmental,
23:u:tok-1LL=environmental,
19:u:tok-1RR=diversity,
19:u:tok-1 R=diversity,
19:u:tok-1 X=diversity,
19:u:tok-1LL=diversity,
16:u:tok-2 R=the/uk,
12:u:Tok-1 X=UK,
12:u:tok-1 X=uk,
14:u:Lst-2 X=Lu/K,
12:u:Pre-2 X=UK,
11:u:Suf-1 X=K,
12:u:Suf-2 X=UK,
16:u:Tmn-3 X=none/K,
12:u:tok-1 L=uk,
14:u:Lst-2 L=Lu/K,
12:u:Suf-2 L=UK,
12:u:Suf-2 X=ld,
12:u:Suf-2 L=ld,
23:u:tok-1 X=westerschelde,
12:u:Pre-2 X=(1,
21:u:Num-2 R=year/parens,
17:u:tok-1 R=science,
20:u:tok-1RR=technology,
20:u:tok-1 R=technology,
12:u:Pre-2 R=Te,
12:u:Pre-2 X=Te,
12:u:Pre-2 R=20,
12:u:Pre-2 X=20,
12:u:Pre-2 R=sa,
12:u:Pre-2 X=sa,
21:u:tok-1 R=experiments,
12:u:Pre-2 R=ex,
21:u:Tok-1 X=experiments,
21:u:tok-1 X=experiments,
12:u:Pre-2 X=ex,
12:u:Pre-2 R=Ja,
12:u:Pre-2 R=Ju,
14:u:Lst-2 X=Lu/S,
11:u:Suf-1 X=S,
16:u:Tmn-3 X=none/S,
12:u:tok-1RR=30,
12:u:Suf-2 X=il,
12:u:Suf-2 L=il,
12:u:Pre-2 R=Bu,
18:u:tok-1 X=bulletin,
12:u:Pre-2 X=Bu,
18:u:tok-1LL=bulletin,
15:u:tok-1RR=ocean,
12:u:Pre-2 R=Ar,
15:u:tok-1 R=ocean,
15:u:Tok-1 X=Ocean,
15:u:tok-1 X=ocean,
15:u:tok-1 L=ocean,
14:u:tok-1RR=part,
14:u:tok-1 R=part,
14:u:tok-1 X=part,
14:u:tok-1 L=part,
14:u:tok-1LL=part,
12:u:Pre-2 R=47,
12:u:tok-1 L=10,
12:u:Pre-2 R=d',
12:u:Pre-2 X=d',
12:u:tok-1RR=k.,
18:u:Tok-1 X=European,
18:u:tok-1 X=european,
18:u:tok-1 L=european,
18:u:tok-1LL=european,
24:u:Tmn-4 R=moderate/other,
24:u:Cap-3 L=moderate/other,
12:u:Suf-2 L=d.,
12:u:Suf-2 X=it,
12:u:Suf-2 L=it,
12:u:Tok-1 X=De,
12:u:Suf-2 X=De,
19:u:Tmn-2 L=_x-1/none,
12:u:Suf-2 L=rg,
12:u:Pre-2 R=sh,
12:u:Pre-2 X=sh,
12:u:Pre-2 R=Ka,
12:u:Pre-2 X=Ka,
12:u:Pre-2 R=fl,
12:u:Pre-2 X=fl,
17:u:tok-1 R=schelde,
12:u:Pre-2 R=sy,
12:u:Pre-2 X=sy,
12:u:Pre-2 R=oc,
12:u:Pre-2 X=oc,
12:u:Pre-2 X=Lu,
17:u:tok-1 L=waters.,
12:u:Pre-2 R=aq,
12:u:Pre-2 X=aq,
12:u:Pre-2 X=im,
12:u:Pre-2 R=Kl,
16:u:Tok-1 X=Kluwer,
16:u:tok-1 X=kluwer,
12:u:Pre-2 X=Kl,
21:u:Tmn-4 R=strong/caps,
21:u:Cap-3 L=strong/caps,
22:u:Key-3 L=strong/roman,
13:u:Tok-1 X=in:,
21:u:tok-1LL=giesbrecht,,
15:u:tok-1 L=1892.,
16:u:tok-1 R=lopes,,
15:u:tok-1RR=r.m.,,
19:u:tok-2 L=1892./in:,
20:u:tok-2 R=in:/lopes,,
19:u:Cap-2 R=caps/caps,
19:u:Cap-2 L=caps/caps,
14:u:tok-1RR=156,,
14:u:Tok-1 X=156,,
13:u:tok-1 X=156,
12:u:Suf-2 X=6,,
22:u:Tok-1 X=Developments,
22:u:tok-1 X=developments,
14:u:tok-1 L=156,,
22:u:tok-1RR=hydrobiology,
25:u:tok-2 R=developments/in,
12:u:Suf-2 L=6,,
14:u:tok-1LL=156,,
22:u:tok-1 L=developments,
22:u:tok-1 R=hydrobiology,
25:u:tok-2 L=developments/in,
25:u:tok-2 R=in/hydrobiology,
22:u:Tok-1 X=Hydrobiology,
22:u:tok-1 X=hydrobiology,
22:u:tok-1LL=developments,
25:u:tok-2 L=in/hydrobiology,
22:u:tok-1 L=hydrobiology,
14:u:tok-1RR=held,
14:u:tok-1 R=held,
12:u:Pre-2 R=he,
14:u:Tok-1 X=held,
14:u:tok-1 X=held,
17:u:tok-2 R=held/in,
12:u:Pre-2 X=he,
14:u:tok-1 L=held,
17:u:tok-2 L=held/in,
14:u:tok-1LL=held,
22:u:Key-2 X=date/initial,
19:u:Key-3 x=date/none,
12:u:Pre-2 R=48,
12:u:Pre-2 X=Ev,
22:u:tok-2 R=sea)/journal,
21:u:Key-3 L=strong/page,
13:u:Lst-2 X=P/?,
11:u:Suf-1 X=?,
16:u:Tmn-3 X=weak/?,
13:u:Lst-2 L=P/?,
17:u:tok-1 R=zealand,
21:u:tok-2 R=new/zealand,
12:u:Suf-2 L=ow,
12:u:Suf-2 L=lt,
20:u:Tok-1 X=Estuarine,,
28:u:tok-2 R=estuarine,/coastal,
12:u:Suf-2 L=ek,
12:u:Pre-2 X=Mu,
14:u:tok-1 L=sea,,
12:u:Suf-2 L=42,
12:u:Pre-2 X=Pl,
12:u:Suf-2 X=14,
20:u:tok-1RR=(porifera,,
20:u:tok-1 R=(porifera,,
12:u:Pre-2 R=Mu,
14:u:tok-1RR=ices,
14:u:tok-1 R=ices,
12:u:Pre-2 R=IC,
14:u:tok-1LL=ices,
16:u:tok-1RR=museum,
16:u:tok-1 R=museum,
16:u:Tok-1 X=Museum,
16:u:tok-1 X=museum,
16:u:tok-1LL=museum,
26:u:Num-2 R=numeric/moderate,
12:u:tok-1 L=23,
12:u:Suf-2 L=23,
12:u:Pre-2 R=Bl,
12:u:Pre-2 X=Bl,
20:u:Cap-2 R=caps/lower,
19:u:tok-1 R=molecular,
20:u:Cap-2 L=caps/lower,
19:u:Tok-1 X=Molecular,
19:u:tok-1 X=molecular,
23:u:tok-1 R=phylogenetics,
33:u:tok-2 R=molecular/phylogenetics,
12:u:Pre-2 R=ze,
12:u:Pre-2 X=ze,
16:u:tok-1 L=indian,
22:u:tok-2 L=indian/ocean,
12:u:tok-1RR=52,
12:u:tok-1 R=52,
12:u:Pre-2 R=52,
12:u:tok-1RR=20,
12:u:Suf-2 L=63,
12:u:Pre-2 R=ac,
12:u:Pre-2 X=ac,
11:u:tok-1RR=+,
11:u:tok-1 R=+,
13:u:Fst-2 R=S/+,
11:u:Pre-2 R=+,
11:u:Tok-1 X=+,
13:u:Fst-2 X=S/+,
13:u:Lst-2 X=S/+,
11:u:Pre-1 X=+,
11:u:Pre-2 X=+,
11:u:Suf-1 X=+,
11:u:Suf-2 X=+,
16:u:Tmn-3 X=none/+,
22:u:tok-1 R=zoologischer,
18:u:tok-1RR=anzeiger,
15:u:tok-1LL=field,
14:u:tok-1 X=area,
14:u:tok-1 L=area,
19:u:Tmn-2 L=date/none,
12:u:Pre-2 R=na,
12:u:Pre-2 X=na,
14:u:Lst-2 L=Lu/N,
17:u:tok-1LL=systems,
22:u:tok-1LL=northeastern,
12:u:Suf-2 X=ro,
21:u:tok-2 R=sea/journal,
12:u:Suf-2 X=am,
12:u:Pre-2 R=68,
12:u:Pre-2 R=94,
12:u:tok-1 R=by,
12:u:Pre-2 R=by,
12:u:tok-1LL=by,
12:u:Pre-2 R=da,
12:u:Pre-2 X=da,
12:u:Pre-2 R=vo,
12:u:Pre-2 X=vo,
17:u:tok-1LL=pacific,
16:u:tok-1LL=global,
19:u:tok-1 X=organisms,
21:u:tok-1LL=specialised,
20:u:tok-1 L=maxilliped,
30:u:tok-2 L=maxilliped/organisms,
29:u:tok-2 R=organisms/diversity,
19:u:Tok-1 X=Diversity,
19:u:tok-1 L=organisms,
14:u:Lst-2 L=Lu/B,
12:u:Pre-2 R=Vl,
19:u:tok-2 R=report/of,
19:u:tok-2 L=report/of,
12:u:tok-1 R=14,
19:u:Tok-1 X=Pollution,
12:u:Suf-2 X=ei,
12:u:Suf-2 L=ei,
12:u:Pre-2 R=Ci,
12:u:Pre-2 X=Tu,
12:u:tok-1 L=42,
16:u:tok-1 X=system,
12:u:Pre-2 R=(Z,
12:u:Pre-2 X=(Z,
12:u:Pre-2 R=du,
12:u:Pre-2 X=du,
12:u:Pre-2 R=Pu,
12:u:Pre-2 X=Pu,
12:u:Suf-2 X=ke,
14:u:Lst-2 X=Lu/C,
11:u:Suf-1 X=C,
16:u:Tmn-3 X=none/C,
19:u:tok-1 X=teleostei,
15:u:tok-1RR=years,
14:u:Fst-2 R=Lu/Q,
12:u:Pre-2 R=Qu,
19:u:tok-1 R=fisheries,
19:u:tok-1 X=fisheries,
16:u:tok-1LL=origin,
22:u:tok-1RR=biodiversity,
22:u:tok-1 X=biodiversity,
22:u:tok-1 L=biodiversity,
12:u:Pre-2 R=sc,
12:u:Pre-2 X=sc,
16:u:Tok-1 X=Trough,
16:u:tok-1 X=trough,
22:u:Cap-2 R=initial/_x+1,
15:u:Pos-2 R=10/10,
15:u:Pos-2 L=10/10,
14:u:tok-1 R=plos,
13:u:tok-1RR=one,
12:u:Pre-2 R=PL,
14:u:tok-1 X=plos,
13:u:tok-1 R=one,
18:u:tok-2 R=plos/one,
12:u:Pre-2 X=PL,
13:u:tok-1LL=one,
12:u:Pre-2 R=wo,
12:u:Pre-2 X=wo,
14:u:Lst-2 X=Lu/L,
11:u:Suf-1 X=L,
16:u:Tmn-3 X=none/L,
14:u:Lst-2 L=Lu/L,
13:u:tok-1 R=san,
17:u:tok-1RR=records,
17:u:tok-1 R=records,
12:u:Suf-2 L=g.,
22:u:Tok-1 X=Biodiversity,
12:u:Pre-2 X=Ye,
17:u:Tok-1 X=Current,
17:u:tok-1 X=current,
17:u:tok-1 L=current,
21:u:tok-1RR=publication,
21:u:tok-1 X=publication,
21:u:tok-1 L=publication,
14:u:Tok-1 X=part,
12:u:Pre-2 X=Ag,
12:u:Suf-2 X=io,
12:u:Suf-2 L=io,
12:u:tok-1 R=50,
13:u:tok-1LL=ice,
12:u:tok-1 X=ed,
12:u:Pre-2 X=(E,
24:u:Key-2 X=editor/initial,
23:u:Key-3 L=strong/editor,
13:u:tok-1LL=al.,
15:u:tok-1 L=(ed.),
19:u:tok-1 R=protists:,
22:u:tok-2 L=(ed.)/marine,
26:u:tok-2 R=marine/protists:,
12:u:Suf-2 L=.),
15:u:tok-1LL=(ed.),
13:u:tok-1LL=all,
12:u:Suf-2 X=iv,
12:u:Suf-2 L=iv,
14:u:Tok-1 X=C.A.,
12:u:Pre-2 X=Of,
25:u:tok-2 L=of/biodiversity,
21:u:tok-1 R=informatics,
34:u:tok-2 R=biodiversity/informatics,
21:u:Tok-1 X=Informatics,
21:u:tok-1 X=informatics,
34:u:tok-2 L=biodiversity/informatics,
29:u:tok-2 R=informatics/journal,
12:u:Suf-2 X=ut,
12:u:Suf-2 L=ut,
18:u:tok-1LL=mangrove,
14:u:tok-1 R=2017,
14:u:Tok-1 X=2017,
14:u:tok-1 X=2017,
23:u:tok-1 X=invertebrates,
32:u:Tok-1 X=Latein-Deutsch-English,
30:u:tok-1 X=lateindeutschenglish,
24:u:tok-1 L=invertebrates.,
18:u:tok-1RR=springer,
47:u:tok-2 L=invertebrates./latein-deutsch-english,
37:u:tok-2 R=latein-deutsch-english/2017,
24:u:tok-1LL=invertebrates.,
32:u:tok-1 L=latein-deutsch-english,
18:u:tok-1 R=springer,
18:u:tok-1RR=spektrum,
37:u:tok-2 L=latein-deutsch-english/2017,
23:u:tok-2 R=2017/springer,
16:u:tok-1 R=berlin,
16:u:Tok-1 X=Berlin,
16:u:tok-1 X=berlin,
12:u:Suf-2 L=e?,
12:u:Suf-2 X=y:,
12:u:Suf-2 L=y:,
14:u:Fst-2 R=Ps/[,
32:u:Brk-1 R=opening-square-bracket,
21:u:tok-2 R=the/british,
32:u:Brk-1 R=closing-square-bracket,
12:u:Suf-2 X=].,
37:u:Num-2 R=none/closing-square-bracket,
32:u:Brk-1 X=closing-square-bracket,
32:u:Brk-1 L=closing-square-bracket,
12:u:Suf-2 X=V,,
12:u:Suf-2 L=V,,
14:u:tok-1RR=pls.,
14:u:tok-1 R=neue,
14:u:tok-1LL=neue,
12:u:tok-1RR=la,
12:u:tok-1 R=la,
12:u:Tok-1 X=la,
12:u:tok-1 X=la,
12:u:tok-1 L=la,
12:u:tok-1LL=la,
12:u:Suf-2 X=ux,
12:u:Suf-2 L=ux,
14:u:Lst-2 X=Ll/u,
11:u:Suf-1 X=u,
16:u:Tmn-3 X=none/u,
14:u:Lst-2 L=Ll/u,
19:u:tok-1RR=société,
19:u:tok-1 R=société,
22:u:tok-2 R=la/société,
17:u:tok-1 X=societe,
22:u:tok-2 L=la/société,
13:u:Suf-2 X=té,
15:u:tok-1RR=paris,
13:u:Suf-2 L=té,
15:u:tok-1 R=paris,
15:u:Tok-1 X=Paris,
15:u:tok-1 X=paris,
17:u:tok-1 L=algarum,
17:u:tok-1LL=algarum,
12:u:Suf-2 X=li,
17:u:Tok-1 X=Lundae,,
16:u:tok-1 X=lundae,
20:u:tok-1LL=universali,
12:u:tok-1 R=ex,
18:u:tok-1RR=officina,
25:u:tok-2 L=algarum/lundae,,
20:u:tok-2 R=lundae,/ex,
12:u:Tok-1 X=Ex,
12:u:tok-1 X=ex,
17:u:tok-1 L=lundae,,
18:u:tok-1 R=officina,
22:u:tok-1RR=berlingiana.,
20:u:tok-2 L=lundae,/ex,
21:u:tok-2 R=ex/officina,
12:u:Suf-2 X=Ex,
13:u:tok-1 R=von,
13:u:tok-1 L=von,
13:u:tok-1LL=von,
12:u:Suf-2 X=II,
20:u:Key-3 x=roman/none,
12:u:Suf-2 X=sk,
12:u:Suf-2 X=h.,
23:u:tok-1RR=denkschriften,
25:u:tok-1LL=schweizerischen,
23:u:Tok-1 X=Denkschriften,
23:u:tok-1 X=denkschriften,
27:u:tok-2 R=denkschriften/der,
23:u:tok-1 L=denkschriften,
27:u:tok-2 L=denkschriften/der,
23:u:tok-1LL=denkschriften,
18:u:tok-1 X=memoires,
15:u:tok-2 R=de/la,
15:u:tok-2 L=de/la,
20:u:tok-1LL=naturelles,
12:u:Pre-2 X=Sk,
12:u:Suf-2 X=ka,
20:u:Tok-1 X=Handlingar,
20:u:tok-1 X=handlingar,
13:u:Pre-2 R=Mé,
13:u:Pre-2 X=Mé,
12:u:Pre-2 R=l',
12:u:Pre-2 X=l',
15:u:tok-1 R=bull.,
15:u:Tok-1 X=Bull.,
14:u:tok-1 X=bull,
14:u:tok-1RR=sci.,
18:u:tok-1 R=american,
18:u:Tok-1 X=American,
18:u:tok-1 X=american,
23:u:Tok-1 X=Encyclopédie,
22:u:tok-1 X=encyclopedie,
23:u:tok-1 L=encyclopédie,
19:u:tok-1 X=bruxelles,
14:u:tok-1RR=pour,
14:u:Tok-1 X=pour,
14:u:tok-1 X=pour,
16:u:tok-1 L=states,
16:u:tok-1RR=during,
16:u:tok-1 R=during,
16:u:Tok-1 X=during,
16:u:tok-1 X=during,
20:u:tok-2 R=during/the,
16:u:tok-1 L=during,
20:u:tok-2 L=during/the,
19:u:tok-2 R=the/years,
16:u:tok-1LL=during,
19:u:tok-2 L=the/years,
17:u:tok-2 R=part/i.,
18:u:tok-1RR=belgique,
18:u:tok-1 R=belgique,
21:u:tok-2 R=de/belgique,
21:u:tok-2 L=de/belgique,
18:u:tok-1 L=belgique,
19:u:tok-1RR=mémoires,
19:u:tok-1 R=mémoires,
19:u:Tok-1 X=Mémoires,
19:u:tok-1 L=mémoires,
19:u:tok-1LL=mémoires,
19:u:tok-2 R=royal/des,
12:u:Suf-2 L=eu,
13:u:tok-1RR=les,
13:u:tok-1 R=les,
13:u:Tok-1 X=les,
13:u:tok-1 X=les,
12:u:tok-1RR=du,
13:u:tok-1 L=les,
12:u:tok-1 R=du,
12:u:Tok-1 X=du,
12:u:tok-1 X=du,
13:u:tok-1LL=les,
12:u:Suf-2 X=du,
12:u:tok-1 L=du,
12:u:Suf-2 L=du,
12:u:tok-1LL=du,
11:u:Pre-2 R=i,
11:u:Tok-1 X=i,
11:u:Pre-2 X=i,
11:u:Suf-2 X=i,
13:u:Pre-2 R=Fö,
13:u:tok-1 R=iii,
13:u:Tok-1 X=Die,
12:u:Suf-2 X=3.,
12:u:Suf-2 L=3.,
19:u:Tok-1 X=MDCCCLXIV,
19:u:tok-1 X=mdccclxiv,
16:u:tok-1 L=for...,
15:u:tok-1 R=30-86,
26:u:tok-2 L=for.../mdccclxiv,
25:u:tok-2 R=mdccclxiv/30-86,
12:u:Pre-2 X=MD,
12:u:Suf-2 L=..,
16:u:tok-1LL=bidrag,
14:u:Lst-2 X=Lu/O,
11:u:Suf-1 X=O,
16:u:Tmn-3 X=none/O,
14:u:Lst-2 L=Lu/O,
13:u:tok-1 X=ved,
17:u:Tok-1 X=Stifter,
17:u:tok-1 X=stifter,
12:u:tok-1LL=og,
24:u:tok-1 L=christiansands,
13:u:tok-1 R=nyt,
17:u:tok-1RR=magazin,
32:u:tok-2 L=christiansands/stifter,
21:u:tok-2 R=stifter/nyt,
12:u:Pre-2 R=Ny,
15:u:Tok-1 X=Trudy,
15:u:tok-1 X=trudy,
20:u:tok-1RR=challenger,
20:u:tok-1 R=challenger,
20:u:tok-1LL=challenger,
15:u:tok-1LL=zool.,
16:u:tok-1LL=marins,
16:u:Tok-1 X=Naples,
16:u:tok-1 X=naples,
14:u:Tok-1 X=1877,
14:u:tok-1 X=1877,
15:u:tok-1RR=arch.,
15:u:tok-1 R=arch.,
17:u:Tok-1 X=London.,
23:u:tok-1LL=mymenomycetum,
21:u:tok-1 L=europaeorum,
29:u:tok-2 L=europaeorum/london.,
21:u:tok-2 R=london./240,
13:u:tok-1LL=ray,
16:u:tok-1RR=1-148,,
24:u:tok-2 L=society/london,
18:u:tok-2 R=london/1,
19:u:tok-1 X=norwegian,
22:u:tok-1 L=commissioner,
17:u:tok-1 R=681-692,
27:u:tok-2 L=commissioner/1877,
22:u:tok-2 R=1877/681-692,
21:u:tok-1RR=obshchestva,
16:u:tok-1RR=h.m.s.,
16:u:tok-1 R=h.m.s.,
19:u:tok-2 R=of/h.m.s.,
16:u:Tok-1 X=H.M.S.,
13:u:tok-1 X=hms,
19:u:tok-2 L=of/h.m.s.,
16:u:tok-1LL=h.m.s.,
13:u:tok-1 L=iv.,
13:u:tok-1LL=iv.,
12:u:tok-1 R=5,,
19:u:tok-2 R=series/5,,
12:u:Pre-2 R=5,,
14:u:tok-1RR=anz.,
16:u:tok-1RR=kieler,
16:u:tok-1 R=kieler,
16:u:Tok-1 X=Kieler,
16:u:tok-1 X=kieler,
16:u:tok-1 L=kieler,
23:u:Tmn-2 R=strong/report,
16:u:tok-1LL=plants,
19:u:tok-1 L=received.,
19:u:tok-1 R=botanical,
26:u:tok-2 L=received./report,
26:u:tok-2 R=report/botanical,
23:u:Key-3 L=strong/report,
14:u:tok-1LL=eine,
27:u:tok-2 R=h.m.s./challenger,
18:u:tok-1 X=18761878,
21:u:tok-1LL=1876-1878),,
16:u:tok-1RR=1-280,,
19:u:tok-2 L=zoology/6,
14:u:tok-2 R=6/14,
16:u:tok-1 R=1-280,,
14:u:tok-2 L=6/14,
19:u:tok-2 R=14/1-280,,
13:u:tok-1 X=map,
12:u:Suf-2 X=ap,
12:u:Pre-2 R=[C,
12:u:Pre-2 X=[C,
27:u:tok-2 R=challenger/during,
27:u:tok-2 L=challenger/during,
17:u:tok-1RR=results,
24:u:tok-2 R=the/scientific,
17:u:tok-1 R=results,
24:u:tok-2 L=the/scientific,
28:u:tok-2 R=scientific/results,
17:u:Tok-1 X=Results,
17:u:tok-1 X=results,
28:u:tok-2 L=scientific/results,
20:u:tok-2 R=results/of,
17:u:tok-1 L=results,
16:u:tok-1RR=voyage,
20:u:tok-2 L=results/of,
17:u:tok-1LL=results,
16:u:tok-1 R=voyage,
20:u:tok-2 R=the/voyage,
16:u:Tok-1 X=Voyage,
16:u:tok-1 X=voyage,
20:u:tok-2 L=the/voyage,
19:u:tok-2 R=voyage/of,
16:u:tok-1 L=voyage,
19:u:tok-2 L=voyage/of,
16:u:tok-1LL=voyage,
20:u:tok-1RR=1873–76.,
20:u:tok-1 R=1873–76.,
26:u:tok-2 R=years/1873–76.,
20:u:Tok-1 X=1873–76.,
26:u:tok-2 L=years/1873–76.,
28:u:tok-2 R=1873–76./zoology,
20:u:tok-1LL=1873–76.,
17:u:tok-1 X=travaux,
17:u:tok-1 L=travaux,
16:u:tok-1RR=anvers,
16:u:Tok-1 X=Anvers,
16:u:tok-1 X=anvers,
25:u:Brk-1 R=square-brackets,
15:u:tok-1RR=faune,
15:u:tok-1 R=faune,
18:u:tok-2 R=la/faune,
15:u:Tok-1 X=faune,
15:u:tok-1 X=faune,
18:u:tok-2 L=la/faune,
15:u:tok-1 L=faune,
15:u:tok-1LL=faune,
12:u:tok-1 X=le,
16:u:Tok-1 X=Brugge,
16:u:tok-1 X=brugge,
16:u:tok-1 L=brugge,
13:u:Pre-2 R=Sé,
22:u:Tmn-2 L=roman/strong,
21:u:tok-1RR=conchyliol.,
18:u:tok-1RR=akademie,
11:u:tok-1RR==,
13:u:tok-1 L=mer,
11:u:tok-1 R==,
13:u:Fst-2 R=S/=,
11:u:Pre-2 R==,
11:u:Tok-1 X==,
13:u:tok-1LL=mer,
13:u:Fst-2 X=S/=,
13:u:Lst-2 X=S/=,
11:u:Pre-1 X==,
11:u:Pre-2 X==,
11:u:Suf-1 X==,
11:u:Suf-2 X==,
16:u:Tmn-3 X=none/=,
11:u:tok-1 L==,
13:u:Lst-2 L=S/=,
11:u:Suf-2 L==,
11:u:tok-1LL==,
21:u:tok-2 R==/mémoires,
17:u:Tok-1 X=Summary,
17:u:tok-1 X=summary,
16:u:tok-1 R=volume,
25:u:tok-2 L=zoology/summary,
24:u:tok-2 R=summary/volume,
16:u:tok-1 X=volume,
21:u:Tok-1 X=Kryptogamen,
21:u:tok-1 X=kryptogamen,
25:u:tok-1LL=constantinopel.,
24:u:tok-2 L=i./kryptogamen,
35:u:tok-2 R=kryptogamen/denkschriften,
12:u:Pre-2 R=ka,
12:u:Pre-2 X=ka,
12:u:Tok-1 X=La,
12:u:Suf-2 X=La,
17:u:Tok-1 X=Museum.,
27:u:tok-2 L=australian/museum,
17:u:tok-1RR=fishery,
17:u:Tok-1 X=Fishery,
17:u:tok-1 X=fishery,
17:u:tok-1 L=fishery,
15:u:tok-1RR=board,
17:u:tok-1RR=memoirs,
17:u:tok-1 R=memoirs,
17:u:Tok-1 X=Memoirs,
17:u:tok-1 X=memoirs,
20:u:tok-1 L=pelecypoda,
28:u:tok-2 L=pelecypoda/memoirs,
20:u:tok-2 R=memoirs/of,
20:u:tok-1LL=pelecypoda,
17:u:tok-1 L=memoirs,
20:u:tok-2 L=memoirs/of,
17:u:tok-1LL=memoirs,
18:u:tok-1RR=trustees,
18:u:tok-1 R=trustees,
25:u:tok-2 R=museum/trustees,
13:u:tok-1RR=dem,
13:u:tok-1 R=dem,
17:u:tok-2 R=aus/dem,
13:u:Tok-1 X=dem,
13:u:tok-1 X=dem,
17:u:tok-2 L=aus/dem,
17:u:tok-1 R=annales,
20:u:tok-1RR=résultats,
20:u:tok-1 R=résultats,
13:u:Pre-2 R=Ré,
20:u:Tok-1 X=Résultats,
19:u:tok-1 X=resultats,
13:u:Pre-2 X=Ré,
20:u:tok-1 L=résultats,
20:u:tok-1LL=résultats,
24:u:Tok-1 X=1897-1898-1899,
22:u:tok-1 X=189718981899,
17:u:tok-1LL=belgica,
14:u:tok-1 R=sous,
27:u:tok-2 L=en/1897-1898-1899,
29:u:tok-2 R=1897-1898-1899/sous,
14:u:Tok-1 X=sous,
14:u:tok-1 X=sous,
24:u:tok-1 L=1897-1898-1899,
22:u:tok-1RR=commandement,
29:u:tok-2 L=1897-1898-1899/sous,
17:u:tok-2 R=sous/le,
24:u:tok-1LL=1897-1898-1899,
14:u:tok-1 L=sous,
22:u:tok-1 R=commandement,
17:u:tok-2 L=sous/le,
25:u:tok-2 R=le/commandement,
22:u:Tok-1 X=commandement,
22:u:tok-1 X=commandement,
14:u:tok-1LL=sous,
25:u:tok-2 L=le/commandement,
25:u:tok-2 R=commandement/de,
22:u:tok-1 L=commandement,
25:u:tok-2 L=commandement/de,
15:u:tok-2 R=de/a.,
22:u:tok-1LL=commandement,
18:u:tok-1RR=gerlache,
15:u:tok-2 L=de/a.,
15:u:tok-2 R=a./de,
18:u:tok-1 R=gerlache,
15:u:tok-2 L=a./de,
21:u:tok-2 R=de/gerlache,
18:u:Tok-1 X=Gerlache,
18:u:tok-1 X=gerlache,
17:u:tok-1RR=gomery:,
21:u:tok-2 L=de/gerlache,
21:u:tok-2 R=gerlache/de,
18:u:tok-1 L=gerlache,
17:u:tok-1 R=gomery:,
18:u:tok-1RR=rapports,
21:u:tok-2 L=gerlache/de,
20:u:tok-2 R=de/gomery:,
17:u:Tok-1 X=Gomery:,
16:u:tok-1 X=gomery,
18:u:tok-1LL=gerlache,
18:u:tok-1 R=rapports,
23:u:tok-1RR=scientifiques,
20:u:tok-2 L=de/gomery:,
26:u:tok-2 R=gomery:/rapports,
18:u:tok-1 X=rapports,
23:u:tok-1 R=scientifiques,
23:u:tok-1 X=scientifiques,
18:u:tok-1 L=rapports,
18:u:tok-1LL=rapports,
23:u:tok-1 L=scientifiques,
13:u:Tok-1 X=Les,
20:u:tok-1RR=university,
20:u:Tok-1 X=University,
20:u:tok-1 X=university,
22:u:tok-1 L=dinophysidae,
33:u:tok-2 L=dinophysidae/university,
23:u:tok-2 R=university/of,
22:u:tok-1LL=dinophysidae,
22:u:tok-1RR=publications,
23:u:tok-2 L=university/of,
23:u:tok-2 R=of/california,
22:u:tok-1 R=publications,
17:u:tok-1 R=account,
20:u:tok-2 R=an/account,
15:u:tok-1RR=short,
15:u:tok-1 R=short,
16:u:tok-1RR=bergen,
24:u:tok-2 R=species/bergen,
16:u:Tok-1 X=Bergen,
16:u:tok-1 X=bergen,
24:u:tok-2 L=species/bergen,
23:u:tok-2 R=bergen/museum,
23:u:tok-2 L=bergen/museum,
12:u:Pre-2 X=Ek,
14:u:tok-1RR=u.s.,
14:u:tok-1 R=u.s.,
12:u:tok-1 X=us,
16:u:Tok-1 X=Second,
16:u:tok-1 X=second,
21:u:tok-1 R=supplement.,
20:u:tok-1RR=fisheries,,
22:u:tok-2 L=slope/second,
28:u:tok-2 R=second/supplement.,
21:u:Tok-1 X=supplement.,
16:u:tok-1 L=second,
20:u:tok-1 R=fisheries,,
18:u:tok-1RR=ireland,,
28:u:tok-2 L=second/supplement.,
32:u:tok-2 R=supplement./fisheries,,
17:u:tok-1RR=reports,
17:u:tok-1 R=reports,
17:u:tok-1 X=reports,
21:u:tok-1LL=laboratory,,
13:u:tok-1RR=jb.,
13:u:tok-1 R=jb.,
12:u:Pre-2 R=Jb,
20:u:tok-2 R=biology/of,
20:u:tok-2 L=biology/of,
16:u:tok-1 L=danish,
18:u:tok-1LL=previous,
21:u:tok-1 R=meddelelser,
13:u:tok-1RR=fra,
28:u:tok-2 L=danish/experiments,
33:u:tok-2 R=experiments/meddelelser,
12:u:Suf-2 X=ri,
15:u:tok-1LL=serie,
17:u:tok-1 L=fiskeri,
17:u:tok-1 R=reitzel,
20:u:tok-1RR=københavn,
22:u:tok-2 L=fiskeri/c.a.,
22:u:tok-2 R=c.a./reitzel,
12:u:Suf-2 L=ri,
12:u:Suf-2 X=p>,
12:u:Suf-2 L=p>,
20:u:tok-1RR=d'histoire,
17:u:Tok-1 X=Muséum,
20:u:tok-1 R=d'histoire,
20:u:Tok-1 X=d'Histoire,
19:u:tok-1 X=dhistoire,
17:u:tok-1 L=muséum,
19:u:tok-1 X=naturelle,
17:u:tok-1LL=muséum,
20:u:tok-1 L=d'histoire,
20:u:tok-1LL=d'histoire,
16:u:tok-2 R=van/de,
16:u:tok-2 L=van/de,
22:u:tok-1 X=geschiedenis,
18:u:Tok-1 X=Martinus,
18:u:tok-1 X=martinus,
17:u:tok-1 L=limburg,
17:u:tok-1 R=nijhoff,
22:u:tok-1RR=s-gravenhage,
26:u:tok-2 L=limburg/martinus,
26:u:tok-2 R=martinus/nijhoff,
17:u:tok-1 L=foreign,
24:u:tok-2 L=foreign/london,
19:u:tok-2 R=london/60,
12:u:Suf-2 L=gn,
13:u:Pre-2 R=gé,
13:u:Pre-2 X=gé,
13:u:Tok-1 X=het,
13:u:tok-1 X=het,
13:u:tok-1 L=het,
13:u:tok-1LL=het,
21:u:tok-1 R=zoologische,
13:u:tok-1LL=och,
31:u:tok-1 L=vitterhets-samhälles,
17:u:tok-1 R=fjärde,
18:u:tok-1RR=följden,
42:u:tok-2 L=vitterhets-samhälles/handlingar,
28:u:tok-2 R=handlingar/fjärde,
12:u:Pre-2 R=Fj,
17:u:Tok-1 X=Nordsee,
17:u:tok-1 X=nordsee,
22:u:Tok-1 X=Mitteilungen,
22:u:tok-1 X=mitteilungen,
22:u:tok-1LL=benachbarten,
24:u:tok-1 L=meeresgebieten,
37:u:tok-2 L=meeresgebieten/mitteilungen,
26:u:tok-2 R=mitteilungen/aus,
24:u:tok-1LL=meeresgebieten,
22:u:tok-1 L=mitteilungen,
23:u:tok-1RR=hamburgischen,
26:u:tok-2 L=mitteilungen/aus,
22:u:tok-1LL=mitteilungen,
23:u:tok-1 R=hamburgischen,
23:u:tok-1RR=zoologi-schen,
27:u:tok-2 R=dem/hamburgischen,
19:u:tok-1LL=instituut,
15:u:Tok-1 X=Faune,
14:u:Tok-1 X=Ann.,
13:u:tok-1 X=ann,
16:u:Tok-1 X=Fourth,
16:u:tok-1 X=fourth,
14:u:tok-1 X=teil,
15:u:tok-1RR=flore,
18:u:tok-2 R=faune/et,
15:u:tok-1 R=flore,
18:u:tok-2 L=faune/et,
18:u:tok-2 R=et/flore,
15:u:Tok-1 X=flore,
15:u:tok-1 X=flore,
18:u:tok-2 L=et/flore,
18:u:tok-2 R=flore/de,
15:u:tok-1 L=flore,
25:u:tok-1RR=méditerranée:,
18:u:tok-2 L=flore/de,
15:u:tok-1LL=flore,
25:u:tok-1 R=méditerranée:,
28:u:tok-2 R=la/méditerranée:,
25:u:Tok-1 X=Méditerranée:,
22:u:tok-1 X=mediterranee,
28:u:tok-2 L=la/méditerranée:,
25:u:tok-1 L=méditerranée:,
25:u:tok-1LL=méditerranée:,
24:u:tok-1RR=méditerranée,
24:u:tok-1 R=méditerranée,
17:u:tok-1RR=1sheet,,
27:u:tok-2 R=la/méditerranée,
17:u:tok-1 R=1sheet,,
27:u:tok-2 L=la/méditerranée,
32:u:tok-2 R=méditerranée/1sheet,,
12:u:Pre-2 R=1s,
13:u:Suf-2 X=ée,
13:u:Suf-2 L=ée,
18:u:tok-1 R=tierwelt,
22:u:tok-2 R=die/tierwelt,
18:u:Tok-1 X=Tierwelt,
18:u:tok-1 X=tierwelt,
14:u:tok-1 X=nord,
12:u:Suf-2 X=d-,
12:u:Suf-2 L=d-,
15:u:tok-1RR=inst.,
15:u:tok-1 R=inst.,
19:u:Tok-1 X=Teleostei,
14:u:Tok-1 X=Nord,
22:u:tok-1 L=l'atlantique,
17:u:tok-1 R=conseil,
27:u:tok-2 L=l'atlantique/nord,
22:u:tok-2 R=nord/conseil,
17:u:Tok-1 X=Conseil,
17:u:tok-1 X=conseil,
22:u:tok-1LL=l'atlantique,
14:u:tok-1 L=nord,
22:u:tok-2 L=nord/conseil,
14:u:tok-1LL=nord,
17:u:tok-1 L=conseil,
23:u:Tok-1 X=l'Exploration,
22:u:tok-1 X=lexploration,
28:u:tok-2 L=pour/l'exploration,
26:u:tok-2 R=l'exploration/de,
20:u:tok-1 R=copenhagen,
20:u:Tok-1 X=Copenhagen,
20:u:tok-1 X=copenhagen,
20:u:tok-1 L=copenhagen,
15:u:tok-1 X=press,
17:u:tok-1RR=belgië,
17:u:tok-1 R=belgië,
21:u:tok-2 R=van/belgië,
17:u:Tok-1 X=België,
16:u:tok-1 X=belgie,
21:u:tok-2 L=van/belgië,
15:u:Lst-2 X=Ll/ë,
12:u:Suf-1 X=ë,
13:u:Suf-2 X=ië,
17:u:Tmn-3 X=none/ë,
17:u:tok-1 L=belgië,
15:u:Lst-2 L=Ll/ë,
13:u:Suf-2 L=ië,
17:u:tok-1LL=belgië,
12:u:tok-1RR=3.,
12:u:tok-1 R=3.,
12:u:Pre-2 R=3.,
12:u:tok-1 L=3.,
12:u:tok-1LL=3.,
19:u:tok-1RR=naturelle,
19:u:tok-1 R=naturelle,
30:u:tok-2 R=d'histoire/naturelle,
30:u:tok-2 L=d'histoire/naturelle,
19:u:tok-1 L=naturelle,
17:u:tok-2 R=van/het,
17:u:tok-2 L=van/het,
12:u:Suf-2 X=jk,
17:u:tok-1 L=pisces;,
27:u:tok-2 L=pisces;/teleostei,
25:u:tok-2 R=teleostei/faune,
12:u:Suf-2 L=s;,
17:u:tok-2 R=the/sea,
17:u:tok-2 L=the/sea,
20:u:Cap-2 L=_x-1/other,
20:u:Cap-3 L=_x-1/other,
23:u:Tok-1 X=Coleopterorum,
23:u:tok-1 X=coleopterorum,
22:u:tok-1LL=supplementum,
20:u:tok-1 R=catalogus.,
21:u:tok-1RR=supplementa,
26:u:tok-2 L=ii/coleopterorum,
34:u:tok-2 R=coleopterorum/catalogus.,
14:u:tok-1RR=junk,
14:u:tok-1 R=junk,
17:u:tok-2 R=w./junk,
14:u:Tok-1 X=Junk,
14:u:tok-1 X=junk,
17:u:tok-2 L=w./junk,
13:u:tok-1RR=zee,
13:u:tok-1 R=zee,
13:u:tok-1 X=zee,
13:u:tok-1 L=zee,
18:u:tok-1RR=oostende,
18:u:tok-1 R=oostende,
12:u:Pre-2 R=Oo,
18:u:Tok-1 X=Oostende,
18:u:tok-1 X=oostende,
12:u:Pre-2 X=Oo,
13:u:tok-1 X=mem,
12:u:Pre-2 X=Jr,
14:u:tok-1 X=port,
14:u:tok-1 L=port,
12:u:Suf-2 L=0.,
12:u:Pre-2 R=do,
15:u:tok-1RR=biol.,
12:u:Pre-2 X=do,
15:u:Tok-1 X=Biol.,
14:u:tok-1 X=biol,
18:u:tok-1RR=dodonaea,
15:u:Tok-1 X=Proc.,
14:u:tok-1 X=proc,
27:u:tok-1RR=meeresforschungen,
27:u:tok-1 R=meeresforschungen,
34:u:tok-2 R=kieler/meeresforschungen,
24:u:tok-1 R=internationaal,
17:u:tok-1RR=congres,
31:u:Num-2 R=numeric/closing-angle,
17:u:tok-1 X=congres,
19:u:tok-1 R=verslagen,
19:u:Tok-1 X=verslagen,
19:u:tok-1 X=verslagen,
18:u:tok-1 R=congrès,
13:u:Suf-2 X=ès,
12:u:tok-1LL=il,
14:u:Tok-1 X=Roma,
14:u:tok-1 X=roma,
15:u:tok-1LL=senza,
19:u:tok-1 L=saldatura,
24:u:tok-2 L=saldatura/roma,
19:u:tok-2 R=roma/_x+1,
21:u:tok-1 X=echinoderms,
12:u:Suf-2 X=ig,
12:u:Suf-2 L=ig,
19:u:tok-1 R=nationaal,
14:u:tok-1 R=gent,
14:u:Tok-1 X=Gent,
14:u:tok-1 X=gent,
14:u:tok-1 L=gent,
17:u:tok-1 R=liège,,
15:u:tok-1 X=liege,
12:u:Pre-2 R=ku,
14:u:tok-1 X=kust,
12:u:Pre-2 X=ku,
13:u:Tok-1 X=Het,
26:u:tok-2 R=muséum/national,
26:u:tok-2 L=muséum/national,
29:u:tok-2 R=national/d'histoire,
29:u:tok-2 L=national/d'histoire,
16:u:tok-1 R=série,
24:u:tok-1 R=verhandelingen,
24:u:Tok-1 X=Verhandelingen,
24:u:tok-1 X=verhandelingen,
28:u:tok-2 R=verhandelingen/van,
24:u:tok-1 L=verhandelingen,
28:u:tok-2 L=verhandelingen/van,
24:u:tok-1LL=verhandelingen,
15:u:tok-1 X=reeks,
19:u:Tok-1 X=d'Ostende,
18:u:tok-1 X=dostende,
18:u:Tok-1 X=Istanbul,
18:u:tok-1 X=istanbul,
12:u:Suf-2 X=ul,
14:u:tok-1LL=seri,
11:u:tok-1 L=b,
14:u:tok-1RR=1-29,
20:u:tok-2 L=b/istanbul,
20:u:tok-2 R=istanbul/8,
11:u:Suf-2 L=B,
21:u:tok-2 L=der/nordsee,
14:u:Lst-2 X=Ll/j,
11:u:Suf-1 X=j,
12:u:Suf-2 X=ij,
16:u:Tmn-3 X=none/j,
14:u:Lst-2 L=Ll/j,
12:u:Suf-2 L=ij,
14:u:tok-1 X=voor,
18:u:tok-1 R=zeepaard,
22:u:tok-2 R=het/zeepaard,
14:u:tok-1 R=acta,
18:u:Tok-1 X=Societas,
18:u:tok-1 X=societas,
17:u:tok-1 L=fennica,
13:u:tok-1 R=pro,
26:u:tok-2 L=fennica/societas,
22:u:tok-2 R=societas/pro,
13:u:Tok-1 X=pro,
13:u:tok-1 X=pro,
17:u:tok-1LL=fennica,
18:u:tok-1 L=societas,
22:u:tok-2 L=societas/pro,
19:u:tok-2 R=pro/fauna,
14:u:tok-1RR=1-64,
23:u:tok-2 L=flora/fennica,
20:u:tok-2 R=fennica/50,
12:u:Pre-2 R=Fy,
16:u:tok-1 X=office,
22:u:tok-1RR=sous-marines,
22:u:tok-1 R=sous-marines,
22:u:Tok-1 X=sous-marines,
21:u:tok-1 X=sousmarines,
25:u:tok-2 R=sous-marines/de,
22:u:tok-1 L=sous-marines,
25:u:tok-2 L=sous-marines/de,
22:u:tok-1LL=sous-marines,
14:u:tok-1RR=voor,
14:u:tok-1 R=voor,
24:u:tok-2 R=instituut/voor,
14:u:Tok-1 X=voor,
29:u:tok-1 X=natuurwetenschappen,
14:u:tok-1 L=voor,
19:u:Tok-1 X=Bruxelles,
13:u:Lst-2 X=P/",
11:u:Suf-1 X=",
20:u:Tmn-3 X=moderate/",
13:u:Lst-2 L=P/",
22:u:tok-1 R=interscience,
20:u:tok-1 R=publishers,
20:u:tok-1 X=publishers,
20:u:tok-1 L=publishers,
12:u:tok-1 L=te,
12:u:tok-1LL=te,
15:u:Tok-1 X=Reeks,
20:u:tok-1LL=rotterdams,
20:u:tok-1 L=jaarboekje,
12:u:tok-1 R=v,,
14:u:tok-1RR=jrg.,
26:u:tok-2 L=jaarboekje/reeks,
18:u:tok-2 R=reeks/v,,
12:u:Pre-2 R=V,,
12:u:Suf-2 L=je,
14:u:Tok-1 X=Jrg.,
13:u:tok-1 X=jrg,
15:u:tok-1LL=reeks,
12:u:tok-1 L=v,,
17:u:tok-1RR=208-214,
17:u:tok-2 L=v,/jrg.,
16:u:tok-2 R=jrg./8,
19:u:tok-1 R=brussels,,
17:u:tok-1RR=belgium,
17:u:tok-1LL=states,,
20:u:tok-1RR=publishing,
20:u:tok-1 R=publishing,
14:u:tok-1LL=1954,
23:u:tok-1 X=investigacion,
12:u:Suf-2 X=eo,
17:u:tok-1LL=council,
15:u:tok-1LL=d'eau,
20:u:tok-1RR=hydraulics,
20:u:tok-1 L=hydraulics,
15:*:Num-1 L=idnum,
16:u:Tok-1 X=Fiches,
16:u:tok-1 X=fiches,
26:u:tok-1 R=d'identification,
33:u:tok-2 R=fiches/d'identification,
26:u:Tok-1 X=d'identification,
25:u:tok-1 X=didentification,
16:u:tok-1 L=fiches,
21:u:tok-1RR=zooplancton,
33:u:tok-2 L=fiches/d'identification,
29:u:tok-2 R=d'identification/du,
16:u:tok-1LL=fiches,
26:u:tok-1 L=d'identification,
21:u:tok-1 R=zooplancton,
29:u:tok-2 L=d'identification/du,
24:u:tok-2 R=du/zooplancton,
21:u:Tok-1 X=zooplancton,
21:u:tok-1 X=zooplancton,
26:u:tok-1LL=d'identification,
24:u:tok-2 L=du/zooplancton,
26:u:tok-2 R=zooplancton/ices,
21:u:tok-1 L=zooplancton,
26:u:tok-2 L=zooplancton/ices,
25:u:tok-2 R=ices/copenhagen,
19:u:tok-1RR=besluiten,
19:u:tok-1 R=besluiten,
22:u:tok-2 R=en/besluiten,
19:u:Tok-1 X=besluiten,
19:u:tok-1 X=besluiten,
22:u:tok-2 L=en/besluiten,
15:u:Tok-1 X=Third,
15:u:tok-1 X=third,
11:u:tok-1RR=e,
11:u:tok-1 R=e,
11:u:tok-1LL=e,
14:u:tok-1 X=zwin,
11:u:Tok-1 X=W,
16:u:tok-1LL=brugge,
14:u:tok-2 L=23/w,
16:u:tok-2 R=w/gent,
11:u:Pre-2 X=W,
11:u:Suf-2 X=W,
35:u:tok-2 L=indo-pacific/indo-pacific,
31:u:tok-2 R=indo-pacific/mollusca,
11:u:Pre-2 R=e,
11:u:Tok-1 X=e,
11:u:Pre-2 X=e,
11:u:Suf-2 X=e,
11:u:Suf-2 L=e,
14:u:tok-1 R=mem.,
21:u:tok-1RR=geologische,
15:u:tok-1 R=geol.,
17:u:tok-1RR=control,
19:u:tok-1 R=belgische,
19:u:Tok-1 X=Belgische,
19:u:tok-1 X=belgische,
19:u:tok-1 L=belgische,
15:u:tok-1LL=kust:,
19:u:tok-1 L=malediven,
14:u:tok-1 R=afr.,
17:u:tok-2 R=s./afr.,
12:u:Pre-2 X=Ou,
18:u:tok-1 R=elsevier,
17:u:tok-1RR=brussel,
18:u:Tok-1 X=Elsevier,
18:u:tok-1 X=elsevier,
17:u:tok-1 R=brussel,
18:u:tok-1 L=elsevier,
17:u:tok-1 L=ulvales,
22:u:tok-1RR=capsosiphon,,
22:u:tok-2 L=ulvales/part,
17:u:tok-1LL=ulvales,
22:u:tok-1 R=capsosiphon,,
22:u:tok-1RR=percursaria,,
25:u:tok-2 R=i./capsosiphon,,
19:u:tok-1RR=institute,
14:u:tok-1RR=deel,
14:u:tok-1 R=deel,
12:u:Suf-2 X=k:,
14:u:tok-1 X=deel,
12:u:Suf-2 L=k:,
14:u:tok-1 L=deel,
22:u:Tok-1 X=Meettechniek,
22:u:tok-1 X=meettechniek,
14:u:tok-1LL=deel,
18:u:tok-1 R=[cursus],
25:u:tok-2 L=i./meettechniek,
31:u:tok-2 R=meettechniek/[cursus],
18:u:Tok-1 X=[CURSUS],
16:u:tok-1 X=cursus,
22:u:tok-1 L=meettechniek,
31:u:tok-2 L=meettechniek/[cursus],
21:u:tok-2 R=[cursus]/52,
12:u:Suf-2 X=S],
16:u:tok-1RR=dienst,
16:u:Tok-1 X=Dienst,
16:u:tok-1 X=dienst,
16:u:tok-1 L=dienst,
16:u:tok-1LL=dienst,
17:u:tok-1LL=service,
19:u:Tok-1 X=1863-1963,
18:u:tok-1 X=18631963,
20:u:tok-1 L=marchande?,
14:u:tok-1RR=vrij,
30:u:tok-2 L=marchande?/1863-1963,
27:u:tok-2 R=1863-1963/schelde,
19:u:tok-1 L=1863-1963,
19:u:tok-1LL=1863-1963,
20:u:tok-1RR=ministerie,
20:u:tok-1 R=ministerie,
20:u:Tok-1 X=Ministerie,
20:u:tok-1 X=ministerie,
24:u:tok-2 R=ministerie/van,
20:u:tok-1 L=ministerie,
24:u:tok-2 L=ministerie/van,
20:u:tok-1LL=ministerie,
18:u:tok-1 R=bijlages,
24:u:tok-2 L=port/d'ostende,
28:u:tok-2 R=d'ostende/bijlages,
18:u:tok-1 R=veröff.,
21:u:Tok-1 X=Cullercoats,
21:u:tok-1 X=cullercoats,
19:u:tok-1 R=district.,
25:u:tok-2 L=the/cullercoats,
31:u:tok-2 R=cullercoats/district.,
19:u:Tok-1 X=district.,
18:u:tok-1 X=district,
21:u:tok-1 L=cullercoats,
31:u:tok-2 L=cullercoats/district.,
21:u:tok-1LL=cullercoats,
19:u:tok-1 L=district.,
21:u:tok-2 R=district./4,
21:u:tok-2 L=district./4,
18:u:tok-2 R=4/report,
19:u:Tok-1 X=Estuaries,
19:u:tok-1 X=estuaries,
15:u:tok-1 L=swamp,
25:u:tok-2 L=swamp/estuaries,
28:u:tok-2 R=estuaries/american,
20:u:tok-1 R=bollettino,
20:u:Tok-1 X=Bollettino,
20:u:tok-1 X=bollettino,
22:u:Tok-1 X=Mediterraneo,
22:u:tok-1 X=mediterraneo,
19:u:tok-1RR=barcelona,
12:u:Tok-1 X=WL,
12:u:tok-1 X=wl,
19:u:tok-1 R=rapporten,
25:u:tok-1RR=waterbouwkundig,
22:u:tok-2 R=wl/rapporten,
12:u:Pre-2 X=WL,
12:u:Suf-2 X=WL,
19:u:Tok-1 X=Rapporten,
19:u:tok-1 X=rapporten,
12:u:tok-1 L=wl,
25:u:tok-1 R=waterbouwkundig,
22:u:tok-1RR=laboratorium,
22:u:tok-2 L=wl/rapporten,
35:u:tok-2 R=rapporten/waterbouwkundig,
12:u:Suf-2 L=WL,
12:u:tok-1LL=wl,
22:u:tok-1 R=laboratorium,
19:u:tok-1RR=antwerpen,
22:u:Tok-1 X=Laboratorium,
22:u:tok-1 X=laboratorium,
19:u:tok-1 R=antwerpen,
22:u:tok-1 L=laboratorium,
22:u:tok-1LL=laboratorium,
18:u:Tok-1 X=national,
18:u:tok-2 R=paris/40,
21:u:tok-1 X=scandinavia,
18:u:tok-1 L=honolulu,
25:u:tok-2 L=honolulu/united,
12:u:Suf-2 L=lu,
20:u:tok-1RR=department,
20:u:tok-1 R=department,
20:u:Tok-1 X=Department,
20:u:tok-1 X=department,
23:u:tok-2 R=department/of,
20:u:tok-1 L=department,
23:u:tok-2 L=department/of,
20:u:tok-1LL=department,
14:u:Tok-1 X=D.C.,
12:u:tok-1 X=dc,
20:u:tok-1 L=washington,
25:u:tok-2 L=washington/d.c.,
19:u:Tok-1 X=Exercices,
19:u:tok-1 X=exercices,
20:u:tok-1 L=processus.,
19:u:tok-1RR=solutions,
30:u:tok-2 L=processus./exercices,
22:u:tok-2 R=exercices/et,
20:u:tok-1LL=processus.,
19:u:tok-1 L=exercices,
19:u:tok-1 R=solutions,
18:u:tok-1RR=eyrolles,
22:u:tok-2 L=exercices/et,
22:u:tok-2 R=et/solutions,
19:u:Tok-1 X=solutions,
19:u:tok-1 X=solutions,
19:u:tok-1LL=exercices,
18:u:tok-1 R=eyrolles,
22:u:tok-2 L=et/solutions,
28:u:tok-2 R=solutions/eyrolles,
12:u:Pre-2 R=Ey,
20:u:tok-1 L=navigation,
19:u:tok-1RR=colloques,
19:u:tok-1 R=colloques,
19:u:tok-1 X=colloques,
19:u:tok-1 L=colloques,
19:u:tok-1LL=colloques,
16:u:tok-1 R=liège,
16:u:tok-1 L=liège,
16:u:tok-1RR=studie,
17:u:tok-1 L=rapport,
22:u:tok-1RR=universiteit,
22:u:tok-1 R=universiteit,
22:u:Tok-1 X=Universiteit,
22:u:tok-1 X=universiteit,
16:u:tok-1 X=leuven,
22:u:tok-1 L=universiteit,
15:u:tok-2 R=1/map,
23:u:tok-1 L=métamorphose,
30:u:tok-2 L=métamorphose/fourth,
25:u:tok-2 R=fourth/european,
19:u:tok-1RR=symposium,
19:u:tok-1 X=symposium,
15:u:tok-1 L=leven,
17:u:tok-1 R=dieren:,
22:u:tok-1RR=encyclopedie,
19:u:tok-2 L=leven/der,
21:u:tok-2 R=der/dieren:,
17:u:Tok-1 X=dieren:,
16:u:tok-1 X=dieren,
15:u:tok-1LL=leven,
22:u:tok-1 R=encyclopedie,
21:u:tok-2 L=der/dieren:,
30:u:tok-2 R=dieren:/encyclopedie,
22:u:Tok-1 X=encyclopedie,
17:u:tok-1 L=dieren:,
30:u:tok-2 L=dieren:/encyclopedie,
26:u:tok-2 R=encyclopedie/van,
17:u:tok-1LL=dieren:,
22:u:tok-1 L=encyclopedie,
26:u:tok-2 L=encyclopedie/van,
20:u:tok-1 X=dierenrijk,
24:u:tok-1 L=stekelhuidigen,
28:u:tok-2 L=stekelhuidigen/het,
24:u:tok-1LL=stekelhuidigen,
20:u:tok-1RR=dierenrijk,
20:u:tok-1 R=dierenrijk,
15:u:tok-1RR=47-49,
24:u:tok-2 R=het/dierenrijk,
20:u:Tok-1 X=dierenrijk,
15:u:tok-1 R=47-49,
24:u:tok-2 L=het/dierenrijk,
26:u:tok-2 R=dierenrijk/47-49,
18:u:Tok-1 X=Synopses,
18:u:tok-1 X=synopses,
21:u:tok-2 R=synopses/of,
18:u:tok-1 L=synopses,
21:u:tok-2 L=synopses/of,
18:u:tok-1LL=synopses,
18:u:Tok-1 X=Academic,
18:u:tok-1 X=academic,
15:u:tok-1 R=press,
24:u:tok-2 R=academic/press,
15:u:Tok-1 X=Press,
18:u:tok-1 L=academic,
24:u:tok-2 L=academic/press,
20:u:tok-1 R=mikrofauna,
20:u:Tok-1 X=Mikrofauna,
20:u:tok-1 X=mikrofauna,
22:u:tok-1 R=meeresbodens,
20:u:tok-1RR=colloquium,
20:u:tok-1 R=colloquium,
27:u:tok-2 R=liège/colloquium,
20:u:tok-1 X=colloquium,
27:u:tok-2 L=liège/colloquium,
23:u:tok-2 R=colloquium/on,
16:u:tok-1LL=liège,
20:u:tok-1 L=colloquium,
23:u:tok-2 L=colloquium/on,
18:u:tok-2 R=on/ocean,
20:u:tok-1LL=colloquium,
18:u:tok-2 L=on/ocean,
23:u:tok-1 X=hydrodynamics,
19:u:tok-1 R=amsterdam,
28:u:tok-2 R=elsevier/amsterdam,
19:u:Tok-1 X=Amsterdam,
19:u:tok-1 X=amsterdam,
28:u:tok-2 L=elsevier/amsterdam,
18:u:tok-1 L=c.i.p.s.,
15:u:tok-1RR=pag.],
12:u:Pre-2 R=ee,
12:u:Pre-2 X=ee,
14:u:Tok-1 X=NOAA,
19:u:tok-2 L=1972/noaa,
22:u:tok-2 R=noaa/current,
12:u:Suf-2 X=AA,
14:u:tok-1 L=noaa,
20:u:tok-1RR=statistics,
22:u:tok-2 L=noaa/current,
25:u:tok-2 R=current/fishery,
12:u:Suf-2 L=AA,
22:u:Tok-1 X=Metropolitan,
22:u:tok-1 X=metropolitan,
18:u:tok-1LL=bankside,
17:u:tok-1 L=storage,
30:u:tok-2 L=storage/metropolitan,
28:u:tok-2 R=metropolitan/water,
22:u:tok-1RR=mededelingen,
22:u:tok-1 R=mededelingen,
22:u:Tok-1 X=Mededelingen,
22:u:tok-1 X=mededelingen,
22:u:tok-1 L=mededelingen,
22:u:tok-1LL=mededelingen,
18:u:tok-1 R=neptunus,
18:u:Tok-1 X=Neptunus,
18:u:tok-1 X=neptunus,
18:u:tok-1RR=neptunus,
18:u:tok-1 L=neptunus,
18:u:tok-1LL=neptunus,
21:u:tok-1 R=(zeebrugge),
30:u:tok-2 R=neptunus/(zeebrugge),
16:*:Num-1 L=volume,
21:u:Tok-1 X=(Zeebrugge),
15:u:tok-1RR=(vzw),
30:u:tok-2 L=neptunus/(zeebrugge),
30:u:tok-2 R=(zeebrugge)/neptunus,
15:u:tok-1 R=kaart,
15:u:tok-1 X=kaart,
15:u:tok-1 L=kaart,
15:u:tok-1LL=kaart,
19:u:tok-2 R=belgië/=,
19:u:tok-2 L=belgië/=,
21:u:tok-2 L=la/belgique,
28:u:tok-2 R=belgique/belgische,
13:u:tok-1 R=een,
13:u:Tok-1 X=een,
13:u:tok-1 X=een,
19:u:Tok-1 X=Maritieme,
19:u:tok-1 X=maritieme,
32:u:tok-2 R=maritieme/geschiedenis,
19:u:tok-1 L=maritieme,
22:u:tok-1RR=nederlanden:,
32:u:tok-2 L=maritieme/geschiedenis,
26:u:tok-2 R=geschiedenis/der,
19:u:tok-1LL=maritieme,
22:u:tok-1 R=nederlanden:,
26:u:tok-2 L=geschiedenis/der,
26:u:tok-2 R=der/nederlanden:,
17:u:tok-1 R=thesis.,
12:u:Suf-2 X=Sc,
16:u:Key-1 R=thesis,
21:u:Tmn-2 R=none/thesis,
19:u:tok-1 R=faculteit,
19:u:tok-1 L=faculteit,
23:u:tok-1 L=sedimentation,
33:u:tok-2 L=sedimentation/estuarine,
29:u:tok-2 R=estuarine/pollution,
25:u:Tok-1 X=IZWO-programma:,
23:u:tok-1 X=izwoprogramma,
22:u:tok-1 R=fundamentele,
33:u:tok-2 L=spuikom/izwo-programma:,
38:u:tok-2 R=izwo-programma:/fundamentele,
22:u:Tok-1 X=fundamentele,
22:u:tok-1 X=fundamentele,
25:u:tok-1 L=izwo-programma:,
38:u:tok-2 L=izwo-programma:/fundamentele,
29:u:tok-2 R=fundamentele/studie,
16:u:Tok-1 X=studie,
25:u:tok-1LL=izwo-programma:,
22:u:tok-1 L=fundamentele,
18:u:tok-1RR=bepaalde,
29:u:tok-2 L=fundamentele/studie,
22:u:tok-1LL=fundamentele,
18:u:tok-1 R=bepaalde,
20:u:tok-1RR=abiotische,
22:u:tok-2 R=van/bepaalde,
18:u:Tok-1 X=bepaalde,
18:u:tok-1 X=bepaalde,
20:u:tok-1 R=abiotische,
22:u:tok-2 L=van/bepaalde,
29:u:tok-2 R=bepaalde/abiotische,
20:u:Tok-1 X=abiotische,
20:u:tok-1 X=abiotische,
18:u:tok-1 L=bepaalde,
19:u:tok-1RR=biotische,
29:u:tok-2 L=bepaalde/abiotische,
23:u:tok-2 R=abiotische/en,
18:u:tok-1LL=bepaalde,
20:u:tok-1 L=abiotische,
19:u:tok-1 R=biotische,
21:u:tok-1RR=componenten,
23:u:tok-2 L=abiotische/en,
22:u:tok-2 R=en/biotische,
16:u:tok-1LL=marien,
21:u:tok-1 L=ecosysteem,,
24:u:tok-2 L=ecosysteem,/de,
22:u:tok-2 R=de/oostendse,
21:u:tok-1LL=ecosysteem,,
22:u:tok-2 L=de/oostendse,
27:u:tok-2 R=oostendse/spuikom,
19:u:tok-1 L=oostendse,
14:u:tok-1 R=izwo,
27:u:tok-2 L=oostendse/spuikom,
22:u:tok-2 R=spuikom/izwo,
23:u:tok-1 R=shallow-water,
23:u:Tok-1 X=shallow-water,
22:u:tok-1 X=shallowwater,
23:u:tok-1 L=shallow-water,
20:u:Tok-1 X=Iheringia.,
19:u:tok-1 X=iheringia,
18:u:tok-1RR=zoologia,
27:u:tok-2 R=iheringia./série,
12:u:Pre-2 X=Ih,
18:u:tok-1RR=animalia,
18:u:tok-1 R=animalia,
18:u:tok-1LL=xiiième,
17:u:tok-1 L=siècle,
14:u:tok-1 R=amis,
21:u:tok-2 L=siècle/les,
18:u:tok-2 R=les/amis,
17:u:tok-1 R=working,
17:u:tok-1LL=working,
15:u:tok-1 L=paper,
18:u:tok-2 L=paper/21,
17:u:tok-2 R=21/_x+1,
16:u:tok-1 R=cybium,
14:u:tok-1 R=cah.,
22:u:tok-1RR=malacologico,
22:u:tok-1 R=malacologico,
33:u:tok-2 R=bollettino/malacologico,
19:u:tok-2 L=ocean/new,
23:u:Tok-1 X=Poljoprivreda,
23:u:tok-1 X=poljoprivreda,
20:u:tok-1RR=sumarstvo,,
30:u:tok-2 L=genera/poljoprivreda,
25:u:tok-2 R=poljoprivreda/i,
15:u:tok-1RR=delft,
15:u:tok-1 R=delft,
15:u:tok-1LL=delft,
25:u:Tok-1 X=Waterloopkundig,
25:u:tok-1 X=waterloopkundig,
38:u:tok-2 R=waterloopkundig/laboratorium,
25:u:tok-1LL=waterloopkundig,
14:u:tok-1RR=(wl),
38:u:tok-2 L=laboratorium/waterloopkundig,
12:u:Suf-2 X=L),
19:u:tok-1 R=antwerpse,
21:u:tok-1RR=zeediensten,
26:u:tok-2 L=species/synopses,
18:u:Tok-1 X=<i>Amoco,
16:u:tok-1 X=iamoco,
20:u:tok-1LL=l'<i>amoco,
19:u:tok-1 L=cadiz</i>,
20:u:tok-1 R=cadiz</i>:,
15:u:tok-1RR=fates,
28:u:tok-2 L=cadiz</i>/<i>amoco,
29:u:tok-2 R=<i>amoco/cadiz</i>:,
20:u:tok-1RR=symposium.,
20:u:tok-1 R=symposium.,
15:u:Tok-1 X=Guide,
15:u:tok-1 X=guide,
21:u:tok-1 L=serpuloidei,
27:u:tok-2 L=serpuloidei/guide,
19:u:tok-2 R=guide/per,
21:u:tok-1LL=serpuloidei,
15:u:tok-1 L=guide,
24:u:tok-1RR=riconoscimento,
19:u:tok-2 L=guide/per,
15:u:tok-1LL=guide,
24:u:tok-1 R=riconoscimento,
15:u:tok-1RR=delle,
27:u:tok-2 R=il/riconoscimento,
24:u:Tok-1 X=riconoscimento,
24:u:tok-1 X=riconoscimento,
15:u:tok-1 R=delle,
16:u:tok-1RR=specie,
27:u:tok-2 L=il/riconoscimento,
30:u:tok-2 R=riconoscimento/delle,
15:u:Tok-1 X=delle,
15:u:tok-1 X=delle,
24:u:tok-1 L=riconoscimento,
16:u:tok-1 R=specie,
17:u:tok-1RR=animali,
30:u:tok-2 L=riconoscimento/delle,
22:u:tok-2 R=delle/specie,
16:u:Tok-1 X=specie,
16:u:tok-1 X=specie,
24:u:tok-1LL=riconoscimento,
15:u:tok-1 L=delle,
17:u:tok-1 R=animali,
22:u:tok-2 L=delle/specie,
24:u:tok-2 R=specie/animali,
17:u:Tok-1 X=animali,
17:u:tok-1 X=animali,
15:u:tok-1LL=delle,
16:u:tok-1 L=specie,
15:u:tok-1RR=acque,
24:u:tok-2 L=specie/animali,
23:u:tok-2 R=animali/delle,
16:u:tok-1LL=specie,
17:u:tok-1 L=animali,
15:u:tok-1 R=acque,
18:u:tok-1RR=lagunari,
23:u:tok-2 L=animali/delle,
21:u:tok-2 R=delle/acque,
15:u:Tok-1 X=acque,
15:u:tok-1 X=acque,
17:u:tok-1LL=animali,
18:u:tok-1 R=lagunari,
21:u:tok-2 L=delle/acque,
24:u:tok-2 R=acque/lagunari,
18:u:Tok-1 X=lagunari,
18:u:tok-1 X=lagunari,
15:u:tok-1 L=acque,
18:u:tok-1RR=costiere,
24:u:tok-2 L=acque/lagunari,
20:u:tok-2 R=lagunari/e,
15:u:tok-1LL=acque,
18:u:tok-1 L=lagunari,
18:u:tok-1 R=costiere,
18:u:tok-1RR=italiane,
20:u:tok-2 L=lagunari/e,
20:u:tok-2 R=e/costiere,
18:u:Tok-1 X=costiere,
18:u:tok-1 X=costiere,
18:u:tok-1LL=lagunari,
18:u:tok-1 R=italiane,
19:u:tok-1RR=consiglio,
20:u:tok-2 L=e/costiere,
27:u:tok-2 R=costiere/italiane,
18:u:Tok-1 X=italiane,
18:u:tok-1 X=italiane,
18:u:tok-1 L=costiere,
19:u:tok-1 R=consiglio,
19:u:tok-1RR=nazionale,
27:u:tok-2 L=costiere/italiane,
28:u:tok-2 R=italiane/consiglio,
19:u:Tok-1 X=Consiglio,
19:u:tok-1 X=consiglio,
18:u:tok-1LL=costiere,
18:u:tok-1 L=italiane,
19:u:tok-1 R=nazionale,
28:u:tok-2 L=italiane/consiglio,
29:u:tok-2 R=consiglio/nazionale,
12:u:Suf-2 L=1:,
15:u:Tok-1 X=ocean,
15:u:tok-1LL=lindi,
22:u:tok-1RR=hydrographic,
17:u:tok-2 L=bay/the,
18:u:Tok-1 X=Taunton,,
17:u:tok-1 X=taunton,
22:u:tok-1LL=hydrographic,
17:u:tok-1 L=office,,
18:u:tok-1 R=somerset,
13:u:tok-1RR=ta1,
26:u:tok-2 L=office,/taunton,,
27:u:tok-2 R=taunton,/somerset,
18:u:Tok-1 X=Somerset,
18:u:tok-1 X=somerset,
17:u:tok-1LL=office,,
18:u:tok-1 L=taunton,,
13:u:tok-1 R=ta1,
14:u:tok-1RR=2dn,,
27:u:tok-2 L=taunton,/somerset,
22:u:tok-2 R=somerset/ta1,
12:u:Pre-2 R=TA,
14:u:tok-1RR=naar,
17:u:tok-1RR=verkeer,
17:u:tok-1 R=verkeer,
21:u:tok-2 R=van/verkeer,
17:u:Tok-1 X=Verkeer,
17:u:tok-1 X=verkeer,
21:u:tok-1RR=waterstaat,,
21:u:tok-2 L=van/verkeer,
20:u:tok-2 R=verkeer/en,
17:u:tok-1 L=verkeer,
21:u:tok-1 R=waterstaat,,
20:u:tok-2 L=verkeer/en,
24:u:tok-2 R=en/waterstaat,,
21:u:Tok-1 X=Waterstaat,,
20:u:tok-1 X=waterstaat,
17:u:tok-1LL=verkeer,
24:u:tok-2 L=en/waterstaat,,
25:u:Tok-1 X=Beneden-Schelde,
24:u:tok-1 X=benedenschelde,
28:u:tok-2 L=de/beneden-schelde,
30:u:tok-2 R=beneden-schelde/_x+1,
26:u:tok-2 L=navigation/pianc,
22:u:tok-2 R=pianc/report,
18:u:Tok-1 X=Scottish,
18:u:tok-1 X=scottish,
18:u:tok-1LL=acoustic,
17:u:tok-1 L=surveys,
26:u:tok-2 L=surveys/scottish,
28:u:tok-2 R=scottish/fisheries,
19:u:tok-1RR=campagnes,
24:u:tok-2 R=résultats/des,
19:u:tok-1 R=campagnes,
19:u:tok-1RR=musorstom,
24:u:tok-2 L=résultats/des,
23:u:tok-2 R=des/campagnes,
19:u:Tok-1 X=Campagnes,
19:u:tok-1 X=campagnes,
19:u:tok-1 R=musorstom,
23:u:tok-2 L=des/campagnes,
29:u:tok-2 R=campagnes/musorstom,
12:u:Pre-2 R=MU,
19:u:Tok-1 X=MUSORSTOM,
19:u:tok-1 X=musorstom,
19:u:tok-1 L=campagnes,
29:u:tok-2 L=campagnes/musorstom,
14:u:Lst-2 X=Lu/M,
12:u:Pre-2 X=MU,
11:u:Suf-1 X=M,
12:u:Suf-2 X=OM,
16:u:Tmn-3 X=none/M,
19:u:tok-1LL=campagnes,
19:u:tok-1 L=musorstom,
14:u:Lst-2 L=Lu/M,
12:u:Suf-2 L=OM,
17:u:tok-1LL=venezia,
23:u:tok-1RR=haplosclerida,
23:u:tok-1 R=haplosclerida,
37:u:tok-2 R=shallow-water/haplosclerida,
23:u:Tok-1 X=Haplosclerida,
23:u:tok-1 X=haplosclerida,
37:u:tok-2 L=shallow-water/haplosclerida,
34:u:tok-2 R=haplosclerida/(porifera,,
17:u:Tok-1 X=Somalie,
17:u:tok-1 X=somalie,
18:u:tok-1RR=roumaine,
20:u:tok-2 L=la/somalie,
23:u:tok-2 R=somalie/revue,
20:u:tok-1 R=conchiglia,
23:u:tok-2 R=la/conchiglia,
23:u:Tok-1 X=Invertebrates,
15:u:tok-1 R=immel,
27:u:tok-2 L=sea/invertebrates,
29:u:tok-2 R=invertebrates/immel,
29:u:Tok-1 X=Natuurwetenschappen,
34:u:tok-2 L=voor/natuurwetenschappen,
39:u:tok-2 R=natuurwetenschappen/brussels,,
19:u:tok-1RR=strandvlo,
26:u:tok-1 R=studiedocumenten,
35:u:tok-2 R=belgique/studiedocumenten,
19:u:tok-1 R=documents,
20:u:tok-1 L=particular,
24:u:tok-2 L=particular/the,
27:u:tok-2 R=the/shallow-water,
20:u:tok-1LL=particular,
27:u:tok-2 L=the/shallow-water,
23:u:tok-1RR=demospongiae),
15:u:tok-1RR=april,
15:u:tok-1 R=april,
15:u:tok-1 X=april,
15:u:tok-1 L=april,
15:u:tok-1LL=april,
20:u:Tok-1 X=Echinoderm,
20:u:tok-1 X=echinoderm,
21:u:tok-1LL=notomyotida,
20:u:tok-1 L=echinoderm,
17:u:tok-1RR=225-347,
28:u:tok-2 L=echinoderm/studies,
19:u:tok-2 R=studies/3,
19:u:Tok-1 X=Countries,
19:u:tok-1 X=countries,
13:u:tok-1 L=low,
16:u:tok-1 R=meded.,
16:u:tok-1RR=(rijks,
23:u:tok-2 L=low/countries,
26:u:tok-2 R=countries/meded.,
17:u:tok-1 X=verslag,
14:u:Tok-1 X=GWAO,
14:u:tok-1 X=gwao,
17:u:tok-1 L=notitie,
22:u:tok-2 L=notitie/gwao,
25:u:tok-2 R=gwao/ministerie,
12:u:Pre-2 X=GW,
12:u:Suf-2 X=AO,
14:u:Tok-1 X=COST,
14:u:tok-1 X=cost,
19:u:tok-2 L=1989/cost,
14:u:Lst-2 X=Lu/T,
12:u:Pre-2 X=CO,
11:u:Suf-1 X=T,
12:u:Suf-2 X=ST,
16:u:Tmn-3 X=none/T,
13:u:tok-1 R=48.,
20:u:tok-1RR=commission,
18:u:tok-2 R=cost/48.,
18:u:Tok-1 X=XXXIXste,
18:u:tok-1 X=xxxixste,
14:u:tok-1 L=n.v.,
28:u:tok-1 R=post-universitaire,
23:u:tok-1RR=onderwijsdag:,
23:u:tok-2 L=n.v./xxxixste,
37:u:tok-2 R=xxxixste/post-universitaire,
28:u:Tok-1 X=Post-universitaire,
27:u:tok-1 X=postuniversitaire,
14:u:tok-1LL=n.v.,
18:u:tok-1 L=xxxixste,
23:u:tok-1 R=onderwijsdag:,
23:u:tok-1RR=perspektieven,
37:u:tok-2 L=xxxixste/post-universitaire,
42:u:tok-2 R=post-universitaire/onderwijsdag:,
23:u:Tok-1 X=onderwijsdag:,
22:u:tok-1 X=onderwijsdag,
18:u:tok-1LL=xxxixste,
28:u:tok-1 L=post-universitaire,
23:u:tok-1 R=perspektieven,
42:u:tok-2 L=post-universitaire/onderwijsdag:,
37:u:tok-2 R=onderwijsdag:/perspektieven,
23:u:Tok-1 X=perspektieven,
23:u:tok-1 X=perspektieven,
28:u:tok-1LL=post-universitaire,
23:u:tok-1 L=onderwijsdag:,
37:u:tok-2 L=onderwijsdag:/perspektieven,
27:u:tok-2 R=perspektieven/van,
23:u:tok-1LL=onderwijsdag:,
23:u:tok-1 L=perspektieven,
21:u:tok-1RR=aquacultuur,
27:u:tok-2 L=perspektieven/van,
23:u:tok-1LL=perspektieven,
21:u:tok-1 R=aquacultuur,
24:u:tok-2 R=de/aquacultuur,
21:u:Tok-1 X=aquacultuur,
21:u:tok-1 X=aquacultuur,
24:u:tok-2 L=de/aquacultuur,
36:u:tok-2 R=aquacultuur/verhandelingen,
21:u:tok-1 L=aquacultuur,
36:u:tok-2 L=aquacultuur/verhandelingen,
21:u:tok-1LL=aquacultuur,
15:u:Tok-1 X=Land-,
32:u:tok-1RR=tuinbouwwetenschappen,,
25:u:tok-2 L=faculteit/land-,
18:u:tok-2 R=land-/en,
32:u:Tok-1 X=Tuinbouwwetenschappen,,
31:u:tok-1 X=tuinbouwwetenschappen,
15:u:tok-1LL=land-,
35:u:tok-2 L=en/tuinbouwwetenschappen,,
45:u:tok-2 R=tuinbouwwetenschappen,/universiteit,
32:u:tok-1 L=tuinbouwwetenschappen,,
15:u:tok-1RR=48-52,
45:u:tok-2 L=tuinbouwwetenschappen,/universiteit,
27:u:tok-2 R=universiteit/gent,
32:u:tok-1LL=tuinbouwwetenschappen,,
15:u:tok-1 R=48-52,
27:u:tok-2 L=universiteit/gent,
20:u:tok-2 R=gent/48-52,
18:u:Tok-1 X=Yearbook,
18:u:tok-1 X=yearbook,
24:u:tok-2 L=ocean/yearbook,
29:u:tok-2 R=yearbook/university,
19:u:Num-2 R=isbn/none,
14:*:Num-1 L=isbn,
15:u:Tok-1 X=Larvi,
15:u:tok-1 X=larvi,
23:u:tok-1LL=developmental,
16:u:tok-1 L=stages,
14:u:tok-1 R='91.,
22:u:tok-2 L=stages/larvi,
20:u:tok-2 R=larvi/'91.,
12:u:Pre-2 R='9,
16:u:Tok-1 X=Kanaal,
16:u:tok-1 X=kanaal,
19:u:tok-1LL=terneuzen,
21:u:tok-2 L=1991/kanaal,
20:u:tok-2 R=kanaal/van,
16:u:tok-1 L=kanaal,
20:u:tok-2 L=kanaal/van,
18:u:tok-2 R=van/gent,
21:u:tok-1LL=exploration,
18:u:tok-2 R=the/sea),
18:u:tok-2 L=the/sea),
12:u:tok-1RR=x,,
16:u:Tok-1 X=System,
24:u:tok-1 L=cardiovascular,
20:u:tok-1RR=physiology,
31:u:tok-2 L=cardiovascular/system,
21:u:tok-2 R=system/fish,
20:u:tok-1LL=physiology,
25:u:tok-2 L=series/academic,
18:u:tok-2 R=press/12,
15:u:Tok-1 X=Probe,
15:u:tok-1 X=probe,
21:u:tok-1LL=geophysical,
17:u:tok-1 L=in-situ,
23:u:tok-2 L=in-situ/probe,
24:u:tok-2 R=probe/european,
12:u:Suf-2 L=tu,
12:u:Suf-2 X=be,
14:u:tok-1 R=ecsa,
12:u:Pre-2 R=EC,
20:u:Tok-1 X=Bilthoven,,
19:u:tok-1 X=bilthoven,
28:u:tok-2 L=ecology/bilthoven,,
24:u:tok-2 R=bilthoven,/the,
20:u:tok-1 L=bilthoven,,
24:u:tok-2 L=bilthoven,/the,
16:u:Tok-1 X=(1991),
15:u:tok-1 R=31-43,
19:u:tok-2 L=42/(1991),
22:u:tok-2 R=(1991)/31-43,
18:u:Tok-1 X=Verslag.,
28:u:tok-2 R=verslag./antwerpse,
28:u:Tok-1 X=Kongressvorträge,,
26:u:tok-1 X=kongressvortrage,
18:u:tok-1 R=kongress,
16:u:tok-1RR=wasser,
35:u:tok-2 L=ostsee/kongressvorträge,,
37:u:tok-2 R=kongressvorträge,/kongress,
17:u:Tok-1 X=Annexes,
17:u:tok-1 X=annexes,
15:u:tok-1LL=final,
17:u:tok-1 L=report.,
25:u:tok-2 L=report./annexes,
29:u:tok-2 R=annexes/netherlands,
24:u:Tok-1 X=Intercommunale,
24:u:tok-1 X=intercommunale,
18:u:tok-1 L=gemeente,
35:u:tok-1 R=ontwikkelingsmaatschappij,
33:u:tok-2 L=gemeente/intercommunale,
50:u:tok-2 R=intercommunale/ontwikkelingsmaatschappij,
23:u:tok-1LL=topografische,
17:u:Tok-1 X=Belgien,
17:u:tok-1 X=belgien,
15:u:tok-1LL=karte,
21:u:tok-1RR=geografisch,
21:u:tok-2 L=von/belgien,
27:u:tok-2 R=belgien/nationaal,
16:u:tok-1 R=ulster,
25:u:tok-2 L=publication/the,
20:u:tok-2 R=the/ulster,
22:u:Tok-1 X=Echinoderms:,
20:u:tok-1RR=francisco:,
26:u:tok-2 R=echinoderms:/san,
23:u:tok-1 L=échinodermes,
29:u:tok-2 L=échinodermes/guide,
18:u:tok-2 R=guide/de,
23:u:tok-1LL=échinodermes,
18:u:tok-2 L=guide/de,
28:u:tok-2 R=flore/sous-marines,
18:u:tok-1RR=zélande,
28:u:tok-2 L=flore/sous-marines,
18:u:tok-1 R=zélande,
17:u:tok-1RR=234-245,
21:u:tok-2 R=de/zélande,
13:u:Pre-2 R=Zé,
18:u:Tok-1 X=Zélande,
17:u:tok-1 X=zelande,
17:u:tok-1 R=234-245,
21:u:tok-2 L=de/zélande,
26:u:tok-2 R=zélande/234-245,
13:u:Pre-2 X=Zé,
26:u:Tok-1 X=Literatuurstudie,
26:u:tok-1 X=literatuurstudie,
20:u:tok-1 R=morfologie,
37:u:tok-2 R=literatuurstudie/morfologie,
20:u:Tok-1 X=morfologie,
26:u:tok-1 L=literatuurstudie,
37:u:tok-2 L=literatuurstudie/morfologie,
30:u:tok-2 R=morfologie/belgische,
21:u:tok-1LL=(1994-1976),
15:u:tok-1 L=[map],
32:u:tok-2 L=[map]/literatuurstudie,
12:u:Suf-2 L=P],
15:u:tok-1LL=[map],
13:u:Tok-1 X=Map,
21:u:tok-2 L=rapport/map,
16:u:tok-2 R=map/11,
22:u:tok-1LL=crangon</i>),
24:u:tok-2 L=fishery/report,
18:u:Tok-1 X=Outlook.,
17:u:tok-1 X=outlook,
22:u:tok-2 L=and/outlook.,
26:u:tok-2 R=outlook./memoirs,
19:u:tok-1LL=naturels,,
13:u:tok-1 L=40.,
21:u:tok-2 L=40./muséum,
13:u:tok-1LL=40.,
19:u:Tok-1 X=naturelle,
25:u:tok-2 R=naturelle/paris,
25:u:tok-2 L=naturelle/paris,
0=-9.383846e-02
1=-1.342167e-01
2=1.045287e-01
3=9.502272e-02
4=7.814978e-02
5=-6.031035e-05
6=-3.377595e-03
7=7.194122e-02
8=4.053833e-02
9=-4.948771e-04
10=1.652885e+00
11=1.222609e+00
12=-2.394957e+00
13=-9.500910e-01
19=-4.185119e-01
22=1.391741e-01
23=-1.721475e-01
30=-1.382033e+00
31=-8.414305e-01
32=4.485537e-01
33=-2.408974e-02
34=-1.386168e+00
35=-2.201112e+00
36=-7.318000e-01
37=-1.364250e-01
38=-3.228264e-01
39=-2.292561e-01
40=-1.038627e+00
41=-3.133673e-01
42=-4.451907e+00
43=4.378328e-01
44=-1.036285e-01
45=4.654601e-01
46=-1.354889e+00
47=-9.557151e-02
48=-4.406281e-03
49=-2.622249e+00
52=-1.485544e+00
53=-1.334797e+00
54=1.364245e+00
59=-5.742358e-01
60=-2.876617e-02
62=-3.067356e+00
63=-2.432775e+00
64=5.672711e-02
65=3.266324e-03
66=7.541671e-01
67=-1.280324e+00
69=-1.839435e+00
72=-5.957420e-01
74=1.925888e-01
76=6.261343e-01
82=-1.945653e+00
83=-1.557780e+00
84=-5.986459e-01
85=-2.035964e-01
86=-1.129127e-01
87=6.821789e-01
88=4.325820e-01
89=-1.681727e+00
90=-4.644226e-02
92=-2.396066e+00
93=-1.589472e+00
94=1.360436e-03
95=4.873932e-02
97=-1.280433e+00
98=2.703436e-01
99=-1.040952e+00
102=-2.958843e+00
103=-1.624948e-01
104=-3.069186e-02
105=-6.320549e-01
106=-4.627386e-01
107=-9.231464e-01
108=-4.491442e-01
109=8.102791e-01
110=2.894039e-01
111=9.696125e-03
112=-6.959612e-02
120=2.894039e-01
121=9.696125e-03
122=-6.959612e-02
130=9.381910e-02
132=-9.187880e-03
133=1.211873e-01
134=-4.857005e-01
135=-1.811888e-01
136=5.841516e-06
137=4.050333e-02
138=1.764994e-01
139=1.367595e-03
140=1.249637e+00
152=1.328991e+00
153=-4.928862e-02
162=5.942329e-02
163=3.311907e-01
167=8.469952e-03
168=-1.168141e-01
169=1.776621e-01
173=1.700412e-01
174=-4.187951e-01
175=-1.665561e-02
177=8.608303e-02
184=3.902194e-02
190=-1.202596e-02
195=4.846187e-01
196=1.944588e-01
213=-4.975930e-01
217=2.428604e-01
218=6.719011e-01
228=1.869199e-01
233=8.610575e-02
239=2.738801e-01
240=-1.030954e-01
241=5.465857e-02
242=1.019914e-01
243=6.126467e-03
244=-9.143349e-01
245=-1.413168e-05
247=7.192047e-02
248=-3.535999e-02
249=1.672093e-04
252=1.725517e-02
253=7.127471e-03
255=2.334536e-01
257=-2.835863e-02
258=-1.772656e-01
259=-1.289357e-03
262=4.202254e-05
263=1.735664e-02
267=-8.628750e-03
270=2.894039e-01
271=9.696125e-03
272=-6.959612e-02
380=2.918943e-02
381=-1.485747e-01
382=-7.030559e-05
383=2.708790e-02
384=2.734831e-04
385=-1.167527e-01
386=-4.636294e-05
387=-3.926343e-02
388=-1.118076e-01
389=7.742677e-02
390=2.894039e-01
391=9.696125e-03
392=-6.959612e-02
402=-3.637672e-03
403=2.144057e-02
404=9.448353e-03
408=1.388268e-02
409=3.185174e-02
412=1.725517e-02
413=7.127471e-03
415=2.334536e-01
417=-2.835863e-02
418=-1.772656e-01
419=-1.289357e-03
422=-3.637672e-03
423=2.144057e-02
424=9.448353e-03
428=1.388268e-02
429=3.185174e-02
430=2.894039e-01
431=9.696125e-03
432=-6.959612e-02
440=2.894039e-01
441=9.696125e-03
442=-6.959612e-02
450=-4.949070e-02
451=-3.355260e-02
452=-5.315552e-03
453=1.034232e-01
455=-9.579403e-02
456=-1.247834e-01
457=6.317083e-02
458=1.455332e-01
459=-6.398910e-03
460=4.557694e-02
462=1.690805e-02
463=-1.655115e-03
467=-1.349667e-01
469=-4.177974e-02
470=7.200524e-01
482=4.839430e-02
483=-2.407361e-03
485=8.920642e-01
487=-6.314128e-01
490=7.200524e-01
500=2.894039e-01
501=9.696125e-03
502=-6.959612e-02
610=-4.374365e-02
612=2.174811e-01
613=1.800789e-01
614=-4.110779e-02
615=-1.983756e-01
616=-2.076979e-01
617=8.197195e-02
618=2.328530e-02
619=9.443282e-02
620=1.207552e+00
623=-1.060139e-01
632=1.484968e-01
633=-2.040157e-02
640=-1.575320e-01
642=3.699615e-01
643=3.362719e-03
647=-1.452338e-02
648=-2.250408e-01
649=-6.904722e-02
652=-9.829315e-01
653=4.511524e-01
654=-4.839927e-01
655=-1.466237e+00
657=-2.841845e-02
659=-6.495790e-01
664=2.126838e+00
673=-2.732512e-01
674=-1.229252e+00
675=1.416538e+00
676=3.497284e-05
684=-3.802000e-01
686=6.254087e-01
692=-1.281267e+00
693=-1.281522e+00
697=6.932065e-01
698=5.431913e-01
699=-7.519459e-01
705=-1.825652e-04
707=-9.493555e-02
708=2.012620e-01
712=-8.816025e-01
713=-1.211816e-01
717=-2.050510e-01
718=-2.728787e-01
719=6.858008e-01
722=-5.939083e-03
723=8.522093e-04
725=2.463727e-01
727=-7.645661e-01
729=-3.117654e-03
730=4.437715e-02
731=-7.356651e-01
732=7.152012e-02
733=3.349103e-01
734=-9.927814e-03
735=-5.564546e-01
736=-3.522038e-01
737=9.665042e-02
738=3.286831e-01
739=2.864719e-01
742=6.961806e-03
743=2.417767e-02
744=-4.610541e-02
747=-1.303998e-01
748=3.482771e-03
749=8.569211e-03
750=-6.455724e-02
751=-5.248160e-02
752=-5.015263e-02
753=1.383311e-01
754=1.544579e-01
755=1.047888e-02
756=-1.708135e-03
757=5.996884e-02
758=-5.609500e-02
759=1.023344e-02
760=-8.308655e-02
761=-1.284619e-01
762=7.001455e-02
763=1.600840e-01
764=1.044899e-01
765=8.170023e-04
766=4.302954e-03
767=6.730080e-02
768=-1.259212e+00
769=2.034973e-02
770=-9.377747e-02
771=-1.260027e-01
772=1.026063e-01
773=7.098695e-02
774=4.728567e-02
775=7.012200e-04
777=4.355835e-02
778=-1.753732e-03
779=1.325431e-02
780=-6.752853e-02
781=-8.552162e-02
782=1.362881e-01
783=-3.059992e-01
784=1.906951e-01
785=1.871430e-02
786=-2.265484e-03
787=7.694508e-03
788=7.832152e-02
789=4.016823e-03
790=2.894039e-01
791=9.696125e-03
792=-6.959612e-02
800=-8.155444e-02
801=-1.236799e-01
802=1.093453e-01
803=4.084372e-02
804=7.517612e-02
805=-1.090707e-02
806=-7.570388e-03
807=7.414873e-02
808=3.707780e-02
809=-4.257364e-02
810=-8.432034e-02
811=-5.149190e-02
812=8.646882e-02
813=1.163245e-01
814=-1.426874e-01
815=-1.546586e-02
816=-2.242353e-03
817=7.065975e-02
818=-7.308207e-03
819=-2.402014e-02
820=-2.684164e-02
821=-2.892324e-02
822=4.002583e-02
823=1.675193e-02
825=-1.247883e-01
826=-1.440620e-01
827=6.263122e-02
828=1.432534e-01
829=-2.968826e-02
830=2.894039e-01
831=9.696125e-03
832=-6.959612e-02
842=4.921404e-03
843=1.633668e-02
847=-4.854203e-02
848=4.094073e-02
849=8.505739e-03
850=2.894039e-01
851=9.696125e-03
852=-6.959612e-02
860=2.894039e-01
861=9.696125e-03
862=-6.959612e-02
870=2.894039e-01
871=9.696125e-03
872=-6.959612e-02
882=1.189633e-01
883=-3.564367e-02
885=8.341331e-02
886=-1.257553e-01
887=-2.035088e-02
889=9.186940e-03
890=2.765925e-03
892=-4.173145e-03
893=3.025113e-02
895=4.062242e-05
897=-6.587866e-02
899=1.563268e-02
900=2.894039e-01
901=9.696125e-03
902=-6.959612e-02
910=-1.016998e-01
911=-1.188231e-01
912=5.006293e-02
913=1.481299e-01
914=8.433877e-02
915=3.944228e-03
916=-1.151924e-03
917=6.783303e-02
918=3.494781e-02
919=-3.324054e-03
920=-5.574710e-02
921=-8.414190e-02
922=4.605844e-02
923=1.237707e-01
924=-1.123700e-01
925=-1.839158e-02
926=5.063470e-02
927=6.306747e-02
928=-7.746974e-03
929=-2.931295e-03
930=2.894039e-01
931=9.696125e-03
932=-6.959612e-02
1042=1.084679e-03
1043=2.424452e-02
1044=1.917536e-02
1047=-1.263657e-01
1048=3.866460e-02
1049=9.145401e-03
1050=-1.395027e-02
1052=4.014492e-02
1053=2.292779e-02
1055=2.190585e-01
1056=-3.051676e-02
1057=-6.395342e-03
1059=4.742844e-02
1062=1.748176e-03
1063=4.052943e-03
1064=2.800456e-02
1065=-2.369142e-03
1066=-5.070990e-01
1067=-1.335918e-01
1068=3.986932e-02
1069=1.332476e-02
1072=-1.160520e-03
1073=-1.349214e-03
1074=8.688817e-03
1077=3.123199e-04
1079=2.483998e-02
1080=-9.499461e-02
1081=-1.331238e-01
1082=9.678625e-02
1083=9.611447e-02
1084=7.357210e-02
1085=4.126599e-03
1086=-8.905543e-03
1087=7.216926e-02
1088=4.170002e-02
1089=-5.131424e-02
1090=2.634151e-01
1093=-5.062655e-04
1100=-2.033840e-03
1102=-1.016385e-01
1103=-4.518525e-02
1104=-8.577867e-01
1105=2.626218e-01
1106=1.495094e-01
1107=-7.907329e-01
1108=5.560011e-02
1109=2.461692e-03
1112=2.941816e-03
1113=3.847377e-02
1115=-6.990357e-01
1117=-3.247484e-04
1118=-5.248299e-01
1119=-5.565739e-03
1122=1.146529e-02
1123=-8.352021e-02
1125=-3.926691e-01
1126=5.237212e-03
1127=-3.189529e-01
1128=2.592726e-02
1129=3.790519e-03
1130=6.697571e-02
1131=-3.706004e-01
1132=1.333541e-03
1133=1.993465e-03
1134=-4.754368e-01
1135=-8.490162e-02
1136=-1.173071e-04
1137=-3.710581e-02
1138=-1.797000e+00
1139=1.138729e-03
1140=2.985814e-01
1161=-7.202747e-04
1162=5.953298e-01
1163=-2.099771e-01
1164=-6.017541e-02
1167=-2.317428e-01
1169=-1.122968e+00
1170=-9.398561e-02
1173=5.118717e-01
1174=5.711653e-02
1175=-3.049517e-01
1177=-1.887202e-01
1178=-9.592035e-01
1184=6.373510e-01
1194=-1.040695e+00
1195=1.224321e+00
1196=-1.606773e-01
1206=8.304065e-02
1217=5.611260e-01
1218=-6.225909e-01
1228=9.345375e-01
1233=-5.317630e-01
1234=-1.108313e-03
1239=9.105644e-01
1241=-2.598599e-01
1242=1.123739e-01
1243=-1.651217e-01
1244=-2.802837e-06
1247=-2.707435e-03
1249=1.855638e-02
1252=1.743080e-03
1253=4.948362e-02
1255=-8.681414e-04
1259=-2.633385e-02
1262=2.941816e-03
1263=3.847377e-02
1265=-6.990357e-01
1267=-3.247484e-04
1268=-5.248299e-01
1269=-5.565739e-03
1272=1.743080e-03
1273=4.948362e-02
1275=-8.681414e-04
1279=-2.633385e-02
1289=-3.109723e-03
1290=-5.813057e-02
1291=-9.710080e-01
1292=-4.328690e-02
1293=1.132905e-01
1294=-1.570413e-01
1295=2.679318e-01
1296=-9.290903e-01
1297=3.517795e-02
1298=1.609371e-01
1299=4.508861e-03
1302=-3.283030e-02
1303=1.975692e-02
1306=1.586466e-01
1309=-3.469761e-02
1310=-9.970393e-04
1312=-3.120299e-02
1313=1.642050e-03
1315=1.736276e-01
1316=9.691001e-02
1317=-2.338753e-02
1318=4.574186e-02
1319=-2.839507e-03
1322=-3.226648e-02
1323=3.117150e-02
1327=1.391304e-04
1329=-1.985906e-02
1330=-5.101408e-02
1331=-4.969084e-01
1332=1.199199e-01
1333=1.371930e-01
1334=-2.190601e-01
1335=-1.083221e-02
1336=-4.985059e-02
1337=1.783302e-02
1338=2.297704e-02
1339=1.103181e-01
1340=1.728127e+00
1341=6.054241e-01
1342=-2.925746e-01
1349=-1.205040e-01
1362=4.030323e-01
1363=-4.616164e-02
1364=-1.212346e+00
1365=-8.066974e-01
1366=-2.535246e-01
1367=-4.515459e-01
1368=-2.325070e-01
1369=-6.365453e-02
1370=-1.654042e-01
1372=-1.686662e+00
1373=4.487901e-01
1374=-2.887965e-02
1375=3.964663e-01
1376=-7.717457e-01
1377=-6.499950e-02
1378=-3.667441e-03
1379=-1.981651e+00
1384=8.992969e-01
1394=-2.121567e+00
1395=7.768171e-01
1402=-5.128970e-02
1406=2.202519e+00
1412=-1.201970e+00
1413=-1.269683e+00
1414=-6.555376e-01
1415=-7.468550e-02
1417=6.849025e-01
1418=5.878616e-01
1419=-1.053776e+00
1420=-2.997965e-02
1422=-1.674482e+00
1423=-2.350476e+00
1424=5.723521e-02
1425=6.874150e-02
1426=-3.531498e-02
1427=-9.407559e-01
1428=3.782933e-01
1429=-1.010260e+00
1432=-1.312903e+00
1433=-8.240775e-01
1434=1.693080e-03
1438=-1.475835e-01
1439=7.289828e-01
1442=1.303470e-02
1443=-9.534328e-02
1444=1.944642e-01
1445=5.376962e-02
1449=-2.619361e-02
1450=3.248851e-01
1472=4.980710e-02
1473=-8.254618e-01
1479=-1.661809e-02
1483=7.678328e-03
1504=2.231457e-05
1535=3.316495e-02
1538=5.527106e-06
1552=3.551696e-02
1553=-2.490348e-01
1555=-3.400575e-01
1558=-2.388693e-03
1559=6.479964e-04
1562=1.743586e-02
1563=-6.476048e-02
1564=3.027635e-01
1565=1.064985e-01
1566=-1.300146e-01
1567=-7.553329e-01
1569=-2.912543e-02
1572=6.130650e-05
1573=-2.805362e-01
1580=-9.182071e-02
1581=-1.399461e-01
1582=1.073989e-01
1583=7.895434e-02
1584=9.235056e-02
1585=1.315078e-01
1586=-8.117140e-02
1587=6.900672e-02
1588=3.943932e-02
1589=-3.209397e-02
1592=-2.473970e-02
1593=2.135456e-03
1596=1.472908e-01
1597=8.330824e-03
1601=-3.264635e-01
1602=1.053325e-01
1603=-6.910254e-02
1604=-2.979600e-01
1605=-2.758011e-01
1607=-3.545147e-01
1608=-9.299578e-05
1609=1.368362e-02
1610=-5.851816e-04
1612=1.466849e-01
1613=2.366189e-02
1616=-1.656387e-02
1617=2.316490e-02
1618=-4.420944e-01
1619=-1.969480e-02
1621=-1.165655e-01
1622=1.223685e-01
1623=-7.391239e-03
1626=-5.663789e-01
1627=8.676812e-04
1629=1.218392e-02
1632=-3.162500e-04
1633=8.151485e-02
1634=-7.311863e-01
1639=-4.413184e-02
1640=-3.120593e-02
1642=1.352230e-01
1643=4.743032e-02
1645=-1.194545e-01
1646=-6.196697e-01
1647=5.430953e-02
1648=2.265721e-02
1649=1.346087e-01
1650=-6.462037e-02
1651=-1.113972e+00
1652=9.501666e-02
1653=1.125508e-01
1654=4.292859e-02
1655=5.999122e-03
1657=6.315594e-02
1658=-3.301143e-04
1659=2.425488e-02
1661=-3.418094e-01
1662=6.167384e-02
1663=-6.931551e-02
1664=-4.493838e-01
1667=-3.765606e-01
1668=-7.661889e-04
1669=1.277220e-02
1670=1.590980e-01
1692=3.377156e-01
1693=-1.161555e+00
1703=3.520584e-01
1705=-1.165379e-01
1707=-9.139813e-01
1714=2.637527e+00
1725=6.092595e-01
1747=3.817636e-02
1748=-5.507296e-02
1758=1.899606e+00
1769=2.338607e-01
1770=-2.072487e-02
1772=1.642520e-01
1773=2.722688e-02
1776=-1.356603e-01
1777=-4.153306e-04
1779=-3.462698e-02
1780=-4.423681e-02
1781=-1.121388e-02
1782=1.246030e-01
1783=3.793092e-02
1784=-1.621940e-01
1785=-1.295226e-02
1786=1.720558e-03
1787=7.321402e-02
1788=3.237121e-03
1789=3.093753e-02
1790=-2.752497e-02
1792=1.570767e-01
1793=3.260086e-02
1794=-6.679289e-03
1795=5.073926e-05
1796=-7.075624e-02
1797=1.691793e-02
1799=-3.424269e-02
1800=-2.376833e-02
1802=4.292639e-02
1803=4.610156e-02
1804=-2.265628e-02
1806=-6.576117e-02
1807=2.030084e-02
1809=-3.269011e-02
1812=1.743080e-03
1813=4.948362e-02
1815=-8.681414e-04
1819=-2.633385e-02
1823=1.637871e-01
1826=-1.861558e-01
1827=-4.005772e-01
1829=-1.800005e-02
1830=-6.500216e-02
1831=-2.403524e-02
1832=1.392978e-02
1833=-3.681053e-01
1834=1.386393e-01
1835=1.880245e-03
1836=-4.240624e-02
1837=-2.698360e-01
1838=-7.201341e-01
1839=-1.556756e-03
1841=1.588497e+00
1862=1.146129e-01
1864=-6.617349e-01
1867=-6.322105e-03
1873=1.919536e-01
1875=4.516616e-01
1876=-1.028978e-01
1877=-3.768808e-01
1884=-5.319056e-04
1894=4.754752e-01
1895=-5.728212e-01
1896=3.346167e-01
1904=3.785222e-01
1914=-8.929464e-07
1915=-3.779141e-02
1917=2.123643e-02
1924=-2.862840e-02
1925=8.842999e-02
1933=-1.057155e-01
1939=4.614787e-01
1941=4.645121e-02
1942=3.916458e-02
1943=-1.563168e-01
1944=5.197835e-02
1945=-2.817432e-01
1946=-9.558806e-02
1947=-3.459020e-01
1949=2.002188e-02
1952=2.683013e-03
1953=7.732858e-03
1957=-1.006558e-01
1959=-1.783578e-03
1962=-9.962770e-02
1963=-3.221286e-01
1964=-7.928088e-02
1965=1.565183e-01
1967=-1.688262e-01
1968=-6.223897e-01
1969=-1.371041e-02
1970=-1.608685e-03
1972=-2.744106e-02
1973=7.047292e-02
1974=-9.923567e-06
1975=6.688826e-02
1976=-1.029873e-04
1977=-2.436683e-04
1979=-3.195966e-02
1981=4.645121e-02
1982=3.916458e-02
1983=-1.563168e-01
1984=5.197835e-02
1985=-2.817432e-01
1986=-9.558806e-02
1987=-3.459020e-01
1989=2.002188e-02
1992=2.083325e-05
2002=-3.985017e-02
2003=3.442923e-01
2019=-9.191601e-03
2020=2.169351e-01
2021=6.839187e-02
2022=-2.938557e-02
2023=-4.953895e-02
2028=3.994505e-01
2029=-6.866175e-02
2031=-2.115546e-02
2032=7.387055e-03
2033=1.622322e-01
2034=1.634184e-01
2035=1.190974e-03
2036=-1.293965e-01
2037=-8.447092e-02
2038=-2.910747e-01
2039=-1.567790e-02
2040=-1.887514e-02
2041=2.372242e-02
2042=1.497517e-01
2043=-9.233702e-03
2044=-6.287804e-01
2045=-4.566938e-02
2046=-2.068901e-01
2047=4.806636e-02
2048=-3.862715e-04
2049=-2.228517e-02
2051=8.618850e-02
2052=3.329183e-03
2053=-2.121791e-02
2055=-7.584894e-02
2057=-2.222831e-02
2059=4.862830e-02
2065=2.015256e-04
2066=-1.343405e-01
2067=-4.505368e-02
2069=2.606354e-01
2072=1.871235e-03
2073=-7.432647e-02
2077=2.860452e-03
2079=-4.328621e-02
2080=2.350255e-01
2102=4.403757e-02
2103=7.817444e-05
2107=1.460017e-03
2109=-2.041537e-01
2113=-1.383476e-04
2124=1.299472e-01
2179=5.809030e-05
2181=1.218240e-01
2182=2.409333e-02
2183=6.625686e-02
2186=-8.414200e-01
2187=-3.537525e-02
2189=1.466264e-02
2191=2.401590e+00
2212=1.448178e-01
2223=1.231160e-02
2225=-1.191467e-01
2244=-7.520214e-02
2245=7.795144e-01
2254=1.974547e-01
2275=6.902477e-02
2289=2.163124e-01
2290=-6.328321e-02
2291=-4.554250e-02
2292=2.405797e-01
2293=1.279125e-01
2294=-6.076110e-02
2295=-2.026867e-01
2296=-7.252643e-01
2297=8.137112e-02
2298=-3.269290e-01
2299=-4.672657e-03
2300=-6.028512e-01
2301=1.816841e-01
2302=1.020435e-01
2303=7.834063e-02
2304=-2.535866e-01
2305=-3.753837e-01
2306=-8.505183e-01
2307=-2.691867e-01
2309=5.794692e-03
2310=-2.647015e-01
2311=-2.167757e-02
2312=1.279657e-02
2313=4.064794e-02
2314=1.641925e-01
2315=1.300082e-03
