#mdl#2#6927
#rdr#61/19/0
1:*,
18:u:Tok-1 X=%x[ 0,0],
18:u:tok-1 X=%x[ 0,1],
18:u:tok-1LL=%X[-2,0],
18:u:tok-1 L=%X[-1,0],
18:u:tok-1 R=%X[ 1,0],
18:u:tok-1RR=%X[ 2,0],
27:u:tok-2 L=%X[-1,0]/%X[ 0,0],
27:u:tok-2 R=%X[ 0,0]/%X[ 1,0],
18:*:Fst-1 X=%x[ 0,2],
18:u:Fst-1 R=%x[ 1,2],
27:u:Fst-2 X=%x[ 0,2]/%x[ 0,4],
27:u:Fst-2 R=%x[ 1,2]/%x[ 1,4],
18:*:Lst-1 L=%x[-1,3],
18:u:Lst-1 X=%x[ 0,3],
27:u:Lst-2 L=%x[-1,3]/%x[-1,6],
27:u:Lst-2 X=%x[ 0,3]/%x[ 0,6],
18:u:Pre-1 X=%x[ 0,4],
18:u:Pre-2 X=%x[ 0,5],
18:u:Pre-2 R=%x[ 1,5],
18:u:Suf-1 X=%x[ 0,6],
18:u:Suf-2 L=%x[-1,7],
18:u:Suf-2 X=%x[ 0,7],
18:u:Cap-1 L=%x[-1,8],
18:u:Cap-1 X=%x[ 0,8],
18:u:Cap-1 R=%x[ 1,8],
27:u:Cap-2 L=%x[-1,8]/%x[ 0,8],
27:u:Cap-2 R=%x[ 0,8]/%x[ 1,8],
28:u:Cap-3 L=%x[-1,18]/%x[ 0,8],
18:*:Num-1 L=%x[-1,9],
18:*:Num-1 X=%x[ 0,9],
18:u:Num-1 R=%x[ 1,9],
28:u:Num-2 R=%x[ 0,9]/%x[ 0,17],
28:u:Num-2 R=%x[ 0,9]/%x[ 0,18],
19:u:Nme-1 X=%x[ 0,10],
19:u:Loc-1 X=%x[ 0,11],
19:u:Pub-1 X=%x[ 0,12],
19:u:Jnl-1 X=%x[ 0,13],
19:u:Key-1 L=%x[-1,14],
19:u:Key-1 X=%x[ 0,14],
19:u:Key-1 R=%x[ 1,14],
28:u:Key-2 X=%x[ 0,14]/%x[ 0,8],
29:u:Key-3 L=%x[-1,18]/%x[ 0,14],
29:u:Key-3 x=%x[ 0,14]/%x[ 0,18],
19:u:Pos-1 X=%x[ 0,15],
29:u:Pos-2 L=%x[-1,15]/%x[ 0,15],
29:u:Pos-2 R=%x[ 0,15]/%x[ 1,15],
19:u:Pct-1 L=%x[-1,16],
19:u:Pct-1 X=%x[ 0,16],
19:u:Pct-1 R=%x[ 1,16],
19:u:Brk-1 L=%x[-1,17],
19:u:Brk-1 X=%x[ 0,17],
19:u:Brk-1 R=%x[ 1,17],
19:*:Tmn-1 L=%x[-1,18],
19:u:Tmn-1 X=%x[ 0,18],
19:u:Tmn-1 R=%x[ 1,18],
29:u:Tmn-2 L=%x[-1,14]/%x[ 0,18],
29:u:Tmn-2 R=%x[ 0,18]/%x[ 1,14],
28:u:Tmn-3 X=%x[ 0,18]/%x[ 0,6],
28:u:Tmn-4 R=%x[ 0,18]/%x[ 1,8],
19:u:Id--1 X=%x[ 0,19],
#qrk#12
6:string,
6:author,
4:Year,
5:title,
7:journal,
6:Series,
6:suffix,
6:Volume,
5:Issue,
10:Pagination,
3:DOI,
16:MonStandardTitle,
#qrk#3002
1:*,
14:u:tok-1LL=_x-2,
14:u:tok-1 L=_x-1,
12:*:Fst-1 X=Lu,
12:u:Fst-1 R=Lu,
14:u:Fst-2 X=Lu/V,
14:u:Fst-2 R=Lu/D,
14:*:Lst-1 L=_x-1,
11:u:Lst-1 X=P,
19:u:Lst-2 L=_x-1/_x-1,
13:u:Lst-2 X=P/,,
11:u:Pre-1 X=V,
12:u:Pre-2 X=Ve,
11:u:Suf-1 X=,,
14:u:Suf-2 L=_x-1,
12:u:Suf-2 X=e,,
14:u:Cap-1 L=_x-1,
17:u:Cap-1 X=initial,
16:u:Cap-1 R=single,
22:u:Cap-2 L=_x-1/initial,
24:u:Cap-2 R=initial/single,
22:u:Cap-3 L=_x-1/initial,
14:*:Num-1 L=_x-1,
14:*:Num-1 X=none,
15:u:Num-1 R=roman,
19:u:Num-2 R=none/none,
19:u:Num-2 R=none/weak,
11:u:Nme-1 X=F,
11:u:Loc-1 X=F,
11:u:Pub-1 X=F,
11:u:Jnl-1 X=F,
14:u:Key-1 L=_x-1,
14:u:Key-1 X=none,
14:u:Key-1 R=none,
22:u:Key-2 X=none/initial,
19:u:Key-3 L=_x-1/none,
19:u:Key-3 x=none/weak,
15:u:Pos-1 X=first,
20:u:Pos-2 L=_x-1/first,
17:u:Pos-2 R=first/0,
14:u:Pct-1 L=_x-1,
15:u:Pct-1 X=other,
16:u:Pct-1 R=period,
14:u:Brk-1 L=_x-1,
14:u:Brk-1 X=none,
14:u:Brk-1 R=none,
14:*:Tmn-1 L=_x-1,
14:u:Tmn-1 X=weak,
14:u:Tmn-1 R=weak,
19:u:Tmn-2 R=weak/none,
16:u:Tmn-3 X=weak/,,
21:u:Tmn-4 R=weak/single,
11:u:Id--1 X=F,
14:u:Fst-2 X=Lu/D,
14:u:Fst-2 R=Lu/V,
11:*:Lst-1 L=P,
13:u:Lst-2 L=P/,,
13:u:Lst-2 X=P/;,
11:u:Pre-1 X=D,
12:u:Pre-2 R=Vi,
11:u:Suf-1 X=;,
12:u:Suf-2 L=e,,
12:u:Suf-2 X=.;,
17:u:Cap-1 L=initial,
16:u:Cap-1 X=single,
17:u:Cap-1 R=initial,
24:u:Cap-2 L=initial/single,
24:u:Cap-2 R=single/initial,
21:u:Cap-3 L=weak/single,
14:*:Num-1 L=none,
15:*:Num-1 X=roman,
14:u:Num-1 R=none,
20:u:Num-2 R=roman/none,
14:u:Key-1 L=none,
21:u:Key-2 X=none/single,
19:u:Key-3 L=weak/none,
11:u:Pos-1 X=0,
15:u:Pct-1 L=other,
16:u:Pct-1 X=period,
15:u:Pct-1 R=other,
14:u:Brk-1 L=none,
14:*:Tmn-1 L=weak,
19:u:Tmn-2 L=none/weak,
16:u:Tmn-3 X=weak/;,
22:u:Tmn-4 R=weak/initial,
14:u:Fst-2 R=Lu/M,
13:u:Lst-2 L=P/;,
12:u:Pre-2 X=Vi,
12:u:Suf-2 L=.;,
16:u:Cap-1 L=single,
24:u:Cap-2 L=single/initial,
22:u:Cap-3 L=weak/initial,
15:*:Num-1 L=roman,
16:u:Pct-1 L=period,
16:u:Tmn-1 R=strong,
12:u:Fst-1 R=Ps,
14:u:Fst-2 X=Lu/M,
14:u:Fst-2 R=Ps/(,
13:u:Lst-2 X=P/.,
11:u:Pre-1 X=M,
12:u:Pre-2 R=(1,
11:u:Suf-1 X=.,
15:u:Cap-1 R=other,
14:u:Num-1 R=year,
22:u:Num-2 R=roman/strong,
21:u:Key-3 x=none/strong,
11:u:Pos-1 X=1,
13:u:Pos-2 R=1/1,
16:u:Brk-1 R=parens,
16:u:Tmn-1 X=strong,
21:u:Tmn-2 L=none/strong,
21:u:Tmn-2 R=strong/none,
18:u:Tmn-3 X=strong/.,
22:u:Tmn-4 R=strong/other,
12:*:Fst-1 X=Ps,
14:u:Fst-2 X=Ps/(,
14:u:Fst-2 R=Lu/E,
13:u:Lst-2 L=P/.,
11:u:Pre-1 X=(,
12:u:Pre-2 X=(1,
12:u:Suf-2 X=).,
15:u:Cap-1 X=other,
23:u:Cap-2 R=other/initial,
22:u:Cap-3 L=strong/other,
14:*:Num-1 X=year,
21:u:Num-2 R=year/parens,
21:u:Num-2 R=year/strong,
20:u:Key-2 X=none/other,
21:u:Key-3 L=strong/none,
13:u:Pos-2 L=1/1,
14:u:Pct-1 R=none,
16:*:Tmn-1 L=strong,
14:u:Tmn-1 R=none,
24:u:Tmn-4 R=strong/initial,
14:u:Fst-2 X=Lu/E,
12:u:Lst-1 X=Ll,
14:u:Lst-2 X=Ll/e,
11:u:Pre-1 X=E,
11:u:Suf-1 X=e,
12:u:Suf-2 L=).,
12:u:Suf-2 X=ae,
15:u:Cap-1 L=other,
23:u:Cap-2 L=other/initial,
25:u:Cap-2 R=initial/initial,
24:u:Cap-3 L=strong/initial,
14:*:Num-1 L=year,
19:u:Key-3 x=none/none,
14:u:Pct-1 X=none,
15:u:Pct-1 R=colon,
16:u:Brk-1 L=parens,
23:u:Brk-1 R=opening-paren,
14:u:Tmn-1 X=none,
18:u:Tmn-1 R=moderate,
19:u:Tmn-2 L=none/none,
19:u:Tmn-2 R=none/none,
16:u:Tmn-3 X=none/e,
22:u:Tmn-4 R=none/initial,
12:*:Lst-1 L=Ll,
14:u:Lst-2 L=Ll/e,
13:u:Lst-2 X=P/:,
12:u:Pre-2 R=De,
11:u:Suf-1 X=:,
12:u:Suf-2 L=ae,
12:u:Suf-2 X=a:,
25:u:Cap-2 L=initial/initial,
22:u:Cap-3 L=none/initial,
28:u:Num-2 R=none/opening-paren,
23:u:Num-2 R=none/moderate,
19:u:Key-3 L=none/none,
23:u:Key-3 x=none/moderate,
14:u:Pct-1 L=none,
15:u:Pct-1 X=colon,
23:u:Brk-1 X=opening-paren,
14:*:Tmn-1 L=none,
18:u:Tmn-1 X=moderate,
23:u:Tmn-2 L=none/moderate,
23:u:Tmn-2 R=moderate/none,
20:u:Tmn-3 X=moderate/:,
26:u:Tmn-4 R=moderate/initial,
11:u:Id--1 X=T,
13:u:tok-1RR=the,
12:u:Fst-1 R=Ll,
14:u:Fst-2 R=Ll/f,
12:u:Lst-1 X=Pe,
13:u:Lst-2 L=P/:,
14:u:Lst-2 X=Pe/),
12:u:Pre-2 X=De,
11:u:Suf-1 X=),
12:u:Suf-2 L=a:,
15:u:Cap-1 R=lower,
23:u:Cap-2 R=initial/lower,
26:u:Cap-3 L=moderate/initial,
28:u:Num-2 R=none/closing-paren,
21:u:Num-2 R=none/strong,
23:u:Key-3 L=moderate/none,
15:u:Pct-1 L=colon,
23:u:Brk-1 L=opening-paren,
23:u:Brk-1 X=closing-paren,
18:*:Tmn-1 L=moderate,
18:u:Tmn-3 X=strong/),
13:u:tok-1 R=the,
12:*:Fst-1 X=Ll,
14:u:Fst-2 X=Ll/f,
14:u:Fst-2 R=Ll/t,
12:*:Lst-1 L=Pe,
14:u:Lst-2 L=Pe/),
14:u:Lst-2 X=Ll/m,
11:u:Pre-1 X=f,
12:u:Pre-2 R=th,
11:u:Suf-1 X=m,
12:u:Suf-2 L=a),
15:u:Cap-1 X=lower,
23:u:Cap-2 L=initial/lower,
21:u:Cap-2 R=lower/lower,
22:u:Cap-3 L=strong/lower,
11:u:Nme-1 X=T,
11:u:Jnl-1 X=T,
20:u:Key-2 X=none/lower,
23:u:Brk-1 L=closing-paren,
16:u:Tmn-3 X=none/m,
20:u:Tmn-4 R=none/lower,
13:u:Tok-1 X=the,
13:u:tok-1 X=the,
14:u:tok-1 L=from,
17:u:tok-1RR=african,
14:u:Fst-2 X=Ll/t,
14:u:Lst-2 L=Ll/m,
11:u:Pre-1 X=t,
12:u:Pre-2 X=th,
12:u:Pre-2 R=Ea,
12:u:Suf-2 L=om,
12:u:Suf-2 X=he,
15:u:Cap-1 L=lower,
21:u:Cap-2 L=lower/lower,
23:u:Cap-2 R=lower/initial,
20:u:Cap-3 L=none/lower,
11:u:Pub-1 X=T,
11:u:Pos-1 X=2,
13:u:Pos-2 R=2/2,
14:u:tok-1LL=from,
13:u:tok-1 L=the,
14:u:Fst-2 R=Lu/A,
14:u:Lst-2 X=Ll/t,
12:u:Pre-2 X=Ea,
12:u:Pre-2 R=Af,
11:u:Suf-1 X=t,
12:u:Suf-2 L=he,
12:u:Suf-2 X=st,
23:u:Cap-2 L=lower/initial,
13:u:Pos-2 L=2/2,
16:u:Tmn-3 X=none/t,
13:u:tok-1LL=the,
14:u:Fst-2 X=Lu/A,
14:u:Fst-2 R=Ll/c,
14:u:Lst-2 L=Ll/t,
14:u:Lst-2 X=Ll/n,
11:u:Pre-1 X=A,
12:u:Pre-2 X=Af,
12:u:Pre-2 R=co,
11:u:Suf-1 X=n,
12:u:Suf-2 L=st,
12:u:Suf-2 X=an,
16:u:Tmn-3 X=none/n,
15:u:tok-1 X=coast,
17:u:tok-1 L=african,
11:u:tok-1RR=a,
14:u:Fst-2 X=Ll/c,
14:u:Fst-2 R=Ll/w,
14:u:Lst-2 L=Ll/n,
11:u:Pre-1 X=c,
12:u:Suf-2 L=an,
11:u:Loc-1 X=T,
20:u:Tmn-4 R=weak/lower,
11:u:tok-1 R=a,
14:u:Fst-2 X=Ll/w,
14:u:Fst-2 R=Ll/a,
14:u:Lst-2 X=Ll/h,
11:u:Pre-1 X=w,
11:u:Suf-1 X=h,
12:u:Suf-2 L=t,,
12:u:Suf-2 X=th,
20:u:Cap-3 L=weak/lower,
16:u:Tmn-3 X=none/h,
11:u:tok-1 X=a,
14:u:Fst-2 X=Ll/a,
14:u:Fst-2 R=Ll/d,
14:u:Lst-2 L=Ll/h,
14:u:Lst-2 X=Ll/a,
11:u:Pre-1 X=a,
11:u:Suf-1 X=a,
12:u:Suf-2 L=th,
11:u:Pos-1 X=3,
13:u:Pos-2 R=3/3,
16:u:Tmn-3 X=none/a,
14:u:Fst-2 X=Ll/d,
14:u:Fst-2 R=Ll/o,
14:u:Lst-2 L=Ll/a,
11:u:Pre-1 X=d,
12:u:Suf-2 X=on,
13:u:Pos-2 L=3/3,
14:u:Fst-2 X=Ll/o,
11:u:Pre-1 X=o,
12:u:Suf-2 L=on,
14:u:Fst-2 R=Ll/e,
12:u:tok-1LL=on,
12:u:tok-1RR=of,
14:u:Fst-2 X=Ll/e,
14:u:Fst-2 R=Ll/m,
14:u:Lst-2 X=Ll/l,
11:u:Pre-1 X=e,
11:u:Suf-1 X=l,
12:u:Suf-2 X=al,
16:u:Tmn-3 X=none/l,
12:u:tok-1 R=of,
14:u:Fst-2 X=Ll/m,
14:u:Lst-2 L=Ll/l,
14:u:Lst-2 X=Ll/y,
11:u:Pre-1 X=m,
12:u:Pre-2 R=of,
11:u:Suf-1 X=y,
12:u:Suf-2 L=al,
12:u:Suf-2 X=gy,
16:u:Tmn-3 X=none/y,
12:u:Tok-1 X=of,
12:u:tok-1 X=of,
14:u:Lst-2 L=Ll/y,
14:u:Lst-2 X=Ll/f,
12:u:Pre-2 X=of,
11:u:Suf-1 X=f,
12:u:Suf-2 L=gy,
12:u:Suf-2 X=of,
11:u:Pos-1 X=4,
13:u:Pos-2 R=4/4,
16:u:Tmn-3 X=none/f,
12:u:tok-1 L=of,
14:u:Lst-2 L=Ll/f,
14:u:Lst-2 X=Ll/r,
11:u:Suf-1 X=r,
12:u:Suf-2 L=of,
12:u:Suf-2 X=ar,
13:u:Pos-2 L=4/4,
16:u:Tmn-3 X=none/r,
12:u:tok-1LL=of,
11:u:Fst-1 R=S,
14:u:Lst-2 L=Ll/r,
12:u:Suf-2 X=s.,
21:u:Cap-2 R=lower/other,
11:*:Fst-1 X=S,
11:u:Fst-1 R=N,
13:u:Fst-2 X=S/<,
11:u:Lst-1 X=S,
11:u:Pre-1 X=<,
12:u:Suf-2 L=s.,
21:u:Cap-2 L=lower/other,
21:u:Cap-2 R=other/other,
17:u:Num-1 R=numeric,
20:u:Tmn-4 R=none/other,
11:*:Fst-1 X=N,
13:u:Fst-2 X=N/4,
11:*:Lst-1 L=S,
11:u:Pre-1 X=4,
21:u:Cap-2 L=other/other,
20:u:Cap-3 L=none/other,
17:*:Num-1 X=numeric,
22:u:Num-2 R=numeric/none,
16:u:Pct-1 R=hyphen,
24:u:Tmn-4 R=moderate/other,
12:u:Pre-2 R=Ve,
24:u:Cap-3 L=moderate/other,
17:*:Num-1 L=numeric,
24:u:Num-2 R=numeric/strong,
13:u:Pos-2 R=4/5,
16:u:Pct-1 X=hyphen,
11:u:Pos-1 X=5,
13:u:Pos-2 L=4/5,
13:u:Pos-2 R=5/5,
16:u:Pct-1 L=hyphen,
13:u:Pos-2 L=5/5,
13:u:Fst-2 R=N/1,
13:u:Fst-2 X=N/1,
11:u:Lst-1 X=N,
13:u:Lst-2 X=N/4,
11:u:Pre-1 X=1,
11:u:Suf-1 X=4,
19:u:Num-2 R=year/none,
13:u:Pos-2 R=5/6,
16:u:Tmn-3 X=none/4,
11:*:Lst-1 L=N,
13:u:Lst-2 L=N/4,
11:u:Pos-1 X=6,
13:u:Pos-2 L=5/6,
13:u:Pos-2 R=6/6,
13:u:Pos-2 L=6/6,
13:u:Pos-2 R=6/7,
11:u:Pos-1 X=7,
13:u:Pos-2 L=6/7,
13:u:Pos-2 R=7/7,
13:u:Pos-2 L=7/7,
13:u:Pos-2 R=7/8,
11:u:Pos-1 X=8,
13:u:Pos-2 L=7/8,
13:u:Pos-2 R=8/8,
13:u:Pos-2 L=8/8,
22:u:tok-1RR=nematologica,
13:u:Pos-2 R=8/9,
14:u:Fst-2 R=Lu/N,
14:u:Lst-2 X=Ll/s,
12:u:Pre-2 R=Ne,
11:u:Suf-1 X=s,
12:u:Suf-2 X=es,
11:u:Pos-1 X=9,
13:u:Pos-2 L=8/9,
13:u:Pos-2 R=9/9,
16:u:Tmn-3 X=none/s,
14:u:Fst-2 X=Lu/N,
14:u:Lst-2 L=Ll/s,
11:u:Pre-1 X=N,
12:u:Pre-2 X=Ne,
12:u:Suf-2 L=es,
12:u:Suf-2 X=ca,
13:u:Pos-2 L=9/9,
12:u:Suf-2 L=ca,
23:u:Cap-2 R=initial/other,
23:u:Cap-2 L=initial/other,
15:u:Num-1 R=range,
13:u:Lst-2 X=N/5,
11:u:Suf-1 X=5,
15:*:Num-1 X=range,
16:u:Num-1 R=double,
20:u:Num-2 R=range/none,
16:u:Tmn-3 X=none/5,
13:u:Lst-2 X=N/0,
11:u:Suf-1 X=0,
15:*:Num-1 L=range,
16:*:Num-1 X=double,
16:u:Num-1 R=single,
21:u:Num-2 R=double/none,
14:u:Pos-2 R=9/10,
16:u:Tmn-3 X=none/0,
11:u:Tok-1 X=1,
11:u:tok-1 X=1,
14:u:tok-1RR=_x+1,
13:u:Lst-2 L=N/0,
13:u:Lst-2 X=N/1,
11:u:Pre-2 X=1,
11:u:Suf-1 X=1,
11:u:Suf-2 X=1,
16:*:Num-1 L=double,
16:*:Num-1 X=single,
21:u:Num-2 R=single/none,
12:u:Pos-1 X=10,
14:u:Pos-2 L=9/10,
17:u:Pos-2 R=10/last,
16:u:Tmn-3 X=none/1,
14:u:tok-1 R=_x+1,
14:u:tok-1RR=_x+2,
14:u:Fst-1 R=_x+1,
19:u:Fst-2 R=_x+1/_x+1,
13:u:Lst-2 L=N/1,
14:u:Pre-2 R=_x+1,
14:u:Cap-1 R=_x+1,
20:u:Cap-2 R=other/_x+1,
16:*:Num-1 L=single,
14:u:Num-1 R=_x+1,
14:u:Key-1 R=_x+1,
14:u:Pos-1 X=last,
17:u:Pos-2 L=10/last,
19:u:Pos-2 R=last/_x+1,
14:u:Pct-1 R=_x+1,
14:u:Brk-1 R=_x+1,
14:u:Tmn-1 R=_x+1,
19:u:Tmn-2 R=none/_x+1,
19:u:Tmn-4 R=none/_x+1,
14:u:Fst-2 X=Lu/S,
11:u:Pre-1 X=S,
12:u:Pre-2 X=Sc,
19:u:tok-1 R=beitr„§ge,
13:u:tok-1RR=zur,
14:u:Fst-2 R=Lu/B,
12:u:Pre-2 R=Be,
14:u:Fst-2 X=Lu/B,
14:u:Fst-2 R=Ll/z,
11:u:Pre-1 X=B,
12:u:Pre-2 X=Be,
12:u:Suf-2 X=ge,
13:u:tok-1RR=und,
14:u:Fst-2 X=Ll/z,
11:u:Pre-1 X=z,
12:u:Pre-2 R=Mo,
12:u:Suf-2 L=ge,
21:u:Tok-1 X=Morphologie,
21:u:tok-1 X=morphologie,
13:u:tok-1 R=und,
20:u:tok-1RR=systematik,
25:u:tok-2 R=morphologie/und,
14:u:Fst-2 R=Ll/u,
12:u:Pre-2 X=Mo,
12:u:Pre-2 R=un,
12:u:Suf-2 X=ie,
13:u:Key-1 R=and,
18:u:Tmn-2 R=none/and,
13:u:Tok-1 X=und,
13:u:tok-1 X=und,
21:u:tok-1 L=morphologie,
20:u:tok-1 R=systematik,
25:u:tok-2 L=morphologie/und,
24:u:tok-2 R=und/systematik,
14:u:Fst-2 R=Lu/S,
14:u:Lst-2 X=Ll/d,
12:u:Pre-2 X=un,
12:u:Pre-2 R=Sy,
11:u:Suf-1 X=d,
12:u:Suf-2 L=ie,
12:u:Suf-2 X=nd,
13:u:Key-1 X=and,
19:u:Key-2 X=and/lower,
18:u:Key-3 L=none/and,
18:u:Key-3 x=and/none,
16:u:Tmn-3 X=none/d,
20:u:tok-1 X=systematik,
21:u:tok-1LL=morphologie,
13:u:tok-1 L=und,
24:u:tok-2 L=und/systematik,
14:u:Lst-2 L=Ll/d,
14:u:Lst-2 X=Ll/k,
11:u:Suf-1 X=k,
12:u:Suf-2 L=nd,
12:u:Suf-2 X=ik,
13:u:Key-1 L=and,
18:u:Tmn-2 L=and/none,
16:u:Tmn-3 X=none/k,
13:u:tok-1LL=und,
20:u:tok-1 L=systematik,
14:u:Lst-2 L=Ll/k,
12:u:Pre-2 R=ma,
12:u:Suf-2 L=ik,
12:u:Suf-2 X=er,
20:u:tok-1LL=systematik,
12:u:Pre-2 X=ma,
12:u:Suf-2 L=er,
14:u:Fst-2 R=Lu/I,
12:u:Suf-2 X=en,
21:u:Tmn-4 R=none/single,
11:u:tok-1 X=i,
14:u:Fst-2 X=Lu/I,
11:u:Pre-1 X=I,
12:u:Suf-2 L=en,
12:u:Suf-2 X=I.,
21:u:Cap-3 L=none/single,
12:u:tok-1RR=3:,
12:u:Pre-2 R=Me,
12:u:Suf-2 L=I.,
13:u:Fst-2 R=N/3,
12:u:Pre-2 X=Me,
13:u:Fst-2 X=N/3,
11:u:Pre-1 X=3,
23:u:Brk-1 L=closing-angle,
12:u:Pre-2 R=Sc,
16:u:tok-1 R=kieler,
27:u:tok-1RR=meeresforschungen,
14:u:Fst-2 R=Lu/K,
12:u:Pre-2 R=Ki,
16:u:Tok-1 X=Kieler,
16:u:tok-1 X=kieler,
27:u:tok-1 R=meeresforschungen,
34:u:tok-2 R=kieler/meeresforschungen,
14:u:Fst-2 X=Lu/K,
11:u:Pre-1 X=K,
12:u:Pre-2 X=Ki,
27:u:Tok-1 X=Meeresforschungen,
27:u:tok-1 X=meeresforschungen,
34:u:tok-2 L=kieler/meeresforschungen,
34:u:tok-2 R=meeresforschungen/kieler,
16:u:tok-1LL=kieler,
27:u:tok-1 L=meeresforschungen,
34:u:tok-2 L=meeresforschungen/kieler,
13:u:Lst-2 L=N/3,
14:u:Fst-2 X=Lu/H,
14:u:Fst-2 R=Lu/H,
11:u:Pre-1 X=H,
12:u:Pre-2 X=Ha,
12:u:Suf-2 X=n,,
14:u:Fst-2 R=Lu/Z,
12:u:Pre-2 R=Ze,
12:u:Suf-2 L=n,,
14:u:Fst-2 X=Lu/Z,
11:u:Pre-1 X=Z,
12:u:Pre-2 X=Ze,
12:u:Pre-2 R=No,
14:u:Fst-2 R=Lu/P,
12:u:Pre-2 X=No,
14:u:Cap-1 R=caps,
22:u:Cap-2 R=initial/caps,
19:u:Tmn-4 R=weak/caps,
14:u:Fst-2 X=Lu/P,
11:u:Pre-1 X=P,
14:u:Cap-1 X=caps,
22:u:Cap-2 L=initial/caps,
20:u:Cap-2 R=caps/other,
19:u:Cap-3 L=weak/caps,
19:u:Key-2 X=none/caps,
16:u:tok-1RR=marine,
14:u:Fst-2 R=Lu/T,
12:u:Pre-2 R=Th,
14:u:Cap-1 L=caps,
20:u:Cap-2 L=caps/other,
13:u:Tok-1 X=The,
16:u:tok-1 R=marine,
20:u:tok-2 R=the/marine,
14:u:Fst-2 X=Lu/T,
11:u:Pre-1 X=T,
12:u:Pre-2 X=Th,
16:u:tok-1 X=marine,
12:u:Pre-2 R=de,
12:u:Suf-2 X=ne,
16:u:tok-1 L=marine,
14:u:Fst-2 R=Lu/C,
12:u:Pre-2 X=de,
12:u:Pre-2 R=Cr,
12:u:Suf-2 L=ne,
16:u:tok-1LL=marine,
14:u:Fst-2 X=Lu/C,
11:u:Pre-1 X=C,
12:u:Suf-2 X=ea,
16:u:tok-2 R=of/the,
12:u:Suf-2 L=ea,
16:u:tok-2 L=of/the,
14:u:Fst-2 R=Lu/L,
12:u:Pre-2 R=La,
14:u:Fst-2 X=Lu/L,
11:u:Pre-1 X=L,
12:u:Pre-2 X=La,
12:u:Suf-2 X=a,,
12:u:Suf-2 L=a,,
12:u:Suf-2 X=a.,
12:u:Suf-2 L=a.,
16:*:Num-1 X=volume,
16:*:Num-1 L=volume,
13:u:Fst-2 R=N/2,
13:u:Fst-2 X=N/2,
11:u:Pre-1 X=2,
12:u:Suf-2 X=ia,
12:u:Suf-2 L=ia,
12:u:Suf-2 X=na,
12:u:Suf-2 L=na,
11:u:tok-1 L=5,
11:u:Suf-2 L=5,
12:u:tok-1LL=p.,
14:u:Fst-2 R=Ll/p,
12:u:Suf-2 X=ue,
14:u:Fst-2 X=Ll/p,
11:u:Pre-1 X=p,
12:u:Suf-2 L=ue,
12:u:Suf-2 X=te,
13:u:tok-1RR=aus,
12:u:Pre-2 R=Ma,
12:u:Suf-2 L=te,
13:u:tok-1 R=aus,
13:u:tok-1RR=der,
12:u:Pre-2 X=Ma,
12:u:Pre-2 R=au,
12:u:Suf-2 X=da,
13:u:Tok-1 X=aus,
13:u:tok-1 R=der,
12:u:Pre-2 X=au,
12:u:Suf-2 X=us,
13:u:Tok-1 X=der,
13:u:tok-1 X=der,
12:u:Suf-2 L=us,
13:u:tok-1LL=aus,
13:u:tok-1 L=der,
13:u:tok-1 R=von,
14:u:Fst-2 R=Ll/v,
12:u:Pre-2 R=vo,
12:u:Suf-2 X=ft,
13:u:Tok-1 X=von,
13:u:tok-1 X=von,
13:u:tok-1LL=der,
14:u:Fst-2 X=Ll/v,
11:u:Pre-1 X=v,
12:u:Pre-2 X=vo,
12:u:Pre-2 R=Pa,
12:u:Suf-2 L=ft,
13:u:tok-1 L=von,
12:u:Pre-2 X=Pa,
12:u:Suf-2 X=m.,
13:u:tok-1LL=von,
12:u:Pre-2 R=An,
12:u:Suf-2 L=m.,
12:u:Pre-2 X=An,
13:u:Lst-2 X=N/2,
11:u:Suf-1 X=2,
16:u:Tmn-3 X=none/2,
13:u:Lst-2 L=N/2,
22:u:tok-1 R=zoologischer,
18:u:tok-1RR=anzeiger,
12:u:Pre-2 R=Zo,
12:u:Suf-2 X=um,
22:u:Tok-1 X=Zoologischer,
22:u:tok-1 X=zoologischer,
18:u:tok-1 R=anzeiger,
31:u:tok-2 R=zoologischer/anzeiger,
12:u:Pre-2 X=Zo,
12:u:Suf-2 L=um,
18:u:Tok-1 X=Anzeiger,
18:u:tok-1 X=anzeiger,
22:u:tok-1 L=zoologischer,
31:u:tok-2 L=zoologischer/anzeiger,
31:u:tok-2 R=anzeiger/zoologischer,
22:u:tok-1LL=zoologischer,
18:u:tok-1 L=anzeiger,
31:u:tok-2 L=anzeiger/zoologischer,
16:*:Num-1 X=triple,
21:u:Num-2 R=triple/none,
16:*:Num-1 L=triple,
12:u:Suf-2 X=s,,
12:u:Tok-1 X=S.,
11:u:tok-1 X=s,
12:u:Pre-2 X=S.,
12:u:Suf-2 X=S.,
14:u:Key-1 X=page,
21:u:Key-2 X=page/single,
21:u:Key-3 x=page/strong,
12:u:Pre-2 R=Co,
12:u:Pre-2 X=Co,
12:u:Suf-2 X=ns,
12:u:Suf-2 L=ns,
22:u:tok-1 L=distribution,
12:u:tok-1RR=in,
14:u:Lst-2 X=Ll/c,
11:u:Suf-1 X=c,
12:u:Suf-2 X=ic,
16:u:Tmn-3 X=none/c,
12:u:tok-1 R=in,
14:u:Fst-2 R=Ll/i,
14:u:Lst-2 L=Ll/c,
12:u:Pre-2 R=in,
12:u:Suf-2 L=ic,
12:u:Suf-2 X=ds,
12:u:Key-1 R=in,
17:u:Tmn-2 R=none/in,
12:u:Tok-1 X=in,
12:u:tok-1 X=in,
14:u:Fst-2 X=Ll/i,
11:u:Pre-1 X=i,
12:u:Pre-2 X=in,
12:u:Suf-2 L=ds,
12:u:Suf-2 X=in,
12:u:Key-1 X=in,
18:u:Key-2 X=in/lower,
17:u:Key-3 L=none/in,
17:u:Key-3 x=in/none,
12:u:tok-1 L=in,
12:u:Suf-2 L=in,
12:u:Key-1 L=in,
17:u:Tmn-2 L=in/none,
12:u:tok-1LL=in,
23:u:Tok-1 X=Mediterranean,
23:u:tok-1 X=mediterranean,
12:u:Suf-2 L=rn,
23:u:tok-1 L=mediterranean,
12:u:Suf-2 X=ff,
23:u:tok-1LL=mediterranean,
12:u:Suf-2 L=ff,
15:u:tok-1 L=coast,
15:u:tok-1LL=coast,
12:u:Pre-2 X=Le,
12:u:Suf-2 X=n.,
12:u:Suf-2 L=n.,
12:u:Suf-2 X=ta,
12:u:Suf-2 L=ta,
12:u:Pre-2 X=18,
12:u:Suf-2 X=2.,
12:u:Suf-2 L=2.,
14:u:tok-1RR=acta,
14:u:tok-1 R=acta,
14:u:Tok-1 X=Acta,
14:u:tok-1 X=acta,
12:u:Pre-2 X=Ac,
14:u:tok-1 L=acta,
14:u:tok-1LL=acta,
14:u:Fst-2 R=Lu/G,
12:u:Pre-2 X=Bu,
14:u:Fst-2 X=Lu/G,
11:u:Pre-1 X=G,
13:u:tok-1 L=g.;,
12:u:Pre-2 X=Ho,
12:u:Suf-2 X=u,,
13:u:tok-1LL=g.;,
12:u:Suf-2 L=u,,
12:u:Pre-2 X=Gr,
12:u:tok-1RR=j.,
12:u:Pre-2 R=Pe,
14:u:Fst-2 R=Lu/J,
12:u:Pre-2 X=Pe,
12:u:Tok-1 X=J.,
11:u:tok-1 X=j,
14:u:Fst-2 X=Lu/J,
11:u:Pre-1 X=J,
12:u:Pre-2 X=J.,
12:u:Suf-2 X=J.,
12:u:tok-1 L=j.,
12:u:Pre-2 R=Pr,
12:u:Suf-2 L=J.,
12:u:tok-1LL=j.,
14:u:Fst-2 R=Ll/s,
12:u:Pre-2 X=Pr,
12:u:Pre-2 R=se,
14:u:Fst-2 X=Ll/s,
11:u:Pre-1 X=s,
12:u:Pre-2 X=se,
12:u:Suf-2 L=ma,
14:u:Lst-2 X=Ll/i,
11:u:Suf-1 X=i,
16:u:Tmn-3 X=none/i,
14:u:Lst-2 L=Ll/i,
12:u:Pre-2 X=<i,
12:u:Suf-2 X=oa,
21:u:Cap-2 R=other/lower,
21:u:Cap-2 L=other/lower,
12:u:tok-1 X=de,
14:u:Fst-2 R=Lu/F,
12:u:Suf-2 X=de,
14:u:Fst-2 X=Lu/F,
11:u:Pre-1 X=F,
12:u:Suf-2 L=de,
20:u:Tmn-4 R=weak/other,
20:u:Cap-3 L=weak/other,
12:u:Suf-2 X=il,
22:u:tok-1 X=mediterraneo,
12:u:Suf-2 L=il,
14:u:Lst-2 X=Ll/o,
11:u:Suf-1 X=o,
12:u:Suf-2 X=no,
16:u:Tmn-3 X=none/o,
14:u:Lst-2 L=Ll/o,
12:u:Pre-2 R=Bu,
20:u:tok-1RR=bollettino,
22:u:Tok-1 X=Mediterraneo,
20:u:tok-1 R=bollettino,
22:u:tok-1RR=malacologico,
12:u:Pre-2 R=Bo,
12:u:Suf-2 X=eo,
20:u:Tok-1 X=Bollettino,
20:u:tok-1 X=bollettino,
22:u:tok-1 L=mediterraneo,
12:u:Pre-2 X=Bo,
12:u:Suf-2 L=eo,
22:u:Tok-1 X=Malacologico,
22:u:tok-1 X=malacologico,
33:u:tok-2 R=malacologico/bollettino,
12:u:Suf-2 X=co,
22:u:tok-1 L=malacologico,
33:u:tok-2 L=malacologico/bollettino,
12:u:Suf-2 L=co,
13:u:Fst-2 X=N/0,
11:u:Pre-1 X=0,
23:u:Cap-2 R=single/single,
23:u:Tmn-4 R=strong/single,
12:u:tok-1 R=r.,
14:u:Fst-2 R=Lu/R,
14:u:Fst-2 X=Lu/R,
11:u:Pre-1 X=R,
14:u:Fst-2 R=Ll/l,
12:u:Suf-2 X=is,
14:u:Fst-2 X=Ll/l,
11:u:Pre-1 X=l,
12:u:Pre-2 R=sp,
12:u:Suf-2 L=is,
12:u:tok-1RR=an,
14:u:Fst-2 R=Ll/n,
12:u:Pre-2 X=sp,
12:u:Pre-2 R=no,
14:u:Fst-2 X=Ll/n,
11:u:Pre-1 X=n,
12:u:Pre-2 R=an,
12:u:Suf-2 L=p.,
12:u:Pre-2 X=an,
12:u:tok-1LL=an,
21:u:Num-2 R=none/parens,
17:u:tok-1RR=journal,
12:u:Suf-2 X=t.,
17:u:tok-1 R=journal,
25:u:tok-2 R=belgian/journal,
12:u:Pre-2 R=Jo,
12:u:Suf-2 L=t.,
17:u:Key-1 R=journal,
22:u:Tmn-2 R=none/journal,
17:u:Tok-1 X=Journal,
17:u:tok-1 X=journal,
20:u:tok-2 R=journal/of,
12:u:Pre-2 X=Jo,
17:u:Key-1 X=journal,
25:u:Key-2 X=journal/initial,
22:u:Key-3 L=none/journal,
22:u:Key-3 x=journal/none,
17:u:tok-1 L=journal,
20:u:tok-2 L=journal/of,
17:u:Key-1 L=journal,
22:u:Tmn-2 L=journal/none,
17:u:tok-1 X=zoology,
17:u:tok-1LL=journal,
12:u:Suf-2 L=y,,
15:u:Brk-1 L=other,
17:u:tok-1RR=zoology,
17:u:tok-1 R=zoology,
20:u:tok-2 R=of/zoology,
17:u:Tok-1 X=Zoology,
20:u:tok-2 L=of/zoology,
17:u:tok-1 L=zoology,
15:u:Pos-2 R=10/10,
11:u:Tok-1 X=2,
11:u:tok-1 X=2,
11:u:Pre-2 X=2,
12:u:Pre-2 R=10,
11:u:Suf-2 X=2,
15:u:Pos-2 L=10/10,
12:u:Pre-2 X=10,
12:u:Pre-2 R=Fa,
12:u:Pre-2 X=Fa,
12:u:Suf-2 X=ch,
12:u:Pre-2 R=St,
12:u:Suf-2 L=ch,
12:u:Pre-2 X=St,
12:u:Pre-2 R=Ro,
12:u:Pre-2 X=Ro,
12:u:Pre-2 X=Ge,
12:u:Pre-2 R=Mi,
21:u:tok-1RR=zeitschrift,
21:u:tok-1 R=zeitschrift,
12:u:Pre-2 R=Al,
12:u:Lst-1 X=Lu,
11:u:tok-1 L=b,
12:*:Lst-1 L=Lu,
14:u:Lst-2 L=Lu/B,
11:u:Suf-2 L=B,
11:u:tok-1LL=b,
27:u:tok-1 R=wissenschaftliche,
12:u:Pre-2 R=Wi,
27:u:Tok-1 X=Wissenschaftliche,
27:u:tok-1 X=wissenschaftliche,
14:u:Fst-2 X=Lu/W,
11:u:Pre-1 X=W,
12:u:Pre-2 X=Wi,
14:u:Lst-2 X=Ll/g,
11:u:Suf-1 X=g,
16:u:Tmn-3 X=none/g,
14:u:Lst-2 L=Ll/g,
12:u:Suf-2 L=rg,
12:u:Suf-2 X=g.,
12:u:Pre-2 R=Re,
12:u:Suf-2 L=g.,
16:u:Key-1 R=series,
21:u:Tmn-2 R=none/series,
12:u:Pre-2 X=Re,
16:u:Key-1 X=series,
24:u:Key-2 X=series/initial,
21:u:Key-3 L=none/series,
21:u:Key-3 x=series/none,
16:u:Key-1 L=series,
13:u:tok-1RR=van,
12:u:Pre-2 X=Ni,
13:u:tok-1 R=van,
12:u:tok-1RR=de,
12:u:Pre-2 R=va,
13:u:Tok-1 X=van,
13:u:tok-1 X=van,
12:u:tok-1 R=de,
12:u:Pre-2 X=va,
12:u:Tok-1 X=de,
13:u:tok-1 L=van,
13:u:tok-1LL=van,
12:u:tok-1 L=de,
12:u:tok-1LL=de,
12:u:Suf-2 X=la,
12:u:Pre-2 R=He,
12:u:Suf-2 L=la,
12:u:Pre-2 X=He,
12:u:Pre-2 R=la,
12:u:Pre-2 X=la,
12:u:Suf-2 X=gs,
12:u:Suf-2 L=gs,
14:u:Fst-2 R=Lu/O,
14:u:Fst-2 X=Lu/O,
11:u:Pre-1 X=O,
12:u:Suf-2 X=De,
19:u:tok-1RR=strandvlo,
12:u:Tok-1 X=De,
19:u:tok-1 R=strandvlo,
22:u:tok-2 R=de/strandvlo,
19:u:Tok-1 X=Strandvlo,
20:u:tok-1RR=strandvlo:,
22:u:tok-2 L=de/strandvlo,
22:u:tok-2 R=strandvlo/de,
12:u:Suf-2 X=lo,
19:u:tok-1 L=strandvlo,
20:u:tok-1 R=strandvlo:,
25:u:tok-1RR=driemaandelijks,
22:u:tok-2 L=strandvlo/de,
23:u:tok-2 R=de/strandvlo:,
12:u:Suf-2 L=lo,
21:u:tok-1RR=tijdschrift,
12:u:Pre-2 R=Dr,
21:u:tok-1 R=tijdschrift,
12:u:Pre-2 X=Dr,
12:u:Pre-2 R=Ti,
21:u:Tok-1 X=Tijdschrift,
21:u:tok-1 X=tijdschrift,
12:u:Pre-2 X=Ti,
12:u:Suf-2 L=ks,
14:u:Lst-2 L=Ll/p,
11:u:tok-1RR=&,
12:u:Pre-2 R=K.,
11:u:tok-1 R=&,
13:u:Fst-2 R=P/&,
11:u:Pre-2 R=&,
12:u:Suf-2 X=A.,
13:u:Pct-1 R=amp,
11:u:Tok-1 X=&,
15:u:tok-1 X=BLANK,
11:*:Fst-1 X=P,
13:u:Fst-2 X=P/&,
13:u:Lst-2 X=P/&,
11:u:Pre-1 X=&,
11:u:Pre-2 X=&,
11:u:Suf-1 X=&,
11:u:Suf-2 X=&,
19:u:Key-2 X=and/other,
13:u:Pct-1 X=amp,
16:u:Tmn-3 X=none/&,
11:u:tok-1 L=&,
13:u:Lst-2 L=P/&,
12:u:Pre-2 R=Cl,
11:u:Suf-2 L=&,
13:u:Pct-1 L=amp,
21:u:Tmn-2 R=none/volume,
16:u:Key-1 X=volume,
21:u:Key-3 L=none/volume,
16:u:Key-1 L=volume,
12:u:Pre-2 R=So,
12:u:Pre-2 X=So,
12:u:Pre-2 R=Bi,
18:u:tok-1 L=southern,
12:u:Pre-2 X=Bi,
12:u:Pre-2 R=Se,
13:u:tok-1 X=sea,
15:u:tok-1 L=north,
12:u:Pre-2 X=Se,
15:u:tok-1LL=north,
12:u:Pre-2 R=fi,
12:u:Pre-2 X=fi,
12:u:Pre-2 R=Fr,
12:u:Pre-2 X=Fr,
13:u:tok-1 R=sea,
13:u:Tok-1 X=Sea,
13:u:tok-1 L=sea,
13:u:tok-1LL=sea,
12:u:Suf-2 X=.),
12:u:Suf-2 L=.),
22:u:Num-2 R=numeric/weak,
12:u:Pre-2 X=Ba,
12:u:Pre-2 X=Ph,
12:u:Suf-2 X=hy,
12:u:Suf-2 L=hy,
16:u:tok-1RR=marina,
16:u:tok-1 R=marina,
16:u:tok-1 X=marina,
17:u:tok-1 R=species,
17:u:Tok-1 X=species,
17:u:tok-1 X=species,
17:u:tok-1 L=species,
13:u:tok-1RR=for,
12:u:Suf-2 X=x:,
17:u:tok-1LL=species,
13:u:tok-1 R=for,
12:u:Pre-2 R=fo,
12:u:Suf-2 L=x:,
12:u:Suf-2 X=ce,
13:u:Tok-1 X=for,
13:u:tok-1 X=for,
12:u:Pre-2 X=fo,
12:u:Suf-2 L=ce,
12:u:Suf-2 X=or,
13:u:tok-1 L=for,
13:u:tok-1RR=and,
12:u:Suf-2 L=or,
13:u:tok-1LL=for,
13:u:tok-1 R=and,
13:u:Tok-1 X=and,
13:u:tok-1 X=and,
13:u:tok-1 L=and,
14:u:Fst-2 R=Ll/r,
13:u:tok-1LL=and,
14:u:Fst-2 X=Ll/r,
11:u:Pre-1 X=r,
12:u:Pre-2 R=re,
12:u:Pre-2 X=re,
12:u:Suf-2 L=ed,
14:u:Lst-2 X=Ll/w,
11:u:Suf-1 X=w,
16:u:Tmn-3 X=none/w,
14:u:Lst-2 L=Ll/w,
12:u:Suf-2 L=ow,
18:u:tok-1 X=atlantic,
12:u:Pre-2 X=At,
12:u:Suf-2 X=c.,
12:u:Pre-2 R=Ec,
12:u:Pre-2 X=Ec,
19:u:tok-1RR=molecular,
19:u:tok-1 R=molecular,
17:u:tok-1RR=ecology,
19:u:Tok-1 X=Molecular,
17:u:tok-1 R=ecology,
17:u:tok-1 X=ecology,
18:u:tok-1LL=atlantic,
17:u:tok-1 L=ecology,
17:u:tok-1LL=ecology,
14:u:Lst-2 X=Ll/x,
11:u:Suf-1 X=x,
16:u:Tmn-3 X=none/x,
12:u:Pre-2 R=Oc,
12:u:Pre-2 X=Oc,
12:u:Suf-2 X=to,
12:u:Suf-2 L=as,
20:u:tok-1RR=biological,
16:u:Tok-1 X=Marine,
20:u:tok-1 R=biological,
27:u:tok-2 R=marine/biological,
20:u:Tok-1 X=Biological,
20:u:tok-1 X=biological,
21:u:Tok-1 X=Association,
21:u:tok-1 X=association,
20:u:tok-1 L=biological,
32:u:tok-2 L=biological/association,
24:u:tok-2 R=association/of,
12:u:Pre-2 X=As,
20:u:tok-1LL=biological,
21:u:tok-1 L=association,
24:u:tok-2 L=association/of,
21:u:tok-1LL=association,
14:u:Fst-2 R=Lu/U,
14:u:Fst-2 X=Lu/U,
11:u:Pre-1 X=U,
14:u:tok-1RR=sea),
14:u:tok-1 R=sea),
14:u:Tok-1 X=Sea),
24:u:Tmn-2 R=strong/journal,
24:u:Key-3 L=strong/journal,
19:u:Tmn-4 R=none/caps,
12:u:tok-1 X=uk,
20:u:Cap-2 L=lower/caps,
22:u:Cap-2 R=caps/initial,
19:u:Cap-3 L=none/caps,
22:u:Cap-2 L=caps/initial,
12:u:Pre-2 R=Un,
12:u:Pre-2 X=Un,
17:u:Tok-1 X=Kingdom,
17:u:tok-1 X=kingdom,
16:u:tok-1 L=united,
24:u:tok-2 L=united/kingdom,
12:u:Suf-2 X=d.,
12:u:Pre-2 R=21,
12:u:Suf-2 X=h,,
12:u:Suf-2 L=h,,
18:u:tok-1RR=mollusca,
18:u:tok-1 R=mollusca,
16:u:tok-1RR=israel,
16:u:tok-1 R=israel,
12:u:Pre-2 R=Is,
16:u:Tok-1 X=Israel,
16:u:tok-1 X=israel,
19:u:tok-2 L=of/israel,
12:u:Pre-2 X=Is,
12:u:Suf-2 X=el,
16:u:tok-1 L=israel,
12:u:Pre-2 R=Si,
12:u:Suf-2 L=el,
16:u:tok-1LL=israel,
12:u:Pre-2 X=Si,
12:u:Suf-2 L=i.,
12:u:Pre-2 R=31,
24:u:tok-2 R=israel/journal,
24:u:tok-2 L=israel/journal,
12:u:tok-1RR=k.,
12:u:Suf-2 X=K.,
12:u:Pre-2 R=Fi,
12:u:Pre-2 X=Fi,
12:u:Suf-2 X=rd,
12:u:Suf-2 L=rd,
12:u:Suf-2 X=sh,
14:u:Fst-2 R=Ll/b,
12:u:Suf-2 L=sh,
14:u:Fst-2 X=Ll/b,
11:u:Pre-1 X=b,
12:u:Suf-2 X=ng,
12:u:Suf-2 L=ng,
14:u:Lst-2 X=Ll/u,
11:u:Suf-1 X=u,
16:u:Tmn-3 X=none/u,
14:u:Lst-2 L=Ll/u,
14:u:tok-1RR=part,
14:u:tok-1 R=part,
14:u:tok-1 X=part,
12:u:Suf-2 X=rt,
14:u:tok-1 L=part,
12:u:Suf-2 L=rt,
15:u:tok-1RR=zool.,
14:u:tok-1 X=zool,
12:u:Suf-2 X=l.,
15:u:tok-1 L=zool.,
12:u:Suf-2 L=l.,
15:u:tok-1LL=zool.,
12:u:Suf-2 L=42,
12:u:tok-1RR=la,
12:u:tok-1 R=la,
12:u:Tok-1 X=la,
12:u:tok-1 X=la,
13:u:tok-1RR=des,
12:u:Pre-2 R=fa,
12:u:tok-1 L=la,
13:u:tok-1 R=des,
12:u:Pre-2 X=fa,
13:u:Tok-1 X=des,
13:u:tok-1 X=des,
12:u:tok-1LL=la,
13:u:tok-1 L=des,
13:u:tok-1LL=des,
16:u:tok-1LL=marins,
12:u:Suf-2 X=f.,
12:u:Suf-2 X=ux,
15:u:tok-2 R=de/la,
14:u:Lst-2 L=Ll/x,
12:u:Suf-2 L=ux,
15:u:tok-2 L=de/la,
17:u:Tok-1 X=Station,
17:u:tok-1 X=station,
17:u:tok-1 L=station,
17:u:tok-1LL=station,
12:u:Pre-2 R=Tr,
12:u:Pre-2 X=Tr,
12:u:Suf-2 X=ry,
12:u:Suf-2 L=ry,
12:u:Pre-2 R=We,
12:u:Pre-2 X=We,
12:u:Suf-2 X=ls,
12:u:Suf-2 L=ls,
12:u:Pre-2 R=be,
12:u:Pre-2 X=be,
13:u:Lst-2 X=P/',
11:u:Suf-1 X=',
20:u:Tmn-3 X=moderate/',
13:u:Lst-2 L=P/',
12:u:Suf-2 X=ra,
16:u:tok-1 L=genera,
12:u:Suf-2 L=ra,
16:u:tok-1LL=genera,
17:u:tok-1 R=natural,
12:u:Pre-2 R=Na,
17:u:Tok-1 X=Natural,
17:u:tok-1 X=natural,
12:u:Pre-2 X=Na,
12:u:Pre-2 R=Hi,
17:u:tok-1 L=natural,
12:u:Pre-2 X=Hi,
17:u:tok-1LL=natural,
17:u:tok-1 R=history,
25:u:tok-2 R=natural/history,
17:u:Tok-1 X=History,
17:u:tok-1 X=history,
25:u:tok-2 L=natural/history,
25:u:tok-2 R=history/journal,
17:u:tok-1 L=history,
17:u:tok-1LL=history,
11:u:tok-1 X=c,
13:u:tok-1 X=new,
12:u:Suf-2 X=ew,
13:u:tok-1 L=new,
12:u:Suf-2 L=ew,
13:u:tok-1LL=new,
15:u:tok-1 L=genus,
20:u:tok-1 L=freshwater,
16:u:tok-1RR=s„©rie,
20:u:tok-1LL=freshwater,
16:u:tok-1 R=s„©rie,
13:u:Pre-2 R=S√©,
15:u:tok-1 X=serie,
16:u:tok-1 L=s„©rie,
16:u:tok-1LL=s„©rie,
12:u:Pre-2 R=Vo,
20:u:tok-1 R=iheringia.,
12:u:Pre-2 R=Ih,
20:u:Tok-1 X=Iheringia.,
19:u:tok-1 X=iheringia,
18:u:tok-1RR=zoologia,
27:u:tok-2 R=iheringia./s„©rie,
12:u:Pre-2 X=Ih,
18:u:tok-1 X=zoologia,
20:u:tok-1LL=iheringia.,
25:u:tok-2 L=s„©rie/zoologia,
29:u:tok-2 R=zoologia/iheringia.,
13:u:tok-1RR=het,
13:u:tok-1 R=het,
12:u:Pre-2 R=he,
13:u:Tok-1 X=het,
13:u:tok-1 X=het,
12:u:Pre-2 X=he,
12:u:Suf-2 X=et,
13:u:tok-1 L=het,
12:u:Suf-2 L=et,
12:u:Suf-2 X=jk,
13:u:tok-1LL=het,
12:u:Suf-2 L=jk,
12:u:Suf-2 X=se,
12:u:Suf-2 L=se,
12:u:Suf-2 X=e.,
12:u:Suf-2 L=e.,
29:u:tok-1RR=correspondentieblad,
12:u:Lst-1 X=Pd,
14:u:Lst-2 X=Pd/-,
11:u:Suf-1 X=-,
16:u:Tmn-3 X=weak/-,
12:*:Lst-1 L=Pd,
21:u:tok-1 R=nederlandse,
21:u:Tok-1 X=Nederlandse,
21:u:tok-1 X=nederlandse,
21:u:tok-1 L=nederlandse,
21:u:tok-1LL=nederlandse,
21:u:Cap-3 L=strong/caps,
18:u:tok-1 R=spirula.,
12:u:Pre-2 R=Sp,
12:u:Pre-2 X=Sp,
12:u:Pre-2 X=Ga,
12:u:Pre-2 R=Ar,
12:u:Pre-2 X=Ar,
12:u:Pre-2 R=W.,
12:u:Pre-2 R=Gl,
12:u:Pre-2 X=Gl,
23:u:Key-3 L=strong/volume,
14:u:Lst-2 X=Lu/E,
11:u:Suf-1 X=E,
16:u:Tmn-3 X=none/E,
15:u:tok-1 X=ocean,
17:u:tok-1LL=pacific,
12:u:Pre-2 X=to,
12:u:tok-1 L=to,
12:u:tok-1LL=to,
15:u:Tok-1 X=Ocean,
23:u:tok-1 R=contributions,
12:u:Pre-2 X=Ku,
19:u:tok-1LL=helgoland,
13:u:tok-1LL=den,
12:u:Pre-2 R=pr,
12:u:Pre-2 R=Ko,
12:u:Pre-2 X=Ko,
16:u:tok-1RR=series,
16:u:tok-1 R=series,
16:u:Tok-1 X=Series,
16:u:tok-1 X=series,
16:u:tok-1 L=series,
16:u:tok-1LL=series,
21:u:tok-1 R=proceedings,
21:u:Key-1 R=proceedings,
21:u:Tok-1 X=Proceedings,
21:u:tok-1 X=proceedings,
24:u:tok-2 R=proceedings/of,
21:u:Key-1 X=proceedings,
29:u:Key-2 X=proceedings/initial,
26:u:Key-3 x=proceedings/none,
21:u:tok-1 L=proceedings,
24:u:tok-2 L=proceedings/of,
21:u:Key-1 L=proceedings,
26:u:Tmn-2 L=proceedings/none,
21:u:tok-1LL=proceedings,
18:u:tok-1RR=sciences,
18:u:tok-1 R=sciences,
18:u:Tok-1 X=Sciences,
18:u:tok-1 X=sciences,
26:u:Tmn-2 R=none/proceedings,
18:u:tok-1 L=sciences,
26:u:Key-3 L=none/proceedings,
18:u:tok-1LL=sciences,
12:u:Pre-2 R=Br,
12:u:Pre-2 X=Br,
12:u:Suf-2 X=rs,
12:u:Suf-2 L=rs,
17:u:tok-1 R=coastal,
17:u:tok-1 X=coastal,
16:u:tok-1 X=waters,
17:u:tok-1 L=coastal,
17:u:tok-1LL=coastal,
16:u:tok-1 L=waters,
25:u:tok-2 R=kingdom/journal,
12:u:Suf-2 X=ms,
12:u:Pre-2 R=Fl,
12:u:Suf-2 X=re,
12:u:Pre-2 R=me,
12:u:Suf-2 L=re,
12:u:Pre-2 X=me,
12:u:Pre-2 R=af,
12:u:Pre-2 X=af,
12:u:tok-1LL=by,
12:u:Suf-2 X=ly,
13:u:Lst-2 X=P/?,
12:u:Pre-2 R=Ex,
11:u:Suf-1 X=?,
16:u:Tmn-3 X=weak/?,
22:u:Tok-1 X=Experimental,
22:u:tok-1 X=experimental,
15:u:tok-1LL=beach,
13:u:Lst-2 L=P/?,
18:u:tok-1 X=findings,
22:u:tok-1 L=experimental,
23:u:tok-1RR=environmental,
12:u:Pre-2 R=En,
18:u:tok-1RR=research,
18:u:tok-1 R=research,
18:u:Tok-1 X=Research,
18:u:tok-1 X=research,
25:u:tok-2 R=research/marine,
18:u:tok-1 L=research,
25:u:tok-2 L=research/marine,
18:u:tok-1LL=research,
12:u:Pre-2 R=Ka,
12:u:Suf-2 X=my,
12:u:Suf-2 X=me,
12:u:Suf-2 L=me,
12:u:Pre-2 R=Po,
12:u:Pre-2 X=Po,
11:u:tok-1 X=4,
19:u:tok-1 R=zoologica,
17:u:tok-1RR=scripta,
19:u:tok-1 L=zoologica,
27:u:tok-2 L=zoologica/scripta,
27:u:tok-2 R=scripta/zoologica,
19:u:tok-1LL=zoologica,
17:u:tok-1 L=scripta,
12:u:Pre-2 R=Cy,
12:u:Pre-2 X=Te,
12:u:Pre-2 R=Ri,
14:u:tok-1 X=1991,
18:u:tok-1RR=bulletin,
18:u:tok-1 R=bulletin,
18:u:Tok-1 X=Bulletin,
18:u:tok-1 X=bulletin,
20:u:tok-1RR=l'institut,
18:u:tok-1 L=bulletin,
20:u:tok-1 R=l'institut,
15:u:tok-1RR=royal,
23:u:tok-2 R=de/l'institut,
12:u:Pre-2 R=l',
20:u:Tok-1 X=l'Institut,
19:u:tok-1 X=linstitut,
18:u:tok-1LL=bulletin,
23:u:tok-2 L=de/l'institut,
26:u:tok-2 R=l'institut/royal,
12:u:Pre-2 X=l',
12:u:Suf-2 X=ut,
15:u:tok-1 X=royal,
12:u:Suf-2 L=ut,
15:u:tok-1 L=royal,
20:u:tok-1RR=naturelles,
22:u:tok-2 R=des/sciences,
15:u:tok-1LL=royal,
20:u:tok-1 R=naturelles,
22:u:tok-2 L=des/sciences,
29:u:tok-2 R=sciences/naturelles,
20:u:tok-1 X=naturelles,
29:u:tok-2 L=sciences/naturelles,
18:u:tok-1RR=biologie,
18:u:tok-1 X=belgique,
20:u:tok-1LL=naturelles,
18:u:tok-1 R=biologie,
18:u:Tok-1 X=Biologie,
18:u:tok-1 X=biologie,
19:u:tok-1LL=belgique,,
18:u:tok-1 L=biologie,
18:u:tok-1LL=biologie,
22:u:tok-2 R=bulletin/van,
20:u:tok-1RR=koninklijk,
22:u:tok-2 L=bulletin/van,
17:u:tok-2 R=van/het,
20:u:tok-1 R=koninklijk,
18:u:tok-1RR=belgisch,
17:u:tok-2 L=van/het,
24:u:tok-2 R=het/koninklijk,
20:u:Tok-1 X=Koninklijk,
20:u:tok-1 X=koninklijk,
18:u:tok-1 R=belgisch,
29:u:tok-2 R=koninklijk/belgisch,
19:u:tok-1 R=instituut,
12:u:Pre-2 R=In,
19:u:Tok-1 X=Instituut,
19:u:tok-1 X=instituut,
20:u:tok-1LL=koninklijk,
18:u:tok-1 L=belgisch,
14:u:tok-1 R=voor,
28:u:tok-2 L=belgisch/instituut,
24:u:tok-2 R=instituut/voor,
12:u:Pre-2 X=In,
14:u:Tok-1 X=voor,
14:u:tok-1 X=voor,
18:u:tok-1LL=belgisch,
19:u:tok-1 L=instituut,
24:u:tok-2 L=instituut/voor,
29:u:tok-1 X=natuurwetenschappen,
19:u:tok-1LL=instituut,
14:u:tok-1 L=voor,
11:u:tok-1RR==,
11:u:tok-1 R==,
13:u:Fst-2 R=S/=,
11:u:Pre-2 R==,
11:u:Tok-1 X==,
13:u:Fst-2 X=S/=,
13:u:Lst-2 X=S/=,
11:u:Pre-1 X==,
11:u:Pre-2 X==,
11:u:Suf-1 X==,
11:u:Suf-2 X==,
16:u:Tmn-3 X=none/=,
12:u:Suf-2 X=r.,
12:u:Suf-2 L=r.,
12:u:Suf-2 L='s,
12:u:Pre-2 R=Ja,
12:u:Pre-2 X=Ja,
17:u:tok-1 X=islands,
17:u:tok-1 L=islands,
14:u:Lst-2 X=Ll/v,
11:u:Suf-1 X=v,
12:u:Suf-2 X=iv,
16:u:Tmn-3 X=none/v,
14:u:Lst-2 L=Ll/v,
12:u:Pre-2 R=zo,
12:u:Suf-2 L=iv,
12:u:Pre-2 X=zo,
17:u:Num-1 R=ordinal,
17:*:Num-1 X=ordinal,
22:u:Num-2 R=ordinal/none,
17:*:Num-1 L=ordinal,
16:u:tok-1RR=museum,
16:u:tok-1 R=museum,
24:u:tok-2 R=history/museum,
12:u:Pre-2 R=Mu,
16:u:Tok-1 X=Museum,
16:u:tok-1 X=museum,
19:u:tok-2 R=museum/of,
12:u:Pre-2 X=Mu,
16:u:tok-1 L=museum,
19:u:tok-2 L=museum/of,
16:u:tok-1LL=museum,
17:u:tok-1RR=science,
19:u:Cap-2 R=caps/caps,
17:u:tok-1 R=science,
19:u:Cap-2 L=caps/caps,
17:u:Tok-1 X=Science,
17:u:tok-1 X=science,
17:u:tok-1 L=science,
17:u:tok-1LL=science,
21:u:Tmn-2 L=series/none,
22:u:tok-1RR=indo-pacific,
22:u:tok-1 R=indo-pacific,
22:u:Tok-1 X=Indo-Pacific,
22:u:tok-1 L=indo-pacific,
12:u:Suf-2 X=La,
12:u:Suf-2 L=La,
12:u:Suf-2 X=30,
12:u:Suf-2 L=30,
20:u:tok-1RR=conchiglia,
12:u:Tok-1 X=La,
20:u:tok-1 R=conchiglia,
23:u:tok-2 R=la/conchiglia,
20:u:Tok-1 X=Conchiglia,
20:u:tok-1 X=conchiglia,
23:u:tok-2 L=la/conchiglia,
23:u:tok-2 R=conchiglia/la,
20:u:tok-1 L=conchiglia,
23:u:tok-2 L=conchiglia/la,
12:u:Suf-2 X=cs,
12:u:Suf-2 L=cs,
12:u:Suf-2 X=1),
13:u:Tok-1 X=New,
17:u:Tok-1 X=Species,
12:u:Suf-2 X=e),
12:u:Pre-2 R=Hy,
12:u:Suf-2 L=e),
12:u:Pre-2 X=Hy,
12:u:Suf-2 X=ts,
12:u:Suf-2 L=ts,
12:u:Suf-2 X=h.,
12:u:Suf-2 L=h.,
12:u:Suf-2 L=ee,
20:u:tok-1RR=zoological,
20:u:tok-1 R=zoological,
20:u:Tok-1 X=Zoological,
20:u:tok-1 X=zoological,
20:u:tok-1 L=zoological,
20:u:tok-1LL=zoological,
12:u:tok-1 L=as,
37:u:Num-2 R=none/closing-square-bracket,
32:u:Brk-1 X=closing-square-bracket,
32:u:Brk-1 L=closing-square-bracket,
12:u:Pre-2 R=oc,
12:u:Pre-2 X=oc,
17:u:tok-1RR=biology,
17:u:tok-1 R=biology,
17:u:Tok-1 X=Biology,
17:u:tok-1 X=biology,
17:u:tok-1LL=biology,
12:u:Pre-2 X=Ch,
20:u:tok-1RR=beaufortia,
12:u:Suf-2 X=ty,
12:u:Suf-2 L=ty,
24:u:tok-2 R=marine/biology,
19:u:tok-1 L=nematodes,
15:u:Key-1 R=roman,
15:u:Key-1 X=roman,
20:u:Key-2 X=roman/caps,
22:u:Key-3 x=roman/strong,
15:u:Key-1 L=roman,
15:u:Tok-1 X=Biol.,
14:u:tok-1 X=biol,
15:u:tok-1 L=biol.,
15:u:tok-1LL=biol.,
12:u:Pre-2 R=Ca,
14:u:Tok-1 X=Cah.,
13:u:tok-1 X=cah,
14:u:tok-1RR=mar.,
20:u:tok-2 R=cah./biol.,
12:u:Pre-2 X=Ca,
17:u:tok-1 R=cahiers,
17:u:Tok-1 X=Cahiers,
17:u:tok-1 X=cahiers,
20:u:tok-2 R=cahiers/de,
17:u:tok-1 L=cahiers,
20:u:tok-2 L=cahiers/de,
21:u:tok-2 R=de/biologie,
17:u:tok-1LL=cahiers,
21:u:tok-2 L=de/biologie,
25:u:tok-2 R=biologie/marine,
25:u:tok-2 L=biologie/marine,
12:u:Pre-2 X=Su,
15:u:Lst-2 X=Ll/√©,
12:u:Suf-1 X=√©,
13:u:Suf-2 X=t√©,
17:u:Tmn-3 X=none/√©,
15:u:Lst-2 L=Ll/√©,
13:u:Suf-2 L=t√©,
15:u:tok-1 R=bull.,
15:u:Tok-1 X=Bull.,
14:u:tok-1 X=bull,
16:u:tok-1RR=royale,
16:u:tok-1 R=royale,
18:u:tok-1RR=belgique,
12:u:Suf-2 X=le,
18:u:tok-1 R=belgique,
12:u:Suf-2 L=le,
18:u:Tok-1 X=Belgique,
16:u:tok-1LL=royale,
21:u:tok-2 L=de/belgique,
18:u:tok-1 L=belgique,
18:u:tok-1LL=belgique,
12:u:Pre-2 R=Li,
12:u:Pre-2 X=Li,
12:u:Pre-2 R=es,
19:u:tok-1 X=estuarine,
12:u:Pre-2 X=es,
12:u:Suf-2 X=dy,
12:u:Suf-2 L=dy,
17:u:tok-1 X=estuary,
21:u:tok-1 X=netherlands,
13:u:tok-1RR=dem,
13:u:tok-1 R=dem,
17:u:tok-2 R=aus/dem,
13:u:Tok-1 X=dem,
13:u:tok-1 X=dem,
17:u:tok-2 L=aus/dem,
12:u:Pre-2 R=Sa,
12:u:Suf-2 X=em,
12:u:Pre-2 X=Sa,
21:u:tok-2 R=bulletin/of,
21:u:tok-2 L=bulletin/of,
16:u:tok-1RR=report,
16:u:tok-1 R=report,
16:u:Tok-1 X=Report,
16:u:tok-1 X=report,
16:u:Key-1 X=report,
24:u:Key-2 X=report/initial,
21:u:Key-3 x=report/none,
16:u:tok-1 L=report,
16:u:Key-1 L=report,
21:u:Tmn-2 L=report/none,
16:u:tok-1LL=report,
21:u:Key-3 L=none/report,
12:u:Pre-2 R=Di,
19:u:tok-1 X=diversity,
12:u:Pre-2 X=Di,
19:u:tok-1LL=diversity,
12:u:Suf-2 L=ay,
12:u:tok-1 L=42,
13:u:tok-1RR=tot,
13:u:tok-1LL=tot,
32:u:Tok-1 X=Natuurwetenschappelijk,
32:u:tok-1 X=natuurwetenschappelijk,
44:u:tok-2 R=natuurwetenschappelijk/tijdschrift,
12:u:Suf-2 L=ek,
22:u:Tok-1 X=Mededelingen,
22:u:tok-1 X=mededelingen,
22:u:tok-1RR=faunistische,
22:u:tok-1 L=mededelingen,
13:u:Pre-2 R=s√©,
13:u:Pre-2 X=s√©,
12:u:tok-1RR=et,
12:u:tok-1 R=et,
12:u:Pre-2 R=et,
12:u:Tok-1 X=et,
12:u:tok-1 X=et,
12:u:Pre-2 X=et,
12:u:tok-1 L=et,
12:u:tok-1LL=et,
17:u:tok-1 L=beaches,
12:u:Pre-2 R=d',
12:u:Suf-2 L=ey,
14:u:tok-1 R=mus.,
14:u:Tok-1 X=Mus.,
13:u:tok-1 X=mus,
12:u:Suf-2 X=v.,
12:u:Suf-2 L=v.,
14:u:tok-1LL=nat.,
13:u:tok-1 R=del,
13:u:Tok-1 X=del,
13:u:tok-1 X=del,
18:u:tok-1RR=botanica,
18:u:tok-1 L=botanica,
12:u:Suf-2 L=O.,
17:u:tok-1 R=records,
17:u:tok-1 L=records,
19:u:tok-2 L=of/marine,
13:u:tok-1RR=jb.,
12:u:Pre-2 R=Do,
12:u:Suf-2 X=b.,
12:u:Pre-2 X=Do,
22:u:tok-1RR=publications,
22:u:tok-1 R=publications,
18:u:tok-1RR=dodonaea,
18:u:Tok-1 X=Dodonaea,
18:u:tok-1 X=dodonaea,
20:u:tok-1 R=biologisch,
18:u:tok-1RR=jaarboek,
29:u:tok-2 R=dodonaea/biologisch,
20:u:Tok-1 X=Biologisch,
20:u:tok-1 X=biologisch,
18:u:tok-1 L=dodonaea,
18:u:tok-1 R=jaarboek,
20:u:tok-1RR=(dodonaea),
29:u:tok-2 L=dodonaea/biologisch,
29:u:tok-2 R=biologisch/jaarboek,
15:u:tok-1 X=canal,
14:u:tok-1 L=suez,
14:u:Lst-2 L=Ll/z,
12:u:Suf-2 L=ez,
14:u:tok-1LL=suez,
17:u:tok-1RR=fishery,
15:u:Tok-1 X=Canal,
17:u:tok-1 R=fishery,
17:u:Tok-1 X=Fishery,
17:u:tok-1 X=fishery,
17:u:tok-1 L=fishery,
26:u:tok-2 L=fishery/bulletin,
26:u:tok-2 R=bulletin/fishery,
17:u:tok-1LL=fishery,
12:u:Pre-2 R=Za,
19:u:tok-1RR=pollution,
19:u:tok-1 R=pollution,
19:u:tok-1 X=pollution,
19:u:tok-1 L=pollution,
19:u:tok-1LL=pollution,
26:u:tok-2 R=helgoland/marine,
12:u:Pre-2 R=Pl,
12:u:Pre-2 X=Pl,
20:u:tok-1 L=(nematoda),
12:u:Suf-2 X=y.,
12:u:Pre-2 R=To,
12:u:Suf-2 L=y.,
12:u:Pre-2 X=To,
17:u:tok-1 R=aquatic,
12:u:Pre-2 R=Aq,
17:u:Tok-1 X=Aquatic,
17:u:tok-1 X=aquatic,
12:u:Pre-2 X=Aq,
17:u:tok-1 L=aquatic,
14:u:tok-1 X=sars,
19:u:tok-1RR=soci„©t„©,
19:u:tok-1 R=soci„©t„©,
22:u:tok-2 R=la/soci„©t„©,
19:u:Tok-1 X=Soci√©t√©,
17:u:tok-1 X=societe,
22:u:tok-2 L=la/soci„©t„©,
23:u:tok-2 R=soci„©t„©/des,
23:u:tok-2 L=soci„©t„©/des,
19:u:tok-1LL=soci„©t„©,
12:u:Pre-2 R=na,
20:u:Tok-1 X=naturelles,
12:u:Pre-2 X=na,
15:u:tok-1RR=plate,
15:u:tok-1 L=plate,
15:u:tok-1LL=plate,
14:u:Lst-2 L=Lu/V,
12:u:Suf-2 X=e:,
12:u:Suf-2 L=e:,
12:u:Suf-2 X=nt,
12:u:Suf-2 L=nt,
17:u:tok-1 X=argamon,
18:u:Tok-1 X=Argamon:,
22:u:tok-1LL=savignyi</i>,
17:u:tok-1 L=argamon,
26:u:tok-2 L=argamon/argamon:,
25:u:tok-2 R=argamon:/israel,
12:u:Suf-2 X=n:,
17:u:tok-1LL=argamon,
18:u:tok-1 L=argamon:,
25:u:tok-2 L=argamon:/israel,
12:u:Suf-2 L=n:,
17:u:tok-1LL=iberian,
19:u:tok-1 L=peninsula,
24:u:tok-2 R=marine/cahiers,
24:u:tok-2 L=marine/cahiers,
22:u:tok-1RR=biodiversity,
22:u:Tok-1 X=Biodiversity,
22:u:tok-1 X=biodiversity,
22:u:tok-1 L=biodiversity,
12:u:Pre-2 X=It,
26:u:tok-2 L=the/indo-pacific,
14:u:tok-1 R=gulf,
12:u:Pre-2 R=Gu,
12:u:Suf-2 X=lf,
14:u:tok-1LL=gulf,
12:u:Pre-2 X=Or,
18:u:tok-1RR=pesquera,
23:u:tok-1 X=investigacion,
18:u:tok-1 X=pesquera,
21:u:tok-1RR=(barcelona),
19:u:tok-1 X=barcelona,
17:u:tok-1RR=linnean,
17:u:tok-1 R=linnean,
21:u:tok-2 R=the/linnean,
17:u:Tok-1 X=Linnean,
17:u:tok-1 X=linnean,
21:u:tok-2 L=the/linnean,
17:u:tok-1 L=linnean,
17:u:tok-1LL=linnean,
28:u:tok-2 R=zoological/journal,
17:u:tok-1RR=society,
17:u:tok-1 R=society,
25:u:tok-2 R=linnean/society,
17:u:Tok-1 X=Society,
17:u:tok-1 X=society,
25:u:tok-2 L=linnean/society,
17:u:tok-1 L=society,
17:u:tok-1LL=society,
24:u:tok-2 R=marine/ecology,
12:u:Suf-2 X=n),
16:u:Tok-1 X=Indian,
16:u:tok-1 X=indian,
16:u:tok-1 L=indian,
16:u:tok-1LL=indian,
19:u:tok-1RR=bijdragen,
19:u:tok-1 R=bijdragen,
19:u:Tok-1 X=Dierkunde,
19:u:tok-1 X=dierkunde,
22:u:tok-2 L=de/dierkunde,
29:u:tok-2 R=dierkunde/bijdragen,
12:u:Pre-2 X=Ce,
17:u:tok-1RR=magazin,
17:u:tok-1 R=magazin,
14:u:tok-1RR=f„ºr,
17:u:Tok-1 X=Magazin,
17:u:tok-1 X=magazin,
14:u:tok-1 R=f„ºr,
13:u:Pre-2 R=f√º,
14:u:Tok-1 X=f√ºr,
13:u:tok-1 X=fur,
17:u:tok-1 L=magazin,
13:u:Pre-2 X=f√º,
13:u:Suf-2 X=√ºr,
17:u:tok-1LL=magazin,
14:u:tok-1 L=f„ºr,
13:u:Suf-2 L=√ºr,
14:u:tok-1LL=f„ºr,
12:u:tok-1LL=le,
18:u:tok-1RR=zoologie,
18:u:tok-1 R=zoologie,
18:u:tok-1 X=zoologie,
36:u:tok-2 L=wissenschaftliche/zoologie,
30:u:tok-2 R=zoologie/zeitschrift,
24:u:Key-2 X=volume/initial,
21:u:Key-3 x=volume/none,
20:u:Tmn-2 R=none/roman,
20:u:Key-3 L=none/roman,
20:u:Key-3 x=roman/none,
16:u:tok-1 X=review,
16:u:tok-1 L=review,
20:u:tok-1RR=systematic,
20:u:Tok-1 X=Systematic,
20:u:tok-1 X=systematic,
22:u:tok-1 R=parasitology,
33:u:tok-2 R=systematic/parasitology,
22:u:Tok-1 X=Parasitology,
22:u:tok-1 X=parasitology,
17:u:tok-1RR=zootaxa,
19:u:tok-1 L=structure,
22:u:tok-2 R=sea/research,
22:u:tok-2 L=sea/research,
12:u:Pre-2 R=Sh,
15:u:tok-1RR=shelf,
15:u:tok-1 R=shelf,
15:u:tok-1LL=shelf,
23:u:tok-1RR=hydrobiologia,
11:u:tok-1RR=„,
11:u:tok-1 R=„,
14:u:Fst-2 R=Ll/√,
11:u:Pre-2 R=√,
11:u:Tok-1 X=√,
14:u:Fst-2 X=Ll/√,
14:u:Lst-2 X=Ll/√,
11:u:Pre-1 X=√,
11:u:Pre-2 X=√,
11:u:Suf-1 X=√,
11:u:Suf-2 X=√,
16:u:Tmn-3 X=none/√,
11:u:tok-1 L=„,
14:u:Lst-2 L=Ll/√,
11:u:Suf-2 L=√,
11:u:tok-1LL=„,
20:u:Tok-1 X=Quatri√®me,
19:u:tok-1 X=quatrieme,
17:u:tok-1 R=s„©rie.,
14:u:tok-1RR=tome,
28:u:tok-2 R=quatri„®me/s„©rie.,
14:u:Fst-2 X=Lu/Q,
11:u:Pre-1 X=Q,
12:u:Pre-2 X=Qu,
17:u:Tok-1 X=s√©rie.,
20:u:tok-1 L=quatri„®me,
14:u:tok-1 R=tome,
28:u:tok-2 L=quatri„®me/s„©rie.,
22:u:tok-2 R=s„©rie./tome,
14:u:Tok-1 X=Tome,
14:u:tok-1 X=tome,
20:u:tok-1LL=quatri„®me,
17:u:tok-1 L=s„©rie.,
22:u:tok-2 L=s„©rie./tome,
14:u:Fst-2 X=Lu/X,
11:u:Pre-1 X=X,
23:u:Cap-3 L=moderate/caps,
18:u:tok-1LL=premier:,
14:u:Tok-1 X=Ann.,
13:u:tok-1 X=ann,
17:u:tok-1RR=annales,
17:u:tok-1 R=annales,
17:u:Tok-1 X=Annales,
17:u:tok-1 X=annales,
20:u:tok-2 R=annales/de,
17:u:tok-1 L=annales,
20:u:tok-2 L=annales/de,
17:u:tok-1LL=annales,
20:u:tok-1RR=xxxiv-xxxv,
20:u:tok-1 L=xxxiv-xxxv,
31:u:tok-2 L=xxxiv-xxxv/quatri„®me,
12:u:Suf-2 L=XV,
20:u:tok-1LL=xxxiv-xxxv,
17:u:tok-1RR=premier,
17:u:tok-1 R=premier,
22:u:tok-2 R=tome/premier,
29:u:tok-2 L=marine/biodiversity,
29:u:tok-2 R=biodiversity/marine,
15:u:tok-1 X=suppl,
22:u:tok-1RR=abhandlungen,
22:u:tok-1 R=abhandlungen,
12:u:Pre-2 R=Ab,
22:u:Tok-1 X=Abhandlungen,
22:u:tok-1 X=abhandlungen,
12:u:Pre-2 X=Ab,
22:u:tok-1 L=abhandlungen,
22:u:tok-1LL=abhandlungen,
20:u:Tok-1 X=Supplement,
20:u:tok-1 X=supplement,
23:u:tok-1 L=(turbellaria),
23:u:tok-1LL=(turbellaria),
20:u:tok-1RR=mikrofauna,
20:u:tok-1 R=mikrofauna,
22:u:tok-1RR=meeresbodens,
20:u:Tok-1 X=Mikrofauna,
20:u:tok-1 X=mikrofauna,
12:u:Suf-2 L=ss,
12:u:Suf-2 X=5),
12:u:tok-1 L=en,
16:u:tok-1 R=annals,
16:u:Tok-1 X=Annals,
16:u:tok-1 X=annals,
16:u:tok-1 L=annals,
16:u:tok-1LL=annals,
17:u:tok-1RR=academy,
12:u:Suf-2 X=rk,
11:u:tok-1RR=i,
11:u:tok-1 R=i,
11:u:Tok-1 X=I,
14:u:Lst-2 X=Lu/I,
11:u:Pre-2 X=I,
11:u:Suf-1 X=I,
11:u:Suf-2 X=I,
16:u:Tmn-3 X=none/I,
11:u:tok-1 L=i,
11:u:Suf-2 L=I,
11:u:tok-1LL=i,
15:u:tok-1 X=fauna,
15:u:Tok-1 X=fauna,
19:u:tok-1 R=ekologiya,
15:u:tok-1RR=moria,
12:u:Pre-2 R=Ek,
19:u:Tok-1 X=Ekologiya,
19:u:tok-1 X=ekologiya,
15:u:tok-1 L=fauna,
12:u:Pre-2 X=Ek,
15:u:tok-1LL=fauna,
19:u:tok-1 L=ekologiya,
15:u:tok-1RR=morya,
19:u:tok-1LL=ekologiya,
15:u:tok-1 L=moria,
15:u:tok-1 R=morya,
25:u:tok-2 L=moria/ekologiya,
25:u:tok-2 R=ekologiya/morya,
15:u:Tok-1 X=Morya,
15:u:tok-1 X=morya,
12:u:Suf-2 X=ol,
19:u:Num-2 R=quad/none,
12:u:Pre-2 R=Wa,
12:u:Pre-2 X=Wa,
21:u:tok-1 X=cryptogamie,
19:u:tok-1 R=algologie,
22:u:tok-1RR=cryptogamie.,
19:u:Tok-1 X=Algologie,
19:u:tok-1 X=algologie,
22:u:tok-1 R=cryptogamie.,
32:u:tok-2 R=algologie/cryptogamie.,
22:u:Tok-1 X=Cryptogamie.,
19:u:tok-1 L=algologie,
32:u:tok-2 L=algologie/cryptogamie.,
32:u:tok-2 R=cryptogamie./algologie,
13:u:tok-1 R=vie,
16:u:Tok-1 X=Milieu,
16:u:tok-1 X=milieu,
20:u:tok-2 R=milieu/vie,
12:u:Suf-2 X=eu,
12:u:Suf-2 L=eu,
21:u:tok-1RR=conchyliol.,
18:u:tok-1RR=progress,
18:u:tok-1 R=progress,
26:u:tok-2 R=ecology/progress,
18:u:Tok-1 X=Progress,
18:u:tok-1 X=progress,
26:u:tok-2 L=ecology/progress,
25:u:tok-2 R=progress/series,
18:u:tok-1 L=progress,
25:u:tok-2 L=progress/series,
23:u:tok-2 R=series/marine,
17:u:Tok-1 X=Coastal,
21:u:tok-2 R=coastal/and,
21:u:tok-2 L=coastal/and,
19:u:tok-2 R=and/shelf,
20:u:Tok-1 X=Estuarine,,
28:u:tok-2 R=estuarine,/coastal,
20:u:tok-1 L=estuarine,,
28:u:tok-2 L=estuarine,/coastal,
20:u:tok-1LL=estuarine,,
28:u:tok-2 L=science/estuarine,,
17:u:Tok-1 X=Zealand,
17:u:tok-1 X=zealand,
21:u:tok-2 L=new/zealand,
12:u:Tok-1 X=An,
12:u:Suf-2 X=An,
16:u:Tok-1 X=Marina,
15:u:Fst-2 R=Lu/√ú,
12:u:Pre-2 X=Fy,
12:u:Pre-2 R=Lu,
12:u:Pre-2 X=Lu,
18:u:Tok-1 X=Kungliga,
18:u:tok-1 X=kungliga,
23:u:tok-1 R=fysiografiska,
22:u:tok-1RR=s„§llskapets,
12:u:Suf-2 X=ga,
11:u:Pre-2 R=i,
11:u:Tok-1 X=i,
11:u:Pre-2 X=i,
11:u:Suf-2 X=i,
24:u:tok-1 R=f„∂rhandlingar,
13:u:Pre-2 R=F√∂,
24:u:Tok-1 X=F√∂rhandlingar,
23:u:tok-1 X=forhandlingar,
13:u:Pre-2 X=F√∂,
24:u:tok-1 L=f„∂rhandlingar,
24:u:tok-1LL=f„∂rhandlingar,
16:u:tok-1RR=regiae,
12:u:Suf-2 X=ei,
16:u:tok-1LL=seriei,
14:u:Tok-1 X=Nova,
14:u:tok-1 X=nova,
19:u:tok-2 R=nova/acta,
17:u:tok-1 L=tertiae,
22:u:tok-2 L=tertiae/nova,
25:u:tok-2 R=morya/ekologiya,
12:u:tok-1RR=du,
12:u:tok-1 R=du,
12:u:Pre-2 R=du,
12:u:Tok-1 X=du,
12:u:tok-1 X=du,
12:u:Pre-2 X=du,
12:u:Suf-2 X=du,
12:u:tok-1 L=du,
12:u:Suf-2 L=du,
12:u:tok-1LL=du,
19:u:tok-1RR=m„©moires,
19:u:tok-1 R=m„©moires,
13:u:Pre-2 R=M√©,
19:u:Tok-1 X=M√©moires,
18:u:tok-1 X=memoires,
22:u:tok-2 R=m„©moires/de,
13:u:Pre-2 X=M√©,
19:u:tok-1 L=m„©moires,
22:u:tok-2 L=m„©moires/de,
19:u:tok-1LL=m„©moires,
22:u:tok-1 X=jagttagelser,
23:u:tok-1 L=entomologiske,
12:u:tok-1RR=af,
12:u:tok-1 R=af,
12:u:Tok-1 X=af,
12:u:tok-1 X=af,
12:u:Suf-2 X=af,
22:u:Tok-1 X=Jagttagelser,
14:u:tok-1LL=1799,
18:u:tok-1 R=skrifter,
36:u:tok-2 L=entomologiske/jagttagelser,
31:u:tok-2 R=jagttagelser/skrifter,
12:u:Pre-2 R=Sk,
16:u:tok-1 L=london,
19:u:tok-1 R=fisheries,
19:u:Tok-1 X=Fisheries,
19:u:tok-1 X=fisheries,
28:u:tok-2 R=fisheries/research,
19:u:tok-1RR=bulletin.,
19:u:tok-1 R=bulletin.,
19:u:Tok-1 X=Bulletin.,
24:u:Key-3 x=journal/strong,
14:u:tok-1RR=life,
14:u:tok-1 X=life,
12:u:Suf-2 X=fe,
16:u:tok-1RR=sarsia,
16:u:tok-1 R=sarsia,
12:u:Pre-2 R=ob,
12:u:Pre-2 X=ob,
18:u:tok-1RR=institut,
29:u:tok-1RR=natuurwetenschappen,
29:u:tok-1 R=natuurwetenschappen,
34:u:tok-2 R=voor/natuurwetenschappen,
29:u:Tok-1 X=Natuurwetenschappen,
34:u:tok-2 L=voor/natuurwetenschappen,
12:u:Pre-2 R=Fe,
19:u:tok-1 L=rotatoria,
19:u:tok-1RR=invasions,
19:u:Tok-1 X=Invasions,
19:u:tok-1 X=invasions,
12:*:Fst-1 X=Pd,
12:u:Suf-2 X=92,
26:u:Key-3 L=moderate/journal,
20:u:tok-1RR=zoologique,
20:u:tok-1 X=zoologique,
20:u:tok-1 L=zoologique,
15:u:Tok-1 X=India,
15:u:tok-1 X=india,
18:u:tok-2 L=of/india,
23:u:tok-2 R=india/journal,
12:u:Pre-2 X=Pu,
20:u:tok-1 X=university,
20:u:Tok-1 X=University,
23:u:tok-2 R=university/of,
20:u:tok-1 L=university,
23:u:tok-2 L=university/of,
20:u:tok-1LL=university,
14:u:Tok-1 X=Life,
19:u:tok-1 R=sequences,
19:u:tok-1 X=sequences,
20:u:tok-1RR=phycologia,
15:u:tok-1RR=revue,
15:u:tok-1 R=revue,
15:u:tok-1LL=revue,
15:u:Tok-1 X=Teil.,
14:u:tok-1 X=teil,
12:u:Pre-2 R=ro,
12:u:Pre-2 X=ro,
16:u:tok-1 X=wilson,
18:u:tok-1RR=national,
18:u:tok-1LL=national,
21:u:tok-2 L=marine/life,
21:u:tok-2 R=life/marine,
25:u:tok-1RR=naturgeschichte,
25:u:tok-1 R=naturgeschichte,
25:u:tok-1LL=naturgeschichte,
18:u:Tok-1 X=Archives,
18:u:tok-1 X=archives,
18:u:tok-1 L=archives,
12:u:Pre-2 R=bo,
12:u:Pre-2 X=bo,
12:u:Pre-2 R=sy,
12:u:Pre-2 X=sy,
14:u:tok-1RR=res.,
14:u:tok-1LL=res.,
14:u:Lst-2 X=Lu/S,
11:u:Suf-1 X=S,
16:u:Tmn-3 X=none/S,
14:u:tok-1RR=ices,
14:u:tok-1 R=ices,
12:u:Pre-2 R=IC,
24:u:tok-2 L=marine/science,
12:u:tok-1LL=8:,
15:u:tok-1RR=inst.,
15:u:tok-1 R=inst.,
15:u:Tok-1 X=Inst.,
14:u:tok-1 X=inst,
15:u:tok-1LL=inst.,
20:u:tok-1LL=natuurwet.,
12:u:Pre-2 X=Ev,
15:u:Tok-1 X=South,
15:u:tok-1 X=south,
15:u:tok-1LL=south,
15:u:tok-1 R=polar,
25:u:tok-2 R=zealand/journal,
12:u:Pre-2 X=Os,
22:u:tok-1 R=transactions,
19:u:tok-1 L=ribosomal,
23:u:tok-1 R=phylogenetics,
33:u:tok-2 R=molecular/phylogenetics,
19:u:tok-1 R=evolution,
19:u:Tok-1 X=Evolution,
19:u:tok-1 X=evolution,
19:u:tok-1 L=evolution,
29:u:tok-2 L=evolution/molecular,
12:u:Pre-2 R=Ju,
14:u:Tok-1 X=Part,
23:u:tok-1LL=oceanographic,
19:u:tok-1 R=research,,
19:u:tok-1LL=research,,
12:u:Pre-2 X=Op,
16:u:tok-1 X=island,
12:u:Suf-2 L=lt,
13:u:Tok-1 X=Het,
22:u:tok-1RR=oceanography,
22:u:tok-1 R=oceanography,
22:u:Tok-1 X=Oceanography,
22:u:tok-1 X=oceanography,
22:u:tok-1 L=oceanography,
22:u:tok-1LL=oceanography,
16:u:Key-1 L=editor,
22:u:Tmn-2 R=weak/journal,
22:u:Key-3 L=weak/journal,
17:u:tok-1RR=novapex,
17:u:tok-1 R=novapex,
22:u:tok-1RR=malacologica,
14:u:tok-1RR=ges.,
14:u:Tok-1 X=Int.,
13:u:tok-1 X=int,
19:u:tok-1 L=malediven,
24:u:tok-2 L=malediven/int.,
20:u:tok-2 R=int./revue,
24:u:tok-1RR=internationale,
24:u:tok-1 R=internationale,
24:u:Tok-1 X=Internationale,
24:u:tok-1 X=internationale,
30:u:tok-2 R=internationale/revue,
24:u:tok-1 L=internationale,
24:u:tok-1LL=internationale,
23:u:tok-1LL=hydrobiologie,
14:u:tok-1 R=mem.,
13:u:tok-1 X=mem,
12:u:Suf-2 X=hi,
15:u:tok-1RR=flora,
15:u:tok-1 R=flora,
12:u:Suf-2 L=lm,
22:u:tok-1LL=(1999-2001).,
25:u:tok-1 R=investigaciones,
17:u:tok-1RR=marinas,
17:u:Tok-1 X=Marinas,
17:u:tok-1 X=marinas,
25:u:tok-1 L=investigaciones,
33:u:tok-2 L=investigaciones/marinas,
33:u:tok-2 R=marinas/investigaciones,
16:u:tok-1RR=annual,
16:u:tok-1 R=annual,
16:u:Tok-1 X=Annual,
23:u:tok-2 R=annual/report,
16:u:tok-1 L=annual,
16:u:tok-1LL=annual,
18:u:tok-1RR=scotland,
18:u:tok-1 R=scotland,
22:u:tok-2 R=for/scotland,
18:u:Tok-1 X=Scotland,
22:u:tok-2 L=for/scotland,
25:u:tok-2 R=scotland/annual,
18:u:tok-1 L=scotland,
25:u:tok-2 L=scotland/annual,
20:u:Tok-1 X=Scientific,
20:u:tok-1 X=scientific,
20:u:tok-1 L=scientific,
19:u:tok-1RR=barcelona,
19:u:Tok-1 X=Barcelona,
12:u:Suf-2 X=do,
12:u:Suf-2 L=do,
12:u:Suf-2 X=go,
12:u:Suf-2 L=go,
20:u:tok-2 L=ecology/of,
14:u:Tok-1 X=Rev.,
13:u:tok-1 X=rev,
13:u:tok-1 R=in:,
21:u:Key-3 x=in/moderate,
13:u:tok-1 L=in:,
26:u:tok-2 R=oceanography/and,
18:u:tok-1RR=biology:,
26:u:tok-2 L=oceanography/and,
20:u:tok-2 R=and/marine,
18:u:tok-1 R=biology:,
20:u:tok-2 L=and/marine,
25:u:tok-2 R=marine/biology:,
12:u:Pre-2 R=IS,
14:u:Lst-2 X=Lu/N,
12:u:Pre-2 X=IS,
11:u:Suf-1 X=N,
16:u:Tmn-3 X=none/N,
23:u:tok-2 L=annual/review,
17:u:tok-1RR=british,
17:u:tok-1 R=british,
17:u:Tok-1 X=British,
17:u:tok-1 X=british,
17:u:tok-1LL=british,
15:u:tok-1 R=notes,
15:u:tok-1 L=notes,
21:u:tok-2 R=de/zoologie,
21:u:tok-2 L=de/zoologie,
12:u:Suf-2 X=vo,
20:u:Tok-1 X=R√©sultats,
19:u:tok-1 X=resultats,
13:u:Pre-2 X=R√©,
20:u:tok-1 L=r„©sultats,
20:u:tok-1LL=r„©sultats,
19:u:Tok-1 X=Naturelle,
30:u:tok-2 L=d'histoire/naturelle,
23:u:tok-1RR=international,
23:u:tok-1 R=international,
23:u:Tok-1 X=International,
23:u:tok-1 X=international,
23:u:tok-1 L=international,
23:u:tok-1LL=international,
31:u:tok-2 R=indo-pacific/mollusca,
20:u:Tok-1 X=Conchiglie,
20:u:tok-1 X=conchiglie,
21:u:tok-1 R=conchiglie.,
20:u:tok-1RR=notiziario,
32:u:tok-2 R=conchiglie/conchiglie.,
21:u:Tok-1 X=Conchiglie.,
20:u:tok-1 L=conchiglie,
20:u:tok-1 R=notiziario,
17:u:tok-1RR=mensile,
32:u:tok-2 L=conchiglie/conchiglie.,
32:u:tok-2 R=conchiglie./notiziario,
20:u:tok-1RR=nematology,
17:u:tok-1LL=russian,
15:u:Tok-1 X=Proc.,
14:u:tok-1 X=proc,
12:u:Pre-2 R=Cu,
12:u:Suf-2 X=ul,
12:u:Suf-2 X=ii,
18:u:tok-1RR=zeepaard,
18:u:tok-1 R=zeepaard,
22:u:tok-2 R=het/zeepaard,
18:u:Tok-1 X=Zeepaard,
18:u:tok-1 X=zeepaard,
22:u:tok-2 L=het/zeepaard,
22:u:tok-2 R=zeepaard/het,
18:u:tok-1RR=animalia,
16:u:Tok-1 X=Botany,
16:u:tok-1 X=botany,
16:u:Tok-1 X=Mexico,
18:u:tok-1 L=bahamas.,
27:u:tok-2 L=bahamas./bulletin,
18:u:tok-1LL=bahamas.,
21:u:Tok-1 X=Netherlands,
14:u:tok-1RR=sci.,
22:u:tok-1 X=mediterranee,
25:u:tok-1 X=oceanographique,
12:u:Pre-2 X=Ic,
21:u:tok-1 L=ichthyology,
21:u:tok-1LL=ichthyology,
17:u:tok-1RR=council,
17:u:tok-1 R=council,
17:u:Tok-1 X=Council,
17:u:tok-1 X=council,
17:u:tok-1 L=council,
17:u:tok-1LL=council,
20:u:Tok-1 X=Freshwater,
13:u:Lst-2 L=P//,
11:u:Tok-1 X=-,
11:u:Pre-2 X=-,
11:u:Suf-2 X=-,
11:u:tok-1 L=-,
11:u:Suf-2 L=-,
15:u:tok-1 R=31-43,
16:u:Tok-1 X=(1991),
15:u:tok-1LL=31-43,
19:u:tok-2 L=42/(1991),
22:u:tok-2 R=(1991)/31-43,
22:u:tok-1 R=mitteilungen,
22:u:Tok-1 X=Mitteilungen,
22:u:tok-1 X=mitteilungen,
22:u:tok-1 L=mitteilungen,
22:u:tok-1LL=mitteilungen,
12:u:tok-1RR=2.,
12:u:tok-1 R=2.,
12:u:Pre-2 R=2.,
12:u:Tok-1 X=2.,
12:u:Pre-2 X=2.,
12:u:tok-1 L=2.,
12:u:tok-1LL=2.,
12:u:Suf-2 X=nn,
12:u:Suf-2 L=nn,
15:u:tok-1 L=nebst,
18:u:Tok-1 X=Biologia,
18:u:tok-1 X=biologia,
12:u:Pre-2 R=Ir,
12:u:Pre-2 X=Ir,
22:u:tok-1RR=naturalists',
21:u:tok-1 X=naturalists,
15:u:tok-1RR=irish,
15:u:tok-1 R=irish,
15:u:tok-1 L=irish,
15:u:tok-1LL=irish,
23:u:tok-2 R=journal/irish,
12:u:Suf-2 X=yt,
13:u:tok-1 R=nyt,
12:u:Pre-2 R=Ny,
13:u:Tok-1 X=Nyt,
13:u:tok-1 X=nyt,
21:u:tok-2 R=nyt/magazin,
12:u:Pre-2 X=Ny,
28:u:Tok-1 X=Naturvidenskaberne,
28:u:tok-1 X=naturvidenskaberne,
32:u:tok-2 L=for/naturvidenskaberne,
32:u:tok-2 R=naturvidenskaberne/nyt,
28:u:tok-1 L=naturvidenskaberne,
32:u:tok-2 L=naturvidenskaberne/nyt,
17:u:tok-1RR=iberica,
17:u:tok-1 L=iberica,
19:u:tok-1 R=institute,
12:u:Pre-2 X=Zh,
15:u:tok-1RR=trudy,
15:u:tok-1 R=trudy,
15:u:Tok-1 X=Trudy,
15:u:tok-1 X=trudy,
15:u:tok-1 L=trudy,
21:u:tok-1RR=ichtiologii,
21:u:tok-1RR=obshchestva,
21:u:tok-1 R=obshchestva,
21:u:tok-1 X=obshchestva,
21:u:tok-1 L=obshchestva,
18:u:Tok-1 X=Ophelia:,
17:u:tok-1 L=ophelia,
26:u:tok-2 L=ophelia/ophelia:,
32:u:tok-2 R=ophelia:/international,
31:u:tok-2 L=international/journal,
14:u:tok-1RR=som.,
19:u:tok-1 L=marseille,
22:u:tok-2 L=marseille/c.,
15:u:tok-2 R=c./r.,
22:u:tok-1 R=compte-rendu,
18:u:tok-1RR=sommaire,
17:u:tok-1 L=belgium,
16:u:tok-1LL=partie,
21:u:tok-1 L=anatomique.,
26:u:Tok-1 X=Siboga-Expeditie,
25:u:tok-1 X=sibogaexpeditie,
34:u:tok-1 R=<i>siboga</i>-expeditie:,
20:u:tok-1RR=uitkomsten,
38:u:tok-2 L=anatomique./siboga-expeditie,
51:u:tok-2 R=siboga-expeditie/<i>siboga</i>-expeditie:,
18:u:Tok-1 X=Nouveaux,
19:u:tok-1 L=d'ostende,
28:u:tok-2 L=d'ostende/nouveaux,
28:u:tok-2 R=nouveaux/m„©moires,
19:u:Tok-1 X=Bruxelles,
22:u:tok-2 L=de/bruxelles,
19:u:tok-1 L=bruxelles,
13:u:Tok-1 X=4¬∞,
20:u:tok-1LL=bruxelles.,
21:u:tok-1 R=(1820-1845),
16:u:tok-2 L=in/4‚∞,
25:u:tok-2 R=4‚∞/(1820-1845),
14:u:Lst-2 X=S/¬∞,
13:u:Pre-2 X=4¬∞,
12:u:Suf-1 X=¬∞,
13:u:Suf-2 X=4¬∞,
17:u:Tmn-3 X=none/¬∞,
21:u:Tok-1 X=(1820-1845),
18:u:tok-1 X=18201845,
13:u:tok-1 L=4‚∞,
25:u:tok-2 L=4‚∞/(1820-1845),
14:u:Lst-2 L=S/¬∞,
13:u:Suf-2 L=4¬∞,
14:u:tok-1LL=vore,
30:u:tok-1RR=videnskaps-selskapet,
30:u:tok-1 R=videnskaps-selskapet,
32:u:tok-2 R=i/videnskaps-selskapet,
23:u:Tok-1 X=Forhandlinger,
23:u:tok-1 X=forhandlinger,
19:u:tok-1 L=havbanker,
33:u:tok-2 L=havbanker/forhandlinger,
25:u:tok-2 R=forhandlinger/i,
19:u:tok-1LL=havbanker,
23:u:tok-1 L=forhandlinger,
25:u:tok-2 L=forhandlinger/i,
26:u:tok-2 R=mitteilungen/aus,
26:u:tok-2 L=mitteilungen/aus,
15:u:tok-1RR=porto,
15:u:tok-1 R=porto,
14:u:tok-1RR=rico,
18:u:tok-2 R=of/porto,
15:u:Tok-1 X=Porto,
15:u:tok-1 X=porto,
14:u:tok-1 R=rico,
18:u:tok-2 L=of/porto,
20:u:tok-2 R=porto/rico,
16:u:tok-1RR=survey,
18:u:tok-1LL=bryozoan,
16:u:tok-1 R=survey,
16:u:Tok-1 X=Survey,
16:u:tok-1 X=survey,
19:u:tok-2 R=survey/of,
16:u:tok-1 L=survey,
19:u:tok-2 L=survey/of,
16:u:tok-1LL=survey,
16:u:tok-1 L=virgin,
26:u:tok-2 L=fauna/scientific,
27:u:tok-2 R=scientific/survey,
27:u:tok-2 L=scientific/survey,
24:u:tok-2 L=virgin/islands,
28:u:tok-2 R=islands/scientific,
20:u:tok-1 R=couronn„©s,
30:u:tok-2 R=m„©moires/couronn„©s,
28:u:tok-2 L=belgique/m„©moires,
23:u:tok-2 R=museum/annals,
15:u:Fst-2 R=Lu/√ñ,
15:u:Fst-2 X=Lu/√ñ,
12:u:Pre-1 X=√ñ,
20:u:tok-1RR=california,
20:u:tok-1 R=california,
12:u:tok-1 X=no,
19:u:tok-2 L=of/mexico,
17:u:tok-1RR=reports,
17:u:Tok-1 X=Reports,
17:u:tok-1 X=reports,
17:u:tok-1 L=reports,
17:u:tok-1LL=reports,
15:u:tok-1 L=belge,
15:u:tok-1LL=belge,
15:u:tok-1LL=shell,
25:u:Tok-1 X=Nishinomiya-shi,
24:u:tok-1 X=nishinomiyashi,
19:u:tok-1 R=kairuikan,
18:u:tok-1RR=kenkyuÏÑ,
32:u:tok-2 L=museum/nishinomiya-shi,
35:u:tok-2 R=nishinomiya-shi/kairuikan,
11:u:Key-1 L=F,
16:u:Tmn-2 L=F/none,
19:u:tok-1RR=kievskago,
21:u:Tok-1 X=obshchestva,
22:u:tok-1RR=naturalistes,
22:u:tok-1 R=naturalistes,
22:u:Tok-1 X=Naturalistes,
22:u:tok-1 X=naturalistes,
26:u:tok-2 L=des/naturalistes,
25:u:tok-2 R=naturalistes/de,
25:u:tok-2 L=naturalistes/de,
22:u:tok-1LL=naturalistes,
17:u:tok-1 R=zapiski,
15:u:Tok-1 X=Kieff,
15:u:tok-1 X=kieff,
18:u:tok-2 L=de/kieff,
23:u:tok-2 R=kieff/zapiski,
29:u:tok-2 R=review/oceanography,
29:u:tok-2 L=review/oceanography,
14:u:tok-1 R=zool,
22:u:tok-1 R=jahrb„ºcher.,
19:u:tok-1RR=abteilung,
22:u:Tok-1 X=Jahrb√ºcher.,
20:u:tok-1 X=jahrbucher,
19:u:tok-1 R=abteilung,
32:u:tok-2 R=jahrb„ºcher./abteilung,
19:u:Tok-1 X=Abteilung,
19:u:tok-1 X=abteilung,
21:u:tok-1 R=zoologische,
21:u:Tok-1 X=Zoologische,
21:u:tok-1 X=zoologische,
34:u:tok-2 R=zoologische/jahrb„ºcher.,
34:u:tok-2 L=zoologische/jahrb„ºcher.,
15:u:Tok-1 X=Tiere,
15:u:tok-1 X=tiere,
19:u:tok-2 L=der/tiere,
18:u:tok-1 L=subgenus,
23:u:tok-1 X=procesverbaux,
23:u:tok-2 R=south/african,
24:u:tok-2 R=african/museum,
24:u:tok-2 L=african/museum,
22:u:tok-1LL=(dodekanes).,
28:u:Tok-1 X=Palaeontographica.,
27:u:tok-1 X=palaeontographica,
26:u:tok-1 L=paleontographica,
45:u:tok-2 L=paleontographica/palaeontographica.,
38:u:tok-2 R=palaeontographica./beitr„§ge,
18:u:Tok-1 X=Vorzeit.,
17:u:tok-1 X=vorzeit,
25:u:tok-1RR=(pal„§ozoology,,
22:u:tok-2 L=der/vorzeit.,
20:u:tok-2 R=vorzeit./a,
20:u:tok-1LL=functional,
16:u:tok-1 R=plants,
19:u:tok-2 R=of/plants,
16:u:Tok-1 X=Plants,
16:u:tok-1 X=plants,
16:u:tok-1RR=(jena),
19:u:tok-2 L=of/plants,
22:u:tok-2 R=plants/flora,
16:u:tok-1 X=naples,
14:u:tok-1LL=golf,
23:u:tok-1LL=nederlandsche,
21:u:tok-1 L=dierkundige,
16:u:Tok-1 X=Naples,
19:u:tok-2 L=de/naples,
28:u:tok-2 R=naples/tijdschrift,
21:u:Tok-1 X=Vereeniging,
21:u:tok-1 X=vereeniging,
33:u:tok-2 L=dierkundige/vereeniging,
33:u:tok-2 R=vereeniging/tijdschrift,
26:u:tok-1RR=oc„©anographique,
26:u:tok-1 R=oc„©anographique,
14:u:tok-1 X=wiss,
18:u:Tok-1 X=Istanbul,
18:u:tok-1 X=istanbul,
23:u:tok-1 R=„úniversitesi,
13:u:tok-1RR=fen,
13:u:Pre-2 R=√ún,
12:u:tok-1RR=b,,
12:u:tok-1 R=b,,
12:u:Pre-2 R=B,,
14:u:tok-1LL=seri,
15:u:tok-1 L=1-29.,
19:u:tok-1 R=verhoeff,,
24:u:tok-2 L=1-29./istanbul,
28:u:tok-2 R=istanbul/verhoeff,,
19:u:Tok-1 X=ƒ∞stanbul,
21:u:tok-2 L=b/‰∞stanbul,
33:u:tok-2 R=‰∞stanbul/„úniversitesi,
15:u:Fst-2 X=Lu/ƒ∞,
12:u:Pre-1 X=ƒ∞,
13:u:Pre-2 X=ƒ∞s,
13:u:tok-1 X=can,
35:u:tok-2 R=indo-pacific/indo-pacific,
35:u:tok-2 L=indo-pacific/indo-pacific,
13:u:tok-1RR=one,
13:u:tok-1 X=one,
12:u:Suf-2 L=sy,
16:u:tok-1LL=crimea,
17:u:tok-1 L=voprosy,
29:u:tok-2 L=voprosy/ichtiologii,
29:u:tok-2 R=ichtiologii/journal,
15:u:tok-1 X=bucht,
14:u:tok-1LL=1929,
25:u:Tok-1 X=Senckenbergiana,
25:u:tok-1 X=senckenbergiana,
25:u:tok-1LL=senckenbergiana,
18:u:tok-1 L=maritima,
19:u:tok-1 R=maritima:,
34:u:tok-2 L=maritima/senckenbergiana,
35:u:tok-2 R=senckenbergiana/maritima:,
22:u:tok-1RR=gesellschaft,
22:u:tok-1 X=gesellschaft,
26:u:tok-1 L=naturforschenden,
26:u:tok-1LL=naturforschenden,
13:u:Tok-1 X=in:,
29:u:tok-2 R=netherlands/journal,
14:u:tok-1RR=1892,
14:u:tok-1 R=1892,
14:u:Tok-1 X=1892,
14:u:tok-1 X=1892,
22:u:tok-1 X=hydrographie,
22:u:Tok-1 X=Hydrographie,
26:u:tok-2 L=und/hydrographie,
37:u:tok-2 R=hydrographie/internationale,
22:u:tok-1 L=hydrographie,
37:u:tok-2 L=hydrographie/internationale,
21:u:tok-1RR=exploration,
21:u:Tok-1 X=Exploration,
21:u:tok-1 X=exploration,
25:u:tok-2 L=the/exploration,
24:u:tok-2 R=exploration/of,
21:u:tok-1 L=exploration,
24:u:tok-2 L=exploration/of,
21:u:tok-1LL=exploration,
18:u:tok-2 R=the/sea),
18:u:tok-2 L=the/sea),
21:u:tok-1RR=cooperative,
23:u:Tok-1 X=Philosophical,
23:u:tok-1 X=philosophical,
36:u:tok-2 R=philosophical/transactions,
32:u:tok-2 L=sciences/philosophical,
19:u:tok-1 L=documents,
26:u:tok-1RR=studiedocumenten,
26:u:tok-1 R=studiedocumenten,
16:u:tok-1 L=nature,
17:u:Tok-1 X=Nature:,
17:u:tok-1 L=nature:,
28:u:tok-1LL=m„©diterran„©ennes,
19:u:tok-1 L=d'isra„´l,
13:u:Suf-2 L=√´l,
24:u:tok-1 R=zoologicheskij,
17:u:tok-1RR=zhurnal,
16:u:tok-1RR=cybium,
16:u:tok-1 R=cybium,
21:u:Tok-1 X=Scandinavia,
21:u:tok-1 X=scandinavia,
16:u:Tok-1 X=Meded.,
15:u:tok-1 X=meded,
26:u:tok-2 R=abhandlungen/der,
17:u:tok-1RR=belgica,
26:u:tok-2 R=scripta/botanica,
17:u:tok-1 L=belgica,
25:u:tok-2 L=belgica/scripta,
22:u:tok-2 R=the/bulletin,
25:u:tok-1LL=meeresforschung,
21:u:Tok-1 X=Bremerhaven,
21:u:tok-1 X=bremerhaven,
29:u:tok-1 R=ver„∂ffentlichungen,
24:u:tok-2 L=in/bremerhaven,
41:u:tok-2 R=bremerhaven/ver„∂ffentlichungen,
22:u:tok-1RR=(1892-1893).,
17:u:Tok-1 X=Congres,
17:u:tok-1 X=congres,
31:u:tok-2 R=congres/international,
17:u:tok-1 L=congres,
19:u:tok-1RR=zoologie.,
31:u:tok-2 L=congres/international,
26:u:tok-2 R=international/de,
17:u:tok-1LL=congres,
19:u:tok-1 R=zoologie.,
26:u:tok-1RR=proc„®s-verbaux:,
26:u:tok-2 L=international/de,
22:u:tok-2 R=de/zoologie.,
19:u:Tok-1 X=Zoologie.,
26:u:tok-1 R=proc„®s-verbaux:,
22:u:tok-2 L=de/zoologie.,
36:u:tok-2 R=zoologie./proc„®s-verbaux:,
26:u:Tok-1 X=Proc√®s-verbaux:,
19:u:tok-1 L=zoologie.,
18:u:tok-1RR=session,,
36:u:tok-2 L=zoologie./proc„®s-verbaux:,
29:u:tok-2 R=proc„®s-verbaux:/2.,
19:u:tok-1LL=zoologie.,
26:u:tok-1 L=proc„®s-verbaux:,
18:u:tok-1 R=session,,
29:u:tok-2 L=proc„®s-verbaux:/2.,
21:u:tok-2 R=2./session,,
18:u:Tok-1 X=session,,
17:u:tok-1 X=session,
26:u:tok-1LL=proc„®s-verbaux:,
17:u:tok-1RR=moscou,,
21:u:tok-2 L=2./session,,
20:u:tok-2 R=session,/„,
18:u:tok-1 L=session,,
17:u:tok-1 R=moscou,,
20:u:tok-2 L=session,/„,
19:u:tok-2 R=„/moscou,,
17:u:Tok-1 X=Moscou,,
16:u:tok-1 X=moscou,
18:u:tok-1LL=session,,
21:u:tok-1RR=10/22-18/30,
19:u:tok-2 L=„/moscou,,
20:u:tok-2 R=moscou,/du,
17:u:tok-1 L=moscou,,
21:u:tok-1 R=10/22-18/30,
15:u:tok-1RR=ao„ªt,
20:u:tok-2 L=moscou,/du,
24:u:tok-2 R=du/10/22-18/30,
21:u:Tok-1 X=10/22-18/30,
18:u:tok-1 X=10221830,
17:u:tok-1LL=moscou,,
15:u:tok-1 R=ao„ªt,
24:u:tok-2 L=du/10/22-18/30,
27:u:tok-2 R=10/22-18/30/ao„ªt,
12:u:Pre-2 R=ao,
15:u:Tok-1 X=ao√ªt,
14:u:tok-1 X=aout,
21:u:tok-1 L=10/22-18/30,
27:u:tok-2 L=10/22-18/30/ao„ªt,
12:u:Pre-2 X=ao,
13:u:Suf-2 X=√ªt,
21:u:tok-1LL=10/22-18/30,
15:u:tok-1 L=ao„ªt,
13:u:Suf-2 L=√ªt,
22:u:tok-1 L=m„©tazoaires,
30:u:tok-2 L=m„©tazoaires/congres,
22:u:tok-1LL=m„©tazoaires,
20:u:tok-2 R=ao„ªt/1892,
20:u:tok-2 L=ao„ªt/1892,
18:u:tok-2 R=1892/in:,
15:u:tok-1RR=1892.,
15:u:tok-1 R=1892.,
17:u:tok-1RR=215-240,
21:u:tok-2 R=ao„ªt/1892.,
15:u:Tok-1 X=1892.,
17:u:tok-1 R=215-240,
21:u:tok-2 L=ao„ªt/1892.,
23:u:tok-2 R=1892./215-240,
21:u:tok-1 L=g„©n„©rale.,
30:u:tok-2 L=g„©n„©rale./archives,
21:u:tok-1LL=g„©n„©rale.,
16:u:tok-1RR=weekly,
24:u:tok-2 L=nature/nature:,
31:u:tok-2 R=nature:/international,
16:u:tok-1 R=weekly,
31:u:tok-2 L=nature:/international,
30:u:tok-2 R=international/weekly,
35:u:tok-2 L=westerschelde/netherlands,
23:u:tok-1RR=amphipacifica,
23:u:tok-1 R=amphipacifica,
19:u:tok-1LL=fragmenta,
19:u:tok-1 L=balcanica,
19:u:tok-1LL=balcanica,
16:u:tok-1RR=gloria,
16:u:tok-1 R=gloria,
15:u:tok-1RR=maris,
16:u:Tok-1 X=Gloria,
16:u:tok-1 X=gloria,
15:u:tok-1 R=maris,
22:u:tok-2 R=gloria/maris,
15:u:Tok-1 X=Maris,
15:u:tok-1 X=maris,
16:u:tok-1 L=gloria,
22:u:tok-2 L=gloria/maris,
22:u:tok-2 R=maris/gloria,
16:u:tok-1LL=gloria,
15:u:tok-1 L=maris,
22:u:tok-2 L=maris/gloria,
21:u:tok-2 L=zool./south,
20:u:tok-1 X=microscopy,
18:u:tok-1LL=scanning,
18:u:tok-1 L=electron,
20:u:Tok-1 X=Microscopy,
29:u:tok-2 L=electron/microscopy,
25:u:tok-2 R=microscopy/mem.,
12:u:Suf-2 X=py,
21:u:Tok-1 X=Bibliotheca,
21:u:tok-1 X=bibliotheca,
20:u:tok-1LL=zoologica,,
19:u:tok-1 L=stuttgart,
20:u:tok-1 R=zoologica:,
31:u:tok-1RR=original-abhandlungen,
31:u:tok-2 L=stuttgart/bibliotheca,
32:u:tok-2 R=bibliotheca/zoologica:,
16:u:tok-1 L=norway,
19:u:tok-1 R=organisms,
19:u:Tok-1 X=Organisms,
19:u:tok-1 X=organisms,
12:u:Pre-2 X=ON,
14:u:tok-1 R=plos,
12:u:Pre-2 R=PL,
13:u:Tok-1 X=ONE,
14:u:tok-1 L=plos,
18:u:tok-2 L=plos/one,
18:u:tok-2 R=one/plos,
12:u:Suf-2 X=NE,
19:u:Tok-1 X=Pollution,
26:u:tok-2 R=marine/pollution,
26:u:tok-2 L=marine/pollution,
28:u:tok-2 R=pollution/bulletin,
28:u:tok-2 L=pollution/bulletin,
25:u:tok-2 R=bulletin/marine,
25:u:tok-2 L=bulletin/marine,
26:u:tok-1RR=biosp„©ologiques,
26:u:Tok-1 X=Biosp√©ologiques,
25:u:tok-1 X=biospeologiques,
20:u:tok-1LL=constanza.,
32:u:tok-2 L=notes/biosp„©ologiques,
32:u:tok-2 R=biosp„©ologiques/notes,
21:u:tok-1 X=informatics,
21:u:Tok-1 X=Informatics,
34:u:tok-2 L=biodiversity/informatics,
29:u:tok-2 R=informatics/journal,
14:u:tok-1 L=bios,
14:u:tok-1LL=bios,
17:u:tok-1LL=iceland,
25:u:tok-2 L=and/scandinavia,
28:u:tok-2 R=scandinavia/sarsia,
22:u:tok-1RR=helgol„§nder,
23:u:tok-1 R=meeresunters.,
19:u:tok-1RR=botanical,
19:u:tok-1 R=botanical,
19:u:Tok-1 X=Botanical,
19:u:tok-1 X=botanical,
27:u:tok-2 R=botanical/society,
15:u:tok-1 L=isles,
22:u:tok-2 L=isles/report,
18:u:tok-2 R=report/-,
18:u:tok-2 L=report/-,
21:u:tok-2 R=-/botanical,
21:u:Tmn-2 L=report/weak,
21:u:tok-2 L=-/botanical,
19:u:tok-1 L=noordsee.,
26:u:tok-1 R=meeresuntersuch.,
15:u:tok-1RR=abth.,
15:u:Tok-1 X=Wiss.,
25:u:tok-2 L=noordsee./wiss.,
32:u:tok-2 R=wiss./meeresuntersuch.,
18:u:tok-1 R=tierwelt,
23:u:tok-2 L=rotatoria/die,
22:u:tok-2 R=die/tierwelt,
18:u:tok-1 X=hokkaido,
18:u:Tok-1 X=Hokkaido,
18:u:tok-1 L=hokkaido,
18:u:tok-1LL=hokkaido,
22:u:tok-1RR=phycological,
22:u:tok-1 R=phycological,
22:u:tok-1 L=phycological,
22:u:tok-1LL=phycological,
30:u:tok-2 R=british/phycological,
30:u:tok-2 L=phycological/journal,
25:u:tok-2 R=journal/british,
25:u:tok-2 L=journal/british,
21:u:tok-1LL=d„©capodes,,
24:u:tok-1 R=scientifiques,,
21:u:tok-1RR=exp„©dition,
24:u:Tok-1 X=Scientifiques,,
23:u:tok-1 X=scientifiques,
21:u:tok-1 R=exp„©dition,
36:u:tok-2 R=scientifiques,/exp„©dition,
24:u:tok-1 L=scientifiques,,
36:u:tok-2 L=scientifiques,/exp„©dition,
26:u:Tok-1 X=oc√©anographique,
24:u:tok-1LL=scientifiques,,
21:u:tok-1 L=exp„©dition,
38:u:tok-2 L=exp„©dition/oc„©anographique,
32:u:tok-2 R=oc„©anographique/belge,
18:u:tok-1 L=macrures,
29:u:tok-2 L=macrures/r„©sultats,
35:u:tok-2 R=r„©sultats/scientifiques,,
18:u:tok-1LL=macrures,
35:u:tok-2 L=r„©sultats/scientifiques,,
21:u:tok-1 X=bemerkungen,
17:u:tok-1LL=europa,,
20:u:tok-1RR=zool.-bot.,
21:u:Tok-1 X=Bemerkungen,
27:u:tok-2 L=nebst/bemerkungen,
27:u:tok-2 R=bemerkungen/verh.,
24:u:tok-2 L=station/marine,
22:u:tok-1LL=universitets,
21:u:tok-1LL=otoplanidae,
35:u:tok-2 L=(turbellaria)/morphologie,
20:u:Tok-1 X=systematik,
33:u:tok-2 R=systematik/abhandlungen,
33:u:tok-2 L=systematik/abhandlungen,
46:u:Tok-1 X=mathematisch-naturwissenschaftlichen,
59:u:tok-2 R=mathematisch-naturwissenschaftlichen/abhandlungen,
46:u:tok-1 L=mathematisch-naturwissenschaftlichen,
46:u:tok-1LL=mathematisch-naturwissenschaftlichen,
17:u:tok-1RR=recueil,
17:u:tok-1 R=recueil,
18:u:tok-1 X=dendoume,
19:u:tok-1 L=belgique/,
28:u:tok-2 L=belgique//bulletin,
12:u:Suf-2 L=e/,
19:u:tok-1LL=belgique/,
38:u:tok-2 R=natuurwetenschappen/bulletin,
25:u:tok-1LL=amphioxus-sand,,
15:u:tok-1 L=elat,,
22:u:tok-2 L=elat,/israel,
22:u:tok-1LL=benachbarten,
23:u:tok-1RR=hamburgischen,
23:u:tok-1 R=hamburgischen,
23:u:tok-1RR=zoologi-schen,
27:u:tok-2 R=dem/hamburgischen,
24:u:tok-1 L=meeresgebieten,
37:u:tok-2 L=meeresgebieten/mitteilungen,
24:u:tok-1LL=meeresgebieten,
15:u:tok-1RR=aqua,,
15:u:tok-1 R=aqua,,
27:u:tok-2 R=ichthyology/aqua,,
12:u:Pre-2 R=aq,
23:u:tok-1LL=investigation,
28:u:tok-2 R=hokkaido/fisheries,
26:u:tok-2 L=reports/hokkaido,
0=1.082419e-01
1=-3.683601e-03
2=-3.052062e-01
3=1.202565e-01
4=7.741561e-02
5=-4.557097e-02
6=1.490810e-02
7=-7.664712e-03
8=-1.065200e-02
9=1.277502e-01
11=-1.145558e-02
12=2.227423e+00
15=-2.515886e+00
16=-8.101248e-01
17=-5.040577e-01
18=-2.287623e-01
21=-5.512990e-01
23=-2.652070e-01
24=-3.425720e+00
25=9.092548e-01
26=6.056804e-01
27=-3.446432e+00
28=-7.001383e-01
29=-6.525458e-01
39=2.676229e-01
40=-4.972574e-02
48=-1.046793e+00
49=-9.021449e-01
51=9.073211e-01
52=-5.015422e-01
53=-1.753591e+00
54=-1.088590e+00
57=-4.484907e-01
59=-1.840371e-01
60=-1.487153e+00
61=-8.002772e-01
63=-2.601847e+00
64=6.956247e-01
65=-3.391643e-01
69=-3.376464e-01
71=-4.335644e-01
72=-1.572418e+00
73=-1.288798e+00
74=-1.416302e-01
75=-3.498537e+00
76=-2.873767e+00
77=4.394340e-01
78=5.895581e-02
79=-1.822887e-01
80=-1.987151e-01
81=-9.956569e-01
83=-5.096261e-01
84=-2.105592e-01
87=-1.844310e+00
88=-8.029544e-01
89=-9.878515e-01
90=2.515261e+00
91=1.528051e+00
92=-1.145602e+00
93=-1.324644e+00
99=-1.412020e+00
100=-3.101658e-01
101=-3.169743e-01
102=-9.125347e-01
103=4.812083e-01
104=3.585530e-01
105=1.396384e-01
111=-1.726030e-01
116=2.973477e-01
117=3.820667e-01
123=-1.010206e+00
125=-3.168454e-02
129=6.159021e-01
130=5.037797e-01
144=-1.031948e-01
147=-9.055638e-01
148=-1.066575e-03
149=-1.544324e-01
155=1.372835e+00
156=2.369071e-01
168=2.369071e-01
180=6.034626e-03
181=3.138227e-01
183=5.405254e-02
184=1.081357e-01
185=1.446417e-01
186=-1.519227e-03
187=2.874755e-01
191=-3.409528e-02
192=2.942192e-01
193=5.110587e-01
204=-1.790457e-01
205=5.433870e-01
219=1.694135e+00
220=-6.291628e-04
229=-3.490872e-02
231=1.136476e-01
232=2.249800e+00
233=-6.099788e-01
241=-3.573812e-01
244=3.035260e-01
245=2.032302e+00
253=-2.878088e-02
257=1.856694e-01
270=2.358129e-01
271=1.349309e+00
285=1.309330e-01
296=8.202396e-02
335=1.001683e+00
336=3.068416e-02
337=8.970754e-03
339=1.132662e-01
340=1.124838e-01
341=-5.030714e-02
342=-1.394413e-01
345=-1.911899e-01
347=-1.833330e-02
349=6.476636e-02
351=-3.360543e-02
352=3.171611e-02
353=-7.219127e-02
363=1.380028e-01
364=1.768813e-03
365=-1.453889e-01
372=2.369071e-01
528=1.356920e-01
529=1.859093e-01
530=-6.419252e-01
531=-7.938373e-03
532=-4.146723e-02
533=7.128586e-04
534=-2.406410e-03
535=-7.615497e-01
536=-4.457320e-01
537=7.711777e-03
539=2.009805e-02
540=2.369071e-01
552=-8.323329e-03
553=9.995691e-02
555=-1.727165e-02
556=3.186918e-02
557=3.930772e-02
561=4.220911e-02
563=8.576437e-05
565=6.476636e-02
567=-3.360543e-02
568=3.171611e-02
569=-7.219127e-02
580=7.688173e-01
581=-1.481255e-01
588=-8.323329e-03
589=9.995691e-02
591=-1.727165e-02
592=3.186918e-02
593=3.930772e-02
597=4.220911e-02
599=8.576437e-05
600=2.369071e-01
615=-2.841306e-02
616=9.965649e-02
624=2.369071e-01
636=6.262888e-03
637=1.812029e-02
639=8.751719e-02
640=1.032857e-01
641=1.709569e-01
642=-2.244960e-02
644=4.536581e-02
647=2.806048e-01
649=3.234580e-01
651=-1.693873e-01
652=-2.128344e-02
653=5.269895e-03
660=2.040280e-01
672=1.071714e-02
673=1.958271e-01
675=8.787586e-02
676=-1.720384e-02
677=5.676952e-02
684=2.040280e-01
696=2.369071e-01
852=6.989360e-02
853=2.018790e-01
854=-9.192273e-02
855=1.629833e-01
856=2.309605e-02
857=2.411115e-01
858=-5.549258e-03
859=-1.586997e-02
861=-3.788132e-02
863=9.804186e-03
864=5.340655e-01
865=3.165612e-01
867=-1.357075e+00
868=-1.656532e-01
869=-3.897551e-01
875=-5.089516e-02
877=5.175196e-01
881=-1.417647e-01
891=2.814010e-01
892=-1.572576e-03
900=-5.082938e-01
901=-2.915383e-01
903=4.780270e-01
904=5.559622e-03
905=-1.580204e+00
906=-6.712947e-02
913=-4.858875e-01
915=-1.379366e+00
916=6.991531e-01
917=5.963213e-04
923=-1.161039e-02
924=-4.317795e-01
927=-1.197021e+00
928=-1.631499e+00
929=4.492296e-01
930=-2.980038e+00
935=-2.255778e-01
939=-2.761014e-02
942=1.739824e+00
943=-1.668250e-01
951=-3.630721e-02
955=1.436850e+00
956=4.197699e-02
968=1.585646e+00
969=-9.230809e-01
975=-2.439456e-01
981=3.154753e+00
999=-5.950937e-01
1001=-1.182522e-01
1007=6.538845e-01
1011=-2.847305e-02
1012=-2.047872e-02
1013=3.491174e-01
1020=7.240419e-02
1021=6.193646e-01
1022=-1.098411e+00
1023=2.598681e-01
1024=6.733005e-01
1025=5.330716e-01
1026=7.603886e-02
1027=-4.808938e-01
1029=-2.066065e-02
1031=2.416821e-02
1032=2.063065e-02
1033=1.433340e-01
1035=5.645878e-03
1036=-3.906305e-03
1037=7.461776e-02
1038=-6.434157e-02
1041=-1.266512e-02
1043=7.417119e-02
1044=6.641502e-02
1045=-3.674061e-02
1046=-4.094293e-02
1047=-5.010897e-02
1048=-2.345596e-03
1049=3.612999e-02
1050=2.566185e-02
1051=-2.714923e-04
1052=-1.596089e-01
1053=7.872458e-02
1055=5.324257e-02
1056=9.309613e-02
1057=1.857015e-04
1058=-7.849539e-02
1059=2.439048e-03
1060=-1.482135e-02
1061=3.695470e-02
1062=-2.403053e-03
1063=-1.185575e-03
1064=-6.523057e-03
1065=1.278990e-01
1067=5.937691e-02
1068=5.106818e-02
1069=4.983276e-04
1070=-2.754388e-01
1071=8.021624e-02
1072=-1.723511e-02
1073=1.927983e-02
1074=2.077910e-02
1075=-7.282939e-04
1076=2.038385e-02
1077=6.693888e-02
1079=4.308243e-04
1080=9.561350e-02
1081=2.128388e-02
1082=-5.484985e-02
1083=4.340407e-01
1084=-1.334279e-01
1085=-2.749662e-01
1086=4.795885e-02
1087=9.728058e-03
1088=2.483857e-02
1089=-4.689969e-02
1091=-1.897241e-03
1092=2.369071e-01
1104=1.191167e-01
1105=-9.123640e-04
1106=-7.671140e-02
1107=1.294107e-01
1108=5.056085e-02
1109=-8.716730e-02
1110=1.944812e-02
1112=-1.636196e-02
1113=7.959045e-02
1115=7.287913e-02
1116=1.462784e-01
1118=-4.129449e-02
1119=8.273083e-02
1120=5.046046e-02
1121=1.247693e-01
1122=4.229095e-02
1123=2.641935e-03
1124=-5.257770e-02
1125=-9.164743e-02
1126=-2.233533e-01
1127=5.805422e-02
1128=-3.385495e-02
1129=2.238206e-02
1131=1.466751e-01
1132=1.142196e-01
1133=1.227164e-01
1134=-8.326325e-05
1139=8.672107e-03
1140=2.480923e-01
1152=2.333210e-02
1153=4.278201e-02
1155=-2.362300e-02
1156=-4.226049e-03
1157=2.992683e-02
1161=4.410608e-02
1164=2.483221e-01
1176=2.483221e-01
1188=2.483221e-01
1200=2.369071e-01
1212=-1.425794e-02
1213=4.201965e-02
1215=2.719024e-01
1216=1.995905e-04
1217=-2.718806e-02
1220=-1.570652e+00
1221=-1.613008e-02
1224=6.538546e-02
1225=1.153192e-01
1227=-4.095954e-03
1228=1.940380e-02
1229=-7.564805e-02
1230=-2.305360e-02
1236=2.369071e-01
1248=-1.002806e-01
1249=1.460587e-02
1250=-4.004082e-02
1251=-2.083459e-04
1252=-7.673759e-03
1253=1.817357e-01
1254=-9.622321e-03
1255=3.825450e-03
1256=-8.283761e-02
1257=1.171938e-01
1259=6.715640e-02
1260=-9.716585e-02
1261=1.858720e-02
1262=-1.077425e-02
1263=5.392971e-02
1264=1.477765e-01
1265=9.936846e-02
1266=-1.723525e-03
1267=1.363424e-01
1268=5.806248e-02
1269=-5.806090e-01
1270=-1.228437e-06
1271=-6.141403e-02
1272=2.369071e-01
1428=2.526493e-02
1429=4.331896e-02
1431=-2.847133e-02
1432=1.804584e-02
1433=3.438813e-02
1434=-3.179740e-02
1436=-4.731511e-01
1437=9.255200e-02
1440=3.280005e-01
1441=-1.145334e-02
1443=-3.250566e-02
1444=-3.152560e-02
1445=6.375452e-02
1446=-4.192340e-01
1452=2.221033e-02
1453=4.212856e-02
1455=-2.800895e-02
1456=1.891592e-02
1457=2.812873e-02
1458=-2.625176e-02
1461=8.805414e-02
1464=-7.902691e-03
1465=1.065203e-01
1467=-6.615983e-03
1468=3.145424e-02
1469=3.602417e-02
1470=-6.566164e-03
1473=4.138835e-02
1475=1.271360e-04
1476=1.410343e-02
1477=2.308310e-01
1479=8.001531e-04
1488=1.133931e-01
1489=2.776619e-05
1490=-8.206104e-02
1491=1.001230e-01
1492=2.352769e-02
1493=-4.648914e-02
1494=1.846185e-02
1496=-1.181276e-03
1497=2.946700e-01
1498=-2.809068e+00
1499=-1.937757e-02
1500=-9.328385e-03
1501=1.075248e-01
1503=2.454360e-01
1504=-4.232338e-03
1505=-2.810920e-04
1512=2.689899e-02
1513=-1.902406e-03
1515=2.374616e-04
1516=1.462953e-02
1517=-1.171483e-01
1524=5.899124e-02
1525=2.049424e-01
1526=-1.027136e-01
1527=-7.136046e-02
1528=-3.219820e-02
1529=-6.765012e-02
1530=-1.396088e-01
1531=-4.099534e-02
1532=-3.348722e-01
1533=-1.369084e-02
1535=1.408721e-02
1536=3.052735e-01
1549=3.139574e-01
1575=3.330659e-01
1576=-1.571894e-01
1588=1.932533e-01
1589=-3.102057e-01
1601=4.513782e-01
1602=-2.310330e+00
1614=1.069355e+00
1627=5.449913e-02
1640=2.444629e-01
1641=-8.015135e-02
1653=9.654060e-01
1679=3.957817e-01
1680=-1.232027e-02
1681=1.043656e-01
1682=-1.103844e-01
1683=2.179409e-01
1684=-4.051144e-02
1685=-8.501562e-02
1686=-1.512711e-03
1689=2.057038e-01
1692=7.342073e-02
1704=-9.328385e-03
1705=1.075248e-01
1707=2.454360e-01
1708=-4.232338e-03
1709=-2.810920e-04
1720=6.613837e-02
1728=7.342073e-02
1744=7.709684e-02
1752=7.914095e-02
1753=-2.941397e-02
1764=1.591344e-02
1765=-7.934701e-04
1766=-2.195471e-01
1767=-2.253459e-02
1768=2.011595e-01
1769=2.527808e-01
1770=1.162035e-01
1773=-8.582756e-01
1775=-8.782611e-03
1776=1.330521e-02
1777=1.367481e-01
1779=-8.140026e-02
1780=1.286484e-01
1781=-4.317764e-02
1788=9.938142e-02
1789=-2.197296e-01
1790=-7.720932e-06
1791=1.291759e-01
1792=1.153384e-01
1793=-2.770218e-02
1794=-5.749064e-04
1795=-1.868213e-02
1797=-9.997405e-01
1799=-2.743789e-02
1800=1.265369e-02
1801=9.696509e-02
1803=-5.258876e-04
1804=7.377880e-03
1806=-7.991580e-02
1812=6.369012e-02
1816=5.090963e-04
1818=-4.986596e-02
1824=1.731907e-02
1825=9.933274e-02
1827=6.512021e-02
1836=1.200788e-01
1837=-1.504906e-02
1838=-2.430114e-02
1839=1.400829e-01
1840=6.294930e-02
1841=2.415415e-01
1842=2.035352e-02
1843=-3.530897e-01
1844=-8.146991e-01
1845=-1.209992e-01
1846=-1.917048e-01
1847=-6.048154e-02
1848=1.091621e+00
1849=-1.740645e-01
1853=-5.799021e-02
1861=1.022101e+00
1862=4.527325e-01
1863=-6.453988e-01
1864=-2.142434e-01
1865=-8.353215e-04
1884=-8.008933e-01
1885=-8.839242e-02
1887=8.875461e-01
1888=6.858665e-02
1889=-1.847946e+00
1890=-1.241136e-01
1893=-2.447037e-01
1896=-6.731740e-01
1897=-9.565656e-02
1899=-2.405739e+00
1900=7.049533e-01
1901=-9.657639e-02
1902=-2.039351e+00
1907=-2.503098e-01
1908=-7.493661e-01
1909=-2.231631e-01
1910=-1.490494e-01
1911=-1.785033e+00
1912=-1.494409e+00
1913=4.451090e-01
1914=1.175213e-01
1917=-4.674892e-01
1919=-3.696778e-01
1923=-1.459524e-02
1926=4.954160e-01
1939=2.444591e+00
1940=-6.185348e-03
1952=1.265138e+00
1965=8.960401e-01
1980=-1.343209e-03
1983=-7.706662e-01
1984=-5.246414e-01
1985=-7.307987e-02
1991=5.875632e-01
1995=3.046335e-02
1996=-2.883296e-02
2001=2.644608e-02
2004=7.709099e-02
2017=5.599249e-01
2043=3.147189e-01
2044=-1.203177e+00
2056=1.620871e-02
2057=-1.527033e+00
2069=2.631687e-03
2070=1.472771e-02
2097=3.733939e-01
2148=1.478242e-01
2149=-1.205351e-02
2150=-4.389076e-03
2151=1.812998e-01
2152=2.884020e-01
2153=1.274615e-01
2154=-3.492962e-02
2155=-3.221489e-01
2156=-9.528153e-01
2157=-6.441062e-02
2159=-5.988204e-02
2163=5.777548e-04
2164=-6.578955e-03
2165=-1.332729e-01
2166=5.568056e-03
2169=2.306836e-01
2171=-1.311490e-02
2173=4.523841e-05
2174=-7.225900e-02
2175=1.103226e-01
2176=5.955159e-02
2177=-1.250578e-01
2178=4.940205e-02
2179=-6.621893e-02
2180=-1.863712e-04
2181=7.394421e-02
2183=7.139656e-02
2184=1.108515e-02
2185=1.451026e-01
2187=7.813343e-03
2188=3.009508e-02
2189=-3.680488e-02
2196=2.504477e-02
2197=1.441159e-01
2198=-1.334523e-01
2199=1.102182e-01
2200=-5.406401e-02
2201=-1.044058e-01
2203=-1.309305e+00
2205=2.019996e-01
2207=6.017854e-04
2208=7.582244e-01
2220=-5.781726e-03
2221=9.667071e-02
2222=-1.370889e-01
2223=1.048465e-01
2224=7.383565e-03
2225=-2.262878e-01
2226=-4.765623e-02
2229=-9.821114e-04
2232=5.999803e-02
2233=-2.904221e-04
2235=-4.564642e-03
2236=1.513851e-02
2237=1.072300e-03
2238=-1.892435e-01
2240=2.588216e-03
2241=-1.690333e+00
2244=1.959705e-01
2245=-1.977423e-01
2246=-9.881644e-06
2247=3.216553e-03
2248=-2.305082e-02
2249=-1.533360e-02
2250=-9.707703e-02
2252=-4.780331e-02
2253=-1.146881e-02
2256=-9.540055e-02
2257=4.464075e-02
2258=-4.615574e-02
2259=8.644185e-02
2260=2.549280e-02
2261=1.974038e-01
2262=5.532561e-03
2263=-3.392831e-02
2264=3.834535e-02
2265=3.230923e-01
2267=6.579278e-02
2268=2.955223e-02
2269=1.546530e-01
2270=-3.500257e-01
2271=1.196477e-01
2272=-5.585575e-02
2273=-1.102312e-01
2275=-1.475674e+00
2277=2.064003e-01
2280=4.936138e-01
2281=-2.584803e+00
2293=5.080424e-01
2319=3.307743e-01
2320=-1.484462e+00
2332=8.063118e-01
2333=-2.209763e+00
2345=3.078905e-01
2358=1.568948e-01
2397=7.636214e-01
2423=1.567816e-01
2424=-2.253492e-02
2425=1.991306e-01
2427=-6.636673e-03
2428=-2.913414e-03
2429=1.447223e-02
2432=-2.866600e-01
2433=7.822300e-02
2435=1.137129e-04
2436=7.337066e-02
2448=5.485983e-02
2449=-2.047728e-02
2451=-4.282508e-03
2452=-8.685362e-05
2453=1.284954e-02
2460=6.735476e-02
2463=-2.239150e-01
2464=3.766262e-02
2465=1.186096e-02
2472=1.476523e-01
2473=1.086089e-02
2487=-8.683082e-01
2488=1.237986e-02
2496=1.536139e-01
2497=-1.607757e-02
2508=3.082834e-02
2511=6.745390e-02
2512=-2.367787e-02
2513=-7.285747e-02
2514=-3.939511e-01
2520=1.463373e-01
2521=-9.157705e-03
2523=9.532748e-02
2524=-9.704734e-03
2525=1.574968e-03
2526=-4.525756e-02
2532=6.142098e-02
2533=-5.579659e-02
2535=2.018847e-01
2536=-5.190351e-03
2537=-5.242193e-02
2547=1.108109e-01
2548=-2.586512e-02
2550=-5.707042e-02
2556=8.534913e-02
2569=7.832956e-01
2595=4.870857e-01
2596=-7.085703e-04
2608=6.394206e-05
2609=-1.347924e-06
2635=7.826723e-01
2673=8.928395e-02
2700=1.062849e-01
2701=-2.070738e-02
2703=-2.256918e-01
2704=3.904255e-04
2705=1.533524e-02
2707=-4.529555e-02
2709=-3.666861e-02
2712=-6.191878e-04
2713=6.001513e-01
2715=-6.526618e-04
2716=5.016534e-03
2717=-2.420841e-02
2718=-1.140558e-04
2720=-4.034321e-01
2724=3.489995e-02
2726=-9.666709e-02
2727=-2.141405e-03
2728=9.432908e-04
2730=1.800592e-01
2736=4.712898e-02
2739=5.034490e-04
2740=4.036079e-02
2741=-1.321780e-02
2751=-2.750740e-03
2752=1.783326e-03
2754=1.665626e-01
2760=7.359463e-02
2763=4.495931e-03
2764=2.431330e-02
2765=8.584604e-03
2766=-5.342495e-03
2772=4.712898e-02
2775=5.034490e-04
2776=4.036079e-02
2777=-1.321780e-02
2788=1.670622e-02
2796=7.359463e-02
2799=4.495931e-03
2800=2.431330e-02
2801=8.584604e-03
2802=-5.342495e-03
2808=-1.689526e-02
2811=-2.841917e-01
2812=-1.177918e-02
2813=-1.534030e-02
2814=1.142538e-01
2816=6.910655e-02
2821=4.674461e-02
2823=1.606295e-06
2826=-1.579203e-01
2835=2.217594e-01
2836=-5.139645e-01
2844=7.090203e-02
2847=4.897616e-02
2848=1.326854e-02
2849=-4.161283e-03
2850=-6.126299e-03
2856=8.762958e-01
2868=5.776966e-01
2886=1.405990e-01
2892=7.272296e-02
2895=5.324066e-02
2896=3.602297e-03
2897=3.446235e-03
2898=-6.428568e-03
2904=7.150721e-02
2905=-1.197650e-02
2907=3.128627e-02
2908=1.118597e-02
2909=2.979840e-04
2910=-3.025155e-03
2916=7.896327e-02
2917=-8.003583e-04
2919=-4.221203e-03
2920=2.595443e-03
2921=2.306838e-02
2922=-3.354975e-03
2928=7.359463e-02
2931=4.495931e-03
2932=2.431330e-02
2933=8.584604e-03
2934=-5.342495e-03
2940=-1.969102e-02
2941=9.451812e-03
2944=7.136202e-01
2952=4.248000e-02
2956=3.794678e-02
2961=-2.411031e-02
2964=9.932689e-01
3003=3.211773e-01
3004=-2.694276e-01
3016=2.202639e-01
3017=-1.262096e+00
3029=8.411653e-01
3030=-8.309631e-01
3042=1.079842e+00
3055=1.719559e-02
3069=-1.614404e+00
3081=6.461300e-01
3108=4.158347e-02
3112=3.409109e-02
3117=-2.309757e-02
3123=-5.346668e-02
3124=1.098832e-02
3125=1.472856e-02
3132=-2.658298e-01
3133=1.385196e-01
3135=-1.505496e-01
3136=3.395600e-02
3137=6.751126e-03
3138=-3.264422e-03
3144=4.158347e-02
3148=3.409109e-02
3153=-2.309757e-02
3161=1.074821e-02
3168=1.389019e-01
3172=-3.044963e-01
3181=-1.469561e-01
3182=-1.263606e-03
3183=-4.754904e-04
3184=-1.023365e-02
3185=-1.685694e-01
3186=-1.166976e-01
3188=-1.662449e-02
3189=4.811718e-02
3190=1.192178e-06
3191=-8.605802e-03
3192=1.641407e-01
3195=7.981763e-02
3196=-4.641953e-03
3197=-9.602259e-03
3198=-6.226284e-02
3210=2.301842e-05
3211=6.751289e-02
3221=2.827496e-02
3222=-5.908605e-01
3224=-4.844544e-01
3228=1.152526e-01
3242=1.637027e+00
3267=7.807254e-02
3280=1.172145e-02
3293=8.906980e-02
3346=3.064801e-02
3371=2.796709e-02
3372=1.105642e-01
3377=2.286497e-02
3384=1.652761e-01
3388=2.053453e-01
3390=-4.948483e-01
3396=4.512564e-02
3397=-4.018422e-01
3398=-1.270507e-03
3399=1.960777e-01
3400=-2.218676e-02
3401=-9.513965e-02
3402=-1.173434e-01
3404=-3.290039e-02
3405=4.895958e-02
3406=1.216418e-06
3407=-8.058116e-03
3408=-2.255286e-01
3409=-1.994273e-02
3411=-3.150069e-01
3412=4.908627e-02
3413=-1.735627e-02
3414=-1.230513e-02
3415=4.110796e-02
3416=-4.149463e-02
3420=8.148629e-02
3432=9.320196e-03
3435=1.453863e-01
3436=4.881971e-02
3437=1.842220e-01
3438=7.938909e-02
3439=-2.157179e-02
3440=-8.043176e-02
3443=-4.527052e-02
3444=-2.242849e-01
3445=1.315612e-01
3447=-8.627719e-02
3448=5.255811e-02
3449=-9.113796e-03
3450=-1.073843e-02
3451=4.592090e-02
3452=-1.123503e-01
3456=8.948962e-03
3457=1.273730e+00
3470=7.075547e-01
3495=6.101015e-02
3496=4.203394e-01
3508=4.999015e-02
3509=3.009504e-01
3521=2.031611e-01
3522=8.400629e-02
3534=-5.161914e-02
3535=1.170985e+00
3547=6.518041e-03
3548=-1.892149e-02
3560=2.084144e-01
3599=1.631256e-01
3600=-1.499216e-03
3603=1.447903e-01
3604=4.226073e-02
3605=6.702560e-02
3606=5.200130e-02
3608=2.281946e-02
3609=-2.907016e-01
3611=-5.607554e-03
3612=1.886888e-01
3613=-1.063428e+00
3615=9.472359e-02
3616=1.591990e-02
3617=1.846961e-02
3618=-1.700635e-01
3627=7.911954e-02
3628=6.099930e-04
3629=-3.331262e-03
3636=6.295993e-02
3637=1.004492e-01
3639=1.173667e-01
3640=3.203356e-01
3641=2.723232e-01
3642=-3.549317e-05
3644=6.274285e-01
3645=-2.292976e-01
3647=-1.990664e-03
3648=7.144694e-03
3651=4.914565e-03
3652=6.775186e-02
3653=5.969997e-02
3655=5.564702e-02
3663=7.911954e-02
3664=6.099930e-04
3665=-3.331262e-03
3672=7.144694e-03
3675=4.914565e-03
3676=6.775186e-02
3677=5.969997e-02
3679=5.564702e-02
3687=-4.608365e-01
3688=3.696440e-01
3689=-4.531995e-02
3699=1.046037e+00
3700=-3.010812e-01
3708=8.380574e-04
3711=-1.358411e-03
3712=-9.300909e-02
3713=-3.823043e-01
3714=1.577388e-02
3716=5.322904e-02
3717=1.619739e-01
3718=9.567017e-07
3719=-1.017949e-02
3720=-4.497412e-02
3723=6.972857e-01
3724=-2.029731e-02
3725=-9.111593e-02
3726=7.555136e-03
3727=-1.267704e-01
3732=-9.404302e-03
3733=1.202291e-03
3735=1.912801e-01
3736=2.763299e-01
3737=-6.572052e-03
3743=1.224653e-03
3744=-1.853360e-01
3745=2.030644e-01
3747=-1.393281e-01
3748=1.353929e-01
3749=3.544232e-02
3750=-3.115274e-05
3759=3.799372e-01
3760=5.478680e-02
3767=-1.933443e-02
3769=3.542932e-02
3795=7.759435e-01
3808=4.724600e-01
3822=3.830383e-02
3846=-5.198164e-01
3861=2.762849e-07
3904=5.280009e-02
3912=2.117047e-03
3913=-1.631476e-04
3914=-4.037789e-06
3915=1.018181e-01
3916=-1.647523e-02
3917=1.285257e-01
3918=-4.911903e-04
3919=5.186365e-03
3920=1.024269e-02
3921=2.374446e-02
3922=2.168116e-05
3923=4.265619e-02
3924=2.814895e-02
3925=-1.211173e-04
3927=1.076511e-01
3928=3.068205e-02
3929=2.436188e-01
3930=4.500148e-02
3931=5.426425e-01
3935=-3.964581e-02
3936=1.735901e-02
3939=-6.659579e-02
3940=-4.508707e-02
3941=8.322971e-01
3947=1.441162e-01
3948=1.416638e-01
3951=6.561677e-01
3963=-1.652917e-04
3964=3.107253e-02
3972=3.406896e-03
3973=-1.691842e-04
3974=-5.739743e-03
3975=7.208932e-02
3976=6.865630e-04
3977=2.092371e-01
3978=2.012429e-03
3979=5.677860e-02
3980=1.130144e-02
3981=1.441320e-02
3987=-5.182527e-02
3988=-2.894561e-02
3989=4.145677e-01
3995=5.103652e-02
3996=9.295943e-03
3997=-1.640888e-04
3999=8.877638e-02
4000=7.415948e-03
4001=1.044583e-01
4002=3.717519e-02
4004=8.308348e-03
4005=2.610790e-02
4007=3.657596e-02
4008=-5.444406e-03
4009=-2.338099e-05
4011=1.047403e-01
4012=-2.198750e-02
4013=2.176414e-01
4015=1.754416e-01
4016=2.009103e-02
4017=-1.037341e-02
4019=-4.249452e-02
4020=7.144694e-03
4023=4.914565e-03
4024=6.775186e-02
4025=5.969997e-02
4027=5.564702e-02
4032=1.184580e-01
4033=-7.770124e-06
4035=1.052133e-01
4036=1.379080e-01
4037=-2.281206e-02
4038=8.192122e-02
4039=-3.718345e-01
4040=1.056650e-01
4041=-4.951945e-02
4043=2.448474e-03
4044=5.956943e-02
4045=-2.012941e-04
4047=1.208936e-01
4048=1.924714e-02
4049=2.652641e-01
4050=1.091425e-01
4051=2.885177e-01
4052=-5.250213e-01
4053=-5.605689e-04
4055=-6.380218e-04
4056=4.346535e-01
4069=8.031737e-01
4070=8.539623e-02
4095=3.066836e-01
4096=6.461102e-03
4107=-2.710981e-01
4108=5.210175e-01
4110=-1.011017e-05
4119=-8.319479e-01
4120=-1.564979e-01
4121=4.000663e-01
4122=6.653031e-01
4127=-1.148622e-01
4134=3.793607e-01
4147=7.011231e-01
4160=5.900067e-02
4161=3.598727e-01
4191=-4.512036e-02
4199=1.079914e+00
4200=1.138029e-02
4203=8.503103e-02
4204=2.287106e-02
4205=2.929426e-02
4211=-3.262750e-04
4213=-4.128623e-02
4215=-3.916327e-02
4216=-2.312787e-02
4217=1.321305e-02
4218=6.701185e-02
4227=4.550455e-01
4229=-1.728422e+00
4237=-4.128623e-02
4239=-3.916327e-02
4240=-2.312787e-02
4241=1.321305e-02
4242=6.701185e-02
4251=-3.255301e-01
4252=3.895953e-03
4264=-7.056568e-01
4265=3.486689e-01
4272=-5.248510e-02
4273=1.823257e-04
4275=-2.342660e-02
4276=1.905552e-01
4277=2.102038e-01
4283=2.836729e-01
4284=2.117617e-02
4287=9.844316e-02
4288=9.396325e-02
4289=1.749909e-01
4290=-2.972316e-03
4292=4.207551e-02
4295=1.404147e-01
4300=1.242050e-02
4309=-6.515749e-07
4311=-4.199729e-02
4312=4.390394e-05
4313=2.670455e-01
4320=-6.509005e-02
4321=2.062121e-02
4322=-1.684548e-01
4323=1.410911e-01
4324=2.251815e-02
4325=1.569864e-01
4326=-1.777315e-01
4327=1.744954e-02
4328=3.940315e-03
4329=5.860977e-02
4331=3.247860e-02
4333=-3.930405e-02
4335=2.651047e-03
4336=-2.303816e-02
4337=9.108864e-03
4344=2.924109e-03
4345=-1.952653e-02
4346=-5.107788e-02
4347=1.321925e-01
4348=-6.051600e-03
4349=2.391806e-01
4350=1.161308e-02
4351=-3.704932e-01
4352=2.951028e-01
4353=2.005420e-01
4354=-2.121299e-01
4355=-4.356390e-02
4356=5.171295e-05
4357=-2.469514e-01
4359=-3.135019e-03
4360=-2.729713e-02
4361=2.188598e-03
4362=2.001440e-01
4372=1.339261e-02
4380=-3.043414e-03
4381=-1.710129e-03
4382=-2.246827e-01
4383=1.398291e-01
4384=2.630069e-02
4385=2.174239e-01
4386=-5.939123e-02
4387=2.356251e-02
4388=1.759761e-02
4389=1.122145e-01
4391=1.722830e-02
4392=5.767888e-01
4395=-1.977028e-01
4405=8.924633e-01
4406=8.846161e-02
4419=3.537677e-01
4420=-1.061205e-03
4431=3.022760e-01
4432=4.773253e-02
4433=-1.870920e-01
4437=-2.376000e-01
4443=-4.609464e-01
4444=3.972825e-01
4445=1.046742e-01
4446=-5.384931e-01
4449=-4.598012e-02
4452=-3.444214e-01
4455=-9.860899e-01
4456=-5.395709e-01
4457=4.011593e-01
4458=6.483472e-02
4461=-2.501833e-01
4463=-1.783677e-01
4467=-2.060314e-02
4470=2.102035e-01
4471=1.293003e+00
4479=-6.728281e-02
4480=-1.575252e-01
4483=2.095440e-01
4484=7.135099e-01
4485=4.154158e-01
4496=1.288486e-01
4497=1.851506e+00
4503=-1.355853e-01
4510=1.292355e+00
4527=-3.643703e-01
4535=1.817259e+00
4537=-4.171823e-02
4539=-1.129878e-02
4540=-4.793531e-03
4541=1.091551e-02
4542=6.666819e-02
4549=-6.071271e-02
4551=-9.444899e-03
4552=-2.415781e-02
4553=2.325587e-02
4554=5.031944e-02
4561=-6.246976e-02
4563=-1.269575e-02
4564=1.022026e-04
4565=1.432245e-02
4573=-4.128623e-02
4575=-3.916327e-02
4576=-2.312787e-02
4577=1.321305e-02
4578=6.701185e-02
4587=-1.454258e-02
4589=5.760074e-02
4597=-2.488247e-02
4599=-1.128698e-01
4600=-9.587125e-03
4601=2.426833e-02
4605=-1.249742e+00
4606=9.046551e-01
4611=-7.884736e-01
4612=6.544224e-03
4613=1.933815e-02
4620=3.280721e-02
4621=-3.533892e-02
4622=-1.698860e-01
4623=-1.164327e-02
4624=-2.159999e-02
4625=6.841840e-02
4626=-1.776608e-03
4628=-3.268447e-01
4631=1.115740e-01
4635=1.934753e-02
4636=1.457420e-03
4637=-3.448605e-02
4647=6.540711e-02
4648=-7.232680e-03
4656=3.922730e-03
4657=-5.670192e-01
4659=6.472998e-04
4660=-1.419274e-03
4661=1.076736e-02
4663=-4.949417e-02
4671=3.090211e-04
4672=4.741285e-02
4683=-2.344491e-02
4684=-2.045459e-02
4685=4.379213e-01
4695=3.090211e-04
4696=4.741285e-02
4708=-8.976488e-01
4709=4.504497e-02
4716=3.869773e-02
4717=-1.156933e-01
4718=-1.687525e-01
4719=-3.743298e-03
4720=-2.269217e-02
4721=6.469774e-02
4722=-6.700171e-04
4725=-9.067802e-06
4727=1.281902e-01
4728=6.596347e-05
4731=-2.200773e-02
4732=4.258502e-02
4733=1.180810e-01
4735=4.616974e-02
4743=3.007725e-02
4744=-1.299055e-04
4745=-2.740440e-02
4755=2.563814e-01
4756=-1.228895e-01
4764=-6.739534e-02
4765=1.703013e-02
4767=1.434219e-02
4768=3.766234e-02
4769=1.276161e-02
4770=-7.616981e-04
4772=3.165299e-01
4776=3.919296e-03
4777=-4.301167e-01
4779=3.014124e-04
4780=2.460816e-02
4781=1.755149e-03
4783=-4.952892e-02
4788=1.639680e-03
4789=-3.612659e-01
4791=1.368380e-03
4792=-1.646992e-03
4793=3.198000e-03
4803=1.605858e-01
4804=-2.220069e-02
4815=1.075087e+00
4816=-1.473969e-01
4824=3.914702e-03
4825=-5.702210e-01
4827=1.255679e-04
4828=5.315365e-02
4829=-9.043910e-02
4831=-4.990398e-02
4836=1.370964e-01
4875=7.821891e-01
4876=-1.692448e+00
4888=3.967601e-01
4889=-2.207342e+00
4901=7.132307e-01
4914=9.054815e-01
4979=2.638687e-02
4983=3.090211e-04
4984=4.741285e-02
4995=-2.211531e-02
4996=7.714466e-03
4997=5.803716e-03
5004=2.538601e-02
5005=-6.206651e-02
5007=6.754093e-02
5008=-3.455553e-02
5009=4.151966e-02
5010=-1.697905e-01
5015=-2.915709e-03
5016=2.561418e-01
5055=2.828835e-01
5056=-2.727570e+00
5063=-2.845592e-02
5068=3.247018e-01
5069=-2.643528e+00
5081=4.542271e-01
5082=-3.886135e-01
5094=2.677471e-01
5095=-6.734635e-03
5107=1.045260e-01
5133=7.302954e-01
5151=-3.329226e-02
5159=2.660416e-01
5163=5.264858e-03
5164=2.552786e-02
5165=-6.080914e-02
5175=-4.531680e-02
5176=5.605252e-03
5177=1.518710e-02
5187=1.223623e-05
5235=4.410715e-02
5236=8.852970e-01
5248=-6.128316e-01
5249=1.588526e+00
5261=-7.534827e-02
5262=1.279867e+00
5274=-3.183026e-01
5275=3.471815e-01
5289=1.781466e-02
5343=1.127584e-02
5344=-1.477708e-03
5355=1.261390e-01
5356=2.447219e-02
5357=-2.736679e-01
5367=5.264858e-03
5368=2.552786e-02
5369=-6.080914e-02
5379=-1.863830e-02
5380=6.528259e-03
5381=1.503419e-02
5391=1.261390e-01
5392=2.447219e-02
5393=-2.736679e-01
5403=4.259442e-01
5405=-4.901543e-02
5412=4.243986e-02
5413=-1.567663e-01
5415=7.881379e-02
5416=-3.716295e-02
5417=3.488920e-02
5418=2.806191e-03
5421=-1.157576e-04
5423=-2.782037e-03
5427=-1.980212e-02
5428=6.096757e-02
5429=8.416677e-02
5431=3.274830e-01
5436=6.917433e-02
5439=3.129466e-02
5440=-8.094824e-03
5441=-7.403393e-03
5445=-2.408363e-03
5447=-1.141383e-02
5451=5.748155e-02
5460=1.415436e-02
5461=5.592713e-02
5463=1.512880e-01
5464=-1.856508e-03
5465=-1.916014e-02
5466=1.005112e-02
5472=9.020284e-01
5473=-7.741724e-01
5475=-1.304747e-01
5476=3.096350e-01
5477=2.414551e-01
5478=-3.144135e-05
5479=-6.253106e-01
5481=-3.168499e-05
5484=1.453558e-02
5485=-1.129397e-01
5487=4.336397e-02
5488=-3.184758e-02
5489=4.156544e-02
5490=-4.638114e-02
5499=-6.592863e-04
5500=1.970458e-02
5501=4.033415e-01
5511=1.261390e-01
5512=2.447219e-02
5513=-2.736679e-01
5520=8.867925e-02
5521=-1.101048e-05
5522=-1.293841e-01
5523=-6.261229e-04
5524=-3.052976e-02
5525=6.627560e-02
5526=1.554236e-01
5531=-2.706134e-03
5535=-1.688331e-02
5536=7.140244e-03
5537=1.005019e-02
5547=-3.696599e-01
5548=-5.134265e-04
5549=1.128206e-01
5559=7.882768e-01
5560=-1.138398e+00
5572=4.430240e-03
5583=-2.173163e-02
5584=-1.222263e-03
5585=1.549734e-02
5595=-1.862978e-07
5596=-1.956175e-01
5597=8.381378e-03
5607=-2.173163e-02
5608=-1.222263e-03
5609=1.549734e-02
5619=-1.522635e-02
5620=-1.772159e-04
5621=1.004761e-02
5632=2.818871e-02
5643=1.540852e-01
5644=-5.595473e-01
5655=-4.769557e-01
5656=-1.905044e-02
5657=3.280311e-01
5664=2.778798e-02
5665=-7.769773e-05
5667=1.424566e-01
5668=4.840236e-02
5669=-1.269024e-01
5670=-4.853065e-01
5671=-2.245178e-02
5673=-1.680193e-04
5675=-2.846395e-03
5676=6.969108e-02
5679=8.728190e-02
5680=-3.348713e-02
5681=-1.731249e-02
5687=-1.188965e-02
5688=4.308828e-03
5691=2.712578e-02
5692=3.792351e-02
5693=6.976918e-02
5700=6.227656e-02
5701=-5.306986e-05
5703=6.956933e-02
5704=-3.390843e-02
5705=4.289511e-02
5706=1.189023e-01
5707=1.086653e-02
5711=-2.636237e-02
5712=1.318997e-01
5715=-2.731721e-04
5716=3.680617e-02
5717=2.316280e-02
5724=6.678235e-01
5736=1.671506e-02
5751=8.024986e-03
5752=-4.594479e-04
5763=5.881912e-01
5764=-2.319738e-02
5765=-4.203862e-03
5775=7.768911e-01
5776=9.646905e-03
5777=-4.657804e-01
5787=1.285614e-02
5788=-4.037358e-03
5789=2.151598e-02
5800=1.399160e-01
5811=-2.726879e-02
5812=7.897096e-04
5823=1.285614e-02
5824=-4.037358e-03
5825=2.151598e-02
5832=6.877162e-02
5835=8.007258e-01
5836=-1.619912e-02
5837=-8.205061e-03
5847=7.185956e-02
5849=-5.038021e-01
5859=6.260440e-02
5860=1.445142e-01
5861=-6.248472e-01
5862=-6.726477e-03
5868=4.948165e-01
5883=1.285614e-02
5884=-4.037358e-03
5885=2.151598e-02
5892=2.461147e-01
5895=1.464049e+00
5896=-4.844624e-04
5897=-1.311546e+00
5907=-1.165898e-02
5908=7.163777e-03
5909=2.009459e-02
5919=2.617030e-01
5920=-3.922912e-02
5931=-1.715202e-01
5932=9.758587e-02
5933=1.048740e-03
5934=-2.307558e-01
5940=-5.304632e-05
5943=2.353013e-02
5944=7.087237e-03
5945=-1.571947e-03
5951=-5.301688e-05
5955=-1.165898e-02
5956=7.163777e-03
5957=2.009459e-02
5969=-5.862571e-03
5980=-8.805500e-03
5988=-5.304632e-05
5991=2.353013e-02
5992=7.087237e-03
5993=-1.571947e-03
5999=-5.301688e-05
6003=-5.927139e-02
6004=-2.798529e-02
6013=2.108829e-01
6015=-6.031729e-03
6016=-2.790195e-01
6017=8.197849e-01
6024=-5.304632e-05
6027=2.353013e-02
6028=7.087237e-03
6029=-1.571947e-03
6035=-5.301688e-05
6039=2.013900e-01
6040=-8.743905e-02
6053=-1.287351e-02
6064=-1.277284e-02
6075=3.342082e-01
6076=-1.457988e-01
6087=1.915921e-03
6099=1.787539e-01
6100=-9.651224e-03
6101=3.079461e-02
6102=-3.335288e-04
6107=-5.476681e-03
6111=3.342082e-01
6112=-1.457988e-01
6123=2.147980e-03
6124=3.228484e-02
6125=-6.991633e-01
6132=2.516165e-01
6133=-1.520118e-03
6135=1.179749e+00
6136=-4.738704e-03
6137=-2.762274e-01
6138=1.227354e-03
6147=-2.000949e-02
6148=1.699944e-04
6149=1.826743e-02
6155=8.852538e-02
6160=-7.300257e-03
6171=1.709448e-03
6183=-1.268465e-03
6184=-1.037160e-03
6185=1.916833e-02
6186=-5.409957e-03
6195=-1.150418e-02
6196=1.449239e-03
6197=5.488867e-03
6207=1.709448e-03
6219=-1.150418e-02
6220=1.449239e-03
6221=5.488867e-03
6231=4.003706e-01
6243=1.378519e-01
6244=-3.050176e-02
6255=-1.113788e-01
6256=4.614490e-03
6257=3.322862e-03
6263=2.655965e-01
6267=-1.150418e-02
6268=1.449239e-03
6269=5.488867e-03
6287=1.246226e-01
6291=-4.048564e-03
6292=-9.439972e-03
6293=7.638604e-02
6303=-1.016233e-01
6304=2.913094e-02
6305=6.726827e-02
6311=2.377162e-01
6315=2.189306e-02
6316=4.156226e-03
6317=-3.580799e-04
6327=4.911748e-02
6328=3.011512e-02
6329=-9.452140e-03
6339=-4.048564e-03
6340=-9.439972e-03
6341=7.638604e-02
6351=4.911748e-02
6352=3.011512e-02
6353=-9.452140e-03
6363=6.391422e-01
6364=-8.505375e-03
6365=-5.855712e-01
6372=2.473578e-01
6373=7.758321e-04
6375=-3.398358e-02
6384=2.151342e-01
6387=-3.009103e-02
6399=4.911748e-02
6400=3.011512e-02
6401=-9.452140e-03
6408=-1.389205e-01
6409=1.510584e-01
6411=-3.822669e-02
6412=3.081337e-02
6413=4.477994e-02
6419=4.785456e-02
6423=-3.347698e-01
6424=2.805757e-02
6425=4.127772e-02
6435=-4.152521e-01
6436=7.967388e-03
6437=4.065250e-01
6438=2.513446e-01
6444=-1.389205e-01
6445=1.510584e-01
6447=-3.822669e-02
6448=3.081337e-02
6449=4.477994e-02
6455=4.785456e-02
6459=4.904073e-01
6460=1.083836e-01
6461=-5.506378e-01
6468=2.060075e-01
6471=-2.752596e-02
6483=-1.609731e-01
6484=3.490288e-02
6485=3.527438e-02
6495=-1.609731e-01
6496=3.490288e-02
6497=3.527438e-02
6507=4.465228e-03
6508=6.370551e-02
6509=-3.162788e-02
6520=1.314758e-04
6521=-4.589537e-05
6531=6.391229e-01
6532=-1.173440e-01
6543=2.269902e-02
6544=2.241334e-02
6545=-4.676669e-03
6557=-1.228055e-04
6569=-1.321559e-02
6576=3.208497e-01
6577=-1.133821e-02
6579=-1.036013e-01
6580=2.429404e-02
6581=6.083350e-02
6593=-1.228055e-04
6600=3.208497e-01
6601=-1.133821e-02
6603=-1.036013e-01
6604=2.429404e-02
6605=6.083350e-02
6615=-3.777962e-01
6616=-3.258318e-03
6617=7.789414e-02
6623=2.244229e-02
6624=3.208497e-01
6625=-1.133821e-02
6627=-1.036013e-01
6628=2.429404e-02
6629=6.083350e-02
6639=-2.590494e-01
6640=2.766384e-02
6641=4.183643e-02
6653=-4.114047e-03
6663=4.551584e-02
6664=8.289413e-02
6665=-4.813295e-03
6671=1.807424e-04
6675=1.645131e-01
6676=2.391522e-01
6677=-2.363528e-01
6689=-4.114047e-03
6699=-1.438783e-01
6700=2.719585e-02
6701=4.171991e-02
6711=1.645131e-01
6712=2.391522e-01
6713=-2.363528e-01
6723=3.811875e-02
6724=8.248509e-02
6725=-4.461879e-02
6731=3.942556e-03
6736=1.598437e+00
6737=-4.406895e-01
6747=1.645131e-01
