#mdl#2#4573
#rdr#61/19/0
1:*,
18:u:Tok-1 X=%x[ 0,0],
18:u:tok-1 X=%x[ 0,1],
18:u:tok-1LL=%X[-2,0],
18:u:tok-1 L=%X[-1,0],
18:u:tok-1 R=%X[ 1,0],
18:u:tok-1RR=%X[ 2,0],
27:u:tok-2 L=%X[-1,0]/%X[ 0,0],
27:u:tok-2 R=%X[ 0,0]/%X[ 1,0],
18:*:Fst-1 X=%x[ 0,2],
18:u:Fst-1 R=%x[ 1,2],
27:u:Fst-2 X=%x[ 0,2]/%x[ 0,4],
27:u:Fst-2 R=%x[ 1,2]/%x[ 1,4],
18:*:Lst-1 L=%x[-1,3],
18:u:Lst-1 X=%x[ 0,3],
27:u:Lst-2 L=%x[-1,3]/%x[-1,6],
27:u:Lst-2 X=%x[ 0,3]/%x[ 0,6],
18:u:Pre-1 X=%x[ 0,4],
18:u:Pre-2 X=%x[ 0,5],
18:u:Pre-2 R=%x[ 1,5],
18:u:Suf-1 X=%x[ 0,6],
18:u:Suf-2 L=%x[-1,7],
18:u:Suf-2 X=%x[ 0,7],
18:u:Cap-1 L=%x[-1,8],
18:u:Cap-1 X=%x[ 0,8],
18:u:Cap-1 R=%x[ 1,8],
27:u:Cap-2 L=%x[-1,8]/%x[ 0,8],
27:u:Cap-2 R=%x[ 0,8]/%x[ 1,8],
28:u:Cap-3 L=%x[-1,18]/%x[ 0,8],
18:*:Num-1 L=%x[-1,9],
18:*:Num-1 X=%x[ 0,9],
18:u:Num-1 R=%x[ 1,9],
28:u:Num-2 R=%x[ 0,9]/%x[ 0,17],
28:u:Num-2 R=%x[ 0,9]/%x[ 0,18],
19:u:Nme-1 X=%x[ 0,10],
19:u:Loc-1 X=%x[ 0,11],
19:u:Pub-1 X=%x[ 0,12],
19:u:Jnl-1 X=%x[ 0,13],
19:u:Key-1 L=%x[-1,14],
19:u:Key-1 X=%x[ 0,14],
19:u:Key-1 R=%x[ 1,14],
28:u:Key-2 X=%x[ 0,14]/%x[ 0,8],
29:u:Key-3 L=%x[-1,18]/%x[ 0,14],
29:u:Key-3 x=%x[ 0,14]/%x[ 0,18],
19:u:Pos-1 X=%x[ 0,15],
29:u:Pos-2 L=%x[-1,15]/%x[ 0,15],
29:u:Pos-2 R=%x[ 0,15]/%x[ 1,15],
19:u:Pct-1 L=%x[-1,16],
19:u:Pct-1 X=%x[ 0,16],
19:u:Pct-1 R=%x[ 1,16],
19:u:Brk-1 L=%x[-1,17],
19:u:Brk-1 X=%x[ 0,17],
19:u:Brk-1 R=%x[ 1,17],
19:*:Tmn-1 L=%x[-1,18],
19:u:Tmn-1 X=%x[ 0,18],
19:u:Tmn-1 R=%x[ 1,18],
29:u:Tmn-2 L=%x[-1,14]/%x[ 0,18],
29:u:Tmn-2 R=%x[ 0,18]/%x[ 1,14],
28:u:Tmn-3 X=%x[ 0,18]/%x[ 0,6],
28:u:Tmn-4 R=%x[ 0,18]/%x[ 1,8],
19:u:Id--1 X=%x[ 0,19],
#qrk#8
6:Author,
4:Year,
5:Title,
7:Journal,
6:Volume,
5:Issue,
10:Pagination,
4:Book,
#qrk#2049
1:*,
14:u:tok-1LL=_x-2,
14:u:tok-1 L=_x-1,
12:*:Fst-1 X=Lu,
12:u:Fst-1 R=Lu,
14:u:Fst-2 X=Lu/V,
14:u:Fst-2 R=Lu/D,
14:*:Lst-1 L=_x-1,
11:u:Lst-1 X=P,
19:u:Lst-2 L=_x-1/_x-1,
13:u:Lst-2 X=P/,,
11:u:Pre-1 X=V,
12:u:Pre-2 X=Ve,
11:u:Suf-1 X=,,
14:u:Suf-2 L=_x-1,
12:u:Suf-2 X=e,,
14:u:Cap-1 L=_x-1,
17:u:Cap-1 X=initial,
16:u:Cap-1 R=single,
24:u:Cap-2 R=initial/single,
14:*:Num-1 L=_x-1,
14:*:Num-1 X=none,
15:u:Num-1 R=roman,
19:u:Num-2 R=none/none,
19:u:Num-2 R=none/weak,
11:u:Nme-1 X=F,
11:u:Loc-1 X=F,
11:u:Pub-1 X=F,
11:u:Jnl-1 X=F,
14:u:Key-1 L=_x-1,
14:u:Key-1 X=none,
14:u:Key-1 R=none,
22:u:Key-2 X=none/initial,
19:u:Key-3 L=_x-1/none,
19:u:Key-3 x=none/weak,
15:u:Pos-1 X=first,
20:u:Pos-2 L=_x-1/first,
17:u:Pos-2 R=first/0,
14:u:Pct-1 L=_x-1,
15:u:Pct-1 X=other,
16:u:Pct-1 R=period,
14:u:Brk-1 L=_x-1,
14:u:Brk-1 X=none,
14:u:Brk-1 R=none,
14:*:Tmn-1 L=_x-1,
14:u:Tmn-1 X=weak,
14:u:Tmn-1 R=weak,
19:u:Tmn-2 L=_x-1/weak,
19:u:Tmn-2 R=weak/none,
16:u:Tmn-3 X=weak/,,
21:u:Tmn-4 R=weak/single,
11:u:Id--1 X=F,
14:u:Fst-2 X=Lu/D,
14:u:Fst-2 R=Lu/V,
11:*:Lst-1 L=P,
13:u:Lst-2 L=P/,,
13:u:Lst-2 X=P/;,
11:u:Pre-1 X=D,
11:u:Suf-1 X=;,
12:u:Suf-2 L=e,,
17:u:Cap-1 L=initial,
16:u:Cap-1 X=single,
17:u:Cap-1 R=initial,
24:u:Cap-2 L=initial/single,
24:u:Cap-2 R=single/initial,
14:*:Num-1 L=none,
15:*:Num-1 X=roman,
14:u:Num-1 R=none,
20:u:Num-2 R=roman/none,
14:u:Key-1 L=none,
21:u:Key-2 X=none/single,
19:u:Key-3 L=weak/none,
11:u:Pos-1 X=0,
17:u:Pos-2 L=first/0,
15:u:Pct-1 L=other,
16:u:Pct-1 X=period,
15:u:Pct-1 R=other,
14:u:Brk-1 L=none,
14:*:Tmn-1 L=weak,
19:u:Tmn-2 L=none/weak,
16:u:Tmn-3 X=weak/;,
22:u:Tmn-4 R=weak/initial,
14:u:Fst-2 R=Lu/M,
13:u:Lst-2 L=P/;,
12:u:Pre-2 X=Vi,
12:u:Suf-2 L=.;,
16:u:Cap-1 L=single,
24:u:Cap-2 L=single/initial,
22:u:Cap-3 L=weak/initial,
15:*:Num-1 L=roman,
11:u:Pos-1 X=1,
13:u:Pos-2 R=1/1,
16:u:Pct-1 L=period,
16:u:Tmn-1 R=strong,
11:u:Fst-1 R=N,
14:u:Fst-2 X=Lu/M,
13:u:Fst-2 R=N/1,
13:u:Lst-2 X=P/.,
11:u:Pre-1 X=M,
12:u:Pre-2 R=19,
11:u:Suf-1 X=.,
15:u:Cap-1 R=other,
14:u:Num-1 R=year,
22:u:Num-2 R=roman/strong,
21:u:Key-3 x=none/strong,
13:u:Pos-2 L=1/1,
14:u:Pct-1 R=none,
16:u:Tmn-1 X=strong,
14:u:Tmn-1 R=none,
21:u:Tmn-2 L=none/strong,
21:u:Tmn-2 R=strong/none,
18:u:Tmn-3 X=strong/.,
22:u:Tmn-4 R=strong/other,
11:*:Fst-1 X=N,
13:u:Fst-2 X=N/1,
14:u:Fst-2 R=Lu/E,
11:u:Lst-1 X=N,
13:u:Lst-2 L=P/.,
11:u:Pre-1 X=1,
12:u:Pre-2 X=19,
15:u:Cap-1 X=other,
22:u:Cap-2 L=single/other,
23:u:Cap-2 R=other/initial,
22:u:Cap-3 L=strong/other,
14:*:Num-1 X=year,
19:u:Num-2 R=year/none,
20:u:Key-2 X=none/other,
21:u:Key-3 L=strong/none,
19:u:Key-3 x=none/none,
14:u:Pct-1 X=none,
16:*:Tmn-1 L=strong,
14:u:Tmn-1 X=none,
19:u:Tmn-2 L=none/none,
19:u:Tmn-2 R=none/none,
22:u:Tmn-4 R=none/initial,
12:u:Fst-1 R=Ps,
14:u:Fst-2 X=Lu/E,
14:u:Fst-2 R=Ps/(,
11:*:Lst-1 L=N,
12:u:Lst-1 X=Ll,
14:u:Lst-2 X=Ll/e,
11:u:Pre-1 X=E,
11:u:Suf-1 X=e,
12:u:Suf-2 X=ae,
15:u:Cap-1 L=other,
23:u:Cap-2 L=other/initial,
25:u:Cap-2 R=initial/initial,
22:u:Cap-3 L=none/initial,
14:*:Num-1 L=year,
19:u:Key-3 L=none/none,
11:u:Pos-1 X=2,
13:u:Pos-2 R=2/2,
14:u:Pct-1 L=none,
15:u:Pct-1 R=colon,
23:u:Brk-1 R=opening-paren,
14:*:Tmn-1 L=none,
18:u:Tmn-1 R=moderate,
16:u:Tmn-3 X=none/e,
12:*:Fst-1 X=Ps,
14:u:Fst-2 X=Ps/(,
12:*:Lst-1 L=Ll,
14:u:Lst-2 L=Ll/e,
13:u:Lst-2 X=P/:,
11:u:Pre-1 X=(,
12:u:Pre-2 R=De,
11:u:Suf-1 X=:,
12:u:Suf-2 L=ae,
25:u:Cap-2 L=initial/initial,
28:u:Num-2 R=none/opening-paren,
23:u:Num-2 R=none/moderate,
23:u:Key-3 x=none/moderate,
13:u:Pos-2 L=2/2,
13:u:Pos-2 R=2/3,
15:u:Pct-1 X=colon,
23:u:Brk-1 X=opening-paren,
23:u:Brk-1 R=closing-paren,
18:u:Tmn-1 X=moderate,
23:u:Tmn-2 L=none/moderate,
23:u:Tmn-2 R=moderate/none,
20:u:Tmn-3 X=moderate/:,
26:u:Tmn-4 R=moderate/initial,
11:u:Id--1 X=T,
13:u:tok-1RR=the,
12:u:Fst-1 R=Ll,
14:u:Fst-2 R=Ll/f,
12:u:Lst-1 X=Pe,
13:u:Lst-2 L=P/:,
14:u:Lst-2 X=Pe/),
11:u:Suf-1 X=),
15:u:Cap-1 R=lower,
23:u:Cap-2 R=initial/lower,
26:u:Cap-3 L=moderate/initial,
28:u:Num-2 R=none/closing-paren,
21:u:Num-2 R=none/strong,
23:u:Key-3 L=moderate/none,
11:u:Pos-1 X=3,
13:u:Pos-2 R=3/3,
15:u:Pct-1 L=colon,
23:u:Brk-1 L=opening-paren,
23:u:Brk-1 X=closing-paren,
18:*:Tmn-1 L=moderate,
18:u:Tmn-3 X=strong/),
22:u:Tmn-4 R=strong/lower,
13:u:tok-1 R=the,
12:*:Fst-1 X=Ll,
14:u:Fst-2 X=Ll/f,
14:u:Fst-2 R=Ll/t,
12:*:Lst-1 L=Pe,
14:u:Lst-2 L=Pe/),
14:u:Lst-2 X=Ll/m,
11:u:Pre-1 X=f,
12:u:Pre-2 R=th,
11:u:Suf-1 X=m,
12:u:Suf-2 L=a),
15:u:Cap-1 X=lower,
23:u:Cap-2 L=initial/lower,
21:u:Cap-2 R=lower/lower,
22:u:Cap-3 L=strong/lower,
11:u:Nme-1 X=T,
11:u:Jnl-1 X=T,
20:u:Key-2 X=none/lower,
13:u:Pos-2 L=3/3,
23:u:Brk-1 L=closing-paren,
16:u:Tmn-3 X=none/m,
20:u:Tmn-4 R=none/lower,
13:u:Tok-1 X=the,
13:u:tok-1 X=the,
14:u:tok-1 L=from,
14:u:Fst-2 X=Ll/t,
14:u:Lst-2 L=Ll/m,
11:u:Pre-1 X=t,
12:u:Pre-2 X=th,
12:u:Suf-2 X=he,
15:u:Cap-1 L=lower,
21:u:Cap-2 L=lower/lower,
23:u:Cap-2 R=lower/initial,
20:u:Cap-3 L=none/lower,
11:u:Pub-1 X=T,
13:u:Pos-2 R=3/4,
14:u:tok-1LL=from,
13:u:tok-1 L=the,
14:u:Fst-2 R=Lu/A,
14:u:Lst-2 X=Ll/t,
12:u:Pre-2 R=Af,
11:u:Suf-1 X=t,
12:u:Suf-2 L=he,
23:u:Cap-2 L=lower/initial,
11:u:Pos-1 X=4,
13:u:Pos-2 L=3/4,
13:u:Pos-2 R=4/4,
16:u:Tmn-3 X=none/t,
13:u:tok-1LL=the,
14:u:Fst-2 X=Lu/A,
14:u:Fst-2 R=Ll/c,
14:u:Lst-2 L=Ll/t,
14:u:Lst-2 X=Ll/n,
11:u:Pre-1 X=A,
12:u:Pre-2 X=Af,
12:u:Pre-2 R=co,
11:u:Suf-1 X=n,
12:u:Suf-2 L=st,
12:u:Suf-2 X=an,
13:u:Pos-2 L=4/4,
16:u:Tmn-3 X=none/n,
15:u:tok-1 X=coast,
14:u:Fst-2 X=Ll/c,
14:u:Fst-2 R=Ll/w,
14:u:Lst-2 L=Ll/n,
11:u:Pre-1 X=c,
12:u:Pre-2 X=co,
12:u:Suf-2 L=an,
11:u:Loc-1 X=T,
13:u:Pos-2 R=4/5,
20:u:Tmn-4 R=weak/lower,
14:u:Fst-2 X=Ll/w,
14:u:Fst-2 R=Ll/a,
14:u:Lst-2 X=Ll/h,
11:u:Pre-1 X=w,
11:u:Suf-1 X=h,
12:u:Suf-2 L=t,,
12:u:Suf-2 X=th,
20:u:Cap-3 L=weak/lower,
11:u:Pos-1 X=5,
13:u:Pos-2 L=4/5,
13:u:Pos-2 R=5/5,
16:u:Tmn-3 X=none/h,
11:u:tok-1 X=a,
14:u:Fst-2 X=Ll/a,
14:u:Fst-2 R=Ll/d,
14:u:Lst-2 L=Ll/h,
14:u:Lst-2 X=Ll/a,
11:u:Pre-1 X=a,
12:u:Pre-2 R=di,
11:u:Suf-1 X=a,
12:u:Suf-2 L=th,
13:u:Pos-2 L=5/5,
13:u:Pos-2 R=5/6,
16:u:Tmn-3 X=none/a,
14:u:Fst-2 X=Ll/d,
14:u:Fst-2 R=Ll/o,
14:u:Lst-2 L=Ll/a,
11:u:Pre-1 X=d,
12:u:Pre-2 X=di,
12:u:Suf-2 X=on,
11:u:Pos-1 X=6,
13:u:Pos-2 L=5/6,
13:u:Pos-2 R=6/6,
14:u:Fst-2 X=Ll/o,
11:u:Pre-1 X=o,
12:u:Suf-2 L=on,
13:u:Pos-2 L=6/6,
14:u:Fst-2 R=Ll/e,
13:u:Pos-2 R=6/7,
12:u:tok-1LL=on,
12:u:tok-1RR=of,
14:u:Fst-2 X=Ll/e,
14:u:Fst-2 R=Ll/m,
14:u:Lst-2 X=Ll/l,
11:u:Pre-1 X=e,
11:u:Suf-1 X=l,
12:u:Suf-2 X=al,
11:u:Pos-1 X=7,
13:u:Pos-2 L=6/7,
13:u:Pos-2 R=7/7,
16:u:Tmn-3 X=none/l,
12:u:tok-1 R=of,
14:u:Fst-2 X=Ll/m,
14:u:Lst-2 L=Ll/l,
14:u:Lst-2 X=Ll/y,
11:u:Pre-1 X=m,
12:u:Pre-2 R=of,
11:u:Suf-1 X=y,
12:u:Suf-2 L=al,
12:u:Suf-2 X=gy,
13:u:Pos-2 L=7/7,
16:u:Tmn-3 X=none/y,
12:u:Tok-1 X=of,
12:u:tok-1 X=of,
14:u:Lst-2 L=Ll/y,
14:u:Lst-2 X=Ll/f,
12:u:Pre-2 X=of,
11:u:Suf-1 X=f,
12:u:Suf-2 L=gy,
12:u:Suf-2 X=of,
13:u:Pos-2 R=7/8,
16:u:Tmn-3 X=none/f,
12:u:tok-1 L=of,
14:u:Lst-2 L=Ll/f,
14:u:Lst-2 X=Ll/r,
11:u:Suf-1 X=r,
12:u:Suf-2 L=of,
12:u:Suf-2 X=ar,
11:u:Pos-1 X=8,
13:u:Pos-2 L=7/8,
13:u:Pos-2 R=8/8,
16:u:Tmn-3 X=none/r,
12:u:tok-1LL=of,
14:u:Fst-2 R=Lu/N,
14:u:Lst-2 L=Ll/r,
14:u:Lst-2 X=Ll/s,
12:u:Pre-2 R=Ne,
11:u:Suf-1 X=s,
12:u:Suf-2 L=ar,
12:u:Suf-2 X=es,
13:u:Pos-2 L=8/8,
13:u:Pos-2 R=8/9,
16:u:Tmn-3 X=none/s,
11:u:tok-1RR=1,
14:u:Fst-2 X=Lu/N,
14:u:Lst-2 L=Ll/s,
11:u:Pre-1 X=N,
12:u:Pre-2 X=Ne,
12:u:Suf-2 L=es,
23:u:Cap-2 R=initial/other,
11:u:Pos-1 X=9,
13:u:Pos-2 L=8/9,
13:u:Pos-2 R=9/9,
20:u:Tmn-4 R=none/other,
23:u:Cap-2 L=initial/other,
21:u:Cap-2 R=other/other,
20:u:Cap-3 L=none/other,
16:*:Num-1 X=double,
21:u:Num-2 R=double/none,
13:u:Pos-2 L=9/9,
11:u:Tok-1 X=1,
11:u:tok-1 X=1,
14:u:tok-1RR=_x+1,
13:u:Lst-2 X=N/1,
11:u:Pre-2 X=1,
11:u:Suf-1 X=1,
11:u:Suf-2 X=1,
21:u:Cap-2 L=other/other,
16:*:Num-1 L=double,
16:*:Num-1 X=single,
15:u:Num-1 R=range,
21:u:Num-2 R=single/none,
16:u:Pos-2 R=9/last,
16:u:Pct-1 R=hyphen,
16:u:Tmn-3 X=none/1,
14:u:tok-1 R=_x+1,
14:u:tok-1RR=_x+2,
14:u:Fst-1 R=_x+1,
19:u:Fst-2 R=_x+1/_x+1,
14:u:Pre-2 R=_x+1,
14:u:Cap-1 R=_x+1,
20:u:Cap-2 R=other/_x+1,
16:*:Num-1 L=single,
15:*:Num-1 X=range,
14:u:Num-1 R=_x+1,
20:u:Num-2 R=range/none,
14:u:Key-1 R=_x+1,
14:u:Pos-1 X=last,
16:u:Pos-2 L=9/last,
19:u:Pos-2 R=last/_x+1,
16:u:Pct-1 X=hyphen,
14:u:Pct-1 R=_x+1,
14:u:Brk-1 R=_x+1,
14:u:Tmn-1 R=_x+1,
19:u:Tmn-2 R=none/_x+1,
19:u:Tmn-4 R=none/_x+1,
14:u:Fst-2 X=Lu/S,
11:u:Pre-1 X=S,
12:u:Pre-2 X=Sc,
14:u:Fst-2 R=Lu/B,
12:u:Pre-2 R=Be,
14:u:Fst-2 X=Lu/B,
11:u:Pre-1 X=B,
12:u:Pre-2 X=Be,
12:u:Suf-2 X=ge,
12:u:Pre-2 R=Mo,
12:u:Suf-2 X=ie,
13:u:Key-1 R=and,
18:u:Tmn-2 R=none/and,
14:u:Fst-2 R=Lu/S,
14:u:Lst-2 X=Ll/d,
12:u:Pre-2 R=Sy,
11:u:Suf-1 X=d,
12:u:Suf-2 L=ie,
12:u:Suf-2 X=nd,
13:u:Key-1 X=and,
19:u:Key-2 X=and/lower,
18:u:Key-3 L=none/and,
18:u:Key-3 x=and/none,
16:u:Tmn-3 X=none/d,
14:u:Lst-2 L=Ll/d,
14:u:Lst-2 X=Ll/k,
11:u:Suf-1 X=k,
12:u:Suf-2 L=nd,
13:u:Key-1 L=and,
18:u:Tmn-2 L=and/none,
16:u:Tmn-3 X=none/k,
12:u:Pre-2 R=ma,
12:u:Pre-2 X=ma,
12:u:Suf-2 L=er,
14:u:Fst-2 R=Lu/I,
21:u:Tmn-4 R=none/single,
11:u:tok-1 X=i,
16:u:tok-1 R=kieler,
27:u:tok-1RR=meeresforschungen,
14:u:Fst-2 X=Lu/I,
14:u:Fst-2 R=Lu/K,
11:u:Pre-1 X=I,
12:u:Pre-2 R=Ki,
12:u:Suf-2 L=en,
12:u:Suf-2 X=I.,
21:u:Cap-3 L=none/single,
24:u:Tmn-4 R=strong/initial,
16:u:Tok-1 X=Kieler,
16:u:tok-1 X=kieler,
27:u:tok-1 R=meeresforschungen,
11:u:tok-1RR=3,
34:u:tok-2 R=kieler/meeresforschungen,
14:u:Fst-2 X=Lu/K,
11:u:Pre-1 X=K,
12:u:Pre-2 X=Ki,
12:u:Pre-2 R=Me,
12:u:Suf-2 L=I.,
24:u:Cap-3 L=strong/initial,
11:u:tok-1 R=3,
13:u:Fst-2 R=N/3,
12:u:Pre-2 X=Me,
11:u:Pre-2 R=3,
11:u:tok-1 X=3,
11:u:tok-1 L=3,
13:u:Lst-2 L=N/3,
11:u:Suf-2 L=3,
14:u:Fst-2 X=Lu/H,
14:u:Fst-2 R=Lu/H,
11:u:Pre-1 X=H,
12:u:Pre-2 X=Ha,
12:u:Pre-2 R=H.,
14:u:Fst-2 R=Lu/Z,
12:u:Pre-2 X=H.,
12:u:Suf-2 L=n,,
14:u:Fst-2 X=Lu/Z,
11:u:Pre-1 X=Z,
12:u:Pre-2 X=Ze,
12:u:Pre-2 R=No,
14:u:Fst-2 R=Lu/P,
12:u:Pre-2 X=No,
14:u:Cap-1 R=caps,
22:u:Cap-2 R=initial/caps,
14:u:Fst-2 X=Lu/P,
13:u:Fst-2 R=N/2,
11:u:Pre-1 X=P,
14:u:Cap-1 X=caps,
19:u:Cap-3 L=weak/caps,
19:u:Key-2 X=none/caps,
16:u:tok-1RR=marine,
13:u:Fst-2 X=N/2,
14:u:Fst-2 R=Lu/T,
11:u:Pre-1 X=2,
12:u:Pre-2 R=Th,
14:u:Cap-1 L=caps,
13:u:Tok-1 X=The,
16:u:tok-1 R=marine,
14:u:Fst-2 X=Lu/T,
11:u:Pre-1 X=T,
12:u:Pre-2 X=Th,
16:u:tok-1 X=marine,
12:u:Pre-2 R=de,
12:u:Suf-2 X=ne,
16:u:tok-1 L=marine,
14:u:Fst-2 R=Lu/C,
12:u:Pre-2 X=de,
12:u:Pre-2 R=Cr,
12:u:Suf-2 L=ne,
14:u:Fst-2 X=Lu/C,
11:u:Pre-1 X=C,
12:u:Pre-2 X=Cr,
12:u:Suf-2 X=ea,
16:u:tok-2 R=of/the,
12:u:Suf-2 L=ea,
16:u:tok-2 L=of/the,
12:u:Pre-2 R=La,
14:u:Fst-2 X=Lu/L,
11:u:Pre-1 X=L,
12:u:Suf-2 X=a,,
12:u:Suf-2 L=a,,
12:u:Suf-2 X=na,
12:u:Suf-2 L=na,
13:u:Fst-2 X=N/5,
11:u:Pre-1 X=5,
13:u:Lst-2 X=N/2,
11:u:Suf-1 X=2,
16:u:Tmn-3 X=none/2,
14:u:Fst-2 R=Ll/p,
13:u:Lst-2 L=N/2,
12:u:Suf-2 X=ue,
14:u:Fst-2 X=Ll/p,
11:u:Pre-1 X=p,
12:u:Suf-2 L=ue,
12:u:Suf-2 X=te,
12:u:Pre-2 R=Ma,
13:u:tok-1RR=der,
12:u:Pre-2 X=Ma,
12:u:Suf-2 X=us,
12:u:Suf-2 L=us,
13:u:tok-1LL=aus,
13:u:tok-1 L=der,
14:u:Fst-2 R=Ll/v,
12:u:Suf-2 X=ft,
13:u:tok-1LL=der,
14:u:Fst-2 X=Ll/v,
11:u:Pre-1 X=v,
12:u:Pre-2 R=Pa,
12:u:Pre-2 X=Pa,
12:u:Pre-2 R=Zo,
12:u:Pre-2 X=Zo,
12:u:Pre-2 R=An,
12:u:Suf-2 L=um,
12:u:Pre-2 X=An,
16:*:Num-1 X=triple,
21:u:Num-2 R=triple/none,
12:u:Suf-2 X=s,,
12:u:Tok-1 X=S.,
11:u:tok-1 X=s,
12:u:Pre-2 X=S.,
12:u:Suf-2 X=S.,
14:u:Key-1 X=page,
21:u:Key-2 X=page/single,
21:u:Key-3 x=page/strong,
12:u:Pre-2 R=Co,
12:u:Pre-2 X=Co,
12:u:Suf-2 X=ns,
22:u:tok-1RR=distribution,
12:u:Suf-2 L=ns,
22:u:tok-1 R=distribution,
22:u:Tok-1 X=distribution,
22:u:tok-1 X=distribution,
12:u:Pre-2 R=pe,
12:u:tok-1RR=in,
14:u:Lst-2 X=Ll/c,
12:u:Pre-2 X=pe,
11:u:Suf-1 X=c,
12:u:Suf-2 X=ic,
16:u:Tmn-3 X=none/c,
14:u:Fst-2 R=Ll/i,
14:u:Lst-2 L=Ll/c,
12:u:Pre-2 R=in,
12:u:Suf-2 L=ic,
12:u:Key-1 R=in,
17:u:Tmn-2 R=none/in,
12:u:tok-1 X=in,
14:u:Fst-2 X=Ll/i,
11:u:Pre-1 X=i,
12:u:Pre-2 X=in,
12:u:Suf-2 L=ds,
12:u:Suf-2 X=in,
12:u:Key-1 X=in,
18:u:Key-2 X=in/lower,
17:u:Key-3 x=in/none,
12:u:tok-1 L=in,
12:u:Suf-2 L=in,
12:u:Key-1 L=in,
17:u:Tmn-2 L=in/none,
12:u:tok-1LL=in,
23:u:Tok-1 X=Mediterranean,
23:u:tok-1 X=mediterranean,
12:u:Suf-2 L=rn,
17:u:tok-1LL=eastern,
23:u:tok-1LL=mediterranean,
15:u:tok-1 L=coast,
15:u:tok-1LL=coast,
14:u:tok-1 R=acta,
12:u:Pre-2 R=Ac,
14:u:Tok-1 X=Acta,
14:u:tok-1 X=acta,
12:u:Pre-2 X=Ac,
12:u:Pre-2 R=18,
12:u:Pre-2 X=18,
14:u:Fst-2 R=Lu/G,
12:u:Pre-2 X=Bu,
14:u:Fst-2 X=Lu/G,
11:u:Pre-1 X=G,
12:u:tok-1RR=j.,
12:u:Pre-2 R=Pe,
12:u:tok-1 R=j.,
14:u:Fst-2 R=Lu/J,
12:u:Pre-2 X=Pe,
12:u:Pre-2 R=J.,
12:u:Tok-1 X=J.,
11:u:tok-1 X=j,
14:u:Fst-2 X=Lu/J,
11:u:Pre-1 X=J,
12:u:Pre-2 X=J.,
12:u:Suf-2 X=J.,
12:u:Pre-2 R=Pr,
12:u:Suf-2 L=J.,
12:u:Suf-2 X=01,
12:u:tok-1LL=j.,
14:u:Fst-2 R=Ll/s,
12:u:Pre-2 X=Pr,
12:u:Pre-2 R=se,
14:u:Fst-2 X=Ll/s,
11:u:Pre-1 X=s,
12:u:Pre-2 X=se,
14:u:Lst-2 X=Ll/i,
11:u:Suf-1 X=i,
21:u:Cap-2 R=lower/other,
16:u:Tmn-3 X=none/i,
11:*:Fst-1 X=S,
13:u:Fst-2 X=S/<,
14:u:Lst-2 L=Ll/i,
11:u:Pre-1 X=<,
12:u:Pre-2 X=<i,
12:u:Suf-2 X=oa,
21:u:Cap-2 L=lower/other,
21:u:Cap-2 R=other/lower,
12:u:tok-1 X=de,
14:u:Fst-2 R=Lu/F,
11:*:Lst-1 L=S,
13:u:Lst-2 L=S/>,
12:u:Suf-2 L=i>,
12:u:Suf-2 X=de,
14:u:Fst-2 X=Lu/F,
11:u:Pre-1 X=F,
12:u:Suf-2 L=de,
20:u:Tmn-4 R=weak/other,
13:u:tok-1 R=per,
12:u:tok-1RR=il,
20:u:Cap-3 L=weak/other,
21:u:Num-2 R=year/strong,
13:u:Tok-1 X=per,
13:u:tok-1 X=per,
12:u:tok-1 R=il,
22:u:tok-1RR=mediterraneo,
16:u:tok-2 R=per/il,
12:u:Pre-2 R=il,
12:u:Tok-1 X=il,
12:u:tok-1 X=il,
13:u:tok-1 L=per,
22:u:tok-1 R=mediterraneo,
16:u:tok-2 L=per/il,
25:u:tok-2 R=il/mediterraneo,
12:u:Pre-2 X=il,
22:u:Tok-1 X=Mediterraneo,
22:u:tok-1 X=mediterraneo,
13:u:tok-1LL=per,
12:u:tok-1 L=il,
25:u:tok-2 L=il/mediterraneo,
14:u:Lst-2 X=Ll/o,
12:u:Pre-2 R=Bo,
11:u:Suf-1 X=o,
12:u:Suf-2 L=il,
12:u:Suf-2 X=eo,
16:u:Tmn-3 X=none/o,
20:u:Tok-1 X=Bollettino,
20:u:tok-1 X=bollettino,
22:u:tok-1 R=malacologico,
33:u:tok-2 R=bollettino/malacologico,
14:u:Lst-2 L=Ll/o,
12:u:Pre-2 X=Bo,
12:u:Suf-2 X=no,
12:u:Suf-2 L=co,
17:u:Num-1 R=numeric,
13:u:Fst-2 X=N/0,
11:u:Pre-1 X=0,
12:u:Suf-2 X=pr,
17:*:Num-1 X=numeric,
22:u:Num-2 R=numeric/none,
17:*:Num-1 L=numeric,
16:u:Pct-1 L=hyphen,
23:u:Cap-2 R=single/single,
23:u:Tmn-4 R=strong/single,
23:u:Cap-2 L=single/single,
23:u:Cap-3 L=strong/single,
12:u:Pre-2 R=Sc,
12:u:tok-1 R=r.,
14:u:Fst-2 R=Lu/R,
12:u:Pre-2 R=R.,
11:u:tok-1 X=r,
14:u:Fst-2 X=Lu/R,
11:u:Pre-1 X=R,
14:u:Fst-2 R=Ll/l,
12:u:Suf-2 X=is,
14:u:Fst-2 X=Ll/l,
11:u:Pre-1 X=l,
12:u:Suf-2 L=is,
12:u:tok-1RR=an,
14:u:Fst-2 R=Ll/n,
12:u:Pre-2 R=no,
14:u:Key-1 R=date,
14:u:Fst-2 X=Ll/n,
11:u:Pre-1 X=n,
12:u:Pre-2 X=no,
12:u:Pre-2 R=an,
12:u:Suf-2 L=p.,
14:u:Key-1 X=date,
20:u:Key-2 X=date/lower,
12:u:Pre-2 X=an,
14:u:Key-1 L=date,
16:u:Brk-1 R=parens,
21:u:Num-2 R=none/parens,
16:u:Brk-1 X=parens,
16:u:Brk-1 L=parens,
17:u:tok-1RR=journal,
12:u:Suf-2 X=t.,
12:u:Suf-2 L=t.,
17:u:Key-1 R=journal,
22:u:Tmn-2 R=none/journal,
16:u:tok-1LL=coast.,
17:u:Key-1 X=journal,
25:u:Key-2 X=journal/initial,
22:u:Key-3 L=none/journal,
22:u:Key-3 x=journal/none,
17:u:Key-1 L=journal,
11:u:tok-1RR=2,
11:u:tok-1 R=2,
11:u:Pre-2 R=2,
12:u:Pre-2 R=10,
12:u:Lst-1 X=Lu,
12:*:Lst-1 L=Lu,
12:u:Pre-2 R=Mi,
21:u:tok-1RR=zeitschrift,
14:u:Fst-2 R=Lu/W,
12:u:Suf-2 X=s.,
21:u:tok-1 R=zeitschrift,
14:u:Fst-2 X=Lu/W,
11:u:Pre-1 X=W,
12:u:Pre-2 X=Wi,
12:u:Suf-2 L=s.,
14:u:Lst-2 X=Ll/g,
11:u:Suf-1 X=g,
16:u:Tmn-3 X=none/g,
14:u:Lst-2 L=Ll/g,
12:u:Pre-2 X=Du,
12:u:Pre-2 R=wa,
13:u:tok-1 R=van,
12:u:tok-1RR=de,
12:u:Pre-2 X=wa,
12:u:Pre-2 R=va,
13:u:Tok-1 X=van,
13:u:tok-1 X=van,
12:u:tok-1 R=de,
12:u:Pre-2 X=va,
12:u:Tok-1 X=de,
12:u:tok-1 L=de,
12:u:tok-1LL=de,
12:u:Suf-2 X=la,
12:u:Pre-2 R=He,
12:u:Suf-2 L=la,
12:u:Pre-2 R=la,
12:u:Suf-2 L=gs,
14:u:Fst-2 R=Lu/O,
19:u:tok-1RR=strandvlo,
14:u:Fst-2 X=Lu/O,
11:u:Pre-1 X=O,
12:u:Tok-1 X=De,
19:u:tok-1LL=belgische,
19:u:tok-1 R=strandvlo,
22:u:tok-2 R=de/strandvlo,
12:u:Suf-2 X=De,
11:u:tok-1RR=&,
12:u:Pre-2 X=K.,
11:u:Tok-1 X=&,
15:u:tok-1 X=BLANK,
11:*:Fst-1 X=P,
13:u:Fst-2 X=P/&,
13:u:Lst-2 X=P/&,
11:u:Pre-1 X=&,
11:u:Pre-2 X=&,
11:u:Suf-1 X=&,
11:u:Suf-2 X=&,
19:u:Key-2 X=and/other,
13:u:Pct-1 X=amp,
16:u:Tmn-3 X=none/&,
16:u:Key-1 R=volume,
21:u:Tmn-2 R=none/volume,
14:u:Fst-2 R=Ll/g,
16:u:Key-1 X=volume,
14:u:Fst-2 X=Ll/g,
11:u:Pre-1 X=g,
16:u:Key-1 L=volume,
12:u:Pre-2 R=So,
12:u:Pre-2 R=Bi,
12:u:Pre-2 X=Bi,
18:u:tok-1LL=southern,
12:u:Pre-2 R=Se,
13:u:Tok-1 X=Sea,
13:u:tok-1 X=sea,
15:u:tok-1 L=north,
12:u:Pre-2 X=Se,
15:u:tok-1LL=north,
13:u:tok-1 L=sea,
12:u:tok-1RR=43,
13:u:tok-1LL=sea,
12:u:Pre-2 R=1-,
12:u:Pre-2 R=fi,
22:u:Num-2 R=numeric/weak,
12:u:Pre-2 X=fi,
24:u:Num-2 R=numeric/strong,
12:u:Pre-2 R=Fr,
12:u:Pre-2 X=Fr,
12:u:Pre-2 R=Re,
12:u:Pre-2 X=Re,
12:u:Pre-2 R=T.,
12:u:Pre-2 R=Ba,
12:u:Pre-2 X=Ba,
12:u:tok-1RR=t.,
12:u:tok-1 R=t.,
12:u:Suf-2 X=hy,
12:u:Suf-2 L=hy,
12:u:Pre-2 X=Rh,
16:u:tok-1RR=marina,
16:u:tok-1 R=marina,
17:u:tok-1 R=species,
17:u:tok-1 X=species,
17:u:tok-1 L=species,
13:u:tok-1RR=for,
12:u:Suf-2 X=x:,
17:u:tok-1LL=species,
13:u:tok-1 R=for,
12:u:Suf-2 L=ce,
12:u:Suf-2 X=or,
13:u:tok-1 L=for,
13:u:tok-1RR=and,
12:u:Suf-2 L=or,
13:u:tok-1LL=for,
13:u:tok-1 R=and,
13:u:Tok-1 X=and,
13:u:tok-1 X=and,
13:u:tok-1 L=and,
14:u:Fst-2 R=Ll/r,
13:u:tok-1LL=and,
14:u:Fst-2 X=Ll/r,
11:u:Pre-1 X=r,
12:u:Pre-2 R=re,
12:u:Pre-2 X=re,
14:u:Lst-2 L=Ll/w,
12:u:Suf-2 L=ow,
18:u:tok-1 R=atlantic,
18:u:Tok-1 X=Atlantic,
18:u:tok-1 X=atlantic,
19:u:tok-1 R=molecular,
17:u:tok-1RR=ecology,
12:u:Pre-2 X=At,
19:u:Tok-1 X=Molecular,
17:u:tok-1 R=ecology,
12:u:Pre-2 R=Ec,
18:u:tok-1LL=atlantic,
12:u:Pos-1 X=10,
14:u:Pos-2 L=9/10,
17:u:Pos-2 R=10/last,
12:u:Suf-2 X=to,
12:u:Suf-2 L=to,
12:u:Suf-2 X=as,
24:u:Tmn-2 R=strong/journal,
24:u:Key-3 L=strong/journal,
16:u:Tok-1 X=Marine,
14:u:Fst-2 R=Lu/U,
19:u:Tmn-4 R=none/caps,
14:u:Fst-2 X=Lu/U,
11:u:Pre-1 X=U,
20:u:Cap-2 L=lower/caps,
19:u:Cap-3 L=none/caps,
22:u:Cap-2 L=caps/initial,
12:u:Pre-2 R=21,
18:u:tok-1RR=mollusca,
18:u:tok-1 R=mollusca,
16:u:tok-1 R=israel,
12:u:Pre-2 R=Is,
16:u:Tok-1 X=Israel,
16:u:tok-1 X=israel,
19:u:tok-2 L=of/israel,
12:u:Pre-2 X=Is,
12:u:Suf-2 X=el,
12:u:Suf-2 L=el,
12:u:Suf-2 L=i.,
24:u:tok-2 R=israel/journal,
12:u:tok-1RR=31,
12:u:Pre-2 R=31,
19:u:Tmn-2 L=_x-1/none,
11:u:tok-1 X=k,
12:u:Tok-1 X=K.,
12:u:Suf-2 X=K.,
12:u:Suf-2 L=K.,
12:u:Suf-2 X=sh,
14:u:Fst-2 R=Ll/b,
14:u:Fst-2 X=Ll/b,
11:u:Pre-1 X=b,
12:u:Suf-2 L=ng,
14:u:Lst-2 L=Ll/u,
14:u:tok-1 X=part,
12:u:Suf-2 X=rt,
14:u:tok-1 L=part,
12:u:Suf-2 L=rt,
14:u:tok-1LL=part,
15:u:tok-1RR=zool.,
12:u:Suf-2 X=l.,
12:u:Suf-2 L=l.,
12:u:Suf-2 L=42,
12:u:tok-1RR=la,
12:u:tok-1 R=la,
12:u:Tok-1 X=la,
12:u:tok-1 X=la,
13:u:tok-1RR=des,
12:u:Pre-2 R=fa,
12:u:tok-1 L=la,
13:u:tok-1 R=des,
12:u:Pre-2 X=fa,
13:u:Tok-1 X=des,
13:u:tok-1 X=des,
13:u:tok-1 L=des,
13:u:tok-1LL=des,
12:u:Pre-2 R=Tr,
14:u:Lst-2 X=Ll/x,
12:u:Pre-2 X=Tr,
11:u:Suf-1 X=x,
12:u:Suf-2 X=ux,
16:u:Tmn-3 X=none/x,
15:u:tok-2 R=de/la,
14:u:Lst-2 L=Ll/x,
12:u:Suf-2 L=ux,
15:u:tok-2 L=de/la,
12:u:tok-1RR=13,
12:u:Suf-2 X=ry,
12:u:Suf-2 L=ry,
12:u:Pre-2 X=We,
12:u:Suf-2 X=ls,
12:u:Suf-2 L=ls,
12:u:Suf-2 L=):,
12:u:Pre-2 R=be,
12:u:Pre-2 X=be,
12:u:Suf-2 X=ra,
16:u:tok-1 L=genera,
12:u:Suf-2 L=ra,
12:u:Suf-2 X=).,
12:u:Suf-2 L=).,
12:u:Pre-2 R=Na,
12:u:Pre-2 X=Na,
11:u:tok-1 X=c,
12:u:Pre-2 X=C.,
13:u:tok-1 R=new,
14:u:Lst-2 X=Lu/A,
11:u:Suf-1 X=A,
16:u:Tmn-3 X=none/A,
13:u:tok-1 X=new,
14:u:Lst-2 L=Lu/A,
13:u:tok-1 L=new,
12:u:Suf-2 L=ew,
13:u:tok-1LL=new,
15:u:tok-1 L=genus,
15:u:tok-1LL=genus,
20:u:Tok-1 X=Iheringia.,
19:u:tok-1 X=iheringia,
16:u:tok-1 R=s„©rie,
18:u:tok-1RR=zoologia,
27:u:tok-2 R=iheringia./s„©rie,
12:u:Pre-2 X=Ih,
13:u:Pre-2 R=S√©,
12:u:Suf-2 X=a.,
15:u:tok-1 X=serie,
12:u:tok-1RR=52,
12:u:Suf-2 L=a.,
13:u:tok-1 X=het,
12:u:Suf-2 X=et,
12:u:Suf-2 L=et,
12:u:Suf-2 X=jk,
12:u:Suf-2 X=e.,
12:u:Suf-2 L=e.,
21:u:tok-1 R=nederlandse,
12:u:Pre-2 R=Ar,
12:u:Pre-2 X=Ar,
12:u:Pre-2 X=Gl,
23:u:Key-3 L=strong/volume,
14:u:Lst-2 L=Lu/E,
15:u:Tok-1 X=Ocean,
15:u:tok-1 X=ocean,
12:u:tok-1RR=to,
17:u:tok-1LL=pacific,
15:u:tok-1 L=ocean,
12:u:Pre-2 R=to,
15:u:tok-1LL=ocean,
12:u:Pre-2 X=to,
12:u:tok-1 L=to,
12:u:tok-1LL=to,
12:u:Pre-2 X=Ku,
12:u:Tok-1 X=C.,
13:u:tok-1LL=den,
12:u:Suf-2 X=C.,
21:u:tok-1 X=preliminary,
21:u:tok-1 L=preliminary,
21:u:tok-1LL=preliminary,
18:u:tok-1 L=revision,
12:u:Pre-2 R=(T,
14:u:Lst-2 L=Ll/p,
12:u:Pre-2 X=(T,
21:u:tok-1 R=proceedings,
21:u:Key-1 R=proceedings,
21:u:Tok-1 X=Proceedings,
21:u:tok-1 X=proceedings,
24:u:tok-2 R=proceedings/of,
21:u:Key-1 X=proceedings,
29:u:Key-2 X=proceedings/initial,
26:u:Key-3 x=proceedings/none,
21:u:tok-1 L=proceedings,
24:u:tok-2 L=proceedings/of,
21:u:Key-1 L=proceedings,
26:u:Tmn-2 L=proceedings/none,
21:u:tok-1LL=proceedings,
12:u:Pre-2 R=Ko,
12:u:Pre-2 X=Ko,
12:u:Suf-2 X=ke,
12:u:Suf-2 L=ke,
18:u:tok-1 X=sciences,
12:u:Pre-2 X=Br,
12:u:Pre-2 R=Sp,
12:u:Pre-2 X=Sp,
12:u:Suf-2 X=rs,
12:u:Suf-2 L=rs,
17:u:tok-1 R=coastal,
16:u:tok-1 R=waters,
16:u:Tok-1 X=waters,
16:u:tok-1 X=waters,
17:u:tok-1LL=coastal,
12:u:Pre-2 X=Un,
12:u:Pre-2 R=Al,
12:u:Suf-2 X=re,
12:u:Suf-2 L=re,
12:u:Pre-2 X=me,
12:u:Pre-2 R=af,
12:u:Pre-2 X=af,
13:u:Lst-2 X=P/?,
12:u:Pre-2 R=Ex,
11:u:Suf-1 X=?,
16:u:Tmn-3 X=weak/?,
22:u:Tok-1 X=Experimental,
22:u:tok-1 X=experimental,
15:u:tok-1LL=beach,
19:u:tok-1 L=cleaning?,
18:u:tok-1 R=findings,
32:u:tok-2 L=cleaning?/experimental,
31:u:tok-2 R=experimental/findings,
13:u:Lst-2 L=P/?,
12:u:Pre-2 X=Ex,
12:u:Suf-2 L=g?,
18:u:Tok-1 X=findings,
18:u:tok-1 X=findings,
19:u:tok-1LL=cleaning?,
22:u:tok-1 L=experimental,
23:u:tok-1RR=environmental,
31:u:tok-2 L=experimental/findings,
25:u:tok-2 R=findings/marine,
18:u:tok-1RR=research,
18:u:tok-1 R=research,
12:u:Suf-2 X=me,
12:u:Suf-2 L=me,
12:u:Pre-2 X=Po,
22:u:Cap-2 L=lower/single,
21:u:Tmn-2 L=volume/none,
19:u:tok-1 R=zoologica,
17:u:tok-1RR=scripta,
11:u:tok-1RR=4,
15:u:tok-1 X=texas,
12:u:Pre-2 X=Te,
14:u:tok-1 X=1991,
18:u:tok-1RR=bulletin,
12:u:Pre-2 R=Bu,
18:u:Tok-1 X=Bulletin,
20:u:tok-1RR=l'institut,
21:u:tok-2 R=bulletin/de,
20:u:tok-1 R=l'institut,
15:u:tok-1RR=royal,
21:u:tok-2 L=bulletin/de,
23:u:tok-2 R=de/l'institut,
12:u:Pre-2 R=l',
20:u:Tok-1 X=l'Institut,
19:u:tok-1 X=linstitut,
23:u:tok-2 L=de/l'institut,
26:u:tok-2 R=l'institut/royal,
12:u:Pre-2 X=l',
15:u:tok-1 X=royal,
22:u:tok-2 R=des/sciences,
18:u:tok-1RR=biologie,
12:u:Suf-2 X=f.,
12:u:Suf-2 X=r.,
13:u:tok-1 L=dr.,
12:u:Suf-2 L=r.,
13:u:tok-1LL=dr.,
12:u:Suf-2 L='s,
17:u:tok-1 X=islands,
17:u:tok-1 L=islands,
14:u:Lst-2 X=Ll/v,
11:u:Suf-1 X=v,
12:u:Suf-2 X=iv,
16:u:Tmn-3 X=none/v,
14:u:Lst-2 L=Ll/v,
12:u:Suf-2 L=iv,
17:u:Num-1 R=ordinal,
17:*:Num-1 X=ordinal,
22:u:Num-2 R=ordinal/none,
22:u:Cap-2 R=initial/_x+1,
16:u:tok-1RR=museum,
12:u:Pre-2 R=Mu,
12:u:Suf-2 X=os,
12:u:Suf-2 L=os,
17:u:Tok-1 X=Science,
17:u:tok-1 X=science,
22:u:tok-1 R=indo-pacific,
12:u:Pre-2 R=In,
22:u:Tok-1 X=Indo-Pacific,
12:u:Pre-2 X=In,
22:u:tok-1 L=indo-pacific,
12:u:Tok-1 X=La,
12:u:Suf-2 X=La,
12:u:Suf-2 X=cs,
12:u:Suf-2 L=cs,
12:u:Suf-2 X=1),
12:u:Suf-2 X=ee,
17:u:Tok-1 X=Species,
12:u:Pre-2 R=Hy,
12:u:Suf-2 L=e),
12:u:Suf-2 X=ts,
12:u:Suf-2 L=ts,
20:u:tok-1 R=zoological,
11:u:tok-1RR=8,
12:u:tok-1 L=as,
37:u:Num-2 R=none/closing-square-bracket,
32:u:Brk-1 X=closing-square-bracket,
17:u:tok-1RR=biology,
17:u:tok-1 R=biology,
12:u:Pre-2 R=vi,
12:u:Pre-2 X=Ch,
12:u:Suf-2 X=ty,
12:u:Suf-2 L=ty,
19:u:tok-1 L=nematodes,
15:u:Key-1 X=roman,
20:u:Key-2 X=roman/caps,
22:u:Key-3 x=roman/strong,
15:u:Key-1 L=roman,
14:u:tok-1 R=cah.,
12:u:Pre-2 R=Ca,
14:u:Tok-1 X=Cah.,
13:u:tok-1 X=cah,
14:u:tok-1RR=mar.,
20:u:tok-2 R=cah./biol.,
12:u:Pre-2 X=Ca,
12:u:Suf-2 X=h.,
14:u:tok-1 R=mar.,
13:u:tok-1RR=les,
13:u:tok-1 R=les,
13:u:Tok-1 X=les,
12:u:Pre-2 X=Su,
15:u:Lst-2 X=Ll/√©,
12:u:Suf-1 X=√©,
13:u:Suf-2 X=t√©,
17:u:Tmn-3 X=none/√©,
15:u:tok-1RR=bull.,
15:u:tok-1 R=bull.,
15:u:Tok-1 X=Bull.,
14:u:tok-1 X=bull,
19:u:tok-1 X=estuarine,
12:u:Pre-2 X=es,
12:u:Suf-2 X=dy,
17:u:tok-1 X=estuary,
12:u:Pre-2 X=Es,
12:u:Pre-2 X=Sa,
21:u:tok-2 R=bulletin/of,
21:u:tok-2 L=bulletin/of,
16:u:tok-1LL=report,
12:u:Pre-2 X=Ti,
12:u:Pre-2 R=Di,
19:u:Tok-1 X=Diversity,
19:u:tok-1 X=diversity,
12:u:Pre-2 X=Di,
12:u:tok-1 L=42,
12:u:Pre-2 R=Ri,
13:u:tok-1RR=tot,
13:u:tok-1 R=tot,
21:u:tok-1RR=tijdschrift,
12:u:tok-1RR=62,
12:u:Pre-2 R=Ti,
12:u:Pre-2 X=Sw,
13:u:Pre-2 R=s√©,
13:u:Pre-2 X=s√©,
12:u:Suf-2 L=sp,
12:u:Suf-2 L=ey,
12:u:Pre-2 X=Eu,
14:u:tok-1 R=mus.,
14:u:Tok-1 X=Mus.,
13:u:tok-1 X=mus,
21:u:Num-2 R=year/parens,
12:u:Suf-2 L=O.,
17:u:tok-1 R=records,
22:u:tok-1RR=publications,
22:u:tok-1 R=publications,
13:u:tok-1RR=jb.,
13:u:tok-1 R=jb.,
18:u:tok-1RR=dodonaea,
12:u:Pre-2 R=Jb,
12:u:Suf-2 X=b.,
12:u:Suf-2 X=m.,
12:u:Suf-2 L=m.,
15:u:Tok-1 X=Canal,
15:u:tok-1 X=canal,
14:u:tok-1 L=suez,
20:u:tok-2 L=suez/canal,
14:u:Lst-2 L=Ll/z,
12:u:Suf-2 L=ez,
17:u:Tok-1 X=Fishery,
17:u:tok-1 X=fishery,
14:u:tok-1LL=suez,
17:u:Tok-1 X=Aquatic,
17:u:tok-1 X=aquatic,
12:u:Pre-2 X=Aq,
12:u:Pre-2 R=To,
14:u:tok-1 X=sars,
12:u:Suf-2 X=le,
12:u:Suf-2 L=le,
19:u:tok-1RR=soci„©t„©,
19:u:tok-1 R=soci„©t„©,
22:u:tok-2 R=la/soci„©t„©,
12:u:tok-1RR=21,
15:u:tok-1RR=plate,
12:u:Suf-2 L=e:,
12:u:Suf-2 X=nt,
12:u:Suf-2 L=nt,
24:u:Tmn-4 R=moderate/other,
17:u:tok-1 R=cahiers,
17:u:Tok-1 X=Cahiers,
17:u:tok-1 X=cahiers,
17:u:tok-1LL=iberian,
19:u:tok-1 L=peninsula,
20:u:tok-2 R=cahiers/de,
22:u:tok-1RR=biodiversity,
22:u:Tok-1 X=Biodiversity,
22:u:tok-1 X=biodiversity,
22:u:tok-1 L=biodiversity,
23:u:Tok-1 X=Introductions,
23:u:tok-1 X=introductions,
27:u:tok-2 L=new/introductions,
31:u:tok-2 R=introductions/journal,
26:u:tok-2 L=the/indo-pacific,
12:u:Pre-2 R=Gu,
14:u:tok-1LL=gulf,
12:u:Pre-2 X=54,
23:u:tok-1 X=investigacion,
12:u:Suf-2 X=r?,
12:u:Suf-2 L=r?,
17:u:tok-1RR=society,
16:u:tok-1 L=indian,
16:u:tok-1LL=indian,
18:u:tok-1 L=islands,,
19:u:tok-1 R=bijdragen,
19:u:Tok-1 X=Bijdragen,
19:u:tok-1 X=bijdragen,
23:u:tok-2 R=bijdragen/tot,
12:u:Pre-2 X=Ce,
15:u:tok-1LL=ecol.,
17:u:tok-1RR=magazin,
17:u:tok-1 R=magazin,
14:u:tok-1RR=f„ºr,
12:u:tok-1RR=le,
12:u:tok-1 R=le,
12:u:tok-1 X=le,
12:u:tok-1 L=le,
12:u:tok-1LL=le,
18:u:tok-1 X=zoologie,
20:u:Tok-1 X=Systematic,
20:u:tok-1 X=systematic,
22:u:tok-1 R=parasitology,
33:u:tok-2 R=systematic/parasitology,
19:u:tok-1 L=structure,
23:u:tok-1 R=hydrobiologia,
11:u:tok-1RR=„,
11:u:tok-1 R=„,
14:u:Fst-2 R=Ll/√,
11:u:Pre-2 R=√,
11:u:Tok-1 X=√,
14:u:Fst-2 X=Ll/√,
14:u:Lst-2 X=Ll/√,
11:u:Pre-1 X=√,
11:u:Pre-2 X=√,
11:u:Suf-1 X=√,
11:u:Suf-2 X=√,
16:u:Tmn-3 X=none/√,
11:u:tok-1 L=„,
14:u:Lst-2 L=Ll/√,
11:u:Suf-2 L=√,
16:u:tok-1 X=france,
11:u:tok-1LL=„,
14:u:Tok-1 X=Ann.,
13:u:tok-1 X=ann,
12:u:Suf-2 X=c.,
20:u:Tok-1 X=Quatri√®me,
19:u:tok-1 X=quatrieme,
18:u:tok-1LL=entomol.,
13:u:tok-1 L=fr.,
17:u:tok-1 R=s„©rie.,
14:u:tok-1RR=tome,
24:u:tok-2 L=fr./quatri„®me,
28:u:tok-2 R=quatri„®me/s„©rie.,
14:u:Fst-2 X=Lu/Q,
11:u:Pre-1 X=Q,
12:u:Pre-2 X=Qu,
17:u:Tok-1 X=s√©rie.,
13:u:tok-1LL=fr.,
20:u:tok-1 L=quatri„®me,
14:u:tok-1 R=tome,
17:u:tok-1RR=premier,
28:u:tok-2 L=quatri„®me/s„©rie.,
22:u:tok-2 R=s„©rie./tome,
20:u:Tmn-2 R=none/roman,
14:u:Fst-2 X=Lu/X,
11:u:Pre-1 X=X,
14:u:tok-1 X=sylt,
20:u:tok-1 R=mikrofauna,
22:u:tok-1RR=meeresbodens,
20:u:Tok-1 X=Mikrofauna,
20:u:tok-1 X=mikrofauna,
22:u:tok-1 R=meeresbodens,
33:u:tok-2 R=mikrofauna/meeresbodens,
14:u:tok-1RR=h.j.,
12:u:tok-1 L=en,
11:u:tok-1 R=i,
11:u:Tok-1 X=I,
16:u:tok-1 R=annals,
14:u:Lst-2 X=Lu/I,
11:u:Pre-2 X=I,
11:u:Suf-1 X=I,
11:u:Suf-2 X=I,
16:u:Tmn-3 X=none/I,
16:u:Tok-1 X=Annals,
16:u:tok-1 X=annals,
11:u:tok-1 L=i,
19:u:tok-2 R=annals/of,
11:u:Suf-2 L=I,
16:u:tok-1 L=annals,
19:u:tok-2 L=annals/of,
16:u:tok-1LL=annals,
17:u:tok-1RR=academy,
12:u:Suf-2 X=rk,
15:u:tok-1 R=fauna,
19:u:tok-1RR=ekologiya,
15:u:Tok-1 X=fauna,
15:u:tok-1 X=fauna,
19:u:tok-1 R=ekologiya,
15:u:tok-1RR=moria,
12:u:Pre-2 R=Ek,
15:u:tok-1 L=fauna,
15:u:tok-1LL=fauna,
12:u:tok-1RR=16,
12:u:Pre-2 R=Wa,
12:u:Pre-2 X=Wa,
12:u:Tok-1 X=le,
19:u:tok-1 R=algologie,
12:u:tok-1RR=10,
27:u:tok-2 L=mediterranean/sea,
13:u:Tok-1 X=Vie,
13:u:tok-1 X=vie,
16:u:tok-1 R=milieu,
21:u:tok-1RR=conchyliol.,
19:u:tok-1RR=meiofauna,
20:u:tok-1 X=antarctica,
19:u:tok-2 L=report/of,
20:u:Tok-1 X=Estuarine,,
28:u:tok-2 R=estuarine,/coastal,
17:u:tok-1RR=zealand,
17:u:tok-1 R=zealand,
21:u:tok-2 R=new/zealand,
19:u:tok-1LL=enigmatic,
18:u:Tok-1 X=Scientia,
18:u:tok-1 X=scientia,
25:u:tok-2 R=scientia/marina,
17:u:tok-1LL=ordnung,
16:u:tok-1 L=ulvale,
18:u:tok-1 R=fysiogr.,
18:u:tok-1RR=s„§llsk.,
19:u:tok-2 L=ulvale/k.,
21:u:tok-2 R=k./fysiogr.,
14:u:tok-1RR=lund,
12:u:Pre-2 X=Fy,
14:u:tok-1 R=lund,
13:u:tok-1LL=bay,
13:u:Suf-2 X=√©s,
13:u:Suf-2 L=√©s,
12:u:tok-1 L=du,
12:u:Suf-2 L=du,
12:u:tok-1LL=du,
19:u:Tok-1 X=M√©moires,
18:u:tok-1 X=memoires,
19:u:tok-1 L=m„©moires,
19:u:tok-1LL=m„©moires,
11:u:tok-1 R=+,
13:u:Fst-2 R=S/+,
11:u:Pre-2 R=+,
11:u:Tok-1 X=+,
13:u:Fst-2 X=S/+,
13:u:Lst-2 X=S/+,
11:u:Pre-1 X=+,
11:u:Pre-2 X=+,
11:u:Suf-1 X=+,
11:u:Suf-2 X=+,
16:u:Tmn-3 X=none/+,
12:u:tok-1 R=af,
12:u:Tok-1 X=af,
12:u:tok-1 X=af,
12:u:Suf-2 X=af,
19:u:tok-1RR=fisheries,
19:u:tok-1 R=fisheries,
23:u:tok-2 R=sea/fisheries,
19:u:tok-1 L=rotatoria,
20:u:tok-1RR=zoologique,
12:u:Pre-2 R=Pu,
12:u:Pre-2 X=Pu,
20:u:Tok-1 X=University,
20:u:tok-1 X=university,
20:u:tok-1RR=washington,
23:u:tok-2 R=university/of,
20:u:tok-1 L=university,
20:u:tok-1 R=washington,
23:u:tok-2 L=university/of,
23:u:tok-2 R=of/washington,
20:u:Tok-1 X=Washington,
20:u:tok-1 X=washington,
20:u:tok-1LL=university,
23:u:tok-2 L=of/washington,
20:u:tok-1 R=phycologia,
15:u:tok-1RR=revue,
15:u:tok-1 R=revue,
15:u:Tok-1 X=Teil.,
14:u:tok-1 X=teil,
16:u:tok-1 R=archiv,
12:u:Suf-2 X=ld,
12:u:tok-1 X=hu,
19:u:Tok-1 X=Caledonia,
19:u:tok-1 X=caledonia,
15:u:tok-1 L=insel,
21:u:tok-2 R=sea/journal,
14:u:tok-1RR=res.,
14:u:Lst-2 X=Lu/S,
11:u:Suf-1 X=S,
16:u:Tmn-3 X=none/S,
12:u:Suf-2 X=ha,
12:u:Suf-2 L=ha,
17:u:tok-1 R=section,
17:u:Tok-1 X=section,
17:u:tok-1 X=section,
15:u:tok-1 X=suppl,
24:u:Key-2 X=volume/initial,
16:u:tok-1 L=suppl.,
15:u:tok-1RR=inst.,
15:u:tok-1 R=inst.,
15:u:Tok-1 X=Inst.,
14:u:tok-1 X=inst,
12:u:Suf-2 L=y.,
12:u:Pre-2 X=Ev,
16:u:tok-1 L=france,
15:u:tok-1 R=polar,
12:u:tok-1LL=31,
21:u:Cap-2 R=caps/single,
21:u:Cap-2 L=caps/single,
23:u:tok-1RR=phylogenetics,
15:u:Pos-2 R=10/10,
15:u:Pos-2 L=10/10,
12:u:Suf-2 X=gt,
12:u:Suf-2 L=gt,
16:u:tok-1 X=island,
12:u:Suf-2 L=lt,
13:u:Tok-1 X=Het,
16:u:tok-1 X=mexico,
22:u:tok-1RR=oceanography,
22:u:Tok-1 X=Oceanography,
22:u:tok-1 X=oceanography,
22:u:tok-1 L=oceanography,
22:u:tok-1LL=oceanography,
16:u:tok-1LL=recent,
17:u:tok-1 R=novapex,
14:u:Tok-1 X=Int.,
13:u:tok-1 X=int,
19:u:tok-1 L=malediven,
14:u:tok-1RR=ges.,
24:u:tok-2 L=malediven/int.,
20:u:tok-2 R=int./revue,
26:u:Tmn-2 R=none/proceedings,
26:u:Key-3 L=none/proceedings,
14:u:tok-1 R=mem.,
14:u:Tok-1 X=Mem.,
13:u:tok-1 X=mem,
30:u:tok-2 L=mediterranean/israel,
19:u:Tmn-2 R=none/date,
19:u:Key-3 L=none/date,
12:u:Suf-2 X=ga,
12:u:Suf-2 X=ka,
12:u:Pre-2 X=(1,
22:u:tok-1 L=hyperbenthos,
22:u:tok-1LL=hyperbenthos,
15:u:tok-1RR=board,
21:u:tok-2 R=the/fishery,
19:u:tok-1RR=barcelona,
16:u:tok-1 L=global,
16:u:tok-1LL=global,
12:u:Suf-2 X=go,
12:u:Suf-2 L=go,
12:u:Pre-2 R=Sw,
16:u:tok-1 X=sweden,
12:u:Suf-2 X=n:,
12:u:Suf-2 L=n:,
13:u:Tok-1 X=In:,
20:u:Key-2 X=in/initial,
21:u:Key-3 x=in/moderate,
13:u:tok-1 L=in:,
26:u:tok-2 R=oceanography/and,
13:u:tok-1LL=in:,
18:u:tok-1RR=biology:,
26:u:tok-2 L=oceanography/and,
20:u:tok-2 R=and/marine,
18:u:tok-1 R=biology:,
20:u:tok-2 L=and/marine,
25:u:tok-2 R=marine/biology:,
20:u:Tok-1 X=R√©sultats,
19:u:tok-1 X=resultats,
13:u:Pre-2 X=R√©,
20:u:tok-1 L=r„©sultats,
20:u:tok-1LL=r„©sultats,
17:u:tok-1LL=venezia,
17:u:tok-1 R=annales,
17:u:Tok-1 X=Annales,
17:u:tok-1 X=annales,
20:u:tok-2 R=annales/de,
17:u:tok-1 L=annales,
20:u:tok-2 L=annales/de,
17:u:tok-1LL=annales,
29:u:tok-1 L=poecilostomatoida).,
16:u:Tok-1 X=Dahms,,
15:u:tok-1 X=dahms,
29:u:tok-1LL=poecilostomatoida).,
15:u:tok-1 R=h.u.,,
20:u:tok-2 L=in:/dahms,,
22:u:tok-2 R=dahms,/h.u.,,
15:u:Tok-1 X=H.U.,,
16:u:tok-1 L=dahms,,
18:u:tok-1RR=glatzel,,
22:u:tok-2 L=dahms,/h.u.,,
18:u:tok-2 R=h.u.,/t.,
16:u:tok-1LL=dahms,,
15:u:tok-1 L=h.u.,,
18:u:tok-1 R=glatzel,,
18:u:tok-2 L=h.u.,/t.,
21:u:tok-2 R=t./glatzel,,
23:u:tok-1RR=international,
23:u:tok-1 R=international,
23:u:Tok-1 X=International,
23:u:tok-1 X=international,
23:u:tok-1 L=international,
23:u:tok-1LL=international,
22:u:Tmn-2 R=weak/journal,
31:u:tok-2 R=indo-pacific/mollusca,
15:u:Tok-1 X=Proc.,
14:u:tok-1 X=proc,
18:u:tok-1 R=zeepaard,
22:u:tok-2 R=het/zeepaard,
15:u:Tok-1 X=Nuovo,
15:u:tok-1 X=nuovo,
20:u:tok-1LL=(annelida,,
21:u:tok-1 L=polichaeta),
27:u:tok-2 L=polichaeta)/nuovo,
19:u:tok-2 R=nuovo/per,
12:u:Pre-2 X=Nu,
12:u:Suf-2 X=vo,
21:u:tok-1LL=polichaeta),
15:u:tok-1 L=nuovo,
19:u:tok-2 L=nuovo/per,
12:u:Suf-2 L=vo,
15:u:tok-1LL=nuovo,
18:u:tok-1RR=animalia,
18:u:tok-1 R=animalia,
31:u:tok-2 R=mediterraneo/animalia,
12:u:Suf-2 X=2.,
12:u:Suf-2 L=2.,
16:u:Tok-1 X=Mexico,
18:u:tok-1 L=bahamas.,
27:u:tok-2 L=bahamas./bulletin,
18:u:tok-1LL=bahamas.,
21:u:Tok-1 X=Netherlands,
12:u:Pre-2 X=02,
16:u:Tok-1 X=Centre,
16:u:tok-1 X=centre,
14:u:tok-1LL=sven,
16:u:tok-1 L=lov„©n,
23:u:tok-2 L=lov„©n/centre,
20:u:tok-2 R=centre/for,
13:u:Suf-2 L=√©n,
16:u:tok-1LL=lov„©n,
16:u:tok-1 L=centre,
20:u:tok-2 L=centre/for,
20:u:tok-2 R=for/marine,
16:u:tok-1LL=centre,
20:u:tok-1RR=(tj„§rn„∂,,
20:u:tok-2 L=for/marine,
25:u:tok-2 R=marine/sciences,
20:u:tok-1 R=(tj„§rn„∂,,
18:u:tok-1RR=sweden).,
25:u:tok-2 L=marine/sciences,
29:u:tok-2 R=sciences/(tj„§rn„∂,,
20:u:Tok-1 X=(Tj√§rn√∂,,
16:u:tok-1 X=tjarno,
18:u:tok-1 R=sweden).,
29:u:tok-2 L=sciences/(tj„§rn„∂,,
29:u:tok-2 R=(tj„§rn„∂,/sweden).,
13:u:Suf-2 X=√∂,,
18:u:Tok-1 X=Sweden).,
20:u:tok-1 L=(tj„§rn„∂,,
29:u:tok-2 L=(tj„§rn„∂,/sweden).,
28:u:tok-2 R=sweden)./meiofauna,
13:u:Suf-2 L=√∂,,
14:u:tok-1RR=sci.,
24:u:Tok-1 X=M√©diterran√©e,
22:u:tok-1 X=mediterranee,
13:u:Suf-2 X=√©e,
25:u:tok-1 X=oceanographique,
12:u:Pre-2 R=Ic,
20:u:Tok-1 X=Supplement,
20:u:tok-1 X=supplement,
21:u:Key-3 x=volume/none,
20:u:Tok-1 X=Scientific,
20:u:tok-1 X=scientific,
20:u:tok-1 L=scientific,
16:u:Tok-1 X=(1991),
15:u:tok-1 R=31-43,
19:u:tok-2 L=42/(1991),
22:u:tok-2 R=(1991)/31-43,
12:u:tok-1RR=2.,
12:u:tok-1 R=2.,
12:u:Pre-2 R=2.,
19:u:Key-3 x=date/none,
15:u:Tok-1 X=Irish,
15:u:tok-1 X=irish,
11:u:Pre-2 R=i,
11:u:Tok-1 X=i,
11:u:Pre-2 X=i,
11:u:Suf-2 X=i,
13:u:tok-1 R=nyt,
12:u:Pre-2 R=Ny,
13:u:Tok-1 X=Nyt,
13:u:tok-1 X=nyt,
21:u:tok-2 R=nyt/magazin,
12:u:Pre-2 X=Ny,
12:u:Suf-2 X=yt,
15:u:Tok-1 X=Trudy,
15:u:tok-1 X=trudy,
17:u:tok-1LL=russian,
16:u:tok-1 L=empire,
16:u:tok-1 R=otdela,
18:u:tok-1RR=ichtiol.,
22:u:tok-2 L=empire/trudy,
22:u:tok-2 R=trudy/otdela,
12:u:Pre-2 R=Ot,
19:u:tok-1 L=marseille,
14:u:tok-1RR=som.,
22:u:tok-2 L=marseille/c.,
15:u:tok-2 R=c./r.,
17:u:tok-1 L=belgium,
18:u:Tok-1 X=Nouveaux,
19:u:tok-1 L=d'ostende,
28:u:tok-2 L=d'ostende/nouveaux,
28:u:tok-2 R=nouveaux/m„©moires,
21:u:tok-1RR=l'acad„©mie,
21:u:tok-1 R=l'acad„©mie,
21:u:Tok-1 X=l'Acad√©mie,
19:u:tok-1 X=lacademie,
21:u:tok-1 L=l'acad„©mie,
21:u:tok-1LL=l'acad„©mie,
13:u:Pre-2 R=F√∂,
13:u:Pre-2 X=F√∂,
15:u:tok-1RR=porto,
15:u:tok-1 R=porto,
14:u:tok-1RR=rico,
18:u:tok-2 R=of/porto,
18:u:tok-1LL=bryozoan,
16:u:tok-1 R=survey,
26:u:tok-2 L=fauna/scientific,
27:u:tok-2 R=scientific/survey,
16:u:Tok-1 X=Survey,
16:u:tok-1 X=survey,
27:u:tok-2 L=scientific/survey,
19:u:tok-2 R=survey/of,
16:u:tok-1 L=survey,
19:u:tok-2 L=survey/of,
16:u:tok-1LL=survey,
20:u:Tok-1 X=√ñfversigt,
19:u:tok-1 X=ofversigt,
18:u:tok-1LL=vicinis,,
18:u:tok-1 L=enumerat,
18:u:tok-1RR=kongliga,
29:u:tok-2 L=enumerat/„ñfversigt,
23:u:tok-2 R=„ñfversigt/af,
15:u:Fst-2 X=Lu/√ñ,
12:u:Pre-1 X=√ñ,
13:u:Pre-2 X=√ñf,
18:u:tok-1LL=enumerat,
20:u:tok-1 L=„ñfversigt,
18:u:tok-1 R=kongliga,
31:u:tok-1RR=vetenskaps-akademiens,
23:u:tok-2 L=„ñfversigt/af,
21:u:tok-2 R=af/kongliga,
24:u:Tok-1 X=F√∂rhandlingar,
23:u:tok-1 X=forhandlingar,
24:u:tok-1 L=f„∂rhandlingar,
24:u:tok-1LL=f„∂rhandlingar,
20:u:tok-1RR=california,
20:u:tok-1 R=california,
23:u:tok-2 R=of/california,
20:u:Tok-1 X=California,
20:u:tok-1 X=california,
19:u:tok-2 L=of/mexico,
14:u:tok-1RR=eaux,
18:u:tok-2 R=dans/les,
14:u:tok-1 R=eaux,
18:u:tok-2 L=dans/les,
18:u:tok-2 R=les/eaux,
15:u:tok-1 L=belge,
15:u:tok-1LL=belge,
15:u:tok-1RR=congo,
15:u:tok-1 R=congo,
15:u:Tok-1 X=Congo,
15:u:tok-1 X=congo,
15:u:tok-1 L=congo,
11:u:Key-1 L=F,
16:u:Tmn-2 L=F/none,
21:u:tok-1RR=obshchestva,
18:u:tok-1 R=bequaert,
16:u:tok-2 L=dr./j.,
21:u:tok-2 R=j./bequaert,
18:u:Tok-1 X=Bequaert,
18:u:tok-1 X=bequaert,
21:u:tok-2 L=j./bequaert,
23:u:tok-2 R=bequaert/dans,
18:u:tok-1 L=bequaert,
23:u:tok-2 L=bequaert/dans,
17:u:tok-2 R=dans/le,
18:u:tok-1LL=bequaert,
17:u:tok-2 L=dans/le,
18:u:tok-2 R=le/congo,
18:u:tok-2 L=le/congo,
21:u:tok-2 R=congo/belge,
21:u:tok-2 L=congo/belge,
21:u:tok-2 R=belge/revue,
12:u:tok-1 X=54,
21:u:tok-1 R=zoologische,
23:u:tok-1 X=procesverbaux,
24:u:Tok-1 X=Internationale,
24:u:tok-1 X=internationale,
16:u:tok-1LL=plants,
16:u:Tok-1 X=Naples,
16:u:tok-1 X=naples,
14:u:tok-1LL=golf,
19:u:tok-2 L=de/naples,
28:u:tok-2 R=naples/tijdschrift,
25:u:Tok-1 X=Ostracodologist,
25:u:tok-1 X=ostracodologist,
12:u:tok-1 R=no,
34:u:tok-2 L=revision/ostracodologist,
28:u:tok-2 R=ostracodologist/no,
35:u:tok-2 L=hyperbenthos/oceanography,
14:u:tok-1 X=wiss,
13:u:tok-1 X=can,
35:u:tok-2 R=indo-pacific/indo-pacific,
22:u:Tok-1 X=Indo-pacific,
35:u:tok-2 L=indo-pacific/indo-pacific,
13:u:tok-1RR=one,
14:u:tok-1LL=1929,
15:u:tok-1 X=bucht,
16:u:Tok-1 X=02-Apr,
15:u:tok-1 X=02apr,
19:u:tok-2 L=27/02-apr,
21:u:tok-2 R=02-apr/_x+1,
30:u:tok-2 R=internationale/revue,
23:u:tok-1LL=phaeophyceae),
13:u:tok-1 L=in‚,
23:u:tok-2 L=in‚/caledonia,
27:u:tok-2 R=caledonia/journal,
15:u:Lst-2 L=Ll/in,
11:u:Suf-2 L=w,
12:u:Cap-1 L=ew,
20:u:Cap-2 L=ew/initial,
15:*:Num-1 L=other,
16:u:Pos-2 L=none/8,
11:u:Pct-1 L=8,
19:u:tok-1 X=presentes,
19:u:Tok-1 X=Documents,
19:u:tok-1 X=documents,
28:u:tok-1LL=m„©diterran„©ennes,
19:u:tok-1 L=d'isra„´l,
13:u:Suf-2 L=√´l,
22:u:tok-2 R=the/bulletin,
19:u:tok-2 L=ocean/new,
22:u:Tok-1 X=(1892-1893).,
18:u:tok-1 X=18921893,
22:u:tok-1 L=m„©tazoaires,
17:u:tok-1 R=congres,
35:u:tok-2 L=m„©tazoaires/(1892-1893).,
30:u:tok-2 R=(1892-1893)./congres,
17:u:Tok-1 X=Congres,
17:u:tok-1 X=congres,
22:u:tok-1LL=m„©tazoaires,
22:u:tok-1 L=(1892-1893).,
30:u:tok-2 L=(1892-1893)./congres,
31:u:tok-2 R=congres/international,
22:u:tok-1LL=(1892-1893).,
17:u:tok-1 L=congres,
19:u:tok-1RR=zoologie.,
31:u:tok-2 L=congres/international,
26:u:tok-2 R=international/de,
17:u:tok-1LL=congres,
19:u:tok-1 R=zoologie.,
26:u:tok-1RR=proc„®s-verbaux:,
26:u:tok-2 L=international/de,
22:u:tok-2 R=de/zoologie.,
19:u:Tok-1 X=Zoologie.,
26:u:tok-1 R=proc„®s-verbaux:,
22:u:tok-2 L=de/zoologie.,
36:u:tok-2 R=zoologie./proc„®s-verbaux:,
26:u:Tok-1 X=Proc√®s-verbaux:,
19:u:tok-1 L=zoologie.,
18:u:tok-1RR=session,,
36:u:tok-2 L=zoologie./proc„®s-verbaux:,
29:u:tok-2 R=proc„®s-verbaux:/2.,
15:u:tok-1LL=ao„ªt,
15:u:tok-1 L=1892.,
17:u:tok-1 R=215-240,
17:u:tok-2 L=1892./2,
19:u:tok-2 R=2/215-240,
35:u:tok-2 L=westerschelde/netherlands,
29:u:tok-2 R=netherlands/journal,
22:u:tok-1LL=nordseeinsel,
16:u:Tok-1 X=Gloria,
16:u:tok-1 X=gloria,
15:u:tok-1 R=maris,
22:u:tok-2 R=gloria/maris,
18:u:Tok-1 X=Ver√∂ff.,
16:u:tok-1 X=veroff,
17:u:tok-1 L=nordsee,
26:u:tok-2 L=nordsee/ver„∂ff.,
24:u:tok-2 R=ver„∂ff./inst.,
20:u:Tok-1 X=Microscopy,
20:u:tok-1 X=microscopy,
18:u:tok-1LL=scanning,
18:u:tok-1 L=electron,
29:u:tok-2 L=electron/microscopy,
25:u:tok-2 R=microscopy/mem.,
12:u:Suf-2 X=py,
15:u:tok-1LL=field,
24:u:Tok-1 X=Investigaci√≥n,
20:u:tok-1LL=dec„°podos,
19:u:tok-1 L=ib„©ricos,
19:u:tok-1 R=pesquera,,
34:u:tok-2 L=ib„©ricos/investigaci„≥n,
34:u:tok-2 R=investigaci„≥n/pesquera,,
13:u:Suf-2 X=√≥n,
15:u:tok-1 R=aust.,
19:u:Tok-1 X=Organisms,
19:u:tok-1 X=organisms,
26:u:tok-2 L=peninsula/gloria,
22:u:Tok-1 X=Hemichordata,
22:u:tok-1 X=hemichordata,
14:u:tok-1 R=plos,
25:u:tok-2 L=of/hemichordata,
27:u:tok-2 R=hemichordata/plos,
12:u:Pre-2 R=PL,
21:u:tok-1 R=pr„©sent„©s,
31:u:tok-2 R=m„©moires/pr„©sent„©s,
21:u:Tok-1 X=pr√©sent√©s,
31:u:tok-2 L=m„©moires/pr„©sent„©s,
23:u:tok-2 R=pr„©sent„©s/„,
21:u:tok-1 L=pr„©sent„©s,
23:u:tok-2 L=pr„©sent„©s/„,
21:u:tok-1LL=pr„©sent„©s,
15:u:Tok-1 X=Texas,
25:u:tok-2 L=nematodes/texas,
18:u:tok-2 R=texas/j.,
21:u:tok-1 R=informatics,
25:u:tok-2 L=of/biodiversity,
34:u:tok-2 R=biodiversity/informatics,
21:u:Tok-1 X=Informatics,
21:u:tok-1 X=informatics,
34:u:tok-2 L=biodiversity/informatics,
29:u:tok-2 R=informatics/journal,
15:u:Tok-1 X=Kungl,
15:u:tok-1 X=kungl,
22:u:tok-1LL=schwedischen,
21:u:tok-1 L=westk„ºste.,
23:u:tok-1 R=fysiografiska,
22:u:tok-1RR=s„§llskapets,
27:u:tok-2 L=westk„ºste./kungl,
29:u:tok-2 R=kungl/fysiografiska,
12:u:Suf-2 X=gl,
14:u:tok-1LL=1877,
21:u:tok-1 L=ausgef„ºhrt,
24:u:tok-1 R=leningradskogo,
27:u:tok-2 L=ausgef„ºhrt/trudy,
30:u:tok-2 R=trudy/leningradskogo,
19:u:tok-1 L=received.,
19:u:tok-1 R=botanical,
26:u:tok-2 L=received./report,
26:u:tok-2 R=report/botanical,
15:u:Tok-1 X=Wiss.,
19:u:tok-1 L=noordsee.,
26:u:tok-1 R=meeresuntersuch.,
15:u:tok-1RR=abth.,
25:u:tok-2 L=noordsee./wiss.,
32:u:tok-2 R=wiss./meeresuntersuch.,
18:u:tok-1 R=tierwelt,
23:u:tok-2 L=rotatoria/die,
22:u:tok-2 R=die/tierwelt,
15:u:Tok-1 X=Ever?,
14:u:tok-1 X=ever,
18:u:tok-2 L=as/ever?,
23:u:tok-2 R=ever?/journal,
22:u:tok-1 L=dinophysidae,
33:u:tok-2 L=dinophysidae/university,
22:u:tok-1LL=dinophysidae,
21:u:tok-1LL=specialised,
20:u:tok-1 L=maxilliped,
30:u:tok-2 L=maxilliped/organisms,
29:u:tok-2 R=organisms/diversity,
15:u:Tok-1 X=e1201,
15:u:tok-1 X=e1201,
15:u:tok-1LL=peerj,
17:u:tok-2 L=3/e1201,
20:u:tok-2 R=e1201/_x+1,
12:u:Pre-2 X=e1,
20:u:tok-1RR=imp„©riale,
20:u:tok-1 R=imp„©riale,
19:u:tok-1 X=imperiale,
24:u:tok-2 R=imp„©riale/des,
20:u:tok-1 L=imp„©riale,
24:u:tok-2 L=imp„©riale/des,
23:u:tok-2 L=d'isra„´l/the,
21:u:tok-1LL=d„©capodes,,
18:u:tok-1 L=macrures,
24:u:tok-1 R=scientifiques,,
21:u:tok-1RR=exp„©dition,
29:u:tok-2 L=macrures/r„©sultats,
35:u:tok-2 R=r„©sultats/scientifiques,,
24:u:Tok-1 X=Scientifiques,,
23:u:tok-1 X=scientifiques,
18:u:tok-1LL=macrures,
21:u:tok-1 R=exp„©dition,
26:u:tok-1RR=oc„©anographique,
35:u:tok-2 L=r„©sultats/scientifiques,,
36:u:tok-2 R=scientifiques,/exp„©dition,
21:u:Tok-1 X=Exp√©dition,
24:u:tok-1 L=scientifiques,,
26:u:tok-1 R=oc„©anographique,
36:u:tok-2 L=scientifiques,/exp„©dition,
38:u:tok-2 R=exp„©dition/oc„©anographique,
26:u:Tok-1 X=oc√©anographique,
24:u:tok-1LL=scientifiques,,
21:u:tok-1 L=exp„©dition,
38:u:tok-2 L=exp„©dition/oc„©anographique,
32:u:tok-2 R=oc„©anographique/belge,
21:u:tok-1LL=exp„©dition,
26:u:tok-1 L=oc„©anographique,
32:u:tok-2 L=oc„©anographique/belge,
20:u:tok-2 R=belge/dans,
26:u:tok-1LL=oc„©anographique,
20:u:tok-2 L=belge/dans,
20:u:tok-1RR=c„¥ti„®res,
21:u:tok-2 R=zealand/new,
23:u:tok-1LL=skandinaviens,
13:u:tok-1 R=vid,
30:u:tok-2 L=fauna/f„∂rhandlingar,
28:u:tok-2 R=f„∂rhandlingar/vid,
13:u:Tok-1 X=vid,
13:u:tok-1 X=vid,
23:u:tok-1RR=skandinaviske,
28:u:tok-2 L=f„∂rhandlingar/vid,
16:u:tok-2 R=vid/de,
29:u:tok-1 L=fisch-nervensystems,
39:u:tok-2 L=fisch-nervensystems/m„©moires,
29:u:tok-1LL=fisch-nervensystems,
23:u:tok-2 R=„/l'acad„©mie,
23:u:tok-2 L=„/l'acad„©mie,
32:u:tok-2 R=l'acad„©mie/imp„©riale,
20:u:Tok-1 X=imp√©riale,
32:u:tok-2 L=l'acad„©mie/imp„©riale,
13:u:Tok-1 X=54,,
18:u:tok-2 L=part/54,,
21:u:tok-2 R=54,/section,
13:u:tok-1 L=54,,
15:u:tok-1RR=1-80,,
21:u:tok-2 L=54,/section,
19:u:tok-2 R=section/3,
14:u:Tok-1 X=Can.,
20:u:tok-2 L=coast/can.,
17:u:tok-2 R=can./j.,
17:u:Tok-1 X=Museum.,
0=-1.447940e-01
1=-1.422455e-01
2=4.137658e-03
3=8.898498e-02
4=-5.299673e-04
5=-1.250851e-02
7=5.627237e-02
8=1.859258e+00
9=1.020754e+00
10=-2.063746e+00
11=-2.215474e-01
14=-1.691819e-01
15=-6.816228e-02
18=1.621835e-01
24=-8.552120e-01
25=-4.898631e-01
26=4.245204e-01
27=-2.889472e-01
28=-7.932806e-01
29=-1.015780e+00
30=-8.291316e-01
31=-7.147786e-02
32=-6.657738e-01
33=-1.613079e-01
34=-4.359555e+00
35=4.123669e-01
36=9.375237e-01
37=-2.030497e+00
38=-2.181204e+00
39=-1.528645e+00
42=-2.785761e+00
43=-1.765090e+00
44=2.511086e-01
45=2.521305e-01
46=4.153681e-02
47=-5.897897e-02
50=-1.173131e+00
51=-1.732630e-01
53=3.214289e-01
54=1.746576e-01
55=-1.363147e-03
58=-1.043941e+00
59=-4.690697e-01
60=-1.101166e-01
62=9.879016e-01
63=-4.103862e-02
64=-5.508252e-02
66=-2.782263e+00
67=-7.461252e-01
69=-4.525834e-02
70=-8.311149e-01
71=7.772134e-01
72=3.183688e-01
80=3.183688e-01
88=1.364974e-01
90=3.116783e-02
91=1.154475e-01
93=-6.317370e-03
94=-2.023769e-01
95=-1.318688e-03
96=1.212807e+00
99=-3.115105e-03
103=-2.803673e-02
106=8.217902e-01
114=5.966417e-02
115=1.897680e+00
119=-4.502129e-02
123=1.955598e-01
124=2.220938e-01
131=-9.420027e-02
134=3.251597e-02
141=1.432336e-01
152=-4.204593e-02
155=-6.687901e-02
159=2.921096e-01
160=-8.292096e-02
161=5.895579e-02
162=9.744910e-02
163=-3.300274e-02
164=-3.546562e-03
165=-2.908070e-02
166=-7.201066e-01
167=-2.378319e-03
170=-1.083952e-01
171=1.058338e-01
178=7.001399e-02
179=-5.051485e-03
184=3.183688e-01
256=6.993642e-02
257=-5.835693e-01
258=4.171139e-02
259=1.693668e-02
260=-1.905128e+00
261=-1.277923e-03
262=7.287093e-03
263=1.394923e-02
264=3.183688e-01
272=-2.952879e-02
274=-6.073438e-05
275=1.121998e-02
282=-1.083952e-01
283=1.058338e-01
290=-1.048917e-01
291=9.855138e-02
296=-2.952879e-02
298=-6.073438e-05
299=1.121998e-02
304=3.183688e-01
314=-2.813554e-02
315=2.992148e-01
320=3.183688e-01
328=-4.695633e-03
330=4.628146e-02
331=1.115131e-01
333=-3.502662e-02
335=1.979245e-03
336=1.241204e-01
338=-4.884464e-02
339=1.484560e-03
343=-3.389739e-02
346=-1.680404e-02
347=-1.786474e-04
352=3.183688e-01
424=-4.974362e-02
425=-7.322863e-01
426=1.257502e-01
427=1.762790e-01
428=-4.662814e-04
429=-2.462023e-01
430=-8.484918e-05
431=5.651769e-02
432=1.077184e+00
434=-1.209480e-01
435=-1.495841e-01
439=-2.009626e-02
442=1.737777e-01
448=-1.696776e-01
450=4.100125e-01
451=1.234622e-05
455=-1.755457e+00
456=-2.851620e-01
458=-1.415924e+00
459=4.483631e-01
460=-1.676504e+00
463=-2.477625e-02
466=-4.268547e-01
468=1.411039e+00
474=-2.042019e-01
477=5.922264e-01
478=-3.118029e-01
482=-6.410107e-01
483=-9.945638e-02
485=-6.942412e-03
486=1.758553e+00
488=-2.952820e-02
490=-7.264180e-01
491=-3.751457e-01
495=6.443718e-01
496=2.616117e-02
504=2.144916e-01
505=-1.069764e+00
506=2.571525e-01
507=3.473950e-01
508=-2.486835e-01
509=-7.435052e-02
510=3.194989e-02
511=9.020285e-02
512=3.269822e-02
514=1.051807e-02
515=5.281013e-02
520=-5.121598e-02
521=-1.195003e-01
522=-5.732277e-02
523=8.104489e-02
524=-1.486608e-02
525=-2.192482e-02
527=3.684529e-02
528=-1.059517e-01
529=-1.385975e-01
530=-4.497412e-02
531=1.023110e-01
532=-3.001914e-02
533=-9.402412e-03
535=4.685956e-02
536=-1.444482e-01
537=-1.376182e-01
538=3.618694e-02
539=-2.957995e-02
540=2.607564e-05
541=-5.589047e-03
543=4.419725e-02
544=-9.374976e-02
545=-9.542383e-02
546=1.368202e-01
547=-6.054920e-01
549=-1.758716e-02
552=3.183688e-01
560=-6.533908e-03
561=-1.120829e-01
562=1.181786e-01
563=4.793524e-02
564=-3.355967e-02
565=-1.022273e-02
566=7.125500e-02
567=4.524500e-02
568=-4.029487e-02
569=-1.092868e-01
570=2.051942e-02
571=1.083733e-01
572=3.446311e-04
573=-4.281313e-04
574=-6.289597e-02
575=4.711633e-02
576=-1.534735e-03
578=8.904961e-02
579=5.618763e-02
581=-2.663475e-03
583=4.701932e-02
584=3.147638e-01
592=4.469957e-02
594=-1.392798e-03
595=1.020495e-01
597=-7.839634e-04
598=2.527861e-02
600=3.151213e-01
608=3.151213e-01
616=3.964134e-02
624=3.183688e-01
634=1.393835e-01
635=-4.329318e-02
637=-7.075772e-05
638=-1.135542e-01
639=-1.578564e-05
642=-1.506004e-02
643=3.848981e-02
648=3.183688e-01
656=-1.166688e-01
657=-1.062173e-01
658=2.592423e-02
659=1.463854e-01
660=-1.172276e-02
661=-2.535446e-03
662=3.547447e-02
663=4.963956e-02
664=-4.298786e-02
665=-1.510212e-02
666=-6.839790e-02
667=1.455414e-01
668=-7.250017e-03
669=-5.657002e-03
670=-8.354111e-02
671=4.713330e-02
672=3.183688e-01
744=5.076026e-02
746=-9.771467e-04
747=1.751102e-02
749=-8.757483e-04
750=2.904162e-02
752=3.979927e-02
754=-2.087648e-02
755=4.124971e-02
758=-1.120652e-02
760=1.567619e-02
768=5.872495e-02
770=-6.257968e-03
771=3.197826e-02
773=-8.825716e-04
774=3.848465e-02
776=-2.114590e-02
778=-7.023603e-03
779=1.116562e-02
784=6.113256e-03
792=-1.338798e-01
793=-1.272590e-01
794=-2.955806e-02
795=8.957379e-02
797=-1.221513e-02
798=-1.430851e-03
799=5.739785e-02
802=1.124094e-02
803=-1.058736e-02
810=-4.646955e-03
816=-6.134504e-02
817=-8.780407e-02
818=3.425279e-02
820=2.952889e-04
821=-1.925200e-02
823=5.239437e-02
824=4.305271e-01
825=1.840302e-01
826=-3.637342e-01
831=-3.617689e-02
842=3.095502e-01
843=-1.708954e-01
845=-2.244768e-02
851=3.244269e-01
861=-2.498925e-02
869=7.989399e-01
870=-2.218636e-01
878=6.145397e-01
880=-2.480772e-02
884=3.158024e-02
885=-4.692377e-03
887=2.255928e-01
888=1.123253e-03
889=-1.084660e-01
890=1.519667e-01
891=-1.576436e-01
892=-4.727100e-02
896=8.452742e-02
906=1.124094e-02
907=-1.058736e-02
912=8.452742e-02
922=1.982415e-03
923=2.521944e-03
928=-2.710121e-02
929=-1.545206e-01
930=7.173864e-04
931=1.197859e-01
932=2.019167e-01
933=-1.063920e-01
934=-4.245076e-01
935=1.528474e-02
936=1.224163e-01
938=-3.676216e-02
939=3.653333e-03
943=-4.247995e-02
944=-9.511978e-02
945=-1.291613e-04
946=2.658893e-01
947=1.131390e-02
948=-7.015040e-04
950=-4.626284e-01
951=2.613460e-02
954=-3.582678e-02
955=4.245878e-03
962=5.512130e-03
963=4.657954e-03
968=-5.880444e-02
969=-1.281154e-01
970=1.836461e-01
971=1.676062e-01
972=6.276556e-02
973=-3.270148e-01
974=-2.485516e-01
975=5.556962e-02
976=8.435353e-01
977=6.911666e-01
978=-9.520681e-01
979=-1.720492e-01
982=-2.678708e-02
983=-4.890760e-02
986=-1.116680e-01
993=-2.991924e-01
994=4.950810e-01
996=-5.326145e-01
997=-1.675459e-01
999=-5.575835e-02
1000=-4.889890e-01
1001=-8.488988e-02
1002=-1.854599e+00
1003=4.354948e-01
1004=3.412810e-02
1005=-6.977821e-01
1007=-9.557396e-01
1012=7.251645e-01
1013=-1.153892e-01
1018=-1.718144e-01
1021=1.334739e+00
1022=-4.065484e-03
1026=-4.384039e-01
1029=-5.650742e-02
1030=9.134077e-01
1031=-3.058157e-03
1032=-3.534845e-02
1034=-2.146458e-02
1035=-2.885617e-01
1037=-3.926722e-03
1038=-7.100402e-03
1039=6.926922e-01
1040=4.999436e-02
1042=7.269396e-02
1043=-1.532712e-01
1045=-1.190771e-02
1047=-6.614724e-03
1048=4.776797e-01
1066=2.975174e-01
1067=-1.277964e+00
1075=-8.176881e-04
1076=1.066972e-02
1086=2.153638e-02
1112=-5.293554e-02
1113=-3.193010e-02
1114=2.432949e-01
1115=1.227375e-01
1116=-2.042441e-01
1117=-8.964225e-02
1118=-2.328188e-02
1119=4.749683e-02
1122=1.618538e-01
1123=-4.733617e-02
1125=-1.049332e-02
1126=2.069953e-02
1127=-1.892726e-01
1128=-5.867133e-02
1129=-6.482150e-02
1130=1.231977e-01
1131=7.858289e-02
1132=1.586763e-01
1133=-2.842342e-02
1134=5.283800e-02
1135=4.186909e-02
1136=1.432661e-01
1138=-1.082891e-02
1139=2.211687e-03
1143=-1.955948e-02
1144=7.809709e-02
1145=-1.259148e-01
1146=1.182375e-01
1147=-1.827172e-01
1148=-5.780829e-02
1152=3.675586e-02
1160=4.946664e-02
1168=7.399276e-03
1169=-2.551702e-01
1170=1.463035e-01
1171=-7.073896e-03
1174=-2.212947e-01
1176=-3.591971e-03
1178=1.897926e-02
1179=3.965613e-02
1182=-2.004804e-03
1184=-1.344843e-02
1186=2.432178e-02
1187=1.321800e-01
1192=-6.814628e-02
1193=-1.216516e-01
1194=-6.188393e-02
1195=1.266130e-01
1196=-3.209006e-05
1197=-5.784973e-03
1198=4.889893e-02
1199=4.781794e-02
1200=6.166565e-02
1201=-2.673935e-01
1202=1.094203e-01
1203=-1.827939e-01
1204=-6.185983e-02
1208=2.286523e-01
1226=2.050889e-01
1227=-1.689095e+00
1235=3.037032e-01
1253=4.725626e-02
1254=-1.089637e-01
1262=3.521056e-01
1271=4.042046e-02
1272=-5.075072e-02
1274=2.995746e-03
1275=7.789039e-02
1277=-8.078402e-02
1278=6.465970e-02
1280=8.454414e-02
1290=-2.778028e-02
1291=3.961603e-02
1298=-7.480748e-02
1299=8.537169e-02
1304=6.477555e-02
1314=-6.672239e-02
1315=1.885947e-01
1320=6.815208e-02
1328=1.520928e-01
1330=3.021494e-04
1331=-7.945529e-02
1335=-2.475183e-02
1336=1.287693e-01
1338=9.400293e-02
1339=-2.635036e-02
1346=8.201302e-02
1347=-7.691850e-02
1352=3.785787e-02
1354=4.026665e-02
1355=-2.855885e-01
1357=-4.355943e-02
1360=1.747194e-01
1378=3.236080e-01
1379=-1.462820e-05
1387=-2.148702e-02
1398=3.101767e-02
1424=2.748841e-01
1431=-1.305774e-02
1432=1.187852e-01
1440=-2.370540e-02
1442=-1.690200e-01
1443=5.724320e-02
1444=8.173331e-02
1445=-5.389638e-03
1447=-4.000917e-03
1448=-1.851818e-02
1450=4.202070e-02
1451=1.374507e-02
1453=-1.638525e-01
1458=-4.301528e-02
1459=-2.064911e-03
1460=5.798911e-02
1461=3.367498e-01
1462=-1.053458e-01
1463=2.225521e-02
1466=2.795647e-03
1467=-6.416496e-03
1474=8.521286e-03
1475=-4.286502e-01
1476=-1.084301e-02
1477=1.051586e-01
1479=4.691951e-03
1480=-1.588932e-02
1482=6.863409e-03
1483=1.366503e-02
1487=3.587146e-02
1490=2.795647e-03
1491=-6.416496e-03
1496=1.272367e-02
1498=3.320673e-02
1504=-1.588932e-02
1506=6.863409e-03
1507=1.366503e-02
1511=3.587146e-02
1514=-2.842434e-01
1515=-8.317530e-04
1517=1.266001e-01
1518=-1.342428e-02
1519=-3.073151e-03
1520=1.849094e-01
1522=8.572578e-02
1523=-4.098056e-01
1528=9.260805e-03
1530=1.808729e-01
1538=6.306833e-02
1539=1.500118e-03
1540=2.326251e-03
1541=-2.163275e+00
1543=6.019942e-02
1546=2.006580e-03
1554=1.611132e-01
1555=6.813311e-02
1556=-2.460192e-02
1557=-8.847884e-03
1558=-2.896962e-02
1559=2.485993e-02
1560=-1.674712e-02
1562=7.246235e-02
1563=2.126655e-03
1564=4.601056e-04
1566=-1.665380e-04
1567=7.270044e-02
1568=-2.231538e-02
1570=9.685697e-02
1571=5.065358e-02
1572=-5.661931e-04
1573=-3.342156e-04
1574=-1.934323e-01
1575=1.501020e-02
1576=-1.774563e-02
1578=4.782237e-02
1579=2.791329e-02
1580=1.654512e-05
1582=-2.391763e-04
1583=5.786100e-02
1586=2.651484e-02
1587=2.822219e-02
1588=2.415477e-04
1590=-1.943700e-04
1591=4.812235e-02
1592=-1.588932e-02
1594=6.863409e-03
1595=1.366503e-02
1599=3.587146e-02
1606=-3.347442e-04
1610=1.846282e-01
1611=-7.575706e-03
1612=-2.434086e-02
1613=9.696191e-02
1614=2.065466e-01
1615=4.724946e-03
1617=1.472022e+00
1618=-2.205035e-01
1634=9.350492e-01
1637=-4.528732e-02
1643=3.569732e-01
1644=1.241483e+00
1646=-1.512466e-01
1650=-2.933028e-02
1652=-2.650059e+00
1653=2.280921e-01
1654=9.911638e-02
1661=2.230509e-02
1662=3.020196e-01
1669=-2.424654e-02
1670=-1.856975e-03
1676=8.885056e-03
1677=-3.336439e-03
1678=-5.651040e-03
1679=2.077195e-01
1682=9.154253e-02
1683=-3.811688e-04
1684=-2.408823e-01
1690=-1.908175e-02
1691=3.953351e-02
1697=4.960912e-02
1698=6.173401e-02
1699=-1.339281e-04
1700=2.192877e-01
1701=5.688924e-02
1702=-1.449945e-02
1703=-3.716186e-02
1704=-4.601043e-02
1706=-3.983977e-02
1707=5.754683e-02
1708=9.493305e-02
1709=-4.318824e-03
1711=2.562161e-03
1714=9.154253e-02
1715=-3.811688e-04
1716=-2.408823e-01
1721=1.079815e-01
1729=-2.668129e-02
1730=5.759135e-02
1731=-2.283957e-01
1733=5.629956e-02
1734=1.585941e-01
1735=1.459918e-03
1737=3.642703e-03
1745=1.509426e-01
1746=5.212563e-02
1747=-4.533486e-02
1753=1.521951e-01
1755=9.179789e-02
1757=-2.120615e-02
1759=-9.383181e-03
1761=1.917142e-01
1765=-3.622205e-01
1767=1.751121e-01
1769=1.519631e+00
1770=-1.519990e-01
1786=7.243819e-02
1791=6.206584e-02
1804=4.427933e-02
1832=-3.450114e-02
1833=4.043645e-01
1834=3.338460e-02
1835=-5.053446e-01
1836=-1.014842e-02
1841=-2.152596e-05
1842=1.018106e-01
1843=-2.276003e-01
1845=7.739052e-02
1846=1.591238e-01
1847=1.329304e-03
1848=-3.835949e-02
1850=-6.985379e-02
1851=1.040612e-01
1852=1.290174e-04
1853=-2.355895e-03
1855=4.567376e-03
1856=-2.211155e-06
1857=-5.331241e-03
1858=2.846916e-02
1859=4.013894e-02
1861=-1.524763e-03
1863=4.275026e-03
1864=-5.229628e-06
1866=2.874223e-02
1867=6.620374e-02
1868=1.931874e-01
1870=-4.193051e-02
1871=1.211049e-02
1872=-5.089369e-02
1874=-5.829937e-02
1875=9.259402e-02
1876=1.343249e-01
1877=-4.913970e-03
1879=7.951467e-03
1881=7.398475e-01
1882=-1.200309e-01
1898=2.280896e-02
1899=5.208269e-01
1907=4.201781e-02
1908=3.603354e-01
1909=-7.676401e-03
1917=-8.212985e-03
1918=1.893819e-04
1925=1.766825e-02
1934=1.132507e-01
1940=1.860906e-02
1943=1.587745e-01
1944=-1.035499e-05
1945=-4.431334e-03
1946=7.812401e-03
1947=4.942962e-02
1948=1.463990e-02
1951=7.333325e-03
1952=-2.535563e-05
1953=-3.991885e-04
1954=2.823390e-02
1955=4.051713e-02
1956=4.146405e-02
1957=-2.066269e-03
1958=-6.713404e-04
1959=2.952415e-03
1962=5.358025e-02
1963=5.691908e-02
1964=6.193515e-02
1965=6.913723e-02
1966=-3.913647e-01
1967=2.156812e-02
1969=1.049682e-01
1970=9.383494e-02
1971=-3.091970e-02
1972=-2.920396e-02
1974=-4.393662e-02
1975=2.784358e-02
1978=2.513177e-02
1979=9.320752e-04
1986=2.858277e-02
1987=-4.876966e-02
1994=2.239611e-02
1995=3.771331e-04
2002=1.322750e-02
2003=-4.423939e-04
2004=-2.693177e-01
2005=3.913439e-01
2006=1.911293e-01
2007=-9.198659e-03
2018=7.267366e-01
2026=4.054131e-03
2027=2.679882e-02
2035=8.052332e-02
2036=-6.425444e-03
2044=-6.375688e-02
2045=7.237015e-01
2046=5.294161e-02
2047=-1.099706e-03
2054=3.581776e-01
2074=1.645257e-01
2075=9.878225e-02
2076=-1.254918e-02
2077=1.384929e-01
2078=-3.419711e-02
2079=3.629277e-02
2082=-7.408071e-03
2083=5.700699e-02
2084=1.603880e-04
2090=2.858277e-02
2091=-4.876966e-02
2098=-7.408071e-03
2099=5.700699e-02
2100=1.603880e-04
2106=1.513015e+00
2107=-2.142409e-01
2112=-1.396333e-01
2114=3.856461e-03
2115=-2.305673e-01
2116=-1.234980e-01
2117=2.680372e-01
2118=5.274015e-01
2122=6.096377e-02
2123=-6.863961e-03
2130=1.887097e-01
2131=-1.282353e-02
2138=9.238621e-02
2139=4.511406e-02
2140=-2.137605e-01
2141=-4.767659e-02
2143=1.925727e-02
2146=4.119139e-02
2149=-4.531664e-01
2151=4.889114e-04
2162=9.180871e-01
2170=-2.707227e-02
2171=2.807963e-01
2190=1.597599e-01
2212=1.503327e-01
2215=5.465030e-02
2216=-5.042818e-03
2217=-1.243191e-01
2218=1.889180e-01
2220=-4.669767e-05
2221=-1.922951e-03
2222=2.237440e-02
2223=3.533754e-02
2224=1.143309e-01
2226=3.037101e-02
2227=-2.507247e-01
2231=-1.186479e-02
2232=9.238724e-02
2234=8.158686e-03
2240=-8.363236e-02
2241=-1.265778e-01
2242=1.956095e-01
2243=1.935701e-02
2244=-1.015857e-02
2245=1.010812e-01
2246=6.807787e-05
2247=3.141114e-02
2251=3.632383e-02
2255=3.715305e-02
2258=4.891988e-03
2264=-1.441756e-01
2265=-1.338772e-01
2266=1.851171e-01
2267=2.456621e-02
2268=-1.132990e-03
2269=1.952378e-02
2270=5.254137e-02
2271=4.209662e-02
2272=3.432378e-01
2273=1.120704e-01
2274=-3.880875e-01
2282=2.639511e-01
2290=3.159494e-01
2291=3.200793e-03
2293=-1.298676e-01
2295=-7.689868e-04
2298=-4.439535e-01
2299=3.310465e-01
2300=3.151814e-01
2301=-2.618431e-01
2302=-9.472689e-01
2306=-3.668472e-01
2308=6.686194e-02
2309=4.821419e-01
2310=5.361853e-02
2311=-2.150620e-02
2318=7.370587e-01
2322=-1.373288e-01
2326=5.872716e-02
2331=-3.493019e-03
2334=-1.512024e-02
2335=5.931120e-01
2338=-1.057269e-03
2339=1.066424e-01
2343=7.201099e-03
2346=-7.408071e-03
2347=5.700699e-02
2348=1.603880e-04
2354=9.765728e-04
2356=4.169302e-03
2357=-1.052486e-01
2359=3.501252e-03
2378=2.617642e-01
2379=-8.001891e-01
2383=2.913898e-02
2387=5.143014e-02
2396=4.062279e-02
2428=3.976004e-03
2429=-1.026753e-01
2431=2.832721e-03
2433=-7.228643e-04
2434=1.816366e-01
2435=1.092820e-01
2436=3.251772e-01
2437=-1.331626e-01
2438=-3.896857e-01
2439=1.312193e-01
2440=2.126143e-01
2441=1.353624e-01
2458=3.262320e-01
2459=-5.264047e-02
2466=-3.457565e-01
2467=3.516209e-01
2468=3.503851e-01
2476=8.370164e-03
2477=-1.708158e-02
2485=7.201859e-01
2486=8.956152e-02
2494=7.785568e-02
2503=4.717691e-01
2506=3.796057e-02
2507=2.284931e-03
2508=8.466470e-02
2511=-6.806187e-06
2515=3.781906e-02
2519=4.166229e-03
2524=3.976004e-03
2525=-1.026753e-01
2527=2.832721e-03
2530=2.864607e-01
2531=-3.553347e-01
2539=3.781906e-02
2543=4.166229e-03
2546=-1.762798e-02
2547=3.588580e-02
2552=-1.258645e-01
2554=-2.429560e-02
2555=2.622165e-01
2559=2.913263e-03
2562=2.117015e-02
2575=1.861383e-03
2578=9.370084e-03
2579=-3.538078e-03
2583=4.182387e-03
2584=6.007403e-02
2586=3.565263e-02
2587=-7.773288e-02
2594=2.350692e-02
2595=-4.985955e-02
2603=3.988470e-02
2607=4.313067e-03
2610=2.171579e-02
2618=6.875872e-02
2626=3.254484e-04
2627=5.269694e-02
2634=7.132440e-05
2639=9.392370e-04
2642=1.184132e-03
2643=3.380003e-02
2647=4.503494e-03
2651=3.781906e-02
2655=4.166229e-03
2659=4.591139e-02
2667=-1.301246e-03
2671=1.711053e-02
2674=-3.273484e-02
2675=1.443572e-01
2680=-4.173319e-02
2682=4.891623e-02
2683=1.274196e-01
2685=-6.930911e-05
2687=7.032639e-02
2690=2.443076e-02
2691=-5.132011e-03
2698=5.993319e-01
2700=7.597209e-02
2706=1.160798e-01
2707=-2.412422e-02
2715=-1.169694e-03
2716=1.689130e-02
2723=-1.169694e-03
2724=1.689130e-02
2728=-6.078662e-02
2730=8.301037e-02
2731=7.901549e-02
2733=-1.397688e-04
2735=6.893539e-02
2738=-3.401467e-02
2739=1.164832e-01
2740=3.111817e-02
2746=7.335420e-02
2747=-6.305467e-03
2754=7.435604e-01
2755=-3.109598e-01
2760=-3.235440e-02
2762=4.049571e-02
2763=1.915436e-02
2767=-2.998054e-02
2770=9.596571e-02
2771=-5.813451e-03
2776=3.561915e-03
2778=2.149547e-01
2779=-7.464986e-02
2783=-9.559568e-03
2786=5.036903e-02
2787=-3.784873e-02
2794=1.159714e-01
2795=-2.375610e-02
2802=1.267269e-01
2803=-3.283187e-02
2810=8.783362e-01
2811=-2.520785e-01
2818=9.826471e-02
2819=-8.152388e-03
2842=1.688994e-01
2843=-1.339250e+00
2851=2.527092e-01
2887=2.409942e-02
2891=-1.169694e-03
2892=1.689130e-02
2898=9.643467e-03
2906=-1.603050e-03
2907=2.207206e-02
2914=1.080507e-01
2915=-1.109023e-05
2918=-6.191435e-04
2919=4.444632e-03
2938=2.968246e-01
2939=-3.515720e+00
2947=4.786076e-01
2948=-6.099164e-01
2956=1.705821e-01
2958=-2.710885e-01
2965=4.993102e-03
2974=1.140936e+00
2983=3.871151e-01
2986=2.779173e-02
2987=-9.652087e-02
2994=-4.566377e-03
2995=2.772902e-02
3002=2.878866e-03
3003=-6.944062e-03
3026=1.785194e-02
3027=9.784401e-01
3035=-1.744785e-01
3036=5.169114e-02
3046=2.842555e-02
3074=2.873129e-05
3075=-1.268440e-03
3082=6.413075e-02
3083=-3.924233e-02
3090=2.779173e-02
3091=-9.652087e-02
3098=-6.407129e-03
3099=3.806920e-02
3106=6.413075e-02
3107=-3.924233e-02
3114=4.696835e-04
3122=1.256008e-01
3123=-4.034310e-03
3126=1.881187e-02
3127=3.316938e-03
3130=3.218619e-03
3131=1.272443e-01
3138=1.178992e-01
3139=-8.630250e-04
3147=-6.252076e-03
3152=1.725889e-02
3154=1.307639e-01
3155=-5.041821e-02
3159=-1.756885e-03
3162=-3.956814e-02
3163=3.116109e-01
3164=-6.590377e-01
3167=8.689794e-04
3170=9.621156e-02
3171=-8.815592e-03
3174=1.064307e-01
3175=1.118319e-02
3178=1.716880e-01
3179=-5.735763e-02
3186=-5.308931e-03
3187=3.515305e-02
3194=6.413075e-02
3195=-3.924233e-02
3202=4.727345e-02
3203=9.944976e-02
3205=-1.488051e-05
3210=-1.951746e-03
3211=1.218453e-02
3218=-1.113520e-01
3219=1.752314e-01
3226=1.626408e+00
3227=-1.138061e+00
3234=-2.020768e-02
3235=2.664321e-02
3242=2.755850e-02
3243=-1.888304e-02
3250=-2.020768e-02
3251=2.664321e-02
3258=-1.895758e-03
3259=1.160985e-02
3266=-1.186436e-03
3267=3.016143e-02
3274=1.935858e-01
3275=5.217454e-03
3277=-9.455091e-05
3279=6.191716e-02
3282=3.418563e-01
3283=-2.293475e-01
3290=5.491875e-02
3291=-3.430055e-04
3298=1.095600e-01
3299=5.732210e-03
3303=-1.469819e-02
3307=3.729394e-02
3314=5.714559e-02
3315=-2.667922e-02
3322=1.326639e-01
3323=-8.321766e-02
3330=2.171693e-01
3331=-1.832091e-01
3338=2.642887e-01
3339=-2.481238e-01
3346=7.819943e-03
3347=-5.430892e-04
3354=-1.952176e-04
3355=9.845685e-04
3362=7.819943e-03
3363=-5.430892e-04
3370=5.533443e-01
3371=-3.027080e-01
3378=5.673173e-02
3379=7.546294e-03
3384=-5.358615e-02
3386=2.581645e-01
3387=-7.573570e-03
3391=1.707877e-01
3394=7.884174e-02
3395=-6.361112e-03
3399=6.133829e-03
3400=-1.142062e-02
3402=8.610179e-02
3403=-2.219641e-02
3407=1.215613e-01
3410=7.819943e-03
3411=-5.430892e-04
3418=7.771464e-01
3419=-5.036882e-01
3426=-4.404231e-03
3427=1.166836e-02
3434=4.318697e-01
3435=-4.088520e-02
3442=-2.222566e-02
3443=4.190746e-02
3445=2.407213e-03
3446=-4.282474e-03
3450=4.225186e-02
3451=-1.188024e-02
3458=-4.404231e-03
3459=1.166836e-02
3466=8.189619e-03
3467=-3.180245e-03
3474=2.213848e-02
3475=-1.295746e-02
3482=4.225186e-02
3483=-1.188024e-02
3490=-4.823015e-02
3491=2.380316e-02
3498=8.671367e-02
3499=-8.246999e-02
3504=-3.193983e-02
3506=1.631459e-01
3511=1.303044e-01
3514=4.225186e-02
3515=-1.188024e-02
3522=5.483393e-01
3523=-4.343880e-01
3530=5.677829e-01
3531=-3.797360e-02
3538=6.674839e-02
3539=-1.355557e-02
3546=7.028011e-02
3547=-4.537238e-02
3554=5.677829e-01
3555=-3.797360e-02
3562=4.535927e-02
3563=-1.457051e-02
3570=9.375578e-02
3571=-7.885252e-02
3578=3.570127e-01
3579=-2.340091e-01
3586=6.860589e-02
3587=-2.556849e-04
3591=6.611600e-03
3595=-4.486130e-03
3599=1.980953e-03
3602=7.089816e-02
3603=-3.733054e-02
3610=3.624602e-02
3611=7.279833e-04
3618=1.838133e-03
3619=1.222984e-04
3626=7.089816e-02
3627=-3.733054e-02
3634=1.838133e-03
3635=1.222984e-04
3642=1.596779e-02
3650=6.383208e-02
3651=-1.351873e-02
3658=-1.039804e-02
3659=-2.426331e-02
3663=1.789692e-03
3664=-2.235825e-01
3666=8.262804e-02
3667=2.334930e-02
3670=-1.841086e-01
3671=3.104676e-03
3674=3.313435e-02
3675=5.876645e-04
3679=2.543528e-03
3680=-1.295824e-01
3682=7.843275e-02
3683=2.130207e-02
3686=-1.214187e-01
3690=1.838133e-03
3691=1.222984e-04
3699=-5.941582e-04
3706=3.337430e-02
3714=-5.871171e-02
3715=1.174757e-01
3719=1.216952e-01
3722=6.340164e-02
3723=-3.642067e-02
3730=5.396996e-02
3731=-6.949185e-03
3738=3.337430e-02
3746=9.201518e-06
3754=5.396996e-02
3755=-6.949185e-03
3762=4.218743e-01
3763=-3.002358e-01
3768=-7.835620e-02
3770=4.805158e-02
3771=1.326947e-02
3774=-8.126940e-02
3778=2.316732e-02
3779=7.774015e-03
3783=2.167672e-03
3786=5.396996e-02
3787=-6.949185e-03
3794=-4.116290e-02
3795=3.106325e-02
3799=1.253719e-01
3802=-3.154426e-02
3803=1.226719e-01
3810=-2.259027e-01
3811=4.321241e-01
3812=2.183017e-01
3818=-4.116290e-02
3819=3.106325e-02
3823=1.253719e-01
3826=3.392673e-03
3827=-6.359441e-04
3834=2.202718e-02
3835=-2.503690e-02
3840=-5.531057e-02
3842=4.472320e-02
3843=3.408802e-02
3847=3.972723e-02
3850=1.049042e-02
3851=1.289607e-02
3855=6.243287e-04
3858=5.647744e-02
3859=-5.025287e-03
3863=8.020640e-02
3866=-1.581433e-02
3867=7.707413e-02
3874=-1.581433e-02
3875=7.707413e-02
3883=-3.471222e-04
3890=2.983259e-02
3891=1.322664e-02
3895=8.685752e-03
3898=4.398434e-03
3906=2.670458e-04
3907=2.465609e-02
3914=3.513298e-01
3915=-2.209564e-01
3922=2.879305e-03
3923=-4.686574e-03
3930=1.151451e-02
3931=-4.719057e-04
3933=5.759554e-02
3934=-2.742117e-02
3938=1.900890e-02
3939=-9.127111e-03
3946=-3.159094e-02
3947=8.482548e-02
3951=3.620724e-02
3954=1.151451e-02
3955=-4.719057e-04
3957=5.759554e-02
3958=-2.742117e-02
3962=-3.159094e-02
3963=8.482548e-02
3967=3.620724e-02
3970=-2.045083e-01
3971=1.484071e-01
3975=5.434328e-02
3978=2.823662e-02
3979=7.664350e-02
3980=-7.943542e-02
3987=3.911849e-02
3994=2.088810e-01
3995=-9.135917e-02
4002=-3.159094e-02
4003=8.482548e-02
4007=3.620724e-02
4010=-3.512455e-02
4011=2.492140e-01
4018=1.453113e-01
4019=-3.364627e-01
4027=5.118758e-02
4031=3.225440e-02
4034=8.414597e-04
4035=1.936137e-02
4042=1.453113e-01
4043=-3.364627e-01
4050=-4.271411e-02
4051=1.377149e-01
4058=8.414597e-04
4059=1.936137e-02
4066=-1.327517e-02
4067=2.304376e-02
4071=4.998379e-02
4074=-8.470479e-02
4075=1.302810e-01
4082=1.677790e-02
4083=4.114708e-02
4084=-3.914408e-02
4090=8.414597e-04
4091=1.936137e-02
4098=-3.000030e-02
4099=8.902214e-02
4106=-2.957781e-02
4107=8.948922e-02
4114=-1.691055e-01
4115=1.843122e-01
4122=-2.588296e-02
4123=7.910273e-02
4130=-3.138705e-02
4131=8.832065e-02
4138=-2.588296e-02
4139=7.910273e-02
4146=-8.354006e-02
4147=4.303414e-04
4154=-3.000030e-02
4155=8.902214e-02
4162=-2.882369e-02
4163=8.089599e-02
4170=-2.588296e-02
4171=7.910273e-02
4178=1.565399e-01
4179=-6.484018e-02
4186=1.669246e-01
4187=-3.759963e-02
4195=6.943859e-03
4197=1.741838e-01
4198=-2.471169e-01
4203=6.943859e-03
4205=1.741838e-01
4206=-2.471169e-01
4210=1.567345e-01
4211=-5.931189e-02
4218=-7.900341e-02
4219=7.233522e-02
4226=-4.145196e-02
4227=1.400324e-01
4228=1.162912e-03
4229=-2.797013e-04
4231=3.929062e-03
4234=-4.092797e-02
4235=1.772948e-01
4237=-1.741739e-03
4242=1.453138e-02
4243=6.392101e-02
4247=1.339696e-04
4251=6.943859e-03
4253=1.741838e-01
4254=-2.471169e-01
4258=1.439421e-02
4259=2.293255e-03
4266=1.330598e-02
4267=-2.109556e-03
4274=5.232172e-02
4275=-3.763558e-02
4282=5.050282e-02
4283=-3.418710e-02
4290=1.001435e-02
4291=-6.912055e-03
4298=5.050282e-02
4299=-3.418710e-02
4306=-3.070700e-02
4307=3.677115e-02
4314=1.407424e-02
4315=-1.249131e-02
4319=2.180324e-02
4322=-1.721204e-02
4323=8.807479e-02
4330=-3.475765e-01
4331=2.112167e-01
4338=5.050282e-02
4339=-3.418710e-02
4346=-5.125560e-02
4347=8.553656e-02
4354=-1.203397e-01
4355=1.304527e-01
4362=-3.374645e-01
4363=2.559948e-01
4367=3.190222e-02
4370=-1.203397e-01
4371=1.304527e-01
4378=-1.156113e-02
4379=4.651143e-02
4386=-7.690062e-02
4387=1.674266e-01
4391=1.904596e-01
4395=8.781001e-03
4400=-1.263554e-01
4402=-5.347914e-01
4403=-2.091359e-02
4404=1.572299e+00
4405=1.625374e-01
4406=2.036920e-01
4407=-5.244822e-02
4410=-1.555403e-01
4411=2.895503e-02
4414=4.905828e-02
4418=-1.452689e-01
4419=7.279855e-02
4420=7.786813e-02
4422=1.150475e-01
4426=-4.445369e-01
4427=-2.243474e-03
4429=3.128125e-01
4430=-3.185727e-01
4431=-2.114447e-03
4433=-3.643667e-03
4434=8.669615e-02
4435=-1.155115e-01
4436=2.741652e-01
4439=2.844327e-02
4442=-1.058692e-01
4444=7.994767e-01
4445=-8.017985e-04
4446=-1.125479e-01
4447=-3.283891e-03
4448=-1.613394e-02
4450=-3.129365e-01
4451=-1.472710e-01
4452=1.227907e-01
4453=6.941673e-02
4454=6.758136e-05
4455=6.637711e-03
4460=2.238433e-01
4492=2.355171e+00
4518=2.962288e-03
4534=8.217211e-04
4536=-1.990756e-02
4538=-2.547220e-01
4540=9.241578e-02
4541=1.242826e-01
4543=-4.380314e-02
4550=-1.145694e-02
4558=-3.106466e-03
4564=1.078881e-01
4565=1.610793e-01
4567=-1.683474e-02
4573=2.594565e-01
4574=-1.537094e-01
4582=-1.145694e-02
4589=2.594565e-01
4590=-1.537094e-01
4598=-1.145694e-02
4605=1.154059e-01
4606=7.614447e-02
4607=-1.981251e-02
4613=5.177165e-01
4614=2.694113e-05
4653=6.841354e-01
4654=1.621426e-02
4684=6.540405e-03
4685=1.482877e-01
4686=-4.352051e-02
4716=8.203201e-01
4725=1.055745e+00
4726=-3.428888e-02
4742=1.901524e-01
4748=7.131738e-02
4756=5.950848e-02
4757=2.354192e-01
4758=-4.804892e-02
4759=-1.970722e-03
4764=1.904035e-02
4765=3.090075e-01
4766=-1.179670e-01
4767=-1.320126e-03
4772=-1.033221e-02
4773=1.374032e-01
4775=-9.402908e-03
4778=-5.046426e-02
4779=-1.820355e-01
4780=7.429530e-02
4781=3.523757e-01
4782=-6.117226e-01
4783=-1.123454e-02
4789=2.594565e-01
4790=-1.537094e-01
4797=-1.880348e-02
4798=2.934554e-01
4805=-1.880348e-02
4806=2.934554e-01
4813=-1.880348e-02
4814=2.934554e-01
4821=-1.880348e-02
4822=2.934554e-01
4829=-1.880348e-02
4830=2.934554e-01
4837=-1.880348e-02
4838=2.934554e-01
4846=1.265660e-01
4852=-3.013590e-02
4854=1.597483e-01
4893=5.454419e-02
4894=6.022956e-03
4902=9.358333e-02
4923=4.923372e-03
4926=1.561084e-01
4955=8.678342e-02
4966=7.951814e-02
4974=1.691461e-01
4982=-1.371678e-02
4997=-1.880348e-02
4998=2.934554e-01
5003=8.784222e-01
5004=-2.657353e-01
5005=-3.636910e-02
5006=3.409694e-01
5013=-1.880348e-02
5014=2.934554e-01
5021=-1.880348e-02
5022=2.934554e-01
5027=-2.836512e-02
5029=-8.512604e-02
5030=3.272704e-01
5037=-1.880348e-02
5038=2.934554e-01
5042=1.701578e-02
5043=-6.025918e-02
5044=-2.629565e-01
5045=-5.224972e-02
5046=2.338357e+00
5053=-1.880348e-02
5054=2.934554e-01
5061=-1.880348e-02
5062=2.934554e-01
5069=-1.880348e-02
5070=2.934554e-01
5075=-2.893044e-02
5077=-1.794377e-02
5078=2.496588e-01
5083=-2.893044e-02
5085=-1.794377e-02
5086=2.496588e-01
5088=-8.254262e-03
5090=4.410516e-02
5091=-9.126065e-03
5093=1.100164e-01
5096=-8.254262e-03
5098=4.410516e-02
5099=-9.126065e-03
5101=1.100164e-01
5106=-1.038589e-02
5107=7.037350e-02
5114=1.371529e-01
5115=-3.128200e-02
5122=1.361128e-01
5123=-4.475778e-02
5130=1.393609e-02
5138=1.393609e-02
5146=3.208886e-01
5147=-9.457171e-02
5154=1.877795e-01
5155=-1.492529e-01
5162=-4.189446e-02
5163=5.597602e-04
5170=-1.387519e-01
5171=2.061656e-01
5178=-2.678407e-06
5179=1.734312e-03
5186=-7.531915e-05
5187=2.694165e-03
5192=-6.965110e-03
5194=-9.673442e-03
5195=7.224754e-02
5202=2.836901e-02
5203=-3.542973e-03
5210=3.195189e-01
5211=-3.259937e-01
5218=2.836901e-02
5219=-3.542973e-03
5226=-8.479761e-02
5227=1.058512e-01
5234=1.888854e-02
5235=-3.937994e-03
5242=6.422554e-05
5243=2.098363e-04
5250=2.749623e-03
5251=5.888516e-05
5258=-8.618686e-04
5259=3.132682e-03
5266=6.422554e-05
5267=2.098363e-04
5274=2.836901e-02
5275=-3.542973e-03
5282=4.457437e-02
5283=-1.335819e-02
5290=-1.015201e-02
5291=1.055052e-02
5298=-1.015201e-02
5299=1.055052e-02
5306=3.508064e-02
5307=-1.889590e-02
5314=2.818462e-01
5315=-4.147917e-01
5322=2.811265e-02
5323=-3.265392e-02
5330=-1.015201e-02
5331=1.055052e-02
5339=-5.884336e-05
5346=6.405155e-04
5354=7.274226e-02
5355=-5.953714e-02
5362=5.651184e-02
5363=-3.241343e-02
5367=1.023508e-02
5370=1.175091e-01
5371=-1.136869e+00
5378=2.753484e-03
5379=-6.315869e-05
5386=7.751067e-01
5387=-5.801122e-01
5394=5.548309e-01
5395=-3.126707e-01
5402=2.577496e-02
5403=-6.419896e-03
5410=3.093208e-04
5411=-2.675502e-04
5418=2.577496e-02
5419=-6.419896e-03
5426=2.172986e-01
5427=-2.074062e-01
5434=-1.470495e-03
5435=1.099189e-03
5442=2.944906e-01
5450=-1.483990e-02
5451=1.233170e+00
5456=-3.244784e-02
5458=1.556532e-01
5459=7.264032e-04
5466=-3.107020e-02
5467=3.263839e-02
5474=-3.107020e-02
5475=3.263839e-02
5482=-2.217869e-01
5483=3.047509e-01
5493=4.939759e-03
5498=-2.217869e-01
5499=3.047509e-01
5506=-3.520226e-02
5507=4.398231e-02
5514=-3.520226e-02
5515=4.398231e-02
5522=-8.133461e-03
5523=1.030771e-02
5530=-6.383981e-03
5531=6.701511e-04
5538=1.339098e-01
5544=-2.783745e-02
5546=-1.023895e-01
5547=2.653799e-01
5548=1.928502e-02
5557=4.122801e-03
5563=3.463425e-02
5564=2.436091e-01
5566=-2.679046e-02
5570=3.050563e-01
5571=-1.763404e-01
5581=4.122801e-03
5589=2.102073e-03
5597=2.761195e-02
5605=6.628317e-02
5613=2.761195e-02
5618=4.571887e-04
5619=1.402830e-02
5624=-4.700598e-03
5626=2.103295e-02
5627=-8.687836e-04
5634=4.571887e-04
5635=1.402830e-02
5642=2.578291e-02
5643=-7.408272e-03
5650=-4.768453e-03
5651=2.986358e-01
5658=5.732109e-02
5659=-2.282893e-02
5663=3.077959e-02
5666=-4.311237e-03
5667=3.274354e-01
5675=-1.789114e-03
5682=-3.186408e-01
5683=2.351289e-01
5687=2.929418e-02
5690=-3.186408e-01
5691=2.351289e-01
5695=2.929418e-02
5698=2.259886e-03
5699=-2.023800e-03
5706=6.180644e-03
5707=-6.023505e-03
5714=1.437749e-02
5715=-1.006063e-02
5719=2.162454e-02
5722=2.145845e-03
5730=1.465462e-04
5738=5.092507e-03
5739=-2.066608e-04
5746=9.069569e-03
5747=1.555218e-03
5751=2.389633e-02
5755=-1.911624e-02
5759=2.474939e-02
5762=8.737096e-03
5763=9.774016e-04
5767=3.028419e-02
5771=4.196211e-03
5778=-4.485847e-02
5779=3.563617e-02
5786=-4.329423e-01
5787=3.980701e-01
5794=9.694747e-03
5795=-1.536983e-01
5803=-5.640991e-02
5807=5.145943e-03
5810=-1.256778e-04
5811=-1.210094e-02
5819=-5.640991e-02
5823=5.145943e-03
5827=-2.534172e-01
5834=6.029772e-02
5835=-2.325663e-02
5842=-1.405086e-03
5843=3.887978e-02
5850=1.009422e-01
5851=-9.666658e-02
5858=-3.906832e-04
5859=2.389401e-03
5866=-3.906832e-04
5867=2.389401e-03
5874=-1.472150e-01
5875=1.179587e-01
5882=-2.480785e-01
5883=3.480178e-01
5890=-1.100030e-01
5891=1.702336e-01
5895=5.470005e-02
5898=-3.011678e-02
5899=5.295579e-02
5906=6.785625e-02
5907=-8.354820e-02
5914=4.501667e-02
5915=-3.982960e-02
5919=9.737122e-03
5922=-9.697138e-02
5923=1.334457e-01
5927=2.057641e-02
5930=1.820960e-01
5931=-1.390103e-01
5938=1.159249e-01
5939=-7.858350e-02
5946=9.628840e-03
5947=-8.336099e-03
5954=9.628840e-03
5955=-8.336099e-03
5962=-3.191152e-03
5963=5.070357e-03
5970=5.847898e-01
5971=-4.798707e-01
5978=-1.270668e-01
5979=2.888775e-01
5986=-1.097990e-01
5987=1.308560e-01
5994=-4.139358e-02
5995=1.106615e-01
6003=-3.156792e-02
6010=3.341273e-03
6018=3.341273e-03
6026=8.774412e-05
6034=7.449927e-01
6035=-3.211501e-01
6042=2.423892e-03
6043=-1.918430e-04
6050=-4.677515e-02
6051=3.753637e-02
6061=7.184175e-03
6069=7.184175e-03
6076=1.687296e-01
6084=1.687296e-01
6092=1.687296e-01
6098=6.018054e-03
6099=-2.791861e-02
6108=4.484740e-06
6114=-8.369274e-03
6115=1.822207e-02
6122=6.060224e-03
6123=-4.277095e-01
6130=6.060224e-03
6131=-4.277095e-01
6138=-7.764327e-02
6139=1.112224e-01
6146=2.809466e-02
6147=-1.661110e-01
6154=-7.920583e-02
6155=2.385243e-01
6162=-2.209055e-04
6163=1.553169e-04
6170=-1.352678e-02
6171=7.799276e-02
6178=4.419537e-01
6179=-2.717955e-01
6186=2.481009e-01
6187=-4.999327e-02
6194=8.667899e-02
6195=-2.619296e-02
6202=3.811834e-02
6203=-3.373465e-02
6210=-4.147921e-02
6211=4.507503e-02
6218=-9.172281e-03
6219=1.208195e-02
6226=2.997894e-01
6227=-1.898969e-01
6234=-3.708635e-03
6235=5.213976e-03
6242=-3.708635e-03
6243=5.213976e-03
6250=-1.705141e-01
6251=1.182285e-01
6258=1.109363e+00
6259=-7.183569e-01
6266=9.599315e-02
6267=-1.955304e-01
6271=2.571901e-02
6274=-6.741701e-01
6275=6.375087e-01
6279=2.362549e-02
6282=4.342152e-01
6283=-4.284184e-01
6290=-4.110406e-02
6291=4.380365e-02
6298=-1.649445e-01
6299=2.353475e-01
6340=7.687925e-01
6380=7.065800e-03
6381=-5.666048e-01
6382=1.062530e-01
6386=-1.621093e-03
6387=9.017368e-03
6395=5.101045e-03
6402=-7.631920e-04
6403=4.588909e-03
6410=-1.000802e-03
6411=4.637399e-03
6418=-2.314191e-03
6419=6.162525e-03
6426=-5.077702e-03
6427=5.347969e-03
6434=-7.631920e-04
6435=4.588909e-03
6442=-1.345087e-03
6443=4.613235e-03
6450=-1.608124e-01
6451=1.393484e-01
6455=6.775691e-02
6458=5.125712e-02
6459=-1.548150e-01
6463=8.558745e-02
6466=1.996266e-03
6467=-2.242039e-03
6474=1.418623e-05
6475=-1.465813e-05
6482=-1.012428e-01
6483=1.199423e-01
6490=3.037081e-04
6491=-8.448938e-04
6498=2.506648e-03
6499=-1.670892e-03
6506=1.093460e-02
6507=-2.369676e-03
6514=3.730977e-02
6515=-7.461799e-03
6522=-1.909914e-04
6523=6.320354e-04
6530=-1.328948e-01
6531=9.191391e-03
6538=4.223240e-02
6539=-2.838111e-02
6546=-1.328948e-01
6547=9.191391e-03
6554=-1.041121e-01
6555=1.254733e-02
6562=-1.328948e-01
6563=9.191391e-03
6570=1.304562e-04
6578=2.358588e-02
6579=-8.672047e-03
6586=7.733137e-02
6594=2.405386e-02
6595=-1.203047e-02
6603=1.207675e-04
6611=1.940835e-04
6618=-2.329287e-06
6619=5.278883e-02
6626=2.524556e-04
6627=4.698028e-03
6634=2.524556e-04
6635=4.698028e-03
6642=4.917977e-02
6650=-3.426511e-02
6651=3.438924e-02
6658=-1.476745e-03
6659=2.635331e-02
6666=-2.329287e-06
6667=5.278883e-02
6674=1.844952e-02
6682=2.935737e-02
6690=1.620284e+00
6691=-1.158050e+00
6698=1.345563e-02
6699=-6.575064e-03
6706=3.190107e-01
6707=-1.239757e-01
6714=2.299262e-01
6715=-1.552457e-01
6722=3.970913e-01
6723=-2.356126e-01
6730=1.762733e-01
6731=-1.478529e-01
6738=4.465121e-01
6739=-3.688149e-01
6746=6.997458e-01
6747=-5.153379e-01
6754=-1.112503e-02
6755=1.143099e-02
6762=-1.335850e-02
6763=4.955538e-02
6770=-1.825856e-01
6771=1.142390e-01
6778=7.015272e-01
6779=-6.050826e-01
6786=3.526080e-02
6787=-2.802614e-02
6794=-1.447281e-05
6795=1.534671e-05
6802=-9.065182e-02
6803=1.057584e-01
6810=-9.065182e-02
6811=1.057584e-01
6818=-1.177145e-01
6819=6.750385e-01
6826=1.830189e-04
6827=-4.625063e-03
6834=2.253396e-02
6842=2.805282e-02
6843=-5.186814e-02
6850=-9.565491e-02
6851=1.224818e-01
6858=1.395535e-01
6859=-3.036580e-01
6866=1.395535e-01
6867=-3.036580e-01
6874=2.112951e-01
6875=-5.791428e-02
6882=-6.692721e-03
6883=1.806665e-03
6890=-7.432373e-03
6891=1.167810e-02
6898=-1.238157e-01
6899=5.496783e-02
6906=4.974081e-01
6907=-2.264180e-01
6914=-2.350412e-02
6915=6.912083e-03
6922=-1.145594e-01
6923=1.167508e-01
6930=-1.418697e-01
6931=1.004011e-01
6938=-1.308506e-01
6939=9.259272e-02
6946=-1.308506e-01
6947=9.259272e-02
6954=-1.715948e-01
6955=8.446016e-02
6962=-4.179438e-01
6963=7.511653e-01
6970=1.390750e-04
6971=-1.899123e-02
6975=2.236436e-02
6979=1.386556e-02
6989=7.095041e-02
6990=-4.932604e-02
6994=1.783167e-02
6995=-3.555413e-02
7002=5.847717e-02
7003=-4.753336e-01
7004=9.869552e-03
7005=6.008914e-04
7007=3.606130e-03
7010=-3.566637e-01
7011=1.324836e-01
7015=2.074055e-02
7019=-3.193746e-04
7021=2.159059e-03
7026=2.206501e-01
7027=-1.139147e+00
7028=2.313766e-03
7034=2.206501e-01
7035=-1.139147e+00
7036=2.313766e-03
7043=-1.542729e-02
7050=-6.521870e-02
7051=1.071743e-01
7058=-6.521870e-02
7059=1.071743e-01
7066=-1.405708e-02
7068=-2.400369e-02
7071=3.176342e-03
7074=-6.521870e-02
7075=1.071743e-01
7142=1.133598e+00
7154=2.659997e-02
7162=9.990882e-04
7170=2.659997e-02
7178=2.584926e-02
7186=1.480023e-03
7187=-4.240028e-04
7194=7.931135e-04
7195=5.435729e-03
7196=-2.241616e-02
7199=8.310852e-04
7202=1.846026e-02
7204=-3.815679e-01
7210=-1.370209e-01
7211=1.013480e-01
7215=1.798079e-02
7218=1.111514e-02
7219=-2.088805e-03
7226=3.567780e-02
7250=5.524777e-02
7286=9.652870e-02
7298=2.856130e-03
7306=2.805111e-03
7314=-9.045603e-03
7315=8.829828e-03
7319=3.603384e-02
7322=-2.704074e-02
7323=1.855588e-02
7330=-2.704074e-02
7331=1.855588e-02
7338=6.841576e-03
7339=-1.059131e-02
7343=1.690575e-02
7346=2.794480e-01
7349=-3.201816e-01
7350=1.079951e-02
7354=8.262351e-03
7355=-6.607696e-03
7362=8.353563e-03
7363=-6.624896e-03
7369=-1.731840e-02
7370=4.602995e-01
7378=-8.567816e-02
7383=1.331536e-01
7386=1.876196e-02
7387=-1.827729e-02
7394=1.876196e-02
7395=-1.827729e-02
7402=1.875116e-02
7403=-1.827922e-02
7410=1.972908e-02
7411=-1.926641e-02
7418=1.875116e-02
7419=-1.827922e-02
7426=1.883621e-02
7427=-1.835206e-02
7434=3.006485e-02
7435=-2.561418e-02
7442=3.006485e-02
7443=-2.561418e-02
7450=3.088926e-02
7451=-2.566438e-02
7458=3.675973e-02
7459=-3.100404e-02
7466=3.006485e-02
7467=-2.561418e-02
7474=2.974510e-02
7475=-2.540102e-02
7482=3.126414e-02
7483=-2.596433e-02
7490=2.222012e-01
7491=-2.146574e-01
7498=2.436037e-01
7499=-2.216921e-01
7506=1.810419e-01
7507=-1.559668e-01
7514=1.749145e-01
7515=-1.548811e-01
7522=1.504134e-01
7523=-1.466191e-01
7530=1.697922e-02
7531=-6.283302e-03
7538=4.894749e-04
7539=-2.551775e-04
7546=1.697922e-02
7547=-6.283302e-03
7554=2.459591e-03
7555=-1.798821e-03
7562=1.683187e-01
7563=-1.685234e-01
7570=1.697922e-02
7571=-6.283302e-03
7578=-9.764998e-02
7579=1.159193e-01
7586=-9.764998e-02
7587=1.159193e-01
7594=-2.751182e-02
7595=3.303750e-02
7602=-2.427079e-02
7603=2.884948e-02
7610=5.120854e-02
7611=-5.050075e-02
7618=-5.842414e-01
7619=6.515006e-01
7626=-9.633584e-02
7627=1.120524e-01
7634=-2.593257e-02
7635=1.220754e-02
7643=-1.646040e-01
7653=3.652258e-01
7654=-5.567429e-02
7661=3.652258e-01
7662=-5.567429e-02
7669=8.100494e-01
7670=-2.311918e-01
7677=8.959840e-02
7698=8.418472e-02
7707=1.175150e-03
7718=7.127016e-02
7726=2.141653e-01
7743=1.006603e-01
7747=-3.997129e-02
7749=3.121405e-01
7750=-1.412660e-01
7751=2.742493e-02
7754=4.426019e-03
7755=-4.001962e-01
7759=6.307930e-04
7778=4.490667e-01
7779=-7.395791e-01
7787=1.597919e-04
7805=7.210443e-04
7814=2.629981e-01
7823=3.602505e-02
7826=-1.814728e-01
7827=-6.223909e-03
7829=-8.582994e-01
7830=6.235514e-01
7831=4.638628e-02
7834=-8.628405e-02
7835=2.755293e-02
7842=-6.563263e-01
7843=1.002717e+00
7848=1.330887e-03
7858=1.073967e-04
7866=-7.743328e-03
7867=2.399092e-02
7874=-1.641073e-01
7875=2.767939e-02
7882=-9.695033e-02
7883=7.469529e-02
7890=-2.342208e-01
7891=2.644044e-02
7898=-1.091203e-02
7906=-2.401693e-02
7907=1.795992e-02
7914=-2.401693e-02
7915=1.795992e-02
7923=2.200625e-02
7930=1.879256e-02
7931=-1.286302e-02
7938=-5.296995e-03
7939=2.331298e-02
7946=-5.296995e-03
7947=2.331298e-02
7954=4.537445e-03
7955=-8.236135e-04
7962=-2.108310e-02
7963=2.270743e-02
7970=5.748500e-02
7971=-6.848198e-04
7978=1.666189e-01
7986=3.385716e-02
7994=9.366850e-02
7995=-1.290894e-03
8002=9.366850e-02
8003=-1.290894e-03
8010=2.190375e-01
8019=1.623879e-03
8027=1.002610e-03
8034=6.919681e-02
8042=2.140936e-02
8051=1.850846e-03
8058=1.247850e-02
8066=1.256683e-03
8074=5.664384e-04
8084=1.439122e-03
8087=1.047867e-02
8090=7.515708e-04
8091=-2.114924e-02
8095=5.075479e-02
8098=4.897398e-01
8099=-3.686880e-01
8106=-7.440881e-03
8107=5.358308e-02
8114=-3.037359e-01
8115=6.913789e-01
8122=-4.416468e-02
8123=2.084376e-02
8130=-6.415244e-03
8131=1.203658e-01
8138=-2.415713e-02
8139=1.093164e-02
8146=-2.403077e-01
8147=2.876935e-01
8154=-2.403077e-01
8155=2.876935e-01
8162=-4.706648e-01
8163=1.463599e+00
8171=1.909192e-01
8179=4.769239e-01
8186=-3.241797e-02
8187=1.324229e-01
8195=-6.476234e-04
8203=-6.476234e-04
8210=-8.862404e-03
8218=2.952435e-02
8219=-1.417582e-02
8226=1.496455e-04
8250=1.348040e-03
8251=3.234114e-01
8259=-8.870709e-05
8270=2.874775e-02
8298=2.694720e-01
8299=-2.354571e-01
8306=2.212551e-02
8307=-1.903637e-02
8314=-9.170403e-04
8315=9.526140e-04
8322=4.001661e-02
8323=-2.381524e-01
8330=2.188090e-01
8331=-2.160748e-01
8338=-3.806959e-03
8339=5.259542e-03
8346=-3.806959e-03
8347=5.259542e-03
8354=-1.742165e-02
8355=2.620474e-02
8362=-5.253007e-02
8363=6.577271e-02
8370=5.863939e-02
8371=-4.651783e-02
8378=5.863939e-02
8379=-4.651783e-02
8386=5.863939e-02
8387=-4.651783e-02
8394=3.794864e-03
8395=-2.690388e-03
8403=-3.887152e-04
8410=7.928880e-02
8411=-6.330904e-02
8418=-1.027831e-01
8419=8.725368e-02
8426=1.597372e-01
8427=-3.237159e-01
8431=4.374310e-02
8434=1.455931e-01
8435=-1.187715e-01
8442=-6.857830e-02
8443=8.947757e-02
8450=-1.121239e-01
8451=8.414385e-02
8458=-2.716345e-01
8459=3.531536e-02
8466=-1.405291e-02
8467=1.352845e-02
8471=4.229706e-02
8474=-6.654914e-02
8475=7.873648e-02
8482=-6.602946e-02
8483=2.612409e-02
8487=4.326586e-02
8490=1.150304e-02
8491=-2.561356e-01
8495=1.666903e-02
8498=2.802273e-04
8499=-2.738233e-01
8503=1.501794e-01
8506=1.738534e-04
8507=4.431128e-03
8514=4.417935e-01
8515=-3.811194e-01
8522=-3.830729e-05
8523=4.478968e-04
8530=-2.971378e-04
8531=1.078300e-02
8538=-4.090282e-02
8539=4.356467e-02
8546=-6.296210e-03
8547=4.748164e-03
8554=2.949604e-01
8555=-2.217102e-01
8563=3.185725e-03
8571=3.185725e-03
8578=-3.988730e-01
8579=1.250557e-01
8586=-6.706296e-04
8587=1.924730e-03
8594=-4.142871e-01
8595=4.896508e-01
8602=-4.142871e-01
8603=4.896508e-01
8610=-4.031572e-01
8611=1.260130e-01
8618=-3.293148e-01
8619=2.559364e-01
8626=-1.182316e-01
8627=2.430781e-02
8634=-6.126970e-03
8646=6.881037e-02
8656=3.941226e-03
8722=-6.126970e-03
8730=-6.126970e-03
8738=-6.126970e-03
8746=-6.126970e-03
8754=-6.126970e-03
8762=-6.126970e-03
8770=-6.126970e-03
8778=-6.361993e-03
8786=-6.126970e-03
8795=2.277524e-02
8802=-3.093602e-05
8803=2.489395e-02
8810=7.706829e-02
8811=-1.199170e-02
8818=9.483419e-02
8819=-4.910105e-02
8826=1.181399e-01
8827=-9.119249e-03
8834=1.181399e-01
8835=-9.119249e-03
8843=2.101525e-03
8844=-2.524711e-02
8845=8.555226e-03
8850=-4.271186e-01
8851=4.965972e-01
8858=-1.262322e-01
8859=2.147686e-01
8866=-2.121930e-01
8867=4.512696e-01
8874=-3.703756e-03
8875=4.554172e-03
8882=-5.181216e-01
8883=9.739289e-02
8890=4.455919e-01
8891=-3.881373e-01
8898=3.660691e-01
8899=-3.059838e-01
8906=2.718793e-01
8907=-2.309976e-01
8914=2.214323e-01
8915=-1.762299e-01
8922=-1.979820e-02
8923=3.887330e-02
8930=-2.066476e-01
8931=1.989103e-01
8938=-8.991935e-02
8947=-5.848134e-04
8958=1.564274e-01
8962=2.655925e-03
8963=-9.953952e-02
8973=-3.676303e-04
8974=1.265090e-01
8978=3.786684e-03
8979=-2.057677e-01
8991=4.818453e-04
8994=-1.714097e-02
8995=1.810137e-02
9002=4.442399e-03
9003=-1.084435e-03
9010=-3.797758e-03
9011=1.024074e-02
9018=1.356366e-04
9027=1.280507e-03
9034=1.025940e-02
9035=-6.791480e-03
9042=9.020778e-01
9043=-7.939948e-01
9051=3.640230e-03
9059=3.062283e-03
9066=-6.676369e-02
9067=8.179709e-02
9074=-5.880948e-02
9075=4.751294e-02
9082=1.846676e-03
9090=1.145641e+00
9091=-9.015650e-01
9098=-6.855041e-02
9099=1.648926e-01
9106=9.150132e-02
9107=-5.280058e-02
9114=6.309045e-01
9115=-4.049389e-01
9122=2.483886e-02
9123=-1.984346e-02
9130=-2.927648e-01
9131=2.843495e-01
9143=2.190652e-02
9146=1.358528e-02
9147=-5.141671e-03
9154=5.349617e-05
9155=-1.603519e-04
9162=-3.779487e-03
9163=3.797914e-03
9170=2.098866e-03
9171=-4.008354e-03
9178=3.413341e-03
9179=-1.840517e-03
9186=3.578873e-03
9187=1.016961e-04
9194=2.361913e-03
9195=-3.276472e-03
9202=2.514114e-02
9203=-7.338958e-03
9211=1.396513e-03
9219=2.385391e-04
9227=2.385391e-04
9234=4.167891e-01
9235=-3.190243e-01
9242=8.459271e-03
9243=-1.843790e-04
9250=1.396833e-02
9251=-6.576029e-03
9258=1.180373e-02
9259=-1.417229e-03
9266=1.180373e-02
9267=-1.417229e-03
9274=1.128046e-02
9275=-2.410021e-03
9282=6.111340e-02
9283=-1.323029e-02
9290=3.363014e-01
9291=-2.167451e-01
9298=1.384641e-03
9299=-8.350311e-04
9306=5.664047e-03
9307=-7.334611e-04
9314=2.592876e-01
9315=-2.256282e-01
9322=3.815291e-01
9323=-3.104980e-01
9330=2.416408e-01
9331=-2.444827e-01
9338=3.610975e-02
9339=-5.209030e-03
9346=4.183964e-01
9347=-3.124919e-01
9355=5.846749e-05
9362=-4.504183e-03
9363=5.406455e-03
9370=-2.199677e-01
9371=7.762780e-01
9378=-1.660085e-04
9379=7.986905e-04
9386=3.746749e-02
9387=-2.803357e-01
9388=1.754819e-02
9396=1.441661e-02
9404=9.737884e-03
9410=-5.520832e-02
9411=5.507665e-02
9418=4.912184e-03
9426=-1.619306e-03
9427=1.898699e-03
9434=1.024989e+00
9435=-5.204999e-01
9442=1.303744e-04
9443=-3.034552e-04
9450=-2.028510e-01
9451=3.472197e-01
9458=1.739854e-03
9466=3.644461e-04
9467=-1.954135e-02
9474=-2.375162e-03
9475=2.938522e-02
9482=-2.375162e-03
9483=2.938522e-02
9492=6.616148e-03
9498=1.071117e-03
9499=-4.498790e-03
9506=6.472341e-02
9507=-1.169448e-01
9516=5.440600e-03
9522=1.687291e-03
9523=-1.684922e-03
9530=-7.152645e-02
9531=7.364341e-02
9538=1.697934e-01
9539=-1.471761e-01
9546=4.594620e-01
9547=-3.124435e-01
9554=-9.351598e-02
9555=1.492269e-01
9562=-4.293608e-03
9563=1.922125e-03
9570=7.441143e-01
9571=-6.668052e-01
9578=3.680575e-02
9579=-2.789315e-02
9586=2.920941e-04
9594=1.749116e-02
9595=-3.195829e-03
9602=9.587590e-03
9603=-3.913920e-03
9610=-1.222266e+00
9611=1.451739e+00
9618=-5.120289e-02
9619=7.835229e-02
9628=2.077080e-01
9632=1.189405e-02
9642=-1.126847e-01
9643=3.333674e-02
9650=-6.853426e-02
9651=2.694039e-02
9658=-5.769823e-01
9659=3.803736e-01
9667=4.601799e-03
9674=-2.521057e-01
9675=3.904573e-01
9682=2.197001e-02
9683=-7.196669e-03
9690=7.913900e-02
9691=-2.228122e-02
9698=7.913900e-02
9699=-2.228122e-02
9706=2.641648e-03
9707=-5.538836e-05
9714=1.954766e-03
9715=-8.783376e-02
9723=-1.959706e-03
9730=4.735830e-01
9731=-1.168020e+00
9741=7.690836e-03
9749=4.604537e-03
9757=1.173648e-02
9762=-2.955080e-01
9763=6.816717e-01
9770=-5.607964e-01
9771=9.566899e-01
9773=2.633247e-02
9778=-4.313020e-02
9779=9.870077e-02
9788=3.177886e-02
9795=9.731201e-03
9802=8.335338e-05
9803=-9.889888e-04
9810=-1.115351e-03
9811=1.090101e-02
9818=-6.659228e-01
9819=1.232181e+00
9826=8.046041e-04
9827=-7.492065e-04
9834=7.116997e-02
9835=-5.287456e-02
9842=7.647042e-02
9843=-3.836577e-02
9850=-3.614784e-02
9851=4.667723e-02
9858=1.558541e-01
9859=-1.053741e-01
9866=-3.271856e-02
9867=4.300956e-02
9874=-3.271856e-02
9875=4.300956e-02
9882=1.652349e-02
9883=-6.818531e-02
9890=8.130562e-04
9891=-1.645721e-04
9898=1.213368e-01
9899=-2.569834e-01
9906=-1.278103e-01
9907=5.405207e-02
9914=-2.002535e-01
9915=8.255661e-02
9922=-1.278103e-01
9923=5.405207e-02
9930=-2.434649e-01
9931=3.164029e-01
9938=-1.278103e-01
9939=5.405207e-02
9946=-1.862985e-02
9947=2.328501e-02
9954=-2.252047e-01
9955=4.803765e-02
9962=-1.510264e-01
9963=1.038676e-01
9970=-9.622694e-03
9971=1.185788e-02
9978=-6.439695e-06
9979=6.445209e-04
9986=8.704644e-05
9994=1.839752e-01
9995=-1.936697e-01
10002=3.728988e-03
10003=-9.042047e-04
10010=-3.349630e-02
10011=7.262819e-03
10018=-1.289775e-01
10019=1.209338e-01
10026=1.176805e-03
10034=9.403118e-03
10035=-1.772788e-03
10042=1.403572e-02
10043=-6.255109e-03
10050=9.656194e-03
10051=-6.425576e-04
10058=-5.810084e-02
10059=5.406132e-02
10066=-7.880779e-03
10067=9.763169e-03
10075=-7.486564e-01
10079=2.687047e-02
10082=-5.429098e-01
10083=3.071883e-02
10087=3.965971e-02
10090=-2.851584e-01
10091=4.351474e-01
10098=-3.064288e-01
10099=3.913680e-01
10106=-1.851705e-03
10107=1.314121e-02
10114=-4.338321e-03
10122=3.696856e-02
10123=-4.784003e-02
10130=1.801418e-02
10131=-5.059078e-03
10138=1.801418e-02
10139=-5.059078e-03
10146=1.801418e-02
10147=-5.059078e-03
10154=-2.224314e-02
10155=1.481094e-03
10162=2.480792e-03
10170=1.782568e-01
10171=-1.106068e-01
10178=1.118407e-01
10179=-7.022354e-02
10186=-6.057679e-01
10187=6.622990e-01
10194=2.148008e-03
10195=-4.040103e-04
10202=2.233044e-03
10210=-2.767449e-02
10211=5.399324e-02
10218=-2.767449e-02
10219=5.399324e-02
10226=-5.674542e-02
10227=5.681058e-02
10234=-2.767449e-02
10235=5.399324e-02
10242=-2.767449e-02
10243=5.399324e-02
10250=-2.767449e-02
10251=5.399324e-02
10258=-1.281655e-01
10259=5.406412e-01
10266=8.590000e-01
10267=-6.061439e-01
10276=2.446990e-03
10282=-4.995684e-01
10283=6.224784e-01
10290=-7.038848e-02
10291=7.392620e-02
10298=-5.367251e-01
10299=6.766224e-01
10306=-2.188357e-01
10307=3.557007e-01
10314=9.726959e-04
10322=-3.336015e-02
10323=3.720272e-02
10330=1.313139e+00
10331=-1.374268e+00
10332=2.535051e-03
10339=-5.929578e-02
10346=-1.535422e-02
10347=1.915582e-02
10354=5.334601e-01
10355=-4.325936e-01
10362=-2.767014e-02
10363=3.101350e-02
10370=-2.198094e-02
10371=3.207034e-02
10378=1.055481e-01
10379=-1.589486e-02
10386=5.106099e-03
10387=-5.245106e-03
10394=3.843787e-01
10395=-3.537423e-01
10402=6.937751e-01
10403=-5.992128e-01
10411=-1.568675e-03
10418=-5.140946e-01
10419=8.213867e-01
10426=-4.495170e-03
10427=4.929941e-03
10434=-8.185987e-04
10435=1.478874e-03
10442=-8.223819e-03
10443=9.173024e-03
10450=-8.523137e-04
10451=8.292343e-04
10458=1.719650e-01
10459=-1.342265e-01
10466=9.111359e-01
10467=-6.000609e-01
10474=4.097109e-05
10475=-3.947966e-05
10482=-6.035416e-05
10490=-4.248881e-02
10491=4.727465e-02
10498=-9.700581e-05
10499=6.433341e-04
10506=1.417090e-04
10507=-9.949940e-05
10514=2.382691e-06
10515=-1.218887e-04
10522=-8.811430e-04
10523=1.078606e-03
10530=-5.801065e-04
10531=7.746118e-04
10538=5.025505e-03
10539=-2.782156e-03
10546=-1.039397e-02
10547=2.525345e-02
10554=1.115518e-02
10555=-1.862104e-03
10562=4.314482e-01
10563=-1.039311e-01
10570=2.150199e-01
10571=-3.209710e-02
10578=-4.824766e-02
10579=7.182467e-02
10586=-4.927682e-02
10587=7.391052e-02
10594=-3.131444e-02
10595=5.056555e-02
10602=-8.113946e-02
10603=9.033475e-02
10610=-8.113946e-02
10611=9.033475e-02
10618=-7.976838e-02
10619=8.824890e-02
10626=-3.269505e-02
10627=5.102637e-02
10634=-3.184043e-02
10635=3.437722e-02
10642=-5.951946e-02
10643=6.509645e-02
10650=-5.951946e-02
10651=6.509645e-02
10658=-4.234044e-02
10659=4.598238e-02
10666=-1.410648e-01
10667=1.711800e-01
10674=-6.247618e-01
10675=8.266180e-01
10682=-1.204272e-02
10683=8.139235e-02
10690=8.383947e-04
10691=-1.292507e-03
10698=2.483724e-04
10699=-1.183383e-04
10706=1.794267e-01
10707=-1.714504e-01
10714=3.442563e-02
10715=-3.152222e-02
10722=9.708333e-02
10723=-5.971267e-02
10730=2.042881e-02
10731=-6.023357e-02
10738=-3.380479e-01
10739=4.229920e-01
10746=-3.931623e-02
10747=6.688883e-02
10754=2.085430e-02
10755=-1.752820e-02
10762=2.650570e-02
10763=-2.328189e-02
10770=1.271744e-01
10771=-7.735399e-02
10778=-2.468803e-03
10779=3.136345e-03
10786=-2.402702e-01
10787=3.579328e-01
10794=-4.708123e-03
10795=8.007517e-03
10802=8.325509e-04
10803=-3.683851e-04
10810=-2.194475e-01
10811=1.923465e-01
10818=3.862993e-03
10826=-3.273933e-02
10827=3.251033e-02
10834=-3.224844e-02
10835=2.642430e-02
10842=3.067888e-01
10843=-1.583111e-01
10850=-2.992328e-01
10851=3.580487e-01
10858=3.067888e-01
10859=-1.583111e-01
10866=3.067888e-01
10867=-1.583111e-01
10874=6.028702e-04
10875=-1.344431e-02
10882=6.028702e-04
10883=-1.344431e-02
10890=5.988914e-03
10891=-4.369326e-03
10898=2.179169e-03
10899=-2.104637e-03
10906=2.133235e-03
10907=-2.066977e-03
10914=2.179169e-03
10915=-2.104637e-03
10922=2.179169e-03
10923=-2.104637e-03
10930=-1.265972e-01
10931=2.336962e-01
10939=-3.831179e-03
10946=2.179169e-03
10947=-2.104637e-03
10954=5.000099e-03
10955=-4.871665e-03
10962=5.000099e-03
10963=-4.871665e-03
10970=4.978864e-03
10971=-4.838698e-03
10978=1.265089e-02
10979=-2.402050e-02
10986=6.572689e-03
10987=-6.329023e-03
10994=4.978864e-03
10995=-4.838698e-03
11002=4.978864e-03
11003=-4.838698e-03
11010=-5.836742e-01
11011=6.659484e-01
11018=-5.839326e-01
11019=6.784975e-01
11027=-2.185948e-01
11028=5.343741e-01
11036=1.167306e-01
11042=-5.822561e-02
11043=4.592494e-02
11050=5.201322e-03
11059=2.503960e-04
11060=-3.259397e-03
11066=5.636994e-01
11067=-4.439184e-01
11074=1.048267e+00
11075=-8.769917e-01
11083=1.349720e-02
11090=-8.452864e-06
11091=9.053451e-06
11098=2.262394e-01
11099=-1.884609e-01
11108=6.645946e-03
11114=7.899987e-03
11115=-3.666777e-03
11122=7.059732e-01
11123=-2.575562e-01
11131=-1.902910e-04
11138=6.684055e-02
11139=-8.416252e-02
11146=2.376715e-01
11147=-2.804661e-01
11154=7.710245e-02
11155=-1.344616e-02
11162=3.802034e-04
11163=-4.478183e-04
11170=1.524203e-01
11171=-1.830495e-01
11178=7.111961e-02
11179=-1.246785e-02
11186=1.897635e-05
11187=-1.344168e-05
11194=1.241664e-01
11195=-1.652247e-01
11202=1.209396e-02
11203=-1.599237e-02
11210=6.818440e-02
11211=-1.218720e-02
11218=1.259246e-02
11219=-1.385592e-01
11226=1.767519e-05
11227=-1.106977e-05
11234=-6.334073e-02
11235=7.106875e-02
11242=-6.308264e-02
11243=6.880282e-02
11250=-1.614570e-01
11251=1.882940e-01
11258=-8.011353e-02
11259=1.613891e-01
11266=-4.155300e-01
11267=1.119708e+00
11274=7.845739e-03
11275=-5.732080e-03
11283=-6.999287e-02
11290=1.023491e-02
11291=-1.015876e-02
11298=9.448181e-02
11299=-7.404891e-02
11306=8.305182e-01
11307=-6.715945e-01
11314=-1.270731e-02
11315=1.086528e-01
11322=-5.013116e-02
11323=4.020198e-02
11330=-5.013116e-02
11331=4.020198e-02
11338=-9.985169e-02
11339=7.808935e-02
11346=-5.013116e-02
11347=4.020198e-02
11354=-4.364930e-02
11355=4.093664e-02
11362=-9.472523e-02
11363=7.245391e-02
11371=1.753016e-04
11411=6.598825e-03
11451=2.430585e-05
11461=-1.820290e-02
11462=5.158274e-02
11466=-5.535963e-02
11467=6.068919e-02
11474=-5.905946e-01
11475=8.028242e-01
11482=3.159198e-04
11483=-3.077116e-04
11490=-2.315580e-02
11491=1.729398e-02
11498=-8.157731e-02
11499=1.247205e-01
11506=-9.211244e-02
11507=1.192449e-01
11514=1.785491e-03
11515=-1.725148e-03
11522=6.607315e-03
11523=-1.672149e-03
11527=5.345220e-02
11530=3.732637e-06
11531=-3.315474e-06
11538=-3.370341e-01
11539=2.659603e-01
11543=5.269920e-02
11546=-1.200441e-01
11547=8.001719e-02
11554=-3.224107e-01
11555=3.566101e-01
11562=-3.224107e-01
11563=3.566101e-01
11570=1.955728e-01
11571=-2.255777e-01
11578=-4.244041e-03
11579=1.194297e-02
11588=2.305349e-02
11594=4.795841e-02
11595=-1.323496e-01
11602=2.177760e-02
